<?xml version="1.0"?>
<MethodSetup Method="MLP::MLP">
  <GeneralInfo>
    <Info name="TMVA Release" value="4.2.0 [262656]"/>
    <Info name="ROOT Release" value="5.28/00 [334848]"/>
    <Info name="Creator" value="han"/>
    <Info name="Date" value="Tue Dec  7 18:52:03 2021"/>
    <Info name="Host" value="Linux sukla01 3.10.0-327.36.3.el7.x86_64 #1 SMP Thu Oct 20 04:56:07 EDT 2016 x86_64 x86_64 x86_64 GNU/Linux"/>
    <Info name="Dir" value="/disk02/calib3/usr/han/mc/random"/>
    <Info name="Training events" value="3919388"/>
    <Info name="TrainingTime" value="3.36355423e+04"/>
    <Info name="AnalysisType" value="Classification"/>
  </GeneralInfo>
  <Options>
    <Option name="NCycles" modified="Yes">300</Option>
    <Option name="HiddenLayers" modified="Yes">N+1,N-1</Option>
    <Option name="NeuronType" modified="Yes">sigmoid</Option>
    <Option name="RandomSeed" modified="No">1</Option>
    <Option name="EstimatorType" modified="Yes">CE</Option>
    <Option name="NeuronInputType" modified="No">sum</Option>
    <Option name="V" modified="Yes">True</Option>
    <Option name="VerbosityLevel" modified="No">Verbose</Option>
    <Option name="VarTransform" modified="Yes">N</Option>
    <Option name="H" modified="Yes">True</Option>
    <Option name="CreateMVAPdfs" modified="No">False</Option>
    <Option name="IgnoreNegWeightsInTraining" modified="No">False</Option>
    <Option name="TrainingMethod" modified="No">BP</Option>
    <Option name="LearningRate" modified="No">2.000000e-02</Option>
    <Option name="DecayRate" modified="No">1.000000e-02</Option>
    <Option name="TestRate" modified="Yes">5</Option>
    <Option name="EpochMonitoring" modified="No">False</Option>
    <Option name="Sampling" modified="No">1.000000e+00</Option>
    <Option name="SamplingEpoch" modified="No">1.000000e+00</Option>
    <Option name="SamplingImportance" modified="No">1.000000e+00</Option>
    <Option name="SamplingTraining" modified="No">True</Option>
    <Option name="SamplingTesting" modified="No">False</Option>
    <Option name="ResetStep" modified="No">50</Option>
    <Option name="Tau" modified="No">3.000000e+00</Option>
    <Option name="BPMode" modified="No">sequential</Option>
    <Option name="BatchSize" modified="No">-1</Option>
    <Option name="ConvergenceImprove" modified="No">1.000000e-30</Option>
    <Option name="ConvergenceTests" modified="No">-1</Option>
    <Option name="UseRegulator" modified="Yes">True</Option>
    <Option name="UpdateLimit" modified="No">10000</Option>
    <Option name="CalculateErrors" modified="No">False</Option>
    <Option name="WeightRange" modified="No">1.000000e+00</Option>
  </Options>
  <Variables NVar="12">
    <Variable VarIndex="0" Expression="NHits" Label="NHits" Title="NHits" Unit="" Internal="NHits" Type="F" Min="4.00000000e+00" Max="9.29000000e+02"/>
    <Variable VarIndex="1" Expression="N200" Label="N200" Title="N200" Unit="" Internal="N200" Type="F" Min="7.00000000e+00" Max="1.42000000e+03"/>
    <Variable VarIndex="2" Expression="TRMS" Label="TRMS" Title="TRMS" Unit="" Internal="TRMS" Type="F" Min="1.13287652e+00" Max="9.04657734e+04"/>
    <Variable VarIndex="3" Expression="Beta1" Label="Beta1" Title="Beta1" Unit="" Internal="Beta1" Type="F" Min="-3.31758022e-01" Max="9.99759197e-01"/>
    <Variable VarIndex="4" Expression="Beta5" Label="Beta5" Title="Beta5" Unit="" Internal="Beta5" Type="F" Min="-3.02509546e-01" Max="9.96392131e-01"/>
    <Variable VarIndex="5" Expression="OpeningAngleMean" Label="OpeningAngleMean" Title="OpeningAngleMean" Unit="" Internal="OpeningAngleMean" Type="F" Min="1.37802994e+00" Max="8.85620346e+01"/>
    <Variable VarIndex="6" Expression="OpeningAngleSkew" Label="OpeningAngleSkew" Title="OpeningAngleSkew" Unit="" Internal="OpeningAngleSkew" Type="F" Min="-2.97246674e+02" Max="3.45846558e+02"/>
    <Variable VarIndex="7" Expression="OpeningAngleStdev" Label="OpeningAngleStdev" Title="OpeningAngleStdev" Unit="" Internal="OpeningAngleStdev" Type="F" Min="3.58418771e-03" Max="4.44997673e+01"/>
    <Variable VarIndex="8" Expression="MeanDirAngleMean" Label="MeanDirAngleMean" Title="MeanDirAngleMean" Unit="" Internal="MeanDirAngleMean" Type="F" Min="7.53483415e-01" Max="9.35002670e+01"/>
    <Variable VarIndex="9" Expression="MeanDirAngleRMS" Label="MeanDirAngleRMS" Title="MeanDirAngleRMS" Unit="" Internal="MeanDirAngleRMS" Type="F" Min="1.89099595e-01" Max="8.66220551e+01"/>
    <Variable VarIndex="10" Expression="DWall" Label="DWall" Title="DWall" Unit="" Internal="DWall" Type="F" Min="-1.00000000e+02" Max="1.68750146e+03"/>
    <Variable VarIndex="11" Expression="DWallMeanDir" Label="DWallMeanDir" Title="DWallMeanDir" Unit="" Internal="DWallMeanDir" Type="F" Min="3.31192551e+01" Max="5.09144971e+03"/>
  </Variables>
  <Spectators NSpec="1">
    <Spectator SpecIndex="0" Expression="Label" Label="Label" Title="I" Unit="" Internal="Label" Type="F" Min="0.00000000e+00" Max="3.00000000e+00"/>
  </Spectators>
  <Classes NClass="2">
    <Class Name="Signal" Index="0"/>
    <Class Name="Background" Index="1"/>
  </Classes>
  <Transformations NTransformations="1">
    <Transform Name="Normalize">
      <Selection>
        <Input NInputs="12">
          <Input Type="Variable" Label="NHits" Expression="NHits"/>
          <Input Type="Variable" Label="N200" Expression="N200"/>
          <Input Type="Variable" Label="TRMS" Expression="TRMS"/>
          <Input Type="Variable" Label="Beta1" Expression="Beta1"/>
          <Input Type="Variable" Label="Beta5" Expression="Beta5"/>
          <Input Type="Variable" Label="OpeningAngleMean" Expression="OpeningAngleMean"/>
          <Input Type="Variable" Label="OpeningAngleSkew" Expression="OpeningAngleSkew"/>
          <Input Type="Variable" Label="OpeningAngleStdev" Expression="OpeningAngleStdev"/>
          <Input Type="Variable" Label="MeanDirAngleMean" Expression="MeanDirAngleMean"/>
          <Input Type="Variable" Label="MeanDirAngleRMS" Expression="MeanDirAngleRMS"/>
          <Input Type="Variable" Label="DWall" Expression="DWall"/>
          <Input Type="Variable" Label="DWallMeanDir" Expression="DWallMeanDir"/>
        </Input>
        <Output NOutputs="12">
          <Output Type="Variable" Label="NHits" Expression="NHits"/>
          <Output Type="Variable" Label="N200" Expression="N200"/>
          <Output Type="Variable" Label="TRMS" Expression="TRMS"/>
          <Output Type="Variable" Label="Beta1" Expression="Beta1"/>
          <Output Type="Variable" Label="Beta5" Expression="Beta5"/>
          <Output Type="Variable" Label="OpeningAngleMean" Expression="OpeningAngleMean"/>
          <Output Type="Variable" Label="OpeningAngleSkew" Expression="OpeningAngleSkew"/>
          <Output Type="Variable" Label="OpeningAngleStdev" Expression="OpeningAngleStdev"/>
          <Output Type="Variable" Label="MeanDirAngleMean" Expression="MeanDirAngleMean"/>
          <Output Type="Variable" Label="MeanDirAngleRMS" Expression="MeanDirAngleRMS"/>
          <Output Type="Variable" Label="DWall" Expression="DWall"/>
          <Output Type="Variable" Label="DWallMeanDir" Expression="DWallMeanDir"/>
        </Output>
      </Selection>
      <Class ClassIndex="0">
        <Ranges>
          <Range Index="0" Min="4.0000000000000000e+00" Max="9.8000000000000000e+01"/>
          <Range Index="1" Min="7.0000000000000000e+00" Max="1.4100000000000000e+02"/>
          <Range Index="2" Min="1.1328765153884888e+00" Max="9.0465773437500000e+04"/>
          <Range Index="3" Min="-2.7815833687782288e-01" Max="9.9274438619613647e-01"/>
          <Range Index="4" Min="-1.9932274520397186e-01" Max="8.9641040563583374e-01"/>
          <Range Index="5" Min="8.7641973495483398e+00" Max="8.7401252746582031e+01"/>
          <Range Index="6" Min="-2.1836518859863281e+02" Max="2.8241201782226562e+02"/>
          <Range Index="7" Min="3.3154612779617310e-01" Max="3.6027317047119141e+01"/>
          <Range Index="8" Min="4.1079201698303223e+00" Max="8.8557090759277344e+01"/>
          <Range Index="9" Min="2.1199975013732910e+00" Max="7.7061889648437500e+01"/>
          <Range Index="10" Min="-1.0000000000000000e+02" Max="1.6787399902343750e+03"/>
          <Range Index="11" Min="1.2167674255371094e+02" Max="5.0167890625000000e+03"/>
        </Ranges>
      </Class>
      <Class ClassIndex="1">
        <Ranges>
          <Range Index="0" Min="4.0000000000000000e+00" Max="9.2900000000000000e+02"/>
          <Range Index="1" Min="7.0000000000000000e+00" Max="1.4200000000000000e+03"/>
          <Range Index="2" Min="1.6301600933074951e+00" Max="4.4506353759765625e+02"/>
          <Range Index="3" Min="-3.3175802230834961e-01" Max="9.9975919723510742e-01"/>
          <Range Index="4" Min="-3.0250954627990723e-01" Max="9.9639213085174561e-01"/>
          <Range Index="5" Min="1.3780299425125122e+00" Max="8.8562034606933594e+01"/>
          <Range Index="6" Min="-2.9724667358398438e+02" Max="3.4584655761718750e+02"/>
          <Range Index="7" Min="3.5841877106577158e-03" Max="4.4499767303466797e+01"/>
          <Range Index="8" Min="7.5348341464996338e-01" Max="9.3500267028808594e+01"/>
          <Range Index="9" Min="1.8909959495067596e-01" Max="8.6622055053710938e+01"/>
          <Range Index="10" Min="-1.0000000000000000e+02" Max="1.6875014648437500e+03"/>
          <Range Index="11" Min="3.3119255065917969e+01" Max="5.0914497070312500e+03"/>
        </Ranges>
      </Class>
      <Class ClassIndex="2">
        <Ranges>
          <Range Index="0" Min="4.0000000000000000e+00" Max="9.2900000000000000e+02"/>
          <Range Index="1" Min="7.0000000000000000e+00" Max="1.4200000000000000e+03"/>
          <Range Index="2" Min="1.1328765153884888e+00" Max="9.0465773437500000e+04"/>
          <Range Index="3" Min="-3.3175802230834961e-01" Max="9.9975919723510742e-01"/>
          <Range Index="4" Min="-3.0250954627990723e-01" Max="9.9639213085174561e-01"/>
          <Range Index="5" Min="1.3780299425125122e+00" Max="8.8562034606933594e+01"/>
          <Range Index="6" Min="-2.9724667358398438e+02" Max="3.4584655761718750e+02"/>
          <Range Index="7" Min="3.5841877106577158e-03" Max="4.4499767303466797e+01"/>
          <Range Index="8" Min="7.5348341464996338e-01" Max="9.3500267028808594e+01"/>
          <Range Index="9" Min="1.8909959495067596e-01" Max="8.6622055053710938e+01"/>
          <Range Index="10" Min="-1.0000000000000000e+02" Max="1.6875014648437500e+03"/>
          <Range Index="11" Min="3.3119255065917969e+01" Max="5.0914497070312500e+03"/>
        </Ranges>
      </Class>
    </Transform>
  </Transformations>
  <MVAPdfs/>
  <Weights>
    <Layout NLayers="4">
      <Layer Index="0" NNeurons="13">
        <Neuron NSynapses="13">
          5.2372267357017233e+00 7.4277053959743128e+01 -1.5348271774697611e+01 3.5685522611104209e-01 3.7393645363611199e+01 -2.5962065909161279e+01 -5.6694107938826519e+01 3.7510984304921301e+01 -3.3763916587046898e+00 3.2544758095550237e+00 3.7440313445418210e+00 -1.6109092807165752e+01 -3.7248984436778578e+01 
        </Neuron>
        <Neuron NSynapses="13">
          -2.1580994683388086e+00 -3.9147233512588890e+00 3.9330652262220704e+00 -6.5567137481554039e-01 8.7898886441844615e-01 5.9581343522325882e+00 1.7588533591710714e+01 -1.6653712908428933e+01 2.9641625772323632e+00 -5.3819271773942816e+00 -1.7612886920895812e+00 9.3982459600654291e+00 -8.1196099518756419e+00 
        </Neuron>
        <Neuron NSynapses="13">
          9.9778707695002644e-01 -3.5167434936267313e+01 9.4420759240786865e+00 5.7465911737648572e+00 -1.7811738313269000e+01 1.3661957538571732e+01 1.8752932908914005e+01 -9.8614081908631377e+00 7.3311718182211694e+00 -4.7650274179757374e-01 -2.0148117962810788e+00 5.9650092813817697e+00 1.9273500756113737e+01 
        </Neuron>
        <Neuron NSynapses="13">
          -2.8571206601073289e+00 -1.3704079111291858e+00 -1.6585938912562881e+01 2.2958683233196231e+00 -3.8717543555941063e+00 -5.0488897693281629e+00 -2.4471820170067176e+00 -1.8885744046815984e+00 -7.6486808643956916e+00 -6.2915476569520532e+00 -1.5662594900471107e+00 5.3820893885442533e+00 -4.4657247153173527e+00 
        </Neuron>
        <Neuron NSynapses="13">
          -6.1787215798001691e+00 -5.4503153772215007e-01 -4.6859952854362863e+00 -4.3404254181762719e-01 -9.7164522313214585e-01 -6.2665610434782542e+00 1.7484219205937073e+00 -1.2461932482820064e+00 -4.2678573117117633e+00 5.7192682582898435e-01 8.8198266306831186e-01 4.0860997012018636e+00 3.9606736921107433e+00 
        </Neuron>
        <Neuron NSynapses="13">
          -5.5056852672016747e+00 -3.2355201834631728e+00 1.1508637112597628e+00 6.1788780074504883e+00 -4.5611616297130437e+00 4.2071245298052009e+00 -5.0825697876241831e+00 -3.9842664337155353e+00 3.5443763681656315e+00 3.8116432424664706e+00 7.8658185694642349e+00 -1.2202920251938518e+00 -1.1257576457908591e+01 
        </Neuron>
        <Neuron NSynapses="13">
          1.7558529141531942e+00 1.2255363218111072e-01 1.0961327554936517e+00 5.9231323342446291e+00 3.0190845545795325e-01 7.5644964204839855e+00 -5.9966101774932152e+00 -2.4265965886602321e+00 -2.3853002189855033e-01 1.1481468926592047e+00 2.6332180087608337e+00 -1.2742282797389180e+01 1.3916009937837364e+00 
        </Neuron>
        <Neuron NSynapses="13">
          1.9523105000436904e+00 -2.9336285717130534e-01 -2.9588429653162557e-01 -2.9831356602952104e+00 3.1390149315755398e+00 -1.3158113484408540e+00 2.1296508112146144e+00 9.2730264926584072e-01 -4.5614691698268821e+00 -2.9574624069755533e+00 1.0676178779450309e-01 -3.9811260129641854e+00 1.6265406795532680e+00 
        </Neuron>
        <Neuron NSynapses="13">
          -1.9498962141001612e+00 1.0609813430722210e+00 -2.1522494928850602e+01 -2.6149459861849761e-01 -4.7068439798076573e+00 -3.9753802836125036e+00 -3.2929823849227922e+00 -2.1334769248375678e+00 8.1832297733942072e-01 -1.0017782145672719e+01 -3.5120722478450164e+00 5.2499100183670304e+00 2.8388283270528336e-01 
        </Neuron>
        <Neuron NSynapses="13">
          -5.5738926497354113e-01 -6.7282950020022081e-01 -6.5171862003010936e+00 3.1822841058190297e+00 -1.6853937127251412e-01 5.0152533628748386e-01 1.8794206645489784e-02 6.4343555585032386e-01 -7.2221340598950046e-01 6.9092450766335828e-02 9.8135105199221728e-01 -1.1811622252011407e+00 -6.6155624222617604e-01 
        </Neuron>
        <Neuron NSynapses="13">
          6.9000403180775005e-01 4.0540382867951925e-02 -1.2124239205783822e-01 -1.5185683633978934e+01 1.5932378770198832e+00 -1.7881295363798994e-01 9.0874165640059312e-01 -4.8125672481879378e-01 8.2652623244641255e-01 3.4959738828964380e+00 4.3765539218750300e+00 -1.9346574211677295e-01 1.4996713877167162e-01 
        </Neuron>
        <Neuron NSynapses="13">
          -4.4952496457656915e-01 8.1747720968390614e-01 7.0713434511690998e-01 3.6461631407458811e-01 -3.0930128153831599e-01 1.3431780334146133e+00 4.7840635925215030e-01 -3.0313772027347521e+00 3.5105005657184668e-01 2.7842151304389455e+00 -1.0194591396927850e+00 9.1149534287027467e-01 -5.9924152772355854e-01 
        </Neuron>
        <Neuron NSynapses="13">
          1.4335195272658265e+00 3.3598464961200634e+01 -1.0342179608180080e+01 -7.1463515570468141e+00 1.9668917804337752e+01 -1.0793735591886696e+01 -1.8061936787857448e+01 9.9175295768009182e+00 -5.9431035753807961e+00 1.1151113523372508e-01 1.7909078377540935e-01 -3.4447456599307245e+00 -2.0912085679282519e+01 
        </Neuron>
      </Layer>
      <Layer Index="1" NNeurons="14">
        <Neuron NSynapses="11">
          3.5882854605352268e+00 -4.2967024212512378e-01 2.8025539224432117e+00 1.6080983133402067e+00 -1.6106358500153954e+00 4.5345760583342387e-01 -5.1292379771805203e+00 -4.5354043217668744e-01 2.0009162354141115e+00 7.5127978078263624e-01 1.7137222602284374e+00 
        </Neuron>
        <Neuron NSynapses="11">
          -9.3905653573408152e+00 -2.8394436176680418e+00 4.3825262044326108e+00 -4.0433137588563586e+00 5.4713887279788089e+00 2.8051984093124873e+00 3.9951867684785705e+00 3.3043705218902177e+00 1.3951673937646916e+00 1.0660713596272107e+00 -2.4317556499137698e+00 
        </Neuron>
        <Neuron NSynapses="11">
          5.6370743604893887e+00 -1.6786975520099299e+00 -7.1884262902835214e+00 -3.8267126080027752e-01 -8.0715104501491663e-01 -1.0529352958314002e+00 -2.9646112462804558e-01 -4.9108398220061531e+00 -4.2822739920378190e+00 -2.6221770806238003e+00 5.0842227477102986e+00 
        </Neuron>
        <Neuron NSynapses="11">
          -7.1750099119105459e-01 -7.2846190622421580e-01 2.4876739598388782e+00 3.0997990044000212e-01 -1.8499103591808386e+00 1.2263297626135650e+00 -1.2323406130323400e+00 2.5750995493138582e+00 -8.7641402815844724e+00 4.8056877772549711e-01 -1.5125023967658034e+01 
        </Neuron>
        <Neuron NSynapses="11">
          -6.7150840715965741e+00 4.0144233361312640e+00 2.3922523629700096e+00 -3.5136205107397447e+00 4.9720066631210624e+00 -5.8230318108922301e+00 -4.2635194243697139e-01 1.1784462373083220e+00 -3.4660261577872920e-01 -3.7670927787788404e+00 4.6007013269238026e+00 
        </Neuron>
        <Neuron NSynapses="11">
          3.0824359016331151e+00 -3.7930792252315881e+00 -4.3201464327949637e+00 -7.6938257640509933e-01 -5.7103580385008035e-01 -1.7898941889081463e+00 -8.2659669220401732e-01 -2.9993084060244399e+00 -4.0984620058138992e+00 -4.9806200358282642e-02 3.7228902883320725e-01 
        </Neuron>
        <Neuron NSynapses="11">
          -1.1063703021434472e+00 1.4710822856077195e+00 -5.4435254718456854e+00 -8.5709554702990776e+00 -3.4034120523388505e+00 -3.1225887144772142e+00 -1.8110728514457985e+00 -2.3357710018612581e+00 -5.4276805616984483e+00 -2.8645587597915680e+00 6.4076200335487943e-01 
        </Neuron>
        <Neuron NSynapses="11">
          -4.1091626356757072e+00 1.2693254161263853e-01 4.6813684466421552e+00 -2.4644333084962913e+00 1.0504871974506562e+00 2.4489307929249713e+00 -5.6569186199983017e-02 2.5023804469883584e+00 3.1526688463088486e+00 -5.5416173557133614e+00 -1.0017718948406362e+00 
        </Neuron>
        <Neuron NSynapses="11">
          4.1277057877721193e+00 -1.3142805309450869e+00 -4.6195377165230589e+00 -1.0384655747421705e+00 -1.7205860121189509e+00 2.8256805197145085e+00 -2.3943036657667678e+00 -1.7783230639880350e+00 -3.7906504905302496e+00 -1.0944115719843830e+00 2.4185269909169960e+00 
        </Neuron>
        <Neuron NSynapses="11">
          2.5803613466194104e+00 -5.6304797818524257e+00 2.7737805745648010e+00 -9.0530745439994031e-01 -1.4783549200207260e+00 -2.5411553264853159e-01 -3.0217626021465149e-01 -9.1545150694589772e-01 1.7907353443629359e+00 1.8596592076992864e+00 2.0061137934174642e+00 
        </Neuron>
        <Neuron NSynapses="11">
          2.2255876089333064e+00 -3.1962040773658790e-01 -1.6388824442158194e+00 -1.8342130828895644e+00 1.2644631840166560e+00 -7.3268055929082747e+00 9.3247293339202883e-02 -2.9050645528799905e+00 1.6453597162724072e+00 -1.4817712106017300e+00 7.5033510932945120e+00 
        </Neuron>
        <Neuron NSynapses="11">
          3.7963864866572231e-02 3.5660309004619783e+00 -4.1175727335142094e+00 -5.1325886597618031e-01 -7.3060440438473218e-01 -4.8600692114319211e+00 -1.5965192119661864e-01 -3.6365891306013647e+00 -7.1653507214840637e+00 7.7503559746844997e-01 4.2309496453485712e-01 
        </Neuron>
        <Neuron NSynapses="11">
          3.2283769894690777e+00 4.5687004484369514e-01 -3.4774154758618114e+00 1.1758238781322066e+00 -2.8454157566544578e+00 1.8219183187751400e-01 -9.3974905973689431e+00 -3.9999023609037687e+00 9.0995907160393896e-01 -9.1050614633985505e-01 2.3407446940936891e+00 
        </Neuron>
        <Neuron NSynapses="11">
          -2.3050334708764972e+00 -5.1257581685074938e-01 9.7155339191085308e-02 2.5905105545399398e+00 -2.2560991282156491e+00 -1.3255453090186062e+00 -7.1632084969321319e-01 1.2568028799967315e+00 -2.9022248393811645e+00 4.7554132469116850e-01 1.3677148266448111e+01 
        </Neuron>
      </Layer>
      <Layer Index="2" NNeurons="12">
        <Neuron NSynapses="1">
          -2.1257402308543529e+00 
        </Neuron>
        <Neuron NSynapses="1">
          -3.4387273267834830e+00 
        </Neuron>
        <Neuron NSynapses="1">
          2.9428354542146660e+00 
        </Neuron>
        <Neuron NSynapses="1">
          4.8381547115582499e+00 
        </Neuron>
        <Neuron NSynapses="1">
          6.3937475168356563e+00 
        </Neuron>
        <Neuron NSynapses="1">
          -7.6170263607086603e+00 
        </Neuron>
        <Neuron NSynapses="1">
          7.7065680832184880e+00 
        </Neuron>
        <Neuron NSynapses="1">
          -4.2931663051346058e+00 
        </Neuron>
        <Neuron NSynapses="1">
          6.4082081356497849e+00 
        </Neuron>
        <Neuron NSynapses="1">
          -1.8462368323473259e+00 
        </Neuron>
        <Neuron NSynapses="1">
          -9.5794234894971257e+00 
        </Neuron>
        <Neuron NSynapses="1">
          5.7293507035926607e+00 
        </Neuron>
      </Layer>
      <Layer Index="3" NNeurons="1">
        <Neuron NSynapses="0"/>
      </Layer>
    </Layout>
    <InverseHessian NElements="112225" NRows="335" NCols="335">
      <Row Index="0">
        2.0347212883370233e+01 -2.6017222168385867e-01 1.3985964078263891e+00 9.7064845708266001e-01 -1.2725895061854722e+00 -1.4720529346920230e+00 2.4684254510474659e+00 -1.3871826002969541e+00 1.8839370375543609e+00 9.0503488156408540e-01 1.3735252370848219e+00 -2.2680694468793163e+00 -3.3544629270916033e+00 -1.6519264096449120e+01 -1.0627572717480991e+00 -3.2746227915102053e+00 -9.0947784600126269e-01 -1.3933087787521270e+00 -3.7744310541670767e-02 -3.1093469527735174e+00 2.4889982161723392e+00 2.9175962912731901e-01 2.7483885453546089e+00 -1.9047189741810839e+00 5.4409491139947352e-01 4.4849079874446476e+00 -1.6831546799295879e+02 -3.7832935724336295e+01 -2.0996078697797373e+01 1.0423775275148087e+01 -2.1820145040775206e+01 -1.4891320931733642e+01 -3.2169802621830122e+01 3.3801221901906800e+01 -1.4487746084791908e+00 3.5606097921579554e+01 5.7976841895145093e-01 -2.7797422447588320e+00 2.0149164668544785e+01 -2.3575008555208249e-01 5.5433624154461070e-02 -2.9291921037029045e-01 -5.6555716501194557e-02 1.1116725706632505e-01 1.1874449230751860e-01 -2.7573088724770628e-02 -8.0649832975370817e-02 -8.0248448689754781e-03 -3.0490684725067724e-01 -5.4937775351943552e-02 6.3709865417492018e-02 2.5273292464597796e-01 -5.7026998496755299e-01 7.6791466477771353e-02 -7.0762885167405143e-02 3.4748080945644327e-02 1.0941438161870887e-01 1.2881074666930559e-02 -2.3535036318602209e-02 -3.1275177128016862e-02 -9.5558878704066208e-03 -5.3403052484928826e-02 5.0950130968992480e-02 6.7577525482855894e-03 -2.0341938580785229e-01 -3.0762094118984362e-01 -8.2052094220324667e-02 3.4495260813791617e-03 -1.0799703009338002e-01 1.8650723009648995e-01 6.3922533854442465e-02 1.4221203318981651e-01 -1.4844195134380761e-01 4.3813998782116936e-01 -1.6483957559560669e-01 -4.6078008581944108e-02 -6.1550305712877507e-02 2.7292314634239245e-01 2.8145018229986801e-01 -9.9316056435365230e-02 3.0432701970887877e-02 5.6157136659695794e-04 1.7696346920753309e-02 -2.7607465886524907e-02 1.0905959475726948e-01 1.4952627622975376e-02 -3.6225223850292387e-01 -4.3393322851559772e-02 3.4719993726755716e-02 3.6685114513503869e-03 2.3297270312800655e-02 3.0253924244883379e-02 1.0719987060242686e-02 -1.7254424548816316e-02 4.8979433227045279e-04 -1.3481921219122583e-01 9.2784077055771963e-03 -1.7048145326768016e-02 4.1472390871020892e-02 -1.8651454020438774e-01 -2.7491722153015315e-02 2.2156792067553388e-02 2.4049860373255960e-02 -2.4974529705062531e-02 -7.5543603417397964e-02 8.5357615377589957e-02 -3.8948224286192834e-01 1.2143504194219723e-03 1.1183825654378865e-01 9.0878858969730913e-02 -4.9389363070658721e-02 -1.4241472546242417e-02 9.8351500246645740e-02 -2.9032790136411890e-01 3.6570298305577315e-02 1.3910272725947759e-01 3.8171309961190114e-02 -1.2718066373712755e-02 1.7333897617556174e-02 -9.3384458148881855e-02 3.5624212004996547e-03 1.2451538122918160e-02 5.1118462874770593e-03 -1.2218837355942619e-02 -9.8644369457206813e-03 -3.5339804563599864e-02 -3.1336547210932153e-02 -1.5882905659435620e-02 1.9422710720014169e-02 4.9303817036196129e-02 8.9111599361116900e-02 3.0555976736779122e-03 -3.2803129614745741e-03 -3.3807585785328720e-02 -1.5528732821503688e-02 -1.1610769069851559e-02 1.0399988934333748e-02 -2.0834081924320569e-02 3.6454959877743942e-02 7.0848803115926007e-02 -2.5840963726461608e-02 -1.7659942521478372e-02 2.1526783974490871e-02 -9.4650674252180433e-02 2.6682424638624386e-02 -5.5317449162737755e-03 -5.2036523107753807e-03 4.8792496266200636e-03 -4.7245138694835487e-02 1.2876631102012315e-03 -2.6036610629292273e-02 6.2743467538678210e-02 3.8871379596239007e-02 -9.0645147824886529e-03 1.7488153177260657e-02 2.3499492754943674e-03 -1.6448471333695898e+02 -3.9081181645482260e+01 -2.2853544933064896e+01 1.0497871071639915e+01 -2.4416176789222554e+01 -1.6386980253442708e+01 -3.2790363613117087e+01 3.4848725455982603e+01 2.8601323319695116e-01 3.9194886127939654e+01 1.1748462418388339e-01 -4.4816705295629475e+00 2.1079875076616972e+01 -3.8208694600991455e-01 -2.0607123803692673e-02 -8.6869901425095986e-02 -2.5936246532718205e-01 4.1875918811468671e-01 -6.1873602738808708e-02 1.3569699876097188e+00 1.1039714652868282e-01 -2.4267487925292669e-01 3.3429594144739117e-02 -2.9421293840013041e-01 1.3188921558070366e-01 3.8813782630121763e-01 -2.5754066673279041e-01 1.0973048728042223e-01 1.5652331525257712e-01 -4.3620529981382106e-02 -2.7859570033241288e-01 -1.1101280252303741e-01 -3.2608981391406971e-01 -1.6268136393171151e-01 3.8230592091737847e-02 -9.5396093020898576e-03 1.4695388017803168e-01 5.8287479633707662e-01 1.4598119898191975e-01 -6.2787395373684518e-01 1.7031951352500663e-01 -3.1360568308610937e-01 2.8748356027641453e-01 6.6878565719934535e-01 9.0004542646743957e-02 -7.0942098780913732e-02 -2.4330003018465995e-02 -2.7296888859878798e-02 -2.6907675191434111e-02 -5.6727111381423390e-02 -5.1358301811671114e-02 -3.9432434983827980e-02 6.1858829001027460e-02 -5.3152242964083829e-02 -1.2214114482864247e-02 -9.7078151520078038e-03 1.2193687272755538e-01 -1.8483132387827300e-01 1.0489470602675942e-01 1.2927328103289520e-01 -5.3353271556801829e-01 -7.5354143139108043e-03 -5.2419033395719439e-01 2.3816821846224823e-01 1.4735696726102471e-01 8.4875964668816528e-02 -1.0311806432783754e-01 7.7783620814547039e-02 8.6718092164752791e-02 5.8705817897389068e-01 -2.8152515209771467e-02 6.9572019184557243e-02 -1.4523932524709471e-01 -9.8660374078431978e-03 -8.1297128616659831e-02 9.1122795746190199e-03 -1.8036774228524177e-02 -8.8338145811537316e-03 8.2629272428731193e-02 3.3693933830760114e-01 1.9600116056062689e-01 -3.5467440565959962e-02 2.7972261972201018e-01 -2.9240395155864185e-02 -4.0511801767550426e-02 -5.7244431307784449e-01 -7.8497289024690886e-02 -1.5336900657881891e-01 -9.4876715671664225e-02 1.2654524243113285e-01 -2.7175615800638830e-01 7.5572122738500447e-02 -2.0433677703332309e-01 -1.3352129568096527e-01 6.1540134896324747e-02 1.5387516519679956e-02 1.6439932785118683e-01 -4.8065387325599382e-02 -9.0497257641801929e-02 1.9126562676579084e-03 -2.0969446734208044e-02 -1.9894126059691608e-01 -1.1089264481871908e-01 -5.8074115439325169e-02 -1.2355663540629641e-01 4.1143452148714132e-01 1.3756364061904947e-01 1.9954135686975505e-01 -2.3364353424774364e-01 4.7522896921423197e-02 4.3846295904188537e-02 -4.8453446580754189e-01 -2.7352847085532517e-01 -3.0370887938461877e-02 -1.9979532668101530e-01 -1.0540772118015473e-01 6.1335315579205241e-02 -2.1589008929645881e-02 1.6290340565584921e-01 -1.3027815211837157e-02 -1.7636913382976349e-02 -5.8004101251820428e-02 -7.5373152942235233e-02 2.1529194457341527e-02 1.8117260172082039e-02 3.5116485805879449e-03 3.2407064764689686e-02 -1.8530773513633303e-02 6.7639141468373243e-02 1.3413732551216195e-02 6.3988948291717307e-02 1.8383075055581455e-02 -1.8579118176447640e-02 -1.3019083339914062e-01 -2.2693609582276397e-02 3.3575606760549714e-02 -1.0540393735191467e-01 -1.4679950845557221e-01 -1.7770177360654094e-01 -1.8147582875460472e-01 1.4609786070970263e-01 -5.7512188827075761e-03 -2.1670081357546644e-01 -1.0158300134228049e-01 3.3005339517435131e-02 1.5490347935860815e-01 4.4543744348937153e-03 -1.1186914997494646e-01 1.3358692972535091e-01 -3.8947567616460413e-02 7.5808540333532459e-02 -1.8089790901643976e-01 -7.1650760340897790e-02 -1.6029170663270087e-02 4.4363881816571582e-02 1.0326001571326682e-01 7.4817295380613213e-02 -3.1151122352238581e-01 4.1612227537041502e-01 1.5718565229560610e-02 -7.2737958752576937e-02 1.3933525412861858e-01 1.7446839320363061e-02 1.1531744000231825e-01 2.4670428898881003e-01 1.6144792361617810e-01 -1.4460470010241266e-01 6.4937879264648293e-03 2.7151072290857670e-02 3.2632876530877652e-02 1.2765282983462534e-01 1.9847233783479190e-02 1.9422087456845261e-01 2.1854179268665952e-01 -9.4941972595860236e-02 -4.5038240428066811e-02 -3.3686480082590120e-02 -4.6241095447077440e-02 4.7851255907408644e-02 
      </Row>
      <Row Index="1">
        -2.6017222696447828e-01 4.9825394873786479e+01 9.8491662319362199e+00 -3.2611695147532949e-01 3.3154688586850547e+00 5.2810165938302731e+00 5.8363748526438881e+00 1.5848592566232913e+01 1.6509051335472805e+01 -3.3177665870207749e+00 -1.1568651385986337e+00 8.6831584452537953e+00 5.5977498496802980e+00 -6.4495218274524313e-01 -8.0451231756572525e+00 -1.9174833306218080e+00 2.1012485740277220e-01 5.4007484681255669e-01 -2.9315855740826069e+00 -2.6739649001473000e+00 -3.4517740307245317e+00 -7.4904861789162593e+00 8.3895438374220510e-01 1.0351391499946945e+00 -3.5647024573677975e+00 -3.1833371024673411e+00 1.0471074451474500e+00 -1.2944589833323919e+01 -5.5350052839824251e+00 7.2626652831539218e-01 -5.7761989076795190e+00 -9.7064708765290533e+00 -1.5827757600541510e+00 -1.2300536258098226e+01 -7.5249077690000377e-01 -4.7086681216132291e+00 9.3051347748567359e+00 1.3330543934447750e+01 5.4631167843686432e+00 -1.4169777479804344e-02 -9.2588222275725018e-01 -5.7184234766201225e-01 -1.8781022622036611e-01 -4.3020682384506187e-01 -8.7818075495155329e-03 1.4675607916707911e-01 -9.0342688101048330e-01 3.2695168191705903e-01 1.7329447696504848e-02 -1.1644457664247465e-01 -1.9495178625381210e-01 -1.2168737162099319e-03 -3.2688737748696350e-01 -1.9545829880009524e-01 -9.2758670960180284e-02 7.6290896412182369e-04 -1.1400080249457911e-01 1.8162388766711102e-01 -2.2013478463546898e-02 -5.4833940637555190e-01 4.4411194262343434e-01 1.0202591704784408e-02 2.3178949665449977e-02 2.1691502576971344e-01 1.6680961415708628e-01 2.5243363514625783e-01 -1.1931039004472601e+00 4.1379035332874581e-01 -4.7346181612265870e-01 -4.4534924602516091e-01 -9.6743987774646101e-02 4.4866149086579732e-01 -1.7353451609703954e+00 9.1615130767539554e-01 -4.1688436330131906e-01 1.0118788724068839e-01 6.5014940103372609e-02 2.4671678650816542e-01 2.1817725830738899e-01 -1.3934529370463822e-01 -3.1499979041012871e-02 -2.7485560979161727e-01 4.0694778734771272e-02 -4.9837948053770190e-02 3.1007945212867999e-01 -3.4356382050324863e-01 6.0384492257797051e-01 -2.6093874545659929e-01 1.2616191430458173e-01 -3.1411838215320120e-02 -8.1606445200776756e-02 9.3907473459400759e-02 -1.2298983289008791e-01 -8.9247963422401322e-02 -3.5083491336719445e-02 1.8780056875353068e-01 -1.0164405185622338e-01 -2.2864231965779197e-01 2.5268157913963918e-02 5.0851828897905538e-01 -1.1969948653324045e-02 1.4614877475590538e-02 -3.3878381475765529e-01 5.3945904674811695e-03 -4.9851743800944603e-01 -2.6130934287562313e-01 -1.0162532567525788e+00 2.3786631536136804e-02 -3.0764068184465065e-01 -1.3903494001642258e-02 3.0601611240900876e-02 -3.3702543992577050e-01 -9.3544089886480974e-01 9.6900140560739922e-02 -9.9424601607519758e-02 -1.9562828893511575e-01 -2.5530198960363598e-01 1.8750126993184649e-01 -1.1451918927286373e-01 -1.6275626900424789e-01 -9.7547575693838096e-02 -1.2759180797236969e-01 5.9780219045444893e-02 1.1930640175584130e-02 -6.6647046261038290e-02 2.5549058986942264e-01 9.0379279860752781e-03 3.4967300609106244e-02 -3.7764487946502667e-02 2.4895566739604469e-02 7.5360111893942761e-02 1.3241477437868907e-01 -2.2040934136125845e-02 2.9708638950492228e-01 -1.9161511106001922e-02 -7.5460731157166935e-03 -5.3660372333534045e-02 -2.7836597474202307e-02 1.6482452335708236e-01 -2.2540829232018056e-02 7.1739985873623735e-02 4.7645774362758034e-02 5.3181178564607079e-02 -1.3731909602270775e-01 -2.3299978009807543e-02 -1.0178479304340314e-01 -2.1187079306006495e-02 8.9134854415353834e-02 -1.0939155293741319e-01 -1.0730383867340380e-01 -3.0901630890860776e-01 -4.6646546885780094e-01 -3.6419069655579651e-02 2.0867952616779109e-02 2.4068599408811342e-03 -4.0145234837428601e-02 -4.8440903269124647e-03 2.7898117832751314e+01 2.0422812831172124e+00 8.4202755133757123e-01 -1.9716954190122351e+00 -7.1927217116191349e+00 1.4312386767929957e+00 -1.6212035047689710e-01 9.0299863065389587e+00 -7.1391350328559131e+00 9.2059782753808364e+00 1.8440839855936701e+01 7.9350698292822592e+00 -4.5649933011420041e-01 -2.2793236912387549e-01 -3.3805680280709571e-01 -7.6874564452321548e-02 2.2873059777519034e-01 7.3699257258926731e-02 -4.0926976042026997e-01 -9.1468016100636734e-02 -2.1060137891077890e-01 1.3873320683633894e-02 7.6462483055735220e-02 2.0182868490624459e+00 4.6020195438866551e-01 -2.4412837419131788e+00 5.9735934601332064e-01 -3.0064771724173167e+00 -1.2670269926904831e+00 -1.6257951168135403e+00 -1.6607601823372951e+00 -1.0117009691347025e+00 3.0708050317971280e-01 1.3245593080905034e+00 1.6423132759679615e-01 2.1838738860498719e-01 -2.3118035357728073e-01 4.0387711020507444e-01 9.6616339376720894e-01 4.3230927718025103e-01 -1.0570595477840143e+00 -2.5705270624088561e-01 -2.0499889025886864e-01 -3.0216266871019570e-01 -8.3757503990853688e-02 -1.0896242941211633e-01 -3.2136486774535789e-02 1.3403318823017396e-01 3.0650335817010488e-02 -1.0901725357159386e-01 1.3718318233263216e-01 1.0018568827835606e-01 5.3266752546776153e-02 -1.4187481436868077e-01 1.0049601987455473e-01 1.4209614776741457e+00 1.0816327750788028e+00 -1.5622639994056589e-01 1.9557811959565019e-01 7.9829860628453542e-01 -4.1813329071136879e-01 5.7111219299514149e-01 9.7041858175316098e-01 -7.0786682918527188e-02 -3.2304848652136009e-02 6.1002495513154820e-01 -1.6122566304766790e+00 -3.6137874009971505e-01 6.0880171234454927e-01 -3.8173797255710279e-01 -4.5080806903984638e-01 -1.4508581466368239e-01 -6.1089243517827713e-02 4.4607551710862925e-01 -1.1044962896421806e-01 -4.9383955898778684e-02 3.6051656878230087e-02 7.6281045945787662e-02 -2.3256517711117097e-01 1.0631567299798039e-01 -7.3506057991699192e-01 -1.0411879365256431e+00 -2.0489570300268811e-01 -2.0460514658791196e-01 -2.5855052033202730e-01 -2.8983940847566325e-01 -5.6250339284280026e-01 -1.7163466958415091e-01 1.3418120463662081e-01 1.1484037693096627e+00 4.1622161069253610e-01 -1.0204254921589457e+00 8.0877065994044828e-01 -8.8806429580721358e-01 -8.3954215943698685e-01 -5.5994296305106139e-01 -6.0893192952719777e-01 -3.5632686999338103e-01 -2.2717298221078375e-01 7.0871319984979897e-01 1.7017372084450733e-01 -5.4328104663573384e-01 6.0212800801217981e-01 -3.1097686285148834e-01 -3.5778707537306431e-01 7.9488287107952260e-01 -1.2981202001268599e-01 8.0311727852438963e-01 1.7116810514718992e+00 -3.4032265553845553e-01 1.3409257060130813e+00 7.6893727358848807e-02 1.4652455741037684e-02 7.8347379633864955e-02 2.3101045712812318e-01 3.2151242591194062e-04 -1.2804203731843805e-01 -8.9954608959399218e-02 1.4452811183381598e-01 1.5645784734163914e-01 2.2500583924115825e-01 -9.5793622217329455e-02 -7.5504915542659035e-02 1.9297071811701350e-01 -1.2391759953364301e-01 -1.4465623636244629e-01 -2.1180804012092969e-01 -1.0298738324579670e-01 -6.2023244663069466e-02 -8.8056622397076900e-02 -8.8343157957110952e-02 7.4600693333123136e-02 3.2486933209264102e-01 -1.1984889933532705e-01 -2.7698938551838248e-02 -1.4298459418644115e-02 -2.9317478240446559e-01 2.2292138089295255e-01 1.6339037973241166e-01 2.6398325623493679e-01 1.7085203474925592e-01 5.8199057745704064e-01 6.1606988594734957e-02 -6.6494917902504280e-05 -5.0277732164175493e-01 -3.2320538043636549e-02 -1.5146287600072483e-01 -2.4536999773246826e-01 2.3261550707782419e-01 2.0275964286906551e-02 8.0689401123520588e-01 1.1106617849856804e-01 -3.0481981740136888e-02 -1.0702727425252156e-01 1.9820551657443591e-02 -1.7523375778384489e+00 -6.1091865410154567e-01 2.2856813450314775e+00 -5.8299612969153713e-01 2.0111985615020216e+00 1.1323160589105390e+00 7.9986586693467787e-01 1.2021489545821193e+00 9.5562160505663774e-01 -1.7626731774628190e-01 -2.2305800803238469e+00 -9.5769386836927872e-02 -6.2907386620632000e-02 -1.1377983063338748e-01 -2.6901927387688884e-01 1.0862126155178840e-01 4.8055937817948946e-01 4.7736270447300422e-01 3.1725665275154413e-02 3.3617638545470285e-02 1.4546158586387214e-01 -5.7398127493194240e-01 6.0440297719346736e-01 
      </Row>
      <Row Index="2">
        1.3985963475976904e+00 9.8491661762540375e+00 2.0027317794898613e+02 8.0532863928768350e-01 1.4162404960697650e+00 -7.0182149375363210e+00 1.3291046352519409e+00 2.4823146163628085e+00 3.6619018381500354e+01 -2.5059871641854983e+00 9.1237697824842456e-01 8.5564587290135208e+00 3.3773755472402343e+00 -1.1271943505585256e+00 -1.4778892103183043e+00 -3.0148274629887602e+01 -6.5956719620987747e-01 -1.7133100766503944e+00 9.5873129439868854e-01 -2.0230924261770902e+00 -1.5439688286882713e+00 -7.0052746868061089e+00 4.3068576024127719e-01 2.9075182755474649e-01 -3.7889424133363718e+00 6.8863675815950021e-01 8.0766110258799131e+00 1.5616284389549124e+01 -1.1636547597385328e+02 6.0770318248513853e+01 5.5686943912213891e+01 -7.8374771056142771e+00 1.6196843294914903e+01 -1.7434926406964117e+01 -2.2110734262050173e+01 2.2008702097651653e+01 -3.4122413403306311e+00 -7.0309812661418212e+00 5.6585009209435540e+01 -4.0313287131762932e-01 2.2719341057248152e-01 -1.1295460472064510e+01 -1.0931133429585499e-01 -8.8836350762841215e-02 3.1366321260472940e-01 1.9087434673448200e-01 -3.9716051168583977e-01 -6.2012990016840064e-01 2.5078831896663928e-01 7.7319605984817463e-03 4.0616211833078203e-01 6.3338404508455515e-02 -4.9039915817533641e-01 -1.1449568718739300e-01 -1.2646792498442971e+00 -5.3157185909198379e-02 6.0424594430836587e-02 5.0638166874646462e-01 8.2166280841738271e-02 1.0070437377246466e-01 -5.9955444975468219e-01 -7.5822104321421002e-02 -1.6304509247800625e-01 3.2893753051309726e-01 -2.0819315422592843e-01 5.2977866342386970e-01 -7.6651756648688951e-02 4.7298057604434218e-01 1.4705744368844176e-01 3.3588633828188819e-01 -2.8192867575642366e-01 2.1691666412810634e-01 -1.2794539075305017e-01 1.0438816521366334e+00 -2.7991545174303401e-01 2.8034006783939230e-01 3.0346042138613161e-01 2.3637747823217037e-01 2.4549623264535042e-01 -1.4091077945703545e-01 7.2355607535729405e-01 -1.6866854125173836e-01 -1.2546859984532480e-01 -4.2663643600761481e-01 2.6872325022721316e-01 1.6878461269057987e-01 -1.0306427191199816e+00 1.5649686497682586e-02 2.3913006264738290e-01 -3.2722743113952535e-01 -2.3872536361822028e-01 -1.2941123808741684e-01 9.2260421228684830e-02 -4.4692671328727718e-01 -1.6845283893865287e-01 -4.3771190108876468e-01 -2.0492795228544712e-02 -1.5287996286557071e-01 -7.1897120782592694e-02 -1.7651307539091095e+00 1.3962539299886598e-01 -2.1169883232994102e-01 -4.7777954751039431e-01 3.0246492546468001e-01 -1.2206935260268903e+00 -3.0364093023036332e-02 -1.3980150876422812e+01 -4.3331481184550469e-01 -4.9829719350841795e-02 2.6158013848696982e-01 1.1671298561917473e-01 -3.4681809839524425e-01 1.5934919316367591e-01 4.2304103395507919e-01 1.0869485669377266e-01 1.6713768203696561e-01 -9.9516500159975235e-02 -2.1880025522523161e-02 -6.8069548573939764e-02 -3.9446459457030012e+00 -1.6996761613600223e-01 9.0438441599370756e-02 -1.0012763954274911e-01 2.8415550008333401e-02 4.4725634776143414e-02 -2.0364774020149934e-01 2.0834933689528112e-01 -5.2539185928728610e-02 4.0083401757560186e-02 -1.1804828117242785e-01 1.5568603508381640e-01 -6.9149628348134817e-02 1.1807652476687958e-01 4.3607442345160674e-02 -9.5893962548754652e-02 -1.2549978188978092e-01 -3.3154425723272013e-02 -8.5353914008411330e-02 1.3667483966392280e-01 -6.2786407360061580e-02 -2.6762605254982752e-02 -1.2805339283722678e-01 -4.7112941291075072e-02 -8.9879991787781277e-03 -7.3159049722665570e-02 -7.0736509161265249e-01 -2.3617186459438000e-02 1.2114743831557295e-01 -4.4714689828324605e-03 -1.2516994430562145e-02 1.4517786152375495e-01 -1.9450981982776522e-01 -8.3041370690609503e-02 1.3606089407992372e-01 2.0548077979519519e-02 -3.7780066724886319e-02 8.2514140446093052e+00 2.3634852840636420e+01 4.8790915030931373e+01 6.0837970474641821e+01 5.5409477607862641e+01 -1.3502775588165260e+01 1.5566837136648193e+01 -1.6352110319225265e+01 5.5233138741912740e+00 2.0032185235137682e+01 -2.3825631853024571e+00 -2.3522677533032663e+00 6.0170831165588126e+01 4.1217094946616584e-01 7.8939723352117730e-01 -2.8003259946221282e-01 5.2043284842061510e-01 1.4868893739249600e-01 2.3672145689012949e-01 6.9446139104517357e-01 -7.8862104271625988e-02 -2.7205768993759216e-01 5.2220173744845089e-01 -1.6845981259342615e+00 -1.5629718357037667e+00 -1.0870125940134834e-01 8.2971736384720618e-01 1.7326702967241303e-01 -6.1275740418167635e-01 2.2931109494859392e-01 1.8032736624977730e-03 2.3686308331117373e-01 2.0318486161822713e-01 9.1432444719522366e-01 -6.3039133361366062e-01 4.6022291743507528e+00 -7.9952242022462983e-01 -1.9523439558615334e+00 -6.8278187476455532e-02 3.2328059441264951e+00 -1.3021580531945887e-01 -9.9386454102928390e-01 -1.7286130914551046e+00 1.1936196645345589e+00 -1.5293598701504596e+00 4.0989737216574262e+00 2.4376083019592154e-01 -9.4121238236129834e-02 2.2112503116272020e-01 2.6181174770663462e-01 -2.3185836310642560e-01 1.7700281134871432e-03 4.5821860947869331e-02 5.5264352838600539e-02 5.0562223937379480e-01 1.3834538764850102e-01 -1.8694763103781282e+00 -7.8722514220534068e-01 3.4584584744096092e-01 9.4023232742577667e-01 5.0977248783525653e-01 7.0640745935427407e-01 -5.4693804867438522e-01 4.3592601396467368e-02 1.1500655192690632e+00 2.0053101397589268e-01 -3.8623894114839175e-01 6.0230276860956611e-01 -1.1219473697483406e-01 1.8755604615157218e-01 -8.0422939617414446e-01 -6.3819008658910192e-01 -3.1842466131084723e-01 -1.0231037662948417e-01 3.1320402138588044e-01 -1.8564894826770439e-01 -3.5528583299757355e-01 -4.3820750955842769e-01 4.3756959426444969e-01 1.0103253213781791e+00 2.4740395547631877e-01 -1.0658944489726927e+00 -1.2362229360813746e+00 -3.3220328258717213e-01 -1.8044144811186769e-02 6.8607580653695655e-02 -4.7735119500742407e-01 -3.9730882977855808e-01 -7.4052815839605712e-02 3.1241419668098645e-02 -2.5190461779560680e-01 -1.5900026097935194e-01 1.8584899575702574e-01 3.2031448830144205e-01 -3.1325672555637785e-01 7.6246196220501050e-02 -1.3905257691476280e-01 -5.2914487725425480e-02 7.9911946745189158e-02 1.4233128287263597e-01 2.6804104589648081e-01 4.6335340703112582e-01 2.8967492789408572e-01 4.5762190694797216e+00 -6.3409119798595859e-01 2.1845081119887699e+00 -3.6336071201631626e-02 1.7908698494195523e+00 2.4872460540582253e+00 3.0372419409505476e+00 7.4713027317228953e-01 -3.0636891445002448e+00 4.0651098630161719e-01 -3.3554750063445893e-01 1.4268438383148352e-01 6.2735760436593324e-01 -2.4723166852613190e-01 3.4212293191046417e-01 3.2049188202710077e-02 6.8492303409031452e-02 1.1192504295016570e-01 4.0857782332130554e-01 1.9006893213481701e-02 -4.4134000159784526e-01 5.8730272359748814e-03 -1.3619316164386674e-01 1.2093624191104979e-01 -2.1918263956392092e-01 7.6699470488577970e-01 1.8512776069461889e-01 -2.4879895518184902e-01 2.2673874782852543e-03 1.2043719690239563e-01 -9.9281744113407011e-01 -1.0898809187646563e-01 -5.7698927492161545e-02 1.7942872718734970e-01 2.1824833951236933e-01 1.2195533229710021e-01 6.7199960442318041e-01 1.5517805859274802e-01 2.3217440983688231e-01 9.1996808136072517e-01 -1.0274178008951551e-01 1.9070321335536411e-01 2.8816153100767428e-01 -1.6383446599487517e-01 -5.1976412171967001e-01 2.7821674347490599e-01 -3.1558942867057027e-01 1.7329061883353880e-01 -9.2893032971858247e-01 -4.4906634833320069e-01 2.5707355035419654e-01 -2.9740306340872635e-01 6.9906201686805336e-01 -6.0720305755781112e-01 4.9919636813974932e-02 2.3672621126451787e-01 -4.5249796428787192e-01 7.2443780876257513e-01 -2.7317654782399359e-01 -4.6494097022399927e-02 1.5316827737858318e-01 -9.4025829843829456e-02 -4.1244561075929198e-01 1.5001664790155758e+00 -9.3733248179138473e-02 -2.3059800209200176e-02 -7.2357813017273287e-02 -3.0801574957442135e-01 -1.6695192813371840e-01 -9.2180535983926448e-03 -2.6956555155028372e-01 1.0717371551391075e-01 2.0487965424399235e-01 4.6504728069115320e-02 1.5616345248401704e+00 -1.5284437482465261e+00 
      </Row>
      <Row Index="3">
        9.7064844342644097e-01 -3.2611694422435367e-01 8.0532864001416371e-01 7.3014034922785189e+00 1.5510005397655959e+00 5.0180220310910073e-01 8.4737534680435633e-01 -6.1690051473431728e-01 -1.0467571712385428e+00 1.4679736405667552e+00 3.6421156129308780e+00 -8.5866010208282617e-01 -3.5355419543294353e-01 -5.7576502013552755e-01 3.5259311790928793e-01 -1.0979105234856597e+00 -6.7573325801471587e+00 -1.5811118136482700e+00 7.1385892970203124e-01 -1.0466399319263704e+00 6.5047921915971618e-01 8.6663073380749744e-01 -1.6866155083789878e+00 -2.7301072018064421e+00 1.0739529906736833e+00 5.3408839983414547e-01 1.5135720988224520e+01 -7.7367948019453152e+00 -3.0480939225159553e+00 -8.3299463344198813e+01 -1.8390626126834437e+01 6.7291687893681402e+00 3.2020148001981443e+00 1.9364662407757748e+01 1.2901415080729500e+01 -1.8110320791093812e+01 -1.2459671229284726e+01 9.2392553710631997e+00 -3.0404149031413326e+01 4.6874331563455995e-02 2.2106117625644954e-02 -6.4695138508435668e-02 -2.0557820575442642e-01 -6.5351857366111155e-02 7.6452738215328386e-02 -3.4652343119818352e-02 -6.1999452139809952e-02 -7.1981718123242722e-02 -9.8804737828847258e-02 -1.0793614522642864e-01 5.0908023249739087e-02 -2.9538710037026655e-02 -1.9177855497301222e-02 -1.4620025085029242e-02 -6.5162083572799911e-03 -2.3650346203357681e-02 -2.3604804421348824e-03 5.9948246906479402e-02 -8.3239872033948892e-03 -2.3385035887212580e-03 -1.5427108544562057e-02 -1.4004323014540909e-02 -1.2140315845421856e-02 2.4862088841180519e-02 -2.6517582668630357e-02 9.4296320647148102e-03 1.2414156240543595e-02 1.2706238950655480e-02 1.3906422634929338e-01 -3.0737270225790203e-02 1.5519121367375766e-02 -2.4075851820920868e-02 -1.2555494380813714e-03 -2.1480438142004843e-02 1.4713340955187948e-02 4.0731554788586699e-03 8.6272148639803259e-02 -2.1707005525151590e-02 -1.9207073168262645e-02 1.0621247633820663e-02 3.0195540425402956e-02 1.0922110902764359e-01 -3.8298556407801998e-03 -6.3986559783401870e-02 -5.0279791361168974e-03 2.9836464449590538e-02 -6.8843856063237840e-02 2.3953062751402701e-02 3.5424811546674151e-02 6.4689997638217034e-03 -2.8993477770651560e-02 2.4010579540906019e-02 4.1091055416023758e-03 -3.6325365355434514e-02 -1.4028199235134359e-01 -1.8709247556918083e-02 -2.2311272512106961e-02 2.1609033882482618e-02 4.3602783374492374e-03 -3.7608660628478563e-02 -3.7897284434663052e-02 -6.1987939287633020e-02 -4.3850530779703967e-02 1.0712440497890330e-03 6.0377884397937454e-02 6.1517994900095463e-03 -9.6921203359852548e-02 -3.3535739268061693e-01 -7.3013244875197864e-02 3.6363676906427500e-02 -2.4307682484206894e-02 -8.1681604556807785e-02 5.2996299729836771e-02 -9.4668327992766699e-02 -1.0530988282160286e-01 -7.9850962648619905e-05 -4.3952778783245133e-02 1.0084641395460656e-02 3.2543312163308274e-03 -6.9747151636532917e-03 -2.0211660119383149e-02 -6.8232088614285369e-03 -9.4448724704279605e-03 -4.0331174848589474e-04 1.0030341498235486e-02 -1.0911859503802135e-02 -2.1084047158818842e-02 -5.2529638727827621e-03 -3.2111302965108501e-03 1.8930592675136387e-03 -8.1422256342087440e-03 -7.4697375488583378e-03 2.4686257785115906e-03 2.0764462006002674e-01 8.9799967575955875e-03 -9.3166122799494024e-03 2.8863260490400028e-03 2.0554959331095801e-03 2.9092107586275895e-02 1.1372091354007297e-02 -2.2873510653656448e-02 -9.0805109145128404e-03 2.2867021457417258e-03 -8.6295511735612340e-03 -2.6870919945692906e-02 5.8203269552427302e-03 -3.5748236205452658e-02 5.1928312562464218e-03 -1.7151555181837183e-02 -5.6934476076166557e-03 -1.0225652893993343e-02 5.4437031974396977e-03 3.6355696732934440e-03 1.1998853274647558e-02 7.5956836749023152e-03 -1.8733417161962418e-03 1.5536174723744878e+01 -7.7195908155589867e+00 -3.3191249356246644e+00 -8.2572234366477318e+01 -1.8405430783767024e+01 7.9341927673626831e+00 3.0172844679681989e+00 1.9390008256249139e+01 1.2629117553932566e+01 -1.8297057177211126e+01 -1.1556482080134565e+01 9.4278282696292379e+00 -3.0232883380227925e+01 -2.0874707551018723e-02 2.7417640824251216e-02 -2.3672255953528454e-02 2.5550881727073538e-02 1.5926536868353991e-02 -6.8261018680643160e-04 1.6936598165687133e-01 -2.1505873365265715e-02 7.9138197886323008e-03 4.7904058057300358e-03 3.2574635443850308e-02 -6.3095023863169120e-02 -1.4432975026782202e-02 6.6809308857582350e-02 -1.4447493991283417e-01 5.1353912026683546e-02 5.7540958877047133e-02 2.1680700885768900e-02 5.4692065371053755e-02 -9.4511030998297718e-03 -4.6945280806024337e-02 -1.8061294200677119e-01 -2.8988886501664535e-02 -3.2144293765124843e-02 2.1153073165500391e-01 -4.7445126725830900e-02 -2.0206944418314077e-01 2.6646148170556105e-02 2.4662489671945842e-02 1.3495432358957071e-01 1.3803181229325379e-01 -5.1516704992764062e-02 -1.2734135312192052e-01 -4.6256792455388530e-02 -1.7330810284101439e-02 7.8470854724419226e-03 1.5914107927725407e-02 -2.9423849835033933e-02 -1.3648598305075612e-02 -7.3686249265894621e-04 1.0537704285330685e-02 7.0655259584052432e-01 5.8175398646038587e-02 -2.1201341617292790e-01 3.4161887457905604e-02 -4.5793526563834556e-02 -3.7584154660829538e-02 5.7811816277933303e-02 -2.6072369333958151e-02 -1.2850164246060823e-02 -3.5856482795715849e-02 -2.6423577032642642e-02 2.3684968313517962e-02 -2.1529821861242304e-02 -1.8011741600101328e-01 5.3571323984392016e-02 3.4989714663241411e-02 -4.0476813834470340e-02 -1.9437442540150451e-02 -1.6304857122119376e-02 1.3933950505696735e-02 -3.2234260484910293e-02 -5.7894326676575236e-03 -7.4461653671187428e-02 -1.0279309163689243e-02 -2.0969225010111447e-01 -2.6785670557361030e-03 -5.9966000670282682e-02 2.6582815823363914e-02 -1.3281369906351448e-01 7.7529345745734335e-02 9.3632790506027130e-02 -5.1464833210437710e-02 4.4363453963036648e-03 -3.5987879483460744e-02 -3.4624168622824136e-02 -5.5255580768576296e-01 2.1515536804693869e-02 4.1707653203878779e-02 -5.5093020777396973e-03 1.2568978612801296e-01 -3.7355768797981026e-02 -6.5083476063277135e-02 6.4682609305466710e-02 5.9099881454225525e-02 -1.6318777649008423e-02 -1.6218049668961232e-02 4.2995653273923740e-01 -1.0336394418944828e-01 -1.9056427656061231e-01 1.3690736955169314e-02 -4.1679414395567674e-02 1.1345998686111347e-01 -4.8551137177748416e-01 7.5654142927779167e-02 -1.6082518853776318e-01 -1.7568496837745862e-02 3.8280646736266299e-02 1.2258604980192729e+00 -4.7923570223037171e-02 5.0735157198880110e-02 1.7563765062560743e-02 1.1825104452999602e-01 -3.6484366787979006e-02 -6.8510428409938429e-02 8.7506414619835216e-02 6.3232539036069832e-02 -5.6903103284644541e-03 1.1388049008293266e-01 5.0624778920768398e-01 7.6251143873052457e-03 3.6440771598000854e-04 2.6909390977081227e-03 -6.3004160426505251e-03 -8.8079348530054613e-03 1.2864996470033330e-01 -6.7082283457129410e-03 -6.0337498958231151e-02 2.2184964233645688e-02 -2.5918842060713487e-02 -2.5666815490034978e-01 -1.3590064160783122e-02 -7.0977183486116147e-03 1.0160906131710501e-02 5.3827058853473497e-02 -5.0639136016075836e-02 6.0005764711830722e-02 1.8810935070379287e-02 2.4961719456816134e-02 -3.4242135638329341e-02 2.7959556130307983e-02 -1.1132009897016837e-01 2.7421316961566862e-02 1.2391620545375542e-02 -1.3011883462536344e-02 -5.7504155207718788e-03 -4.1405663006493176e-02 5.4764994632784669e-03 -5.0913360818690023e-02 -1.8029606101539142e-02 -9.0170217769791616e-04 -1.1589842782405269e-02 4.8802269675089660e-02 9.7503224333488347e-03 1.3094089370808248e-02 -3.4819994635296503e-02 -5.4082213513062527e-02 3.7510068657681028e-02 6.0625310617643535e-03 -6.0742645786882488e-02 -4.6885989557376107e-02 1.8129840168105593e-02 -6.4054289347649007e-02 5.3375379502263343e-02 -6.9441362399138840e-03 -7.8263828087407616e-03 3.3402768650807324e-03 6.9991778812550365e-03 -4.4664512817585655e-02 6.3582061303924464e-02 -4.4215079057886020e-02 -3.0983557537409556e-03 -4.6529234425842003e-02 2.7072739756265785e-02 8.2629454296389793e-02 -7.8899399919077323e-02 
      </Row>
      <Row Index="4">
        -1.2725895084089327e+00 3.3154688544305362e+00 1.4162405680390791e+00 1.5510005380172771e+00 2.8947467117138107e+01 -1.4662017291210478e+00 1.7038893434860998e+00 3.2612187813732088e+00 -5.6407880290472576e+00 4.8273715802892241e+00 -1.9215738760482104e-01 2.1275008992290125e+00 1.2981600653097718e+00 -1.0714638479448766e+00 2.4687203835045413e-02 -1.2123477551312565e+00 -1.8234211029299932e+00 -4.5175901501189326e+00 6.6222897581685969e-01 -1.4300201691072001e-01 5.1505785515262270e-01 2.2982009465794606e+00 -5.5584632484745922e-01 -1.7452963940862709e-03 1.0041197311545822e+00 -4.0516490348950551e-02 -2.7431190423294808e+01 -6.1024012132254102e+00 4.1887381156036030e+00 -8.5492859315939285e-01 -2.0017023442137774e+01 2.1039784597078306e+00 -1.2087476055444103e+01 4.3981206348553616e+00 6.8636147264658280e+00 -9.4587874153267459e-01 -4.0403202715736022e+00 -5.5359684303986416e+00 6.2310998187482785e+00 1.9342936343432079e-01 -1.0874576719695586e-01 2.0166101158163174e-01 -7.1296163766780843e-02 -1.2765462275183657e+00 -1.9804188956852642e-01 -1.0012528153133649e-01 3.3805872919304264e-03 4.1886498987431842e-01 -1.0779722589894708e-01 5.2465024704761165e-02 1.3558292498605914e-01 -2.6506457458394922e-01 -2.0944732861663029e-01 -6.5608815723183778e-03 -1.5766064962554488e-01 -4.1446073269072660e-02 7.7264229524659916e-02 -5.5937000208525878e-02 1.7008583518855266e-01 1.2931893227731694e-02 6.3276306990729253e-02 4.5433328308046084e-02 -7.4687433200414821e-02 1.7682697925779944e-01 3.1346096459084383e-01 -2.2445899366176791e-01 8.0378881677559133e-02 2.1746859636279292e-01 -1.5974461163384371e-01 -4.0445124503592911e-01 -2.9722780065884158e-01 -9.1840647900579497e-02 2.5918901676516642e-02 -4.1124189859057125e-01 1.0526678567856163e-01 4.1078574855015870e-02 2.8543826902461267e-03 -2.3160730655101580e-01 1.5582405893721751e-01 2.2473383319776008e-01 9.2287341806194911e-02 -6.9575877371642281e-02 4.0602586047956446e-01 -1.5845635839192956e-01 -3.6451885781918225e-01 -7.3197722735636461e-03 1.2593717578555852e-01 7.5634481381527839e-03 6.7019179856347366e-02 -3.2451283340532944e-01 -9.4290355580502194e-03 8.1213785450129139e-02 3.7090322941461862e-02 -1.1554392117555085e-01 -1.6719312642515921e-01 5.7811491882167365e-01 6.3373402418341884e-03 7.1343818515908375e-02 6.2051697367701331e-02 4.6855291927752352e-01 -7.9875540329427772e-02 -3.6902489503350899e-02 -1.2721846111965907e-01 -6.5613230966099501e-02 3.8313169774364142e-01 -1.7174833122407207e-01 1.5686629836343613e-01 -5.1618412970222960e-03 -1.7174113065785879e+00 -8.2067385076387334e-02 -2.5050913136048375e-01 -4.5304973946895137e-02 1.0587367113627422e-01 -2.4795129555695161e-01 -6.9639620001884756e-02 7.5658355638252961e-02 -1.2637920625579596e-01 5.5760096168952666e-02 3.0410136736016391e-02 7.2670797349347810e-02 1.8405021878045380e-02 -7.2575123501908659e-02 -2.4572880086223121e-02 4.4024938805456312e-02 -4.8874008112998329e-03 2.6414437697642956e-02 2.3293738090106819e-02 5.3100416357818453e-02 2.0463067392066353e-02 -3.8204588320947017e-02 -9.4121627935665197e-02 8.2325782369487732e-02 2.7175167156820737e-02 1.5387835149790585e-02 3.8698910936667202e-01 9.7113964011425191e-03 6.0709578103193385e-02 6.0568028939830196e-02 1.0493484116153806e-02 -2.3609390944896669e-02 -5.2887513723723051e-02 2.9415862722722889e-02 1.6529381952028535e-03 -1.2037811584518027e-02 -2.3511352430766463e-02 4.8837805938626792e-02 2.2877115247562085e-03 -9.8538990238838636e-02 4.4867781819769664e-02 1.2414771465776235e-02 -9.5202897841845102e-04 -6.6642668547453932e-02 -1.8195294151389118e-03 6.0275640054757981e-02 1.2977946266295851e-02 2.1985797833554654e-02 -2.9756135842612441e+01 -2.7840172551540716e+00 4.4083961160189507e+00 -1.1294448024205483e+00 4.0392138811503688e+00 1.3156489411234753e+00 -1.0446739390726636e+01 8.1453999216279662e+00 3.9808680898371946e+00 3.2366107217431423e+00 -4.2470776119075149e+00 -2.4744029536945131e+00 7.6727120156822579e+00 -9.3357188221607101e-01 2.3429611544936080e-01 2.0595360977838603e-01 -1.4474906190039190e+00 3.8324052123303931e-01 -9.6146068867839041e-01 6.1157012500089758e-02 1.3348382424455685e-02 -1.4739069077401373e-01 -4.6681711487389027e-01 9.0338256708788545e-01 -2.8184481716728937e-01 -2.1243465318873653e-01 -1.8007482652702267e-01 2.0558432502543245e-01 2.6484202215644859e-01 -1.9955876808165951e-01 2.5043061638010400e-01 1.5009543605840092e-01 1.2122063431870472e-01 2.1393833425142622e-01 1.8126016095569170e-01 -6.1149524797751287e-01 1.1947763176183823e-01 2.3827660608965306e-01 2.8101275585031310e-01 4.0758381700707780e-02 3.5459753337448974e-01 -2.4570272292986495e-01 1.7990979172596488e-01 2.5323271309491657e-01 1.6008226350752852e-01 -8.8172598181271056e-01 8.0487175717799953e-02 -9.5268917372906825e-02 1.2260014178542278e-03 2.6180046259080603e-02 -9.9059486825873858e-02 9.1863009657064593e-02 -3.0830269304160551e-02 -3.2565504094595965e-02 -4.2394521262575258e-01 4.9989691009309278e-02 6.8226085624806776e-01 1.9831584414118875e+00 -8.3834293645838309e-01 -1.0348768894109908e+00 4.4953121275600534e+00 -1.9604746371315889e+00 2.4567436659227329e+00 -7.2195266472028796e-01 -6.9563745180187708e-01 -5.0718693537972925e-02 -4.0641369230174318e-01 -2.3555404327513694e+00 -7.4237840059569682e-02 4.0823506901089068e-01 1.9229647321516594e-02 1.0374598565537707e-01 -4.0902277749575472e-02 1.6854430639473406e-01 -5.4725776817960592e-02 7.9106887358637912e-02 7.2201084698009538e-02 -3.7126790393846920e-02 -1.1735847893775458e-01 -9.9192530364305931e-01 3.1448394553373071e-01 6.4014973907185979e-01 -8.3472408285799049e-01 9.4215937241367198e-01 -7.4413080683518995e-01 4.2735798777671086e-02 4.8423924461166168e-01 3.8151804065893591e-01 -8.2809872623697212e-02 5.6577845582151287e-01 9.7506686220691141e-02 -3.6848545739569694e-02 -1.3331335657767118e-01 4.8562059259591994e-01 2.3017088686880231e-02 1.5767436220633346e-01 1.2698751075119058e-01 2.6621631711736350e-02 1.8341282867770248e-01 1.8764520935897799e-01 9.3550727968835679e-02 2.1507031459990067e-01 -8.2932793906372049e-01 -6.5983950970135652e-01 -2.7827223917793398e-01 -7.3815290220434537e-01 1.9212071101307870e-01 -1.7899870402794482e-01 -2.4644536138401421e+00 -1.1764895724726765e+00 -1.3176798424466796e-01 5.1606092434597919e+00 4.8312128787331154e-04 -4.2953488529736461e-02 1.7075597189217473e-02 2.7938000120946871e-01 -8.4909147750463321e-02 1.6172241828020056e-01 4.1427856088373634e-02 -5.9604104255152349e-02 8.5622375901222014e-03 3.3973759873143816e-01 -3.0484101454002932e-02 1.2577774289130023e-01 -4.2147911332740484e-02 -3.6158375813836852e-02 1.6741692044135895e-01 2.9959087436670973e-02 -1.8444154055905104e-01 -3.8955375027175332e-02 -4.3558978581406727e-02 6.6497570987993138e-02 -9.5398247270411574e-02 9.8205740627636207e-02 2.6638960828554459e-01 -1.4922685720899320e-01 3.1347032645737849e-02 2.7177714433299105e-01 -1.8903978321500337e-01 5.9633429776534008e-01 7.5177375068720020e-02 4.1339931375752315e-03 1.7392640120877934e-01 -1.5690988520852839e-01 -1.1111763858984500e-01 -2.3058590729862163e-01 1.7278017804134987e-01 8.4247191830042756e-02 -2.0255326352262792e-01 1.7129977383520745e-01 -1.1785052986734051e-01 4.9072369958640971e-01 7.1408143720975259e-02 -4.6015893347258918e-02 -6.7557403312990594e-02 9.6684039831546054e-02 1.0798219191730851e-01 7.1691440237801995e-02 3.0632762614069442e-02 -5.4143110160316610e-01 4.1261019179422043e-02 -2.3696663498391146e-01 -1.5006400796727171e-01 -4.3559644814259002e-02 -3.3984493682563710e-01 -2.5325764204256984e-01 -7.8007401551329991e-01 1.9099562417512685e-02 8.6103981823931308e-02 2.7940501725522870e-02 8.9779219018315870e-02 -3.3040043189082891e-01 -2.3104619340284738e-01 -1.2820492657903548e-01 1.5534699234588140e-02 -2.1786809358162795e-02 6.6034606895346570e-02 -3.0001190478255590e-01 2.7327603791346494e-01 
      </Row>
      <Row Index="5">
        -1.4720529461907901e+00 5.2810166313698375e+00 -7.0182148773290578e+00 5.0180219047375019e-01 -1.4662017044370437e+00 8.5534330220532553e+01 -6.4156019319752566e+00 4.9710158792884584e+00 -3.6845890538928202e+01 -1.8450715871545071e+00 1.0458548125734479e+00 4.8054543622202033e+00 3.4951898436062834e-02 9.5357256048092864e-01 -2.4169686156705552e+00 3.2131872807555499e+00 4.7841468501980199e-02 2.0318518811844610e-01 -1.7638180297031816e+01 7.4221295000092269e-01 -1.9502673530340042e+00 2.5597136647984531e+00 3.4612513314239424e-03 9.4285665136354302e-01 -7.0766372884141049e-01 -1.0793811736311922e+00 3.7045287976695240e-01 7.9982405038991651e+00 -1.9007452373133966e+00 -4.1615228972721866e+01 -5.9798665882773063e+00 1.1088918331089229e+01 -5.6730535041709551e+00 9.4637396163539904e+00 1.7833890392689280e+01 -1.5899052038325104e+01 -3.4827817815383924e+00 -3.3471775417605039e+00 -2.0022643028079475e+01 2.6490849108044112e-01 -7.5971520663422809e-01 -9.0392096624171314e-01 1.2539958077514568e-02 8.3443169650194271e-02 4.4783304017932379e-01 7.2773346337703537e-01 -4.0521913433221413e-01 4.3675826618072477e-01 9.7914919890890711e-02 -2.5627735536433716e-01 2.7599441604412966e-01 -5.5021512253849070e-01 2.9672839773605908e-01 -3.1646040093663408e-01 1.8813224218009042e-01 -2.7536144575165367e-01 1.3293431766268404e-01 1.1701940193582057e+00 3.6438766049194576e-01 1.3745892307772439e-01 8.5271326868057229e-01 1.3813035268043639e-01 -1.5357240555379703e-01 5.3288332751754874e-02 1.8790517225481773e-01 1.2978963269071953e-01 3.6156875946801581e-01 -1.0099949921054363e-01 1.5082583024390139e-01 1.2925079722088562e-01 -4.6969025091783978e-01 9.6592224621488226e-02 1.1685019185465303e-01 -1.7630440745577474e+00 3.4718539824011174e-01 2.5173778885632342e-01 7.1731038501218725e-01 -6.2208841992307762e-01 -8.4729560410629290e-02 6.2233798468826818e-01 -2.5815103957991548e-01 2.7441399132391542e-01 3.7300882875699770e-02 -9.5099151009367711e-01 -2.0209373989540058e-01 1.0264410734669016e-01 1.2081531710649738e+00 2.0621794473895613e-01 4.6043340496697371e-01 4.2777230878380812e-02 6.8067326593277744e-02 1.1897760873247620e-01 -8.1106287001469268e-02 -3.1176026065294238e-02 7.6571968719158390e-02 -6.3279059319790859e-02 -2.9566151379705086e-02 -7.7202242618400002e-02 -1.9328204881253752e-01 1.1909142303830453e+00 -1.3547919602041680e-01 6.0740383808859488e-02 -7.9762784947287391e-02 -3.9989211183277362e-02 3.3659409099955129e-01 -7.7867312304940972e-01 -9.1092918881447105e-01 -4.2244423735123604e-02 1.2538399282851787e-01 -7.9881108945656365e-04 8.6581647263908434e-01 -4.1630422069439055e-01 5.7615089777599948e-01 3.1664649795093425e-05 -9.0875660016921600e-02 -1.3627788995528967e-01 -2.3279396589883022e-01 -1.0541375500184291e-01 -1.1949285980003221e-02 -4.9341100478583511e-01 6.7632131660273265e-02 -2.8658525723328193e-02 -3.3072317249662553e-01 -9.1565481885336100e-02 -9.4273761373671813e-02 -4.3990931448540715e-02 -4.0305424920558081e-02 1.1581650560382073e-02 1.4236129885168702e-02 -3.1478178606518123e-02 -2.3638263196598508e-02 -2.0283928724129652e-03 -1.0137119133857314e-02 -1.2634085058561612e-01 -4.2665318880721614e-03 -1.3939027147693765e-02 -9.0004231649149558e-02 2.8372296901983132e-02 1.4119144017141316e-01 2.0574722026941988e-01 1.5874851423183034e-01 -4.3641267600700862e-03 1.7914438191942411e-02 1.2663084938897473e-01 -7.2040743789954786e-02 1.6192420025970858e-01 -5.0394247067863662e-02 5.6619782498643856e-02 -7.5322942550247851e-01 -1.7701488732925152e-02 1.3353575092245901e-01 -2.4818971454701078e-01 1.5033747527122193e-02 7.6060214923569125e-02 -6.5200696557299653e-02 -7.3576647753678004e-02 -7.7970221537583484e-02 1.0626499048348833e+01 -5.8802199785912403e+00 -4.1183664168379138e+01 -7.1043542203439225e+00 7.8847741651940012e+01 -1.0975776891201711e+01 1.2501856003011120e+01 -1.3789972201669244e+01 -1.7492763188153553e+01 -1.6129935066336525e+00 6.3271640176849786e-01 -2.0731643149185782e+01 6.9806512070077009e-01 1.6280456233055629e-01 2.5831945852742177e-01 7.8406459294517084e-01 -7.4637633065034237e-02 2.7081027038900174e-01 3.4765056610662004e-01 -6.5840949350850941e-02 6.3788706077582580e-01 2.7366622798805629e-01 6.4849350876273348e-01 -2.4299659367824349e+00 -1.6886415775452851e-01 7.2893960027724347e-01 -9.7947559533618755e-01 -9.9409267800601775e-02 4.0791721401663728e-01 1.4901141747492019e-01 3.1094397321651146e-01 1.8666676734864895e-01 -1.0979322216121301e-02 -2.6935292567170155e-01 -7.8476129942773820e-01 -8.0018874357133996e-01 -6.8912981694694864e-01 -4.8194413194713848e-01 1.1568097249396914e+00 -2.9820514389436314e-01 -3.9057006123906657e-01 -5.0531319674014252e-01 -1.8358313389490410e+00 -1.8295931112409924e-01 -3.3218085997267721e-01 -1.5177886085873868e-01 8.1497836973820403e-02 9.9107095838808668e-02 8.6808795703848807e-03 3.3387771828064183e-02 -2.6718458444245918e-03 -1.4526522099644332e-01 5.1257439088942841e-02 5.8106049167179741e-01 1.9672409022831738e-02 -1.2803634216074524e+00 -4.3159257111110522e-01 2.7851203089035487e-01 -2.6137817880651504e-02 -2.8340932947116091e+00 -2.9003134562240374e-01 -3.9350852163389671e-01 -2.5423565466445819e-01 1.1266021446168162e-01 -4.2398190446238493e-01 -7.4040431920230798e-01 -1.4494591306703830e-01 2.1802762358545364e+00 1.1654000467382453e-01 -1.9456281275347767e+00 3.4844351246253513e-02 -4.4589169629327174e-01 -4.2704990262834108e-01 -4.9047806181873371e-01 -1.4386057350817485e+00 -1.1463819936110884e+00 -2.5579091684832367e-01 -3.2425708749941329e-02 2.8660783327095318e-01 -2.5321625899306177e-01 -1.0038508370528403e+00 1.3570309272341419e-01 -7.8920595089401857e-02 3.2480788433838970e-01 3.4295152415939167e-02 -6.2377869095217164e-01 -8.3898575929919406e-01 -2.9835360903172381e-01 -1.7516298141315356e-01 -7.1699735850013191e-01 2.1031894474781926e-01 3.1605428232562938e-01 -5.6545264303286502e-01 -1.4483570742298801e-01 -2.5265506587444264e-01 -3.1885458875942385e-01 -1.4535968099136248e-01 9.5020378238381498e-02 -4.7333853104981749e-01 3.7050242020688734e-01 -3.3916956489423615e+00 1.1072806820675690e-01 4.6675278265746556e-01 8.8263861007385847e-01 7.8781161734027449e-01 2.1840242029091996e+00 -1.8517218667878499e+00 9.7811383274071773e-01 9.1492580664234779e-01 -1.5373891171829257e-01 2.6461146692574395e+00 2.2456439530772987e-01 -1.4613409846498016e-01 2.3391488013928885e-01 4.6921830843514201e-02 -1.2901834617254515e-01 -8.5180011663075872e-02 -4.3231511986992155e-02 1.3558184726678579e-01 4.3812290513695773e-01 4.3623950086572627e-01 2.6336659436625443e-01 9.0374861962027708e-02 -6.5530562765067635e-02 -1.1390444433318692e-01 -5.4134532566518401e-01 1.5582046671048788e-01 -3.1335829530601078e-01 1.2678755759885951e-01 -1.3433065544726652e-01 -5.9169419064925122e-02 -5.4837554200618310e-02 3.0561609094545439e-01 6.5587675255479039e-02 1.4725878968140371e-01 -1.7952595530836390e-02 -1.8614203994175482e-01 2.8016170586160394e-01 7.5613703473535299e-02 5.2791711544520781e-02 -1.6235694489908248e-01 -3.6429306422659991e-01 2.9563095027849107e-01 -1.5530178107852066e-01 1.1300723326208451e-01 -1.6893656886526065e-01 -3.3924916430718310e-01 1.6790901581562692e-01 5.0197013510166211e-01 -1.0721245359003639e-01 1.1423933389006002e-01 -2.5509319214938486e-01 -4.3102269675425170e-01 1.7181565627327111e-01 -3.3054878849030489e-01 -1.7107044426019513e-01 1.7062041023959917e-02 9.7042404725233311e-01 1.2091968516259897e+00 3.0339254093330181e-01 4.0481907411742490e-01 4.6567189052517621e-01 8.6128960973042945e-01 9.9879089249367681e-01 9.1904795183552324e-02 1.1604562275484902e+00 -4.3613733711874297e-03 1.3123825221160690e-01 -8.4450769542307569e-02 -1.4351484553550424e+00 2.0462228075359690e-03 1.5365141910821789e-01 -5.4371951733511104e-01 2.8057915249829324e-01 -5.8211558181115297e-01 2.1480063869431154e-01 3.7296753840437891e-01 -4.3724695237451489e-01 
      </Row>
      <Row Index="6">
        2.4684254715111842e+00 5.8363748308507013e+00 1.3291046133422668e+00 8.4737536025193450e-01 1.7038893404857518e+00 -6.4156019138908071e+00 4.4209505510319538e+01 6.1789948051728971e-01 1.2752002491034091e+01 2.0129159040551130e+00 -1.8527403429944833e-01 -2.4653441870555159e+00 -2.3785438287403595e+00 -2.2830420543988916e+00 -1.4576339681246555e+00 -1.3362585443778290e+00 -5.4418209518408556e-01 -6.8832651327859828e-01 1.6033394080237078e+00 -1.1012982175160108e+01 -1.1540659318334381e+00 -1.7104422910777313e+00 3.4956821479704281e-01 -1.7589288438801487e-01 1.1431243276106251e-01 -1.3746740201371055e-01 7.1767231519825117e+01 8.7596718440260410e+00 -4.6117735557708484e-01 -7.0077913806923080e+00 6.7317266885430094e-01 -4.3211494566797164e+00 1.2794027418943649e+01 -4.3095492651290037e+00 1.1485588367719146e+01 -3.5440528089019718e+00 2.6386354580707572e+00 8.8845345822202031e+00 -1.4574828248582270e+01 -6.0278671091272351e-01 -8.0251355316745265e-02 6.2903239870935757e-01 3.1444600061219979e-01 4.9146140308691466e-02 5.5827564705026544e-01 -7.1924159134456533e-01 -6.4669918666520110e-01 -1.9424766011382770e+00 -1.0684202294080680e-02 -2.1176888030901897e-01 1.0301306304688487e-01 3.7219021595483676e-01 -5.3029906788777814e-01 -3.6576504309701829e-02 1.4176253641784112e-01 6.0390583354371641e-03 -4.4865245624722272e-03 6.2984595249165376e-01 -5.5012155603393120e-01 -8.5937533900286744e-02 -6.6763638895308897e-01 9.8091753910423130e-02 3.5722822869850734e-02 1.1064352187880444e-01 1.2993095749886308e-01 -4.3818260596784553e-01 2.2913836834439744e-01 2.8192102780744477e-01 2.4262838643914719e-01 -1.3474746278234306e-02 -4.2371513400424399e-01 6.9915312825852882e-01 -2.9174464592499239e-01 -5.4003799917126116e-03 -2.8115359563696796e-01 -4.8280282000717933e-01 1.7087599451007807e-01 -3.8664645498020622e-02 -3.0676546891125867e-02 2.7702333719033922e-01 1.6876576921020003e-01 2.0036401091774181e-02 -2.5203631521826186e-01 -7.0605667409248107e-01 1.7016537472981668e+00 -1.7071903533207211e-01 1.9232980729912774e-01 -4.4518799431703038e-01 -6.0628970727927989e-01 2.1874314323536592e-02 3.0493887230737809e-01 1.0142918830593928e-02 -1.6774937248643110e-01 -1.6066987542578470e-01 -8.5318403432070089e-02 -1.1504380330744024e-01 1.4552457951836717e-01 -2.6772212468605794e-01 1.2081516693252818e-01 -3.6878214760209271e-01 1.0365791907741627e-01 1.1035653992227035e-01 -1.3757321238379361e-01 -1.0770810141317350e-01 -4.6833852344700533e-01 -1.7257360355712748e-01 5.9814601689462066e-01 1.5138274214663672e-01 5.8620269627501109e-02 7.0671107478942563e-01 -6.3582620109211652e-01 -5.5179323756442655e-01 -6.4746574295736647e-01 5.7808328894164873e-02 -2.1281538911708517e-01 1.7629764794046954e-01 3.6268017639856093e-01 -2.9938034343373721e-02 2.2684802323341524e-02 2.3463414122373250e-01 1.0593904783424340e-01 4.2206078682917925e-02 -2.4773372535292291e-02 -1.1486522914584231e-01 -6.6529770660998369e-02 -1.6340402231485873e-01 -7.7538602037203974e-02 2.9353679359056112e-02 -2.7883574636608253e-02 5.4387799360021860e-02 -1.4429411408304837e-02 -1.8550577618769586e-02 1.9048138292885541e-02 -9.5396798639562075e-02 5.3324747938658171e-03 -6.5294236615068946e-02 6.9765052363937152e-02 3.7318654525240635e-02 1.4965236788032568e-01 -8.0765276334378244e-02 -1.4120139808155679e-01 -6.7110541345366870e-02 4.3361080648521289e-04 -1.1452770660146805e-01 -2.7981778506662849e-02 -1.4757575698320724e-02 -1.7443786046035869e-02 -2.4159193325886549e-02 -8.8181457715714229e-02 -1.8673225363774051e-01 8.6723083022989311e-02 1.9378875150228403e-01 -7.2802042533885378e-03 5.7655147765906897e-02 -1.3883682873120307e-02 -8.1337665222626074e-02 7.1820100608555776e+01 1.3001843754168467e+01 -3.5748412060395651e-01 -6.7838240371363199e+00 1.6795003899692378e+00 -8.6979750725033469e+00 4.5038908897265891e+01 -4.8035627545767374e+00 2.1276795691050239e+01 -1.2974784165699367e+00 2.3485945519722233e+00 6.5243849849726061e+00 -1.6925537911606469e+01 -4.8549727731803771e-01 -2.5770655114042418e-01 -3.5939979964402868e-01 -5.2744669865810678e-01 3.3714145225577541e-01 -3.1245313567019428e-02 1.3981674156947554e-01 -7.5762693474494047e-02 -4.1088828103832054e-01 -2.9778362893311944e-01 -2.5782535992635403e-01 4.9263205559119916e-01 -4.8234700226757798e-02 3.4648549898915482e-01 7.2365226632291801e-01 -3.3910275776733823e-01 4.7376152161498486e-03 1.7995108055676745e-01 2.0332487082458556e-01 1.7669855001422152e-01 4.9037945523658372e-01 2.2856641902291308e-04 1.5815300346973160e-01 4.2164233712084376e-01 -4.5751573622036190e-01 -3.3748318605302208e-01 -5.3300665658527002e-01 -2.5161445744886279e-01 1.7696361565396046e-01 -2.5258942661692707e-01 -1.7231963469985079e-01 -4.7146867899416334e-01 4.5817513781680930e-01 9.2284512485171916e-02 3.5669698130466609e-02 7.4483249390481232e-03 -1.7408792551816957e-01 -6.1856664846460296e-02 -1.1183080362831542e-01 1.0821120253444538e-01 -5.4778594255073032e-02 -2.8001311691515340e-01 -1.2028136199563777e-01 -5.1668417571926306e-01 2.4503520046276561e-01 -1.9398036967976862e-01 9.4661436205205951e-01 3.5434005215422459e+00 4.4273690418695272e-01 8.6557023310813852e-01 4.4834972684465346e-01 1.0106222928163311e-01 1.0070536036248021e+00 9.5178700399880611e-01 1.7535849192022290e-01 7.0467742964472224e-02 1.3055487700565589e+00 -6.3568103473522930e-01 -7.7320371755727813e-02 -4.8316449640424053e-01 -2.3226213857025702e-01 8.6687362716993621e-02 -2.3987094609073339e-01 -5.0964159960996802e-01 5.6437890540594893e-03 1.6620146017959536e-01 -1.3814123091847730e-01 2.2703406909845469e-01 -1.4098617233319610e+00 -3.0028920792041740e+00 -1.1746269244545908e+00 -9.8233028626391317e-01 -8.7246160942061501e-02 -3.8091390127265345e-01 -1.9039977094149512e+00 -4.6321416797389059e-01 1.8660186029494694e-01 4.7576035742182188e-01 -2.7456545693929679e-01 -3.7312255343272094e-02 1.1472348564366914e+00 -1.2857941271030054e-01 1.0647328561155067e-01 1.1641126209502262e-01 3.5076735649142127e-02 2.1917425050775863e-01 6.8045132392233143e-01 -5.2776816776429869e-02 -3.3411345037330520e-01 -2.5429824883245751e-02 3.0598274351517318e+00 -2.3216986637925852e-01 -4.9534667090043172e-03 -8.9557962237405597e-01 7.2073359702747530e-02 1.0250947957778145e+00 -1.2746306942231129e+00 -1.4248504473571666e-01 3.5083839659752997e-01 8.7902102613765964e-02 -2.1188279727831016e-01 6.9550197706610639e-02 5.5407734119338414e-01 1.4847809104602128e-01 1.4660784356499046e-01 -3.9940367770951890e-02 -5.6813994098804999e-02 2.6344970057917660e-01 3.4996116885647766e-01 4.1504604347536334e-02 1.3553167385053499e-01 -7.7280538295111945e-03 7.1499881038783464e-03 -8.6613749402237428e-02 -7.4773875359571917e-02 3.9288830710089551e-01 6.1224393742264294e-02 7.8083760546220127e-02 1.4318977514185849e-01 -7.1027097454635313e-02 4.0641939644104141e-01 -1.5321874388684190e-01 -5.1642180620173894e-03 -4.3826955477082308e-01 -3.1282025597971153e-01 1.0509716187567977e-01 1.7891593215715318e-01 -2.9515867304563792e-02 -1.2577333549304104e-01 -9.1917002241674872e-02 -7.1594942723801749e-02 -4.3554018801962968e-02 -1.8204592324915381e-01 -4.7592698478187145e-03 7.1960543702298957e-02 -2.4751900328593013e-01 1.0327155904042629e-01 -9.1208983960967244e-02 -3.6353171124039774e-01 5.6230293945481513e-02 1.3555920375932318e-01 -3.9440766143735040e-02 4.1376458861846988e-02 -3.0999767191434913e-01 2.7946687699669320e-01 2.5085077566725644e-01 -5.1684926508787044e-01 5.0155020051044452e-01 1.3667883258477076e-01 -2.5774433240071737e-01 9.0144057960195312e-02 2.3681836560983793e-01 -4.8674970559574504e-01 3.6277931580181999e-01 -9.0501750082901011e-02 -4.6395113821110723e-02 -1.1496675261419398e-02 6.9211469162921535e-01 4.2184557781840670e-01 -4.3870090134453510e-01 -1.6955314896305351e-01 -7.0933125711642675e-02 -4.3169903228381656e-01 -9.1390412999641235e-03 2.9916492181475907e-01 -2.2489843912433805e-01 
      </Row>
      <Row Index="7">
        -1.3871826272428749e+00 1.5848592569418786e+01 2.4823146207721862e+00 -6.1690052020708830e-01 3.2612187747135177e+00 4.9710158828485982e+00 6.1789948177478582e-01 5.9698353871041320e+01 -1.6259213854769584e+01 2.5795787153404959e+00 3.7732143025152531e-01 5.9830561022657918e+00 3.4036547138509263e+00 2.6181237166898654e+00 -1.4640113470321641e+00 -1.2249728265362609e+00 3.4945653244602570e-01 8.2564429426274666e-01 -2.1060464973883004e+00 -1.4580783043357277e+00 -1.4567312716553619e+01 2.3330261429729404e+00 -1.0599638398137512e+00 -1.3403229864820978e+00 -1.7130652281966783e+00 -1.1954991554858050e+00 -6.3611812784103652e+00 -2.3543161921364632e+01 1.8646442965639263e+00 -2.3738398759405893e+01 -1.1334054032205657e+01 -9.1996268940469150e-01 6.4963882742883676e+00 9.4579202532800366e+00 -1.3397595423495332e+00 -3.0852445936095299e+00 4.9959316086360772e-01 1.8388847825815610e+01 -9.1790866490461873e+00 4.9298415294238929e-01 -3.5797649419182787e-01 3.6292723761952539e-01 -9.8334029660347044e-02 -6.7267281284191127e-02 -3.7217765076508424e-02 -3.3302451350282125e-01 -1.9080859693532837e+00 2.1181101858870743e+00 -4.5487319583606280e-02 -1.3910557989730077e-01 -2.1480613152425571e-01 -2.0275929064927345e-01 1.1982089079360114e-01 -1.2747846571683108e-01 1.2760685159541235e-01 3.4968898055405373e-02 -5.9057388871580407e-02 -7.5116705926216110e-02 3.9530753223921300e-02 -5.8516681395239212e-01 7.4619116856584511e-01 7.8125254029881352e-02 3.9040765221082463e-02 8.7458295376381168e-02 1.7329283517231681e-01 -7.4090938633777403e-01 -1.0469871302885099e+00 1.7096298404394039e-01 -2.6637109407376336e-01 -5.2506231977633211e-01 4.5499228818688153e-01 -1.6841705031104670e-01 -1.2287888850629274e+00 3.0788840428919428e-01 -8.3480224259430136e-02 -1.7485899688350279e-02 3.1089240790174033e-01 -2.3272718995321018e-02 -2.7750021470755648e-01 -4.8014552625030715e-01 -1.6914247050199815e-01 -1.5741372616542382e-01 -2.2400677799250923e-02 -1.1798614266645147e-01 -3.2655408162742960e-01 -9.7975479380441044e-03 2.0514972296378442e-01 -1.9203376155419422e-01 -3.0631128272907260e-02 9.0067083793969438e-02 -3.6383492340412715e-03 2.8756034877622616e-01 -3.0458960535154622e-02 -9.6857389474558353e-03 -2.8822484132672327e-02 2.4925623403447655e-01 -1.0026735187426070e-01 3.2026583637450312e-02 -1.4095551650233396e-01 5.0879965306165786e-01 -1.1694659860464005e-01 -1.0068227430909105e-01 -5.9169901625925614e-02 -8.1849747396075090e-02 9.6132785292526357e-01 1.6140255565746550e-01 3.0510843213872008e-01 1.6650251235753144e-02 1.3609189249781628e-01 -4.4568240431413386e-01 -3.9952908275425592e-01 -1.7621916421826842e+00 4.9303588030811696e-01 -1.0458071225836874e-01 -2.0612997273884348e-01 -4.9575691307339109e-01 -2.1011074114164777e-01 3.6685642261073959e-02 -1.1300101732756729e-01 8.1916178028857978e-02 -3.0496902181136154e-02 -2.6307798438475416e-02 -1.9665783563421330e-03 -4.9199804921561563e-02 -1.5452191632205678e-01 7.6536687514149548e-02 4.7975069968758832e-02 -2.3908378324633661e-02 1.6162884848243422e-02 -1.6651146177830756e-02 -3.1179542557827455e-02 -4.5065065279742661e-02 -1.1543791363426426e-02 5.4936703041183144e-02 3.0060741677300551e-02 -2.5150038123814611e-02 2.0163100062218775e-03 -4.4650558759240649e-02 -8.6976932784811112e-02 1.8010750060698522e-03 7.5346481528777293e-02 -1.0972124112007507e-02 -1.6272985937149098e-04 -5.7364387111639825e-02 -6.1291291663828268e-02 4.7267755786364982e-02 6.1266538815493980e-02 6.0645683056212873e-02 -4.1981963408699002e-02 1.5960906888412563e-04 -5.3932534062506976e-01 4.8053700576078384e-04 -2.3577906287090666e-02 4.6475688411990401e-02 -4.7911508640460336e-03 -6.7840652158829284e-03 -4.9909097855649875e+00 -9.6363145616126147e+00 3.1694640832620848e+00 -2.3934607703299498e+01 -7.1897870207914707e+00 1.7858822688384111e+00 5.7320701848044280e+00 5.3613848380277560e+01 -1.3618892796663346e+01 -1.5589346674792284e+00 -3.7427399212713031e-01 2.2571166252897491e+01 -6.9071749704784295e+00 -5.7276572317251251e-02 -8.9457532939738460e-02 3.3335351154980652e-01 -2.1192567944442464e-01 5.7210693855040518e-02 2.1959828612018162e-01 -4.6355066397669908e-01 1.0809430576625090e-02 2.1214689569260159e-01 -6.9890119224413683e-01 -2.7320755407082231e-02 1.5991520052491555e+00 2.4030145428811878e-02 -2.4563014008937754e+00 6.9246604420407798e-01 -1.2469561862967606e+00 -1.0422653183517248e+00 -4.7373061429673680e-01 -1.1833616645937326e+00 -1.5503829104853144e+00 7.0779242630517736e-01 6.8579940258831584e-01 -7.6852165606791090e-03 4.4069538137619269e-01 -5.6029143089442357e-01 4.6246490092065567e-01 8.9445059472385324e-01 -8.4865845773886228e-02 -6.1660491285374164e-01 -5.9486095170020148e-01 -2.0235628573956735e-01 -9.6656713106296976e-02 3.3482455629764685e-01 1.0150018744517482e-01 -2.7743442184023914e-02 2.8353246380484975e-02 9.5933351132507255e-02 -1.3761456202681499e-01 5.2129533383615811e-03 6.2880917526171587e-03 1.0512124419592821e-01 -2.4881993836302696e-01 7.9520467525260652e-02 1.8457790520183970e-01 9.0670357546423053e-01 -2.0327620333791202e-01 -4.6368244666754732e-01 4.7632258112341219e-01 -5.7584407631668644e-01 5.3244022176554351e-01 8.0809329020866416e-01 -1.9093583678486858e-01 -2.8176849970569262e-01 1.8337960573270493e+00 -7.3449024667286644e-01 -1.8063970136548591e-01 -4.2382732635677201e-01 -9.4921331735264403e-02 -2.0007656117499906e-01 1.6172042104205214e-01 3.1579585317219383e-02 1.1054329274975927e-01 -2.0874859867363371e-01 -5.6241692139208377e-02 9.2693737790954245e-03 -2.5460970554270546e-02 -3.9627849761592060e-01 -7.0773618623933388e-02 -1.3795084635762483e-02 -3.5588270250387355e-01 1.0243448105476471e-01 3.9546320792335266e-01 -5.0848363242491867e-02 -3.4183266327693224e-02 5.6546594416864959e-01 -1.6740926722106853e-01 5.7003252085312695e-03 4.6544217948060851e-02 2.5190652088264720e-01 -1.4537665098051802e+00 4.1426970491876203e-01 -5.0573634647404608e-01 -8.9366764233534779e-01 -4.1310999036632401e-01 -4.6516186937966281e-01 -9.9204197904748703e-01 3.5402386733405677e-02 4.9622112494167436e-01 -1.2665539116290034e+00 -2.8283283888537902e-01 -7.6586465009852134e-01 6.6694115661234588e-01 -1.3708809295481625e+00 -2.9677746569734609e-01 4.2767052335347211e-01 2.0335579417538696e-01 9.7058125720086608e-01 1.0603146728826207e-01 7.6820314200156647e-01 3.2921862750960385e-01 -1.8481429130716620e-01 3.0133424096855699e-01 2.5731197144019369e-01 5.7666856924076582e-02 -2.4298076048539397e-02 -1.4731483946801482e-01 1.0491361978766367e-01 -3.1951265205230422e-01 2.5376667178917955e-03 5.5221644152726235e-02 -7.0818848117209621e-02 1.3086803034890945e-01 -6.5328504405802512e-02 -2.3401526195770245e-01 1.3826215723951929e-01 -1.9940354954671280e-01 6.6762062826617674e-02 -1.0530551513892128e-01 -4.9103019783802715e-02 -1.3157742951419138e-02 -1.4619892237810461e-04 5.0777497222436685e-02 2.4914254905435707e-01 -2.1844741987308480e-01 8.2295996929464543e-02 -1.4897742561545313e-01 -5.0986911418926195e-02 8.9148005517250994e-02 -1.8653162354146513e-01 -3.2324189191162400e-01 -1.1925243904709981e-01 4.5411372343003104e-02 -2.7929334076098433e-01 1.0112833385748221e-01 -3.0080542747413674e-02 -2.1565512743687576e-01 3.3502324290852181e-01 -7.7015546906308852e-02 5.3662507001973658e-01 -9.4461057505856871e-02 -1.0549001384479073e-01 -2.7648436143583011e-01 7.9619425375738739e-03 -1.4732890624491874e+00 -2.4646511004725369e-01 1.7895734905707674e+00 -5.9707259107273103e-01 8.4591526806527129e-01 8.2268633465923457e-01 5.3999441348407728e-01 9.2119194267247195e-01 1.1954011023595588e+00 -2.4063649553762101e-01 -7.8515365167253037e-01 -5.4551449953545911e-02 7.9868636260556458e-02 -1.2984045058401517e-01 -7.7108918840372609e-01 6.3305219088156006e-02 2.4325935955167965e-01 -3.3434591678579650e-02 2.4707613758602057e-01 6.4110285966497926e-02 -5.9386135790683525e-02 1.0041851349375630e-01 -1.0949604403734806e-01 
      </Row>
      <Row Index="8">
        1.8839369342234171e+00 1.6509051289279000e+01 3.6619018285499394e+01 -1.0467571702014027e+00 -5.6407880675860094e+00 -3.6845890513228433e+01 1.2752002504491593e+01 -1.6259213872691131e+01 1.3402033001044836e+03 -4.4094238222129150e+00 -3.2048406742838793e+00 -1.3945540980562576e+01 4.2182052222926831e+00 -2.0487181552389018e+00 -1.0191776404824513e+01 -1.1907814177455606e+01 6.5196560378852642e-01 1.6315441785979132e+00 8.5134577090552455e+00 -3.7759947835469791e+00 1.6938407696886024e+00 -1.7788452997116821e+02 4.5081966837984560e+00 6.4233127356524999e-01 2.1472780329747536e+00 -3.8381527282332204e+00 -4.9819776400759196e+01 -7.1286962947030162e+01 -1.9065570630653919e+01 -9.1120145102771701e+00 1.3719552919514509e+01 -4.9673544154228395e+01 3.4286912808852321e+00 3.6440657936932482e+01 -1.7211016723926554e+02 1.6254335337206932e+01 2.5657690054548752e+01 -1.0116932011801554e+01 -1.4493807668386948e+01 -3.3683036114994644e+00 4.0361121765008173e-01 -2.6021052176114834e+00 -1.4780024152485155e-01 2.7206122503948160e-01 -3.1510737809106848e-02 5.7083426429923823e-01 1.5652012985449550e+00 -4.2498520671486496e+01 3.0605952289507927e+00 1.7402753678008704e+00 4.1223094081914669e-01 1.6521451351926011e+00 -2.8147270016738446e-03 3.5774615229763995e-01 -9.7220099874527177e-01 -2.2924498431445040e-01 -2.2714586462864506e-01 1.8919141944358753e-01 -3.3562150415407999e-02 -4.4090202088855168e-02 -1.1676479861270813e+01 -1.2084267697982010e-01 -2.9707739932060173e-01 -4.4995427518956355e-02 1.0966383654744855e-01 -7.6201612203887992e-02 1.7064103313771373e-01 9.0392186848673983e-01 5.3359348963132458e-01 -3.5307247332971103e-01 -2.3087782133663133e+00 -6.8416902119168221e-01 -4.4110868777491308e-01 1.0665291216476568e+01 -1.8540604741055056e+00 -1.8454210068025840e+00 -1.1872771135202096e+00 2.6705623897706232e-01 6.0253491774972634e-02 9.4292673258619164e-01 1.1522011280080497e+00 3.6476901515601412e-01 2.2889547454765369e-01 -1.7368818955764795e+00 2.8503432200930073e-01 -1.9780242213809585e-01 1.8919573314966371e+01 -8.9083161966292657e-01 -6.0018064427109685e-01 3.0462595006724458e-01 1.1959378743479849e+00 5.6125258015959467e-02 -5.9895322200532797e-01 -1.2757056202838779e-01 9.3895734856577595e-02 5.0387559161933182e-01 2.8012342827354608e-01 -1.5094449780836966e-01 1.3332666619690592e-01 -2.6185619508329872e-01 4.2138121554050073e-01 3.1078238114434509e-01 6.3296480600745497e-01 -3.4642348844612358e-01 -3.0612585015088287e+00 1.8386345228158745e+00 -3.7850280936004346e+00 -5.6763720073524482e-01 2.4753078317269051e-01 1.4662906032273035e+00 1.6243994862630422e+00 1.8589075532864374e+00 -2.6821256801832014e+01 4.3151278232280177e+00 2.2722900684225329e+00 1.2993012694258594e+00 2.7265467514645056e+00 -7.8572322842763032e-01 3.0499887658497826e-01 -6.3728616268024130e-01 1.2544492635624271e-01 7.0338510033689072e-02 -4.5499686058178895e-01 2.2467555035170289e-01 3.7859704275709116e-01 3.7868428611439597e-01 6.1476200954556504e-01 -1.0248433224652809e-01 1.4414023528637435e-01 5.9422766523000869e-01 8.5049606734861061e-03 1.3961676424657954e-01 -5.2587409902810300e-02 -3.8110734293091308e-01 3.1829846610729828e-01 1.1252926541140190e-01 4.2372304191153798e-01 -9.9783039249995459e-02 -3.3529714206443089e+00 -2.9469500149630612e-01 -6.8873527050208472e-01 1.3522171672146749e-01 2.7532889006386063e-01 -7.0345510436289782e-02 -4.6366882855861430e-01 -5.0380159620483633e-01 8.9627558834153562e-02 -3.9747161128605657e-02 2.2478756353232043e-01 2.8773401203309401e-01 -5.0328545809121356e-02 -3.4498815649463577e+00 2.2973626011077886e-02 -4.5996883435556968e-02 -1.8357883467173064e-01 1.5631352467436299e-02 -5.0120266697796929e+01 -6.4462655608020739e+01 4.6800418805280941e+00 -1.0027557959351689e+01 9.8497103394994809e+00 -7.7373816599546259e+01 1.2588163504317244e+01 2.2144400873244336e+01 9.5107500370321850e+02 1.6530086248363972e+01 2.3009849977976280e+01 -2.1276946479684419e+01 -1.3585951508789051e+01 -1.4184595929753909e+00 9.0522227315574533e-01 -5.3240292934569144e-01 -1.3153412125855213e+00 8.0984220070509838e-01 -1.0692570572781790e-01 1.4296355766389368e+00 1.3823290187174564e-01 1.9353991374954482e-01 1.1048762830551451e+00 -5.3744048041618298e-01 -1.0935794858480108e-01 1.2000661003558437e+00 1.7830154731347372e+00 3.8262689593851089e+00 1.4702473328421712e+00 -3.1678298016073425e-01 8.2795386573798258e-01 9.5484212243157307e-01 9.5848092476326230e-01 -1.7475308735396489e-02 -2.1476285530629358e-01 -2.9353931328724769e-01 -2.2476961308346546e+00 3.8458650151249998e+00 -1.6115335886103913e-01 4.3579087620980772e-01 2.2422401458228922e+00 5.2799955193944470e-01 2.2372168863271646e+00 3.3644140490301213e+00 -1.0872084761814591e+00 4.2134530062101305e-01 -3.1770465609643445e-01 -9.6202265416973853e-02 -2.4054488164627585e-01 -1.5860383187145288e-01 3.1944209826349468e-01 -4.1067178380921232e-01 5.0044279545722326e-01 -4.7621205070766770e-01 -1.2257423502465361e+00 2.1383476980197447e-01 1.6560449715680283e+00 2.4862808965212020e+00 -1.3651928887979521e+00 3.8256526129178825e-01 8.2877688737044508e-01 -8.9734896289936938e-01 4.8869231192235940e-01 -5.4201760260615250e-01 1.8729786442771368e-01 -1.5383954939264188e-01 -1.1146648594244963e+00 3.2015696367647983e-01 -3.3933247194695504e-01 -4.1278227380381338e-02 -8.8680474165756973e-02 -5.4389886443619417e-01 -3.8325133022547897e-01 -2.0492777360544023e-01 3.3228472479005333e-01 8.2815040745697521e-01 -8.2466890851828101e-01 -9.5612226021023849e-01 2.2778104997740023e-02 -1.8186425517994662e+00 2.8511054949450365e-01 3.4162050877187844e-01 -8.0286237323561593e-01 1.0530250437018975e+00 -2.3063899278339939e-01 9.6609814703747698e-01 6.7493951612913672e-01 1.5417482715865205e-01 -2.5138397163997261e-01 2.6271623077809808e-01 8.2647830920730847e-01 1.0124412633201718e-01 -8.2168251621470745e-01 2.1307455643031119e+00 9.1694009113611086e-02 -9.5442942948979415e-01 -5.0001258853834551e-01 -7.6771329312656944e-01 -3.8040859598902899e-01 1.2563101112379531e+00 4.2910535563898367e-01 8.2836391369480381e+01 2.4870139831551700e+01 -3.6671949595300674e+01 -9.4661030964753756e+00 1.7377433520944663e+01 -3.3589412833266806e+01 -8.0218671349666870e+00 -4.0894175912033660e+01 -3.6971788463340403e+00 6.4532502711429558e+00 4.9344742648271293e+01 5.0228365328783298e-01 -7.9435416023216021e-01 -1.1240521226874156e-01 4.6806099288151337e-01 1.0492004599265172e+00 -2.0498660394161264e-01 5.0466910168773804e-02 -4.4334111929642644e-01 -1.9647743927165351e-01 4.8961667399201758e-01 1.8278831643855775e-01 2.7947315489466440e-01 2.6819265680023552e-01 6.1940607247347845e-01 -3.2150421059831302e-01 -5.5867199517578570e-01 9.2341914111440282e-01 8.0550102922329803e-01 1.3560198189473294e-01 6.7235829523720936e-01 1.2022225624092631e+00 -3.7255629819526348e-02 7.6182491517433215e-01 2.5084508104762371e-01 3.2440687514476707e-03 -1.0677210366958656e+00 -1.5805124070464536e+00 -4.1572854868588838e-01 2.3053637063170429e-01 3.9460948251340255e-01 -2.4468892837988143e-01 -2.5417696098311371e-01 -1.8359281860865018e-01 -3.6857383051606574e-02 1.6039463441904900e-01 4.0922568572461782e-01 -2.8529416893044868e-01 1.1225570239398885e-01 7.7234481822053475e-02 4.0922540951302970e+00 9.9032597932474564e-01 1.7406930227441678e-01 -6.6339085377975060e-02 -2.0390526956977695e-01 5.3418561536355824e-02 9.0976218286277152e-03 -1.0170443295307479e+00 -1.8022015074461351e+00 -1.8919423977077798e+00 4.1069808347989323e-01 -2.3404217961810354e+00 -8.3692736145311741e-01 -7.0992812006238637e-01 -1.0125996184491015e+00 -1.6163989210857039e+00 -3.1430239356987022e-02 1.5500437295038605e-01 4.7230839739426500e-01 2.9199331124617842e+00 4.1958959324075495e-01 -1.7169230005411320e+00 4.1334218648024468e+00 -6.4895466821973358e-01 -6.0092480922713776e-01 -6.5002146525693938e-01 2.2790614793634956e-01 -2.1598557138183286e-01 
      </Row>
      <Row Index="9">
