<?xml version="1.0"?>
<MethodSetup Method="BDT::GradBDT">
  <GeneralInfo>
    <Info name="TMVA Release" value="4.2.0 [262656]"/>
    <Info name="ROOT Release" value="5.28/00 [334848]"/>
    <Info name="Creator" value="han"/>
    <Info name="Date" value="Tue Dec  7 20:41:32 2021"/>
    <Info name="Host" value="Linux sukla01 3.10.0-327.36.3.el7.x86_64 #1 SMP Thu Oct 20 04:56:07 EDT 2016 x86_64 x86_64 x86_64 GNU/Linux"/>
    <Info name="Dir" value="/disk02/calib3/usr/han/mc/random"/>
    <Info name="Training events" value="3919388"/>
    <Info name="TrainingTime" value="5.79032345e+03"/>
    <Info name="AnalysisType" value="Classification"/>
  </GeneralInfo>
  <Options>
    <Option name="V" modified="Yes">True</Option>
    <Option name="VerbosityLevel" modified="No">Verbose</Option>
    <Option name="VarTransform" modified="Yes">N</Option>
    <Option name="H" modified="Yes">True</Option>
    <Option name="CreateMVAPdfs" modified="No">False</Option>
    <Option name="IgnoreNegWeightsInTraining" modified="No">False</Option>
    <Option name="NTrees" modified="Yes">1000</Option>
    <Option name="MaxDepth" modified="Yes">3</Option>
    <Option name="MinNodeSize" modified="Yes">2%</Option>
    <Option name="nCuts" modified="No">20</Option>
    <Option name="BoostType" modified="Yes">Grad</Option>
    <Option name="AdaBoostR2Loss" modified="No">quadratic</Option>
    <Option name="UseBaggedBoost" modified="Yes">True</Option>
    <Option name="Shrinkage" modified="Yes">1.000000e-01</Option>
    <Option name="AdaBoostBeta" modified="No">5.000000e-01</Option>
    <Option name="UseRandomisedTrees" modified="No">False</Option>
    <Option name="UseNvars" modified="No">4</Option>
    <Option name="UsePoissonNvars" modified="No">True</Option>
    <Option name="BaggedSampleFraction" modified="Yes">5.000000e-01</Option>
    <Option name="UseYesNoLeaf" modified="No">True</Option>
    <Option name="NegWeightTreatment" modified="Yes">ignorenegweightsintraining</Option>
    <Option name="Css" modified="No">1.000000e+00</Option>
    <Option name="Cts_sb" modified="No">1.000000e+00</Option>
    <Option name="Ctb_ss" modified="No">1.000000e+00</Option>
    <Option name="Cbb" modified="No">1.000000e+00</Option>
    <Option name="NodePurityLimit" modified="No">5.000000e-01</Option>
    <Option name="SeparationType" modified="No">giniindex</Option>
    <Option name="DoBoostMonitor" modified="No">False</Option>
    <Option name="UseFisherCuts" modified="No">False</Option>
    <Option name="MinLinCorrForFisher" modified="No">8.000000e-01</Option>
    <Option name="UseExclusiveVars" modified="No">False</Option>
    <Option name="DoPreselection" modified="No">False</Option>
    <Option name="SigToBkgFraction" modified="No">1.000000e+00</Option>
    <Option name="PruneMethod" modified="No">nopruning</Option>
    <Option name="PruneStrength" modified="No">0.000000e+00</Option>
    <Option name="PruningValFraction" modified="No">5.000000e-01</Option>
    <Option name="nEventsMin" modified="No">0</Option>
    <Option name="UseBaggedGrad" modified="No">False</Option>
    <Option name="GradBaggingFraction" modified="No">5.000000e-01</Option>
    <Option name="UseNTrainEvents" modified="No">0</Option>
    <Option name="NNodesMax" modified="No">0</Option>
  </Options>
  <Variables NVar="12">
    <Variable VarIndex="0" Expression="NHits" Label="NHits" Title="NHits" Unit="" Internal="NHits" Type="F" Min="4.00000000e+00" Max="9.29000000e+02"/>
    <Variable VarIndex="1" Expression="N200" Label="N200" Title="N200" Unit="" Internal="N200" Type="F" Min="7.00000000e+00" Max="1.42000000e+03"/>
    <Variable VarIndex="2" Expression="TRMS" Label="TRMS" Title="TRMS" Unit="" Internal="TRMS" Type="F" Min="1.13287652e+00" Max="9.04657734e+04"/>
    <Variable VarIndex="3" Expression="Beta1" Label="Beta1" Title="Beta1" Unit="" Internal="Beta1" Type="F" Min="-3.31758022e-01" Max="9.99759197e-01"/>
    <Variable VarIndex="4" Expression="Beta5" Label="Beta5" Title="Beta5" Unit="" Internal="Beta5" Type="F" Min="-3.02509546e-01" Max="9.96392131e-01"/>
    <Variable VarIndex="5" Expression="OpeningAngleMean" Label="OpeningAngleMean" Title="OpeningAngleMean" Unit="" Internal="OpeningAngleMean" Type="F" Min="1.37802994e+00" Max="8.85620346e+01"/>
    <Variable VarIndex="6" Expression="OpeningAngleSkew" Label="OpeningAngleSkew" Title="OpeningAngleSkew" Unit="" Internal="OpeningAngleSkew" Type="F" Min="-2.97246674e+02" Max="3.45846558e+02"/>
    <Variable VarIndex="7" Expression="OpeningAngleStdev" Label="OpeningAngleStdev" Title="OpeningAngleStdev" Unit="" Internal="OpeningAngleStdev" Type="F" Min="3.58418771e-03" Max="4.44997673e+01"/>
    <Variable VarIndex="8" Expression="MeanDirAngleMean" Label="MeanDirAngleMean" Title="MeanDirAngleMean" Unit="" Internal="MeanDirAngleMean" Type="F" Min="7.53483415e-01" Max="9.35002670e+01"/>
    <Variable VarIndex="9" Expression="MeanDirAngleRMS" Label="MeanDirAngleRMS" Title="MeanDirAngleRMS" Unit="" Internal="MeanDirAngleRMS" Type="F" Min="1.89099595e-01" Max="8.66220551e+01"/>
    <Variable VarIndex="10" Expression="DWall" Label="DWall" Title="DWall" Unit="" Internal="DWall" Type="F" Min="-1.00000000e+02" Max="1.68750146e+03"/>
    <Variable VarIndex="11" Expression="DWallMeanDir" Label="DWallMeanDir" Title="DWallMeanDir" Unit="" Internal="DWallMeanDir" Type="F" Min="3.31192551e+01" Max="5.09144971e+03"/>
  </Variables>
  <Spectators NSpec="1">
    <Spectator SpecIndex="0" Expression="Label" Label="Label" Title="I" Unit="" Internal="Label" Type="F" Min="0.00000000e+00" Max="3.00000000e+00"/>
  </Spectators>
  <Classes NClass="2">
    <Class Name="Signal" Index="0"/>
    <Class Name="Background" Index="1"/>
  </Classes>
  <Transformations NTransformations="1">
    <Transform Name="Normalize">
      <Selection>
        <Input NInputs="12">
          <Input Type="Variable" Label="NHits" Expression="NHits"/>
          <Input Type="Variable" Label="N200" Expression="N200"/>
          <Input Type="Variable" Label="TRMS" Expression="TRMS"/>
          <Input Type="Variable" Label="Beta1" Expression="Beta1"/>
          <Input Type="Variable" Label="Beta5" Expression="Beta5"/>
          <Input Type="Variable" Label="OpeningAngleMean" Expression="OpeningAngleMean"/>
          <Input Type="Variable" Label="OpeningAngleSkew" Expression="OpeningAngleSkew"/>
          <Input Type="Variable" Label="OpeningAngleStdev" Expression="OpeningAngleStdev"/>
          <Input Type="Variable" Label="MeanDirAngleMean" Expression="MeanDirAngleMean"/>
          <Input Type="Variable" Label="MeanDirAngleRMS" Expression="MeanDirAngleRMS"/>
          <Input Type="Variable" Label="DWall" Expression="DWall"/>
          <Input Type="Variable" Label="DWallMeanDir" Expression="DWallMeanDir"/>
        </Input>
        <Output NOutputs="12">
          <Output Type="Variable" Label="NHits" Expression="NHits"/>
          <Output Type="Variable" Label="N200" Expression="N200"/>
          <Output Type="Variable" Label="TRMS" Expression="TRMS"/>
          <Output Type="Variable" Label="Beta1" Expression="Beta1"/>
          <Output Type="Variable" Label="Beta5" Expression="Beta5"/>
          <Output Type="Variable" Label="OpeningAngleMean" Expression="OpeningAngleMean"/>
          <Output Type="Variable" Label="OpeningAngleSkew" Expression="OpeningAngleSkew"/>
          <Output Type="Variable" Label="OpeningAngleStdev" Expression="OpeningAngleStdev"/>
          <Output Type="Variable" Label="MeanDirAngleMean" Expression="MeanDirAngleMean"/>
          <Output Type="Variable" Label="MeanDirAngleRMS" Expression="MeanDirAngleRMS"/>
          <Output Type="Variable" Label="DWall" Expression="DWall"/>
          <Output Type="Variable" Label="DWallMeanDir" Expression="DWallMeanDir"/>
        </Output>
      </Selection>
      <Class ClassIndex="0">
        <Ranges>
          <Range Index="0" Min="4.0000000000000000e+00" Max="9.8000000000000000e+01"/>
          <Range Index="1" Min="7.0000000000000000e+00" Max="1.4100000000000000e+02"/>
          <Range Index="2" Min="1.1328765153884888e+00" Max="9.0465773437500000e+04"/>
          <Range Index="3" Min="-2.7815833687782288e-01" Max="9.9274438619613647e-01"/>
          <Range Index="4" Min="-1.9932274520397186e-01" Max="8.9641040563583374e-01"/>
          <Range Index="5" Min="8.7641973495483398e+00" Max="8.7401252746582031e+01"/>
          <Range Index="6" Min="-2.1836518859863281e+02" Max="2.8241201782226562e+02"/>
          <Range Index="7" Min="3.3154612779617310e-01" Max="3.6027317047119141e+01"/>
          <Range Index="8" Min="4.1079201698303223e+00" Max="8.8557090759277344e+01"/>
          <Range Index="9" Min="2.1199975013732910e+00" Max="7.7061889648437500e+01"/>
          <Range Index="10" Min="-1.0000000000000000e+02" Max="1.6787399902343750e+03"/>
          <Range Index="11" Min="1.2167674255371094e+02" Max="5.0167890625000000e+03"/>
        </Ranges>
      </Class>
      <Class ClassIndex="1">
        <Ranges>
          <Range Index="0" Min="4.0000000000000000e+00" Max="9.2900000000000000e+02"/>
          <Range Index="1" Min="7.0000000000000000e+00" Max="1.4200000000000000e+03"/>
          <Range Index="2" Min="1.6301600933074951e+00" Max="4.4506353759765625e+02"/>
          <Range Index="3" Min="-3.3175802230834961e-01" Max="9.9975919723510742e-01"/>
          <Range Index="4" Min="-3.0250954627990723e-01" Max="9.9639213085174561e-01"/>
          <Range Index="5" Min="1.3780299425125122e+00" Max="8.8562034606933594e+01"/>
          <Range Index="6" Min="-2.9724667358398438e+02" Max="3.4584655761718750e+02"/>
          <Range Index="7" Min="3.5841877106577158e-03" Max="4.4499767303466797e+01"/>
          <Range Index="8" Min="7.5348341464996338e-01" Max="9.3500267028808594e+01"/>
          <Range Index="9" Min="1.8909959495067596e-01" Max="8.6622055053710938e+01"/>
          <Range Index="10" Min="-1.0000000000000000e+02" Max="1.6875014648437500e+03"/>
          <Range Index="11" Min="3.3119255065917969e+01" Max="5.0914497070312500e+03"/>
        </Ranges>
      </Class>
      <Class ClassIndex="2">
        <Ranges>
          <Range Index="0" Min="4.0000000000000000e+00" Max="9.2900000000000000e+02"/>
          <Range Index="1" Min="7.0000000000000000e+00" Max="1.4200000000000000e+03"/>
          <Range Index="2" Min="1.1328765153884888e+00" Max="9.0465773437500000e+04"/>
          <Range Index="3" Min="-3.3175802230834961e-01" Max="9.9975919723510742e-01"/>
          <Range Index="4" Min="-3.0250954627990723e-01" Max="9.9639213085174561e-01"/>
          <Range Index="5" Min="1.3780299425125122e+00" Max="8.8562034606933594e+01"/>
          <Range Index="6" Min="-2.9724667358398438e+02" Max="3.4584655761718750e+02"/>
          <Range Index="7" Min="3.5841877106577158e-03" Max="4.4499767303466797e+01"/>
          <Range Index="8" Min="7.5348341464996338e-01" Max="9.3500267028808594e+01"/>
          <Range Index="9" Min="1.8909959495067596e-01" Max="8.6622055053710938e+01"/>
          <Range Index="10" Min="-1.0000000000000000e+02" Max="1.6875014648437500e+03"/>
          <Range Index="11" Min="3.3119255065917969e+01" Max="5.0914497070312500e+03"/>
        </Ranges>
      </Class>
    </Transform>
  </Transformations>
  <MVAPdfs/>
  <Weights NTrees="1000" AnalysisType="1">
    <BinaryTree type="DecisionTree" boostWeight="1.0000000000000000e+00" itree="0">
      <Node pos="s" depth="0" NCoef="0" IVar="10" Cut="-7.1479088068008423e-01" cType="0" res="-5.3956371266394854e-04" rms="4.9999970197677612e-01" purity="4.9946042895317078e-01" nType="0">
        <Node pos="l" depth="1" NCoef="0" IVar="0" Cut="-9.8064351081848145e-01" cType="0" res="1.8133182823657990e-01" rms="4.6596005558967590e-01" purity="6.8133187294006348e-01" nType="0">
          <Node pos="l" depth="2" NCoef="0" IVar="1" Cut="-9.6245741844177246e-01" cType="0" res="4.5905297994613647e-01" rms="1.9816753268241882e-01" purity="9.5905297994613647e-01" nType="0">
            <Node pos="l" depth="3" NCoef="0" IVar="-1" Cut="0.0000000000000000e+00" cType="1" res="6.0428725555539131e-03" rms="1.2553934752941132e-01" purity="9.8398327827453613e-01" nType="-99"/>
            <Node pos="r" depth="3" NCoef="0" IVar="-1" Cut="0.0000000000000000e+00" cType="1" res="5.2553573623299599e-03" rms="3.2940727472305298e-01" purity="8.7615269422531128e-01" nType="-99"/>
          </Node>
          <Node pos="r" depth="2" NCoef="0" IVar="0" Cut="-9.8846846818923950e-01" cType="0" res="-1.6342219710350037e-01" rms="4.7253906726837158e-01" purity="3.3657780289649963e-01" nType="0">
            <Node pos="l" depth="3" NCoef="0" IVar="-1" Cut="0.0000000000000000e+00" cType="1" res="1.4419348735827953e-04" rms="4.9988424777984619e-01" purity="5.1075839996337891e-01" nType="-99"/>
            <Node pos="r" depth="3" NCoef="0" IVar="-1" Cut="0.0000000000000000e+00" cType="1" res="-1.6106950119137764e-02" rms="4.0199112892150879e-01" purity="2.0267337560653687e-01" nType="-99"/>
          </Node>
        </Node>
        <Node pos="r" depth="1" NCoef="0" IVar="8" Cut="1.7567956447601318e-01" cType="0" res="-3.5319077968597412e-01" rms="3.5391563177108765e-01" purity="1.4680925011634827e-01" nType="0">
          <Node pos="l" depth="2" NCoef="0" IVar="-1" Cut="0.0000000000000000e+00" cType="1" res="-2.3804267402738333e-03" rms="4.9181693792343140e-01" purity="4.0991067886352539e-01" nType="-99"/>
          <Node pos="r" depth="2" NCoef="0" IVar="10" Cut="-7.9628002643585205e-01" cType="0" res="-3.7017384171485901e-01" rms="3.3611205220222473e-01" purity="1.2982615828514099e-01" nType="0">
            <Node pos="l" depth="3" NCoef="0" IVar="-1" Cut="0.0000000000000000e+00" cType="1" res="-9.7940256819128990e-03" rms="4.3952110409736633e-01" purity="2.6162803173065186e-01" nType="-99"/>
            <Node pos="r" depth="3" NCoef="0" IVar="-1" Cut="0.0000000000000000e+00" cType="1" res="-3.3546447753906250e-02" rms="3.1739091873168945e-01" purity="1.1365430057048798e-01" nType="-99"/>
          </Node>
        </Node>
      </Node>
    </BinaryTree>
    <BinaryTree type="DecisionTree" boostWeight="1.0000000000000000e+00" itree="1">
      <Node pos="s" depth="0" NCoef="0" IVar="10" Cut="-7.1479088068008423e-01" cType="0" res="5.7151201181113720e-03" rms="4.9449038505554199e-01" purity="5.0049823522567749e-01" nType="0">
        <Node pos="l" depth="1" NCoef="0" IVar="0" Cut="-9.8270273208618164e-01" cType="0" res="1.8195615708827972e-01" rms="4.6283221244812012e-01" purity="6.8156141042709351e-01" nType="0">
          <Node pos="l" depth="2" NCoef="0" IVar="0" Cut="-9.7281849384307861e-01" cType="0" res="4.5632323622703552e-01" rms="1.9766177237033844e-01" purity="9.5925468206405640e-01" nType="0">
            <Node pos="l" depth="3" NCoef="0" IVar="-1" Cut="0.0000000000000000e+00" cType="1" res="6.0750856064260006e-03" rms="7.3207668960094452e-02" purity="9.9461042881011963e-01" nType="-99"/>
            <Node pos="r" depth="3" NCoef="0" IVar="-1" Cut="0.0000000000000000e+00" cType="1" res="4.8229047097265720e-03" rms="3.7595811486244202e-01" purity="8.2963442802429199e-01" nType="-99"/>
          </Node>
          <Node pos="r" depth="2" NCoef="0" IVar="0" Cut="-9.8846846818923950e-01" cType="0" res="-1.5894652903079987e-01" rms="4.7125720977783203e-01" purity="3.3652576804161072e-01" nType="0">
            <Node pos="l" depth="3" NCoef="0" IVar="-1" Cut="0.0000000000000000e+00" cType="1" res="1.4249468222260475e-04" rms="4.9993571639060974e-01" purity="5.0801903009414673e-01" nType="-99"/>
            <Node pos="r" depth="3" NCoef="0" IVar="-1" Cut="0.0000000000000000e+00" cType="1" res="-1.5675649046897888e-02" rms="4.0377750992774963e-01" purity="2.0510388910770416e-01" nType="-99"/>
          </Node>
        </Node>
        <Node pos="r" depth="1" NCoef="0" IVar="10" Cut="-7.8269875049591064e-01" cType="0" res="-3.3644518256187439e-01" rms="3.5494157671928406e-01" purity="1.4897622168064117e-01" nType="0">
          <Node pos="l" depth="2" NCoef="0" IVar="-1" Cut="0.0000000000000000e+00" cType="1" res="-5.6592626497149467e-03" rms="4.7260335087776184e-01" purity="3.3768099546432495e-01" nType="-99"/>
          <Node pos="r" depth="2" NCoef="0" IVar="8" Cut="8.5458293557167053e-02" cType="0" res="-3.5726767778396606e-01" rms="3.3236652612686157e-01" purity="1.2694284319877625e-01" nType="0">
            <Node pos="l" depth="3" NCoef="0" IVar="-1" Cut="0.0000000000000000e+00" cType="1" res="-1.1041377671062946e-02" rms="4.3300008773803711e-01" purity="2.5253456830978394e-01" nType="-99"/>
            <Node pos="r" depth="3" NCoef="0" IVar="-1" Cut="0.0000000000000000e+00" cType="1" res="-3.2994017004966736e-02" rms="3.1361514329910278e-01" purity="1.1063259094953537e-01" nType="-99"/>
          </Node>
        </Node>
      </Node>
    </BinaryTree>
    <BinaryTree type="DecisionTree" boostWeight="1.0000000000000000e+00" itree="2">
      <Node pos="s" depth="0" NCoef="0" IVar="10" Cut="-7.1428573131561279e-01" cType="0" res="1.1054245755076408e-02" rms="4.8922991752624512e-01" purity="5.0089204311370850e-01" nType="0">
        <Node pos="l" depth="1" NCoef="0" IVar="0" Cut="-9.8270273208618164e-01" cType="0" res="1.8302014470100403e-01" rms="4.5956745743751526e-01" purity="6.8229657411575317e-01" nType="0">
          <Node pos="l" depth="2" NCoef="0" IVar="0" Cut="-9.7281849384307861e-01" cType="0" res="4.5397698879241943e-01" rms="1.9627799093723297e-01" purity="9.5981073379516602e-01" nType="0">
            <Node pos="l" depth="3" NCoef="0" IVar="-1" Cut="0.0000000000000000e+00" cType="1" res="6.0383989475667477e-03" rms="7.2319939732551575e-02" purity="9.9474102258682251e-01" nType="-99"/>
            <Node pos="r" depth="3" NCoef="0" IVar="-1" Cut="0.0000000000000000e+00" cType="1" res="4.7897417098283768e-03" rms="3.7369588017463684e-01" purity="8.3219456672668457e-01" nType="-99"/>
          </Node>
          <Node pos="r" depth="2" NCoef="0" IVar="0" Cut="-9.8846846818923950e-01" cType="0" res="-1.5605084598064423e-01" rms="4.6951562166213989e-01" purity="3.3501985669136047e-01" nType="0">
            <Node pos="l" depth="3" NCoef="0" IVar="-1" Cut="0.0000000000000000e+00" cType="1" res="1.4172845112625510e-04" rms="4.9994376301765442e-01" purity="5.0749838352203369e-01" nType="-99"/>
            <Node pos="r" depth="3" NCoef="0" IVar="-1" Cut="0.0000000000000000e+00" cType="1" res="-1.5256476588547230e-02" rms="4.0206074714660645e-01" purity="2.0276749134063721e-01" nType="-99"/>
          </Node>
        </Node>
        <Node pos="r" depth="1" NCoef="0" IVar="8" Cut="1.2883011996746063e-01" cType="0" res="-3.2201966643333435e-01" rms="3.5445824265480042e-01" purity="1.4953681826591492e-01" nType="0">
          <Node pos="l" depth="2" NCoef="0" IVar="-1" Cut="0.0000000000000000e+00" cType="1" res="-4.5882132835686207e-03" rms="4.7903749346733093e-01" purity="3.6198079586029053e-01" nType="-99"/>
          <Node pos="r" depth="2" NCoef="0" IVar="10" Cut="-7.9591870307922363e-01" cType="0" res="-3.4241273999214172e-01" rms="3.3221483230590820e-01" purity="1.2724781036376953e-01" nType="0">
            <Node pos="l" depth="3" NCoef="0" IVar="-1" Cut="0.0000000000000000e+00" cType="1" res="-9.7407670691609383e-03" rms="4.4110330939292908e-01" purity="2.6527276635169983e-01" nType="-99"/>
            <Node pos="r" depth="3" NCoef="0" IVar="-1" Cut="0.0000000000000000e+00" cType="1" res="-3.1579989939928055e-02" rms="3.1391108036041260e-01" purity="1.1087270826101303e-01" nType="-99"/>
          </Node>
        </Node>
      </Node>
    </BinaryTree>
    <BinaryTree type="DecisionTree" boostWeight="1.0000000000000000e+00" itree="3">
      <Node pos="s" depth="0" NCoef="0" IVar="10" Cut="-7.1479088068008423e-01" cType="0" res="1.5263736248016357e-02" rms="4.8421657085418701e-01" purity="5.0036215782165527e-01" nType="0">
        <Node pos="l" depth="1" NCoef="0" IVar="11" Cut="-1.8227006494998932e-01" cType="1" res="1.8257576227188110e-01" rms="4.5697155594825745e-01" purity="6.8155509233474731e-01" nType="0">
          <Node pos="l" depth="2" NCoef="0" IVar="4" Cut="-4.6643835306167603e-01" cType="1" res="3.9241987466812134e-01" rms="2.9783391952514648e-01" purity="8.9722043275833130e-01" nType="0">
            <Node pos="l" depth="3" NCoef="0" IVar="-1" Cut="0.0000000000000000e+00" cType="1" res="5.6363530457019806e-03" rms="2.4050106108188629e-01" purity="9.3528687953948975e-01" nType="-99"/>
            <Node pos="r" depth="3" NCoef="0" IVar="-1" Cut="0.0000000000000000e+00" cType="1" res="3.1481825280934572e-03" rms="4.6266725659370422e-01" purity="6.7454230785369873e-01" nType="-99"/>
          </Node>
          <Node pos="r" depth="2" NCoef="0" IVar="0" Cut="-9.8393821716308594e-01" cType="0" res="-1.5968309715390205e-02" rms="4.9131417274475098e-01" purity="4.7750318050384521e-01" nType="0">
            <Node pos="l" depth="3" NCoef="0" IVar="-1" Cut="0.0000000000000000e+00" cType="1" res="4.9168015830218792e-03" rms="3.5756018757820129e-01" purity="8.4820705652236938e-01" nType="-99"/>
            <Node pos="r" depth="3" NCoef="0" IVar="-1" Cut="0.0000000000000000e+00" cType="1" res="-1.1846948415040970e-02" rms="4.2190513014793396e-01" purity="2.3532779514789581e-01" nType="-99"/>
          </Node>
        </Node>
        <Node pos="r" depth="1" NCoef="0" IVar="8" Cut="1.4953343570232391e-01" cType="0" res="-3.1041017174720764e-01" rms="3.5189011693000793e-01" purity="1.4766910672187805e-01" nType="0">
          <Node pos="l" depth="2" NCoef="0" IVar="-1" Cut="0.0000000000000000e+00" cType="1" res="-3.3822730183601379e-03" rms="4.8457771539688110e-01" purity="3.8087218999862671e-01" nType="-99"/>
          <Node pos="r" depth="2" NCoef="0" IVar="10" Cut="-8.3702373504638672e-01" cType="0" res="-3.2751163840293884e-01" rms="3.3270174264907837e-01" purity="1.2794971466064453e-01" nType="0">
            <Node pos="l" depth="3" NCoef="0" IVar="-1" Cut="0.0000000000000000e+00" cType="1" res="-1.2140423059463501e-02" rms="4.1483518481254578e-01" purity="2.2293899953365326e-01" nType="-99"/>
            <Node pos="r" depth="3" NCoef="0" IVar="-1" Cut="0.0000000000000000e+00" cType="1" res="-3.1457979232072830e-02" rms="3.0963519215583801e-01" purity="1.0749842971563339e-01" nType="-99"/>
          </Node>
        </Node>
      </Node>
    </BinaryTree>
    <BinaryTree type="DecisionTree" boostWeight="1.0000000000000000e+00" itree="4">
      <Node pos="s" depth="0" NCoef="0" IVar="10" Cut="-7.1492624282836914e-01" cType="0" res="1.9659474492073059e-02" rms="4.7949969768524170e-01" purity="5.0027453899383545e-01" nType="0">
        <Node pos="l" depth="1" NCoef="0" IVar="11" Cut="-1.8327702581882477e-01" cType="1" res="1.8323983252048492e-01" rms="4.5421066880226135e-01" purity="6.8215852975845337e-01" nType="0">
          <Node pos="l" depth="2" NCoef="0" IVar="4" Cut="-4.5412710309028625e-01" cType="1" res="3.9068162441253662e-01" rms="2.9667431116104126e-01" purity="8.9805138111114502e-01" nType="0">
            <Node pos="l" depth="3" NCoef="0" IVar="-1" Cut="0.0000000000000000e+00" cType="1" res="5.5938041768968105e-03" rms="2.4109801650047302e-01" purity="9.3498182296752930e-01" nType="-99"/>
            <Node pos="r" depth="3" NCoef="0" IVar="-1" Cut="0.0000000000000000e+00" cType="1" res="2.3815082386136055e-03" rms="4.8037829995155334e-01" purity="6.1840224266052246e-01" nType="-99"/>
          </Node>
          <Node pos="r" depth="2" NCoef="0" IVar="0" Cut="-9.8393821716308594e-01" cType="0" res="-1.1460789479315281e-02" rms="4.8891317844390869e-01" purity="4.7952595353126526e-01" nType="0">
            <Node pos="l" depth="3" NCoef="0" IVar="-1" Cut="0.0000000000000000e+00" cType="1" res="4.8838891088962555e-03" rms="3.5658752918243408e-01" purity="8.4919375181198120e-01" nType="-99"/>
            <Node pos="r" depth="3" NCoef="0" IVar="-1" Cut="0.0000000000000000e+00" cType="1" res="-1.1555327102541924e-02" rms="4.2136245965957642e-01" purity="2.3459587991237640e-01" nType="-99"/>
          </Node>
        </Node>
        <Node pos="r" depth="1" NCoef="0" IVar="10" Cut="-8.0995112657546997e-01" cType="0" res="-2.9775315523147583e-01" rms="3.5080599784851074e-01" purity="1.4734545350074768e-01" nType="0">
          <Node pos="l" depth="2" NCoef="0" IVar="0" Cut="-9.8352640867233276e-01" cType="0" res="-1.7833308875560760e-01" rms="4.5578661561012268e-01" purity="2.9878011345863342e-01" nType="0">
            <Node pos="l" depth="3" NCoef="0" IVar="-1" Cut="0.0000000000000000e+00" cType="1" res="-2.1075538825243711e-03" rms="4.8647168278694153e-01" purity="4.0172579884529114e-01" nType="-99"/>
            <Node pos="r" depth="3" NCoef="0" IVar="-1" Cut="0.0000000000000000e+00" cType="1" res="-1.4336034655570984e-02" rms="4.0888392925262451e-01" purity="2.1197538077831268e-01" nType="-99"/>
          </Node>
          <Node pos="r" depth="2" NCoef="0" IVar="11" Cut="-4.4877920299768448e-02" cType="0" res="-3.1875425577163696e-01" rms="3.2438358664512634e-01" purity="1.2071428447961807e-01" nType="0">
            <Node pos="l" depth="3" NCoef="0" IVar="-1" Cut="0.0000000000000000e+00" cType="1" res="-2.1028285846114159e-02" rms="3.5238727927207947e-01" purity="1.4667662978172302e-01" nType="-99"/>
            <Node pos="r" depth="3" NCoef="0" IVar="-1" Cut="0.0000000000000000e+00" cType="1" res="-5.3479444235563278e-02" rms="2.2843973338603973e-01" purity="5.5929973721504211e-02" nType="-99"/>
          </Node>
        </Node>
      </Node>
    </BinaryTree>
    <BinaryTree type="DecisionTree" boostWeight="1.0000000000000000e+00" itree="5">
      <Node pos="s" depth="0" NCoef="0" IVar="10" Cut="-7.1479088068008423e-01" cType="0" res="2.2878866642713547e-02" rms="4.7462800145149231e-01" purity="4.9898540973663330e-01" nType="0">
        <Node pos="l" depth="1" NCoef="0" IVar="0" Cut="-9.8115831613540649e-01" cType="0" res="1.8190991878509521e-01" rms="4.5221722126007080e-01" purity="6.8080431222915649e-01" nType="0">
          <Node pos="l" depth="2" NCoef="0" IVar="0" Cut="-9.7518658638000488e-01" cType="0" res="4.4546443223953247e-01" rms="1.9699233770370483e-01" purity="9.5941501855850220e-01" nType="0">
            <Node pos="l" depth="3" NCoef="0" IVar="-1" Cut="0.0000000000000000e+00" cType="1" res="5.9170867316424847e-03" rms="9.3768671154975891e-02" purity="9.9110794067382812e-01" nType="-99"/>
            <Node pos="r" depth="3" NCoef="0" IVar="-1" Cut="0.0000000000000000e+00" cType="1" res="4.4409600086510181e-03" rms="3.9544430375099182e-01" purity="8.0577969551086426e-01" nType="-99"/>
          </Node>
          <Node pos="r" depth="2" NCoef="0" IVar="0" Cut="-9.8846846818923950e-01" cType="0" res="-1.4902493357658386e-01" rms="4.6456325054168701e-01" purity="3.3096405863761902e-01" nType="0">
            <Node pos="l" depth="3" NCoef="0" IVar="-1" Cut="0.0000000000000000e+00" cType="1" res="2.3783858341630548e-04" rms="4.9749004840850830e-01" purity="5.0260341167449951e-01" nType="-99"/>
            <Node pos="r" depth="3" NCoef="0" IVar="-1" Cut="0.0000000000000000e+00" cType="1" res="-1.4421029016375542e-02" rms="3.9934417605400085e-01" purity="2.0072712004184723e-01" nType="-99"/>
          </Node>
        </Node>
        <Node pos="r" depth="1" NCoef="0" IVar="8" Cut="1.7845188081264496e-01" cType="0" res="-2.8512004017829895e-01" rms="3.4879121184349060e-01" purity="1.4685282111167908e-01" nType="0">
          <Node pos="l" depth="2" NCoef="0" IVar="-1" Cut="0.0000000000000000e+00" cType="1" res="-1.7251571407541633e-03" rms="4.9325540661811829e-01" purity="4.3090575933456421e-01" nType="-99"/>
          <Node pos="r" depth="2" NCoef="0" IVar="10" Cut="-7.6911741495132446e-01" cType="0" res="-3.0036601424217224e-01" rms="3.3158540725708008e-01" purity="1.2842771410942078e-01" nType="0">
            <Node pos="l" depth="3" NCoef="0" IVar="-1" Cut="0.0000000000000000e+00" cType="1" res="-7.1112127043306828e-03" rms="4.5339119434356689e-01" purity="2.9082858562469482e-01" nType="-99"/>
            <Node pos="r" depth="3" NCoef="0" IVar="-1" Cut="0.0000000000000000e+00" cType="1" res="-2.6321813464164734e-02" rms="3.1878578662872314e-01" purity="1.1609842628240585e-01" nType="-99"/>
          </Node>
        </Node>
      </Node>
    </BinaryTree>
    <BinaryTree type="DecisionTree" boostWeight="1.0000000000000000e+00" itree="6">
      <Node pos="s" depth="0" NCoef="0" IVar="10" Cut="-7.1472465991973877e-01" cType="0" res="2.7212759479880333e-02" rms="4.7041249275207520e-01" purity="4.9916529655456543e-01" nType="0">
        <Node pos="l" depth="1" NCoef="0" IVar="0" Cut="-9.8064351081848145e-01" cType="0" res="1.8216855823993683e-01" rms="4.4955670833587646e-01" purity="6.8080282211303711e-01" nType="0">
          <Node pos="l" depth="2" NCoef="0" IVar="1" Cut="-9.6110939979553223e-01" cType="0" res="4.4253998994827271e-01" rms="1.9710050523281097e-01" purity="9.5932644605636597e-01" nType="0">
            <Node pos="l" depth="3" NCoef="0" IVar="-1" Cut="0.0000000000000000e+00" cType="1" res="5.8519584126770496e-03" rms="1.1527717858552933e-01" purity="9.8647814989089966e-01" nType="-99"/>
            <Node pos="r" depth="3" NCoef="0" IVar="-1" Cut="0.0000000000000000e+00" cType="1" res="5.0979014486074448e-03" rms="3.2117128372192383e-01" purity="8.8288575410842896e-01" nType="-99"/>
          </Node>
          <Node pos="r" depth="2" NCoef="0" IVar="0" Cut="-9.8846846818923950e-01" cType="0" res="-1.4315250515937805e-01" rms="4.6426194906234741e-01" purity="3.3280152082443237e-01" nType="0">
            <Node pos="l" depth="3" NCoef="0" IVar="-1" Cut="0.0000000000000000e+00" cType="1" res="2.3527564189862460e-04" rms="4.9758759140968323e-01" purity="5.0261813402175903e-01" nType="-99"/>
            <Node pos="r" depth="3" NCoef="0" IVar="-1" Cut="0.0000000000000000e+00" cType="1" res="-1.4059899374842644e-02" rms="4.0143871307373047e-01" purity="2.0366743206977844e-01" nType="-99"/>
          </Node>
        </Node>
        <Node pos="r" depth="1" NCoef="0" IVar="8" Cut="9.3961246311664581e-02" cType="0" res="-2.7249020338058472e-01" rms="3.4947767853736877e-01" purity="1.4785665273666382e-01" nType="0">
          <Node pos="l" depth="2" NCoef="0" IVar="10" Cut="-8.6415547132492065e-01" cType="0" res="-1.5735852718353271e-01" rms="4.5305073261260986e-01" purity="3.0167734622955322e-01" nType="0">
            <Node pos="l" depth="3" NCoef="0" IVar="-1" Cut="0.0000000000000000e+00" cType="1" res="-3.9145364426076412e-03" rms="4.6579471230506897e-01" purity="3.3506703376770020e-01" nType="-99"/>
            <Node pos="r" depth="3" NCoef="0" IVar="-1" Cut="0.0000000000000000e+00" cType="1" res="-7.7646747231483459e-03" rms="4.3913376331329346e-01" purity="2.6897332072257996e-01" nType="-99"/>
          </Node>
          <Node pos="r" depth="2" NCoef="0" IVar="10" Cut="-8.2340145111083984e-01" cType="0" res="-2.8890651464462280e-01" rms="3.2882094383239746e-01" purity="1.2592376768589020e-01" nType="0">
            <Node pos="l" depth="3" NCoef="0" IVar="-1" Cut="0.0000000000000000e+00" cType="1" res="-1.0447861626744270e-02" rms="4.2594295740127563e-01" purity="2.4127797782421112e-01" nType="-99"/>
            <Node pos="r" depth="3" NCoef="0" IVar="-1" Cut="0.0000000000000000e+00" cType="1" res="-2.8611432760953903e-02" rms="3.0754721164703369e-01" purity="1.0643284022808075e-01" nType="-99"/>
          </Node>
        </Node>
      </Node>
    </BinaryTree>
    <BinaryTree type="DecisionTree" boostWeight="1.0000000000000000e+00" itree="7">
      <Node pos="s" depth="0" NCoef="0" IVar="10" Cut="-7.1428573131561279e-01" cType="0" res="3.1175665557384491e-02" rms="4.6610373258590698e-01" purity="4.9933058023452759e-01" nType="0">
        <Node pos="l" depth="1" NCoef="0" IVar="11" Cut="-1.7800891399383545e-01" cType="1" res="1.8235924839973450e-01" rms="4.4688892364501953e-01" purity="6.8085432052612305e-01" nType="0">
          <Node pos="l" depth="2" NCoef="0" IVar="4" Cut="-3.9738667011260986e-01" cType="1" res="3.8236612081527710e-01" rms="2.9619029164314270e-01" purity="8.9542263746261597e-01" nType="0">
            <Node pos="l" depth="3" NCoef="0" IVar="-1" Cut="0.0000000000000000e+00" cType="1" res="5.4548536427319050e-03" rms="2.5387233495712280e-01" purity="9.2508888244628906e-01" nType="-99"/>
            <Node pos="r" depth="3" NCoef="0" IVar="-1" Cut="0.0000000000000000e+00" cType="1" res="-1.4454665360972285e-03" rms="4.9224197864532471e-01" purity="4.4716739654541016e-01" nType="-99"/>
          </Node>
          <Node pos="r" depth="2" NCoef="0" IVar="0" Cut="-9.8424708843231201e-01" cType="0" res="-9.4239581376314163e-03" rms="4.8160946369171143e-01" purity="4.7510841488838196e-01" nType="0">
            <Node pos="l" depth="3" NCoef="0" IVar="-1" Cut="0.0000000000000000e+00" cType="1" res="4.7752843238413334e-03" rms="3.5808160901069641e-01" purity="8.4681773185729980e-01" nType="-99"/>
            <Node pos="r" depth="3" NCoef="0" IVar="-1" Cut="0.0000000000000000e+00" cType="1" res="-1.0948997922241688e-02" rms="4.1915845870971680e-01" purity="2.3301655054092407e-01" nType="-99"/>
          </Node>
        </Node>
        <Node pos="r" depth="1" NCoef="0" IVar="8" Cut="1.0347995907068253e-01" cType="0" res="-2.6226869225502014e-01" rms="3.4760567545890808e-01" purity="1.4699661731719971e-01" nType="0">
          <Node pos="l" depth="2" NCoef="0" IVar="-1" Cut="0.0000000000000000e+00" cType="1" res="-4.9738129600882530e-03" rms="4.6032100915908813e-01" purity="3.2052844762802124e-01" nType="-99"/>
          <Node pos="r" depth="2" NCoef="0" IVar="10" Cut="-8.3673495054244995e-01" cType="0" res="-2.7861800789833069e-01" rms="3.2636165618896484e-01" purity="1.2407942116260529e-01" nType="0">
            <Node pos="l" depth="3" NCoef="0" IVar="-1" Cut="0.0000000000000000e+00" cType="1" res="-1.0974627919495106e-02" rms="4.1652154922485352e-01" purity="2.2743800282478333e-01" nType="-99"/>
            <Node pos="r" depth="3" NCoef="0" IVar="-1" Cut="0.0000000000000000e+00" cType="1" res="-2.7869911864399910e-02" rms="3.0278518795967102e-01" purity="1.0274055600166321e-01" nType="-99"/>
          </Node>
        </Node>
      </Node>
    </BinaryTree>
    <BinaryTree type="DecisionTree" boostWeight="1.0000000000000000e+00" itree="8">
      <Node pos="s" depth="0" NCoef="0" IVar="10" Cut="-7.1428573131561279e-01" cType="0" res="3.4020185470581055e-02" rms="4.6228295564651489e-01" purity="4.9829110503196716e-01" nType="0">
        <Node pos="l" depth="1" NCoef="0" IVar="11" Cut="-1.8216915428638458e-01" cType="1" res="1.8139196932315826e-01" rms="4.4489559531211853e-01" purity="6.7987209558486938e-01" nType="0">
          <Node pos="l" depth="2" NCoef="0" IVar="4" Cut="-4.0463447570800781e-01" cType="1" res="3.8088056445121765e-01" rms="2.9462939500808716e-01" purity="8.9651846885681152e-01" nType="0">
            <Node pos="l" depth="3" NCoef="0" IVar="-1" Cut="0.0000000000000000e+00" cType="1" res="5.4354867897927761e-03" rms="2.5135770440101624e-01" purity="9.2676496505737305e-01" nType="-99"/>
            <Node pos="r" depth="3" NCoef="0" IVar="-1" Cut="0.0000000000000000e+00" cType="1" res="-9.7596313571557403e-04" rms="4.9303796887397766e-01" purity="4.6582221984863281e-01" nType="-99"/>
          </Node>
          <Node pos="r" depth="2" NCoef="0" IVar="0" Cut="-9.8393821716308594e-01" cType="0" res="-6.5312879160046577e-03" rms="4.7938659787178040e-01" purity="4.7578567266464233e-01" nType="0">
            <Node pos="l" depth="3" NCoef="0" IVar="-1" Cut="0.0000000000000000e+00" cType="1" res="4.7507192939519882e-03" rms="3.5718062520027161e-01" purity="8.4776592254638672e-01" nType="-99"/>
            <Node pos="r" depth="3" NCoef="0" IVar="-1" Cut="0.0000000000000000e+00" cType="1" res="-1.0653130710124969e-02" rms="4.1910591721534729e-01" purity="2.3322966694831848e-01" nType="-99"/>
          </Node>
        </Node>
        <Node pos="r" depth="1" NCoef="0" IVar="0" Cut="-9.6561133861541748e-01" cType="0" res="-2.5004649162292480e-01" rms="3.4864354133605957e-01" purity="1.4828452467918396e-01" nType="0">
          <Node pos="l" depth="2" NCoef="0" IVar="-1" Cut="0.0000000000000000e+00" cType="1" res="-2.3581983987241983e-03" rms="4.4352936744689941e-01" purity="3.3427432179450989e-01" nType="-99"/>
          <Node pos="r" depth="2" NCoef="0" IVar="0" Cut="-9.7992277145385742e-01" cType="1" res="-2.6448145508766174e-01" rms="3.3558243513107300e-01" purity="1.3293400406837463e-01" nType="0">
            <Node pos="l" depth="3" NCoef="0" IVar="-1" Cut="0.0000000000000000e+00" cType="1" res="-1.6221068799495697e-02" rms="3.6800026893615723e-01" purity="1.6359992325305939e-01" nType="-99"/>
            <Node pos="r" depth="3" NCoef="0" IVar="-1" Cut="0.0000000000000000e+00" cType="1" res="-3.7133801728487015e-02" rms="2.6033148169517517e-01" purity="7.7751643955707550e-02" nType="-99"/>
          </Node>
        </Node>
      </Node>
    </BinaryTree>
    <BinaryTree type="DecisionTree" boostWeight="1.0000000000000000e+00" itree="9">
      <Node pos="s" depth="0" NCoef="0" IVar="10" Cut="-7.1428573131561279e-01" cType="0" res="3.9415426552295685e-02" rms="4.5835867524147034e-01" purity="5.0044482946395874e-01" nType="0">
        <Node pos="l" depth="1" NCoef="0" IVar="11" Cut="-1.7781753838062286e-01" cType="1" res="1.8341638147830963e-01" rms="4.4178482890129089e-01" purity="6.8205159902572632e-01" nType="0">
          <Node pos="l" depth="2" NCoef="0" IVar="4" Cut="-4.6643835306167603e-01" cType="1" res="3.7806123495101929e-01" rms="2.9481375217437744e-01" purity="8.9602971076965332e-01" nType="0">
            <Node pos="l" depth="3" NCoef="0" IVar="-1" Cut="0.0000000000000000e+00" cType="1" res="5.4464805871248245e-03" rms="2.3838619887828827e-01" purity="9.3452441692352295e-01" nType="-99"/>
            <Node pos="r" depth="3" NCoef="0" IVar="-1" Cut="0.0000000000000000e+00" cType="1" res="3.0185813084244728e-03" rms="4.5744526386260986e-01" purity="6.7452317476272583e-01" nType="-99"/>
          </Node>
          <Node pos="r" depth="2" NCoef="0" IVar="0" Cut="-9.8393821716308594e-01" cType="0" res="-2.9259691946208477e-03" rms="4.7730571031570435e-01" purity="4.7720068693161011e-01" nType="0">
            <Node pos="l" depth="3" NCoef="0" IVar="-1" Cut="0.0000000000000000e+00" cType="1" res="4.7100703231990337e-03" rms="3.5651078820228577e-01" purity="8.4845179319381714e-01" nType="-99"/>
            <Node pos="r" depth="3" NCoef="0" IVar="-1" Cut="0.0000000000000000e+00" cType="1" res="-1.0470056906342506e-02" rms="4.1905561089515686e-01" purity="2.3300915956497192e-01" nType="-99"/>
          </Node>
        </Node>
        <Node pos="r" depth="1" NCoef="0" IVar="8" Cut="1.2822198867797852e-01" cType="0" res="-2.4086877703666687e-01" rms="3.4671363234519958e-01" purity="1.4696446061134338e-01" nType="0">
          <Node pos="l" depth="2" NCoef="0" IVar="-1" Cut="0.0000000000000000e+00" cType="1" res="-3.4656841307878494e-03" rms="4.6749141812324524e-01" purity="3.4101706743240356e-01" nType="-99"/>
          <Node pos="r" depth="2" NCoef="0" IVar="11" Cut="-1.4040997624397278e-01" cType="0" res="-2.5400137901306152e-01" rms="3.2901883125305176e-01" purity="1.2702135741710663e-01" nType="0">
            <Node pos="l" depth="3" NCoef="0" IVar="-1" Cut="0.0000000000000000e+00" cType="1" res="-1.8233284354209900e-02" rms="3.4953352808952332e-01" purity="1.4476631581783295e-01" nType="-99"/>
            <Node pos="r" depth="3" NCoef="0" IVar="-1" Cut="0.0000000000000000e+00" cType="1" res="-3.7760604172945023e-02" rms="2.4436739087104797e-01" purity="6.8820282816886902e-02" nType="-99"/>
          </Node>
        </Node>
      </Node>
    </BinaryTree>
    <BinaryTree type="DecisionTree" boostWeight="1.0000000000000000e+00" itree="10">
      <Node pos="s" depth="0" NCoef="0" IVar="10" Cut="-7.1428573131561279e-01" cType="0" res="4.2474217712879181e-02" rms="4.5476239919662476e-01" purity="5.0022113323211670e-01" nType="0">
        <Node pos="l" depth="1" NCoef="0" IVar="11" Cut="-1.7924129962921143e-01" cType="1" res="1.8291617929935455e-01" rms="4.3965816497802734e-01" purity="6.8174123764038086e-01" nType="0">
          <Node pos="l" depth="2" NCoef="0" IVar="4" Cut="-4.4834616780281067e-01" cType="1" res="3.7607461214065552e-01" rms="2.9393473267555237e-01" purity="8.9667123556137085e-01" nType="0">
            <Node pos="l" depth="3" NCoef="0" IVar="-1" Cut="0.0000000000000000e+00" cType="1" res="5.4036020301282406e-03" rms="2.4078613519668579e-01" purity="9.3314635753631592e-01" nType="-99"/>
            <Node pos="r" depth="3" NCoef="0" IVar="-1" Cut="0.0000000000000000e+00" cType="1" res="1.8919213907793164e-03" rms="4.8193860054016113e-01" purity="5.9320932626724243e-01" nType="-99"/>
          </Node>
          <Node pos="r" depth="2" NCoef="0" IVar="0" Cut="-9.8393821716308594e-01" cType="0" res="-2.2020465694367886e-03" rms="4.7510558366775513e-01" purity="4.7575768828392029e-01" nType="0">
            <Node pos="l" depth="3" NCoef="0" IVar="-1" Cut="0.0000000000000000e+00" cType="1" res="4.6807182952761650e-03" rms="3.5665351152420044e-01" purity="8.4830617904663086e-01" nType="-99"/>
            <Node pos="r" depth="3" NCoef="0" IVar="-1" Cut="0.0000000000000000e+00" cType="1" res="-1.0212194174528122e-02" rms="4.1749095916748047e-01" purity="2.3055477440357208e-01" nType="-99"/>
          </Node>
        </Node>
        <Node pos="r" depth="1" NCoef="0" IVar="8" Cut="1.7531411349773407e-01" cType="0" res="-2.2990529239177704e-01" rms="3.4722581505775452e-01" purity="1.4817273616790771e-01" nType="0">
          <Node pos="l" depth="2" NCoef="0" IVar="-1" Cut="0.0000000000000000e+00" cType="1" res="-1.3529171701520681e-03" rms="4.8995736241340637e-01" purity="4.2079311609268188e-01" nType="-99"/>
          <Node pos="r" depth="2" NCoef="0" IVar="10" Cut="-7.6870787143707275e-01" cType="0" res="-2.4212102591991425e-01" rms="3.3216816186904907e-01" purity="1.3039395213127136e-01" nType="0">
            <Node pos="l" depth="3" NCoef="0" IVar="-1" Cut="0.0000000000000000e+00" cType="1" res="-5.9043420478701591e-03" rms="4.5399925112724304e-01" purity="2.9255560040473938e-01" nType="-99"/>
            <Node pos="r" depth="3" NCoef="0" IVar="-1" Cut="0.0000000000000000e+00" cType="1" res="-2.2372523322701454e-02" rms="3.2006734609603882e-01" purity="1.1816009134054184e-01" nType="-99"/>
          </Node>
        </Node>
      </Node>
    </BinaryTree>
    <BinaryTree type="DecisionTree" boostWeight="1.0000000000000000e+00" itree="11">
      <Node pos="s" depth="0" NCoef="0" IVar="10" Cut="-7.1479088068008423e-01" cType="0" res="4.4343143701553345e-02" rms="4.5145532488822937e-01" purity="4.9882245063781738e-01" nType="0">
        <Node pos="l" depth="1" NCoef="0" IVar="0" Cut="-9.8064351081848145e-01" cType="0" res="1.8153409659862518e-01" rms="4.3810585141181946e-01" purity="6.8035382032394409e-01" nType="0">
          <Node pos="l" depth="2" NCoef="0" IVar="1" Cut="-9.6245741844177246e-01" cType="0" res="4.2956402897834778e-01" rms="1.9671887159347534e-01" purity="9.5932614803314209e-01" nType="0">
            <Node pos="l" depth="3" NCoef="0" IVar="-1" Cut="0.0000000000000000e+00" cType="1" res="5.6844446808099747e-03" rms="1.2573893368244171e-01" purity="9.8381870985031128e-01" nType="-99"/>
            <Node pos="r" depth="3" NCoef="0" IVar="-1" Cut="0.0000000000000000e+00" cType="1" res="4.8857182264328003e-03" rms="3.2712325453758240e-01" purity="8.7738424539566040e-01" nType="-99"/>
          </Node>
          <Node pos="r" depth="2" NCoef="0" IVar="0" Cut="-9.8846846818923950e-01" cType="0" res="-1.2876257300376892e-01" rms="4.5869168639183044e-01" purity="3.3134678006172180e-01" nType="0">
            <Node pos="l" depth="3" NCoef="0" IVar="-1" Cut="0.0000000000000000e+00" cType="1" res="4.0625128895044327e-04" rms="4.9327576160430908e-01" purity="5.0226205587387085e-01" nType="-99"/>
            <Node pos="r" depth="3" NCoef="0" IVar="-1" Cut="0.0000000000000000e+00" cType="1" res="-1.2951170094311237e-02" rms="3.9763513207435608e-01" purity="2.0106346905231476e-01" nType="-99"/>
          </Node>
        </Node>
        <Node pos="r" depth="1" NCoef="0" IVar="8" Cut="1.2792219221591949e-01" cType="0" res="-2.2037786245346069e-01" rms="3.4688824415206909e-01" purity="1.4854307472705841e-01" nType="0">
          <Node pos="l" depth="2" NCoef="0" IVar="-1" Cut="0.0000000000000000e+00" cType="1" res="-3.3145565539598465e-03" rms="4.7219204902648926e-01" purity="3.5783135890960693e-01" nType="-99"/>
          <Node pos="r" depth="2" NCoef="0" IVar="10" Cut="-8.0986601114273071e-01" cType="0" res="-2.3403617739677429e-01" rms="3.2798025012016296e-01" purity="1.2651740014553070e-01" nType="0">
            <Node pos="l" depth="3" NCoef="0" IVar="-1" Cut="0.0000000000000000e+00" cType="1" res="-8.0013461410999298e-03" rms="4.3108248710632324e-01" purity="2.4979090690612793e-01" nType="-99"/>
            <Node pos="r" depth="3" NCoef="0" IVar="-1" Cut="0.0000000000000000e+00" cType="1" res="-2.3632720112800598e-02" rms="3.0929768085479736e-01" purity="1.0872353613376617e-01" nType="-99"/>
          </Node>
        </Node>
      </Node>
    </BinaryTree>
    <BinaryTree type="DecisionTree" boostWeight="1.0000000000000000e+00" itree="12">
      <Node pos="s" depth="0" NCoef="0" IVar="10" Cut="-7.1428573131561279e-01" cType="0" res="4.8858422785997391e-02" rms="4.4816786050796509e-01" purity="5.0036472082138062e-01" nType="0">
        <Node pos="l" depth="1" NCoef="0" IVar="11" Cut="-1.7924129962921143e-01" cType="1" res="1.8273410201072693e-01" rms="4.3535232543945312e-01" purity="6.8150550127029419e-01" nType="0">
          <Node pos="l" depth="2" NCoef="0" IVar="4" Cut="-4.4570600986480713e-01" cType="1" res="3.7131470441818237e-01" rms="2.9317632317543030e-01" purity="8.9588248729705811e-01" nType="0">
            <Node pos="l" depth="3" NCoef="0" IVar="-1" Cut="0.0000000000000000e+00" cType="1" res="5.3484933450818062e-03" rms="2.4103504419326782e-01" purity="9.3210935592651367e-01" nType="-99"/>
            <Node pos="r" depth="3" NCoef="0" IVar="-1" Cut="0.0000000000000000e+00" cType="1" res="1.7161690630018711e-03" rms="4.8206108808517456e-01" purity="5.8604174852371216e-01" nType="-99"/>
          </Node>
          <Node pos="r" depth="2" NCoef="0" IVar="0" Cut="-9.8486489057540894e-01" cType="0" res="2.0085109863430262e-03" rms="4.7122550010681152e-01" purity="4.7605809569358826e-01" nType="0">
            <Node pos="l" depth="3" NCoef="0" IVar="-1" Cut="0.0000000000000000e+00" cType="1" res="4.6181725338101387e-03" rms="3.5665079951286316e-01" purity="8.4795081615447998e-01" nType="-99"/>
            <Node pos="r" depth="3" NCoef="0" IVar="-1" Cut="0.0000000000000000e+00" cType="1" res="-9.8094120621681213e-03" rms="4.1931048035621643e-01" purity="2.3432420194149017e-01" nType="-99"/>
          </Node>
        </Node>
        <Node pos="r" depth="1" NCoef="0" IVar="10" Cut="-7.6870787143707275e-01" cType="0" res="-2.1045015752315521e-01" rms="3.4760591387748718e-01" purity="1.4950664341449738e-01" nType="0">
          <Node pos="l" depth="2" NCoef="0" IVar="-1" Cut="0.0000000000000000e+00" cType="1" res="-3.0938200652599335e-03" rms="4.7536104917526245e-01" purity="3.6123359203338623e-01" nType="-99"/>
          <Node pos="r" depth="2" NCoef="0" IVar="11" Cut="1.4509986340999603e-01" cType="0" res="-2.2207050025463104e-01" rms="3.3107909560203552e-01" purity="1.3016793131828308e-01" nType="0">
            <Node pos="l" depth="3" NCoef="0" IVar="-1" Cut="0.0000000000000000e+00" cType="1" res="-1.4393418096005917e-02" rms="3.6492833495140076e-01" purity="1.6176018118858337e-01" nType="-99"/>
            <Node pos="r" depth="3" NCoef="0" IVar="-1" Cut="0.0000000000000000e+00" cType="1" res="-2.8535677120089531e-02" rms="2.7327027916908264e-01" purity="8.6006425321102142e-02" nType="-99"/>
          </Node>
        </Node>
      </Node>
    </BinaryTree>
    <BinaryTree type="DecisionTree" boostWeight="1.0000000000000000e+00" itree="13">
      <Node pos="s" depth="0" NCoef="0" IVar="10" Cut="-7.1472465991973877e-01" cType="0" res="5.0464205443859100e-02" rms="4.4482871890068054e-01" purity="4.9919471144676208e-01" nType="0">
        <Node pos="l" depth="1" NCoef="0" IVar="11" Cut="-1.8009558320045471e-01" cType="1" res="1.8194825947284698e-01" rms="4.3333023786544800e-01" purity="6.8107444047927856e-01" nType="0">
          <Node pos="l" depth="2" NCoef="0" IVar="4" Cut="-4.4570600986480713e-01" cType="1" res="3.6938172578811646e-01" rms="2.9195794463157654e-01" purity="8.9666301012039185e-01" nType="0">
            <Node pos="l" depth="3" NCoef="0" IVar="-1" Cut="0.0000000000000000e+00" cType="1" res="5.3182682022452354e-03" rms="2.3961186408996582e-01" purity="9.3296682834625244e-01" nType="-99"/>
            <Node pos="r" depth="3" NCoef="0" IVar="-1" Cut="0.0000000000000000e+00" cType="1" res="1.7127312021329999e-03" rms="4.8265513777732849e-01" purity="5.7949668169021606e-01" nType="-99"/>
          </Node>
          <Node pos="r" depth="2" NCoef="0" IVar="0" Cut="-9.8393821716308594e-01" cType="0" res="2.1803108975291252e-03" rms="4.6915483474731445e-01" purity="4.7430294752120972e-01" nType="0">
            <Node pos="l" depth="3" NCoef="0" IVar="-1" Cut="0.0000000000000000e+00" cType="1" res="4.5879264362156391e-03" rms="3.5753759741783142e-01" purity="8.4701538085937500e-01" nType="-99"/>
            <Node pos="r" depth="3" NCoef="0" IVar="-1" Cut="0.0000000000000000e+00" cType="1" res="-9.5948949456214905e-03" rms="4.1679480671882629e-01" purity="2.2991052269935608e-01" nType="-99"/>
          </Node>
        </Node>
        <Node pos="r" depth="1" NCoef="0" IVar="8" Cut="1.0408808290958405e-01" cType="0" res="-2.0429894328117371e-01" rms="3.4501579403877258e-01" purity="1.4678491652011871e-01" nType="0">
          <Node pos="l" depth="2" NCoef="0" IVar="-1" Cut="0.0000000000000000e+00" cType="1" res="-3.8709451910108328e-03" rms="4.5712876319885254e-01" purity="3.1879338622093201e-01" nType="-99"/>
          <Node pos="r" depth="2" NCoef="0" IVar="11" Cut="-3.2685735821723938e-01" cType="0" res="-2.1695959568023682e-01" rms="3.2528245449066162e-01" purity="1.2411873787641525e-01" nType="0">
            <Node pos="l" depth="3" NCoef="0" IVar="-1" Cut="0.0000000000000000e+00" cType="1" res="-1.7058204859495163e-02" rms="3.4054780006408691e-01" purity="1.3663437962532043e-01" nType="-99"/>
            <Node pos="r" depth="3" NCoef="0" IVar="-1" Cut="0.0000000000000000e+00" cType="1" res="-4.0599547326564789e-02" rms="2.1536841988563538e-01" purity="5.4446525871753693e-02" nType="-99"/>
          </Node>
        </Node>
      </Node>
    </BinaryTree>
    <BinaryTree type="DecisionTree" boostWeight="1.0000000000000000e+00" itree="14">
      <Node pos="s" depth="0" NCoef="0" IVar="10" Cut="-7.1487754583358765e-01" cType="0" res="5.5194422602653503e-02" rms="4.4214665889739990e-01" purity="5.0122916698455811e-01" nType="0">
        <Node pos="l" depth="1" NCoef="0" IVar="11" Cut="-1.7781753838062286e-01" cType="1" res="1.8310183286666870e-01" rms="4.3127396702766418e-01" purity="6.8209904432296753e-01" nType="0">
          <Node pos="l" depth="2" NCoef="0" IVar="4" Cut="-4.6907848119735718e-01" cType="1" res="3.6603683233261108e-01" rms="2.9295030236244202e-01" purity="8.9563113451004028e-01" nType="0">
            <Node pos="l" depth="3" NCoef="0" IVar="-1" Cut="0.0000000000000000e+00" cType="1" res="5.2999430336058140e-03" rms="2.3627240955829620e-01" purity="9.3481922149658203e-01" nType="-99"/>
            <Node pos="r" depth="3" NCoef="0" IVar="-1" Cut="0.0000000000000000e+00" cType="1" res="3.0513622332364321e-03" rms="4.5252138376235962e-01" purity="6.8088203668594360e-01" nType="-99"/>
          </Node>
          <Node pos="r" depth="2" NCoef="0" IVar="0" Cut="-9.8393821716308594e-01" cType="0" res="8.3907395601272583e-03" rms="4.6817344427108765e-01" purity="4.7816634178161621e-01" nType="0">
            <Node pos="l" depth="3" NCoef="0" IVar="-1" Cut="0.0000000000000000e+00" cType="1" res="4.5535382814705372e-03" rms="3.5792636871337891e-01" purity="8.4661138057708740e-01" nType="-99"/>
            <Node pos="r" depth="3" NCoef="0" IVar="-1" Cut="0.0000000000000000e+00" cType="1" res="-9.4243753701448441e-03" rms="4.2367300391197205e-01" purity="2.4117676913738251e-01" nType="-99"/>
          </Node>
        </Node>
        <Node pos="r" depth="1" NCoef="0" IVar="5" Cut="3.2246342301368713e-01" cType="0" res="-1.9330757856369019e-01" rms="3.4699434041976929e-01" purity="1.4983034133911133e-01" nType="0">
          <Node pos="l" depth="2" NCoef="0" IVar="-1" Cut="0.0000000000000000e+00" cType="1" res="-2.2938072215765715e-03" rms="4.7304356098175049e-01" purity="3.6801922321319580e-01" nType="-99"/>
          <Node pos="r" depth="2" NCoef="0" IVar="10" Cut="-8.2349574565887451e-01" cType="0" res="-2.0349358022212982e-01" rms="3.3315464854240417e-01" purity="1.3302285969257355e-01" nType="0">
            <Node pos="l" depth="3" NCoef="0" IVar="-1" Cut="0.0000000000000000e+00" cType="1" res="-7.1608223952353001e-03" rms="4.3116188049316406e-01" purity="2.5367927551269531e-01" nType="-99"/>
            <Node pos="r" depth="3" NCoef="0" IVar="-1" Cut="0.0000000000000000e+00" cType="1" res="-2.1372810006141663e-02" rms="3.1070291996002197e-01" purity="1.1091817170381546e-01" nType="-99"/>
          </Node>
        </Node>
      </Node>
    </BinaryTree>
    <BinaryTree type="DecisionTree" boostWeight="1.0000000000000000e+00" itree="15">
      <Node pos="s" depth="0" NCoef="0" IVar="10" Cut="-7.1428573131561279e-01" cType="0" res="5.5614326149225235e-02" rms="4.3903064727783203e-01" purity="4.9910399317741394e-01" nType="0">
        <Node pos="l" depth="1" NCoef="0" IVar="0" Cut="-9.8270273208618164e-01" cType="0" res="1.8136423826217651e-01" rms="4.2957392334938049e-01" purity="6.8082320690155029e-01" nType="0">
          <Node pos="l" depth="2" NCoef="0" IVar="0" Cut="-9.7281849384307861e-01" cType="0" res="4.1925615072250366e-01" rms="1.9693383574485779e-01" purity="9.5914250612258911e-01" nType="0">
            <Node pos="l" depth="3" NCoef="0" IVar="-1" Cut="0.0000000000000000e+00" cType="1" res="5.6453025899827480e-03" rms="7.2571642696857452e-02" purity="9.9467855691909790e-01" nType="-99"/>
            <Node pos="r" depth="3" NCoef="0" IVar="-1" Cut="0.0000000000000000e+00" cType="1" res="4.3522203341126442e-03" rms="3.7586134672164917e-01" purity="8.2872754335403442e-01" nType="-99"/>
          </Node>
          <Node pos="r" depth="2" NCoef="0" IVar="0" Cut="-9.8846846818923950e-01" cType="0" res="-1.1681438237428665e-01" rms="4.5538565516471863e-01" purity="3.3197212219238281e-01" nType="0">
            <Node pos="l" depth="3" NCoef="0" IVar="-1" Cut="0.0000000000000000e+00" cType="1" res="5.1406089914962649e-04" rms="4.9023213982582092e-01" purity="5.0423157215118408e-01" nType="-99"/>
            <Node pos="r" depth="3" NCoef="0" IVar="-1" Cut="0.0000000000000000e+00" cType="1" res="-1.2146345339715481e-02" rms="3.9661449193954468e-01" purity="2.0080615580081940e-01" nType="-99"/>
          </Node>
        </Node>
        <Node pos="r" depth="1" NCoef="0" IVar="6" Cut="-1.0969877243041992e-01" cType="1" res="-1.8765477836132050e-01" rms="3.4477186203002930e-01" purity="1.4755971729755402e-01" nType="0">
          <Node pos="l" depth="2" NCoef="0" IVar="0" Cut="-9.7631919384002686e-01" cType="0" res="-1.2491285055875778e-01" rms="4.1125333309173584e-01" purity="2.3864920437335968e-01" nType="0">
            <Node pos="l" depth="3" NCoef="0" IVar="-1" Cut="0.0000000000000000e+00" cType="1" res="8.5399666568264365e-04" rms="4.5969989895820618e-01" purity="4.1581401228904724e-01" nType="-99"/>
            <Node pos="r" depth="3" NCoef="0" IVar="-1" Cut="0.0000000000000000e+00" cType="1" res="-1.2635682709515095e-02" rms="3.7086901068687439e-01" purity="1.6819807887077332e-01" nType="-99"/>
          </Node>
          <Node pos="r" depth="2" NCoef="0" IVar="8" Cut="-3.3351472020149231e-01" cType="1" res="-2.0742429792881012e-01" rms="3.1843265891075134e-01" purity="1.1885809153318405e-01" nType="0">
            <Node pos="l" depth="3" NCoef="0" IVar="-1" Cut="0.0000000000000000e+00" cType="1" res="-9.4505781307816505e-03" rms="3.7637254595756531e-01" purity="1.7718020081520081e-01" nType="-99"/>
            <Node pos="r" depth="3" NCoef="0" IVar="-1" Cut="0.0000000000000000e+00" cType="1" res="-2.1515190601348877e-02" rms="3.0644434690475464e-01" purity="1.0919518023729324e-01" nType="-99"/>
          </Node>
        </Node>
      </Node>
    </BinaryTree>
    <BinaryTree type="DecisionTree" boostWeight="1.0000000000000000e+00" itree="16">
      <Node pos="s" depth="0" NCoef="0" IVar="10" Cut="-7.1445059776306152e-01" cType="0" res="5.7983841747045517e-02" rms="4.3634808063507080e-01" purity="4.9871259927749634e-01" nType="0">
        <Node pos="l" depth="1" NCoef="0" IVar="0" Cut="-9.8270273208618164e-01" cType="0" res="1.8064856529235840e-01" rms="4.2778861522674561e-01" purity="6.7998075485229492e-01" nType="0">
          <Node pos="l" depth="2" NCoef="0" IVar="0" Cut="-9.7281849384307861e-01" cType="0" res="4.1632351279258728e-01" rms="1.9746857881546021e-01" purity="9.5886576175689697e-01" nType="0">
            <Node pos="l" depth="3" NCoef="0" IVar="-1" Cut="0.0000000000000000e+00" cType="1" res="5.6157638318836689e-03" rms="7.3658965528011322e-02" purity="9.9451428651809692e-01" nType="-99"/>
            <Node pos="r" depth="3" NCoef="0" IVar="-1" Cut="0.0000000000000000e+00" cType="1" res="4.3227942660450935e-03" rms="3.7425893545150757e-01" purity="8.3049386739730835e-01" nType="-99"/>
          </Node>
          <Node pos="r" depth="2" NCoef="0" IVar="0" Cut="-9.8846846818923950e-01" cType="0" res="-1.1431664973497391e-01" rms="4.5466616749763489e-01" purity="3.3093491196632385e-01" nType="0">
            <Node pos="l" depth="3" NCoef="0" IVar="-1" Cut="0.0000000000000000e+00" cType="1" res="5.0835654838010669e-04" rms="4.9072673916816711e-01" purity="5.0264096260070801e-01" nType="-99"/>
            <Node pos="r" depth="3" NCoef="0" IVar="-1" Cut="0.0000000000000000e+00" cType="1" res="-1.1864905245602131e-02" rms="3.9617404341697693e-01" purity="1.9981423020362854e-01" nType="-99"/>
          </Node>
        </Node>
        <Node pos="r" depth="1" NCoef="0" IVar="8" Cut="1.7845188081264496e-01" cType="0" res="-1.7867203056812286e-01" rms="3.4588211774826050e-01" purity="1.4899370074272156e-01" nType="0">
          <Node pos="l" depth="2" NCoef="0" IVar="-1" Cut="0.0000000000000000e+00" cType="1" res="-7.3974108090624213e-04" rms="4.8686030507087708e-01" purity="4.1668599843978882e-01" nType="-99"/>
          <Node pos="r" depth="2" NCoef="0" IVar="10" Cut="-7.6884156465530396e-01" cType="0" res="-1.8804225325584412e-01" rms="3.3287429809570312e-01" purity="1.3226546347141266e-01" nType="0">
            <Node pos="l" depth="3" NCoef="0" IVar="-1" Cut="0.0000000000000000e+00" cType="1" res="-4.8566367477178574e-03" rms="4.5766451954841614e-01" purity="2.9952889680862427e-01" nType="-99"/>
            <Node pos="r" depth="3" NCoef="0" IVar="-1" Cut="0.0000000000000000e+00" cType="1" res="-1.8733050674200058e-02" rms="3.2062008976936340e-01" purity="1.1942552030086517e-01" nType="-99"/>
          </Node>
        </Node>
      </Node>
    </BinaryTree>
    <BinaryTree type="DecisionTree" boostWeight="1.0000000000000000e+00" itree="17">
      <Node pos="s" depth="0" NCoef="0" IVar="10" Cut="-7.1445059776306152e-01" cType="0" res="6.2173955142498016e-02" rms="4.3337598443031311e-01" purity="5.0086343288421631e-01" nType="0">
        <Node pos="l" depth="1" NCoef="0" IVar="0" Cut="-9.8270273208618164e-01" cType="0" res="1.8218016624450684e-01" rms="4.2468628287315369e-01" purity="6.8201726675033569e-01" nType="0">
          <Node pos="l" depth="2" NCoef="0" IVar="0" Cut="-9.7281849384307861e-01" cType="0" res="4.1433301568031311e-01" rms="1.9591623544692993e-01" purity="9.5950818061828613e-01" nType="0">
            <Node pos="l" depth="3" NCoef="0" IVar="-1" Cut="0.0000000000000000e+00" cType="1" res="5.5867293849587440e-03" rms="7.3018595576286316e-02" purity="9.9461233615875244e-01" nType="-99"/>
            <Node pos="r" depth="3" NCoef="0" IVar="-1" Cut="0.0000000000000000e+00" cType="1" res="4.2940084822475910e-03" rms="3.7126961350440979e-01" purity="8.3391511440277100e-01" nType="-99"/>
          </Node>
          <Node pos="r" depth="2" NCoef="0" IVar="0" Cut="-9.8846846818923950e-01" cType="0" res="-1.1012204736471176e-01" rms="4.5367303490638733e-01" purity="3.3263024687767029e-01" nType="0">
            <Node pos="l" depth="3" NCoef="0" IVar="-1" Cut="0.0000000000000000e+00" cType="1" res="5.0236843526363373e-04" rms="4.9021297693252563e-01" purity="5.0851482152938843e-01" nType="-99"/>
            <Node pos="r" depth="3" NCoef="0" IVar="-1" Cut="0.0000000000000000e+00" cType="1" res="-1.1589259840548038e-02" rms="3.9370867609977722e-01" purity="1.9711172580718994e-01" nType="-99"/>
          </Node>
        </Node>
        <Node pos="r" depth="1" NCoef="0" IVar="10" Cut="-7.5524395704269409e-01" cType="0" res="-1.6948838531970978e-01" rms="3.4747692942619324e-01" purity="1.5116050839424133e-01" nType="0">
          <Node pos="l" depth="2" NCoef="0" IVar="-1" Cut="0.0000000000000000e+00" cType="1" res="-1.6930616693571210e-03" rms="4.7977992892265320e-01" purity="3.8480249047279358e-01" nType="-99"/>
          <Node pos="r" depth="2" NCoef="0" IVar="6" Cut="-1.0005145519971848e-01" cType="1" res="-1.7822289466857910e-01" rms="3.3496472239494324e-01" purity="1.3552963733673096e-01" nType="0">
            <Node pos="l" depth="3" NCoef="0" IVar="-1" Cut="0.0000000000000000e+00" cType="1" res="-8.1760967150330544e-03" rms="3.9420351386070251e-01" purity="2.0717132091522217e-01" nType="-99"/>
            <Node pos="r" depth="3" NCoef="0" IVar="-1" Cut="0.0000000000000000e+00" cType="1" res="-2.0155692473053932e-02" rms="3.1077873706817627e-01" purity="1.1113359034061432e-01" nType="-99"/>
          </Node>
        </Node>
      </Node>
    </BinaryTree>
    <BinaryTree type="DecisionTree" boostWeight="1.0000000000000000e+00" itree="18">
      <Node pos="s" depth="0" NCoef="0" IVar="10" Cut="-7.1428573131561279e-01" cType="0" res="6.4070038497447968e-02" rms="4.3054622411727905e-01" purity="5.0045198202133179e-01" nType="0">
        <Node pos="l" depth="1" NCoef="0" IVar="0" Cut="-9.8115831613540649e-01" cType="0" res="1.8284389376640320e-01" rms="4.2248472571372986e-01" purity="6.8261092901229858e-01" nType="0">
          <Node pos="l" depth="2" NCoef="0" IVar="0" Cut="-9.7518658638000488e-01" cType="0" res="4.1183707118034363e-01" rms="1.9548673927783966e-01" purity="9.5965546369552612e-01" nType="0">
            <Node pos="l" depth="3" NCoef="0" IVar="-1" Cut="0.0000000000000000e+00" cType="1" res="5.5359695106744766e-03" rms="9.3840360641479492e-02" purity="9.9104088544845581e-01" nType="-99"/>
            <Node pos="r" depth="3" NCoef="0" IVar="-1" Cut="0.0000000000000000e+00" cType="1" res="4.0142270736396313e-03" rms="3.9385077357292175e-01" purity="8.0692112445831299e-01" nType="-99"/>
          </Node>
          <Node pos="r" depth="2" NCoef="0" IVar="0" Cut="-9.8846846818923950e-01" cType="0" res="-1.0461477190256119e-01" rms="4.5401349663734436e-01" purity="3.3483251929283142e-01" nType="0">
            <Node pos="l" depth="3" NCoef="0" IVar="-1" Cut="0.0000000000000000e+00" cType="1" res="4.9609947018325329e-04" rms="4.9039769172668457e-01" purity="5.0946116447448730e-01" nType="-99"/>
            <Node pos="r" depth="3" NCoef="0" IVar="-1" Cut="0.0000000000000000e+00" cType="1" res="-1.1319047771394253e-02" rms="3.9629426598548889e-01" purity="2.0045758783817291e-01" nType="-99"/>
          </Node>
        </Node>
        <Node pos="r" depth="1" NCoef="0" IVar="10" Cut="-7.5510245561599731e-01" cType="0" res="-1.6562370955944061e-01" rms="3.4442403912544250e-01" purity="1.4817962050437927e-01" nType="0">
          <Node pos="l" depth="2" NCoef="0" IVar="-1" Cut="0.0000000000000000e+00" cType="1" res="-1.6426821239292622e-03" rms="4.7781676054000854e-01" purity="3.7506321072578430e-01" nType="-99"/>
          <Node pos="r" depth="2" NCoef="0" IVar="6" Cut="-1.3752427697181702e-01" cType="1" res="-1.7350651323795319e-01" rms="3.3213740587234497e-01" purity="1.3303895294666290e-01" nType="0">
            <Node pos="l" depth="3" NCoef="0" IVar="-1" Cut="0.0000000000000000e+00" cType="1" res="-6.4962403848767281e-03" rms="4.0540501475334167e-01" purity="2.2603647410869598e-01" nType="-99"/>
            <Node pos="r" depth="3" NCoef="0" IVar="-1" Cut="0.0000000000000000e+00" cType="1" res="-1.8390387296676636e-02" rms="3.1459939479827881e-01" purity="1.1480690538883209e-01" nType="-99"/>
          </Node>
        </Node>
      </Node>
    </BinaryTree>
    <BinaryTree type="DecisionTree" boostWeight="1.0000000000000000e+00" itree="19">
      <Node pos="s" depth="0" NCoef="0" IVar="10" Cut="-7.1428573131561279e-01" cType="0" res="6.5573997795581818e-02" rms="4.2798757553100586e-01" purity="4.9987214803695679e-01" nType="0">
        <Node pos="l" depth="1" NCoef="0" IVar="11" Cut="-1.8227006494998932e-01" cType="1" res="1.8168118596076965e-01" rms="4.2085218429565430e-01" purity="6.8149578571319580e-01" nType="0">
          <Node pos="l" depth="2" NCoef="0" IVar="4" Cut="-4.6826505661010742e-01" cType="1" res="3.5871541500091553e-01" rms="2.8532826900482178e-01" purity="8.9718145132064819e-01" nType="0">
            <Node pos="l" depth="3" NCoef="0" IVar="-1" Cut="0.0000000000000000e+00" cType="1" res="5.1983390003442764e-03" rms="2.3042400181293488e-01" purity="9.3513822555541992e-01" nType="-99"/>
            <Node pos="r" depth="3" NCoef="0" IVar="-1" Cut="0.0000000000000000e+00" cType="1" res="3.0249913688749075e-03" rms="4.4394761323928833e-01" purity="6.8960750102996826e-01" nType="-99"/>
          </Node>
          <Node pos="r" depth="2" NCoef="0" IVar="0" Cut="-9.8393821716308594e-01" cType="0" res="1.5114369802176952e-02" rms="4.5818087458610535e-01" purity="4.7856280207633972e-01" nType="0">
            <Node pos="l" depth="3" NCoef="0" IVar="-1" Cut="0.0000000000000000e+00" cType="1" res="4.4193523935973644e-03" rms="3.5378643870353699e-01" purity="8.4936791658401489e-01" nType="-99"/>
            <Node pos="r" depth="3" NCoef="0" IVar="-1" Cut="0.0000000000000000e+00" cType="1" res="-8.5470629855990410e-03" rms="4.1709512472152710e-01" purity="2.3403468728065491e-01" nType="-99"/>
          </Node>
        </Node>
        <Node pos="r" depth="1" NCoef="0" IVar="5" Cut="3.0407866835594177e-01" cType="0" res="-1.5929181873798370e-01" rms="3.4384655952453613e-01" purity="1.4812004566192627e-01" nType="0">
          <Node pos="l" depth="2" NCoef="0" IVar="-1" Cut="0.0000000000000000e+00" cType="1" res="-2.2424145136028528e-03" rms="4.6476340293884277e-01" purity="3.5087054967880249e-01" nType="-99"/>
          <Node pos="r" depth="2" NCoef="0" IVar="4" Cut="-4.0413638949394226e-01" cType="0" res="-1.6980077326297760e-01" rms="3.2744556665420532e-01" purity="1.2780390679836273e-01" nType="0">
            <Node pos="l" depth="3" NCoef="0" IVar="-1" Cut="0.0000000000000000e+00" cType="1" res="-1.0437181219458580e-02" rms="3.6714553833007812e-01" purity="1.6462509334087372e-01" nType="-99"/>
            <Node pos="r" depth="3" NCoef="0" IVar="-1" Cut="0.0000000000000000e+00" cType="1" res="-1.7420059069991112e-02" rms="3.1354680657386780e-01" purity="1.1654899269342422e-01" nType="-99"/>
          </Node>
        </Node>
      </Node>
    </BinaryTree>
    <BinaryTree type="DecisionTree" boostWeight="1.0000000000000000e+00" itree="20">
      <Node pos="s" depth="0" NCoef="0" IVar="10" Cut="-7.1445059776306152e-01" cType="0" res="6.7889884114265442e-02" rms="4.2570114135742188e-01" purity="5.0051891803741455e-01" nType="0">
        <Node pos="l" depth="1" NCoef="0" IVar="0" Cut="-9.8177605867385864e-01" cType="0" res="1.8215547502040863e-01" rms="4.1896983981132507e-01" purity="6.8231368064880371e-01" nType="0">
          <Node pos="l" depth="2" NCoef="0" IVar="0" Cut="-9.7539252042770386e-01" cType="0" res="4.0640267729759216e-01" rms="1.9638632237911224e-01" purity="9.5920109748840332e-01" nType="0">
            <Node pos="l" depth="3" NCoef="0" IVar="-1" Cut="0.0000000000000000e+00" cType="1" res="5.4833139292895794e-03" rms="9.3833632767200470e-02" purity="9.9103641510009766e-01" nType="-99"/>
            <Node pos="r" depth="3" NCoef="0" IVar="-1" Cut="0.0000000000000000e+00" cType="1" res="3.9552687667310238e-03" rms="3.9498504996299744e-01" purity="8.0537652969360352e-01" nType="-99"/>
          </Node>
          <Node pos="r" depth="2" NCoef="0" IVar="0" Cut="-9.8846846818923950e-01" cType="0" res="-9.8843500018119812e-02" rms="4.5298311114311218e-01" purity="3.3535236120223999e-01" nType="0">
            <Node pos="l" depth="3" NCoef="0" IVar="-1" Cut="0.0000000000000000e+00" cType="1" res="5.2161893108859658e-04" rms="4.8987731337547302e-01" purity="5.0933492183685303e-01" nType="-99"/>
            <Node pos="r" depth="3" NCoef="0" IVar="-1" Cut="0.0000000000000000e+00" cType="1" res="-1.0925808921456337e-02" rms="3.9677715301513672e-01" purity="2.0160283148288727e-01" nType="-99"/>
          </Node>
        </Node>
        <Node pos="r" depth="1" NCoef="0" IVar="8" Cut="1.2792219221591949e-01" cType="0" res="-1.5433801710605621e-01" rms="3.4278419613838196e-01" purity="1.4695772528648376e-01" nType="0">
          <Node pos="l" depth="2" NCoef="0" IVar="-1" Cut="0.0000000000000000e+00" cType="1" res="-2.1776258945465088e-03" rms="4.6682149171829224e-01" purity="3.5606539249420166e-01" nType="-99"/>
          <Node pos="r" depth="2" NCoef="0" IVar="4" Cut="-4.0867790579795837e-01" cType="0" res="-1.6449701786041260e-01" rms="3.2534515857696533e-01" purity="1.2495280802249908e-01" nType="0">
            <Node pos="l" depth="3" NCoef="0" IVar="-1" Cut="0.0000000000000000e+00" cType="1" res="-1.0116733610630035e-02" rms="3.7033599615097046e-01" purity="1.6816373169422150e-01" nType="-99"/>
            <Node pos="r" depth="3" NCoef="0" IVar="-1" Cut="0.0000000000000000e+00" cType="1" res="-1.7613595351576805e-02" rms="3.0811566114425659e-01" purity="1.1075126379728317e-01" nType="-99"/>
          </Node>
        </Node>
      </Node>
    </BinaryTree>
    <BinaryTree type="DecisionTree" boostWeight="1.0000000000000000e+00" itree="21">
      <Node pos="s" depth="0" NCoef="0" IVar="0" Cut="-9.6262550354003906e-01" cType="0" res="6.9658584892749786e-02" rms="4.2345350980758667e-01" purity="5.0037080049514771e-01" nType="0">
        <Node pos="l" depth="1" NCoef="0" IVar="-1" Cut="0.0000000000000000e+00" cType="1" res="5.4720235057175159e-03" rms="1.3249449431896210e-01" purity="9.6847814321517944e-01" nType="-99"/>
        <Node pos="r" depth="1" NCoef="0" IVar="10" Cut="-6.1926746368408203e-01" cType="0" res="-2.9451921582221985e-02" rms="4.2357677221298218e-01" purity="3.6976179480552673e-01" nType="0">
          <Node pos="l" depth="2" NCoef="0" IVar="0" Cut="-9.8424708843231201e-01" cType="0" res="7.9739801585674286e-02" rms="4.5348599553108215e-01" purity="5.5576437711715698e-01" nType="0">
            <Node pos="l" depth="3" NCoef="0" IVar="-1" Cut="0.0000000000000000e+00" cType="1" res="4.7025298699736595e-03" rms="3.1500074267387390e-01" purity="8.8475227355957031e-01" nType="-99"/>
            <Node pos="r" depth="3" NCoef="0" IVar="-1" Cut="0.0000000000000000e+00" cType="1" res="-4.5821275562047958e-03" rms="4.4543546438217163e-01" purity="3.0514928698539734e-01" nType="-99"/>
          </Node>
          <Node pos="r" depth="2" NCoef="0" IVar="10" Cut="-6.9178855419158936e-01" cType="0" res="-1.5216784179210663e-01" rms="3.4853580594062805e-01" purity="1.6072142124176025e-01" nType="0">
            <Node pos="l" depth="3" NCoef="0" IVar="-1" Cut="0.0000000000000000e+00" cType="1" res="-1.3356407871469855e-03" rms="4.5781418681144714e-01" purity="4.1136384010314941e-01" nType="-99"/>
            <Node pos="r" depth="3" NCoef="0" IVar="-1" Cut="0.0000000000000000e+00" cType="1" res="-1.3912151567637920e-02" rms="3.3428665995597839e-01" purity="1.3609875738620758e-01" nType="-99"/>
          </Node>
        </Node>
      </Node>
    </BinaryTree>
    <BinaryTree type="DecisionTree" boostWeight="1.0000000000000000e+00" itree="22">
      <Node pos="s" depth="0" NCoef="0" IVar="10" Cut="-7.1472465991973877e-01" cType="0" res="7.2360530495643616e-02" rms="4.2142543196678162e-01" purity="5.0171744823455811e-01" nType="0">
        <Node pos="l" depth="1" NCoef="0" IVar="11" Cut="-1.7663244903087616e-01" cType="1" res="1.8289856612682343e-01" rms="4.1537657380104065e-01" purity="6.8365246057510376e-01" nType="0">
          <Node pos="l" depth="2" NCoef="0" IVar="4" Cut="-4.5412710309028625e-01" cType="1" res="3.5149461030960083e-01" rms="2.8528067469596863e-01" purity="8.9498931169509888e-01" nType="0">
            <Node pos="l" depth="3" NCoef="0" IVar="-1" Cut="0.0000000000000000e+00" cType="1" res="5.1165511831641197e-03" rms="2.3242165148258209e-01" purity="9.3246728181838989e-01" nType="-99"/>
            <Node pos="r" depth="3" NCoef="0" IVar="-1" Cut="0.0000000000000000e+00" cType="1" res="2.1814452484250069e-03" rms="4.6523272991180420e-01" purity="6.2481105327606201e-01" nType="-99"/>
          </Node>
          <Node pos="r" depth="2" NCoef="0" IVar="0" Cut="-9.8393821716308594e-01" cType="0" res="2.2250261157751083e-02" rms="4.5442357659339905e-01" purity="4.8227819800376892e-01" nType="0">
            <Node pos="l" depth="3" NCoef="0" IVar="-1" Cut="0.0000000000000000e+00" cType="1" res="4.3245647102594376e-03" rms="3.5208424925804138e-01" purity="8.5045391321182251e-01" nType="-99"/>
            <Node pos="r" depth="3" NCoef="0" IVar="-1" Cut="0.0000000000000000e+00" cType="1" res="-8.1878053024411201e-03" rms="4.2041811347007751e-01" purity="2.3925279080867767e-01" nType="-99"/>
          </Node>
        </Node>
        <Node pos="r" depth="1" NCoef="0" IVar="10" Cut="-7.9623246192932129e-01" cType="0" res="-1.4370684325695038e-01" rms="3.4194245934486389e-01" purity="1.4609122276306152e-01" nType="0">
          <Node pos="l" depth="2" NCoef="0" IVar="9" Cut="-4.2629218101501465e-01" cType="0" res="-7.1380563080310822e-02" rms="4.5460215210914612e-01" purity="3.1196588277816772e-01" nType="0">
            <Node pos="l" depth="3" NCoef="0" IVar="-1" Cut="0.0000000000000000e+00" cType="1" res="-5.2989157848060131e-04" rms="4.7108161449432373e-01" purity="3.7265506386756897e-01" nType="-99"/>
            <Node pos="r" depth="3" NCoef="0" IVar="-1" Cut="0.0000000000000000e+00" cType="1" res="-5.3548817522823811e-03" rms="4.3488827347755432e-01" purity="2.5798210501670837e-01" nType="-99"/>
          </Node>
          <Node pos="r" depth="2" NCoef="0" IVar="11" Cut="-1.4145226776599884e-01" cType="0" res="-1.5411464869976044e-01" rms="3.2116997241973877e-01" purity="1.2222176045179367e-01" nType="0">
            <Node pos="l" depth="3" NCoef="0" IVar="-1" Cut="0.0000000000000000e+00" cType="1" res="-1.1943700723350048e-02" rms="3.4473615884780884e-01" purity="1.4285415410995483e-01" nType="-99"/>
            <Node pos="r" depth="3" NCoef="0" IVar="-1" Cut="0.0000000000000000e+00" cType="1" res="-3.7729561328887939e-02" rms="2.2135071456432343e-01" purity="5.4371554404497147e-02" nType="-99"/>
          </Node>
        </Node>
      </Node>
    </BinaryTree>
    <BinaryTree type="DecisionTree" boostWeight="1.0000000000000000e+00" itree="23">
      <Node pos="s" depth="0" NCoef="0" IVar="10" Cut="-7.1428573131561279e-01" cType="0" res="7.3876038193702698e-02" rms="4.1962641477584839e-01" purity="5.0085711479187012e-01" nType="0">
        <Node pos="l" depth="1" NCoef="0" IVar="11" Cut="-1.7800891399383545e-01" cType="1" res="1.8072731792926788e-01" rms="4.1428840160369873e-01" purity="6.8176132440567017e-01" nType="0">
          <Node pos="l" depth="2" NCoef="0" IVar="4" Cut="-4.6643835306167603e-01" cType="1" res="3.4878927469253540e-01" rms="2.8514060378074646e-01" purity="8.9497292041778564e-01" nType="0">
            <Node pos="l" depth="3" NCoef="0" IVar="-1" Cut="0.0000000000000000e+00" cType="1" res="5.0975284539163113e-03" rms="2.3002107441425323e-01" purity="9.3395090103149414e-01" nType="-99"/>
            <Node pos="r" depth="3" NCoef="0" IVar="-1" Cut="0.0000000000000000e+00" cType="1" res="2.8505821246653795e-03" rms="4.4865092635154724e-01" purity="6.7027503252029419e-01" nType="-99"/>
          </Node>
          <Node pos="r" depth="2" NCoef="0" IVar="0" Cut="-9.8393821716308594e-01" cType="0" res="2.0891278982162476e-02" rms="4.5291656255722046e-01" purity="4.7898560762405396e-01" nType="0">
            <Node pos="l" depth="3" NCoef="0" IVar="-1" Cut="0.0000000000000000e+00" cType="1" res="4.3005449697375298e-03" rms="3.5369563102722168e-01" purity="8.4880548715591431e-01" nType="-99"/>
            <Node pos="r" depth="3" NCoef="0" IVar="-1" Cut="0.0000000000000000e+00" cType="1" res="-8.0052427947521210e-03" rms="4.1964891552925110e-01" purity="2.3831416666507721e-01" nType="-99"/>
          </Node>
        </Node>
        <Node pos="r" depth="1" NCoef="0" IVar="10" Cut="-7.9592221975326538e-01" cType="0" res="-1.3282118737697601e-01" rms="3.4624820947647095e-01" purity="1.5090893208980560e-01" nType="0">
          <Node pos="l" depth="2" NCoef="0" IVar="1" Cut="-9.7263503074645996e-01" cType="0" res="-6.4315542578697205e-02" rms="4.5640996098518372e-01" purity="3.1812718510627747e-01" nType="0">
            <Node pos="l" depth="3" NCoef="0" IVar="-1" Cut="0.0000000000000000e+00" cType="1" res="4.4775064452551305e-04" rms="4.7259896993637085e-01" purity="3.9736860990524292e-01" nType="-99"/>
            <Node pos="r" depth="3" NCoef="0" IVar="-1" Cut="0.0000000000000000e+00" cType="1" res="-8.2204788923263550e-03" rms="4.2605113983154297e-01" purity="2.3566851019859314e-01" nType="-99"/>
          </Node>
          <Node pos="r" depth="2" NCoef="0" IVar="11" Cut="-1.3836245238780975e-01" cType="0" res="-1.4269718527793884e-01" rms="3.2613873481750488e-01" purity="1.2680220603942871e-01" nType="0">
            <Node pos="l" depth="3" NCoef="0" IVar="-1" Cut="0.0000000000000000e+00" cType="1" res="-1.1608533561229706e-02" rms="3.5208502411842346e-01" purity="1.5009281039237976e-01" nType="-99"/>
            <Node pos="r" depth="3" NCoef="0" IVar="-1" Cut="0.0000000000000000e+00" cType="1" res="-3.6130532622337341e-02" rms="2.1450978517532349e-01" purity="5.0508979707956314e-02" nType="-99"/>
          </Node>
        </Node>
      </Node>
    </BinaryTree>
    <BinaryTree type="DecisionTree" boostWeight="1.0000000000000000e+00" itree="24">
      <Node pos="s" depth="0" NCoef="0" IVar="11" Cut="-1.3986681401729584e-01" cType="1" res="7.4335701763629913e-02" rms="4.1703674197196960e-01" purity="4.9964088201522827e-01" nType="0">
        <Node pos="l" depth="1" NCoef="0" IVar="10" Cut="-7.1428573131561279e-01" cType="0" res="2.4502553045749664e-01" rms="3.4948199987411499e-01" purity="7.3325800895690918e-01" nType="0">
          <Node pos="l" depth="2" NCoef="0" IVar="4" Cut="-3.7800639867782593e-01" cType="1" res="3.3588194847106934e-01" rms="2.9862347245216370e-01" purity="8.8022428750991821e-01" nType="0">
            <Node pos="l" depth="3" NCoef="0" IVar="-1" Cut="0.0000000000000000e+00" cType="1" res="4.9560694023966789e-03" rms="2.6166343688964844e-01" purity="9.1001385450363159e-01" nType="-99"/>
            <Node pos="r" depth="3" NCoef="0" IVar="-1" Cut="0.0000000000000000e+00" cType="1" res="-2.9222078155726194e-03" rms="4.8011517524719238e-01" purity="3.9790865778923035e-01" nType="-99"/>
          </Node>
          <Node pos="r" depth="2" NCoef="0" IVar="10" Cut="-8.5034394264221191e-01" cType="0" res="-1.4489062130451202e-01" rms="2.7592366933822632e-01" purity="1.0254310071468353e-01" nType="0">
            <Node pos="l" depth="3" NCoef="0" IVar="-1" Cut="0.0000000000000000e+00" cType="1" res="-1.8191339913755655e-03" rms="4.0837877988815308e-01" purity="2.6822787523269653e-01" nType="-99"/>
            <Node pos="r" depth="3" NCoef="0" IVar="-1" Cut="0.0000000000000000e+00" cType="1" res="-4.1494593024253845e-02" rms="1.9860216975212097e-01" purity="4.3153379112482071e-02" nType="-99"/>
          </Node>
        </Node>
        <Node pos="r" depth="1" NCoef="0" IVar="8" Cut="2.7921935915946960e-01" cType="0" res="-5.1662996411323547e-02" rms="4.1804471611976624e-01" purity="3.2719084620475769e-01" nType="0">
          <Node pos="l" depth="2" NCoef="0" IVar="1" Cut="-9.7398304939270020e-01" cType="0" res="1.5375374257564545e-01" rms="4.1783145070075989e-01" purity="6.4439123868942261e-01" nType="0">
            <Node pos="l" depth="3" NCoef="0" IVar="-1" Cut="0.0000000000000000e+00" cType="1" res="4.3524680659174919e-03" rms="3.4983360767364502e-01" purity="8.0882132053375244e-01" nType="-99"/>
            <Node pos="r" depth="3" NCoef="0" IVar="-1" Cut="0.0000000000000000e+00" cType="1" res="-1.2033151462674141e-02" rms="3.7885394692420959e-01" purity="1.9643926620483398e-01" nType="-99"/>
          </Node>
          <Node pos="r" depth="2" NCoef="0" IVar="11" Cut="7.7251799404621124e-02" cType="1" res="-8.3025358617305756e-02" rms="4.0909978747367859e-01" purity="2.7876174449920654e-01" nType="0">
            <Node pos="l" depth="3" NCoef="0" IVar="-1" Cut="0.0000000000000000e+00" cType="1" res="-4.9901678721653298e-05" rms="4.3205365538597107e-01" purity="4.0293711423873901e-01" nType="-99"/>
            <Node pos="r" depth="3" NCoef="0" IVar="-1" Cut="0.0000000000000000e+00" cType="1" res="-6.1800046823918819e-03" rms="3.9460626244544983e-01" purity="2.2947444021701813e-01" nType="-99"/>
          </Node>
        </Node>
      </Node>
    </BinaryTree>
    <BinaryTree type="DecisionTree" boostWeight="1.0000000000000000e+00" itree="25">
      <Node pos="s" depth="0" NCoef="0" IVar="11" Cut="-1.4344753324985504e-01" cType="1" res="7.6009429991245270e-02" rms="4.1508781909942627e-01" purity="5.0079143047332764e-01" nType="0">
        <Node pos="l" depth="1" NCoef="0" IVar="10" Cut="-7.1428573131561279e-01" cType="0" res="2.4766561388969421e-01" rms="3.4494146704673767e-01" purity="7.3656404018402100e-01" nType="0">
          <Node pos="l" depth="2" NCoef="0" IVar="4" Cut="-3.8298425078392029e-01" cType="1" res="3.3545401692390442e-01" rms="2.9598501324653625e-01" purity="8.8258647918701172e-01" nType="0">
            <Node pos="l" depth="3" NCoef="0" IVar="-1" Cut="0.0000000000000000e+00" cType="1" res="4.9372175708413124e-03" rms="2.5838243961334229e-01" purity="9.1271990537643433e-01" nType="-99"/>
            <Node pos="r" depth="3" NCoef="0" IVar="-1" Cut="0.0000000000000000e+00" cType="1" res="-2.5837663561105728e-03" rms="4.8109766840934753e-01" purity="4.0601783990859985e-01" nType="-99"/>
          </Node>
          <Node pos="r" depth="2" NCoef="0" IVar="10" Cut="-8.5035645961761475e-01" cType="0" res="-1.3146196305751801e-01" rms="2.7833855152130127e-01" purity="1.0594390332698822e-01" nType="0">
            <Node pos="l" depth="3" NCoef="0" IVar="-1" Cut="0.0000000000000000e+00" cType="1" res="-1.7726882360875607e-03" rms="4.1640871763229370e-01" purity="2.8368413448333740e-01" nType="-99"/>
            <Node pos="r" depth="3" NCoef="0" IVar="-1" Cut="0.0000000000000000e+00" cType="1" res="-4.0512602776288986e-02" rms="1.9436095654964447e-01" purity="4.0725592523813248e-02" nType="-99"/>
          </Node>
        </Node>
        <Node pos="r" depth="1" NCoef="0" IVar="8" Cut="2.6114067435264587e-01" cType="0" res="-4.9829881638288498e-02" rms="4.1706672310829163e-01" purity="3.2794904708862305e-01" nType="0">
          <Node pos="l" depth="2" NCoef="0" IVar="7" Cut="-2.3307424783706665e-01" cType="0" res="1.4691661298274994e-01" rms="4.1925954818725586e-01" purity="6.3554280996322632e-01" nType="0">
            <Node pos="l" depth="3" NCoef="0" IVar="-1" Cut="0.0000000000000000e+00" cType="1" res="3.8473752792924643e-03" rms="3.8114908337593079e-01" purity="7.4488788843154907e-01" nType="-99"/>
            <Node pos="r" depth="3" NCoef="0" IVar="-1" Cut="0.0000000000000000e+00" cType="1" res="8.9310016483068466e-04" rms="4.3932884931564331e-01" purity="5.0968611240386963e-01" nType="-99"/>
          </Node>
          <Node pos="r" depth="2" NCoef="0" IVar="10" Cut="-6.2012749910354614e-01" cType="0" res="-8.4197536110877991e-02" rms="4.0703988075256348e-01" purity="2.7421858906745911e-01" nType="0">
            <Node pos="l" depth="3" NCoef="0" IVar="-1" Cut="0.0000000000000000e+00" cType="1" res="-6.1920488951727748e-04" rms="4.5349752902984619e-01" purity="4.2092075943946838e-01" nType="-99"/>
            <Node pos="r" depth="3" NCoef="0" IVar="-1" Cut="0.0000000000000000e+00" cType="1" res="-9.3953050673007965e-03" rms="3.6292636394500732e-01" purity="1.6809801757335663e-01" nType="-99"/>
          </Node>
        </Node>
      </Node>
    </BinaryTree>
    <BinaryTree type="DecisionTree" boostWeight="1.0000000000000000e+00" itree="26">
      <Node pos="s" depth="0" NCoef="0" IVar="0" Cut="-9.6262550354003906e-01" cType="0" res="7.7552944421768188e-02" rms="4.1376775503158569e-01" purity="5.0109887123107910e-01" nType="0">
        <Node pos="l" depth="1" NCoef="0" IVar="-1" Cut="0.0000000000000000e+00" cType="1" res="5.3831441327929497e-03" rms="1.2735959887504578e-01" purity="9.6868062019348145e-01" nType="-99"/>
        <Node pos="r" depth="1" NCoef="0" IVar="11" Cut="-1.3810570538043976e-01" cType="1" res="-1.6927704215049744e-02" rms="4.1673555970191956e-01" purity="3.7039020657539368e-01" nType="0">
          <Node pos="l" depth="2" NCoef="0" IVar="10" Cut="-7.1472465991973877e-01" cType="0" res="1.3690757751464844e-01" rms="3.9377391338348389e-01" purity="5.7979488372802734e-01" nType="0">
            <Node pos="l" depth="3" NCoef="0" IVar="-1" Cut="0.0000000000000000e+00" cType="1" res="3.9393291808664799e-03" rms="3.8478139042854309e-01" purity="7.7999097108840942e-01" nType="-99"/>
            <Node pos="r" depth="3" NCoef="0" IVar="-1" Cut="0.0000000000000000e+00" cType="1" res="-2.3233644664287567e-02" rms="2.4414405226707458e-01" purity="7.3251336812973022e-02" nType="-99"/>
          </Node>
          <Node pos="r" depth="2" NCoef="0" IVar="0" Cut="-9.8774772882461548e-01" cType="0" res="-9.4943724572658539e-02" rms="4.0622481703758240e-01" purity="2.6419273018836975e-01" nType="0">
            <Node pos="l" depth="3" NCoef="0" IVar="-1" Cut="0.0000000000000000e+00" cType="1" res="-1.2520686723291874e-03" rms="4.2332592606544495e-01" purity="3.4060284495353699e-01" nType="-99"/>
            <Node pos="r" depth="3" NCoef="0" IVar="-1" Cut="0.0000000000000000e+00" cType="1" res="-1.3830702751874924e-02" rms="3.6404451727867126e-01" purity="1.5508092939853668e-01" nType="-99"/>
          </Node>
        </Node>
      </Node>
    </BinaryTree>
    <BinaryTree type="DecisionTree" boostWeight="1.0000000000000000e+00" itree="27">
      <Node pos="s" depth="0" NCoef="0" IVar="0" Cut="-9.6561133861541748e-01" cType="0" res="7.9852059483528137e-02" rms="4.1175740957260132e-01" purity="5.0296729803085327e-01" nType="0">
        <Node pos="l" depth="1" NCoef="0" IVar="3" Cut="1.3296578824520111e-01" cType="1" res="3.9087635278701782e-01" rms="1.7579467594623566e-01" purity="9.3511509895324707e-01" nType="0">
          <Node pos="l" depth="2" NCoef="0" IVar="-1" Cut="0.0000000000000000e+00" cType="1" res="5.3525911644101143e-03" rms="1.2274505198001862e-01" purity="9.7278803586959839e-01" nType="-99"/>
          <Node pos="r" depth="2" NCoef="0" IVar="-1" Cut="0.0000000000000000e+00" cType="1" res="2.5391343515366316e-03" rms="3.6077600717544556e-01" purity="4.8285263776779175e-01" nType="-99"/>
        </Node>
        <Node pos="r" depth="1" NCoef="0" IVar="11" Cut="-2.3532934486865997e-01" cType="1" res="-3.3829383552074432e-02" rms="4.1465282440185547e-01" purity="3.4501439332962036e-01" nType="0">
          <Node pos="l" depth="2" NCoef="0" IVar="10" Cut="-7.1472465991973877e-01" cType="0" res="1.3579739630222321e-01" rms="3.8661301136016846e-01" purity="5.7152187824249268e-01" nType="0">
            <Node pos="l" depth="3" NCoef="0" IVar="-1" Cut="0.0000000000000000e+00" cType="1" res="4.0926393121480942e-03" rms="3.7452974915504456e-01" purity="8.0365127325057983e-01" nType="-99"/>
            <Node pos="r" depth="3" NCoef="0" IVar="-1" Cut="0.0000000000000000e+00" cType="1" res="-2.6642873883247375e-02" rms="2.2555661201477051e-01" purity="6.1802018433809280e-02" nType="-99"/>
          </Node>
          <Node pos="r" depth="2" NCoef="0" IVar="0" Cut="-9.9073356389999390e-01" cType="0" res="-8.8294573128223419e-02" rms="4.0858998894691467e-01" purity="2.7228546142578125e-01" nType="0">
            <Node pos="l" depth="3" NCoef="0" IVar="-1" Cut="0.0000000000000000e+00" cType="1" res="-1.7943695420399308e-03" rms="4.2372521758079529e-01" purity="3.2452988624572754e-01" nType="-99"/>
            <Node pos="r" depth="3" NCoef="0" IVar="-1" Cut="0.0000000000000000e+00" cType="1" res="-1.8335167318582535e-02" rms="3.3913195133209229e-01" purity="1.3080357015132904e-01" nType="-99"/>
          </Node>
        </Node>
      </Node>
    </BinaryTree>
    <BinaryTree type="DecisionTree" boostWeight="1.0000000000000000e+00" itree="28">
      <Node pos="s" depth="0" NCoef="0" IVar="11" Cut="-1.4344753324985504e-01" cType="1" res="7.8791297972202301e-02" rms="4.1053909063339233e-01" purity="4.9970337748527527e-01" nType="0">
        <Node pos="l" depth="1" NCoef="0" IVar="10" Cut="-7.1428573131561279e-01" cType="0" res="2.4619078636169434e-01" rms="3.3889019489288330e-01" purity="7.3528170585632324e-01" nType="0">
          <Node pos="l" depth="2" NCoef="0" IVar="4" Cut="-4.4954827427864075e-01" cType="1" res="3.2803127169609070e-01" rms="2.9604399204254150e-01" purity="8.8138133287429810e-01" nType="0">
            <Node pos="l" depth="3" NCoef="0" IVar="-1" Cut="0.0000000000000000e+00" cType="1" res="4.9201319925487041e-03" rms="2.4434326589107513e-01" purity="9.2196756601333618e-01" nType="-99"/>
            <Node pos="r" depth="3" NCoef="0" IVar="-1" Cut="0.0000000000000000e+00" cType="1" res="1.5525240451097488e-03" rms="4.7139570116996765e-01" purity="5.7887691259384155e-01" nType="-99"/>
          </Node>
          <Node pos="r" depth="2" NCoef="0" IVar="10" Cut="-8.5034394264221191e-01" cType="0" res="-1.0175011307001114e-01" rms="2.8454652428627014e-01" purity="1.1414625495672226e-01" nType="0">
            <Node pos="l" depth="3" NCoef="0" IVar="-1" Cut="0.0000000000000000e+00" cType="1" res="-1.1266823858022690e-03" rms="4.1701588034629822e-01" purity="2.9725825786590576e-01" nType="-99"/>
            <Node pos="r" depth="3" NCoef="0" IVar="-1" Cut="0.0000000000000000e+00" cType="1" res="-3.7343081086874008e-02" rms="2.0514312386512756e-01" purity="4.5950867235660553e-02" nType="-99"/>
          </Node>
        </Node>
        <Node pos="r" depth="1" NCoef="0" IVar="8" Cut="2.3809523880481720e-01" cType="0" res="-4.3751236051321030e-02" rms="4.1511368751525879e-01" purity="3.2725143432617188e-01" nType="0">
          <Node pos="l" depth="2" NCoef="0" IVar="1" Cut="-9.7512888908386230e-01" cType="0" res="1.3167485594749451e-01" rms="4.2100921273231506e-01" purity="6.1468780040740967e-01" nType="0">
            <Node pos="l" depth="3" NCoef="0" IVar="-1" Cut="0.0000000000000000e+00" cType="1" res="3.9148605428636074e-03" rms="3.7882387638092041e-01" purity="7.5466531515121460e-01" nType="-99"/>
            <Node pos="r" depth="3" NCoef="0" IVar="-1" Cut="0.0000000000000000e+00" cType="1" res="-1.2758062221109867e-02" rms="3.6680382490158081e-01" purity="1.7848591506481171e-01" nType="-99"/>
          </Node>
          <Node pos="r" depth="2" NCoef="0" IVar="10" Cut="-6.2235295772552490e-01" cType="0" res="-7.9067356884479523e-02" rms="4.0482640266418457e-01" purity="2.6938578486442566e-01" nType="0">
            <Node pos="l" depth="3" NCoef="0" IVar="-1" Cut="0.0000000000000000e+00" cType="1" res="-5.4557190742343664e-04" rms="4.5082259178161621e-01" purity="4.1387203335762024e-01" nType="-99"/>
            <Node pos="r" depth="3" NCoef="0" IVar="-1" Cut="0.0000000000000000e+00" cType="1" res="-9.1323377564549446e-03" rms="3.6386913061141968e-01" purity="1.6871978342533112e-01" nType="-99"/>
          </Node>
        </Node>
      </Node>
    </BinaryTree>
    <BinaryTree type="DecisionTree" boostWeight="1.0000000000000000e+00" itree="29">
      <Node pos="s" depth="0" NCoef="0" IVar="11" Cut="-1.4040997624397278e-01" cType="1" res="7.8258365392684937e-02" rms="4.0836441516876221e-01" purity="4.9841374158859253e-01" nType="0">
        <Node pos="l" depth="1" NCoef="0" IVar="10" Cut="-7.1428573131561279e-01" cType="0" res="2.4479469656944275e-01" rms="3.3689105510711670e-01" purity="7.3417335748672485e-01" nType="0">
          <Node pos="l" depth="2" NCoef="0" IVar="4" Cut="-4.5412710309028625e-01" cType="1" res="3.2532018423080444e-01" rms="2.9654619097709656e-01" purity="8.8055849075317383e-01" nType="0">
            <Node pos="l" depth="3" NCoef="0" IVar="-1" Cut="0.0000000000000000e+00" cType="1" res="4.8939841799438000e-03" rms="2.4416446685791016e-01" purity="9.2190843820571899e-01" nType="-99"/>
            <Node pos="r" depth="3" NCoef="0" IVar="-1" Cut="0.0000000000000000e+00" cType="1" res="1.8021224532276392e-03" rms="4.6604377031326294e-01" purity="6.0098510980606079e-01" nType="-99"/>
          </Node>
          <Node pos="r" depth="2" NCoef="0" IVar="10" Cut="-8.5036325454711914e-01" cType="0" res="-1.0092228651046753e-01" rms="2.7541714906692505e-01" purity="1.0570385307073593e-01" nType="0">
            <Node pos="l" depth="3" NCoef="0" IVar="-1" Cut="0.0000000000000000e+00" cType="1" res="-1.1212042300030589e-03" rms="4.0853264927864075e-01" purity="2.7670380473136902e-01" nType="-99"/>
            <Node pos="r" depth="3" NCoef="0" IVar="-1" Cut="0.0000000000000000e+00" cType="1" res="-3.5567872226238251e-02" rms="2.0100510120391846e-01" purity="4.4000007212162018e-02" nType="-99"/>
          </Node>
        </Node>
        <Node pos="r" depth="1" NCoef="0" IVar="8" Cut="2.7991127967834473e-01" cType="0" res="-4.5163195580244064e-02" rms="4.1285625100135803e-01" purity="3.2369017601013184e-01" nType="0">
          <Node pos="l" depth="2" NCoef="0" IVar="3" Cut="-4.3278008699417114e-01" cType="0" res="1.5175397694110870e-01" rms="4.0966296195983887e-01" purity="6.4257258176803589e-01" nType="0">
            <Node pos="l" depth="3" NCoef="0" IVar="-1" Cut="0.0000000000000000e+00" cType="1" res="3.6647599190473557e-03" rms="3.8961270451545715e-01" purity="7.2299289703369141e-01" nType="-99"/>
            <Node pos="r" depth="3" NCoef="0" IVar="-1" Cut="0.0000000000000000e+00" cType="1" res="1.3854920398443937e-03" rms="4.2123779654502869e-01" purity="5.1853531599044800e-01" nType="-99"/>
          </Node>
          <Node pos="r" depth="2" NCoef="0" IVar="10" Cut="-6.2235295772552490e-01" cType="0" res="-7.4950858950614929e-02" rms="4.0508592128753662e-01" purity="2.7545285224914551e-01" nType="0">
            <Node pos="l" depth="3" NCoef="0" IVar="-1" Cut="0.0000000000000000e+00" cType="1" res="-4.0592093137092888e-04" rms="4.5053884387016296e-01" purity="4.2013353109359741e-01" nType="-99"/>
            <Node pos="r" depth="3" NCoef="0" IVar="-1" Cut="0.0000000000000000e+00" cType="1" res="-8.5666868835687637e-03" rms="3.6141300201416016e-01" purity="1.6799731552600861e-01" nType="-99"/>
          </Node>
        </Node>
      </Node>
    </BinaryTree>
    <BinaryTree type="DecisionTree" boostWeight="1.0000000000000000e+00" itree="30">
      <Node pos="s" depth="0" NCoef="0" IVar="11" Cut="-1.4145632088184357e-01" cType="1" res="8.0171592533588409e-02" rms="4.0780556201934814e-01" purity="4.9914771318435669e-01" nType="0">
        <Node pos="l" depth="1" NCoef="0" IVar="10" Cut="-7.1445059776306152e-01" cType="0" res="2.4326787889003754e-01" rms="3.3547961711883545e-01" purity="7.3253393173217773e-01" nType="0">
          <Node pos="l" depth="2" NCoef="0" IVar="4" Cut="-4.6826505661010742e-01" cType="1" res="3.2243072986602783e-01" rms="2.9719901084899902e-01" purity="8.7989050149917603e-01" nType="0">
            <Node pos="l" depth="3" NCoef="0" IVar="-1" Cut="0.0000000000000000e+00" cType="1" res="4.8778993077576160e-03" rms="2.4221247434616089e-01" purity="9.2324620485305786e-01" nType="-99"/>
            <Node pos="r" depth="3" NCoef="0" IVar="-1" Cut="0.0000000000000000e+00" cType="1" res="2.5796466507017612e-03" rms="4.5041954517364502e-01" purity="6.4878356456756592e-01" nType="-99"/>
          </Node>
          <Node pos="r" depth="2" NCoef="0" IVar="10" Cut="-8.5043501853942871e-01" cType="0" res="-9.3737728893756866e-02" rms="2.7459046244621277e-01" purity="1.0521962493658066e-01" nType="0">
            <Node pos="l" depth="3" NCoef="0" IVar="-1" Cut="0.0000000000000000e+00" cType="1" res="-1.1193150421604514e-03" rms="4.0883570909500122e-01" purity="2.7625107765197754e-01" nType="-99"/>
            <Node pos="r" depth="3" NCoef="0" IVar="-1" Cut="0.0000000000000000e+00" cType="1" res="-3.4392796456813812e-02" rms="2.0070447027683258e-01" purity="4.3742123991250992e-02" nType="-99"/>
          </Node>
        </Node>
        <Node pos="r" depth="1" NCoef="0" IVar="8" Cut="2.7711090445518494e-01" cType="0" res="-3.9338953793048859e-02" rms="4.1463625431060791e-01" purity="3.2813152670860291e-01" nType="0">
          <Node pos="l" depth="2" NCoef="0" IVar="1" Cut="-9.7398304939270020e-01" cType="0" res="1.5057837963104248e-01" rms="4.1092780232429504e-01" purity="6.4126700162887573e-01" nType="0">
            <Node pos="l" depth="3" NCoef="0" IVar="-1" Cut="0.0000000000000000e+00" cType="1" res="4.2503080330789089e-03" rms="3.4795814752578735e-01" purity="8.0778610706329346e-01" nType="-99"/>
            <Node pos="r" depth="3" NCoef="0" IVar="-1" Cut="0.0000000000000000e+00" cType="1" res="-1.1155715212225914e-02" rms="3.7211325764656067e-01" purity="1.8955233693122864e-01" nType="-99"/>
          </Node>
          <Node pos="r" depth="2" NCoef="0" IVar="10" Cut="-6.2141269445419312e-01" cType="0" res="-6.8624787032604218e-02" rms="4.0740126371383667e-01" purity="2.7984502911567688e-01" nType="0">
            <Node pos="l" depth="3" NCoef="0" IVar="-1" Cut="0.0000000000000000e+00" cType="1" res="-4.0370243368670344e-04" rms="4.5120683312416077e-01" purity="4.2390212416648865e-01" nType="-99"/>
            <Node pos="r" depth="3" NCoef="0" IVar="-1" Cut="0.0000000000000000e+00" cType="1" res="-8.3918916061520576e-03" rms="3.6596080660820007e-01" purity="1.7312589287757874e-01" nType="-99"/>
          </Node>
        </Node>
      </Node>
    </BinaryTree>
    <BinaryTree type="DecisionTree" boostWeight="1.0000000000000000e+00" itree="31">
      <Node pos="s" depth="0" NCoef="0" IVar="11" Cut="-1.3562178611755371e-01" cType="1" res="8.2029506564140320e-02" rms="4.0672412514686584e-01" purity="5.0036430358886719e-01" nType="0">
        <Node pos="l" depth="1" NCoef="0" IVar="10" Cut="-7.1472465991973877e-01" cType="0" res="2.4263425171375275e-01" rms="3.3436971902847290e-01" purity="7.3222810029983521e-01" nType="0">
          <Node pos="l" depth="2" NCoef="0" IVar="4" Cut="-3.8584485650062561e-01" cType="1" res="3.1949898600578308e-01" rms="2.9831790924072266e-01" purity="8.7827891111373901e-01" nType="0">
            <Node pos="l" depth="3" NCoef="0" IVar="-1" Cut="0.0000000000000000e+00" cType="1" res="4.7826860100030899e-03" rms="2.6076808571815491e-01" purity="9.0958744287490845e-01" nType="-99"/>
            <Node pos="r" depth="3" NCoef="0" IVar="-1" Cut="0.0000000000000000e+00" cType="1" res="-2.5704584550112486e-03" rms="4.7968962788581848e-01" purity="4.0047994256019592e-01" nType="-99"/>
          </Node>
