<?xml version="1.0"?>
<MethodSetup Method="MLP::MLP">
  <GeneralInfo>
    <Info name="TMVA Release" value="4.2.0 [262656]"/>
    <Info name="ROOT Release" value="5.28/00 [334848]"/>
    <Info name="Creator" value="han"/>
    <Info name="Date" value="Tue Dec  7 21:14:13 2021"/>
    <Info name="Host" value="Linux sukla01 3.10.0-327.36.3.el7.x86_64 #1 SMP Thu Oct 20 04:56:07 EDT 2016 x86_64 x86_64 x86_64 GNU/Linux"/>
    <Info name="Dir" value="/disk02/calib3/usr/han/mc/random"/>
    <Info name="Training events" value="4867761"/>
    <Info name="TrainingTime" value="4.19995952e+04"/>
    <Info name="AnalysisType" value="Classification"/>
  </GeneralInfo>
  <Options>
    <Option name="NCycles" modified="Yes">300</Option>
    <Option name="HiddenLayers" modified="Yes">N+1,N-1</Option>
    <Option name="NeuronType" modified="Yes">sigmoid</Option>
    <Option name="RandomSeed" modified="No">1</Option>
    <Option name="EstimatorType" modified="Yes">CE</Option>
    <Option name="NeuronInputType" modified="No">sum</Option>
    <Option name="V" modified="Yes">True</Option>
    <Option name="VerbosityLevel" modified="No">Verbose</Option>
    <Option name="VarTransform" modified="Yes">N</Option>
    <Option name="H" modified="Yes">True</Option>
    <Option name="CreateMVAPdfs" modified="No">False</Option>
    <Option name="IgnoreNegWeightsInTraining" modified="No">False</Option>
    <Option name="TrainingMethod" modified="No">BP</Option>
    <Option name="LearningRate" modified="No">2.000000e-02</Option>
    <Option name="DecayRate" modified="No">1.000000e-02</Option>
    <Option name="TestRate" modified="Yes">5</Option>
    <Option name="EpochMonitoring" modified="No">False</Option>
    <Option name="Sampling" modified="No">1.000000e+00</Option>
    <Option name="SamplingEpoch" modified="No">1.000000e+00</Option>
    <Option name="SamplingImportance" modified="No">1.000000e+00</Option>
    <Option name="SamplingTraining" modified="No">True</Option>
    <Option name="SamplingTesting" modified="No">False</Option>
    <Option name="ResetStep" modified="No">50</Option>
    <Option name="Tau" modified="No">3.000000e+00</Option>
    <Option name="BPMode" modified="No">sequential</Option>
    <Option name="BatchSize" modified="No">-1</Option>
    <Option name="ConvergenceImprove" modified="No">1.000000e-30</Option>
    <Option name="ConvergenceTests" modified="No">-1</Option>
    <Option name="UseRegulator" modified="Yes">True</Option>
    <Option name="UpdateLimit" modified="No">10000</Option>
    <Option name="CalculateErrors" modified="No">False</Option>
    <Option name="WeightRange" modified="No">1.000000e+00</Option>
  </Options>
  <Variables NVar="12">
    <Variable VarIndex="0" Expression="NHits" Label="NHits" Title="NHits" Unit="" Internal="NHits" Type="F" Min="4.00000000e+00" Max="1.77000000e+02"/>
    <Variable VarIndex="1" Expression="N200" Label="N200" Title="N200" Unit="" Internal="N200" Type="F" Min="8.00000000e+00" Max="9.96000000e+02"/>
    <Variable VarIndex="2" Expression="TRMS" Label="TRMS" Title="TRMS" Unit="" Internal="TRMS" Type="F" Min="2.02867270e+00" Max="6.45847290e+02"/>
    <Variable VarIndex="3" Expression="Beta1" Label="Beta1" Title="Beta1" Unit="" Internal="Beta1" Type="F" Min="-3.33208174e-01" Max="9.99804378e-01"/>
    <Variable VarIndex="4" Expression="Beta5" Label="Beta5" Title="Beta5" Unit="" Internal="Beta5" Type="F" Min="-3.15233141e-01" Max="9.97069240e-01"/>
    <Variable VarIndex="5" Expression="OpeningAngleMean" Label="OpeningAngleMean" Title="OpeningAngleMean" Unit="" Internal="OpeningAngleMean" Type="F" Min="8.03928912e-01" Max="8.99999695e+01"/>
    <Variable VarIndex="6" Expression="OpeningAngleSkew" Label="OpeningAngleSkew" Title="OpeningAngleSkew" Unit="" Internal="OpeningAngleSkew" Type="F" Min="-3.07227264e+02" Max="3.54623657e+02"/>
    <Variable VarIndex="7" Expression="OpeningAngleStdev" Label="OpeningAngleStdev" Title="OpeningAngleStdev" Unit="" Internal="OpeningAngleStdev" Type="F" Min="3.17637023e-05" Max="4.56349831e+01"/>
    <Variable VarIndex="8" Expression="MeanDirAngleMean" Label="MeanDirAngleMean" Title="MeanDirAngleMean" Unit="" Internal="MeanDirAngleMean" Type="F" Min="6.49413288e-01" Max="9.46966476e+01"/>
    <Variable VarIndex="9" Expression="MeanDirAngleRMS" Label="MeanDirAngleRMS" Title="MeanDirAngleRMS" Unit="" Internal="MeanDirAngleRMS" Type="F" Min="9.65016559e-02" Max="8.73619690e+01"/>
    <Variable VarIndex="10" Expression="DWall" Label="DWall" Title="DWall" Unit="" Internal="DWall" Type="F" Min="3.28723145e+00" Max="1.69000000e+03"/>
    <Variable VarIndex="11" Expression="DWallMeanDir" Label="DWallMeanDir" Title="DWallMeanDir" Unit="" Internal="DWallMeanDir" Type="F" Min="1.10913172e+01" Max="4.93317627e+03"/>
  </Variables>
  <Spectators NSpec="1">
    <Spectator SpecIndex="0" Expression="Label" Label="Label" Title="I" Unit="" Internal="Label" Type="F" Min="0.00000000e+00" Max="3.00000000e+00"/>
  </Spectators>
  <Classes NClass="2">
    <Class Name="Signal" Index="0"/>
    <Class Name="Background" Index="1"/>
  </Classes>
  <Transformations NTransformations="1">
    <Transform Name="Normalize">
      <Selection>
        <Input NInputs="12">
          <Input Type="Variable" Label="NHits" Expression="NHits"/>
          <Input Type="Variable" Label="N200" Expression="N200"/>
          <Input Type="Variable" Label="TRMS" Expression="TRMS"/>
          <Input Type="Variable" Label="Beta1" Expression="Beta1"/>
          <Input Type="Variable" Label="Beta5" Expression="Beta5"/>
          <Input Type="Variable" Label="OpeningAngleMean" Expression="OpeningAngleMean"/>
          <Input Type="Variable" Label="OpeningAngleSkew" Expression="OpeningAngleSkew"/>
          <Input Type="Variable" Label="OpeningAngleStdev" Expression="OpeningAngleStdev"/>
          <Input Type="Variable" Label="MeanDirAngleMean" Expression="MeanDirAngleMean"/>
          <Input Type="Variable" Label="MeanDirAngleRMS" Expression="MeanDirAngleRMS"/>
          <Input Type="Variable" Label="DWall" Expression="DWall"/>
          <Input Type="Variable" Label="DWallMeanDir" Expression="DWallMeanDir"/>
        </Input>
        <Output NOutputs="12">
          <Output Type="Variable" Label="NHits" Expression="NHits"/>
          <Output Type="Variable" Label="N200" Expression="N200"/>
          <Output Type="Variable" Label="TRMS" Expression="TRMS"/>
          <Output Type="Variable" Label="Beta1" Expression="Beta1"/>
          <Output Type="Variable" Label="Beta5" Expression="Beta5"/>
          <Output Type="Variable" Label="OpeningAngleMean" Expression="OpeningAngleMean"/>
          <Output Type="Variable" Label="OpeningAngleSkew" Expression="OpeningAngleSkew"/>
          <Output Type="Variable" Label="OpeningAngleStdev" Expression="OpeningAngleStdev"/>
          <Output Type="Variable" Label="MeanDirAngleMean" Expression="MeanDirAngleMean"/>
          <Output Type="Variable" Label="MeanDirAngleRMS" Expression="MeanDirAngleRMS"/>
          <Output Type="Variable" Label="DWall" Expression="DWall"/>
          <Output Type="Variable" Label="DWallMeanDir" Expression="DWallMeanDir"/>
        </Output>
      </Selection>
      <Class ClassIndex="0">
        <Ranges>
          <Range Index="0" Min="4.0000000000000000e+00" Max="9.5000000000000000e+01"/>
          <Range Index="1" Min="1.1000000000000000e+01" Max="1.4100000000000000e+02"/>
          <Range Index="2" Min="2.2280979156494141e+00" Max="5.4720771789550781e+01"/>
          <Range Index="3" Min="-3.3097851276397705e-01" Max="9.8799312114715576e-01"/>
          <Range Index="4" Min="-2.8845927119255066e-01" Max="8.3546137809753418e-01"/>
          <Range Index="5" Min="1.1581065177917480e+01" Max="8.8694335937500000e+01"/>
          <Range Index="6" Min="-2.2306852722167969e+02" Max="2.1107666015625000e+02"/>
          <Range Index="7" Min="7.9673878848552704e-02" Max="4.0237884521484375e+01"/>
          <Range Index="8" Min="4.7892837524414062e+00" Max="9.1261680603027344e+01"/>
          <Range Index="9" Min="1.6865448951721191e+00" Max="8.3551910400390625e+01"/>
          <Range Index="10" Min="3.2872314453125000e+00" Max="1.6900000000000000e+03"/>
          <Range Index="11" Min="2.6200975418090820e+01" Max="4.8233999023437500e+03"/>
        </Ranges>
      </Class>
      <Class ClassIndex="1">
        <Ranges>
          <Range Index="0" Min="4.0000000000000000e+00" Max="1.7700000000000000e+02"/>
          <Range Index="1" Min="8.0000000000000000e+00" Max="9.9600000000000000e+02"/>
          <Range Index="2" Min="2.0286726951599121e+00" Max="6.4584729003906250e+02"/>
          <Range Index="3" Min="-3.3320817351341248e-01" Max="9.9980437755584717e-01"/>
          <Range Index="4" Min="-3.1523314118385315e-01" Max="9.9706923961639404e-01"/>
          <Range Index="5" Min="8.0392891168594360e-01" Max="8.9999969482421875e+01"/>
          <Range Index="6" Min="-3.0722726440429688e+02" Max="3.5462365722656250e+02"/>
          <Range Index="7" Min="3.1763702281750739e-05" Max="4.5634983062744141e+01"/>
          <Range Index="8" Min="6.4941328763961792e-01" Max="9.4696647644042969e+01"/>
          <Range Index="9" Min="9.6501655876636505e-02" Max="8.7361968994140625e+01"/>
          <Range Index="10" Min="3.2872314453125000e+00" Max="1.6900000000000000e+03"/>
          <Range Index="11" Min="1.1091317176818848e+01" Max="4.9331762695312500e+03"/>
        </Ranges>
      </Class>
      <Class ClassIndex="2">
        <Ranges>
          <Range Index="0" Min="4.0000000000000000e+00" Max="1.7700000000000000e+02"/>
          <Range Index="1" Min="8.0000000000000000e+00" Max="9.9600000000000000e+02"/>
          <Range Index="2" Min="2.0286726951599121e+00" Max="6.4584729003906250e+02"/>
          <Range Index="3" Min="-3.3320817351341248e-01" Max="9.9980437755584717e-01"/>
          <Range Index="4" Min="-3.1523314118385315e-01" Max="9.9706923961639404e-01"/>
          <Range Index="5" Min="8.0392891168594360e-01" Max="8.9999969482421875e+01"/>
          <Range Index="6" Min="-3.0722726440429688e+02" Max="3.5462365722656250e+02"/>
          <Range Index="7" Min="3.1763702281750739e-05" Max="4.5634983062744141e+01"/>
          <Range Index="8" Min="6.4941328763961792e-01" Max="9.4696647644042969e+01"/>
          <Range Index="9" Min="9.6501655876636505e-02" Max="8.7361968994140625e+01"/>
          <Range Index="10" Min="3.2872314453125000e+00" Max="1.6900000000000000e+03"/>
          <Range Index="11" Min="1.1091317176818848e+01" Max="4.9331762695312500e+03"/>
        </Ranges>
      </Class>
    </Transform>
  </Transformations>
  <MVAPdfs/>
  <Weights>
    <Layout NLayers="4">
      <Layer Index="0" NNeurons="13">
        <Neuron NSynapses="13">
          4.7528288659091427e+00 3.9450776751306996e+01 1.5687570373643146e+01 1.3481915886268940e+01 -1.0272660674300894e+01 -8.7912538755569880e+00 -1.1561244689390021e+01 2.6853378102323617e+01 -3.9371147611875359e+00 -1.9486137501736710e+01 -1.5783266053631086e+01 1.2620869921402276e+01 5.0056901215645100e-01 
        </Neuron>
        <Neuron NSynapses="13">
          -1.1756056432656470e+01 -6.9878844260908988e+00 9.0702821142762726e+00 -1.0716620104831511e+00 2.7817623008278435e+01 9.3768005911879815e+00 1.4391491276393808e+01 4.4906817537213275e+00 1.1290121663314638e+01 2.3116728756586809e+01 -3.0495869776652022e-02 -5.8927549966145394e+00 -8.6175501342555638e-01 
        </Neuron>
        <Neuron NSynapses="13">
          5.0099747465535609e+00 -1.9934582806738010e+01 -2.0144211895195191e+01 -2.2977984386930594e+00 -5.5012445638778287e+00 -4.6522635727733350e+00 2.7995029233548183e+00 -1.7891081958124609e+01 -4.2805512358995884e-01 4.5028514591810342e+00 1.2953190928669503e+01 -1.6613940263897551e+00 -1.2503273270945321e+00 
        </Neuron>
        <Neuron NSynapses="13">
          -2.6540214720205019e-01 3.3210954611049557e+00 -1.5863144316910265e+00 -2.1069240831310222e-02 -3.3600066274545513e+00 2.9389479939612162e+00 -5.3368313929892303e-02 3.0392571720039765e+00 1.0240496210337181e+01 4.1171097194983384e+00 3.4204903767176047e+00 1.2365813318134016e+00 -2.8200370152242549e+00 
        </Neuron>
        <Neuron NSynapses="13">
          -7.7803422776845399e-01 5.8295225568403275e-01 5.2500811059280651e-02 1.0672257013573787e+00 1.3870423618467538e+00 1.4702233620453955e+00 4.1631837364908666e+00 -2.3892729245013702e+00 1.9183496489802503e+00 -9.8430808954783611e-01 -1.7157782823214978e+00 -9.3048472809769522e-01 -3.2449601637221726e+00 
        </Neuron>
        <Neuron NSynapses="13">
          5.5710831057789356e-01 1.9870014250025170e-01 -1.8831852069599400e+00 6.3597988430152927e+00 -6.1192473300351837e+00 2.1991567133630983e+00 -9.7567405143791621e+00 3.8400673750753449e+00 9.0115854135203879e+00 8.3390179247809204e+00 5.2147927681957178e+00 -2.4840028030467090e+00 -9.6542668228601425e+00 
        </Neuron>
        <Neuron NSynapses="13">
          3.3762016825066299e+00 -2.2487633257853865e+00 1.6738540899745347e-02 9.3556364920071425e-02 -1.3444919289763966e+00 -3.7392377389339559e+00 -9.9040745303491935e+00 -7.2938684773062734e-01 -7.3399213189804096e+00 2.2276695863467078e+00 -3.1573344415141289e+00 -3.5139116833856785e+00 1.9719607076177283e+00 
        </Neuron>
        <Neuron NSynapses="13">
          5.2953940848185088e-01 5.9903602003676248e-01 1.0184397624110668e+00 1.4628388625582480e+00 4.0235641876085975e+00 1.9738995798263257e+00 4.0234674664651626e+00 1.3656554062185895e+00 -6.2886717328956454e-01 -4.5877284483438387e+00 -3.3309629716997953e+00 1.7848903174323201e+00 4.7295666362988786e+00 
        </Neuron>
        <Neuron NSynapses="13">
          -3.2128669674639783e+00 1.4365740102837277e+00 -2.0466086142271749e+00 3.2129242257357991e+00 -2.1628725586727002e+00 -4.0827319225181002e-01 4.0943875417557747e+00 1.0352336200096772e+00 -1.1525473870463743e+00 1.9856827375789059e+00 -3.1886752593231726e+00 3.6923717306773378e+00 3.1190092676162742e+00 
        </Neuron>
        <Neuron NSynapses="13">
          1.3866931557113385e-01 3.2808474216068267e-01 -4.4194530554152989e-01 2.0148068170534961e+00 1.4089583756280588e-01 -2.2192528221477228e+00 -9.0336812205080319e-01 -2.0754578237664217e-01 2.0539159085250529e+00 3.0066445102927142e-01 3.3634895513595842e-01 -1.4073368156701833e+00 -2.6843867181107859e+00 
        </Neuron>
        <Neuron NSynapses="13">
          5.4800880490215165e-01 -1.7874451341784370e+00 6.3798703473974638e-01 -3.4792213501883338e+00 -6.2901156829538207e-01 1.1503391346440182e+01 1.7135755139166950e+00 1.0803404709436615e+00 -1.4251991037007870e+00 -8.7908629614919687e-01 -4.8489226395019758e-01 -4.5726329985260588e+00 -8.5489892758619970e+00 
        </Neuron>
        <Neuron NSynapses="13">
          -4.4709906578126928e+00 -4.4697390371762786e+00 2.2673879778617678e-01 8.0678508645483615e-01 6.2634179923715894e-02 7.2478202777529740e-02 1.0387013449069344e+00 3.3321281952884885e-01 3.1276390219899786e-01 5.7894893096819677e-01 -1.7334034195568038e+00 9.8822324242397375e-01 1.9316292962036670e+00 
        </Neuron>
        <Neuron NSynapses="13">
          -3.7952104313776349e+00 1.0793981407134606e+01 4.3847098537190030e+00 3.5866129499871922e+00 1.2304084753869745e+01 8.1325720286568206e+00 7.9072188592326729e+00 6.7356715130763458e+00 4.6757078731190003e+00 4.4690553493754797e+00 -2.5880958202677249e+00 1.6310437774150739e+00 -7.1011321634242126e+00 
        </Neuron>
      </Layer>
      <Layer Index="1" NNeurons="14">
        <Neuron NSynapses="11">
          -4.3576519073688198e+00 3.4166372627134125e+00 3.5227871115084346e+00 1.2149865674941128e-01 -3.4104081994933937e+00 8.4520366504089228e-01 1.6032238502563645e+00 -1.9617748447120558e+00 1.5165772271326179e+00 1.0998914098781563e+00 -3.6672369969500287e+00 
        </Neuron>
        <Neuron NSynapses="11">
          -2.3297439335826722e+00 2.8933765654865118e+00 8.8349355781709900e+00 -6.8952681342902167e-01 4.4938803632282571e+00 7.0609459249638429e-01 2.9513567556281619e+00 3.4428333490630691e-01 -3.9060909833367661e+00 -3.6148819337520517e+00 -2.4216599040991591e+00 
        </Neuron>
        <Neuron NSynapses="11">
          -4.2521248820955302e+00 -3.6377076440301748e+00 -1.6741933090132808e+00 -3.5856988587593248e+00 -3.9775233946886490e+00 5.1271409175876945e+00 4.8749913274066223e+00 7.2837453066504834e+00 -4.1336772463121552e+00 -3.6238709017257276e-01 -5.2703251854775370e+00 
        </Neuron>
        <Neuron NSynapses="11">
          -1.0668941680039330e+00 1.2468070641847744e+00 8.1079556960774135e-01 2.2304499192005776e+00 -1.1023467325332925e+00 9.0154771173042136e-01 2.2167736575739547e+00 1.5697236423841436e+00 4.3348639718069748e+00 -1.2593683801100282e+00 -1.5168836784212452e+00 
        </Neuron>
        <Neuron NSynapses="11">
          3.1091353990531323e-01 -3.9661285857125352e+00 -5.2451672605161521e+00 -1.4421397834212046e+00 -3.0399147666619153e+00 5.9510521012893562e+00 -5.0403660607942040e+00 -4.8847702021945887e+00 2.4254195951425204e+00 -4.2043875583380430e+00 7.8609568662601257e+00 
        </Neuron>
        <Neuron NSynapses="11">
          3.0862503321427721e+00 -3.0577491800330261e+00 4.7826323209923460e-01 -1.1054237316475866e+00 -2.9697577304864575e+00 -6.4905605861877502e-01 1.7484642943072307e-01 1.0148781014284964e+00 7.6960663947142365e+00 -2.2525398064545734e+00 1.9185005942145448e+00 
        </Neuron>
        <Neuron NSynapses="11">
          1.1667041971137373e+00 -2.1150371889151998e-01 -2.6594738541006597e+00 5.7975328333482713e-02 -1.0969536726748206e+01 5.4619908084462532e-01 -2.9412281981159820e+00 -7.3710489500597864e-01 -5.6522136171999149e+00 -6.2783460447323867e+00 3.2794000643303556e+00 
        </Neuron>
        <Neuron NSynapses="11">
          -9.0764859045349233e+00 -4.1574196682993403e+00 1.9105961240220681e+00 5.9701781797770126e-01 -4.7829406513380786e+00 -2.8765988771813746e+00 2.4320373973222811e+00 8.4445944020314343e+00 4.4807372945198409e+00 1.0769698615850563e-01 -4.5938868669212507e+00 
        </Neuron>
        <Neuron NSynapses="11">
          1.4032119355689505e+00 -1.4043741871582582e+00 -2.1703476650652544e+00 1.6150735788477317e+00 7.2023845051420421e-01 5.4955920686631277e-01 -3.6651754527916207e+00 -4.4177082144552643e-01 1.0803079498693740e+00 -3.1787146597609389e-01 1.3472206921044207e+00 
        </Neuron>
        <Neuron NSynapses="11">
          -1.6739408061778080e+00 -7.0944264507242076e+00 -1.7603567650835317e+00 6.3749641829884418e-01 -2.2047008374223220e+00 5.5313136273558863e+00 -3.3957816321867433e+00 1.4148165983467836e-01 -1.0227665668741741e-01 -3.2312592677130954e+00 8.0766693277502088e-01 
        </Neuron>
        <Neuron NSynapses="11">
          -3.0980960393089435e-01 -4.7457754212585046e+00 -5.0950747582132339e+00 -3.7410629120776400e+00 3.2431764665259051e+00 -3.0705595133726327e-01 -3.6116786020255573e+00 -5.4809370701805200e+00 2.0102025923451752e+00 -1.8352200871579250e-01 4.6447461545432871e+00 
        </Neuron>
        <Neuron NSynapses="11">
          -6.5785242651009268e-02 5.3007248381219592e+00 -1.4367895982370145e+00 3.8276758812583203e+00 1.9112196222620759e+00 -2.4037649636628284e+00 -6.9657257403973116e-01 4.4855097351529755e-01 -3.6766989140200579e+00 -1.7813670235823417e-02 -5.7137980554600076e-01 
        </Neuron>
        <Neuron NSynapses="11">
          -1.0116626519735658e-01 1.0757241275765606e+00 -2.9148312203802367e+00 1.7868042117185765e-01 -8.9055405909659635e-01 6.3464075916228058e-01 -7.2005687851412414e-01 2.7051967471434114e-02 1.4717459612386907e+00 1.0416182202771596e+00 -7.9132268443605536e-01 
        </Neuron>
        <Neuron NSynapses="11">
          -4.2100586375311688e-01 7.8043568172464117e-01 -5.3691918708896544e+00 -1.7800689479851133e+00 -1.4782963318203610e+00 -6.6672935247563201e+00 -2.0925089301382180e+00 4.3592723148841888e+00 -1.2023923083010035e+00 4.3049916341053187e+00 -2.2528029132890142e+00 
        </Neuron>
      </Layer>
      <Layer Index="2" NNeurons="12">
        <Neuron NSynapses="1">
          -4.3301890465536328e+00 
        </Neuron>
        <Neuron NSynapses="1">
          -5.0825658347444200e+00 
        </Neuron>
        <Neuron NSynapses="1">
          8.1544061478550116e+00 
        </Neuron>
        <Neuron NSynapses="1">
          3.7516696189337879e+00 
        </Neuron>
        <Neuron NSynapses="1">
          2.4669096664110519e+00 
        </Neuron>
        <Neuron NSynapses="1">
          -4.6598802456627926e+00 
        </Neuron>
        <Neuron NSynapses="1">
          3.9602030567007671e+00 
        </Neuron>
        <Neuron NSynapses="1">
          -3.3385822040713866e+00 
        </Neuron>
        <Neuron NSynapses="1">
          2.9255681941708387e+00 
        </Neuron>
        <Neuron NSynapses="1">
          -3.8821999959989637e+00 
        </Neuron>
        <Neuron NSynapses="1">
          -2.9060882629460711e+00 
        </Neuron>
        <Neuron NSynapses="1">
          -1.3232678315255267e-01 
        </Neuron>
      </Layer>
      <Layer Index="3" NNeurons="1">
        <Neuron NSynapses="0"/>
      </Layer>
    </Layout>
    <InverseHessian NElements="112225" NRows="335" NCols="335">
      <Row Index="0">
        2.1317315170278199e+00 -3.2755886516957522e-01 1.4746055009998682e-01 -2.6270050227916841e-02 -1.7350377645552209e-01 -2.2047874754578700e-02 2.5493665633703577e-01 1.1501308199474658e-01 2.2372138577907635e-01 -6.0082886847110106e-02 7.1086046015950699e-02 1.2909309474908071e-01 3.0739919111020808e-02 -1.7701770108753696e+00 5.5210890295313386e-01 -2.4054232899739408e-01 -6.2877306004728462e-02 3.4056501172787168e-01 -2.3003184965512569e-02 -3.0329067047496072e-01 4.4229280582741073e-02 -3.0110759702918499e-01 1.4183304746126735e-01 -1.7995040648650533e-02 -3.0166528058811937e-01 2.7276245139642596e-01 -5.1967151755275487e-01 -1.0561217335244388e-01 -5.6307737904205402e-03 1.0325613705788150e-01 3.5691060620893222e-02 1.1769952630155678e-02 3.4534863995103526e-02 -6.1374197985937129e-02 -4.9285142062765359e-02 1.6544600267918153e-02 -3.4656533162432557e-02 1.6381305228915988e-01 -1.5946628246221828e-01 -1.7480946497203620e-01 3.6581942134358572e-02 -3.6785892772872683e-02 -3.6877661477341339e-02 -3.2320241880221999e-02 2.2651917612630006e-02 -1.6759694040758461e-02 -1.6494899525163430e-02 -9.3959270815705986e-02 4.0743794916238030e-02 -8.0703638577777903e-03 -1.3592179858424936e-03 1.5747462450398930e-03 -4.4670048527967604e-02 3.8209031917963744e-03 -1.6156592887849597e-03 9.5572483129025658e-03 -1.4778949095634614e-03 -2.4376674557179427e-04 -1.4600999608729966e-02 9.0105623238143362e-03 2.2760123629080975e-02 -1.3748404491658033e-02 -8.2250529348098303e-03 -4.5958684110528059e-03 5.9913939187108134e-03 -2.9722114963837171e-02 -1.5296287051048685e-03 -2.1152709343277148e-03 2.5500812602117229e-03 -9.5508233418458779e-03 -1.2888995386435564e-04 5.3839546113977677e-02 1.4084628905466579e-02 -2.1832930416002316e-02 6.8213163478484495e-02 1.7471246675254265e-03 -1.9046651303897225e-02 3.8643503444303340e-03 1.3810043248550258e-01 -5.5203627697987950e-03 2.7499603763868671e-02 -2.0111527347916699e-02 2.7165109564188730e-03 -2.2543802685495384e-02 6.2123239624170087e-02 3.0725192541889795e-02 -1.3593148902128011e-02 1.4833077657549806e-02 7.9646760960946569e-03 -4.5650409306832417e-03 6.4428502976515978e-03 -9.4455547484435191e-03 1.9606137649061897e-02 -8.3676838586317914e-03 6.5969178258974692e-03 1.3927183701816115e-02 6.6812926926248517e-03 -2.3702901861953785e-02 1.4194144584482461e-02 -2.0725071574350742e-02 -3.5359901523991488e-02 -1.2232971043832941e-02 9.7939908273184523e-03 1.6401879169338218e-03 -2.2953478553206833e-01 2.6541053002273100e-02 -2.0154273357356818e-02 -2.8201436070957930e-02 -4.8913941351058532e-02 2.8667300020628218e-02 -2.6862897489531933e-02 -8.0508355137254017e-03 -1.0593388223449365e-01 1.4224105715767547e-02 -4.0307327774030066e-02 8.3104618993551371e-03 -4.8792528485191235e-04 -3.1334066021560844e-02 7.6474387194472304e-03 -1.1569072991524740e-03 -5.4731835586593405e-03 -7.7891475642492443e-03 1.5231530881421707e-04 1.1862959611477167e-02 -6.2710011745245597e-04 1.4122820030443461e-02 1.6172672438356413e-03 1.8719721376660725e-03 -1.5535085448325643e-02 -1.1092874004114711e-02 3.4742016758942409e-02 -6.0007285507828719e-03 -2.9959912481070583e-03 -1.1350636968509131e-02 -1.0326270539544991e-02 -1.1554952116891250e-02 -1.7349456688926696e-02 8.8939463216994238e-03 1.3569922416523665e-03 -8.0924381927321223e-03 -1.3285053224803492e-02 -2.3129791002816757e-02 4.6218701678623908e-03 -1.3349682742036473e-01 -4.5964709833151117e-03 -3.5671910518802084e-03 9.2420619022107672e-03 3.9059618023664505e-03 -3.1506584384703384e-03 -6.6901261658161779e-03 1.6267851550519768e-03 5.6263508763176942e-03 1.7131565943284355e-02 -5.2874548065704824e-02 -1.1774467911649008e-02 -2.1985693273315898e-03 -3.3151392679697156e-01 1.3631785097411497e-01 -1.0418683009286944e-01 7.2984501870254626e-03 1.8905671191602089e-01 -4.1738797861075483e-02 -2.9402898198544337e-02 7.3505188472830246e-02 -1.1510833174088592e-01 6.0853417646911309e-02 2.4051549522663418e-02 -1.8204182164994698e-02 1.2550006160234162e-01 -3.8851828806748256e-01 -1.3502082290960016e-01 -1.2642254168756559e-01 -6.1033422995945039e-02 8.1361338497695918e-02 -8.8299594319750097e-03 -3.7885131391265578e-02 7.3220546666940778e-02 -7.4099875609731664e-02 -3.6777230580898213e-02 6.5049152048630293e-02 2.9360154642779496e-02 1.1002160230860679e-01 1.3853330407670117e-02 3.2918068989241489e-02 -7.6565653494909736e-02 1.9612323393036792e-02 -2.2586837369488327e-02 -6.7757344575364128e-02 2.7873402997421914e-02 2.0415104518605939e-02 -3.0744237482217204e-02 7.3244764927933928e-02 -8.7600789011562125e-02 -4.6051211318379970e-02 -7.1021214861017867e-02 3.1013284060437296e-02 -3.0929404900373686e-02 -1.6574101006595478e-02 1.4901371224893820e-01 -8.0497003709498527e-02 -6.6705095889413049e-02 7.5244374534907121e-02 2.0104213232579993e-02 2.3341127564646708e-02 1.0695367443400508e-02 2.1456146173044588e-02 2.0300976519046998e-02 -1.1380378576393256e-02 -5.8771402292119579e-03 7.4250709921427627e-03 -4.3235271356573679e-03 1.4687111573666201e-02 3.1042115987918575e-02 -6.1520879435738279e-02 1.4149312531547462e-01 1.9376100107004640e-01 -7.4451385917553514e-02 -1.2786770701869676e-01 4.6868700083685308e-03 3.0128335662128469e-02 -8.4679576136421991e-02 4.1068574507743927e-02 5.2369265120012491e-02 -1.5505482319487049e-01 -3.2428365967931569e-02 2.2977588535393667e-02 1.5960579694259458e-02 4.1515218664242348e-02 -1.9465875823028306e-03 2.5046364660165632e-02 7.1330293443869000e-03 6.8262895443732541e-03 2.9470893392322672e-02 4.2692977653367964e-02 -3.5931680628253013e-02 1.2887200472359799e-02 -8.9008205256338679e-02 1.3499385065505354e-02 -1.6054112497384754e-02 1.4511859579085584e-01 2.4506238081998404e-02 -1.7799338405383502e-02 3.2845815665214348e-03 -4.1170402497458708e-02 -3.3063961324275137e-02 1.5457396463604334e-02 -2.3162656628236583e-01 -8.6381299769397762e-02 -7.8400214454787370e-02 -4.6931062079725236e-03 1.8101863724681810e-02 -1.8642785208442564e-02 3.1727149078881745e-02 5.3136890012942450e-01 -5.1640595798845834e-03 2.1375675595123267e-02 -6.6442596282100141e-02 -1.7500265613971028e-02 -2.1687881683543145e-03 3.7805878318338329e-04 -3.2783517849303834e-04 2.4651746763557414e-02 -4.2320608086284309e-04 6.5727707714737793e-03 2.3856758449042028e-02 7.4647519177815091e-03 1.6812919079654209e-02 -3.1705491127987286e-03 2.6200834943351348e-02 2.5079990700516197e-02 5.9085302559605868e-02 -6.2817680547668564e-02 -1.8523711605854143e-02 -2.4615490490282506e-02 -6.9793528300435351e-03 -2.0960356299586591e-02 -2.0844339867384432e-02 4.7089775944538226e-03 -4.5092830297507464e-02 -2.1348309508505525e-02 -2.2034449933051536e-02 3.2072763148077721e-02 4.2896190808499046e-03 -1.3784158437942637e-01 5.6131326126597214e-03 2.9698503587602398e-02 -2.1596379804067145e-01 -1.6476217319562836e-02 -3.1328615765508716e-02 -9.8365408972795151e-02 3.2238890181074925e-02 -2.8889925263168914e-02 -1.7167658675982952e-02 -2.1734087678588754e-02 7.4553815763640507e-02 -1.1600333339812946e-02 -8.9161310184047160e-03 6.2206630338281110e-02 -5.3977511311313897e-03 -4.6132209688063697e-02 3.6638519920760670e-02 -2.3522247418574782e-03 1.5778262955432026e-02 2.2060871209088749e-02 1.5775326219813396e-02 -9.9010089578283056e-03 -4.0600295159076150e-03 7.6589398667477743e-03 -1.3998683364989578e-02 6.6161653945695509e-04 2.2870581892286801e-02 -2.2293335949604537e-03 -2.3916277963625776e-02 -3.1912270798441611e-02 1.2375666863467444e-02 1.1749964898323917e-02 7.7667101270530031e-02 9.2291481271237208e-03 1.7958591752292877e-02 1.3695862936375483e-01 5.2871795062495557e-02 3.4315816337205568e-02 7.2429271831807029e-02 6.8102154891050704e-03 -1.5177605550066441e-03 7.1939643098452688e-02 9.3457490221346973e-03 -4.5329267031846837e-03 1.4863257371983712e-02 -7.8768061135178966e-03 4.3769269650548739e-02 -8.9536213049587060e-03 -1.1368125733308421e-03 -1.3893549092696356e-02 -3.3027372341011836e-02 
      </Row>
      <Row Index="1">
        -3.2755886517067445e-01 3.4290447196201530e+00 -1.9684966896951761e-01 -1.5896711189673618e-01 -1.4083759046622391e-01 6.0601568912252990e-02 -2.8351775166138982e-01 9.3229256520062087e-02 -1.5316973634867015e-01 -1.7293497160065785e-02 8.8282486529148829e-02 -5.3399985177834175e-02 2.9359120355880824e-01 6.3795274436199123e-01 -9.8310240538103522e-01 6.5064025968976091e-02 -1.6508595066831333e-01 3.2176449042747035e-01 1.7689458913713918e-01 4.5674854024728806e-01 3.2195541478816807e-02 5.3809271688146920e-02 1.5159501275436187e-02 -3.2570369963937092e-02 3.8591921591909090e-01 -2.6279920071658985e-01 -2.7308544817538771e-01 -1.3753647385038619e+00 5.9139480253364539e-02 -2.3992980506759698e-01 -3.5747047566319190e-02 2.7457660211476081e-02 -2.9095964603771396e-03 -2.3256469070306815e-01 3.6359260461265430e-01 -1.0030304110875099e-01 -6.7116301114982679e-02 -1.6463614607575702e-01 -6.8722820957900832e-02 1.6523189002254834e-01 -2.9144054319768582e-02 4.4186536949751609e-02 1.2942497694957711e-01 -3.0508010175457102e-03 -6.6091534369157948e-02 7.0642152060167621e-02 2.0935186096566610e-02 1.3973431892726237e-01 -4.8386942596397309e-02 -5.0651125734747449e-02 1.3756516898495172e-01 -9.1187872575520898e-02 3.5437090090661635e-02 -9.8598721605978826e-03 1.4113041358403487e-02 -1.5824877818544636e-04 1.8985101223530511e-02 1.4903396608636627e-02 5.6615336457695009e-02 -2.3251710620972907e-02 1.4413933145404470e-02 -7.6260366777951933e-04 3.7665986194924339e-02 2.7175156778652728e-02 1.2044364820639392e-02 -4.0216071401541320e-02 6.0170779541534491e-02 -3.6567350667565883e-02 -1.7435459874936943e-02 -4.2499863532914801e-02 -4.8560599313903295e-02 -9.6687613191434707e-02 1.4747556567730857e-02 1.2820836078480280e-01 -3.6300037472487764e-02 -1.1066735496974373e-01 5.1677475310087567e-02 8.1259175485343782e-02 -1.1656247887137641e-01 2.6066727074902249e-02 -3.3098221090884651e-02 4.2179121735704095e-02 -1.7894730256864642e-02 7.7865454082308994e-03 -1.4026211221471024e-01 5.4883610037201561e-02 -7.2069435391519970e-02 1.8704081173389807e-02 -2.4738886562718276e-02 -4.4927486255430901e-02 -9.3256320613069058e-02 3.3314295374187550e-02 -6.3894179991629468e-02 2.1063021755938334e-02 -1.1716366284006741e-02 3.5024272499870605e-02 -3.5407682433282184e-03 6.2815737918224368e-02 2.6758796156750822e-02 -2.0349895431943432e-02 3.7433516046145733e-02 4.5825706599228411e-02 7.3241574920863417e-03 -3.1101570926086064e-02 2.5049364698777388e-01 -1.0991643767876208e-01 5.9555944235441971e-02 1.0207581407309865e-01 -2.3097920459569279e-02 -2.4455460188283373e-02 8.4247119571593670e-02 2.8490513369583123e-02 -8.0170683073670923e-03 -2.3441518475033660e-02 4.1998731224069913e-02 9.8806315133373790e-02 -1.4611993226426623e-01 1.8777657817019157e-02 -1.5949440862765712e-02 1.2378939792861513e-02 1.0554153401480344e-02 1.9498274002854889e-02 -3.7079336326605781e-03 -6.0746433142430667e-04 -2.9372574004954410e-05 3.2370012409740724e-02 -1.4130281769821146e-02 -5.8696228422787933e-03 2.2955683388449402e-02 -1.4443774610045756e-02 -3.8224159629071400e-02 -1.0063896746426504e-01 5.9240119104363408e-03 2.0382863044982338e-02 -5.3938562690575148e-03 -8.1050909180663232e-03 5.8306807728224566e-03 2.6453250141483080e-03 -1.8679347432458464e-02 -3.7760816690624709e-03 1.9205645175246505e-02 1.1875859399292789e-02 1.3126434721059727e-01 6.0739184626176057e-02 -2.6099533273030318e-01 -4.0494500075112412e-03 -2.9992432150259350e-02 -1.0175332152931201e-02 1.3007867023060780e-02 -2.1702531464887351e-02 -7.5756555345063425e-04 3.4817371438552097e-02 -3.2316511597722114e-04 4.1948843975115509e-02 -2.4995954027980771e-02 -3.4414004781662261e-02 7.4041429363632394e-02 9.0650331098056547e-01 -4.1670395088527323e-02 -4.8600922400137603e-01 1.4825965757367549e-01 2.5430899531578754e-01 2.0211999870506142e-01 -1.3972601482235858e-01 2.5210113556755820e-01 -8.4458056372817211e-02 5.1870697943691146e-02 1.6816514574442065e-01 -5.0738906604528289e-03 -1.1944689323493396e-01 4.6353052303506281e-02 -1.4496357946344629e-02 -3.5163532706647238e-02 2.3539663798123708e-02 3.3916662210666186e-02 8.7495830695843879e-02 -1.1627530441613522e-02 -3.7126784449267002e-02 -5.0639032724390937e-03 -1.8812976526002095e-01 1.3703314561644914e-01 -6.4619617916081409e-02 9.1536575035934220e-01 1.6713764705146600e-02 1.3435526445722282e-01 -4.6359222712792553e-02 -2.4855237843475597e-02 4.2845311285309357e-02 2.0690109980516838e-01 1.2900988393997675e-01 1.4523428038648450e-01 -6.3397986997468653e-03 -1.5731733220052307e-02 -3.6667796361702851e-03 4.1522358869561460e-02 4.4392454864998959e-02 5.3157572053081178e-02 1.8863756580906554e-02 -1.0181785193907500e-02 -1.0925547218498699e-02 -7.0598455041038871e-02 -4.0437772015825879e-02 -2.2390636121949692e-02 -2.8834514194338912e-02 -1.0421015051855609e-02 -1.8918718031974646e-02 2.9644867331190011e-02 2.3242781188368949e-02 1.7401898244550740e-02 -1.4691219680999984e-02 -4.3306672685347769e-02 7.9240308401537611e-03 -5.6254936680831480e-02 5.5419849034902866e-02 8.9301009198609060e-03 2.1828961708383859e-02 -3.8341427512697035e-02 1.9400574189999187e-01 -6.6916953278160496e-02 -1.9959885901861235e-02 7.2614794774211872e-02 -4.1747925690564514e-02 8.3474141516835298e-02 -3.6699596274692464e-02 -1.2867725529337681e-02 1.0914539672043921e-03 4.5677065372811299e-02 -5.4081050120765417e-02 -2.1871370095127407e-02 -3.0723786405067094e-02 1.6285433415231365e-02 -1.2982579626849344e-02 5.7664173909843852e-02 1.3612203433475725e-01 1.1457497146742490e-02 3.3737102687774495e-02 2.6796148850813963e-02 -1.4226190468366096e-02 2.3746924522230373e-02 1.1854639408533774e-01 -1.0939949197200982e-02 1.2356813539588790e-01 -1.1067960158061696e-02 8.4760476553487701e-02 5.7782658340668272e-02 -6.8400902370298763e-02 -3.3722785688987833e-01 2.6937699169981170e-02 3.5205370297276287e-02 -6.8656163602601433e-02 2.1580080920217481e-01 2.6240829027210449e-02 1.7326302880341753e-02 -2.5729504877371401e-01 -4.4516541536154655e-02 1.2370011629604771e-02 -2.5365882722428124e-01 -4.2976665234197964e-02 1.4965849360239952e-02 4.1763674904869069e-02 -4.3091202423650138e-02 -5.0356160661833682e-02 1.3668444106386589e-02 6.8625849419981400e-02 -3.4057965900645276e-03 -7.5344379801727257e-03 -1.8031938576420936e-02 -3.8392157952149307e-02 9.7635643139434153e-03 3.6475921310681059e-03 -5.0514925404525429e-02 -6.8920907880901418e-03 1.8199441527554663e-02 3.0947922965345376e-02 3.3174044902052835e-02 4.4422321738296910e-02 5.1134947967242161e-02 6.3650597011067650e-02 -5.2143047061823704e-02 -1.1324038879378162e-02 -7.0459919786257250e-02 7.7132791739071171e-02 -3.6643046858269468e-02 3.3875086426934264e-01 3.1310954992619822e-02 -1.1641330890960572e-01 -1.5836745601028746e-01 5.7766032738933326e-02 -2.6437653544284512e-02 1.2101615857122902e-01 -3.3002176207368228e-02 -6.7033906597314452e-02 4.6502300759294013e-02 -1.7475389515470674e-02 7.6813319106181166e-02 8.9367078207133743e-03 3.1087313359817126e-02 1.1509329700255533e-02 -2.3003641727505519e-02 -3.9575247958459570e-02 1.0886213550968415e-02 4.0303493813718463e-03 1.2547443379959108e-02 2.5663172653964811e-02 -1.4194370280924212e-02 -3.9385404983972729e-02 -8.2359952694742167e-03 1.0837263507223499e-02 -1.0050980171105509e-02 1.2760737170311683e-02 2.5144160989541670e-02 -4.6034113076378891e-03 -2.8683559849051632e-02 1.2327999803794656e-01 -1.0537020926093597e+00 1.1018125598097372e-01 -5.6042253867687419e-01 -1.2841349228151611e-02 -2.6409672913503712e-02 9.9393528850129753e-02 -2.1068106556653410e-01 -1.8523696386722405e-01 -5.7411831070280209e-02 -4.9217105522192245e-02 -1.8692648915997034e-02 9.6850163135039913e-02 3.6096056556415235e-02 5.3476155676246521e-03 4.9643945363038178e-03 -8.5143791610548525e-03 -1.4557972673937547e-02 1.9338229906915874e-02 -5.0037782993732016e-02 2.2747853338568880e-02 -2.7932836397231309e-02 
      </Row>
      <Row Index="2">
        1.4746055009106690e-01 -1.9684966896671374e-01 2.0637519542474156e+00 -6.1290473950241620e-02 2.3560603522486279e-01 -9.7500326638254919e-02 3.8741351727160062e-02 2.1858795166763589e-01 -1.2166776957906961e-01 -5.1267832478594444e-01 1.0110756215843519e-01 2.0402944092997100e-01 4.3686441774260565e-02 -4.1325002473626515e-01 8.2709904439025941e-02 3.1360379621981138e-01 3.8695958394992624e-02 -2.7139683127993530e-02 1.4369924987497568e-01 -1.9679770163563148e-02 -2.0044572217316378e-01 1.7285864559045783e-01 3.2401945466008392e-01 -2.3334375982325414e-01 -3.1830618292095908e-01 -1.0403035264797200e-01 3.2302092289866230e-01 1.3117379532685325e-02 -1.8667089702250819e+00 9.8969648801827681e-02 -5.1833233380658372e-02 -1.6542462110554437e-01 -1.7369139297683719e-01 -4.5794997130476495e-02 2.9197992015638230e-01 4.7133106965168259e-02 3.2115026561560717e-01 3.9857550717794998e-01 -7.4127133569265657e-01 -2.8347461814068747e-02 5.0166225615483319e-02 -1.7460516939699308e-01 -1.3805008997707979e-02 5.5375578154915617e-03 3.8948596620208102e-02 1.6470554137083631e-02 5.5115162302383142e-02 2.9205102491914631e-02 7.9993140577578017e-02 3.2242037601835916e-03 -4.0582014094899921e-02 8.4517929634951722e-03 -1.2336319735389765e-02 7.2229961276845441e-03 -3.9606676015850863e-02 1.0151043398497055e-02 -7.9878938302441593e-03 -1.5239466904173257e-03 9.7617490445051254e-04 -2.9122341253886123e-02 1.8098345443314817e-02 1.0609966888415032e-03 -1.1513345291075571e-02 -1.2602558935413687e-02 2.4341266798288325e-02 8.1256353082725274e-02 7.3296840136500459e-03 -4.2549622305939429e-02 -6.3499413150376605e-02 2.1690499451411889e-02 -1.5848674354989403e-02 5.1928939028761667e-03 6.9037784983697115e-02 4.7878661407175116e-02 1.0382869498851088e-01 8.3534482451160255e-02 -3.6206583635857228e-03 5.4912415302745377e-02 4.5058717991765744e-02 -4.5006601834166569e-03 7.4986819105824026e-02 -1.1500844247538694e-02 2.4764667182187401e-02 -1.7572071814898796e-02 -1.1557162452702767e-02 4.5035173554588553e-03 -4.9510685082598468e-02 8.0935531018479917e-05 -1.6685152968724137e-02 2.7456857852326363e-02 -1.1045217221566761e-02 -6.3728717718991787e-02 1.2375531843120721e-02 -2.6376890664348770e-03 1.6393243832538481e-02 -2.0985406491959936e-02 1.7935954209612380e-02 -9.1137135326167934e-03 -4.9039125698507498e-03 -1.5675899935940513e-02 -3.6471058257553451e-02 -6.4238669488503305e-02 -1.4341620877716628e-02 2.6074166326350900e-02 -6.2750082571000343e-02 5.0539768323786566e-02 -2.6620610150876306e-01 1.7288379427989248e-02 -8.0304335853576270e-03 5.9610788749365672e-02 1.0321627116969470e-02 1.8585317099316139e-02 -3.2779341887890084e-02 4.3676548112122612e-02 -8.3881614457867001e-02 -2.6500448690201271e-02 -3.2996138919442641e-02 4.8160647417375586e-03 1.0050627181085584e-02 -4.6589402406362779e-02 -2.0329322190154722e-02 -4.6059820328701890e-03 1.6682722507801373e-03 -1.4409784718306534e-03 1.3638144386056775e-04 6.4712871537504213e-03 1.0351716226751601e-02 -1.2363421316268948e-03 -8.8419249398515847e-03 2.3426359261093505e-02 -3.4440423388918673e-03 -9.8817876109493878e-03 5.7661077093355183e-02 1.6452032277303762e-02 1.3255795518347218e-02 -1.4677723730464449e-03 -4.7331520130018331e-03 -4.3893102886945062e-03 -7.6255422386414988e-03 -9.7907120003636484e-03 9.2916089154175142e-03 2.0971811986706390e-03 5.6247796085797802e-02 -2.1200422180711054e-03 -5.4904028867788154e-03 4.3604645285803302e-03 5.5879123124513022e-03 2.6308106084702854e-03 6.9250442085410742e-03 8.2725988009281423e-03 -2.4485389947980149e-03 -1.3510795143749043e-02 1.6327722672295222e-02 -1.7958542690951432e-02 -1.4097748117152149e-02 -7.7890363178859667e-03 2.9638696702499662e-02 -9.3394168602547303e-02 4.4119153613030981e-01 1.0296783214477001e-01 1.4156481148596853e-01 -9.1427977959973816e-02 -1.6315960568674015e-01 -8.1081896518981622e-02 3.2021773757237720e-01 -1.4298917734463995e-01 1.4454176471667990e-01 2.5957859296194818e-01 -7.4548507746533477e-01 1.9430647933106351e-02 3.9958176364290471e-03 1.8737599398003100e-02 -2.4775566434606489e-02 1.7150208760014871e-02 2.1797743829956966e-03 -8.4893829483101563e-03 -1.4762349323490520e-02 3.7607169940922711e-05 -2.6711768305396844e-02 -3.1202132899679838e-03 -5.5175872918571400e-03 -1.2920854658180603e-02 -1.0116493118401104e-01 -1.2628606020555877e-02 -7.5025294776902562e-03 -1.2034806069845142e-02 -8.5942934215075345e-02 -1.3747128702124967e-02 3.1530742923004229e-02 -1.7045744628062937e-02 1.9826953633072943e-02 3.3183016394388820e-01 3.7253103115923752e-01 1.5789710571054805e-01 3.2828495243854572e-01 3.7223724201693476e-01 -4.9687162376016958e-01 -3.4065935555423105e-01 -5.9945289551590986e-01 3.5008119027373841e-01 6.7908026502684196e-02 3.4079403171783818e-01 6.3194729682305439e-03 5.3563508205307822e-02 -1.4044831667198859e-03 3.4998193394168542e-02 2.8068376147227306e-02 -1.4483427537624653e-02 -4.2952082425265312e-02 -5.8724610627383940e-02 2.4058650995854518e-02 -1.1938059081814528e-02 -1.4271283386405875e-03 -1.4113880239715912e-01 -7.4743487720905832e-02 -7.4873730936218630e-02 -2.8197718975858022e-01 -2.5244768312974231e-01 1.2372132362983304e-01 2.4128149122946541e-01 3.9193926150738613e-02 -8.9774115107127864e-02 -1.1591730076300821e-02 -1.3777755917442963e-01 1.8537801738740978e-02 -2.5983152967023936e-02 -4.0766011890855242e-02 -2.2772857918249012e-02 -3.7202079419214593e-02 1.0164107367333974e-02 -1.5978277835473211e-02 8.5284868388645296e-02 -9.7009184515238767e-03 1.8766331096189415e-02 -6.8114706847694995e-02 -1.7461508118565887e-02 -1.6709117982933563e-02 1.6410408562673784e-02 -3.6715772369575739e-03 -6.8201427651353286e-02 3.9060860138673971e-02 8.7017529150649836e-02 2.8685307700215254e-02 7.1188286111655841e-03 -6.2329869945061192e-02 -4.0748006950773880e-02 -7.4562278894718337e-02 -1.2063608833003904e-01 -1.0331709258761668e-01 -8.5206154027359274e-02 -6.6447148137415368e-02 9.9492800886743865e-02 1.5087229278388184e-01 -5.3134410426524759e-01 -2.0240433975804023e-01 4.2695908869600729e-02 -1.7882179172001855e-02 1.0497248969187876e-02 1.2568994450616447e-02 1.0160221295666683e-02 1.1410844405222643e-02 1.3058607260255650e-02 -1.7703337965285504e-02 2.3465703563267937e-03 7.6217693385324109e-03 2.0557519580761685e-03 -5.3522362517792743e-03 5.9789698548065647e-03 9.5275173462381693e-03 8.9117117496957249e-02 1.1637221478092905e-02 -2.7411926753203610e-02 -9.6972698530461976e-04 -7.7479917779438107e-02 5.5908255083095520e-02 -8.4305400032976902e-02 2.9986463514934766e-02 2.1615021033210509e-02 -3.2220311430579629e-02 3.2602386224112379e-02 1.0207271378540339e-01 1.7602545816968185e-03 7.0819861985186972e-02 -7.4777225148653759e-02 8.1165232302108925e-03 6.9536394220838904e-02 -4.8065210297240001e-02 -3.1237294864181475e-03 -1.5016866889779858e-02 -9.3146463842554317e-02 1.5755911427198233e-02 2.8551980039212665e-02 3.2113837799476134e-03 -3.6391971114803967e-02 1.2964918534078107e-02 1.6129555613900393e-02 6.0376666445448590e-03 5.5858335125459346e-03 4.0404752388083498e-03 -1.5853189243602905e-02 2.8258322874076813e-03 -1.3734628607736830e-02 2.5041628274038025e-03 -2.2955526168569385e-02 -6.8388624472833226e-03 -1.1399558138948274e-02 2.8751056997020907e-03 1.0354239326871809e-02 6.7492582941032445e-03 -2.0865391416952650e-03 2.3630291746637527e-02 -1.9671040451061196e-02 -1.5531758002060064e-01 -2.6148055774803458e-01 7.7095016231034375e-02 -9.1998672584773900e-02 5.2967454356410149e-03 1.8635213614859705e-01 6.6680687094187563e-02 2.6149597439673528e-01 -1.5495937391659459e-01 -1.3804910205201398e-02 5.8888303700786071e-02 1.5658949185159823e-02 -1.6354491034413457e-02 -1.0586498746186113e-02 -2.6331772063362124e-02 -8.3405294372539129e-04 -2.9134216816229630e-02 2.8269803976625468e-02 -5.7260084174078352e-03 6.7825207797745767e-03 1.4225301398773926e-02 9.8196733547740722e-03 6.7297555808977809e-03 
      </Row>
      <Row Index="3">
        -2.6270050225244548e-02 -1.5896711189684368e-01 -6.1290473953105745e-02 2.7618886614246576e+00 2.7958871991717704e-02 -5.1684226070147732e-01 2.7900139685407041e-02 -1.2174468040073445e-01 -1.1966661862492789e-03 1.6263154477220165e-01 2.9409081614214350e-01 -7.6231092983944482e-02 6.6499636986689814e-02 -2.6413200515826951e-01 -6.5182741087735571e-03 -1.0878918890349892e-01 -2.8331681216700098e+00 1.3721887650965353e-01 7.3031511895403300e-01 -9.9224731802021029e-02 3.8904134380571215e-01 -3.3751613046203444e-01 -2.0118095045420975e-01 -3.3808386823877146e-01 -8.7724388915322499e-02 -7.8940673101417280e-02 3.1761907499675501e-02 1.5554056210161246e-01 7.0332099101908976e-02 -1.0635773296188589e-01 -6.0411309598567720e-02 -1.1224351026783316e-01 -2.0231823033832252e-02 -2.5763483748369481e-01 1.1962022216961703e-01 -5.5200303639833137e-02 -9.5573802157748577e-02 6.1506911790861318e-02 -1.3616543611517629e-01 1.3935120119659444e-02 -6.2590843750962286e-02 2.8311067719460393e-02 -6.8738078676581349e-01 -2.8153354473108308e-02 1.8423438673690842e-01 -1.9337538480493896e-02 9.7134601646268526e-02 4.4790040204283794e-02 -4.5986305018541979e-02 -2.1686393058213183e-02 6.8377298229702677e-02 -2.3933568310727724e-01 -8.2944257432128431e-03 -2.1186007091495013e-03 4.8195271316704286e-03 4.3668735567409626e-02 -2.4666018828763941e-03 4.3744180346063768e-02 1.7147715874303020e-02 1.3061912344798580e-02 -2.8584651317956622e-03 6.6634916189370549e-03 -9.6604590941734569e-03 -2.8174603291240718e-02 -1.7709243417371373e-02 -7.1677412133592799e-03 -9.8649669061019463e-03 -7.6948514396802947e-03 2.5230616965423902e-01 -1.8142048216763018e-02 4.1052217080450509e-02 -5.9346969561908075e-02 2.3160812907974115e-04 1.1159879462532274e-02 -5.6863345880791963e-02 1.0122604464353789e-01 7.8419438724091073e-03 -2.7803419712668642e-02 -4.4315464316877461e-03 -7.1270730835348850e-05 -1.4835005623121622e-02 1.0594167034906565e-01 1.9928066590002680e-02 -1.2041411483912369e-01 -3.3581959682536425e-02 -1.3909426957142507e-02 -5.2409910582602082e-02 -2.5838755484765462e-02 3.2430112816633050e-02 -8.3057135450474162e-03 4.9810048734836576e-02 -9.9589001724213130e-03 1.8761590851909329e-02 5.0292284882445968e-03 1.1184152060066815e-01 1.8722942659140599e-02 5.9448712012552793e-02 3.0575940700213371e-03 1.2131625631498777e-03 -2.4854830040286907e-02 3.1666742952202523e-02 -9.8694788435950802e-03 -2.1005314174766088e-02 -1.7895000162279073e-03 8.3291353663879977e-03 -4.8747830531270631e-02 2.7724476098103905e-02 -4.5590660025883789e-01 -3.5762318973660154e-02 1.5123000335697884e-01 -3.3600972866877203e-03 6.6576020327886815e-02 1.1697388961263169e-02 -2.1333754861927727e-02 -7.8987623013959229e-02 6.7070505027675642e-02 -2.4668114664853355e-01 -4.4002661672220833e-03 -1.5317078521135813e-03 1.5294326545175395e-02 3.2577599207034291e-03 -6.7098872828709804e-03 -4.0186539229411112e-03 -9.2969247150517936e-03 1.0959883432827396e-02 -3.7670442707349594e-03 -1.3268202970802057e-02 6.1744582097185696e-03 -8.7266601802553495e-03 -5.1006001662589451e-02 5.7502631646293226e-03 1.0024740931186400e-02 -4.9617563024873940e-03 -7.4420127449996501e-02 8.7637464804929815e-03 1.5348575519446581e-01 9.1486979404548745e-03 -4.7511503445712491e-03 -1.0462668150248778e-02 1.6665847541635376e-02 -9.6911951813771196e-03 -1.2182737715235509e-02 -2.1228721314433568e-02 6.5940600559641210e-03 3.3090072333088527e-02 -3.6978707788074272e-03 2.6694470556115041e-02 3.6625970541912314e-04 1.5407787076460117e-02 5.0725235312950867e-03 1.1835644792664232e-03 -2.3744188504010721e-03 9.9674276469771325e-03 1.0259739308802239e-02 1.1211707062395517e-02 -2.0471934907593789e-02 -2.6009954946869329e-01 -8.1751072293497484e-03 -8.4090536773006042e-02 -5.2428461042503116e-01 1.0905407199379130e-01 2.7157986233534948e-01 -8.0264376647196142e-02 2.9453047626492007e-02 -2.3166132952233345e-01 -5.3338110656033055e-02 -1.7181319852767318e-01 -1.2456473657218659e-01 -1.9466252685091390e-01 -2.7664314827474612e-02 -7.3398098281926505e-02 -3.4765732002909874e-02 -4.9730448454957887e-02 -2.9657131964468772e-02 -8.7711970844189802e-03 5.5376500691792924e-04 -8.7191482335976234e-03 1.9483941511422659e-02 -1.4281748409985320e-02 8.7958707118268031e-03 -1.9032304159621320e-02 -8.0265710508577226e-02 -1.6264189310735799e-01 9.2075673372623290e-03 3.2687208991992178e-03 2.4483557897561334e-02 -5.3956553106575544e-03 -1.2463116078271889e-02 3.8915936733291356e-02 -3.0980327285318493e-02 -2.8229006878015134e-03 4.6651553975908255e-03 4.4115804598707925e-03 7.5038333258860279e-03 1.1053070695941064e-01 -3.6551008470474836e-02 -6.7569802394037703e-03 6.7690886466215294e-02 5.2371777579213408e-02 -5.2837143640531603e-02 5.2450359430096682e-02 -4.0823456375028030e-02 7.3064409098365091e-03 1.5312682515218279e-02 5.3271952514827494e-03 -3.5609697387536832e-02 -2.3750433159723972e-02 -1.7440206989012219e-02 -8.5277807102000697e-02 -4.4605016526286179e-02 -1.0681036992660456e-01 9.0676007306744216e-02 1.4179771228628735e-02 -2.0265185996246271e-02 1.0708689710670471e-01 1.8325655172556465e-02 1.3434297952138236e-01 7.0048688265088366e-02 -3.4490683210035636e-02 1.3646947452780334e-03 -2.2395959077544547e-02 -7.9964341286466734e-03 9.2215572732770035e-03 -3.1281325473143669e-02 7.8605230193902406e-03 9.7882245256571354e-02 -3.1613492833397580e-02 3.4127743100195174e-02 -1.8701775553522371e-03 1.3628365405234669e-02 -6.6932230490095446e-03 -5.2470462149921127e-02 -1.2511724615353315e-01 6.9117659962925349e-02 1.9222746055543079e-02 -1.2765947912026204e-02 -8.6203056848430271e-02 -1.8437707276253670e-02 -4.3239688248722624e-02 -1.4283586163978257e-01 1.8213827356877293e-02 -3.7990222160624032e-02 -1.0877492356089946e-02 7.3371053780954612e-02 7.7199970938792301e-03 2.1239776623722548e-02 2.1647253786170328e-02 -1.5971847385390255e-02 4.8992364418146167e-02 1.7228496061852561e-02 8.9002946248345455e-02 1.0498094335013339e-01 2.0251163168604425e-02 1.8096200656498596e-01 -6.5758466357434653e-02 -3.8975036357606019e-02 3.3557349087428912e-02 -6.1476567800042292e-04 3.1284448281744037e-02 1.6820584824316087e-03 -1.5424835467546028e-02 7.2013200035378824e-04 -2.3216059070371095e-03 -5.3820679009740580e-02 -1.0316480589186577e-02 -8.0869312398901272e-03 9.8616012782033469e-03 -3.0173072549101458e-03 -5.6268011480297836e-02 2.8556974793402967e-02 1.0720928080865468e-02 3.6603640401052705e-02 -3.9813625487255304e-02 4.9041648413717512e-02 6.8535987859205005e-02 1.5292401547713469e-02 5.8094744083134919e-02 1.0253212205396156e-02 -4.9797512297577506e-02 -1.0447758386376182e-02 -6.5970332434378998e-02 7.5680781619157700e-02 4.4560199995414607e-02 -6.9052271712145299e-02 2.2302928606357353e-02 -1.9170894966747787e-02 1.8440907886951852e-03 -7.3520885062696495e-02 4.7376862961465982e-02 -8.4176883472046882e-03 1.5058692785011041e-03 -2.6053133956690733e-02 -1.2167138689657700e-02 -2.4585276045752558e-02 1.9348933258436007e-02 1.7195394363207939e-02 -3.5101134907320197e-03 1.3047862273785515e-02 4.2531810536455161e-02 -5.0502872398624499e-03 3.6973369340883022e-03 -1.4760884725339474e-02 -3.6142992584147077e-02 -1.6106829262452715e-02 5.7181691896701636e-03 -3.0925024233361742e-02 7.6252796782781199e-03 1.0877844809093734e-02 -8.1315757316998451e-03 -2.2622064160815143e-02 9.8505189720803910e-03 -1.3162142953872649e-02 4.6377383125277588e-02 1.3213014384710736e-01 1.5359238141017839e-01 -8.9224427019520047e-02 9.7107086730874759e-02 -7.4154096083093785e-02 8.4676051539003677e-03 4.2660030896187959e-02 1.5136483340216370e-01 -1.4075325521033749e-01 1.4553020958920304e-02 -2.2191217681590686e-03 -3.8636007392445160e-02 2.6842047548947701e-02 5.6902584091734168e-02 -8.5426813858200321e-03 -1.9283027232968597e-02 -5.9866588217631800e-02 2.5013161489245428e-02 -2.2653413174283446e-03 -6.9157325567142575e-02 -5.8739583088595754e-03 2.0487624763068160e-03 
      </Row>
      <Row Index="4">
        -1.7350377645387793e-01 -1.4083759042853772e-01 2.3560603521849310e-01 2.7958872000062196e-02 2.1853839455836859e+00 -1.4985131881869063e-02 -1.6117390224965245e-01 1.1486701021023427e-01 -4.8520123085611766e-01 3.1624288183780447e-01 2.0012054795791290e-01 2.3042266033537284e-01 -6.3008186425201992e-02 3.9565708895467949e-01 8.7238167336006367e-02 2.8627788805948223e-01 2.8075152544727477e-01 -2.8311999193324517e+00 -2.2476474788704870e-01 8.6473882627634266e-02 -5.5095293029008796e-01 1.3960896189655680e-01 -3.9740221537767884e-01 -5.7768930400462426e-01 -2.4136660916767111e-01 4.8579751442022534e-02 -6.1015567820344979e-02 8.6314990309845463e-02 -3.9428287601456136e-01 -1.4989673641736040e-01 -1.2920400140222021e-01 1.7799636078464279e-01 -8.0973758888171155e-02 2.7259385682958587e-01 6.4130496497806680e-02 -1.4905888549624763e-01 5.3286925442299751e-02 -1.5956237005169638e-01 1.7496666629181171e-01 -1.8609800953920771e-02 2.1790549480412903e-02 -1.2148643371808911e-02 2.8367300477150928e-02 4.7387834389276080e-02 1.5921502771522274e-02 1.4236039428136067e-02 -4.6836941851482045e-03 3.4611140798524587e-01 6.8900046462651993e-03 3.2540286520948904e-02 -5.4624512846718987e-02 -4.3047606098429114e-02 -8.3611918596636203e-03 6.9455269578624591e-03 -1.0656553912456637e-02 -1.7029844219863349e-02 -1.2000530278232110e-01 1.3192032314150635e-02 -1.3224421766326093e-02 -1.6370032083267066e-02 3.3396428831950958e-02 2.0230168390587472e-02 -2.9988074424243262e-02 1.0678513268092604e-02 2.9980216742006745e-03 -2.2919129614700218e-03 1.9110302727195133e-02 -6.0833666884485549e-03 4.2484088412180265e-02 2.6609091668452423e-01 4.4245144481087753e-02 2.7791754949623826e-02 -7.5666751413032640e-02 2.1326139954499790e-01 -6.3356866943667503e-02 1.6043505094900548e-01 -1.8109689110408139e-02 -5.5919687062536250e-02 1.6649903503809571e-02 -1.2073586190039533e-02 1.5987933625823500e-02 1.3419132770562947e-03 1.1361618188181458e-01 -4.1529423017477071e-02 2.1276065271414579e-03 -4.0760952974307901e-02 -1.4865321420520100e-01 -2.6551600336960801e-02 1.3163720565899255e-02 5.0375888486183941e-02 -1.1023753305645523e-02 -4.0717380168292794e-03 3.3810471443468521e-03 1.1638237379105187e-03 2.1772460064340998e-02 -2.0232383784584462e-01 -1.2397379239757242e-02 -1.8220001563558602e-02 2.7411471077829562e-02 -3.9228642894167290e-02 4.8469135264595925e-02 -8.5672389641722094e-02 -1.4636218715347232e-02 4.4292576201000078e-02 -2.7470521766189179e-02 1.6084080775262320e-02 -3.1240824637239598e-02 2.9596495398138125e-03 -7.8840646129341996e-03 -6.6857572461790360e-03 -1.1537958163670398e-02 1.8012647059293209e-02 1.8453629092273785e-01 -1.2182424387179185e-02 -3.4739412084696913e-02 -7.0034609906162754e-02 1.4592641293510678e-02 7.3708545218167942e-03 2.7045419118895686e-03 -1.9819722790648323e-03 -1.6922977243965749e-02 -4.2876551383285874e-02 -1.3140369263122793e-02 -2.4534774129620733e-03 -5.7890573857642055e-03 4.3732004372710187e-02 2.8089760544580556e-03 -1.0879029060349297e-02 1.0943689770519726e-02 -8.6619647474993552e-03 -1.1905255217602313e-02 -5.2310850823637598e-03 2.1244139730627176e-03 4.8555250793800159e-03 5.4637434277852871e-02 4.6874239415826316e-02 8.6742262877877174e-03 -2.2666871444005088e-03 -1.0971988035166547e-04 2.4962748232713560e-02 1.0524428783037790e-02 3.7543613355241312e-02 -1.0541416345385716e-02 -4.8384184399283964e-04 -1.2014529324772205e-02 -2.4037699418508682e-03 3.0574549058599021e-03 -2.0865709623631261e-02 6.5833784592946422e-04 8.6898223278589620e-03 -7.0889894435673126e-03 9.4177152299860754e-03 -5.9608797915888870e-03 4.4511628270470279e-03 -1.6834638020907896e-02 6.9327133056120323e-03 1.5797706154413604e-01 2.8907398564536918e-02 1.2389739198153904e-01 1.3061931038321645e-01 -8.8962927987025109e-01 -2.4671186820280910e-02 -1.5119641442737147e-01 -1.5124716872343760e-01 -2.9579683507168220e-01 -1.5172626734820133e-01 -4.0114785506425921e-01 -1.4444496712215149e-01 1.6700639194338152e-01 -3.4497123980818063e-02 2.3803865941511314e-02 1.7016633840081407e-02 2.1398475116958332e-02 -1.1598457655933536e-02 -1.2475394752302076e-02 -3.2055770630201597e-05 2.6388390824324329e-02 -1.4322752537007627e-02 -4.2670330046822996e-03 1.3775336419886892e-02 -1.6191136560600165e-02 -2.6749701705200579e-02 -7.5423186157789257e-02 -2.0286010439008555e-02 4.3932012946994003e-02 -3.6999609296292299e-03 -4.2060280347388720e-02 1.2269177060162506e-02 -3.9948371105852643e-03 3.0350425550908500e-03 2.1814816097152852e-02 3.5502186201581964e-02 3.7392548353098229e-02 5.9134545182785686e-02 -9.6547932925970414e-02 1.6546146438848852e-01 -2.0295439861427406e-01 -1.4510686910073789e-02 -5.8639446299061038e-02 7.6568502897282342e-02 1.0468060862857793e-01 -4.4470054224870659e-02 -1.5986541584302343e-02 -1.0311452884699840e-02 -3.1598291326139838e-02 1.2541429070365206e-02 1.8581672109010641e-02 3.6598193007005737e-03 2.1434195095568147e-02 -2.8167322496367719e-03 1.8379526630724216e-02 -2.0292254606292193e-02 -1.3120922391446327e-02 3.7190926042811455e-02 -3.3966776857443776e-01 -2.2081130570836266e-01 -1.3785507126558361e-01 -1.7759232870471006e-01 4.2543064800151342e-01 -1.3476327935070548e-01 -2.5432899870641057e-01 2.2526964015447121e-01 -2.9351702221724502e-01 5.1511005013954325e-01 4.3930875598613195e-02 3.9541811107859530e-02 1.5938725800787923e-02 9.6741476143529237e-03 -2.0622673031643945e-02 4.1676943871887806e-04 2.6551514704210744e-02 -1.8420083392292064e-02 -2.1990154757516575e-02 1.0322168572939439e-02 3.0564289024634927e-03 -2.9662866080308527e-02 -4.1953286431082648e-02 -1.2291554022472062e-02 -4.8885172870815397e-02 -1.4502822185418607e-01 3.6921046136539543e-02 -3.1455711643215589e-02 -1.2221733837148018e-02 -6.9370666019485647e-02 8.1559963036862193e-02 -3.6720929501810273e-02 -1.4503771864414616e-01 -5.4453733265050666e-02 -3.0456424849089538e-02 9.8631754830585616e-02 -2.8417553696334258e-01 -2.0304790831517816e-01 3.6396647793868309e-02 -1.4800223298970749e-01 -6.5598845017750471e-03 1.6263509817537852e-02 1.9722346079158570e-01 -4.8443446483810090e-03 6.6227105919713286e-02 3.9358136418466166e-02 1.9289219309940181e-03 2.4021241843406316e-03 -8.1689975667784895e-03 1.3836304825062262e-02 6.3797274917467492e-03 -2.6778915831574102e-02 1.5663362326409080e-02 -4.8247673268055735e-02 -2.7126319021884032e-02 -7.0683902494432752e-02 -5.7783891516025539e-02 -4.0175098038438432e-02 -3.3944291832302860e-02 1.0206934700172318e-01 -9.8510261250060238e-02 -5.4263984966061399e-02 1.7370038312110203e-02 -4.5506121217609670e-02 9.7502563339325055e-02 3.7726793749259802e-04 9.5441832578587738e-03 -8.3773776909402131e-03 -4.2371562737785806e-02 1.0890602777420808e-02 7.8707221699119145e-03 -1.2149225828944538e-02 1.7313763525911363e-01 2.8283007234472413e-02 4.9171400425736062e-02 -9.4979989015590460e-02 7.0638829912769152e-03 6.8673074556796720e-02 1.6163309096951718e-02 -3.6927251021098506e-02 2.7378094059500313e-03 -4.3636526458162295e-02 -2.0674663729011222e-02 -2.3337139922511352e-02 -3.2547458167857313e-02 -1.3215864975539837e-02 -1.4761126393711833e-02 -7.6428947562443977e-03 6.1123190026499130e-03 5.9307915212832019e-03 -5.8189347473059372e-03 -3.1998393900993238e-03 1.3122771450839316e-02 -9.0900101357951138e-03 -7.8755753111357449e-03 -4.9877956264324230e-03 1.9166789570447484e-02 -6.8991304482854676e-03 -2.7478591857032164e-02 2.3468851424441661e-02 1.1040944174451317e-01 1.5651201897526912e-01 6.6791099862849868e-03 -6.9059502132783779e-02 9.1997256051095266e-02 -7.8878708345828996e-02 -3.0524362412418959e-02 -2.8933768776428916e-02 -2.7509607227442001e-02 3.4286073333131106e-02 6.4258892117922684e-03 9.3085045471927863e-03 -6.9085636668034689e-02 -2.9447008897029687e-02 8.6432943648552668e-03 -3.4573269124787254e-02 -2.4415169540406068e-02 -1.5962559583317232e-02 -3.9272837369133035e-02 -2.6925482552011049e-02 4.3031226723441320e-02 
      </Row>
      <Row Index="5">
        -2.2047874753046683e-02 6.0601568917695442e-02 -9.7500326641028201e-02 -5.1684226071058581e-01 -1.4985131877043060e-02 1.7630961349226264e+00 -9.1515184600657051e-02 1.6822182648755568e-02 -1.8767317889122948e-01 8.2350198092672605e-02 -1.8957849533718873e-01 -6.7434549727241722e-02 6.3084272513748429e-03 3.7240866166312350e-02 -6.6112049325612918e-02 -4.9840460963715055e-02 6.2457558092768406e-01 -9.3455981472180594e-02 -2.4939863115228156e+00 1.1451746233956808e-01 8.1197964191468464e-01 6.2174478911991538e-01 -1.6644162344120261e-02 5.5993738595085341e-01 -2.4767912607407319e-01 -3.9323430572852391e-01 -4.7085192077676585e-02 4.6190930986380607e-03 1.1404529713031906e-01 1.6455618002775535e-02 -2.3778727806542423e-02 2.5158170033077154e-01 -2.8929783052056901e-02 -3.3656290644971026e-01 -6.0304726023185373e-03 -2.3783797449107802e-02 -1.2281682796569993e-01 1.1882862615307177e-01 3.0448811414139687e-02 2.9818506168196646e-02 6.5099217585668362e-03 -2.3428685954931638e-02 1.3027190588181864e-01 -3.0580451318681398e-03 -3.0046111734899411e-01 2.3464678561328854e-02 3.9802450739577305e-02 3.6000520095364835e-02 -1.3348162260146179e-02 -1.1570882683141964e-02 3.4116398834940470e-02 -4.9689078495164907e-02 9.8011420410273192e-04 -4.2580512293513562e-04 4.4704949441961850e-03 -1.2130735948355240e-02 8.7178581935877606e-04 -9.1902116125429145e-02 -1.7465043168291120e-02 -1.9065704338640715e-02 2.7058277731870362e-03 2.7567678889519835e-03 7.0881037272374492e-03 -2.0964710942078827e-03 1.5282011117855460e-02 1.6042304704110055e-02 -1.3855134600230218e-02 -2.1511647195678191e-02 8.6818357456054374e-03 4.9823883748519732e-03 -1.5343988452464410e-01 5.2233935097472872e-02 3.6695422516022896e-02 -2.6392364232343979e-02 -3.1633823649992829e-02 -4.4570523253713829e-02 4.6473945851233101e-04 -1.4250427290519507e-02 -4.3293337832786272e-03 -2.6855547631899207e-03 1.6386468827008158e-03 -3.4231874911978599e-02 -9.7595130143478329e-03 2.0268741455428510e-01 3.8221823194046017e-02 -1.1510688850903096e-02 2.1820871110154100e-02 -1.1345034046123789e-02 -3.3865668851161546e-04 -9.1151337552278833e-02 -5.9018633130520914e-03 5.6054148018278571e-03 4.5882716455842264e-03 1.1204631841567600e-02 1.2014018485502348e-02 7.2311332784491290e-03 -1.5882133768579029e-01 -8.1078872186942166e-03 4.1380651214416059e-02 2.2165584272971259e-02 1.6030910509878041e-02 2.9719500210214304e-02 2.8701213736156639e-02 -2.4503872812540406e-02 2.0963466030056638e-02 1.4993123608789127e-02 -3.3505353531160680e-03 9.7806342127524107e-02 -1.0574104005379534e-02 -1.0597850245254499e-01 -8.7380733293082186e-03 1.6140520879004333e-02 5.0441639078893985e-02 -1.5503307838652823e-02 1.7455122672069334e-02 2.8959234732660755e-02 -1.0664438868830190e-02 1.3566645058210799e-03 1.2842579118350558e-03 -3.3636870637329692e-03 5.5738498795014687e-03 -5.1191577054867958e-03 1.3542910841347741e-01 4.6644245909841578e-03 -2.0488644258606480e-02 9.3516164417038194e-03 5.7053549391390072e-03 -8.1577236025479529e-03 -4.2744340527307037e-02 -1.8407440710195719e-02 -1.9074573444548791e-03 1.7768203897232659e-03 9.2041510622552416e-03 -2.6303498891491472e-03 -8.5602970343143375e-03 -6.1681559480930037e-01 -1.5755854808761583e-03 2.3768271571106725e-02 2.8117692163356139e-03 -1.8845033264968739e-03 1.3655692225021462e-02 3.5965651668361603e-02 3.5052997298780350e-02 -4.2839116185351021e-03 -2.1354956451960392e-03 2.3648949444324647e-03 9.1881419211173321e-03 -3.6455694122391070e-03 -1.4935642609447540e-02 -1.8323502792582519e-03 9.0973637970786989e-03 3.7776341991158872e-03 -9.4074015937725027e-03 9.3752257520092440e-03 9.1312529795434909e-03 -3.2070075453740354e-03 -3.6904072680804305e-02 7.1157035485332407e-03 -2.1516888764807673e-02 1.6554546776271578e-01 -1.3365250077808585e-01 -1.1237031433302735e+00 -1.3706626431679565e-02 4.5714770857570863e-01 4.4610157627658642e-01 4.6169614460888284e-02 2.7323256880646563e-01 -1.7501498819789929e-01 -3.3224910017497766e-01 -2.5954976754560960e-02 -4.5739994108395104e-02 -3.2983322510599801e-02 -1.3364775254653849e-02 1.3691868120632056e-02 -4.4258165202982480e-03 6.9566346004940049e-04 -1.0385734387725054e-03 -2.2656317399586769e-02 3.0196135739285784e-02 -4.5893230245080963e-03 6.0926885420328758e-04 -4.0540611951152106e-02 3.3198747721372102e-02 -7.7262374110602106e-03 -7.7241008776619546e-03 -4.6746426427132781e-03 -2.1321721125404841e-02 9.6319424678070753e-03 -2.7234402210980169e-02 -6.8883531255778951e-03 1.5350729969826879e-02 -2.9718559729883104e-02 9.5175072723165943e-02 -2.1516955514930908e-02 -9.0956381278095411e-02 3.5090347525179255e-02 3.7357000833960638e-02 1.8033263379522046e-02 2.5879199076983023e-02 -1.0414929420469256e-01 1.4368744243715967e-02 -1.0170690853932685e-02 4.3500548002353145e-03 -2.5699433691738355e-02 -4.1364368958342140e-02 -2.6250350637554404e-02 8.5200491943329820e-03 -3.5528783889004788e-02 -3.9081067587103391e-03 1.9819617585719790e-02 -5.4838685452496067e-02 2.6264099924638573e-02 -1.4984230211547156e-03 1.1804497298713870e-02 -5.5672115087526675e-02 4.1734440831263708e-02 -4.4823381385359205e-02 8.8415644816759176e-02 -8.5815015564577185e-03 2.7944237117532064e-02 1.7577868937921362e-02 4.3504300572672350e-02 5.9120982707745462e-03 -1.8113762733710903e-02 -3.4525463894780339e-03 -3.8247287087917586e-01 3.5906271862395311e-02 -1.7305724385276722e-01 -1.2686902194431288e-01 -1.0523637308008149e-02 -4.4281390214116811e-02 6.9319826731490924e-02 2.8114111176524059e-01 -8.7570251552235301e-02 3.2224867179502320e-02 9.3565707772811924e-03 9.6323110932432676e-02 2.0035393285636749e-03 5.7225695173700242e-02 8.6107244215671841e-04 1.4021890071731727e-02 3.2222202546785234e-02 -4.9346235631926453e-03 -5.9675972770606225e-02 -1.6973473055190563e-02 1.1996472143310427e-02 5.2313748182852234e-02 1.0667507733336334e-01 -9.0253970901920146e-03 3.1017991816135876e-02 1.0623183088251756e-01 1.6637849132383675e-01 -4.2112598582025151e-02 -2.4814052936282677e-01 -1.3667268767273855e-01 1.8594496718872383e-01 8.9636797726422301e-04 -1.0514667597698119e-02 2.4675871057880744e-02 5.9731152151620403e-03 -2.2287895803912577e-03 -9.3958981747264136e-03 6.8057684026865892e-03 6.2961024618289119e-02 2.6975775590424911e-02 1.2560843428790491e-02 4.2537139951177583e-03 -1.4703146681102678e-02 -4.2105933463451317e-03 -5.8846799965914909e-02 -2.4200535669375675e-02 -9.3804779696632826e-02 7.7301640795277987e-03 3.4358274875238098e-02 2.3035084420951618e-02 2.8698954561645000e-02 -2.6317325659273388e-02 -2.6793114476225021e-02 5.5988040634715186e-03 -1.6249090030008739e-02 2.5070523533164635e-02 2.0160934231182592e-02 -6.1663423901836545e-02 3.4369804787409940e-03 -1.4939236938256995e-03 1.1315048471973066e-02 -4.6834580875233400e-02 5.1204382705885509e-02 2.1427170887202307e-02 1.4925571895734183e-02 8.1904455964437739e-04 -2.9534521896764088e-01 1.5450992248883910e-02 -1.9164591214024362e-02 -2.6759797179565059e-02 1.0522930280895348e-02 1.2356256300610546e-02 2.1747167661844855e-02 -1.7483435798969826e-02 -2.7536993968771351e-02 -3.1882070587045674e-03 2.1028493057716202e-02 -2.6057350973318689e-02 1.7493795109713058e-02 -3.4174133154603312e-02 -2.4368985867389212e-02 -1.6815619637308932e-02 -2.3946421736374415e-02 1.8535098508820985e-02 6.3189693751020209e-02 -7.4223716138414868e-03 1.2008452871016047e-02 3.1056129372744060e-02 5.4294017598643729e-01 -6.3468615983231169e-02 3.0030411034494864e-01 9.5227972957201312e-02 -1.9782507920118014e-02 2.2181354559880434e-02 -6.7291100489718814e-02 -2.1162106755179477e-01 7.5383268457584945e-02 -5.4228673777590608e-02 1.3375107392523476e-02 -1.1761549464205125e-01 7.0752004813655844e-02 1.9232415309869633e-02 1.3949610863710257e-02 1.1763095049874890e-02 6.5266876911846253e-02 -1.9269332614061663e-03 -1.4237213205167663e-02 2.4398152332225989e-02 2.5530416511576615e-04 4.6023198008545140e-04 
      </Row>
      <Row Index="6">
        2.5493665633109253e-01 -2.8351775166411380e-01 3.8741351735931004e-02 2.7900139694036596e-02 -1.6117390223013947e-01 -9.1515184613235823e-02 3.1918883708799104e+00 7.9241613452621484e-02 -3.6470695783623830e-02 5.1263013405858149e-02 -7.8178927800826470e-02 -5.3812176299202985e-02 3.8355438709729994e-01 -4.7788898193211155e-01 3.1081825766539639e-01 8.9669856313283058e-02 -1.6868696420050910e-01 -2.1164791056267118e-02 9.1762554433936258e-02 -2.4970006555586686e+00 -4.2971630754283208e-01 5.8590532666755180e-02 -4.6810062735832281e-01 1.4477436409730615e-01 1.1115982174509186e-01 -7.8486054842448993e-01 9.3181731575659454e-02 3.7904114979645798e-03 -3.6355800010559935e-02 3.6995136889406832e-01 2.6930450402910533e-02 -9.3829268622825091e-03 -6.9174310284910079e-01 2.6394998845487327e-01 -4.2244663066070248e-02 -1.1944232759274642e-02 6.6994683511167386e-02 -1.1368159660183363e-01 2.5988727793986399e-01 -2.7590815112719408e-02 1.5692015659163200e-03 4.3603266792703321e-03 -4.8621532766002895e-02 6.1837959341221549e-02 -1.4011504000127722e-02 -1.9848881874846147e-01 -9.3328836795192688e-02 -2.1439580019493795e-02 1.1714318039827407e-02 2.8581618910078585e-02 2.1044927724240381e-02 -1.1074803939567772e-01 1.3323542618865933e-02 -1.1905615835410516e-02 -1.5242648597701636e-02 4.1646765552548509e-02 -3.1174721464329806e-02 -1.1828460697853947e-02 -1.8177649816216251e-01 5.8978873211647409e-02 -5.8100140594228161e-03 2.4192592544141339e-02 -2.5438248318008991e-03 -3.0798858135205592e-02 5.3179649024812502e-02 -2.4934832790532546e-02 2.3869248445841935e-02 4.0535391756628458e-02 -1.1661081649601446e-01 6.7686848947944481e-02 4.2662566392802297e-02 3.1527994660534842e-01 -2.0421377946884328e-01 6.1668459790660046e-02 -3.7097016010429459e-02 -2.3816960330420162e-03 4.1349418826355872e-02 -6.1520013397908468e-02 -1.6774831925384582e-02 3.9238469499074516e-02 3.7197708860447064e-02 -1.4122771083407029e-01 5.4368247164446395e-02 3.4053220571687949e-02 3.5814609016793836e-01 -1.7337971722766274e-01 8.0384730951732514e-02 -3.8872732138166541e-02 3.6214474418309772e-02 6.2234451955803766e-02 -1.0765709945964524e-01 8.4632474788457930e-03 2.7649686647603818e-03 -1.9564017875561356e-02 5.8458327567704610e-03 -2.9255996488146342e-02 1.3501436261194964e-03 -1.5501946911751535e-01 -6.1186160860492167e-04 8.7624373700032621e-03 1.5620651580601205e-02 2.0334477707717406e-02 -1.5408386677035979e-02 -1.9124133717653480e-02 -3.3653188376040415e-02 -7.6858806248918873e-03 -3.5055042020072217e-03 -3.3386863792063196e-02 5.8656646126200390e-02 -1.0221762216072849e-02 -3.5259005608891580e-01 -2.0194197059191631e-02 -8.1719832711938070e-02 6.9652521712189816e-03 4.1702009720781003e-02 1.7364751248262644e-02 -1.2677935405569096e-01 2.9488985337309537e-03 -3.9248866592126418e-04 -3.5382920041078028e-03 -4.0724816573411531e-02 6.7580960943298130e-03 -1.1818464291980709e-02 -1.4003635630027114e-02 -1.8134191243072820e-02 3.1788549202008326e-02 2.1066609637586598e-02 9.1305071908069357e-03 1.5865560706831421e-02 -1.6990772976872515e-02 1.0318329876659926e-02 2.5986820927666133e-04 -1.3784510712855623e-02 2.8721767758666344e-02 6.5509059538817384e-03 1.1324202588073484e-02 -8.9627298283622425e-02 1.4361395641597104e-02 -7.1565579376971413e-03 2.5305140303242536e-02 -1.8641973199307146e-02 -5.5179278243900981e-02 -2.7231469373005412e-02 -1.8258116474952547e-02 1.1618676593121158e-02 -5.6030722123703632e-03 5.2435862308078673e-03 5.4650144610211837e-03 -3.6311476437253763e-03 -8.8775198832235641e-02 8.2703858702660310e-04 -3.6040784755637448e-03 7.5785607804137213e-03 -1.0463374300619320e-02 2.3411860899020000e-02 1.2532026869886102e-02 -1.2161397080824332e-01 4.7449169207350490e-02 4.6950208858574594e-02 2.7568289968380610e-01 -1.4255694095506261e-01 -9.6367198174389657e-03 -2.8593106249717587e-01 -2.5265976587469985e-02 -1.9231893553872004e-02 -3.7028585024442540e-01 1.3702291328301186e-01 -1.0365445118190686e-01 -1.4899383577172465e-01 -6.7952805790134199e-02 -2.1954886486697217e-02 -1.4988439243541957e-02 8.0762888532474042e-03 2.9896757944004315e-03 1.3861854388920028e-02 -6.6524742364255804e-02 -9.2526631209241261e-03 -1.2979864032161836e-03 -8.1484545350441390e-02 9.1474534170104704e-02 -6.3022220110071081e-03 3.1285589594662794e-02 1.2058507051357870e-01 -1.0151878557206256e-02 -7.4910760484434569e-03 1.2944195124751093e-02 8.7138736983632309e-02 -2.8844151573049030e-02 2.2298522530777645e-02 4.0552507850937475e-02 -2.6083428849668910e-02 -3.7580211813880285e-02 2.9137164047321196e-03 1.9577679068514819e-02 6.2717593381045891e-02 -1.3171118732073867e-01 5.1665449770238389e-02 -1.0462554336280172e-01 2.3290545344262975e-02 1.1305510713529332e-01 1.4101907186086060e-02 5.1404395401805011e-02 -2.6172383734002352e-02 4.7623815500508482e-03 3.0290367893149733e-02 1.5663456313726551e-02 -4.1401536458926538e-02 -6.8137831185812459e-03 3.1458310687463562e-02 7.5185449658595055e-03 6.9792106420728250e-02 8.6810621020881606e-03 4.1480199962497244e-02 -2.0592136734499181e-02 8.2556356227899391e-02 1.1566483249003029e-01 9.0051757657933384e-02 -2.0037020524752158e-01 -4.4516239105842070e-03 5.4695868436707595e-02 -4.0629007347020255e-02 -7.5799535106966950e-02 -1.7066680122130021e-01 -1.5814383663620607e-01 1.6994865171974349e-02 -1.7180638694728748e-02 2.0288460602399194e-02 2.7385328033799006e-02 1.7123240321025301e-03 -9.5683534770568679e-03 3.6773275878273393e-02 4.5795419467002274e-02 -2.1610614716421561e-02 -2.9080716855799382e-02 1.8158869201686328e-02 1.2276074846186055e-01 -1.6866795137045609e-01 -1.0871904166296964e-02 -4.3682846133696551e-02 2.0841353821130595e-01 9.9003732984633330e-02 -1.4917582609365471e-01 -5.2144628344320453e-02 -1.0684281750187490e-01 -7.0963492497079805e-01 3.1825321444126875e-01 -8.0477831026380231e-02 -8.1397171215683045e-02 2.3094059558521505e-04 1.0799116788218197e-02 -1.0949855497966454e-02 -1.3025161810357444e-01 -4.2188181854417500e-02 4.1863514258803658e-01 -4.2782610545039623e-02 -1.1752749039975346e-01 -1.2956178055424400e-02 1.3172107426572682e-03 -1.7927904550408602e-02 2.1119351180904009e-03 -2.5795267613629713e-02 1.6481590694673642e-02 -6.7865056122798015e-03 4.3275001605548535e-02 1.2347739376033378e-02 1.0237562109871590e-03 3.9271002941679914e-02 -4.0175636232243947e-02 2.7446974702808238e-03 -2.3857802718188992e-02 2.0654366828223580e-02 6.5863508469215792e-02 -1.0623574610359254e-01 5.0826427256260805e-02 -1.2938105526377025e-01 -8.3937425198187504e-02 -8.8363288830567988e-02 -1.4466753126147444e-01 5.2382172274836380e-02 1.3805831681541758e-02 -3.8255879559174318e-02 -3.0220645535509849e-02 2.1168729244551265e-02 -2.4365208996710019e-02 -1.0604406940943945e-02 -5.5662913053806218e-02 -1.2377215259591422e-01 -3.5111394411259989e-02 -9.1151117127487469e-02 -2.2723188236194236e-02 3.2767765197504975e-02 -2.2740052595543958e-02 -3.1008001863727513e-02 7.7636556022528169e-02 4.4035177279001192e-02 2.2144672954900357e-02 -4.6175637122246552e-02 9.7638273978195578e-03 2.0130986183794386e-02 -2.4118446817354589e-02 -1.9506759948778027e-02 -1.2682186584858542e-03 -1.5579822227165488e-02 -1.1890440787194548e-02 3.0579558980213181e-03 6.1463171355991553e-03 -1.1414660456769976e-03 -1.6765746535566534e-02 5.2534570449049058e-03 -7.6160238463809163e-03 3.5714110007728506e-03 4.5316446883137816e-02 -1.7199166834335113e-02 5.8764289284343962e-02 -1.0760990034714657e-01 -1.7127874588350789e-01 1.2777581461809229e-01 -5.1489944389963682e-02 1.0342688484305196e-01 1.7040252906877484e-01 -2.0820493035816900e-02 2.7202954171020388e-01 -9.3795330977599622e-02 9.8128652218699181e-02 2.1844455350622877e-02 -3.2737107679208510e-02 -6.3842130157575755e-03 -1.2407292251060006e-02 2.3619084951570668e-02 -2.3344067329614582e-02 3.0397966620719530e-02 -6.7682577420761392e-02 7.6716374744195168e-02 -6.0445841641268649e-02 6.2283994542225690e-02 
      </Row>
      <Row Index="7">
        1.1501308199521570e-01 9.3229256543854028e-02 2.1858795167044157e-01 -1.2174468040630634e-01 1.1486701019655410e-01 1.6822182633375649e-02 7.9241613469236860e-02 3.5622612470362918e+00 -2.5270990781159219e-01 -5.0122032929176608e-02 3.7842654742201609e-01 1.0069636862665687e-01 2.7534125264370690e-01 5.9726217411726415e-02 7.9467467441632619e-02 1.5737155545402576e-01 3.4690979705110275e-01 -2.0985338547175769e-01 7.8991986438182660e-01 -2.8109239996904040e-01 -1.0068421672902124e+00 -5.4884138331797072e-01 -9.3365086784754539e-02 -4.3338163275527958e-01 -2.7596449042533228e-01 -7.9734100089953630e-01 -5.6001007869076490e-02 -1.7917725120639016e-01 -1.2755255331338161e-01 8.3938309005973100e-02 -1.2491667892351709e-01 2.9785740478691303e-01 -1.1016433652266688e-01 -2.0903307139279570e+00 2.7409122968186522e-01 -1.2686572334572932e-02 -1.6537031190686652e-01 5.4279296841343916e-02 -3.2302131599484696e-02 5.0226560076757493e-02 2.1225183859070285e-02 4.9695989236349172e-03 9.5611583818695389e-02 -1.2145908404415208e-02 6.4348208872371790e-02 -4.8140001777788377e-02 2.1650020793290803e-01 3.4642088614471878e-02 1.5761636185556715e-02 -1.0125957280553077e-01 2.0550014676734563e-03 -1.5031624569315694e-01 -2.5041953812432530e-03 6.8347789387497788e-04 -3.9503174220325912e-03 -9.3689467950186955e-02 1.5787494853713165e-02 -5.3961168564559160e-02 1.5593451802744324e-02 -3.9080847601602964e-01 6.1128966219242797e-02 -7.8335364540996454e-03 5.0582326292792155e-02 1.7207290672886105e-02 5.7868707743142227e-02 5.8822389528802178e-02 1.0550387310441944e-02 1.8216318332314456e-02 -4.7205588040934832e-02 -8.8563882824286705e-03 1.0211231298611044e-01 -5.5490554299950090e-02 3.8165178951642786e-01 -1.0969394106503216e-02 -1.7809424887033076e-04 -1.0887205389673502e-01 -1.0049627272907952e-02 -1.0867303894693137e-01 -6.6488741972342280e-03 -9.8134540542545029e-03 -2.5655000119119410e-02 -4.5227086751254815e-02 1.9368384487845083e-02 -3.1915273721764420e-02 1.7410927937690127e-02 -4.5209549628801721e-02 -4.7667787064120531e-02 1.2540036719693129e-02 8.8833004511497365e-02 -5.1923060473135871e-02 -4.9059317858990426e-03 -2.2052761258824070e-02 9.9068873141165380e-03 -4.7742521345462332e-03 -6.7883015779983819e-03 -3.9291411023653730e-02 1.3071691084393553e-02 -1.1530929607195053e-03 1.4620230174758206e-01 -5.3841882228503925e-02 1.6531079598241016e-02 7.0986054260541873e-02 -1.5651598411377948e-02 -7.1091173896674076e-03 4.5932597709681597e-03 1.0746989968608201e-02 -3.4319443800635258e-02 1.5478596105331560e-02 9.6736641965442516e-03 3.3672187419314277e-03 -2.5413136804470864e-02 1.7579798203577125e-02 7.0990002543410841e-03 2.1371933061345431e-02 6.2327468738735542e-02 -2.1396985638590823e-02 -7.4488020301659796e-02 7.4745178712630894e-03 2.9942859475920024e-03 -2.4790349019711520e-03 -3.4374326956661691e-02 -9.2239204696650812e-03 -5.5527199963350347e-03 -6.8659416567085282e-03 -7.4446759369473287e-02 2.3737292700658913e-02 3.2883666151620229e-03 -9.8454852283035854e-03 -1.5292241200008385e-02 -1.1106399961810537e-02 2.9712936721420988e-03 -4.7250335635710371e-03 7.3657690248638309e-03 8.3640445901483271e-02 -4.0447313802895422e-03 3.0976667132778121e-02 3.0714471157787283e-03 1.5643643065525359e-01 -6.0443008865870302e-03 -6.8368446896422130e-03 1.5360356585556326e-03 -2.6375482259977129e-02 -1.3172990091423940e-02 -1.3800612095535680e-02 -6.1875614486156111e-03 4.2925610970914524e-03 -7.7901090515436850e-03 2.5626216498022270e-03 9.0917160654492980e-04 -5.3584369362730325e-03 -1.6652984863558144e-02 -7.8728091814391742e-03 -5.4590970792354546e-03 4.4757468926914783e-02 -1.9198367291548986e-03 1.0737887142508064e-02 8.6264620431757422e-02 -8.9591839226972614e-04 2.3276614554268926e-01 3.3258100982339744e-01 -2.1343041383025207e-01 1.0364075994194182e+00 -2.8734263212505695e-01 -3.2007896516361389e-01 -4.7397725347268632e-01 -1.5193943096348556e-01 -1.7111239337612116e-01 -1.2470939093783273e-01 -4.8766123410234519e-01 -1.9306589252247777e-02 -4.8449497368710986e-02 -1.4950051386574174e-02 1.8661506567070885e-03 -6.4625879043256340e-04 2.0742588963250763e-02 2.8611409345692715e-02 -2.2402859771078754e-03 -2.1029714092652405e-02 -2.3023813519094563e-02 -2.5957999252541608e-02 1.8343606772370583e-02 -6.7172786345011185e-02 3.2287623330805745e-02 -3.4003087567153686e-02 -3.7802433932070584e-02 -5.8719025453603003e-03 8.4740803577368101e-02 -2.0293965194793456e-02 6.2462965956574440e-02 3.7748847161759025e-02 -1.7506271692978682e-02 4.6774509575112866e-02 -1.5679032695863951e-01 4.2051670760233015e-03 -1.2198733833651421e-01 -2.1647854619182538e-01 -1.2029997132224853e-01 1.5454106805470696e-01 1.5930209670072880e-02 2.5292269506569798e-01 5.1008067272244606e-02 -2.8864720261301505e-02 -3.2994625191578530e-02 -1.8748894645860076e-02 -2.8799015160791669e-02 -2.7305331183210657e-02 -3.3224567791117307e-02 -1.9591925614839939e-02 9.7191067966811762e-02 6.2514798788281534e-02 2.7777568591403082e-02 8.8756256773132036e-03 -3.1595375741582082e-02 -8.7017575804450298e-04 3.8870984377644052e-02 -1.2983158934539674e-01 -1.3737783530678893e-01 1.3468406701049235e-01 5.7960593066305029e-02 -1.4624671612567769e-01 -1.0930180173310763e-01 -1.1863035682294888e-01 -1.9381785812701002e-03 8.2610093749418426e-02 -8.6607738454893668e-02 -4.7664945759845756e-03 -3.2440541316280158e-02 1.1715459308255627e-02 -3.0711862096601372e-02 6.4109882008902552e-03 -1.3288649308187253e-02 3.7155042130088134e-04 -9.9366340341376480e-02 5.8787190711965004e-02 -2.4136057329218807e-02 5.0563264679830133e-04 -9.2886937469377484e-03 -1.6094483046372232e-02 4.9227203061014690e-03 -3.6119102345658183e-02 -2.6847295999948284e-03 -4.3458670793230167e-03 -2.4417158996225201e-02 4.1134349177679982e-02 4.9428640706668539e-02 2.8172946210516137e-02 -2.2422312069616099e+00 4.9333267389717184e-01 -3.0720855273289976e-01 5.8417841077172683e-03 8.5571373997369915e-01 -1.9591575814323489e-01 -2.4607799759535448e-01 1.7085946506606930e+00 -5.3912479202712038e-01 8.1870126918758612e-02 -5.9270136872953239e-02 1.2656825757175194e-03 -2.1894891591496379e-02 8.5870031729869511e-02 6.1363510323425838e-02 -4.6104313812768291e-02 -3.0372988084435074e-02 -6.5551945348310325e-02 3.9026522885484471e-02 3.9764896042214462e-02 -1.1078101032305998e-02 1.3834133602402973e-02 3.0119622890718418e-02 -4.0601207534746719e-03 -2.0190449001581116e-02 -4.5744405361604845e-02 -5.6813548467919479e-02 -3.7020336079308394e-02 -5.3405436129680517e-02 4.6201230245271696e-03 -1.4204294224477998e-02 1.5793327263887838e-02 1.2651098958030472e-02 -2.8864487010874018e-02 8.5424099894104599e-02 -2.2111944928651628e-01 -2.0519516642658492e-01 2.3474427852034757e-01 5.1062472523597940e-02 -1.5508944770192640e-01 -2.7723315259607717e-01 -3.7538460489738745e-02 4.5838997548979327e-02 1.9838848365508510e-01 8.9448086647048175e-03 -1.7394962626228261e-01 4.1806626507523197e-02 1.4151454148292686e-02 -7.1636330667721460e-03 -1.2156244993893672e-02 -1.6959912117832598e-02 3.4500011195227498e-02 4.6483946495463058e-02 -1.9297846349455527e-02 4.4225363415653085e-03 -1.3899658396167996e-04 6.3385889585892724e-02 5.4362002777820884e-02 3.1956238519315172e-02 3.4653740492811190e-02 6.5041729310722218e-03 3.8952517630364697e-02 -1.4965201830069261e-02 -3.8317738518726253e-02 2.2938640411168824e-02 -5.5775192301423318e-03 5.3812407510558158e-02 1.3084572901808489e-01 2.2229028550173213e-01 2.6290714144380889e-01 -1.3602785728913142e-01 -7.7730021072515976e-03 2.7579932108745875e-02 3.0235953395835069e-01 3.2384322987944969e-02 -1.3534575479705002e-01 -1.7926142561977618e-01 -9.2105709832960795e-03 -3.6806214800959955e-02 1.6734338868744619e-01 -6.1563063709265536e-02 2.5969311385502254e-02 -2.0608016435129911e-02 -2.3146984103979709e-02 9.7092889777221220e-03 2.7553676301451079e-02 -2.1932156075543774e-02 -3.5343185185300330e-03 -1.6184546632274678e-02 
      </Row>
      <Row Index="8">
        2.2372138577654499e-01 -1.5316973637664152e-01 -1.2166776957564479e-01 -1.1966661799121536e-03 -4.8520123084266986e-01 -1.8767317889923607e-01 -3.6470695775587592e-02 -2.5270990781607822e-01 5.2014745086440426e+00 2.8858297688912921e-01 2.9381450319190627e-01 -2.3466997744474938e-01 -3.1423413760277491e-01 -4.5882701762021588e-01 -1.0139873816846257e-01 -2.7386279306394679e-01 -3.2935713740105399e-01 3.0534384267145503e-01 4.7169518702940483e-01 2.1911693755787467e-01 -2.9466109236896187e-01 -4.9937824917914773e+00 -2.1699826514063264e-01 -2.2183543715480168e-02 3.3752293063508465e-01 5.2514360443974351e-01 1.9841723548765966e-01 1.2385429057703512e-01 3.4618437486616660e-01 -6.0628956520857535e-02 -2.5898053098050156e-02 -1.9650194597728074e-01 -3.8621011015819828e-02 3.2847253869654297e-01 -8.7106608919310635e-01 -7.8144028790266981e-02 -3.0140046252762809e-01 -6.9109854414414307e-02 -6.6331147520985956e-02 -1.0897222187051980e-01 4.6564650742540056e-02 -6.1275657709500102e-02 -1.0616172165803905e-01 1.5024373858904716e-01 -1.8810875099999812e-02 1.4999082313980776e-02 -8.6400225290919119e-02 -7.3102587902337746e-01 -6.1975930081281896e-02 -2.2195239804542802e-01 4.2660347632545337e-02 1.5178554206560790e-01 1.3577289234231467e-02 -2.9968563604275203e-03 7.1194920615007123e-03 -2.6999065675316109e-03 4.9724995773952237e-03 -1.0017553438582488e-02 -1.2470844307989452e-02 6.3325916069063182e-02 -1.7009850986239278e-01 9.6444379255482375e-03 -3.5272656911931585e-02 -3.9273110527309862e-02 -9.1708142644092716e-02 -2.1121175591548802e-02 2.8330163863647284e-02 -5.4335565570397308e-02 -7.7690405096208393e-02 2.7975949320512460e-02 -8.7267297485791248e-02 1.7546283793341111e-02 -1.0706534200253102e-01 -7.0829256744080249e-02 -1.3020469551913066e-01 -1.6321826078244064e-01 2.0651437905350928e-02 1.1923474711177440e-01 -2.9729987645716938e-02 1.5849969508677890e-02 -2.0686621754420036e-02 -3.0445726646459226e-02 1.8927651997918547e-02 1.0390968056691519e-01 1.2418540777965994e-02 -1.2106803515593484e-02 2.8613605780765888e-01 -4.8599608302783107e-02 1.0891188572431906e-01 2.7005815839643676e-02 5.8272781921314076e-02 -1.6814889222258877e-02 -4.3018581505355064e-03 1.7746240920741493e-03 -8.7083281271242985e-03 1.3341400353100524e-02 4.9300651382773925e-02 -2.1188943941878313e-03 -3.8942761416721178e-02 -1.3240428055782433e-01 5.6780641344854860e-02 1.2772186948553038e-02 2.5808062442063143e-02 -1.4878498988732947e-03 -1.2571880467403021e-01 3.4367100949360602e-02 -1.2822567755022038e-02 -5.6077553883181808e-02 1.8392268003396606e-01 7.7244671161915579e-02 -7.6705482017837973e-03 -6.4544747851665987e-02 -5.9943743103624558e-01 -3.6253192658133822e-02 1.1018518592603443e-02 9.2597008305952966e-02 1.6997627613091737e-01 -1.0686471234514024e-02 1.8846312715748915e-02 -9.6191176405207995e-03 3.4175491337063713e-03 3.2590887869418092e-02 -1.5183487957639446e-02 1.9640762525822766e-02 3.5347794723553649e-03 -1.7707091277958256e-01 -7.2338988789726888e-03 -5.9257797034580034e-02 -3.3737179427484887e-02 -3.6932965051314826e-02 3.9439609283449528e-04 -8.7194347451370492e-03 -8.1127411695316315e-04 1.0820859429518392e-02 2.1567602762540619e-03 -5.0002504570532957e-03 -3.8913960233881648e-03 -1.5144962881627654e-02 6.8046926758722898e-02 4.6382540204642705e-03 3.6101738250078577e-02 -2.8139019294400908e-02 -5.0226897286725913e-03 -5.5998189313005422e-03 1.2195358189672406e-02 -3.7408509024343464e-03 5.4655921663008603e-03 1.0773151307048041e-02 -7.9152270689362564e-03 -5.7436121064258355e-03 -7.3404566519234271e-03 -4.2401497005588248e-02 -6.3725412030803674e-03 3.0672476937880527e-02 -7.7131453188643857e-03 -2.5390263766190135e-02 -4.0373352481587688e-02 -1.3253926867278479e-01 -4.1974855337007178e-02 -3.6265398186112952e-01 -1.5809527167877840e-01 1.0598600640035372e-01 1.3085480922394732e-01 -8.8518006722539122e-02 -9.1855689998435808e-01 3.4888972702302345e-02 -4.4441057026690836e-02 -1.7613783057375709e-02 7.8396480465012353e-02 2.5700614985619992e-02 9.7497175661047722e-03 4.5129259125203979e-03 -2.0622790346774833e-02 9.3947143699490421e-03 1.9788393651344396e-02 6.2301070294490779e-02 3.7160614253454183e-03 -1.7585753966981005e-02 2.0319598451564641e-02 -3.7350081689552894e-02 -3.2401594286330701e-02 1.3159570370142482e-02 -1.0213476534351951e-01 -1.6970044258760641e-02 -1.1937084021712563e-03 -1.4720711797480135e-03 7.8348948533916302e-02 1.2913329122956549e-02 -6.7869913209755328e-02 -6.4968474125552803e-02 -2.5405996120114183e-02 -1.0118823292310408e-01 7.6795179465771246e-02 3.0712787269875030e-02 -1.1483520367755928e-01 2.2724102265105739e-02 8.6208443719256914e-02 2.4508797295544482e-01 5.2749922731370941e-02 -1.2358563868809136e-01 7.1635402274033977e-05 -1.7910370526659258e-01 2.4970111602534151e-02 -1.3329723551666277e-02 -2.2407348080309780e-02 4.4350680458360436e-03 2.8189826421577052e-02 -1.1291292358106608e-02 -8.0617235976645968e-02 2.5431653881271415e-03 6.9413267191297923e-02 -4.1966511926059380e-02 1.4343046432296364e-02 1.0681827085140061e-01 -2.2764817951236516e-01 -1.2552380983614597e-01 2.5572924936547498e-01 8.8217021743776880e-02 1.1650814489237854e-03 -3.3136081959854630e-01 -5.7917922323182165e-02 1.5213717095312357e-01 -8.9570894119099242e-03 1.5722561502620991e-01 -1.6594917607493070e-02 -3.7399432234321794e-02 -3.9726928110472903e-02 5.8769631150053486e-02 5.2311088306865226e-02 -3.7489547368858345e-02 -4.6753993803540173e-02 3.6802721243114012e-02 4.1755811219488126e-02 -8.5112676044982405e-02 5.9636761499766822e-02 4.1496200036500647e-02 -1.8567148366750774e-02 5.9605748424633731e-03 7.7442928146774226e-03 5.3091692436685767e-02 3.7065708750243995e-03 -9.7262447729505208e-02 -4.1597367134814565e-02 -2.3057950251659860e-02 -1.0232784125214978e-01 6.8240960436475095e-02 1.1543873279139827e-01 1.8973668694805879e-02 2.5594179149884932e-01 -1.8454013682748815e-01 -7.0067437308073299e-02 1.5868958026063471e-01 1.5623525440978558e-01 -1.4897488994788022e-01 8.8369578913915892e-02 8.1118801151726094e-02 -1.4054473944740684e-01 1.2757044283738972e-02 -1.7843878949314634e-02 5.3142334114466422e-02 1.4960114289871068e-02 2.7630408341337009e-02 3.3928712207216480e-03 9.0640515165765656e-02 9.4680428857117221e-03 7.5859101446730137e-02 4.6487003260813342e-03 7.5474031372905620e-02 1.1119687630006259e-02 -1.8699748178850406e-01 2.2885310235684894e-02 6.7964163231343550e-02 -8.3124688849490203e-03 7.7072191753827013e-02 -5.8644793426386219e-02 -3.0128096981352576e-02 7.3505147340810151e-02 -8.3128942524925684e-02 8.6861755373671828e-04 1.5326739260514227e-02 -1.5952207281230635e-01 -2.4771919577080581e-02 -1.1559457202667556e-01 3.3237183910285892e-02 9.0720729003247014e-02 -1.0148448863806925e-01 1.3726256608035475e-01 1.0461372439418876e-01 -3.5164831036230249e-02 1.5988367806387932e-01 -7.0204475404835875e-03 -5.7867566751922950e-03 4.0428596094207958e-02 3.9830759971974050e-02 -1.9953167011981909e-02 1.7092680719335562e-02 1.0624946374335287e-01 -4.6556499599810230e-03 -6.7736407006289800e-02 -1.8843772374119827e-02 -1.6282134598578843e-03 8.2042919809400539e-03 4.9720044873177299e-03 9.4823359989090639e-02 -2.7636738134177982e-02 7.6813400037943416e-03 -1.2795929305149389e-02 -8.3750656894215902e-03 8.9535419106115399e-04 2.8275059248256199e-02 3.4171910963342877e-02 -1.5553062656412653e-02 4.5488003908831301e-02 2.4573265392225796e-01 1.3147511781925580e-01 5.5703443035697298e-03 -9.0899484450669324e-02 -1.2104459779442803e-01 1.2065070289844243e-02 -1.7670677983295913e-01 -1.1395031824849074e-01 1.8038309912263986e-01 -1.6595526360326118e-01 -1.0499158901168676e-02 3.5921720614560483e-02 5.9797460855484541e-02 -4.4727236104995516e-03 1.7986248349964474e-02 -8.6742854959814819e-03 3.1074041765927846e-02 -1.5110443378403560e-04 -1.7162734751688724e-02 9.1449573817766208e-02 4.6186248178549438e-02 -2.5704880410651589e-02 
      </Row>
      <Row Index="9">
