<?xml version="1.0"?>
<MethodSetup Method="BDT::GradBDT">
  <GeneralInfo>
    <Info name="TMVA Release" value="4.2.0 [262656]"/>
    <Info name="ROOT Release" value="5.28/00 [334848]"/>
    <Info name="Creator" value="han"/>
    <Info name="Date" value="Tue Dec  7 23:28:34 2021"/>
    <Info name="Host" value="Linux sukla01 3.10.0-327.36.3.el7.x86_64 #1 SMP Thu Oct 20 04:56:07 EDT 2016 x86_64 x86_64 x86_64 GNU/Linux"/>
    <Info name="Dir" value="/disk02/calib3/usr/han/mc/random"/>
    <Info name="Training events" value="4867761"/>
    <Info name="TrainingTime" value="7.15090349e+03"/>
    <Info name="AnalysisType" value="Classification"/>
  </GeneralInfo>
  <Options>
    <Option name="V" modified="Yes">True</Option>
    <Option name="VerbosityLevel" modified="No">Verbose</Option>
    <Option name="VarTransform" modified="Yes">N</Option>
    <Option name="H" modified="Yes">True</Option>
    <Option name="CreateMVAPdfs" modified="No">False</Option>
    <Option name="IgnoreNegWeightsInTraining" modified="No">False</Option>
    <Option name="NTrees" modified="Yes">1000</Option>
    <Option name="MaxDepth" modified="Yes">3</Option>
    <Option name="MinNodeSize" modified="Yes">2%</Option>
    <Option name="nCuts" modified="No">20</Option>
    <Option name="BoostType" modified="Yes">Grad</Option>
    <Option name="AdaBoostR2Loss" modified="No">quadratic</Option>
    <Option name="UseBaggedBoost" modified="Yes">True</Option>
    <Option name="Shrinkage" modified="Yes">1.000000e-01</Option>
    <Option name="AdaBoostBeta" modified="No">5.000000e-01</Option>
    <Option name="UseRandomisedTrees" modified="No">False</Option>
    <Option name="UseNvars" modified="No">4</Option>
    <Option name="UsePoissonNvars" modified="No">True</Option>
    <Option name="BaggedSampleFraction" modified="Yes">5.000000e-01</Option>
    <Option name="UseYesNoLeaf" modified="No">True</Option>
    <Option name="NegWeightTreatment" modified="Yes">ignorenegweightsintraining</Option>
    <Option name="Css" modified="No">1.000000e+00</Option>
    <Option name="Cts_sb" modified="No">1.000000e+00</Option>
    <Option name="Ctb_ss" modified="No">1.000000e+00</Option>
    <Option name="Cbb" modified="No">1.000000e+00</Option>
    <Option name="NodePurityLimit" modified="No">5.000000e-01</Option>
    <Option name="SeparationType" modified="No">giniindex</Option>
    <Option name="DoBoostMonitor" modified="No">False</Option>
    <Option name="UseFisherCuts" modified="No">False</Option>
    <Option name="MinLinCorrForFisher" modified="No">8.000000e-01</Option>
    <Option name="UseExclusiveVars" modified="No">False</Option>
    <Option name="DoPreselection" modified="No">False</Option>
    <Option name="SigToBkgFraction" modified="No">1.000000e+00</Option>
    <Option name="PruneMethod" modified="No">nopruning</Option>
    <Option name="PruneStrength" modified="No">0.000000e+00</Option>
    <Option name="PruningValFraction" modified="No">5.000000e-01</Option>
    <Option name="nEventsMin" modified="No">0</Option>
    <Option name="UseBaggedGrad" modified="No">False</Option>
    <Option name="GradBaggingFraction" modified="No">5.000000e-01</Option>
    <Option name="UseNTrainEvents" modified="No">0</Option>
    <Option name="NNodesMax" modified="No">0</Option>
  </Options>
  <Variables NVar="12">
    <Variable VarIndex="0" Expression="NHits" Label="NHits" Title="NHits" Unit="" Internal="NHits" Type="F" Min="4.00000000e+00" Max="1.77000000e+02"/>
    <Variable VarIndex="1" Expression="N200" Label="N200" Title="N200" Unit="" Internal="N200" Type="F" Min="8.00000000e+00" Max="9.96000000e+02"/>
    <Variable VarIndex="2" Expression="TRMS" Label="TRMS" Title="TRMS" Unit="" Internal="TRMS" Type="F" Min="2.02867270e+00" Max="6.45847290e+02"/>
    <Variable VarIndex="3" Expression="Beta1" Label="Beta1" Title="Beta1" Unit="" Internal="Beta1" Type="F" Min="-3.33208174e-01" Max="9.99804378e-01"/>
    <Variable VarIndex="4" Expression="Beta5" Label="Beta5" Title="Beta5" Unit="" Internal="Beta5" Type="F" Min="-3.15233141e-01" Max="9.97069240e-01"/>
    <Variable VarIndex="5" Expression="OpeningAngleMean" Label="OpeningAngleMean" Title="OpeningAngleMean" Unit="" Internal="OpeningAngleMean" Type="F" Min="8.03928912e-01" Max="8.99999695e+01"/>
    <Variable VarIndex="6" Expression="OpeningAngleSkew" Label="OpeningAngleSkew" Title="OpeningAngleSkew" Unit="" Internal="OpeningAngleSkew" Type="F" Min="-3.07227264e+02" Max="3.54623657e+02"/>
    <Variable VarIndex="7" Expression="OpeningAngleStdev" Label="OpeningAngleStdev" Title="OpeningAngleStdev" Unit="" Internal="OpeningAngleStdev" Type="F" Min="3.17637023e-05" Max="4.56349831e+01"/>
    <Variable VarIndex="8" Expression="MeanDirAngleMean" Label="MeanDirAngleMean" Title="MeanDirAngleMean" Unit="" Internal="MeanDirAngleMean" Type="F" Min="6.49413288e-01" Max="9.46966476e+01"/>
    <Variable VarIndex="9" Expression="MeanDirAngleRMS" Label="MeanDirAngleRMS" Title="MeanDirAngleRMS" Unit="" Internal="MeanDirAngleRMS" Type="F" Min="9.65016559e-02" Max="8.73619690e+01"/>
    <Variable VarIndex="10" Expression="DWall" Label="DWall" Title="DWall" Unit="" Internal="DWall" Type="F" Min="3.28723145e+00" Max="1.69000000e+03"/>
    <Variable VarIndex="11" Expression="DWallMeanDir" Label="DWallMeanDir" Title="DWallMeanDir" Unit="" Internal="DWallMeanDir" Type="F" Min="1.10913172e+01" Max="4.93317627e+03"/>
  </Variables>
  <Spectators NSpec="1">
    <Spectator SpecIndex="0" Expression="Label" Label="Label" Title="I" Unit="" Internal="Label" Type="F" Min="0.00000000e+00" Max="3.00000000e+00"/>
  </Spectators>
  <Classes NClass="2">
    <Class Name="Signal" Index="0"/>
    <Class Name="Background" Index="1"/>
  </Classes>
  <Transformations NTransformations="1">
    <Transform Name="Normalize">
      <Selection>
        <Input NInputs="12">
          <Input Type="Variable" Label="NHits" Expression="NHits"/>
          <Input Type="Variable" Label="N200" Expression="N200"/>
          <Input Type="Variable" Label="TRMS" Expression="TRMS"/>
          <Input Type="Variable" Label="Beta1" Expression="Beta1"/>
          <Input Type="Variable" Label="Beta5" Expression="Beta5"/>
          <Input Type="Variable" Label="OpeningAngleMean" Expression="OpeningAngleMean"/>
          <Input Type="Variable" Label="OpeningAngleSkew" Expression="OpeningAngleSkew"/>
          <Input Type="Variable" Label="OpeningAngleStdev" Expression="OpeningAngleStdev"/>
          <Input Type="Variable" Label="MeanDirAngleMean" Expression="MeanDirAngleMean"/>
          <Input Type="Variable" Label="MeanDirAngleRMS" Expression="MeanDirAngleRMS"/>
          <Input Type="Variable" Label="DWall" Expression="DWall"/>
          <Input Type="Variable" Label="DWallMeanDir" Expression="DWallMeanDir"/>
        </Input>
        <Output NOutputs="12">
          <Output Type="Variable" Label="NHits" Expression="NHits"/>
          <Output Type="Variable" Label="N200" Expression="N200"/>
          <Output Type="Variable" Label="TRMS" Expression="TRMS"/>
          <Output Type="Variable" Label="Beta1" Expression="Beta1"/>
          <Output Type="Variable" Label="Beta5" Expression="Beta5"/>
          <Output Type="Variable" Label="OpeningAngleMean" Expression="OpeningAngleMean"/>
          <Output Type="Variable" Label="OpeningAngleSkew" Expression="OpeningAngleSkew"/>
          <Output Type="Variable" Label="OpeningAngleStdev" Expression="OpeningAngleStdev"/>
          <Output Type="Variable" Label="MeanDirAngleMean" Expression="MeanDirAngleMean"/>
          <Output Type="Variable" Label="MeanDirAngleRMS" Expression="MeanDirAngleRMS"/>
          <Output Type="Variable" Label="DWall" Expression="DWall"/>
          <Output Type="Variable" Label="DWallMeanDir" Expression="DWallMeanDir"/>
        </Output>
      </Selection>
      <Class ClassIndex="0">
        <Ranges>
          <Range Index="0" Min="4.0000000000000000e+00" Max="9.5000000000000000e+01"/>
          <Range Index="1" Min="1.1000000000000000e+01" Max="1.4100000000000000e+02"/>
          <Range Index="2" Min="2.2280979156494141e+00" Max="5.4720771789550781e+01"/>
          <Range Index="3" Min="-3.3097851276397705e-01" Max="9.8799312114715576e-01"/>
          <Range Index="4" Min="-2.8845927119255066e-01" Max="8.3546137809753418e-01"/>
          <Range Index="5" Min="1.1581065177917480e+01" Max="8.8694335937500000e+01"/>
          <Range Index="6" Min="-2.2306852722167969e+02" Max="2.1107666015625000e+02"/>
          <Range Index="7" Min="7.9673878848552704e-02" Max="4.0237884521484375e+01"/>
          <Range Index="8" Min="4.7892837524414062e+00" Max="9.1261680603027344e+01"/>
          <Range Index="9" Min="1.6865448951721191e+00" Max="8.3551910400390625e+01"/>
          <Range Index="10" Min="3.2872314453125000e+00" Max="1.6900000000000000e+03"/>
          <Range Index="11" Min="2.6200975418090820e+01" Max="4.8233999023437500e+03"/>
        </Ranges>
      </Class>
      <Class ClassIndex="1">
        <Ranges>
          <Range Index="0" Min="4.0000000000000000e+00" Max="1.7700000000000000e+02"/>
          <Range Index="1" Min="8.0000000000000000e+00" Max="9.9600000000000000e+02"/>
          <Range Index="2" Min="2.0286726951599121e+00" Max="6.4584729003906250e+02"/>
          <Range Index="3" Min="-3.3320817351341248e-01" Max="9.9980437755584717e-01"/>
          <Range Index="4" Min="-3.1523314118385315e-01" Max="9.9706923961639404e-01"/>
          <Range Index="5" Min="8.0392891168594360e-01" Max="8.9999969482421875e+01"/>
          <Range Index="6" Min="-3.0722726440429688e+02" Max="3.5462365722656250e+02"/>
          <Range Index="7" Min="3.1763702281750739e-05" Max="4.5634983062744141e+01"/>
          <Range Index="8" Min="6.4941328763961792e-01" Max="9.4696647644042969e+01"/>
          <Range Index="9" Min="9.6501655876636505e-02" Max="8.7361968994140625e+01"/>
          <Range Index="10" Min="3.2872314453125000e+00" Max="1.6900000000000000e+03"/>
          <Range Index="11" Min="1.1091317176818848e+01" Max="4.9331762695312500e+03"/>
        </Ranges>
      </Class>
      <Class ClassIndex="2">
        <Ranges>
          <Range Index="0" Min="4.0000000000000000e+00" Max="1.7700000000000000e+02"/>
          <Range Index="1" Min="8.0000000000000000e+00" Max="9.9600000000000000e+02"/>
          <Range Index="2" Min="2.0286726951599121e+00" Max="6.4584729003906250e+02"/>
          <Range Index="3" Min="-3.3320817351341248e-01" Max="9.9980437755584717e-01"/>
          <Range Index="4" Min="-3.1523314118385315e-01" Max="9.9706923961639404e-01"/>
          <Range Index="5" Min="8.0392891168594360e-01" Max="8.9999969482421875e+01"/>
          <Range Index="6" Min="-3.0722726440429688e+02" Max="3.5462365722656250e+02"/>
          <Range Index="7" Min="3.1763702281750739e-05" Max="4.5634983062744141e+01"/>
          <Range Index="8" Min="6.4941328763961792e-01" Max="9.4696647644042969e+01"/>
          <Range Index="9" Min="9.6501655876636505e-02" Max="8.7361968994140625e+01"/>
          <Range Index="10" Min="3.2872314453125000e+00" Max="1.6900000000000000e+03"/>
          <Range Index="11" Min="1.1091317176818848e+01" Max="4.9331762695312500e+03"/>
        </Ranges>
      </Class>
    </Transform>
  </Transformations>
  <MVAPdfs/>
  <Weights NTrees="1000" AnalysisType="1">
    <BinaryTree type="DecisionTree" boostWeight="1.0000000000000000e+00" itree="0">
      <Node pos="s" depth="0" NCoef="0" IVar="0" Cut="-9.0476191043853760e-01" cType="0" res="-1.1008268920704722e-03" rms="4.9999877810478210e-01" purity="4.9889919161796570e-01" nType="0">
        <Node pos="l" depth="1" NCoef="0" IVar="8" Cut="4.8992238007485867e-03" cType="0" res="4.6041142940521240e-01" rms="1.9499053061008453e-01" purity="9.6041142940521240e-01" nType="0">
          <Node pos="l" depth="2" NCoef="0" IVar="-1" Cut="0.0000000000000000e+00" cType="1" res="5.2119572646915913e-03" rms="1.0101841390132904e-01" purity="9.8968893289566040e-01" nType="-99"/>
          <Node pos="r" depth="2" NCoef="0" IVar="-1" Cut="0.0000000000000000e+00" cType="1" res="3.2433914020657539e-03" rms="4.4486013054847717e-01" purity="7.2825312614440918e-01" nType="-99"/>
        </Node>
        <Node pos="r" depth="1" NCoef="0" IVar="11" Cut="-2.3433563113212585e-01" cType="1" res="-2.4108198285102844e-01" rms="4.3804049491882324e-01" purity="2.5891801714897156e-01" nType="0">
          <Node pos="l" depth="2" NCoef="0" IVar="4" Cut="-3.3682879805564880e-01" cType="1" res="1.4147554337978363e-01" rms="4.7956717014312744e-01" purity="6.4147555828094482e-01" nType="0">
            <Node pos="l" depth="3" NCoef="0" IVar="-1" Cut="0.0000000000000000e+00" cType="1" res="3.1755771487951279e-03" rms="4.4976818561553955e-01" purity="7.1842288970947266e-01" nType="-99"/>
            <Node pos="r" depth="3" NCoef="0" IVar="-1" Cut="0.0000000000000000e+00" cType="1" res="-1.1610094457864761e-02" rms="4.2557305097579956e-01" purity="2.3753558099269867e-01" nType="-99"/>
          </Node>
          <Node pos="r" depth="2" NCoef="0" IVar="0" Cut="-9.3834298849105835e-01" cType="0" res="-3.4370201826095581e-01" rms="3.6313763260841370e-01" purity="1.5629799664020538e-01" nType="0">
            <Node pos="l" depth="3" NCoef="0" IVar="-1" Cut="0.0000000000000000e+00" cType="1" res="-4.7644604928791523e-03" rms="4.7512012720108032e-01" purity="3.4424099326133728e-01" nType="-99"/>
            <Node pos="r" depth="3" NCoef="0" IVar="-1" Cut="0.0000000000000000e+00" cType="1" res="-2.9098799452185631e-02" rms="3.2019302248954773e-01" purity="1.1597339808940887e-01" nType="-99"/>
          </Node>
        </Node>
      </Node>
    </BinaryTree>
    <BinaryTree type="DecisionTree" boostWeight="1.0000000000000000e+00" itree="1">
      <Node pos="s" depth="0" NCoef="0" IVar="0" Cut="-9.0476191043853760e-01" cType="0" res="5.9800739400088787e-03" rms="4.9422004818916321e-01" purity="5.0050985813140869e-01" nType="0">
        <Node pos="l" depth="1" NCoef="0" IVar="8" Cut="1.2397868558764458e-02" cType="0" res="4.5824795961380005e-01" rms="1.9406917691230774e-01" purity="9.6074527502059937e-01" nType="0">
          <Node pos="l" depth="2" NCoef="0" IVar="-1" Cut="0.0000000000000000e+00" cType="1" res="5.1856860518455505e-03" rms="9.8779007792472839e-02" purity="9.9014562368392944e-01" nType="-99"/>
          <Node pos="r" depth="2" NCoef="0" IVar="-1" Cut="0.0000000000000000e+00" cType="1" res="3.3406268339604139e-03" rms="4.3927747011184692e-01" purity="7.3877000808715820e-01" nType="-99"/>
        </Node>
        <Node pos="r" depth="1" NCoef="0" IVar="11" Cut="-3.2644662261009216e-01" cType="1" res="-2.3244397342205048e-01" rms="4.3414878845214844e-01" purity="2.5788560509681702e-01" nType="0">
          <Node pos="l" depth="2" NCoef="0" IVar="4" Cut="-4.2708721756935120e-01" cType="1" res="2.1309272944927216e-01" rms="4.5109888911247253e-01" purity="7.1364605426788330e-01" nType="0">
            <Node pos="l" depth="3" NCoef="0" IVar="-1" Cut="0.0000000000000000e+00" cType="1" res="3.8946778513491154e-03" rms="4.0076512098312378e-01" purity="7.9897713661193848e-01" nType="-99"/>
            <Node pos="r" depth="3" NCoef="0" IVar="-1" Cut="0.0000000000000000e+00" cType="1" res="-5.2014028187841177e-04" rms="4.9822217226028442e-01" purity="4.8180958628654480e-01" nType="-99"/>
          </Node>
          <Node pos="r" depth="2" NCoef="0" IVar="0" Cut="-9.3834298849105835e-01" cType="0" res="-3.1821155548095703e-01" rms="3.7420311570167542e-01" purity="1.7014992237091064e-01" nType="0">
            <Node pos="l" depth="3" NCoef="0" IVar="-1" Cut="0.0000000000000000e+00" cType="1" res="-3.6263961810618639e-03" rms="4.8265114426612854e-01" purity="3.7056502699851990e-01" nType="-99"/>
            <Node pos="r" depth="3" NCoef="0" IVar="-1" Cut="0.0000000000000000e+00" cType="1" res="-2.5128506124019623e-02" rms="3.3036884665489197e-01" purity="1.2515793740749359e-01" nType="-99"/>
          </Node>
        </Node>
      </Node>
    </BinaryTree>
    <BinaryTree type="DecisionTree" boostWeight="1.0000000000000000e+00" itree="2">
      <Node pos="s" depth="0" NCoef="0" IVar="0" Cut="-8.9980733394622803e-01" cType="0" res="1.1311502195894718e-02" rms="4.8912787437438965e-01" purity="5.0104743242263794e-01" nType="0">
        <Node pos="l" depth="1" NCoef="0" IVar="8" Cut="7.0855617523193359e-03" cType="0" res="4.5596447587013245e-01" rms="1.9347886741161346e-01" purity="9.6094346046447754e-01" nType="0">
          <Node pos="l" depth="2" NCoef="0" IVar="-1" Cut="0.0000000000000000e+00" cType="1" res="5.1576434634625912e-03" rms="1.0053178668022156e-01" purity="9.8978883028030396e-01" nType="-99"/>
          <Node pos="r" depth="2" NCoef="0" IVar="-1" Cut="0.0000000000000000e+00" cType="1" res="3.2278092112392187e-03" rms="4.4071149826049805e-01" purity="7.3615258932113647e-01" nType="-99"/>
        </Node>
        <Node pos="r" depth="1" NCoef="0" IVar="11" Cut="-2.3887348175048828e-01" cType="1" res="-2.2417882084846497e-01" rms="4.3123021721839905e-01" purity="2.5748428702354431e-01" nType="0">
          <Node pos="l" depth="2" NCoef="0" IVar="4" Cut="-3.3013924956321716e-01" cType="1" res="1.4714387059211731e-01" rms="4.7537368535995483e-01" purity="6.4643776416778564e-01" nType="0">
            <Node pos="l" depth="3" NCoef="0" IVar="-1" Cut="0.0000000000000000e+00" cType="1" res="3.1843425240367651e-03" rms="4.4600674510002136e-01" purity="7.2272539138793945e-01" nType="-99"/>
            <Node pos="r" depth="3" NCoef="0" IVar="-1" Cut="0.0000000000000000e+00" cType="1" res="-1.2082266621291637e-02" rms="4.0564405918121338e-01" purity="2.0844438672065735e-01" nType="-99"/>
          </Node>
          <Node pos="r" depth="2" NCoef="0" IVar="0" Cut="-9.3834298849105835e-01" cType="0" res="-3.2303008437156677e-01" rms="3.5892638564109802e-01" purity="1.5393942594528198e-01" nType="0">
            <Node pos="l" depth="3" NCoef="0" IVar="-1" Cut="0.0000000000000000e+00" cType="1" res="-4.5958664268255234e-03" rms="4.7301661968231201e-01" purity="3.3801570534706116e-01" nType="-99"/>
            <Node pos="r" depth="3" NCoef="0" IVar="-1" Cut="0.0000000000000000e+00" cType="1" res="-2.7003167197108269e-02" rms="3.1866768002510071e-01" purity="1.1472005397081375e-01" nType="-99"/>
          </Node>
        </Node>
      </Node>
    </BinaryTree>
    <BinaryTree type="DecisionTree" boostWeight="1.0000000000000000e+00" itree="3">
      <Node pos="s" depth="0" NCoef="0" IVar="0" Cut="-9.3173682689666748e-01" cType="0" res="1.5993053093552589e-02" rms="4.8382893204689026e-01" purity="5.0069874525070190e-01" nType="0">
        <Node pos="l" depth="1" NCoef="0" IVar="4" Cut="-3.6071389913558960e-01" cType="1" res="3.2376921176910400e-01" rms="3.7339416146278381e-01" purity="8.2805222272872925e-01" nType="0">
          <Node pos="l" depth="2" NCoef="0" IVar="11" Cut="3.8910735398530960e-02" cType="1" res="4.1763609647750854e-01" rms="2.6393511891365051e-01" purity="9.2311012744903564e-01" nType="0">
            <Node pos="l" depth="3" NCoef="0" IVar="-1" Cut="0.0000000000000000e+00" cType="1" res="4.9682082608342171e-03" rms="1.9686792790889740e-01" purity="9.5902311801910400e-01" nType="-99"/>
            <Node pos="r" depth="3" NCoef="0" IVar="-1" Cut="0.0000000000000000e+00" cType="1" res="3.6250629927963018e-03" rms="4.1692411899566650e-01" purity="7.6980340480804443e-01" nType="-99"/>
          </Node>
          <Node pos="r" depth="2" NCoef="0" IVar="7" Cut="-1.8455998972058296e-02" cType="1" res="-4.1087242960929871e-01" rms="2.7703532576560974e-01" purity="8.4089681506156921e-02" nType="0">
            <Node pos="l" depth="3" NCoef="0" IVar="-1" Cut="0.0000000000000000e+00" cType="1" res="-1.4448071829974651e-02" rms="3.9920499920845032e-01" purity="1.9996637105941772e-01" nType="-99"/>
            <Node pos="r" depth="3" NCoef="0" IVar="-1" Cut="0.0000000000000000e+00" cType="1" res="-1.2152920663356781e-01" rms="1.0927331447601318e-01" purity="1.2141140177845955e-02" nType="-99"/>
          </Node>
        </Node>
        <Node pos="r" depth="1" NCoef="0" IVar="11" Cut="-3.2344126701354980e-01" cType="1" res="-2.7560481429100037e-01" rms="3.8601201772689819e-01" purity="1.9055256247520447e-01" nType="0">
          <Node pos="l" depth="2" NCoef="0" IVar="11" Cut="-4.4947770237922668e-01" cType="1" res="1.3293816149234772e-01" rms="4.7958001494407654e-01" purity="6.3504886627197266e-01" nType="0">
            <Node pos="l" depth="3" NCoef="0" IVar="-1" Cut="0.0000000000000000e+00" cType="1" res="3.3688102848827839e-03" rms="4.3358004093170166e-01" purity="7.4617260694503784e-01" nType="-99"/>
            <Node pos="r" depth="3" NCoef="0" IVar="-1" Cut="0.0000000000000000e+00" cType="1" res="-1.1603891616687179e-03" rms="4.9594742059707642e-01" purity="4.5274460315704346e-01" nType="-99"/>
          </Node>
          <Node pos="r" depth="2" NCoef="0" IVar="11" Cut="-7.1376636624336243e-02" cType="1" res="-3.3549365401268005e-01" rms="3.3027070760726929e-01" purity="1.2539328634738922e-01" nType="0">
            <Node pos="l" depth="3" NCoef="0" IVar="-1" Cut="0.0000000000000000e+00" cType="1" res="-7.9085752367973328e-03" rms="4.3696179986000061e-01" purity="2.5942811369895935e-01" nType="-99"/>
            <Node pos="r" depth="3" NCoef="0" IVar="-1" Cut="0.0000000000000000e+00" cType="1" res="-3.1788710504770279e-02" rms="2.9295086860656738e-01" purity="9.4808943569660187e-02" nType="-99"/>
          </Node>
        </Node>
      </Node>
    </BinaryTree>
    <BinaryTree type="DecisionTree" boostWeight="1.0000000000000000e+00" itree="4">
      <Node pos="s" depth="0" NCoef="0" IVar="0" Cut="-9.0476191043853760e-01" cType="0" res="2.3600118234753609e-02" rms="4.7625106573104858e-01" purity="5.0104147195816040e-01" nType="0">
        <Node pos="l" depth="1" NCoef="0" IVar="8" Cut="1.5114233829081059e-02" cType="0" res="4.5207831263542175e-01" rms="1.8815742433071136e-01" purity="9.6062427759170532e-01" nType="0">
          <Node pos="l" depth="2" NCoef="0" IVar="-1" Cut="0.0000000000000000e+00" cType="1" res="5.1087643951177597e-03" rms="9.8169825971126556e-02" purity="9.9012339115142822e-01" nType="-99"/>
          <Node pos="r" depth="2" NCoef="0" IVar="-1" Cut="0.0000000000000000e+00" cType="1" res="3.4418897703289986e-03" rms="4.2305958271026611e-01" purity="7.3881965875625610e-01" nType="-99"/>
        </Node>
        <Node pos="r" depth="1" NCoef="0" IVar="11" Cut="-3.2628944516181946e-01" cType="1" res="-2.0096442103385925e-01" rms="4.2483338713645935e-01" purity="2.6017507910728455e-01" nType="0">
          <Node pos="l" depth="2" NCoef="0" IVar="4" Cut="-4.3159142136573792e-01" cType="1" res="2.1338650584220886e-01" rms="4.4603669643402100e-01" purity="7.1539741754531860e-01" nType="0">
            <Node pos="l" depth="3" NCoef="0" IVar="-1" Cut="0.0000000000000000e+00" cType="1" res="3.8350096438080072e-03" rms="3.9867103099822998e-01" purity="8.0122220516204834e-01" nType="-99"/>
            <Node pos="r" depth="3" NCoef="0" IVar="-1" Cut="0.0000000000000000e+00" cType="1" res="-1.3557643978856504e-04" rms="4.9114805459976196e-01" purity="4.8798948526382446e-01" nType="-99"/>
          </Node>
          <Node pos="r" depth="2" NCoef="0" IVar="0" Cut="-9.3834298849105835e-01" cType="0" res="-2.8134033083915710e-01" rms="3.7032064795494080e-01" purity="1.7187090218067169e-01" nType="0">
            <Node pos="l" depth="3" NCoef="0" IVar="-1" Cut="0.0000000000000000e+00" cType="1" res="-3.1194535549730062e-03" rms="4.6999862790107727e-01" purity="3.6810794472694397e-01" nType="-99"/>
            <Node pos="r" depth="3" NCoef="0" IVar="-1" Cut="0.0000000000000000e+00" cType="1" res="-2.2630261257290840e-02" rms="3.3259087800979614e-01" purity="1.2819129228591919e-01" nType="-99"/>
          </Node>
        </Node>
      </Node>
    </BinaryTree>
    <BinaryTree type="DecisionTree" boostWeight="1.0000000000000000e+00" itree="5">
      <Node pos="s" depth="0" NCoef="0" IVar="0" Cut="-9.0751445293426514e-01" cType="0" res="2.6735248044133186e-02" rms="4.7171270847320557e-01" purity="5.0001078844070435e-01" nType="0">
        <Node pos="l" depth="1" NCoef="0" IVar="8" Cut="3.7849517539143562e-03" cType="0" res="4.4946989417076111e-01" rms="1.8842729926109314e-01" purity="9.6047776937484741e-01" nType="0">
          <Node pos="l" depth="2" NCoef="0" IVar="-1" Cut="0.0000000000000000e+00" cType="1" res="5.0811064429581165e-03" rms="9.9639900028705597e-02" purity="9.8981893062591553e-01" nType="-99"/>
          <Node pos="r" depth="2" NCoef="0" IVar="-1" Cut="0.0000000000000000e+00" cType="1" res="3.2547563314437866e-03" rms="4.3123552203178406e-01" purity="7.2262972593307495e-01" nType="-99"/>
        </Node>
        <Node pos="r" depth="1" NCoef="0" IVar="11" Cut="-3.2927623391151428e-01" cType="1" res="-1.9592380523681641e-01" rms="4.2108115553855896e-01" purity="2.5747770071029663e-01" nType="0">
          <Node pos="l" depth="2" NCoef="0" IVar="4" Cut="-4.2563989758491516e-01" cType="1" res="2.1118955314159393e-01" rms="4.4624397158622742e-01" purity="7.1451675891876221e-01" nType="0">
            <Node pos="l" depth="3" NCoef="0" IVar="-1" Cut="0.0000000000000000e+00" cType="1" res="3.8156679365783930e-03" rms="3.9992100000381470e-01" purity="7.9954159259796143e-01" nType="-99"/>
            <Node pos="r" depth="3" NCoef="0" IVar="-1" Cut="0.0000000000000000e+00" cType="1" res="-3.2610248308628798e-04" rms="4.9105328321456909e-01" purity="4.7615537047386169e-01" nType="-99"/>
          </Node>
          <Node pos="r" depth="2" NCoef="0" IVar="0" Cut="-9.5155519247055054e-01" cType="0" res="-2.7349656820297241e-01" rms="3.6817440390586853e-01" purity="1.7039190232753754e-01" nType="0">
            <Node pos="l" depth="3" NCoef="0" IVar="-1" Cut="0.0000000000000000e+00" cType="1" res="-5.4002227261662483e-03" rms="4.4627016782760620e-01" purity="2.9828757047653198e-01" nType="-99"/>
            <Node pos="r" depth="3" NCoef="0" IVar="-1" Cut="0.0000000000000000e+00" cType="1" res="-2.5728119537234306e-02" rms="3.1100779771804810e-01" purity="1.0983030498027802e-01" nType="-99"/>
          </Node>
        </Node>
      </Node>
    </BinaryTree>
    <BinaryTree type="DecisionTree" boostWeight="1.0000000000000000e+00" itree="6">
      <Node pos="s" depth="0" NCoef="0" IVar="0" Cut="-9.0971648693084717e-01" cType="0" res="3.0133089050650597e-02" rms="4.6722227334976196e-01" purity="4.9902591109275818e-01" nType="0">
        <Node pos="l" depth="1" NCoef="0" IVar="4" Cut="-4.1231194138526917e-01" cType="1" res="4.2332574725151062e-01" rms="2.3688443005084991e-01" purity="9.3451797962188721e-01" nType="0">
          <Node pos="l" depth="2" NCoef="0" IVar="-1" Cut="0.0000000000000000e+00" cType="1" res="5.0076609477400780e-03" rms="1.4069531857967377e-01" purity="9.7949564456939697e-01" nType="-99"/>
          <Node pos="r" depth="2" NCoef="0" IVar="-1" Cut="0.0000000000000000e+00" cType="1" res="-4.5412909239530563e-03" rms="4.4177049398422241e-01" purity="3.1588006019592285e-01" nType="-99"/>
        </Node>
        <Node pos="r" depth="1" NCoef="0" IVar="11" Cut="-3.2924032211303711e-01" cType="1" res="-2.0530983805656433e-01" rms="4.0914955735206604e-01" purity="2.3825415968894958e-01" nType="0">
          <Node pos="l" depth="2" NCoef="0" IVar="11" Cut="-4.8748493194580078e-01" cType="1" res="1.9026847183704376e-01" rms="4.5535472035408020e-01" purity="6.9490027427673340e-01" nType="0">
            <Node pos="l" depth="3" NCoef="0" IVar="-1" Cut="0.0000000000000000e+00" cType="1" res="3.9515350945293903e-03" rms="3.8531062006950378e-01" purity="8.1361919641494751e-01" nType="-99"/>
            <Node pos="r" depth="3" NCoef="0" IVar="-1" Cut="0.0000000000000000e+00" cType="1" res="6.2891544075682759e-04" rms="4.9353903532028198e-01" purity="5.3495413064956665e-01" nType="-99"/>
          </Node>
          <Node pos="r" depth="2" NCoef="0" IVar="11" Cut="-1.2754167430102825e-02" cType="1" res="-2.7433979511260986e-01" rms="3.5827502608299255e-01" purity="1.5856765210628510e-01" nType="0">
            <Node pos="l" depth="3" NCoef="0" IVar="-1" Cut="0.0000000000000000e+00" cType="1" res="-5.3519406355917454e-03" rms="4.4502449035644531e-01" purity="2.8924900293350220e-01" nType="-99"/>
            <Node pos="r" depth="3" NCoef="0" IVar="-1" Cut="0.0000000000000000e+00" cType="1" res="-2.5051696226000786e-02" rms="3.1097257137298584e-01" purity="1.1197857558727264e-01" nType="-99"/>
          </Node>
        </Node>
      </Node>
    </BinaryTree>
    <BinaryTree type="DecisionTree" boostWeight="1.0000000000000000e+00" itree="7">
      <Node pos="s" depth="0" NCoef="0" IVar="0" Cut="-9.0476191043853760e-01" cType="0" res="3.5435933619737625e-02" rms="4.6265524625778198e-01" purity="5.0021141767501831e-01" nType="0">
        <Node pos="l" depth="1" NCoef="0" IVar="8" Cut="1.8300358206033707e-02" cType="0" res="4.4496190547943115e-01" rms="1.8723881244659424e-01" purity="9.6068352460861206e-01" nType="0">
          <Node pos="l" depth="2" NCoef="0" IVar="-1" Cut="0.0000000000000000e+00" cType="1" res="5.0335614942014217e-03" rms="9.7644381225109100e-02" purity="9.9021130800247192e-01" nType="-99"/>
          <Node pos="r" depth="2" NCoef="0" IVar="-1" Cut="0.0000000000000000e+00" cType="1" res="3.4230509772896767e-03" rms="4.1605994105339050e-01" purity="7.4909168481826782e-01" nType="-99"/>
        </Node>
        <Node pos="r" depth="1" NCoef="0" IVar="11" Cut="-3.3333334326744080e-01" cType="1" res="-1.7930315434932709e-01" rms="4.1695538163185120e-01" purity="2.5875824689865112e-01" nType="0">
          <Node pos="l" depth="2" NCoef="0" IVar="4" Cut="-4.2305126786231995e-01" cType="1" res="2.1363998949527740e-01" rms="4.4308462738990784e-01" purity="7.1981245279312134e-01" nType="0">
            <Node pos="l" depth="3" NCoef="0" IVar="-1" Cut="0.0000000000000000e+00" cType="1" res="3.7939168978482485e-03" rms="3.9634209871292114e-01" purity="8.0394452810287476e-01" nType="-99"/>
            <Node pos="r" depth="3" NCoef="0" IVar="-1" Cut="0.0000000000000000e+00" cType="1" res="-4.1929321014322340e-04" rms="4.9041047692298889e-01" purity="4.7240912914276123e-01" nType="-99"/>
          </Node>
          <Node pos="r" depth="2" NCoef="0" IVar="11" Cut="4.7619275748729706e-02" cType="1" res="-2.5313583016395569e-01" rms="3.6764934659004211e-01" purity="1.7212772369384766e-01" nType="0">
            <Node pos="l" depth="3" NCoef="0" IVar="-1" Cut="0.0000000000000000e+00" cType="1" res="-5.2913809195160866e-03" rms="4.4155299663543701e-01" purity="2.8743967413902283e-01" nType="-99"/>
            <Node pos="r" depth="3" NCoef="0" IVar="-1" Cut="0.0000000000000000e+00" cType="1" res="-2.4425202980637550e-02" rms="3.0979260802268982e-01" purity="1.1206451058387756e-01" nType="-99"/>
          </Node>
        </Node>
      </Node>
    </BinaryTree>
    <BinaryTree type="DecisionTree" boostWeight="1.0000000000000000e+00" itree="8">
      <Node pos="s" depth="0" NCoef="0" IVar="0" Cut="-9.0476191043853760e-01" cType="0" res="3.6902867257595062e-02" rms="4.5846360921859741e-01" purity="4.9768131971359253e-01" nType="0">
        <Node pos="l" depth="1" NCoef="0" IVar="8" Cut="9.6390927210450172e-03" cType="0" res="4.4221049547195435e-01" rms="1.8790924549102783e-01" purity="9.6033614873886108e-01" nType="0">
          <Node pos="l" depth="2" NCoef="0" IVar="-1" Cut="0.0000000000000000e+00" cType="1" res="5.0075068138539791e-03" rms="9.8649173974990845e-02" purity="9.9000203609466553e-01" nType="-99"/>
          <Node pos="r" depth="2" NCoef="0" IVar="-1" Cut="0.0000000000000000e+00" cType="1" res="3.2738405279815197e-03" rms="4.2405679821968079e-01" purity="7.3399859666824341e-01" nType="-99"/>
        </Node>
        <Node pos="r" depth="1" NCoef="0" IVar="11" Cut="-2.3429457843303680e-01" cType="1" res="-1.7467790842056274e-01" rms="4.1347116231918335e-01" purity="2.5616383552551270e-01" nType="0">
          <Node pos="l" depth="2" NCoef="0" IVar="4" Cut="-3.3484616875648499e-01" cType="1" res="1.4281843602657318e-01" rms="4.6884530782699585e-01" purity="6.3892328739166260e-01" nType="0">
            <Node pos="l" depth="3" NCoef="0" IVar="-1" Cut="0.0000000000000000e+00" cType="1" res="3.1397542916238308e-03" rms="4.4410610198974609e-01" purity="7.1618837118148804e-01" nType="-99"/>
            <Node pos="r" depth="3" NCoef="0" IVar="-1" Cut="0.0000000000000000e+00" cType="1" res="-1.0329825803637505e-02" rms="4.0710827708244324e-01" purity="2.2062639892101288e-01" nType="-99"/>
          </Node>
          <Node pos="r" depth="2" NCoef="0" IVar="0" Cut="-9.2953479290008545e-01" cType="0" res="-2.5936663150787354e-01" rms="3.5194551944732666e-01" purity="1.5406690537929535e-01" nType="0">
            <Node pos="l" depth="3" NCoef="0" IVar="-1" Cut="0.0000000000000000e+00" cType="1" res="-1.2145796790719032e-03" rms="4.7625517845153809e-01" purity="4.1773521900177002e-01" nType="-99"/>
            <Node pos="r" depth="3" NCoef="0" IVar="-1" Cut="0.0000000000000000e+00" cType="1" res="-1.9663810729980469e-02" rms="3.3012691140174866e-01" purity="1.2872701883316040e-01" nType="-99"/>
          </Node>
        </Node>
      </Node>
    </BinaryTree>
    <BinaryTree type="DecisionTree" boostWeight="1.0000000000000000e+00" itree="9">
      <Node pos="s" depth="0" NCoef="0" IVar="0" Cut="-8.9980733394622803e-01" cType="0" res="4.3368391692638397e-02" rms="4.5451593399047852e-01" purity="5.0087666511535645e-01" nType="0">
        <Node pos="l" depth="1" NCoef="0" IVar="8" Cut="2.0296005532145500e-02" cType="0" res="4.4025757908821106e-01" rms="1.8669642508029938e-01" purity="9.6081018447875977e-01" nType="0">
          <Node pos="l" depth="2" NCoef="0" IVar="-1" Cut="0.0000000000000000e+00" cType="1" res="4.9845129251480103e-03" rms="9.6663318574428558e-02" purity="9.9040812253952026e-01" nType="-99"/>
          <Node pos="r" depth="2" NCoef="0" IVar="-1" Cut="0.0000000000000000e+00" cType="1" res="3.4001211170107126e-03" rms="4.1588312387466431e-01" purity="7.4919176101684570e-01" nType="-99"/>
        </Node>
        <Node pos="r" depth="1" NCoef="0" IVar="11" Cut="-3.2648253440856934e-01" cType="1" res="-1.6531608998775482e-01" rms="4.1292390227317810e-01" purity="2.5904351472854614e-01" nType="0">
          <Node pos="l" depth="2" NCoef="0" IVar="11" Cut="-4.8438623547554016e-01" cType="1" res="2.0597057044506073e-01" rms="4.4479331374168396e-01" purity="7.1376335620880127e-01" nType="0">
            <Node pos="l" depth="3" NCoef="0" IVar="-1" Cut="0.0000000000000000e+00" cType="1" res="3.9821038953959942e-03" rms="3.7352573871612549e-01" purity="8.2601356506347656e-01" nType="-99"/>
            <Node pos="r" depth="3" NCoef="0" IVar="-1" Cut="0.0000000000000000e+00" cType="1" res="9.5380953280255198e-04" rms="4.9024662375450134e-01" purity="5.4911679029464722e-01" nType="-99"/>
          </Node>
          <Node pos="r" depth="2" NCoef="0" IVar="4" Cut="-3.2494974136352539e-01" cType="1" res="-2.3683714866638184e-01" rms="3.6547303199768066e-01" purity="1.7145067453384399e-01" nType="0">
            <Node pos="l" depth="3" NCoef="0" IVar="-1" Cut="0.0000000000000000e+00" cType="1" res="-9.0918075293302536e-03" rms="3.9644846320152283e-01" purity="2.1349196135997772e-01" nType="-99"/>
            <Node pos="r" depth="3" NCoef="0" IVar="-1" Cut="0.0000000000000000e+00" cType="1" res="-6.0569696128368378e-02" rms="1.9540031254291534e-01" purity="4.0079012513160706e-02" nType="-99"/>
          </Node>
        </Node>
      </Node>
    </BinaryTree>
    <BinaryTree type="DecisionTree" boostWeight="1.0000000000000000e+00" itree="10">
      <Node pos="s" depth="0" NCoef="0" IVar="0" Cut="-8.9980733394622803e-01" cType="0" res="4.7987893223762512e-02" rms="4.4947826862335205e-01" purity="5.0070607662200928e-01" nType="0">
        <Node pos="l" depth="1" NCoef="0" IVar="5" Cut="1.6743497550487518e-01" cType="0" res="4.3772569298744202e-01" rms="1.8692718446254730e-01" purity="9.6067643165588379e-01" nType="0">
          <Node pos="l" depth="2" NCoef="0" IVar="-1" Cut="0.0000000000000000e+00" cType="1" res="4.9479687586426735e-03" rms="1.0868661105632782e-01" purity="9.8770540952682495e-01" nType="-99"/>
          <Node pos="r" depth="2" NCoef="0" IVar="-1" Cut="0.0000000000000000e+00" cType="1" res="3.1108064576983452e-03" rms="4.3069982528686523e-01" purity="7.1892637014389038e-01" nType="-99"/>
        </Node>
        <Node pos="r" depth="1" NCoef="0" IVar="11" Cut="-2.3809523880481720e-01" cType="1" res="-1.5613251924514771e-01" rms="4.1027179360389709e-01" purity="2.5980219244956970e-01" nType="0">
          <Node pos="l" depth="2" NCoef="0" IVar="4" Cut="-3.3484616875648499e-01" cType="1" res="1.5021747350692749e-01" rms="4.6416154503822327e-01" purity="6.4622598886489868e-01" nType="0">
            <Node pos="l" depth="3" NCoef="0" IVar="-1" Cut="0.0000000000000000e+00" cType="1" res="3.1382038723677397e-03" rms="4.4053265452384949e-01" purity="7.2261232137680054e-01" nType="-99"/>
            <Node pos="r" depth="3" NCoef="0" IVar="-1" Cut="0.0000000000000000e+00" cType="1" res="-9.5774447545409203e-03" rms="4.1610139608383179e-01" purity="2.3701490461826324e-01" nType="-99"/>
          </Node>
          <Node pos="r" depth="2" NCoef="0" IVar="0" Cut="-9.2953479290008545e-01" cType="0" res="-2.3784841597080231e-01" rms="3.5219621658325195e-01" purity="1.5672737360000610e-01" nType="0">
            <Node pos="l" depth="3" NCoef="0" IVar="-1" Cut="0.0000000000000000e+00" cType="1" res="-8.1976095680147409e-04" rms="4.6966493129730225e-01" purity="4.2067784070968628e-01" nType="-99"/>
            <Node pos="r" depth="3" NCoef="0" IVar="-1" Cut="0.0000000000000000e+00" cType="1" res="-1.8438873812556267e-02" rms="3.3142322301864624e-01" purity="1.3118511438369751e-01" nType="-99"/>
          </Node>
        </Node>
      </Node>
    </BinaryTree>
    <BinaryTree type="DecisionTree" boostWeight="1.0000000000000000e+00" itree="11">
      <Node pos="s" depth="0" NCoef="0" IVar="0" Cut="-9.0476191043853760e-01" cType="0" res="5.0087127834558487e-02" rms="4.4569301605224609e-01" purity="4.9958521127700806e-01" nType="0">
        <Node pos="l" depth="1" NCoef="0" IVar="8" Cut="1.8300358206033707e-02" cType="0" res="4.3518072366714478e-01" rms="1.8729196488857269e-01" purity="9.6046608686447144e-01" nType="0">
          <Node pos="l" depth="2" NCoef="0" IVar="-1" Cut="0.0000000000000000e+00" cType="1" res="4.9364129081368446e-03" rms="9.7629956901073456e-02" purity="9.9021744728088379e-01" nType="-99"/>
          <Node pos="r" depth="2" NCoef="0" IVar="-1" Cut="0.0000000000000000e+00" cType="1" res="3.3305226825177670e-03" rms="4.1809439659118652e-01" purity="7.4524927139282227e-01" nType="-99"/>
        </Node>
        <Node pos="r" depth="1" NCoef="0" IVar="11" Cut="-3.3364084362983704e-01" cType="1" res="-1.5150573849678040e-01" rms="4.0742442011833191e-01" purity="2.5831842422485352e-01" nType="0">
          <Node pos="l" depth="2" NCoef="0" IVar="11" Cut="-4.9229872226715088e-01" cType="1" res="2.1026585996150970e-01" rms="4.4054538011550903e-01" purity="7.2071027755737305e-01" nType="0">
            <Node pos="l" depth="3" NCoef="0" IVar="-1" Cut="0.0000000000000000e+00" cType="1" res="3.9868126623332500e-03" rms="3.6869686841964722e-01" purity="8.3094841241836548e-01" nType="-99"/>
            <Node pos="r" depth="3" NCoef="0" IVar="-1" Cut="0.0000000000000000e+00" cType="1" res="1.0733928065747023e-03" rms="4.8728048801422119e-01" purity="5.6603252887725830e-01" nType="-99"/>
          </Node>
          <Node pos="r" depth="2" NCoef="0" IVar="0" Cut="-9.3834298849105835e-01" cType="0" res="-2.1980847418308258e-01" rms="3.6237666010856628e-01" purity="1.7101852595806122e-01" nType="0">
            <Node pos="l" depth="3" NCoef="0" IVar="-1" Cut="0.0000000000000000e+00" cType="1" res="-1.9233049824833870e-03" rms="4.5972016453742981e-01" purity="3.7026479840278625e-01" nType="-99"/>
            <Node pos="r" depth="3" NCoef="0" IVar="-1" Cut="0.0000000000000000e+00" cType="1" res="-1.8435856327414513e-02" rms="3.2719025015830994e-01" purity="1.2644557654857635e-01" nType="-99"/>
          </Node>
        </Node>
      </Node>
    </BinaryTree>
    <BinaryTree type="DecisionTree" boostWeight="1.0000000000000000e+00" itree="12">
      <Node pos="s" depth="0" NCoef="0" IVar="0" Cut="-9.0476191043853760e-01" cType="0" res="5.3875263780355453e-02" rms="4.4218635559082031e-01" purity="5.0056308507919312e-01" nType="0">
        <Node pos="l" depth="1" NCoef="0" IVar="5" Cut="1.6276764869689941e-01" cType="0" res="4.3305975198745728e-01" rms="1.8657287955284119e-01" purity="9.6073871850967407e-01" nType="0">
          <Node pos="l" depth="2" NCoef="0" IVar="-1" Cut="0.0000000000000000e+00" cType="1" res="4.8998710699379444e-03" rms="1.0918763279914856e-01" purity="9.8757648468017578e-01" nType="-99"/>
          <Node pos="r" depth="2" NCoef="0" IVar="-1" Cut="0.0000000000000000e+00" cType="1" res="2.9779165051877499e-03" rms="4.3474572896957397e-01" purity="7.0994353294372559e-01" nType="-99"/>
        </Node>
        <Node pos="r" depth="1" NCoef="0" IVar="11" Cut="-3.2514289021492004e-01" cType="1" res="-1.4729365706443787e-01" rms="4.0502619743347168e-01" purity="2.5642582774162292e-01" nType="0">
          <Node pos="l" depth="2" NCoef="0" IVar="11" Cut="-4.8274105787277222e-01" cType="1" res="1.9845308363437653e-01" rms="4.4563341140747070e-01" purity="7.0908284187316895e-01" nType="0">
            <Node pos="l" depth="3" NCoef="0" IVar="-1" Cut="0.0000000000000000e+00" cType="1" res="3.9142030291259289e-03" rms="3.7767860293388367e-01" purity="8.2025516033172607e-01" nType="-99"/>
            <Node pos="r" depth="3" NCoef="0" IVar="-1" Cut="0.0000000000000000e+00" cType="1" res="9.2634942848235369e-04" rms="4.8901265859603882e-01" purity="5.5225110054016113e-01" nType="-99"/>
          </Node>
          <Node pos="r" depth="2" NCoef="0" IVar="0" Cut="-9.3834298849105835e-01" cType="0" res="-2.1375165879726410e-01" rms="3.6057204008102417e-01" purity="1.6941797733306885e-01" nType="0">
            <Node pos="l" depth="3" NCoef="0" IVar="-1" Cut="0.0000000000000000e+00" cType="1" res="-1.9554349128156900e-03" rms="4.5939022302627563e-01" purity="3.6845955252647400e-01" nType="-99"/>
            <Node pos="r" depth="3" NCoef="0" IVar="-1" Cut="0.0000000000000000e+00" cType="1" res="-1.8148839473724365e-02" rms="3.2566282153129578e-01" purity="1.2489637732505798e-01" nType="-99"/>
          </Node>
        </Node>
      </Node>
    </BinaryTree>
    <BinaryTree type="DecisionTree" boostWeight="1.0000000000000000e+00" itree="13">
      <Node pos="s" depth="0" NCoef="0" IVar="0" Cut="-9.0476191043853760e-01" cType="0" res="5.6222043931484222e-02" rms="4.3901351094245911e-01" purity="4.9970078468322754e-01" nType="0">
        <Node pos="l" depth="1" NCoef="0" IVar="8" Cut="1.5114233829081059e-02" cType="0" res="4.3058863282203674e-01" rms="1.8679556250572205e-01" purity="9.6060365438461304e-01" nType="0">
          <Node pos="l" depth="2" NCoef="0" IVar="-1" Cut="0.0000000000000000e+00" cType="1" res="4.8895799554884434e-03" rms="9.8426721990108490e-02" purity="9.9005168676376343e-01" nType="-99"/>
          <Node pos="r" depth="2" NCoef="0" IVar="-1" Cut="0.0000000000000000e+00" cType="1" res="3.2383874058723450e-03" rms="4.1962856054306030e-01" purity="7.4228549003601074e-01" nType="-99"/>
        </Node>
        <Node pos="r" depth="1" NCoef="0" IVar="11" Cut="-3.3333334326744080e-01" cType="1" res="-1.4037665724754333e-01" rms="4.0419262647628784e-01" purity="2.5765749812126160e-01" nType="0">
          <Node pos="l" depth="2" NCoef="0" IVar="4" Cut="-4.3159142136573792e-01" cType="1" res="2.0379368960857391e-01" rms="4.4210609793663025e-01" purity="7.1675103902816772e-01" nType="0">
            <Node pos="l" depth="3" NCoef="0" IVar="-1" Cut="0.0000000000000000e+00" cType="1" res="3.6876783706247807e-03" rms="3.9643242955207825e-01" purity="8.0311632156372070e-01" nType="-99"/>
            <Node pos="r" depth="3" NCoef="0" IVar="-1" Cut="0.0000000000000000e+00" cType="1" res="-3.5572847991716117e-05" rms="4.8793256282806396e-01" purity="4.8538607358932495e-01" nType="-99"/>
          </Node>
          <Node pos="r" depth="2" NCoef="0" IVar="0" Cut="-9.5155519247055054e-01" cType="0" res="-2.0449516177177429e-01" rms="3.6223641037940979e-01" purity="1.7212894558906555e-01" nType="0">
            <Node pos="l" depth="3" NCoef="0" IVar="-1" Cut="0.0000000000000000e+00" cType="1" res="-3.6603852640837431e-03" rms="4.3783405423164368e-01" purity="3.0202057957649231e-01" nType="-99"/>
            <Node pos="r" depth="3" NCoef="0" IVar="-1" Cut="0.0000000000000000e+00" cType="1" res="-2.0898448303341866e-02" rms="3.0927437543869019e-01" purity="1.1049706488847733e-01" nType="-99"/>
          </Node>
        </Node>
      </Node>
    </BinaryTree>
    <BinaryTree type="DecisionTree" boostWeight="1.0000000000000000e+00" itree="14">
      <Node pos="s" depth="0" NCoef="0" IVar="0" Cut="-8.6677676439285278e-01" cType="0" res="5.8008212596178055e-02" rms="4.3559417128562927e-01" purity="4.9838206171989441e-01" nType="0">
        <Node pos="l" depth="1" NCoef="0" IVar="-1" Cut="0.0000000000000000e+00" cType="1" res="4.8792134039103985e-03" rms="9.3630053102970123e-02" purity="9.9067473411560059e-01" nType="-99"/>
        <Node pos="r" depth="1" NCoef="0" IVar="11" Cut="-2.3429457843303680e-01" cType="1" res="-1.0144689679145813e-01" rms="4.1605609655380249e-01" purity="3.0152159929275513e-01" nType="0">
          <Node pos="l" depth="2" NCoef="0" IVar="4" Cut="-3.3184519410133362e-01" cType="1" res="1.8947924673557281e-01" rms="4.4250226020812988e-01" purity="6.9009220600128174e-01" nType="0">
            <Node pos="l" depth="3" NCoef="0" IVar="-1" Cut="0.0000000000000000e+00" cType="1" res="3.4950438421219587e-03" rms="4.1208010911941528e-01" purity="7.6477319002151489e-01" nType="-99"/>
            <Node pos="r" depth="3" NCoef="0" IVar="-1" Cut="0.0000000000000000e+00" cType="1" res="-1.0334869846701622e-02" rms="3.9600795507431030e-01" purity="2.0836219191551208e-01" nType="-99"/>
          </Node>
          <Node pos="r" depth="2" NCoef="0" IVar="0" Cut="-9.2733275890350342e-01" cType="0" res="-1.9300787150859833e-01" rms="3.6185055971145630e-01" purity="1.7922972142696381e-01" nType="0">
            <Node pos="l" depth="3" NCoef="0" IVar="-1" Cut="0.0000000000000000e+00" cType="1" res="9.5475954003632069e-04" rms="4.6856555342674255e-01" purity="5.1242208480834961e-01" nType="-99"/>
            <Node pos="r" depth="3" NCoef="0" IVar="-1" Cut="0.0000000000000000e+00" cType="1" res="-1.6736958175897598e-02" rms="3.2859975099563599e-01" purity="1.2926104664802551e-01" nType="-99"/>
          </Node>
        </Node>
      </Node>
    </BinaryTree>
    <BinaryTree type="DecisionTree" boostWeight="1.0000000000000000e+00" itree="15">
      <Node pos="s" depth="0" NCoef="0" IVar="0" Cut="-9.0476191043853760e-01" cType="0" res="6.3292138278484344e-02" rms="4.3247133493423462e-01" purity="5.0131458044052124e-01" nType="0">
        <Node pos="l" depth="1" NCoef="0" IVar="5" Cut="1.6748809814453125e-01" cType="0" res="4.2628842592239380e-01" rms="1.8581476807594299e-01" purity="9.6081507205963135e-01" nType="0">
          <Node pos="l" depth="2" NCoef="0" IVar="-1" Cut="0.0000000000000000e+00" cType="1" res="4.8341401852667332e-03" rms="1.0774727910757065e-01" purity="9.8788142204284668e-01" nType="-99"/>
          <Node pos="r" depth="2" NCoef="0" IVar="-1" Cut="0.0000000000000000e+00" cType="1" res="3.0008843168616295e-03" rms="4.2628526687622070e-01" purity="7.2632235288619995e-01" nType="-99"/>
        </Node>
        <Node pos="r" depth="1" NCoef="0" IVar="11" Cut="-3.3377346396446228e-01" cType="1" res="-1.2731589376926422e-01" rms="4.0198194980621338e-01" purity="2.6003253459930420e-01" nType="0">
          <Node pos="l" depth="2" NCoef="0" IVar="4" Cut="-4.2359369993209839e-01" cType="1" res="2.0794266462326050e-01" rms="4.3810573220252991e-01" purity="7.2307479381561279e-01" nType="0">
            <Node pos="l" depth="3" NCoef="0" IVar="-1" Cut="0.0000000000000000e+00" cType="1" res="3.6354316398501396e-03" rms="3.9457145333290100e-01" purity="8.0551660060882568e-01" nType="-99"/>
            <Node pos="r" depth="3" NCoef="0" IVar="-1" Cut="0.0000000000000000e+00" cType="1" res="-3.1820507138036191e-04" rms="4.8696455359458923e-01" purity="4.8929935693740845e-01" nType="-99"/>
          </Node>
          <Node pos="r" depth="2" NCoef="0" IVar="11" Cut="-1.6519341617822647e-02" cType="1" res="-1.9108240306377411e-01" rms="3.6107200384140015e-01" purity="1.7196141183376312e-01" nType="0">
            <Node pos="l" depth="3" NCoef="0" IVar="-1" Cut="0.0000000000000000e+00" cType="1" res="-2.6804760564118624e-03" rms="4.4571900367736816e-01" purity="3.1402352452278137e-01" nType="-99"/>
            <Node pos="r" depth="3" NCoef="0" IVar="-1" Cut="0.0000000000000000e+00" cType="1" res="-1.8239850178360939e-02" rms="3.1539988517761230e-01" purity="1.2018731236457825e-01" nType="-99"/>
          </Node>
        </Node>
      </Node>
    </BinaryTree>
    <BinaryTree type="DecisionTree" boostWeight="1.0000000000000000e+00" itree="16">
      <Node pos="s" depth="0" NCoef="0" IVar="0" Cut="-8.6677676439285278e-01" cType="0" res="6.3953034579753876e-02" rms="4.2929911613464355e-01" purity="4.9910950660705566e-01" nType="0">
        <Node pos="l" depth="1" NCoef="0" IVar="-1" Cut="0.0000000000000000e+00" cType="1" res="4.8351450823247433e-03" rms="9.3939319252967834e-02" purity="9.9060100317001343e-01" nType="-99"/>
        <Node pos="r" depth="1" NCoef="0" IVar="11" Cut="-2.3813629150390625e-01" cType="1" res="-9.1250598430633545e-02" rms="4.1253718733787537e-01" purity="3.0250009894371033e-01" nType="0">
          <Node pos="l" depth="2" NCoef="0" IVar="4" Cut="-3.3018174767494202e-01" cType="1" res="1.9219823181629181e-01" rms="4.3915528059005737e-01" purity="6.9563615322113037e-01" nType="0">
            <Node pos="l" depth="3" NCoef="0" IVar="-1" Cut="0.0000000000000000e+00" cType="1" res="3.4693880006670952e-03" rms="4.0973335504531860e-01" purity="7.6828700304031372e-01" nType="-99"/>
            <Node pos="r" depth="3" NCoef="0" IVar="-1" Cut="0.0000000000000000e+00" cType="1" res="-1.0336187668144703e-02" rms="4.0560322999954224e-01" purity="2.2234717011451721e-01" nType="-99"/>
          </Node>
          <Node pos="r" depth="2" NCoef="0" IVar="0" Cut="-9.2733275890350342e-01" cType="0" res="-1.7953240871429443e-01" rms="3.6098346114158630e-01" purity="1.8005552887916565e-01" nType="0">
            <Node pos="l" depth="3" NCoef="0" IVar="-1" Cut="0.0000000000000000e+00" cType="1" res="1.0345003101974726e-03" rms="4.6707677841186523e-01" purity="5.1568204164505005e-01" nType="-99"/>
            <Node pos="r" depth="3" NCoef="0" IVar="-1" Cut="0.0000000000000000e+00" cType="1" res="-1.5859050676226616e-02" rms="3.2838076353073120e-01" purity="1.2921905517578125e-01" nType="-99"/>
          </Node>
        </Node>
      </Node>
    </BinaryTree>
    <BinaryTree type="DecisionTree" boostWeight="1.0000000000000000e+00" itree="17">
      <Node pos="s" depth="0" NCoef="0" IVar="0" Cut="-9.0476191043853760e-01" cType="0" res="6.9227792322635651e-02" rms="4.2658522725105286e-01" purity="5.0230252742767334e-01" nType="0">
        <Node pos="l" depth="1" NCoef="0" IVar="5" Cut="1.6913855075836182e-01" cType="0" res="4.2209964990615845e-01" rms="1.8461130559444427e-01" purity="9.6114534139633179e-01" nType="0">
          <Node pos="l" depth="2" NCoef="0" IVar="-1" Cut="0.0000000000000000e+00" cType="1" res="4.7919023782014847e-03" rms="1.0758884996175766e-01" purity="9.8787587881088257e-01" nType="-99"/>
          <Node pos="r" depth="2" NCoef="0" IVar="-1" Cut="0.0000000000000000e+00" cType="1" res="2.9920034576207399e-03" rms="4.2571243643760681e-01" purity="7.2570836544036865e-01" nType="-99"/>
        </Node>
        <Node pos="r" depth="1" NCoef="0" IVar="11" Cut="-4.2418605089187622e-01" cType="1" res="-1.1750722676515579e-01" rms="3.9934292435646057e-01" purity="2.5948908925056458e-01" nType="0">
          <Node pos="l" depth="2" NCoef="0" IVar="-1" Cut="0.0000000000000000e+00" cType="1" res="3.5292399115860462e-03" rms="4.0193745493888855e-01" purity="7.8440058231353760e-01" nType="-99"/>
          <Node pos="r" depth="2" NCoef="0" IVar="4" Cut="-3.3218979835510254e-01" cType="1" res="-1.6830238699913025e-01" rms="3.7045457959175110e-01" purity="1.8960979580879211e-01" nType="0">
            <Node pos="l" depth="3" NCoef="0" IVar="-1" Cut="0.0000000000000000e+00" cType="1" res="-5.6939078494906425e-03" rms="4.0141266584396362e-01" purity="2.3649737238883972e-01" nType="-99"/>
            <Node pos="r" depth="3" NCoef="0" IVar="-1" Cut="0.0000000000000000e+00" cType="1" res="-4.6921975910663605e-02" rms="2.1040824055671692e-01" purity="4.6193987131118774e-02" nType="-99"/>
          </Node>
        </Node>
      </Node>
    </BinaryTree>
    <BinaryTree type="DecisionTree" boostWeight="1.0000000000000000e+00" itree="18">
      <Node pos="s" depth="0" NCoef="0" IVar="0" Cut="-8.9980733394622803e-01" cType="0" res="7.0670291781425476e-02" rms="4.2305341362953186e-01" purity="5.0013542175292969e-01" nType="0">
        <Node pos="l" depth="1" NCoef="0" IVar="5" Cut="1.6988459229469299e-01" cType="0" res="4.1912662982940674e-01" rms="1.8616339564323425e-01" purity="9.6040689945220947e-01" nType="0">
          <Node pos="l" depth="2" NCoef="0" IVar="-1" Cut="0.0000000000000000e+00" cType="1" res="4.7704237513244152e-03" rms="1.0767681896686554e-01" purity="9.8786371946334839e-01" nType="-99"/>
          <Node pos="r" depth="2" NCoef="0" IVar="-1" Cut="0.0000000000000000e+00" cType="1" res="2.9878357890993357e-03" rms="4.2757865786552429e-01" purity="7.2184187173843384e-01" nType="-99"/>
        </Node>
        <Node pos="r" depth="1" NCoef="0" IVar="11" Cut="-2.3429457843303680e-01" cType="1" res="-1.1128468066453934e-01" rms="3.9726826548576355e-01" purity="2.5979346036911011e-01" nType="0">
          <Node pos="l" depth="2" NCoef="0" IVar="4" Cut="-3.3516535162925720e-01" cType="1" res="1.5090298652648926e-01" rms="4.5627918839454651e-01" purity="6.4423704147338867e-01" nType="0">
            <Node pos="l" depth="3" NCoef="0" IVar="-1" Cut="0.0000000000000000e+00" cType="1" res="3.0669248662889004e-03" rms="4.3680128455162048e-01" purity="7.2124302387237549e-01" nType="-99"/>
            <Node pos="r" depth="3" NCoef="0" IVar="-1" Cut="0.0000000000000000e+00" cType="1" res="-8.4460722282528877e-03" rms="4.0661919116973877e-01" purity="2.2836877405643463e-01" nType="-99"/>
          </Node>
          <Node pos="r" depth="2" NCoef="0" IVar="0" Cut="-9.5155519247055054e-01" cType="0" res="-1.8261793255805969e-01" rms="3.4688207507133484e-01" purity="1.5519808232784271e-01" nType="0">
            <Node pos="l" depth="3" NCoef="0" IVar="-1" Cut="0.0000000000000000e+00" cType="1" res="-3.7988647818565369e-03" rms="4.2272356152534485e-01" purity="2.7350595593452454e-01" nType="-99"/>
            <Node pos="r" depth="3" NCoef="0" IVar="-1" Cut="0.0000000000000000e+00" cType="1" res="-2.1140301600098610e-02" rms="2.9886826872825623e-01" purity="1.0134432464838028e-01" nType="-99"/>
          </Node>
        </Node>
      </Node>
    </BinaryTree>
    <BinaryTree type="DecisionTree" boostWeight="1.0000000000000000e+00" itree="19">
      <Node pos="s" depth="0" NCoef="0" IVar="0" Cut="-8.7118083238601685e-01" cType="0" res="7.3829993605613708e-02" rms="4.1966986656188965e-01" purity="5.0103712081909180e-01" nType="0">
        <Node pos="l" depth="1" NCoef="0" IVar="-1" Cut="0.0000000000000000e+00" cType="1" res="4.7716698609292507e-03" rms="9.2562705278396606e-02" purity="9.9086350202560425e-01" nType="-99"/>
        <Node pos="r" depth="1" NCoef="0" IVar="11" Cut="-3.2617703080177307e-01" cType="1" res="-7.6072879135608673e-02" rms="4.0696907043457031e-01" purity="3.0330657958984375e-01" nType="0">
          <Node pos="l" depth="2" NCoef="0" IVar="4" Cut="-4.2920681834220886e-01" cType="1" res="2.3117846250534058e-01" rms="4.1719248890876770e-01" purity="7.5262379646301270e-01" nType="0">
            <Node pos="l" depth="3" NCoef="0" IVar="-1" Cut="0.0000000000000000e+00" cType="1" res="3.8133203051984310e-03" rms="3.6767753958702087e-01" purity="8.3564597368240356e-01" nType="-99"/>
            <Node pos="r" depth="3" NCoef="0" IVar="-1" Cut="0.0000000000000000e+00" cType="1" res="2.3661874001845717e-04" rms="4.7965446114540100e-01" purity="4.9055886268615723e-01" nType="-99"/>
          </Node>
          <Node pos="r" depth="2" NCoef="0" IVar="0" Cut="-9.2733275890350342e-01" cType="0" res="-1.4543350040912628e-01" rms="3.7094435095787048e-01" purity="2.0187520980834961e-01" nType="0">
            <Node pos="l" depth="3" NCoef="0" IVar="-1" Cut="0.0000000000000000e+00" cType="1" res="1.5738100046291947e-03" rms="4.5755991339683533e-01" purity="5.5596005916595459e-01" nType="-99"/>
            <Node pos="r" depth="3" NCoef="0" IVar="-1" Cut="0.0000000000000000e+00" cType="1" res="-1.2863357551395893e-02" rms="3.3904764056205750e-01" purity="1.4310844242572784e-01" nType="-99"/>
          </Node>
        </Node>
      </Node>
    </BinaryTree>
    <BinaryTree type="DecisionTree" boostWeight="1.0000000000000000e+00" itree="20">
      <Node pos="s" depth="0" NCoef="0" IVar="0" Cut="-8.6347371339797974e-01" cType="0" res="7.5089693069458008e-02" rms="4.1743800044059753e-01" purity="5.0013911724090576e-01" nType="0">
        <Node pos="l" depth="1" NCoef="0" IVar="-1" Cut="0.0000000000000000e+00" cType="1" res="4.7505875118076801e-03" rms="9.2920042574405670e-02" purity="9.9079000949859619e-01" nType="-99"/>
        <Node pos="r" depth="1" NCoef="0" IVar="11" Cut="-1.3819845020771027e-01" cType="1" res="-7.2768971323966980e-02" rms="4.0578255057334900e-01" purity="3.0278110504150391e-01" nType="0">
          <Node pos="l" depth="2" NCoef="0" IVar="4" Cut="-3.2990536093711853e-01" cType="1" res="1.4628337323665619e-01" rms="4.4651064276695251e-01" purity="6.2190449237823486e-01" nType="0">
            <Node pos="l" depth="3" NCoef="0" IVar="-1" Cut="0.0000000000000000e+00" cType="1" res="3.1779473647475243e-03" rms="4.2795738577842712e-01" purity="7.0315587520599365e-01" nType="-99"/>
            <Node pos="r" depth="3" NCoef="0" IVar="-1" Cut="0.0000000000000000e+00" cType="1" res="-1.2997575104236603e-02" rms="3.6526033282279968e-01" purity="1.7136448621749878e-01" nType="-99"/>
          </Node>
          <Node pos="r" depth="2" NCoef="0" IVar="0" Cut="-9.1522157192230225e-01" cType="0" res="-1.6988086700439453e-01" rms="3.4433597326278687e-01" purity="1.6130499541759491e-01" nType="0">
            <Node pos="l" depth="3" NCoef="0" IVar="-1" Cut="0.0000000000000000e+00" cType="1" res="1.6604523407295346e-03" rms="4.5971190929412842e-01" purity="5.7335084676742554e-01" nType="-99"/>
            <Node pos="r" depth="3" NCoef="0" IVar="-1" Cut="0.0000000000000000e+00" cType="1" res="-1.4651596546173096e-02" rms="3.2533225417137146e-01" purity="1.2946163117885590e-01" nType="-99"/>
          </Node>
        </Node>
      </Node>
    </BinaryTree>
    <BinaryTree type="DecisionTree" boostWeight="1.0000000000000000e+00" itree="21">
      <Node pos="s" depth="0" NCoef="0" IVar="0" Cut="-8.6677676439285278e-01" cType="0" res="7.6843172311782837e-02" rms="4.1472417116165161e-01" purity="4.9977767467498779e-01" nType="0">
        <Node pos="l" depth="1" NCoef="0" IVar="-1" Cut="0.0000000000000000e+00" cType="1" res="4.7297924757003784e-03" rms="9.3082897365093231e-02" purity="9.9076896905899048e-01" nType="-99"/>
        <Node pos="r" depth="1" NCoef="0" IVar="11" Cut="-2.3864069581031799e-01" cType="1" res="-6.9190971553325653e-02" rms="4.0397039055824280e-01" purity="3.0254507064819336e-01" nType="0">
          <Node pos="l" depth="2" NCoef="0" IVar="4" Cut="-3.3516535162925720e-01" cType="1" res="1.9100195169448853e-01" rms="4.3448355793952942e-01" purity="6.9503653049468994e-01" nType="0">
            <Node pos="l" depth="3" NCoef="0" IVar="-1" Cut="0.0000000000000000e+00" cType="1" res="3.4057169687002897e-03" rms="4.0808841586112976e-01" purity="7.6944380998611450e-01" nType="-99"/>
            <Node pos="r" depth="3" NCoef="0" IVar="-1" Cut="0.0000000000000000e+00" cType="1" res="-8.3372145891189575e-03" rms="4.0962460637092590e-01" purity="2.3061433434486389e-01" nType="-99"/>
          </Node>
          <Node pos="r" depth="2" NCoef="0" IVar="0" Cut="-9.2733275890350342e-01" cType="0" res="-1.5022321045398712e-01" rms="3.5717529058456421e-01" purity="1.8031090497970581e-01" nType="0">
            <Node pos="l" depth="3" NCoef="0" IVar="-1" Cut="0.0000000000000000e+00" cType="1" res="1.1779570486396551e-03" rms="4.6080705523490906e-01" purity="5.1541566848754883e-01" nType="-99"/>
            <Node pos="r" depth="3" NCoef="0" IVar="-1" Cut="0.0000000000000000e+00" cType="1" res="-1.4004576951265335e-02" rms="3.2761687040328979e-01" purity="1.2965996563434601e-01" nType="-99"/>
          </Node>
        </Node>
      </Node>
    </BinaryTree>
    <BinaryTree type="DecisionTree" boostWeight="1.0000000000000000e+00" itree="22">
      <Node pos="s" depth="0" NCoef="0" IVar="0" Cut="-9.0751445293426514e-01" cType="0" res="7.8844048082828522e-02" rms="4.1208404302597046e-01" purity="5.0006622076034546e-01" nType="0">
        <Node pos="l" depth="1" NCoef="0" IVar="8" Cut="1.5114233829081059e-02" cType="0" res="4.1064563393592834e-01" rms="1.8462516367435455e-01" purity="9.6064531803131104e-01" nType="0">
          <Node pos="l" depth="2" NCoef="0" IVar="-1" Cut="0.0000000000000000e+00" cType="1" res="4.7025033272802830e-03" rms="9.6656620502471924e-02" purity="9.9029737710952759e-01" nType="-99"/>
          <Node pos="r" depth="2" NCoef="0" IVar="-1" Cut="0.0000000000000000e+00" cType="1" res="3.0441898852586746e-03" rms="4.1867011785507202e-01" purity="7.3672014474868774e-01" nType="-99"/>
        </Node>
        <Node pos="r" depth="1" NCoef="0" IVar="11" Cut="-4.2090398073196411e-01" cType="1" res="-9.5334827899932861e-02" rms="3.9106494188308716e-01" purity="2.5828573107719421e-01" nType="0">
          <Node pos="l" depth="2" NCoef="0" IVar="-1" Cut="0.0000000000000000e+00" cType="1" res="3.4399859141558409e-03" rms="3.9863434433937073e-01" purity="7.8571718931198120e-01" nType="-99"/>
          <Node pos="r" depth="2" NCoef="0" IVar="11" Cut="-8.2592830061912537e-02" cType="1" res="-1.4382316172122955e-01" rms="3.6410757899284363e-01" purity="1.8614225089550018e-01" nType="0">
            <Node pos="l" depth="3" NCoef="0" IVar="-1" Cut="0.0000000000000000e+00" cType="1" res="-6.0876982752233744e-04" rms="4.5776879787445068e-01" purity="3.7559634447097778e-01" nType="-99"/>
            <Node pos="r" depth="3" NCoef="0" IVar="-1" Cut="0.0000000000000000e+00" cType="1" res="-1.3912579976022243e-02" rms="3.2227614521980286e-01" purity="1.2923449277877808e-01" nType="-99"/>
          </Node>
        </Node>
      </Node>
    </BinaryTree>
    <BinaryTree type="DecisionTree" boostWeight="1.0000000000000000e+00" itree="23">
      <Node pos="s" depth="0" NCoef="0" IVar="0" Cut="-9.0476191043853760e-01" cType="0" res="8.0153338611125946e-02" rms="4.1016155481338501e-01" purity="4.9913361668586731e-01" nType="0">
        <Node pos="l" depth="1" NCoef="0" IVar="8" Cut="1.6516447067260742e-02" cType="0" res="4.0812394022941589e-01" rms="1.8535877764225006e-01" purity="9.6031624078750610e-01" nType="0">
          <Node pos="l" depth="2" NCoef="0" IVar="-1" Cut="0.0000000000000000e+00" cType="1" res="4.6824417077004910e-03" rms="9.7364604473114014e-02" purity="9.9016797542572021e-01" nType="-99"/>
          <Node pos="r" depth="2" NCoef="0" IVar="-1" Cut="0.0000000000000000e+00" cType="1" res="3.0446187593042850e-03" rms="4.1660666465759277e-01" purity="7.4115443229675293e-01" nType="-99"/>
        </Node>
        <Node pos="r" depth="1" NCoef="0" IVar="11" Cut="-4.2857143282890320e-01" cType="1" res="-9.0945504605770111e-02" rms="3.9074710011482239e-01" purity="2.5853943824768066e-01" nType="0">
          <Node pos="l" depth="2" NCoef="0" IVar="-1" Cut="0.0000000000000000e+00" cType="1" res="3.4620540682226419e-03" rms="3.9622986316680908e-01" purity="7.8966814279556274e-01" nType="-99"/>
          <Node pos="r" depth="2" NCoef="0" IVar="4" Cut="-3.3358684182167053e-01" cType="1" res="-1.3698665797710419e-01" rms="3.6574777960777283e-01" purity="1.8916249275207520e-01" nType="0">
            <Node pos="l" depth="3" NCoef="0" IVar="-1" Cut="0.0000000000000000e+00" cType="1" res="-4.5459624379873276e-03" rms="3.9803266525268555e-01" purity="2.3681199550628662e-01" nType="-99"/>
            <Node pos="r" depth="3" NCoef="0" IVar="-1" Cut="0.0000000000000000e+00" cType="1" res="-4.1957203298807144e-02" rms="2.0595122873783112e-01" purity="4.4316880404949188e-02" nType="-99"/>
          </Node>
        </Node>
      </Node>
    </BinaryTree>
    <BinaryTree type="DecisionTree" boostWeight="1.0000000000000000e+00" itree="24">
      <Node pos="s" depth="0" NCoef="0" IVar="0" Cut="-9.0476191043853760e-01" cType="0" res="8.3772689104080200e-02" rms="4.0705999732017517e-01" purity="5.0087928771972656e-01" nType="0">
        <Node pos="l" depth="1" NCoef="0" IVar="8" Cut="5.2711623720824718e-03" cType="0" res="4.0626534819602966e-01" rms="1.8438111245632172e-01" purity="9.6066802740097046e-01" nType="0">
          <Node pos="l" depth="2" NCoef="0" IVar="-1" Cut="0.0000000000000000e+00" cType="1" res="4.6612643636763096e-03" rms="9.8447807133197784e-02" purity="9.8992431163787842e-01" nType="-99"/>
          <Node pos="r" depth="2" NCoef="0" IVar="-1" Cut="0.0000000000000000e+00" cType="1" res="2.8593584429472685e-03" rms="4.2389130592346191e-01" purity="7.2631376981735229e-01" nType="-99"/>
        </Node>
        <Node pos="r" depth="1" NCoef="0" IVar="11" Cut="-4.2857143282890320e-01" cType="1" res="-8.6071401834487915e-02" rms="3.8915202021598816e-01" purity="2.5872680544853210e-01" nType="0">
          <Node pos="l" depth="2" NCoef="0" IVar="-1" Cut="0.0000000000000000e+00" cType="1" res="3.4407540224492550e-03" rms="3.9674541354179382e-01" purity="7.8913199901580811e-01" nType="-99"/>
          <Node pos="r" depth="2" NCoef="0" IVar="11" Cut="-2.0404994487762451e-02" cType="1" res="-1.3158766925334930e-01" rms="3.6451515555381775e-01" purity="1.8877723813056946e-01" nType="0">
            <Node pos="l" depth="3" NCoef="0" IVar="-1" Cut="0.0000000000000000e+00" cType="1" res="-9.3533861218020320e-04" rms="4.4728329777717590e-01" purity="3.4915989637374878e-01" nType="-99"/>
            <Node pos="r" depth="3" NCoef="0" IVar="-1" Cut="0.0000000000000000e+00" cType="1" res="-1.4695006422698498e-02" rms="3.1358730792999268e-01" purity="1.2082569301128387e-01" nType="-99"/>
          </Node>
        </Node>
      </Node>
    </BinaryTree>
    <BinaryTree type="DecisionTree" boostWeight="1.0000000000000000e+00" itree="25">
      <Node pos="s" depth="0" NCoef="0" IVar="0" Cut="-8.9980733394622803e-01" cType="0" res="8.5534274578094482e-02" rms="4.0487629175186157e-01" purity="5.0096327066421509e-01" nType="0">
        <Node pos="l" depth="1" NCoef="0" IVar="8" Cut="8.8694719597697258e-03" cType="0" res="4.0426176786422729e-01" rms="1.8369989097118378e-01" purity="9.6093422174453735e-01" nType="0">
          <Node pos="l" depth="2" NCoef="0" IVar="-1" Cut="0.0000000000000000e+00" cType="1" res="4.6419533900916576e-03" rms="9.7922727465629578e-02" purity="9.9004542827606201e-01" nType="-99"/>
          <Node pos="r" depth="2" NCoef="0" IVar="-1" Cut="0.0000000000000000e+00" cType="1" res="2.8951831627637148e-03" rms="4.2312130331993103e-01" purity="7.2793281078338623e-01" nType="-99"/>
        </Node>
        <Node pos="r" depth="1" NCoef="0" IVar="11" Cut="-4.2095851898193359e-01" cType="1" res="-8.1624299287796021e-02" rms="3.8855895400047302e-01" purity="2.5972867012023926e-01" nType="0">
          <Node pos="l" depth="2" NCoef="0" IVar="-1" Cut="0.0000000000000000e+00" cType="1" res="3.3793575130403042e-03" rms="3.9964857697486877e-01" purity="7.8430992364883423e-01" nType="-99"/>
          <Node pos="r" depth="2" NCoef="0" IVar="11" Cut="-1.5233363024890423e-02" cType="1" res="-1.2738522887229919e-01" rms="3.6380887031555176e-01" purity="1.8808712065219879e-01" nType="0">
            <Node pos="l" depth="3" NCoef="0" IVar="-1" Cut="0.0000000000000000e+00" cType="1" res="-1.0209898464381695e-03" rms="4.4759029150009155e-01" purity="3.4852924942970276e-01" nType="-99"/>
            <Node pos="r" depth="3" NCoef="0" IVar="-1" Cut="0.0000000000000000e+00" cType="1" res="-1.4440191909670830e-02" rms="3.1119266152381897e-01" purity="1.1845615506172180e-01" nType="-99"/>
          </Node>
        </Node>
      </Node>
    </BinaryTree>
    <BinaryTree type="DecisionTree" boostWeight="1.0000000000000000e+00" itree="26">
      <Node pos="s" depth="0" NCoef="0" IVar="0" Cut="-8.9980733394622803e-01" cType="0" res="8.5462495684623718e-02" rms="4.0264740586280823e-01" purity="4.9891129136085510e-01" nType="0">
        <Node pos="l" depth="1" NCoef="0" IVar="8" Cut="1.5114233829081059e-02" cType="0" res="4.0190505981445312e-01" rms="1.8415175378322601e-01" purity="9.6067678928375244e-01" nType="0">
          <Node pos="l" depth="2" NCoef="0" IVar="-1" Cut="0.0000000000000000e+00" cType="1" res="4.6232696622610092e-03" rms="9.7357667982578278e-02" purity="9.9016213417053223e-01" nType="-99"/>
          <Node pos="r" depth="2" NCoef="0" IVar="-1" Cut="0.0000000000000000e+00" cType="1" res="2.9656609985977411e-03" rms="4.1482785344123840e-01" purity="7.4408435821533203e-01" nType="-99"/>
        </Node>
        <Node pos="r" depth="1" NCoef="0" IVar="11" Cut="-4.2269033193588257e-01" cType="1" res="-8.0134525895118713e-02" rms="3.8651722669601440e-01" purity="2.5726553797721863e-01" nType="0">
          <Node pos="l" depth="2" NCoef="0" IVar="-1" Cut="0.0000000000000000e+00" cType="1" res="3.3674503210932016e-03" rms="4.0100398659706116e-01" purity="7.8246945142745972e-01" nType="-99"/>
          <Node pos="r" depth="2" NCoef="0" IVar="0" Cut="-9.5155519247055054e-01" cType="0" res="-1.2407989054918289e-01" rms="3.6255145072937012e-01" purity="1.8732303380966187e-01" nType="0">
            <Node pos="l" depth="3" NCoef="0" IVar="-1" Cut="0.0000000000000000e+00" cType="1" res="-1.0194695787504315e-03" rms="4.3001249432563782e-01" purity="3.2549580931663513e-01" nType="-99"/>
            <Node pos="r" depth="3" NCoef="0" IVar="-1" Cut="0.0000000000000000e+00" cType="1" res="-1.4351308345794678e-02" rms="3.1433838605880737e-01" purity="1.1987984925508499e-01" nType="-99"/>
          </Node>
        </Node>
      </Node>
    </BinaryTree>
    <BinaryTree type="DecisionTree" boostWeight="1.0000000000000000e+00" itree="27">
      <Node pos="s" depth="0" NCoef="0" IVar="0" Cut="-9.0476191043853760e-01" cType="0" res="8.8568367063999176e-02" rms="4.0078252553939819e-01" purity="5.0091993808746338e-01" nType="0">
        <Node pos="l" depth="1" NCoef="0" IVar="5" Cut="1.6908542811870575e-01" cType="0" res="3.9974755048751831e-01" rms="1.8396431207656860e-01" purity="9.6073979139328003e-01" nType="0">
          <Node pos="l" depth="2" NCoef="0" IVar="-1" Cut="0.0000000000000000e+00" cType="1" res="4.5928349718451500e-03" rms="1.0788802057504654e-01" purity="9.8770880699157715e-01" nType="-99"/>
          <Node pos="r" depth="2" NCoef="0" IVar="-1" Cut="0.0000000000000000e+00" cType="1" res="2.7814351487904787e-03" rms="4.2198768258094788e-01" purity="7.2888970375061035e-01" nType="-99"/>
        </Node>
        <Node pos="r" depth="1" NCoef="0" IVar="11" Cut="-4.2894867062568665e-01" cType="1" res="-7.4431382119655609e-02" rms="3.8697102665901184e-01" purity="2.6006019115447998e-01" nType="0">
          <Node pos="l" depth="2" NCoef="0" IVar="-1" Cut="0.0000000000000000e+00" cType="1" res="3.3803468104451895e-03" rms="3.9571699500083923e-01" purity="7.9045635461807251e-01" nType="-99"/>
          <Node pos="r" depth="2" NCoef="0" IVar="0" Cut="-9.5155519247055054e-01" cType="0" res="-1.1801774799823761e-01" rms="3.6409062147140503e-01" purity="1.8999093770980835e-01" nType="0">
            <Node pos="l" depth="3" NCoef="0" IVar="-1" Cut="0.0000000000000000e+00" cType="1" res="-9.6547149587422609e-04" rms="4.3050137162208557e-01" purity="3.2664141058921814e-01" nType="-99"/>
            <Node pos="r" depth="3" NCoef="0" IVar="-1" Cut="0.0000000000000000e+00" cType="1" res="-1.3888200744986534e-02" rms="3.1768429279327393e-01" purity="1.2329232692718506e-01" nType="-99"/>
          </Node>
        </Node>
      </Node>
    </BinaryTree>
    <BinaryTree type="DecisionTree" boostWeight="1.0000000000000000e+00" itree="28">
      <Node pos="s" depth="0" NCoef="0" IVar="0" Cut="-9.0476191043853760e-01" cType="0" res="8.8062420487403870e-02" rms="3.9877757430076599e-01" purity="4.9863180518150330e-01" nType="0">
        <Node pos="l" depth="1" NCoef="0" IVar="8" Cut="2.3827382829040289e-03" cType="0" res="3.9753118157386780e-01" rms="1.8404148519039154e-01" purity="9.6068739891052246e-01" nType="0">
          <Node pos="l" depth="2" NCoef="0" IVar="-1" Cut="0.0000000000000000e+00" cType="1" res="4.5841098763048649e-03" rms="1.0019842535257339e-01" purity="9.8956120014190674e-01" nType="-99"/>
          <Node pos="r" depth="2" NCoef="0" IVar="-1" Cut="0.0000000000000000e+00" cType="1" res="2.7303292881697416e-03" rms="4.2547133564949036e-01" purity="7.2340160608291626e-01" nType="-99"/>
        </Node>
        <Node pos="r" depth="1" NCoef="0" IVar="11" Cut="-4.2857143282890320e-01" cType="1" res="-7.4168927967548370e-02" rms="3.8484671711921692e-01" purity="2.5641047954559326e-01" nType="0">
          <Node pos="l" depth="2" NCoef="0" IVar="-1" Cut="0.0000000000000000e+00" cType="1" res="3.3580248709768057e-03" rms="3.9892703294754028e-01" purity="7.8558701276779175e-01" nType="-99"/>
          <Node pos="r" depth="2" NCoef="0" IVar="0" Cut="-9.5155519247055054e-01" cType="0" res="-1.1635403335094452e-01" rms="3.6230286955833435e-01" purity="1.8728049099445343e-01" nType="0">
            <Node pos="l" depth="3" NCoef="0" IVar="-1" Cut="0.0000000000000000e+00" cType="1" res="-9.5733063062652946e-04" rms="4.3037411570549011e-01" purity="3.2314285635948181e-01" nType="-99"/>
            <Node pos="r" depth="3" NCoef="0" IVar="-1" Cut="0.0000000000000000e+00" cType="1" res="-1.3548081740736961e-02" rms="3.1545716524124146e-01" purity="1.2095282226800919e-01" nType="-99"/>
          </Node>
        </Node>
      </Node>
    </BinaryTree>
    <BinaryTree type="DecisionTree" boostWeight="1.0000000000000000e+00" itree="29">
      <Node pos="s" depth="0" NCoef="0" IVar="0" Cut="-8.6677676439285278e-01" cType="0" res="8.9656352996826172e-02" rms="3.9673706889152527e-01" purity="4.9900972843170166e-01" nType="0">
        <Node pos="l" depth="1" NCoef="0" IVar="-1" Cut="0.0000000000000000e+00" cType="1" res="4.5776991173624992e-03" rms="9.3832671642303467e-02" purity="9.9057543277740479e-01" nType="-99"/>
        <Node pos="r" depth="1" NCoef="0" IVar="11" Cut="-2.3813629150390625e-01" cType="1" res="-4.3581873178482056e-02" rms="3.9349496364593506e-01" purity="3.0213108658790588e-01" nType="0">
          <Node pos="l" depth="2" NCoef="0" IVar="4" Cut="-3.2282724976539612e-01" cType="1" res="1.8564967811107635e-01" rms="4.2853334546089172e-01" purity="6.9177037477493286e-01" nType="0">
            <Node pos="l" depth="3" NCoef="0" IVar="-1" Cut="0.0000000000000000e+00" cType="1" res="3.3419830724596977e-03" rms="4.0525764226913452e-01" purity="7.6451379060745239e-01" nType="-99"/>
            <Node pos="r" depth="3" NCoef="0" IVar="-1" Cut="0.0000000000000000e+00" cType="1" res="-9.8109645769000053e-03" rms="3.8779804110527039e-01" purity="1.9808441400527954e-01" nType="-99"/>
          </Node>
          <Node pos="r" depth="2" NCoef="0" IVar="0" Cut="-9.2733275890350342e-01" cType="0" res="-1.1434528976678848e-01" rms="3.5315480828285217e-01" purity="1.8185004591941833e-01" nType="0">
            <Node pos="l" depth="3" NCoef="0" IVar="-1" Cut="0.0000000000000000e+00" cType="1" res="1.3878912432119250e-03" rms="4.5285177230834961e-01" purity="5.2190428972244263e-01" nType="-99"/>
            <Node pos="r" depth="3" NCoef="0" IVar="-1" Cut="0.0000000000000000e+00" cType="1" res="-1.1718592606484890e-02" rms="3.2612770795822144e-01" purity="1.2998089194297791e-01" nType="-99"/>
          </Node>
        </Node>
      </Node>
    </BinaryTree>
    <BinaryTree type="DecisionTree" boostWeight="1.0000000000000000e+00" itree="30">
      <Node pos="s" depth="0" NCoef="0" IVar="0" Cut="-9.0476191043853760e-01" cType="0" res="9.2905797064304352e-02" rms="3.9492350816726685e-01" purity="5.0132119655609131e-01" nType="0">
        <Node pos="l" depth="1" NCoef="0" IVar="8" Cut="2.1828753873705864e-02" cType="0" res="3.9379277825355530e-01" rms="1.8265724182128906e-01" purity="9.6109718084335327e-01" nType="0">
          <Node pos="l" depth="2" NCoef="0" IVar="-1" Cut="0.0000000000000000e+00" cType="1" res="4.5502609573304653e-03" rms="9.6067391335964203e-02" purity="9.9041140079498291e-01" nType="-99"/>
          <Node pos="r" depth="2" NCoef="0" IVar="-1" Cut="0.0000000000000000e+00" cType="1" res="2.9814152512699366e-03" rms="4.0429097414016724e-01" purity="7.6124864816665649e-01" nType="-99"/>
        </Node>
        <Node pos="r" depth="1" NCoef="0" IVar="11" Cut="-4.2272111773490906e-01" cType="1" res="-6.6459849476814270e-02" rms="3.8412502408027649e-01" purity="2.5779956579208374e-01" nType="0">
          <Node pos="l" depth="2" NCoef="0" IVar="-1" Cut="0.0000000000000000e+00" cType="1" res="3.2977431546896696e-03" rms="3.9980962872505188e-01" purity="7.8290617465972900e-01" nType="-99"/>
          <Node pos="r" depth="2" NCoef="0" IVar="11" Cut="1.1922743171453476e-01" cType="1" res="-1.0780065506696701e-01" rms="3.6244517564773560e-01" purity="1.8790447711944580e-01" nType="0">
            <Node pos="l" depth="3" NCoef="0" IVar="-1" Cut="0.0000000000000000e+00" cType="1" res="-1.6556773334741592e-03" rms="4.2197903990745544e-01" purity="2.8842154145240784e-01" nType="-99"/>
            <Node pos="r" depth="3" NCoef="0" IVar="-1" Cut="0.0000000000000000e+00" cType="1" res="-1.6674751415848732e-02" rms="2.9117196798324585e-01" purity="1.0184097290039062e-01" nType="-99"/>
          </Node>
        </Node>
      </Node>
    </BinaryTree>
    <BinaryTree type="DecisionTree" boostWeight="1.0000000000000000e+00" itree="31">
      <Node pos="s" depth="0" NCoef="0" IVar="0" Cut="-9.0476191043853760e-01" cType="0" res="9.2954002320766449e-02" rms="3.9256793260574341e-01" purity="5.0034415721893311e-01" nType="0">
        <Node pos="l" depth="1" NCoef="0" IVar="5" Cut="1.5669713914394379e-01" cType="0" res="3.9095193147659302e-01" rms="1.8402796983718872e-01" purity="9.6043395996093750e-01" nType="0">
          <Node pos="l" depth="2" NCoef="0" IVar="-1" Cut="0.0000000000000000e+00" cType="1" res="4.5181154273450375e-03" rms="1.0964269191026688e-01" purity="9.8725247383117676e-01" nType="-99"/>
          <Node pos="r" depth="2" NCoef="0" IVar="-1" Cut="0.0000000000000000e+00" cType="1" res="2.4239309132099152e-03" rms="4.3508148193359375e-01" purity="6.9807088375091553e-01" nType="-99"/>
        </Node>
        <Node pos="r" depth="1" NCoef="0" IVar="11" Cut="-4.2897477746009827e-01" cType="1" res="-6.4104534685611725e-02" rms="3.8211619853973389e-01" purity="2.5785577297210693e-01" nType="0">
          <Node pos="l" depth="2" NCoef="0" IVar="-1" Cut="0.0000000000000000e+00" cType="1" res="3.3085460308939219e-03" rms="3.9565929770469666e-01" purity="7.8949403762817383e-01" nType="-99"/>
          <Node pos="r" depth="2" NCoef="0" IVar="0" Cut="-9.3834298849105835e-01" cType="0" res="-1.0529962182044983e-01" rms="3.6063107848167419e-01" purity="1.8776650726795197e-01" nType="0">
            <Node pos="l" depth="3" NCoef="0" IVar="-1" Cut="0.0000000000000000e+00" cType="1" res="4.0168163832277060e-04" rms="4.4533330202102661e-01" purity="3.9755868911743164e-01" nType="-99"/>
            <Node pos="r" depth="3" NCoef="0" IVar="-1" Cut="0.0000000000000000e+00" cType="1" res="-1.0178210213780403e-02" rms="3.3135968446731567e-01" purity="1.3870617747306824e-01" nType="-99"/>
          </Node>
        </Node>
      </Node>
    </BinaryTree>
    <BinaryTree type="DecisionTree" boostWeight="1.0000000000000000e+00" itree="32">
      <Node pos="s" depth="0" NCoef="0" IVar="0" Cut="-9.0476191043853760e-01" cType="0" res="9.4399891793727875e-02" rms="3.9108231663703918e-01" purity="5.0054579973220825e-01" nType="0">
        <Node pos="l" depth="1" NCoef="0" IVar="8" Cut="1.8300358206033707e-02" cType="0" res="3.8928017020225525e-01" rms="1.8285474181175232e-01" purity="9.6090418100357056e-01" nType="0">
          <Node pos="l" depth="2" NCoef="0" IVar="-1" Cut="0.0000000000000000e+00" cType="1" res="4.5136287808418274e-03" rms="9.6378758549690247e-02" purity="9.9034559726715088e-01" nType="-99"/>
          <Node pos="r" depth="2" NCoef="0" IVar="-1" Cut="0.0000000000000000e+00" cType="1" res="2.8969661798328161e-03" rms="4.1183850169181824e-01" purity="7.4775862693786621e-01" nType="-99"/>
        </Node>
        <Node pos="r" depth="1" NCoef="0" IVar="11" Cut="-4.2883500456809998e-01" cType="1" res="-6.0540754348039627e-02" rms="3.8215756416320801e-01" purity="2.5865703821182251e-01" nType="0">
          <Node pos="l" depth="2" NCoef="0" IVar="-1" Cut="0.0000000000000000e+00" cType="1" res="3.2881391234695911e-03" rms="3.9504003524780273e-01" purity="7.9050254821777344e-01" nType="-99"/>
          <Node pos="r" depth="2" NCoef="0" IVar="4" Cut="-2.3726314306259155e-01" cType="1" res="-1.0130420327186584e-01" rms="3.6123311519622803e-01" purity="1.8835017085075378e-01" nType="0">
            <Node pos="l" depth="3" NCoef="0" IVar="-1" Cut="0.0000000000000000e+00" cType="1" res="-3.6064309533685446e-03" rms="3.8582372665405273e-01" purity="2.2337573766708374e-01" nType="-99"/>
            <Node pos="r" depth="3" NCoef="0" IVar="-1" Cut="0.0000000000000000e+00" cType="1" res="-6.7168883979320526e-02" rms="1.5302395820617676e-01" purity="2.1644964814186096e-02" nType="-99"/>
          </Node>
        </Node>
      </Node>
    </BinaryTree>
    <BinaryTree type="DecisionTree" boostWeight="1.0000000000000000e+00" itree="33">
      <Node pos="s" depth="0" NCoef="0" IVar="0" Cut="-9.0476191043853760e-01" cType="0" res="9.6653103828430176e-02" rms="3.8827893137931824e-01" purity="5.0066834688186646e-01" nType="0">
        <Node pos="l" depth="1" NCoef="0" IVar="5" Cut="1.6988459229469299e-01" cType="0" res="3.8717469573020935e-01" rms="1.8282172083854675e-01" purity="9.6087712049484253e-01" nType="0">
          <Node pos="l" depth="2" NCoef="0" IVar="-1" Cut="0.0000000000000000e+00" cType="1" res="4.4843284413218498e-03" rms="1.0673595219850540e-01" purity="9.8793619871139526e-01" nType="-99"/>
          <Node pos="r" depth="2" NCoef="0" IVar="-1" Cut="0.0000000000000000e+00" cType="1" res="2.6827875990420580e-03" rms="4.2172870039939880e-01" purity="7.2768801450729370e-01" nType="-99"/>
        </Node>
        <Node pos="r" depth="1" NCoef="0" IVar="11" Cut="-4.2459514737129211e-01" cType="1" res="-5.6770659983158112e-02" rms="3.8028150796890259e-01" purity="2.5763317942619324e-01" nType="0">
          <Node pos="l" depth="2" NCoef="0" IVar="-1" Cut="0.0000000000000000e+00" cType="1" res="3.2502321992069483e-03" rms="3.9865010976791382e-01" purity="7.8459495306015015e-01" nType="-99"/>
          <Node pos="r" depth="2" NCoef="0" IVar="11" Cut="-8.5744850337505341e-02" cType="1" res="-9.6512779593467712e-02" rms="3.5957390069961548e-01" purity="1.8728454411029816e-01" nType="0">
            <Node pos="l" depth="3" NCoef="0" IVar="-1" Cut="0.0000000000000000e+00" cType="1" res="2.7520101866684854e-04" rms="4.5281791687011719e-01" purity="3.7893423438072205e-01" nType="-99"/>
            <Node pos="r" depth="3" NCoef="0" IVar="-1" Cut="0.0000000000000000e+00" cType="1" res="-1.0671627707779408e-02" rms="3.1995165348052979e-01" purity="1.3001550734043121e-01" nType="-99"/>
          </Node>
        </Node>
      </Node>
    </BinaryTree>
    <BinaryTree type="DecisionTree" boostWeight="1.0000000000000000e+00" itree="34">
      <Node pos="s" depth="0" NCoef="0" IVar="0" Cut="-8.7118083238601685e-01" cType="0" res="9.8255105316638947e-02" rms="3.8690102100372314e-01" purity="5.0137275457382202e-01" nType="0">
        <Node pos="l" depth="1" NCoef="0" IVar="-1" Cut="0.0000000000000000e+00" cType="1" res="4.4901650398969650e-03" rms="9.2933699488639832e-02" purity="9.9071723222732544e-01" nType="-99"/>
        <Node pos="r" depth="1" NCoef="0" IVar="11" Cut="-2.3809523880481720e-01" cType="1" res="-2.7824493125081062e-02" rms="3.8860979676246643e-01" purity="3.0453509092330933e-01" nType="0">
          <Node pos="l" depth="2" NCoef="0" IVar="4" Cut="-3.3569666743278503e-01" cType="1" res="1.8586617708206177e-01" rms="4.2333152890205383e-01" purity="6.9423025846481323e-01" nType="0">
            <Node pos="l" depth="3" NCoef="0" IVar="-1" Cut="0.0000000000000000e+00" cType="1" res="3.3032961655408144e-03" rms="4.0095967054367065e-01" purity="7.6859414577484131e-01" nType="-99"/>
            <Node pos="r" depth="3" NCoef="0" IVar="-1" Cut="0.0000000000000000e+00" cType="1" res="-7.1592992171645164e-03" rms="4.0023833513259888e-01" purity="2.2549073398113251e-01" nType="-99"/>
          </Node>
          <Node pos="r" depth="2" NCoef="0" IVar="0" Cut="-9.2733275890350342e-01" cType="0" res="-9.4428896903991699e-02" rms="3.5151335597038269e-01" purity="1.8307253718376160e-01" nType="0">
            <Node pos="l" depth="3" NCoef="0" IVar="-1" Cut="0.0000000000000000e+00" cType="1" res="1.5595955774188042e-03" rms="4.4638192653656006e-01" purity="5.2143961191177368e-01" nType="-99"/>
            <Node pos="r" depth="3" NCoef="0" IVar="-1" Cut="0.0000000000000000e+00" cType="1" res="-1.0409496724605560e-02" rms="3.2660907506942749e-01" purity="1.3139881193637848e-01" nType="-99"/>
          </Node>
        </Node>
      </Node>
    </BinaryTree>
    <BinaryTree type="DecisionTree" boostWeight="1.0000000000000000e+00" itree="35">
      <Node pos="s" depth="0" NCoef="0" IVar="0" Cut="-8.6347371339797974e-01" cType="0" res="9.7757346928119659e-02" rms="3.8518285751342773e-01" purity="4.9940234422683716e-01" nType="0">
        <Node pos="l" depth="1" NCoef="0" IVar="-1" Cut="0.0000000000000000e+00" cType="1" res="4.4727688655257225e-03" rms="9.2577621340751648e-02" purity="9.9079507589340210e-01" nType="-99"/>
        <Node pos="r" depth="1" NCoef="0" IVar="11" Cut="-3.3333334326744080e-01" cType="1" res="-2.7028875425457954e-02" rms="3.8708975911140442e-01" purity="3.0273091793060303e-01" nType="0">
          <Node pos="l" depth="2" NCoef="0" IVar="7" Cut="-9.2158153653144836e-02" cType="1" res="2.2135682404041290e-01" rms="4.0446016192436218e-01" purity="7.5824230909347534e-01" nType="0">
            <Node pos="l" depth="3" NCoef="0" IVar="-1" Cut="0.0000000000000000e+00" cType="1" res="3.5296427085995674e-03" rms="3.7299075722694397e-01" purity="8.1818622350692749e-01" nType="-99"/>
            <Node pos="r" depth="3" NCoef="0" IVar="-1" Cut="0.0000000000000000e+00" cType="1" res="-5.5138260358944535e-04" rms="4.5709162950515747e-01" purity="4.6052977442741394e-01" nType="-99"/>
          </Node>
          <Node pos="r" depth="2" NCoef="0" IVar="0" Cut="-9.2733275890350342e-01" cType="0" res="-8.2341827452182770e-02" rms="3.6052480340003967e-01" purity="2.0129317045211792e-01" nType="0">
            <Node pos="l" depth="3" NCoef="0" IVar="-1" Cut="0.0000000000000000e+00" cType="1" res="1.9167859572917223e-03" rms="4.4243395328521729e-01" purity="5.5169326066970825e-01" nType="-99"/>
            <Node pos="r" depth="3" NCoef="0" IVar="-1" Cut="0.0000000000000000e+00" cType="1" res="-8.6389873176813126e-03" rms="3.3549124002456665e-01" purity="1.4348362386226654e-01" nType="-99"/>
          </Node>
        </Node>
      </Node>
    </BinaryTree>
    <BinaryTree type="DecisionTree" boostWeight="1.0000000000000000e+00" itree="36">
      <Node pos="s" depth="0" NCoef="0" IVar="0" Cut="-9.1632258892059326e-01" cType="0" res="9.8586983978748322e-02" rms="3.8406237959861755e-01" purity="4.9895220994949341e-01" nType="0">
        <Node pos="l" depth="1" NCoef="0" IVar="4" Cut="-4.1790559887886047e-01" cType="1" res="3.6505314707756042e-01" rms="2.1850955486297607e-01" purity="9.3424302339553833e-01" nType="0">
          <Node pos="l" depth="2" NCoef="0" IVar="-1" Cut="0.0000000000000000e+00" cType="1" res="4.4400217011570930e-03" rms="1.3618373870849609e-01" purity="9.7971343994140625e-01" nType="-99"/>
          <Node pos="r" depth="2" NCoef="0" IVar="-1" Cut="0.0000000000000000e+00" cType="1" res="-2.8402232564985752e-03" rms="4.2367511987686157e-01" purity="3.5790154337882996e-01" nType="-99"/>
        </Node>
        <Node pos="r" depth="1" NCoef="0" IVar="11" Cut="-4.1932439804077148e-01" cType="1" res="-5.9825759381055832e-02" rms="3.7350097298622131e-01" purity="2.4017409980297089e-01" nType="0">
          <Node pos="l" depth="2" NCoef="0" IVar="-1" Cut="0.0000000000000000e+00" cType="1" res="3.0327353160828352e-03" rms="4.0958222746849060e-01" purity="7.6719760894775391e-01" nType="-99"/>
          <Node pos="r" depth="2" NCoef="0" IVar="0" Cut="-9.6146434545516968e-01" cType="0" res="-9.4651855528354645e-02" rms="3.5355481505393982e-01" purity="1.7486946284770966e-01" nType="0">
            <Node pos="l" depth="3" NCoef="0" IVar="-1" Cut="0.0000000000000000e+00" cType="1" res="-2.0436879713088274e-03" rms="3.9673441648483276e-01" purity="2.4761703610420227e-01" nType="-99"/>
            <Node pos="r" depth="3" NCoef="0" IVar="-1" Cut="0.0000000000000000e+00" cType="1" res="-1.5060190111398697e-02" rms="2.9866841435432434e-01" purity="1.0540244728326797e-01" nType="-99"/>
          </Node>
        </Node>
      </Node>
    </BinaryTree>
    <BinaryTree type="DecisionTree" boostWeight="1.0000000000000000e+00" itree="37">
      <Node pos="s" depth="0" NCoef="0" IVar="0" Cut="-9.3338841199874878e-01" cType="0" res="9.8057918250560760e-02" rms="3.8222447037696838e-01" purity="4.9732646346092224e-01" nType="0">
        <Node pos="l" depth="1" NCoef="0" IVar="4" Cut="-3.5801801085472107e-01" cType="1" res="2.9518187046051025e-01" rms="3.0787849426269531e-01" purity="8.2592767477035522e-01" nType="0">
          <Node pos="l" depth="2" NCoef="0" IVar="8" Cut="-5.7008463889360428e-02" cType="0" res="3.6496302485466003e-01" rms="2.3631592094898224e-01" purity="9.2160558700561523e-01" nType="0">
            <Node pos="l" depth="3" NCoef="0" IVar="-1" Cut="0.0000000000000000e+00" cType="1" res="4.3706172145903111e-03" rms="2.0480656623840332e-01" purity="9.4245064258575439e-01" nType="-99"/>
            <Node pos="r" depth="3" NCoef="0" IVar="-1" Cut="0.0000000000000000e+00" cType="1" res="3.0124483164399862e-03" rms="4.2740046977996826e-01" purity="6.8252921104431152e-01" nType="-99"/>
          </Node>
          <Node pos="r" depth="2" NCoef="0" IVar="4" Cut="-1.0395321995019913e-01" cType="1" res="-2.5111964344978333e-01" rms="2.5120931863784790e-01" purity="7.6885327696800232e-02" nType="0">
            <Node pos="l" depth="3" NCoef="0" IVar="-1" Cut="0.0000000000000000e+00" cType="1" res="-9.8985098302364349e-03" rms="3.4256649017333984e-01" purity="1.6863875091075897e-01" nType="-99"/>
            <Node pos="r" depth="3" NCoef="0" IVar="-1" Cut="0.0000000000000000e+00" cType="1" res="-1.2514977157115936e-01" rms="1.1102250218391418e-01" purity="3.3529412467032671e-03" nType="-99"/>
          </Node>
        </Node>
        <Node pos="r" depth="1" NCoef="0" IVar="11" Cut="-4.1675969958305359e-01" cType="1" res="-8.6659714579582214e-02" rms="3.5162478685379028e-01" purity="1.8940640985965729e-01" nType="0">
          <Node pos="l" depth="2" NCoef="0" IVar="-1" Cut="0.0000000000000000e+00" cType="1" res="2.4823849089443684e-03" rms="4.4489401578903198e-01" purity="7.0696353912353516e-01" nType="-99"/>
          <Node pos="r" depth="2" NCoef="0" IVar="11" Cut="1.2292296439409256e-01" cType="1" res="-1.1029113084077835e-01" rms="3.3187052607536316e-01" purity="1.3993376493453979e-01" nType="0">
            <Node pos="l" depth="3" NCoef="0" IVar="-1" Cut="0.0000000000000000e+00" cType="1" res="-3.5924373660236597e-03" rms="3.9555382728576660e-01" purity="2.1745975315570831e-01" nType="-99"/>
            <Node pos="r" depth="3" NCoef="0" IVar="-1" Cut="0.0000000000000000e+00" cType="1" res="-2.0813524723052979e-02" rms="2.6692524552345276e-01" purity="7.8927181661128998e-02" nType="-99"/>
          </Node>
        </Node>
      </Node>
    </BinaryTree>
    <BinaryTree type="DecisionTree" boostWeight="1.0000000000000000e+00" itree="38">
      <Node pos="s" depth="0" NCoef="0" IVar="0" Cut="-8.6347371339797974e-01" cType="0" res="1.0312889516353607e-01" rms="3.7893944978713989e-01" purity="5.0009655952453613e-01" nType="0">
        <Node pos="l" depth="1" NCoef="0" IVar="-1" Cut="0.0000000000000000e+00" cType="1" res="4.4249058701097965e-03" rms="9.1325245797634125e-02" purity="9.9070268869400024e-01" nType="-99"/>
        <Node pos="r" depth="1" NCoef="0" IVar="11" Cut="-1.4285714924335480e-01" cType="1" res="-1.7018286511301994e-02" rms="3.8370886445045471e-01" purity="3.0372530221939087e-01" nType="0">
          <Node pos="l" depth="2" NCoef="0" IVar="4" Cut="-3.3297917246818542e-01" cType="1" res="1.5356893837451935e-01" rms="4.2752769589424133e-01" purity="6.2500894069671631e-01" nType="0">
            <Node pos="l" depth="3" NCoef="0" IVar="-1" Cut="0.0000000000000000e+00" cType="1" res="3.1675351783633232e-03" rms="4.1439822316169739e-01" purity="7.0777779817581177e-01" nType="-99"/>
            <Node pos="r" depth="3" NCoef="0" IVar="-1" Cut="0.0000000000000000e+00" cType="1" res="-9.1943843290209770e-03" rms="3.5294148325920105e-01" purity="1.6315902769565582e-01" nType="-99"/>
          </Node>
          <Node pos="r" depth="2" NCoef="0" IVar="0" Cut="-9.2733275890350342e-01" cType="0" res="-9.1426350176334381e-02" rms="3.3689391613006592e-01" purity="1.6358529031276703e-01" nType="0">
            <Node pos="l" depth="3" NCoef="0" IVar="-1" Cut="0.0000000000000000e+00" cType="1" res="1.3094852911308408e-03" rms="4.3636348843574524e-01" purity="4.7914510965347290e-01" nType="-99"/>
            <Node pos="r" depth="3" NCoef="0" IVar="-1" Cut="0.0000000000000000e+00" cType="1" res="-1.1122182011604309e-02" rms="3.1520310044288635e-01" purity="1.1992774158716202e-01" nType="-99"/>
          </Node>
        </Node>
      </Node>
    </BinaryTree>
    <BinaryTree type="DecisionTree" boostWeight="1.0000000000000000e+00" itree="39">
      <Node pos="s" depth="0" NCoef="0" IVar="0" Cut="-8.7118083238601685e-01" cType="0" res="1.0278535634279251e-01" rms="3.7670195102691650e-01" purity="4.9905416369438171e-01" nType="0">
        <Node pos="l" depth="1" NCoef="0" IVar="-1" Cut="0.0000000000000000e+00" cType="1" res="4.4083357788622379e-03" rms="9.1266594827175140e-02" purity="9.9072158336639404e-01" nType="-99"/>
        <Node pos="r" depth="1" NCoef="0" IVar="11" Cut="-1.3991472125053406e-01" cType="1" res="-1.6742141917347908e-02" rms="3.8139241933822632e-01" purity="3.0210077762603760e-01" nType="0">
          <Node pos="l" depth="2" NCoef="0" IVar="4" Cut="-3.2974767684936523e-01" cType="1" res="1.5144145488739014e-01" rms="4.2728117108345032e-01" purity="6.2251669168472290e-01" nType="0">
            <Node pos="l" depth="3" NCoef="0" IVar="-1" Cut="0.0000000000000000e+00" cType="1" res="3.1409580260515213e-03" rms="4.1564887762069702e-01" purity="7.0414811372756958e-01" nType="-99"/>
            <Node pos="r" depth="3" NCoef="0" IVar="-1" Cut="0.0000000000000000e+00" cType="1" res="-9.7384685650467873e-03" rms="3.5296624898910522e-01" purity="1.6730569303035736e-01" nType="-99"/>
          </Node>
          <Node pos="r" depth="2" NCoef="0" IVar="0" Cut="-9.1522157192230225e-01" cType="0" res="-9.0912431478500366e-02" rms="3.3334571123123169e-01" purity="1.6079486906528473e-01" nType="0">
            <Node pos="l" depth="3" NCoef="0" IVar="-1" Cut="0.0000000000000000e+00" cType="1" res="1.9230735488235950e-03" rms="4.3264120817184448e-01" purity="5.8113449811935425e-01" nType="-99"/>
            <Node pos="r" depth="3" NCoef="0" IVar="-1" Cut="0.0000000000000000e+00" cType="1" res="-9.2964060604572296e-03" rms="3.1903401017189026e-01" purity="1.2768633663654327e-01" nType="-99"/>
          </Node>
        </Node>
      </Node>
    </BinaryTree>
    <BinaryTree type="DecisionTree" boostWeight="1.0000000000000000e+00" itree="40">
      <Node pos="s" depth="0" NCoef="0" IVar="0" Cut="-9.3338841199874878e-01" cType="0" res="1.0413670539855957e-01" rms="3.7485498189926147e-01" purity="5.0013631582260132e-01" nType="0">
        <Node pos="l" depth="1" NCoef="0" IVar="4" Cut="-3.5973313450813293e-01" cType="1" res="2.9678243398666382e-01" rms="2.9758971929550171e-01" purity="8.2837748527526855e-01" nType="0">
          <Node pos="l" depth="2" NCoef="0" IVar="8" Cut="-5.2644949406385422e-02" cType="0" res="3.6122685670852661e-01" rms="2.3346397280693054e-01" purity="9.2285716533660889e-01" nType="0">
            <Node pos="l" depth="3" NCoef="0" IVar="-1" Cut="0.0000000000000000e+00" cType="1" res="4.3302262201905251e-03" rms="2.0120194554328918e-01" purity="9.4399625062942505e-01" nType="-99"/>
            <Node pos="r" depth="3" NCoef="0" IVar="-1" Cut="0.0000000000000000e+00" cType="1" res="3.0402243137359619e-03" rms="4.2519563436508179e-01" purity="6.8795478343963623e-01" nType="-99"/>
          </Node>
          <Node pos="r" depth="2" NCoef="0" IVar="4" Cut="-1.6863648593425751e-01" cType="1" res="-2.0566822588443756e-01" rms="2.6311895251274109e-01" purity="9.1752760112285614e-02" nType="0">
            <Node pos="l" depth="3" NCoef="0" IVar="-1" Cut="0.0000000000000000e+00" cType="1" res="-6.0387421399354935e-03" rms="3.9231154322624207e-01" purity="2.4422718584537506e-01" nType="-99"/>
            <Node pos="r" depth="3" NCoef="0" IVar="-1" Cut="0.0000000000000000e+00" cType="1" res="-1.1067407578229904e-01" rms="1.1411218345165253e-01" purity="5.0842459313571453e-03" nType="-99"/>
          </Node>
        </Node>
        <Node pos="r" depth="1" NCoef="0" IVar="11" Cut="-4.2897477746009827e-01" cType="1" res="-7.8490413725376129e-02" rms="3.4818941354751587e-01" purity="1.8896533548831940e-01" nType="0">
          <Node pos="l" depth="2" NCoef="0" IVar="-1" Cut="0.0000000000000000e+00" cType="1" res="2.5304881855845451e-03" rms="4.3690723180770874e-01" purity="7.2516649961471558e-01" nType="-99"/>
          <Node pos="r" depth="2" NCoef="0" IVar="0" Cut="-9.6421688795089722e-01" cType="0" res="-1.0190737247467041e-01" rms="3.2911059260368347e-01" purity="1.3911628723144531e-01" nType="0">
            <Node pos="l" depth="3" NCoef="0" IVar="-1" Cut="0.0000000000000000e+00" cType="1" res="-3.4033441916108131e-03" rms="3.7241876125335693e-01" purity="1.9476462900638580e-01" nType="-99"/>
            <Node pos="r" depth="3" NCoef="0" IVar="-1" Cut="0.0000000000000000e+00" cType="1" res="-1.3724939897656441e-02" rms="2.9397305846214294e-01" purity="1.0298023372888565e-01" nType="-99"/>
          </Node>
        </Node>
      </Node>
    </BinaryTree>
    <BinaryTree type="DecisionTree" boostWeight="1.0000000000000000e+00" itree="41">
      <Node pos="s" depth="0" NCoef="0" IVar="0" Cut="-9.0476191043853760e-01" cType="0" res="1.0760048776865005e-01" rms="3.7250918149948120e-01" purity="5.0160109996795654e-01" nType="0">
        <Node pos="l" depth="1" NCoef="0" IVar="5" Cut="1.7129832506179810e-01" cType="0" res="3.7343278527259827e-01" rms="1.7077282071113586e-01" purity="9.6104925870895386e-01" nType="0">
