<?xml version="1.0"?>
<MethodSetup Method="MLP::MLP">
  <GeneralInfo>
    <Info name="TMVA Release" value="4.2.0 [262656]"/>
    <Info name="ROOT Release" value="5.34/38 [336422]"/>
    <Info name="Creator" value="han"/>
    <Info name="Date" value="Tue May  3 20:30:54 2022"/>
    <Info name="Host" value="Linux rz5950x.km.icrr.u-tokyo.ac.jp 4.18.0-305.3.1.el8_4.x86_64 #1 SMP Mon May 17 10:08:25 EDT 2021 x86_64 x86_64 x86_64 GNU/Linux"/>
    <Info name="Dir" value="/disk1/disk02/calib3/usr/han/mc/random"/>
    <Info name="Training events" value="7888634"/>
    <Info name="TrainingTime" value="3.25327083e+04"/>
    <Info name="AnalysisType" value="Classification"/>
  </GeneralInfo>
  <Options>
    <Option name="NCycles" modified="Yes">300</Option>
    <Option name="HiddenLayers" modified="Yes">N+1,N-1</Option>
    <Option name="NeuronType" modified="Yes">sigmoid</Option>
    <Option name="RandomSeed" modified="No">1</Option>
    <Option name="EstimatorType" modified="Yes">CE</Option>
    <Option name="NeuronInputType" modified="No">sum</Option>
    <Option name="V" modified="Yes">True</Option>
    <Option name="VerbosityLevel" modified="No">Verbose</Option>
    <Option name="VarTransform" modified="Yes">N</Option>
    <Option name="H" modified="Yes">True</Option>
    <Option name="CreateMVAPdfs" modified="No">False</Option>
    <Option name="IgnoreNegWeightsInTraining" modified="No">False</Option>
    <Option name="TrainingMethod" modified="No">BP</Option>
    <Option name="LearningRate" modified="No">2.000000e-02</Option>
    <Option name="DecayRate" modified="No">1.000000e-02</Option>
    <Option name="TestRate" modified="Yes">5</Option>
    <Option name="EpochMonitoring" modified="No">False</Option>
    <Option name="Sampling" modified="No">1.000000e+00</Option>
    <Option name="SamplingEpoch" modified="No">1.000000e+00</Option>
    <Option name="SamplingImportance" modified="No">1.000000e+00</Option>
    <Option name="SamplingTraining" modified="No">True</Option>
    <Option name="SamplingTesting" modified="No">False</Option>
    <Option name="ResetStep" modified="No">50</Option>
    <Option name="Tau" modified="No">3.000000e+00</Option>
    <Option name="BPMode" modified="No">sequential</Option>
    <Option name="BatchSize" modified="No">-1</Option>
    <Option name="ConvergenceImprove" modified="No">1.000000e-30</Option>
    <Option name="ConvergenceTests" modified="No">-1</Option>
    <Option name="UseRegulator" modified="Yes">True</Option>
    <Option name="UpdateLimit" modified="No">10000</Option>
    <Option name="CalculateErrors" modified="No">False</Option>
    <Option name="WeightRange" modified="No">1.000000e+00</Option>
  </Options>
  <Variables NVar="12">
    <Variable VarIndex="0" Expression="NHits" Label="NHits" Title="NHits" Unit="" Internal="NHits" Type="F" Min="4.00000000e+00" Max="9.36000000e+02"/>
    <Variable VarIndex="1" Expression="N200" Label="N200" Title="N200" Unit="" Internal="N200" Type="F" Min="6.00000000e+00" Max="1.65300000e+03"/>
    <Variable VarIndex="2" Expression="TRMS" Label="TRMS" Title="TRMS" Unit="" Internal="TRMS" Type="F" Min="1.50743687e+00" Max="7.65105835e+02"/>
    <Variable VarIndex="3" Expression="Beta1" Label="Beta1" Title="Beta1" Unit="" Internal="Beta1" Type="F" Min="-3.31758022e-01" Max="9.99809086e-01"/>
    <Variable VarIndex="4" Expression="Beta5" Label="Beta5" Title="Beta5" Unit="" Internal="Beta5" Type="F" Min="-3.12476426e-01" Max="9.97139275e-01"/>
    <Variable VarIndex="5" Expression="OpeningAngleMean" Label="OpeningAngleMean" Title="OpeningAngleMean" Unit="" Internal="OpeningAngleMean" Type="F" Min="8.39873731e-01" Max="8.94692993e+01"/>
    <Variable VarIndex="6" Expression="OpeningAngleSkew" Label="OpeningAngleSkew" Title="OpeningAngleSkew" Unit="" Internal="OpeningAngleSkew" Type="F" Min="-2.97246674e+02" Max="3.45846558e+02"/>
    <Variable VarIndex="7" Expression="OpeningAngleStdev" Label="OpeningAngleStdev" Title="OpeningAngleStdev" Unit="" Internal="OpeningAngleStdev" Type="F" Min="1.11616240e-03" Max="4.55078163e+01"/>
    <Variable VarIndex="8" Expression="MeanDirAngleMean" Label="MeanDirAngleMean" Title="MeanDirAngleMean" Unit="" Internal="MeanDirAngleMean" Type="F" Min="6.55874789e-01" Max="9.35002670e+01"/>
    <Variable VarIndex="9" Expression="MeanDirAngleRMS" Label="MeanDirAngleRMS" Title="MeanDirAngleRMS" Unit="" Internal="MeanDirAngleRMS" Type="F" Min="1.89099595e-01" Max="8.66220551e+01"/>
    <Variable VarIndex="10" Expression="DWall" Label="DWall" Title="DWall" Unit="" Internal="DWall" Type="F" Min="-1.00000000e+02" Max="1.68767065e+03"/>
    <Variable VarIndex="11" Expression="DWallMeanDir" Label="DWallMeanDir" Title="DWallMeanDir" Unit="" Internal="DWallMeanDir" Type="F" Min="3.88397141e+01" Max="5.09312207e+03"/>
  </Variables>
  <Spectators NSpec="1">
    <Spectator SpecIndex="0" Expression="Label" Label="Label" Title="I" Unit="" Internal="Label" Type="F" Min="0.00000000e+00" Max="3.00000000e+00"/>
  </Spectators>
  <Classes NClass="2">
    <Class Name="Signal" Index="0"/>
    <Class Name="Background" Index="1"/>
  </Classes>
  <Transformations NTransformations="1">
    <Transform Name="Normalize">
      <Selection>
        <Input NInputs="12">
          <Input Type="Variable" Label="NHits" Expression="NHits"/>
          <Input Type="Variable" Label="N200" Expression="N200"/>
          <Input Type="Variable" Label="TRMS" Expression="TRMS"/>
          <Input Type="Variable" Label="Beta1" Expression="Beta1"/>
          <Input Type="Variable" Label="Beta5" Expression="Beta5"/>
          <Input Type="Variable" Label="OpeningAngleMean" Expression="OpeningAngleMean"/>
          <Input Type="Variable" Label="OpeningAngleSkew" Expression="OpeningAngleSkew"/>
          <Input Type="Variable" Label="OpeningAngleStdev" Expression="OpeningAngleStdev"/>
          <Input Type="Variable" Label="MeanDirAngleMean" Expression="MeanDirAngleMean"/>
          <Input Type="Variable" Label="MeanDirAngleRMS" Expression="MeanDirAngleRMS"/>
          <Input Type="Variable" Label="DWall" Expression="DWall"/>
          <Input Type="Variable" Label="DWallMeanDir" Expression="DWallMeanDir"/>
        </Input>
        <Output NOutputs="12">
          <Output Type="Variable" Label="NHits" Expression="NHits"/>
          <Output Type="Variable" Label="N200" Expression="N200"/>
          <Output Type="Variable" Label="TRMS" Expression="TRMS"/>
          <Output Type="Variable" Label="Beta1" Expression="Beta1"/>
          <Output Type="Variable" Label="Beta5" Expression="Beta5"/>
          <Output Type="Variable" Label="OpeningAngleMean" Expression="OpeningAngleMean"/>
          <Output Type="Variable" Label="OpeningAngleSkew" Expression="OpeningAngleSkew"/>
          <Output Type="Variable" Label="OpeningAngleStdev" Expression="OpeningAngleStdev"/>
          <Output Type="Variable" Label="MeanDirAngleMean" Expression="MeanDirAngleMean"/>
          <Output Type="Variable" Label="MeanDirAngleRMS" Expression="MeanDirAngleRMS"/>
          <Output Type="Variable" Label="DWall" Expression="DWall"/>
          <Output Type="Variable" Label="DWallMeanDir" Expression="DWallMeanDir"/>
        </Output>
      </Selection>
      <Class ClassIndex="0">
        <Ranges>
          <Range Index="0" Min="4.0000000000000000e+00" Max="9.8000000000000000e+01"/>
          <Range Index="1" Min="1.2000000000000000e+01" Max="1.4100000000000000e+02"/>
          <Range Index="2" Min="1.5074368715286255e+00" Max="4.0232550048828125e+02"/>
          <Range Index="3" Min="-2.7815833687782288e-01" Max="9.9274438619613647e-01"/>
          <Range Index="4" Min="-2.2586743533611298e-01" Max="8.9641040563583374e-01"/>
          <Range Index="5" Min="8.7641973495483398e+00" Max="8.7401252746582031e+01"/>
          <Range Index="6" Min="-2.1836518859863281e+02" Max="2.8241201782226562e+02"/>
          <Range Index="7" Min="2.2194667160511017e-01" Max="3.6195129394531250e+01"/>
          <Range Index="8" Min="4.1079201698303223e+00" Max="8.9874534606933594e+01"/>
          <Range Index="9" Min="2.1199975013732910e+00" Max="7.7061889648437500e+01"/>
          <Range Index="10" Min="-1.0000000000000000e+02" Max="1.6850103759765625e+03"/>
          <Range Index="11" Min="1.2167674255371094e+02" Max="5.0167890625000000e+03"/>
        </Ranges>
      </Class>
      <Class ClassIndex="1">
        <Ranges>
          <Range Index="0" Min="4.0000000000000000e+00" Max="9.3600000000000000e+02"/>
          <Range Index="1" Min="6.0000000000000000e+00" Max="1.6530000000000000e+03"/>
          <Range Index="2" Min="1.6021150350570679e+00" Max="7.6510583496093750e+02"/>
          <Range Index="3" Min="-3.3175802230834961e-01" Max="9.9980908632278442e-01"/>
          <Range Index="4" Min="-3.1247642636299133e-01" Max="9.9713927507400513e-01"/>
          <Range Index="5" Min="8.3987373113632202e-01" Max="8.9469299316406250e+01"/>
          <Range Index="6" Min="-2.9724667358398438e+02" Max="3.4584655761718750e+02"/>
          <Range Index="7" Min="1.1161623988300562e-03" Max="4.5507816314697266e+01"/>
          <Range Index="8" Min="6.5587478876113892e-01" Max="9.3500267028808594e+01"/>
          <Range Index="9" Min="1.8909959495067596e-01" Max="8.6622055053710938e+01"/>
          <Range Index="10" Min="-1.0000000000000000e+02" Max="1.6876706542968750e+03"/>
          <Range Index="11" Min="3.8839714050292969e+01" Max="5.0931220703125000e+03"/>
        </Ranges>
      </Class>
      <Class ClassIndex="2">
        <Ranges>
          <Range Index="0" Min="4.0000000000000000e+00" Max="9.3600000000000000e+02"/>
          <Range Index="1" Min="6.0000000000000000e+00" Max="1.6530000000000000e+03"/>
          <Range Index="2" Min="1.5074368715286255e+00" Max="7.6510583496093750e+02"/>
          <Range Index="3" Min="-3.3175802230834961e-01" Max="9.9980908632278442e-01"/>
          <Range Index="4" Min="-3.1247642636299133e-01" Max="9.9713927507400513e-01"/>
          <Range Index="5" Min="8.3987373113632202e-01" Max="8.9469299316406250e+01"/>
          <Range Index="6" Min="-2.9724667358398438e+02" Max="3.4584655761718750e+02"/>
          <Range Index="7" Min="1.1161623988300562e-03" Max="4.5507816314697266e+01"/>
          <Range Index="8" Min="6.5587478876113892e-01" Max="9.3500267028808594e+01"/>
          <Range Index="9" Min="1.8909959495067596e-01" Max="8.6622055053710938e+01"/>
          <Range Index="10" Min="-1.0000000000000000e+02" Max="1.6876706542968750e+03"/>
          <Range Index="11" Min="3.8839714050292969e+01" Max="5.0931220703125000e+03"/>
        </Ranges>
      </Class>
    </Transform>
  </Transformations>
  <MVAPdfs/>
  <Weights>
    <Layout NLayers="4">
      <Layer Index="0" NNeurons="13">
        <Neuron NSynapses="13">
          -4.3202288060974725e+00 1.0572447733058421e+02 -1.4552336068114800e+01 1.4130269855455631e+00 2.5822813253104709e+01 -2.1926375283315217e+01 -4.4375611222878817e+01 6.2214830866262567e+01 -2.7093090332283992e+01 -2.3468776197385463e+01 -1.8100719319514912e+01 -2.6588693853961274e+01 7.8782305168022349e-01 
        </Neuron>
        <Neuron NSynapses="13">
          6.7519055248620869e+00 -2.2716317910986081e+01 1.6768372025153024e+00 -2.5770678298594771e+00 2.9279647718244148e+00 4.5356895713718632e+00 1.7917471712677678e+01 2.9475383255718368e+00 1.1521842880671930e+01 2.1211705894580231e+01 -1.9420160277158107e+01 1.6381453653281621e+01 2.5192388768509077e-01 
        </Neuron>
        <Neuron NSynapses="13">
          -7.7267505031613792e-01 -2.3781486507289571e+01 2.8704339236144181e+00 -4.8980843607152541e-01 -1.4152781113431459e+01 9.1216850018958180e+00 4.3948260895702198e+00 -2.9626113342218769e+01 -2.7870572158393307e+00 -7.5803757121270046e+00 2.5711748099448787e+01 3.5244811159417666e+00 5.8078847812291459e+00 
        </Neuron>
        <Neuron NSynapses="13">
          5.4767546876956485e+00 -1.4547503333555498e-01 -2.5186577822787267e+01 -6.5582200820607541e+00 -3.6556034609918835e+00 -1.0662397401715367e+01 1.2497330436227783e+00 2.0869495865020697e+00 2.4192737559386566e+00 -2.5310862610506017e+00 3.1775701018662311e-01 6.8109751576182118e+00 -4.1300680504511023e-02 
        </Neuron>
        <Neuron NSynapses="13">
          -5.5791415385592058e-01 -1.0634866655371840e+00 -2.9860173172487117e+00 3.4936898720086695e+00 -7.2304401887112901e-01 -3.8502520347152185e+00 6.5131595176988322e+00 2.9975273285089654e-01 1.4053792906177844e+00 -3.9304412129419752e+00 -7.4575959784193024e-01 2.5728480612831195e+00 -3.0371553520190120e-01 
        </Neuron>
        <Neuron NSynapses="13">
          -3.1129351144660422e+00 -2.4720007935685370e-01 -4.9550884919250811e+00 -8.6824412431148836e+00 -4.2907771254520508e+00 2.7254730792667548e-01 -5.2565496909312888e+00 1.1083351148595654e+01 5.7969530468465962e+00 5.8922995656260007e+00 2.4015042352123990e+00 1.3211109495366793e-01 4.6107642612630659e+00 
        </Neuron>
        <Neuron NSynapses="13">
          -4.3998149772749588e+00 1.5927298842799316e+00 8.6067096069867344e-01 -1.0589199604795269e+01 3.1842416625473948e+00 5.8968134329003785e+00 -6.9446939389011018e+00 -2.3546254876443466e+00 3.5789726840740652e+00 5.4044161964584481e+00 1.7733584195506522e+00 -1.5920640886156692e+01 5.4174847585588815e+00 
        </Neuron>
        <Neuron NSynapses="13">
          2.4694684658007673e+00 -6.2524418601099596e-01 4.4549735369083265e-01 3.3277868179453702e+00 4.3743704631438964e+00 1.0341170361985692e+00 3.3945546595609830e+00 -7.8115313635928119e-01 -6.5751890340551078e-01 -3.4464136521639683e+00 -3.1891318081068476e-01 -6.4876772298694787e+00 -2.1779232571310310e+00 
        </Neuron>
        <Neuron NSynapses="13">
          5.3641883347497750e+00 5.3702399755349506e-01 -2.5831897878698978e+01 -9.6471462902902800e+00 -3.6279048191143719e+00 -2.5118870317634072e+00 2.9347504708668621e+00 -2.3184671913513391e-01 1.2019787716177806e+00 -5.6531248570512567e+00 -2.3749814798721185e+00 2.8182120128835102e+00 -1.2023973134293560e+00 
        </Neuron>
        <Neuron NSynapses="13">
          -8.0374709323297333e-01 -3.0794458926644880e-01 -7.5466603199642552e+00 -7.8355996803841266e-01 -7.5992104494511881e-01 -1.0115837517559545e+00 -6.5255158671085922e-01 5.1782299742421233e-02 6.8596963962925472e-01 4.3265004462298023e-01 2.0463557192870652e-01 -1.3105662426995983e+00 1.6902857019764783e+00 
        </Neuron>
        <Neuron NSynapses="13">
          -5.8335694030267620e+00 3.6024217004503400e-01 5.1013803394597823e-01 1.4408783537503005e+00 2.3293756332102200e+00 1.2202146641532234e+00 7.4278391481609984e-01 -3.5183293064779803e-01 8.4396575970352453e-02 5.9473301632460684e-01 4.2733336322243193e-01 2.1979446253075971e-01 -1.6572563320347712e+01 
        </Neuron>
        <Neuron NSynapses="13">
          1.2877181981287980e+00 2.9557994177690727e-01 1.4762292042343752e+00 1.4099246769013545e+00 -6.1457720825305051e-01 9.2980213814807455e-01 5.9474736252632354e-01 4.4968176237834195e-01 3.3194014566515015e+00 2.0025860363417323e+00 -9.9923421240298613e-02 7.5259081928013533e-02 -2.2765293913627913e-01 
        </Neuron>
        <Neuron NSynapses="13">
          -8.9439121560558588e-01 5.7583334071606650e+01 -1.4978456153863599e+01 -9.9823299744262806e-01 1.5156316201595677e+01 -1.3521718915100573e+01 -2.0020634076768918e+01 2.9325275180962521e+01 -1.7395831920669004e+01 -1.3242756098983339e+01 -1.2323291619584365e+01 -1.1079696060803300e+01 -7.6396886287498713e+00 
        </Neuron>
      </Layer>
      <Layer Index="1" NNeurons="14">
        <Neuron NSynapses="11">
          -1.0169570596046318e+00 2.1802346834126500e+00 -6.5407618532773499e+00 -1.9190675652797544e+00 -1.6908548368945259e-01 1.0466698561738388e+00 -1.3928243258745796e+00 -1.0432612182426564e+00 -6.3960365515425321e-01 2.8465176690950544e+00 3.2333012420284785e-01 
        </Neuron>
        <Neuron NSynapses="11">
          -8.1267337627458414e+00 -3.2489126514363051e+00 3.3485840417958141e+00 2.7474828688395601e+00 4.1982767306801181e+00 6.4716348445376157e+00 5.0703757751381229e+00 -7.8374007906457643e-01 6.5114466597140686e+00 7.4865079966797792e+00 -4.0351168940354416e+00 
        </Neuron>
        <Neuron NSynapses="11">
          4.5989585649247333e+00 -2.1599659990347568e+00 -5.7204100271773539e+00 -1.6755575118489583e+00 2.5762198830475973e+00 -1.0318439510073883e+01 1.9816423701409958e-01 2.1651465355371373e+00 -4.0141123638542462e+00 -1.3468672488828651e-01 8.0329630659942861e+00 
        </Neuron>
        <Neuron NSynapses="11">
          -4.2568495263512824e+00 -3.6340886445477674e+00 -2.2144358313394603e+00 -3.6378429966003276e+00 -5.6895918854826388e-01 2.3819675379897887e+00 5.2848639380955897e-01 -1.8056052324436793e+00 -4.5854901869182002e-01 -5.4809618765389692e+00 -1.9407585131165974e+00 
        </Neuron>
        <Neuron NSynapses="11">
          -7.3322854251602365e-01 2.6700362840115308e+00 -4.8635522786891167e-01 -4.6291578035844809e+00 3.3623431914781494e+00 -2.0128986948373755e+00 4.3203739997608703e-01 -1.0572825991366013e+00 -1.3204403058631691e+00 -6.3587446101245693e+00 5.8967120112860192e+00 
        </Neuron>
        <Neuron NSynapses="11">
          4.3984763131958999e+00 -3.7244342526145915e+00 -3.8444221840383030e+00 -8.4241845692016415e-01 3.2974426417912617e-01 -9.3027485922588227e+00 -1.8873025210820056e+00 1.4985149786217795e+00 -3.8520476407637236e+00 -4.9946249353426051e+00 1.9130354871576130e+00 
        </Neuron>
        <Neuron NSynapses="11">
          -8.6696327158307673e-01 3.5987265154070744e+00 1.4509327587545566e+00 -4.1914164506960212e+00 -2.6437120096839051e-01 -4.3579772117867561e+00 -1.8020548373753678e+00 2.7879190022792710e+00 -1.0037058325704910e+01 -4.9786347857257933e+00 2.3427724447117710e+00 
        </Neuron>
        <Neuron NSynapses="11">
          9.5441608104190201e-01 -1.0229240076702535e+00 -2.7099532394150050e-01 2.8106363415960167e-01 2.4938731638470557e+00 -8.8320295805649651e-01 2.8282137300333190e+00 -2.2448406625285542e+00 3.2868109462124501e-01 -3.7938059458067506e+00 5.6731625085774617e-01 
        </Neuron>
        <Neuron NSynapses="11">
          2.5702121781615532e+00 -4.0910847815012428e+00 -8.7666499469703574e+00 -2.2221019702217695e+00 -5.6779032225589854e-01 -3.5949051942483812e+00 -2.1390565097612386e+00 3.5551689550539267e+00 -5.0441510932696654e-01 -1.1658707143728701e-01 6.3880380988650654e-01 
        </Neuron>
        <Neuron NSynapses="11">
          8.5115551387556454e-01 -8.4651769902260032e-01 -2.3108247305567007e+00 3.6047128667857886e+00 2.3272429583912100e+00 1.8092059909296818e+00 -1.9319917464180996e+00 4.9543633110832874e-01 -3.8297100865963376e+00 -2.5493008060363143e+00 2.6362697243948308e-01 
        </Neuron>
        <Neuron NSynapses="11">
          3.6534307605870553e+00 -1.6834486540486879e+00 3.3225767988018826e+00 -8.4661810667119819e-01 -9.3309107946008272e+00 -2.7942239642452424e+00 -9.7641556518264905e-01 -1.2450506664462276e-01 5.0643786287426913e+00 1.0456564112964275e+00 1.1588807716165235e+00 
        </Neuron>
        <Neuron NSynapses="11">
          -2.3604403729165617e+00 4.6480170461724440e-01 -3.1471167384573415e+00 -2.4568899384985996e+00 8.2379719357221368e-02 -2.7022180734366636e+00 -1.3141265452835011e+01 2.9881031093881592e+00 5.3593574391179177e-01 -6.7340643940976994e+00 -5.8722485292179394e-01 
        </Neuron>
        <Neuron NSynapses="11">
          -9.2690804642895452e-01 9.2454051987394026e-01 -6.0651903542300483e+00 6.2866389704800518e+00 -3.3292068066571789e-01 1.8188137584047968e+00 -1.8472973573343975e+01 1.3250730069405078e-01 -4.7500824582616881e+00 3.2773864143740983e-01 -1.5205576468945415e+01 
        </Neuron>
        <Neuron NSynapses="11">
          -1.0964803265788567e+00 -3.9437133093851912e-01 1.1525443526624639e+00 -6.7036307302375580e+00 -3.8724756659542918e+00 -7.6018972831944942e-01 -9.9623182034503721e-01 -1.7768674067286265e+00 -1.9371315594768368e+00 -5.9305261252025296e+00 1.4581493397836576e+01 
        </Neuron>
      </Layer>
      <Layer Index="2" NNeurons="12">
        <Neuron NSynapses="1">
          -1.7843996239006576e+00 
        </Neuron>
        <Neuron NSynapses="1">
          -4.8527774619562631e+00 
        </Neuron>
        <Neuron NSynapses="1">
          2.7448112920849899e+00 
        </Neuron>
        <Neuron NSynapses="1">
          2.9313405587394930e+00 
        </Neuron>
        <Neuron NSynapses="1">
          6.6935584992335064e+00 
        </Neuron>
        <Neuron NSynapses="1">
          -4.3354269143391546e+00 
        </Neuron>
        <Neuron NSynapses="1">
          4.2695418254659119e+00 
        </Neuron>
        <Neuron NSynapses="1">
          -2.9791528603412805e+00 
        </Neuron>
        <Neuron NSynapses="1">
          4.2304880840892114e+00 
        </Neuron>
        <Neuron NSynapses="1">
          -6.9217464516842080e+00 
        </Neuron>
        <Neuron NSynapses="1">
          -7.4012172052461711e+00 
        </Neuron>
        <Neuron NSynapses="1">
          5.7041614172420019e+00 
        </Neuron>
      </Layer>
      <Layer Index="3" NNeurons="1">
        <Neuron NSynapses="0"/>
      </Layer>
    </Layout>
    <InverseHessian NElements="112225" NRows="335" NCols="335">
      <Row Index="0">
        3.4676637169136654e+01 -1.4544671693168263e+00 1.6731587334346942e-01 -8.4397322717265233e-01 4.1914108047289291e+00 2.9281906974751588e+00 -1.8543326045960129e-01 1.2538450807628472e+00 3.5568680160735555e+00 2.0860771859281053e+00 3.5581347117439543e-01 -6.3809484359561353e-01 -1.0752591535731923e+00 -1.6653455559661371e+01 -6.7541548885790581e-01 -1.5976168865165619e-01 -8.4957586656054532e-02 -2.3021441715199260e+00 -2.6878745825601502e+00 -1.0248739003453751e+00 -2.1575043011555088e+00 -2.0325509926974759e+00 -2.5758891028393367e+00 -1.3052897492101996e+00 5.7446259419172874e-01 8.9081699988000063e-01 -1.2239397512214794e+00 4.7406854021720801e-01 -1.3945228799569837e-01 1.9692860463029316e-01 -5.0261342567878664e-01 6.3314288921415063e-01 2.9472231503540103e-01 1.5654414081019001e+00 -3.5598029651773683e-01 5.8328170365964871e-01 1.1674632869642032e-01 -6.4665879111905689e-02 -3.4149885547494607e-01 -9.8898370709511219e-01 -9.6305412050650213e-02 2.2890272270759635e-01 -6.4089869092833193e-02 -3.0603985248865739e-01 -4.8251524421646852e-01 -6.9368875454466461e-02 -2.6436161067252395e-01 -2.9557101931235660e-02 -1.6479485570201408e-01 -2.1521921990619985e-01 5.0846994461332395e-03 -1.1664335862000216e-02 -1.7990750611111325e-01 1.1220802012657689e-02 1.6563530942359433e-02 -1.3451298463135863e-02 -7.0523716225225130e-02 -2.0792801534629363e-01 1.1860682062304190e-01 -5.3666181600902058e-02 -3.5212797172420152e-02 1.6563668901070161e-01 -1.6639678950762168e-03 -8.7231587204722072e-02 -2.2464703092704541e-02 3.3651125586287234e-01 2.2048172755653961e-02 1.0630824905013797e-01 -3.1918466300906667e-02 -1.5796208429844916e-01 1.4247147489609313e-01 -9.5034961940406948e-02 -1.4296149675904313e-01 1.3839760014937097e-01 -1.3147072262776505e-01 3.5257418510818601e-02 -1.3732451256118372e-01 -5.6261170606484667e-02 6.0101467878544756e-01 -5.2102209751785367e-02 1.3387012486032751e-02 -1.0992346284944211e-01 1.7616083858964293e-02 1.9674003968843037e-01 -1.2039945815756270e-01 3.5275720064848241e-02 1.8619252421824561e-01 -8.1172059354251994e-02 4.2575484919982712e-02 9.9190236111535601e-02 -9.8141474999171030e-02 -4.5203670862249273e-01 -1.3633386836967076e-02 1.9878615302197616e-02 -2.7851529824198640e-02 5.3205964216156587e-02 -5.3934392301826284e-02 3.8084214662138391e-02 -2.2678887743930898e-02 1.8172279198147907e-02 2.9207630840726473e-02 -6.7065199541341824e-02 2.9530244102629721e-02 4.2320630156766015e-02 -1.0414556672747881e+00 -1.3264035114325867e-01 1.9975764673859486e-01 -9.8176031043344825e-02 -2.7539821360547284e-01 -2.2018431398488458e-01 -2.6855964037255237e-02 -1.6858554498918835e-01 -3.8915275899089385e-02 -9.8623406833107968e-02 -2.2229735747055246e-01 6.8934757303854219e-02 -2.4064715874077103e-02 -6.2612334021400817e-02 1.7412495962018090e-02 8.2857182908245397e-02 1.7055139821008924e-02 -3.8361130827123099e-02 -5.3598286429140662e-02 -1.4843295698166059e-02 -2.7406196133720476e-02 -6.5993962260902372e-03 6.3987826756805571e-03 -1.7425171842467280e-03 2.4101371473212230e-02 -2.6628398110367879e-02 4.5789177322702140e-01 -1.2206232840567599e-02 -1.1133433261543660e-02 1.7567065705384383e-02 2.3808507343554774e-02 2.4331132588309989e-02 1.7520327293064512e-02 -3.6500008514884053e-02 3.2092428738566402e-02 4.7223704712005501e-02 1.0275892036547716e-02 -4.0363652515138307e-03 2.2981902959400013e-01 -2.5940309823875074e-01 -1.7826898940679792e-02 5.8495363731919589e-03 2.9583918826216363e-02 -6.9328746430870183e-02 9.4080865764414073e-02 1.9410220553070595e-02 -5.2012864857160716e-02 4.3595197935463403e-02 -3.8738215425305256e-02 4.1993838097722919e-02 -3.3207076031510907e-02 1.1931081939110945e-02 1.6668099734850138e+01 -1.6023794016030128e+00 -1.2726989254096965e-01 -7.2526324866965519e-01 1.3843625614622908e+00 6.8178982662924525e-01 -8.7875580822427324e-01 6.7590784814742333e-01 1.1633936841265040e+00 2.2431045732992294e-01 -7.9509574746881562e-01 -1.0266248742861173e-01 -4.1634954112787292e-01 -1.1959458934342250e-01 -1.5089825493392640e-02 1.5188950041331903e+00 -8.0170539163975540e-02 3.4084687218817744e-03 9.9317370875943167e-03 -4.7879662293561220e-02 -2.9933735261170429e-02 -5.3358307524193571e-02 1.0095771677807264e+00 -1.7088056593237866e-02 -1.8148898238020239e-01 -3.3020991575594461e-01 5.7819378736052718e-01 -3.4140422539917381e-01 2.9604869430267741e-02 1.1664276822075093e-01 3.8898487290972711e-01 1.2040228427241217e-01 2.3297898741115775e-01 -3.5065212698011550e-01 -1.8726358523473308e-01 1.8417768295566628e-03 -4.1958717277418733e-02 -3.0980488299443021e-01 -6.6019772996386727e-02 1.7717332168282078e-02 -3.4632915034365075e-01 6.7238983113599993e-03 8.2899213582991974e-02 -1.8615384906611132e-01 -1.9595276826062613e-01 4.8543045802574181e-02 1.0653019062789582e-01 -1.5130956683496066e-02 -1.9608995673422269e-01 -1.0896434113285345e+00 -1.2899619974684666e-02 -1.3351292636600814e-02 3.9439002114824290e-02 5.5246571741243478e-02 -1.7654068699331546e-02 1.8549967179779116e-02 -6.2613387984704616e-03 -7.5343790644273323e-02 -2.1055164613637489e-02 7.5383636405918164e-02 1.0338635942176690e+00 -8.0115890283207702e-02 3.8844680763313683e-02 -6.0605376763478436e-02 -4.8077794092734050e-02 6.2591146921313623e-02 3.2211258930765141e-01 -1.7148303668415776e-01 -3.5187939421911518e-01 3.2198548039906516e-02 -7.4609188291550277e-02 -1.8704899793135610e-02 -3.3233560514735722e-02 7.4954448148304564e-01 5.4635241733127171e-02 3.1005058771167882e-02 4.6946167239490055e-01 1.5145350795990176e+00 -2.4385355518984575e-01 -2.2203417375661449e-01 -1.0241619041720271e-01 1.6797803017903584e-01 1.3759955926760199e+00 7.7855810720069002e-02 1.2464920976115401e-01 5.1162090835872309e-02 -5.2770070961219953e-02 -8.4466268686735679e-02 -6.6478264876689530e-01 1.6447601682746704e-01 -6.6274053917845854e-02 -5.1491809988574999e-03 -8.1816496562899799e-02 -1.5774764323086504e-01 -9.4612062097298028e-03 -6.2431414554538572e-02 1.2444378117360544e-02 6.6445771784900076e-02 -1.9305549739118910e-02 -1.1333064898113934e-01 3.0681388532338150e-03 -1.5067182701896564e-01 1.3347560769394057e-01 -4.0197717237184083e-01 -2.3711583863512908e-02 1.3846454291827259e-01 6.5826645759104352e-02 4.7439171850044204e-02 -4.5384216129847332e-03 -2.0738107420467777e-02 5.1085529007202091e-02 -1.2130000146957443e-01 2.3665193615820992e-02 -6.2329574804227406e-03 -2.9467389442031156e-01 -3.3721495484756381e-01 1.7788982008693890e-01 1.9717557426004836e-01 -5.2340170448757301e-02 -5.4569346526404383e-02 -1.4453445591836772e-01 -8.1679787378830415e-02 1.1895122781240769e-01 -1.4227980941584195e-01 -9.2565201451683815e-02 3.6590221415001500e-01 -2.0105615293006540e-01 5.4729445876395832e-02 2.5913537406596632e-04 2.6852788025062108e-01 2.9882525193978687e-02 1.5283149379377675e-01 -3.2229854529065000e-01 -9.6738616734005592e-02 3.0115770221578908e-02 -5.6335799175212753e-02 -2.7871811852673734e-02 2.7287448862728442e-01 2.9262075882274724e-02 5.6443746374956305e-02 4.7307726218901469e-01 3.7545067867587045e-02 8.7328832162390430e-02 1.9001257108398262e-01 -7.5189557908215132e-03 6.2203993501323385e-02 -8.6572331381113810e-02 9.4441455510003247e-01 -1.1793877628313574e+00 -4.4455471422252223e-02 6.2481862175345626e-02 -6.8934890450953934e-01 1.8573511196300740e-02 -2.0305844723579750e-01 -5.6409295973904372e-02 9.1015996913393593e-01 3.5385556571193560e-01 2.2769709101090635e-01 -1.7563146141905506e-01 1.6815376074538051e+00 -1.5053049190638970e-01 -2.2187661629648170e-01 -2.9991974917728942e-01 -3.3277565216502825e-02 -2.0864880789460249e-01 -6.5376946385027246e-01 -7.7269501372023575e-01 1.4563489870733637e-04 -1.0254619906705287e-02 -7.7481334836179139e-02 2.3290011817356771e-01 1.4222766809413123e-01 7.5519638018467505e-03 1.4141299978495625e-01 3.8115503452294752e-02 -8.3434262417023120e-04 -7.5075184701029127e-02 2.6610278288704770e-02 -6.3151464415311165e-02 
      </Row>
      <Row Index="1">
        -1.4544671679102592e+00 3.0433107329196801e+01 4.4377721039008264e+00 1.3262565310838599e+00 -9.9140314286366760e-01 4.5979821113582720e+00 1.5038309472328706e+00 1.2043422764899701e+00 -3.3062581709440764e+00 -4.9455868107461614e+00 -4.2247409100304623e+00 9.0355068382541237e-01 2.6010000609521705e-01 3.8507353174539949e-01 -1.0878454371593930e+01 -1.2993695680215511e+00 -1.4166124670648732e+00 -2.1299856970886860e-01 -1.7024037123917655e+00 -1.6726531915218057e+00 1.7627504031698615e-01 4.7760110870559291e-01 1.4582702544396984e+00 1.4677662324467815e+00 -1.6529465500419254e+00 -4.1432318223498932e-01 3.2243202058906739e-02 -2.6498649515011690e+00 -4.9183880648861883e-01 7.7962168189475101e-02 3.1757892760387207e-01 -2.7110678810294764e-01 1.7447485135993501e-01 -1.0784805432010964e+00 6.4008139072717585e-01 9.5797436186167673e-01 -1.6740885042644038e-02 1.2734842412354634e+00 4.7681874544530523e-01 -1.0822615835785648e-01 -9.2065657329123085e-02 -2.2903478724366774e-01 8.6677298375139059e-02 -1.8006369872208650e-01 -7.6384305086426352e-02 -1.5285903306332396e-01 8.6088329570434829e-02 1.2464606989694926e-01 -2.9669336287479953e-01 -1.4292079294353485e-01 -6.0804577051025988e-02 1.6989199301697285e-02 5.1235998219431138e-02 -2.0996366874657063e-01 -4.1003652363529514e-02 -2.2720009899924509e-02 -4.2672256056846103e-02 9.0504686932962083e-02 -2.6327389938728590e-01 1.2332863475516931e-02 6.2676279375301125e-02 5.6311385358245369e-02 2.0307163448631493e-01 -8.1963006481094447e-03 3.9651988686818351e-02 -1.5694158522003565e-01 -4.7926456713663218e-02 -8.6674344964454142e-03 -2.7350307500015769e-02 1.8523779402777399e-02 -1.1646268323049158e-02 2.2330730520051345e-01 9.0497388186911554e-02 1.2557481753068633e-01 4.1470493589118584e-02 -3.4323734395054750e-01 1.8928133360276755e-01 -5.9110948020867110e-02 -1.7154981142427073e-01 3.3138461729694046e-01 3.6993147074777771e-02 -1.5508559340970153e-02 1.1019992239396242e-01 -1.0358970093629383e-01 2.0597397243583063e-01 -7.9047624629527358e-02 -5.3712270702119938e-02 -7.2145248165562142e-02 -3.5191679528045056e-01 2.0011527127664941e-01 -4.3173077392893749e-02 5.0728944796169295e-02 -1.5554366053754171e-01 -4.7104600458533763e-02 -5.8155411623995179e-03 4.0666529864297307e-02 -3.3582967218247661e-02 -1.6938622583216442e-01 6.8025447545468729e-02 -7.0946436080193048e-02 -6.9641527154520433e-02 1.0291439036140246e-01 6.5937527596823670e-02 -7.0509706906338732e-03 -2.5252912827664620e-02 -1.3440691172224856e-01 -2.3655672782227244e-01 1.3056088829599344e-01 -3.2037113889780611e-01 -2.0853929738669702e-01 -2.7688671793807340e-01 4.0388807047757047e-02 9.0595616659096434e-02 -2.6332576827723075e-01 9.7355033514720524e-02 -1.1223933500071261e-01 3.7712655803532155e-02 1.9130620102527696e-02 -8.6803353128567601e-02 -2.5485735166119017e-02 -1.5133647742435159e-02 -6.7918845118618704e-03 1.7233111439636913e-02 3.6958482596437942e-02 -1.2002220738883337e-02 6.0187964232373270e-02 -1.7802092471156661e-03 -4.2152985428610346e-02 4.0880319961576761e-03 -1.4287936619621744e-02 -1.1920936880324662e-01 1.4465968303054355e-01 2.7886439176328520e-02 9.5304144028682258e-03 2.7688689706150897e-02 4.3108593302865622e-03 -4.1522074934290325e-02 1.0885219734242410e-02 -5.9065378085924547e-02 -3.7730383681230696e-02 -4.5466725229682668e-02 1.6473538443272227e-02 1.1694086331703524e-01 -1.5309918610557519e-03 -3.5443071956101684e-02 2.6235467501742517e-02 -2.4439890971871051e-02 1.3308388101387764e-02 1.1338307826104552e-02 -4.5577076303574084e-02 -1.0226258186593978e-02 2.2827569478906184e-02 4.9768289923049214e-02 -3.2918596183601337e-02 1.8397181341535673e-02 2.0151418194741255e-03 -1.0298616933812048e+00 1.6521651968164008e+01 2.6012568479349163e+00 -1.2612367513993306e-03 -8.9131337183947723e-01 2.6447261419895502e+00 -9.1721355874760491e-02 2.8904253589368928e-01 -2.1603013575116643e+00 -2.5419622671322366e+00 -2.6509103944329762e+00 5.5289239869604123e-01 4.6601024458647067e-01 4.4652674257752073e-02 -4.6816475302960028e-02 -1.0936361394764504e-02 1.1784204799979214e-02 -2.0223962638358517e-03 -6.0000095890122562e-03 3.1807104721223320e-02 4.1726506266016122e-02 4.6876987748168064e-02 9.4876061870636130e-02 -1.7374123529105212e-01 1.4447331602382087e+00 4.9205164761944231e-01 -7.4369234952778229e-01 -1.8008409873072928e-01 -1.3807741392024848e+00 -1.6915647568668781e+00 -1.5791770559499168e+00 2.0332160564151161e-01 -1.7616749359145514e+00 -2.0973368625587048e+00 1.1004133498930715e+00 1.7893727939616855e-03 1.4904984314541680e-02 1.3285366632925133e-01 2.1568002271654318e-01 8.8608421774820978e-02 4.8097227944162979e-01 1.2753833887173360e-01 -3.7619607275483163e-02 -1.0278766302619817e-01 3.2350857749940348e-01 -8.0880029210402604e-02 -2.0559794015216792e-02 5.3318658492927662e-02 7.4926278754924747e-02 5.1298708155540051e-01 -4.1414665680625191e-02 -7.5805223303580777e-02 1.3020488789491969e-02 1.7434634543594313e-02 1.1340529912080460e-01 -1.9606834597209974e-01 -1.7020546820492122e-01 4.6994984861370437e-04 -1.9126876059468112e-01 -5.9418357742634445e-02 1.0523953748474275e+00 -5.8042626989109614e-03 1.0900603540508334e-01 -4.0909027020672228e-02 6.6345218546407569e-02 8.1319459611310235e-02 2.8200719766105431e-01 -3.1106853360447939e-02 1.9072907275113138e-01 7.0639668968613245e-01 1.5331684505248755e-01 -3.5365745811522409e-02 3.7002267769851785e-02 -3.3120906594065902e-01 -2.1732975141230171e-01 -9.3877098667977041e-02 -3.5461419905178559e-01 7.5261114226879644e-02 4.5180689684866238e-01 1.9766236264854800e-01 1.5449126360192902e-01 -1.8991835917829847e-01 -2.4171644076405308e+00 -1.5252204174616657e-01 -1.9514599989399195e-01 -2.1949657522176702e-01 3.2977359256647465e-02 -4.6703090741669229e-01 -9.3199154536285578e-02 3.5017306362664757e-01 8.1742026413828495e-02 3.1005341289099875e-02 4.6358104846836001e-02 -7.8564666856109980e-02 -1.1381840179531084e-01 1.5589717616801368e-01 3.8305127679207240e-02 5.0034501996921943e-02 5.4130263034622650e-02 4.2209688045932209e-01 -1.1204562936345469e-01 -2.4354818339419593e-01 -6.8438662378464549e-02 2.7428851708808144e-01 4.8397165285363952e-01 1.3876572071498722e-01 2.5081691903213360e-01 1.1446472409345959e-01 -2.9421121174466602e-02 1.8673011151465180e-01 7.2135022458900355e-02 -1.5251664534884757e-01 -1.9094184042431611e-01 -2.7169417795637291e-01 2.2058557822648073e-01 -1.0636739482176398e+00 -1.0776484596238040e-01 7.1848049096353728e-02 8.8180827592385561e-02 -4.0155335661788583e-02 2.2501388061559480e-01 3.2704150195428577e-01 -7.7440798235824337e-02 1.1624646474037221e+00 2.7571194511256908e-01 -1.9544300628338618e-01 -2.0677105945739171e-01 -1.4803207036302788e+00 -8.9395786432798530e-01 -9.2643310387923494e-01 1.3852026299726114e-01 -7.4365605842759452e-01 -9.7023927657239128e-01 8.2440884600712738e-01 7.3581762271960505e-02 -3.9871250671073000e-03 -4.6381732677993559e-02 2.4165524357611545e-01 -3.9492718997353737e-03 -1.8698299029054677e-02 -3.4376691400697834e-01 2.4893374278309732e-03 -5.9823595869888946e-03 -7.7146282245716624e-02 4.8107912484276372e-02 9.4708022522594082e-03 -1.4296116742461507e-02 5.9096685757830869e-01 -5.1798942681929105e-01 -2.1886311634891492e-02 -3.2672583129465985e-02 6.9843051434395154e-01 -2.1688197629592787e-02 2.0644307514214033e-01 1.1781474294324856e-01 -4.8214088771427477e-01 -1.1521230498947554e+00 -2.7853151634791928e-01 2.7577502104130769e-01 8.5135359696003121e-01 1.0834233673583864e+00 1.0283228080213247e+00 1.0445579018100730e+00 -1.7215299845789866e-01 1.0289375776538292e+00 1.0610815999301031e+00 -1.6260301318014281e-01 -8.5714012602109563e-03 -5.0969499906649229e-02 4.3751478410209849e-02 1.0162498097313666e+00 2.8653006195512332e-01 -1.1977370463675532e-01 -1.9861519071137423e-02 -4.8342315872513975e-02 6.3367177499282085e-03 -1.2787628934175921e-01 3.6639589604190537e-01 -3.0831386892175344e-01 
      </Row>
      <Row Index="2">
        1.6731587421643646e-01 4.4377720914580063e+00 3.3764204496034758e+01 2.1156201161203732e+00 -6.1369252518476258e-01 1.7416533473617410e+01 2.8664432022580035e+00 2.9753829632341664e+00 -7.2937430648982882e-01 4.1295818539216311e+00 2.0315272326867095e-01 1.5970900083215529e+00 3.3698994448443376e-03 7.2372845780389827e-01 -2.3294209407773119e+00 -1.1723710065977203e+01 -1.8531504150231335e+00 4.5811442787066925e-01 -5.0776016444066201e+00 -1.6239461710582113e+00 -7.8294306804055791e-01 1.9225499280048826e+00 -2.2635192827234087e+00 9.5683297867270778e-01 -1.0341151602513075e+00 -1.9000670448300427e-01 -2.9880755781686191e-01 8.4050136857548874e-01 -1.9728656679118273e+00 -2.7822625369128917e-01 -1.0622309591273615e-01 -1.4904333571934343e+00 -2.0683245627557101e-01 -6.8028409245257260e-01 -3.7612222474814766e-01 1.6708360866181549e-01 -1.3929286584941449e+00 4.7899745393089788e-01 1.7465342412336993e-02 -1.8758917879291831e-01 -2.3823935512090147e-01 -1.3060146664048093e+00 2.0307615528777501e-01 2.5148038481717450e-01 -6.3237031961965506e-01 -2.3262149520554895e-01 3.4620664711648291e-03 -1.5531169995042868e-01 -2.6727533065274367e-01 -1.4539188180707724e-01 5.1288449542479048e-02 -6.5142012627852991e-02 -2.0795695328013702e-02 -1.5228734573620756e-01 -3.9773885604696713e-01 2.4806663814075036e-02 5.7499837045484781e-02 -2.6997521860991902e-01 -7.9227423043202350e-02 2.7834810297817720e-02 -5.2882805817760670e-02 -8.9104235321657024e-02 3.0170656335464008e-02 3.2625628508201165e-02 4.1629623633219204e-03 -3.3812182972640187e-02 1.0148761733167817e-01 6.0904981637754485e-02 8.4564887804073674e-02 9.0205653982752487e-02 -2.1468241455935833e-01 -8.8078525938077940e-02 1.2485958392325891e-01 -1.5660149433246873e-01 4.4176829733702849e-02 -2.1362404193227175e-01 1.1434295803033478e-01 -9.4685811015230326e-02 -6.4643718444806209e-02 8.3326575860019014e-02 1.5612882025040875e-01 9.0149243428613746e-02 -5.3013177184058957e-02 2.4829143875624388e-01 -3.3006346172131495e-02 -3.0161539009479196e-02 1.5665632144903380e-02 3.3343851259455659e-02 -1.5313232734095716e-01 -3.4741363916814594e-02 2.1290550977817402e-02 -1.4503836408891708e-02 -6.8318676243858262e-02 -2.6613495413849647e-01 -4.2233498711564454e-02 6.7282918556184845e-02 -1.7559834346396297e-02 -5.2136467362968619e-02 3.5879364675032444e-02 6.4670738375534803e-02 -6.6138624337413687e-02 3.1679428398904239e-02 -3.0759213850691886e-02 6.9728861522595276e-02 -2.2675939667213607e-01 -3.9019500633042159e-01 -1.6341923226678718e+00 2.5693702683535857e-01 2.8104112271480408e-01 -3.6277669141073676e-01 -2.7567708411819314e-01 1.2524373280117018e-02 -4.0173909808763786e-02 -3.3377398760603583e-01 7.8452994649844676e-03 -5.3567024529276655e-02 2.6887710828304490e-02 -2.2157484866551780e-02 -4.8335842265276791e-02 -3.9980769612055145e-01 6.3903255377212920e-02 4.0252475913927811e-02 -1.0941812722894462e-01 -3.9445510882445245e-02 -2.3306144526177297e-02 -8.7712850025325140e-02 -6.5493456584895693e-02 -5.4680508996729681e-02 2.4250936274849311e-02 -3.7099893179995291e-02 -5.1240020748611337e-03 -3.0399584381955030e-03 -2.0233926112275910e-02 -9.8329280694199328e-03 -2.4805569213452065e-02 3.7715273888027256e-02 1.4856799882441818e-02 -1.5060572001076189e-02 2.7921988627902954e-02 -2.3380233938315492e-02 -5.6465535284457864e-02 -9.6014981060688828e-03 -1.0194739745687187e-01 -3.1591612846843399e-02 -2.5655830278858267e-02 -5.7731108036964171e-02 -3.7302041972273560e-03 -5.7030452717623081e-02 -3.8959766419944405e-02 3.7615358227253017e-02 -1.4261541083235438e-02 -2.3287923256564147e-03 -6.3835694237045978e-03 -1.0128132331491901e-02 9.3458794853256144e-03 9.8725506613932396e-03 5.3319100507849893e-01 2.7771059771695525e+00 1.9505508697900389e+01 4.9279942304890412e-02 -2.5149729621522443e-01 1.0588539873848429e+01 1.0282756615928310e+00 1.3897406039910900e+00 7.8479987950448704e-01 1.9209893577466477e+00 -1.9700658548403549e-01 9.9382822752714106e-01 -2.0810162054512921e-01 -3.3723197945181693e-02 -8.1849998258942125e-03 -2.5913088784042415e-02 -4.9243887745267045e-01 -1.7281062210900006e-02 3.2906755356036932e-03 -3.4059789317110484e-02 -3.2339679675879446e-02 -2.2556393446731333e-02 -1.0221437218117180e-01 1.7318406045337298e-01 -9.7144060850943414e-01 2.9393741911398691e-01 2.9932917912708656e-01 9.8735041942468271e-01 -5.8459448746556442e-01 8.0094701929107603e-01 -8.6570284454582369e-03 -3.8994313427095828e-01 4.6099243478195223e-01 3.5494383650288786e-02 -4.7963230470318263e-01 5.5437417687753898e-02 7.6383068894114392e-02 5.4330757896745574e-02 -4.7683857442757382e-03 -5.2158989898742861e-02 1.2671390944100249e+00 6.6711852242599123e-02 -1.4109789077562218e-02 3.2562755927170517e-01 8.6590489214494193e-02 -6.5363793069685538e-01 9.9988090338305913e-02 1.0157062677884632e-04 -7.4674601132871055e-02 5.3629113376912656e+00 -9.7182367983261575e-02 2.3776581935768942e-01 1.4349446803227917e-03 -1.7288610250601560e-01 1.7030811341460320e-01 3.0765590447085445e-01 -2.3704237920853632e-01 1.8224576742114640e-01 -8.5283421935173909e-02 1.0730517650914240e-01 8.2299098933606984e-02 9.9724440399753589e-02 -8.0947981606851932e-02 9.6189484789344082e-03 1.5775023150973455e-02 -6.1996397022103522e-02 -7.7238982614866947e-02 3.3898577697133092e-01 2.6475920701832845e-01 -1.5588067033058639e-01 2.7729424173396566e-01 -1.2831810494919882e-01 4.7104909483526872e-02 6.5826812805119228e-01 1.8870188599295479e-01 5.5842666092278392e-03 1.7519521965262194e-01 2.4288949391398446e-01 1.9185724490071898e-01 -4.4002074774309785e-02 1.3329736764206845e-02 7.1868124173473102e-02 -4.1505161110958113e+00 -3.3342527118554788e-02 -2.0820162075623694e-01 5.6235769701899585e-02 1.2935853135828645e-01 1.2522178633781339e-01 2.3511377865945082e-01 1.6127780412718018e-01 -6.6668464817800865e-02 -1.2796868238079573e-02 -1.7533061950309614e-01 -4.0599647842590986e-01 -9.2106786801700591e-02 -1.4381192520038627e-01 -1.6281872307234768e-02 5.5268285919016558e-02 8.8407925142045540e-03 8.2492072285913931e-02 5.7886186570799025e-02 1.8115937257822540e-01 -4.3689269126693270e-02 9.0340269999486855e-02 3.8955346082749287e-01 8.0066475307693619e-02 -4.2398828380193043e-02 3.9627223212904628e-02 7.5694220397877210e-02 4.5751966811890199e-02 3.3626523902043903e-02 8.1310996415409065e-03 1.5218013861919555e-01 4.4704770940102723e-02 1.6136019658931655e-01 -3.2589581535464796e-01 -1.5122283491931333e-02 -1.2100667378894858e-01 -1.0101505598505960e-01 -9.2144419084280282e-02 -1.4462374866614708e-01 5.1609327716354625e-02 1.1339622921337897e-01 1.9303142593972838e-01 8.8694169824992675e-02 -8.3053833221915507e-03 -5.1474839091086011e-01 -8.2233378493230092e-01 1.7592007274094712e-02 -1.9946700934959294e-01 4.4515895096817748e-03 2.8070227484793508e-01 -2.8259279040206720e-01 5.5503861256209958e-02 6.2105691664758100e-02 -3.9188800053172601e-02 1.4330860264732759e-01 2.1190674242757446e-01 1.9840946311882601e-03 -9.9392160054968537e-03 -3.0902646845207471e-01 6.1814631085581717e-02 4.1684638436249477e-02 -1.9856466297175882e-01 -1.5031572017785477e-01 -6.9436249649317827e-03 -1.1987799509725505e-02 -3.1393590431841290e-01 -2.4867065371182662e-01 -4.4310616419297677e-02 2.7978884469740173e-02 -4.5804879658232343e-02 -5.2633066882117163e-02 -1.3188316351389195e-01 1.8286266615117563e-02 -1.3091540573605442e+00 -1.2761434529516569e-01 -1.0904088106149290e-01 -1.9764962885638671e-01 5.7546309177400445e-01 6.7676540346237468e-01 -1.6794972907183137e-01 1.1371399892893397e-01 1.0750653614573702e-01 -2.7380928334960453e-01 1.3367373741878641e-01 1.0640492594300555e+00 -2.8674337947926939e-02 -8.1591179688650595e-02 1.8014909006590640e-02 1.3699752381349128e-01 -7.9587948690201360e-02 1.0234763058694435e-01 -2.2006168415278360e-04 3.2015894770399789e-02 -3.6617781460007631e-02 4.7971283641649431e-02 7.4962285411786933e-01 -7.6125751675252495e-01 
      </Row>
      <Row Index="3">
        -8.4397322656671214e-01 1.3262565325201319e+00 2.1156201158889338e+00 1.9545887048691636e+01 -8.2204595306084927e-01 1.7895066755670170e+00 4.0303908567268198e+00 9.5935056798569551e-01 4.1705748592115149e-01 3.5053065743140438e-01 3.5344535071335184e+00 2.3008752677976840e-01 -4.5737552354108590e-01 3.6652766150565874e-01 -8.2342294196837007e-01 -2.2713711282905038e+00 -1.7014227049373073e+01 5.7659172320008896e-02 -7.6432196030359101e-01 -5.3061690033299254e+00 -5.8278164594416104e-01 1.1884899942572758e+00 -6.6292725099197125e-01 -8.9089524701559430e-01 -9.2689745564761727e-02 3.8486373722698475e-01 -7.8119027858206458e-02 -2.1437586383980678e-01 -5.2178295602217273e-01 -8.4567399281778233e-01 1.5731918795557851e+00 1.2983863860799083e-02 1.1540793156936457e-01 -2.6772312066842163e-02 -5.4749485248922780e-01 6.4181763549087389e-01 -5.9887816566103980e-01 3.6884192222895051e-01 1.4337134350972625e-01 -2.0866130499411162e-02 3.9883227984366165e-02 2.3557860625517346e-02 -7.1555464432722571e-01 3.2623404014031632e-04 1.1125084569972077e-02 1.1892400026424399e-01 2.8969905635519932e-02 1.0471971552192864e-02 7.5209207553195739e-02 -7.3036084806048951e-02 7.4394372775772266e-02 3.9359837013404224e-02 2.8706401919910973e-02 1.6063198044986137e-02 -2.4114533943574594e-02 -2.3284567739310194e-01 5.0669069718670023e-02 -7.9549169728741154e-02 8.7564620209931110e-02 5.3222513576328540e-03 -3.4722878985884026e-02 1.0464536844213806e-01 -2.6089163247369651e-02 -3.0385165033376960e-02 -6.1223396738554481e-03 5.4717490849886564e-02 1.3672763029343171e-02 2.9425570025562120e-02 -1.8624932173930886e-01 8.1787244221902575e-02 6.3986083121788662e-02 1.8051535159005283e-01 2.7696334875548345e-02 -6.7477494936913018e-02 -1.0575849147325989e-01 -1.1710967818929982e-02 -2.4042870424676455e-02 -1.3911025795556475e-02 4.1331173479930428e-02 1.2213740041929738e-02 1.7170967013590221e-02 -3.1002328645693877e-01 -1.4366800880710562e-01 5.7631800922242682e-02 1.1051596999264657e-01 5.1812882078666966e-02 -4.4145135891871412e-02 -1.1054611167225349e-01 5.8552458146334529e-02 -6.2498231716719699e-02 -1.1550111769585009e-02 1.7112335525342193e-02 1.8724723349985095e-02 -2.3351104939971390e-02 -5.6842498586604617e-02 -9.9337133172708730e-02 -6.5766346119792679e-02 -3.1604665109436048e-02 4.3174037781686048e-02 1.5202227007764246e-02 9.3242747843471696e-02 -1.5398889965208801e-02 7.7279916258691864e-03 1.3488122618556669e-02 -4.2991598234829898e-02 5.9866599603088211e-02 -1.8277172881483672e-02 -1.1722427879840325e+00 -3.0303705150318043e-02 -4.9385788230294492e-02 1.8291837647168493e-01 4.0229672051534715e-02 1.9979468501241660e-02 1.3818298106331917e-01 -4.9036997506997249e-02 7.5970553657338902e-02 4.2974724725924507e-02 -1.8138444634080895e-03 -3.8788027115986279e-03 3.5086256510315272e-02 -8.6993944942517526e-02 -1.3840957241296192e-03 1.0047041057106743e-02 -3.5293070056995585e-02 7.7755776691025291e-03 2.3890086838812162e-03 -1.0322829401909456e-02 -1.8815055387369092e-02 1.0495926681995393e-03 1.6994827913719875e-02 1.6149826321019134e-02 -7.6455909802926984e-03 -5.4033556167684682e-04 5.7710385169822229e-02 -3.2121345062505503e-02 -1.7384017535954366e-02 -1.8638556830954556e-02 1.0600944610743526e-02 8.7404462266934824e-03 1.4700925804443413e-02 3.1900059785138990e-02 -7.4932203840347607e-03 5.1796364985055909e-02 2.0871825515381956e-02 -1.6164307444896941e-02 4.5117683087660138e-03 5.1385728577067392e-02 4.9783102932972612e-03 -1.4413191144151460e-02 -2.4028215369345528e-02 -1.5819227053994911e-02 -4.8969810273320057e-02 -5.3913236092134831e-02 3.0290671594145613e-03 -2.0780177381616194e-02 4.4575758095935503e-04 -5.3087928470931400e-01 2.8953913390883979e-01 -6.5115673055423473e-01 1.6811099907169584e+00 7.6960690422788325e-01 9.8592768487724192e-01 -1.1063731886810584e+00 3.4740628381017458e-01 1.0135583107912685e+00 4.3066645638671158e-01 2.0192033774346081e+00 4.9161346195844580e-01 9.2342016153992845e-02 1.8221553291679626e-03 2.6977314557646154e-03 -9.9252230178541456e-02 -1.6041988935583618e-02 2.2219906105182277e-02 -4.4760351165780143e-03 -2.0087002328313397e-02 -4.6018222609600749e-02 -3.1690944408936016e-02 -2.6733328681119106e-02 -1.4625339275053273e-02 1.2098602768468014e-01 2.5928444667557393e-01 -4.7329195241150479e-02 6.6292173966590984e-01 2.0971401238542731e-01 7.9843400069920953e-02 2.8019381139031463e-02 9.3117414398950160e-02 -3.5747415877473009e-02 1.4743609085872933e-01 -5.5648038841321593e-02 1.3146872518741370e-01 1.3460078794731878e-02 -1.3695025929418847e-02 1.3487914788441557e-01 -1.4800007720693426e-02 8.5730401045510551e-02 2.5149088491221550e-02 2.5646893142602156e-02 1.0752386963669486e-01 1.0930356629572779e-01 -4.2993320330737106e-02 1.8612915859348900e-01 3.9101936161803508e-01 2.6895404603310419e-01 2.0791474812455562e+00 3.2129254556052034e-02 -3.5164624241331460e-01 -6.1200740690611349e-02 1.9465460964628745e-01 -2.3444212303495937e-01 1.4001741007322754e+00 3.4089824685982961e-01 -8.0959359373543149e-02 5.9443101400702358e-02 2.3836832121936935e-02 -5.5419396534277787e-01 9.1887404461333366e-02 -7.1591785783008038e-02 3.3756854188490948e-02 -1.1436628223233314e-01 -1.3201702717264735e-01 -4.8729524794636869e-01 2.3486102444005152e-01 3.6658896948723874e-02 2.0166778671100971e-01 -1.2196698079137036e-02 1.1419931058117072e-01 3.8300089430345297e-02 5.7343147430500396e-02 -2.9418877937646193e-02 2.2405921668012141e-02 1.7394586020349712e-01 3.6484555367530502e-01 -1.3147241810718668e-01 -4.0588405954104906e-01 -4.1654258401682631e-01 -2.7884802270441933e-01 -5.3182973182174464e-01 4.6730132405472524e-03 4.3394191530501613e-01 8.3585194085064402e-02 -2.0138864664606682e-01 2.4781548196625558e-01 -8.3644210563439225e-01 -2.5850748285366998e-01 1.0506565098266096e-01 1.2334484054317330e-01 3.4823195228290027e-02 2.7947913694949311e-01 -5.2440426503322313e-02 8.8350334746118281e-03 -5.6621100914214795e-03 -1.0955799286418606e-01 4.1920114631430194e-03 -8.7491630426918598e-02 2.9413809998156237e-02 1.4727254236791398e-01 -1.5109813937826844e-02 -2.2946641206769591e-02 -3.4920895589758416e-01 -5.7007063951593495e-02 -9.8299641683023853e-02 -4.2981617496456792e-02 7.0995205863112032e-02 7.3130071645182149e-02 5.0291686157630355e-02 4.1873886316437958e-02 -2.9643189289662952e-01 -2.3838569688543787e-01 1.8423347383807354e-01 7.1909039407758613e-02 1.6377174516919135e-01 1.5555858830550695e-01 8.8866463126038187e-02 -1.0043479322227536e-01 -2.0247515351923440e-01 -2.1659570650507776e-01 -1.3997618373450926e-02 2.1507487751322879e-01 -6.0144262929257009e-04 -2.3242960387631406e-02 6.0986253213146047e-01 1.0766345453863568e-02 4.2106871219686426e-02 -3.8329091431498763e-02 1.6928690523964893e-01 2.0789917945588310e-01 2.2060785808068034e-01 -7.3302393057878307e-02 6.1305408107929393e-02 -1.7692784483759882e-02 1.2465852746481576e-01 -1.4652191232581657e-01 5.3415701905158652e-02 -3.0177663599020299e-03 3.2373917743440916e-01 2.8960027617274675e-03 -1.9275829659087806e-04 -1.3838705144032737e-02 5.0456080813647830e-03 5.9726730553716079e-03 6.7100107975156531e-03 -3.4196223770220158e-01 7.1562093221544387e-01 5.2379404432819077e-03 -1.9334249131195663e-02 -2.5263838760240409e-01 -1.5400281120676273e-02 -1.2167387493605353e-01 -4.6086111672568875e-02 4.5559581036923191e-01 -1.0760284391759090e-01 -5.4874616746355631e-02 3.1587220284813089e-02 -8.2805120813604560e-01 -1.2425344710505359e-01 -2.6928796151493739e-02 -1.7385764455570385e-02 -3.1900898438396386e-02 3.2938805651615000e-02 1.2051708752801815e-02 -4.3984347434989712e-01 -2.1386953368984288e-03 -3.1972308973229779e-02 -9.7142097301174402e-03 -5.1101021795792612e-01 -8.6651363283626825e-02 9.2741662721899099e-03 4.3980077202111834e-02 2.0879703814363382e-02 1.9016944911676020e-02 1.1545666165671375e-01 1.2725082090618622e-02 -3.0808017360525044e-02 
      </Row>
      <Row Index="4">
        4.1914108048313015e+00 -9.9140314872247959e-01 -6.1369252707633493e-01 -8.2204595346856379e-01 1.4617344254672883e+01 3.8215149258347312e+00 1.6613960791285061e+00 -3.5327099245565385e-01 2.4231394326250588e+00 2.4897726734580958e+00 9.8452852525951595e+00 8.1298871449910171e-01 1.6143541325574982e+00 -2.8646951873175692e+00 -2.0501369866047076e-01 9.2898635219438574e-01 -3.3266143092555883e-01 -6.2388290056283919e+00 -7.2853769941826485e-01 -1.4567313953904202e+00 4.2972537172822833e-01 -1.5528863613848216e+00 -2.5882017297484134e+00 -5.6387450176622718e+00 1.5382183143908423e-01 -1.8204278280018586e+00 4.2193542222485358e-01 4.2099063021542538e-01 -3.7147412527963580e-01 -3.9039505704666944e-01 -2.0911607505116550e+00 -1.0019131918343902e+00 -1.7143729975905941e-01 6.2874937993994573e-02 3.2039119204558708e-01 1.0112081585046362e+00 1.9922695183265415e-01 -5.3676526673494873e-01 6.5422109465514255e-01 -1.9868448702088903e-01 -8.0349123888956278e-02 1.4655161320612578e-01 5.4865817626706420e-02 -6.7109057135525230e-01 9.9470325912526580e-02 -7.3973311006680142e-02 2.3882829492321789e-02 -1.8959023519406309e-01 -2.4335075044920329e-01 -1.5841832410465087e-01 8.2209472852070836e-02 -7.6974885627800790e-02 -7.6879280853318410e-02 2.0397554948495447e-02 -7.7664035569192137e-03 -1.5274151260329938e-03 -1.7101876371310004e-01 -1.6660256968539497e-02 -3.3475343031719673e-02 2.0640779889925631e-02 -5.0153601195776477e-02 -6.9536273473672888e-02 -1.3206793375311293e-01 -3.6939081528091992e-02 2.1247125419482149e-02 -8.3266690198905036e-02 3.2668150988127920e-02 -5.6300866865412781e-02 -2.2308464203943335e-02 -2.7937477355057616e-01 4.5959898059807970e-02 -5.7953675832281476e-02 4.2798527521923901e-01 2.3574833023312092e-02 4.8270515848628848e-02 1.9594399078068034e-01 4.8925835864186529e-02 4.5538192016426005e-02 -5.4243193958127545e-03 -1.8076980848773738e-02 -6.5327277983738163e-02 -8.3768230738169483e-02 3.6274316523250827e-01 5.8249631444919125e-02 -2.2366983099215920e-02 -1.8253873351065147e-01 3.6667350460427461e-02 2.7809786525770958e-02 1.6924998365252061e-01 8.4578000842725432e-02 -7.4089054545458236e-02 -6.5826412307542631e-02 -9.0326953179883374e-03 2.1932889335360528e-02 -1.5483490662109745e-02 2.7410696475730822e-01 -8.8810164482660530e-03 -1.5539541303054759e-02 -2.4445282826100589e-02 -2.5003708427393218e-02 -1.0360617762199061e-01 -1.7080494087562934e-01 2.4818676155767189e-02 -3.5369768054550610e-02 -1.6303400747555297e-01 -7.3377665711770734e-02 1.6159884580710956e-01 6.6980355683252002e-02 -6.3340459374497926e-01 6.8857056387547022e-02 -6.1565382073988095e-02 -1.2993229348666932e-01 -2.0392760519642308e-01 -2.7465688531130439e-01 -2.7918414460013186e-01 5.7041150749937847e-02 -1.1029051127394607e-01 -3.8190254066892027e-02 -6.4196942177285887e-04 2.5706181873387912e-02 7.8913318561996335e-03 -1.2807864262245591e-01 1.0492634931330652e-02 -1.4018563328845240e-02 -3.0712676413667383e-02 -2.9665218851241265e-02 -2.1894858149862608e-02 -2.9211359845213725e-02 2.7867679806242690e-02 -2.8466085981080913e-02 1.0860853751080979e-02 5.1130821108957419e-03 -9.6878685253299502e-03 -1.3704194339578535e-02 1.5454135305557484e-01 6.4564077661710684e-03 9.2518429728269749e-04 2.0347419043533745e-02 3.2119170689874701e-03 2.1441110412332560e-02 1.6621277255078767e-02 8.3185028193582047e-03 1.0139539360210507e-01 -4.0798567391896840e-03 1.2743925905876561e-02 -2.1110697442074434e-02 1.7156660552980294e-02 -3.6255419217245399e-02 -1.8162785245825333e-02 -1.8400751907882290e-03 2.6177500544713239e-02 -1.9338208249150141e-02 1.2372760757049461e-02 3.3646389991354581e-02 -1.1344648862040452e-02 3.3028519996551944e-03 1.7241492976902562e+00 -7.7854872883321491e-01 -4.0121706548401193e-02 -1.5314465208577488e+00 6.2207203594424625e+00 2.0686066766560156e+00 4.4818265571788807e-02 -2.5865536476088746e-02 1.1380235122949454e+00 8.6270322419237322e-01 4.2430772576500209e+00 4.4220818131871464e-01 5.2078651214243521e-01 -1.0144838756156084e-02 -5.0362213630525662e-02 1.3089591425407932e-01 -4.8301814067390758e-02 -1.1354004380844662e-02 3.3439427797403165e-03 6.1820398261475673e-03 -1.0947626646252567e-03 2.2316135314979862e-02 1.4618695182889285e-01 2.1646813976681045e-01 -3.7815537099911367e-01 -4.6593250996578850e-02 -3.5347875455385203e-02 3.6465775801378730e-01 5.5115077866459128e-01 3.9792927766047148e-01 2.2466907365529676e-01 -9.6175967545590269e-02 -9.8062837346326204e-02 9.6207556071403744e-02 -9.6405705696699484e-02 8.5785670725060381e-03 8.6512864964387107e-02 1.6986818172536111e-02 1.7933165651885741e-01 2.5672638952888141e-02 5.4974061994282175e-02 -2.5204185581251131e-02 -1.0787299047697374e-02 -5.0377678613187371e-02 1.5164786911987227e-01 -1.0782240031024992e-01 7.3302940543952921e-02 3.1153738520196428e-02 4.2102494556663705e-02 1.2932137272421329e+00 -2.8799562803452181e-02 1.4385367249561851e-01 9.4059650545615492e-02 -2.1999177790255148e-02 4.1841964931259697e-02 1.1379326552959113e-01 -2.6386587851567889e-02 4.9360517421794370e-02 -1.9819423690736859e-01 5.5072880617677455e-02 2.6860341967708479e+00 -3.3781012217230488e-01 1.5680492791515496e-02 -1.5087404260788539e-01 8.1217576515660528e-02 1.4738641207490893e-01 1.0128502739575223e+00 -8.7139867547350103e-01 7.5726533119131578e-02 9.5831676849785108e-02 -1.1610959980332369e-01 2.3518901858751207e-01 -6.5637707176378624e-03 1.2322546360495323e-01 8.2577308240698172e-02 6.4769550376734084e-02 5.3310294913607947e-02 3.0818162952317718e-01 -2.5383568483846286e-01 9.3595140818510808e-03 1.9405963611006938e-02 -5.2300451888818128e-02 -3.8042454881986885e+00 1.0102584744323737e-01 -1.9890006621615761e-01 -6.3777279411364241e-02 1.1374948857276260e-02 -7.9063342500718115e-04 -4.9945680011623450e-01 1.9156267415561823e-01 4.0646895243695247e-02 6.4779251158475520e-02 2.0064333327596273e-04 -2.3555996685479461e-02 -8.0278880378000128e-02 -6.1103325207274045e-02 -2.4148780084282562e-02 5.6072492393863693e-02 -7.3299751220598092e-02 -2.0657936835446533e-02 1.9053513028067737e-02 3.1525534745274253e-02 1.1496538641373455e-02 -1.9291298003907528e-01 2.6186347210424543e-01 -2.6442546964707603e-02 -1.5223996789459737e-02 -7.5266805780246804e-02 7.6307738846068007e-02 -6.8287633379178203e-02 -1.8576427324983324e-02 -5.8038204170266283e-02 8.1781430245474185e-03 1.4853363008293208e-02 4.9821114710965175e-02 -2.7413399589241216e-01 2.1094627917226015e-02 -5.8239755127205639e-02 -1.6877183804552748e-02 -4.2475440973296585e-02 1.6565084061286761e-02 -7.0699124730295687e-02 9.8742443741429153e-03 -2.8946355601063123e-01 4.9638108400546319e-02 -4.8622148474253751e-02 9.9033169580495795e-03 4.2187564812530964e-01 1.9364078227224416e-01 1.4525814309418328e-01 -6.3772888144374248e-02 -1.9566080159081892e-01 -9.2159656175727522e-02 2.1057564056621025e-01 -1.0817227942426288e-02 -2.9426335819075389e-02 -1.7202493244876785e-02 5.1601594581875609e-01 -2.4770811691934375e-02 5.6958791542920245e-03 2.6070952289856031e-01 4.9168332673959037e-02 4.3134090692985544e-02 3.1427153408199343e-01 -8.7678018179898787e-02 -1.5015478541854421e-02 -1.0212175603722867e-02 3.6246362803355092e-01 2.1479239451476673e-01 1.4422853861678159e-02 3.3708241322099895e-02 7.8847054720260212e-02 4.5002521068940315e-03 -1.1107022454842852e-02 5.6857302917831032e-02 -5.3875494295965609e-02 2.0118747178047036e-01 6.4071983233979779e-03 1.3110078289093785e-01 -4.9620770514339796e-01 -2.5658048937742883e-01 -1.5941546184060373e-01 -1.1364809192168868e-02 -4.6635030897934832e-02 1.7659275900898441e-01 -2.8751232688710093e-01 -8.4733240277615085e-02 -1.4774430106674522e-02 -4.3757253767995552e-02 -2.9911523248008942e-02 -4.3086587652855002e-02 -1.9710406895612009e-01 3.1358023957692716e-02 1.0288847193967499e-02 1.4195493290276029e-02 -3.3671003299307667e-02 -1.0694292261614292e-01 1.1222631565499519e-03 -1.3009791738570626e-02 
      </Row>
      <Row Index="5">
        2.9281906986715267e+00 4.5979820831969889e+00 1.7416533468554910e+01 1.7895066750419844e+00 3.8215149290916024e+00 1.0560862342196899e+02 6.5949150069978772e+00 5.2426676744293754e-01 -6.5250392781043898e-01 2.1825298115439171e+00 5.8882508360545716e+00 1.2594667707929104e+00 1.2770103477374706e-01 -2.2365887790265853e+00 -2.0177474188620819e+00 -6.3969757089159351e+00 -2.2164414011621942e+00 -1.8539116478571707e+00 -2.8608007815232810e+01 -3.0816946063445068e+00 -8.6314335030886991e-01 6.4555154220746391e-01 -1.2438567992136902e+00 -1.2283155227266613e+00 -2.5763032058546420e-01 -3.7288176638080728e-01 2.9917393899154345e+00 1.7650233823967147e+00 -1.5562230842619371e+00 4.3254084731351389e-01 1.6191384603441967e+00 -1.0166247248247696e+01 1.0362739858878054e+00 1.0394408918621378e+00 -1.9325702791885835e-01 2.1799470942205597e+00 -7.8244596303146219e-01 -2.0640846467545515e-01 2.6660050939265822e-02 -6.4973295810345011e-01 -5.4449725151641348e-01 -2.3730022809060358e-01 -3.4667354059171918e-01 2.0890226352884317e-01 7.8825335241317718e-01 -3.6800405479854054e-01 1.3516685598692987e-01 1.9074203094765607e-01 -3.0770321630456793e-01 -1.8989181411782685e-01 -3.8442417133979651e-01 7.5097733908879402e-02 -1.5219999749523389e-01 -1.4265005762215185e-01 -2.8599238356904266e-01 -2.9466618633515795e-02 -1.3343923861454443e-02 7.8445525446038500e-02 1.2741477399753909e-01 1.6106511222846051e-01 1.7480383016404089e-02 -2.1870286107752013e-01 -4.4916361581509190e-02 -6.4152631739371024e-02 -2.9831841176146595e-02 -5.4302931091666840e-01 -2.2517391661948105e-02 -2.6111678895108748e-01 -1.9619440634062113e-01 -6.7008403325139798e-02 8.4018628391362227e-01 -8.3690925538581207e-02 2.8669622039367360e-01 -5.4456470252275402e-02 4.9839210735316941e-02 -3.5557861743892749e-01 1.6980383295565493e-01 -7.9542665806003110e-02 1.7560063608745047e-01 2.5504850076399022e-01 2.8535642126805527e-01 -9.4236401335482736e-02 5.2380663385189985e-02 5.2103153892205323e-01 9.0031506184785171e-02 -3.8127896617090595e-03 -1.0954682588888565e-01 2.3946536654211414e-01 -6.9130330678383201e-02 4.6196538293219047e-01 3.7225827723105120e-02 1.4275845176265323e-01 -9.0166678682669199e-02 -1.7387610726206679e-01 -8.0159515772133039e-02 8.1273556133120789e-02 -3.0678643182092724e-01 -4.3780941985505153e-02 -9.5620250475331625e-02 6.1549622111118835e-02 -2.0900308834228093e-01 -4.5669606967694926e-02 2.1248163275737003e-01 5.8867927489980820e-02 -8.9199255418599910e-02 -3.7106602527104493e-01 3.7124224391218874e-02 -3.5101087494076832e-01 3.7224506932417389e-01 -6.0898009303155876e-01 -2.2319720181023806e-01 -1.1765113655334902e-01 1.9883616657751485e-01 -2.0866452162266916e-01 1.8662152640937835e-01 -3.0362309481515742e-01 1.7348280913517611e-01 -8.8076594361299110e-02 -1.5979330203848285e-03 4.4678280102144363e-02 -4.8439234575967931e-02 3.3221447727630832e-02 2.5726704175872395e-01 -3.9497379608107341e-02 5.5696537279649905e-02 -5.5088301689902586e-03 3.5160021995898044e-02 -2.0861736740121373e-02 2.3686681768800205e-02 7.7334226499448100e-03 -2.0299028907995875e-01 -1.2656733421925415e-02 1.8959323233661951e-02 7.4040462443326849e-02 6.5709648252355701e-02 -2.5837964545246916e-01 3.4201101097371900e-02 -1.0618294344477142e-02 6.3117848826597621e-03 4.3710449352931224e-02 -1.6925285211534094e-02 -4.6864321987555552e-02 5.8172832462251023e-02 3.6923453565668985e-03 -3.6679956762447744e-02 -2.0363541801535150e-02 3.9318069520338256e-02 -4.9068404315922853e-02 -6.6639382841393413e-01 2.8268251455650983e-02 2.0933988432299599e-02 -8.0879553388926967e-02 8.5836427889204814e-02 -8.2040098176400109e-02 1.2503678062644075e-02 1.2000735254809228e-02 3.6747949971157143e+00 4.2288037645579895e+00 9.4580927845454728e+00 7.2249861959853945e-02 3.6003203641933572e+00 6.6288339417493631e+01 4.6063914032105568e+00 7.6507797035733738e-01 -2.2740764488057380e-01 3.0035808226798837e+00 3.8309958920497644e+00 7.9472486864642899e-01 -1.3070989576088926e-01 -1.4618647092355563e-01 6.1187585967615865e-03 2.1656277007662128e-01 -1.4045406263796423e-01 6.8160936088384055e-02 -3.0244143324330319e-01 -1.9734405054358750e-02 -1.7397577687893989e-02 -5.0077329615844560e-02 2.0456892717636577e-01 3.1373701069976789e-01 -1.5251782957439168e+00 6.8631703085143214e-02 4.4212992662199868e-01 5.2795819305175407e-01 -1.8400817192118701e-01 1.1411000455435281e+00 2.7107644355455118e-01 -4.5011497675371553e-01 7.9479114558206931e-01 -6.4127636212409467e-02 -5.7394806963832412e-01 1.4388152269542109e-01 7.2416905734382642e-03 1.8930573955084906e-01 3.8828343480752503e-01 -2.1027081148523719e-01 1.8235574524222100e+00 -1.4917406635150149e-01 -5.8687953355232358e-02 3.9472871072252136e-01 -1.9523114525929852e-01 -1.2459081698199435e+00 2.8301939884065341e-01 1.1605131295615033e-01 5.8721846669400057e-02 4.4632802015465600e-01 -9.7956795851481773e-02 4.6180959645629793e-02 2.3066800235448492e-02 -7.3291617898862294e-02 -4.5098000505208936e-02 4.9978586347802301e-01 -9.4198494877293371e-03 1.3810452929132833e-01 -7.1567007074828881e-02 -9.0735072761810587e-02 -8.2855375971247192e-01 7.3949606705265014e-03 -3.3334958149558463e-01 -4.6215353279116300e-02 8.7529405662583826e-02 -9.1519379402007606e-02 3.9583130953224788e-01 4.2762098069630383e-02 2.5784670079810397e+00 -9.0240400945901911e-01 -8.1058485095428867e-01 -9.5138791250233862e-02 2.5773391850987626e-01 6.8013799042156009e-01 1.0803557351441206e+00 1.0413822235109063e+00 7.3314969602302527e-01 5.4149140827520172e+00 -7.3999897871277298e-01 -2.8424037117710610e-01 -1.9327454691006707e-01 -2.3388878255511614e-02 -4.9842609680773933e+00 3.1937394868574831e-02 2.8168268859008094e-01 1.5357074875126642e-01 -8.5711456687640020e-02 6.1344688476770548e-01 7.0635276586742657e-01 -3.2107511675035783e-01 -8.8529322858336090e-02 2.9924675335187167e-02 2.0407184999966432e-01 -2.9180100581175289e-01 -1.0343322958486953e-01 6.2513156905302580e-01 2.0713213092954613e-01 -1.9542010552688349e-01 1.2474160348536034e-01 4.6467124886380740e-01 -4.7470564167694407e-02 4.8805381029081218e-01 -1.3059113582122805e-01 -3.3099360619995188e-01 3.9287772495895723e-01 -1.2454645821492082e-01 -8.6331077850038351e-02 -4.8648240056624714e-02 9.4321828092645887e-02 9.1703319088855539e-02 3.0200160631547845e-02 6.0396069901688776e-02 -1.2612128362234909e-02 1.2248386204557138e-01 -4.1599868823192665e-02 -5.5313441456847290e-01 -1.6678280951198138e-01 -1.7777255822271448e-01 -1.0800679757709823e-01 -1.7604481560251517e-01 -5.0333524890840309e-02 4.2882851969135660e-01 9.1987971887300929e-02 -1.1559188321239711e-01 -2.3882026876194468e-01 3.1000793756933065e-01 -9.6483472652143476e-01 -3.6062139784519331e-01 3.9161766598913006e-01 2.8971425850488386e-01 4.4325171727088636e-02 6.3885831052562403e-01 -8.7526591806717846e-02 -1.5709142105392759e-01 1.0656766411460250e-01 -2.7665097448910693e-02 -1.3902822318411645e-01 -1.2709907176419915e+00 3.4603126753570829e-02 -4.0069016441858762e-01 -2.6146824757066867e-02 2.7372626655460386e-01 1.8703374293356889e-02 2.0855334762334010e-01 -1.7143430314873376e-01 3.0018599976448512e-02 1.6508517508457277e-02 -1.0413535326628107e+00 -1.3121573864029870e+00 2.1736935287498649e-02 5.8622136512751055e-02 2.6896395179699084e-01 -7.0748405136468184e-02 -2.8099472640726453e-01 3.6004551273215224e-02 -1.1968424117425442e+00 -2.3585009993608352e-02 9.6036752639363510e-02 -7.6723746163303908e-02 1.9424867814404934e+00 3.6049153923717814e-01 -1.9068222856528827e-01 -1.4937775842614198e-01 1.5776181589406069e-01 -5.0705633729700228e-01 -4.8216585407283219e-01 9.8507526761171782e-01 -3.3594029298762498e-02 -9.2409530621585079e-02 -1.4657017473030856e-01 -3.2387553878339759e-01 -7.9763627744922072e-04 8.5758564708734775e-02 -6.7747609372836470e-02 -1.8805729691458550e-02 -1.7161983853767621e-01 -4.7330120026050249e-01 6.1567448758228727e-01 -5.8999772795909111e-01 
      </Row>
      <Row Index="6">
        -1.8543325892787266e-01 1.5038309511303605e+00 2.8664431983291614e+00 4.0303908552434313e+00 1.6613960785769089e+00 6.5949149950772101e+00 3.5395702834492717e+01 2.5129460730492159e-01 3.7914841177675029e-01 4.7023221785158968e+00 4.8634202841632312e+00 -2.6974895552726501e+00 3.6973664549622876e-01 8.6810880398198442e-01 -1.8071011359972746e+00 -1.7957025635402537e+00 -5.0740809066904671e+00 -1.7486043376467406e+00 -2.6895316212988267e+00 -1.5531445219665738e+01 -6.7618016407312664e-01 5.8213028334194705e-01 -3.1426584961609620e+00 -1.4610745477102649e+00 2.0975391801732055e+00 -1.8666129367396378e-01 -1.5982471882266980e-01 1.3995865301335715e+00 -3.8019296305100525e-01 6.5155016804601518e-01 1.3349663123812545e+00 -1.2340906277801178e-01 -1.6292339715581710e+00 6.9607239074450722e-01 -2.1950702433740543e-01 9.0420809905599842e-01 -7.3072425021387266e-01 4.4185739348303166e-02 8.0153278549928597e-02 -1.1511424977446577e-01 -1.9082046291658765e-02 -8.3128734598538589e-02 9.1730273447367972e-01 1.4080919044690249e-01 1.8449745482672464e-01 -4.4955559543729456e-01 -4.3776799487389995e-02 1.1440466969012227e-01 -9.4905288355364714e-02 -1.0227194700687893e-01 -1.1666599709659498e-02 5.9459743050565922e-02 -6.7463631320503037e-02 8.3512141959925512e-02 -9.5998868869223430e-03 1.4103777954112759e-01 -1.7655673133282201e-02 3.8111689269138188e-02 -8.4220417917240398e-01 4.1382137113076117e-02 8.4815935858194358e-02 -1.0258216326643887e-01 2.7408934427983922e-02 -3.4992244952652796e-02 -2.2276443067025364e-02 -3.1597067873442075e-02 1.1579216289677045e-01 -7.0808301754379743e-02 4.8877999102790981e-01 2.2328633098458550e-01 -3.7981551897586785e-03 5.2519287978314433e-01 -1.9527683345813340e-02 -3.1189630538150270e-02 -1.2059133512163811e-02 -1.4147321947794853e-01 -7.0375974749957493e-02 5.6621611590541021e-03 -5.9694505344775051e-02 -6.3820473518374610e-02 -5.1350768251963719e-02 5.4466304349115657e-01 8.4539459478307766e-03 -1.1147705672735847e-01 7.2471351731367051e-01 -7.9137701052345660e-02 -1.1557873169915345e-01 6.9855795593099929e-02 -1.1179138647318487e-01 5.1793649641192152e-02 -1.8072251190453859e-02 6.8482825468153874e-02 -3.5504527682003913e-03 -1.5102175082279290e-02 -1.6376517761228138e-01 -7.0698063733736216e-02 -1.5739517211369050e-01 -5.0640765330534787e-01 2.0919065992695496e-02 8.7556453677407581e-02 -6.5164563443741441e-03 1.4640822318936153e-02 4.7608672328966983e-02 3.4936610734338486e-02 -1.3832859879314263e-01 -1.3598511177457973e-01 -7.7369175287861580e-02 1.3093049587348558e+00 6.7117657109188836e-02 3.2381951330953257e-02 -8.9196529207306474e-01 -8.8397761028518040e-02 1.1612022885300605e-01 -1.5051385138753992e-01 6.4252798139026179e-03 4.8573731785125134e-02 7.4517854530203043e-02 -2.2331122001758574e-02 5.1275077508512734e-03 7.1650156397602416e-03 1.1390762404934120e-01 1.2972080390555821e-02 -5.5226007580022607e-03 6.8130086062928308e-02 2.4027750180448393e-03 -6.3299515159204456e-03 -3.0458353556708673e-02 -1.8850957682765644e-02 -1.3928575742858107e-02 1.8509505370751800e-03 -4.9334279175335283e-02 1.7282523181813156e-02 -1.6499632392052432e-02 -9.8718433247582837e-02 -2.0253822814710687e-03 -1.5156741600658163e-02 -1.3292854723937080e-02 2.1887388894964416e-02 1.2111124242960902e-02 5.0317223300436621e-02 1.1879095218241181e-02 -1.8066184745953132e-02 5.3818726240064674e-02 3.0529412180486094e-02 -4.2629001116334386e-04 6.0505544864366157e-04 -1.4050005958292414e-01 -5.8308489087774973e-03 -5.3501567456561205e-02 -1.1447698090137419e-01 -4.8619365000065751e-03 -2.4600091178723631e-02 -2.8021345659438174e-02 -1.4229460325257820e-02 -2.3712198899913606e-02 -1.3629237773371855e-02 4.6288571250883720e-01 1.1287607528191987e+00 6.7627929074083615e-01 -2.6119203006938996e-01 1.2116259235616078e+00 3.7558531348078636e+00 1.7888928550619696e+01 3.0563736176452549e-01 7.8447638476082271e-01 2.4170001702487012e+00 2.6697217439786112e+00 -5.9503830063399388e-01 2.8322886864216423e-01 -6.0560013144097813e-02 2.2565734805266538e-02 9.6276676418492801e-02 -5.9403660444212392e-01 -2.7403743234131750e-03 -7.8561184036728293e-02 -1.7087012657097389e-02 1.1761399359420666e-02 -2.4384216088382871e-02 -1.2761657559909212e-01 2.3808869950357803e-02 -6.5130684520930515e-02 -7.7860169237593091e-02 4.3662862757384957e-02 6.3588294504520615e-01 7.4875514238939955e-02 3.9235643511191931e-01 1.1574843171363458e-01 -3.7623136774707189e-01 8.1351727478552682e-01 -7.4390857619263562e-02 -1.6416209302986720e-01 -5.5500933238305065e-02 -1.0444567101725877e-01 -2.2178033540955644e-01 -5.1905012935630879e-02 -6.2558643277854376e-02 -2.0342464483126532e-01 3.5527302261722293e-02 4.4382251384442850e-02 -2.8023004116357764e-01 -8.0041609923827584e-02 -2.3403188371937134e-01 -3.9626224818128752e-01 -3.9541063141810873e-01 -3.9832171876716815e-01 -1.1658273510401926e+00 1.1080412651642915e-01 6.3749478389163783e-01 1.0737833818136827e-01 -2.9155496823424853e-01 3.8460927533522793e-01 6.2921339069599069e-01 -2.4777159891706368e-01 -6.3398325945949852e-02 -1.2943446154805759e-02 -2.9478659047190714e-03 -8.4198756059699864e-01 3.8288089946043602e-02 5.2361668922794591e-03 9.2733600469822264e-02 2.6526226927821694e-02 -6.9185295435996608e-02 4.2325449274897775e-01 4.2325110847293068e-02 3.8293430595268685e-03 -1.9051241164172339e-02 7.7321262241403232e-03 -1.3808841946521533e-01 2.0385595695111558e-02 -2.0671191155429014e-01 -1.0923829674378127e-01 9.8463037035610768e-02 -1.7503054989076539e-01 2.2243692736397369e-01 -1.1160077374044874e-01 4.4993703147893005e-01 6.1609697564992694e-01 5.2074297453428164e-01 2.8843502252872097e+00 -2.3468130772134099e-01 -8.0045331445631152e-01 -2.8638684464926756e-01 3.8286337821931710e-01 8.3324487618461873e-01 3.1739038100938055e-01 2.5743505864193494e-02 -2.1010406996155973e-02 4.1438167434582063e-03 8.6941768380279338e-02 -2.3577374430392681e-01 -4.4111661977325023e-02 -7.8798460837786743e-02 -9.5399356388966239e-02 3.2009553476510362e-02 -6.2020996984400112e-02 4.3776160090667204e-03 2.3841978793341267e-02 1.9030011803935043e-01 -7.5851843425435106e-02 -8.8722008276995723e-02 3.2234565323996378e-02 -4.0129018553137275e-02 6.1274910501798174e-02 1.0325450250452806e-01 -1.3666877749257011e-02 3.6515807703384029e-02 7.1447057652325396e-02 3.0739924272362718e-02 -1.2520856770322281e-01 1.3370592633491141e-01 3.5168000696994550e-01 2.2790968744128115e-01 -1.9666494370779081e-02 -1.7889186423294956e-01 -2.8308775136392267e-01 7.5680876454078949e-02 -3.9151744242712083e-01 4.7321802878192099e-02 5.0757917523709062e-02 5.5756976953643189e-01 1.5501589674212599e-02 1.8524499585682686e-01 -4.9907564816482619e-02 -4.3206083762864989e-01 -3.2159594361654387e-01 -1.6523577581475990e-01 -1.0120417256209188e-01 6.1498008466595255e-01 -1.5951897714174318e-01 3.0174736887886737e-02 2.4533962930956665e-02 -8.7617029844363481e-03 3.0373888535766502e-02 -7.0525891170214372e-01 3.5972132027025983e-02 -3.7274537332542490e-02 3.3124978032676111e-02 3.7772622880576590e-02 1.1863087559123464e-01 1.9340833359574816e-01 -3.0555448013199538e-02 1.7991675435077514e-02 3.9626969634208031e-02 -4.4730055772870170e-01 7.8236274015021934e-01 4.3099791421659650e-03 6.1826667595394791e-02 4.1331683119992502e-01 -4.1655610028530299e-02 -4.2813577802466751e-01 4.0618080904857301e-03 7.0926457735534854e-02 -2.1009204695094130e-01 -5.3528414773873934e-02 -1.8094784617126003e-01 -3.4113583709491913e-01 2.1029571173952410e-01 1.5018047515869953e-01 5.5847712184513121e-02 8.3545354146698614e-02 -1.6307222519279074e-01 1.7288786837839099e-01 -1.2815215659803375e-01 2.1632344549478159e-02 -1.5655457193641809e-04 -2.8760286519439182e-03 -6.9286942678340324e-01 -7.7391863297570085e-03 1.3616274084624386e-01 1.2645984737145133e-01 -3.5746833661125979e-02 -3.5567265853246915e-01 -4.1641693488466924e-01 1.2274082248608709e-02 8.8479542306703022e-03 
      </Row>
      <Row Index="7">
        1.2538450831693044e+00 1.2043422785370037e+00 2.9753829645666698e+00 9.5935056763454529e-01 -3.5327099051358579e-01 5.2426677548729461e-01 2.5129460699581713e-01 1.4657220366646893e+01 7.5403997627188135e-01 -4.1953243824556079e+00 6.8823509427269336e-03 1.0457972897070436e+00 6.5580445562739975e-01 -1.4329938436501215e+00 -2.3229496463951499e-01 -1.1987363326375653e+00 -1.0145546826290668e+00 1.4746531583028782e-01 -1.0900509261872404e-01 -5.6658572574749688e-01 -2.7212523147529697e+00 -6.6313048631069615e-01 7.5086761677467762e-01 8.7302897422383419e-01 -5.4271350489706160e-01 -8.4866409298137180e-01 4.4041208443915703e-01 -3.5833149713616064e-01 -1.0191800700341899e-01 -2.9268683777603344e-01 1.6034498365697480e-02 -3.8998337290993579e-01 -1.9829679694293834e-02 -4.0668016607252575e+00 2.5837938300161467e-01 9.8254835378978012e-01 -8.6391377788502810e-01 9.0872044765267113e-02 3.7652449040109937e-01 -2.9189267688724341e-01 1.1562529818652717e-01 -3.6574899964622176e-01 1.1174307340296841e-02 -3.1204657375065670e-02 3.5166572607080226e-01 6.4168783214943376e-02 -4.0244949005547653e-01 -9.4399249985866948e-02 1.0608173717742600e-01 -1.1554807428566499e-01 2.5571817470280367e-02 -2.3335457539397794e-01 -4.0860641412616722e-02 -7.4978367635571775e-03 -5.6722737912030113e-02 -3.0137531183672975e-02 -1.0064929086675317e-01 8.6947959877271830e-02 -9.9807877788764210e-02 -1.0529123560332483e-01 -2.3052778737979444e-02 1.3274657907342269e-01 -3.0477100146382607e-02 2.5243265715061525e-02 -4.3423367449812372e-02 -1.6392513000489398e-01 2.4186470497985529e-02 -5.1073609036936859e-03 9.8499565877653017e-02 5.2118661442085989e-03 -3.2087949827619089e-02 -1.7389330743699749e-02 9.9475011198400964e-01 -2.2251091243803423e-02 -2.4321567558383611e-01 -1.4985702595352135e-01 2.0299854943251705e-01 9.1891022392244170e-02 5.4777003574345784e-02 1.0599008993275549e-02 9.2406449361706500e-02 6.4636062729417937e-02 7.8069488600903514e-02 -1.7950548663028185e-01 4.0797286776353914e-02 7.6689491606398097e-02 -1.6639643875614563e-02 -2.1289493172455032e-01 -1.1732715631805116e-01 -8.4628398056730336e-02 7.6821446795726611e-02 -6.4147751424889765e-02 -9.1358046278282937e-03 3.9629429759749604e-02 -7.2422794855264705e-04 2.3649634693630345e-01 -4.1364626916770592e-02 -4.4670780230939754e-02 1.1372448648478040e-01 -7.8565004835092073e-03 1.1755768677074875e-01 -1.7831898473982671e-02 2.5796759642295677e-03 1.6310122736868521e-02 -1.9966658302289736e-01 1.3598940578217317e-01 -4.0460314173240530e-01 -1.8787538577807267e-02 -2.2920383375414563e-01 2.0622661926478383e-01 2.9595334665153628e-02 -6.7249337670471687e-01 -8.7446736187740320e-02 2.1338015152939188e-01 -2.0464448233611085e-02 -1.1603813750561395e-01 -2.7263281902305470e-01 -2.8516096903223931e-02 2.8434607190837784e-02 -1.0200440439022412e-01 1.4009960776390447e-02 -3.9262807700856467e-02 3.0618282635623842e-02 5.0037931414780468e-02 -1.1511747800093057e-01 -2.9527826607958184e-02 -3.2352310319361949e-03 -4.0920310399978961e-02 -3.7972434170580091e-02 -5.8029978848667237e-02 4.9642436770110099e-02 -3.2779160446644029e-03 -1.5792488351478493e-02 -1.8950200814002227e-02 9.0879341274558406e-02 -4.8739325738220152e-04 -1.1562017967839514e-02 8.9659906947301318e-02 -1.4852613442012316e-03 -3.9361971145121299e-02 -3.0853459019250240e-02 5.8197496221011414e-03 -3.8383267821954004e-02 -9.2844945946591369e-03 -4.6447358481450929e-05 -1.4182952486777260e-02 -3.6034424021280653e-05 -6.4371316110670550e-03 -3.0647217099211380e-02 -2.0687894749345445e-02 2.0270811192107469e-02 4.0115858338282545e-03 -4.5638170435371904e-02 2.2689105217061661e-02 3.8871377285842890e-04 7.3328161621032621e-03 2.8381920516565012e-01 6.0985176822998921e-01 1.5967778316553471e+00 -3.4923181748049359e-01 -2.3546032417535467e-01 6.7356898863542014e-02 -3.3960101573842305e-01 7.2378173112847977e+00 3.3297918064783361e-01 -2.2966645013958944e+00 -1.1791323146635335e-02 5.0104943856060569e-01 1.2799424587066946e-01 -1.1824046747753642e-02 -5.0041599080290933e-02 -1.0580046156028589e-02 5.1425656039231893e-01 -9.6411937694716593e-03 4.7528548518005691e-02 -1.6746719874474524e-02 9.8380327543180074e-03 -2.7053372603139808e-03 3.6989269149167586e-02 -1.3975722600739537e-02 8.6872785522400964e-02 1.6163665106419348e-01 5.9000627296836833e-02 2.7737379383033112e-01 -4.3067047619414822e-02 1.0610040006185406e-01 -5.8979080680444884e-02 6.2678393227735829e-02 -1.8479576198696332e-01 -1.5855492459806192e-01 4.6757758976163875e-02 -8.6261337843229924e-02 5.8794109878565703e-02 -7.1573043418737381e-02 2.7420046246024499e-01 9.5494380534654477e-03 5.8715999425554388e-02 1.8022867427966310e-01 -4.2473277943830740e-02 5.4112633471389088e-02 1.7513728401911444e-01 1.4324297169891775e-01 5.6408229879702787e-02 5.8558644349252703e-02 8.5855642413573907e-02 9.6730237127327001e-01 -9.0988954506097848e-03 1.0682935436241689e-01 -7.9784696852000792e-03 2.5860741115330987e-02 9.3818083922316831e-02 4.0025166225412701e-01 2.8346773746416698e-02 2.7632659208535693e-02 -1.8593953665350341e-01 -4.1999831856991972e-02 -7.3901104807123930e-01 -1.6822710274469885e-01 9.4122915055454323e-02 -4.7437014334724248e-02 7.4070230273663995e-02 8.7050873521805711e-02 2.9674033140871658e-01 -2.9633213120763079e-02 2.2593082911086521e-01 -3.9866852460911439e-01 -2.1369676110840219e-01 4.5975772283395611e-02 1.2398143638327029e-01 -5.0879587000340287e-01 -7.0359974315505114e-02 -7.0699458141699201e-03 -1.3589021793084988e-01 -5.4385485780681675e-01 -3.9145481538705340e-02 4.0546371832521494e-02 -4.3357881898608369e-02 -2.2429292642682785e-03 -1.8707042741827706e-01 -3.0370512758941981e-02 -1.3983419868471697e-01 -2.4483530456662739e-02 -2.7255116196865603e-02 -2.1812282808975839e-01 5.5289998065787049e-02 1.8028024203996518e-02 -5.5693858905018934e-02 -9.8303837144803091e-02 -6.9164425338216540e-02 3.3401137013640214e-01 -4.9083756396891531e-01 -5.5279411519996130e-02 -2.1881113042619793e-01 -6.5962026194714585e-02 -8.0929085458909464e-03 4.2942918193395874e-01 8.2323814931793748e-02 6.3588541396712994e-03 2.3606124716424357e-02 4.1021866058604806e-02 2.6080671126244104e-01 1.6541207102553024e-02 -8.0106261430735515e-02 1.3280763290978270e-02 2.9790688934940857e-03 6.7278613369036733e-02 2.9715287994958040e-02 -2.5362952610783585e-02 7.3695610071116857e-02 2.6288858822004268e-02 9.9872373416029170e-02 -5.3143405543791877e-01 1.3128068483836625e-01 7.8638139679231264e-02 -1.1698797424095225e-01 -1.7177178526432413e-02 -1.9290709280426466e-01 2.8933447415678271e-03 6.1200303070819591e-03 -4.3033538323020121e-02 -8.8940904194902443e-02 2.1913949498311863e-01 6.6245229663534744e-01 -7.0646187658399062e-01 -2.5013612427278786e-02 -1.5038729552526664e-02 5.5086490676137204e-02 2.0330318322270752e-01 2.5191306935005703e-01 1.6693320714031842e-01 -2.1084063395740704e-03 -1.0102950161609869e-01 -5.1851619937043139e-03 2.7309600218753077e-01 7.9172651733258048e-02 -1.8726750774504475e-02 -2.3943698774643396e-01 3.1279234131473960e-02 5.1673614218680081e-03 -9.1746101760252441e-02 -6.1195514832733389e-02 6.0619590246577815e-03 -1.9919117526990882e-02 1.5553326174702420e-01 -2.7625912517881801e-01 5.4579792121130233e-03 2.3553009485543851e-02 -2.1608304741173279e-01 -8.3946488725345908e-03 1.1049049383216936e-02 7.1231478600666587e-02 -2.9570114072243570e-01 -5.5025145809655562e-02 1.1788360496432970e-01 -1.2157064372843918e-01 -6.2944483816409047e-01 3.8573162897706575e-01 -9.3579800533441448e-02 1.2183948710390857e-01 -8.1740982323581679e-02 3.1552860887936074e-02 -3.1728495541741220e-01 2.7535427512938160e-01 -1.3594347485543876e-02 -8.2457847794361827e-02 4.0012681870630423e-02 4.7324481982652422e-01 -1.6000535145935271e-01 1.0717386531419855e-01 -4.0006488171545229e-02 -3.3576332503467810e-02 -3.3253871042955359e-02 -1.6938520962317352e-01 1.5844260623143791e-01 -1.2278243961201168e-01 
      </Row>
      <Row Index="8">
        3.5568680173973934e+00 -3.3062581860680269e+00 -7.2937431042645606e-01 4.1705748374541141e-01 2.4231394331765461e+00 -6.5250393608388269e-01 3.7914840779695602e-01 7.5403997686689550e-01 3.5201595061476091e+01 3.9551551866636410e+00 -1.1226929094697375e+00 -8.0776012249407003e-01 1.2734731285645740e-01 -1.5727106628493801e+00 1.5165765576034376e-01 5.8542244198754956e-01 9.9356045459309961e-01 -8.0157502957857762e-01 9.5818146509473312e-01 1.6300829018141727e-01 -2.3442535270145437e-01 -1.2947372712165652e+01 -7.9928617212309505e-01 1.2915283782700129e+00 1.3213878254299476e+00 -1.9947075344863396e-01 -2.4676806385254757e-01 1.8067865872446682e+00 3.6524732956646977e-01 -4.9913219934150876e-01 -4.2059680541474420e-01 1.8054112092721519e-01 -1.7056354771607296e-01 -1.3640259351155559e-01 -2.3352380644599844e+00 -5.4992624109315535e-01 -6.4747828805213015e-01 -4.2540720129958576e-01 1.3302444115171919e-01 -1.3934125649984475e-01 -3.7482063771513946e-02 3.7950276477940914e-01 1.6472359510392637e-02 -2.9387383351862562e-01 2.7521430078282605e-01 -7.4267131183075791e-02 -1.1995968097099258e-01 -2.9671335532378318e-01 -7.0643970951413115e-02 -1.6296998869709176e-01 1.5195477802093585e-01 -6.4454483308530472e-02 -6.5277680846437591e-02 -4.3511028503817051e-03 -6.4443214795807377e-02 -7.1923522706189638e-03 -7.0723657027135844e-02 2.7578691797576216e-03 -1.0214450888827235e-01 -3.4446952710035783e-02 -3.0895422536503481e-01 -3.3921533213442490e-02 -7.0904445646910702e-02 -2.7313077450895951e-02 1.4097678711269490e-02 -4.8270084219503351e-02 1.2851830892019545e-01 -2.4849374179011785e-02 -5.9244795510193682e-02 -1.0968992091875351e-01 4.3299703300564651e-02 -5.8297690650686129e-02 -1.5022035972259262e-02 -7.8084456471365193e-02 -3.1062127058428279e-01 -1.5174486398322279e-01 -9.1007013749363708e-02 -8.0416276291215755e-02 1.1186202951832452e-02 2.3010852730644515e-02 -2.4681064438878408e-03 2.2349014041777807e-02 -1.5802266693827838e-02 -6.5514767717787636e-02 8.6856624963181472e-02 -7.7394020844198108e-03 1.3279599518751350e-01 3.4152236438783318e-02 -4.7784173088775153e-02 -1.5317971731925173e-03 -1.1732063345768495e-01 1.2495091630695690e-02 -4.2655358644309666e-02 1.2729045947340534e-02 -4.9026321345664314e-03 -6.4486093904862693e-03 -4.0697178556587776e-02 -1.8804817739005813e-02 -2.6487492412474944e-02 -1.9897904038228817e-01 5.5870134354949447e-02 -7.4224726873420840e-02 -1.0218996018006132e-02 -1.9248040642925471e-02 -8.5737261181215718e-02 -1.2693594410903342e-01 3.9304233447562908e-01 6.6009095618684344e-02 -3.0095300788415202e-01 1.0061289316197380e-01 -2.9166346953003373e-02 -1.4123555884549055e-01 -4.5191438435163989e-01 1.3131134056133092e-01 -4.8186183282979952e-02 1.9738619546244879e-01 -5.9684170988607614e-02 -3.8278967049184542e-02 4.1526349786886768e-02 6.8906944029444750e-02 -5.2294370321139538e-03 -2.9802354996487257e-02 2.4836896123683991e-02 -7.0759271486026893e-03 -3.9812099522472388e-03 -9.1944576245692577e-02 2.1006395913003850e-02 1.1814440540771486e-02 2.7304600609809743e-02 5.2690525335456484e-03 -2.8994136335193987e-02 7.7072951851326135e-04 -3.1520405041510990e-02 1.5954374115426606e-02 4.1860806113276708e-02 -3.2776803034754248e-02 2.3038415921654766e-02 9.1492141652418923e-04 9.7360311446052950e-02 2.7704491034003020e-02 -1.3087153417469693e-02 -3.3221796179032190e-02 3.5559657413115175e-02 -2.8881138808297367e-02 -2.2978490784896062e-02 -3.9328584946995988e-02 2.9562950267554178e-02 -3.7646400922436873e-02 -6.1251328926654386e-02 -1.2667153205557793e-02 -2.6991886866856163e-04 -2.0018058500841579e-01 -1.6223306429804615e-01 -4.3833031625973823e-02 -2.2753942706352948e-02 -7.5390267937238548e-03 1.6845095732817921e+00 -1.2724983395864684e+00 2.3893560935411529e-01 9.2762550996749393e-01 1.1454404591174905e+00 5.0290482891941934e-01 4.0117653821393651e-01 3.4331866512640802e-01 1.9512660804566583e+01 2.5714711557815839e+00 -4.8957859428104467e-01 8.7796445195079897e-02 1.1396874012326692e-01 -7.5560654027716168e-02 -1.1306921628246451e-01 -1.5804560735329787e-01 5.0577357944982193e-02 1.8001018191672158e-02 3.9253526278232420e-02 1.8640123034173103e-02 -7.1084795778244003e-02 5.4312732216071913e-04 6.8053371952094432e-02 -7.5676456525901603e-03 -3.6728748482513129e-01 1.2515846464671041e+00 2.0999869032109686e+00 5.9688000930540497e-02 2.7207143255628119e-02 9.1563951983517877e-01 7.0884010819818344e-01 -9.3136645761169323e-01 3.7987034432181599e-01 3.6760278913093458e-01 -2.8999454682703185e-01 7.0166305201932400e-02 -5.8474000832505757e-02 -2.2783117052539525e-01 -1.8197683183617808e-02 1.9324597849053063e-02 4.0495698699059246e-01 6.3422389343205904e-02 1.3140369728735518e-01 2.3123010271541972e-01 -1.1351550336774063e-01 -3.8357417329149168e-01 1.6800244903381056e-04 2.0543695307875631e-01 5.5467897746120931e-02 2.4474159510324256e-01 -5.8801549651622410e-02 1.2708046372729573e-01 1.3513377725035025e-02 -2.2546416860074664e-02 -5.2551682173112180e-02 3.5798361632869458e-01 7.1347193582989465e-02 -8.3827024082231971e-03 -2.1405304936029662e-01 -2.4676810341622080e-01 7.8470863432162119e-01 1.0114271573533812e-02 -6.3382803726414819e-02 -1.2610176660137418e-02 3.3667583627805080e-02 1.4158582470924846e-01 1.0335237358792992e-01 -1.9515832727520266e-01 2.3157860082497395e-01 9.3262806941003085e-02 -2.3441391238697912e-01 8.5287982102490639e-02 2.9798922399648788e-02 -3.3571432468869622e-02 6.3288294404311801e-02 9.2398021088775706e-02 7.7688208623145405e-02 4.8616861483580553e-01 5.1613948314066960e-02 -1.5658316501269187e-01 -3.3326893704077820e-02 2.5449768096717096e-01 -2.7732000459232964e+00 1.6575943740178012e-03 -9.3588286323472492e-02 1.1428229971651849e-01 -4.3769618144432421e-02 6.3504183840887141e-01 6.6964618137512355e-01 1.1111447991373979e-01 -1.9334557528560259e-01 1.3960922070277904e-01 2.0440688972069854e-02 1.4856901658947130e-01 -5.3056142715333030e-02 4.3858229635677384e-02 9.4774401318129600e-03 4.5510180309383474e-02 8.4553405683675253e-03 -9.0028812485630105e-02 -1.4468105141533794e-02 5.2443372602010263e-02 -7.1503539691792350e-02 -3.9385554745026075e-01 2.4479599166168953e-01 -8.8976931425063022e-02 -2.4666838839836869e-01 -2.1164003683639643e-01 2.2317101261282379e-01 -1.6366345004725324e-01 -1.5012194293991010e-01 8.0708017198527493e-03 -1.9718222124674586e-01 2.4133971796225073e-01 -3.9457033384679896e-01 -3.9698920819970773e-01 1.3425414744225023e-01 -6.3999546647306671e-02 -6.6099271240417756e-02 1.1080278679132255e-01 -1.4158159359371902e-01 1.0405477897345806e-01 9.7578719477746878e-02 8.7825809232003560e-02 5.1531980871050265e-01 1.2613500749852662e+00 -3.7079899742169076e-02 -4.6478348881999698e-01 3.4320467241096037e-01 8.9954046975400909e-02 -3.0965655777959189e-01 5.2897878548349153e-03 -2.1655003667101613e-01 1.8727716244555607e-02 1.2436805081908783e-01 -1.1439012484944988e-01 -3.4947813022892849e-02 2.2952860979364154e-01 5.9908027924800628e-02 1.2679511440775582e-01 3.9944048323922487e-01 -3.3363027870693091e-02 -4.1117757761533646e-02 2.7657878016563586e-01 -2.3824412011608675e-02 -2.3643642842760881e-02 -5.1484779959389715e-02 -3.4991675527214738e-01 -1.2554282344790835e-02 -2.2053920823416878e-02 -1.1737516212236232e-02 4.8324399041864030e-01 -2.9296729305848035e-02 1.8578947449116781e-01 2.6273460027742279e-02 -5.9704371612623319e-02 3.7439629894133275e-01 -4.6031887521170045e-01 -8.5873938112743442e-01 1.4880030866123661e-02 1.7872998795242456e-01 -3.7434328726227484e-01 -3.1807501438795716e-01 3.6393682476108280e-01 -2.4868143376494256e-01 -2.7998710686936068e-01 2.3500815086122140e-01 2.2018969140217490e-02 -2.0878624343894120e-01 -2.3677305700640217e-01 1.9088770683509182e-01 -9.6766033777285654e-02 -2.7092884571398634e-02 1.1333214123125446e-01 -2.6300075698693859e-02 1.4522079196494481e-01 6.8246364164524814e-02 -2.7382953059236437e-02 7.1547732243095435e-02 
      </Row>
      <Row Index="9">
