<?xml version="1.0"?>
<MethodSetup Method="BDT::GradBDT">
  <GeneralInfo>
    <Info name="TMVA Release" value="4.2.0 [262656]"/>
    <Info name="ROOT Release" value="5.34/38 [336422]"/>
    <Info name="Creator" value="han"/>
    <Info name="Date" value="Tue May  3 22:55:51 2022"/>
    <Info name="Host" value="Linux rz5950x.km.icrr.u-tokyo.ac.jp 4.18.0-305.3.1.el8_4.x86_64 #1 SMP Mon May 17 10:08:25 EDT 2021 x86_64 x86_64 x86_64 GNU/Linux"/>
    <Info name="Dir" value="/disk1/disk02/calib3/usr/han/mc/random"/>
    <Info name="Training events" value="7888634"/>
    <Info name="TrainingTime" value="7.98012633e+03"/>
    <Info name="AnalysisType" value="Classification"/>
  </GeneralInfo>
  <Options>
    <Option name="V" modified="Yes">True</Option>
    <Option name="VerbosityLevel" modified="No">Verbose</Option>
    <Option name="VarTransform" modified="Yes">N</Option>
    <Option name="H" modified="Yes">True</Option>
    <Option name="CreateMVAPdfs" modified="No">False</Option>
    <Option name="IgnoreNegWeightsInTraining" modified="No">False</Option>
    <Option name="NTrees" modified="Yes">1000</Option>
    <Option name="MaxDepth" modified="Yes">3</Option>
    <Option name="MinNodeSize" modified="Yes">2%</Option>
    <Option name="nCuts" modified="No">20</Option>
    <Option name="BoostType" modified="Yes">Grad</Option>
    <Option name="AdaBoostR2Loss" modified="No">quadratic</Option>
    <Option name="UseBaggedBoost" modified="Yes">True</Option>
    <Option name="Shrinkage" modified="Yes">1.000000e-01</Option>
    <Option name="AdaBoostBeta" modified="No">5.000000e-01</Option>
    <Option name="UseRandomisedTrees" modified="No">False</Option>
    <Option name="UseNvars" modified="No">4</Option>
    <Option name="UsePoissonNvars" modified="No">True</Option>
    <Option name="BaggedSampleFraction" modified="Yes">5.000000e-01</Option>
    <Option name="UseYesNoLeaf" modified="No">True</Option>
    <Option name="NegWeightTreatment" modified="Yes">ignorenegweightsintraining</Option>
    <Option name="Css" modified="No">1.000000e+00</Option>
    <Option name="Cts_sb" modified="No">1.000000e+00</Option>
    <Option name="Ctb_ss" modified="No">1.000000e+00</Option>
    <Option name="Cbb" modified="No">1.000000e+00</Option>
    <Option name="NodePurityLimit" modified="No">5.000000e-01</Option>
    <Option name="SeparationType" modified="No">giniindex</Option>
    <Option name="DoBoostMonitor" modified="No">False</Option>
    <Option name="UseFisherCuts" modified="No">False</Option>
    <Option name="MinLinCorrForFisher" modified="No">8.000000e-01</Option>
    <Option name="UseExclusiveVars" modified="No">False</Option>
    <Option name="DoPreselection" modified="No">False</Option>
    <Option name="SigToBkgFraction" modified="No">1.000000e+00</Option>
    <Option name="PruneMethod" modified="No">nopruning</Option>
    <Option name="PruneStrength" modified="No">0.000000e+00</Option>
    <Option name="PruningValFraction" modified="No">5.000000e-01</Option>
    <Option name="nEventsMin" modified="No">0</Option>
    <Option name="UseBaggedGrad" modified="No">False</Option>
    <Option name="GradBaggingFraction" modified="No">5.000000e-01</Option>
    <Option name="UseNTrainEvents" modified="No">0</Option>
    <Option name="NNodesMax" modified="No">0</Option>
  </Options>
  <Variables NVar="12">
    <Variable VarIndex="0" Expression="NHits" Label="NHits" Title="NHits" Unit="" Internal="NHits" Type="F" Min="4.00000000e+00" Max="9.36000000e+02"/>
    <Variable VarIndex="1" Expression="N200" Label="N200" Title="N200" Unit="" Internal="N200" Type="F" Min="6.00000000e+00" Max="1.65300000e+03"/>
    <Variable VarIndex="2" Expression="TRMS" Label="TRMS" Title="TRMS" Unit="" Internal="TRMS" Type="F" Min="1.50743687e+00" Max="7.65105835e+02"/>
    <Variable VarIndex="3" Expression="Beta1" Label="Beta1" Title="Beta1" Unit="" Internal="Beta1" Type="F" Min="-3.31758022e-01" Max="9.99809086e-01"/>
    <Variable VarIndex="4" Expression="Beta5" Label="Beta5" Title="Beta5" Unit="" Internal="Beta5" Type="F" Min="-3.12476426e-01" Max="9.97139275e-01"/>
    <Variable VarIndex="5" Expression="OpeningAngleMean" Label="OpeningAngleMean" Title="OpeningAngleMean" Unit="" Internal="OpeningAngleMean" Type="F" Min="8.39873731e-01" Max="8.94692993e+01"/>
    <Variable VarIndex="6" Expression="OpeningAngleSkew" Label="OpeningAngleSkew" Title="OpeningAngleSkew" Unit="" Internal="OpeningAngleSkew" Type="F" Min="-2.97246674e+02" Max="3.45846558e+02"/>
    <Variable VarIndex="7" Expression="OpeningAngleStdev" Label="OpeningAngleStdev" Title="OpeningAngleStdev" Unit="" Internal="OpeningAngleStdev" Type="F" Min="1.11616240e-03" Max="4.55078163e+01"/>
    <Variable VarIndex="8" Expression="MeanDirAngleMean" Label="MeanDirAngleMean" Title="MeanDirAngleMean" Unit="" Internal="MeanDirAngleMean" Type="F" Min="6.55874789e-01" Max="9.35002670e+01"/>
    <Variable VarIndex="9" Expression="MeanDirAngleRMS" Label="MeanDirAngleRMS" Title="MeanDirAngleRMS" Unit="" Internal="MeanDirAngleRMS" Type="F" Min="1.89099595e-01" Max="8.66220551e+01"/>
    <Variable VarIndex="10" Expression="DWall" Label="DWall" Title="DWall" Unit="" Internal="DWall" Type="F" Min="-1.00000000e+02" Max="1.68767065e+03"/>
    <Variable VarIndex="11" Expression="DWallMeanDir" Label="DWallMeanDir" Title="DWallMeanDir" Unit="" Internal="DWallMeanDir" Type="F" Min="3.88397141e+01" Max="5.09312207e+03"/>
  </Variables>
  <Spectators NSpec="1">
    <Spectator SpecIndex="0" Expression="Label" Label="Label" Title="I" Unit="" Internal="Label" Type="F" Min="0.00000000e+00" Max="3.00000000e+00"/>
  </Spectators>
  <Classes NClass="2">
    <Class Name="Signal" Index="0"/>
    <Class Name="Background" Index="1"/>
  </Classes>
  <Transformations NTransformations="1">
    <Transform Name="Normalize">
      <Selection>
        <Input NInputs="12">
          <Input Type="Variable" Label="NHits" Expression="NHits"/>
          <Input Type="Variable" Label="N200" Expression="N200"/>
          <Input Type="Variable" Label="TRMS" Expression="TRMS"/>
          <Input Type="Variable" Label="Beta1" Expression="Beta1"/>
          <Input Type="Variable" Label="Beta5" Expression="Beta5"/>
          <Input Type="Variable" Label="OpeningAngleMean" Expression="OpeningAngleMean"/>
          <Input Type="Variable" Label="OpeningAngleSkew" Expression="OpeningAngleSkew"/>
          <Input Type="Variable" Label="OpeningAngleStdev" Expression="OpeningAngleStdev"/>
          <Input Type="Variable" Label="MeanDirAngleMean" Expression="MeanDirAngleMean"/>
          <Input Type="Variable" Label="MeanDirAngleRMS" Expression="MeanDirAngleRMS"/>
          <Input Type="Variable" Label="DWall" Expression="DWall"/>
          <Input Type="Variable" Label="DWallMeanDir" Expression="DWallMeanDir"/>
        </Input>
        <Output NOutputs="12">
          <Output Type="Variable" Label="NHits" Expression="NHits"/>
          <Output Type="Variable" Label="N200" Expression="N200"/>
          <Output Type="Variable" Label="TRMS" Expression="TRMS"/>
          <Output Type="Variable" Label="Beta1" Expression="Beta1"/>
          <Output Type="Variable" Label="Beta5" Expression="Beta5"/>
          <Output Type="Variable" Label="OpeningAngleMean" Expression="OpeningAngleMean"/>
          <Output Type="Variable" Label="OpeningAngleSkew" Expression="OpeningAngleSkew"/>
          <Output Type="Variable" Label="OpeningAngleStdev" Expression="OpeningAngleStdev"/>
          <Output Type="Variable" Label="MeanDirAngleMean" Expression="MeanDirAngleMean"/>
          <Output Type="Variable" Label="MeanDirAngleRMS" Expression="MeanDirAngleRMS"/>
          <Output Type="Variable" Label="DWall" Expression="DWall"/>
          <Output Type="Variable" Label="DWallMeanDir" Expression="DWallMeanDir"/>
        </Output>
      </Selection>
      <Class ClassIndex="0">
        <Ranges>
          <Range Index="0" Min="4.0000000000000000e+00" Max="9.8000000000000000e+01"/>
          <Range Index="1" Min="1.2000000000000000e+01" Max="1.4100000000000000e+02"/>
          <Range Index="2" Min="1.5074368715286255e+00" Max="4.0232550048828125e+02"/>
          <Range Index="3" Min="-2.7815833687782288e-01" Max="9.9274438619613647e-01"/>
          <Range Index="4" Min="-2.2586743533611298e-01" Max="8.9641040563583374e-01"/>
          <Range Index="5" Min="8.7641973495483398e+00" Max="8.7401252746582031e+01"/>
          <Range Index="6" Min="-2.1836518859863281e+02" Max="2.8241201782226562e+02"/>
          <Range Index="7" Min="2.2194667160511017e-01" Max="3.6195129394531250e+01"/>
          <Range Index="8" Min="4.1079201698303223e+00" Max="8.9874534606933594e+01"/>
          <Range Index="9" Min="2.1199975013732910e+00" Max="7.7061889648437500e+01"/>
          <Range Index="10" Min="-1.0000000000000000e+02" Max="1.6850103759765625e+03"/>
          <Range Index="11" Min="1.2167674255371094e+02" Max="5.0167890625000000e+03"/>
        </Ranges>
      </Class>
      <Class ClassIndex="1">
        <Ranges>
          <Range Index="0" Min="4.0000000000000000e+00" Max="9.3600000000000000e+02"/>
          <Range Index="1" Min="6.0000000000000000e+00" Max="1.6530000000000000e+03"/>
          <Range Index="2" Min="1.6021150350570679e+00" Max="7.6510583496093750e+02"/>
          <Range Index="3" Min="-3.3175802230834961e-01" Max="9.9980908632278442e-01"/>
          <Range Index="4" Min="-3.1247642636299133e-01" Max="9.9713927507400513e-01"/>
          <Range Index="5" Min="8.3987373113632202e-01" Max="8.9469299316406250e+01"/>
          <Range Index="6" Min="-2.9724667358398438e+02" Max="3.4584655761718750e+02"/>
          <Range Index="7" Min="1.1161623988300562e-03" Max="4.5507816314697266e+01"/>
          <Range Index="8" Min="6.5587478876113892e-01" Max="9.3500267028808594e+01"/>
          <Range Index="9" Min="1.8909959495067596e-01" Max="8.6622055053710938e+01"/>
          <Range Index="10" Min="-1.0000000000000000e+02" Max="1.6876706542968750e+03"/>
          <Range Index="11" Min="3.8839714050292969e+01" Max="5.0931220703125000e+03"/>
        </Ranges>
      </Class>
      <Class ClassIndex="2">
        <Ranges>
          <Range Index="0" Min="4.0000000000000000e+00" Max="9.3600000000000000e+02"/>
          <Range Index="1" Min="6.0000000000000000e+00" Max="1.6530000000000000e+03"/>
          <Range Index="2" Min="1.5074368715286255e+00" Max="7.6510583496093750e+02"/>
          <Range Index="3" Min="-3.3175802230834961e-01" Max="9.9980908632278442e-01"/>
          <Range Index="4" Min="-3.1247642636299133e-01" Max="9.9713927507400513e-01"/>
          <Range Index="5" Min="8.3987373113632202e-01" Max="8.9469299316406250e+01"/>
          <Range Index="6" Min="-2.9724667358398438e+02" Max="3.4584655761718750e+02"/>
          <Range Index="7" Min="1.1161623988300562e-03" Max="4.5507816314697266e+01"/>
          <Range Index="8" Min="6.5587478876113892e-01" Max="9.3500267028808594e+01"/>
          <Range Index="9" Min="1.8909959495067596e-01" Max="8.6622055053710938e+01"/>
          <Range Index="10" Min="-1.0000000000000000e+02" Max="1.6876706542968750e+03"/>
          <Range Index="11" Min="3.8839714050292969e+01" Max="5.0931220703125000e+03"/>
        </Ranges>
      </Class>
    </Transform>
  </Transformations>
  <MVAPdfs/>
  <Weights NTrees="1000" AnalysisType="1">
    <BinaryTree type="DecisionTree" boostWeight="1.0000000000000000e+00" itree="0">
      <Node pos="s" depth="0" NCoef="0" IVar="10" Cut="-7.1431273221969604e-01" cType="1" res="-3.4257621155120432e-04" rms="4.9999988079071045e-01" purity="4.9965742230415344e-01" nType="0">
        <Node pos="l" depth="1" NCoef="0" IVar="8" Cut="1.3562993705272675e-01" cType="1" res="-3.5378760099411011e-01" rms="3.5331901907920837e-01" purity="1.4621239900588989e-01" nType="0">
          <Node pos="l" depth="2" NCoef="0" IVar="10" Cut="-7.9593807458877563e-01" cType="1" res="-3.7491229176521301e-01" rms="3.3081832528114319e-01" purity="1.2508769333362579e-01" nType="0">
            <Node pos="l" depth="3" NCoef="0" IVar="-1" Cut="0.0000000000000000e+00" cType="1" res="-3.4818004816770554e-02" rms="3.1212580204010010e-01" purity="1.0938832163810730e-01" nType="-99"/>
            <Node pos="r" depth="3" NCoef="0" IVar="-1" Cut="0.0000000000000000e+00" cType="1" res="-1.0575178079307079e-02" rms="4.3730294704437256e-01" purity="2.5758269429206848e-01" nType="-99"/>
          </Node>
          <Node pos="r" depth="2" NCoef="0" IVar="-1" Cut="0.0000000000000000e+00" cType="1" res="-4.4741146266460419e-03" rms="4.8026791214942932e-01" purity="3.6092182993888855e-01" nType="-99"/>
        </Node>
        <Node pos="r" depth="1" NCoef="0" IVar="11" Cut="-1.8067142367362976e-01" cType="1" res="1.8184401094913483e-01" rms="4.6576040983200073e-01" purity="6.8184399604797363e-01" nType="0">
          <Node pos="l" depth="2" NCoef="0" IVar="11" Cut="-3.9943531155586243e-01" cType="1" res="3.9552578330039978e-01" rms="3.0587470531463623e-01" purity="8.9552575349807739e-01" nType="0">
            <Node pos="l" depth="3" NCoef="0" IVar="-1" Cut="0.0000000000000000e+00" cType="1" res="5.8745141141116619e-03" rms="1.9345471262931824e-01" purity="9.6105885505676270e-01" nType="-99"/>
            <Node pos="r" depth="3" NCoef="0" IVar="-1" Cut="0.0000000000000000e+00" cType="1" res="4.3779467232525349e-03" rms="4.1321352124214172e-01" purity="7.8152191638946533e-01" nType="-99"/>
          </Node>
          <Node pos="r" depth="2" NCoef="0" IVar="0" Cut="-9.8548948764801025e-01" cType="1" res="-2.0886067301034927e-02" rms="4.9956357479095459e-01" purity="4.7911396622657776e-01" nType="0">
            <Node pos="l" depth="3" NCoef="0" IVar="-1" Cut="0.0000000000000000e+00" cType="1" res="-1.5691291540861130e-02" rms="4.0385538339614868e-01" purity="2.0521052181720734e-01" nType="-99"/>
            <Node pos="r" depth="3" NCoef="0" IVar="-1" Cut="0.0000000000000000e+00" cType="1" res="4.3121748603880405e-03" rms="4.1751113533973694e-01" purity="7.7510809898376465e-01" nType="-99"/>
          </Node>
        </Node>
      </Node>
    </BinaryTree>
    <BinaryTree type="DecisionTree" boostWeight="1.0000000000000000e+00" itree="1">
      <Node pos="s" depth="0" NCoef="0" IVar="10" Cut="-7.1447759866714478e-01" cType="1" res="5.3421258926391602e-03" rms="4.9449318647384644e-01" purity="5.0009661912918091e-01" nType="0">
        <Node pos="l" depth="1" NCoef="0" IVar="8" Cut="1.2803804874420166e-01" cType="1" res="-3.3650007843971252e-01" rms="3.5458046197891235e-01" purity="1.4861409366130829e-01" nType="0">
          <Node pos="l" depth="2" NCoef="0" IVar="10" Cut="-8.0965185165405273e-01" cType="1" res="-3.5607481002807617e-01" rms="3.3337220549583435e-01" purity="1.2779487669467926e-01" nType="0">
            <Node pos="l" depth="3" NCoef="0" IVar="-1" Cut="0.0000000000000000e+00" cType="1" res="-3.2971408218145370e-02" rms="3.1342890858650208e-01" purity="1.1043316870927811e-01" nType="-99"/>
            <Node pos="r" depth="3" NCoef="0" IVar="-1" Cut="0.0000000000000000e+00" cType="1" res="-1.1008277535438538e-02" rms="4.3180257081985474e-01" purity="2.4840183556079865e-01" nType="-99"/>
          </Node>
          <Node pos="r" depth="2" NCoef="0" IVar="-1" Cut="0.0000000000000000e+00" cType="1" res="-5.0038876943290234e-03" rms="4.7570824623107910e-01" purity="3.4695237874984741e-01" nType="-99"/>
        </Node>
        <Node pos="r" depth="1" NCoef="0" IVar="11" Cut="-1.8025004863739014e-01" cType="1" res="1.8191336095333099e-01" rms="4.6297755837440491e-01" purity="6.8164736032485962e-01" nType="0">
          <Node pos="l" depth="2" NCoef="0" IVar="11" Cut="-3.6359536647796631e-01" cType="1" res="3.9274671673774719e-01" rms="3.0592361092567444e-01" purity="8.9540553092956543e-01" nType="0">
            <Node pos="l" depth="3" NCoef="0" IVar="-1" Cut="0.0000000000000000e+00" cType="1" res="5.7823797687888145e-03" rms="2.1158275008201599e-01" purity="9.5301407575607300e-01" nType="-99"/>
            <Node pos="r" depth="3" NCoef="0" IVar="-1" Cut="0.0000000000000000e+00" cType="1" res="4.2013400234282017e-03" rms="4.2224001884460449e-01" purity="7.6777893304824829e-01" nType="-99"/>
          </Node>
          <Node pos="r" depth="2" NCoef="0" IVar="0" Cut="-9.8548948764801025e-01" cType="1" res="-1.9804190844297409e-02" rms="4.9665600061416626e-01" purity="4.7713139653205872e-01" nType="0">
            <Node pos="l" depth="3" NCoef="0" IVar="-1" Cut="0.0000000000000000e+00" cType="1" res="-1.5234264545142651e-02" rms="4.0412428975105286e-01" purity="2.0557922124862671e-01" nType="-99"/>
            <Node pos="r" depth="3" NCoef="0" IVar="-1" Cut="0.0000000000000000e+00" cType="1" res="4.2633102275431156e-03" rms="4.1846832633018494e-01" purity="7.7364921569824219e-01" nType="-99"/>
          </Node>
        </Node>
      </Node>
    </BinaryTree>
    <BinaryTree type="DecisionTree" boostWeight="1.0000000000000000e+00" itree="2">
      <Node pos="s" depth="0" NCoef="0" IVar="10" Cut="-7.1428573131561279e-01" cType="1" res="8.7829260155558586e-03" rms="4.8933568596839905e-01" purity="4.9865737557411194e-01" nType="0">
        <Node pos="l" depth="1" NCoef="0" IVar="8" Cut="1.3562993705272675e-01" cType="1" res="-3.2596296072006226e-01" rms="3.5029989480972290e-01" purity="1.4525814354419708e-01" nType="0">
          <Node pos="l" depth="2" NCoef="0" IVar="10" Cut="-7.8231298923492432e-01" cType="1" res="-3.4372803568840027e-01" rms="3.3000248670578003e-01" purity="1.2515497207641602e-01" nType="0">
            <Node pos="l" depth="3" NCoef="0" IVar="-1" Cut="0.0000000000000000e+00" cType="1" res="-3.1238486990332603e-02" rms="3.1507968902587891e-01" purity="1.1189042776823044e-01" nType="-99"/>
            <Node pos="r" depth="3" NCoef="0" IVar="-1" Cut="0.0000000000000000e+00" cType="1" res="-9.4533478841185570e-03" rms="4.4197031855583191e-01" purity="2.6621454954147339e-01" nType="-99"/>
          </Node>
          <Node pos="r" depth="2" NCoef="0" IVar="-1" Cut="0.0000000000000000e+00" cType="1" res="-4.7169919125735760e-03" rms="4.7758269309997559e-01" purity="3.5197997093200684e-01" nType="-99"/>
        </Node>
        <Node pos="r" depth="1" NCoef="0" IVar="11" Cut="-1.8275976181030273e-01" cType="1" res="1.8144522607326508e-01" rms="4.6049261093139648e-01" purity="6.8094110488891602e-01" nType="0">
          <Node pos="l" depth="2" NCoef="0" IVar="11" Cut="-3.6543625593185425e-01" cType="1" res="3.9046356081962585e-01" rms="3.0535274744033813e-01" purity="8.9577370882034302e-01" nType="0">
            <Node pos="l" depth="3" NCoef="0" IVar="-1" Cut="0.0000000000000000e+00" cType="1" res="5.7458649389445782e-03" rms="2.1155819296836853e-01" purity="9.5302647352218628e-01" nType="-99"/>
            <Node pos="r" depth="3" NCoef="0" IVar="-1" Cut="0.0000000000000000e+00" cType="1" res="4.1852327995002270e-03" rms="4.2121672630310059e-01" purity="7.6939868927001953e-01" nType="-99"/>
          </Node>
          <Node pos="r" depth="2" NCoef="0" IVar="0" Cut="-9.8508071899414062e-01" cType="1" res="-1.4744037762284279e-02" rms="4.9404123425483704e-01" purity="4.7929441928863525e-01" nType="0">
            <Node pos="l" depth="3" NCoef="0" IVar="-1" Cut="0.0000000000000000e+00" cType="1" res="-1.4673518016934395e-02" rms="4.0517151355743408e-01" purity="2.0705762505531311e-01" nType="-99"/>
            <Node pos="r" depth="3" NCoef="0" IVar="-1" Cut="0.0000000000000000e+00" cType="1" res="4.2442064732313156e-03" rms="4.1757905483245850e-01" purity="7.7500498294830322e-01" nType="-99"/>
          </Node>
        </Node>
      </Node>
    </BinaryTree>
    <BinaryTree type="DecisionTree" boostWeight="1.0000000000000000e+00" itree="3">
      <Node pos="s" depth="0" NCoef="0" IVar="10" Cut="-7.1431273221969604e-01" cType="1" res="1.5235422179102898e-02" rms="4.8439243435859680e-01" purity="5.0047361850738525e-01" nType="0">
        <Node pos="l" depth="1" NCoef="0" IVar="8" Cut="1.3562993705272675e-01" cType="1" res="-3.0992946028709412e-01" rms="3.5195100307464600e-01" purity="1.4782437682151794e-01" nType="0">
          <Node pos="l" depth="2" NCoef="0" IVar="10" Cut="-8.2314628362655640e-01" cType="1" res="-3.2781016826629639e-01" rms="3.3120137453079224e-01" purity="1.2648858129978180e-01" nType="0">
            <Node pos="l" depth="3" NCoef="0" IVar="-1" Cut="0.0000000000000000e+00" cType="1" res="-3.1016310676932335e-02" rms="3.1092056632041931e-01" purity="1.0844051092863083e-01" nType="-99"/>
            <Node pos="r" depth="3" NCoef="0" IVar="-1" Cut="0.0000000000000000e+00" cType="1" res="-1.1862841434776783e-02" rms="4.1962224245071411e-01" purity="2.2964262962341309e-01" nType="-99"/>
          </Node>
          <Node pos="r" depth="2" NCoef="0" IVar="-1" Cut="0.0000000000000000e+00" cType="1" res="-4.0774899534881115e-03" rms="4.8139676451683044e-01" purity="3.6490169167518616e-01" nType="-99"/>
        </Node>
        <Node pos="r" depth="1" NCoef="0" IVar="0" Cut="-9.8508071899414062e-01" cType="1" res="1.8262287974357605e-01" rms="4.5739370584487915e-01" purity="6.8200933933258057e-01" nType="0">
          <Node pos="l" depth="2" NCoef="0" IVar="0" Cut="-9.9141627550125122e-01" cType="1" res="-2.3349715769290924e-01" rms="4.3031486868858337e-01" purity="2.4959351122379303e-01" nType="0">
            <Node pos="l" depth="3" NCoef="0" IVar="-1" Cut="0.0000000000000000e+00" cType="1" res="-2.2690614685416222e-02" rms="3.5759428143501282e-01" purity="1.5200211107730865e-01" nType="-99"/>
            <Node pos="r" depth="3" NCoef="0" IVar="-1" Cut="0.0000000000000000e+00" cType="1" res="-4.8972913064062595e-03" rms="4.7057366371154785e-01" purity="3.3984309434890747e-01" nType="-99"/>
          </Node>
          <Node pos="r" depth="2" NCoef="0" IVar="0" Cut="-9.7823423147201538e-01" cType="1" res="3.8846847414970398e-01" rms="3.0507585406303406e-01" purity="8.9591616392135620e-01" nType="0">
            <Node pos="l" depth="3" NCoef="0" IVar="-1" Cut="0.0000000000000000e+00" cType="1" res="2.7029113844037056e-03" rms="4.7566127777099609e-01" purity="6.5331876277923584e-01" nType="-99"/>
            <Node pos="r" depth="3" NCoef="0" IVar="-1" Cut="0.0000000000000000e+00" cType="1" res="5.9420107863843441e-03" rms="1.2051296979188919e-01" purity="9.8523354530334473e-01" nType="-99"/>
          </Node>
        </Node>
      </Node>
    </BinaryTree>
    <BinaryTree type="DecisionTree" boostWeight="1.0000000000000000e+00" itree="4">
      <Node pos="s" depth="0" NCoef="0" IVar="10" Cut="-7.1428573131561279e-01" cType="1" res="1.9307350739836693e-02" rms="4.7938150167465210e-01" purity="4.9981114268302917e-01" nType="0">
        <Node pos="l" depth="1" NCoef="0" IVar="8" Cut="1.7827534675598145e-01" cType="1" res="-2.9799175262451172e-01" rms="3.5027521848678589e-01" purity="1.4688138663768768e-01" nType="0">
          <Node pos="l" depth="2" NCoef="0" IVar="10" Cut="-8.0952388048171997e-01" cType="1" res="-3.1190419197082520e-01" rms="3.3446946740150452e-01" purity="1.3006155192852020e-01" nType="0">
            <Node pos="l" depth="3" NCoef="0" IVar="-1" Cut="0.0000000000000000e+00" cType="1" res="-2.9044119641184807e-02" rms="3.1448838114738464e-01" purity="1.1154066771268845e-01" nType="-99"/>
            <Node pos="r" depth="3" NCoef="0" IVar="-1" Cut="0.0000000000000000e+00" cType="1" res="-9.8968343809247017e-03" rms="4.3368417024612427e-01" purity="2.5219899415969849e-01" nType="-99"/>
          </Node>
          <Node pos="r" depth="2" NCoef="0" IVar="-1" Cut="0.0000000000000000e+00" cType="1" res="-2.2127600386738777e-03" rms="4.9236053228378296e-01" purity="4.1301393508911133e-01" nType="-99"/>
        </Node>
        <Node pos="r" depth="1" NCoef="0" IVar="0" Cut="-9.8078888654708862e-01" cType="1" res="1.8280576169490814e-01" rms="4.5430254936218262e-01" purity="6.8166935443878174e-01" nType="0">
          <Node pos="l" depth="2" NCoef="0" IVar="0" Cut="-9.8855507373809814e-01" cType="1" res="-1.5215687453746796e-01" rms="4.6459898352622986e-01" purity="3.3224999904632568e-01" nType="0">
            <Node pos="l" depth="3" NCoef="0" IVar="-1" Cut="0.0000000000000000e+00" cType="1" res="-1.5155867673456669e-02" rms="3.9638787508010864e-01" purity="1.9852621853351593e-01" nType="-99"/>
            <Node pos="r" depth="3" NCoef="0" IVar="-1" Cut="0.0000000000000000e+00" cType="1" res="2.2074990556575358e-04" rms="4.9633419513702393e-01" purity="5.0667506456375122e-01" nType="-99"/>
          </Node>
          <Node pos="r" depth="2" NCoef="0" IVar="1" Cut="-9.6669268608093262e-01" cType="1" res="4.4903004169464111e-01" rms="1.9702906906604767e-01" purity="9.5938372611999512e-01" nType="0">
            <Node pos="l" depth="3" NCoef="0" IVar="-1" Cut="0.0000000000000000e+00" cType="1" res="5.1008402369916439e-03" rms="3.3009341359138489e-01" purity="8.7517130374908447e-01" nType="-99"/>
            <Node pos="r" depth="3" NCoef="0" IVar="-1" Cut="0.0000000000000000e+00" cType="1" res="5.8988360688090324e-03" rms="1.2509797513484955e-01" purity="9.8403942584991455e-01" nType="-99"/>
          </Node>
        </Node>
      </Node>
    </BinaryTree>
    <BinaryTree type="DecisionTree" boostWeight="1.0000000000000000e+00" itree="5">
      <Node pos="s" depth="0" NCoef="0" IVar="10" Cut="-7.1447759866714478e-01" cType="1" res="2.3766946047544479e-02" rms="4.7474130988121033e-01" purity="4.9991330504417419e-01" nType="0">
        <Node pos="l" depth="1" NCoef="0" IVar="8" Cut="1.3627527654170990e-01" cType="1" res="-2.8553280234336853e-01" rms="3.4962829947471619e-01" purity="1.4711797237396240e-01" nType="0">
          <Node pos="l" depth="2" NCoef="0" IVar="10" Cut="-8.2324850559234619e-01" cType="1" res="-3.0115020275115967e-01" rms="3.3018842339515686e-01" purity="1.2626796960830688e-01" nType="0">
            <Node pos="l" depth="3" NCoef="0" IVar="-1" Cut="0.0000000000000000e+00" cType="1" res="-2.9245045036077499e-02" rms="3.0895298719406128e-01" purity="1.0689218342304230e-01" nType="-99"/>
            <Node pos="r" depth="3" NCoef="0" IVar="-1" Cut="0.0000000000000000e+00" cType="1" res="-1.0739143006503582e-02" rms="4.2345806956291199e-01" purity="2.3597107827663422e-01" nType="-99"/>
          </Node>
          <Node pos="r" depth="2" NCoef="0" IVar="-1" Cut="0.0000000000000000e+00" cType="1" res="-4.0283459238708019e-03" rms="4.7926881909370422e-01" purity="3.6115628480911255e-01" nType="-99"/>
        </Node>
        <Node pos="r" depth="1" NCoef="0" IVar="11" Cut="-1.8131171166896820e-01" cType="1" res="1.8322765827178955e-01" rms="4.5144695043563843e-01" purity="6.8179833889007568e-01" nType="0">
          <Node pos="l" depth="2" NCoef="0" IVar="11" Cut="-4.0011066198348999e-01" cType="1" res="3.8490617275238037e-01" rms="3.0095821619033813e-01" purity="8.9592510461807251e-01" nType="0">
            <Node pos="l" depth="3" NCoef="0" IVar="-1" Cut="0.0000000000000000e+00" cType="1" res="5.7097258977591991e-03" rms="1.9150023162364960e-01" purity="9.6091157197952271e-01" nType="-99"/>
            <Node pos="r" depth="3" NCoef="0" IVar="-1" Cut="0.0000000000000000e+00" cType="1" res="4.2855297215282917e-03" rms="4.0662646293640137e-01" purity="7.8324353694915771e-01" nType="-99"/>
          </Node>
          <Node pos="r" depth="2" NCoef="0" IVar="0" Cut="-9.8548948764801025e-01" cType="1" res="-8.8335704058408737e-03" rms="4.8580989241600037e-01" purity="4.7788247466087341e-01" nType="0">
            <Node pos="l" depth="3" NCoef="0" IVar="-1" Cut="0.0000000000000000e+00" cType="1" res="-1.3974212110042572e-02" rms="4.0192469954490662e-01" purity="2.0428863167762756e-01" nType="-99"/>
            <Node pos="r" depth="3" NCoef="0" IVar="-1" Cut="0.0000000000000000e+00" cType="1" res="4.1363686323165894e-03" rms="4.1718402504920959e-01" purity="7.7407836914062500e-01" nType="-99"/>
          </Node>
        </Node>
      </Node>
    </BinaryTree>
    <BinaryTree type="DecisionTree" boostWeight="1.0000000000000000e+00" itree="6">
      <Node pos="s" depth="0" NCoef="0" IVar="10" Cut="-7.1436083316802979e-01" cType="1" res="2.7564652264118195e-02" rms="4.7044780850410461e-01" purity="4.9955296516418457e-01" nType="0">
        <Node pos="l" depth="1" NCoef="0" IVar="5" Cut="2.9280269145965576e-01" cType="1" res="-2.7420854568481445e-01" rms="3.4859088063240051e-01" purity="1.4636728167533875e-01" nType="0">
          <Node pos="l" depth="2" NCoef="0" IVar="11" Cut="-4.6333212405443192e-02" cType="1" res="-2.8781020641326904e-01" rms="3.3143573999404907e-01" purity="1.2787954509258270e-01" nType="0">
            <Node pos="l" depth="3" NCoef="0" IVar="-1" Cut="0.0000000000000000e+00" cType="1" res="-3.9348695427179337e-02" rms="2.6305967569351196e-01" purity="7.8244313597679138e-02" nType="-99"/>
            <Node pos="r" depth="3" NCoef="0" IVar="-1" Cut="0.0000000000000000e+00" cType="1" res="-1.9331522285938263e-02" rms="3.5343968868255615e-01" purity="1.4793644845485687e-01" nType="-99"/>
          </Node>
          <Node pos="r" depth="2" NCoef="0" IVar="-1" Cut="0.0000000000000000e+00" cType="1" res="-4.8513896763324738e-03" rms="4.6650704741477966e-01" purity="3.3077958226203918e-01" nType="-99"/>
        </Node>
        <Node pos="r" depth="1" NCoef="0" IVar="11" Cut="-1.8292924761772156e-01" cType="1" res="1.8305338919162750e-01" rms="4.4905111193656921e-01" purity="6.8153202533721924e-01" nType="0">
          <Node pos="l" depth="2" NCoef="0" IVar="11" Cut="-4.0217658877372742e-01" cType="1" res="3.8281935453414917e-01" rms="3.0023902654647827e-01" purity="8.9643108844757080e-01" nType="0">
            <Node pos="l" depth="3" NCoef="0" IVar="-1" Cut="0.0000000000000000e+00" cType="1" res="5.6775584816932678e-03" rms="1.9081927835941315e-01" purity="9.6120554208755493e-01" nType="-99"/>
            <Node pos="r" depth="3" NCoef="0" IVar="-1" Cut="0.0000000000000000e+00" cType="1" res="4.2776064947247505e-03" rms="4.0491908788681030e-01" purity="7.8576159477233887e-01" nType="-99"/>
          </Node>
          <Node pos="r" depth="2" NCoef="0" IVar="0" Cut="-9.8508071899414062e-01" cType="1" res="-5.7738102041184902e-03" rms="4.8339182138442993e-01" purity="4.7840040922164917e-01" nType="0">
            <Node pos="l" depth="3" NCoef="0" IVar="-1" Cut="0.0000000000000000e+00" cType="1" res="-1.3648643158376217e-02" rms="4.0179297327995300e-01" purity="2.0415270328521729e-01" nType="-99"/>
            <Node pos="r" depth="3" NCoef="0" IVar="-1" Cut="0.0000000000000000e+00" cType="1" res="4.1136252693831921e-03" rms="4.1659542918205261e-01" purity="7.7495747804641724e-01" nType="-99"/>
          </Node>
        </Node>
      </Node>
    </BinaryTree>
    <BinaryTree type="DecisionTree" boostWeight="1.0000000000000000e+00" itree="7">
      <Node pos="s" depth="0" NCoef="0" IVar="10" Cut="-7.1431273221969604e-01" cType="1" res="3.2626114785671234e-02" rms="4.6630308032035828e-01" purity="5.0087541341781616e-01" nType="0">
        <Node pos="l" depth="1" NCoef="0" IVar="10" Cut="-7.6873016357421875e-01" cType="1" res="-2.6179677248001099e-01" rms="3.4892109036445618e-01" purity="1.4775466918945312e-01" nType="0">
          <Node pos="l" depth="2" NCoef="0" IVar="11" Cut="-4.7619048506021500e-02" cType="1" res="-2.7556127309799194e-01" rms="3.3166036009788513e-01" purity="1.2910149991512299e-01" nType="0">
            <Node pos="l" depth="3" NCoef="0" IVar="-1" Cut="0.0000000000000000e+00" cType="1" res="-4.2434014379978180e-02" rms="2.4836334586143494e-01" purity="6.9010801613330841e-02" nType="-99"/>
            <Node pos="r" depth="3" NCoef="0" IVar="-1" Cut="0.0000000000000000e+00" cType="1" res="-1.7901740968227386e-02" rms="3.5757651925086975e-01" purity="1.5329566597938538e-01" nType="-99"/>
          </Node>
          <Node pos="r" depth="2" NCoef="0" IVar="-1" Cut="0.0000000000000000e+00" cType="1" res="-3.6150752566754818e-03" rms="4.7570434212684631e-01" purity="3.5379114747047424e-01" nType="-99"/>
        </Node>
        <Node pos="r" depth="1" NCoef="0" IVar="11" Cut="-1.8008056282997131e-01" cType="1" res="1.8412920832633972e-01" rms="4.4622927904129028e-01" purity="6.8258297443389893e-01" nType="0">
          <Node pos="l" depth="2" NCoef="0" IVar="11" Cut="-4.0005725622177124e-01" cType="1" res="3.7997147440910339e-01" rms="3.0052199959754944e-01" purity="8.9607810974121094e-01" nType="0">
            <Node pos="l" depth="3" NCoef="0" IVar="-1" Cut="0.0000000000000000e+00" cType="1" res="5.6428732350468636e-03" rms="1.9111122190952301e-01" purity="9.6107661724090576e-01" nType="-99"/>
            <Node pos="r" depth="3" NCoef="0" IVar="-1" Cut="0.0000000000000000e+00" cType="1" res="4.2484612204134464e-03" rms="4.0480101108551025e-01" purity="7.8578335046768188e-01" nType="-99"/>
          </Node>
          <Node pos="r" depth="2" NCoef="0" IVar="0" Cut="-9.8160636425018311e-01" cType="1" res="-3.6156375426799059e-03" rms="4.8105335235595703e-01" purity="4.7791504859924316e-01" nType="0">
            <Node pos="l" depth="3" NCoef="0" IVar="-1" Cut="0.0000000000000000e+00" cType="1" res="-8.8041126728057861e-03" rms="4.3276581168174744e-01" purity="2.6096710562705994e-01" nType="-99"/>
            <Node pos="r" depth="3" NCoef="0" IVar="-1" Cut="0.0000000000000000e+00" cType="1" res="5.2401344291865826e-03" rms="2.9603871703147888e-01" purity="9.0271407365798950e-01" nType="-99"/>
          </Node>
        </Node>
      </Node>
    </BinaryTree>
    <BinaryTree type="DecisionTree" boostWeight="1.0000000000000000e+00" itree="8">
      <Node pos="s" depth="0" NCoef="0" IVar="10" Cut="-7.1431273221969604e-01" cType="1" res="3.5138417035341263e-02" rms="4.6238580346107483e-01" purity="4.9971166253089905e-01" nType="0">
        <Node pos="l" depth="1" NCoef="0" IVar="8" Cut="1.2634368240833282e-01" cType="1" res="-2.5335788726806641e-01" rms="3.4571096301078796e-01" purity="1.4490084350109100e-01" nType="0">
          <Node pos="l" depth="2" NCoef="0" IVar="10" Cut="-7.9593861103057861e-01" cType="1" res="-2.6671937108039856e-01" rms="3.2708835601806641e-01" purity="1.2445986270904541e-01" nType="0">
            <Node pos="l" depth="3" NCoef="0" IVar="-1" Cut="0.0000000000000000e+00" cType="1" res="-2.5761997327208519e-02" rms="3.1127792596817017e-01" purity="1.0966743528842926e-01" nType="-99"/>
            <Node pos="r" depth="3" NCoef="0" IVar="-1" Cut="0.0000000000000000e+00" cType="1" res="-8.8526969775557518e-03" rms="4.3425452709197998e-01" purity="2.5201770663261414e-01" nType="-99"/>
          </Node>
          <Node pos="r" depth="2" NCoef="0" IVar="-1" Cut="0.0000000000000000e+00" cType="1" res="-4.3419166468083858e-03" rms="4.6960228681564331e-01" purity="3.3861216902732849e-01" nType="-99"/>
        </Node>
        <Node pos="r" depth="1" NCoef="0" IVar="0" Cut="-9.8181074857711792e-01" cType="1" res="1.8330791592597961e-01" rms="4.4443663954734802e-01" purity="6.8193984031677246e-01" nType="0">
          <Node pos="l" depth="2" NCoef="0" IVar="0" Cut="-9.8855507373809814e-01" cType="1" res="-1.3767153024673462e-01" rms="4.6057322621345520e-01" purity="3.3316501975059509e-01" nType="0">
            <Node pos="l" depth="3" NCoef="0" IVar="-1" Cut="0.0000000000000000e+00" cType="1" res="-1.3756659813225269e-02" rms="3.9719480276107788e-01" purity="2.0139501988887787e-01" nType="-99"/>
            <Node pos="r" depth="3" NCoef="0" IVar="-1" Cut="0.0000000000000000e+00" cType="1" res="2.8747142641805112e-04" rms="4.9369814991950989e-01" purity="5.0578516721725464e-01" nType="-99"/>
          </Node>
          <Node pos="r" depth="2" NCoef="0" IVar="0" Cut="-9.7251170873641968e-01" cType="1" res="4.3863752484321594e-01" rms="1.9687122106552124e-01" purity="9.5937991142272949e-01" nType="0">
            <Node pos="l" depth="3" NCoef="0" IVar="-1" Cut="0.0000000000000000e+00" cType="1" res="4.5663742348551750e-03" rms="3.7541282176971436e-01" purity="8.2963079214096069e-01" nType="-99"/>
            <Node pos="r" depth="3" NCoef="0" IVar="-1" Cut="0.0000000000000000e+00" cType="1" res="5.8465581387281418e-03" rms="7.2203822433948517e-02" purity="9.9474656581878662e-01" nType="-99"/>
          </Node>
        </Node>
      </Node>
    </BinaryTree>
    <BinaryTree type="DecisionTree" boostWeight="1.0000000000000000e+00" itree="9">
      <Node pos="s" depth="0" NCoef="0" IVar="10" Cut="-7.1428573131561279e-01" cType="1" res="3.9048407226800919e-02" rms="4.5869585871696472e-01" purity="4.9985453486442566e-01" nType="0">
        <Node pos="l" depth="1" NCoef="0" IVar="10" Cut="-7.6870781183242798e-01" cType="1" res="-2.3969548940658569e-01" rms="3.4857076406478882e-01" purity="1.4822450280189514e-01" nType="0">
          <Node pos="l" depth="2" NCoef="0" IVar="6" Cut="-1.2160323560237885e-01" cType="1" res="-2.5164514780044556e-01" rms="3.3227995038032532e-01" purity="1.2995745241641998e-01" nType="0">
            <Node pos="l" depth="3" NCoef="0" IVar="-1" Cut="0.0000000000000000e+00" cType="1" res="-1.0308628901839256e-02" rms="4.0074452757835388e-01" purity="2.1004284918308258e-01" nType="-99"/>
            <Node pos="r" depth="3" NCoef="0" IVar="-1" Cut="0.0000000000000000e+00" cType="1" res="-2.4974053725600243e-02" rms="3.1170576810836792e-01" purity="1.1061702668666840e-01" nType="-99"/>
          </Node>
          <Node pos="r" depth="2" NCoef="0" IVar="-1" Cut="0.0000000000000000e+00" cType="1" res="-3.5690111108124256e-03" rms="4.7464424371719360e-01" purity="3.5063007473945618e-01" nType="-99"/>
        </Node>
        <Node pos="r" depth="1" NCoef="0" IVar="0" Cut="-9.7884732484817505e-01" cType="1" res="1.8289823830127716e-01" rms="4.4214266538619995e-01" purity="6.8131840229034424e-01" nType="0">
          <Node pos="l" depth="2" NCoef="0" IVar="0" Cut="-9.8896378278732300e-01" cType="1" res="-1.0490790754556656e-01" rms="4.6807014942169189e-01" purity="3.6638939380645752e-01" nType="0">
            <Node pos="l" depth="3" NCoef="0" IVar="-1" Cut="0.0000000000000000e+00" cType="1" res="-1.3125964440405369e-02" rms="3.9908155798912048e-01" purity="2.0402908325195312e-01" nType="-99"/>
            <Node pos="r" depth="3" NCoef="0" IVar="-1" Cut="0.0000000000000000e+00" cType="1" res="1.0118322679772973e-03" rms="4.9098265171051025e-01" purity="5.4426836967468262e-01" nType="-99"/>
          </Node>
          <Node pos="r" depth="2" NCoef="0" IVar="-1" Cut="0.0000000000000000e+00" cType="1" res="5.6852544657886028e-03" rms="1.5476273000240326e-01" purity="9.7530746459960938e-01" nType="-99"/>
        </Node>
      </Node>
    </BinaryTree>
    <BinaryTree type="DecisionTree" boostWeight="1.0000000000000000e+00" itree="10">
      <Node pos="s" depth="0" NCoef="0" IVar="10" Cut="-7.1471089124679565e-01" cType="1" res="4.3134152889251709e-02" rms="4.5494455099105835e-01" purity="5.0078153610229492e-01" nType="0">
        <Node pos="l" depth="1" NCoef="0" IVar="5" Cut="3.0825653672218323e-01" cType="1" res="-2.3048986494541168e-01" rms="3.4749320149421692e-01" purity="1.4783246815204620e-01" nType="0">
          <Node pos="l" depth="2" NCoef="0" IVar="10" Cut="-7.6905179023742676e-01" cType="1" res="-2.4248851835727692e-01" rms="3.3175939321517944e-01" purity="1.2978568673133850e-01" nType="0">
            <Node pos="l" depth="3" NCoef="0" IVar="-1" Cut="0.0000000000000000e+00" cType="1" res="-2.2614089772105217e-02" rms="3.1922605633735657e-01" purity="1.1705928295850754e-01" nType="-99"/>
            <Node pos="r" depth="3" NCoef="0" IVar="-1" Cut="0.0000000000000000e+00" cType="1" res="-5.6910263374447823e-03" rms="4.5889472961425781e-01" purity="3.0135241150856018e-01" nType="-99"/>
          </Node>
          <Node pos="r" depth="2" NCoef="0" IVar="-1" Cut="0.0000000000000000e+00" cType="1" res="-2.7709235437214375e-03" rms="4.7620582580566406e-01" purity="3.6498665809631348e-01" nType="-99"/>
        </Node>
        <Node pos="r" depth="1" NCoef="0" IVar="0" Cut="-9.8283261060714722e-01" cType="1" res="1.8392436206340790e-01" rms="4.3931105732917786e-01" purity="6.8238759040832520e-01" nType="0">
          <Node pos="l" depth="2" NCoef="0" IVar="0" Cut="-9.9141633510589600e-01" cType="1" res="-1.6194500029087067e-01" rms="4.4612610340118408e-01" purity="2.9573410749435425e-01" nType="0">
            <Node pos="l" depth="3" NCoef="0" IVar="-1" Cut="0.0000000000000000e+00" cType="1" res="-2.7189321815967560e-02" rms="3.2162049412727356e-01" purity="1.1816789209842682e-01" nType="-99"/>
            <Node pos="r" depth="3" NCoef="0" IVar="-1" Cut="0.0000000000000000e+00" cType="1" res="-4.2750909924507141e-03" rms="4.6330070495605469e-01" purity="3.3829554915428162e-01" nType="-99"/>
          </Node>
          <Node pos="r" depth="2" NCoef="0" IVar="4" Cut="-3.8437208533287048e-01" cType="1" res="4.0912723541259766e-01" rms="2.4588215351104736e-01" purity="9.3414586782455444e-01" nType="0">
            <Node pos="l" depth="3" NCoef="0" IVar="-1" Cut="0.0000000000000000e+00" cType="1" res="5.5787549354135990e-03" rms="1.8738630414009094e-01" purity="9.6288937330245972e-01" nType="-99"/>
            <Node pos="r" depth="3" NCoef="0" IVar="-1" Cut="0.0000000000000000e+00" cType="1" res="-1.0812528198584914e-03" rms="4.9762445688247681e-01" purity="4.7519853711128235e-01" nType="-99"/>
          </Node>
        </Node>
      </Node>
    </BinaryTree>
    <BinaryTree type="DecisionTree" boostWeight="1.0000000000000000e+00" itree="11">
      <Node pos="s" depth="0" NCoef="0" IVar="10" Cut="-7.1431273221969604e-01" cType="1" res="4.4658590108156204e-02" rms="4.5141032338142395e-01" purity="4.9887180328369141e-01" nType="0">
        <Node pos="l" depth="1" NCoef="0" IVar="5" Cut="3.2376983761787415e-01" cType="1" res="-2.2041070461273193e-01" rms="3.4801736474037170e-01" purity="1.4884047210216522e-01" nType="0">
          <Node pos="l" depth="2" NCoef="0" IVar="10" Cut="-8.3675044775009155e-01" cType="1" res="-2.3012048006057739e-01" rms="3.3516412973403931e-01" purity="1.3354761898517609e-01" nType="0">
            <Node pos="l" depth="3" NCoef="0" IVar="-1" Cut="0.0000000000000000e+00" cType="1" res="-2.3346956819295883e-02" rms="3.1161466240882874e-01" purity="1.1059565842151642e-01" nType="-99"/>
            <Node pos="r" depth="3" NCoef="0" IVar="-1" Cut="0.0000000000000000e+00" cType="1" res="-8.4541114047169685e-03" rms="4.2091339826583862e-01" purity="2.3692844808101654e-01" nType="-99"/>
          </Node>
          <Node pos="r" depth="2" NCoef="0" IVar="-1" Cut="0.0000000000000000e+00" cType="1" res="-2.3457412607967854e-03" rms="4.7948303818702698e-01" purity="3.7744775414466858e-01" nType="-99"/>
        </Node>
        <Node pos="r" depth="1" NCoef="0" IVar="0" Cut="-9.8181074857711792e-01" cType="1" res="1.8231073021888733e-01" rms="4.3733188509941101e-01" purity="6.8064522743225098e-01" nType="0">
          <Node pos="l" depth="2" NCoef="0" IVar="0" Cut="-9.8855507373809814e-01" cType="1" res="-1.2870676815509796e-01" rms="4.5678621530532837e-01" purity="3.3140018582344055e-01" nType="0">
            <Node pos="l" depth="3" NCoef="0" IVar="-1" Cut="0.0000000000000000e+00" cType="1" res="-1.2752802111208439e-02" rms="3.9676842093467712e-01" purity="2.0205152034759521e-01" nType="-99"/>
            <Node pos="r" depth="3" NCoef="0" IVar="-1" Cut="0.0000000000000000e+00" cType="1" res="1.9850789976771921e-04" rms="4.9303713440895081e-01" purity="5.0178802013397217e-01" nType="-99"/>
          </Node>
          <Node pos="r" depth="2" NCoef="0" IVar="0" Cut="-9.7251170873641968e-01" cType="1" res="4.3042874336242676e-01" rms="1.9659841060638428e-01" purity="9.5925980806350708e-01" nType="0">
            <Node pos="l" depth="3" NCoef="0" IVar="-1" Cut="0.0000000000000000e+00" cType="1" res="4.4799428433179855e-03" rms="3.7431266903877258e-01" purity="8.3013164997100830e-01" nType="-99"/>
            <Node pos="r" depth="3" NCoef="0" IVar="-1" Cut="0.0000000000000000e+00" cType="1" res="5.7509341277182102e-03" rms="7.2789154946804047e-02" purity="9.9465209245681763e-01" nType="-99"/>
          </Node>
        </Node>
      </Node>
    </BinaryTree>
    <BinaryTree type="DecisionTree" boostWeight="1.0000000000000000e+00" itree="12">
      <Node pos="s" depth="0" NCoef="0" IVar="10" Cut="-7.1428573131561279e-01" cType="1" res="4.8966880887746811e-02" rms="4.4805446267127991e-01" purity="5.0029951333999634e-01" nType="0">
        <Node pos="l" depth="1" NCoef="0" IVar="10" Cut="-7.8231298923492432e-01" cType="1" res="-2.1249011158943176e-01" rms="3.4666460752487183e-01" purity="1.4780983328819275e-01" nType="0">
          <Node pos="l" depth="2" NCoef="0" IVar="11" Cut="4.7619048506021500e-02" cType="1" res="-2.2495290637016296e-01" rms="3.2693326473236084e-01" purity="1.2549792230129242e-01" nType="0">
            <Node pos="l" depth="3" NCoef="0" IVar="-1" Cut="0.0000000000000000e+00" cType="1" res="-3.4044802188873291e-02" rms="2.5882294774055481e-01" purity="7.5313664972782135e-02" nType="-99"/>
            <Node pos="r" depth="3" NCoef="0" IVar="-1" Cut="0.0000000000000000e+00" cType="1" res="-1.5163951553404331e-02" rms="3.5641011595726013e-01" purity="1.5240445733070374e-01" nType="-99"/>
          </Node>
          <Node pos="r" depth="2" NCoef="0" IVar="-1" Cut="0.0000000000000000e+00" cType="1" res="-3.6730167921632528e-03" rms="4.6998807787895203e-01" purity="3.3805918693542480e-01" nType="-99"/>
        </Node>
        <Node pos="r" depth="1" NCoef="0" IVar="0" Cut="-9.8283261060714722e-01" cType="1" res="1.8367622792720795e-01" rms="4.3462690711021423e-01" purity="6.8191123008728027e-01" nType="0">
          <Node pos="l" depth="2" NCoef="0" IVar="0" Cut="-9.8855507373809814e-01" cType="1" res="-1.5211300551891327e-01" rms="4.4537442922592163e-01" purity="2.9747787117958069e-01" nType="0">
            <Node pos="l" depth="3" NCoef="0" IVar="-1" Cut="0.0000000000000000e+00" cType="1" res="-1.2260722927749157e-02" rms="3.9821177721023560e-01" purity="2.0381638407707214e-01" nType="-99"/>
            <Node pos="r" depth="3" NCoef="0" IVar="-1" Cut="0.0000000000000000e+00" cType="1" res="-6.3882704125717282e-04" rms="4.9256375432014465e-01" purity="4.6155220270156860e-01" nType="-99"/>
          </Node>
          <Node pos="r" depth="2" NCoef="0" IVar="4" Cut="-3.8752183318138123e-01" cType="1" res="4.0382221341133118e-01" rms="2.4558702111244202e-01" purity="9.3394875526428223e-01" nType="0">
            <Node pos="l" depth="3" NCoef="0" IVar="-1" Cut="0.0000000000000000e+00" cType="1" res="5.5178110487759113e-03" rms="1.8685455620288849e-01" purity="9.6302372217178345e-01" nType="-99"/>
            <Node pos="r" depth="3" NCoef="0" IVar="-1" Cut="0.0000000000000000e+00" cType="1" res="-7.2797905886545777e-04" rms="4.9811235070228577e-01" purity="4.8946416378021240e-01" nType="-99"/>
          </Node>
        </Node>
      </Node>
    </BinaryTree>
    <BinaryTree type="DecisionTree" boostWeight="1.0000000000000000e+00" itree="13">
      <Node pos="s" depth="0" NCoef="0" IVar="10" Cut="-7.1431273221969604e-01" cType="1" res="5.1367398351430893e-02" rms="4.4452938437461853e-01" purity="4.9971207976341248e-01" nType="0">
        <Node pos="l" depth="1" NCoef="0" IVar="8" Cut="1.2666985392570496e-01" cType="1" res="-2.0406898856163025e-01" rms="3.4564995765686035e-01" purity="1.4728589355945587e-01" nType="0">
          <Node pos="l" depth="2" NCoef="0" IVar="8" Cut="-3.5448646545410156e-01" cType="1" res="-2.1589890122413635e-01" rms="3.2744142413139343e-01" purity="1.2592799961566925e-01" nType="0">
            <Node pos="l" depth="3" NCoef="0" IVar="-1" Cut="0.0000000000000000e+00" cType="1" res="-9.9036926403641701e-03" rms="3.8309654593467712e-01" purity="1.8389631807804108e-01" nType="-99"/>
            <Node pos="r" depth="3" NCoef="0" IVar="-1" Cut="0.0000000000000000e+00" cType="1" res="-2.0383244380354881e-02" rms="3.1988915801048279e-01" purity="1.1948650330305099e-01" nType="-99"/>
          </Node>
          <Node pos="r" depth="2" NCoef="0" IVar="-1" Cut="0.0000000000000000e+00" cType="1" res="-3.1509078107774258e-03" rms="4.6971446275711060e-01" purity="3.4722304344177246e-01" nType="-99"/>
        </Node>
        <Node pos="r" depth="1" NCoef="0" IVar="11" Cut="-1.8313534557819366e-01" cType="1" res="1.8321558833122253e-01" rms="4.3228825926780701e-01" purity="6.8162333965301514e-01" nType="0">
          <Node pos="l" depth="2" NCoef="0" IVar="11" Cut="-3.6579251289367676e-01" cType="1" res="3.6933368444442749e-01" rms="2.9189360141754150e-01" purity="8.9616078138351440e-01" nType="0">
            <Node pos="l" depth="3" NCoef="0" IVar="-1" Cut="0.0000000000000000e+00" cType="1" res="5.4374691098928452e-03" rms="2.0288591086864471e-01" purity="9.5332854986190796e-01" nType="-99"/>
            <Node pos="r" depth="3" NCoef="0" IVar="-1" Cut="0.0000000000000000e+00" cType="1" res="4.0138815529644489e-03" rms="4.0523520112037659e-01" purity="7.6816093921661377e-01" nType="-99"/>
          </Node>
          <Node pos="r" depth="2" NCoef="0" IVar="0" Cut="-9.8160636425018311e-01" cType="1" res="7.5336070731282234e-03" rms="4.6827518939971924e-01" purity="4.7911548614501953e-01" nType="0">
            <Node pos="l" depth="3" NCoef="0" IVar="-1" Cut="0.0000000000000000e+00" cType="1" res="-7.6490934006869793e-03" rms="4.3049424886703491e-01" purity="2.6427713036537170e-01" nType="-99"/>
            <Node pos="r" depth="3" NCoef="0" IVar="-1" Cut="0.0000000000000000e+00" cType="1" res="5.0446987152099609e-03" rms="2.9491609334945679e-01" purity="9.0259557962417603e-01" nType="-99"/>
          </Node>
        </Node>
      </Node>
    </BinaryTree>
    <BinaryTree type="DecisionTree" boostWeight="1.0000000000000000e+00" itree="14">
      <Node pos="s" depth="0" NCoef="0" IVar="10" Cut="-7.1447759866714478e-01" cType="1" res="5.3917642682790756e-02" rms="4.4167879223823547e-01" purity="4.9991551041603088e-01" nType="0">
        <Node pos="l" depth="1" NCoef="0" IVar="8" Cut="1.3547427952289581e-01" cType="1" res="-1.9738078117370605e-01" rms="3.4402322769165039e-01" purity="1.4618436992168427e-01" nType="0">
          <Node pos="l" depth="2" NCoef="0" IVar="10" Cut="-7.9605597257614136e-01" cType="1" res="-2.0852662622928619e-01" rms="3.2623931765556335e-01" purity="1.2516051530838013e-01" nType="0">
            <Node pos="l" depth="3" NCoef="0" IVar="-1" Cut="0.0000000000000000e+00" cType="1" res="-2.1980127319693565e-02" rms="3.0874532461166382e-01" purity="1.0815455764532089e-01" nType="-99"/>
            <Node pos="r" depth="3" NCoef="0" IVar="-1" Cut="0.0000000000000000e+00" cType="1" res="-6.5700504928827286e-03" rms="4.4145393371582031e-01" purity="2.6628655195236206e-01" nType="-99"/>
          </Node>
          <Node pos="r" depth="2" NCoef="0" IVar="-1" Cut="0.0000000000000000e+00" cType="1" res="-2.7443463914096355e-03" rms="4.7475928068161011e-01" purity="3.5984161496162415e-01" nType="-99"/>
        </Node>
        <Node pos="r" depth="1" NCoef="0" IVar="11" Cut="-1.8067142367362976e-01" cType="1" res="1.8308149278163910e-01" rms="4.3055239319801331e-01" purity="6.8172836303710938e-01" nType="0">
          <Node pos="l" depth="2" NCoef="0" IVar="11" Cut="-3.9943531155586243e-01" cType="1" res="3.6687612533569336e-01" rms="2.9197618365287781e-01" purity="8.9601105451583862e-01" nType="0">
            <Node pos="l" depth="3" NCoef="0" IVar="-1" Cut="0.0000000000000000e+00" cType="1" res="5.4531488567590714e-03" rms="1.8690231442451477e-01" purity="9.6084260940551758e-01" nType="-99"/>
            <Node pos="r" depth="3" NCoef="0" IVar="-1" Cut="0.0000000000000000e+00" cType="1" res="4.1450946591794491e-03" rms="3.9447793364524841e-01" purity="7.8481137752532959e-01" nType="-99"/>
          </Node>
          <Node pos="r" depth="2" NCoef="0" IVar="0" Cut="-9.8375231027603149e-01" cType="1" res="7.4235508218407631e-03" rms="4.6682691574096680e-01" purity="4.7693204879760742e-01" nType="0">
            <Node pos="l" depth="3" NCoef="0" IVar="-1" Cut="0.0000000000000000e+00" cType="1" res="-9.1411415487527847e-03" rms="4.1882747411727905e-01" purity="2.3830036818981171e-01" nType="-99"/>
            <Node pos="r" depth="3" NCoef="0" IVar="-1" Cut="0.0000000000000000e+00" cType="1" res="4.5743673108518124e-03" rms="3.5611656308174133e-01" purity="8.4627717733383179e-01" nType="-99"/>
          </Node>
        </Node>
      </Node>
    </BinaryTree>
    <BinaryTree type="DecisionTree" boostWeight="1.0000000000000000e+00" itree="15">
      <Node pos="s" depth="0" NCoef="0" IVar="10" Cut="-7.1428573131561279e-01" cType="1" res="5.7083781808614731e-02" rms="4.3878084421157837e-01" purity="5.0044536590576172e-01" nType="0">
        <Node pos="l" depth="1" NCoef="0" IVar="6" Cut="-1.0522295534610748e-01" cType="1" res="-1.8701972067356110e-01" rms="3.4595564007759094e-01" purity="1.4831124246120453e-01" nType="0">
          <Node pos="l" depth="2" NCoef="0" IVar="1" Cut="-9.7415214776992798e-01" cType="1" res="-1.2578263878822327e-01" rms="4.1405516862869263e-01" purity="2.4030144512653351e-01" nType="0">
            <Node pos="l" depth="3" NCoef="0" IVar="-1" Cut="0.0000000000000000e+00" cType="1" res="-1.1304028332233429e-02" rms="3.8548785448074341e-01" purity="1.8337291479110718e-01" nType="-99"/>
            <Node pos="r" depth="3" NCoef="0" IVar="-1" Cut="0.0000000000000000e+00" cType="1" res="-2.9546096920967102e-03" rms="4.3491390347480774e-01" purity="2.9804581403732300e-01" nType="-99"/>
          </Node>
          <Node pos="r" depth="2" NCoef="0" IVar="4" Cut="-3.3333334326744080e-01" cType="1" res="-2.0775425434112549e-01" rms="3.1695622205734253e-01" purity="1.1716387420892715e-01" nType="0">
            <Node pos="l" depth="3" NCoef="0" IVar="-1" Cut="0.0000000000000000e+00" cType="1" res="-2.2129306569695473e-02" rms="3.0472850799560547e-01" purity="1.0727293789386749e-01" nType="-99"/>
            <Node pos="r" depth="3" NCoef="0" IVar="-1" Cut="0.0000000000000000e+00" cType="1" res="-8.3741936832666397e-03" rms="3.9055606722831726e-01" purity="1.9326069951057434e-01" nType="-99"/>
          </Node>
        </Node>
        <Node pos="r" depth="1" NCoef="0" IVar="0" Cut="-9.8181074857711792e-01" cType="1" res="1.8302488327026367e-01" rms="4.2837727069854736e-01" purity="6.8212312459945679e-01" nType="0">
          <Node pos="l" depth="2" NCoef="0" IVar="0" Cut="-9.8855507373809814e-01" cType="1" res="-1.1566589027643204e-01" rms="4.5404979586601257e-01" purity="3.3306252956390381e-01" nType="0">
            <Node pos="l" depth="3" NCoef="0" IVar="-1" Cut="0.0000000000000000e+00" cType="1" res="-1.2017667293548584e-02" rms="3.9522123336791992e-01" purity="2.0077936351299286e-01" nType="-99"/>
            <Node pos="r" depth="3" NCoef="0" IVar="-1" Cut="0.0000000000000000e+00" cType="1" res="3.6736248875968158e-04" rms="4.9106761813163757e-01" purity="5.0616174936294556e-01" nType="-99"/>
          </Node>
          <Node pos="r" depth="2" NCoef="0" IVar="0" Cut="-9.7251170873641968e-01" cType="1" res="4.2039585113525391e-01" rms="1.9559720158576965e-01" purity="9.5952314138412476e-01" nType="0">
            <Node pos="l" depth="3" NCoef="0" IVar="-1" Cut="0.0000000000000000e+00" cType="1" res="4.3771583586931229e-03" rms="3.7172400951385498e-01" purity="8.3252507448196411e-01" nType="-99"/>
            <Node pos="r" depth="3" NCoef="0" IVar="-1" Cut="0.0000000000000000e+00" cType="1" res="5.6368429213762283e-03" rms="7.2677820920944214e-02" purity="9.9466150999069214e-01" nType="-99"/>
          </Node>
        </Node>
      </Node>
    </BinaryTree>
    <BinaryTree type="DecisionTree" boostWeight="1.0000000000000000e+00" itree="16">
      <Node pos="s" depth="0" NCoef="0" IVar="10" Cut="-7.1471089124679565e-01" cType="1" res="5.8800261467695236e-02" rms="4.3581065535545349e-01" purity="4.9962419271469116e-01" nType="0">
        <Node pos="l" depth="1" NCoef="0" IVar="5" Cut="3.1234177947044373e-01" cType="1" res="-1.8137289583683014e-01" rms="3.4381535649299622e-01" purity="1.4634540677070618e-01" nType="0">
          <Node pos="l" depth="2" NCoef="0" IVar="11" Cut="5.0649624317884445e-02" cType="1" res="-1.9048807024955750e-01" rms="3.2982006669044495e-01" purity="1.2910583615303040e-01" nType="0">
            <Node pos="l" depth="3" NCoef="0" IVar="-1" Cut="0.0000000000000000e+00" cType="1" res="-2.6506982743740082e-02" rms="2.7092936635017395e-01" purity="8.6235009133815765e-02" nType="-99"/>
            <Node pos="r" depth="3" NCoef="0" IVar="-1" Cut="0.0000000000000000e+00" cType="1" res="-1.3594330288469791e-02" rms="3.5660076141357422e-01" purity="1.5213529765605927e-01" nType="-99"/>
          </Node>
          <Node pos="r" depth="2" NCoef="0" IVar="-1" Cut="0.0000000000000000e+00" cType="1" res="-2.1004853770136833e-03" rms="4.7322106361389160e-01" purity="3.6636909842491150e-01" nType="-99"/>
        </Node>
        <Node pos="r" depth="1" NCoef="0" IVar="11" Cut="-1.8025004863739014e-01" cType="1" res="1.8247582018375397e-01" rms="4.2645567655563354e-01" purity="6.8154275417327881e-01" nType="0">
          <Node pos="l" depth="2" NCoef="0" IVar="11" Cut="-4.0026411414146423e-01" cType="1" res="3.6223971843719482e-01" rms="2.9122963547706604e-01" purity="8.9528989791870117e-01" nType="0">
            <Node pos="l" depth="3" NCoef="0" IVar="-1" Cut="0.0000000000000000e+00" cType="1" res="5.4042134433984756e-03" rms="1.8523284792900085e-01" purity="9.6123039722442627e-01" nType="-99"/>
            <Node pos="r" depth="3" NCoef="0" IVar="-1" Cut="0.0000000000000000e+00" cType="1" res="4.0781097486615181e-03" rms="3.9458584785461426e-01" purity="7.8153884410858154e-01" nType="-99"/>
          </Node>
          <Node pos="r" depth="2" NCoef="0" IVar="0" Cut="-9.8548948764801025e-01" cType="1" res="1.0830131359398365e-02" rms="4.6283203363418579e-01" purity="4.7744849324226379e-01" nType="0">
            <Node pos="l" depth="3" NCoef="0" IVar="-1" Cut="0.0000000000000000e+00" cType="1" res="-1.1547952890396118e-02" rms="3.9804434776306152e-01" purity="2.0201310515403748e-01" nType="-99"/>
            <Node pos="r" depth="3" NCoef="0" IVar="-1" Cut="0.0000000000000000e+00" cType="1" res="3.8890540599822998e-03" rms="4.0893933176994324e-01" purity="7.7496129274368286e-01" nType="-99"/>
          </Node>
        </Node>
      </Node>
    </BinaryTree>
    <BinaryTree type="DecisionTree" boostWeight="1.0000000000000000e+00" itree="17">
      <Node pos="s" depth="0" NCoef="0" IVar="10" Cut="-7.1428573131561279e-01" cType="1" res="6.1677724123001099e-02" rms="4.3312609195709229e-01" purity="5.0016564130783081e-01" nType="0">
        <Node pos="l" depth="1" NCoef="0" IVar="10" Cut="-7.5510209798812866e-01" cType="1" res="-1.7366859316825867e-01" rms="3.4412756562232971e-01" purity="1.4689068496227264e-01" nType="0">
          <Node pos="l" depth="2" NCoef="0" IVar="6" Cut="-1.0969877243041992e-01" cType="1" res="-1.8182978034019470e-01" rms="3.3166292309761047e-01" purity="1.3182064890861511e-01" nType="0">
            <Node pos="l" depth="3" NCoef="0" IVar="-1" Cut="0.0000000000000000e+00" cType="1" res="-7.9984562471508980e-03" rms="3.9606049656867981e-01" purity="2.0781472325325012e-01" nType="-99"/>
            <Node pos="r" depth="3" NCoef="0" IVar="-1" Cut="0.0000000000000000e+00" cType="1" res="-2.0206917077302933e-02" rms="3.0907487869262695e-01" purity="1.0946889221668243e-01" nType="-99"/>
          </Node>
          <Node pos="r" depth="2" NCoef="0" IVar="-1" Cut="0.0000000000000000e+00" cType="1" res="-1.6055641463026404e-03" rms="4.7894862294197083e-01" purity="3.7436640262603760e-01" nType="-99"/>
        </Node>
        <Node pos="r" depth="1" NCoef="0" IVar="11" Cut="-1.7865078151226044e-01" cType="1" res="1.8297965824604034e-01" rms="4.2425215244293213e-01" purity="6.8225020170211792e-01" nType="0">
          <Node pos="l" depth="2" NCoef="0" IVar="11" Cut="-3.6059290170669556e-01" cType="1" res="3.5948574542999268e-01" rms="2.9142865538597107e-01" purity="8.9493334293365479e-01" nType="0">
            <Node pos="l" depth="3" NCoef="0" IVar="-1" Cut="0.0000000000000000e+00" cType="1" res="5.3245760500431061e-03" rms="2.0293150842189789e-01" purity="9.5279979705810547e-01" nType="-99"/>
            <Node pos="r" depth="3" NCoef="0" IVar="-1" Cut="0.0000000000000000e+00" cType="1" res="3.8822086062282324e-03" rms="4.0554100275039673e-01" purity="7.6378446817398071e-01" nType="-99"/>
          </Node>
          <Node pos="r" depth="2" NCoef="0" IVar="0" Cut="-9.8160636425018311e-01" cType="1" res="1.3758305460214615e-02" rms="4.6110889315605164e-01" purity="4.7834491729736328e-01" nType="0">
            <Node pos="l" depth="3" NCoef="0" IVar="-1" Cut="0.0000000000000000e+00" cType="1" res="-7.1845124475657940e-03" rms="4.2838984727859497e-01" purity="2.6210153102874756e-01" nType="-99"/>
            <Node pos="r" depth="3" NCoef="0" IVar="-1" Cut="0.0000000000000000e+00" cType="1" res="4.9377419054508209e-03" rms="2.9376259446144104e-01" purity="9.0336602926254272e-01" nType="-99"/>
          </Node>
        </Node>
      </Node>
    </BinaryTree>
    <BinaryTree type="DecisionTree" boostWeight="1.0000000000000000e+00" itree="18">
      <Node pos="s" depth="0" NCoef="0" IVar="10" Cut="-7.1431273221969604e-01" cType="1" res="6.3560046255588531e-02" rms="4.3064296245574951e-01" purity="5.0008881092071533e-01" nType="0">
        <Node pos="l" depth="1" NCoef="0" IVar="5" Cut="3.1015548110008240e-01" cType="1" res="-1.6791912913322449e-01" rms="3.4281098842620850e-01" purity="1.4569301903247833e-01" nType="0">
          <Node pos="l" depth="2" NCoef="0" IVar="10" Cut="-8.3675068616867065e-01" cType="1" res="-1.7651395499706268e-01" rms="3.2859349250793457e-01" purity="1.2803459167480469e-01" nType="0">
            <Node pos="l" depth="3" NCoef="0" IVar="-1" Cut="0.0000000000000000e+00" cType="1" res="-2.0036067813634872e-02" rms="3.0653163790702820e-01" purity="1.0701778531074524e-01" nType="-99"/>
            <Node pos="r" depth="3" NCoef="0" IVar="-1" Cut="0.0000000000000000e+00" cType="1" res="-7.2773448191583157e-03" rms="4.1371357440948486e-01" purity="2.2552490234375000e-01" nType="-99"/>
          </Node>
          <Node pos="r" depth="2" NCoef="0" IVar="-1" Cut="0.0000000000000000e+00" cType="1" res="-2.0223585888743401e-03" rms="4.7231879830360413e-01" purity="3.6344164609909058e-01" nType="-99"/>
        </Node>
        <Node pos="r" depth="1" NCoef="0" IVar="11" Cut="-1.8439678847789764e-01" cType="1" res="1.8245425820350647e-01" rms="4.2271599173545837e-01" purity="6.8211644887924194e-01" nType="0">
          <Node pos="l" depth="2" NCoef="0" IVar="11" Cut="-4.0322542190551758e-01" cType="1" res="3.5921868681907654e-01" rms="2.8850460052490234e-01" purity="8.9744585752487183e-01" nType="0">
            <Node pos="l" depth="3" NCoef="0" IVar="-1" Cut="0.0000000000000000e+00" cType="1" res="5.3455596789717674e-03" rms="1.8480505049228668e-01" purity="9.6139913797378540e-01" nType="-99"/>
            <Node pos="r" depth="3" NCoef="0" IVar="-1" Cut="0.0000000000000000e+00" cType="1" res="4.0745176374912262e-03" rms="3.9060214161872864e-01" purity="7.8773444890975952e-01" nType="-99"/>
          </Node>
          <Node pos="r" depth="2" NCoef="0" IVar="0" Cut="-9.8160636425018311e-01" cType="1" res="1.6105014830827713e-02" rms="4.5982792973518372e-01" purity="4.7947460412979126e-01" nType="0">
            <Node pos="l" depth="3" NCoef="0" IVar="-1" Cut="0.0000000000000000e+00" cType="1" res="-6.9265607744455338e-03" rms="4.2933246493339539e-01" purity="2.6408359408378601e-01" nType="-99"/>
            <Node pos="r" depth="3" NCoef="0" IVar="-1" Cut="0.0000000000000000e+00" cType="1" res="4.9054441042244434e-03" rms="2.9436594247817993e-01" purity="9.0293359756469727e-01" nType="-99"/>
          </Node>
        </Node>
      </Node>
    </BinaryTree>
    <BinaryTree type="DecisionTree" boostWeight="1.0000000000000000e+00" itree="19">
      <Node pos="s" depth="0" NCoef="0" IVar="10" Cut="-7.1428573131561279e-01" cType="1" res="6.5893016755580902e-02" rms="4.2826524376869202e-01" purity="5.0039720535278320e-01" nType="0">
        <Node pos="l" depth="1" NCoef="0" IVar="6" Cut="-1.0120219737291336e-01" cType="1" res="-1.6013726592063904e-01" rms="3.4346702694892883e-01" purity="1.4660537242889404e-01" nType="0">
          <Node pos="l" depth="2" NCoef="0" IVar="1" Cut="-9.7415214776992798e-01" cType="1" res="-1.1135203391313553e-01" rms="4.0977987647056580e-01" purity="2.3441162705421448e-01" nType="0">
            <Node pos="l" depth="3" NCoef="0" IVar="-1" Cut="0.0000000000000000e+00" cType="1" res="-1.0371596552431583e-02" rms="3.8426622748374939e-01" purity="1.8212898075580597e-01" nType="-99"/>
            <Node pos="r" depth="3" NCoef="0" IVar="-1" Cut="0.0000000000000000e+00" cType="1" res="-2.7192721609026194e-03" rms="4.2906561493873596e-01" purity="2.8752291202545166e-01" nType="-99"/>
          </Node>
          <Node pos="r" depth="2" NCoef="0" IVar="4" Cut="-3.2318595051765442e-01" cType="1" res="-1.7761179804801941e-01" rms="3.1451556086540222e-01" purity="1.1515378206968307e-01" nType="0">
            <Node pos="l" depth="3" NCoef="0" IVar="-1" Cut="0.0000000000000000e+00" cType="1" res="-2.0032422617077827e-02" rms="3.0375957489013672e-01" purity="1.0644947737455368e-01" nType="-99"/>
            <Node pos="r" depth="3" NCoef="0" IVar="-1" Cut="0.0000000000000000e+00" cType="1" res="-7.4032172560691833e-03" rms="3.8737970590591431e-01" purity="1.8884368240833282e-01" nType="-99"/>
          </Node>
        </Node>
        <Node pos="r" depth="1" NCoef="0" IVar="11" Cut="-1.8457186222076416e-01" cType="1" res="1.8212409317493439e-01" rms="4.2104816436767578e-01" purity="6.8232685327529907e-01" nType="0">
          <Node pos="l" depth="2" NCoef="0" IVar="2" Cut="-9.9366915225982666e-01" cType="1" res="3.5668319463729858e-01" rms="2.8875270485877991e-01" purity="8.9720904827117920e-01" nType="0">
            <Node pos="l" depth="3" NCoef="0" IVar="-1" Cut="0.0000000000000000e+00" cType="1" res="5.3851087577641010e-03" rms="1.6304412484169006e-01" purity="9.7039842605590820e-01" nType="-99"/>
            <Node pos="r" depth="3" NCoef="0" IVar="-1" Cut="0.0000000000000000e+00" cType="1" res="3.6475448869168758e-03" rms="4.1497832536697388e-01" purity="7.4856400489807129e-01" nType="-99"/>
          </Node>
          <Node pos="r" depth="2" NCoef="0" IVar="0" Cut="-9.8508071899414062e-01" cType="1" res="1.7181087285280228e-02" rms="4.5827236771583557e-01" purity="4.7928208112716675e-01" nType="0">
            <Node pos="l" depth="3" NCoef="0" IVar="-1" Cut="0.0000000000000000e+00" cType="1" res="-1.0846116580069065e-02" rms="3.9900833368301392e-01" purity="2.0329934358596802e-01" nType="-99"/>
            <Node pos="r" depth="3" NCoef="0" IVar="-1" Cut="0.0000000000000000e+00" cType="1" res="3.8549706805497408e-03" rms="4.0607461333274841e-01" purity="7.7584546804428101e-01" nType="-99"/>
          </Node>
        </Node>
      </Node>
    </BinaryTree>
    <BinaryTree type="DecisionTree" boostWeight="1.0000000000000000e+00" itree="20">
      <Node pos="s" depth="0" NCoef="0" IVar="10" Cut="-7.1447759866714478e-01" cType="1" res="6.6905342042446136e-02" rms="4.2579483985900879e-01" purity="4.9916315078735352e-01" nType="0">
        <Node pos="l" depth="1" NCoef="0" IVar="8" Cut="1.3657474517822266e-01" cType="1" res="-1.5365850925445557e-01" rms="3.4327638149261475e-01" purity="1.4661622047424316e-01" nType="0">
          <Node pos="l" depth="2" NCoef="0" IVar="11" Cut="-3.3175492286682129e-01" cType="1" res="-1.6245128214359283e-01" rms="3.2671305537223816e-01" purity="1.2597057223320007e-01" nType="0">
            <Node pos="l" depth="3" NCoef="0" IVar="-1" Cut="0.0000000000000000e+00" cType="1" res="-3.4371085464954376e-02" rms="2.2425077855587006e-01" purity="5.9348374605178833e-02" nType="-99"/>
            <Node pos="r" depth="3" NCoef="0" IVar="-1" Cut="0.0000000000000000e+00" cType="1" res="-1.3675693422555923e-02" rms="3.4107407927513123e-01" purity="1.3780650496482849e-01" nType="-99"/>
          </Node>
          <Node pos="r" depth="2" NCoef="0" IVar="-1" Cut="0.0000000000000000e+00" cType="1" res="-2.0666860509663820e-03" rms="4.7277873754501343e-01" purity="3.6009383201599121e-01" nType="-99"/>
        </Node>
        <Node pos="r" depth="1" NCoef="0" IVar="11" Cut="-1.8025004863739014e-01" cType="1" res="1.8073996901512146e-01" rms="4.1950997710227966e-01" purity="6.8111521005630493e-01" nType="0">
          <Node pos="l" depth="2" NCoef="0" IVar="11" Cut="-4.0026384592056274e-01" cType="1" res="3.5290554165840149e-01" rms="2.9041376709938049e-01" purity="8.9561945199966431e-01" nType="0">
            <Node pos="l" depth="3" NCoef="0" IVar="-1" Cut="0.0000000000000000e+00" cType="1" res="5.2895997650921345e-03" rms="1.8559068441390991e-01" purity="9.6101659536361694e-01" nType="-99"/>
            <Node pos="r" depth="3" NCoef="0" IVar="-1" Cut="0.0000000000000000e+00" cType="1" res="3.9711520075798035e-03" rms="3.9357119798660278e-01" purity="7.8280252218246460e-01" nType="-99"/>
          </Node>
          <Node pos="r" depth="2" NCoef="0" IVar="0" Cut="-9.8375231027603149e-01" cType="1" res="1.6140328720211983e-02" rms="4.5626538991928101e-01" purity="4.7603750228881836e-01" nType="0">
            <Node pos="l" depth="3" NCoef="0" IVar="-1" Cut="0.0000000000000000e+00" cType="1" res="-8.5522327572107315e-03" rms="4.1454270482063293e-01" purity="2.3293197154998779e-01" nType="-99"/>
            <Node pos="r" depth="3" NCoef="0" IVar="-1" Cut="0.0000000000000000e+00" cType="1" res="4.4437600299715996e-03" rms="3.5266602039337158e-01" purity="8.4808260202407837e-01" nType="-99"/>
          </Node>
        </Node>
      </Node>
    </BinaryTree>
    <BinaryTree type="DecisionTree" boostWeight="1.0000000000000000e+00" itree="21">
      <Node pos="s" depth="0" NCoef="0" IVar="10" Cut="-7.1431273221969604e-01" cType="1" res="6.9579616189002991e-02" rms="4.2367488145828247e-01" purity="4.9990582466125488e-01" nType="0">
        <Node pos="l" depth="1" NCoef="0" IVar="10" Cut="-7.5512534379959106e-01" cType="1" res="-1.4606460928916931e-01" rms="3.4440720081329346e-01" purity="1.4811280369758606e-01" nType="0">
          <Node pos="l" depth="2" NCoef="0" IVar="11" Cut="-2.3861998319625854e-01" cType="1" res="-1.5361580252647400e-01" rms="3.3219927549362183e-01" purity="1.3296881318092346e-01" nType="0">
            <Node pos="l" depth="3" NCoef="0" IVar="-1" Cut="0.0000000000000000e+00" cType="1" res="-2.9830997809767723e-02" rms="2.3796197772026062e-01" purity="6.7505732178688049e-02" nType="-99"/>
            <Node pos="r" depth="3" NCoef="0" IVar="-1" Cut="0.0000000000000000e+00" cType="1" res="-1.1981271207332611e-02" rms="3.4989207983016968e-01" purity="1.4827758073806763e-01" nType="-99"/>
          </Node>
          <Node pos="r" depth="2" NCoef="0" IVar="-1" Cut="0.0000000000000000e+00" cType="1" res="-1.0422642808407545e-03" rms="4.7862127423286438e-01" purity="3.7585014104843140e-01" nType="-99"/>
        </Node>
        <Node pos="r" depth="1" NCoef="0" IVar="0" Cut="-9.8181074857711792e-01" cType="1" res="1.8096475303173065e-01" rms="4.1775855422019958e-01" purity="6.8161487579345703e-01" nType="0">
          <Node pos="l" depth="2" NCoef="0" IVar="0" Cut="-9.8855507373809814e-01" cType="1" res="-1.0081026703119278e-01" rms="4.5012870430946350e-01" purity="3.3336815237998962e-01" nType="0">
            <Node pos="l" depth="3" NCoef="0" IVar="-1" Cut="0.0000000000000000e+00" cType="1" res="-1.1084166355431080e-02" rms="3.9383399486541748e-01" purity="1.9998659193515778e-01" nType="-99"/>
            <Node pos="r" depth="3" NCoef="0" IVar="-1" Cut="0.0000000000000000e+00" cType="1" res="5.2604335360229015e-04" rms="4.8769363760948181e-01" purity="5.0741189718246460e-01" nType="-99"/>
          </Node>
          <Node pos="r" depth="2" NCoef="0" IVar="0" Cut="-9.7251170873641968e-01" cType="1" res="4.0577208995819092e-01" rms="1.9551202654838562e-01" purity="9.5945507287979126e-01" nType="0">
            <Node pos="l" depth="3" NCoef="0" IVar="-1" Cut="0.0000000000000000e+00" cType="1" res="4.1855224408209324e-03" rms="3.7247180938720703e-01" purity="8.3145105838775635e-01" nType="-99"/>
            <Node pos="r" depth="3" NCoef="0" IVar="-1" Cut="0.0000000000000000e+00" cType="1" res="5.4846098646521568e-03" rms="7.2671897709369659e-02" purity="9.9466049671173096e-01" nType="-99"/>
          </Node>
        </Node>
      </Node>
    </BinaryTree>
    <BinaryTree type="DecisionTree" boostWeight="1.0000000000000000e+00" itree="22">
      <Node pos="s" depth="0" NCoef="0" IVar="10" Cut="-7.1428573131561279e-01" cType="1" res="7.1476794779300690e-02" rms="4.2138943076133728e-01" purity="5.0000077486038208e-01" nType="0">
        <Node pos="l" depth="1" NCoef="0" IVar="10" Cut="-7.6870757341384888e-01" cType="1" res="-1.4088800549507141e-01" rms="3.4366229176521301e-01" purity="1.4761216938495636e-01" nType="0">
          <Node pos="l" depth="2" NCoef="0" IVar="11" Cut="1.4287206530570984e-01" cType="1" res="-1.4897842705249786e-01" rms="3.2843700051307678e-01" purity="1.2902280688285828e-01" nType="0">
            <Node pos="l" depth="3" NCoef="0" IVar="-1" Cut="0.0000000000000000e+00" cType="1" res="-2.2410592064261436e-02" rms="2.7564337849617004e-01" purity="8.8553868234157562e-02" nType="-99"/>
            <Node pos="r" depth="3" NCoef="0" IVar="-1" Cut="0.0000000000000000e+00" cType="1" res="-1.0490106418728828e-02" rms="3.6063092947006226e-01" purity="1.5809810161590576e-01" nType="-99"/>
          </Node>
          <Node pos="r" depth="2" NCoef="0" IVar="-1" Cut="0.0000000000000000e+00" cType="1" res="-1.7663820181041956e-03" rms="4.7131013870239258e-01" purity="3.5232424736022949e-01" nType="-99"/>
        </Node>
        <Node pos="r" depth="1" NCoef="0" IVar="0" Cut="-9.8078888654708862e-01" cType="1" res="1.8097473680973053e-01" rms="4.1591680049896240e-01" purity="6.8169677257537842e-01" nType="0">
          <Node pos="l" depth="2" NCoef="0" IVar="0" Cut="-9.8855507373809814e-01" cType="1" res="-9.5997564494609833e-02" rms="4.5023530721664429e-01" purity="3.3539456129074097e-01" nType="0">
            <Node pos="l" depth="3" NCoef="0" IVar="-1" Cut="0.0000000000000000e+00" cType="1" res="-1.0738640092313290e-02" rms="3.9450800418853760e-01" purity="2.0086546242237091e-01" nType="-99"/>
            <Node pos="r" depth="3" NCoef="0" IVar="-1" Cut="0.0000000000000000e+00" cType="1" res="5.7984539307653904e-04" rms="4.8787218332290649e-01" purity="5.0998306274414062e-01" nType="-99"/>
          </Node>
          <Node pos="r" depth="2" NCoef="0" IVar="1" Cut="-9.6669268608093262e-01" cType="1" res="4.0287709236145020e-01" rms="1.9613887369632721e-01" purity="9.5914429426193237e-01" nType="0">
            <Node pos="l" depth="3" NCoef="0" IVar="-1" Cut="0.0000000000000000e+00" cType="1" res="4.5458418317139149e-03" rms="3.2955443859100342e-01" purity="8.7408018112182617e-01" nType="-99"/>
            <Node pos="r" depth="3" NCoef="0" IVar="-1" Cut="0.0000000000000000e+00" cType="1" res="5.3836279548704624e-03" rms="1.2467620521783829e-01" purity="9.8395115137100220e-01" nType="-99"/>
          </Node>
        </Node>
      </Node>
    </BinaryTree>
    <BinaryTree type="DecisionTree" boostWeight="1.0000000000000000e+00" itree="23">
      <Node pos="s" depth="0" NCoef="0" IVar="10" Cut="-7.1436083316802979e-01" cType="1" res="7.4273608624935150e-02" rms="4.1922396421432495e-01" purity="5.0104618072509766e-01" nType="0">
        <Node pos="l" depth="1" NCoef="0" IVar="10" Cut="-7.5516712665557861e-01" cType="1" res="-1.3434241712093353e-01" rms="3.4458988904953003e-01" purity="1.4829723536968231e-01" nType="0">
          <Node pos="l" depth="2" NCoef="0" IVar="6" Cut="-1.0969877243041992e-01" cType="1" res="-1.4085942506790161e-01" rms="3.3298569917678833e-01" purity="1.3357724249362946e-01" nType="0">
            <Node pos="l" depth="3" NCoef="0" IVar="-1" Cut="0.0000000000000000e+00" cType="1" res="-6.4156376756727695e-03" rms="3.9583444595336914e-01" purity="2.0823384821414948e-01" nType="-99"/>
            <Node pos="r" depth="3" NCoef="0" IVar="-1" Cut="0.0000000000000000e+00" cType="1" res="-1.6730532050132751e-02" rms="3.1145477294921875e-01" purity="1.1164902895689011e-01" nType="-99"/>
          </Node>
          <Node pos="r" depth="2" NCoef="0" IVar="-1" Cut="0.0000000000000000e+00" cType="1" res="-1.1459920788183808e-03" rms="4.7718393802642822e-01" purity="3.7183222174644470e-01" nType="-99"/>
        </Node>
        <Node pos="r" depth="1" NCoef="0" IVar="11" Cut="-1.8187193572521210e-01" cType="1" res="1.8173050880432129e-01" rms="4.1370067000389099e-01" purity="6.8274515867233276e-01" nType="0">
          <Node pos="l" depth="2" NCoef="0" IVar="4" Cut="-3.9134117960929871e-01" cType="1" res="3.4845122694969177e-01" rms="2.8638625144958496e-01" purity="8.9671438932418823e-01" nType="0">
            <Node pos="l" depth="3" NCoef="0" IVar="-1" Cut="0.0000000000000000e+00" cType="1" res="5.0325179472565651e-03" rms="2.4368977546691895e-01" purity="9.2650806903839111e-01" nType="-99"/>
            <Node pos="r" depth="3" NCoef="0" IVar="-1" Cut="0.0000000000000000e+00" cType="1" res="-1.5065321931615472e-03" rms="4.8886910080909729e-01" purity="4.5785817503929138e-01" nType="-99"/>
          </Node>
          <Node pos="r" depth="2" NCoef="0" IVar="0" Cut="-9.8375231027603149e-01" cType="1" res="2.3556565865874290e-02" rms="4.5201802253723145e-01" purity="4.7974482178688049e-01" nType="0">
            <Node pos="l" depth="3" NCoef="0" IVar="-1" Cut="0.0000000000000000e+00" cType="1" res="-7.6217278838157654e-03" rms="4.1767689585685730e-01" purity="2.3902544379234314e-01" nType="-99"/>
            <Node pos="r" depth="3" NCoef="0" IVar="-1" Cut="0.0000000000000000e+00" cType="1" res="4.3620723299682140e-03" rms="3.5158389806747437e-01" purity="8.4849727153778076e-01" nType="-99"/>
          </Node>
        </Node>
      </Node>
    </BinaryTree>
    <BinaryTree type="DecisionTree" boostWeight="1.0000000000000000e+00" itree="24">
      <Node pos="s" depth="0" NCoef="0" IVar="10" Cut="-7.1431273221969604e-01" cType="1" res="7.4765384197235107e-02" rms="4.1715666651725769e-01" purity="4.9993601441383362e-01" nType="0">
        <Node pos="l" depth="1" NCoef="0" IVar="10" Cut="-7.5512564182281494e-01" cType="1" res="-1.3042470812797546e-01" rms="3.4304183721542358e-01" purity="1.4691701531410217e-01" nType="0">
          <Node pos="l" depth="2" NCoef="0" IVar="11" Cut="-3.3408537507057190e-01" cType="1" res="-1.3671229779720306e-01" rms="3.3135193586349487e-01" purity="1.3209521770477295e-01" nType="0">
            <Node pos="l" depth="3" NCoef="0" IVar="-1" Cut="0.0000000000000000e+00" cType="1" res="-3.1292714178562164e-02" rms="2.1991764008998871e-01" purity="5.8444332331418991e-02" nType="-99"/>
            <Node pos="r" depth="3" NCoef="0" IVar="-1" Cut="0.0000000000000000e+00" cType="1" res="-1.1333487927913666e-02" rms="3.4686654806137085e-01" purity="1.4514809846878052e-01" nType="-99"/>
          </Node>
          <Node pos="r" depth="2" NCoef="0" IVar="-1" Cut="0.0000000000000000e+00" cType="1" res="-1.1334617156535387e-03" rms="4.7710764408111572e-01" purity="3.7189215421676636e-01" nType="-99"/>
        </Node>
        <Node pos="r" depth="1" NCoef="0" IVar="11" Cut="-2.6725226640701294e-01" cType="1" res="1.8038061261177063e-01" rms="4.1254597902297974e-01" purity="6.8164157867431641e-01" nType="0">
          <Node pos="l" depth="2" NCoef="0" IVar="11" Cut="-4.2988151311874390e-01" cType="1" res="3.7236735224723816e-01" rms="2.4575732648372650e-01" purity="9.2664051055908203e-01" nType="0">
            <Node pos="l" depth="3" NCoef="0" IVar="-1" Cut="0.0000000000000000e+00" cType="1" res="5.2304081618785858e-03" rms="1.7144657671451569e-01" purity="9.6646994352340698e-01" nType="-99"/>
            <Node pos="r" depth="3" NCoef="0" IVar="-1" Cut="0.0000000000000000e+00" cType="1" res="4.3789083138108253e-03" rms="3.4808248281478882e-01" purity="8.3814692497253418e-01" nType="-99"/>
          </Node>
          <Node pos="r" depth="2" NCoef="0" IVar="0" Cut="-9.8160636425018311e-01" cType="1" res="4.5083053410053253e-02" rms="4.5087727904319763e-01" purity="5.0898516178131104e-01" nType="0">
            <Node pos="l" depth="3" NCoef="0" IVar="-1" Cut="0.0000000000000000e+00" cType="1" res="-5.6406240910291672e-03" rms="4.3305346369743347e-01" purity="2.7701121568679810e-01" nType="-99"/>
            <Node pos="r" depth="3" NCoef="0" IVar="-1" Cut="0.0000000000000000e+00" cType="1" res="4.8352871090173721e-03" rms="2.7952989935874939e-01" purity="9.1333138942718506e-01" nType="-99"/>
          </Node>
        </Node>
      </Node>
    </BinaryTree>
    <BinaryTree type="DecisionTree" boostWeight="1.0000000000000000e+00" itree="25">
      <Node pos="s" depth="0" NCoef="0" IVar="10" Cut="-7.1436083316802979e-01" cType="1" res="7.7146559953689575e-02" rms="4.1526901721954346e-01" purity="5.0109577178955078e-01" nType="0">
        <Node pos="l" depth="1" NCoef="0" IVar="8" Cut="1.7548029124736786e-01" cType="1" res="-1.2358112633228302e-01" rms="3.4461703896522522e-01" purity="1.4871957898139954e-01" nType="0">
          <Node pos="l" depth="2" NCoef="0" IVar="8" Cut="-3.2829877734184265e-01" cType="1" res="-1.3212238252162933e-01" rms="3.3145934343338013e-01" purity="1.3078774511814117e-01" nType="0">
            <Node pos="l" depth="3" NCoef="0" IVar="-1" Cut="0.0000000000000000e+00" cType="1" res="-6.7015476524829865e-03" rms="3.7040364742279053e-01" purity="1.7134451866149902e-01" nType="-99"/>
            <Node pos="r" depth="3" NCoef="0" IVar="-1" Cut="0.0000000000000000e+00" cType="1" res="-1.3914963230490685e-02" rms="3.2509922981262207e-01" purity="1.2512342631816864e-01" nType="-99"/>
          </Node>
          <Node pos="r" depth="2" NCoef="0" IVar="-1" Cut="0.0000000000000000e+00" cType="1" res="1.6117279301397502e-04" rms="4.8529940843582153e-01" purity="4.1994211077690125e-01" nType="-99"/>
        </Node>
        <Node pos="r" depth="1" NCoef="0" IVar="11" Cut="-9.4534151256084442e-02" cType="1" res="1.8045383691787720e-01" rms="4.1069492697715759e-01" purity="6.8245106935501099e-01" nType="0">
          <Node pos="l" depth="2" NCoef="0" IVar="4" Cut="-3.8438680768013000e-01" cType="1" res="3.1910878419876099e-01" rms="3.1549608707427979e-01" purity="8.6157023906707764e-01" nType="0">
            <Node pos="l" depth="3" NCoef="0" IVar="-1" Cut="0.0000000000000000e+00" cType="1" res="4.8546940088272095e-03" rms="2.7481791377067566e-01" purity="8.9685839414596558e-01" nType="-99"/>
            <Node pos="r" depth="3" NCoef="0" IVar="-1" Cut="0.0000000000000000e+00" cType="1" res="-2.3817426990717649e-03" rms="4.8152258992195129e-01" purity="4.1145181655883789e-01" nType="-99"/>
          </Node>
          <Node pos="r" depth="2" NCoef="0" IVar="0" Cut="-9.8160636425018311e-01" cType="1" res="-1.8093188991770148e-03" rms="4.4839057326316833e-01" purity="4.4699734449386597e-01" nType="0">
            <Node pos="l" depth="3" NCoef="0" IVar="-1" Cut="0.0000000000000000e+00" cType="1" res="-7.0336977951228619e-03" rms="4.1967865824699402e-01" purity="2.4883484840393066e-01" nType="-99"/>
            <Node pos="r" depth="3" NCoef="0" IVar="-1" Cut="0.0000000000000000e+00" cType="1" res="4.6021193265914917e-03" rms="3.1135690212249756e-01" purity="8.8969665765762329e-01" nType="-99"/>
          </Node>
        </Node>
      </Node>
    </BinaryTree>
    <BinaryTree type="DecisionTree" boostWeight="1.0000000000000000e+00" itree="26">
      <Node pos="s" depth="0" NCoef="0" IVar="11" Cut="-1.4233306050300598e-01" cType="1" res="7.7518261969089508e-02" rms="4.1337540745735168e-01" purity="5.0008726119995117e-01" nType="0">
        <Node pos="l" depth="1" NCoef="0" IVar="10" Cut="-7.1436083316802979e-01" cType="1" res="2.4355730414390564e-01" rms="3.4743261337280273e-01" purity="7.3481422662734985e-01" nType="0">
          <Node pos="l" depth="2" NCoef="0" IVar="10" Cut="-8.5038405656814575e-01" cType="1" res="-1.2763825058937073e-01" rms="2.8861010074615479e-01" purity="1.1221767961978912e-01" nType="0">
            <Node pos="l" depth="3" NCoef="0" IVar="-1" Cut="0.0000000000000000e+00" cType="1" res="-3.9010111242532730e-02" rms="2.0469906926155090e-01" purity="4.5675233006477356e-02" nType="-99"/>
            <Node pos="r" depth="3" NCoef="0" IVar="-1" Cut="0.0000000000000000e+00" cType="1" res="-6.0358707560226321e-04" rms="4.2123314738273621e-01" purity="2.9204162955284119e-01" nType="-99"/>
          </Node>
          <Node pos="r" depth="2" NCoef="0" IVar="4" Cut="-3.8432136178016663e-01" cType="1" res="3.3067661523818970e-01" rms="2.9926958680152893e-01" purity="8.8093709945678711e-01" nType="0">
            <Node pos="l" depth="3" NCoef="0" IVar="-1" Cut="0.0000000000000000e+00" cType="1" res="4.8970268107950687e-03" rms="2.5837132334709167e-01" purity="9.1300654411315918e-01" nType="-99"/>
            <Node pos="r" depth="3" NCoef="0" IVar="-1" Cut="0.0000000000000000e+00" cType="1" res="-2.4440435227006674e-03" rms="4.8384255170822144e-01" purity="4.1679200530052185e-01" nType="-99"/>
          </Node>
        </Node>
        <Node pos="r" depth="1" NCoef="0" IVar="8" Cut="2.3825089633464813e-01" cType="1" res="-4.5717954635620117e-02" rms="4.1529107093811035e-01" purity="3.2587006688117981e-01" nType="0">
          <Node pos="l" depth="2" NCoef="0" IVar="10" Cut="-6.2123137712478638e-01" cType="1" res="-8.0875992774963379e-02" rms="4.0439969301223755e-01" purity="2.6840186119079590e-01" nType="0">
            <Node pos="l" depth="3" NCoef="0" IVar="-1" Cut="0.0000000000000000e+00" cType="1" res="-9.3917325139045715e-03" rms="3.6189374327659607e-01" purity="1.6591049730777740e-01" nType="-99"/>
            <Node pos="r" depth="3" NCoef="0" IVar="-1" Cut="0.0000000000000000e+00" cType="1" res="-6.0615234542638063e-04" rms="4.5172685384750366e-01" purity="4.1515937447547913e-01" nType="-99"/>
          </Node>
          <Node pos="r" depth="2" NCoef="0" IVar="0" Cut="-9.8712444305419922e-01" cType="1" res="1.2925438582897186e-01" rms="4.2441710829734802e-01" purity="6.1187422275543213e-01" nType="0">
            <Node pos="l" depth="3" NCoef="0" IVar="-1" Cut="0.0000000000000000e+00" cType="1" res="-2.0750125870108604e-02" rms="3.2933890819549561e-01" purity="1.2476138025522232e-01" nType="-99"/>
            <Node pos="r" depth="3" NCoef="0" IVar="-1" Cut="0.0000000000000000e+00" cType="1" res="4.1653309017419815e-03" rms="3.6960792541503906e-01" purity="7.9537737369537354e-01" nType="-99"/>
          </Node>
        </Node>
      </Node>
    </BinaryTree>
    <BinaryTree type="DecisionTree" boostWeight="1.0000000000000000e+00" itree="27">
      <Node pos="s" depth="0" NCoef="0" IVar="11" Cut="-1.4231690764427185e-01" cType="1" res="7.8525878489017487e-02" rms="4.1152274608612061e-01" purity="4.9974662065505981e-01" nType="0">
        <Node pos="l" depth="1" NCoef="0" IVar="10" Cut="-7.1431273221969604e-01" cType="1" res="2.4285358190536499e-01" rms="3.4455034136772156e-01" purity="7.3425573110580444e-01" nType="0">
          <Node pos="l" depth="2" NCoef="0" IVar="10" Cut="-8.5035437345504761e-01" cType="1" res="-1.2420609593391418e-01" rms="2.7936801314353943e-01" purity="1.0603281855583191e-01" nType="0">
            <Node pos="l" depth="3" NCoef="0" IVar="-1" Cut="0.0000000000000000e+00" cType="1" res="-4.0152981877326965e-02" rms="1.9598537683486938e-01" purity="4.2026467621326447e-02" nType="-99"/>
            <Node pos="r" depth="3" NCoef="0" IVar="-1" Cut="0.0000000000000000e+00" cType="1" res="-1.0997636709362268e-03" rms="4.1563743352890015e-01" purity="2.8090065717697144e-01" nType="-99"/>
          </Node>
          <Node pos="r" depth="2" NCoef="0" IVar="4" Cut="-3.8160642981529236e-01" cType="1" res="3.2855090498924255e-01" rms="2.9901456832885742e-01" purity="8.8092678785324097e-01" nType="0">
            <Node pos="l" depth="3" NCoef="0" IVar="-1" Cut="0.0000000000000000e+00" cType="1" res="4.8673739656805992e-03" rms="2.5922700762748718e-01" purity="9.1244894266128540e-01" nType="-99"/>
            <Node pos="r" depth="3" NCoef="0" IVar="-1" Cut="0.0000000000000000e+00" cType="1" res="-2.4264196399599314e-03" rms="4.8328042030334473e-01" purity="4.1671100258827209e-01" nType="-99"/>
          </Node>
        </Node>
        <Node pos="r" depth="1" NCoef="0" IVar="8" Cut="2.6446804404258728e-01" cType="1" res="-4.2856086045503616e-02" rms="4.1481769084930420e-01" purity="3.2652458548545837e-01" nType="0">
          <Node pos="l" depth="2" NCoef="0" IVar="11" Cut="7.5141586363315582e-02" cType="1" res="-7.4430674314498901e-02" rms="4.0610665082931519e-01" purity="2.7545616030693054e-01" nType="0">
            <Node pos="l" depth="3" NCoef="0" IVar="-1" Cut="0.0000000000000000e+00" cType="1" res="2.0742574997711927e-04" rms="4.2648664116859436e-01" purity="3.9629948139190674e-01" nType="-99"/>
            <Node pos="r" depth="3" NCoef="0" IVar="-1" Cut="0.0000000000000000e+00" cType="1" res="-5.7332785800099373e-03" rms="3.9336493611335754e-01" purity="2.2832287847995758e-01" nType="-99"/>
          </Node>
          <Node pos="r" depth="2" NCoef="0" IVar="0" Cut="-9.8712444305419922e-01" cType="1" res="1.4461046457290649e-01" rms="4.1649585962295532e-01" purity="6.2973123788833618e-01" nType="0">
            <Node pos="l" depth="3" NCoef="0" IVar="-1" Cut="0.0000000000000000e+00" cType="1" res="-2.0815934985876083e-02" rms="3.2593286037445068e-01" purity="1.2163763493299484e-01" nType="-99"/>
            <Node pos="r" depth="3" NCoef="0" IVar="-1" Cut="0.0000000000000000e+00" cType="1" res="4.2590503580868244e-03" rms="3.5860100388526917e-01" purity="8.1100606918334961e-01" nType="-99"/>
          </Node>
        </Node>
      </Node>
    </BinaryTree>
    <BinaryTree type="DecisionTree" boostWeight="1.0000000000000000e+00" itree="28">
      <Node pos="s" depth="0" NCoef="0" IVar="11" Cut="-1.4233306050300598e-01" cType="1" res="7.9280689358711243e-02" rms="4.0983811020851135e-01" purity="4.9991056323051453e-01" nType="0">
        <Node pos="l" depth="1" NCoef="0" IVar="10" Cut="-7.1436083316802979e-01" cType="1" res="2.4393588304519653e-01" rms="3.4146863222122192e-01" purity="7.3569208383560181e-01" nType="0">
          <Node pos="l" depth="2" NCoef="0" IVar="10" Cut="-8.5038346052169800e-01" cType="1" res="-1.1254679411649704e-01" rms="2.8185495734214783e-01" purity="1.0806611180305481e-01" nType="0">
            <Node pos="l" depth="3" NCoef="0" IVar="-1" Cut="0.0000000000000000e+00" cType="1" res="-3.6655947566032410e-02" rms="2.0235647261142731e-01" purity="4.4788576662540436e-02" nType="-99"/>
            <Node pos="r" depth="3" NCoef="0" IVar="-1" Cut="0.0000000000000000e+00" cType="1" res="-1.0196111397817731e-03" rms="4.1712582111358643e-01" purity="2.8159368038177490e-01" nType="-99"/>
          </Node>
          <Node pos="r" depth="2" NCoef="0" IVar="4" Cut="-3.8432136178016663e-01" cType="1" res="3.2665765285491943e-01" rms="2.9814714193344116e-01" purity="8.8133257627487183e-01" nType="0">
            <Node pos="l" depth="3" NCoef="0" IVar="-1" Cut="0.0000000000000000e+00" cType="1" res="4.8463386483490467e-03" rms="2.5796812772750854e-01" purity="9.1334003210067749e-01" nType="-99"/>
            <Node pos="r" depth="3" NCoef="0" IVar="-1" Cut="0.0000000000000000e+00" cType="1" res="-2.4239807389676571e-03" rms="4.8212295770645142e-01" purity="4.1607147455215454e-01" nType="-99"/>
          </Node>
        </Node>
        <Node pos="r" depth="1" NCoef="0" IVar="8" Cut="2.8349527716636658e-01" cType="1" res="-4.3537210673093796e-02" rms="4.1349142789840698e-01" purity="3.2403886318206787e-01" nType="0">
          <Node pos="l" depth="2" NCoef="0" IVar="11" Cut="1.2965111434459686e-01" cType="1" res="-7.2182603180408478e-02" rms="4.0611857175827026e-01" purity="2.7794009447097778e-01" nType="0">
            <Node pos="l" depth="3" NCoef="0" IVar="-1" Cut="0.0000000000000000e+00" cType="1" res="-7.2788927354849875e-05" rms="4.2768278717994690e-01" purity="3.8678339123725891e-01" nType="-99"/>
            <Node pos="r" depth="3" NCoef="0" IVar="-1" Cut="0.0000000000000000e+00" cType="1" res="-6.4333542250096798e-03" rms="3.8760814070701599e-01" purity="2.1562226116657257e-01" nType="-99"/>
          </Node>
          <Node pos="r" depth="2" NCoef="0" IVar="7" Cut="-2.6008099317550659e-01" cType="1" res="1.5178965032100677e-01" rms="4.1040512919425964e-01" purity="6.3837683200836182e-01" nType="0">
            <Node pos="l" depth="3" NCoef="0" IVar="-1" Cut="0.0000000000000000e+00" cType="1" res="6.2199309468269348e-04" rms="4.3195441365242004e-01" purity="4.6883958578109741e-01" nType="-99"/>
            <Node pos="r" depth="3" NCoef="0" IVar="-1" Cut="0.0000000000000000e+00" cType="1" res="3.9214002899825573e-03" rms="3.7062928080558777e-01" purity="7.5385946035385132e-01" nType="-99"/>
          </Node>
        </Node>
      </Node>
    </BinaryTree>
    <BinaryTree type="DecisionTree" boostWeight="1.0000000000000000e+00" itree="29">
      <Node pos="s" depth="0" NCoef="0" IVar="11" Cut="-1.4233306050300598e-01" cType="1" res="8.0612257122993469e-02" rms="4.0856817364692688e-01" purity="5.0057399272918701e-01" nType="0">
        <Node pos="l" depth="1" NCoef="0" IVar="10" Cut="-7.1428573131561279e-01" cType="1" res="2.4281990528106689e-01" rms="3.3924329280853271e-01" purity="7.3457586765289307e-01" nType="0">
          <Node pos="l" depth="2" NCoef="0" IVar="10" Cut="-8.5034424066543579e-01" cType="1" res="-1.0909157991409302e-01" rms="2.7459073066711426e-01" purity="1.0312420874834061e-01" nType="0">
            <Node pos="l" depth="3" NCoef="0" IVar="-1" Cut="0.0000000000000000e+00" cType="1" res="-3.8179289549589157e-02" rms="1.9586794078350067e-01" purity="4.1423179209232330e-02" nType="-99"/>
            <Node pos="r" depth="3" NCoef="0" IVar="-1" Cut="0.0000000000000000e+00" cType="1" res="-1.3924023369327188e-03" rms="4.1204795241355896e-01" purity="2.7438586950302124e-01" nType="-99"/>
          </Node>
          <Node pos="r" depth="2" NCoef="0" IVar="4" Cut="-3.8006016612052917e-01" cType="1" res="3.2449373602867126e-01" rms="2.9813420772552490e-01" purity="8.8112717866897583e-01" nType="0">
            <Node pos="l" depth="3" NCoef="0" IVar="-1" Cut="0.0000000000000000e+00" cType="1" res="4.8166001215577126e-03" rms="2.5898638367652893e-01" purity="9.1257733106613159e-01" nType="-99"/>
            <Node pos="r" depth="3" NCoef="0" IVar="-1" Cut="0.0000000000000000e+00" cType="1" res="-2.4016345851123333e-03" rms="4.8337969183921814e-01" purity="4.1523152589797974e-01" nType="-99"/>
          </Node>
        </Node>
        <Node pos="r" depth="1" NCoef="0" IVar="8" Cut="2.4151875078678131e-01" cType="1" res="-3.9294324815273285e-02" rms="4.1403260827064514e-01" purity="3.2759594917297363e-01" nType="0">
          <Node pos="l" depth="2" NCoef="0" IVar="10" Cut="-6.2094366550445557e-01" cType="1" res="-7.2713099420070648e-02" rms="4.0482497215270996e-01" purity="2.7172932028770447e-01" nType="0">
            <Node pos="l" depth="3" NCoef="0" IVar="-1" Cut="0.0000000000000000e+00" cType="1" res="-8.8142966851592064e-03" rms="3.6260598897933960e-01" purity="1.6708521544933319e-01" nType="-99"/>
            <Node pos="r" depth="3" NCoef="0" IVar="-1" Cut="0.0000000000000000e+00" cType="1" res="-3.9021784323267639e-04" rms="4.5147427916526794e-01" purity="4.2002099752426147e-01" nType="-99"/>
          </Node>
          <Node pos="r" depth="2" NCoef="0" IVar="0" Cut="-9.8773759603500366e-01" cType="1" res="1.3135460019111633e-01" rms="4.1844949126243591e-01" purity="6.1287212371826172e-01" nType="0">
            <Node pos="l" depth="3" NCoef="0" IVar="-1" Cut="0.0000000000000000e+00" cType="1" res="-2.0044116303324699e-02" rms="3.2747280597686768e-01" purity="1.2293372303247452e-01" nType="-99"/>
            <Node pos="r" depth="3" NCoef="0" IVar="-1" Cut="0.0000000000000000e+00" cType="1" res="4.1123507544398308e-03" rms="3.6806887388229370e-01" purity="7.9694306850433350e-01" nType="-99"/>
          </Node>
        </Node>
      </Node>
    </BinaryTree>
    <BinaryTree type="DecisionTree" boostWeight="1.0000000000000000e+00" itree="30">
      <Node pos="s" depth="0" NCoef="0" IVar="11" Cut="-1.4290034770965576e-01" cType="1" res="8.0902785062789917e-02" rms="4.0706196427345276e-01" purity="4.9966970086097717e-01" nType="0">
        <Node pos="l" depth="1" NCoef="0" IVar="10" Cut="-7.1436083316802979e-01" cType="1" res="2.4212172627449036e-01" rms="3.3713355660438538e-01" purity="7.3409289121627808e-01" nType="0">
          <Node pos="l" depth="2" NCoef="0" IVar="10" Cut="-8.5038000345230103e-01" cType="1" res="-1.0020482540130615e-01" rms="2.7490660548210144e-01" purity="1.0371475666761398e-01" nType="0">
            <Node pos="l" depth="3" NCoef="0" IVar="-1" Cut="0.0000000000000000e+00" cType="1" res="-3.6329161375761032e-02" rms="1.9704870879650116e-01" purity="4.1997082531452179e-02" nType="-99"/>
            <Node pos="r" depth="3" NCoef="0" IVar="-1" Cut="0.0000000000000000e+00" cType="1" res="-1.3278572587296367e-03" rms="4.1266587376594543e-01" purity="2.7442309260368347e-01" nType="-99"/>
          </Node>
          <Node pos="r" depth="2" NCoef="0" IVar="4" Cut="-3.8752901554107666e-01" cType="1" res="3.2177281379699707e-01" rms="2.9817715287208557e-01" purity="8.8076663017272949e-01" nType="0">
            <Node pos="l" depth="3" NCoef="0" IVar="-1" Cut="0.0000000000000000e+00" cType="1" res="4.7923387028276920e-03" rms="2.5788164138793945e-01" purity="9.1336625814437866e-01" nType="-99"/>
            <Node pos="r" depth="3" NCoef="0" IVar="-1" Cut="0.0000000000000000e+00" cType="1" res="-2.1992069669067860e-03" rms="4.8342743515968323e-01" purity="4.2101973295211792e-01" nType="-99"/>
          </Node>
        </Node>
        <Node pos="r" depth="1" NCoef="0" IVar="8" Cut="2.7787098288536072e-01" cType="1" res="-3.7802401930093765e-02" rms="4.1326534748077393e-01" purity="3.2706439495086670e-01" nType="0">
          <Node pos="l" depth="2" NCoef="0" IVar="11" Cut="7.4409648776054382e-02" cType="1" res="-6.8193018436431885e-02" rms="4.0600672364234924e-01" purity="2.7744415402412415e-01" nType="0">
            <Node pos="l" depth="3" NCoef="0" IVar="-1" Cut="0.0000000000000000e+00" cType="1" res="2.4321452656295151e-04" rms="4.2646080255508423e-01" purity="3.9729431271553040e-01" nType="-99"/>
            <Node pos="r" depth="3" NCoef="0" IVar="-1" Cut="0.0000000000000000e+00" cType="1" res="-5.2821300923824310e-03" rms="3.9373591542243958e-01" purity="2.3054012656211853e-01" nType="-99"/>
          </Node>
          <Node pos="r" depth="2" NCoef="0" IVar="7" Cut="-2.6008099317550659e-01" cType="1" res="1.5661454200744629e-01" rms="4.0635573863983154e-01" purity="6.4449846744537354e-01" nType="0">
            <Node pos="l" depth="3" NCoef="0" IVar="-1" Cut="0.0000000000000000e+00" cType="1" res="7.7829795191064477e-04" rms="4.2983540892601013e-01" purity="4.7352018952369690e-01" nType="-99"/>
            <Node pos="r" depth="3" NCoef="0" IVar="-1" Cut="0.0000000000000000e+00" cType="1" res="3.9391089230775833e-03" rms="3.6647963523864746e-01" purity="7.5844019651412964e-01" nType="-99"/>
          </Node>
        </Node>
      </Node>
    </BinaryTree>
    <BinaryTree type="DecisionTree" boostWeight="1.0000000000000000e+00" itree="31">
      <Node pos="s" depth="0" NCoef="0" IVar="11" Cut="-1.4233306050300598e-01" cType="1" res="8.1107594072818756e-02" rms="4.0621891617774963e-01" purity="4.9885287880897522e-01" nType="0">
        <Node pos="l" depth="1" NCoef="0" IVar="10" Cut="-7.1475166082382202e-01" cType="1" res="2.4139797687530518e-01" rms="3.3579123020172119e-01" purity="7.3318058252334595e-01" nType="0">
          <Node pos="l" depth="2" NCoef="0" IVar="0" Cut="-9.7302269935607910e-01" cType="1" res="-8.9329265058040619e-02" rms="2.7926766872406006e-01" purity="1.0740078985691071e-01" nType="0">
