<?xml version="1.0"?>
<MethodSetup Method="BDT::GradBDT">
  <GeneralInfo>
    <Info name="TMVA Release" value="4.2.0 [262656]"/>
    <Info name="ROOT Release" value="5.34/38 [336422]"/>
    <Info name="Creator" value="han"/>
    <Info name="Date" value="Mon May  2 19:37:59 2022"/>
    <Info name="Host" value="Linux rz5950x.km.icrr.u-tokyo.ac.jp 4.18.0-305.3.1.el8_4.x86_64 #1 SMP Mon May 17 10:08:25 EDT 2021 x86_64 x86_64 x86_64 GNU/Linux"/>
    <Info name="Dir" value="/disk1/disk02/calib3/usr/han/mc/thermal_fv_train"/>
    <Info name="Training events" value="6994978"/>
    <Info name="TrainingTime" value="7.19630578e+03"/>
    <Info name="AnalysisType" value="Classification"/>
  </GeneralInfo>
  <Options>
    <Option name="V" modified="Yes">True</Option>
    <Option name="VerbosityLevel" modified="No">Verbose</Option>
    <Option name="VarTransform" modified="Yes">N</Option>
    <Option name="H" modified="Yes">True</Option>
    <Option name="CreateMVAPdfs" modified="No">False</Option>
    <Option name="IgnoreNegWeightsInTraining" modified="No">False</Option>
    <Option name="NTrees" modified="Yes">1000</Option>
    <Option name="MaxDepth" modified="Yes">3</Option>
    <Option name="MinNodeSize" modified="Yes">2%</Option>
    <Option name="nCuts" modified="No">20</Option>
    <Option name="BoostType" modified="Yes">Grad</Option>
    <Option name="AdaBoostR2Loss" modified="No">quadratic</Option>
    <Option name="UseBaggedBoost" modified="Yes">True</Option>
    <Option name="Shrinkage" modified="Yes">1.000000e-01</Option>
    <Option name="AdaBoostBeta" modified="No">5.000000e-01</Option>
    <Option name="UseRandomisedTrees" modified="No">False</Option>
    <Option name="UseNvars" modified="No">4</Option>
    <Option name="UsePoissonNvars" modified="No">True</Option>
    <Option name="BaggedSampleFraction" modified="Yes">5.000000e-01</Option>
    <Option name="UseYesNoLeaf" modified="No">True</Option>
    <Option name="NegWeightTreatment" modified="Yes">ignorenegweightsintraining</Option>
    <Option name="Css" modified="No">1.000000e+00</Option>
    <Option name="Cts_sb" modified="No">1.000000e+00</Option>
    <Option name="Ctb_ss" modified="No">1.000000e+00</Option>
    <Option name="Cbb" modified="No">1.000000e+00</Option>
    <Option name="NodePurityLimit" modified="No">5.000000e-01</Option>
    <Option name="SeparationType" modified="No">giniindex</Option>
    <Option name="DoBoostMonitor" modified="No">False</Option>
    <Option name="UseFisherCuts" modified="No">False</Option>
    <Option name="MinLinCorrForFisher" modified="No">8.000000e-01</Option>
    <Option name="UseExclusiveVars" modified="No">False</Option>
    <Option name="DoPreselection" modified="No">False</Option>
    <Option name="SigToBkgFraction" modified="No">1.000000e+00</Option>
    <Option name="PruneMethod" modified="No">nopruning</Option>
    <Option name="PruneStrength" modified="No">0.000000e+00</Option>
    <Option name="PruningValFraction" modified="No">5.000000e-01</Option>
    <Option name="nEventsMin" modified="No">0</Option>
    <Option name="UseBaggedGrad" modified="No">False</Option>
    <Option name="GradBaggingFraction" modified="No">5.000000e-01</Option>
    <Option name="UseNTrainEvents" modified="No">0</Option>
    <Option name="NNodesMax" modified="No">0</Option>
  </Options>
  <Variables NVar="12">
    <Variable VarIndex="0" Expression="NHits" Label="NHits" Title="NHits" Unit="" Internal="NHits" Type="F" Min="4.00000000e+00" Max="1.25100000e+03"/>
    <Variable VarIndex="1" Expression="N200" Label="N200" Title="N200" Unit="" Internal="N200" Type="F" Min="7.00000000e+00" Max="1.69700000e+03"/>
    <Variable VarIndex="2" Expression="TRMS" Label="TRMS" Title="TRMS" Unit="" Internal="TRMS" Type="F" Min="0.00000000e+00" Max="6.72770119e+00"/>
    <Variable VarIndex="3" Expression="Beta1" Label="Beta1" Title="Beta1" Unit="" Internal="Beta1" Type="F" Min="-2.48792738e-01" Max="9.99783695e-01"/>
    <Variable VarIndex="4" Expression="Beta5" Label="Beta5" Title="Beta5" Unit="" Internal="Beta5" Type="F" Min="-2.31845260e-01" Max="9.96759117e-01"/>
    <Variable VarIndex="5" Expression="OpeningAngleMean" Label="OpeningAngleMean" Title="OpeningAngleMean" Unit="" Internal="OpeningAngleMean" Type="F" Min="1.05110610e+00" Max="8.97110596e+01"/>
    <Variable VarIndex="6" Expression="OpeningAngleSkew" Label="OpeningAngleSkew" Title="OpeningAngleSkew" Unit="" Internal="OpeningAngleSkew" Type="F" Min="-3.17221619e+02" Max="5.02098358e+02"/>
    <Variable VarIndex="7" Expression="OpeningAngleStdev" Label="OpeningAngleStdev" Title="OpeningAngleStdev" Unit="" Internal="OpeningAngleStdev" Type="F" Min="7.75836185e-02" Max="4.45780067e+01"/>
    <Variable VarIndex="8" Expression="MeanDirAngleMean" Label="MeanDirAngleMean" Title="MeanDirAngleMean" Unit="" Internal="MeanDirAngleMean" Type="F" Min="6.72741055e-01" Max="9.32318954e+01"/>
    <Variable VarIndex="9" Expression="MeanDirAngleRMS" Label="MeanDirAngleRMS" Title="MeanDirAngleRMS" Unit="" Internal="MeanDirAngleRMS" Type="F" Min="2.36216262e-01" Max="8.46577606e+01"/>
    <Variable VarIndex="10" Expression="DWall" Label="DWall" Title="DWall" Unit="" Internal="DWall" Type="F" Min="-1.00000122e+02" Max="1.68883044e+03"/>
    <Variable VarIndex="11" Expression="DWallMeanDir" Label="DWallMeanDir" Title="DWallMeanDir" Unit="" Internal="DWallMeanDir" Type="F" Min="2.81468601e+01" Max="5.09003271e+03"/>
  </Variables>
  <Spectators NSpec="1">
    <Spectator SpecIndex="0" Expression="Label" Label="Label" Title="I" Unit="" Internal="Label" Type="F" Min="0.00000000e+00" Max="3.00000000e+00"/>
  </Spectators>
  <Classes NClass="2">
    <Class Name="Signal" Index="0"/>
    <Class Name="Background" Index="1"/>
  </Classes>
  <Transformations NTransformations="1">
    <Transform Name="Normalize">
      <Selection>
        <Input NInputs="12">
          <Input Type="Variable" Label="NHits" Expression="NHits"/>
          <Input Type="Variable" Label="N200" Expression="N200"/>
          <Input Type="Variable" Label="TRMS" Expression="TRMS"/>
          <Input Type="Variable" Label="Beta1" Expression="Beta1"/>
          <Input Type="Variable" Label="Beta5" Expression="Beta5"/>
          <Input Type="Variable" Label="OpeningAngleMean" Expression="OpeningAngleMean"/>
          <Input Type="Variable" Label="OpeningAngleSkew" Expression="OpeningAngleSkew"/>
          <Input Type="Variable" Label="OpeningAngleStdev" Expression="OpeningAngleStdev"/>
          <Input Type="Variable" Label="MeanDirAngleMean" Expression="MeanDirAngleMean"/>
          <Input Type="Variable" Label="MeanDirAngleRMS" Expression="MeanDirAngleRMS"/>
          <Input Type="Variable" Label="DWall" Expression="DWall"/>
          <Input Type="Variable" Label="DWallMeanDir" Expression="DWallMeanDir"/>
        </Input>
        <Output NOutputs="12">
          <Output Type="Variable" Label="NHits" Expression="NHits"/>
          <Output Type="Variable" Label="N200" Expression="N200"/>
          <Output Type="Variable" Label="TRMS" Expression="TRMS"/>
          <Output Type="Variable" Label="Beta1" Expression="Beta1"/>
          <Output Type="Variable" Label="Beta5" Expression="Beta5"/>
          <Output Type="Variable" Label="OpeningAngleMean" Expression="OpeningAngleMean"/>
          <Output Type="Variable" Label="OpeningAngleSkew" Expression="OpeningAngleSkew"/>
          <Output Type="Variable" Label="OpeningAngleStdev" Expression="OpeningAngleStdev"/>
          <Output Type="Variable" Label="MeanDirAngleMean" Expression="MeanDirAngleMean"/>
          <Output Type="Variable" Label="MeanDirAngleRMS" Expression="MeanDirAngleRMS"/>
          <Output Type="Variable" Label="DWall" Expression="DWall"/>
          <Output Type="Variable" Label="DWallMeanDir" Expression="DWallMeanDir"/>
        </Output>
      </Selection>
      <Class ClassIndex="0">
        <Ranges>
          <Range Index="0" Min="4.0000000000000000e+00" Max="6.6000000000000000e+01"/>
          <Range Index="1" Min="1.1000000000000000e+01" Max="9.3000000000000000e+01"/>
          <Range Index="2" Min="2.8168369084596634e-02" Max="5.6002550125122070e+00"/>
          <Range Index="3" Min="-1.7819195985794067e-01" Max="9.5001471042633057e-01"/>
          <Range Index="4" Min="-1.9133177399635315e-01" Max="5.3822875022888184e-01"/>
          <Range Index="5" Min="1.3263025283813477e+01" Max="8.2546287536621094e+01"/>
          <Range Index="6" Min="-2.2182417297363281e+02" Max="2.2306582641601562e+02"/>
          <Range Index="7" Min="4.7260934114456177e-01" Max="3.5895858764648438e+01"/>
          <Range Index="8" Min="1.0946065902709961e+01" Max="8.9176986694335938e+01"/>
          <Range Index="9" Min="2.2064449787139893e+00" Max="7.2006004333496094e+01"/>
          <Range Index="10" Min="-1.0000000000000000e+02" Max="1.6854910888671875e+03"/>
          <Range Index="11" Min="1.5012171936035156e+02" Max="4.9699145507812500e+03"/>
        </Ranges>
      </Class>
      <Class ClassIndex="1">
        <Ranges>
          <Range Index="0" Min="4.0000000000000000e+00" Max="1.2510000000000000e+03"/>
          <Range Index="1" Min="7.0000000000000000e+00" Max="1.6970000000000000e+03"/>
          <Range Index="2" Min="0.0000000000000000e+00" Max="6.7277011871337891e+00"/>
          <Range Index="3" Min="-2.4879273772239685e-01" Max="9.9978369474411011e-01"/>
          <Range Index="4" Min="-2.3184525966644287e-01" Max="9.9675911664962769e-01"/>
          <Range Index="5" Min="1.0511060953140259e+00" Max="8.9711059570312500e+01"/>
          <Range Index="6" Min="-3.1722161865234375e+02" Max="5.0209835815429688e+02"/>
          <Range Index="7" Min="7.7583618462085724e-02" Max="4.4578006744384766e+01"/>
          <Range Index="8" Min="6.7274105548858643e-01" Max="9.3231895446777344e+01"/>
          <Range Index="9" Min="2.3621626198291779e-01" Max="8.4657760620117188e+01"/>
          <Range Index="10" Min="-1.0000012207031250e+02" Max="1.6888304443359375e+03"/>
          <Range Index="11" Min="2.8146860122680664e+01" Max="5.0900327148437500e+03"/>
        </Ranges>
      </Class>
      <Class ClassIndex="2">
        <Ranges>
          <Range Index="0" Min="4.0000000000000000e+00" Max="1.2510000000000000e+03"/>
          <Range Index="1" Min="7.0000000000000000e+00" Max="1.6970000000000000e+03"/>
          <Range Index="2" Min="0.0000000000000000e+00" Max="6.7277011871337891e+00"/>
          <Range Index="3" Min="-2.4879273772239685e-01" Max="9.9978369474411011e-01"/>
          <Range Index="4" Min="-2.3184525966644287e-01" Max="9.9675911664962769e-01"/>
          <Range Index="5" Min="1.0511060953140259e+00" Max="8.9711059570312500e+01"/>
          <Range Index="6" Min="-3.1722161865234375e+02" Max="5.0209835815429688e+02"/>
          <Range Index="7" Min="7.7583618462085724e-02" Max="4.4578006744384766e+01"/>
          <Range Index="8" Min="6.7274105548858643e-01" Max="9.3231895446777344e+01"/>
          <Range Index="9" Min="2.3621626198291779e-01" Max="8.4657760620117188e+01"/>
          <Range Index="10" Min="-1.0000012207031250e+02" Max="1.6888304443359375e+03"/>
          <Range Index="11" Min="2.8146860122680664e+01" Max="5.0900327148437500e+03"/>
        </Ranges>
      </Class>
    </Transform>
  </Transformations>
  <MVAPdfs/>
  <Weights NTrees="1000" AnalysisType="1">
    <BinaryTree type="DecisionTree" boostWeight="1.0000000000000000e+00" itree="0">
      <Node pos="s" depth="0" NCoef="0" IVar="10" Cut="-7.1444714069366455e-01" cType="1" res="8.7404204532504082e-04" rms="4.9999922513961792e-01" purity="5.0087404251098633e-01" nType="0">
        <Node pos="l" depth="1" NCoef="0" IVar="8" Cut="7.6168999075889587e-02" cType="1" res="-3.9712038636207581e-01" rms="3.0380156636238098e-01" purity="1.0287960618734360e-01" nType="0">
          <Node pos="l" depth="2" NCoef="0" IVar="10" Cut="-8.2323068380355835e-01" cType="1" res="-4.2573752999305725e-01" rms="2.6219755411148071e-01" purity="7.4262470006942749e-02" nType="0">
            <Node pos="l" depth="3" NCoef="0" IVar="-1" Cut="0.0000000000000000e+00" cType="1" res="-5.5694852024316788e-02" rms="2.3911513388156891e-01" purity="6.0882754623889923e-02" nType="-99"/>
            <Node pos="r" depth="3" NCoef="0" IVar="-1" Cut="0.0000000000000000e+00" cType="1" res="-2.0722744986414909e-02" rms="3.6573839187622070e-01" purity="1.5906682610511780e-01" nType="-99"/>
          </Node>
          <Node pos="r" depth="2" NCoef="0" IVar="8" Cut="1.5295691788196564e-01" cType="1" res="-2.2342614829540253e-01" rms="4.4730386137962341e-01" purity="2.7657383680343628e-01" nType="0">
            <Node pos="l" depth="3" NCoef="0" IVar="-1" Cut="0.0000000000000000e+00" cType="1" res="-1.8147677183151245e-02" rms="3.8036397099494934e-01" purity="1.7546457052230835e-01" nType="-99"/>
            <Node pos="r" depth="3" NCoef="0" IVar="-1" Cut="0.0000000000000000e+00" cType="1" res="-3.4445328637957573e-03" rms="4.8479530215263367e-01" purity="3.7763366103172302e-01" nType="-99"/>
          </Node>
        </Node>
        <Node pos="r" depth="1" NCoef="0" IVar="0" Cut="-9.9136978387832642e-01" cType="1" res="1.8686665594577789e-01" rms="4.6376809477806091e-01" purity="6.8686664104461670e-01" nType="0">
          <Node pos="l" depth="2" NCoef="0" IVar="11" Cut="-2.6429793238639832e-01" cType="1" res="-2.8544440865516663e-01" rms="4.1051369905471802e-01" purity="2.1455557644367218e-01" nType="0">
            <Node pos="l" depth="3" NCoef="0" IVar="-1" Cut="0.0000000000000000e+00" cType="1" res="-1.9371727830730379e-04" rms="4.9992251396179199e-01" purity="4.9119850993156433e-01" nType="-99"/>
            <Node pos="r" depth="3" NCoef="0" IVar="-1" Cut="0.0000000000000000e+00" cType="1" res="-1.9781647250056267e-02" rms="3.7095132470130920e-01" purity="1.6474619507789612e-01" nType="-99"/>
          </Node>
          <Node pos="r" depth="2" NCoef="0" IVar="4" Cut="-4.5829790830612183e-01" cType="1" res="4.0101525187492371e-01" rms="2.9864153265953064e-01" purity="9.0101522207260132e-01" nType="0">
            <Node pos="l" depth="3" NCoef="0" IVar="-1" Cut="0.0000000000000000e+00" cType="1" res="5.2006449550390244e-03" rms="2.3760399222373962e-01" purity="9.3993675708770752e-01" nType="-99"/>
            <Node pos="r" depth="3" NCoef="0" IVar="-1" Cut="0.0000000000000000e+00" cType="1" res="-9.6422247588634491e-03" rms="4.3757069110870361e-01" purity="2.5806635618209839e-01" nType="-99"/>
          </Node>
        </Node>
      </Node>
    </BinaryTree>
    <BinaryTree type="DecisionTree" boostWeight="1.0000000000000000e+00" itree="1">
      <Node pos="s" depth="0" NCoef="0" IVar="10" Cut="-7.1444702148437500e-01" cType="1" res="8.3130989223718643e-03" rms="4.9160721898078918e-01" purity="5.0034314393997192e-01" nType="0">
        <Node pos="l" depth="1" NCoef="0" IVar="8" Cut="1.2811967730522156e-01" cType="1" res="-3.7473893165588379e-01" rms="3.0127945542335510e-01" purity="1.0261665284633636e-01" nType="0">
          <Node pos="l" depth="2" NCoef="0" IVar="10" Cut="-7.9603362083435059e-01" cType="1" res="-3.9509129524230957e-01" rms="2.7098539471626282e-01" purity="8.0397769808769226e-02" nType="0">
            <Node pos="l" depth="3" NCoef="0" IVar="-1" Cut="0.0000000000000000e+00" cType="1" res="-4.8218112438917160e-02" rms="2.5037372112274170e-01" purity="6.7396610975265503e-02" nType="-99"/>
            <Node pos="r" depth="3" NCoef="0" IVar="-1" Cut="0.0000000000000000e+00" cType="1" res="-1.4982628636062145e-02" rms="3.9665552973747253e-01" purity="1.9562125205993652e-01" nType="-99"/>
          </Node>
          <Node pos="r" depth="2" NCoef="0" IVar="-1" Cut="0.0000000000000000e+00" cType="1" res="-5.1595023833215237e-03" rms="4.7099941968917847e-01" purity="3.3338305354118347e-01" nType="-99"/>
        </Node>
        <Node pos="r" depth="1" NCoef="0" IVar="0" Cut="-9.9152249097824097e-01" cType="1" res="1.8751488626003265e-01" rms="4.5991262793540955e-01" purity="6.8641006946563721e-01" nType="0">
          <Node pos="l" depth="2" NCoef="0" IVar="11" Cut="-2.5967374444007874e-01" cType="1" res="-2.8149306774139404e-01" rms="4.0636590123176575e-01" purity="2.1012103557586670e-01" nType="0">
            <Node pos="l" depth="3" NCoef="0" IVar="-1" Cut="0.0000000000000000e+00" cType="1" res="-2.6678686845116317e-04" rms="4.9975529313087463e-01" purity="4.8765590786933899e-01" nType="-99"/>
            <Node pos="r" depth="3" NCoef="0" IVar="-1" Cut="0.0000000000000000e+00" cType="1" res="-2.0228330045938492e-02" rms="3.6518952250480652e-01" purity="1.5847896039485931e-01" nType="-99"/>
          </Node>
          <Node pos="r" depth="2" NCoef="0" IVar="4" Cut="-4.1513434052467346e-01" cType="1" res="3.9886969327926636e-01" rms="2.9770013689994812e-01" purity="9.0104597806930542e-01" nType="0">
            <Node pos="l" depth="3" NCoef="0" IVar="-1" Cut="0.0000000000000000e+00" cType="1" res="5.1371138542890549e-03" rms="2.4688610434532166e-01" purity="9.3471395969390869e-01" nType="-99"/>
            <Node pos="r" depth="3" NCoef="0" IVar="-1" Cut="0.0000000000000000e+00" cType="1" res="-1.6768736764788628e-02" rms="3.8710048794746399e-01" purity="1.8353007733821869e-01" nType="-99"/>
          </Node>
        </Node>
      </Node>
    </BinaryTree>
    <BinaryTree type="DecisionTree" boostWeight="1.0000000000000000e+00" itree="2">
      <Node pos="s" depth="0" NCoef="0" IVar="10" Cut="-7.1428573131561279e-01" cType="1" res="1.6160057857632637e-02" rms="4.8393046855926514e-01" purity="5.0078445672988892e-01" nType="0">
        <Node pos="l" depth="1" NCoef="0" IVar="8" Cut="1.2884238362312317e-01" cType="1" res="-3.5163137316703796e-01" rms="3.0301785469055176e-01" purity="1.0521078109741211e-01" nType="0">
          <Node pos="l" depth="2" NCoef="0" IVar="10" Cut="-8.0952435731887817e-01" cType="1" res="-3.6987763643264771e-01" rms="2.7490559220314026e-01" purity="8.3385020494461060e-02" nType="0">
            <Node pos="l" depth="3" NCoef="0" IVar="-1" Cut="0.0000000000000000e+00" cType="1" res="-4.4803444296121597e-02" rms="2.5289040803909302e-01" purity="6.8881116807460785e-02" nType="-99"/>
            <Node pos="r" depth="3" NCoef="0" IVar="-1" Cut="0.0000000000000000e+00" cType="1" res="-1.5498665161430836e-02" rms="3.8965174555778503e-01" purity="1.8710730969905853e-01" nType="-99"/>
          </Node>
          <Node pos="r" depth="2" NCoef="0" IVar="-1" Cut="0.0000000000000000e+00" cType="1" res="-5.0878413021564484e-03" rms="4.7089022397994995e-01" purity="3.3322867751121521e-01" nType="-99"/>
        </Node>
        <Node pos="r" depth="1" NCoef="0" IVar="0" Cut="-9.9175161123275757e-01" cType="1" res="1.8853758275508881e-01" rms="4.5585256814956665e-01" purity="6.8618303537368774e-01" nType="0">
          <Node pos="l" depth="2" NCoef="0" IVar="11" Cut="-2.6009663939476013e-01" cType="1" res="-2.7268752455711365e-01" rms="4.0558347105979919e-01" purity="2.1035055816173553e-01" nType="0">
            <Node pos="l" depth="3" NCoef="0" IVar="-1" Cut="0.0000000000000000e+00" cType="1" res="-4.0766756865195930e-04" rms="4.9957853555679321e-01" purity="4.8139837384223938e-01" nType="-99"/>
            <Node pos="r" depth="3" NCoef="0" IVar="-1" Cut="0.0000000000000000e+00" cType="1" res="-1.9269343465566635e-02" rms="3.6726853251457214e-01" purity="1.6072005033493042e-01" nType="-99"/>
          </Node>
          <Node pos="r" depth="2" NCoef="0" IVar="4" Cut="-4.6396869421005249e-01" cType="1" res="3.9688488841056824e-01" rms="2.9641070961952209e-01" purity="9.0112888813018799e-01" nType="0">
            <Node pos="l" depth="3" NCoef="0" IVar="-1" Cut="0.0000000000000000e+00" cType="1" res="5.1441174000501633e-03" rms="2.3645687103271484e-01" purity="9.4055432081222534e-01" nType="-99"/>
            <Node pos="r" depth="3" NCoef="0" IVar="-1" Cut="0.0000000000000000e+00" cType="1" res="-7.3840315453708172e-03" rms="4.4999685883522034e-01" purity="2.8638237714767456e-01" nType="-99"/>
          </Node>
        </Node>
      </Node>
    </BinaryTree>
    <BinaryTree type="DecisionTree" boostWeight="1.0000000000000000e+00" itree="3">
      <Node pos="s" depth="0" NCoef="0" IVar="10" Cut="-7.1428561210632324e-01" cType="1" res="2.2064724937081337e-02" rms="4.7689285874366760e-01" purity="5.0001770257949829e-01" nType="0">
        <Node pos="l" depth="1" NCoef="0" IVar="8" Cut="7.6168999075889587e-02" cType="1" res="-3.3406114578247070e-01" rms="3.0011412501335144e-01" purity="1.0408473759889603e-01" nType="0">
          <Node pos="l" depth="2" NCoef="0" IVar="10" Cut="-7.8231328725814819e-01" cType="1" res="-3.5601642727851868e-01" rms="2.6300832629203796e-01" purity="7.5782246887683868e-02" nType="0">
            <Node pos="l" depth="3" NCoef="0" IVar="-1" Cut="0.0000000000000000e+00" cType="1" res="-4.4471260160207748e-02" rms="2.4764016270637512e-01" purity="6.5846882760524750e-02" nType="-99"/>
            <Node pos="r" depth="3" NCoef="0" IVar="-1" Cut="0.0000000000000000e+00" cType="1" res="-1.4352991245687008e-02" rms="3.9586997032165527e-01" purity="1.9456511735916138e-01" nType="-99"/>
          </Node>
          <Node pos="r" depth="2" NCoef="0" IVar="8" Cut="1.5295691788196564e-01" cType="1" res="-2.0033101737499237e-01" rms="4.4330728054046631e-01" purity="2.7647587656974792e-01" nType="0">
            <Node pos="l" depth="3" NCoef="0" IVar="-1" Cut="0.0000000000000000e+00" cType="1" res="-1.6573261469602585e-02" rms="3.7602275609970093e-01" purity="1.7152324318885803e-01" nType="-99"/>
            <Node pos="r" depth="3" NCoef="0" IVar="-1" Cut="0.0000000000000000e+00" cType="1" res="-3.1750136986374855e-03" rms="4.8532885313034058e-01" purity="3.7979030609130859e-01" nType="-99"/>
          </Node>
        </Node>
        <Node pos="r" depth="1" NCoef="0" IVar="0" Cut="-9.8984229564666748e-01" cType="1" res="1.8918998539447784e-01" rms="4.5214909315109253e-01" purity="6.8582385778427124e-01" nType="0">
          <Node pos="l" depth="2" NCoef="0" IVar="11" Cut="-2.6128077507019043e-01" cType="1" res="-2.2269067168235779e-01" rms="4.3144759535789490e-01" purity="2.5664648413658142e-01" nType="0">
            <Node pos="l" depth="3" NCoef="0" IVar="-1" Cut="0.0000000000000000e+00" cType="1" res="1.1948981555178761e-03" rms="4.9468323588371277e-01" purity="5.6229346990585327e-01" nType="-99"/>
            <Node pos="r" depth="3" NCoef="0" IVar="-1" Cut="0.0000000000000000e+00" cType="1" res="-1.4677362516522408e-02" rms="3.9117705821990967e-01" purity="1.9197037816047668e-01" nType="-99"/>
          </Node>
          <Node pos="r" depth="2" NCoef="0" IVar="4" Cut="-4.8427394032478333e-01" cType="1" res="4.3111667037010193e-01" rms="2.3876644670963287e-01" purity="9.3791007995605469e-01" nType="0">
            <Node pos="l" depth="3" NCoef="0" IVar="-1" Cut="0.0000000000000000e+00" cType="1" res="5.2851657383143902e-03" rms="1.7767183482646942e-01" purity="9.6736788749694824e-01" nType="-99"/>
            <Node pos="r" depth="3" NCoef="0" IVar="-1" Cut="0.0000000000000000e+00" cType="1" res="-2.0882575772702694e-03" rms="4.8713299632072449e-01" purity="4.0980949997901917e-01" nType="-99"/>
          </Node>
        </Node>
      </Node>
    </BinaryTree>
    <BinaryTree type="DecisionTree" boostWeight="1.0000000000000000e+00" itree="4">
      <Node pos="s" depth="0" NCoef="0" IVar="10" Cut="-7.1440899372100830e-01" cType="1" res="3.0186450108885765e-02" rms="4.7034734487533569e-01" purity="5.0196534395217896e-01" nType="0">
        <Node pos="l" depth="1" NCoef="0" IVar="8" Cut="1.2884238362312317e-01" cType="1" res="-3.1589210033416748e-01" rms="2.9873621463775635e-01" purity="1.0381416976451874e-01" nType="0">
          <Node pos="l" depth="2" NCoef="0" IVar="5" Cut="2.2407446801662445e-01" cType="1" res="-3.3178836107254028e-01" rms="2.7109876275062561e-01" purity="8.1295117735862732e-02" nType="0">
            <Node pos="l" depth="3" NCoef="0" IVar="-1" Cut="0.0000000000000000e+00" cType="1" res="-3.9363250136375427e-02" rms="2.5682598352432251e-01" purity="7.2229720652103424e-02" nType="-99"/>
            <Node pos="r" depth="3" NCoef="0" IVar="-1" Cut="0.0000000000000000e+00" cType="1" res="-1.6742235049605370e-02" rms="3.6530753970146179e-01" purity="1.5875120460987091e-01" nType="-99"/>
          </Node>
          <Node pos="r" depth="2" NCoef="0" IVar="-1" Cut="0.0000000000000000e+00" cType="1" res="-4.6886452473700047e-03" rms="4.7243329882621765e-01" purity="3.3827969431877136e-01" nType="-99"/>
        </Node>
        <Node pos="r" depth="1" NCoef="0" IVar="0" Cut="-9.9175161123275757e-01" cType="1" res="1.9140927493572235e-01" rms="4.4824469089508057e-01" purity="6.8744659423828125e-01" nType="0">
          <Node pos="l" depth="2" NCoef="0" IVar="11" Cut="-2.6128077507019043e-01" cType="1" res="-2.5737732648849487e-01" rms="4.0467146039009094e-01" purity="2.1145997941493988e-01" nType="0">
            <Node pos="l" depth="3" NCoef="0" IVar="-1" Cut="0.0000000000000000e+00" cType="1" res="-2.9264972545206547e-04" rms="4.9976310133934021e-01" purity="4.8683336377143860e-01" nType="-99"/>
            <Node pos="r" depth="3" NCoef="0" IVar="-1" Cut="0.0000000000000000e+00" cType="1" res="-1.8294813111424446e-02" rms="3.6742052435874939e-01" purity="1.6088056564331055e-01" nType="-99"/>
          </Node>
          <Node pos="r" depth="2" NCoef="0" IVar="4" Cut="-4.1737097501754761e-01" cType="1" res="3.9318940043449402e-01" rms="2.9387313127517700e-01" purity="9.0145617723464966e-01" nType="0">
            <Node pos="l" depth="3" NCoef="0" IVar="-1" Cut="0.0000000000000000e+00" cType="1" res="5.0597642548382282e-03" rms="2.4445639550685883e-01" purity="9.3543791770935059e-01" nType="-99"/>
            <Node pos="r" depth="3" NCoef="0" IVar="-1" Cut="0.0000000000000000e+00" cType="1" res="-1.5718344599008560e-02" rms="3.8834381103515625e-01" purity="1.8576774001121521e-01" nType="-99"/>
          </Node>
        </Node>
      </Node>
    </BinaryTree>
    <BinaryTree type="DecisionTree" boostWeight="1.0000000000000000e+00" itree="5">
      <Node pos="s" depth="0" NCoef="0" IVar="10" Cut="-7.1428573131561279e-01" cType="1" res="3.5231843590736389e-02" rms="4.6418052911758423e-01" purity="5.0102108716964722e-01" nType="0">
        <Node pos="l" depth="1" NCoef="0" IVar="5" Cut="2.9547896981239319e-01" cType="1" res="-2.9919910430908203e-01" rms="2.9828494787216187e-01" purity="1.0407728701829910e-01" nType="0">
          <Node pos="l" depth="2" NCoef="0" IVar="10" Cut="-7.8231328725814819e-01" cType="1" res="-3.1248602271080017e-01" rms="2.7515327930450439e-01" purity="8.4769941866397858e-02" nType="0">
            <Node pos="l" depth="3" NCoef="0" IVar="-1" Cut="0.0000000000000000e+00" cType="1" res="-3.7388633936643600e-02" rms="2.5836995244026184e-01" purity="7.2943337261676788e-02" nType="-99"/>
            <Node pos="r" depth="3" NCoef="0" IVar="-1" Cut="0.0000000000000000e+00" cType="1" res="-1.1061458848416805e-02" rms="4.1106805205345154e-01" purity="2.1653786301612854e-01" nType="-99"/>
          </Node>
          <Node pos="r" depth="2" NCoef="0" IVar="-1" Cut="0.0000000000000000e+00" cType="1" res="-5.0713089294731617e-03" rms="4.6029475331306458e-01" purity="3.1706786155700684e-01" nType="-99"/>
        </Node>
        <Node pos="r" depth="1" NCoef="0" IVar="0" Cut="-9.9152249097824097e-01" cType="1" res="1.9162586331367493e-01" rms="4.4480711221694946e-01" purity="6.8664878606796265e-01" nType="0">
          <Node pos="l" depth="2" NCoef="0" IVar="11" Cut="-1.7504796385765076e-01" cType="1" res="-2.4929033219814301e-01" rms="4.0409606695175171e-01" purity="2.1186745166778564e-01" nType="0">
            <Node pos="l" depth="3" NCoef="0" IVar="-1" Cut="0.0000000000000000e+00" cType="1" res="-1.6359856817871332e-03" rms="4.8985353112220764e-01" purity="4.2038941383361816e-01" nType="-99"/>
            <Node pos="r" depth="3" NCoef="0" IVar="-1" Cut="0.0000000000000000e+00" cType="1" res="-1.9941920414566994e-02" rms="3.5502335429191589e-01" purity="1.4792272448539734e-01" nType="-99"/>
          </Node>
          <Node pos="r" depth="2" NCoef="0" IVar="4" Cut="-4.1359233856201172e-01" cType="1" res="3.9080575108528137e-01" rms="2.9320839047431946e-01" purity="9.0112698078155518e-01" nType="0">
            <Node pos="l" depth="3" NCoef="0" IVar="-1" Cut="0.0000000000000000e+00" cType="1" res="5.0275721587240696e-03" rms="2.4542909860610962e-01" purity="9.3485981225967407e-01" nType="-99"/>
            <Node pos="r" depth="3" NCoef="0" IVar="-1" Cut="0.0000000000000000e+00" cType="1" res="-1.7343387007713318e-02" rms="3.7570032477378845e-01" purity="1.7063558101654053e-01" nType="-99"/>
          </Node>
        </Node>
      </Node>
    </BinaryTree>
    <BinaryTree type="DecisionTree" boostWeight="1.0000000000000000e+00" itree="6">
      <Node pos="s" depth="0" NCoef="0" IVar="10" Cut="-7.1444702148437500e-01" cType="1" res="4.0037062019109726e-02" rms="4.5821136236190796e-01" purity="5.0015497207641602e-01" nType="0">
        <Node pos="l" depth="1" NCoef="0" IVar="5" Cut="2.3809523880481720e-01" cType="1" res="-2.8439900279045105e-01" rms="2.9658600687980652e-01" purity="1.0344258695840836e-01" nType="0">
          <Node pos="l" depth="2" NCoef="0" IVar="10" Cut="-7.9603379964828491e-01" cType="1" res="-3.0187800526618958e-01" rms="2.6059958338737488e-01" purity="7.4914842844009399e-02" nType="0">
            <Node pos="l" depth="3" NCoef="0" IVar="-1" Cut="0.0000000000000000e+00" cType="1" res="-4.1189987212419510e-02" rms="2.4131584167480469e-01" purity="6.2333576381206512e-02" nType="-99"/>
            <Node pos="r" depth="3" NCoef="0" IVar="-1" Cut="0.0000000000000000e+00" cType="1" res="-1.2360185384750366e-02" rms="3.9724236726760864e-01" purity="1.9713127613067627e-01" nType="-99"/>
          </Node>
          <Node pos="r" depth="2" NCoef="0" IVar="0" Cut="-9.8716920614242554e-01" cType="1" res="-1.9142723083496094e-01" rms="4.2935690283775330e-01" purity="2.5518319010734558e-01" nType="0">
            <Node pos="l" depth="3" NCoef="0" IVar="-1" Cut="0.0000000000000000e+00" cType="1" res="-1.7945447936654091e-02" rms="3.6223667860031128e-01" purity="1.5565608441829681e-01" nType="-99"/>
            <Node pos="r" depth="3" NCoef="0" IVar="-1" Cut="0.0000000000000000e+00" cType="1" res="-1.5073148533701897e-03" rms="4.8040595650672913e-01" purity="4.0008813142776489e-01" nType="-99"/>
          </Node>
        </Node>
        <Node pos="r" depth="1" NCoef="0" IVar="0" Cut="-9.9136978387832642e-01" cType="1" res="1.9219356775283813e-01" rms="4.4119709730148315e-01" purity="6.8620818853378296e-01" nType="0">
          <Node pos="l" depth="2" NCoef="0" IVar="11" Cut="-2.6131594181060791e-01" cType="1" res="-2.4442808330059052e-01" rms="4.0121850371360779e-01" purity="2.0887750387191772e-01" nType="0">
            <Node pos="l" depth="3" NCoef="0" IVar="-1" Cut="0.0000000000000000e+00" cType="1" res="-4.5761492219753563e-04" rms="4.9951031804084778e-01" purity="4.7875019907951355e-01" nType="-99"/>
            <Node pos="r" depth="3" NCoef="0" IVar="-1" Cut="0.0000000000000000e+00" cType="1" res="-1.7460346221923828e-02" rms="3.6625149846076965e-01" purity="1.5990515053272247e-01" nType="-99"/>
          </Node>
          <Node pos="r" depth="2" NCoef="0" IVar="4" Cut="-4.6396869421005249e-01" cType="1" res="3.8852363824844360e-01" rms="2.9245725274085999e-01" purity="9.0084332227706909e-01" nType="0">
            <Node pos="l" depth="3" NCoef="0" IVar="-1" Cut="0.0000000000000000e+00" cType="1" res="5.0313323736190796e-03" rms="2.3614051938056946e-01" purity="9.4020420312881470e-01" nType="-99"/>
            <Node pos="r" depth="3" NCoef="0" IVar="-1" Cut="0.0000000000000000e+00" cType="1" res="-6.8129971623420715e-03" rms="4.4557294249534607e-01" purity="2.8565138578414917e-01" nType="-99"/>
          </Node>
        </Node>
      </Node>
    </BinaryTree>
    <BinaryTree type="DecisionTree" boostWeight="1.0000000000000000e+00" itree="7">
      <Node pos="s" depth="0" NCoef="0" IVar="10" Cut="-7.1440899372100830e-01" cType="1" res="4.5520205050706863e-02" rms="4.5229190587997437e-01" purity="5.0010335445404053e-01" nType="0">
        <Node pos="l" depth="1" NCoef="0" IVar="8" Cut="1.2855386734008789e-01" cType="1" res="-2.7019473910331726e-01" rms="2.9343342781066895e-01" purity="1.0172299295663834e-01" nType="0">
          <Node pos="l" depth="2" NCoef="0" IVar="11" Cut="-4.2613330483436584e-01" cType="1" res="-2.8257206082344055e-01" rms="2.6749423146247864e-01" purity="7.9504720866680145e-02" nType="0">
            <Node pos="l" depth="3" NCoef="0" IVar="-1" Cut="0.0000000000000000e+00" cType="1" res="-5.6632027029991150e-02" rms="1.8590186536312103e-01" purity="3.9407413452863693e-02" nType="-99"/>
            <Node pos="r" depth="3" NCoef="0" IVar="-1" Cut="0.0000000000000000e+00" cType="1" res="-2.9433013871312141e-02" rms="2.7827990055084229e-01" purity="8.6206860840320587e-02" nType="-99"/>
          </Node>
          <Node pos="r" depth="2" NCoef="0" IVar="-1" Cut="0.0000000000000000e+00" cType="1" res="-4.4889617711305618e-03" rms="4.6819815039634705e-01" purity="3.3269238471984863e-01" nType="-99"/>
        </Node>
        <Node pos="r" depth="1" NCoef="0" IVar="0" Cut="-9.9136978387832642e-01" cType="1" res="1.9313752651214600e-01" rms="4.3767809867858887e-01" purity="6.8637222051620483e-01" nType="0">
          <Node pos="l" depth="2" NCoef="0" IVar="11" Cut="-2.6128077507019043e-01" cType="1" res="-2.3642292618751526e-01" rms="4.0085020661354065e-01" purity="2.0965752005577087e-01" nType="0">
            <Node pos="l" depth="3" NCoef="0" IVar="-1" Cut="0.0000000000000000e+00" cType="1" res="-2.7828945894725621e-04" rms="4.9975883960723877e-01" purity="4.8629450798034668e-01" nType="-99"/>
            <Node pos="r" depth="3" NCoef="0" IVar="-1" Cut="0.0000000000000000e+00" cType="1" res="-1.7158770933747292e-02" rms="3.6529424786567688e-01" purity="1.5888017416000366e-01" nType="-99"/>
          </Node>
          <Node pos="r" depth="2" NCoef="0" IVar="4" Cut="-4.2818906903266907e-01" cType="1" res="3.8664609193801880e-01" rms="2.9138344526290894e-01" purity="9.0112280845642090e-01" nType="0">
            <Node pos="l" depth="3" NCoef="0" IVar="-1" Cut="0.0000000000000000e+00" cType="1" res="4.9809045158326626e-03" rms="2.4280948936939240e-01" purity="9.3635416030883789e-01" nType="-99"/>
            <Node pos="r" depth="3" NCoef="0" IVar="-1" Cut="0.0000000000000000e+00" cType="1" res="-1.3149102218449116e-02" rms="3.9843067526817322e-01" purity="2.0031070709228516e-01" nType="-99"/>
          </Node>
        </Node>
      </Node>
    </BinaryTree>
    <BinaryTree type="DecisionTree" boostWeight="1.0000000000000000e+00" itree="8">
      <Node pos="s" depth="0" NCoef="0" IVar="10" Cut="-7.1428561210632324e-01" cType="1" res="5.0066392868757248e-02" rms="4.4703224301338196e-01" purity="4.9952250719070435e-01" nType="0">
        <Node pos="l" depth="1" NCoef="0" IVar="8" Cut="8.7519206106662750e-02" cType="1" res="-2.5548917055130005e-01" rms="2.9360955953598022e-01" purity="1.0245048999786377e-01" nType="0">
          <Node pos="l" depth="2" NCoef="0" IVar="4" Cut="-3.3333334326744080e-01" cType="1" res="-2.6871970295906067e-01" rms="2.6231911778450012e-01" purity="7.6140224933624268e-02" nType="0">
            <Node pos="l" depth="3" NCoef="0" IVar="-1" Cut="0.0000000000000000e+00" cType="1" res="-2.9907234013080597e-02" rms="2.6995268464088440e-01" purity="8.1215500831604004e-02" nType="-99"/>
            <Node pos="r" depth="3" NCoef="0" IVar="-1" Cut="0.0000000000000000e+00" cType="1" res="-6.4282096922397614e-02" rms="1.7711336910724640e-01" purity="3.2234948128461838e-02" nType="-99"/>
          </Node>
          <Node pos="r" depth="2" NCoef="0" IVar="-1" Cut="0.0000000000000000e+00" cType="1" res="-6.0896370559930801e-03" rms="4.4311994314193726e-01" purity="2.8339314460754395e-01" nType="-99"/>
        </Node>
        <Node pos="r" depth="1" NCoef="0" IVar="0" Cut="-9.9190437793731689e-01" cType="1" res="1.9322323799133301e-01" rms="4.3455645442008972e-01" purity="6.8555605411529541e-01" nType="0">
          <Node pos="l" depth="2" NCoef="0" IVar="11" Cut="-3.3309391140937805e-01" cType="1" res="-2.2786410152912140e-01" rms="4.0115907788276672e-01" purity="2.1109038591384888e-01" nType="0">
            <Node pos="l" depth="3" NCoef="0" IVar="-1" Cut="0.0000000000000000e+00" cType="1" res="1.1221477761864662e-03" rms="4.9683398008346558e-01" purity="5.5617815256118774e-01" nType="-99"/>
            <Node pos="r" depth="3" NCoef="0" IVar="-1" Cut="0.0000000000000000e+00" cType="1" res="-1.5301191247999668e-02" rms="3.7410783767700195e-01" purity="1.7018035054206848e-01" nType="-99"/>
          </Node>
          <Node pos="r" depth="2" NCoef="0" IVar="4" Cut="-4.1840285062789917e-01" cType="1" res="3.8423836231231689e-01" rms="2.9082545638084412e-01" purity="9.0078490972518921e-01" nType="0">
            <Node pos="l" depth="3" NCoef="0" IVar="-1" Cut="0.0000000000000000e+00" cType="1" res="4.9466821365058422e-03" rms="2.4462187290191650e-01" purity="9.3526542186737061e-01" nType="-99"/>
            <Node pos="r" depth="3" NCoef="0" IVar="-1" Cut="0.0000000000000000e+00" cType="1" res="-1.5515185892581940e-02" rms="3.8092821836471558e-01" purity="1.7708876729011536e-01" nType="-99"/>
          </Node>
        </Node>
      </Node>
    </BinaryTree>
    <BinaryTree type="DecisionTree" boostWeight="1.0000000000000000e+00" itree="9">
      <Node pos="s" depth="0" NCoef="0" IVar="10" Cut="-7.1440899372100830e-01" cType="1" res="5.5305249989032745e-02" rms="4.4215893745422363e-01" purity="4.9998635053634644e-01" nType="0">
        <Node pos="l" depth="1" NCoef="0" IVar="5" Cut="3.0255720019340515e-01" cType="1" res="-2.4087941646575928e-01" rms="2.9467308521270752e-01" purity="1.0362813621759415e-01" nType="0">
          <Node pos="l" depth="2" NCoef="0" IVar="10" Cut="-8.3680516481399536e-01" cType="1" res="-2.5053212046623230e-01" rms="2.7407643198966980e-01" purity="8.5137933492660522e-02" nType="0">
            <Node pos="l" depth="3" NCoef="0" IVar="-1" Cut="0.0000000000000000e+00" cType="1" res="-3.4703325480222702e-02" rms="2.4738839268684387e-01" purity="6.6993661224842072e-02" nType="-99"/>
            <Node pos="r" depth="3" NCoef="0" IVar="-1" Cut="0.0000000000000000e+00" cType="1" res="-1.2586688622832298e-02" rms="3.7364563345909119e-01" purity="1.7187772691249847e-01" nType="-99"/>
          </Node>
          <Node pos="r" depth="2" NCoef="0" IVar="-1" Cut="0.0000000000000000e+00" cType="1" res="-4.0228455327451229e-03" rms="4.6248355507850647e-01" purity="3.2752621173858643e-01" nType="-99"/>
        </Node>
        <Node pos="r" depth="1" NCoef="0" IVar="0" Cut="-9.9136978387832642e-01" cType="1" res="1.9407573342323303e-01" rms="4.3134847283363342e-01" purity="6.8569076061248779e-01" nType="0">
          <Node pos="l" depth="2" NCoef="0" IVar="11" Cut="-1.6918408870697021e-01" cType="1" res="-2.2023071348667145e-01" rms="4.0130570530891418e-01" purity="2.1211035549640656e-01" nType="0">
            <Node pos="l" depth="3" NCoef="0" IVar="-1" Cut="0.0000000000000000e+00" cType="1" res="-1.3930683489888906e-03" rms="4.8754665255546570e-01" purity="4.1807022690773010e-01" nType="-99"/>
            <Node pos="r" depth="3" NCoef="0" IVar="-1" Cut="0.0000000000000000e+00" cType="1" res="-1.8262708559632301e-02" rms="3.5358947515487671e-01" purity="1.4648260176181793e-01" nType="-99"/>
          </Node>
          <Node pos="r" depth="2" NCoef="0" IVar="4" Cut="-4.6396869421005249e-01" cType="1" res="3.8201031088829041e-01" rms="2.9021856188774109e-01" purity="9.0051281452178955e-01" nType="0">
            <Node pos="l" depth="3" NCoef="0" IVar="-1" Cut="0.0000000000000000e+00" cType="1" res="4.9473633989691734e-03" rms="2.3650109767913818e-01" purity="9.4001179933547974e-01" nType="-99"/>
            <Node pos="r" depth="3" NCoef="0" IVar="-1" Cut="0.0000000000000000e+00" cType="1" res="-6.5241674892604351e-03" rms="4.4197604060173035e-01" purity="2.8226122260093689e-01" nType="-99"/>
          </Node>
        </Node>
      </Node>
    </BinaryTree>
    <BinaryTree type="DecisionTree" boostWeight="1.0000000000000000e+00" itree="10">
      <Node pos="s" depth="0" NCoef="0" IVar="10" Cut="-7.1428561210632324e-01" cType="1" res="6.0257792472839355e-02" rms="4.3743690848350525e-01" purity="5.0044357776641846e-01" nType="0">
        <Node pos="l" depth="1" NCoef="0" IVar="5" Cut="2.4116073548793793e-01" cType="1" res="-2.2715446352958679e-01" rms="2.9582729935646057e-01" purity="1.0491875559091568e-01" nType="0">
          <Node pos="l" depth="2" NCoef="0" IVar="11" Cut="-2.3326788842678070e-01" cType="1" res="-2.4002492427825928e-01" rms="2.6166018843650818e-01" purity="7.6026074588298798e-02" nType="0">
            <Node pos="l" depth="3" NCoef="0" IVar="-1" Cut="0.0000000000000000e+00" cType="1" res="-4.9204580485820770e-02" rms="1.9180655479431152e-01" purity="4.1288506239652634e-02" nType="-99"/>
            <Node pos="r" depth="3" NCoef="0" IVar="-1" Cut="0.0000000000000000e+00" cType="1" res="-2.6157230138778687e-02" rms="2.7865383028984070e-01" purity="8.6435645818710327e-02" nType="-99"/>
          </Node>
          <Node pos="r" depth="2" NCoef="0" IVar="0" Cut="-9.8968952894210815e-01" cType="1" res="-1.5647673606872559e-01" rms="4.3151915073394775e-01" purity="2.6358187198638916e-01" nType="0">
            <Node pos="l" depth="3" NCoef="0" IVar="-1" Cut="0.0000000000000000e+00" cType="1" res="-1.5919022262096405e-02" rms="3.6603683233261108e-01" purity="1.5800626575946808e-01" nType="-99"/>
            <Node pos="r" depth="3" NCoef="0" IVar="-1" Cut="0.0000000000000000e+00" cType="1" res="-1.5465059550479054e-03" rms="4.7296172380447388e-01" purity="3.7966319918632507e-01" nType="-99"/>
          </Node>
        </Node>
        <Node pos="r" depth="1" NCoef="0" IVar="0" Cut="-9.9152249097824097e-01" cType="1" res="1.9517906010150909e-01" rms="4.2791831493377686e-01" purity="6.8611657619476318e-01" nType="0">
          <Node pos="l" depth="2" NCoef="0" IVar="11" Cut="-1.7528986930847168e-01" cType="1" res="-2.1242670714855194e-01" rms="4.0109649300575256e-01" purity="2.1305535733699799e-01" nType="0">
            <Node pos="l" depth="3" NCoef="0" IVar="-1" Cut="0.0000000000000000e+00" cType="1" res="-1.2845139717683196e-03" rms="4.8821863532066345e-01" purity="4.2274782061576843e-01" nType="-99"/>
            <Node pos="r" depth="3" NCoef="0" IVar="-1" Cut="0.0000000000000000e+00" cType="1" res="-1.7408160492777824e-02" rms="3.5580378770828247e-01" purity="1.4873728156089783e-01" nType="-99"/>
          </Node>
          <Node pos="r" depth="2" NCoef="0" IVar="4" Cut="-4.5949634909629822e-01" cType="1" res="3.8029456138610840e-01" rms="2.8894737362861633e-01" purity="9.0095895528793335e-01" nType="0">
            <Node pos="l" depth="3" NCoef="0" IVar="-1" Cut="0.0000000000000000e+00" cType="1" res="4.9199024215340614e-03" rms="2.3672530055046082e-01" purity="9.3987345695495605e-01" nType="-99"/>
            <Node pos="r" depth="3" NCoef="0" IVar="-1" Cut="0.0000000000000000e+00" cType="1" res="-6.9406563416123390e-03" rms="4.3717139959335327e-01" purity="2.7276045083999634e-01" nType="-99"/>
          </Node>
        </Node>
      </Node>
    </BinaryTree>
    <BinaryTree type="DecisionTree" boostWeight="1.0000000000000000e+00" itree="11">
      <Node pos="s" depth="0" NCoef="0" IVar="10" Cut="-7.1428561210632324e-01" cType="1" res="6.3768386840820312e-02" rms="4.3264105916023254e-01" purity="4.9980461597442627e-01" nType="0">
        <Node pos="l" depth="1" NCoef="0" IVar="10" Cut="-7.6870745420455933e-01" cType="1" res="-2.1711468696594238e-01" rms="2.9231777787208557e-01" purity="1.0308040678501129e-01" nType="0">
          <Node pos="l" depth="2" NCoef="0" IVar="6" Cut="-2.6229175925254822e-01" cType="1" res="-2.2602875530719757e-01" rms="2.7328824996948242e-01" purity="8.6600802838802338e-02" nType="0">
            <Node pos="l" depth="3" NCoef="0" IVar="-1" Cut="0.0000000000000000e+00" cType="1" res="-1.1201171204447746e-02" rms="3.5917466878890991e-01" purity="1.6960394382476807e-01" nType="-99"/>
            <Node pos="r" depth="3" NCoef="0" IVar="-1" Cut="0.0000000000000000e+00" cType="1" res="-3.3230807632207870e-02" rms="2.4631212651729584e-01" purity="6.6122516989707947e-02" nType="-99"/>
          </Node>
          <Node pos="r" depth="2" NCoef="0" IVar="-1" Cut="0.0000000000000000e+00" cType="1" res="-4.1149542666971684e-03" rms="4.4643986225128174e-01" purity="2.9539939761161804e-01" nType="-99"/>
        </Node>
        <Node pos="r" depth="1" NCoef="0" IVar="0" Cut="-9.9190437793731689e-01" cType="1" res="1.9553324580192566e-01" rms="4.2488545179367065e-01" purity="6.8591165542602539e-01" nType="0">
          <Node pos="l" depth="2" NCoef="0" IVar="0" Cut="-9.9503570795059204e-01" cType="1" res="-2.0619742572307587e-01" rms="4.0021607279777527e-01" purity="2.1268087625503540e-01" nType="0">
            <Node pos="l" depth="3" NCoef="0" IVar="-1" Cut="0.0000000000000000e+00" cType="1" res="-2.3348048329353333e-02" rms="3.1979855895042419e-01" purity="1.1997241526842117e-01" nType="-99"/>
            <Node pos="r" depth="3" NCoef="0" IVar="-1" Cut="0.0000000000000000e+00" cType="1" res="-4.3653706088662148e-03" rms="4.4643166661262512e-01" purity="2.9879161715507507e-01" nType="-99"/>
          </Node>
          <Node pos="r" depth="2" NCoef="0" IVar="4" Cut="-4.6296915411949158e-01" cType="1" res="3.7789016962051392e-01" rms="2.8853908181190491e-01" purity="9.0072447061538696e-01" nType="0">
            <Node pos="l" depth="3" NCoef="0" IVar="-1" Cut="0.0000000000000000e+00" cType="1" res="4.8954128287732601e-03" rms="2.3608374595642090e-01" purity="9.4023126363754272e-01" nType="-99"/>
            <Node pos="r" depth="3" NCoef="0" IVar="-1" Cut="0.0000000000000000e+00" cType="1" res="-7.2532221674919128e-03" rms="4.3329209089279175e-01" purity="2.6623156666755676e-01" nType="-99"/>
          </Node>
        </Node>
      </Node>
    </BinaryTree>
    <BinaryTree type="DecisionTree" boostWeight="1.0000000000000000e+00" itree="12">
      <Node pos="s" depth="0" NCoef="0" IVar="10" Cut="-7.1428561210632324e-01" cType="1" res="6.8210735917091370e-02" rms="4.2828688025474548e-01" purity="5.0024706125259399e-01" nType="0">
        <Node pos="l" depth="1" NCoef="0" IVar="8" Cut="1.2954230606555939e-01" cType="1" res="-2.0545999705791473e-01" rms="2.9253429174423218e-01" purity="1.0337362438440323e-01" nType="0">
          <Node pos="l" depth="2" NCoef="0" IVar="5" Cut="1.4730237424373627e-01" cType="1" res="-2.1414212882518768e-01" rms="2.6839563250541687e-01" purity="8.1016436219215393e-02" nType="0">
            <Node pos="l" depth="3" NCoef="0" IVar="-1" Cut="0.0000000000000000e+00" cType="1" res="-3.2792709767818451e-02" rms="2.4150466918945312e-01" purity="6.3957571983337402e-02" nType="-99"/>
            <Node pos="r" depth="3" NCoef="0" IVar="-1" Cut="0.0000000000000000e+00" cType="1" res="-1.6475064679980278e-02" rms="3.2499599456787109e-01" purity="1.2356325238943100e-01" nType="-99"/>
          </Node>
          <Node pos="r" depth="2" NCoef="0" IVar="-1" Cut="0.0000000000000000e+00" cType="1" res="-3.6139728035777807e-03" rms="4.6702593564987183e-01" purity="3.3712312579154968e-01" nType="-99"/>
        </Node>
        <Node pos="r" depth="1" NCoef="0" IVar="0" Cut="-9.8487800359725952e-01" cType="1" res="1.9656145572662354e-01" rms="4.2157185077667236e-01" purity="6.8637949228286743e-01" nType="0">
          <Node pos="l" depth="2" NCoef="0" IVar="0" Cut="-9.9312639236450195e-01" cType="1" res="-8.2470126450061798e-02" rms="4.5167735219001770e-01" purity="3.6504662036895752e-01" nType="0">
            <Node pos="l" depth="3" NCoef="0" IVar="-1" Cut="0.0000000000000000e+00" cType="1" res="-1.5129061415791512e-02" rms="3.6131563782691956e-01" purity="1.6282346844673157e-01" nType="-99"/>
            <Node pos="r" depth="3" NCoef="0" IVar="-1" Cut="0.0000000000000000e+00" cType="1" res="1.4747984241694212e-03" rms="4.7310408949851990e-01" purity="5.5924934148788452e-01" nType="-99"/>
          </Node>
          <Node pos="r" depth="2" NCoef="0" IVar="-1" Cut="0.0000000000000000e+00" cType="1" res="5.1760980859398842e-03" rms="1.1167798191308975e-01" purity="9.8657643795013428e-01" nType="-99"/>
        </Node>
      </Node>
    </BinaryTree>
    <BinaryTree type="DecisionTree" boostWeight="1.0000000000000000e+00" itree="13">
      <Node pos="s" depth="0" NCoef="0" IVar="10" Cut="-7.1428573131561279e-01" cType="1" res="7.2619333863258362e-02" rms="4.2439034581184387e-01" purity="5.0132691860198975e-01" nType="0">
        <Node pos="l" depth="1" NCoef="0" IVar="10" Cut="-7.6870810985565186e-01" cType="1" res="-1.9535116851329803e-01" rms="2.9160645604133606e-01" purity="1.0293210297822952e-01" nType="0">
          <Node pos="l" depth="2" NCoef="0" IVar="6" Cut="-2.6642134785652161e-01" cType="1" res="-2.0265495777130127e-01" rms="2.7384743094444275e-01" purity="8.7346538901329041e-02" nType="0">
            <Node pos="l" depth="3" NCoef="0" IVar="-1" Cut="0.0000000000000000e+00" cType="1" res="-9.9374745041131973e-03" rms="3.6272498965263367e-01" purity="1.7558147013187408e-01" nType="-99"/>
            <Node pos="r" depth="3" NCoef="0" IVar="-1" Cut="0.0000000000000000e+00" cType="1" res="-3.0852261930704117e-02" rms="2.4791853129863739e-01" purity="6.6907197237014771e-02" nType="-99"/>
          </Node>
          <Node pos="r" depth="2" NCoef="0" IVar="-1" Cut="0.0000000000000000e+00" cType="1" res="-4.0886020287871361e-03" rms="4.4269543886184692e-01" purity="2.8774893283843994e-01" nType="-99"/>
        </Node>
        <Node pos="r" depth="1" NCoef="0" IVar="0" Cut="-9.8487800359725952e-01" cType="1" res="1.9777013361454010e-01" rms="4.1870012879371643e-01" purity="6.8738996982574463e-01" nType="0">
          <Node pos="l" depth="2" NCoef="0" IVar="0" Cut="-9.9175161123275757e-01" cType="1" res="-7.7925458550453186e-02" rms="4.5077639818191528e-01" purity="3.6638537049293518e-01" nType="0">
            <Node pos="l" depth="3" NCoef="0" IVar="-1" Cut="0.0000000000000000e+00" cType="1" res="-9.2953564599156380e-03" rms="3.9978885650634766e-01" purity="2.1474613249301910e-01" nType="-99"/>
            <Node pos="r" depth="3" NCoef="0" IVar="-1" Cut="0.0000000000000000e+00" cType="1" res="2.2362060844898224e-03" rms="4.6351426839828491e-01" purity="6.4271080493927002e-01" nType="-99"/>
          </Node>
          <Node pos="r" depth="2" NCoef="0" IVar="-1" Cut="0.0000000000000000e+00" cType="1" res="5.1515204831957817e-03" rms="1.1118309199810028e-01" purity="9.8668795824050903e-01" nType="-99"/>
        </Node>
      </Node>
    </BinaryTree>
    <BinaryTree type="DecisionTree" boostWeight="1.0000000000000000e+00" itree="14">
      <Node pos="s" depth="0" NCoef="0" IVar="10" Cut="-7.1428573131561279e-01" cType="1" res="7.5468748807907104e-02" rms="4.2089101672172546e-01" purity="5.0113207101821899e-01" nType="0">
        <Node pos="l" depth="1" NCoef="0" IVar="10" Cut="-7.6870810985565186e-01" cType="1" res="-1.8576300144195557e-01" rms="2.9085147380828857e-01" purity="1.0231177508831024e-01" nType="0">
          <Node pos="l" depth="2" NCoef="0" IVar="11" Cut="-3.3333334326744080e-01" cType="1" res="-1.9259998202323914e-01" rms="2.7285152673721313e-01" purity="8.6416728794574738e-02" nType="0">
            <Node pos="l" depth="3" NCoef="0" IVar="-1" Cut="0.0000000000000000e+00" cType="1" res="-4.7632947564125061e-02" rms="1.7993664741516113e-01" purity="3.6735080182552338e-02" nType="-99"/>
            <Node pos="r" depth="3" NCoef="0" IVar="-1" Cut="0.0000000000000000e+00" cType="1" res="-2.0083341747522354e-02" rms="2.8863248229026794e-01" purity="9.7217381000518799e-02" nType="-99"/>
          </Node>
          <Node pos="r" depth="2" NCoef="0" IVar="-1" Cut="0.0000000000000000e+00" cType="1" res="-3.9507942274212837e-03" rms="4.4373235106468201e-01" purity="2.8922656178474426e-01" nType="-99"/>
        </Node>
        <Node pos="r" depth="1" NCoef="0" IVar="0" Cut="-9.8984229564666748e-01" cType="1" res="1.9728957116603851e-01" rms="4.1670939326286316e-01" purity="6.8711483478546143e-01" nType="0">
          <Node pos="l" depth="2" NCoef="0" IVar="11" Cut="-3.4064969420433044e-01" cType="1" res="-1.6173440217971802e-01" rms="4.1880652308464050e-01" purity="2.5704762339591980e-01" nType="0">
            <Node pos="l" depth="3" NCoef="0" IVar="-1" Cut="0.0000000000000000e+00" cType="1" res="2.4988360237330198e-03" rms="4.7229939699172974e-01" purity="6.3777667284011841e-01" nType="-99"/>
            <Node pos="r" depth="3" NCoef="0" IVar="-1" Cut="0.0000000000000000e+00" cType="1" res="-1.0212519206106663e-02" rms="3.9318960905075073e-01" purity="2.0580500364303589e-01" nType="-99"/>
          </Node>
          <Node pos="r" depth="2" NCoef="0" IVar="4" Cut="-4.8427394032478333e-01" cType="1" res="4.0695405006408691e-01" rms="2.3106208443641663e-01" purity="9.3826752901077271e-01" nType="0">
            <Node pos="l" depth="3" NCoef="0" IVar="-1" Cut="0.0000000000000000e+00" cType="1" res="4.9951649270951748e-03" rms="1.7766271531581879e-01" purity="9.6722549200057983e-01" nType="-99"/>
            <Node pos="r" depth="3" NCoef="0" IVar="-1" Cut="0.0000000000000000e+00" cType="1" res="-1.3059286866337061e-03" rms="4.7550007700920105e-01" purity="4.1611608862876892e-01" nType="-99"/>
          </Node>
        </Node>
      </Node>
    </BinaryTree>
    <BinaryTree type="DecisionTree" boostWeight="1.0000000000000000e+00" itree="15">
      <Node pos="s" depth="0" NCoef="0" IVar="10" Cut="-7.1440899372100830e-01" cType="1" res="7.8336268663406372e-02" rms="4.1768744587898254e-01" purity="5.0085461139678955e-01" nType="0">
        <Node pos="l" depth="1" NCoef="0" IVar="10" Cut="-7.6880764961242676e-01" cType="1" res="-1.7558054625988007e-01" rms="2.9201260209083557e-01" purity="1.0342402756214142e-01" nType="0">
          <Node pos="l" depth="2" NCoef="0" IVar="10" Cut="-9.8899084329605103e-01" cType="1" res="-1.8235744535923004e-01" rms="2.7379322052001953e-01" purity="8.6821675300598145e-02" nType="0">
            <Node pos="l" depth="3" NCoef="0" IVar="-1" Cut="0.0000000000000000e+00" cType="1" res="-1.8326198682188988e-02" rms="2.8444156050682068e-01" purity="9.7526997327804565e-02" nType="-99"/>
            <Node pos="r" depth="3" NCoef="0" IVar="-1" Cut="0.0000000000000000e+00" cType="1" res="-2.5308674201369286e-02" rms="2.6450285315513611e-01" purity="7.8474059700965881e-02" nType="-99"/>
          </Node>
          <Node pos="r" depth="2" NCoef="0" IVar="-1" Cut="0.0000000000000000e+00" cType="1" res="-3.5272194072604179e-03" rms="4.4587633013725281e-01" purity="2.9721564054489136e-01" nType="-99"/>
        </Node>
        <Node pos="r" depth="1" NCoef="0" IVar="0" Cut="-9.9136978387832642e-01" cType="1" res="1.9704362750053406e-01" rms="4.1464084386825562e-01" purity="6.8665540218353271e-01" nType="0">
          <Node pos="l" depth="2" NCoef="0" IVar="11" Cut="-1.7504796385765076e-01" cType="1" res="-1.8365092575550079e-01" rms="3.9962688088417053e-01" purity="2.1474422514438629e-01" nType="0">
            <Node pos="l" depth="3" NCoef="0" IVar="-1" Cut="0.0000000000000000e+00" cType="1" res="-7.9927395563572645e-04" rms="4.8530608415603638e-01" purity="4.2303803563117981e-01" nType="-99"/>
            <Node pos="r" depth="3" NCoef="0" IVar="-1" Cut="0.0000000000000000e+00" cType="1" res="-1.5515944920480251e-02" rms="3.5636124014854431e-01" purity="1.5058726072311401e-01" nType="-99"/>
          </Node>
          <Node pos="r" depth="2" NCoef="0" IVar="4" Cut="-4.1686084866523743e-01" cType="1" res="3.6968117952346802e-01" rms="2.8626054525375366e-01" purity="9.0065783262252808e-01" nType="0">
            <Node pos="l" depth="3" NCoef="0" IVar="-1" Cut="0.0000000000000000e+00" cType="1" res="4.7716079279780388e-03" rms="2.4378451704978943e-01" purity="9.3475866317749023e-01" nType="-99"/>
            <Node pos="r" depth="3" NCoef="0" IVar="-1" Cut="0.0000000000000000e+00" cType="1" res="-1.4061281457543373e-02" rms="3.8422214984893799e-01" purity="1.8165637552738190e-01" nType="-99"/>
          </Node>
        </Node>
      </Node>
    </BinaryTree>
    <BinaryTree type="DecisionTree" boostWeight="1.0000000000000000e+00" itree="16">
      <Node pos="s" depth="0" NCoef="0" IVar="10" Cut="-7.1428561210632324e-01" cType="1" res="7.9766519367694855e-02" rms="4.1393822431564331e-01" purity="4.9940657615661621e-01" nType="0">
        <Node pos="l" depth="1" NCoef="0" IVar="8" Cut="1.2884238362312317e-01" cType="1" res="-1.6928586363792419e-01" rms="2.8943723440170288e-01" purity="1.0173907876014709e-01" nType="0">
          <Node pos="l" depth="2" NCoef="0" IVar="4" Cut="-3.2432651519775391e-01" cType="1" res="-1.7714869976043701e-01" rms="2.6540237665176392e-01" purity="7.9048007726669312e-02" nType="0">
            <Node pos="l" depth="3" NCoef="0" IVar="-1" Cut="0.0000000000000000e+00" cType="1" res="-2.2103713825345039e-02" rms="2.7287983894348145e-01" purity="8.4146670997142792e-02" nType="-99"/>
            <Node pos="r" depth="3" NCoef="0" IVar="-1" Cut="0.0000000000000000e+00" cType="1" res="-5.4560266435146332e-02" rms="1.7549839615821838e-01" purity="3.1172260642051697e-02" nType="-99"/>
          </Node>
          <Node pos="r" depth="2" NCoef="0" IVar="-1" Cut="0.0000000000000000e+00" cType="1" res="-2.7898254338651896e-03" rms="4.6358612179756165e-01" purity="3.3730801939964294e-01" nType="-99"/>
        </Node>
        <Node pos="r" depth="1" NCoef="0" IVar="0" Cut="-9.9152249097824097e-01" cType="1" res="1.9645577669143677e-01" rms="4.1194248199462891e-01" purity="6.8572688102722168e-01" nType="0">
          <Node pos="l" depth="2" NCoef="0" IVar="11" Cut="-9.0422160923480988e-02" cType="1" res="-1.8339262902736664e-01" rms="3.9511516690254211e-01" purity="2.0912328362464905e-01" nType="0">
            <Node pos="l" depth="3" NCoef="0" IVar="-1" Cut="0.0000000000000000e+00" cType="1" res="-1.9793666433542967e-03" rms="4.6936911344528198e-01" purity="3.6377272009849548e-01" nType="-99"/>
            <Node pos="r" depth="3" NCoef="0" IVar="-1" Cut="0.0000000000000000e+00" cType="1" res="-1.8197290599346161e-02" rms="3.3789986371994019e-01" purity="1.3245116174221039e-01" nType="-99"/>
          </Node>
          <Node pos="r" depth="2" NCoef="0" IVar="4" Cut="-4.1686084866523743e-01" cType="1" res="3.6782842874526978e-01" rms="2.8523576259613037e-01" purity="9.0075170993804932e-01" nType="0">
            <Node pos="l" depth="3" NCoef="0" IVar="-1" Cut="0.0000000000000000e+00" cType="1" res="4.7471527941524982e-03" rms="2.4365784227848053e-01" purity="9.3483299016952515e-01" nType="-99"/>
            <Node pos="r" depth="3" NCoef="0" IVar="-1" Cut="0.0000000000000000e+00" cType="1" res="-1.3545447029173374e-02" rms="3.8561052083969116e-01" purity="1.8321107327938080e-01" nType="-99"/>
          </Node>
        </Node>
      </Node>
    </BinaryTree>
    <BinaryTree type="DecisionTree" boostWeight="1.0000000000000000e+00" itree="17">
      <Node pos="s" depth="0" NCoef="0" IVar="10" Cut="-7.1469140052795410e-01" cType="1" res="8.4688514471054077e-02" rms="4.1066652536392212e-01" purity="5.0124663114547729e-01" nType="0">
        <Node pos="l" depth="1" NCoef="0" IVar="8" Cut="1.1734776198863983e-01" cType="1" res="-1.5675899386405945e-01" rms="2.9431521892547607e-01" purity="1.0559225827455521e-01" nType="0">
          <Node pos="l" depth="2" NCoef="0" IVar="10" Cut="-8.6413890123367310e-01" cType="1" res="-1.6389045119285583e-01" rms="2.6983925700187683e-01" purity="8.2169204950332642e-02" nType="0">
            <Node pos="l" depth="3" NCoef="0" IVar="-1" Cut="0.0000000000000000e+00" cType="1" res="-2.8538182377815247e-02" rms="2.4227547645568848e-01" purity="6.3936494290828705e-02" nType="-99"/>
            <Node pos="r" depth="3" NCoef="0" IVar="-1" Cut="0.0000000000000000e+00" cType="1" res="-1.1159109883010387e-02" rms="3.4702292084693909e-01" purity="1.4451092481613159e-01" nType="-99"/>
          </Node>
          <Node pos="r" depth="2" NCoef="0" IVar="-1" Cut="0.0000000000000000e+00" cType="1" res="-3.0431770719587803e-03" rms="4.5758447051048279e-01" purity="3.2199612259864807e-01" nType="-99"/>
        </Node>
        <Node pos="r" depth="1" NCoef="0" IVar="0" Cut="-9.9136978387832642e-01" cType="1" res="1.9796799123287201e-01" rms="4.0859207510948181e-01" purity="6.8687510490417480e-01" nType="0">
          <Node pos="l" depth="2" NCoef="0" IVar="11" Cut="-2.6009663939476013e-01" cType="1" res="-1.7619116604328156e-01" rms="3.9507162570953369e-01" purity="2.1052889525890350e-01" nType="0">
            <Node pos="l" depth="3" NCoef="0" IVar="-1" Cut="0.0000000000000000e+00" cType="1" res="2.9869170975871384e-04" rms="4.9576503038406372e-01" purity="4.9069535732269287e-01" nType="-99"/>
            <Node pos="r" depth="3" NCoef="0" IVar="-1" Cut="0.0000000000000000e+00" cType="1" res="-1.3772726990282536e-02" rms="3.6254796385765076e-01" purity="1.5838631987571716e-01" nType="-99"/>
          </Node>
          <Node pos="r" depth="2" NCoef="0" IVar="4" Cut="-4.2742916941642761e-01" cType="1" res="3.6624521017074585e-01" rms="2.8382164239883423e-01" purity="9.0111070871353149e-01" nType="0">
            <Node pos="l" depth="3" NCoef="0" IVar="-1" Cut="0.0000000000000000e+00" cType="1" res="4.7321692109107971e-03" rms="2.4109397828578949e-01" purity="9.3640249967575073e-01" nType="-99"/>
            <Node pos="r" depth="3" NCoef="0" IVar="-1" Cut="0.0000000000000000e+00" cType="1" res="-1.2108717113733292e-02" rms="3.9272195100784302e-01" purity="1.9435758888721466e-01" nType="-99"/>
          </Node>
        </Node>
      </Node>
    </BinaryTree>
    <BinaryTree type="DecisionTree" boostWeight="1.0000000000000000e+00" itree="18">
      <Node pos="s" depth="0" NCoef="0" IVar="10" Cut="-7.1440899372100830e-01" cType="1" res="8.6001865565776825e-02" rms="4.0739536285400391e-01" purity="4.9953031539916992e-01" nType="0">
        <Node pos="l" depth="1" NCoef="0" IVar="10" Cut="-7.6880735158920288e-01" cType="1" res="-1.5122741460800171e-01" rms="2.9079371690750122e-01" purity="1.0312141478061676e-01" nType="0">
          <Node pos="l" depth="2" NCoef="0" IVar="10" Cut="-9.8899084329605103e-01" cType="1" res="-1.5725998580455780e-01" rms="2.7265387773513794e-01" purity="8.6440615355968475e-02" nType="0">
            <Node pos="l" depth="3" NCoef="0" IVar="-1" Cut="0.0000000000000000e+00" cType="1" res="-1.6674537211656570e-02" rms="2.8255662322044373e-01" purity="9.6373267471790314e-02" nType="-99"/>
            <Node pos="r" depth="3" NCoef="0" IVar="-1" Cut="0.0000000000000000e+00" cType="1" res="-2.3077150806784630e-02" rms="2.6404500007629395e-01" purity="7.8692726790904999e-02" nType="-99"/>
          </Node>
          <Node pos="r" depth="2" NCoef="0" IVar="-1" Cut="0.0000000000000000e+00" cType="1" res="-3.0054172966629267e-03" rms="4.4504481554031372e-01" purity="2.9708486795425415e-01" nType="-99"/>
        </Node>
        <Node pos="r" depth="1" NCoef="0" IVar="0" Cut="-9.9136978387832642e-01" cType="1" res="1.9725359976291656e-01" rms="4.0666955709457397e-01" purity="6.8543142080307007e-01" nType="0">
          <Node pos="l" depth="2" NCoef="0" IVar="0" Cut="-9.9503570795059204e-01" cType="1" res="-1.6890862584114075e-01" rms="3.9621135592460632e-01" purity="2.1227952837944031e-01" nType="0">
            <Node pos="l" depth="3" NCoef="0" IVar="-1" Cut="0.0000000000000000e+00" cType="1" res="-2.0740991458296776e-02" rms="3.1801727414131165e-01" purity="1.1896745115518570e-01" nType="-99"/>
            <Node pos="r" depth="3" NCoef="0" IVar="-1" Cut="0.0000000000000000e+00" cType="1" res="-3.3270900603383780e-03" rms="4.4292348623275757e-01" purity="2.9871743917465210e-01" nType="-99"/>
          </Node>
          <Node pos="r" depth="2" NCoef="0" IVar="4" Cut="-4.1246438026428223e-01" cType="1" res="3.6364680528640747e-01" rms="2.8387001156806946e-01" purity="9.0044331550598145e-01" nType="0">
            <Node pos="l" depth="3" NCoef="0" IVar="-1" Cut="0.0000000000000000e+00" cType="1" res="4.6964422799646854e-03" rms="2.4433720111846924e-01" purity="9.3432897329330444e-01" nType="-99"/>
            <Node pos="r" depth="3" NCoef="0" IVar="-1" Cut="0.0000000000000000e+00" cType="1" res="-1.4242396689951420e-02" rms="3.7688031792640686e-01" purity="1.7258341610431671e-01" nType="-99"/>
          </Node>
        </Node>
      </Node>
    </BinaryTree>
    <BinaryTree type="DecisionTree" boostWeight="1.0000000000000000e+00" itree="19">
      <Node pos="s" depth="0" NCoef="0" IVar="11" Cut="-1.4262905716896057e-01" cType="1" res="8.9593298733234406e-02" rms="4.0424185991287231e-01" purity="5.0104820728302002e-01" nType="0">
        <Node pos="l" depth="1" NCoef="0" IVar="10" Cut="-7.1444702148437500e-01" cType="1" res="2.6023861765861511e-01" rms="3.4752544760704041e-01" purity="7.3214411735534668e-01" nType="0">
          <Node pos="l" depth="2" NCoef="0" IVar="10" Cut="-8.5042542219161987e-01" cType="1" res="-1.4398092031478882e-01" rms="2.6101812720298767e-01" purity="8.8819019496440887e-02" nType="0">
            <Node pos="l" depth="3" NCoef="0" IVar="-1" Cut="0.0000000000000000e+00" cType="1" res="-3.9404939860105515e-02" rms="1.8925000727176666e-01" purity="4.0156085044145584e-02" nType="-99"/>
            <Node pos="r" depth="3" NCoef="0" IVar="-1" Cut="0.0000000000000000e+00" cType="1" res="-3.1426989007741213e-03" rms="3.9466023445129395e-01" purity="2.3360460996627808e-01" nType="-99"/>
          </Node>
          <Node pos="r" depth="2" NCoef="0" IVar="0" Cut="-9.8999506235122681e-01" cType="1" res="3.5262125730514526e-01" rms="2.9483547806739807e-01" purity="8.7917333841323853e-01" nType="0">
            <Node pos="l" depth="3" NCoef="0" IVar="-1" Cut="0.0000000000000000e+00" cType="1" res="3.2098827068693936e-04" rms="4.7728562355041504e-01" purity="4.6560877561569214e-01" nType="-99"/>
            <Node pos="r" depth="3" NCoef="0" IVar="-1" Cut="0.0000000000000000e+00" cType="1" res="4.9662073142826557e-03" rms="1.4484184980392456e-01" purity="9.7569549083709717e-01" nType="-99"/>
          </Node>
        </Node>
        <Node pos="r" depth="1" NCoef="0" IVar="8" Cut="2.1388761699199677e-01" cType="1" res="-6.2520861625671387e-02" rms="3.9028516411781311e-01" purity="2.9504811763763428e-01" nType="0">
          <Node pos="l" depth="2" NCoef="0" IVar="11" Cut="1.2903198599815369e-01" cType="1" res="-1.0941226780414581e-01" rms="3.6640581488609314e-01" purity="2.2062280774116516e-01" nType="0">
            <Node pos="l" depth="3" NCoef="0" IVar="-1" Cut="0.0000000000000000e+00" cType="1" res="-1.1541153071448207e-03" rms="4.0672001242637634e-01" purity="3.3298116922378540e-01" nType="-99"/>
            <Node pos="r" depth="3" NCoef="0" IVar="-1" Cut="0.0000000000000000e+00" cType="1" res="-1.1248813010752201e-02" rms="3.3061951398849487e-01" purity="1.5096653997898102e-01" nType="-99"/>
          </Node>
          <Node pos="r" depth="2" NCoef="0" IVar="0" Cut="-9.9091154336929321e-01" cType="1" res="1.3805949687957764e-01" rms="4.2423677444458008e-01" purity="6.1340606212615967e-01" nType="0">
            <Node pos="l" depth="3" NCoef="0" IVar="-1" Cut="0.0000000000000000e+00" cType="1" res="-1.9670959562063217e-02" rms="3.2508209347724915e-01" purity="1.2146106362342834e-01" nType="-99"/>
            <Node pos="r" depth="3" NCoef="0" IVar="-1" Cut="0.0000000000000000e+00" cType="1" res="4.2802551761269569e-03" rms="3.2845023274421692e-01" purity="8.6398404836654663e-01" nType="-99"/>
          </Node>
        </Node>
      </Node>
    </BinaryTree>
    <BinaryTree type="DecisionTree" boostWeight="1.0000000000000000e+00" itree="20">
      <Node pos="s" depth="0" NCoef="0" IVar="11" Cut="-1.4238587021827698e-01" cType="1" res="9.0111121535301208e-02" rms="4.0186083316802979e-01" purity="4.9988058209419250e-01" nType="0">
        <Node pos="l" depth="1" NCoef="0" IVar="10" Cut="-7.1481895446777344e-01" cType="1" res="2.5905719399452209e-01" rms="3.4496524930000305e-01" purity="7.3078900575637817e-01" nType="0">
          <Node pos="l" depth="2" NCoef="0" IVar="10" Cut="-8.5062396526336670e-01" cType="1" res="-1.3964162766933441e-01" rms="2.5184267759323120e-01" purity="8.3219237625598907e-02" nType="0">
            <Node pos="l" depth="3" NCoef="0" IVar="-1" Cut="0.0000000000000000e+00" cType="1" res="-4.1631676256656647e-02" rms="1.7820587754249573e-01" purity="3.5634979605674744e-02" nType="-99"/>
            <Node pos="r" depth="3" NCoef="0" IVar="-1" Cut="0.0000000000000000e+00" cType="1" res="-3.6091599613428116e-03" rms="3.8926029205322266e-01" purity="2.2498153150081635e-01" nType="-99"/>
          </Node>
          <Node pos="r" depth="2" NCoef="0" IVar="0" Cut="-9.9152249097824097e-01" cType="1" res="3.4984436631202698e-01" rms="2.9532554745674133e-01" purity="8.7824612855911255e-01" nType="0">
            <Node pos="l" depth="3" NCoef="0" IVar="-1" Cut="0.0000000000000000e+00" cType="1" res="-1.1199570726603270e-03" rms="4.7661870718002319e-01" purity="3.9395183324813843e-01" nType="-99"/>
            <Node pos="r" depth="3" NCoef="0" IVar="-1" Cut="0.0000000000000000e+00" cType="1" res="4.8761717043817043e-03" rms="1.7697267234325409e-01" purity="9.6306514739990234e-01" nType="-99"/>
          </Node>
        </Node>
        <Node pos="r" depth="1" NCoef="0" IVar="8" Cut="1.8317487835884094e-01" cType="1" res="-5.9894818812608719e-02" rms="3.8906937837600708e-01" purity="2.9485881328582764e-01" nType="0">
          <Node pos="l" depth="2" NCoef="0" IVar="4" Cut="-4.2472895979881287e-01" cType="1" res="-1.1044277995824814e-01" rms="3.6168310046195984e-01" purity="2.1206846833229065e-01" nType="0">
            <Node pos="l" depth="3" NCoef="0" IVar="-1" Cut="0.0000000000000000e+00" cType="1" res="-4.0092659182846546e-03" rms="3.7461110949516296e-01" purity="2.4076654016971588e-01" nType="-99"/>
            <Node pos="r" depth="3" NCoef="0" IVar="-1" Cut="0.0000000000000000e+00" cType="1" res="-3.5182412713766098e-02" rms="2.5075051188468933e-01" purity="6.2563620507717133e-02" nType="-99"/>
          </Node>
          <Node pos="r" depth="2" NCoef="0" IVar="0" Cut="-9.9075877666473389e-01" cType="1" res="1.1706390231847763e-01" rms="4.2789420485496521e-01" purity="5.8469188213348389e-01" nType="0">
            <Node pos="l" depth="3" NCoef="0" IVar="-1" Cut="0.0000000000000000e+00" cType="1" res="-1.8717180937528610e-02" rms="3.2839989662170410e-01" purity="1.2405943870544434e-01" nType="-99"/>
            <Node pos="r" depth="3" NCoef="0" IVar="-1" Cut="0.0000000000000000e+00" cType="1" res="4.1466266848146915e-03" rms="3.4490463137626648e-01" purity="8.4494942426681519e-01" nType="-99"/>
          </Node>
        </Node>
      </Node>
    </BinaryTree>
    <BinaryTree type="DecisionTree" boostWeight="1.0000000000000000e+00" itree="21">
      <Node pos="s" depth="0" NCoef="0" IVar="11" Cut="-1.4332261681556702e-01" cType="1" res="9.2836573719978333e-02" rms="3.9953437447547913e-01" purity="5.0070315599441528e-01" nType="0">
        <Node pos="l" depth="1" NCoef="0" IVar="10" Cut="-7.1428561210632324e-01" cType="1" res="2.6021051406860352e-01" rms="3.4159076213836670e-01" purity="7.3161363601684570e-01" nType="0">
          <Node pos="l" depth="2" NCoef="0" IVar="10" Cut="-8.5034620761871338e-01" cType="1" res="-1.2811517715454102e-01" rms="2.5389119982719421e-01" purity="8.4540739655494690e-02" nType="0">
            <Node pos="l" depth="3" NCoef="0" IVar="-1" Cut="0.0000000000000000e+00" cType="1" res="-3.8225755095481873e-02" rms="1.8561808764934540e-01" purity="3.8186363875865936e-02" nType="-99"/>
            <Node pos="r" depth="3" NCoef="0" IVar="-1" Cut="0.0000000000000000e+00" cType="1" res="-3.6200375761836767e-03" rms="3.8767644762992859e-01" purity="2.2382017970085144e-01" nType="-99"/>
          </Node>
          <Node pos="r" depth="2" NCoef="0" IVar="0" Cut="-9.9136978387832642e-01" cType="1" res="3.4879520535469055e-01" rms="2.9385456442832947e-01" purity="8.7922364473342896e-01" nType="0">
            <Node pos="l" depth="3" NCoef="0" IVar="-1" Cut="0.0000000000000000e+00" cType="1" res="-8.8889262406155467e-04" rms="4.7786584496498108e-01" purity="4.0200105309486389e-01" nType="-99"/>
            <Node pos="r" depth="3" NCoef="0" IVar="-1" Cut="0.0000000000000000e+00" cType="1" res="4.8539983108639717e-03" rms="1.7645829916000366e-01" purity="9.6330475807189941e-01" nType="-99"/>
          </Node>
        </Node>
        <Node pos="r" depth="1" NCoef="0" IVar="8" Cut="2.1417613327503204e-01" cType="1" res="-5.5134102702140808e-02" rms="3.8849851489067078e-01" purity="2.9656159877777100e-01" nType="0">
          <Node pos="l" depth="2" NCoef="0" IVar="11" Cut="7.4247322976589203e-02" cType="1" res="-1.0085444897413254e-01" rms="3.6641582846641541e-01" purity="2.2300931811332703e-01" nType="0">
            <Node pos="l" depth="3" NCoef="0" IVar="-1" Cut="0.0000000000000000e+00" cType="1" res="-4.8844330012798309e-04" rms="4.0720665454864502e-01" purity="3.5198098421096802e-01" nType="-99"/>
            <Node pos="r" depth="3" NCoef="0" IVar="-1" Cut="0.0000000000000000e+00" cType="1" res="-9.0681482106447220e-03" rms="3.4085750579833984e-01" purity="1.6748547554016113e-01" nType="-99"/>
          </Node>
          <Node pos="r" depth="2" NCoef="0" IVar="0" Cut="-9.9091154336929321e-01" cType="1" res="1.4195267856121063e-01" rms="4.1825687885284424e-01" purity="6.1362367868423462e-01" nType="0">
            <Node pos="l" depth="3" NCoef="0" IVar="-1" Cut="0.0000000000000000e+00" cType="1" res="-1.7949884757399559e-02" rms="3.2930335402488708e-01" purity="1.2488503009080887e-01" nType="-99"/>
            <Node pos="r" depth="3" NCoef="0" IVar="-1" Cut="0.0000000000000000e+00" cType="1" res="4.2360536754131317e-03" rms="3.2882526516914368e-01" purity="8.6374437808990479e-01" nType="-99"/>
          </Node>
        </Node>
      </Node>
    </BinaryTree>
    <BinaryTree type="DecisionTree" boostWeight="1.0000000000000000e+00" itree="22">
      <Node pos="s" depth="0" NCoef="0" IVar="11" Cut="-1.4217922091484070e-01" cType="1" res="9.4440437853336334e-02" rms="3.9732122421264648e-01" purity="5.0134265422821045e-01" nType="0">
        <Node pos="l" depth="1" NCoef="0" IVar="10" Cut="-7.1428561210632324e-01" cType="1" res="2.5979068875312805e-01" rms="3.3888575434684753e-01" purity="7.3128396272659302e-01" nType="0">
          <Node pos="l" depth="2" NCoef="0" IVar="5" Cut="1.7309513688087463e-01" cType="1" res="-1.2134526669979095e-01" rms="2.5050264596939087e-01" purity="8.2977212965488434e-02" nType="0">
            <Node pos="l" depth="3" NCoef="0" IVar="-1" Cut="0.0000000000000000e+00" cType="1" res="-3.5031232982873917e-02" rms="1.8685066699981689e-01" purity="3.9878163486719131e-02" nType="-99"/>
            <Node pos="r" depth="3" NCoef="0" IVar="-1" Cut="0.0000000000000000e+00" cType="1" res="-3.7286090664565563e-03" rms="3.7765207886695862e-01" purity="2.1232865750789642e-01" nType="-99"/>
          </Node>
          <Node pos="r" depth="2" NCoef="0" IVar="0" Cut="-9.8984229564666748e-01" cType="1" res="3.4661054611206055e-01" rms="2.9339709877967834e-01" purity="8.7896323204040527e-01" nType="0">
            <Node pos="l" depth="3" NCoef="0" IVar="-1" Cut="0.0000000000000000e+00" cType="1" res="3.7320211413316429e-04" rms="4.7673255205154419e-01" purity="4.6853172779083252e-01" nType="-99"/>
            <Node pos="r" depth="3" NCoef="0" IVar="-1" Cut="0.0000000000000000e+00" cType="1" res="4.8975786194205284e-03" rms="1.4480033516883850e-01" purity="9.7570025920867920e-01" nType="-99"/>
          </Node>
        </Node>
        <Node pos="r" depth="1" NCoef="0" IVar="8" Cut="2.1345342695713043e-01" cType="1" res="-5.2425894886255264e-02" rms="3.8758423924446106e-01" purity="2.9710569977760315e-01" nType="0">
          <Node pos="l" depth="2" NCoef="0" IVar="11" Cut="1.2976832687854767e-01" cType="1" res="-9.8429545760154724e-02" rms="3.6595359444618225e-01" purity="2.2274282574653625e-01" nType="0">
            <Node pos="l" depth="3" NCoef="0" IVar="-1" Cut="0.0000000000000000e+00" cType="1" res="-9.2790514463558793e-04" rms="4.0493312478065491e-01" purity="3.3515399694442749e-01" nType="-99"/>
            <Node pos="r" depth="3" NCoef="0" IVar="-1" Cut="0.0000000000000000e+00" cType="1" res="-1.0300422087311745e-02" rms="3.3196350932121277e-01" purity="1.5275453031063080e-01" nType="-99"/>
          </Node>
          <Node pos="r" depth="2" NCoef="0" IVar="0" Cut="-9.9121701717376709e-01" cType="1" res="1.4392419159412384e-01" rms="4.1497460007667542e-01" purity="6.1449712514877319e-01" nType="0">
            <Node pos="l" depth="3" NCoef="0" IVar="-1" Cut="0.0000000000000000e+00" cType="1" res="-1.7731163650751114e-02" rms="3.2778340578079224e-01" purity="1.2364554405212402e-01" nType="-99"/>
            <Node pos="r" depth="3" NCoef="0" IVar="-1" Cut="0.0000000000000000e+00" cType="1" res="4.2184004560112953e-03" rms="3.2800891995429993e-01" purity="8.6456584930419922e-01" nType="-99"/>
          </Node>
        </Node>
      </Node>
    </BinaryTree>
    <BinaryTree type="DecisionTree" boostWeight="1.0000000000000000e+00" itree="23">
      <Node pos="s" depth="0" NCoef="0" IVar="11" Cut="-1.4112386107444763e-01" cType="1" res="9.5339477062225342e-02" rms="3.9590653777122498e-01" purity="5.0052368640899658e-01" nType="0">
        <Node pos="l" depth="1" NCoef="0" IVar="10" Cut="-7.1428561210632324e-01" cType="1" res="2.5924229621887207e-01" rms="3.3711850643157959e-01" purity="7.3052316904067993e-01" nType="0">
          <Node pos="l" depth="2" NCoef="0" IVar="10" Cut="-8.5034048557281494e-01" cType="1" res="-1.1011552065610886e-01" rms="2.5534522533416748e-01" purity="8.6617305874824524e-02" nType="0">
            <Node pos="l" depth="3" NCoef="0" IVar="-1" Cut="0.0000000000000000e+00" cType="1" res="-3.5163290798664093e-02" rms="1.8660385906696320e-01" purity="3.8776617497205734e-02" nType="-99"/>
            <Node pos="r" depth="3" NCoef="0" IVar="-1" Cut="0.0000000000000000e+00" cType="1" res="-2.8979771304875612e-03" rms="3.9049687981605530e-01" purity="2.2984218597412109e-01" nType="-99"/>
          </Node>
          <Node pos="r" depth="2" NCoef="0" IVar="0" Cut="-9.9022418260574341e-01" cType="1" res="3.4387624263763428e-01" rms="2.9381453990936279e-01" purity="8.7806648015975952e-01" nType="0">
            <Node pos="l" depth="3" NCoef="0" IVar="-1" Cut="0.0000000000000000e+00" cType="1" res="3.9063720032572746e-04" rms="4.7673338651657104e-01" purity="4.6937897801399231e-01" nType="-99"/>
            <Node pos="r" depth="3" NCoef="0" IVar="-1" Cut="0.0000000000000000e+00" cType="1" res="4.8727924004197121e-03" rms="1.4539818465709686e-01" purity="9.7548836469650269e-01" nType="-99"/>
          </Node>
        </Node>
        <Node pos="r" depth="1" NCoef="0" IVar="8" Cut="2.1345342695713043e-01" cType="1" res="-5.0200480967760086e-02" rms="3.8726070523262024e-01" purity="2.9629218578338623e-01" nType="0">
          <Node pos="l" depth="2" NCoef="0" IVar="4" Cut="-4.2448019981384277e-01" cType="1" res="-9.4421803951263428e-02" rms="3.6706686019897461e-01" purity="2.2391432523727417e-01" nType="0">
            <Node pos="l" depth="3" NCoef="0" IVar="-1" Cut="0.0000000000000000e+00" cType="1" res="-3.1877004075795412e-03" rms="3.8017868995666504e-01" purity="2.5337454676628113e-01" nType="-99"/>
            <Node pos="r" depth="3" NCoef="0" IVar="-1" Cut="0.0000000000000000e+00" cType="1" res="-3.2203081995248795e-02" rms="2.5476238131523132e-01" purity="6.5459892153739929e-02" nType="-99"/>
          </Node>
          <Node pos="r" depth="2" NCoef="0" IVar="1" Cut="-9.7959989309310913e-01" cType="1" res="1.4112231135368347e-01" rms="4.1329199075698853e-01" purity="6.0943382978439331e-01" nType="0">
            <Node pos="l" depth="3" NCoef="0" IVar="-1" Cut="0.0000000000000000e+00" cType="1" res="-1.2103044427931309e-02" rms="3.4629473090171814e-01" purity="1.6467881202697754e-01" nType="-99"/>
            <Node pos="r" depth="3" NCoef="0" IVar="-1" Cut="0.0000000000000000e+00" cType="1" res="3.7995798047631979e-03" rms="3.6757650971412659e-01" purity="7.7023798227310181e-01" nType="-99"/>
          </Node>
        </Node>
      </Node>
    </BinaryTree>
    <BinaryTree type="DecisionTree" boostWeight="1.0000000000000000e+00" itree="24">
      <Node pos="s" depth="0" NCoef="0" IVar="11" Cut="-1.4112386107444763e-01" cType="1" res="9.5797397196292877e-02" rms="3.9379027485847473e-01" purity="4.9987253546714783e-01" nType="0">
        <Node pos="l" depth="1" NCoef="0" IVar="10" Cut="-7.1444702148437500e-01" cType="1" res="2.5760129094123840e-01" rms="3.3533138036727905e-01" purity="7.2903174161911011e-01" nType="0">
          <Node pos="l" depth="2" NCoef="0" IVar="10" Cut="-8.5042583942413330e-01" cType="1" res="-1.0308889299631119e-01" rms="2.5430595874786377e-01" purity="8.6426943540573120e-02" nType="0">
            <Node pos="l" depth="3" NCoef="0" IVar="-1" Cut="0.0000000000000000e+00" cType="1" res="-3.3615633845329285e-02" rms="1.8650011718273163e-01" purity="3.8930639624595642e-02" nType="-99"/>
            <Node pos="r" depth="3" NCoef="0" IVar="-1" Cut="0.0000000000000000e+00" cType="1" res="-2.9222453013062477e-03" rms="3.8909670710563660e-01" purity="2.2856710851192474e-01" nType="-99"/>
          </Node>
          <Node pos="r" depth="2" NCoef="0" IVar="0" Cut="-9.9190437793731689e-01" cType="1" res="3.4066063165664673e-01" rms="2.9426401853561401e-01" purity="8.7701004743576050e-01" nType="0">
            <Node pos="l" depth="3" NCoef="0" IVar="-1" Cut="0.0000000000000000e+00" cType="1" res="-1.4045913703739643e-03" rms="4.7441956400871277e-01" purity="3.8344636559486389e-01" nType="-99"/>
            <Node pos="r" depth="3" NCoef="0" IVar="-1" Cut="0.0000000000000000e+00" cType="1" res="4.7830333933234215e-03" rms="1.7733497917652130e-01" purity="9.6277368068695068e-01" nType="-99"/>
          </Node>
        </Node>
        <Node pos="r" depth="1" NCoef="0" IVar="8" Cut="2.1417613327503204e-01" cType="1" res="-4.6858187764883041e-02" rms="3.8628664612770081e-01" purity="2.9783263802528381e-01" nType="0">
          <Node pos="l" depth="2" NCoef="0" IVar="11" Cut="7.6027654111385345e-02" cType="1" res="-9.1322727501392365e-02" rms="3.6639079451560974e-01" purity="2.2445027530193329e-01" nType="0">
            <Node pos="l" depth="3" NCoef="0" IVar="-1" Cut="0.0000000000000000e+00" cType="1" res="-3.2152316998690367e-04" rms="4.0674513578414917e-01" purity="3.5355484485626221e-01" nType="-99"/>
            <Node pos="r" depth="3" NCoef="0" IVar="-1" Cut="0.0000000000000000e+00" cType="1" res="-8.4010232239961624e-03" rms="3.4136834740638733e-01" purity="1.6820000112056732e-01" nType="-99"/>
          </Node>
          <Node pos="r" depth="2" NCoef="0" IVar="0" Cut="-9.9091154336929321e-01" cType="1" res="1.4507439732551575e-01" rms="4.1047021746635437e-01" purity="6.1458992958068848e-01" nType="0">
            <Node pos="l" depth="3" NCoef="0" IVar="-1" Cut="0.0000000000000000e+00" cType="1" res="-1.7178500071167946e-02" rms="3.2701256871223450e-01" purity="1.2318439036607742e-01" nType="-99"/>
            <Node pos="r" depth="3" NCoef="0" IVar="-1" Cut="0.0000000000000000e+00" cType="1" res="4.1735861450433731e-03" rms="3.2786655426025391e-01" purity="8.6412978172302246e-01" nType="-99"/>
          </Node>
        </Node>
      </Node>
    </BinaryTree>
    <BinaryTree type="DecisionTree" boostWeight="1.0000000000000000e+00" itree="25">
      <Node pos="s" depth="0" NCoef="0" IVar="11" Cut="-1.4264468848705292e-01" cType="1" res="9.6115395426750183e-02" rms="3.9171209931373596e-01" purity="4.9923995137214661e-01" nType="0">
        <Node pos="l" depth="1" NCoef="0" IVar="10" Cut="-7.1428561210632324e-01" cType="1" res="2.5859087705612183e-01" rms="3.3248481154441833e-01" purity="7.3049086332321167e-01" nType="0">
          <Node pos="l" depth="2" NCoef="0" IVar="5" Cut="1.7452284693717957e-01" cType="1" res="-9.7063027322292328e-02" rms="2.5327727198600769e-01" purity="8.5252173244953156e-02" nType="0">
            <Node pos="l" depth="3" NCoef="0" IVar="-1" Cut="0.0000000000000000e+00" cType="1" res="-2.8698287904262543e-02" rms="1.9278544187545776e-01" purity="4.3335657566785812e-02" nType="-99"/>
            <Node pos="r" depth="3" NCoef="0" IVar="-1" Cut="0.0000000000000000e+00" cType="1" res="-2.9356589075177908e-03" rms="3.7960982322692871e-01" purity="2.1346329152584076e-01" nType="-99"/>
          </Node>
          <Node pos="r" depth="2" NCoef="0" IVar="0" Cut="-9.9037688970565796e-01" cType="1" res="3.4011751413345337e-01" rms="2.9247191548347473e-01" purity="8.7839913368225098e-01" nType="0">
            <Node pos="l" depth="3" NCoef="0" IVar="-1" Cut="0.0000000000000000e+00" cType="1" res="-1.1649352964013815e-03" rms="4.7606045007705688e-01" purity="3.9128717780113220e-01" nType="-99"/>
            <Node pos="r" depth="3" NCoef="0" IVar="-1" Cut="0.0000000000000000e+00" cType="1" res="4.7644809819757938e-03" rms="1.7651107907295227e-01" purity="9.6316057443618774e-01" nType="-99"/>
          </Node>
        </Node>
        <Node pos="r" depth="1" NCoef="0" IVar="8" Cut="2.1345342695713043e-01" cType="1" res="-4.8021208494901657e-02" rms="3.8379067182540894e-01" purity="2.9409062862396240e-01" nType="0">
          <Node pos="l" depth="2" NCoef="0" IVar="11" Cut="1.2915545701980591e-01" cType="1" res="-9.2253148555755615e-02" rms="3.6372536420822144e-01" purity="2.2080430388450623e-01" nType="0">
            <Node pos="l" depth="3" NCoef="0" IVar="-1" Cut="0.0000000000000000e+00" cType="1" res="-8.3697191439568996e-04" rms="4.0365970134735107e-01" purity="3.3301603794097900e-01" nType="-99"/>
            <Node pos="r" depth="3" NCoef="0" IVar="-1" Cut="0.0000000000000000e+00" cType="1" res="-9.8908497020602226e-03" rms="3.2964682579040527e-01" purity="1.5098592638969421e-01" nType="-99"/>
          </Node>
          <Node pos="r" depth="2" NCoef="0" IVar="7" Cut="-2.3044639825820923e-01" cType="1" res="1.4230763912200928e-01" rms="4.0889173746109009e-01" purity="6.0943973064422607e-01" nType="0">
            <Node pos="l" depth="3" NCoef="0" IVar="-1" Cut="0.0000000000000000e+00" cType="1" res="1.2093463446944952e-03" rms="4.2355138063430786e-01" purity="4.8498582839965820e-01" nType="-99"/>
            <Node pos="r" depth="3" NCoef="0" IVar="-1" Cut="0.0000000000000000e+00" cType="1" res="3.4441584721207619e-03" rms="3.7873217463493347e-01" purity="7.1796751022338867e-01" nType="-99"/>
          </Node>
        </Node>
      </Node>
    </BinaryTree>
    <BinaryTree type="DecisionTree" boostWeight="1.0000000000000000e+00" itree="26">
      <Node pos="s" depth="0" NCoef="0" IVar="11" Cut="-1.4332261681556702e-01" cType="1" res="9.8693750798702240e-02" rms="3.9043727517127991e-01" purity="5.0148463249206543e-01" nType="0">
        <Node pos="l" depth="1" NCoef="0" IVar="10" Cut="-7.1481895446777344e-01" cType="1" res="2.5906637310981750e-01" rms="3.3000618219375610e-01" purity="7.3189210891723633e-01" nType="0">
          <Node pos="l" depth="2" NCoef="0" IVar="6" Cut="-2.4836480617523193e-01" cType="1" res="-9.1374330222606659e-02" rms="2.5298020243644714e-01" purity="8.5065588355064392e-02" nType="0">
            <Node pos="l" depth="3" NCoef="0" IVar="-1" Cut="0.0000000000000000e+00" cType="1" res="-2.9023643583059311e-03" rms="3.5998424887657166e-01" purity="1.9204379618167877e-01" nType="-99"/>
            <Node pos="r" depth="3" NCoef="0" IVar="-1" Cut="0.0000000000000000e+00" cType="1" res="-2.4498660117387772e-02" rms="2.0268121361732483e-01" purity="4.9179852008819580e-02" nType="-99"/>
          </Node>
          <Node pos="r" depth="2" NCoef="0" IVar="0" Cut="-9.9091154336929321e-01" cType="1" res="3.3883053064346313e-01" rms="2.9122164845466614e-01" purity="8.7911689281463623e-01" nType="0">
            <Node pos="l" depth="3" NCoef="0" IVar="-1" Cut="0.0000000000000000e+00" cType="1" res="-1.0417329613119364e-03" rms="4.7644165158271790e-01" purity="3.9550924301147461e-01" nType="-99"/>
            <Node pos="r" depth="3" NCoef="0" IVar="-1" Cut="0.0000000000000000e+00" cType="1" res="4.7441693022847176e-03" rms="1.7594005167484283e-01" purity="9.6342647075653076e-01" nType="-99"/>
          </Node>
        </Node>
        <Node pos="r" depth="1" NCoef="0" IVar="8" Cut="2.1345342695713043e-01" cType="1" res="-4.3263800442218781e-02" rms="3.8478717207908630e-01" purity="2.9753407835960388e-01" nType="0">
          <Node pos="l" depth="2" NCoef="0" IVar="11" Cut="1.2863902747631073e-01" cType="1" res="-8.7793685495853424e-02" rms="3.6509147286415100e-01" purity="2.2284550964832306e-01" nType="0">
            <Node pos="l" depth="3" NCoef="0" IVar="-1" Cut="0.0000000000000000e+00" cType="1" res="-7.7100063208490610e-04" rms="4.0464925765991211e-01" purity="3.3448410034179688e-01" nType="-99"/>
            <Node pos="r" depth="3" NCoef="0" IVar="-1" Cut="0.0000000000000000e+00" cType="1" res="-9.3084033578634262e-03" rms="3.3213537931442261e-01" purity="1.5391348302364349e-01" nType="-99"/>
          </Node>
          <Node pos="r" depth="2" NCoef="0" IVar="7" Cut="-2.3323756456375122e-01" cType="1" res="1.4616146683692932e-01" rms="4.0813168883323669e-01" purity="6.1525106430053711e-01" nType="0">
            <Node pos="l" depth="3" NCoef="0" IVar="-1" Cut="0.0000000000000000e+00" cType="1" res="1.2528202496469021e-03" rms="4.2422899603843689e-01" purity="4.8719999194145203e-01" nType="-99"/>
            <Node pos="r" depth="3" NCoef="0" IVar="-1" Cut="0.0000000000000000e+00" cType="1" res="3.4448893275111914e-03" rms="3.7837249040603638e-01" purity="7.2010493278503418e-01" nType="-99"/>
          </Node>
        </Node>
      </Node>
    </BinaryTree>
    <BinaryTree type="DecisionTree" boostWeight="1.0000000000000000e+00" itree="27">
      <Node pos="s" depth="0" NCoef="0" IVar="11" Cut="-1.4356580376625061e-01" cType="1" res="9.8590135574340820e-02" rms="3.8913837075233459e-01" purity="5.0050991773605347e-01" nType="0">
        <Node pos="l" depth="1" NCoef="0" IVar="10" Cut="-7.1469140052795410e-01" cType="1" res="2.5716423988342285e-01" rms="3.2875150442123413e-01" purity="7.3037266731262207e-01" nType="0">
          <Node pos="l" depth="2" NCoef="0" IVar="10" Cut="-8.5055649280548096e-01" cType="1" res="-8.8232427835464478e-02" rms="2.5038143992424011e-01" purity="8.3278402686119080e-02" nType="0">
            <Node pos="l" depth="3" NCoef="0" IVar="-1" Cut="0.0000000000000000e+00" cType="1" res="-3.2508488744497299e-02" rms="1.8178007006645203e-01" purity="3.6829821765422821e-02" nType="-99"/>
            <Node pos="r" depth="3" NCoef="0" IVar="-1" Cut="0.0000000000000000e+00" cType="1" res="-2.6461877860128880e-03" rms="3.8618159294128418e-01" purity="2.2181873023509979e-01" nType="-99"/>
          </Node>
          <Node pos="r" depth="2" NCoef="0" IVar="0" Cut="-9.9259173870086670e-01" cType="1" res="3.3616250753402710e-01" rms="2.9143062233924866e-01" purity="8.7837451696395874e-01" nType="0">
            <Node pos="l" depth="3" NCoef="0" IVar="-1" Cut="0.0000000000000000e+00" cType="1" res="-4.2672511190176010e-03" rms="4.5011517405509949e-01" purity="3.0373898148536682e-01" nType="-99"/>
            <Node pos="r" depth="3" NCoef="0" IVar="-1" Cut="0.0000000000000000e+00" cType="1" res="4.6617817133665085e-03" rms="2.0826542377471924e-01" purity="9.4624012708663940e-01" nType="-99"/>
          </Node>
        </Node>
        <Node pos="r" depth="1" NCoef="0" IVar="8" Cut="1.9724681973457336e-01" cType="1" res="-4.0191628038883209e-02" rms="3.8483938574790955e-01" purity="2.9933729767799377e-01" nType="0">
          <Node pos="l" depth="2" NCoef="0" IVar="11" Cut="1.2831899523735046e-01" cType="1" res="-8.6311444640159607e-02" rms="3.6385065317153931e-01" purity="2.1973964571952820e-01" nType="0">
            <Node pos="l" depth="3" NCoef="0" IVar="-1" Cut="0.0000000000000000e+00" cType="1" res="-8.0357625847682357e-04" rms="4.0361404418945312e-01" purity="3.3140280842781067e-01" nType="-99"/>
            <Node pos="r" depth="3" NCoef="0" IVar="-1" Cut="0.0000000000000000e+00" cType="1" res="-9.3181366100907326e-03" rms="3.3144789934158325e-01" purity="1.5138271450996399e-01" nType="-99"/>
          </Node>
          <Node pos="r" depth="2" NCoef="0" IVar="0" Cut="-9.9075877666473389e-01" cType="1" res="1.3540631532669067e-01" rms="4.1109412908554077e-01" purity="6.0239976644515991e-01" nType="0">
            <Node pos="l" depth="3" NCoef="0" IVar="-1" Cut="0.0000000000000000e+00" cType="1" res="-1.7185756936669350e-02" rms="3.2587051391601562e-01" purity="1.2212054431438446e-01" nType="-99"/>
            <Node pos="r" depth="3" NCoef="0" IVar="-1" Cut="0.0000000000000000e+00" cType="1" res="4.1043139062821865e-03" rms="3.3369705080986023e-01" purity="8.5672068595886230e-01" nType="-99"/>
          </Node>
        </Node>
      </Node>
    </BinaryTree>
    <BinaryTree type="DecisionTree" boostWeight="1.0000000000000000e+00" itree="28">
      <Node pos="s" depth="0" NCoef="0" IVar="11" Cut="-1.4132079482078552e-01" cType="1" res="9.9019184708595276e-02" rms="3.8706290721893311e-01" purity="5.0011444091796875e-01" nType="0">
        <Node pos="l" depth="1" NCoef="0" IVar="10" Cut="-7.1428561210632324e-01" cType="1" res="2.5684967637062073e-01" rms="3.2668626308441162e-01" purity="7.3051762580871582e-01" nType="0">
          <Node pos="l" depth="2" NCoef="0" IVar="6" Cut="-2.4963882565498352e-01" cType="1" res="-8.3806127309799194e-02" rms="2.4855917692184448e-01" purity="8.1691138446331024e-02" nType="0">
            <Node pos="l" depth="3" NCoef="0" IVar="-1" Cut="0.0000000000000000e+00" cType="1" res="-2.6287795044481754e-03" rms="3.5717594623565674e-01" purity="1.9080689549446106e-01" nType="-99"/>
            <Node pos="r" depth="3" NCoef="0" IVar="-1" Cut="0.0000000000000000e+00" cType="1" res="-2.5336274877190590e-02" rms="1.9810178875923157e-01" purity="4.5631613582372665e-02" nType="-99"/>
          </Node>
          <Node pos="r" depth="2" NCoef="0" IVar="0" Cut="-9.9136978387832642e-01" cType="1" res="3.3438366651535034e-01" rms="2.9073861241340637e-01" purity="8.7819194793701172e-01" nType="0">
            <Node pos="l" depth="3" NCoef="0" IVar="-1" Cut="0.0000000000000000e+00" cType="1" res="-1.0680911364033818e-03" rms="4.7571215033531189e-01" purity="3.9251214265823364e-01" nType="-99"/>
            <Node pos="r" depth="3" NCoef="0" IVar="-1" Cut="0.0000000000000000e+00" cType="1" res="4.6999412588775158e-03" rms="1.7614643275737762e-01" purity="9.6331149339675903e-01" nType="-99"/>
          </Node>
        </Node>
        <Node pos="r" depth="1" NCoef="0" IVar="8" Cut="1.8254926800727844e-01" cType="1" res="-4.1742343455553055e-02" rms="3.8238817453384399e-01" purity="2.9462870955467224e-01" nType="0">
          <Node pos="l" depth="2" NCoef="0" IVar="11" Cut="2.1570205688476562e-02" cType="1" res="-8.9200921356678009e-02" rms="3.5918769240379333e-01" purity="2.1136838197708130e-01" nType="0">
            <Node pos="l" depth="3" NCoef="0" IVar="-1" Cut="0.0000000000000000e+00" cType="1" res="-5.0351198296993971e-05" rms="4.0664517879486084e-01" purity="3.5750475525856018e-01" nType="-99"/>
            <Node pos="r" depth="3" NCoef="0" IVar="-1" Cut="0.0000000000000000e+00" cType="1" res="-7.5314305722713470e-03" rms="3.4062147140502930e-01" purity="1.7024846374988556e-01" nType="-99"/>
          </Node>
          <Node pos="r" depth="2" NCoef="0" IVar="1" Cut="-9.7509157657623291e-01" cType="1" res="1.2321280688047409e-01" rms="4.1350007057189941e-01" purity="5.8402264118194580e-01" nType="0">
            <Node pos="l" depth="3" NCoef="0" IVar="-1" Cut="0.0000000000000000e+00" cType="1" res="-6.3197333365678787e-03" rms="3.8391256332397461e-01" purity="2.3193928599357605e-01" nType="-99"/>
            <Node pos="r" depth="3" NCoef="0" IVar="-1" Cut="0.0000000000000000e+00" cType="1" res="4.2541893199086189e-03" rms="3.1207004189491272e-01" purity="8.5710138082504272e-01" nType="-99"/>
          </Node>
        </Node>
      </Node>
    </BinaryTree>
    <BinaryTree type="DecisionTree" boostWeight="1.0000000000000000e+00" itree="29">
      <Node pos="s" depth="0" NCoef="0" IVar="11" Cut="-1.4336910843849182e-01" cType="1" res="1.0007264465093613e-01" rms="3.8603764772415161e-01" purity="5.0042724609375000e-01" nType="0">
        <Node pos="l" depth="1" NCoef="0" IVar="10" Cut="-7.1481895446777344e-01" cType="1" res="2.5723463296890259e-01" rms="3.2488396763801575e-01" purity="7.3159897327423096e-01" nType="0">
          <Node pos="l" depth="2" NCoef="0" IVar="10" Cut="-8.5061967372894287e-01" cType="1" res="-7.4647709727287292e-02" rms="2.5452834367752075e-01" purity="8.6450569331645966e-02" nType="0">
            <Node pos="l" depth="3" NCoef="0" IVar="-1" Cut="0.0000000000000000e+00" cType="1" res="-2.9143109917640686e-02" rms="1.8685932457447052e-01" purity="3.8804329931735992e-02" nType="-99"/>
            <Node pos="r" depth="3" NCoef="0" IVar="-1" Cut="0.0000000000000000e+00" cType="1" res="-1.9566267728805542e-03" rms="3.8944029808044434e-01" purity="2.2801503539085388e-01" nType="-99"/>
          </Node>
          <Node pos="r" depth="2" NCoef="0" IVar="0" Cut="-9.9152249097824097e-01" cType="1" res="3.3296993374824524e-01" rms="2.8979486227035522e-01" purity="8.7882131338119507e-01" nType="0">
            <Node pos="l" depth="3" NCoef="0" IVar="-1" Cut="0.0000000000000000e+00" cType="1" res="-9.3729805666953325e-04" rms="4.7705978155136108e-01" purity="3.9689230918884277e-01" nType="-99"/>
            <Node pos="r" depth="3" NCoef="0" IVar="-1" Cut="0.0000000000000000e+00" cType="1" res="4.6776989474892616e-03" rms="1.7615017294883728e-01" purity="9.6330261230468750e-01" nType="-99"/>
          </Node>
        </Node>
        <Node pos="r" depth="1" NCoef="0" IVar="8" Cut="1.8544547259807587e-01" cType="1" res="-3.8908392190933228e-02" rms="3.8250869512557983e-01" purity="2.9599809646606445e-01" nType="0">
          <Node pos="l" depth="2" NCoef="0" IVar="4" Cut="-4.1942578554153442e-01" cType="1" res="-8.6125910282135010e-02" rms="3.6027899384498596e-01" purity="2.1260444819927216e-01" nType="0">
            <Node pos="l" depth="3" NCoef="0" IVar="-1" Cut="0.0000000000000000e+00" cType="1" res="-3.0900228302925825e-03" rms="3.7437117099761963e-01" purity="2.4099506437778473e-01" nType="-99"/>
            <Node pos="r" depth="3" NCoef="0" IVar="-1" Cut="0.0000000000000000e+00" cType="1" res="-3.3479996025562286e-02" rms="2.4360574781894684e-01" purity="5.9015139937400818e-02" nType="-99"/>
          </Node>
          <Node pos="r" depth="2" NCoef="0" IVar="1" Cut="-9.7509157657623291e-01" cType="1" res="1.2728707492351532e-01" rms="4.1105121374130249e-01" purity="5.8952581882476807e-01" nType="0">
            <Node pos="l" depth="3" NCoef="0" IVar="-1" Cut="0.0000000000000000e+00" cType="1" res="-5.4188375361263752e-03" rms="3.8996157050132751e-01" purity="2.4462713301181793e-01" nType="-99"/>
            <Node pos="r" depth="3" NCoef="0" IVar="-1" Cut="0.0000000000000000e+00" cType="1" res="4.2212395928800106e-03" rms="3.1014382839202881e-01" purity="8.5852146148681641e-01" nType="-99"/>
          </Node>
        </Node>
      </Node>
    </BinaryTree>
    <BinaryTree type="DecisionTree" boostWeight="1.0000000000000000e+00" itree="30">
      <Node pos="s" depth="0" NCoef="0" IVar="11" Cut="-1.4120641350746155e-01" cType="1" res="1.0135287791490555e-01" rms="3.8440561294555664e-01" purity="5.0057131052017212e-01" nType="0">
        <Node pos="l" depth="1" NCoef="0" IVar="10" Cut="-7.1469140052795410e-01" cType="1" res="2.5578770041465759e-01" rms="3.2368269562721252e-01" purity="7.3032182455062866e-01" nType="0">
