<?xml version="1.0"?>
<MethodSetup Method="MLP::MLP">
  <GeneralInfo>
    <Info name="TMVA Release" value="4.2.0 [262656]"/>
    <Info name="ROOT Release" value="5.34/38 [336422]"/>
    <Info name="Creator" value="han"/>
    <Info name="Date" value="Sat Apr 30 06:25:27 2022"/>
    <Info name="Host" value="Linux rz5950x.km.icrr.u-tokyo.ac.jp 4.18.0-305.3.1.el8_4.x86_64 #1 SMP Mon May 17 10:08:25 EDT 2021 x86_64 x86_64 x86_64 GNU/Linux"/>
    <Info name="Dir" value="/disk1/disk02/calib3/usr/han/mc/thermal_train"/>
    <Info name="Training events" value="6949538"/>
    <Info name="TrainingTime" value="2.82619605e+04"/>
    <Info name="AnalysisType" value="Classification"/>
  </GeneralInfo>
  <Options>
    <Option name="NCycles" modified="Yes">300</Option>
    <Option name="HiddenLayers" modified="Yes">N+1,N-1</Option>
    <Option name="NeuronType" modified="Yes">sigmoid</Option>
    <Option name="RandomSeed" modified="No">1</Option>
    <Option name="EstimatorType" modified="Yes">CE</Option>
    <Option name="NeuronInputType" modified="No">sum</Option>
    <Option name="V" modified="Yes">True</Option>
    <Option name="VerbosityLevel" modified="No">Verbose</Option>
    <Option name="VarTransform" modified="Yes">N</Option>
    <Option name="H" modified="Yes">True</Option>
    <Option name="CreateMVAPdfs" modified="No">False</Option>
    <Option name="IgnoreNegWeightsInTraining" modified="No">False</Option>
    <Option name="TrainingMethod" modified="No">BP</Option>
    <Option name="LearningRate" modified="No">2.000000e-02</Option>
    <Option name="DecayRate" modified="No">1.000000e-02</Option>
    <Option name="TestRate" modified="Yes">5</Option>
    <Option name="EpochMonitoring" modified="No">False</Option>
    <Option name="Sampling" modified="No">1.000000e+00</Option>
    <Option name="SamplingEpoch" modified="No">1.000000e+00</Option>
    <Option name="SamplingImportance" modified="No">1.000000e+00</Option>
    <Option name="SamplingTraining" modified="No">True</Option>
    <Option name="SamplingTesting" modified="No">False</Option>
    <Option name="ResetStep" modified="No">50</Option>
    <Option name="Tau" modified="No">3.000000e+00</Option>
    <Option name="BPMode" modified="No">sequential</Option>
    <Option name="BatchSize" modified="No">-1</Option>
    <Option name="ConvergenceImprove" modified="No">1.000000e-30</Option>
    <Option name="ConvergenceTests" modified="No">-1</Option>
    <Option name="UseRegulator" modified="Yes">True</Option>
    <Option name="UpdateLimit" modified="No">10000</Option>
    <Option name="CalculateErrors" modified="No">False</Option>
    <Option name="WeightRange" modified="No">1.000000e+00</Option>
  </Options>
  <Variables NVar="12">
    <Variable VarIndex="0" Expression="NHits" Label="NHits" Title="NHits" Unit="" Internal="NHits" Type="F" Min="4.00000000e+00" Max="1.25100000e+03"/>
    <Variable VarIndex="1" Expression="N200" Label="N200" Title="N200" Unit="" Internal="N200" Type="F" Min="6.00000000e+00" Max="1.69700000e+03"/>
    <Variable VarIndex="2" Expression="TRMS" Label="TRMS" Title="TRMS" Unit="" Internal="TRMS" Type="F" Min="0.00000000e+00" Max="6.98510790e+00"/>
    <Variable VarIndex="3" Expression="Beta1" Label="Beta1" Title="Beta1" Unit="" Internal="Beta1" Type="F" Min="-2.49203011e-01" Max="9.99779224e-01"/>
    <Variable VarIndex="4" Expression="Beta5" Label="Beta5" Title="Beta5" Unit="" Internal="Beta5" Type="F" Min="-2.32669592e-01" Max="9.96693611e-01"/>
    <Variable VarIndex="5" Expression="OpeningAngleMean" Label="OpeningAngleMean" Title="OpeningAngleMean" Unit="" Internal="OpeningAngleMean" Type="F" Min="1.20548880e+00" Max="8.96580582e+01"/>
    <Variable VarIndex="6" Expression="OpeningAngleSkew" Label="OpeningAngleSkew" Title="OpeningAngleSkew" Unit="" Internal="OpeningAngleSkew" Type="F" Min="-3.10384186e+02" Max="5.02098358e+02"/>
    <Variable VarIndex="7" Expression="OpeningAngleStdev" Label="OpeningAngleStdev" Title="OpeningAngleStdev" Unit="" Internal="OpeningAngleStdev" Type="F" Min="1.55534059e-01" Max="4.58755836e+01"/>
    <Variable VarIndex="8" Expression="MeanDirAngleMean" Label="MeanDirAngleMean" Title="MeanDirAngleMean" Unit="" Internal="MeanDirAngleMean" Type="F" Min="7.11865604e-01" Max="9.14363403e+01"/>
    <Variable VarIndex="9" Expression="MeanDirAngleRMS" Label="MeanDirAngleRMS" Title="MeanDirAngleRMS" Unit="" Internal="MeanDirAngleRMS" Type="F" Min="2.27185696e-01" Max="8.24280243e+01"/>
    <Variable VarIndex="10" Expression="DWall" Label="DWall" Title="DWall" Unit="" Internal="DWall" Type="F" Min="-1.00000000e+02" Max="1.68949121e+03"/>
    <Variable VarIndex="11" Expression="DWallMeanDir" Label="DWallMeanDir" Title="DWallMeanDir" Unit="" Internal="DWallMeanDir" Type="F" Min="3.44869843e+01" Max="5.09143750e+03"/>
  </Variables>
  <Spectators NSpec="1">
    <Spectator SpecIndex="0" Expression="Label" Label="Label" Title="I" Unit="" Internal="Label" Type="F" Min="0.00000000e+00" Max="3.00000000e+00"/>
  </Spectators>
  <Classes NClass="2">
    <Class Name="Signal" Index="0"/>
    <Class Name="Background" Index="1"/>
  </Classes>
  <Transformations NTransformations="1">
    <Transform Name="Normalize">
      <Selection>
        <Input NInputs="12">
          <Input Type="Variable" Label="NHits" Expression="NHits"/>
          <Input Type="Variable" Label="N200" Expression="N200"/>
          <Input Type="Variable" Label="TRMS" Expression="TRMS"/>
          <Input Type="Variable" Label="Beta1" Expression="Beta1"/>
          <Input Type="Variable" Label="Beta5" Expression="Beta5"/>
          <Input Type="Variable" Label="OpeningAngleMean" Expression="OpeningAngleMean"/>
          <Input Type="Variable" Label="OpeningAngleSkew" Expression="OpeningAngleSkew"/>
          <Input Type="Variable" Label="OpeningAngleStdev" Expression="OpeningAngleStdev"/>
          <Input Type="Variable" Label="MeanDirAngleMean" Expression="MeanDirAngleMean"/>
          <Input Type="Variable" Label="MeanDirAngleRMS" Expression="MeanDirAngleRMS"/>
          <Input Type="Variable" Label="DWall" Expression="DWall"/>
          <Input Type="Variable" Label="DWallMeanDir" Expression="DWallMeanDir"/>
        </Input>
        <Output NOutputs="12">
          <Output Type="Variable" Label="NHits" Expression="NHits"/>
          <Output Type="Variable" Label="N200" Expression="N200"/>
          <Output Type="Variable" Label="TRMS" Expression="TRMS"/>
          <Output Type="Variable" Label="Beta1" Expression="Beta1"/>
          <Output Type="Variable" Label="Beta5" Expression="Beta5"/>
          <Output Type="Variable" Label="OpeningAngleMean" Expression="OpeningAngleMean"/>
          <Output Type="Variable" Label="OpeningAngleSkew" Expression="OpeningAngleSkew"/>
          <Output Type="Variable" Label="OpeningAngleStdev" Expression="OpeningAngleStdev"/>
          <Output Type="Variable" Label="MeanDirAngleMean" Expression="MeanDirAngleMean"/>
          <Output Type="Variable" Label="MeanDirAngleRMS" Expression="MeanDirAngleRMS"/>
          <Output Type="Variable" Label="DWall" Expression="DWall"/>
          <Output Type="Variable" Label="DWallMeanDir" Expression="DWallMeanDir"/>
        </Output>
      </Selection>
      <Class ClassIndex="0">
        <Ranges>
          <Range Index="0" Min="5.0000000000000000e+00" Max="4.1000000000000000e+01"/>
          <Range Index="1" Min="9.0000000000000000e+00" Max="6.8000000000000000e+01"/>
          <Range Index="2" Min="3.0257683247327805e-02" Max="5.8916540145874023e+00"/>
          <Range Index="3" Min="-2.2215230762958527e-01" Max="9.6671497821807861e-01"/>
          <Range Index="4" Min="-1.9700342416763306e-01" Max="7.0824056863784790e-01"/>
          <Range Index="5" Min="1.4403716087341309e+01" Max="8.9658058166503906e+01"/>
          <Range Index="6" Min="-2.2682823181152344e+02" Max="2.3562615966796875e+02"/>
          <Range Index="7" Min="3.4083884954452515e-01" Max="3.7992652893066406e+01"/>
          <Range Index="8" Min="9.0351572036743164e+00" Max="8.8844726562500000e+01"/>
          <Range Index="9" Min="8.4177583456039429e-01" Max="7.1896743774414062e+01"/>
          <Range Index="10" Min="-1.0000000000000000e+02" Max="1.6828682861328125e+03"/>
          <Range Index="11" Min="7.2229217529296875e+01" Max="5.0303554687500000e+03"/>
        </Ranges>
      </Class>
      <Class ClassIndex="1">
        <Ranges>
          <Range Index="0" Min="4.0000000000000000e+00" Max="1.2510000000000000e+03"/>
          <Range Index="1" Min="6.0000000000000000e+00" Max="1.6970000000000000e+03"/>
          <Range Index="2" Min="0.0000000000000000e+00" Max="6.9851078987121582e+00"/>
          <Range Index="3" Min="-2.4920301139354706e-01" Max="9.9977922439575195e-01"/>
          <Range Index="4" Min="-2.3266959190368652e-01" Max="9.9669361114501953e-01"/>
          <Range Index="5" Min="1.2054888010025024e+00" Max="8.8392906188964844e+01"/>
          <Range Index="6" Min="-3.1038418579101562e+02" Max="5.0209835815429688e+02"/>
          <Range Index="7" Min="1.5553405880928040e-01" Max="4.5875583648681641e+01"/>
          <Range Index="8" Min="7.1186560392379761e-01" Max="9.1436340332031250e+01"/>
          <Range Index="9" Min="2.2718569636344910e-01" Max="8.2428024291992188e+01"/>
          <Range Index="10" Min="-1.0000000000000000e+02" Max="1.6894912109375000e+03"/>
          <Range Index="11" Min="3.4486984252929688e+01" Max="5.0914375000000000e+03"/>
        </Ranges>
      </Class>
      <Class ClassIndex="2">
        <Ranges>
          <Range Index="0" Min="4.0000000000000000e+00" Max="1.2510000000000000e+03"/>
          <Range Index="1" Min="6.0000000000000000e+00" Max="1.6970000000000000e+03"/>
          <Range Index="2" Min="0.0000000000000000e+00" Max="6.9851078987121582e+00"/>
          <Range Index="3" Min="-2.4920301139354706e-01" Max="9.9977922439575195e-01"/>
          <Range Index="4" Min="-2.3266959190368652e-01" Max="9.9669361114501953e-01"/>
          <Range Index="5" Min="1.2054888010025024e+00" Max="8.9658058166503906e+01"/>
          <Range Index="6" Min="-3.1038418579101562e+02" Max="5.0209835815429688e+02"/>
          <Range Index="7" Min="1.5553405880928040e-01" Max="4.5875583648681641e+01"/>
          <Range Index="8" Min="7.1186560392379761e-01" Max="9.1436340332031250e+01"/>
          <Range Index="9" Min="2.2718569636344910e-01" Max="8.2428024291992188e+01"/>
          <Range Index="10" Min="-1.0000000000000000e+02" Max="1.6894912109375000e+03"/>
          <Range Index="11" Min="3.4486984252929688e+01" Max="5.0914375000000000e+03"/>
        </Ranges>
      </Class>
    </Transform>
  </Transformations>
  <MVAPdfs/>
  <Weights>
    <Layout NLayers="4">
      <Layer Index="0" NNeurons="13">
        <Neuron NSynapses="13">
          2.0633102416656591e+01 4.7811441173624258e+00 -1.5752609425515235e+01 -1.0098836367554222e+01 2.9692541175188069e+01 -7.8917118558576691e+00 -3.1988361727799404e+01 7.6464159899593511e+00 -1.9414849183576727e+01 -2.0693041030534872e+01 1.1733632899700707e+01 2.2551359303636065e+01 -3.0005276585199276e+01 
        </Neuron>
        <Neuron NSynapses="13">
          -1.4313314781439210e+00 2.2171404083913131e+01 2.9340922611303704e+00 1.9006281574284881e+01 -9.2084253286610025e+00 4.1447525697635337e+00 2.8533682422106391e+01 -7.4123171567644111e+00 8.4997267430343868e+00 1.0495410762722784e+01 -1.2243051399502034e+01 -3.8303146040055718e+00 2.1219794987122750e+01 
        </Neuron>
        <Neuron NSynapses="13">
          -2.5670596780994942e-01 -3.9158901211355052e-01 7.3619357685591291e-01 -2.8923170794168779e-01 1.0812446072409486e-01 6.0447921617024403e-01 3.3171607318399587e-01 -1.2470325477699575e-01 7.2486743887027638e-02 8.9569441148034425e-03 -7.4936881831889479e-01 2.8867772216930798e-01 2.0671930165441071e-01 
        </Neuron>
        <Neuron NSynapses="13">
          8.2105897230881517e+00 1.4725021116148354e+00 -2.0692828110224877e+01 -1.4890637401478057e+00 2.5004133031325524e+00 -8.9895555138095862e+00 1.4188099442599691e+00 2.0425565595497095e+00 4.6416330994331272e+00 -6.2421538882448946e+00 -3.8552836822276810e+00 1.3069937500652541e+01 5.2236067216286921e+00 
        </Neuron>
        <Neuron NSynapses="13">
          6.4293422958022961e-01 1.0695007378246180e-01 -3.9999919609231432e-01 -5.9440893631000726e+00 -9.3108303998309228e-01 2.8979562958135818e-01 2.4421318015261391e+00 -8.4129880221133779e-01 -1.4273299068109133e+00 -1.4001686317878088e+00 -1.7971954274769384e+00 2.2349041675507486e+00 3.3990896097123655e+00 
        </Neuron>
        <Neuron NSynapses="13">
          5.9460995330796718e-01 -1.1706127517292304e+00 -1.4119081948784371e+00 -3.9001537150964827e-01 1.4787498133735106e+00 -3.6025450084896335e+00 2.1840069879646301e-01 5.1325083505731657e+00 6.5127576230037789e+00 -3.7123223920232675e+00 -5.4042619004463610e+00 -4.2962025779021014e+00 -2.6064880100326695e+00 
        </Neuron>
        <Neuron NSynapses="13">
          1.0418265669017055e+00 2.9646328766034968e+00 -7.8808519150113654e-01 -4.2497083149289647e+00 2.7873097317074960e+00 -3.3503280401392623e+00 -5.3276007512670989e-02 1.7105148986893501e+00 9.9371547744097946e+00 -2.5284737848991514e-02 2.8216934492154304e+00 -8.1618702285552018e+00 -5.1404756138868155e+00 
        </Neuron>
        <Neuron NSynapses="13">
          -1.3138296239954952e+00 8.4104588508633471e-01 6.9605419363542032e-02 -5.4457690185645804e+00 -3.2318102107590049e-02 -3.4438581598798095e+00 -2.1515747008767699e-01 -3.6190386777952872e+00 2.2896351943011144e+00 4.0104475226729752e+00 2.5707961366472349e+00 3.8637093389439072e+00 1.3260846093695760e+00 
        </Neuron>
        <Neuron NSynapses="13">
          9.9815237326316666e+00 4.0556069477245016e+00 -2.7193358273404023e+01 -3.5518249094804664e+00 -3.2406687506605508e-01 -1.2039150153134429e-01 3.6541063584090638e+00 3.5354487413892632e-01 3.4220064982540253e+00 -6.6465159349910028e+00 8.3419792163789419e-03 1.7031710551968423e+01 4.8221401331810627e+00 
        </Neuron>
        <Neuron NSynapses="13">
          3.2689619263027020e-01 5.0398398634655694e-01 -1.0843903727852100e+01 -1.6882453013058025e+00 2.7401928776958520e+00 -1.6047804248413866e+00 -5.2590670406215800e-01 1.5208595771166991e+00 3.7475359677313964e+00 7.8388556223543393e-01 -7.4435265715025201e-01 -2.9023937324368110e-01 2.9893026753535129e-01 
        </Neuron>
        <Neuron NSynapses="13">
          8.0413242692076337e-01 -9.5214761034126951e+00 -1.8341175393414977e-01 -2.3101491837360819e+00 -2.1140348583447821e-01 1.0294385612967578e-01 1.5853376927492655e+00 -1.7920070600544122e+01 2.3692466671009563e-01 1.4087077726669412e+00 2.9026273835027858e+00 -8.0439693345368213e-01 -4.8238746269518351e-01 
        </Neuron>
        <Neuron NSynapses="13">
          1.5763353927426473e+00 -5.7683148732312650e-01 9.2293080760032875e-01 -4.7683509932109680e-01 -1.7329212951752209e+00 1.0100175066726034e+00 2.9340229198001455e+00 1.2337481918572972e-01 3.0383502679058014e-02 2.4599235653138312e+00 -1.8330887766392995e-01 -6.2687624815084697e-01 -1.4928406855128535e+00 
        </Neuron>
        <Neuron NSynapses="13">
          1.8588899008217403e+01 1.8692124755802780e+01 -1.9403659229136842e+01 9.6028320595133421e-01 2.0320931917440834e+01 -9.3331244919178911e+00 -2.9876626940232973e+00 -1.8939411558394653e+01 -1.0303282201087944e+01 -6.8172262942113049e+00 8.1874896193725744e-01 2.0234577236515786e+01 -7.8788417471169163e+00 
        </Neuron>
      </Layer>
      <Layer Index="1" NNeurons="14">
        <Neuron NSynapses="11">
          -1.0810012775114830e+00 -5.3965477968417297e-01 9.2180350833787088e+00 1.0059674287720501e+00 3.7456462708127884e+00 4.5699706087345984e+00 1.2493855945838521e+00 -5.6412784605724626e+00 9.5850032819418812e-02 5.6487791607209790e+00 2.2130859125299533e+00 
        </Neuron>
        <Neuron NSynapses="11">
          -3.4224804818844992e+00 1.7129215975811771e+00 3.5501016234702152e+00 -3.0104309146583264e+00 -4.3526185458386832e+00 4.7207049916056087e+00 -1.8392473074800367e-01 1.2170670003006009e+01 -1.1375519467559467e+00 4.0327728343580400e+00 -4.8295789463306322e+00 
        </Neuron>
        <Neuron NSynapses="11">
          4.9622845344191271e+00 -2.7410670486917033e+00 -6.1253920729012794e+00 -1.3218065511774604e+00 -1.1850116501566081e+00 -7.5915206788364999e+00 -2.9475917807945087e+00 3.7240030691436550e+00 6.5698268268740074e+00 -1.3203003778332782e+00 -1.3308086373824413e+00 
        </Neuron>
        <Neuron NSynapses="11">
          -2.4276789768893479e+00 -4.5154779368245163e-01 6.6029858804277319e-01 -1.8254714161247607e+00 -1.8845768619094119e+00 3.1997813693212436e+00 -1.4988794200455604e+00 1.4136118534916553e+00 -2.7929927377331092e+00 5.9988202663205725e-01 -2.0707934230369984e-01 
        </Neuron>
        <Neuron NSynapses="11">
          -7.4505695151602112e+00 3.1859162657854667e+00 5.6223982739097087e+00 -6.2142884433349987e-01 5.9453654077804927e+00 3.3684724073718533e+00 -3.2807268937154838e-01 -7.7773270563839478e+00 4.4775697772360284e-01 2.3987470615841233e+00 2.6561033777793002e+00 
        </Neuron>
        <Neuron NSynapses="11">
          1.4105099065685405e+00 -3.3770046716816533e+00 -6.2434814986318301e+00 -1.5815136206170397e+00 -2.7906648536750174e+00 -5.0738902956087504e+00 1.3894942240505051e-01 9.2463856473478909e+00 -2.3686836312351664e-01 -5.8706494721536346e+00 4.0355655368404921e+00 
        </Neuron>
        <Neuron NSynapses="11">
          -4.8159963281478086e+00 3.8729977455573255e+00 -2.7079891587207614e+00 -1.0172182875266918e+01 -1.9084568646301421e+00 8.8045398261965369e-01 -1.1991605619633472e+00 1.2365540782932369e+00 -6.2174970688760416e+00 -3.1859783500649987e+00 -8.9511260025950912e-01 
        </Neuron>
        <Neuron NSynapses="11">
          1.7021987080824024e+00 -3.5320678427447181e+00 -2.8720511545847658e+00 1.9871730357170467e+00 -4.2858099580749967e+00 -2.6228393065832285e+00 4.4439719372342106e+00 7.6119569806948943e+00 -1.7567698011203741e+00 -4.4994945799317181e+00 -2.5482851307618035e+00 
        </Neuron>
        <Neuron NSynapses="11">
          2.8748476089251684e+00 -5.1364086346410325e+00 -2.4189559956388442e+00 -2.1559453693611443e+00 -4.7213851305907024e+00 5.3311382060705270e+00 1.8746713483736916e+00 3.2024856378227220e+00 1.1887685198852509e+00 -2.2070618246030445e+00 9.4628254670373182e-02 
        </Neuron>
        <Neuron NSynapses="11">
          5.9480716160351781e+00 -1.6826598706342208e+00 -2.6746915600231684e+00 -5.1394345246629480e-01 -3.4993948836806301e+00 -2.3830208376736777e+00 -2.9583690355092616e+00 5.7467322242262568e+00 2.1487303468078123e+00 -2.2130811012121612e-01 -2.1894571307956494e+00 
        </Neuron>
        <Neuron NSynapses="11">
          6.4340195267686362e-01 2.7940762740598885e-01 -2.1357545169563346e+00 -5.6181565353167018e-01 3.0685893679458682e+00 -1.3852714735449505e+00 -5.1855852592536555e+00 -5.1355196939017542e+00 2.3521068969816503e+00 -3.5545094811535254e+00 1.7114391534213405e+00 
        </Neuron>
        <Neuron NSynapses="11">
          -2.7862394003255346e+00 2.9901942205603187e+00 4.6929116059132712e+00 2.2686906315378126e+00 2.2826467058209992e+00 3.5813628283299641e+00 3.9531692308003139e+00 -1.2226908798156217e+00 -3.3009742701174594e-01 1.7541283677800517e+00 8.2316068898084416e-01 
        </Neuron>
        <Neuron NSynapses="11">
          -2.9635244437014857e-01 2.7566584735689692e+00 -5.9793868372719716e+00 1.3743672245682070e+00 -3.1868343432262902e+00 -1.5374860111663963e-01 -7.3280792796166923e+00 1.7593869017728765e+00 -9.4327169908144040e+00 -5.6901345447210145e+00 -3.8711031241580498e+00 
        </Neuron>
        <Neuron NSynapses="11">
          -1.9162336029467368e+00 -4.4864613298698339e+00 8.9044301791279523e-01 1.7769016847809118e+00 2.9897189001520302e-01 -3.7642042702439245e+00 6.1871922438945881e-01 2.2889574266840786e+00 1.8836129319737978e+00 -6.9806394604751243e-01 -4.7805138196538310e+00 
        </Neuron>
      </Layer>
      <Layer Index="2" NNeurons="12">
        <Neuron NSynapses="1">
          -3.2903247300534195e+00 
        </Neuron>
        <Neuron NSynapses="1">
          -3.4063420687923722e+00 
        </Neuron>
        <Neuron NSynapses="1">
          3.7174548883506522e+00 
        </Neuron>
        <Neuron NSynapses="1">
          1.9940066668491614e+00 
        </Neuron>
        <Neuron NSynapses="1">
          2.4100360296655530e+00 
        </Neuron>
        <Neuron NSynapses="1">
          -2.5901873863332243e+00 
        </Neuron>
        <Neuron NSynapses="1">
          2.2484262415078948e+00 
        </Neuron>
        <Neuron NSynapses="1">
          -4.9037343076700397e+00 
        </Neuron>
        <Neuron NSynapses="1">
          1.7395932962352416e+00 
        </Neuron>
        <Neuron NSynapses="1">
          -5.1742681358890925e+00 
        </Neuron>
        <Neuron NSynapses="1">
          -5.9568136183327587e+00 
        </Neuron>
        <Neuron NSynapses="1">
          2.6390164143246453e-01 
        </Neuron>
      </Layer>
      <Layer Index="3" NNeurons="1">
        <Neuron NSynapses="0"/>
      </Layer>
    </Layout>
    <InverseHessian NElements="112225" NRows="335" NCols="335">
      <Row Index="0">
        5.6373903140390482e+01 2.4844627893782274e+00 1.9210574057677100e+01 -4.0181571583006672e+00 -1.3637273355349342e+00 1.7210530660979856e+01 2.5475328530639825e+00 5.0690427802267806e+00 3.3316667326446137e-01 5.3009109618189294e+00 4.5563367235264920e+00 -9.5472441633222593e-01 9.2496622652016054e+00 -1.7807284907042735e+01 -2.3250570391723713e-01 -6.7021465757928942e+00 2.6194080317560342e-01 -2.9753922615538020e-01 -3.8419377001779580e+00 1.7448861458575191e+00 -2.9708151445726139e+00 -4.5121315716762922e-01 -9.9778514871198942e-01 -1.1392481411304278e+00 -4.8982010708324086e-02 -2.6245735482090566e+00 -2.9638654253058633e-01 8.8427696905288566e-03 -3.7700277248252381e-02 9.5067987489632633e-03 7.5962249864083980e-03 -7.2374535201339463e-02 5.9224070017204117e-02 -1.1177110796539436e-03 1.3507771819703002e-02 -3.5762557355547439e-02 1.0198599409411618e-02 -2.2912855197373391e-02 -2.0585721863496356e-02 2.4320865267466232e+00 -2.2551801761543089e-01 -9.4348300802070473e-01 5.9071135371115435e-01 3.7066908210754806e-01 -6.7328038571288662e-02 -7.4519315455493984e-01 -2.0289589196476193e-02 -1.4138905363147458e-01 2.1196045912959538e-01 -2.9404313114993413e-01 -1.0882335615762107e-01 -5.3236865352295271e-01 -4.5818901316537741e-01 3.1125087494648818e-02 -1.8337806857599981e-01 -4.1100772896426212e-02 -3.7390392306159537e-02 5.6446836102556741e-02 2.2708133448415313e-01 -1.7459718300662425e-02 5.0137298969682040e-02 -6.2508807203997763e-02 -6.9105421652012777e-02 -1.4367730450752847e-02 -7.0375978089593741e-02 3.6889463586200189e-01 -8.7254328417420313e-02 -4.1635027794628909e-02 -1.8669771254228196e-01 1.3469696353129659e-01 1.6312949049292957e-01 1.0663976974984801e-01 3.1390886952517683e-02 -1.5500851340411537e-01 3.1687693153467991e-04 -1.2780426115842403e-02 1.3834745954679928e-02 2.0723370894641935e-03 8.2131158406615223e-01 2.3882076088059423e-02 1.2857725656610680e-01 -8.7741728752884190e-02 1.7164455663607958e-01 1.4502298991101159e-01 1.0456898942347087e-01 -9.6778210177164425e-03 -3.0233288240815970e-01 1.7812793521893588e-01 -3.6125271831341843e-02 1.7429183609276280e-01 -5.5896457416548639e-02 -6.4722869408843398e-01 -2.5986039383145376e-02 -8.2402442580895185e-02 -5.4165105656491797e-03 -9.6106585815464662e-02 2.2448716051338014e-01 4.6077595459598941e-02 -9.9963047274106542e-02 -6.6637424808416668e-02 2.2470995506597535e-02 -2.5075892076925177e-02 -1.4222423738360690e-01 -5.9400555728672727e-02 2.5670406452750347e+00 -1.4757697604752537e-01 -1.0854841928169208e+00 6.9025323460638155e-01 2.8884427872888929e-01 -4.9680369449935669e-01 -5.5800603880700606e-01 -5.4196949916273773e-02 -1.6557622995000659e-01 1.8362029683541836e-01 -3.1904693916591431e-01 -1.7571593707657596e-01 -5.8975602207478972e-01 2.5790103796640368e-01 -3.1284261670385449e-02 -2.9387180488008352e-01 8.6029874196366193e-02 1.8170058356365934e-01 -2.1074812602210276e-02 -1.0351547790080134e-01 -1.0905322937515116e-02 1.0217789198648079e-02 1.0471324472513023e-01 -1.5724770526536355e-02 1.0093347467901068e-01 -1.0085973761506350e-01 -4.2743870312876409e-02 -2.1054920102127200e-02 -4.0323823243104240e-02 -6.4655028073818954e-02 -1.5914351239890552e-02 2.5446797055751591e-02 1.8523774507079438e-01 -3.1498081899386854e-02 -2.6029051286699967e-02 2.6315590267568800e-02 -4.5034907350713360e-02 5.2835310678535752e-02 -2.0354047626668231e-02 -2.3145660119324407e-01 -1.1897563956186269e-02 -8.5203029761305171e-02 -7.8281815574264779e-02 -5.2186177465507161e-02 -6.7804410665881498e-02 2.8608996885037929e-01 -2.9710756132028227e-02 -5.8046756184337696e-02 6.2875083438846069e-02 -8.0414683955905897e-02 3.5135040829177358e-03 -2.7342477328751585e-02 3.8085791352027634e+01 2.2659503942059720e+00 1.2157784598877548e+01 -3.7270686403762880e+00 -1.6365546281746486e+00 1.3512692132234971e+01 4.4354042688992568e+00 2.0212972770599897e+00 -1.6699723020038637e-01 4.3475056753252126e+00 3.2926362513773775e+00 -9.5680290720545358e-01 6.4167490780646892e+00 -2.5613394672044831e-01 1.8916710922004154e-01 -4.4793323223244546e+00 -1.1964322404136658e+00 -1.1447861629551288e+00 -2.1513662036005829e+00 -9.7582597147575001e-02 3.0461008293935485e+00 -6.3054797368123761e-01 -3.1254623869255833e+00 -8.0351376797959695e-01 3.9804197187539581e-03 7.3787476372419225e-02 -4.3321060571585579e-02 3.3425953758346427e-01 6.3371681005080749e-01 -5.8217583766131398e-03 8.5789061397645083e-02 -7.5509464242271551e-01 7.2356193847600281e-03 -5.1954481401880526e-02 -1.4687403140181701e+00 -2.3578148485235866e-02 -7.5977065508394170e-02 5.9111351342461038e-02 3.8573936341423476e-02 -3.2917376750117966e-02 -1.2901009593524337e-01 -8.1254951638682543e-02 -1.7162436213803611e-01 -1.8466144450904776e-02 1.4507201568815742e-01 8.8685308993253109e-02 -2.2771710997895364e-02 -9.1264197846414152e-02 1.1186478250370036e-01 -1.2780808093013779e-01 -1.5388513902023782e-03 3.7628593102852026e-01 -3.3778546669697374e-02 -1.7469359385504757e-02 -9.8007354655038612e-02 1.5781013666116783e-02 -1.6628388470696365e-02 -9.5441662486258627e-02 2.2859410422526184e-02 -2.8214338711649722e-01 5.1629961496526744e-01 -3.2642597545749003e-01 -5.8640807659981720e-01 7.0914265636464346e-01 7.5179157996402335e-01 3.2356057341096101e-01 -1.3486733386287186e-01 -8.8656608694318351e-02 6.3022399614593883e-02 -1.1387842041717566e-01 -4.2836537965786015e-01 1.1652974206932898e-01 -8.7948173809230923e-02 -1.9438562649497904e-01 -1.6881279743566879e-01 -4.0756791696470218e-01 -3.8182963597708675e-02 -5.5259863808488630e-02 -1.4196611310043938e-01 5.5313399040170275e-01 -6.5781242781014038e-01 2.8074467937914411e+00 2.0417525078520304e+00 9.0115089217558542e-01 1.2576842179287864e+00 4.5558114507339109e-01 -1.4968443144988666e+00 9.9172842406263995e-01 2.0580368875858670e+00 4.4313896998133018e-01 -3.6432101694927610e-03 -1.7145782290632350e-01 2.4571266460304386e-02 -1.0039168426717682e-01 -9.7720395575915930e-01 1.1541877186710392e-01 -1.9529655717291736e-02 -4.9181067983228104e+00 -4.6880288359131189e-02 4.4990707626948456e-02 -3.5927242977095375e-02 1.0714789765066152e-01 -3.0346272833809829e-01 -2.8570876270387263e-01 -4.9528370932180288e-01 -2.3764832923520585e-01 8.6416945543706658e-01 -5.3224910392775726e-01 -1.7121129678195868e-01 -3.2999360224993235e-01 -9.9686811399282732e-02 8.0539722685041504e-02 -7.2330123006838942e-02 -1.3340244894027631e-02 -1.4983107807655216e-02 -7.1526666259127070e-02 2.8325007314518824e-01 1.1434167770206516e-01 6.4933821185209517e-02 -3.0830764873933059e-01 -3.2545620361887906e-03 5.1464733712070942e-02 2.7423918455593022e-01 -6.6878940134151854e-02 -2.0433683661201602e-02 -6.8015730274095132e-02 8.6071627939879214e-02 -1.9641728789452984e-01 2.5428268065353254e-02 -8.6440063254568766e-02 9.7923411625037815e-02 3.5687965989735781e-03 4.1327116935817365e-02 -5.2021122373609785e-02 -1.0205051226519490e-01 2.1700900995061490e-01 4.1041618535789759e-01 1.1695229971492438e-01 1.2298160826136417e-01 8.0000255526576858e-02 2.0455415006469480e-01 1.5612602221468208e-02 3.1538484626694618e-02 6.6887554584645237e-02 -2.7927256371719222e-02 2.1951331365027132e-01 -2.8325860555321292e-01 -6.0253255137795247e-01 -5.8181092713775096e-01 -1.7556724506839894e-01 4.0103386981547795e-01 -7.9374351859352021e-01 -1.6743036824915691e-01 -3.4833564303859577e-01 -1.7620387465274823e-01 1.9051951534521150e-01 -2.7311934721645503e-03 1.8890490243961766e-01 5.8615145820668602e-01 -1.2772468243160695e-02 8.2555304015050845e-02 -2.2161844448983192e-01 -3.8075704360288398e-02 -2.8813812439847641e-01 5.5581326703384726e-02 2.3546057665555153e-01 1.9480007978444647e-01 7.8341836628490175e-02 -7.9020784045569226e-03 -5.2132811625169673e-01 8.0104980336105747e-02 5.6959855173927432e-02 4.1733213031409222e-01 4.9088745558221181e-03 -2.9596238880067460e-03 -6.5695240465846239e-02 2.2357014503472983e-01 6.1263121286074806e-03 4.7763231274657869e-03 
      </Row>
      <Row Index="1">
        2.4844627936499668e+00 2.0553717809015865e+01 8.0251416365830366e+00 -1.0862004137449446e+01 1.6911656104703925e+00 2.8149997017225252e+00 2.0983478372619047e-01 9.2654656754058902e+00 1.3939107363043997e+00 -3.7520098967231128e+00 3.5508533070378396e+00 1.0711446166216183e+00 3.4452820317725887e+00 -3.2756893114332630e-01 -8.5470637722099205e+00 -2.3742798735208024e+00 1.7598267755128019e+00 -2.6133338626252250e-01 -5.9298771021637364e-01 -3.6068426191595965e-01 -4.5423331411392116e+00 -4.6971731808191530e-01 1.1754802599114211e-01 -2.9315936184229843e+00 -8.4686393460997811e-01 -8.7294070544227909e-01 -4.4874359150636426e-03 -5.8485405964402160e-02 -7.7201527891665490e-03 6.4557327034382148e-02 -2.8631211748871808e-03 -1.1788579581543248e-02 9.5587923635578886e-04 -3.0009362972365207e-02 -1.0519534517571259e-02 7.6452330895802473e-03 -3.0881115373453498e-02 -9.5792141867890451e-03 -2.7526323743793130e-02 2.6993478778516600e-02 -4.6243023826513591e-01 -4.5920794838749190e-01 4.9239862084805908e-01 3.6516639146085009e-02 -1.1029414143143401e-01 7.6653612499598789e-02 -3.1207147163027937e-01 -3.3674819576097526e-02 5.0189223698599461e-02 1.4165996479074128e-02 1.2419487651052930e-01 -7.6004797378950495e-02 -6.9667706533223517e-03 -8.8175773288770687e-02 -5.1385590714189328e-02 1.5128686395621077e-01 -1.9889120321536054e-02 -2.2867543492782527e-02 -4.6363108714655710e-02 2.9759733873092262e-02 2.7771828567986247e-02 1.7580795806311333e-02 -3.7724090247698530e-02 3.7570504524901349e-02 2.7069211092879186e-02 8.5976370034336613e-03 1.3459339443890334e-01 2.8180911782983403e-02 1.1831663662441527e-01 6.6587794362615416e-02 -7.0021451782695587e-02 4.4314952414604064e-02 1.9273657775758535e-01 1.0263180257338944e-01 5.2096559009773502e-02 -4.1536085722253091e-02 -1.0455842427156367e-01 -6.6919089936903153e-02 4.8063214313493918e-02 3.2236570183026803e-01 8.3249044351653215e-02 1.4054873849548488e-01 1.0628322782253397e-01 -2.6083190721420152e-02 4.7094955908060093e-02 1.0657308694412532e-01 1.3763721350243940e-01 7.6396430997273626e-02 6.2345762534968180e-02 -1.0715358503720107e-01 -4.0302724769012532e-02 1.9746110590305673e-02 -1.2671094108726669e-01 -1.7193975237544165e-02 1.9761445942191641e-01 -1.8375743999035202e-02 2.4515307319722152e-02 -6.5083133670400806e-03 -1.8277313275967499e-01 1.0682709656241490e-02 9.7347685178520438e-03 3.5917457766369287e-03 2.5315931137008002e-02 3.8985556548999004e-02 3.9439224557613867e-02 -5.6746801969091465e-01 -5.8287251543612428e-01 5.6042280452863869e-01 -3.5748333863945179e-02 -1.2854303198374162e-01 5.0141182113738039e-02 -4.7466326544657211e-01 -1.2307619865581609e-01 4.5962679805594098e-02 -1.4557260808695793e-03 1.6930456406603062e-01 -1.5632180107206350e-02 7.4702872990858420e-03 -3.1185122551006500e-02 -1.6004611511495914e-01 1.4963934944548826e-01 8.0480124808252743e-02 -3.9241086961723681e-02 1.9488066082012871e-02 -3.7636406628641428e-02 5.9073779032717696e-02 5.2974697428727124e-02 5.5079621658171193e-02 1.0735641375623443e-02 -2.6442468224967708e-02 7.3472428009881408e-03 2.6381902614183556e-01 1.1067490206882188e-02 1.1364007710749691e-02 1.7675078714527934e-02 2.5193082153121521e-02 -1.5216704416044963e-02 -4.4071332868896218e-01 2.8644154365137939e-02 -2.7760507840090091e-02 -1.3727886294561082e-02 1.1411348785438289e-02 1.3075895498822328e-02 3.1077503680117691e-02 -6.6678459588846481e-02 1.2452777377416723e-02 2.3081109512190251e-02 -2.9710634528155262e-02 -9.2583597186099986e-03 -1.4922134202560916e-02 -3.7922743810124948e-02 -9.1219100055981023e-03 1.6693870396024955e-02 -4.0142437541267867e-02 -2.4044833854575759e-02 9.2753714880271440e-03 2.1454649043286902e+00 1.2096826709451125e+01 5.5211709890226439e+00 -8.7833489382984755e+00 1.4286541979202299e+00 2.1960273422042054e+00 -1.6127727202045006e-01 4.2046932147978264e+00 9.3325914655511855e-01 -3.5468880627490327e+00 6.5909994746562739e-01 2.7397130764359279e-01 2.5685944164295997e+00 -1.1412406471894454e-02 -6.8531568329661008e-02 2.4181013242841276e-01 1.9916294232061862e-01 -1.7052662820976272e-01 -1.8257890013935629e-02 -2.3109365741555221e-01 2.1925638781749512e-01 -8.8821848673896198e-02 8.7902943924080823e-02 -1.1595494974278964e-01 -7.2645894052482674e-02 -2.7493211053226461e-02 3.1845501017271294e-02 -1.2964802489152127e-01 8.6142375527088588e-01 8.1233395003767583e-02 9.6054813384189863e-02 -1.7594410692151350e+00 6.6501973615398668e-02 -2.4125722959119189e-02 4.7718915984763299e-01 -1.4462673465574751e-02 1.3344575557559574e-01 -1.2209718380188872e-01 4.1375766737205485e-02 -2.4791107002210794e-02 1.7269454676089169e-01 1.8702140361719799e-02 -4.0735303057715055e-02 -1.5810760968767434e-02 3.1738970888029239e-02 -1.1093071767181684e-01 -6.5624385679622310e-02 3.8058727367752399e-02 5.9693221311476141e-02 -7.7005401597345507e-02 7.3778257245076528e-02 -2.1007298881727587e-02 7.2373955121858208e-02 3.3400582828344683e-02 -2.7838903520600922e-02 1.3969615763384924e-01 4.5703745115002636e-02 -4.2626386975815507e-03 -1.9228760237845821e-01 -6.8436162820868507e-02 -1.3742646395942382e-01 -4.8931135629242462e-01 8.5447187185342166e-02 -2.3558305156702808e-01 2.5559496113271751e-01 -2.3254948783615537e-01 -4.2160006333209388e-01 -1.2924636096683528e-01 9.8709703928517356e-02 1.5247630256246758e-02 -2.0751441037187668e-01 1.2410409743746076e-02 8.9048534722869555e-02 9.1058318016295048e-02 1.6123984522292351e-01 1.8988122211826219e-01 3.3210593975005587e-02 -2.4615008068879429e-01 -7.4498198909639712e-02 -5.0631762974492345e-02 -3.6216754907059896e-02 -1.8613948005871706e-01 -3.8628457631831314e-01 3.8292786278192548e-02 -7.2422192862940715e-02 5.2568119494142307e-02 -1.4659037031203481e-01 -7.3359680632877344e-02 -9.4098700059756846e-02 1.3375554857290534e-01 -3.1052910178923809e-02 -8.9043249486871368e-02 4.0900628606890699e-02 6.2408490823237406e-02 2.0617205104625269e-01 4.0615083736172730e-02 -2.5415725414776802e-01 -2.5782828817032453e+00 -6.6934243012108291e-02 5.6346436146588186e-02 1.4422126008685154e-01 8.1656800466920546e-02 2.3135090105205153e-01 -8.7985678716662852e-02 2.2710597763909557e-01 1.8234954323378866e-01 -3.3403873594889566e-01 3.1512706825695536e-01 -2.2926949880892697e-01 2.2910909097497956e-01 2.6148940092994333e-01 7.3633745860471000e-02 1.6732104448620722e-01 -5.5481285939107283e-02 -6.7976268100675863e-02 4.5705398653371976e-02 2.0675094243255515e-01 1.0677938959790556e-01 1.4140255457369832e-01 1.5340368287452644e-01 8.3371391867794631e-02 9.2941396626731787e-02 -7.5910792517911219e-02 3.3980579228483965e-02 -1.5368759809013310e-02 -7.5079987029014195e-03 -3.3589609930339881e-02 -2.5055216949596604e-01 4.2205200928102649e-04 -2.2559845244507570e-01 -2.1736859492468175e-02 6.6797102153410393e-02 1.8597401757761944e-01 -6.7859281046960263e-02 1.1382128233423661e-02 -2.4582505918738040e-01 6.2691180547177372e-02 1.8733405707790141e-02 -9.7771325775414919e-02 1.5884234140636444e-02 -1.8319239766094952e-02 7.7586277210200727e-02 2.6068594206432705e-02 -5.2646334101482672e-02 5.8280961821374988e-02 2.5195274332099393e-02 9.2456392357886052e-02 -3.9620117950545222e-02 2.5127569590661869e-02 1.2121927188817461e-01 -2.1436619280795993e-01 1.2442966875366146e-01 -1.5345046900031711e-01 9.0508989942357010e-02 2.9170195496933160e-01 1.0045642939944788e-01 -1.9718090953683975e-01 1.8617297313753767e-01 1.4225165018637265e-01 1.4028604027014335e-02 2.0092594915730899e-02 8.5620889750672724e-02 -3.9098001525584181e-02 -1.2459721526422118e-01 -7.7086268061119512e-02 -1.4904063224408048e-01 1.2041955102079971e-01 5.1656236863304061e-02 -1.2508753155913999e-01 -7.2037235852445258e-02 -3.3275225356643193e-02 2.8966759682368481e-01 -7.2877423167048483e-02 6.8605067392308872e-02 1.2435152854018217e-01 -6.4292312284812914e-02 2.7209649921890833e-01 1.4832290732805120e-02 -1.1627701698828519e-01 
      </Row>
      <Row Index="2">
        1.9210574067037562e+01 8.0251416340571780e+00 6.6205518517998044e+01 8.4951578719525003e+00 8.7512634376564709e+00 2.1783077627009781e+01 3.8193716378073983e+00 -1.4986642122686789e+00 1.5656425466817815e+01 -9.5648658197284604e+00 -5.7032507607374106e-01 1.7113598368299105e+01 5.7900815963380676e+00 -6.0010192600210877e+00 -3.0049278734470777e+00 -1.6328148006558358e+01 -2.7069005502521790e+00 -2.0586810408918992e+00 -6.7619676070735508e+00 -1.5326190671521187e+00 4.8564867492605002e-01 -3.6659583548885033e+00 3.9110561426960389e+00 7.7047439804423723e-01 -3.6755644575426261e+00 -1.2805138628974948e+00 -5.8739220516665712e-02 -1.1887910110205908e-02 -1.3361479787803809e-01 -1.8262609143356201e-02 -3.6127432023200338e-02 -6.3150642282309183e-02 1.1222789256007001e-02 5.2521292734975557e-03 -4.6494452447233721e-02 4.9587799153816337e-02 1.2237484928490083e-02 -8.2905181351629498e-02 -3.1086433530926556e-02 2.7767025407857748e-02 -2.3747895561008714e-01 -4.2715296246692578e+00 1.7393224492125858e-01 -9.8132139605662472e-02 -8.1891863798713427e-01 -3.3480060316586191e-01 2.6185015538130241e-01 -2.3609062895447352e-01 4.8013923758533417e-01 2.1144733810529681e-01 -9.1981237453743603e-01 -1.9285062663596442e-01 -1.6248281274112675e-01 -9.2611389632995089e-02 -3.3426493185955714e-01 -2.7115612889168111e-02 4.2753918876602126e-04 -1.2184656574643871e-01 -1.4681503336128818e-02 5.8209224714400098e-02 -5.2599026098146914e-02 1.1321948290335421e-01 -3.9464073653027287e-02 7.1999365271352866e-02 2.3470503410681881e-02 2.1683081603501048e-02 -1.2371460645648660e-02 9.9040253884699128e-02 -4.7852064808971750e-02 9.9735546710643830e-02 -1.0499671163909513e-02 -2.3496446044780045e-02 -1.4243627669011216e-01 2.6664022029163736e-02 1.6917258728676698e-01 9.8868818747242959e-02 1.3278112657306762e-01 -4.9359582333822427e-02 7.9468455738235466e-02 1.0534891422139236e-01 4.9962622352578046e-01 -1.3116976133060931e-01 9.0790581508300328e-02 9.4659938261064724e-02 -5.0801325206343437e-02 -8.3105663707295829e-02 -2.0131731192526647e-02 1.0949372727809187e-01 2.9482581776155792e-01 1.0470758031990446e-01 -1.1968621795440781e-01 -9.1537397077483207e-02 3.2632553685703669e-02 -7.9740536485957747e-02 -8.5029990922597054e-02 -9.8957017436918426e-02 -1.4130580462814046e-01 3.1950014108120706e-02 3.4130128610951188e-02 -8.8181581523992136e-02 7.0429442404610243e-02 5.7854510217947741e-02 -2.0370767517100152e-01 -3.5514725025736160e-02 -2.8780972676920508e-02 -2.2549608227680623e-01 -5.2362582783323042e+00 2.2011445150402514e-01 -2.3022616919612149e-01 -7.5296404454367649e-01 -3.7126988592075899e-01 3.6173021148683809e-01 -4.0381478497708567e-01 5.2001745816553435e-01 2.9331890174577990e-01 -1.0614546391955451e+00 -1.7411531640931011e-01 -2.1245817605603984e-02 -1.9640334523416514e-02 -1.5249094886661725e+00 -6.7521307390064511e-02 9.7511148894753763e-02 -1.4426794999954495e-01 -5.5440994053063880e-02 -3.8471468917988028e-02 8.2224740553719686e-02 2.0600450279252036e-01 1.3295418524615274e-01 4.2487316780480816e-03 -2.7840364884087032e-02 -6.9677771002357725e-03 2.0540490109440318e-01 4.7455206510312209e-02 -4.6843552484601730e-02 1.4800737838981900e-03 5.6334822924536052e-02 1.5097148201888927e-02 5.1135559805089770e-02 -1.1023075323428805e-02 -3.6771126286300200e-02 -3.5904070720021108e-02 6.3452214452557110e-02 -4.0295684795869369e-03 -5.9182971784477234e-02 -1.6630266971064178e-02 1.8020274942498617e-02 -4.8538749768609057e-02 -1.2094446164231665e-03 8.4459430299529403e-03 -5.7082556059633305e-03 -4.4549184241160056e-02 -2.8429096256801553e-02 5.0521202970287282e-03 -5.6257222148695218e-02 2.8231717787996630e-02 8.0664481431352436e-03 1.2948253859171716e+01 5.0890540150239145e+00 4.8544920027163954e+01 5.6526557327906488e+00 6.6244365460712684e+00 1.4686725267804768e+01 2.2294704320842023e+00 -9.1097749119719396e-01 1.1842174337601506e+01 -5.4697798066666650e+00 2.1259519019751139e-01 1.3292099072952180e+01 4.4227255276859898e+00 -4.9547192490719277e-01 2.0532122590357282e-01 1.7033367541322253e-01 -1.8338587831851091e-01 -1.8454745002983142e-01 3.4410741088742913e-01 5.3749130902808595e-01 2.8837276452692251e-01 -7.7354688293327711e-01 -1.2631249921161070e-01 -2.3824368026349774e-01 -2.3090398024693978e-01 1.6152069734958763e-01 2.8366548567260352e-01 -4.0065951921849141e-02 4.6433532221735963e-01 2.0029556613142874e-01 -2.7396332354107156e-02 -1.3593358488662943e-01 -9.2580502729585012e-02 1.0883866444866186e-01 -3.6510937866525239e-01 -1.8152984710835751e-01 1.9995678198749944e-01 8.8023249926329483e-02 1.0221760937579605e-01 1.3500535449328555e-02 3.6424891509477253e-01 -1.9937448147836268e-01 -1.7613420029605820e-01 -7.8710662098385065e-02 1.3152373793549166e-01 2.9587233254302170e-01 7.6143260127396903e-02 -7.0771322339188425e-03 1.0652729490638156e-01 -8.8635258700277442e-02 3.7046417315211022e-02 -1.4427074691702968e-01 -2.1123274530554936e-01 -7.1509441558736953e-03 1.4705380226862796e-01 4.2957448939542689e-02 2.1916893781985713e-01 -6.3133780317824850e-01 3.6961746288208436e-01 5.1739637906905322e-01 4.6039019874230824e-01 -2.5904269230683941e-01 6.7273641216360436e-01 8.9635713612362622e-01 1.5375221631521496e-01 -6.7849246595885782e-01 -1.1136510938508026e-01 -2.9563198210678365e-01 -7.2628378280387151e-03 -2.1301988158577256e-01 -1.8160707940296916e-01 -7.1912287531204377e-02 -1.7547650816108984e-01 1.6469984543956961e-01 1.0301272398712390e-01 2.0692633927725890e-01 -1.1411751284185501e-01 -1.8380229238679102e-01 4.9826540850722972e-01 1.4506868817096130e-01 -8.0682870093762918e-02 3.3243065649155135e-01 -7.2783951119680168e-02 8.4066994747262758e-02 6.0288017001119631e-02 -2.8147290221957721e-01 -2.1473243942195896e-01 1.5194199060752450e-01 1.5077441312724160e-01 2.9153195613188387e-01 7.7576864908263321e-02 -1.7774710584560671e-01 -1.7469711003485400e-01 -4.6550000346067488e-02 -3.8153889359021920e-02 -2.5977318565142925e-02 -4.8986299398802245e-02 -2.8430382918003261e-02 6.8022511025766619e-02 -4.1708404248836040e-02 -6.9229594895220359e-01 1.0116016942814854e-01 -1.4699683863886337e-01 1.4492740586803943e-01 -4.2694556626061864e-01 -1.4258295453340786e-02 -1.6605971947715381e-01 -6.5948176783866597e-01 -2.3681121062072641e-01 2.9323404193500835e-01 1.7508550440084758e-01 7.3918496341035134e-01 3.5674525664503953e-01 -9.8974355797376123e-02 -2.5841656308140148e-01 -4.8437675250681433e-02 2.0287211353554080e-01 -9.3497066437029819e-02 2.9916717877914678e-01 -2.2643563070185557e-02 1.2052846862750943e-01 -3.8401802186936562e-02 -1.7007148512087866e-01 -6.7148718108658301e-03 2.0620414274654220e-02 -3.3529685619073879e-02 3.6436586813789029e-02 -2.2656417049085231e-01 -2.0140346876324156e-02 -1.5735744367498761e-01 1.2730522626810270e-01 1.0161805732967721e-01 -1.7581297066590906e-01 1.4302622248091357e-01 -2.2642099459908138e-01 1.7612247878169507e-01 4.2726830916054226e-01 3.3223409309984930e-01 1.3154787420288194e-01 3.1685840886569316e-01 1.3333903912478817e-01 -7.3333379131100829e-02 -1.8986319630276427e-01 3.9569605007432562e-02 7.8813257088567568e-02 5.4721398970602930e-01 -2.5449804153430289e-01 -4.4586662012050304e-01 -4.4317906259300915e-01 -1.9491314832415263e-01 -6.3016741646097185e-01 -2.8029961081168953e-01 -7.4893177341726291e-02 5.4393959309693973e-01 1.1612757129228457e-01 7.7264485140946348e-01 -1.6343391986307765e-01 -1.2244021000218552e-01 -1.8439114693908287e-01 -5.6028207079196868e-02 1.8093326531552378e-02 -1.3910358626881880e-01 -8.2063583716845301e-02 -4.1216213542987212e-02 6.5166646301966225e-02 -8.9719599299138864e-02 -6.0693515625928285e-01 1.1904945346729502e-01 6.5995255484807780e-02 -1.5212595581163946e-01 6.0269911331722881e-04 2.6122535013153847e-01 -2.4644940722902797e-02 1.3822196085007121e-01 1.2930867470488372e-01 -8.7564973561307546e-02 1.4750022633157145e-01 7.7252270755684549e-01 -1.5461044785404754e-01 
      </Row>
      <Row Index="3">
        -4.0181571554619442e+00 -1.0862004129825385e+01 8.4951578790966717e+00 9.4488853309632418e+01 -6.1000781687106018e+00 1.0001093352190773e+01 -7.7848583645104785e+00 -2.2435505307865000e+00 -6.2773794334127153e-01 -2.1319260818710124e+01 1.0861782783951123e+01 5.6976209671703506e+00 -8.6829532373035523e+00 2.2568720452013213e-01 2.6575126179521043e+00 -2.2410372045605023e+00 -3.4337758209786571e+01 2.2094158667076487e+00 -2.0583222822106464e+00 3.1363771374050962e+00 2.9990203622795963e+00 -7.8369161799018272e-01 3.5249966203007004e+00 -6.1338680733231676e+00 -2.2860210319529108e+00 1.9794932049281204e+00 -1.2066576689667208e-02 4.5966793094668529e-02 -9.4681422227520379e-03 -2.5804687247510072e-01 2.4032204849420868e-02 -1.0815020342217818e-02 1.8462548117996788e-02 1.5483268931237755e-02 2.1229738294461689e-02 5.8754682890362120e-02 -4.9717763428021214e-02 -1.7394457696498306e-02 5.1114598991132146e-02 6.7277008869940258e-01 3.1422157522782068e-01 -1.0876283053786864e+00 -1.4474415588629399e+00 1.5670238819461280e-03 -4.4897800710268276e-01 2.2509017596425762e-01 -8.1423951743533562e-02 -5.5529821032135462e-01 6.8694478682983284e-01 -4.9141969809218944e-01 -1.0263945829779786e-01 -3.2355354267759662e-01 -5.4484278390427465e-02 -9.5016346034237920e-04 4.0848063680985813e-02 4.0311163141770406e-01 -4.5757840645498871e-02 3.6884999284957809e-02 1.3072651604723096e-02 -4.2871983993547413e-02 -1.3053889088777837e-01 2.6078432849905075e-02 -2.0318253212758353e-01 -5.8565692715118828e-02 -9.0136992315550279e-02 -1.8176511619858265e-01 7.7190381548642550e-02 -2.4464054419184422e-01 2.2749530369017218e-01 -7.0021278218661775e-02 1.2159217667152866e-01 -3.2838963049912628e-02 -3.1367729386335919e-01 -6.9345900611064515e-01 2.3261328748953591e-03 1.2113892416491956e-01 5.7329891052135928e-02 1.5221676695146291e-01 -1.0772501938779104e-01 2.3927747492765605e-01 -2.1950300569809045e-01 8.0067687128151555e-01 5.2171060025969385e-02 8.4183432769797062e-02 1.2662961591425603e-02 -2.8162156074442113e-01 -8.3926216670416753e-01 -9.0240009827935896e-02 1.8681622255883878e-01 4.7334951978319495e-02 3.0623066803047649e-01 -1.3599694741904544e-01 1.4098599565576597e-01 -8.0242057465625682e-02 -4.4912017991100672e-02 3.2580006022987829e-02 -9.1314105711206683e-02 -1.6873592420364125e-02 1.6783030661910645e-01 -2.9411353283698083e-01 -3.8582492869474239e-02 -4.2329564504450246e-02 1.5211191320042894e-02 2.9881973924695271e-02 7.7705836931586325e-01 4.9315482440805813e-01 -1.1946253164801979e+00 -1.3852916599891809e+00 1.4212359729160912e-01 -6.3352125324478314e-01 3.0377799335584871e-01 1.4912750753131476e-02 -4.5169542920730438e-01 8.6371819829373686e-01 -6.0480908284607637e-01 -1.2754787275361390e-01 -2.9731248985479652e-01 2.3586853946932052e-02 5.9005822827913224e-02 -4.2085836911846314e-01 -1.5126094033967635e-01 -1.6532569094186100e-02 1.9361052922931776e-02 2.1977489993182109e-02 -1.4374733577096199e-01 -3.3531245293380674e-01 1.8822891986197465e-02 -1.2491892558949388e-01 -1.6881541954899978e-02 1.0246666178707342e-02 2.3966697504605394e-02 -3.0521783383886658e-01 4.2976553199198797e-03 2.1232064864537770e-01 -1.8380480366811530e-02 6.2681244250509152e-02 2.1347602302953572e-02 6.6045046231781512e-01 -5.1441970701953860e-02 -3.1628959973020454e-02 4.5685991813174565e-02 -1.3801579798469382e-02 4.6865841903661873e-02 -9.3175065948245539e-03 6.3338279383750584e-02 -9.7703320333321804e-03 -7.9128236629296689e-02 -1.9550938677792562e-04 2.2599167725011693e-02 5.8938564366321805e-02 -8.8673469101817615e-03 -6.0998717668788643e-02 -6.9426365387624811e-02 -1.6220018177575929e-02 -2.3821926893381695e-02 4.6105879465142663e-02 -3.7713495001315844e+00 -8.2907440553446232e+00 5.9652084850554488e+00 6.0161212510916322e+01 -3.8547614438440863e+00 7.8655788351004325e+00 -4.6093657223750952e+00 1.3067409976802509e+00 -1.5605224277840013e+00 -1.7649714380503184e+01 4.5794666542060583e+00 3.3896681548995828e+00 -6.5886987953256009e+00 4.7481048243961510e-01 1.7019734548369025e-02 -1.0213459909268936e+00 1.9264155501862595e-01 -3.5852646843721425e-01 -1.1742750219677172e+00 -3.8247497399465080e-01 4.6781057279556704e-01 -4.4299388611633295e-01 -9.7333136999971892e-01 -6.1335492175819439e-01 1.4554594541222909e-01 -4.8849180667658310e-02 1.2962336946258496e-01 3.7091646159852942e-02 -3.1527104730635269e-01 1.5530843663516336e-01 -9.6862536953461031e-02 2.0366082397478635e+00 -1.4910147788971706e-02 1.3311171431943847e-01 2.5113642732191011e-01 -1.0375533692449462e-01 -2.2073250870313643e-02 1.1488144797384714e-01 -5.7955054100399694e-02 -5.8290509852497285e-02 2.7339222521347639e-01 -1.4856372075236041e-01 1.0743602084007620e-01 5.6478825049389059e-02 -2.0029575761173479e-02 5.6663949801830427e-02 -3.7233110761940752e-01 -1.7512637130665593e-01 3.7437859823984287e-02 -3.7031511260094430e-01 -4.8881864813342646e-01 5.4540668007219184e-01 -6.1586561235772663e-01 1.7131906406352343e-01 -3.4598142476542387e-01 2.9685956221172566e-01 3.6981915243728736e-02 3.9751605874680296e-01 4.7339922226300624e-01 -2.9057234872671867e-01 3.7966140555579386e-01 6.3709364504251331e-01 -1.1778332618942660e+00 2.5423098409746725e-01 -1.4463778717284548e-02 6.2727893274176871e-01 -1.9856899706489695e-01 -3.9347854978394836e-01 -1.8260541731871083e-02 -6.0336407316954777e-02 -2.5663217649571379e-01 -1.7690968416042085e-01 1.0390035067550230e-01 -9.9586407716096836e-02 1.0546868113551025e-01 1.6757693427101428e-01 -1.8270603046627265e-01 -3.6126298254837197e-01 1.5665652753900500e-01 -1.2858629272116229e-01 3.3457002757430014e-02 6.6740680297259924e-01 4.6115248714168722e-02 3.0859064369563693e-01 7.7500549863496349e-01 -1.3479411916383022e-02 -2.0044604431113916e-01 4.7932998846832420e-01 6.9181502800660666e-01 3.1655712441470030e-01 1.1506906280328133e-01 1.4319200354428241e-02 -1.4292369359597656e-01 1.7916038076994711e-01 2.0501501519137849e-01 -2.7448790515732746e-01 3.1995086175370352e-01 2.3162553019241159e+00 4.5468301172243653e-02 -3.3107971841927319e-01 -1.4518453424662994e+00 -3.3431383358611977e-01 -9.9360565141832202e-01 4.1685360833520946e-01 -4.9161590334274319e-01 -7.9866643186228625e-01 2.0986367881154875e+00 -3.6916127259975440e-01 1.3503735354209764e-01 -3.1868139831564918e-02 4.5662710808734408e-01 4.9549509993098795e-01 2.1908104693581310e-01 -9.9249451910967679e-03 -2.5371145868793932e-01 -2.8281228633893862e-01 -7.9962222283007478e-02 -1.1044942845588507e-01 -2.9518333111796835e-01 1.0383095705332313e-01 -1.4531800378392812e-01 3.8000856448892062e-03 -4.8749398326909876e-01 -9.5075109830528248e-02 -4.5062022218971487e-02 4.5656662853625525e-02 1.3563373194967393e-02 -2.6185636255073141e-01 3.6246375006901310e-02 -1.2067000621214019e-01 1.1886500859456861e-01 -1.4176022651467779e-01 -1.6357749277977707e-01 8.7539221804322054e-02 1.6543388808913706e-01 2.0431406021550469e-02 -1.2168878895289548e-01 1.5137103278647501e-01 8.8547518433625072e-02 -2.4970150903526278e-01 1.5400543631815111e-01 1.2326320241669997e-01 2.2513306900066121e-01 -1.1886754446227599e-01 2.7305811047405792e-01 -7.0454800387771344e-01 -1.6618157407905754e-01 -1.1371100385606514e-03 -5.8500812784664591e-01 -6.3796453810517306e-01 1.2257767501640462e+00 -8.5047671080790765e-01 1.0618849176716960e-02 -8.0409010227771760e-01 1.6296490884902504e-01 1.2766523478242320e-01 1.5641911213116089e-02 1.5925983743329436e-01 2.5908113713287073e-01 3.6580287087218366e-01 4.7715046161187713e-01 -7.1385093409554212e-01 7.7780873680418772e-01 -4.1003257632145207e-01 3.3862242049046376e-01 -1.4380776186360755e-01 1.9608079273132972e-01 -3.8703284489730247e-02 2.8601431881281683e-02 -2.7345961048258971e-01 1.0222291423688301e-02 1.2861633427960384e-01 1.6993521240156939e-01 -1.1414180085893411e-01 1.3625971520377966e-01 6.5226699689224787e-03 -3.9481765767996890e-02 6.7281994498853237e-01 -1.1167373392066615e-01 
      </Row>
      <Row Index="4">
        -1.3637273443327949e+00 1.6911656064003751e+00 8.7512634122155362e+00 -6.1000781775181849e+00 3.3192251845977125e+01 -3.8530332830678322e+00 3.3880107329330613e+00 2.7871114677493622e+00 1.3737309824504720e+01 6.1611260153515364e+00 -3.3918184746837454e+00 -1.1721218147490028e+01 4.3121915351036222e+00 3.5933133363238667e-02 -2.2336167971804288e-01 -2.7129433916751653e+00 2.0777758784530329e+00 -9.8259927803613962e+00 3.5251835713670987e-01 -1.9004850342147916e+00 -1.5583069366022517e+00 -3.3048682049959517e+00 -1.3503508259905883e-01 2.4000557986199564e+00 2.9417269293766539e+00 -2.1989356119106240e-01 1.0108706280919172e-02 -2.4257228893091627e-02 -2.5740400650725703e-02 4.8327183033113161e-02 -7.8200333174926071e-02 1.1067388057054151e-03 -1.1673848880190817e-02 -1.1181163144474159e-02 -5.4093652922042740e-02 -2.8813898219642933e-02 6.9009459906783643e-03 3.3052905255805266e-02 -2.9815520439108335e-02 2.9901952189957137e-01 -8.1921407855412354e-02 -7.2237041047699790e-01 4.1670527913287447e-01 -4.6031756069335295e-01 8.2960557752025377e-03 3.3837792482723783e-02 1.4262020981662515e-02 -2.8100942724248235e-02 -2.1950049617630230e-01 1.8459898728560775e-01 5.6821776494016485e-01 -6.5538902587655379e-02 4.8684530633190087e-02 -9.3828112944108078e-03 2.9522062001822891e-02 -1.9765984711568879e-01 -2.9378212636122536e-01 -7.3232772439110638e-02 -7.9397186307501810e-02 3.6569178611418285e-02 -9.6683954325683635e-02 4.7395926115983422e-03 -7.8431755161846473e-02 1.3620901412012110e-02 1.7159981234966537e-01 1.3752118493865931e-01 5.4040881876269209e-02 5.8741506012403820e-02 1.0081817836508322e-01 8.7825067924183542e-02 4.0085817987900896e-02 -5.7764149639085383e-02 1.4192727618064360e-01 9.0672383100181186e-01 -1.8859122187278349e-01 -3.8891142843699655e-02 -1.2847574441881815e-01 -2.0162399881858040e-01 1.1858457677247269e-01 1.9132203767490003e-01 1.4927403032234279e-01 4.1448503214257859e-02 3.3985731732887126e-01 1.4698347503563314e-01 -7.5029794482602136e-02 2.5458821712209256e-02 1.2565492166079615e+00 -2.8108962536868631e-01 2.8033475522469509e-01 -1.3091213483655428e-01 -2.3631474868621211e-01 -2.1892723817755325e-02 1.8707745233135897e-02 1.0029027410284733e-01 1.6141608365713711e-03 -2.1157111060008255e-01 9.0874901589641399e-02 -5.6183263423831176e-02 -6.1639719948747729e-02 2.6053487523530400e-01 -5.0288161252376701e-02 8.4440705580048347e-02 5.3377318058720147e-02 1.1600404921558044e-01 3.6751386548422305e-01 -5.0787914938113687e-02 -8.5839472491130298e-01 4.2415945814178713e-01 -8.5803717904157173e-01 4.4028074309546028e-02 -5.1447294706620433e-02 -1.4498812084128399e-02 -6.4853974057731231e-02 -1.3264189161041828e-01 2.6108808884360224e-01 7.3327785829620507e-01 6.8921273743012490e-02 2.0252110477793295e-02 -1.3389333441298445e-02 -2.9452306925309535e-01 4.7270686504925115e-02 1.4261315817127151e-01 1.4972256977671350e-02 3.7115928098621770e-02 -1.2347044980684285e-02 1.4769174459812745e-01 -8.8165977541878854e-02 1.0869992506746760e-01 1.0239844108713617e-01 -1.0801235094067704e-01 2.3879233532012822e-02 1.4636387459114927e-01 7.8191117390549736e-03 -4.9557336581846412e-02 2.0023147590453171e-02 3.0342183754682478e-02 -3.6796570698585628e-02 -3.4295281078422590e-01 5.1388063362305364e-02 6.4185245683068062e-03 9.8053214189763038e-03 8.7502280435487450e-03 -1.1042814529385464e-02 8.6057065370312436e-02 -2.8002650531882084e-02 1.6447550233329850e-02 2.9484299950812420e-02 -2.2252636428549100e-01 4.7478655532352698e-02 -8.5926484314378923e-02 -2.7677428020207451e-03 1.2862189799368201e-01 7.5553446303461988e-02 -8.5824931811631866e-02 2.1966461726451059e-02 -3.9900287570137194e-02 -1.2859945078215202e+00 1.6313374051379865e+00 5.9108787084982630e+00 -4.0828836622320726e+00 2.3049725975687512e+01 -3.4545390486806866e+00 1.4010865139998661e+00 9.1554101937619059e-01 1.0441749363519490e+01 5.8887260258933551e+00 -9.5634142106091780e-01 -8.6197552461630380e+00 4.1121760043365558e+00 1.4135926799258858e-01 -1.0743703146546207e-01 -3.1152975030745989e-02 1.8394403583723135e-01 -1.3370730681182041e-01 -3.6674904010713938e-02 9.0948387193843239e-02 4.2962170097750629e-01 1.5150911820222257e-01 -1.6106879811173147e-02 -1.4689581296093479e-01 4.8734459206126735e-02 4.6493523980220219e-02 2.7232015948432158e-02 1.5486861529956597e-02 6.4878694517472990e-01 -5.4226675283583603e-02 6.0059960278185331e-02 -1.5998199944301632e+00 -2.9543866016630282e-02 -1.0068380618539763e-01 6.7987313316847064e-01 -1.9531697195469910e-01 1.1003290347384187e-01 -2.6333606002707337e-02 -2.4102327809436441e-02 2.8565035934938532e-02 1.0797897326541284e-01 -8.7460267209171993e-02 -3.0163889921870157e-01 -1.9624974752684077e-01 -2.9714367022680266e-02 -1.9041429623608863e-01 1.1631985015794190e-01 -9.0869881499866162e-02 5.1795507562548818e-02 2.4137748683305371e-02 1.8134956422675319e-02 -5.3354985102670324e-02 2.4065272664205661e-02 -1.3305876866739696e-01 1.4214032327861614e-02 -7.1864718830995100e-03 -8.3851170921623641e-02 1.2701211408243096e+00 -8.4654819997356512e-01 -1.2249389533932935e+00 -1.0370936769475969e-01 -1.7699056160312854e+00 -4.6535263758311451e-01 6.1502207155486399e-01 2.1465080927781743e+00 -6.2292781215217641e-02 -4.6351270804750944e-01 -3.8516338622778612e-01 -3.3705700440204600e-02 -2.2557294472956002e-01 -1.2536663215679411e-01 -8.2292208890854646e-02 -6.2846907878222780e-02 1.6000681671727435e-01 9.4377701826807589e-02 -3.4004399761827919e-01 3.6726870756043972e-02 -2.3408474495048359e-01 1.3162824383167293e-02 1.1651082969463022e-01 9.9818668406017136e-02 -3.4001137978075036e-01 -6.4381463037950182e-01 -2.6393234902404084e-01 -2.7076651504848148e-01 -2.0541480567167314e-02 1.4544457195396765e-02 -3.0635141155104195e-01 -1.7923053774745212e-01 -3.6503350092290443e-02 -1.1128813238825319e-01 1.0713199993839795e-01 8.3633473180468321e-02 -5.7167088751308270e-02 -3.2538967264916974e-01 7.8590176380600507e-02 -1.3514149527531150e-01 -2.6939807235864919e+00 3.7468938227923076e-02 2.6534029547374016e-01 -2.0269097315372164e-01 -9.8711129181448187e-01 5.5071721674416829e-01 6.5581477148139533e-01 2.1351054829812366e-02 8.2661369470118395e-01 -1.1062985323266661e-01 -5.7868782777647887e-01 -1.2020249178527176e+00 -2.5128476519361687e-01 1.8585461424214955e-01 -4.3719239706170754e-02 -2.5978432066842039e-01 -4.3448152743234436e-02 4.9401266251141440e-02 4.7667988595170074e-02 1.1484925710915722e-01 1.5257364485406633e-01 -2.6545693854957975e-02 -3.4638368357057603e-01 -5.7635033497340338e-02 -2.6639175109409496e-02 1.2775142226606917e-02 3.6863967686807442e-02 -1.3712741497498682e-02 7.5652948913406015e-02 -5.1779655922434831e-02 -1.0280385363661482e-01 2.7197722775777020e-02 1.5917628280681884e-01 2.1131839769263555e-01 4.2170137760980886e-02 1.7173210452537191e-01 -1.3018605376157089e-01 2.1100877910964844e-01 -3.8620672883338703e-02 2.7847375423570853e-03 7.3124482535064206e-02 -7.4460174426948633e-02 -6.4968561310629447e-02 7.7217326546886511e-02 1.8640317116496491e-01 5.5895193547204070e-03 5.1916380229612646e-02 -5.3793105312064826e-02 -5.3083907075531578e-01 1.7909540579468075e-01 6.1899278883737929e-01 -4.5647588930888494e-02 5.4594341747729036e-01 2.6349919006444156e-01 7.9361085142503840e-02 -9.4599681866264507e-01 1.0016519445292171e-01 3.3616917969608273e-01 4.2171577138798833e-01 -5.6045213219778844e-02 7.9823488224743500e-02 3.0501283329742890e-02 1.0766594367767168e-02 3.4041230454332094e-01 9.8643144057921517e-02 -1.6619611523611155e-01 -1.0132824527980233e-01 2.3688422930499087e-01 -2.1575425815429483e-02 1.9225993961326182e-01 -6.0931574656061943e-03 -1.1240477501485019e-02 6.6936687670348327e-02 -3.6957943813893585e-02 6.1519217454151232e-03 -1.0821178659008440e-01 7.0794388091681260e-02 -1.3806718800154771e-01 3.3851660580452858e-05 -9.1413937613704643e-04 -2.6048637326027801e-01 1.3043365108667615e-01 
      </Row>
      <Row Index="5">
        1.7210530707065182e+01 2.8149997019375874e+00 2.1783077644537848e+01 1.0001093344861161e+01 -3.8530332494152661e+00 8.7855266158348186e+01 1.0696831754084819e+00 1.3251298821011659e+00 -8.5003041662732208e+00 -2.1491798918641358e+01 -1.9631640626232922e+00 8.8239081545399038e+00 9.4401970183061774e+00 -3.9429872935781978e+00 -9.0206266709104277e-01 -6.2151293112676713e+00 -2.6510171723806986e+00 1.0743434585562599e+00 -2.2968884220249990e+01 -9.7920640816299565e-01 -7.2373556186063925e-01 1.8883716042105529e+00 6.7276469005723607e+00 1.3666639583048747e+00 -1.9337418361046208e+00 -3.2565413641458099e+00 -3.3913930365909353e-02 8.3813054556489686e-03 -3.6863317107355187e-02 -1.8362276553233151e-02 9.7399221076595356e-03 -3.1884674169421923e-01 -1.1603985057366026e-02 3.8711559401862217e-03 2.0720343581599229e-02 6.4531211060311094e-02 -1.5471045480662096e-02 -3.6661356433442052e-02 -2.2706630330145347e-02 -5.7463108360745507e-01 1.7524157834737486e-02 -1.2759561096087388e+00 -4.1659863089142357e-01 5.4589909928212388e-02 -9.3295499535259463e-01 5.8075535996373606e-03 -1.8659098666873747e-01 9.3477222329470200e-02 6.6317359950649468e-01 -9.5285782504935912e-02 -2.7018459858671262e-01 -2.8008051033545173e-01 5.1022958739608271e-03 -5.3432422279045211e-02 -1.1092600671390784e-02 1.1153723224440837e-01 5.5846913951653490e-02 -3.4110452906128019e-01 -9.5947196068100538e-02 4.7279194405314751e-02 7.6913775690548719e-03 9.5366031972717480e-02 -1.0678221471730852e-01 4.0009861953098469e-02 -1.0880987302729173e-01 -1.4452601100842094e-01 -7.2181237149167687e-02 -1.5544745989654696e-01 -1.0434861157759379e-02 -6.3140792105897764e-02 3.8408991721523211e-01 -7.2262719102490922e-02 -7.2583403148061720e-02 -3.0531269403254757e-01 7.7368791075501708e-02 -8.8120298635851579e-02 1.0111935574873797e-02 -2.7816026924518178e-02 -1.3717256541195555e-01 -1.7159121079485229e-01 -9.4049707297390206e-02 -1.6479116744156463e-01 -2.3769951446527326e-02 9.6806335579225855e-01 4.9826024364897359e-03 -5.1230924689276647e-02 -3.9304577706345356e-01 4.7334441308503311e-02 7.5857469847209202e-03 7.0366999012261511e-02 -1.6190441497357794e-02 -3.4003947144407697e-03 -3.3619507727959366e-02 -1.4546693766964727e-01 -8.9069219365344940e-02 -3.6103894218587895e-03 -5.2963969518214693e-02 4.4382930416707322e-03 -4.5042753174711625e-02 -1.3227680912055789e-01 4.5959509199834464e-02 3.4237546010527864e-02 -9.2736761011107699e-02 -1.7922941965244410e-02 -3.8447605123954953e-01 1.0793753407497733e-02 -1.3314954031223409e+00 -4.5982780827219472e-01 1.7447922520708883e-01 -1.5494045047660667e+00 5.3110279623891310e-02 -1.7662465923363235e-01 1.6815555413612751e-01 7.2965452744972858e-01 -5.4506779922059469e-02 -4.1269340787052261e-01 -1.7929017877900794e-01 -1.3863521509786286e-01 4.4958922578235611e-02 -3.8170375437447290e-01 -1.4464610291905355e-01 2.7903109931700643e-03 1.2679303118946450e-01 3.0086969100564659e-02 -5.6630337992859214e-02 -1.5412788468282257e-03 1.3451436792224841e-01 3.9779448630645281e-02 1.0476563052772066e-01 -1.1296365649968371e-01 8.1914920968206850e-03 3.9530622259815358e-02 1.0762323062494361e-02 2.4709811414973245e-02 2.8041784477877994e-02 7.6239123082091922e-02 -4.7907379440843778e-02 -4.6675676036175950e-02 -7.4828883303255794e-03 3.1479115571220184e-03 3.1454665936341830e-03 2.3165985764586498e-02 -1.3694820015382438e-02 2.5277307615073491e-03 -1.6611827973025919e-02 1.1666933236369914e-02 3.4039566626862860e-02 4.2868771128093675e-03 -2.4772985975892814e-01 -8.0684577523424172e-02 1.2351927972170024e-02 -2.7931801317938317e-02 -7.1742774456675290e-02 -1.6144075490739228e-02 -2.3863633848340254e-02 4.2012732013034515e-03 1.3035506625424118e+01 1.8862101256928052e+00 1.5255122001590429e+01 7.2716802194550212e+00 -2.6620737776730010e+00 6.4297448664057839e+01 2.8098471757918020e-02 5.3288497748620145e-01 -6.5709398355474100e+00 -1.4562059499021249e+01 -6.3249572759471917e-01 6.8959315797817062e+00 6.0661464100642490e+00 6.0404437234304775e-02 1.3874013605570312e-01 5.0241903714155267e-01 4.9391194472574496e-01 5.5308721754110857e-01 3.1325232803232250e-01 -1.0379180000389301e+00 -2.0172349693171382e-01 2.1566925605083254e-01 5.7399667333589077e-01 -8.9766000677862579e-01 -1.3299783636313978e-01 7.2781995426774992e-02 9.6667893500830007e-02 -2.2879772676868804e-02 2.7250960048242706e-02 9.2493076922291584e-02 2.2605644417725745e-01 4.7593823924955814e-01 -1.4605332972476362e-02 1.2092923178513137e-01 -5.2593281452003282e-01 -1.0835780534983165e-01 4.7513389440808962e-02 2.1775678922346053e-01 -2.5654942023110583e-03 5.4841584349235251e-02 1.3328790534345170e-01 3.4528233955609944e-01 -1.4823413334531435e-01 -1.0653737698185672e-01 6.8744978839752058e-02 7.3992926315840535e-02 -1.1325451927757488e-01 6.7046203992961184e-03 7.3119479991979458e-03 -3.5341274547177615e-02 -4.1297770172677023e-02 1.1897660447313108e-04 2.2135359364020024e-01 5.3874628468840058e-02 -2.3576374408964956e-01 -2.6495769351484552e-02 1.2670412092845815e+00 1.6660848104028492e-01 1.2924853229963795e-01 7.8893514235815143e-02 4.9698121255063121e-02 1.8542291802432720e-02 4.2163625776048708e-02 -5.1463249930611843e-01 -2.3167291194344530e-01 8.8699204844184809e-02 -5.8851671936486660e-02 -1.1909020395133911e+00 4.0429483295790070e-01 -7.8161936958026335e-01 -1.2925381800700073e+00 -1.2525692514463271e-01 -8.6444525384995075e-01 -1.2645299090914346e+00 7.4015152338647123e-03 2.0569984877643677e-01 -2.8026594448256903e-01 -8.9343334887823056e-01 2.1044463941261618e-01 -2.6340177797386033e-01 7.3334142237496458e-02 -4.6189720555286828e-01 -6.1765007804266325e-01 -2.6505652344559194e-01 -1.2283291916837713e-01 3.3010001438827064e-01 1.1135455864820382e-01 -4.8337501460967436e-01 -6.5068636931036083e-01 8.8227275357101664e-01 1.5125384808096709e-01 -8.3951275846726459e-02 -1.6157410187480559e-01 -4.0798971480536350e-02 3.5422119777637184e-01 -1.8750324656466422e-02 3.3459507754906470e-02 -1.1000897151017170e+00 2.6485369154479521e-02 -1.7527934776942988e-01 -2.4432040298638640e+00 -1.1251333532483998e-01 -1.5084078627598396e-01 -1.5226774143145760e-01 -9.5607103222436596e-02 -1.0913503463240737e-01 2.4527820337294326e-01 8.7179186775090578e-01 -5.9141882562956438e-02 -4.3599414340910758e-01 -2.5468454339796609e-02 2.0352728320096940e+00 2.2601822587640852e-01 -4.7531292752917231e-02 -1.5110911022318374e-01 -4.8924017401669531e-02 1.3242734620924201e-01 -5.2535255563492367e-02 9.9306451872142709e-02 3.5698461387171321e-01 -1.2582286462306502e-01 -8.8664136396535143e-02 -2.5566282469782919e-01 -3.0842551522321404e-02 -1.6214190098509329e-02 6.4751221068974352e-02 -6.9727493237123461e-02 -1.8498821897342324e-01 6.1866293751855872e-02 -9.9717036822562388e-02 -1.1414089759500845e-01 -9.4767683116046220e-02 8.5752753981891416e-02 6.1086752970786207e-01 5.9042202455290571e-02 -1.3388261787725875e-01 1.6353437727053777e-01 9.1260121107397119e-02 -4.7142827806485599e-02 5.8270225989157876e-02 1.5183632944665959e-01 -7.1190402087095705e-03 3.6524512589835972e-01 1.4929296545073534e-01 7.2903218141916026e-02 -2.7185279949085844e-02 -1.0601124452628952e-02 -5.4487628260373333e-01 -1.8168310882900279e-01 -1.1440187056497120e-01 -9.2764933284845696e-02 2.6385367590176223e-01 3.8846752803783691e-02 -5.8050407040740026e-01 -4.3947485299310002e-01 2.4111337902416077e+00 -7.8847179084460706e-02 2.7888314401692149e-02 2.9592358845821876e-01 1.3042157562074319e-01 -1.5565085867052630e-02 -1.1851926387892853e-01 -3.0904856382205281e-01 -4.9852078005248046e-02 4.4631048982435217e-01 3.1130663158884797e-01 -1.4605503545701524e+00 2.2895152532980287e-02 3.2784721462625344e-04 -1.5828972069838088e-01 2.2719050397822210e-02 1.9390981222034398e-01 1.5530512229646798e-01 -5.9921874069622350e-02 2.5643492888610642e-01 1.2738478941717091e-02 2.7233189151825021e-01 6.2540906066637092e-01 -3.0300727260314275e-01 
      </Row>
      <Row Index="6">
        2.5475328640146206e+00 2.0983478418757073e-01 3.8193716405648233e+00 -7.7848583784295933e+00 3.3880107224665625e+00 1.0696831684693036e+00 3.0355861578947536e+01 1.8404192727286031e+00 2.5945957537022526e+00 4.0996780036082026e+00 -1.8620265691121016e+00 -4.2783405839509818e+00 -4.2924265955030201e+00 -1.2041201038411380e+00 -1.7486660861603642e-01 -2.2254748894296075e+00 5.3736279842670598e-02 -6.8520158936540465e-01 -1.3515429159441510e+00 -1.6024822877296536e+01 1.3399114650666577e-01 -1.1497879728664504e+00 -2.4683524084938757e-01 1.1529343933049616e+00 2.3148408884358602e+00 1.9014355589759191e+00 5.1383102021160920e-02 -9.8455169033389994e-03 1.3707817775784947e-02 1.2176257174941252e-02 -4.9506989339826307e-03 -4.6261882819821909e-03 -1.7133944896189066e-01 4.4954127046295013e-03 -8.7777873731049519e-03 -1.1326924770058611e-02 2.9231804594119615e-02 1.9800599037981537e-02 3.4919463184643791e-03 -1.1321324190214672e+00 -9.3566366022446168e-04 -5.7046171207601759e-01 1.2631257479749003e-01 -7.3939503426359826e-02 2.4941033063080154e-02 2.2274478216745855e-01 -2.2109135848955319e-01 7.9876550225039589e-02 -2.6858322910332777e-01 1.0993472689672390e-01 1.6038628131340804e-01 3.0322696026614970e-02 1.2702172533584111e-01 -2.2399543977850489e-02 -4.5167360683303265e-02 2.7931768469506953e-02 2.6739978678563994e-02 -9.5192174572159782e-02 -6.1390423926239446e-01 2.6913683476804118e-02 1.2559860596068569e-02 1.9707130137364748e-02 7.0122728284456121e-02 8.6393221030255068e-02 -8.5835195702954392e-02 -3.4765864122388912e-02 -3.8942913708686494e-02 1.1762541386472036e-02 2.6462275288985371e-02 -3.4204206713353086e-02 -4.2208937059142748e-02 6.7032219898122747e-02 -4.8926660038192349e-02 1.1816292655125472e-01 -6.1330582879636331e-02 1.6456602158306227e-01 -1.3706405774562919e-02 -5.3072780843524486e-02 -1.4993461666767444e-01 1.3907921596972983e-01 8.2436530470811953e-02 2.3828941305535245e-01 -2.1826962632076841e-02 -4.1866115545340782e-02 2.0627830355643864e-01 1.1096461506987509e-03 2.0284364137080702e-01 2.4979950276989862e-02 1.7342878873638548e-01 -3.2079212074467504e-02 7.4314080522992362e-02 2.2276928787644124e-01 6.0598536294004149e-02 4.7413887484209438e-02 2.3682979996252893e-01 -1.3650191682192253e-02 -1.1012086876964500e-01 -8.6750421685444584e-02 2.4658782525275036e-02 4.7080089411046189e-02 3.7012813778056042e-02 -5.1077750626866390e-03 -4.2083967272663204e-02 4.0644786734340896e-02 -1.1269343326833097e+00 9.4091234495269016e-02 -6.5313830522414662e-01 2.1582753865465065e-01 -1.0490459145975500e-01 1.1584114761785136e-01 -1.5425543224296107e-01 -2.0641369549699107e-01 1.3783343297101835e-01 -2.7716558692746895e-01 1.2530701426885180e-01 1.9617595633919546e-01 1.1421010319381768e-01 -1.2580122372876759e-01 1.4752672685396345e-02 -1.8649426431941263e-01 7.6970075787809233e-02 8.8670926030197522e-03 3.1137823641387286e-03 1.1683908411912847e-01 -6.1767757877767115e-02 4.4995531951687526e-02 -3.6928456565865332e-02 4.1952711401625320e-02 2.6333676997365139e-02 1.7113776378627210e-03 1.7882995356054143e-02 4.9188346475799172e-02 -3.8125736164247338e-03 3.7046917106713428e-02 -6.2459984614363084e-04 -2.0557729511769287e-02 -2.7748716545701824e-01 -4.6388016074809135e-02 8.4046824408808667e-03 2.7624508625563260e-02 1.5384795623008124e-03 1.5944034926846585e-02 -1.4292719933834415e-02 2.0737061155441550e-02 1.8191650560018563e-02 1.5080849712134636e-02 -5.5578224791614783e-03 -9.4620919088928626e-03 -3.7148692397337424e-03 -6.0660374677900786e-01 1.3789112681804383e-02 2.8204174918047373e-02 7.8006147613868898e-02 3.0638530869164265e-02 2.3209484286872611e-02 1.9188625143542193e-03 1.3600760799640228e+00 1.0351899775014894e-01 1.5215687091121790e+00 -7.4536519936382808e+00 2.6957952102227551e+00 -3.8175468943830637e-01 1.3934495792960369e+01 1.8945491119217728e+00 1.4955844058157057e+00 3.8684441628729029e+00 -6.6284238738278267e-01 -1.8956806015004961e+00 -2.3896716613376796e+00 5.7901130851696292e-01 -6.0578922517733269e-01 1.7376887091531228e+00 2.0449779988149874e+00 7.9575652829891652e-01 2.3575556700289724e-01 7.4368619649304168e-01 -1.0083698596774544e+00 8.5276072405708292e-01 1.1756772271535867e+00 2.1196782095378836e-01 -8.0018513151465909e-02 1.5666698335684237e-01 1.0582920048901413e-01 1.0452232544050510e-01 -1.9331983286527676e-01 -2.2741586890781207e-02 -4.6978856602577501e-02 -1.0956082828744229e-01 3.0116027126697809e-02 -4.7479402160594264e-02 1.1247159829159159e+00 -1.7006557438092743e-01 1.1893223862173966e-01 8.6116990991232795e-02 -2.1183495642175432e-01 -7.9516537780559005e-03 2.2480053939367409e-01 3.5220916209522501e-02 -8.4096235766861149e-02 -9.9967249112401291e-02 1.0223383879513742e-01 8.0022287515451040e-02 -1.0752510659676875e-01 7.4739968639100929e-04 1.5847521289226152e-01 -3.7638323936744439e-01 -5.9186796706391986e-02 1.4937807065153591e-01 -1.1892702779884970e-01 -6.2986075164321531e-02 -7.8938385359593244e-02 4.6381281517477557e-02 1.0927714519380721e-01 4.9166392758404065e-03 -5.5503561044270788e-02 -1.0786774607765004e-02 4.5912082322003167e-01 -2.2958754424632000e-01 1.9289057475732990e-01 -2.4190298877886818e-01 1.2646114955468080e-01 -2.5578317630726333e-01 5.4663603133835448e-02 -5.6876405635245142e-01 4.0809660937271675e-02 -6.9226949333312415e-02 2.0383933216227668e-02 -2.1635041623489581e-01 -2.2477165546586220e-01 9.3065037184353994e-02 -2.1029244369957827e-02 2.1863907423712059e-01 -6.1682122608197609e-03 1.5240465374596857e-01 2.8464949201887180e-01 -1.1869521133625960e+00 9.7093655019585212e-01 -1.5046557691322517e+00 -3.4402557012229416e+00 -8.8272666207553896e-01 1.5010677273983863e-01 -8.5326639365760837e-01 7.6546810412539368e-01 -1.8637145475370824e+00 -1.3763838878918520e+00 -3.4724499722978708e-01 4.5463583492717174e-02 -1.2897315018270139e-01 -7.0653337439510938e-02 -8.9773591601643110e-02 -3.4982167731570446e-01 4.9122119846253698e-02 -1.5624661940410650e-01 2.9015425472303491e+00 -8.0665255805132507e-02 7.3367218503597176e-02 -6.1047823852575789e-02 -1.3317142303630558e-01 1.6034098999222041e-01 1.6111814513971795e-01 -6.0811356993694954e-01 1.0684977147270569e-01 -1.5963560571252239e-01 -8.5423455575420970e-02 -8.6540470988280313e-02 8.1830971588688739e-02 2.4218791236084392e-02 3.7556672357630350e-01 2.8871057503701669e-02 1.1050432351800143e-02 -3.0041677478518380e-03 -9.7727624099294141e-02 4.2849775867666584e-02 -1.2063275623179659e-02 1.8215758080495092e-01 -7.4818511143661226e-02 9.7399776470957100e-02 -1.0569966200548953e-02 -8.7939230737135166e-02 2.6838317254354038e-02 2.8789878213503067e-03 6.9836722487846781e-02 -1.9596947544564536e-02 1.7151065826123357e-02 -2.8298085751026214e-03 -1.7877562947668202e-01 -9.8289658375004363e-02 1.0065633149620723e-01 -6.6301592300832546e-04 1.2943226902486360e-01 2.1703068670997361e-02 -1.3785230885050714e-01 1.4938305405779229e-02 4.4559434888598126e-01 -2.8012732507320948e-04 -1.0857939268955707e-01 -1.1579380841868758e-01 5.4202181474671818e-04 8.6915885189757569e-02 5.3323025505937593e-02 -2.6702934631904318e-02 1.0233728561327593e-02 6.9214840207562855e-02 -3.2536510162073706e-02 -8.4555631046432789e-01 -6.6057615308039885e-02 1.5520636716052799e-01 -6.9313646657341077e-02 -8.0135399824809772e-02 -2.4598436948872981e-01 -8.4218603907390277e-02 2.0053160496498279e-01 1.9065707173201707e-01 -5.0999141114157709e-02 -8.6704221461625333e-02 7.5128294542698804e-01 1.8104399480670530e-01 -1.8338909957936611e-01 3.2546176516226311e-01 1.2030377071825971e-01 3.2758305535561050e-01 3.2051806277643813e-02 -1.6303241780000377e-01 2.1665792888118540e-02 4.2788647252217982e-02 -5.7714793896593619e-02 -1.0440178506700315e-02 -2.5274675745242003e-02 -3.8532147621282264e-02 6.9477434208099931e-02 5.8902693640616732e-02 -3.1145196851944057e-02 -3.3781553873853898e-02 6.0307936970402665e-01 -4.0451088784315914e-02 
      </Row>
      <Row Index="7">
        5.0690427823319064e+00 9.2654656755474640e+00 -1.4986642155311714e+00 -2.2435505354329015e+00 2.7871114601245677e+00 1.3251298719917750e+00 1.8404192746701611e+00 3.1803682178799708e+01 2.3859599473621156e+00 -1.7610042505244605e+00 4.9352611954915933e+00 -7.4206544687797180e+00 -3.9631177724287658e-01 -1.4469841906907353e+00 -3.3655328200353396e+00 -3.9779663988536129e-01 9.1385850732424689e-01 -7.8746609461377837e-01 -3.1884672683921500e-01 -1.5406247386122021e-01 -1.2147476195232663e+01 -6.7778280092856147e-01 3.9435725765588481e-01 -1.5954666795819525e+00 1.4637451294135770e+00 1.5147242554170948e-01 -1.7802401575924998e-02 -4.6767112044790934e-02 -3.4379103275982009e-03 1.3971901614147214e-02 -5.0859791312172359e-03 3.6848158812091969e-03 3.8771992553671975e-03 -1.0268645179543036e-01 -8.5583621780577074e-03 1.8350836063565218e-03 -2.0319195016687115e-02 8.4923628446517269e-03 2.1859922404188236e-05 7.8394487228937160e-02 -5.3764460856832963e-01 1.1514825581501498e-01 1.9175051776721386e-01 2.2136125098447229e-02 -1.1869217500590290e-01 -1.1246903282269743e-01 -9.6260413914889187e-01 7.8014424806006927e-02 -7.9076249527576969e-02 -8.0610591545404175e-02 2.5873888017139435e-01 -8.9469834985882901e-02 -2.2144290153536694e-02 5.8978605784318211e-02 -4.9273001392125676e-03 2.5949336495663448e-02 -7.1196444783588192e-03 -2.1091039467454831e-02 4.4007955905044471e-02 -1.9865521365583449e-01 -1.1025928442115272e-02 1.5330983971550749e-02 -4.5650691819815604e-02 -1.0797715580219358e-02 9.1017365168619691e-03 4.0305220478454973e-02 -1.9513552802483186e-01 -3.0690756324074364e-02 -4.9520349325983259e-03 -3.0568290078270277e-03 -2.9504454981156947e-02 1.2526010914236108e-03 7.6010911921475699e-01 2.3432062411733019e-02 -5.8449451397482213e-02 1.2741262416592208e-02 -1.9092754217570729e-02 -1.0226995435101305e-02 -3.1917200461657247e-02 7.5421728396724341e-02 -6.9302390752736032e-02 -1.2602385641700620e-01 -8.7447899983095212e-03 -5.7785095197363801e-02 -5.3187488546901814e-02 7.2593281830252454e-01 -4.0004747635175586e-02 -6.2536047361496927e-02 1.4795066670500501e-01 9.0618985173839262e-03 1.5829192969807337e-02 -7.1854592496600284e-02 4.1594512078215184e-02 -5.8667613444753075e-04 -3.4172149087733375e-02 5.4916732815628311e-04 -7.1259031551847568e-02 -3.1437996275423437e-03 -5.7463092836794116e-01 1.3528346046345285e-02 3.8590770372748509e-02 -5.5367667266747536e-03 4.6976065528539571e-02 -2.9935427664842015e-02 3.5243342304094559e-02 -4.8397375107946794e-01 1.3914363845830541e-01 1.3459811824767698e-01 2.4748692581420234e-02 -7.7546328916072160e-02 -1.2759399054747103e-01 -1.3556065608254304e+00 1.0153362690361135e-01 -6.7755216651056882e-02 -1.4989429417497113e-01 3.2668085064994412e-01 -9.6807632472425187e-02 3.0161976561656756e-03 -1.4378964745028244e-01 1.7335149242689085e-02 1.8433900619406376e-02 4.9834262974247923e-04 -1.8111688493533507e-02 -3.3239358718299188e-02 -3.8847730837108241e-03 -1.3692004880844847e-02 -5.3552698026734236e-03 7.6568968733681991e-02 2.9148011211033428e-02 5.5662951624026111e-03 -3.6490730997532209e-02 3.3033473516928225e-01 -1.0985104851052377e-02 -2.2261206896474331e-02 7.7277583133268657e-04 2.2342603450923190e-02 9.7808194577286567e-03 -1.2967951090405707e+00 -3.0014583626012364e-02 -1.0509095696782739e-02 -2.9963915640387886e-02 -6.8534864149267507e-03 -1.0056547302630371e-02 -1.3994836243055531e-02 -7.4891614979727683e-02 2.0489205076472672e-03 2.0539435070694390e-02 -1.0180469588069702e-02 3.0669833109105010e-03 3.2272644311751794e-02 -6.6448542530136767e-02 -8.3145620410067234e-03 2.3773150927611758e-02 -7.2603064446928045e-02 5.3942685280022051e-03 1.4364847479205155e-03 3.5387591058214736e+00 6.1641810214661117e+00 -1.8831699848983359e+00 -1.3175839260803714e+00 1.9904268676165595e+00 9.3751932128125937e-01 1.6786787678323702e+00 1.8066652729214621e+01 1.6523480846363774e+00 -1.3431333906233343e+00 3.3092605253222449e+00 -5.8991438494267214e+00 -2.5563065667339441e-01 -5.8452726303811042e-02 2.4404164880385856e-01 1.0812081321096700e-01 -2.2688245824172426e-01 1.5198536182581268e-03 -2.7372195997577009e-01 -1.4148517451744462e+00 2.2752986840727596e-01 -1.2170797314574600e-03 -4.1558203646854031e-02 -2.4370154965881774e-01 5.1588808210705377e-02 -1.5513211891410719e-01 -1.0565084654985540e-02 6.3794223703248498e-03 1.0994422078237334e+00 5.6883233852397685e-02 -4.1065499136631001e-01 -1.9089823460204229e+00 -1.3580445858490586e-01 -1.4724540894621685e-01 -1.5732510629688328e+00 5.5559618348112294e-02 -8.4500504029189100e-02 -2.6317022056899120e-01 -1.5320666163258778e-03 -1.2390820707075978e-02 -3.2691091612277534e-01 4.8640644136992206e-02 -7.2816358996480965e-02 1.0533992041119022e-01 -6.9427847282713173e-02 -1.8887691890000902e-01 -6.6130695754826607e-02 3.0725099721053278e-03 1.0057015079257266e-02 -1.1811942399711506e-02 7.4085159276424006e-02 2.5332918802958315e-01 1.4874050944941891e-01 -1.0611244448347712e-01 -1.1116541252186257e-01 2.5207807231707235e-02 4.3210545445045767e-02 8.1481945979735571e-03 1.7544446055733684e-01 2.6506632197139224e-01 -2.1803722685244775e-01 -3.2289924880085658e-01 -4.8091118756801055e-02 -1.0118661035234995e+00 4.8424806584377822e-01 1.6632406365969998e-01 2.8888956269871702e-01 -7.0691516000384524e-01 -3.0086554701279689e-02 3.3131654551905587e-03 -2.4750285828442209e-01 8.8948478298833678e-03 9.2765159462323110e-02 -1.0870490717586989e-01 7.7027201006875254e-02 -2.3714252100765165e-02 -2.4738979064589772e-02 -2.5729427368876145e-01 4.8816682326645378e-02 8.7079533316213542e-02 -1.3646063184975787e-01 9.4878926479983638e-02 1.0590531944210113e-04 8.5079579562612917e-02 2.6325250519768117e-01 8.8689796094967199e-01 -1.7256532943519343e-01 7.1624231725785442e-02 1.3295334011132620e-01 8.5696965566008032e-02 -2.7675494213154295e-01 8.3135777756212725e-02 4.1930770290498565e-01 -1.2010859918443229e-01 -9.7352282727382600e-01 2.1074291739041939e-01 -7.4510761447107901e-02 -8.5536769170617788e+00 -7.3335890813712695e-02 4.0344932656676358e-01 1.7787047481650688e+00 -8.9836239214271474e-02 1.7735033197893268e-02 -2.6634989088304500e-01 6.1872507540990496e-02 -1.8115689264663803e-01 5.4406210509377617e-01 7.8697293893585840e-01 -3.3693737441773208e-01 -3.2336250031733071e-01 -1.0722222434925210e-01 2.6874652089848805e-01 5.5662551926451975e-03 1.1537712314767301e-02 -6.5227835183045979e-02 4.7055904468765952e-02 4.3600092724035400e-01 -2.9397182892425766e-02 -2.3735607620909782e-01 -9.8195042954817957e-02 -5.6551670413950816e-02 -4.8159694582185164e-02 1.6219463357138864e-02 -5.0649720175476087e-02 -1.7344584002492502e-02 -3.9189327279928243e-02 -5.8224941096971072e-02 -4.7575962637314095e-01 2.7874081251926697e-02 -1.0456862418837598e-01 7.8258485793064381e-02 -5.7521274225476038e-02 1.1167410491175023e-01 -1.1211965216147801e-01 -1.3865884673726958e-02 2.1632442319106537e-01 1.1303097229974624e-01 -9.9894193928980357e-02 7.3198440573104762e-02 -1.4600843039219491e-02 4.1821817837734310e-02 1.3934806264597732e-01 -9.2364841125254823e-02 -5.6418298077081985e-02 6.5682890385649895e-03 -2.6575563016437709e-03 -2.8676520519414161e-01 -2.3859610678730309e-01 2.0400152232543567e-01 -1.6187735833246863e-01 2.5754747986972143e-01 3.6674661865262492e-01 -3.1304013981143985e-01 -2.1883454202011876e-01 -1.1538303341994527e-01 1.2587621727905707e-01 5.9101193467785196e-02 -4.8008647354773171e-02 7.8726589956322535e-02 9.4698278549110171e-02 -6.5778111501294312e-02 -2.4359910561958920e-01 1.1795288188221686e-01 2.2169413267842941e-02 2.4731564276293777e-01 -5.1522663998392559e-02 1.3112945936809339e-01 2.8526910689297802e-02 -8.2745510219972535e-02 -3.7406931541987376e-01 -5.7090351015586849e-02 3.2468328328687379e-01 3.3470363159411021e-01 -1.1549794441923766e-01 3.2610420821619357e-02 -3.8250599660258011e-02 1.3893709282356242e-01 1.0984928341434141e-01 -3.7031475598999997e-02 
      </Row>
      <Row Index="8">
        3.3316667635482927e-01 1.3939107376488877e+00 1.5656425465576500e+01 -6.2773795649268749e-01 1.3737309845462612e+01 -8.5003041843568354e+00 2.5945957464822271e+00 2.3859599537592260e+00 5.4100148927245300e+01 8.5895335205971328e+00 -4.3064333423856382e-01 1.4517910562161637e+01 3.0768609168402961e-01 -5.5490916660553991e-01 7.1280466329497472e-02 -3.4806779789518085e+00 -1.3132972897192747e+00 -4.0409242066205397e+00 2.5188654909144219e+00 -1.3109640734855734e+00 -1.6632216629478513e-01 -1.5736146215813084e+01 -3.3177296593025933e+00 1.6304471625322542e-01 -2.5986651022851777e+00 -1.3839418001437918e+00 -9.1823068015126630e-03 -9.5391438319716026e-03 -3.4654797173192892e-02 2.7723301119354282e-02 -7.6283485597029188e-02 3.0255843220424627e-02 -1.4775879426393523e-02 -1.4014285365570922e-02 -1.5903827029816006e-01 -2.9798152974094300e-02 2.6543656126890858e-02 -7.0684581916841058e-02 -8.3007714355871759e-03 1.1696008717293149e-02 1.1601373658952230e-01 -1.3947431760706763e+00 9.4352796011540452e-02 -2.3295356786350130e-01 5.7278025568405777e-02 -1.8273185653102497e-01 -6.0892357602648772e-03 -9.8987446785876587e-01 5.7454890706145734e-02 1.3382159952537487e-01 -6.7778900371688788e-01 -2.0367483060984809e-01 3.1480182477561680e-02 -4.1741090323023089e-03 -7.7277998116400390e-02 4.4169794716910599e-02 -4.2368241928547601e-03 -7.8967123321580068e-02 -5.9088275819783737e-02 1.1884226584116364e-02 -1.1898873235375636e-01 -4.6497649478242975e-02 2.2024417541623958e-02 -5.8359600100135745e-02 -1.0743567280623323e-01 -2.6467579353115445e-02 1.3329115457657237e-01 1.6954893338560909e-01 -2.8778887612427306e-02 1.0352845004756714e-01 -3.4213292424379427e-02 -1.1608227919319373e-03 -4.5417241837830691e-02 -7.5227151458708597e-01 2.7535374056577577e-02 4.0247422926237952e-01 1.7810607803443168e-01 1.2941711319715959e-01 -2.5113214745876355e-02 1.8406490942999915e-01 2.8608271007585306e-01 1.6830133581738149e-01 1.6167138968825068e-01 -6.2100071058124318e-02 6.8188222421569716e-02 5.6825276277521930e-02 -8.6014630121595026e-01 5.3913329356369610e-02 2.0113044242546474e-01 2.9551129509806695e-01 2.5440499089389002e-01 1.4308335319348831e-02 1.0822834224970823e-02 5.1117404984832859e-03 2.1251137016240296e-01 2.8652038614592507e-02 -2.1010396596445480e-01 -9.4045362501080643e-03 7.5097172401782375e-03 -3.4808660852497186e-01 5.0554420878921535e-02 -3.2965600339093459e-02 -1.7543679335549156e-01 -7.6932659267366782e-02 1.0723845866041607e-02 8.6274542762827630e-02 -1.8229267934085447e+00 1.4274151523025580e-01 2.5513843195000802e-02 3.0295005093680355e-02 -2.1630051184811855e-01 2.4875985749079010e-02 -9.5714067244331213e-01 1.4873448920992494e-01 3.5010781931789782e-02 -7.9985373764032053e-01 -1.8860106738681881e-01 -4.1191257652731406e-02 1.1995435691572720e-01 -5.1479889875883078e-01 3.7344927347880696e-04 -1.2918248714934744e-01 3.1686405725906752e-02 -2.4339791453056786e-02 -3.1995735978760376e-02 -3.5839068222464299e-01 2.0212194512529424e-02 4.2203056075702350e-02 -4.9536871045646830e-02 5.0874436090108069e-02 1.8530240225419714e-02 6.3266249014494208e-02 2.0118333760892407e-02 8.4482654129131141e-02 6.8934000197185763e-02 -3.4670966309916116e-03 1.4550872980161306e-02 -3.6995189666694017e-02 2.6015893785152622e-02 -2.0706619981231023e-02 -1.0277289457280159e-01 1.5922428787139890e-02 2.8759088267338473e-02 -1.9028705910831833e-03 -4.4657756447981152e-02 2.4130718640208215e-02 1.4412179357603472e-02 1.4821819579536868e-01 1.5513996438777378e-03 -6.3552932097806908e-03 -4.6615018679636799e-02 -2.0736779355535304e-01 6.1106548711840972e-03 6.8464476314648470e-02 3.4822941519949469e-02 5.7068587778784291e-02 -2.3726038103524999e-01 1.5506734455991815e+00 1.1790519932997668e+01 -1.7106841939091413e+00 9.6378881203400155e+00 -6.0345654426113846e+00 1.2476442709596012e+00 2.1635648716358400e+00 3.7822963057408487e+01 5.2463061364341499e+00 -2.3319971139953521e-01 1.1757601329404505e+01 -1.0200138572812523e+00 -1.2155410370351553e-01 2.1736672144002891e-01 1.6858008747087844e-01 2.4582500328513855e-02 1.7365036187675909e-01 -5.5334975090373817e-01 1.7456130595375363e-01 1.4161407325778863e-02 -4.9155699310175449e-01 -3.6606170468700405e-02 5.7780130756551529e-02 5.5605180610137306e-02 8.5422976832907338e-03 4.6332897243152794e-02 1.1556319041460883e-01 1.7115182804569828e-01 1.0536635896966384e-01 -8.8523259337531357e-02 -6.3460230988823696e-01 -5.9510073826411158e-02 -2.6881247874739111e-02 6.1722129424040872e-02 -1.3907577746117886e-01 6.4285253270537135e-02 1.8334557283616770e-01 5.0346150449581240e-02 -3.1650252921903821e-02 2.0454683256938022e-01 4.5983935614040128e-03 -1.3241728178984224e-01 -8.7548201527163361e-02 8.4501267015013010e-02 1.9849977296826538e-01 -7.3745896463115024e-02 -1.6046783890877583e-01 1.8276182396269866e-02 -3.1867561484138496e-02 -1.4557380058856861e-01 6.1698097884149039e-01 -2.7622880015127460e-01 2.8023875529411324e-02 -5.6258135699929102e-02 -1.0489789185144760e-01 3.6771555047356408e-02 -8.6128346557830882e-01 1.0549012068322605e+00 6.0261330503621968e-01 6.4102372537182317e-01 1.1521405362532304e+00 -8.8155402922270398e-01 -1.1007446443812841e-01 -1.1575953972486435e+00 -4.0718909861931962e-01 4.3802490650747328e-01 3.1430652950696114e-01 -1.3839703047598140e-01 -3.4554230024669508e-02 6.1962737014848557e-02 1.8417147194887740e-02 -1.8524025603443839e-01 3.1541662043608643e-01 1.1368761762643320e-01 1.8619885149652404e-02 -8.4973887422716388e-02 8.8791594314103994e-02 3.3709192763819829e-01 4.5445946569786067e-02 -4.5595436407992906e-02 -7.8596151697173156e-02 8.3829502829944946e-02 1.9921415484855709e-02 4.3220710432261611e-01 -4.9002771938340428e-01 2.6018228233071129e-02 1.7736386284661493e-01 -5.4268091489597547e-02 1.3667439159620692e-01 -1.8665964205727226e-01 5.0820049525909905e-02 -7.1470745458499296e-02 -2.0522315881613151e-01 3.9733565787069841e-01 -1.3779369085971777e-01 -5.5002106095116687e-03 1.5138733264635178e+00 -2.4744433510792474e-02 6.6027192546810554e-02 6.2811144979832534e-02 8.2111492563621180e-01 -1.0033610110827054e+00 -2.7176192315468184e-01 -6.3008955040863812e-01 -1.1692176427669514e+00 2.0002844202319157e+00 1.2130063303002103e-01 4.1932277829180203e-01 7.6693112863370383e-02 -4.9233151974324352e-01 -1.8645313227514482e-01 -2.2841525578629729e-01 -3.7209063844452217e-02 -6.1481063077046150e-02 3.2818639628253043e-02 -1.1459927249467279e-01 1.1526736501943358e-02 8.3847467879281379e-02 -3.6257136004812729e-02 7.1847097594925469e-02 -1.6174000733775951e-02 -1.3505570076833351e-01 5.4604728228494492e-02 -2.8047776101702726e-02 -1.8332284803104759e-01 5.3930562411008687e-02 1.3826413880272126e-01 -1.5854845018489794e-01 -1.2150297059118831e-01 -1.2780245354310038e-01 2.2570491066635334e-02 1.5992133054282132e-01 8.1242674090551636e-02 -6.8290153217554384e-02 3.7570024481803532e-01 2.4881715187710007e-01 1.0369606875608461e-01 2.6149740165641822e-01 -2.9844003380554351e-01 1.2587166626619961e-01 -2.4173500210724835e-01 -1.7889375751288528e-01 1.0488324241776081e-01 1.2203370286542903e-01 -4.0625239084540521e-02 -4.3599482549257296e-01 -4.3949641487558710e-01 -4.6171345735954405e-01 -4.9063210492634091e-01 1.1657836517244449e+00 -4.4775479149811137e-01 3.3149667330089505e-01 2.2292857721745207e-01 -3.7229061070161529e-01 8.8507152358945129e-02 4.8963614884333406e-01 -1.5200168836791850e-01 2.6692082284736074e-02 -5.4171885468608849e-02 9.7401064393043413e-03 -6.4908083640181857e-01 4.5101106236690702e-01 4.5540297315002576e-01 2.2844782787166196e-01 1.7734739637827035e-01 -4.4076535796788985e-01 -1.0591167413755694e-01 -1.0838719453889922e-02 -2.1361393291241093e-01 6.6541439935478564e-02 -3.7606079182966212e-02 2.0809258962609678e-01 -1.4064453500974849e-03 -4.1146737419082147e-02 7.9583696320176145e-02 -1.5658943101199219e-01 1.0108674771663573e-01 7.2823762500451750e-02 
      </Row>
      <Row Index="9">
