<?xml version="1.0"?>
<MethodSetup Method="MLP::MLP">
  <GeneralInfo>
    <Info name="TMVA Release" value="4.2.0 [262656]"/>
    <Info name="ROOT Release" value="5.34/38 [336422]"/>
    <Info name="Creator" value="han"/>
    <Info name="Date" value="Fri Apr 29 08:43:38 2022"/>
    <Info name="Host" value="Linux rz5950x.km.icrr.u-tokyo.ac.jp 4.18.0-305.3.1.el8_4.x86_64 #1 SMP Mon May 17 10:08:25 EDT 2021 x86_64 x86_64 x86_64 GNU/Linux"/>
    <Info name="Dir" value="/disk1/disk02/calib3/usr/han/mc/thermal_train"/>
    <Info name="Training events" value="9707435"/>
    <Info name="TrainingTime" value="3.98561148e+04"/>
    <Info name="AnalysisType" value="Classification"/>
  </GeneralInfo>
  <Options>
    <Option name="NCycles" modified="Yes">300</Option>
    <Option name="HiddenLayers" modified="Yes">N+1,N-1</Option>
    <Option name="NeuronType" modified="Yes">sigmoid</Option>
    <Option name="RandomSeed" modified="No">1</Option>
    <Option name="EstimatorType" modified="Yes">CE</Option>
    <Option name="NeuronInputType" modified="No">sum</Option>
    <Option name="V" modified="Yes">True</Option>
    <Option name="VerbosityLevel" modified="No">Verbose</Option>
    <Option name="VarTransform" modified="Yes">N</Option>
    <Option name="H" modified="Yes">True</Option>
    <Option name="CreateMVAPdfs" modified="No">False</Option>
    <Option name="IgnoreNegWeightsInTraining" modified="No">False</Option>
    <Option name="TrainingMethod" modified="No">BP</Option>
    <Option name="LearningRate" modified="No">2.000000e-02</Option>
    <Option name="DecayRate" modified="No">1.000000e-02</Option>
    <Option name="TestRate" modified="Yes">5</Option>
    <Option name="EpochMonitoring" modified="No">False</Option>
    <Option name="Sampling" modified="No">1.000000e+00</Option>
    <Option name="SamplingEpoch" modified="No">1.000000e+00</Option>
    <Option name="SamplingImportance" modified="No">1.000000e+00</Option>
    <Option name="SamplingTraining" modified="No">True</Option>
    <Option name="SamplingTesting" modified="No">False</Option>
    <Option name="ResetStep" modified="No">50</Option>
    <Option name="Tau" modified="No">3.000000e+00</Option>
    <Option name="BPMode" modified="No">sequential</Option>
    <Option name="BatchSize" modified="No">-1</Option>
    <Option name="ConvergenceImprove" modified="No">1.000000e-30</Option>
    <Option name="ConvergenceTests" modified="No">-1</Option>
    <Option name="UseRegulator" modified="Yes">True</Option>
    <Option name="UpdateLimit" modified="No">10000</Option>
    <Option name="CalculateErrors" modified="No">False</Option>
    <Option name="WeightRange" modified="No">1.000000e+00</Option>
  </Options>
  <Variables NVar="12">
    <Variable VarIndex="0" Expression="NHits" Label="NHits" Title="NHits" Unit="" Internal="NHits" Type="F" Min="5.00000000e+00" Max="3.38000000e+02"/>
    <Variable VarIndex="1" Expression="N200" Label="N200" Title="N200" Unit="" Internal="N200" Type="F" Min="7.00000000e+00" Max="1.65400000e+03"/>
    <Variable VarIndex="2" Expression="TRMS" Label="TRMS" Title="TRMS" Unit="" Internal="TRMS" Type="F" Min="4.58367139e-01" Max="7.26770258e+00"/>
    <Variable VarIndex="3" Expression="Beta1" Label="Beta1" Title="Beta1" Unit="" Internal="Beta1" Type="F" Min="-2.39029214e-01" Max="9.99866962e-01"/>
    <Variable VarIndex="4" Expression="Beta5" Label="Beta5" Title="Beta5" Unit="" Internal="Beta5" Type="F" Min="-1.94010407e-01" Max="9.98004556e-01"/>
    <Variable VarIndex="5" Expression="OpeningAngleMean" Label="OpeningAngleMean" Title="OpeningAngleMean" Unit="" Internal="OpeningAngleMean" Type="F" Min="1.25835121e+00" Max="8.98008957e+01"/>
    <Variable VarIndex="6" Expression="OpeningAngleSkew" Label="OpeningAngleSkew" Title="OpeningAngleSkew" Unit="" Internal="OpeningAngleSkew" Type="F" Min="-3.23303162e+02" Max="3.63206787e+02"/>
    <Variable VarIndex="7" Expression="OpeningAngleStdev" Label="OpeningAngleStdev" Title="OpeningAngleStdev" Unit="" Internal="OpeningAngleStdev" Type="F" Min="1.03872277e-01" Max="4.42955437e+01"/>
    <Variable VarIndex="8" Expression="MeanDirAngleMean" Label="MeanDirAngleMean" Title="MeanDirAngleMean" Unit="" Internal="MeanDirAngleMean" Type="F" Min="5.72497785e-01" Max="9.38357620e+01"/>
    <Variable VarIndex="9" Expression="MeanDirAngleRMS" Label="MeanDirAngleRMS" Title="MeanDirAngleRMS" Unit="" Internal="MeanDirAngleRMS" Type="F" Min="1.54590920e-01" Max="8.83737869e+01"/>
    <Variable VarIndex="10" Expression="DWall" Label="DWall" Title="DWall" Unit="" Internal="DWall" Type="F" Min="3.66210938e-04" Max="1.67943787e+03"/>
    <Variable VarIndex="11" Expression="DWallMeanDir" Label="DWallMeanDir" Title="DWallMeanDir" Unit="" Internal="DWallMeanDir" Type="F" Min="3.02227669e+01" Max="4.93542236e+03"/>
  </Variables>
  <Spectators NSpec="1">
    <Spectator SpecIndex="0" Expression="Label" Label="Label" Title="I" Unit="" Internal="Label" Type="F" Min="0.00000000e+00" Max="3.00000000e+00"/>
  </Spectators>
  <Classes NClass="2">
    <Class Name="Signal" Index="0"/>
    <Class Name="Background" Index="1"/>
  </Classes>
  <Transformations NTransformations="1">
    <Transform Name="Normalize">
      <Selection>
        <Input NInputs="12">
          <Input Type="Variable" Label="NHits" Expression="NHits"/>
          <Input Type="Variable" Label="N200" Expression="N200"/>
          <Input Type="Variable" Label="TRMS" Expression="TRMS"/>
          <Input Type="Variable" Label="Beta1" Expression="Beta1"/>
          <Input Type="Variable" Label="Beta5" Expression="Beta5"/>
          <Input Type="Variable" Label="OpeningAngleMean" Expression="OpeningAngleMean"/>
          <Input Type="Variable" Label="OpeningAngleSkew" Expression="OpeningAngleSkew"/>
          <Input Type="Variable" Label="OpeningAngleStdev" Expression="OpeningAngleStdev"/>
          <Input Type="Variable" Label="MeanDirAngleMean" Expression="MeanDirAngleMean"/>
          <Input Type="Variable" Label="MeanDirAngleRMS" Expression="MeanDirAngleRMS"/>
          <Input Type="Variable" Label="DWall" Expression="DWall"/>
          <Input Type="Variable" Label="DWallMeanDir" Expression="DWallMeanDir"/>
        </Input>
        <Output NOutputs="12">
          <Output Type="Variable" Label="NHits" Expression="NHits"/>
          <Output Type="Variable" Label="N200" Expression="N200"/>
          <Output Type="Variable" Label="TRMS" Expression="TRMS"/>
          <Output Type="Variable" Label="Beta1" Expression="Beta1"/>
          <Output Type="Variable" Label="Beta5" Expression="Beta5"/>
          <Output Type="Variable" Label="OpeningAngleMean" Expression="OpeningAngleMean"/>
          <Output Type="Variable" Label="OpeningAngleSkew" Expression="OpeningAngleSkew"/>
          <Output Type="Variable" Label="OpeningAngleStdev" Expression="OpeningAngleStdev"/>
          <Output Type="Variable" Label="MeanDirAngleMean" Expression="MeanDirAngleMean"/>
          <Output Type="Variable" Label="MeanDirAngleRMS" Expression="MeanDirAngleRMS"/>
          <Output Type="Variable" Label="DWall" Expression="DWall"/>
          <Output Type="Variable" Label="DWallMeanDir" Expression="DWallMeanDir"/>
        </Output>
      </Selection>
      <Class ClassIndex="0">
        <Ranges>
          <Range Index="0" Min="6.0000000000000000e+00" Max="6.5000000000000000e+01"/>
          <Range Index="1" Min="8.0000000000000000e+00" Max="9.0000000000000000e+01"/>
          <Range Index="2" Min="7.1913200616836548e-01" Max="6.8559784889221191e+00"/>
          <Range Index="3" Min="-1.6488334536552429e-01" Max="9.0267986059188843e-01"/>
          <Range Index="4" Min="-1.5253189206123352e-01" Max="4.8927456140518188e-01"/>
          <Range Index="5" Min="2.1507188796997070e+01" Max="8.5202270507812500e+01"/>
          <Range Index="6" Min="-1.9543066406250000e+02" Max="1.7247407531738281e+02"/>
          <Range Index="7" Min="3.6083893775939941e+00" Max="3.4056587219238281e+01"/>
          <Range Index="8" Min="1.3927787780761719e+01" Max="9.1123153686523438e+01"/>
          <Range Index="9" Min="2.4232418537139893e+00" Max="6.9760253906250000e+01"/>
          <Range Index="10" Min="1.5869140625000000e-03" Max="1.6794378662109375e+03"/>
          <Range Index="11" Min="3.0222766876220703e+01" Max="4.8521914062500000e+03"/>
        </Ranges>
      </Class>
      <Class ClassIndex="1">
        <Ranges>
          <Range Index="0" Min="5.0000000000000000e+00" Max="3.3800000000000000e+02"/>
          <Range Index="1" Min="7.0000000000000000e+00" Max="1.6540000000000000e+03"/>
          <Range Index="2" Min="4.5836713910102844e-01" Max="7.2677025794982910e+00"/>
          <Range Index="3" Min="-2.3902921378612518e-01" Max="9.9986696243286133e-01"/>
          <Range Index="4" Min="-1.9401040673255920e-01" Max="9.9800455570220947e-01"/>
          <Range Index="5" Min="1.2583512067794800e+00" Max="8.9800895690917969e+01"/>
          <Range Index="6" Min="-3.2330316162109375e+02" Max="3.6320678710937500e+02"/>
          <Range Index="7" Min="1.0387227684259415e-01" Max="4.4295543670654297e+01"/>
          <Range Index="8" Min="5.7249778509140015e-01" Max="9.3835762023925781e+01"/>
          <Range Index="9" Min="1.5459091961383820e-01" Max="8.8373786926269531e+01"/>
          <Range Index="10" Min="3.6621093750000000e-04" Max="1.6794378662109375e+03"/>
          <Range Index="11" Min="6.2850414276123047e+01" Max="4.9354223632812500e+03"/>
        </Ranges>
      </Class>
      <Class ClassIndex="2">
        <Ranges>
          <Range Index="0" Min="5.0000000000000000e+00" Max="3.3800000000000000e+02"/>
          <Range Index="1" Min="7.0000000000000000e+00" Max="1.6540000000000000e+03"/>
          <Range Index="2" Min="4.5836713910102844e-01" Max="7.2677025794982910e+00"/>
          <Range Index="3" Min="-2.3902921378612518e-01" Max="9.9986696243286133e-01"/>
          <Range Index="4" Min="-1.9401040673255920e-01" Max="9.9800455570220947e-01"/>
          <Range Index="5" Min="1.2583512067794800e+00" Max="8.9800895690917969e+01"/>
          <Range Index="6" Min="-3.2330316162109375e+02" Max="3.6320678710937500e+02"/>
          <Range Index="7" Min="1.0387227684259415e-01" Max="4.4295543670654297e+01"/>
          <Range Index="8" Min="5.7249778509140015e-01" Max="9.3835762023925781e+01"/>
          <Range Index="9" Min="1.5459091961383820e-01" Max="8.8373786926269531e+01"/>
          <Range Index="10" Min="3.6621093750000000e-04" Max="1.6794378662109375e+03"/>
          <Range Index="11" Min="3.0222766876220703e+01" Max="4.9354223632812500e+03"/>
        </Ranges>
      </Class>
    </Transform>
  </Transformations>
  <MVAPdfs/>
  <Weights>
    <Layout NLayers="4">
      <Layer Index="0" NNeurons="13">
        <Neuron NSynapses="13">
          4.7055479701778493e+00 6.7895414674988871e+01 2.1539856137177278e+01 9.1094132415122182e+00 -1.3457074578871062e+01 -1.5701544004597451e+01 -1.1324123347280434e+01 4.2650337655147098e+01 -5.3986109987177526e+00 -3.4588070797241429e+01 -1.3637823058213794e+01 3.5059913386851697e+01 -2.3270703299495462e+01 
        </Neuron>
        <Neuron NSynapses="13">
          -3.6562319594281645e+00 -1.6315212770681995e+01 -3.6729447086519379e+01 8.2735637839369891e-01 3.0080544434320071e+01 2.3945588192289352e-01 4.0415638544276993e+00 -1.7838214349060635e+01 7.4653742163538723e+00 2.5040704669950721e+01 1.3493183231990036e+00 -3.5483628692803681e+00 2.9921687508855669e+01 
        </Neuron>
        <Neuron NSynapses="13">
          6.1833512133485347e-01 -4.9220606819130930e-01 -7.8422835009062464e-01 -7.3777049784457838e-01 3.1182188373257094e+00 3.5384297959934491e-01 7.5529719922993246e-02 -1.0650459677422583e+00 5.1573843199098734e-01 3.5002652188840738e-01 7.5597920680648678e-01 -1.0594737431453654e+00 4.6104470717254670e-01 
        </Neuron>
        <Neuron NSynapses="13">
          4.9501506220799056e+00 -4.5706324615222910e-01 -2.2353062334533580e+00 3.9952941250320388e+00 1.8885253562524293e-01 8.0830336229284612e+00 7.0020982892773909e-01 4.6079833309562099e+00 1.2177776720258890e+00 3.4334383451653105e-01 -8.6916951463544052e+00 -5.8353746688421859e-01 -4.5077374195758545e-03 
        </Neuron>
        <Neuron NSynapses="13">
          1.5325945101830361e+00 -9.9779581515419080e-01 -7.1860006875309945e-01 7.5090163042047608e-01 -6.1690084470385420e-01 1.1133574723664186e+00 6.0905214227571500e+00 -1.6328443145274956e+00 1.0869475222686376e-01 1.3045687662403690e-01 8.7901072492441534e-01 2.4222930881124500e+00 1.1384707473377027e+00 
        </Neuron>
        <Neuron NSynapses="13">
          6.3111573328926269e+00 -7.8256175080725987e-01 -4.0499939130659772e+00 1.4296194953849173e+00 -2.8172789517527208e-01 8.3771687076123502e+00 -3.0365087761140321e+00 4.4307040149062926e+00 1.8495119906225281e+00 4.6898456407233660e+00 -3.9247789910073860e-01 -4.6185474679867395e+00 -9.5478090729212788e+00 
        </Neuron>
        <Neuron NSynapses="13">
          -6.4109167713723658e-01 2.7996544114216402e+00 1.2372167193998087e+00 1.2350929689286005e+00 -2.1501278125376304e+00 -1.1811314365198367e+00 -6.1635645603573519e-01 5.5048149708348229e+00 -2.2302390535383165e+00 -2.7146133691030778e+00 -2.0364581175368897e+00 -7.4191760485792679e+00 -4.1043949421746877e+00 
        </Neuron>
        <Neuron NSynapses="13">
          1.0680991916481173e+00 5.5330567168300582e-01 2.5209671794259871e+00 5.7810751557159756e-01 -1.2019692788282721e-01 9.7373250461799599e-01 2.4510788436386438e-01 -3.5807008636955945e-01 -6.1995971122644222e-01 -1.1804649157424023e+00 -5.1122687856659244e-01 1.4127070181394543e+00 6.5678933903465095e+00 
        </Neuron>
        <Neuron NSynapses="13">
          -1.5275996895999178e+00 3.8770076111361590e-01 7.4818322949418292e-01 5.7392337093647141e+00 -1.9447508421842610e+00 1.4056487309359713e+00 4.3038314415324885e+00 3.3979893109024593e+00 1.0569670400064131e+00 -1.5181904158760029e-01 -1.4794137923514059e+01 6.3438817211674958e-01 3.2158085069462956e+00 
        </Neuron>
        <Neuron NSynapses="13">
          9.3069899352909147e-01 1.9054072497507710e-02 -2.3721806851419380e-01 7.8332466622657770e-01 -2.5203126948293797e-01 -2.1470902827567575e+00 2.1992541839425086e+00 1.1225394664658466e+00 -3.2867743731056309e-01 -1.0207746987077500e+00 -4.4820380809917957e+00 -1.1885057330325071e+00 -2.3333285491207434e-01 
        </Neuron>
        <Neuron NSynapses="13">
          -9.5338554336295211e-01 -7.2639201484991589e-01 -6.8853632759244310e-01 2.0322254577565850e+00 -3.4334758501520906e+00 1.4310193394550447e+01 1.9706474461761589e+00 -4.9030189759529585e-01 -1.3531662882995759e+00 -1.9997096707025654e+00 -1.1119841642382067e+00 -7.4901998879516773e-01 -1.0789848596829993e-01 
        </Neuron>
        <Neuron NSynapses="13">
          2.7626043152434665e+00 -8.7929534695242839e-01 -3.2119485074197573e-01 7.2126337780790379e+00 -2.5593183244081619e-01 -2.2509879550116882e-01 7.4051322197235747e-01 -2.4977310638164032e+00 1.1208352236049119e+01 1.4578189239258981e+00 5.9709822050340677e-01 -1.9737473781583486e+00 2.4148301414845730e-01 
        </Neuron>
        <Neuron NSynapses="13">
          6.0511415084139566e+00 4.9750076529757443e+01 -1.4346719458126838e+01 8.2723719915190372e+00 1.3120795634873868e+01 4.7697132303456963e-01 -3.9887715258413641e+00 2.4224874465860086e+01 9.9196503003483052e+00 -1.0014112667330714e+01 -1.6571487592751620e+01 3.3081197714453197e+01 7.7411168060085878e+00 
        </Neuron>
      </Layer>
      <Layer Index="1" NNeurons="14">
        <Neuron NSynapses="11">
          -3.0469976654832229e+00 3.7102698492112700e+00 6.1907325742766683e-01 1.5001982468358760e-01 1.6190615833265685e+00 -2.1928278800711283e+00 3.0420339518870190e+00 1.5401488041502356e+00 2.1430355238343268e+00 2.7350671711557123e-01 -6.6684419698886979e+00 
        </Neuron>
        <Neuron NSynapses="11">
          -8.5394886936910144e+00 5.1857947390092729e+00 3.3499086428691509e+00 -1.1930961062898768e+00 -3.0567617265051941e+00 -7.2174266207978544e-01 9.6787180664521044e-01 2.0405486960131261e+00 -5.9404023641916304e+00 -1.7810429972433957e+00 -6.9109607837221514e+00 
        </Neuron>
        <Neuron NSynapses="11">
          1.0073342957427062e+01 5.1456822341420150e-01 -9.2084806167482408e-02 -1.1754189732282048e+00 -1.6413980401913690e+00 -6.4463489164642276e+00 1.1690144205107500e+00 8.6643132874820150e-01 1.1411512776278519e+01 5.3357430621137081e-01 3.2461816261188288e+00 
        </Neuron>
        <Neuron NSynapses="11">
          -2.2119830919163435e+00 2.2441002846077538e+00 2.0596008492515638e+00 -8.5347372391145843e-02 -2.1287633322501596e+00 -1.0928596286534626e+00 1.9400039423237823e+00 1.4348583884702255e+00 5.8779961297042072e-01 -3.7030516427670390e-01 -4.5616923120533022e+00 
        </Neuron>
        <Neuron NSynapses="11">
          -3.4337778140978266e+00 2.3001833736454302e+00 -7.6513518670133722e+00 2.4162450904802446e+00 -1.6391915691251338e+00 5.1062744614677413e+00 -4.7803678153773621e+00 -5.7211424505422515e-01 -1.6181309778043591e+00 1.9379487159496148e-01 -1.1772062776051586e+00 
        </Neuron>
        <Neuron NSynapses="11">
          2.6973347333029047e+00 -2.9776171961195645e+00 -9.0158418666269624e-01 -9.4839063484137176e-01 -3.7788839143440303e+00 6.2652413796950368e+00 -4.1930917719647898e+00 9.2952926671936498e-01 -6.6120457156755998e+00 1.1786090953540775e+00 4.7544891904794335e+00 
        </Neuron>
        <Neuron NSynapses="11">
          1.5444721465717706e+00 1.4796137098491788e+00 -7.6696973683077208e-02 -6.5483792147436504e-01 -2.7894838563100710e+00 8.7649560608394550e-01 -4.4931318504202955e-01 -1.7486359206109288e+00 5.6157885490689474e-01 2.8948930017583596e-01 6.9625862735242583e+00 
        </Neuron>
        <Neuron NSynapses="11">
          -1.8855148797527692e+00 1.8240190859655852e+00 5.5523457847086730e+00 3.2507086202533131e+00 1.2428639116622485e-01 -1.1045032157363564e-01 3.0707152869573173e+00 1.8977271037628176e+00 1.5270319557961105e+00 -1.5869909245474609e+00 -2.4324455681739434e+00 
        </Neuron>
        <Neuron NSynapses="11">
          1.1563300500406068e+00 -7.1703608670174255e+00 -7.6768881521279664e-01 -8.3157219437616003e+00 -3.3466191340838086e-01 6.3643106838805197e-01 -1.2526488971806362e+00 1.0391799858748680e+00 -1.5171685858347217e+00 -1.2794154367039077e+00 2.9938963425570182e+00 
        </Neuron>
        <Neuron NSynapses="11">
          8.1909798938252221e-01 -4.5536203989521509e+00 -3.2134522291468248e+00 3.8413300449281229e-01 3.5014507364922780e+00 3.3705455858906337e+00 -3.3038295352101978e+00 2.0309893237134091e-01 8.9760296296522310e-02 4.5072797431359470e+00 1.0552143142218271e+00 
        </Neuron>
        <Neuron NSynapses="11">
          5.8362091294312357e+00 -6.5161119337354023e-01 -1.6347994739901011e+00 -3.0997636192610640e+00 -3.4380475678633720e+00 -4.7702111461119143e+00 3.0993798688404293e+00 -6.4911832018320648e-01 3.0174599648869265e+00 7.4847242138024606e-01 4.9761185593012218e+00 
        </Neuron>
        <Neuron NSynapses="11">
          -3.9939429887308591e+00 4.2920267403591161e+00 3.2412702382252503e+00 3.3433953686479340e-01 7.9058398552379072e-01 -1.0926934535564163e+00 4.4670447730428240e+00 1.4765773903490793e+00 -2.4880797660755185e+00 -3.4310189057212730e+00 -4.0984191136140184e+00 
        </Neuron>
        <Neuron NSynapses="11">
          -4.3801121955904252e+00 -3.6321134876847103e+00 -4.4825136375260888e+00 -4.3464881715189763e-01 -6.0466847996511197e-01 6.4976317045091312e+00 -7.6303389106937018e+00 -2.9038491952087470e-01 -7.0895673344752712e+00 1.6140072902149725e+00 6.6387249731867186e+00 
        </Neuron>
        <Neuron NSynapses="11">
          -4.1803294813922359e-01 1.9045862582385216e+00 -8.0035089317378549e+00 -5.1962644728361340e-01 7.4618889939429769e+00 -4.7087997117575746e+00 -2.2147026550230540e+00 1.7776883776667469e+00 5.8366190066520263e+00 -1.4707170590449894e+00 3.6393493532864163e+00 
        </Neuron>
      </Layer>
      <Layer Index="2" NNeurons="12">
        <Neuron NSynapses="1">
          -3.9449426286608320e+00 
        </Neuron>
        <Neuron NSynapses="1">
          1.8427243314050754e+00 
        </Neuron>
        <Neuron NSynapses="1">
          8.8936384353507059e+00 
        </Neuron>
        <Neuron NSynapses="1">
          5.3005064162851490e+00 
        </Neuron>
        <Neuron NSynapses="1">
          7.1662998326950405e+00 
        </Neuron>
        <Neuron NSynapses="1">
          -1.9981770783263180e+00 
        </Neuron>
        <Neuron NSynapses="1">
          2.3909628739757065e+00 
        </Neuron>
        <Neuron NSynapses="1">
          -6.5575342380782473e+00 
        </Neuron>
        <Neuron NSynapses="1">
          4.0462517671921416e+00 
        </Neuron>
        <Neuron NSynapses="1">
          -1.7957411842139850e+00 
        </Neuron>
        <Neuron NSynapses="1">
          -1.2772497458860077e+00 
        </Neuron>
        <Neuron NSynapses="1">
          -5.1061946718794085e+00 
        </Neuron>
      </Layer>
      <Layer Index="3" NNeurons="1">
        <Neuron NSynapses="0"/>
      </Layer>
    </Layout>
    <InverseHessian NElements="112225" NRows="335" NCols="335">
      <Row Index="0">
        7.6354059694384276e+01 3.1018989484523085e-02 -2.2828968407640371e+00 5.7670920895262157e-01 9.3152655666196216e-01 8.8280843313528257e-01 9.9427241643640407e+00 4.4359272740908873e+00 1.0733667359991557e+01 -1.3649946440333427e-01 -1.8712358837757159e-01 8.2550220451574119e-01 -2.9369922036655343e+00 -1.8362547485881521e+01 2.7609278216126216e+00 6.2007984980953001e-01 -1.0027994936722671e+00 4.1310042213203779e-02 8.3240421464169501e-01 -3.6183823832493109e+00 2.0939344533064528e+00 -4.5078027193522852e+00 2.9583090470087336e-01 -2.0304129831647277e-01 5.3542686324489874e-01 8.0659912867250938e-01 -6.6810416725575850e-01 1.2155171590242025e-01 5.0169025222521937e-02 -1.9540522465970822e-02 2.3216195074589940e-02 5.3952287356223871e-02 -6.2893473477528244e-02 1.9850284994363718e-01 -1.1463773240595754e-01 -4.8201147824476542e-02 -1.8170364589064458e-02 -4.5832165123583082e-02 5.6657762152161006e-02 1.6006997968093502e+00 -4.1649491447494857e-02 2.6606260764872047e-02 -1.6912259850216405e-01 -1.1046303679398295e-01 4.1812327438887513e-02 -2.5226951474553339e-01 -9.4107839157903506e-01 -6.9032838805036523e-02 2.4102252272468574e-01 -1.4165798921010486e-01 -8.8474903708139596e-02 6.5548583478423336e-02 3.9042260214139346e-01 9.6846232174028324e-02 -2.0735493343094213e-03 9.8414083285155496e-02 -1.3007383054109256e-01 8.6548739698074917e-03 2.0002410532039788e-01 7.3182037665111777e-02 -5.7029371337219747e-02 -5.7382609830661568e-02 -3.3883198089174726e-02 -8.9139926310794551e-03 -3.2035534925921594e-02 1.4207847910959546e+00 -8.0767229026719178e-03 -1.9002461293408490e-02 1.6791304178334598e-01 -4.7546112618053177e-01 3.0515207004701506e-02 6.5735656011193855e-02 -9.3337396683163421e-01 -1.2876477332692338e-01 1.2957201142626865e-01 -4.4127261718138677e-01 -5.5660041435343832e-01 2.5622882128308522e-01 7.6058125861037584e-01 -3.9246087252483575e-02 8.5528077687278298e-02 -3.5944963115518330e-01 -1.3465199509661518e-02 1.5795076437955802e-02 -1.9933684353922820e-01 -4.8214264317859423e-01 -1.1005934838787362e-01 -1.0705586542535736e-01 -1.6223811069680478e-02 -4.0364272396369916e-01 1.6353159576201215e-01 -9.4616088678977195e-02 7.8743348141545780e-02 1.4089595451505216e-01 -1.7491378669606877e-01 1.1543973945827024e-01 3.9105607076644275e-02 -2.0762602270806740e-01 -1.1032968647247798e-01 -8.7305873812430379e-02 -1.6289034386672874e-01 1.4148888029621112e-01 1.7527265602433401e-01 -7.7297479075677994e-02 -3.5839556834607139e-01 -1.9892034346129295e-01 -2.3917606402261357e-03 -4.1809261280135662e-01 3.2935311982569304e-01 -2.9555693883561935e-03 -2.7411757146124655e-01 -4.4797914210300904e-01 7.7001416185679836e-02 4.9241160243225568e-01 2.0692598189239556e-01 2.6369088443252509e-01 -4.5955109949637529e-02 3.9495011980777167e-01 -1.0173686423788075e-05 3.0764940971792581e-02 -2.5534775545971417e-02 -5.9480045539912929e-02 -2.4053641796939501e-02 -1.2495283162138926e-01 -2.7799085422664960e-01 -5.9851507006412730e-02 -6.5854221212621980e-02 -1.4343861768876875e-01 -1.2334663315024587e-01 4.3562996952151586e-02 1.9295775271702675e-03 -1.0926582124469780e-01 -5.6151920332682348e-02 2.1548212777552311e-02 -4.9882605985965278e-02 6.9155840130290441e-02 1.9406788962691667e-02 9.3355153798958812e-04 -1.3294723798827213e-01 -1.6935559675189331e-02 7.5230265990915146e-03 -2.7959225665758820e-02 -6.2066876910306795e-03 -1.1789294495762881e+00 2.0662159514407027e-01 1.4838272350053650e-01 -1.7298200466071528e-01 -1.0020679281468101e-01 -1.0981592458801259e-02 -2.9497871792598640e-01 5.8831864548631541e-02 5.0100032388025095e-01 -1.8691205371077324e-01 -8.3459457478740950e-02 -7.8798348235752019e-02 3.6305833295406986e-02 5.7071914870268259e+01 2.7354698470213545e+00 -1.5540772968485872e+00 -3.8250713769579281e-01 9.2965662310944819e-01 1.7901051209985290e+00 6.1576004586782949e+00 6.3897407889386546e+00 6.2108759651759868e+00 -2.7060465757691610e-02 -3.5937230415216614e-01 1.3636482198762359e+00 -2.0861921914793879e+00 2.5522767750678792e+00 -3.1522468900844114e+00 2.3447026002300486e+00 -2.6943544233539818e-01 3.9045757709591715e+00 -3.6607928106591592e-01 3.0903706811825451e+00 1.1625611496609520e+02 1.0108288299418287e+00 6.2394217121755702e+00 3.4824299046461800e+00 1.4265709806580196e+00 -1.0075320450890828e+00 -9.3744744655848589e-01 5.8219799247844162e-01 1.0166435844049210e-01 3.0337786409110296e-01 -4.6978292517924425e-01 8.3423871045122382e+01 -6.4577380531863626e-02 -7.6626919535758986e-01 1.6795732823049745e+00 -6.3263444045757122e-01 4.4642964221674353e-01 2.9468026998158964e-01 2.7065015960835770e-01 -1.7968833298122266e-01 -8.3141259867684475e-02 3.3692349537072852e-01 -2.3088286731381572e+01 -4.1413636774331286e-01 2.2588352406819556e-01 -1.3695740518789634e+00 -1.0728829761060488e-01 4.4415554409150509e-01 2.3230475469057055e-01 -1.6299572545169099e+01 -1.6418828406340336e-01 9.5325362967454641e-02 -1.6560945438224217e-01 8.9064765687133516e+00 -2.6952936047023011e-02 -1.2074297347521412e-02 -2.6575074423921929e-01 1.0888528533906028e-01 1.3489285515740568e-01 -6.1553132264261526e-02 3.0103558545532483e-02 1.7117193949320542e-02 -4.8237608224700246e-02 1.5483160681003483e-01 1.2761293470894763e+01 9.4488665552830642e-02 9.7460333743253358e-02 -3.5082464357558685e-02 -1.1603228266687182e-01 -3.7331901669924683e-01 -4.6831110444957780e-01 -2.5499942814439935e-01 -4.5120395682799863e-01 4.5069758324155451e-01 1.9646982238908817e-01 5.0827939582802856e+01 -3.7658017051729509e-01 -2.4242119441153009e-01 1.5844718588019902e-01 6.2308755059444776e-02 7.4167114109225052e-02 1.3799596402316061e-01 5.0983854649593208e-01 2.0790659765815489e-01 2.9781268275130002e-02 1.3290224962999098e-01 9.8003977429146207e+00 -1.4071058201783093e-01 -1.3367586810480603e-01 3.0677146609931683e-01 -7.6287195984522671e-01 8.1884244923852645e-01 2.6829448875698292e+00 1.1263242474342832e+00 -2.4376661711130732e-02 -3.3031852670392459e-01 6.9050127518413174e-01 1.8315219970522389e+01 1.7873592651827652e-01 -5.9988682358079970e-02 -1.3678520732399153e+00 -5.5484674605054352e-01 1.4148640431851298e+00 -4.5365210341159701e-01 4.7133270421288742e-01 5.4099663992788205e-02 9.3209190300844513e-02 -5.5587128024434662e-03 2.3737480683230558e+01 3.3145547549991505e-01 5.0536872558613100e-01 -5.4899698967375077e-01 -4.8978473083719720e-02 -1.3943402577065944e-01 -2.4833174217574128e-01 -5.5813519131963663e-01 1.7559437202434913e-02 7.4713752449511617e-02 3.3130039597800165e-01 8.7526947479592252e+00 -9.5938997510792712e-03 -6.6648005217404904e-01 -1.1462318560720475e-01 -1.3301684691588900e-01 -3.3807334295519187e-03 -3.7978663273183066e-01 1.9199002466268208e-01 4.8356443433436813e-02 3.8232520665997177e-01 -4.9656384575942553e-01 -6.0622149494947877e+00 -2.2361391544989287e-01 -8.5691463694123726e-02 -7.2302042386556797e-02 1.6215825881996260e-01 -3.1733981957185797e-02 2.1547046597355635e-01 1.3060225796534972e+00 -3.0220336113178636e-01 -2.4615948613904365e-01 -5.8451272760684003e-01 -1.0440504483010443e+01 3.3751599422714573e-01 1.3569533011142632e-01 3.6909851389451731e-01 -4.0022922738498057e-02 -2.1088919130979272e-01 -9.9797740869436158e-01 -6.1783999783373622e-02 2.3235686259789812e-01 6.4988490301959523e-01 -1.9446687946938113e-01 2.5464251139571360e+01 4.3507005337796410e-03 -1.1972013827137573e-01 2.1552755268744983e-01 -1.7915514391131313e+00 1.6532674951465394e+00 -3.1998689861166429e+00 -2.7279759653373361e+00 -3.1452214560332070e+00 -6.5097091760968562e-02 -3.3754717642162202e+00 -2.1164902837044428e+02 -1.1262379881211082e+00 -5.5416365607826732e+00 -2.3424899948152209e+00 9.0457868394661078e-04 -6.4288651805862740e-02 -9.5427105564455417e-01 3.1759979173116903e-01 -3.5743957654438796e-01 6.9475477065256891e-02 1.7210534560857704e-01 -1.6276466544763288e+01 7.0622305479764724e-03 3.6259102478455318e-02 9.0740960383874025e-02 1.6583153823132903e+01 
      </Row>
      <Row Index="1">
        3.1018979421771065e-02 5.5999253775696197e+01 -9.4273445394619841e+00 2.1104359677728497e+00 2.7141858433349597e-02 -1.5938232894109525e+00 2.5455223523856176e+00 -9.9134462435866251e+00 4.4141869882660778e-02 -3.7551550506969802e+00 9.1331044799483863e-01 -3.1453710371568224e+00 -1.2531048757377627e+00 3.9135326713497416e+00 1.2464338074530135e+00 -1.2220000668903861e+01 2.3164141821228830e+00 -1.2135359816020781e+00 -1.7778006035288327e+00 1.3332706162744650e+00 5.5067694948180304e+00 4.2366829469273810e+00 -2.3959697165087772e+00 1.6151113297603716e+00 3.2793028589765449e+00 4.9966216244793777e+00 -1.1862304443396865e-04 -1.6934767306702542e-01 -2.7981321737398779e-01 7.8880263315758703e-02 6.3298549979318150e-02 -5.3512455674980447e-02 -1.0111394453934658e-01 3.3019510723193829e-01 9.6457360335919007e-02 -2.4956937023946080e-02 5.9493808031979886e-02 6.0330137030530029e-02 7.1762306627726424e-02 2.6020001785169244e-01 -5.0604092184180827e-02 -1.0479123319869379e+00 -2.4177915099570924e-01 1.7843459367694756e-02 3.1950137789629574e-02 3.0977402126150616e-01 -8.4802923238806560e-01 3.6556833253746507e-01 -6.5310928719745753e-02 4.6014929537228721e-01 2.4126723053931032e-01 1.1409704017240256e-03 1.7877862973076929e-02 -3.3652378086377471e-01 1.0864512112842950e-02 6.9068981112266836e-02 -7.4321121581929772e-03 1.3138372851323691e-03 -3.1588896367695229e-01 2.2461062800304232e-01 -2.7962681578331927e-02 4.8631234038292684e-02 -1.9161162412642183e-02 4.2589914754159727e-02 3.9073965633538148e-02 -3.0410441425426959e-01 1.1555544786100436e+00 -1.3365210994512517e+00 -9.6466097327280509e-02 -9.0572412156655902e-03 1.8660456303235287e-01 2.8783197778908787e-01 -9.4088205562056904e-01 2.8996817312304096e-01 -2.5905162106389429e-01 1.4966092644096379e-01 -4.4352003832289072e-02 -3.2488606073906412e-01 -7.5114046626328063e-02 1.5311278109123616e+00 -3.5438618689318574e-01 -2.0943106583501425e-01 -1.9943266109393953e-02 1.7499510450573241e-02 7.3072435576236883e-02 -7.5381131316646299e-01 -7.7143822360509831e-02 -9.7598898486417774e-03 2.3500333394870959e-01 -1.8409878914172106e-01 -2.7012384997793876e-01 -1.8326994097325328e-02 -9.2379149423485885e-01 8.1957835819504188e-01 -3.3695870300067175e-02 8.1043083191917081e-02 -5.9336887720903508e-02 1.6980061435620714e-01 -1.3980647790440032e-02 -1.1631400207826081e-01 1.2466335758761701e-01 -9.5378292855466174e-02 5.1941531620729189e-02 2.6064724298146980e-01 4.3741433078371594e-01 -6.4469552626957860e-01 -3.7774391330278372e-02 -3.3129949928243729e-01 -2.0494619805049255e-01 -1.9120968821846149e-02 2.0079237589092472e-01 -5.4198975290412810e-01 1.7133782247421436e-01 7.6525799356377863e-02 5.3827070696691715e-01 2.1815639150205196e-01 8.7749605178539358e-02 1.6382496082633494e-02 -4.2971751155182480e-05 -1.5244341224806970e-01 -4.2791349801497014e-02 8.3463128650146240e-03 7.4440210911079358e-03 -6.6236235244469741e-02 -2.2319609918676059e-01 9.3089846767557410e-03 3.9825752841533273e-02 2.0189830819580681e-01 2.0120404231012787e-02 -6.8537331130559057e-02 3.6281460573580254e-02 -1.0250904791247939e-01 2.9800457886908761e-02 -3.6682045474679598e-02 -9.4488114400033366e-02 6.0241279630963429e-03 -1.0548889788084045e-01 2.5825358185774291e-02 -7.8595880008013985e-02 5.7337431489481706e-02 -3.1884953786546558e-03 -4.7684990139912238e-02 1.2489584689684162e-02 -2.5431434076466441e-01 -4.3969123164850232e-01 1.5136741198185621e-01 -8.0548486414847395e-02 -4.4917285805849916e-02 3.8256890928929033e-02 -4.8544772860535712e-02 5.0010868417514898e-01 2.0644034844049797e-01 1.4708547043721751e-02 -4.8294166334453395e-02 -8.6978748003799039e-02 2.7016298083913523e-02 3.8722526893609270e+00 5.5129265052177516e+01 -2.0720317892393467e+01 4.3614814165081981e+00 -1.2156383725278668e+00 -3.4336958601013490e+00 3.6850740286794155e+00 -4.2035207356836963e+00 4.2882924849809534e+00 -5.8356322984590872e+00 2.5660835751857753e+00 2.2161017128377836e-01 3.7132124793401262e+00 -8.5769128683600870e-02 9.1055627528733751e-02 3.4505586135470168e-01 -1.5567831906893304e-01 -5.4854417141346179e-01 -1.8002521068245425e-01 8.5329875034582869e-01 1.0545004700282868e+02 6.0562288575152956e-01 -1.2908512047033049e-01 1.0670933290142328e+00 1.0269232007897379e+01 -5.6083791189873882e+00 -2.2245992904091514e+00 9.8644841479805934e-01 2.7711712962178821e+00 -1.1387445246513210e+00 -1.0965570166269336e+00 -1.4225146219396731e+02 8.6459633793537343e+00 1.3845446753780062e+00 7.3313465289408466e+00 -8.5575620128284360e+00 2.8285397328231472e+00 1.9446872036517955e+00 -8.6935374716499725e-01 -1.4557014250003844e+00 2.4034051201400524e+00 4.1257030584039522e-01 5.0508242073541325e+01 -7.8633446048467617e+00 -1.0066793614855185e+00 -4.1353362777762124e+00 -1.2384620071401642e-01 1.6475750779490247e-01 2.2639018247388010e-01 8.6538386040448181e+00 1.7420397146357569e-02 1.5952710950705429e-01 -5.0684682286288307e-03 1.0436271616910716e+01 -2.4333775785763562e-01 -1.6020509466749377e-01 -4.6602228311943006e-01 -2.1315676858335930e-01 3.5360689335639506e-01 -2.0924995376825742e-01 4.0016897331747181e-03 -2.0248425680499027e-01 -5.4035467106902502e-01 -2.0337636021086825e-01 -6.7956383393834727e+00 -1.0308713387051804e-01 -2.4979977029039183e-01 -6.2827354220791687e-01 5.9526171120475826e-02 1.0037139350391695e+00 2.3117298527801533e-01 1.1825328480077690e-01 2.0873346716878274e+00 -1.4196478332814273e+00 1.7409896722391238e-03 -2.5474287852159989e+00 8.3336541875750214e-01 4.0023643972474154e-01 8.8493700978201850e-01 2.1616617009847644e-01 -1.9041354916421549e-01 -1.0438898212818969e-01 1.2484047057611392e-01 2.4489799987771677e-01 3.6736104989931184e-03 3.6760377152471047e-01 -2.2139851746917945e+01 2.0100832065848934e-01 -7.0855219811554959e-02 2.2786476418804569e-01 -1.3695817942879702e+00 1.7739927098052788e+00 7.1336739331677301e-01 -1.1870333659648509e+00 -6.5480330090108474e-01 -1.9206532516850294e-01 8.6787812905264550e-01 6.7183435767269486e+01 -4.5981929517265957e-01 -6.4282961027319718e-01 -1.1806569059089220e+00 2.0151856849288752e-01 -1.5688436550719587e-01 2.5448579658933768e-02 3.8924096911013617e-01 -7.4138256951906900e-02 2.6900482037343743e-02 -9.0593588056440799e-02 -8.3483467334483151e+01 -1.1557073041912069e-01 -5.6261111021544963e-01 -5.9309154857378221e-01 3.7501175861122782e-02 -4.1267023529115932e-02 -2.6137105682991923e-01 1.7030117355746843e-01 9.4020045778022671e-02 1.1071056144127489e-01 -1.6943732910298237e-01 -8.0120893577646548e+00 2.2375036306821094e-01 4.6943127150344233e-01 7.7656949160257760e-01 2.1611201624416143e-01 -2.3436543633679763e-01 -3.6190716770345688e-02 1.1339287467449541e-02 -8.9853122009368458e-03 -5.0403051806967830e-02 4.6799893485303107e-01 1.7998624309871758e+00 1.7502993664951355e-01 2.3108071067145453e-01 3.5872456219350279e-01 1.1436933283148548e-01 1.3739156619515569e-01 1.2669964772049491e-01 3.4769432986269422e-01 -3.4452149615210814e-02 1.9947744474805296e-01 -8.8260392938153132e-02 1.2715241213370948e+01 8.0371154373738207e-02 1.2078790299691278e-02 -5.5951159322257960e-01 3.6503805087247515e-01 6.6132717718792078e-01 -5.1717179036245065e-02 -9.9171147759032352e-02 2.8600985205782803e-03 -8.5491862185186029e-01 -8.1701686698068432e-02 -4.2731319911732779e+00 5.2637806610912141e-01 -3.5536258010079980e-01 -9.7053208634980881e-01 -5.1807747470525722e-01 -1.2067942364896282e+00 -1.0056286922794313e+00 6.0309671545519450e-01 -1.7604950370591013e+00 1.1932440909603415e+00 -1.0021505002678879e+00 -1.4640193846564216e+01 -1.9015314512985810e+00 1.2806707101991432e-01 -2.1299669896426394e+00 -1.7676552932027842e-02 5.9412435832090493e-02 -7.1217513246156205e-01 1.2842398289365775e-01 2.7827178821658372e-01 -2.6934480807143313e-01 -1.0787427293977170e-01 7.5878554503320927e-01 -6.9115379825718692e-02 7.5840613070537799e-02 -3.8098088706787880e-02 -8.0899194041873979e-01 
      </Row>
      <Row Index="2">
        -2.2828968398908391e+00 -9.4273445493925063e+00 1.0601678337362898e+01 -3.1033381868156651e-01 -3.7142831627711637e-01 7.8741250907559035e-01 -2.5621831471710763e+00 5.5739303230743076e-01 -1.1622007203806000e+00 4.4277330516532665e-01 -6.0358092408693231e-01 3.2180430437521451e-01 -3.0480614822481811e-01 1.3566931921667216e+00 -5.1860472229105694e+00 -4.6887312000614392e+00 -1.0043213546952181e+00 2.8538023356302666e+00 -5.0893292711330584e-02 3.7836499090343194e+00 1.4520408955442310e+00 -1.8686468650678734e-01 7.9805210346778488e-01 7.9310431506209145e-01 5.5956036611842941e-01 4.7293065328011691e-01 2.4035674488402770e-02 -3.7279321009594898e-02 -1.0147163654854151e-01 -1.0423537222320367e-02 8.3132529059798399e-02 -3.0721539342047424e-03 3.4137727185599570e-02 -5.2328274238950812e-02 -1.3953636017115023e-02 -6.5542948993101303e-03 -5.1155881129075764e-03 -3.5661144934394720e-04 1.5082272566861815e-02 1.2218219092875665e-01 -2.2552509703291468e-01 -5.0789537143524799e-02 6.0050922115024052e-02 1.6297924373043263e-01 -5.8498433268454886e-02 -5.1109224127552297e-02 1.4573887072816868e-01 3.3492426013121135e-03 1.3675770944650223e-02 7.6306726892242938e-02 -8.0825666613965064e-03 -6.8312631176855668e-02 3.5942508907223961e-02 3.9454030436616216e-02 -1.5621224258773778e-01 -1.1077552852948615e-02 3.2997671217808354e-02 -7.5994783814516617e-03 3.3157336220896338e-02 -1.0015521319429793e-01 1.2217045322332046e-02 6.0638477270791996e-03 -4.0465861254157270e-02 -4.4226609942886887e-02 1.8517007314220506e-02 3.3025027666294504e-02 -3.5457024509082158e-01 -2.6451710755752485e-02 4.6066551348236479e-02 1.9573376538214671e-01 -8.5751520990681090e-02 -1.7233997689004832e-01 1.2877242677008038e-01 -5.0829623878860419e-02 1.0226568761754342e-02 -8.0987403272531927e-02 -2.0649753962895756e-02 -2.9206143295659071e-01 -3.2246303578198778e-02 -1.7426323758414614e-01 5.2221957341665204e-01 8.0316686570385737e-02 -5.6397059714283826e-02 3.6751556049923251e-02 9.4609420291019708e-04 1.8271778322787571e-01 -9.3278069681638834e-03 -5.3891925193548601e-02 6.8796244410260325e-03 1.0726545179306478e-01 -1.4311927447937828e-01 1.5973862051120952e-01 2.3274381163969951e-01 6.3838750221392911e-05 5.1619895776261471e-03 -1.3783745209906340e-01 -6.9685106614980785e-02 1.2350124420817427e-01 4.5582053229576688e-02 4.3707318524127459e-02 2.8488782341607816e-02 6.4177173308764046e-02 1.2246884167546299e-02 1.7031653599455129e-01 8.2923863965316535e-02 -1.6262163976647211e-02 4.9250024304617432e-02 8.0749472466909819e-02 1.9097617744129648e-02 -4.3058099117427778e-02 7.9340928637851527e-02 1.7560655940117537e-01 5.6411766387923667e-02 4.5703994446364832e-02 1.8396106651650423e-01 4.7807805873991485e-02 2.5609490011955900e-02 3.4016988523647998e-02 -1.6165141994433675e-02 2.6287835703781022e-02 2.3464367284166412e-02 1.8453826216679577e-02 3.5229116553591594e-02 -2.4765979955478676e-02 2.2949244217103287e-02 1.5631593512413111e-02 -1.2320719550552882e-02 3.0692536997624004e-02 1.2527986729664660e-02 -3.6342580064703728e-02 -4.6874552989672968e-02 4.5190744048970805e-02 -7.7494622784805969e-02 1.4282454981019583e-02 -1.5638644987235911e-02 -1.4216326488755149e-01 4.7221156018282633e-03 -3.5557677737884090e-02 1.5421309754637125e-03 -3.2956156840721985e-02 -2.4349801689052257e-02 1.0630357159845037e-02 -1.3100740948236884e-02 8.1640427619576919e-02 9.9737256883658310e-02 -1.6090682882781374e-01 4.7794504836320417e-02 4.6839275585695284e-03 -8.4006576164790125e-03 1.3303813660239583e-02 -7.3967507559541651e-02 1.5642363215055521e-02 2.3919370983823511e-02 -1.3361755205205994e-02 2.1577992485858490e-02 7.3049953167112500e-04 -7.8379685741037974e-01 -1.4163919000430967e+01 5.6353497116153362e+00 -1.2916081678909279e+00 2.3749674291645926e+00 6.4087585236622713e-01 1.2194563464009036e+00 1.9183313303717955e+00 -1.2285072066826928e+00 1.2038918035847854e+00 2.1925135259182937e-01 8.5097384768281437e-01 1.6357086145697775e-01 1.2261567115837391e-01 9.1833851317468351e-02 -1.9256653302485116e-01 8.6305270784890808e-02 1.3766858831605056e-02 1.5839303156346451e-01 -2.9566851481962741e-01 -3.6932862033932565e+00 -2.1561443762976640e-02 -1.9840122619503742e-01 4.4835032205127057e-01 -2.9400076857077302e+00 1.1201447542777259e+00 4.1639205832932102e-01 -2.9411307374817131e-01 -4.6262580266625342e-01 6.2546615806727979e-01 2.3212530075684923e-01 -1.2877488641928949e+01 -2.7232850959419754e+00 -3.4614883812253083e-02 -1.6548323580636985e+00 1.2919303222637821e+00 -1.2143185917097852e+00 -5.0568781500226034e-01 4.5031953494717114e-01 5.3693480922642645e-01 5.0441701273608697e-01 -5.4462340608942983e-01 6.8286418328941068e-01 1.1068429898560748e+00 1.8628277068656618e-01 1.3004848721912170e+00 2.7131654343240386e-03 -6.5737094720640682e-02 -1.0506724717573301e-03 -9.6359018237301068e+00 3.9244507512189976e-02 4.4091883337945892e-02 -1.6848003148286828e-02 -4.0394322973858934e+00 4.7356983648541955e-03 3.7497360880952790e-02 2.7614130540524545e-01 2.3476541319171762e-03 -3.7039697065291366e-02 -9.5251644346111795e-03 4.4195842253173967e-02 8.9392177494634378e-02 -1.0656361581964591e-01 2.0127165153428061e-02 -4.5999787985630238e+00 2.6280982091634965e-02 -1.0741744402810102e-01 1.2951554489099970e-01 1.7651092218760722e-01 -1.0503110960428863e-01 -1.5533238518433379e-01 -9.9086497945112706e-02 -9.5158437003805296e-01 2.3422256192817115e-01 -1.0076900270061673e-01 -1.5016322019679478e+01 -4.0706901530328299e-01 -1.8504526676206012e-01 -1.4676034299566432e-02 -3.2032798897034823e-02 7.5474878146683799e-02 3.5499142476037200e-02 6.0173994480461346e-02 -1.1455199717738815e-01 1.0181196240082735e-02 4.5681431839479814e-02 -4.8919407772063650e-01 -5.2687871313483278e-02 -8.5304479706096864e-02 -2.3018441289602953e-01 1.9801743094835844e-02 -2.3498224221490704e-01 -2.6015699645187340e-01 5.8573742685750574e-01 1.6986424024102403e-01 8.6750768925953015e-02 -2.2217150170647804e-01 2.2108798526741609e+00 -1.4206565041994423e-01 1.6945377450340793e-01 1.7335590086925357e-01 3.6080811835899063e-03 -4.4621316433554092e-01 4.9236165502769491e-02 -2.4833793551754857e-01 6.0457353088414045e-02 -2.0474606674754262e-02 -4.0895575833372666e-02 1.9345148390650024e+01 -1.0201919928254144e-01 5.2999479374662428e-03 1.2411344515376022e-01 -3.3987652719708050e-04 1.9249172656284763e-01 1.6608843691676228e-02 3.9549891996571329e-02 -1.4321600754103581e-01 -3.8677321653458674e-01 6.0909040758198307e-02 5.0801906431934469e+00 6.8727601885777562e-02 -2.4959151133730584e-01 -3.7453111666315042e-01 7.4350763415413468e-02 4.0981598884023418e-02 -6.4906376375334557e-02 -7.4826953000256172e-02 -7.7934910229169874e-02 1.4082389947010726e-01 -2.0448483147952168e-02 4.5507169543893511e+00 4.1164531563817219e-02 -1.8676394996499063e-02 -3.1697633949678028e-01 -1.3048597708009757e-01 9.0792909033866387e-02 1.2371117529088765e-01 -1.1350013353442279e-01 1.9057520466166267e-02 7.6282281408778019e-02 1.8223689690986689e-01 4.6513742536132661e+00 -1.6586546864494522e-01 3.9614060377104465e-03 1.6464489262257742e-01 6.7398493965640779e-02 -1.3507908402367430e-02 -6.0546675871579733e-02 -6.2419179107098821e-02 -2.1319462638610901e-02 -4.8324561719145176e-01 8.0805784439414358e-02 -3.0037417585580961e+00 2.3800014120536339e-01 1.1394272189761467e-01 -3.3007445740822550e-01 5.2129328130797203e-01 6.0094082689434991e-01 4.8351238419449816e-01 -3.0517745360890558e-01 7.7154783933184135e-01 -6.6471468373659803e-01 5.1879784905895932e-01 -4.0611217951509389e+00 1.4299388728004949e+00 4.7560268138361650e-01 -3.1679351173107051e-01 8.7613462131203024e-02 -2.6328683547967469e-02 -2.0866907828729797e-02 -4.2763884001277574e-01 -4.2740078662824477e-02 -5.5018502969847172e-02 -8.3348816620954530e-02 1.3372741711505309e-01 -5.7650999284909688e-02 -1.1437754338986750e-01 -9.3330107027275677e-02 7.6513549159218763e-02 
      </Row>
      <Row Index="3">
        5.7670920853044427e-01 2.1104359569040589e+00 -3.1033381592641840e-01 2.5151501792831414e+01 2.3947421046443651e-02 -1.6812355202663909e-01 5.7950257441475972e-01 -4.2807224085682183e+00 1.5015817771038380e+00 -1.5959061677620796e+00 3.7660690770034522e-01 -7.7226678777558344e-01 -7.4963690887320286e-02 -8.1615693132302658e-01 -4.6108086886495125e-01 -5.4178513198120781e-01 -1.2939100717429069e+01 3.5955506870662135e-01 5.0857394289233104e-01 -5.3028604915467081e+00 2.5333659209944841e+00 -1.3247503792086113e+00 2.2749569259176772e+00 3.2204320951314591e-01 2.0183618458006873e+00 -4.2795021772698894e-02 4.3586699807374889e-02 -1.5137090962566498e-02 -2.5082419249769811e-02 -3.6143182466921042e-01 4.9572406810057298e-02 4.9762721577168954e-02 2.1763253222324537e-02 -3.4462180085456762e-02 -3.0801126850600546e-02 4.8335666725222187e-02 -2.6704146848064783e-02 -1.4113520772935116e-02 -1.4543513309606043e-02 -7.0021412158673496e-02 -3.7109217779927151e-02 -6.7061474380647856e-02 2.4121434551449639e-01 -9.3391187451818958e-04 4.8617432295483987e-02 -3.5620554613973859e-01 8.8044862467581775e-01 -1.0368658896540761e-01 1.1191947855929704e-01 2.0323440548558072e-01 2.0145435819171525e-01 6.7912317875413047e-02 3.1539668545160451e-02 -2.7184005144427315e-02 8.1347825624549785e-03 -9.8634265367293306e-02 1.2027967766240627e-03 2.5299290798440621e-03 9.1986071518799201e-02 -1.1434267729546060e-02 -4.7712866948474861e-02 1.2827046973320801e-02 2.3545760568986517e-02 6.7949616729190476e-02 3.9544666418394048e-03 1.3954647431051936e-01 1.6978845570750645e-01 -4.7071250892183496e-02 4.9933555146207054e-01 5.8262845372071152e-02 3.6346744178178403e-04 -2.7261574532711941e-02 4.3407207022049032e-01 -1.3965619701815060e-01 -2.0333829962575434e-02 9.6743241873833485e-02 -1.0670886612346617e-01 1.1057086880042014e-01 -2.0989875078158718e-01 8.4368068221560052e-02 -5.2151660087837844e-02 6.2009232200169473e-01 -6.3800557856637047e-02 -5.5901625897774518e-02 1.7276209239418869e-01 3.3389443228992721e-01 1.6180249518964546e-02 -4.2490702543552500e-02 1.3709149055678806e-02 -1.4494504667244715e-01 5.5682812901134908e-02 -7.8917718685506510e-02 -5.6223866296369010e-02 4.4523849516878169e-02 -9.5500731184799334e-02 -2.0065764044684568e-02 -1.5052688298615474e-02 -1.0191527763285380e-01 2.4111744134120733e-02 4.6506150913428468e-02 2.2576125193496693e-02 -4.0987369482063940e-02 3.9594777202206374e-02 -3.6118548895537436e-02 -2.4455700252632567e-01 -1.5471936097690206e-01 -3.4618930461185332e-02 2.0155119063720292e-01 -6.5630270658708093e-02 -1.5334167441279734e-02 -3.7896153645211339e-01 8.1436912937570372e-01 2.7810078836957963e-02 1.5783240071252375e-01 2.0771766861690513e-01 3.0317638748544840e-01 3.5063626372668237e-02 -4.6852020142239117e-02 -1.8091388300335763e-02 -1.6840828724124651e-02 1.4390554244157028e-02 -1.5587691520727198e-02 4.9671643104309965e-03 2.7915272989126612e-02 2.1085772307820122e-01 -2.8189066497945281e-02 2.2162762326085633e-02 4.6494854823835086e-02 2.0522808886146091e-02 1.8702015178192567e-02 -2.5590057017709830e-02 -1.4792833666826918e-02 2.4662792740716422e-03 2.2361058361709502e-01 -9.1443778597411096e-02 -5.4413324945006648e-02 5.0145622311129935e-02 3.2952419287347268e-02 -1.7694336550547196e-04 8.2119748670326318e-03 7.6710319824433576e-04 1.9272914640332414e-02 -4.1683605786813870e-03 -3.2538042641662393e-02 -3.7395290656731486e-02 -2.3704179309217300e-03 5.4135338033943459e-01 5.6242957771181129e-02 -1.8219226767143604e-02 1.7672393036290035e-02 1.0498672738738146e-01 6.8797804428029963e-02 1.5488526893657828e-01 2.3969941851714562e-02 6.5380605022853505e-02 -1.3670418321032884e-02 -2.6971077615614636e-01 1.5094078362547192e+00 -8.2423525020257626e-01 1.1588774670240188e+01 3.0306373340197990e-01 3.1999117418482315e-01 -4.6542555030008383e+00 -1.6422804484377611e+00 2.1659685338788748e-01 7.6363875325203101e-01 7.4709598887215678e-01 1.3293024294460318e+00 -1.0905743718870120e-01 3.3500521739136258e-02 -3.0823705204141372e-01 -5.0201391842440568e-01 -8.2036919224478533e-02 4.1761354724370237e-01 -6.4728534041144314e-02 3.5281429089222560e-01 1.8406203026373191e+01 2.2976482330434747e-01 2.2555073998811301e-01 -2.1614839129838570e-01 1.6391492628233517e-01 -1.6478243569355427e-01 -1.8973677241597664e-01 2.3629631478588459e-01 2.3156764409101596e-02 -2.5568309062088440e-01 -6.1556929224661092e-02 -5.8614645185520658e+01 4.8786740044754162e-01 6.0820024331990485e-01 2.9363240382073214e-01 -4.4199072314004018e-01 1.5726993154280211e-01 -4.0448567030868743e-02 2.2927274397038933e-01 6.2664192712302058e-02 -1.1969301083551245e-01 1.1877774673908825e-01 1.8248954780445501e+01 -3.6053227482602590e-01 -3.1534677621091944e-01 -2.8513043272339900e-01 3.1830693415839006e-01 -7.6202796223724212e-01 -7.3384200515523723e-01 2.0416034314883120e+00 5.4300851969439456e-01 3.5009267440458403e-01 -6.3404043653026898e-01 -3.9692202740703181e+01 -7.7526849503337658e-02 -6.6895276906781120e-01 1.0865286325343266e+00 1.1173164532451169e-01 1.3891113696154381e-01 3.7871015856966378e-01 -1.2848233453638935e-01 5.9044541427481265e-02 8.7996538788158718e-02 2.7850271108261104e-02 -3.4035130043031359e+00 1.5557215352920817e-02 5.3899927063775110e-02 5.0315765303098281e-02 -6.3333368050766614e-02 2.2896390371604369e-01 1.5809595459853032e-01 -8.8133920655709019e-02 -4.1294070340623845e-01 3.3599513637583578e-01 -2.5518195309419944e-01 -4.4147279519456788e+00 -2.4879700749783606e-01 -1.5358559519667825e-01 2.9885806274538973e-01 3.1787768506784775e-02 1.7853690178609938e-01 -2.8142196353537909e-02 -3.9535124736889937e-01 1.3905720210635364e-01 2.6907094094315576e-02 9.4594642596473211e-02 -3.2863556620860170e+00 -1.4910510664396609e-02 -1.3010938333981403e-01 3.6076441809627391e-01 3.9974537890452944e-01 -3.7724638555756451e-01 -1.2132178909433291e+00 -9.6245937685179328e-01 6.0277644747026171e-01 3.6747598573692075e-01 -5.5914457417903218e-01 1.5709899779217373e+01 -2.0422553867886606e-01 -3.2855659736999909e-01 7.2257977307686572e-01 2.2200271499213881e-01 1.7099056186480954e-01 1.6533054044459083e-01 1.7978995164766864e-01 -2.6150583946563444e-02 -3.9345414843316329e-02 1.5597893944643726e-01 4.1089026860158810e+00 -1.0848717179552880e-02 -1.5330197735053774e-01 3.5172352332393686e-02 1.2338133150583852e-02 -1.2048996291144043e-01 9.0400764281082888e-02 -4.1803633167606935e-02 -8.0323782162498247e-02 -9.2055195658554467e-02 1.2329392149692453e-01 -2.2453265429404468e+00 2.8894840756645807e-02 5.8771047053202530e-01 3.4822892381145110e-02 -5.2228276999271905e-02 2.5395526116368305e-02 2.9868116734006467e-03 8.8563402446091809e-03 5.1854258315036539e-02 -1.3677021081283514e-01 9.0178151573233833e-02 2.9822553471878201e+00 3.1523981820014979e-02 -2.2142023875208139e-01 -8.0523494101581328e-02 1.2482159951628113e-01 -9.1613677081036182e-02 -1.9956517568572885e-01 1.7538421635090895e-02 2.7607260352584539e-01 2.9160981446097178e-01 -1.3017251819641418e-01 5.4573816497958791e+00 -5.7578130108274950e-02 -6.4857784757871073e-02 2.5960795777371692e-01 6.0599542620304814e-02 5.1932834372687919e-02 3.5360944379592785e-01 -1.6510981295604155e-01 -1.2215374261579981e-01 1.1749454205043286e-01 4.2652923274817622e-02 -1.2900972550235281e+01 6.4830641323417038e-03 -2.2663332524619273e-02 -6.9642272295076357e-02 -5.6042479480218299e-01 4.1874700705963819e-01 1.5040232312491195e+00 8.5472890785698397e-01 -7.7935678210766657e-01 -5.1829784261602363e-01 2.3508249427641115e-01 -1.1096824176667326e+01 1.4147047296856430e-01 -1.7720882652552114e-01 -1.0781496374347288e+00 -2.9418376016705591e-02 2.1631488223655904e-02 3.8561674631657084e-01 1.0840320528267711e-01 1.5046999785959048e-01 7.7236305547718320e-02 -5.0542867727024321e-02 -7.0307095870086855e-01 3.8717815334650574e-02 -4.9382848567480764e-05 -2.5995372449685999e-02 5.0006877447543385e-01 
      </Row>
      <Row Index="4">
        9.3152655658443950e-01 2.7141860611870516e-02 -3.7142831688970190e-01 2.3947421207079600e-02 6.8330681541583562e+00 -1.3458586926361662e+00 1.2759422386768984e+00 -2.1842219238933813e+00 2.0416258437608459e-01 -7.4021161592234819e-01 2.8275113975370125e-01 -5.5820417677229528e-01 3.2545068439399655e-01 1.3459911966044951e+00 -7.9843849445890824e-01 9.1992302781233182e-01 -1.9276346967615632e-01 -8.5050167832799985e+00 8.8927423003314043e-01 -1.7517342205271036e+00 2.4964602161692411e+00 6.8274825768754699e-01 -1.4118077992870309e-01 -1.1573797049513359e+00 3.8178452104673066e-01 -1.0642039650852335e+00 3.1184583531913591e-02 -9.3669436662953791e-03 5.2949067993565621e-02 5.0776280097092653e-03 -4.0027600895934445e-01 2.3935421485236641e-03 -6.3484585249143397e-02 6.6469667565644042e-02 3.1338210598514660e-03 -1.3805111825675655e-02 -1.7081478359958123e-02 2.4958295955675253e-02 -2.5349452778936261e-02 5.3465161892052818e-02 -7.8133574630151706e-02 6.3244484004560036e-02 2.0752068607772928e-03 -1.2787482740841530e-01 5.8457510857671854e-02 -3.4676109583751807e-02 -7.0678615997621208e-02 -9.2849588831607349e-03 -4.1004210595537327e-02 1.3797705027246149e-01 4.1173041854443093e-02 -2.5012133780371128e-02 2.8259155406668186e-04 -5.4321000577604861e-03 3.7968602465092184e-03 -1.9609888854065935e-02 -6.6749576377388778e-02 6.3460683704333887e-03 -1.5015229666372965e-01 5.2723689134504939e-02 5.6748169060927070e-03 1.1257372816338684e-02 -1.9362332446489064e-02 -1.5558476621277916e-02 -2.4878068481321788e-02 1.3573727398693644e-01 -8.0067034875287518e-02 1.4437338104569386e-01 6.0262119526961588e-02 -4.6541314560685249e-02 2.5089021247305443e-02 -6.4805225671469013e-02 -8.6018361617250960e-02 4.8927153713188350e-02 -1.0750922382220895e-01 -1.2173824648103224e-01 1.0637339369698547e-01 1.5063007478046914e-01 3.3243267945548896e-02 1.9598408642383228e-02 -5.3484517659446042e-02 4.6740528662048669e-02 5.5351343691410448e-01 -1.3564413809234607e-02 3.7850349221107707e-02 -2.0186328353804273e-01 3.7270501980196741e-02 6.6620292114485877e-03 5.5214601260909990e-02 6.3764260078696761e-02 7.9302044023754084e-02 -1.0878647095168655e-01 3.7724901178803942e-02 -1.0360834603294805e-01 -9.6929115054381794e-03 -1.0079297040945097e-02 1.7084270960377339e-02 4.3143302460388250e-02 -1.7188030770926972e-02 2.1241046648019235e-03 5.2852296662675526e-02 7.6080433213580045e-02 -4.1997085855846231e-02 -9.9677421471019420e-02 -8.4320131834537924e-03 -3.1045830272356880e-02 -7.9972859971393098e-02 -1.4188837433287763e-02 1.2581042656735844e-01 8.6197200265504925e-02 8.0128849798027160e-03 -8.6617571784905187e-02 -2.7621578070011310e-02 4.8748780545224413e-03 2.9933722324951179e-01 6.0925798126309025e-03 -8.1424077423082178e-02 2.2071408221559754e-02 -1.3658572969408957e-02 1.7450637039220940e-03 1.6935717302474479e-02 5.1871294872137111e-02 6.5982867648793700e-03 -2.9051914553854381e-02 -3.5872545919895131e-02 3.6390747272808735e-03 6.5007620540288632e-03 8.7323429434361777e-02 2.7248494717072982e-02 -1.0494084822224145e-02 7.3201964317189880e-03 1.4657320064668028e-03 -8.2757023799463689e-03 -7.4185923330246789e-03 3.3776543318779240e-01 8.0962772448340825e-03 -1.5477488356948708e-02 8.3217713881141367e-03 1.3931032268395482e-02 4.0660629019053207e-02 -3.3980624417792437e-03 3.7645314088782852e-03 -9.3228608126061686e-03 6.9551316096319316e-03 3.3365689925468352e-02 9.5566750845368521e-03 -2.1778494541745630e-02 -9.7035475720746334e-02 2.4436083795173345e-02 -3.5904641214903069e-02 6.9624410724129032e-02 -1.3327383008627269e-01 -1.3126994574721128e-02 -2.4591726036498368e-02 2.2422911537511029e-02 -6.0150935239590073e-03 2.1761547877962766e+00 -7.3688149533141778e-01 4.7840848961847510e-01 -1.7738115068299720e-01 -1.4251765571637292e+00 -4.4527696001019990e-01 -4.9721274802716620e-01 2.9828231236258534e-01 8.5119130222420081e-01 -8.3864395438795869e-01 -7.6246563562443725e-01 -2.0789836974092049e-01 -7.6704491634842797e-01 6.5540699099155192e-02 -1.6023288586455786e-01 2.4801440507054628e-01 -3.9380976310399163e-03 1.7780199296975807e-01 -1.3931942831714283e-02 -5.3635860443933758e-02 7.1762295102985476e+00 6.0600065842385920e-02 -4.8411463910124741e-02 6.5906977865854977e-02 1.6353490183555036e-01 -2.1480301699771959e-01 -7.6116077791684972e-02 -1.0655694770017754e-01 6.4345287417373664e-02 -9.9838670860695283e-02 2.3853691746690850e-01 1.0821707979874247e+01 1.6025487030397662e-02 -1.7693895329207060e-01 2.0441756442264630e-01 3.6506941595156800e-01 7.0806230845644746e-03 5.1717294853947693e-01 -2.3286530440374625e-01 2.8598683661704621e-01 -4.4722026942683357e-01 3.0476401132381076e-01 6.8207836065579386e-01 3.8804217599244756e-01 -2.7003080548980263e-02 6.3471222046027620e-02 -1.6648705518315488e-02 5.8876123046060845e-02 1.6433408322799123e-01 -1.0238670929631144e+01 -2.6060431716828356e-02 1.5818397573318821e-02 6.7270464142524078e-02 -1.0437170663512822e+01 1.1984587916259670e-02 5.2536759834078781e-02 4.2524529581236870e-02 -3.7736353553554575e-01 1.7805717769763141e-01 9.2681013543550828e-01 3.6578593462740983e-01 -1.0588339198461311e-01 6.1048115997167984e-01 -7.4437827882317364e-01 1.5875837154756312e+00 -2.5528296898863534e-01 3.0565169483202204e-02 -7.8316242950310117e-02 -4.2093396871201477e-02 1.2230571806427282e-02 -3.3618303516260961e-01 3.6148818652896403e-02 4.1915066299619708e-01 -5.7583232204342805e-02 2.2769608426355781e-02 1.1992713271275022e+01 2.9461275842502277e-01 2.8805407088577273e-01 2.6312976669098376e-03 7.9300509545257275e-02 -2.9502773935941695e-02 -1.2102965739687832e-01 2.0284887387297057e-02 -7.2585678214750871e-02 1.7758430897208771e-02 4.8117039636130621e-02 6.5016795528535400e+00 4.7945116623352685e-02 -8.7284932099596868e-02 -1.6948546716987656e-01 -4.4505294607993351e-02 5.9309618912321393e-02 1.1548769656669611e-01 -1.1537355409438188e-01 -4.0751090057986231e-02 -7.7400219952257446e-02 2.5184215491484430e-01 -2.3023293825937774e+00 4.5057655660127649e-02 -5.1541787210523146e-02 -5.6610638921330447e-02 1.2307122095631895e-01 -4.6156589032387174e-01 -9.3359667942810309e-02 -2.1824595567338090e-01 1.5535508040088103e-02 1.5584179702042478e-01 -1.4948643625524782e-01 -1.4864714476372171e+01 -4.8145622757292283e-02 -1.8562557981451300e-01 1.3763210201884213e-01 4.4245904706014166e-02 -1.6831580177106953e-02 -4.6697855368523000e-01 2.4308140444622378e-01 -7.9645256876390708e-02 2.3799826797908002e-01 -2.3268642301760234e-01 4.0146834035905492e+00 4.3366175917534736e-02 3.2611103584425344e-02 5.3298664708758325e-02 1.1170185599506252e-01 -1.9994475643007853e-02 3.0105834203348869e-01 -1.5942072080823377e-01 1.8540549736696277e-02 -1.1562092237125274e-01 2.1369642372684614e-01 3.4336990263682887e+00 2.0185891238936715e-02 -1.4516012208731008e-01 -6.0978197492525532e-02 -9.1628964449932737e-02 5.7891947955210465e-02 5.0122599806423496e-01 -9.5513461438655689e-02 2.5975251444923048e-02 -7.2072334436559138e-02 7.7936711660656854e-02 -8.3093667103670708e+00 -1.6391577881959329e-02 -2.9272084382963026e-02 -1.2003572993446254e-01 -7.6756925019737063e-02 5.4657030718372301e-02 -1.0462516105123121e+00 1.5826621110211558e-01 -1.3124481409296151e-01 3.2209541908472167e-01 -3.4641722291396077e-01 -3.1146662577817956e+00 -3.3934349599347671e-02 4.3872302187607071e-02 -7.5567543502417289e-02 -2.3146863193119949e-01 5.6834533072921034e-01 -1.4037833618209894e-01 3.5625029046462231e-01 -6.3218144798162612e-01 -1.5244423122558892e-01 1.9259328600707804e-01 -6.3529685885762319e+00 -4.7152926577602461e-01 7.1535188269963745e-02 -2.5448847417291987e-01 1.2020307749986272e-02 5.9166295975490169e-03 -2.3217390466211318e-01 -4.9991725555399213e-01 -2.9101226662873472e-02 6.0919441159333856e-02 -2.2129851328569011e-01 -8.4965039949548171e-01 6.6213171226855161e-02 2.4240812746127549e-02 -2.6411824903509462e-02 7.9848818762831530e-01 
      </Row>
      <Row Index="5">
        8.8280843463776837e-01 -1.5938232983505252e+00 7.8741251011658098e-01 -1.6812355308632387e-01 -1.3458586923941847e+00 1.2052413633009332e+01 2.6310340950229860e-01 1.0101388223032193e+00 -9.6856074253785174e-02 4.9558801774561467e-01 -5.1379215221300101e-01 8.6800747924604418e-02 -7.8736863769640475e-01 -2.0217181602325496e-01 -1.1278912018894460e+00 2.3448368848372339e-01 -3.5661853213801664e-01 8.9647495103302965e-01 -1.1886463871044704e+01 -2.6655234604380706e-01 -5.8570207836356425e-01 -2.9773976894052478e-02 -9.8984903501639931e-01 4.6962385042373900e-01 -1.1021801663266668e+00 6.8315427159005226e-01 -1.4755823744676350e-02 9.4636073606784790e-03 2.1463509513510830e-02 -1.1962221314149812e-02 9.6939383735963752e-03 -2.7734823421676080e-01 9.2215594404147713e-03 -1.1202339745665091e-02 -9.6155815256003668e-03 1.7445367653861729e-03 9.3602099112018947e-03 -1.6536625348687991e-02 9.5335447776588450e-03 2.0652270466669953e-02 -1.1367441617292484e-01 4.6847910332882658e-02 6.9115148601341936e-02 -1.0122201984921586e-02 -5.5464665424828685e-01 6.2843159090816059e-02 -9.2615311661299327e-02 -3.1795867010005530e-02 2.4428462360220893e-03 -2.6986672738227158e-01 -1.2176298023408305e-02 2.6886174965871108e-02 3.3250253688254343e-03 7.8737372298820496e-04 -1.1027745041235807e-02 -1.8145793807320704e-02 -2.6437635416094699e-03 -1.3845104071792458e-01 -3.2636655438877782e-02 2.3893467409929842e-02 3.1765101256645001e-03 -1.7467864750927597e-02 1.3802728285416585e-02 -8.1787031646781173e-03 9.2325176807088443e-03 -3.3914773052228453e-02 -1.5521160587213645e-01 6.4085005804549233e-02 3.1992756840108494e-02 -4.0524992415979871e-02 -7.3633894300535585e-01 1.3531031936924365e-01 -1.3855257039736057e-01 -5.4708022652298870e-02 9.0793036523041964e-02 -3.2197301991116437e-02 -5.2728644711986128e-02 -3.1302921287179389e-02 4.4572922812731938e-02 -7.7176523230992222e-02 2.6805938712641555e-02 3.9342489673957481e-04 -2.2568641178820383e-02 3.9822814356874880e-01 4.1451096696475877e-02 -2.0300800850092608e-02 -5.8605398258067196e-03 -7.7668741019323612e-02 -2.4472934566802086e-02 3.4929032923570212e-02 -4.5467828667587987e-02 5.5781927548786171e-02 6.7107832176490426e-02 -6.3259682280401838e-02 -1.4024237040372062e-02 3.5667602595224786e-02 -1.1365902970486530e-01 -4.5203839504481529e-02 3.9003568674614165e-02 8.6074532920056568e-03 -2.2956373863751538e-02 7.8594221641119164e-03 2.6073362467476307e-02 2.3643087164264179e-02 3.1868208806145583e-02 -3.5722425679558426e-02 -1.5555058606624698e-02 6.9993452728759009e-02 5.6455492477271003e-02 -6.0297470277862079e-02 -6.7227095247927068e-02 -3.9636137163686636e-02 -2.9869825795003635e-04 -1.1748533555158758e-02 -3.3907071087637092e-01 2.2972106771708689e-02 4.4349071587726385e-02 2.5582871530790419e-03 -1.0894006485731203e-02 7.5997739873718724e-03 1.3403731933135266e-02 -5.3532640778058971e-04 1.5038477659851490e-01 -1.0057795803776803e-02 -1.4460644853726192e-02 -7.3905991493927736e-06 -4.3628698709494637e-02 -8.9636647706305528e-02 4.0759392960836721e-04 4.2806324032888567e-03 -3.4031304706202900e-03 1.3268901031439490e-03 1.2489119281831900e-02 -4.7551643078983519e-03 -3.4520550413081885e-03 -7.0575009849154613e-01 1.7004185436374657e-02 4.6974286498300433e-02 -1.6107244549258028e-02 -3.2353227245991434e-02 -1.2868805448718903e-02 8.8389131965719916e-03 -5.4889445008206895e-03 -1.4283998403488818e-02 2.2145931585221316e-02 -5.9976085511371235e-03 1.1638520842609523e-02 7.1358413869203399e-03 -1.4224523010143950e-01 -2.9654582896802006e-02 2.1630042026538773e-02 8.0357694597474438e-02 3.4550779791527916e-02 2.7682335537472402e-02 1.0579700623239791e-02 1.2863100729260446e-02 7.0891805350931669e-01 -2.6414413436221640e+00 9.7363063562222785e-01 -5.3118733405056229e-01 -4.1467676079114257e-01 -3.2027913944743269e-01 -3.9098700748243065e-02 4.9923906586839939e-01 -9.1956241508688308e-02 -5.4257590891782004e-01 -1.2030259953090630e-01 -9.8583008334164357e-01 -9.6352024141088899e-02 1.1054290916848508e-01 2.9065890088819546e-01 1.3052388326178943e-02 -2.9677431323445358e-02 7.4503054448502359e-02 1.4333690686397238e-01 2.8732469704322527e-02 1.3202637165469483e+01 6.2352157569012218e-02 -3.7766940768906965e-02 5.6399266956293853e-02 -2.7005605504875807e-01 2.8000714340267652e-01 6.1095763238091794e-02 -1.4912182363092670e-02 -2.2831364491157835e-01 -4.7225381717249881e-02 6.0168433431708149e-02 1.6493388613892591e+01 -6.4566146674518776e-01 -5.6890283277059195e-02 -2.3585143155444524e-01 5.4344481119957533e-01 -1.0761838036833843e-01 -1.4665275610535158e-01 -5.5564971977286159e-02 -3.6150794361958227e-02 1.1178187351510138e-01 -2.3242865242015853e-02 -1.6284749964578225e+01 6.1722373242028472e-01 -3.1296516489978665e-02 4.6744463557331661e-01 -2.2250802347801746e-02 1.7990698543728520e-02 -6.2972123993955492e-02 -2.7788883665778606e+01 -3.3495936304762941e-02 3.0570036980954285e-02 3.1259360038560530e-02 1.9645432134600554e+01 1.2399378725655197e-01 8.1773482976255529e-02 7.0148879937222297e-02 7.8191094916252618e-02 -2.9220788696317279e-02 -1.2862158898261811e-01 -1.6864900994227577e-02 1.1230637190429160e-03 -1.6034984733911095e-01 1.5055803340343532e-01 -1.5398688477480817e+00 2.3457710444611715e-02 -2.1192325647942267e-02 1.4275125329003127e-01 8.2344043569064884e-01 -4.8033587422646851e-01 -6.5588392356287528e-01 -2.4807574043209571e-01 -4.0110518190610849e+00 1.5398405302619023e+00 -2.1950406237255020e+00 -2.3259879193644360e+02 -1.1363245120003804e+00 -1.6242781908452748e+00 1.0937480246351949e+00 -2.7181564128345104e-02 1.2156265538787553e-01 1.5796220061677180e-02 -4.3890944354600059e-02 2.9678918372471053e-03 -2.5463408583938252e-02 2.7462676938869279e-02 -6.4527637063920658e+00 2.0758557066430140e-02 -6.2152937989568890e-02 1.5992352449650063e-01 -1.2156164907647116e-01 5.8548264755257873e-02 2.9407334633784682e-01 -1.8086633137205688e-01 1.1278407119157829e-01 -1.3984210594071955e-02 1.3901791302184147e-01 2.8351587673416745e+01 1.6022469442106191e-01 1.6182169689732362e-01 -2.1857992364766216e-01 -9.7956664007148753e-02 -8.9250711855036302e-02 -2.3584249817691832e-02 -3.1576088897660171e-01 5.0175022087807220e-03 -8.9609343063560623e-03 4.0898437979250968e-02 2.3901337623090683e+01 1.7941797719117192e-02 3.9813183028754906e-01 1.8458459155995310e-02 -5.8555099074070083e-02 1.1490469969196626e-01 1.6695282556479968e-01 -1.2729441180693549e-01 -8.3132898275935951e-02 -1.6731240560045624e-01 -1.8432928432362411e-02 8.6766779320503531e+00 1.1737873183551445e-01 -1.4283951058293853e-01 -1.4592019699553715e-01 -1.8469813438592741e-01 9.1547922347567257e-02 -4.1191114020668051e-02 -1.1231323123793265e-01 -8.6069622658020428e-03 1.9064637054174166e-01 -9.0789958706907301e-02 -5.5433363442280594e+00 -5.9461821229954692e-03 4.3897842695267641e-02 -5.4031007025106881e-02 -7.0819235211999065e-03 -1.8537532536201495e-02 -1.4946347997476273e-01 -3.6731006421737433e-02 -6.7441891075387894e-02 3.3790476714238737e-02 1.1537317488588983e-01 1.8778078742425123e+01 3.1835168448990092e-02 4.4962572783424054e-02 6.2100842872065964e-03 3.3514506022249313e-02 -1.8020438615823986e-01 4.7148730641102810e-02 -2.0272846236269904e-02 9.4948828357952236e-02 -2.1083277782324061e-01 -1.8513372696773028e-01 9.1429604969717246e+00 -2.5002826240325425e-02 1.5344417497069340e-01 -1.0578087838774364e-01 -7.9968040391032025e-01 8.0211522157472404e-02 4.3927760795113413e-01 7.0982079975330770e-01 4.0443030148834467e+00 -1.5358921735998254e+00 1.8365403857919080e+00 1.7472335949363105e+02 7.9155502266478006e-01 1.3088677177275896e+00 -1.0491872197972398e+00 -8.3796837118491646e-02 -8.3264493355280189e-02 1.9917714210401716e-01 -2.8598407992977215e-01 -2.4812336550239733e-02 -8.9912638068890272e-02 -4.8210052144344040e-03 1.3998894647770092e+01 -7.3213466833453783e-02 3.6915459906565182e-02 -1.7339675624623019e-03 -1.3765839799335186e+01 
      </Row>
      <Row Index="6">
        9.9427241611074848e+00 2.5455223564749083e+00 -2.5621831497369385e+00 5.7950257416727258e-01 1.2759422389567558e+00 2.6310341036856527e-01 1.0942983819116698e+02 7.4760413890615940e+00 3.3092623747993066e+00 3.3672182652426974e-01 5.1075889529690954e+00 -3.5538187070049494e+00 8.8795324748710747e-01 -4.9711918520628604e+00 1.3825750868589592e+00 1.9143334846665223e+00 -2.9740996250641567e+00 -1.8313197559805130e+00 -2.7278751445523426e+00 -4.3968923795446301e+01 -4.6234089950683863e+00 -1.5021705183628500e+00 6.1909781900623240e-01 -3.9078395437089402e+00 3.8492325826207835e-01 -1.2033748174335743e+00 -9.2070298157336250e-02 -5.0226090713700267e-02 -1.1070798787207597e-02 9.4247754309289666e-02 -1.6579846346146559e-01 -3.5472386968987198e-02 -5.9614171623871537e-01 9.2705300047578598e-02 -6.1708414496162156e-02 -1.1207198886929615e-02 -2.0084458541355543e-02 6.3134895757808812e-02 -7.9758977310872170e-02 -7.0174828008074897e-01 -1.8999840092546361e-01 -6.7434008499231313e-02 -3.7310304437760156e-01 -2.2132251308285786e-01 9.2688112307529172e-02 -1.7786287488979415e+00 -6.2179782748944668e-01 -8.9045807243588015e-02 -1.1571833572236914e-01 -4.7333138874877578e-01 9.4859246771106742e-02 1.1634162424532256e-01 -1.4173244249682082e-02 4.8006324080150278e-02 -9.3447703105589974e-02 2.4757680994568221e-01 -3.7061397906765414e-01 9.1351121905589264e-02 -1.8462169524476661e+00 2.2441091529187729e-01 1.2124798933077841e-01 1.3612681103926919e-01 1.1757106954216029e-01 -1.0634951760786580e-01 -1.6746815256096559e-01 -7.5937179116884734e-01 1.9042080404365780e-02 -2.4888222040609476e-02 1.2608477663252060e-01 -3.0854438967911069e-02 4.2021946336623373e-04 2.0381520953598842e+00 -9.5561457306918812e-02 -1.4870483065119133e-01 -4.8155196434324338e-02 9.5944398745133275e-02 5.8593171846333281e-02 1.7175643597606149e-01 -4.0333608469381560e-01 2.5923589298878047e-01 2.4067949821771718e-02 1.9203026346102314e-01 1.3425528258357089e-01 -8.5111706784530838e-03 1.9715034137777150e+00 -3.4148791071584628e-01 2.3062383826406796e-02 -7.3705102476199658e-02 1.9833692572022812e-01 4.3345920230291934e-02 3.0673890284436933e-01 -2.6049060314004846e-01 6.0544860102747310e-02 9.0439480602446914e-02 -9.6335691001563362e-02 5.1855089295576702e-02 -4.5347586831830045e-02 -1.0074446855866128e+00 -2.8079237132983742e-01 5.9254724287929772e-02 1.2223720753181033e-01 -1.4998439368990507e-01 -8.0557084471424276e-02 -2.8408722890819055e-02 -3.6305318156917388e-01 1.9912765524088438e-02 3.8053724176832768e-02 -5.7200400999705225e-01 -1.4744333479214522e-01 8.8669858711743155e-02 -3.7615552617465173e+00 -8.1011225961171407e-01 4.5621360841851200e-02 -4.4418537532385893e-02 -6.6093541814256374e-01 7.1495404134062551e-02 1.5060915046587417e-01 -1.6409091847786897e-01 -1.4630896544035515e-02 -5.5126585841817788e-02 6.6301325121120552e-02 -1.5300555121842294e-01 3.0806065844553573e-02 -5.4855149256545443e-01 -1.9283852904475110e-02 3.0960774304702829e-02 -4.8544845666710190e-02 -1.4174918032380868e-01 2.2075470158887112e-02 3.1844410670920947e-02 6.1508979030693633e-02 8.4037055857041493e-02 -1.3914000224700684e-03 -1.5182778696060495e-02 9.6020665469738198e-02 3.4831320196870519e-02 -1.0490082840528945e+00 8.5009086347049512e-02 2.8157062581843473e-02 2.7412835597306007e-02 1.9932535228631809e-02 -2.9518524213957342e-02 -3.0453402396133922e-03 -3.1387538839536566e-01 5.2670652228521173e-02 1.2674371300799681e-02 -2.9025701715431396e-02 -1.4148132643712452e-02 3.1639534996495300e-02 -8.6337475295544719e-01 1.6195032734242737e-01 1.3521120466978509e-01 2.3911512653521427e-02 -1.6108256773461171e-02 -2.5829773464264294e-04 -5.2696683610728434e-02 4.6046137480792790e+00 3.9672165057838784e+00 -6.9808051126832305e-01 -2.1520396497188514e+00 -7.7224965968629666e-01 -2.3676308038603939e+00 6.2379999301663240e+01 2.8422773935637053e+00 1.9151525091357495e+00 1.0181857675713646e+00 1.1264936899380693e+00 -3.2178108926160052e+00 -3.7950423050259929e-01 1.6942301694784856e-01 3.6409901437440451e-01 2.4271365844417581e-02 -2.1299753235358487e-01 -2.0845043356769910e-01 -5.1783312203776910e-01 1.2123975119507406e+00 6.8600016153791870e+01 2.9456627972408977e-01 1.6793302099800567e-01 7.8720994366115349e-02 4.3940717013923525e-01 -8.8383109833811213e-01 -2.9106848615562142e-01 2.1266044825096903e-01 8.2474248446210086e-01 -4.2998717720101476e-01 -2.0079222521065140e-01 -6.8073891014918445e+01 4.6376946161556527e-02 3.7182973800974772e-01 -1.1739541891660208e+00 3.7938717093432217e-02 3.5279021147670742e-01 5.7810549386664856e-02 -5.0828381128689482e-02 -2.1223404086720266e-01 -1.0079820816073193e-01 2.7372289707463460e-01 -1.1323552131308759e+01 1.7941972732190459e-01 -1.3626575360631232e-01 1.2161491022109061e-02 2.1814333021001886e-02 3.2534514748042254e-01 -5.1055767902551241e-01 2.6028846964308059e+00 2.2674542282450799e-01 1.9907340148961739e-01 -2.7522347791240875e-01 4.7595069412905801e+01 -1.8466032695807044e-02 -3.3478888106256655e-02 -2.3857342791715919e-01 -2.2349407011919986e-01 1.8783582290254669e-01 1.5900179168674158e+00 -7.1814812362146707e-02 -2.1901173504303695e-01 2.0309342057622626e-01 1.9662425591507326e-01 -1.6056408756836689e+01 -7.0960985238016902e-02 -4.7952297042798020e-02 1.3094907241759213e-01 -7.1835586790891970e-02 3.4154202188955196e-01 2.4848971969887756e-01 5.6521424570944223e-02 2.6730187433976238e-01 -4.1195137654445801e-01 2.9432743553949869e-02 2.7675886488536918e+01 5.5051310676476273e-01 5.5444450630820019e-01 2.6585661057740850e-02 8.2785967571464369e-01 8.3004271433644794e-01 7.0482165549484765e-01 1.0866311519324103e+00 -1.1404424156871773e-01 6.5071567843232758e-01 -2.4336067497673142e-01 -9.9778048896064078e+01 2.4604437519304545e-01 6.1008014244346942e-01 -1.9862022657718743e+00 -3.0466253825515366e-01 7.9590973824298517e-01 -5.5304227134302053e-01 -6.1362738233117164e-01 -1.6915497929576806e-01 1.5635629170674115e-01 -1.6982112799379223e-01 5.2637273084431840e+01 1.7849150956641846e-01 -6.1452407862200031e-01 9.8629086962339407e-02 -4.5879717083306404e-02 9.1377477006977070e-01 1.6123627503564819e-01 4.0233243070405322e-02 5.0943871192600021e-02 4.1350316779601645e-02 -9.6732473322464305e-02 -2.6893817256068019e+01 1.4544744690321876e-01 -4.8186181542146223e-01 -2.7131359691843715e-01 1.7538230914584019e-01 3.7628532789983050e-02 7.1652965788834833e-01 -3.0861994964466399e-01 -1.1020122360934981e-01 -1.8417955461718094e-02 3.2536760722337971e-01 -1.9422983924815114e+01 -1.1149505113099739e-01 1.1478718561922934e+00 6.0607041069221523e-01 -3.3291992132924042e-01 4.5237018327407252e-01 4.1908556494216564e-01 -1.4026458285103757e-01 -2.5498509978590701e-02 2.0630494108766273e-01 -1.2621929588607395e-01 -7.9255554473085175e+00 -6.1007396153305082e-02 1.8371558362756080e-01 1.4963599190034538e-01 -2.3913511812149135e-01 4.2399260948153383e-02 -9.4023681514961321e-01 2.9203245343016171e-01 -3.7706009632588078e-02 4.0812453426299911e-03 -2.6173023898523695e-01 5.8984333943246412e+00 -3.3500945956701589e-01 -8.0225488266743028e-01 -9.4193643297067897e-01 4.8204590149173443e-02 2.0729760768737782e-01 1.7802519957061058e+00 1.9948627819872211e-01 -2.0570147451484541e-02 -3.1638535293845127e-01 8.6680898768394066e-01 6.0049454831253229e+01 -2.9024436373004397e-01 9.8101386831595416e-02 5.4806725002931778e-01 8.2134512480830035e-02 -2.3639017174363275e+00 8.0133988477654405e-02 3.7265152991903960e-01 -1.1935174084504485e-01 8.4944751973336219e-01 -1.0663338863546019e+00 -3.9201008236761936e-01 -7.6701269077639544e-01 -4.5950966942643490e-01 5.2139308756586011e-01 1.9870895741566398e-02 5.7639790251345052e-02 3.3893054201087116e+00 1.7275443659765255e-01 -1.3665521451191801e-01 -1.5674841894350408e-02 1.9474387834866408e-02 6.4320379391151561e-01 -1.8468327124666928e-01 5.9787983141221090e-01 3.5238782367807531e-02 -5.5353852712438889e-01 
      </Row>
      <Row Index="7">
        4.4359272714251556e+00 -9.9134462625266266e+00 5.5739303615279923e-01 -4.2807224123981422e+00 -2.1842219223981036e+00 1.0101388177854402e+00 7.4760413816738165e+00 7.2472876471238365e+01 1.1676030544655092e-01 1.0390739017303279e+00 9.8499048866550343e-01 8.4914616266574083e-01 1.5670682790637545e+00 -2.2310729986988029e+00 8.6450722025240889e-01 5.3338851325381000e+00 2.6741834511734428e+00 7.9339367659901683e-02 -1.2768878797751881e-01 -3.6118030499602698e+00 -2.2558595208382119e+01 5.0420944674732004e-01 4.4265378423208113e-01 -2.3252335815766179e+00 -1.5901338986139679e-01 -2.3671310933754341e+00 1.0209782418677538e-02 2.7527600801125672e-02 5.7046502462851201e-02 -1.9149315710008763e-01 7.5740824842308152e-02 -4.5140576696550846e-02 -9.9631249135781856e-03 -9.8999267142603087e-01 -1.8754124329958266e-02 -3.4851548699627373e-02 -3.6093111302631292e-02 -6.1825069429051527e-02 -1.7108118698512975e-02 6.9321110513044432e-02 2.5655230853851341e-01 7.3130868382838943e-01 1.3403767161309585e+00 -5.8126137528677180e-01 -8.4279761273147402e-02 -6.5059016212230436e-01 1.2890682642745273e+00 4.4695709311902099e-01 7.4810638462987633e-02 -3.8013870391470378e-01 1.0607045250695211e-01 -1.2168548161806486e-01 9.0223695021709058e-02 -9.6451496036333489e-02 -1.6306665797315320e-01 7.2568860508324395e-02 1.8381558751098252e-02 -8.2794945642684775e-03 -5.4565150680581276e-01 -5.2559735122680873e-01 -1.6228281083293297e-01 6.9922440639992048e-02 1.3726021306694816e-01 -4.8042668437038902e-02 -1.0620461283718373e-02 1.9088506997943899e-02 1.4429358204914955e-01 9.7852545093950538e-01 7.5763368862036817e-01 -4.0194542477784750e-01 -1.0348006870687536e-01 3.9422449947182225e-01 1.1369234903369403e+00 2.3314303915424173e-01 1.8002904864117969e-01 -3.1034710038775515e-01 -4.8465511092982361e-02 8.7418040293399057e-02 -6.0313954813593362e-02 2.4850471743285807e-01 5.7848297172599594e-01 8.0544322564757687e-01 -2.2290686829590667e-01 3.2290211124150175e-02 -6.0353480575187679e-01 2.5203015318965436e+00 3.2146832066241854e-01 -3.3557888800369626e-02 -3.2775846077401016e-01 3.8824396637674174e-02 6.8006982583745613e-03 6.9954611122013954e-04 2.4111248858819878e-01 -3.0901814258631854e-01 9.9022676160215914e-02 6.4272633964627957e-04 -7.0101121738860184e-02 -1.6768503079411079e-01 -2.0171387255988293e-01 3.6334895349159568e-02 -8.4114903358650239e-02 2.2830411275373053e-02 5.1892299452813123e-02 -1.4922451266349354e-01 -1.8396969162814764e-01 3.1661618740482539e-01 2.6440276328888579e-01 1.4018802690947014e+00 -4.0147845303210716e-01 8.2241453532038378e-02 -1.2536690991903041e+00 1.1061675183377708e+00 5.0859437384578143e-01 -3.1901192424186181e-02 -2.2813970133126121e-01 2.7291285618036076e-01 -1.6089093430034451e-01 2.4666941603821428e-02 5.5963878212953955e-02 1.2662660373809956e-01 2.7183655231929293e-01 -1.1591059574513209e-01 7.1963667161562245e-02 -3.6702845023857189e-01 4.2540463511345783e-01 8.9831362963441297e-02 4.0466804104486997e-03 -8.5659641570921985e-02 -1.3545377514426176e-02 -2.6603109835048599e-02 -7.0917870455552590e-02 -1.7468288648870819e-01 -6.1994954540458017e-02 2.7494926971145517e-01 3.9606552629512293e-02 -1.6790544601370724e-01 -2.3807278183885508e-01 1.0133447437863385e-01 -2.1180757878850587e-01 8.3712051001235466e-02 8.5050206878845513e-02 -6.6646518391149420e-02 2.5382495831520843e-02 -1.5251463274262034e-01 -3.5222539632901187e-02 -1.4328456230235670e-01 6.6791228274514935e-01 2.0139306647767843e-01 -8.9432135978967375e-04 -5.6597028816660511e-02 -1.3714495977643630e+00 4.6184810968497270e-01 -2.7872077201439999e-03 5.3079108388904506e-02 -3.2721926180905470e-02 3.2620770533966795e-02 2.1851952680863498e+00 -8.9235263541081515e+00 5.4491711724280778e+00 -1.5249247152732530e+00 -1.9869086714905311e+00 8.3830935976181731e-01 3.1852802826852162e+00 4.9090182870436443e+01 7.2462581427933870e-01 1.4538698160877410e+00 -1.1815723827670457e+00 6.6383575675910644e-01 -8.1786060837029773e-01 3.9830771160423606e-01 -3.2294910468050908e-01 -6.6051780599336074e-01 -2.2461792826408922e-01 5.5018614041697500e-02 3.0029471016255194e-02 2.4424144561966799e-01 -1.0853553451351533e+02 -5.8609895566583026e-02 6.8564395403210154e-01 5.4018529101810264e-01 -1.1611869324461899e+00 3.4202909290573480e-01 -9.2076985273399381e-01 1.7677841383664269e-01 -4.4375053497652556e-01 -3.3384491677287453e-01 -8.0986329785633493e-01 2.4587583186660765e+01 -2.2761227084793938e+00 1.2347482483508956e+00 -4.7670832667624774e-01 2.3920010362320614e+00 -2.3741721293349383e-01 -3.4258799401936146e-01 1.6950871866876283e-01 3.6780649598770232e-01 -9.2685653402160906e-01 6.7809158751152565e-01 4.1174404577744809e+01 2.3203225632000075e+00 -1.8015143804641870e-01 3.0604065418050297e-01 2.2668582877489385e-01 5.1071124701511650e-01 -5.6994428340088754e-01 3.9049558714233399e+00 -1.0900850006781915e-01 1.6839829972999976e-01 -3.4448777368186945e-01 4.1369303479569510e+01 -1.3274441283797955e-01 -8.0653867016415859e-03 4.7468668139260378e-01 9.5834499330440415e-02 1.5570754548372939e-01 2.4321547948441236e-01 1.4827792022931519e-01 1.5826251509748746e-01 4.6187380198550720e-01 3.6272953434506050e-01 -9.3425309818616284e+00 3.1490707674789054e-01 -1.3823287911843762e-01 2.1349563833063678e-01 6.4022568369633293e-01 -7.5272247650517210e-02 -1.7436212509705395e-01 -6.0852954148453864e-01 9.5121849368826172e-02 9.9202689703263491e-01 -3.5674752909432295e-01 2.7797428790519461e+01 -8.4298626597752513e-01 1.0204263086089180e+00 6.2375457157342584e-01 3.5441483037369181e-01 1.2721130673086378e-01 -1.9076242582277408e-01 1.7816509094590849e-01 -2.4256813259831578e-01 1.1718785455069991e-02 1.5142397647093558e-01 -5.4258272709816083e+01 -1.7521387083781648e-02 3.1437857229355504e-01 -3.9107457796730305e-01 6.1078407704960380e-01 -9.5758828105551785e-01 8.1638869891323633e+00 3.4978595521049023e+00 2.6600445932150174e-01 7.1613076586705304e-01 1.8328285026412816e-01 -8.3185476319032617e+01 -7.0489477171107340e-01 1.4119599485113365e+00 1.2530680931989375e+00 -1.8305387702026854e-01 2.2752234275654004e-01 3.2445837757441709e-01 2.4438221757301548e-01 -6.6064994923917819e-02 -5.2289791455557721e-01 4.2507139503391633e-01 5.0395553688274504e+00 2.1829413322518709e-01 1.0318101326399036e+00 -8.9149065189896959e-02 2.3397501416022060e-01 -7.6534793628640285e-01 4.0330804591121966e-01 -1.6449269058701599e-01 2.3286211929569861e-01 -1.4213767994096593e-01 -1.8943783640781742e-01 1.5391116215924171e+01 -2.3127088729655343e-01 1.0572877039622641e+00 2.7893259323379294e-01 1.3822421573630922e-02 -1.7492445257384892e-01 4.0052271961861052e-01 -6.6548630712271684e-02 -4.1672058293527159e-02 -3.1858250664535420e-01 -1.2117785692948779e-01 -1.2331340087916866e+01 -2.2944272138679667e-02 -9.9402325050895080e-02 -3.1758946819228306e-01 2.5198417453412780e-02 4.4058442022479793e-01 -4.1350440879973838e-01 -2.8104532896611190e-01 -9.7043430849701795e-02 -8.0053874072526066e-02 -1.2997654709691009e-01 3.2171723680961833e+01 -1.7505039525810506e-02 -9.3599117081526995e-01 4.7655462480270017e-01 -9.7994452680843155e-02 -8.8948494236019537e-01 4.3987836806960157e-01 -5.9972604302254151e-03 1.8243694753983314e-01 2.1771591407016899e-01 -2.3429527769673841e-01 -5.8376264111496070e+00 -2.7541214175169088e-01 8.8362455138707219e-01 1.7136402241195603e-01 -2.0400866017558736e+00 9.5151749826570509e-01 -6.8483416148602991e+00 -2.8346605218299885e+00 -4.1875720067220357e-01 -4.6171885576042282e-01 -3.6530087643519948e-01 1.0111407003544264e+02 1.2816097339448902e+00 -4.2330155765407653e+00 -2.3930498200904964e+00 8.4264358283227703e-02 -2.4319581480461627e-01 1.2389900729214873e+00 1.3808680862817546e-01 -1.0604993742677871e-01 2.0205562985261483e-01 1.4305088381152153e-01 8.8386388446255246e+00 5.2800096331822921e-02 4.2079464431200098e-01 -7.6409056271210696e-02 -8.7607032382362782e+00 
      </Row>
      <Row Index="8">
        1.0733667358273067e+01 4.4141867947367810e-02 -1.1622007197721511e+00 1.5015817772395108e+00 2.0416258452935115e-01 -9.6856073547476579e-02 3.3092623743770084e+00 1.1676030611454147e-01 1.8465820636566860e+01 -4.9941046501823583e-01 -4.4632194989288687e-01 -5.1613224080324360e-01 -8.3105728477875485e-01 -4.5930877766969136e+00 9.9676422332800652e-01 4.7681956394244884e-01 -1.0200336339315861e+00 -4.3926162644344435e-01 2.2453149806042555e-01 -1.8531398162293358e+00 2.7797709507208612e-02 -1.5716167400450781e+01 4.0284858146417457e-01 -5.2277822022055798e-01 2.1752590515080919e-01 -1.8909484846500790e-02 -8.7494690058423280e-02 9.3555028926025387e-03 2.2922679527485779e-02 -4.7613551707859081e-03 -8.3465710497099888e-02 1.4114648536410548e-03 -3.0147706341314168e-02 -3.7840234153132819e-02 -3.3605433885488162e-01 -1.7632308442124913e-03 -2.9847520453939420e-02 -1.7325426725639193e-02 1.1994821620253180e-02 8.3445071395501974e-02 1.4746019440812830e-01 5.9450594172214301e-02 -2.2048241024160142e-02 3.4332110905437863e-03 -1.5299670958998646e-04 -1.5373011761185218e-01 1.9438538491445398e-01 -3.2729072896416128e-01 3.9423415364331083e-03 2.6651102405714377e-01 5.8208845500632149e-02 -7.9187128154091565e-03 -3.4888948547113323e-02 -1.8643926092997143e-03 -8.6293256278047806e-03 -1.7839628870180188e-02 -3.5735169963135721e-03 1.3956195926294553e-02 -3.2189966813210041e-02 -5.5020495096942269e-02 -2.6294600505815574e-01 7.3467910484222264e-03 -3.2956517620219609e-02 6.2538484441133094e-02 -2.2087703492749258e-02 1.8646544816706037e-01 1.2550625591629438e-01 5.7645518899659666e-02 3.9990970269867698e-02 -2.6274747376989566e-02 -3.6583092650613630e-02 -5.8538468345227967e-02 1.8962369590202785e-01 -7.4201963844559737e-01 1.1385162537297093e-02 -5.0179946986569079e-02 -3.7992227181585833e-02 8.3063838988193042e-02 2.2196017104260876e-01 4.5820681594932779e-02 1.7036275496254569e-02 1.0551154241007536e-01 9.6762020424274162e-02 -3.2675191258461661e-02 1.1348750431885779e-01 1.4257084854978874e-01 6.9133159293430901e-01 2.5922704758113901e-03 1.1380727358129672e-01 -1.4939037447222756e-01 6.5561946897913850e-02 -5.9247715433268011e-02 -1.4879264791310501e-02 1.4967209913649346e-03 3.5368418874857227e-04 1.4749605238584908e-02 3.8763373397239662e-02 -3.9113991994123354e-02 -6.2692528897025160e-02 2.8015110265121779e-01 -1.7662817548049714e-02 3.5279240796987826e-02 6.4289254840513635e-04 -3.3700195895253429e-02 -1.3914997006214633e-01 6.6590076227862158e-02 1.4854548487261728e-02 -3.8258463216821872e-02 8.9335930487100063e-02 1.8961197999415980e-02 -1.1330110283985240e-01 1.7476366989816136e-01 1.2522385495178590e-01 4.6826614074335554e-02 4.2040211569536190e-01 4.5060820242964469e-02 -3.8738327456418475e-02 5.7651304278853364e-02 2.2126703147117361e-02 1.7375723740368162e-02 2.9557288988157682e-02 1.5214927253978619e-02 -2.8016781502786671e-02 1.8347629440318855e-02 1.3319881309386186e-02 3.3594862303884754e-02 -1.3805973207756693e-02 1.0396832948890772e-01 -3.5252818385810292e-03 4.6614504373022943e-03 2.4483363357294299e-02 -1.3678578606418804e-02 -1.7391592170936356e-02 6.7037591161751980e-03 6.8305907620596837e-02 7.4435896106096966e-02 -2.0426863485759901e-02 -4.0469781195173957e-03 8.7548373255226380e-02 7.7834559091294331e-03 -1.1430775974564482e-03 -7.3767348129284392e-03 -6.9361240400819786e-03 -7.2040834370361267e-02 -3.3728053243525388e-02 3.4105739366205465e-02 6.3734007071653664e-02 4.0959692885480965e-02 7.3880512280551369e-03 -4.2546464140038862e-02 -8.1397150113712402e-02 -1.2854113348221030e-01 4.2977929267143250e-03 -3.3672004768887417e-02 -2.5773476747155730e-02 1.8553949118760092e-02 5.9283850183374396e+00 1.0270644110893459e+00 -6.6512711000482627e-01 4.5368611977318907e-01 -1.3098710822529477e-01 1.9142830716603468e-01 1.4473551921349586e+00 1.0854172654653826e-01 2.3387168146673418e+00 -9.9273106442659020e-02 -8.5107861044227917e-01 -2.5137768900136237e-01 -8.1508547927965758e-01 2.1773917355789008e-01 -4.5115367044970434e-01 3.2823177679700466e-01 1.6738217855917714e-01 3.7002297997471922e-01 2.8538179004755748e-02 8.6614597634687485e-02 4.6155922822921681e+01 4.9419190793312168e-02 5.6144185958101378e-01 7.9584492953982000e-01 2.1149824650652185e-01 2.2375403825981333e-01 1.4244243177539348e-01 1.3404998599589990e+00 -2.8948649464828308e-02 -1.5158278036943509e-01 3.0461503093955256e-01 6.8423154559951911e+00 1.6145374956487932e-01 -2.0902399640898761e-01 -2.5230296733738955e-01 -3.5858922418293970e-01 8.1103380238306266e-02 -3.6777102272441235e-03 1.7402403487087534e+00 9.5163400267464338e-02 -1.1184585620650776e-01 1.0849574365819092e-01 -2.2303068848353291e+00 -1.9113063234509822e-01 -7.9415684297795996e-02 -4.6208049765208203e-01 3.0874264342415983e-02 8.7809732579271049e-02 4.2481507404285128e-02 -1.0195791607206317e-01 3.3781767819869801e-02 -3.1096297096111503e-02 7.9726518929426088e-02 1.2233644303000705e+01 -3.3706487673921259e-02 -8.6225899643632475e-02 -1.4032523823020143e-01 -2.8470224274228628e-02 2.2021695057997209e-01 8.8857872019159956e-02 -2.0998557366411941e-01 1.1178014811982398e-02 2.1590502880251528e-01 -1.8269289656376880e-01 4.6001814630541489e+00 -5.2265591371779677e-02 -2.1853616538144910e-02 1.9933277290916068e-02 -1.9423563856692971e-02 -3.5653613232401726e-01 -9.3681191427554572e-02 2.8979478385275170e-01 5.3148706228520970e-02 5.4271087430320719e-02 5.0328446330611953e-03 2.0628843313929451e+01 1.7443657611465757e-01 -4.8773159102993513e-02 -3.3956446521250072e-02 -1.0750401604959511e-01 9.2146086901722046e-02 -3.0908309783716465e-02 -2.9557194185370683e-01 -1.6892104899445703e-02 3.1766013299694001e-02 -2.3253070716385715e-02 -2.4645906646244384e+00 1.6467702866298756e-02 3.1180699299559689e-02 2.6333044274145473e-01 1.3724946120866099e-01 -5.2831120029760315e-02 8.9882889591048620e-03 -2.9650190775130980e-01 3.7188843281531825e-02 8.2522149491034980e-02 -1.3970411216962478e-01 1.5347589995634532e+01 1.5983652267923504e-02 1.1510728158672592e-01 2.1840912618426317e-01 2.9275155110524032e-01 3.9778833641085276e+00 -3.1852076934135387e-01 3.4871972876394164e-01 -1.9799675447207127e-01 -2.9950046365405020e-02 5.7841108566353383e-02 -7.2565335087400996e+01 3.6380499930163768e-01 5.9811570390200242e-02 -5.3945589500438285e-01 4.3764461905612895e-02 -3.5678673409331191e-01 -7.0060819035151739e-02 -1.0243005185843002e+00 -5.2291427374319382e-02 -1.3402960157030464e-02 5.6569554895385066e-02 -2.8846936963296486e+00 -3.9492685013795048e-02 -1.3489982335508793e-01 1.6833038414901746e-01 -1.1312029701088094e-01 -3.9682573228694396e-02 -1.2044024672399278e-01 7.6644970101827012e-02 1.4629316225026966e-02 8.1359391112837270e-03 -4.0202402160984974e-02 -4.0280397384107980e+00 -2.1723740657251800e-02 -4.8624803439691888e-02 2.7289131232348013e-01 1.2288890340929148e-01 2.4511179998808524e-01 3.3077050733442803e-02 5.0884661811970489e-01 -8.5653820277138679e-02 -5.5219577454667573e-02 -1.1901947820521142e-01 1.3373444501324677e+01 1.1735146369725141e-01 1.6989450298496411e-01 -2.1645219222035106e-03 2.1607922448439859e-01 -3.2644299293826151e-01 -9.2447672513741364e-02 -4.3877527849726133e-01 -4.0004990866521699e-02 6.2080617983451325e-02 1.0394193216992709e-01 -5.2212455726510658e+00 8.2040873818017820e-02 -7.5641948848947760e-02 1.6111038777517922e-01 -5.5784893206030139e-01 -3.3298669701665844e+00 -4.0097066574683149e-02 -2.7902480810105281e+00 -1.4887565010543619e-01 -4.1336296909036341e-02 -1.5141268417165710e-01 6.3085515760872113e-01 -5.8106920981026922e-01 -4.7160016121026993e-01 -2.1653780503364750e-01 -5.8887139606923738e-02 -9.7492334809971035e-02 1.6164790634486614e-02 9.0460437363456503e-01 -2.7224514645836528e-02 6.6183607390678634e-02 8.3153943962699858e-03 8.9876422853579774e-01 3.9562917815912146e-02 -1.0646924963828397e-01 1.0261282223852142e-01 -8.8467963809391104e-01 
      </Row>
      <Row Index="9">
