<?xml version="1.0"?>
<MethodSetup Method="BDT::GradBDT">
  <GeneralInfo>
    <Info name="TMVA Release" value="4.2.0 [262656]"/>
    <Info name="ROOT Release" value="5.34/38 [336422]"/>
    <Info name="Creator" value="han"/>
    <Info name="Date" value="Sat Apr 30 12:38:48 2022"/>
    <Info name="Host" value="Linux rz5950x.km.icrr.u-tokyo.ac.jp 4.18.0-305.3.1.el8_4.x86_64 #1 SMP Mon May 17 10:08:25 EDT 2021 x86_64 x86_64 x86_64 GNU/Linux"/>
    <Info name="Dir" value="/disk1/disk02/calib3/usr/han/mc/thermal_train"/>
    <Info name="Training events" value="9618642"/>
    <Info name="TrainingTime" value="9.75366397e+03"/>
    <Info name="AnalysisType" value="Classification"/>
  </GeneralInfo>
  <Options>
    <Option name="V" modified="Yes">True</Option>
    <Option name="VerbosityLevel" modified="No">Verbose</Option>
    <Option name="VarTransform" modified="Yes">N</Option>
    <Option name="H" modified="Yes">True</Option>
    <Option name="CreateMVAPdfs" modified="No">False</Option>
    <Option name="IgnoreNegWeightsInTraining" modified="No">False</Option>
    <Option name="NTrees" modified="Yes">1000</Option>
    <Option name="MaxDepth" modified="Yes">3</Option>
    <Option name="MinNodeSize" modified="Yes">2%</Option>
    <Option name="nCuts" modified="No">20</Option>
    <Option name="BoostType" modified="Yes">Grad</Option>
    <Option name="AdaBoostR2Loss" modified="No">quadratic</Option>
    <Option name="UseBaggedBoost" modified="Yes">True</Option>
    <Option name="Shrinkage" modified="Yes">1.000000e-01</Option>
    <Option name="AdaBoostBeta" modified="No">5.000000e-01</Option>
    <Option name="UseRandomisedTrees" modified="No">False</Option>
    <Option name="UseNvars" modified="No">4</Option>
    <Option name="UsePoissonNvars" modified="No">True</Option>
    <Option name="BaggedSampleFraction" modified="Yes">5.000000e-01</Option>
    <Option name="UseYesNoLeaf" modified="No">True</Option>
    <Option name="NegWeightTreatment" modified="Yes">ignorenegweightsintraining</Option>
    <Option name="Css" modified="No">1.000000e+00</Option>
    <Option name="Cts_sb" modified="No">1.000000e+00</Option>
    <Option name="Ctb_ss" modified="No">1.000000e+00</Option>
    <Option name="Cbb" modified="No">1.000000e+00</Option>
    <Option name="NodePurityLimit" modified="No">5.000000e-01</Option>
    <Option name="SeparationType" modified="No">giniindex</Option>
    <Option name="DoBoostMonitor" modified="No">False</Option>
    <Option name="UseFisherCuts" modified="No">False</Option>
    <Option name="MinLinCorrForFisher" modified="No">8.000000e-01</Option>
    <Option name="UseExclusiveVars" modified="No">False</Option>
    <Option name="DoPreselection" modified="No">False</Option>
    <Option name="SigToBkgFraction" modified="No">1.000000e+00</Option>
    <Option name="PruneMethod" modified="No">nopruning</Option>
    <Option name="PruneStrength" modified="No">0.000000e+00</Option>
    <Option name="PruningValFraction" modified="No">5.000000e-01</Option>
    <Option name="nEventsMin" modified="No">0</Option>
    <Option name="UseBaggedGrad" modified="No">False</Option>
    <Option name="GradBaggingFraction" modified="No">5.000000e-01</Option>
    <Option name="UseNTrainEvents" modified="No">0</Option>
    <Option name="NNodesMax" modified="No">0</Option>
  </Options>
  <Variables NVar="12">
    <Variable VarIndex="0" Expression="NHits" Label="NHits" Title="NHits" Unit="" Internal="NHits" Type="F" Min="4.00000000e+00" Max="1.96000000e+02"/>
    <Variable VarIndex="1" Expression="N200" Label="N200" Title="N200" Unit="" Internal="N200" Type="F" Min="7.00000000e+00" Max="1.01400000e+03"/>
    <Variable VarIndex="2" Expression="TRMS" Label="TRMS" Title="TRMS" Unit="" Internal="TRMS" Type="F" Min="1.03398860e-01" Max="6.84487343e+00"/>
    <Variable VarIndex="3" Expression="Beta1" Label="Beta1" Title="Beta1" Unit="" Internal="Beta1" Type="F" Min="-2.99421579e-01" Max="9.99789894e-01"/>
    <Variable VarIndex="4" Expression="Beta5" Label="Beta5" Title="Beta5" Unit="" Internal="Beta5" Type="F" Min="-2.52111167e-01" Max="9.96852100e-01"/>
    <Variable VarIndex="5" Expression="OpeningAngleMean" Label="OpeningAngleMean" Title="OpeningAngleMean" Unit="" Internal="OpeningAngleMean" Type="F" Min="1.02786553e+00" Max="8.92585068e+01"/>
    <Variable VarIndex="6" Expression="OpeningAngleSkew" Label="OpeningAngleSkew" Title="OpeningAngleSkew" Unit="" Internal="OpeningAngleSkew" Type="F" Min="-3.17615234e+02" Max="3.58269958e+02"/>
    <Variable VarIndex="7" Expression="OpeningAngleStdev" Label="OpeningAngleStdev" Title="OpeningAngleStdev" Unit="" Internal="OpeningAngleStdev" Type="F" Min="6.51247948e-02" Max="4.58720436e+01"/>
    <Variable VarIndex="8" Expression="MeanDirAngleMean" Label="MeanDirAngleMean" Title="MeanDirAngleMean" Unit="" Internal="MeanDirAngleMean" Type="F" Min="7.03744113e-01" Max="9.36049042e+01"/>
    <Variable VarIndex="9" Expression="MeanDirAngleRMS" Label="MeanDirAngleRMS" Title="MeanDirAngleRMS" Unit="" Internal="MeanDirAngleRMS" Type="F" Min="2.03593954e-01" Max="8.48523483e+01"/>
    <Variable VarIndex="10" Expression="DWall" Label="DWall" Title="DWall" Unit="" Internal="DWall" Type="F" Min="3.28723145e+00" Max="1.69000000e+03"/>
    <Variable VarIndex="11" Expression="DWallMeanDir" Label="DWallMeanDir" Title="DWallMeanDir" Unit="" Internal="DWallMeanDir" Type="F" Min="1.04148588e+01" Max="4.94083496e+03"/>
  </Variables>
  <Spectators NSpec="1">
    <Spectator SpecIndex="0" Expression="Label" Label="Label" Title="I" Unit="" Internal="Label" Type="F" Min="0.00000000e+00" Max="3.00000000e+00"/>
  </Spectators>
  <Classes NClass="2">
    <Class Name="Signal" Index="0"/>
    <Class Name="Background" Index="1"/>
  </Classes>
  <Transformations NTransformations="1">
    <Transform Name="Normalize">
      <Selection>
        <Input NInputs="12">
          <Input Type="Variable" Label="NHits" Expression="NHits"/>
          <Input Type="Variable" Label="N200" Expression="N200"/>
          <Input Type="Variable" Label="TRMS" Expression="TRMS"/>
          <Input Type="Variable" Label="Beta1" Expression="Beta1"/>
          <Input Type="Variable" Label="Beta5" Expression="Beta5"/>
          <Input Type="Variable" Label="OpeningAngleMean" Expression="OpeningAngleMean"/>
          <Input Type="Variable" Label="OpeningAngleSkew" Expression="OpeningAngleSkew"/>
          <Input Type="Variable" Label="OpeningAngleStdev" Expression="OpeningAngleStdev"/>
          <Input Type="Variable" Label="MeanDirAngleMean" Expression="MeanDirAngleMean"/>
          <Input Type="Variable" Label="MeanDirAngleRMS" Expression="MeanDirAngleRMS"/>
          <Input Type="Variable" Label="DWall" Expression="DWall"/>
          <Input Type="Variable" Label="DWallMeanDir" Expression="DWallMeanDir"/>
        </Input>
        <Output NOutputs="12">
          <Output Type="Variable" Label="NHits" Expression="NHits"/>
          <Output Type="Variable" Label="N200" Expression="N200"/>
          <Output Type="Variable" Label="TRMS" Expression="TRMS"/>
          <Output Type="Variable" Label="Beta1" Expression="Beta1"/>
          <Output Type="Variable" Label="Beta5" Expression="Beta5"/>
          <Output Type="Variable" Label="OpeningAngleMean" Expression="OpeningAngleMean"/>
          <Output Type="Variable" Label="OpeningAngleSkew" Expression="OpeningAngleSkew"/>
          <Output Type="Variable" Label="OpeningAngleStdev" Expression="OpeningAngleStdev"/>
          <Output Type="Variable" Label="MeanDirAngleMean" Expression="MeanDirAngleMean"/>
          <Output Type="Variable" Label="MeanDirAngleRMS" Expression="MeanDirAngleRMS"/>
          <Output Type="Variable" Label="DWall" Expression="DWall"/>
          <Output Type="Variable" Label="DWallMeanDir" Expression="DWallMeanDir"/>
        </Output>
      </Selection>
      <Class ClassIndex="0">
        <Ranges>
          <Range Index="0" Min="5.0000000000000000e+00" Max="4.1000000000000000e+01"/>
          <Range Index="1" Min="9.0000000000000000e+00" Max="6.8000000000000000e+01"/>
          <Range Index="2" Min="2.4521082639694214e-01" Max="6.1243968009948730e+00"/>
          <Range Index="3" Min="-2.4448513984680176e-01" Max="9.9240082502365112e-01"/>
          <Range Index="4" Min="-1.9174511730670929e-01" Max="8.9165902137756348e-01"/>
          <Range Index="5" Min="1.2544758796691895e+01" Max="8.8353736877441406e+01"/>
          <Range Index="6" Min="-2.5851339721679688e+02" Max="2.6868463134765625e+02"/>
          <Range Index="7" Min="1.6888325214385986e+00" Max="3.8577125549316406e+01"/>
          <Range Index="8" Min="4.1067986488342285e+00" Max="9.0634208679199219e+01"/>
          <Range Index="9" Min="1.8408114910125732e+00" Max="7.1406074523925781e+01"/>
          <Range Index="10" Min="3.2872314453125000e+00" Max="1.6900000000000000e+03"/>
          <Range Index="11" Min="1.0414858818054199e+01" Max="4.8596918945312500e+03"/>
        </Ranges>
      </Class>
      <Class ClassIndex="1">
        <Ranges>
          <Range Index="0" Min="4.0000000000000000e+00" Max="1.9600000000000000e+02"/>
          <Range Index="1" Min="7.0000000000000000e+00" Max="1.0140000000000000e+03"/>
          <Range Index="2" Min="1.0339885950088501e-01" Max="6.8448734283447266e+00"/>
          <Range Index="3" Min="-2.9942157864570618e-01" Max="9.9978989362716675e-01"/>
          <Range Index="4" Min="-2.5211116671562195e-01" Max="9.9685209989547729e-01"/>
          <Range Index="5" Min="1.0278655290603638e+00" Max="8.9258506774902344e+01"/>
          <Range Index="6" Min="-3.1761523437500000e+02" Max="3.5826995849609375e+02"/>
          <Range Index="7" Min="6.5124794840812683e-02" Max="4.5872043609619141e+01"/>
          <Range Index="8" Min="7.0374411344528198e-01" Max="9.3604904174804688e+01"/>
          <Range Index="9" Min="2.0359395444393158e-01" Max="8.4852348327636719e+01"/>
          <Range Index="10" Min="3.2872314453125000e+00" Max="1.6900000000000000e+03"/>
          <Range Index="11" Min="1.1410061836242676e+01" Max="4.9408349609375000e+03"/>
        </Ranges>
      </Class>
      <Class ClassIndex="2">
        <Ranges>
          <Range Index="0" Min="4.0000000000000000e+00" Max="1.9600000000000000e+02"/>
          <Range Index="1" Min="7.0000000000000000e+00" Max="1.0140000000000000e+03"/>
          <Range Index="2" Min="1.0339885950088501e-01" Max="6.8448734283447266e+00"/>
          <Range Index="3" Min="-2.9942157864570618e-01" Max="9.9978989362716675e-01"/>
          <Range Index="4" Min="-2.5211116671562195e-01" Max="9.9685209989547729e-01"/>
          <Range Index="5" Min="1.0278655290603638e+00" Max="8.9258506774902344e+01"/>
          <Range Index="6" Min="-3.1761523437500000e+02" Max="3.5826995849609375e+02"/>
          <Range Index="7" Min="6.5124794840812683e-02" Max="4.5872043609619141e+01"/>
          <Range Index="8" Min="7.0374411344528198e-01" Max="9.3604904174804688e+01"/>
          <Range Index="9" Min="2.0359395444393158e-01" Max="8.4852348327636719e+01"/>
          <Range Index="10" Min="3.2872314453125000e+00" Max="1.6900000000000000e+03"/>
          <Range Index="11" Min="1.0414858818054199e+01" Max="4.9408349609375000e+03"/>
        </Ranges>
      </Class>
    </Transform>
  </Transformations>
  <MVAPdfs/>
  <Weights NTrees="1000" AnalysisType="1">
    <BinaryTree type="DecisionTree" boostWeight="1.0000000000000000e+00" itree="0">
      <Node pos="s" depth="0" NCoef="0" IVar="11" Cut="-1.4285714924335480e-01" cType="1" res="-5.0937873311340809e-04" rms="4.9999973177909851e-01" purity="4.9949064850807190e-01" nType="0">
        <Node pos="l" depth="1" NCoef="0" IVar="4" Cut="-3.3677271008491516e-01" cType="1" res="3.2533377408981323e-01" rms="3.7968137860298157e-01" purity="8.2533377408981323e-01" nType="0">
          <Node pos="l" depth="2" NCoef="0" IVar="11" Cut="-3.8775551319122314e-01" cType="1" res="3.7652212381362915e-01" rms="3.2898494601249695e-01" purity="8.7652212381362915e-01" nType="0">
            <Node pos="l" depth="3" NCoef="0" IVar="-1" Cut="0.0000000000000000e+00" cType="1" res="3.0488336924463511e-03" rms="2.3659682273864746e-01" purity="9.4047921895980835e-01" nType="-99"/>
            <Node pos="r" depth="3" NCoef="0" IVar="-1" Cut="0.0000000000000000e+00" cType="1" res="2.1889314521104097e-03" rms="4.3011102080345154e-01" purity="7.5495982170104980e-01" nType="-99"/>
          </Node>
          <Node pos="r" depth="2" NCoef="0" IVar="-1" Cut="0.0000000000000000e+00" cType="1" res="-7.5277336873114109e-03" rms="4.1766145825386047e-01" purity="2.2512018680572510e-01" nType="-99"/>
        </Node>
        <Node pos="r" depth="1" NCoef="0" IVar="0" Cut="-9.4345235824584961e-01" cType="1" res="-2.1236231923103333e-01" rms="4.5266130566596985e-01" purity="2.8763768076896667e-01" nType="0">
          <Node pos="l" depth="2" NCoef="0" IVar="0" Cut="-9.6775794029235840e-01" cType="1" res="-3.0386412143707275e-01" rms="3.9707252383232117e-01" purity="1.9613587856292725e-01" nType="0">
            <Node pos="l" depth="3" NCoef="0" IVar="-1" Cut="0.0000000000000000e+00" cType="1" res="-1.8851488828659058e-02" rms="3.2210919260978699e-01" purity="1.1757920682430267e-01" nType="-99"/>
            <Node pos="r" depth="3" NCoef="0" IVar="-1" Cut="0.0000000000000000e+00" cType="1" res="-4.6408395282924175e-03" rms="4.5241630077362061e-01" purity="2.8711628913879395e-01" nType="-99"/>
          </Node>
          <Node pos="r" depth="2" NCoef="0" IVar="4" Cut="-3.4247246384620667e-01" cType="1" res="1.5628585219383240e-01" rms="4.7494709491729736e-01" purity="6.5628582239151001e-01" nType="0">
            <Node pos="l" depth="3" NCoef="0" IVar="-1" Cut="0.0000000000000000e+00" cType="1" res="2.5420405436307192e-03" rms="3.8277506828308105e-01" purity="8.2168811559677124e-01" nType="-99"/>
            <Node pos="r" depth="3" NCoef="0" IVar="-1" Cut="0.0000000000000000e+00" cType="1" res="-4.2427822947502136e-02" rms="2.2398309409618378e-01" purity="5.2974749356508255e-02" nType="-99"/>
          </Node>
        </Node>
      </Node>
    </BinaryTree>
    <BinaryTree type="DecisionTree" boostWeight="1.0000000000000000e+00" itree="1">
      <Node pos="s" depth="0" NCoef="0" IVar="11" Cut="-1.4285714924335480e-01" cType="1" res="2.9260513838380575e-03" rms="4.9688628315925598e-01" purity="4.9991479516029358e-01" nType="0">
        <Node pos="l" depth="1" NCoef="0" IVar="4" Cut="-3.0497562885284424e-01" cType="1" res="3.2451713085174561e-01" rms="3.7886765599250793e-01" purity="8.2548719644546509e-01" nType="0">
          <Node pos="l" depth="2" NCoef="0" IVar="11" Cut="-3.8775518536567688e-01" cType="1" res="3.7209704518318176e-01" rms="3.3239513635635376e-01" purity="8.7342113256454468e-01" nType="0">
            <Node pos="l" depth="3" NCoef="0" IVar="-1" Cut="0.0000000000000000e+00" cType="1" res="3.0325462576001883e-03" rms="2.3953691124916077e-01" purity="9.3886554241180420e-01" nType="-99"/>
            <Node pos="r" depth="3" NCoef="0" IVar="-1" Cut="0.0000000000000000e+00" cType="1" res="2.1479830611497164e-03" rms="4.3328717350959778e-01" purity="7.4941688776016235e-01" nType="-99"/>
          </Node>
          <Node pos="r" depth="2" NCoef="0" IVar="-1" Cut="0.0000000000000000e+00" cType="1" res="-1.0253562591969967e-02" rms="3.8795378804206848e-01" purity="1.8457671999931335e-01" nType="-99"/>
        </Node>
        <Node pos="r" depth="1" NCoef="0" IVar="0" Cut="-9.2212301492691040e-01" cType="1" res="-2.0687015354633331e-01" rms="4.5037627220153809e-01" purity="2.8752124309539795e-01" nType="0">
          <Node pos="l" depth="2" NCoef="0" IVar="0" Cut="-9.5486110448837280e-01" cType="1" res="-2.4689723551273346e-01" rms="4.2966026067733765e-01" purity="2.4720494449138641e-01" nType="0">
            <Node pos="l" depth="3" NCoef="0" IVar="-1" Cut="0.0000000000000000e+00" cType="1" res="-1.2860465794801712e-02" rms="3.6289247870445251e-01" purity="1.5658211708068848e-01" nType="-99"/>
            <Node pos="r" depth="3" NCoef="0" IVar="-1" Cut="0.0000000000000000e+00" cType="1" res="-2.2551594884134829e-04" rms="4.9687963724136353e-01" purity="4.7975817322731018e-01" nType="-99"/>
          </Node>
          <Node pos="r" depth="2" NCoef="0" IVar="-1" Cut="0.0000000000000000e+00" cType="1" res="2.3857955820858479e-03" rms="4.0321835875511169e-01" purity="7.8761780261993408e-01" nType="-99"/>
        </Node>
      </Node>
    </BinaryTree>
    <BinaryTree type="DecisionTree" boostWeight="1.0000000000000000e+00" itree="2">
      <Node pos="s" depth="0" NCoef="0" IVar="11" Cut="-1.4278824627399445e-01" cType="1" res="5.4964874871075153e-03" rms="4.9464622139930725e-01" purity="5.0026816129684448e-01" nType="0">
        <Node pos="l" depth="1" NCoef="0" IVar="4" Cut="-3.0290070176124573e-01" cType="1" res="3.2379719614982605e-01" rms="3.7790516018867493e-01" purity="8.2567584514617920e-01" nType="0">
          <Node pos="l" depth="2" NCoef="0" IVar="11" Cut="-3.8767179846763611e-01" cType="1" res="3.7070170044898987e-01" rms="3.3238351345062256e-01" purity="8.7337571382522583e-01" nType="0">
            <Node pos="l" depth="3" NCoef="0" IVar="-1" Cut="0.0000000000000000e+00" cType="1" res="3.0232483986765146e-03" rms="2.3902538418769836e-01" purity="9.3914270401000977e-01" nType="-99"/>
            <Node pos="r" depth="3" NCoef="0" IVar="-1" Cut="0.0000000000000000e+00" cType="1" res="2.1331917960196733e-03" rms="4.3383619189262390e-01" purity="7.4844783544540405e-01" nType="-99"/>
          </Node>
          <Node pos="r" depth="2" NCoef="0" IVar="-1" Cut="0.0000000000000000e+00" cType="1" res="-1.0491717606782913e-02" rms="3.8403812050819397e-01" purity="1.7982123792171478e-01" nType="-99"/>
        </Node>
        <Node pos="r" depth="1" NCoef="0" IVar="0" Cut="-9.3501985073089600e-01" cType="1" res="-2.0233935117721558e-01" rms="4.4926211237907410e-01" purity="2.8779181838035583e-01" nType="0">
          <Node pos="l" depth="2" NCoef="0" IVar="0" Cut="-9.5535713434219360e-01" cType="1" res="-2.6197880506515503e-01" rms="4.1688019037246704e-01" purity="2.2709615528583527e-01" nType="0">
            <Node pos="l" depth="3" NCoef="0" IVar="-1" Cut="0.0000000000000000e+00" cType="1" res="-1.2085885740816593e-02" rms="3.6749970912933350e-01" purity="1.6154076159000397e-01" nType="-99"/>
            <Node pos="r" depth="3" NCoef="0" IVar="-1" Cut="0.0000000000000000e+00" cType="1" res="-8.8778627105057240e-04" rms="4.9394577741622925e-01" purity="4.3600863218307495e-01" nType="-99"/>
          </Node>
          <Node pos="r" depth="2" NCoef="0" IVar="10" Cut="-9.0476191043853760e-01" cType="1" res="2.3298425972461700e-01" rms="4.3714091181755066e-01" purity="7.3082500696182251e-01" nType="0">
            <Node pos="l" depth="3" NCoef="0" IVar="-1" Cut="0.0000000000000000e+00" cType="1" res="1.2937178835272789e-03" rms="4.7763231396675110e-01" purity="6.1957639455795288e-01" nType="-99"/>
            <Node pos="r" depth="3" NCoef="0" IVar="-1" Cut="0.0000000000000000e+00" cType="1" res="2.4046220351010561e-03" rms="3.9997375011444092e-01" purity="7.9319810867309570e-01" nType="-99"/>
          </Node>
        </Node>
      </Node>
    </BinaryTree>
    <BinaryTree type="DecisionTree" boostWeight="1.0000000000000000e+00" itree="3">
      <Node pos="s" depth="0" NCoef="0" IVar="11" Cut="-1.4320932328701019e-01" cType="1" res="8.3136679604649544e-03" rms="4.9246364831924438e-01" purity="5.0106000900268555e-01" nType="0">
        <Node pos="l" depth="1" NCoef="0" IVar="4" Cut="-3.3562096953392029e-01" cType="1" res="3.2386839389801025e-01" rms="3.7625074386596680e-01" purity="8.2665997743606567e-01" nType="0">
          <Node pos="l" depth="2" NCoef="0" IVar="11" Cut="-3.8796821236610413e-01" cType="1" res="3.7359282374382019e-01" rms="3.2748094201087952e-01" purity="8.7768560647964478e-01" nType="0">
            <Node pos="l" depth="3" NCoef="0" IVar="-1" Cut="0.0000000000000000e+00" cType="1" res="3.0198327731341124e-03" rms="2.3548129200935364e-01" purity="9.4107574224472046e-01" nType="-99"/>
            <Node pos="r" depth="3" NCoef="0" IVar="-1" Cut="0.0000000000000000e+00" cType="1" res="2.1832117345184088e-03" rms="4.2782494425773621e-01" purity="7.5877296924591064e-01" nType="-99"/>
          </Node>
          <Node pos="r" depth="2" NCoef="0" IVar="-1" Cut="0.0000000000000000e+00" cType="1" res="-7.1452469564974308e-03" rms="4.1687875986099243e-01" purity="2.2588318586349487e-01" nType="-99"/>
        </Node>
        <Node pos="r" depth="1" NCoef="0" IVar="4" Cut="-3.9894005656242371e-01" cType="1" res="-1.9841957092285156e-01" rms="4.4798058271408081e-01" purity="2.8774565458297729e-01" nType="0">
          <Node pos="l" depth="2" NCoef="0" IVar="11" Cut="1.2874387204647064e-01" cType="1" res="-1.3640660047531128e-01" rms="4.7178894281387329e-01" purity="3.5035511851310730e-01" nType="0">
            <Node pos="l" depth="3" NCoef="0" IVar="-1" Cut="0.0000000000000000e+00" cType="1" res="4.3206193367950618e-04" rms="4.9397751688957214e-01" purity="5.2441692352294922e-01" nType="-99"/>
            <Node pos="r" depth="3" NCoef="0" IVar="-1" Cut="0.0000000000000000e+00" cType="1" res="-5.4953107610344887e-03" rms="4.3266469240188599e-01" purity="2.5783163309097290e-01" nType="-99"/>
          </Node>
          <Node pos="r" depth="2" NCoef="0" IVar="4" Cut="-2.6579546928405762e-01" cType="1" res="-4.1442713141441345e-01" rms="2.5368255376815796e-01" purity="6.9660343229770660e-02" nType="0">
            <Node pos="l" depth="3" NCoef="0" IVar="-1" Cut="0.0000000000000000e+00" cType="1" res="-1.1965544894337654e-02" rms="3.6658293008804321e-01" purity="1.6193878650665283e-01" nType="-99"/>
            <Node pos="r" depth="3" NCoef="0" IVar="-1" Cut="0.0000000000000000e+00" cType="1" res="-8.2639016211032867e-02" rms="1.4153937995433807e-01" purity="2.0372897386550903e-02" nType="-99"/>
          </Node>
        </Node>
      </Node>
    </BinaryTree>
    <BinaryTree type="DecisionTree" boostWeight="1.0000000000000000e+00" itree="4">
      <Node pos="s" depth="0" NCoef="0" IVar="11" Cut="-1.4310744404792786e-01" cType="1" res="1.1043334379792213e-02" rms="4.8812079429626465e-01" purity="4.9939405918121338e-01" nType="0">
        <Node pos="l" depth="1" NCoef="0" IVar="4" Cut="-3.0318418145179749e-01" cType="1" res="3.2139381766319275e-01" rms="3.7690106034278870e-01" purity="8.2515823841094971e-01" nType="0">
          <Node pos="l" depth="2" NCoef="0" IVar="11" Cut="-3.4705451130867004e-01" cType="1" res="3.6751487851142883e-01" rms="3.3279675245285034e-01" purity="8.7286561727523804e-01" nType="0">
            <Node pos="l" depth="3" NCoef="0" IVar="-1" Cut="0.0000000000000000e+00" cType="1" res="2.9703660402446985e-03" rms="2.5431960821151733e-01" purity="9.3040782213211060e-01" nType="-99"/>
            <Node pos="r" depth="3" NCoef="0" IVar="-1" Cut="0.0000000000000000e+00" cType="1" res="2.0236980635672808e-03" rms="4.4215422868728638e-01" purity="7.3322063684463501e-01" nType="-99"/>
          </Node>
          <Node pos="r" depth="2" NCoef="0" IVar="-1" Cut="0.0000000000000000e+00" cType="1" res="-1.0222352109849453e-02" rms="3.8384288549423218e-01" purity="1.7961034178733826e-01" nType="-99"/>
        </Node>
        <Node pos="r" depth="1" NCoef="0" IVar="0" Cut="-9.3105161190032959e-01" cType="1" res="-1.9040900468826294e-01" rms="4.4453066587448120e-01" purity="2.8793653845787048e-01" nType="0">
          <Node pos="l" depth="2" NCoef="0" IVar="0" Cut="-9.5535713434219360e-01" cType="1" res="-2.5011536478996277e-01" rms="4.1290351748466492e-01" purity="2.2648677229881287e-01" nType="0">
            <Node pos="l" depth="3" NCoef="0" IVar="-1" Cut="0.0000000000000000e+00" cType="1" res="-1.1801226995885372e-02" rms="3.6405032873153687e-01" purity="1.5977789461612701e-01" nType="-99"/>
            <Node pos="r" depth="3" NCoef="0" IVar="-1" Cut="0.0000000000000000e+00" cType="1" res="-7.0179428439587355e-04" rms="4.8677018284797668e-01" purity="4.3764445185661316e-01" nType="-99"/>
          </Node>
          <Node pos="r" depth="2" NCoef="0" IVar="10" Cut="-9.0476191043853760e-01" cType="1" res="2.4255479872226715e-01" rms="4.2537984251976013e-01" purity="7.3354256153106689e-01" nType="0">
            <Node pos="l" depth="3" NCoef="0" IVar="-1" Cut="0.0000000000000000e+00" cType="1" res="1.3881730847060680e-03" rms="4.6564513444900513e-01" purity="6.1576431989669800e-01" nType="-99"/>
            <Node pos="r" depth="3" NCoef="0" IVar="-1" Cut="0.0000000000000000e+00" cType="1" res="2.4613712448626757e-03" rms="3.8883119821548462e-01" purity="7.9773867130279541e-01" nType="-99"/>
          </Node>
        </Node>
      </Node>
    </BinaryTree>
    <BinaryTree type="DecisionTree" boostWeight="1.0000000000000000e+00" itree="5">
      <Node pos="s" depth="0" NCoef="0" IVar="11" Cut="-1.4267523586750031e-01" cType="1" res="1.2530428357422352e-02" rms="4.8598185181617737e-01" purity="4.9893099069595337e-01" nType="0">
        <Node pos="l" depth="1" NCoef="0" IVar="4" Cut="-3.0567285418510437e-01" cType="1" res="3.2104438543319702e-01" rms="3.7563350796699524e-01" purity="8.2571089267730713e-01" nType="0">
          <Node pos="l" depth="2" NCoef="0" IVar="11" Cut="-3.8753506541252136e-01" cType="1" res="3.6693310737609863e-01" rms="3.3187440037727356e-01" purity="8.7363886833190918e-01" nType="0">
            <Node pos="l" depth="3" NCoef="0" IVar="-1" Cut="0.0000000000000000e+00" cType="1" res="2.9927799478173256e-03" rms="2.3899048566818237e-01" purity="9.3914312124252319e-01" nType="-99"/>
            <Node pos="r" depth="3" NCoef="0" IVar="-1" Cut="0.0000000000000000e+00" cType="1" res="2.1046334877610207e-03" rms="4.3389496207237244e-01" purity="7.4822956323623657e-01" nType="-99"/>
          </Node>
          <Node pos="r" depth="2" NCoef="0" IVar="-1" Cut="0.0000000000000000e+00" cType="1" res="-9.8669975996017456e-03" rms="3.8565921783447266e-01" purity="1.8191581964492798e-01" nType="-99"/>
        </Node>
        <Node pos="r" depth="1" NCoef="0" IVar="4" Cut="-3.9907965064048767e-01" cType="1" res="-1.8932594358921051e-01" rms="4.4200107455253601e-01" purity="2.8512343764305115e-01" nType="0">
          <Node pos="l" depth="2" NCoef="0" IVar="0" Cut="-9.4047617912292480e-01" cType="1" res="-1.3373529911041260e-01" rms="4.6898534893989563e-01" purity="3.4728977084159851e-01" nType="0">
            <Node pos="l" depth="3" NCoef="0" IVar="-1" Cut="0.0000000000000000e+00" cType="1" res="-6.6055869683623314e-03" rms="4.1810095310211182e-01" purity="2.3024517297744751e-01" nType="-99"/>
            <Node pos="r" depth="3" NCoef="0" IVar="-1" Cut="0.0000000000000000e+00" cType="1" res="2.5901021435856819e-03" rms="3.7137705087661743e-01" purity="8.3408004045486450e-01" nType="-99"/>
          </Node>
          <Node pos="r" depth="2" NCoef="0" IVar="7" Cut="-1.4983895421028137e-01" cType="1" res="-3.8183900713920593e-01" rms="2.4994395673274994e-01" purity="6.9838277995586395e-02" nType="0">
            <Node pos="l" depth="3" NCoef="0" IVar="-1" Cut="0.0000000000000000e+00" cType="1" res="-1.2072431854903698e-02" rms="3.5439154505729675e-01" purity="1.5243838727474213e-01" nType="-99"/>
            <Node pos="r" depth="3" NCoef="0" IVar="-1" Cut="0.0000000000000000e+00" cType="1" res="-5.8418482542037964e-02" rms="1.6962794959545135e-01" purity="3.0842699110507965e-02" nType="-99"/>
          </Node>
        </Node>
      </Node>
    </BinaryTree>
    <BinaryTree type="DecisionTree" boostWeight="1.0000000000000000e+00" itree="6">
      <Node pos="s" depth="0" NCoef="0" IVar="11" Cut="-1.4322045445442200e-01" cType="1" res="1.6683839261531830e-02" rms="4.8239445686340332e-01" purity="4.9938395619392395e-01" nType="0">
        <Node pos="l" depth="1" NCoef="0" IVar="4" Cut="-3.0318418145179749e-01" cType="1" res="3.1974419951438904e-01" rms="3.7525862455368042e-01" purity="8.2530891895294189e-01" nType="0">
          <Node pos="l" depth="2" NCoef="0" IVar="11" Cut="-3.4718966484069824e-01" cType="1" res="3.6474308371543884e-01" rms="3.3277195692062378e-01" purity="8.7278038263320923e-01" nType="0">
            <Node pos="l" depth="3" NCoef="0" IVar="-1" Cut="0.0000000000000000e+00" cType="1" res="2.9515135101974010e-03" rms="2.5378769636154175e-01" purity="9.3071281909942627e-01" nType="-99"/>
            <Node pos="r" depth="3" NCoef="0" IVar="-1" Cut="0.0000000000000000e+00" cType="1" res="1.9904258660972118e-03" rms="4.4343906641006470e-01" purity="7.3075395822525024e-01" nType="-99"/>
          </Node>
          <Node pos="r" depth="2" NCoef="0" IVar="-1" Cut="0.0000000000000000e+00" cType="1" res="-9.3497624620795250e-03" rms="3.8941058516502380e-01" purity="1.8639525771141052e-01" nType="-99"/>
        </Node>
        <Node pos="r" depth="1" NCoef="0" IVar="0" Cut="-9.2212301492691040e-01" cType="1" res="-1.7996250092983246e-01" rms="4.4052293896675110e-01" purity="2.8790152072906494e-01" nType="0">
          <Node pos="l" depth="2" NCoef="0" IVar="0" Cut="-9.5486110448837280e-01" cType="1" res="-2.1854141354560852e-01" rms="4.2172133922576904e-01" purity="2.4740524590015411e-01" nType="0">
            <Node pos="l" depth="3" NCoef="0" IVar="-1" Cut="0.0000000000000000e+00" cType="1" res="-1.1540065519511700e-02" rms="3.6162477731704712e-01" purity="1.5801922976970673e-01" nType="-99"/>
            <Node pos="r" depth="3" NCoef="0" IVar="-1" Cut="0.0000000000000000e+00" cType="1" res="-3.2582038329564966e-06" rms="4.8278772830963135e-01" purity="4.7786104679107666e-01" nType="-99"/>
          </Node>
          <Node pos="r" depth="2" NCoef="0" IVar="-1" Cut="0.0000000000000000e+00" cType="1" res="2.4419408291578293e-03" rms="3.8584727048873901e-01" purity="7.8804880380630493e-01" nType="-99"/>
        </Node>
      </Node>
    </BinaryTree>
    <BinaryTree type="DecisionTree" boostWeight="1.0000000000000000e+00" itree="7">
      <Node pos="s" depth="0" NCoef="0" IVar="11" Cut="-1.4350891113281250e-01" cType="1" res="1.8366672098636627e-02" rms="4.8037815093994141e-01" purity="4.9918425083160400e-01" nType="0">
        <Node pos="l" depth="1" NCoef="0" IVar="4" Cut="-3.3562096953392029e-01" cType="1" res="3.1895634531974792e-01" rms="3.7439563870429993e-01" purity="8.2545471191406250e-01" nType="0">
          <Node pos="l" depth="2" NCoef="0" IVar="11" Cut="-3.8818645477294922e-01" cType="1" res="3.6700806021690369e-01" rms="3.2861438393592834e-01" purity="8.7650299072265625e-01" nType="0">
            <Node pos="l" depth="3" NCoef="0" IVar="-1" Cut="0.0000000000000000e+00" cType="1" res="2.9768836684525013e-03" rms="2.3682861030101776e-01" purity="9.4035369157791138e-01" nType="-99"/>
            <Node pos="r" depth="3" NCoef="0" IVar="-1" Cut="0.0000000000000000e+00" cType="1" res="2.1199034526944160e-03" rms="4.3056425452232361e-01" purity="7.5413829088211060e-01" nType="-99"/>
          </Node>
          <Node pos="r" depth="2" NCoef="0" IVar="-1" Cut="0.0000000000000000e+00" cType="1" res="-6.5925177186727524e-03" rms="4.1676169633865356e-01" purity="2.2828884422779083e-01" nType="-99"/>
        </Node>
        <Node pos="r" depth="1" NCoef="0" IVar="11" Cut="1.8272827565670013e-01" cType="1" res="-1.7676958441734314e-01" rms="4.3913415074348450e-01" purity="2.8737661242485046e-01" nType="0">
          <Node pos="l" depth="2" NCoef="0" IVar="4" Cut="-4.0014719963073730e-01" cType="1" res="-5.3521007299423218e-02" rms="4.7753348946571350e-01" purity="4.1533377766609192e-01" nType="0">
            <Node pos="l" depth="3" NCoef="0" IVar="-1" Cut="0.0000000000000000e+00" cType="1" res="2.0249486260581762e-04" rms="4.9046668410301208e-01" purity="4.9534684419631958e-01" nType="-99"/>
            <Node pos="r" depth="3" NCoef="0" IVar="-1" Cut="0.0000000000000000e+00" cType="1" res="-1.5853822231292725e-02" rms="3.0981999635696411e-01" purity="1.1538239568471909e-01" nType="-99"/>
          </Node>
          <Node pos="r" depth="2" NCoef="0" IVar="0" Cut="-9.3105161190032959e-01" cType="1" res="-2.6474466919898987e-01" rms="3.8617479801177979e-01" purity="1.9604051113128662e-01" nType="0">
            <Node pos="l" depth="3" NCoef="0" IVar="-1" Cut="0.0000000000000000e+00" cType="1" res="-1.2096387334167957e-02" rms="3.5205066204071045e-01" purity="1.5189392864704132e-01" nType="-99"/>
            <Node pos="r" depth="3" NCoef="0" IVar="-1" Cut="0.0000000000000000e+00" cType="1" res="1.6570370644330978e-03" rms="4.5089271664619446e-01" purity="6.4830619096755981e-01" nType="-99"/>
          </Node>
        </Node>
      </Node>
    </BinaryTree>
    <BinaryTree type="DecisionTree" boostWeight="1.0000000000000000e+00" itree="8">
      <Node pos="s" depth="0" NCoef="0" IVar="11" Cut="-1.4398725330829620e-01" cType="1" res="2.1804532036185265e-02" rms="4.7838059067726135e-01" purity="5.0077569484710693e-01" nType="0">
        <Node pos="l" depth="1" NCoef="0" IVar="4" Cut="-3.3663299679756165e-01" cType="1" res="3.1959962844848633e-01" rms="3.7240383028984070e-01" purity="8.2710808515548706e-01" nType="0">
          <Node pos="l" depth="2" NCoef="0" IVar="11" Cut="-3.8856247067451477e-01" cType="1" res="3.6705625057220459e-01" rms="3.2697036862373352e-01" purity="8.7789088487625122e-01" nType="0">
            <Node pos="l" depth="3" NCoef="0" IVar="-1" Cut="0.0000000000000000e+00" cType="1" res="2.9700663872063160e-03" rms="2.3531614243984222e-01" purity="9.4116455316543579e-01" nType="-99"/>
            <Node pos="r" depth="3" NCoef="0" IVar="-1" Cut="0.0000000000000000e+00" cType="1" res="2.1304890979081392e-03" rms="4.2856153845787048e-01" purity="7.5750267505645752e-01" nType="-99"/>
          </Node>
          <Node pos="r" depth="2" NCoef="0" IVar="-1" Cut="0.0000000000000000e+00" cType="1" res="-6.3333548605442047e-03" rms="4.1863816976547241e-01" purity="2.3174673318862915e-01" nType="-99"/>
        </Node>
        <Node pos="r" depth="1" NCoef="0" IVar="11" Cut="1.2776324152946472e-01" cType="1" res="-1.7252081632614136e-01" rms="4.3823778629302979e-01" purity="2.8782844543457031e-01" nType="0">
          <Node pos="l" depth="2" NCoef="0" IVar="4" Cut="-4.0010765194892883e-01" cType="1" res="-2.8089674189686775e-02" rms="4.8004150390625000e-01" purity="4.4032624363899231e-01" nType="0">
            <Node pos="l" depth="3" NCoef="0" IVar="-1" Cut="0.0000000000000000e+00" cType="1" res="5.3249683696776628e-04" rms="4.9008205533027649e-01" purity="5.2452397346496582e-01" nType="-99"/>
            <Node pos="r" depth="3" NCoef="0" IVar="-1" Cut="0.0000000000000000e+00" cType="1" res="-1.4887855388224125e-02" rms="3.1524771451950073e-01" purity="1.1922819167375565e-01" nType="-99"/>
          </Node>
          <Node pos="r" depth="2" NCoef="0" IVar="0" Cut="-9.3105161190032959e-01" cType="1" res="-2.4622832238674164e-01" rms="3.9545369148254395e-01" purity="2.1000428497791290e-01" nType="0">
            <Node pos="l" depth="3" NCoef="0" IVar="-1" Cut="0.0000000000000000e+00" cType="1" res="-1.0756546631455421e-02" rms="3.6219730973243713e-01" purity="1.6298525035381317e-01" nType="-99"/>
            <Node pos="r" depth="3" NCoef="0" IVar="-1" Cut="0.0000000000000000e+00" cType="1" res="1.7706480575725436e-03" rms="4.4514888525009155e-01" purity="6.6620928049087524e-01" nType="-99"/>
          </Node>
        </Node>
      </Node>
    </BinaryTree>
    <BinaryTree type="DecisionTree" boostWeight="1.0000000000000000e+00" itree="9">
      <Node pos="s" depth="0" NCoef="0" IVar="11" Cut="-1.4328935742378235e-01" cType="1" res="2.3066533729434013e-02" rms="4.7646185755729675e-01" purity="5.0026005506515503e-01" nType="0">
        <Node pos="l" depth="1" NCoef="0" IVar="4" Cut="-3.3677271008491516e-01" cType="1" res="3.1786355376243591e-01" rms="3.7248310446739197e-01" purity="8.2633632421493530e-01" nType="0">
          <Node pos="l" depth="2" NCoef="0" IVar="11" Cut="-3.8806423544883728e-01" cType="1" res="3.6523911356925964e-01" rms="3.2747074961662292e-01" purity="8.7740886211395264e-01" nType="0">
            <Node pos="l" depth="3" NCoef="0" IVar="-1" Cut="0.0000000000000000e+00" cType="1" res="2.9595843516290188e-03" rms="2.3564073443412781e-01" purity="9.4099134206771851e-01" nType="-99"/>
            <Node pos="r" depth="3" NCoef="0" IVar="-1" Cut="0.0000000000000000e+00" cType="1" res="2.1135262213647366e-03" rms="4.2940300703048706e-01" purity="7.5610136985778809e-01" nType="-99"/>
          </Node>
          <Node pos="r" depth="2" NCoef="0" IVar="-1" Cut="0.0000000000000000e+00" cType="1" res="-6.4638536423444748e-03" rms="4.1635864973068237e-01" purity="2.2766135632991791e-01" nType="-99"/>
        </Node>
        <Node pos="r" depth="1" NCoef="0" IVar="11" Cut="1.8307742476463318e-01" cType="1" res="-1.6958415508270264e-01" rms="4.3680080771446228e-01" purity="2.8716829419136047e-01" nType="0">
          <Node pos="l" depth="2" NCoef="0" IVar="4" Cut="-3.9166992902755737e-01" cType="1" res="-5.2160073071718216e-02" rms="4.7535100579261780e-01" purity="4.1311559081077576e-01" nType="0">
            <Node pos="l" depth="3" NCoef="0" IVar="-1" Cut="0.0000000000000000e+00" cType="1" res="1.7651132657192647e-04" rms="4.9011817574501038e-01" purity="4.9227041006088257e-01" nType="-99"/>
            <Node pos="r" depth="3" NCoef="0" IVar="-1" Cut="0.0000000000000000e+00" cType="1" res="-1.7844963818788528e-02" rms="2.9255375266075134e-01" purity="1.0095905512571335e-01" nType="-99"/>
          </Node>
          <Node pos="r" depth="2" NCoef="0" IVar="0" Cut="-9.3105161190032959e-01" cType="1" res="-2.5306478142738342e-01" rms="3.8603666424751282e-01" purity="1.9762818515300751e-01" nType="0">
            <Node pos="l" depth="3" NCoef="0" IVar="-1" Cut="0.0000000000000000e+00" cType="1" res="-1.1685722507536411e-02" rms="3.5214251279830933e-01" purity="1.5186665952205658e-01" nType="-99"/>
            <Node pos="r" depth="3" NCoef="0" IVar="-1" Cut="0.0000000000000000e+00" cType="1" res="1.6947844997048378e-03" rms="4.4835507869720459e-01" purity="6.5633720159530640e-01" nType="-99"/>
          </Node>
        </Node>
      </Node>
    </BinaryTree>
    <BinaryTree type="DecisionTree" boostWeight="1.0000000000000000e+00" itree="10">
      <Node pos="s" depth="0" NCoef="0" IVar="11" Cut="-1.4390720427036285e-01" cType="1" res="2.3523069918155670e-02" rms="4.7453162074089050e-01" purity="4.9880078434944153e-01" nType="0">
        <Node pos="l" depth="1" NCoef="0" IVar="4" Cut="-3.3663299679756165e-01" cType="1" res="3.1571358442306519e-01" rms="3.7286987900733948e-01" purity="8.2520323991775513e-01" nType="0">
          <Node pos="l" depth="2" NCoef="0" IVar="11" Cut="-3.8846519589424133e-01" cType="1" res="3.6290267109870911e-01" rms="3.2854065299034119e-01" purity="8.7642490863800049e-01" nType="0">
            <Node pos="l" depth="3" NCoef="0" IVar="-1" Cut="0.0000000000000000e+00" cType="1" res="2.9489675071090460e-03" rms="2.3606520891189575e-01" purity="9.4076406955718994e-01" nType="-99"/>
            <Node pos="r" depth="3" NCoef="0" IVar="-1" Cut="0.0000000000000000e+00" cType="1" res="2.0795413292944431e-03" rms="4.3190565705299377e-01" purity="7.5185555219650269e-01" nType="-99"/>
          </Node>
          <Node pos="r" depth="2" NCoef="0" IVar="-1" Cut="0.0000000000000000e+00" cType="1" res="-6.7434478551149368e-03" rms="4.1196638345718384e-01" purity="2.2105653584003448e-01" nType="-99"/>
        </Node>
        <Node pos="r" depth="1" NCoef="0" IVar="0" Cut="-9.2212301492691040e-01" cType="1" res="-1.6588513553142548e-01" rms="4.3566715717315674e-01" purity="2.8721523284912109e-01" nType="0">
          <Node pos="l" depth="2" NCoef="0" IVar="0" Cut="-9.5486110448837280e-01" cType="1" res="-2.0232340693473816e-01" rms="4.1835054755210876e-01" purity="2.4767225980758667e-01" nType="0">
            <Node pos="l" depth="3" NCoef="0" IVar="-1" Cut="0.0000000000000000e+00" cType="1" res="-1.0932440869510174e-02" rms="3.5968875885009766e-01" purity="1.5766555070877075e-01" nType="-99"/>
            <Node pos="r" depth="3" NCoef="0" IVar="-1" Cut="0.0000000000000000e+00" cType="1" res="1.4231046952772886e-04" rms="4.7885894775390625e-01" purity="4.7896704077720642e-01" nType="-99"/>
          </Node>
          <Node pos="r" depth="2" NCoef="0" IVar="-1" Cut="0.0000000000000000e+00" cType="1" res="2.4170263204723597e-03" rms="3.8642722368240356e-01" purity="7.8405857086181641e-01" nType="-99"/>
        </Node>
      </Node>
    </BinaryTree>
    <BinaryTree type="DecisionTree" boostWeight="1.0000000000000000e+00" itree="11">
      <Node pos="s" depth="0" NCoef="0" IVar="11" Cut="-1.4320932328701019e-01" cType="1" res="2.7326704934239388e-02" rms="4.7274559736251831e-01" purity="5.0088936090469360e-01" nType="0">
        <Node pos="l" depth="1" NCoef="0" IVar="4" Cut="-3.3839309215545654e-01" cType="1" res="3.1664851307868958e-01" rms="3.7070697546005249e-01" purity="8.2708621025085449e-01" nType="0">
          <Node pos="l" depth="2" NCoef="0" IVar="11" Cut="-3.8796699047088623e-01" cType="1" res="3.6314994096755981e-01" rms="3.2670578360557556e-01" purity="8.7797576189041138e-01" nType="0">
            <Node pos="l" depth="3" NCoef="0" IVar="-1" Cut="0.0000000000000000e+00" cType="1" res="2.9417029581964016e-03" rms="2.3490753769874573e-01" purity="9.4138228893280029e-01" nType="-99"/>
            <Node pos="r" depth="3" NCoef="0" IVar="-1" Cut="0.0000000000000000e+00" cType="1" res="2.0989205222576857e-03" rms="4.2910170555114746e-01" purity="7.5659388303756714e-01" nType="-99"/>
          </Node>
          <Node pos="r" depth="2" NCoef="0" IVar="-1" Cut="0.0000000000000000e+00" cType="1" res="-6.1715897172689438e-03" rms="4.1775727272033691e-01" purity="2.3022587597370148e-01" nType="-99"/>
        </Node>
        <Node pos="r" depth="1" NCoef="0" IVar="0" Cut="-9.3700397014617920e-01" cType="1" res="-1.6188532114028931e-01" rms="4.3500468134880066e-01" purity="2.8756159543991089e-01" nType="0">
          <Node pos="l" depth="2" NCoef="0" IVar="0" Cut="-9.5535713434219360e-01" cType="1" res="-2.1678939461708069e-01" rms="4.0765726566314697e-01" purity="2.2734259068965912e-01" nType="0">
            <Node pos="l" depth="3" NCoef="0" IVar="-1" Cut="0.0000000000000000e+00" cType="1" res="-1.0383366607129574e-02" rms="3.6309212446212769e-01" purity="1.6140525043010712e-01" nType="-99"/>
            <Node pos="r" depth="3" NCoef="0" IVar="-1" Cut="0.0000000000000000e+00" cType="1" res="-4.1729764780029655e-04" rms="4.7810128331184387e-01" purity="4.3662053346633911e-01" nType="-99"/>
          </Node>
          <Node pos="r" depth="2" NCoef="0" IVar="10" Cut="-9.0645581483840942e-01" cType="1" res="2.4050141870975494e-01" rms="4.1726863384246826e-01" purity="7.2890084981918335e-01" nType="0">
            <Node pos="l" depth="3" NCoef="0" IVar="-1" Cut="0.0000000000000000e+00" cType="1" res="1.3571158051490784e-03" rms="4.5701110363006592e-01" purity="6.0265845060348511e-01" nType="-99"/>
            <Node pos="r" depth="3" NCoef="0" IVar="-1" Cut="0.0000000000000000e+00" cType="1" res="2.4514209944754839e-03" rms="3.8141930103302002e-01" purity="7.9523050785064697e-01" nType="-99"/>
          </Node>
        </Node>
      </Node>
    </BinaryTree>
    <BinaryTree type="DecisionTree" boostWeight="1.0000000000000000e+00" itree="12">
      <Node pos="s" depth="0" NCoef="0" IVar="11" Cut="-1.4320932328701019e-01" cType="1" res="2.6543376967310905e-02" rms="4.7099080681800842e-01" purity="4.9835813045501709e-01" nType="0">
        <Node pos="l" depth="1" NCoef="0" IVar="4" Cut="-3.3769586682319641e-01" cType="1" res="3.1328335404396057e-01" rms="3.7221908569335938e-01" purity="8.2463109493255615e-01" nType="0">
          <Node pos="l" depth="2" NCoef="0" IVar="11" Cut="-3.8796830177307129e-01" cType="1" res="3.5987091064453125e-01" rms="3.2888442277908325e-01" purity="8.7602502107620239e-01" nType="0">
            <Node pos="l" depth="3" NCoef="0" IVar="-1" Cut="0.0000000000000000e+00" cType="1" res="2.9283780604600906e-03" rms="2.3671901226043701e-01" purity="9.4041281938552856e-01" nType="-99"/>
            <Node pos="r" depth="3" NCoef="0" IVar="-1" Cut="0.0000000000000000e+00" cType="1" res="2.0661780145019293e-03" rms="4.3149510025978088e-01" purity="7.5253850221633911e-01" nType="-99"/>
          </Node>
          <Node pos="r" depth="2" NCoef="0" IVar="-1" Cut="0.0000000000000000e+00" cType="1" res="-5.9571303427219391e-03" rms="4.1912794113159180e-01" purity="2.3294523358345032e-01" nType="-99"/>
        </Node>
        <Node pos="r" depth="1" NCoef="0" IVar="11" Cut="1.2874342501163483e-01" cType="1" res="-1.5933954715728760e-01" rms="4.3355575203895569e-01" purity="2.8684744238853455e-01" nType="0">
          <Node pos="l" depth="2" NCoef="0" IVar="4" Cut="-4.0015244483947754e-01" cType="1" res="-2.3556223139166832e-02" rms="4.7550141811370850e-01" purity="4.3587964773178101e-01" nType="0">
            <Node pos="l" depth="3" NCoef="0" IVar="-1" Cut="0.0000000000000000e+00" cType="1" res="5.5085297208279371e-04" rms="4.8767721652984619e-01" purity="5.1984238624572754e-01" nType="-99"/>
            <Node pos="r" depth="3" NCoef="0" IVar="-1" Cut="0.0000000000000000e+00" cType="1" res="-1.4361239969730377e-02" rms="3.1158372759819031e-01" purity="1.1683157086372375e-01" nType="-99"/>
          </Node>
          <Node pos="r" depth="2" NCoef="0" IVar="0" Cut="-9.5138889551162720e-01" cType="1" res="-2.2855056822299957e-01" rms="3.9286985993385315e-01" purity="2.1088322997093201e-01" nType="0">
            <Node pos="l" depth="3" NCoef="0" IVar="-1" Cut="0.0000000000000000e+00" cType="1" res="-1.6107048839330673e-02" rms="3.1595772504806519e-01" purity="1.1447861790657043e-01" nType="-99"/>
            <Node pos="r" depth="3" NCoef="0" IVar="-1" Cut="0.0000000000000000e+00" cType="1" res="-2.2126518888399005e-04" rms="4.7659584879875183e-01" purity="4.5185735821723938e-01" nType="-99"/>
          </Node>
        </Node>
      </Node>
    </BinaryTree>
    <BinaryTree type="DecisionTree" boostWeight="1.0000000000000000e+00" itree="13">
      <Node pos="s" depth="0" NCoef="0" IVar="11" Cut="-4.8099290579557419e-02" cType="1" res="2.9932701960206032e-02" rms="4.6872702240943909e-01" purity="4.9969524145126343e-01" nType="0">
        <Node pos="l" depth="1" NCoef="0" IVar="4" Cut="-3.0205810070037842e-01" cType="1" res="2.7825406193733215e-01" rms="3.9716380834579468e-01" purity="7.8322982788085938e-01" nType="0">
          <Node pos="l" depth="2" NCoef="0" IVar="11" Cut="-3.2007095217704773e-01" cType="1" res="3.2609051465988159e-01" rms="3.6258804798126221e-01" purity="8.3736789226531982e-01" nType="0">
            <Node pos="l" depth="3" NCoef="0" IVar="-1" Cut="0.0000000000000000e+00" cType="1" res="2.8658022638410330e-03" rms="2.6256805658340454e-01" purity="9.2516773939132690e-01" nType="-99"/>
            <Node pos="r" depth="3" NCoef="0" IVar="-1" Cut="0.0000000000000000e+00" cType="1" res="1.7113595968112350e-03" rms="4.6028840541839600e-01" purity="6.7742639780044556e-01" nType="-99"/>
          </Node>
          <Node pos="r" depth="2" NCoef="0" IVar="-1" Cut="0.0000000000000000e+00" cType="1" res="-1.1309487745165825e-02" rms="3.5406190156936646e-01" purity="1.5035666525363922e-01" nType="-99"/>
        </Node>
        <Node pos="r" depth="1" NCoef="0" IVar="0" Cut="-9.3700397014617920e-01" cType="1" res="-1.8262395262718201e-01" rms="4.1807124018669128e-01" purity="2.5699698925018311e-01" nType="0">
          <Node pos="l" depth="2" NCoef="0" IVar="0" Cut="-9.5535713434219360e-01" cType="1" res="-2.3179963231086731e-01" rms="3.8944065570831299e-01" purity="2.0191344618797302e-01" nType="0">
            <Node pos="l" depth="3" NCoef="0" IVar="-1" Cut="0.0000000000000000e+00" cType="1" res="-1.2207978405058384e-02" rms="3.4304341673851013e-01" purity="1.4039769768714905e-01" nType="-99"/>
            <Node pos="r" depth="3" NCoef="0" IVar="-1" Cut="0.0000000000000000e+00" cType="1" res="-8.7383348727598786e-04" rms="4.7396549582481384e-01" purity="4.0693128108978271e-01" nType="-99"/>
          </Node>
          <Node pos="r" depth="2" NCoef="0" IVar="-1" Cut="0.0000000000000000e+00" cType="1" res="1.9996173214167356e-03" rms="4.2778170108795166e-01" purity="7.0556211471557617e-01" nType="-99"/>
        </Node>
      </Node>
    </BinaryTree>
    <BinaryTree type="DecisionTree" boostWeight="1.0000000000000000e+00" itree="14">
      <Node pos="s" depth="0" NCoef="0" IVar="11" Cut="-1.4267523586750031e-01" cType="1" res="3.2556910067796707e-02" rms="4.6672526001930237e-01" purity="5.0054955482482910e-01" nType="0">
        <Node pos="l" depth="1" NCoef="0" IVar="4" Cut="-3.3663299679756165e-01" cType="1" res="3.1323146820068359e-01" rms="3.6954894661903381e-01" purity="8.2624441385269165e-01" nType="0">
          <Node pos="l" depth="2" NCoef="0" IVar="11" Cut="-3.8753509521484375e-01" cType="1" res="3.5845509171485901e-01" rms="3.2744041085243225e-01" purity="8.7716543674468994e-01" nType="0">
            <Node pos="l" depth="3" NCoef="0" IVar="-1" Cut="0.0000000000000000e+00" cType="1" res="2.9119432438164949e-03" rms="2.3564042150974274e-01" purity="9.4098949432373047e-01" nType="-99"/>
            <Node pos="r" depth="3" NCoef="0" IVar="-1" Cut="0.0000000000000000e+00" cType="1" res="2.0722390618175268e-03" rms="4.2916285991668701e-01" purity="7.5636506080627441e-01" nType="-99"/>
          </Node>
          <Node pos="r" depth="2" NCoef="0" IVar="-1" Cut="0.0000000000000000e+00" cType="1" res="-5.2113304845988750e-03" rms="4.2606928944587708e-01" purity="2.4441458284854889e-01" nType="-99"/>
        </Node>
        <Node pos="r" depth="1" NCoef="0" IVar="11" Cut="1.8380349874496460e-01" cType="1" res="-1.5127925574779510e-01" rms="4.3088999390602112e-01" purity="2.8722602128982544e-01" nType="0">
          <Node pos="l" depth="2" NCoef="0" IVar="4" Cut="-3.0724489688873291e-01" cType="1" res="-3.7837117910385132e-02" rms="4.7023630142211914e-01" purity="4.1527876257896423e-01" nType="0">
            <Node pos="l" depth="3" NCoef="0" IVar="-1" Cut="0.0000000000000000e+00" cType="1" res="1.9004812929779291e-04" rms="4.8437288403511047e-01" purity="4.8045286536216736e-01" nType="-99"/>
            <Node pos="r" depth="3" NCoef="0" IVar="-1" Cut="0.0000000000000000e+00" cType="1" res="-3.7536837160587311e-02" rms="2.0418727397918701e-01" purity="4.5034285634756088e-02" nType="-99"/>
          </Node>
          <Node pos="r" depth="2" NCoef="0" IVar="0" Cut="-9.3105161190032959e-01" cType="1" res="-2.3273141682147980e-01" rms="3.7991315126419067e-01" purity="1.9528332352638245e-01" nType="0">
            <Node pos="l" depth="3" NCoef="0" IVar="-1" Cut="0.0000000000000000e+00" cType="1" res="-1.0814511217176914e-02" rms="3.4973758459091187e-01" purity="1.5169230103492737e-01" nType="-99"/>
            <Node pos="r" depth="3" NCoef="0" IVar="-1" Cut="0.0000000000000000e+00" cType="1" res="1.5933250542730093e-03" rms="4.5122829079627991e-01" purity="6.4647310972213745e-01" nType="-99"/>
          </Node>
        </Node>
      </Node>
    </BinaryTree>
    <BinaryTree type="DecisionTree" boostWeight="1.0000000000000000e+00" itree="15">
      <Node pos="s" depth="0" NCoef="0" IVar="11" Cut="-1.4328935742378235e-01" cType="1" res="3.5199519246816635e-02" rms="4.6472838521003723e-01" purity="5.0133842229843140e-01" nType="0">
        <Node pos="l" depth="1" NCoef="0" IVar="4" Cut="-3.3562096953392029e-01" cType="1" res="3.1229862570762634e-01" rms="3.6879074573516846e-01" purity="8.2650279998779297e-01" nType="0">
          <Node pos="l" depth="2" NCoef="0" IVar="11" Cut="-3.8806423544883728e-01" cType="1" res="3.5751581192016602e-01" rms="3.2695606350898743e-01" purity="8.7755638360977173e-01" nType="0">
            <Node pos="l" depth="3" NCoef="0" IVar="-1" Cut="0.0000000000000000e+00" cType="1" res="2.9030803125351667e-03" rms="2.3541013896465302e-01" purity="9.4110852479934692e-01" nType="-99"/>
            <Node pos="r" depth="3" NCoef="0" IVar="-1" Cut="0.0000000000000000e+00" cType="1" res="2.0647670608013868e-03" rms="4.2903998494148254e-01" purity="7.5662201642990112e-01" nType="-99"/>
          </Node>
          <Node pos="r" depth="2" NCoef="0" IVar="-1" Cut="0.0000000000000000e+00" cType="1" res="-6.2373075634241104e-03" rms="4.1222730278968811e-01" purity="2.2235266864299774e-01" nType="-99"/>
        </Node>
        <Node pos="r" depth="1" NCoef="0" IVar="0" Cut="-9.5138889551162720e-01" cType="1" res="-1.4509202539920807e-01" rms="4.3074089288711548e-01" purity="2.8977379202842712e-01" nType="0">
          <Node pos="l" depth="2" NCoef="0" IVar="11" Cut="7.4288308620452881e-02" cType="1" res="-2.5813734531402588e-01" rms="3.5923796892166138e-01" purity="1.5879362821578979e-01" nType="0">
            <Node pos="l" depth="3" NCoef="0" IVar="-1" Cut="0.0000000000000000e+00" cType="1" res="-3.0880998820066452e-03" rms="4.4720995426177979e-01" purity="2.9277741909027100e-01" nType="-99"/>
            <Node pos="r" depth="3" NCoef="0" IVar="-1" Cut="0.0000000000000000e+00" cType="1" res="-1.4433393254876137e-02" rms="3.2219770550727844e-01" purity="1.2042196840047836e-01" nType="-99"/>
          </Node>
          <Node pos="r" depth="2" NCoef="0" IVar="4" Cut="-3.5823541879653931e-01" cType="1" res="7.9826638102531433e-02" rms="4.7107246518135071e-01" purity="5.5037617683410645e-01" nType="0">
            <Node pos="l" depth="3" NCoef="0" IVar="-1" Cut="0.0000000000000000e+00" cType="1" res="1.9426100188866258e-03" rms="4.4952753186225891e-01" purity="7.0322066545486450e-01" nType="-99"/>
            <Node pos="r" depth="3" NCoef="0" IVar="-1" Cut="0.0000000000000000e+00" cType="1" res="-3.1896054744720459e-02" rms="2.2661024332046509e-01" purity="5.6727450340986252e-02" nType="-99"/>
          </Node>
        </Node>
      </Node>
    </BinaryTree>
    <BinaryTree type="DecisionTree" boostWeight="1.0000000000000000e+00" itree="16">
      <Node pos="s" depth="0" NCoef="0" IVar="11" Cut="-1.4285714924335480e-01" cType="1" res="3.6602158099412918e-02" rms="4.6220415830612183e-01" purity="5.0010460615158081e-01" nType="0">
        <Node pos="l" depth="1" NCoef="0" IVar="4" Cut="-3.1387057900428772e-01" cType="1" res="3.1094989180564880e-01" rms="3.6867839097976685e-01" purity="8.2603549957275391e-01" nType="0">
          <Node pos="l" depth="2" NCoef="0" IVar="11" Cut="-3.8775518536567688e-01" cType="1" res="3.5363969206809998e-01" rms="3.2992845773696899e-01" purity="8.7462961673736572e-01" nType="0">
            <Node pos="l" depth="3" NCoef="0" IVar="-1" Cut="0.0000000000000000e+00" cType="1" res="2.8890159446746111e-03" rms="2.3835529386997223e-01" purity="9.3939667940139771e-01" nType="-99"/>
            <Node pos="r" depth="3" NCoef="0" IVar="-1" Cut="0.0000000000000000e+00" cType="1" res="2.0354944281280041e-03" rms="4.3110650777816772e-01" purity="7.5246405601501465e-01" nType="-99"/>
          </Node>
          <Node pos="r" depth="2" NCoef="0" IVar="-1" Cut="0.0000000000000000e+00" cType="1" res="-7.4646798893809319e-03" rms="3.9790391921997070e-01" purity="1.9909639656543732e-01" nType="-99"/>
        </Node>
        <Node pos="r" depth="1" NCoef="0" IVar="0" Cut="-9.3501985073089600e-01" cType="1" res="-1.4243750274181366e-01" rms="4.2798516154289246e-01" purity="2.8740167617797852e-01" nType="0">
          <Node pos="l" depth="2" NCoef="0" IVar="0" Cut="-9.5535713434219360e-01" cType="1" res="-1.9569607079029083e-01" rms="4.0241375565528870e-01" purity="2.2624589502811432e-01" nType="0">
            <Node pos="l" depth="3" NCoef="0" IVar="-1" Cut="0.0000000000000000e+00" cType="1" res="-9.5672365278005600e-03" rms="3.6072307825088501e-01" purity="1.6078834235668182e-01" nType="-99"/>
            <Node pos="r" depth="3" NCoef="0" IVar="-1" Cut="0.0000000000000000e+00" cType="1" res="-3.1455283169634640e-04" rms="4.7259736061096191e-01" purity="4.3474501371383667e-01" nType="-99"/>
          </Node>
          <Node pos="r" depth="2" NCoef="0" IVar="10" Cut="-9.0645581483840942e-01" cType="1" res="2.4476633965969086e-01" rms="4.0865972638130188e-01" purity="7.3202031850814819e-01" nType="0">
            <Node pos="l" depth="3" NCoef="0" IVar="-1" Cut="0.0000000000000000e+00" cType="1" res="1.4837036142125726e-03" rms="4.4605696201324463e-01" purity="6.1400657892227173e-01" nType="-99"/>
            <Node pos="r" depth="3" NCoef="0" IVar="-1" Cut="0.0000000000000000e+00" cType="1" res="2.4553607217967510e-03" rms="3.7518948316574097e-01" purity="7.9580342769622803e-01" nType="-99"/>
          </Node>
        </Node>
      </Node>
    </BinaryTree>
    <BinaryTree type="DecisionTree" boostWeight="1.0000000000000000e+00" itree="17">
      <Node pos="s" depth="0" NCoef="0" IVar="11" Cut="-1.4391835033893585e-01" cType="1" res="3.7914216518402100e-02" rms="4.6068313717842102e-01" purity="4.9987506866455078e-01" nType="0">
        <Node pos="l" depth="1" NCoef="0" IVar="4" Cut="-2.9796907305717468e-01" cType="1" res="3.0988502502441406e-01" rms="3.6818945407867432e-01" purity="8.2595729827880859e-01" nType="0">
          <Node pos="l" depth="2" NCoef="0" IVar="11" Cut="-3.4771877527236938e-01" cType="1" res="3.5108134150505066e-01" rms="3.3144176006317139e-01" purity="8.7304526567459106e-01" nType="0">
            <Node pos="l" depth="3" NCoef="0" IVar="-1" Cut="0.0000000000000000e+00" cType="1" res="2.8490042313933372e-03" rms="2.5392270088195801e-01" purity="9.3035268783569336e-01" nType="-99"/>
            <Node pos="r" depth="3" NCoef="0" IVar="-1" Cut="0.0000000000000000e+00" cType="1" res="1.9189147278666496e-03" rms="4.4124633073806763e-01" purity="7.3389971256256104e-01" nType="-99"/>
          </Node>
          <Node pos="r" depth="2" NCoef="0" IVar="-1" Cut="0.0000000000000000e+00" cType="1" res="-9.7161810845136642e-03" rms="3.7366437911987305e-01" purity="1.6777341067790985e-01" nType="-99"/>
        </Node>
        <Node pos="r" depth="1" NCoef="0" IVar="0" Cut="-9.3105161190032959e-01" cType="1" res="-1.3814428448677063e-01" rms="4.2775979638099670e-01" purity="2.8878790140151978e-01" nType="0">
          <Node pos="l" depth="2" NCoef="0" IVar="0" Cut="-9.5535713434219360e-01" cType="1" res="-1.9051450490951538e-01" rms="4.0299513936042786e-01" purity="2.2803094983100891e-01" nType="0">
            <Node pos="l" depth="3" NCoef="0" IVar="-1" Cut="0.0000000000000000e+00" cType="1" res="-9.3893958255648613e-03" rms="3.6097452044487000e-01" purity="1.6113545000553131e-01" nType="-99"/>
            <Node pos="r" depth="3" NCoef="0" IVar="-1" Cut="0.0000000000000000e+00" cType="1" res="-2.3844567476771772e-04" rms="4.7331839799880981e-01" purity="4.3961724638938904e-01" nType="-99"/>
          </Node>
          <Node pos="r" depth="2" NCoef="0" IVar="10" Cut="-9.0476191043853760e-01" cType="1" res="2.4377588927745819e-01" rms="4.0883913636207581e-01" purity="7.3186999559402466e-01" nType="0">
            <Node pos="l" depth="3" NCoef="0" IVar="-1" Cut="0.0000000000000000e+00" cType="1" res="1.4482372207567096e-03" rms="4.4794207811355591e-01" purity="6.0893136262893677e-01" nType="-99"/>
            <Node pos="r" depth="3" NCoef="0" IVar="-1" Cut="0.0000000000000000e+00" cType="1" res="2.4523267056792974e-03" rms="3.7394139170646667e-01" purity="7.9750484228134155e-01" nType="-99"/>
          </Node>
        </Node>
      </Node>
    </BinaryTree>
    <BinaryTree type="DecisionTree" boostWeight="1.0000000000000000e+00" itree="18">
      <Node pos="s" depth="0" NCoef="0" IVar="11" Cut="-1.4285714924335480e-01" cType="1" res="3.8773927837610245e-02" rms="4.5884120464324951e-01" purity="4.9951118230819702e-01" nType="0">
        <Node pos="l" depth="1" NCoef="0" IVar="4" Cut="-3.1502234935760498e-01" cType="1" res="3.0949819087982178e-01" rms="3.6708429455757141e-01" purity="8.2642501592636108e-01" nType="0">
          <Node pos="l" depth="2" NCoef="0" IVar="11" Cut="-3.8775518536567688e-01" cType="1" res="3.5155677795410156e-01" rms="3.2925581932067871e-01" purity="8.7514770030975342e-01" nType="0">
            <Node pos="l" depth="3" NCoef="0" IVar="-1" Cut="0.0000000000000000e+00" cType="1" res="2.8729124460369349e-03" rms="2.3733110725879669e-01" purity="9.3996167182922363e-01" nType="-99"/>
            <Node pos="r" depth="3" NCoef="0" IVar="-1" Cut="0.0000000000000000e+00" cType="1" res="2.0137121900916100e-03" rms="4.3161144852638245e-01" purity="7.5165516138076782e-01" nType="-99"/>
          </Node>
          <Node pos="r" depth="2" NCoef="0" IVar="-1" Cut="0.0000000000000000e+00" cType="1" res="-7.2661787271499634e-03" rms="3.9719492197036743e-01" purity="1.9881358742713928e-01" nType="-99"/>
        </Node>
        <Node pos="r" depth="1" NCoef="0" IVar="11" Cut="1.8367356061935425e-01" cType="1" res="-1.3874818384647369e-01" rms="4.2503613233566284e-01" purity="2.8514388203620911e-01" nType="0">
          <Node pos="l" depth="2" NCoef="0" IVar="4" Cut="-4.0051048994064331e-01" cType="1" res="-3.2055169343948364e-02" rms="4.6409362554550171e-01" purity="4.1004833579063416e-01" nType="0">
            <Node pos="l" depth="3" NCoef="0" IVar="-1" Cut="0.0000000000000000e+00" cType="1" res="3.7283691926859319e-04" rms="4.8190060257911682e-01" purity="4.9111980199813843e-01" nType="-99"/>
            <Node pos="r" depth="3" NCoef="0" IVar="-1" Cut="0.0000000000000000e+00" cType="1" res="-1.4619686640799046e-02" rms="2.9513347148895264e-01" purity="1.0606884211301804e-01" nType="-99"/>
          </Node>
          <Node pos="r" depth="2" NCoef="0" IVar="0" Cut="-9.3700397014617920e-01" cType="1" res="-2.1468627452850342e-01" rms="3.7692198157310486e-01" purity="1.9624388217926025e-01" nType="0">
            <Node pos="l" depth="3" NCoef="0" IVar="-1" Cut="0.0000000000000000e+00" cType="1" res="-1.0086623020470142e-02" rms="3.4860533475875854e-01" purity="1.5243884921073914e-01" nType="-99"/>
            <Node pos="r" depth="3" NCoef="0" IVar="-1" Cut="0.0000000000000000e+00" cType="1" res="1.6133164754137397e-03" rms="4.4580838084220886e-01" purity="6.4865869283676147e-01" nType="-99"/>
          </Node>
        </Node>
      </Node>
    </BinaryTree>
    <BinaryTree type="DecisionTree" boostWeight="1.0000000000000000e+00" itree="19">
      <Node pos="s" depth="0" NCoef="0" IVar="11" Cut="-1.4310744404792786e-01" cType="1" res="4.1055750101804733e-02" rms="4.5726826786994934e-01" purity="5.0036585330963135e-01" nType="0">
        <Node pos="l" depth="1" NCoef="0" IVar="4" Cut="-3.3663299679756165e-01" cType="1" res="3.0900752544403076e-01" rms="3.6621406674385071e-01" purity="8.2683736085891724e-01" nType="0">
          <Node pos="l" depth="2" NCoef="0" IVar="11" Cut="-3.4705632925033569e-01" cType="1" res="3.5261482000350952e-01" rms="3.2645878195762634e-01" purity="8.7781578302383423e-01" nType="0">
            <Node pos="l" depth="3" NCoef="0" IVar="-1" Cut="0.0000000000000000e+00" cType="1" res="2.8382681775838137e-03" rms="2.4950282275676727e-01" purity="9.3319600820541382e-01" nType="-99"/>
            <Node pos="r" depth="3" NCoef="0" IVar="-1" Cut="0.0000000000000000e+00" cType="1" res="1.9483835203573108e-03" rms="4.3720659613609314e-01" purity="7.4253487586975098e-01" nType="-99"/>
          </Node>
          <Node pos="r" depth="2" NCoef="0" IVar="-1" Cut="0.0000000000000000e+00" cType="1" res="-5.4140584543347359e-03" rms="4.1749945282936096e-01" purity="2.3191690444946289e-01" nType="-99"/>
        </Node>
        <Node pos="r" depth="1" NCoef="0" IVar="0" Cut="-9.3105161190032959e-01" cType="1" res="-1.3448846340179443e-01" rms="4.2469286918640137e-01" purity="2.8648340702056885e-01" nType="0">
          <Node pos="l" depth="2" NCoef="0" IVar="0" Cut="-9.5535713434219360e-01" cType="1" res="-1.8717081844806671e-01" rms="3.9953738451004028e-01" purity="2.2436794638633728e-01" nType="0">
            <Node pos="l" depth="3" NCoef="0" IVar="-1" Cut="0.0000000000000000e+00" cType="1" res="-9.5089208334684372e-03" rms="3.5677686333656311e-01" purity="1.5695534646511078e-01" nType="-99"/>
            <Node pos="r" depth="3" NCoef="0" IVar="-1" Cut="0.0000000000000000e+00" cType="1" res="-2.2267515305429697e-04" rms="4.7202482819557190e-01" purity="4.3722856044769287e-01" nType="-99"/>
          </Node>
          <Node pos="r" depth="2" NCoef="0" IVar="10" Cut="-9.0476191043853760e-01" cType="1" res="2.4537983536720276e-01" rms="4.0688368678092957e-01" purity="7.3436939716339111e-01" nType="0">
            <Node pos="l" depth="3" NCoef="0" IVar="-1" Cut="0.0000000000000000e+00" cType="1" res="1.5057311393320560e-03" rms="4.4542297720909119e-01" purity="6.1752617359161377e-01" nType="-99"/>
            <Node pos="r" depth="3" NCoef="0" IVar="-1" Cut="0.0000000000000000e+00" cType="1" res="2.4473918601870537e-03" rms="3.7295740842819214e-01" purity="7.9776322841644287e-01" nType="-99"/>
          </Node>
        </Node>
      </Node>
    </BinaryTree>
    <BinaryTree type="DecisionTree" boostWeight="1.0000000000000000e+00" itree="20">
      <Node pos="s" depth="0" NCoef="0" IVar="11" Cut="-2.3894296586513519e-01" cType="1" res="4.2440202087163925e-02" rms="4.5583361387252808e-01" purity="5.0031387805938721e-01" nType="0">
        <Node pos="l" depth="1" NCoef="0" IVar="4" Cut="-4.0821549296379089e-01" cType="1" res="3.4457081556320190e-01" rms="3.2952493429183960e-01" purity="8.6565965414047241e-01" nType="0">
          <Node pos="l" depth="2" NCoef="0" IVar="11" Cut="-4.2014729976654053e-01" cType="1" res="3.8621106743812561e-01" rms="2.8005656599998474e-01" purity="9.1373401880264282e-01" nType="0">
            <Node pos="l" depth="3" NCoef="0" IVar="-1" Cut="0.0000000000000000e+00" cType="1" res="2.8936129529029131e-03" rms="2.1734555065631866e-01" purity="9.5028978586196899e-01" nType="-99"/>
            <Node pos="r" depth="3" NCoef="0" IVar="-1" Cut="0.0000000000000000e+00" cType="1" res="2.3627437185496092e-03" rms="3.8334009051322937e-01" purity="8.2073849439620972e-01" nType="-99"/>
          </Node>
          <Node pos="r" depth="2" NCoef="0" IVar="-1" Cut="0.0000000000000000e+00" cType="1" res="-2.8715201187878847e-04" rms="4.7383141517639160e-01" purity="4.4494488835334778e-01" nType="-99"/>
        </Node>
        <Node pos="r" depth="1" NCoef="0" IVar="0" Cut="-9.2212301492691040e-01" cType="1" res="-1.1005522310733795e-01" rms="4.3419378995895386e-01" purity="3.1591159105300903e-01" nType="0">
          <Node pos="l" depth="2" NCoef="0" IVar="0" Cut="-9.5486110448837280e-01" cType="1" res="-1.4623497426509857e-01" rms="4.2060086131095886e-01" purity="2.7335867285728455e-01" nType="0">
            <Node pos="l" depth="3" NCoef="0" IVar="-1" Cut="0.0000000000000000e+00" cType="1" res="-7.8421793878078461e-03" rms="3.7145027518272400e-01" purity="1.7788821458816528e-01" nType="-99"/>
            <Node pos="r" depth="3" NCoef="0" IVar="-1" Cut="0.0000000000000000e+00" cType="1" res="5.3834682330489159e-04" rms="4.7068107128143311e-01" purity="5.0583940744400024e-01" nType="-99"/>
          </Node>
          <Node pos="r" depth="2" NCoef="0" IVar="-1" Cut="0.0000000000000000e+00" cType="1" res="2.4477506522089243e-03" rms="3.6974129080772400e-01" purity="7.9934960603713989e-01" nType="-99"/>
        </Node>
      </Node>
    </BinaryTree>
    <BinaryTree type="DecisionTree" boostWeight="1.0000000000000000e+00" itree="21">
      <Node pos="s" depth="0" NCoef="0" IVar="11" Cut="-1.4267523586750031e-01" cType="1" res="4.3800558894872665e-02" rms="4.5455500483512878e-01" purity="5.0059127807617188e-01" nType="0">
        <Node pos="l" depth="1" NCoef="0" IVar="4" Cut="-3.3562096953392029e-01" cType="1" res="3.0644938349723816e-01" rms="3.6594942212104797e-01" purity="8.2596862316131592e-01" nType="0">
          <Node pos="l" depth="2" NCoef="0" IVar="11" Cut="-3.8753509521484375e-01" cType="1" res="3.4946939349174500e-01" rms="3.2709163427352905e-01" purity="8.7679320573806763e-01" nType="0">
            <Node pos="l" depth="3" NCoef="0" IVar="-1" Cut="0.0000000000000000e+00" cType="1" res="2.8465478681027889e-03" rms="2.3661307990550995e-01" purity="9.4044393301010132e-01" nType="-99"/>
            <Node pos="r" depth="3" NCoef="0" IVar="-1" Cut="0.0000000000000000e+00" cType="1" res="2.0275120623409748e-03" rms="4.2796334624290466e-01" purity="7.5730580091476440e-01" nType="-99"/>
          </Node>
          <Node pos="r" depth="2" NCoef="0" IVar="-1" Cut="0.0000000000000000e+00" cType="1" res="-5.2100075408816338e-03" rms="4.1850224137306213e-01" purity="2.3452751338481903e-01" nType="-99"/>
        </Node>
        <Node pos="r" depth="1" NCoef="0" IVar="11" Cut="1.2939062714576721e-01" cType="1" res="-1.2811003625392914e-01" rms="4.2367416620254517e-01" purity="2.8762328624725342e-01" nType="0">
          <Node pos="l" depth="2" NCoef="0" IVar="4" Cut="-4.0014719963073730e-01" cType="1" res="-2.6186148170381784e-03" rms="4.6567249298095703e-01" purity="4.3781438469886780e-01" nType="0">
            <Node pos="l" depth="3" NCoef="0" IVar="-1" Cut="0.0000000000000000e+00" cType="1" res="7.3824397986754775e-04" rms="4.8043778538703918e-01" purity="5.2294778823852539e-01" nType="-99"/>
            <Node pos="r" depth="3" NCoef="0" IVar="-1" Cut="0.0000000000000000e+00" cType="1" res="-1.3102036900818348e-02" rms="3.0289551615715027e-01" purity="1.1236619204282761e-01" nType="-99"/>
          </Node>
          <Node pos="r" depth="2" NCoef="0" IVar="0" Cut="-9.3700397014617920e-01" cType="1" res="-1.9220387935638428e-01" rms="3.8506069779396057e-01" purity="2.1091428399085999e-01" nType="0">
            <Node pos="l" depth="3" NCoef="0" IVar="-1" Cut="0.0000000000000000e+00" cType="1" res="-8.6385980248451233e-03" rms="3.5856589674949646e-01" purity="1.6482375562191010e-01" nType="-99"/>
            <Node pos="r" depth="3" NCoef="0" IVar="-1" Cut="0.0000000000000000e+00" cType="1" res="1.7044363776221871e-03" rms="4.3982559442520142e-01" purity="6.6381412744522095e-01" nType="-99"/>
          </Node>
        </Node>
      </Node>
    </BinaryTree>
    <BinaryTree type="DecisionTree" boostWeight="1.0000000000000000e+00" itree="22">
      <Node pos="s" depth="0" NCoef="0" IVar="11" Cut="-2.3890270292758942e-01" cType="1" res="4.4040054082870483e-02" rms="4.5323690772056580e-01" purity="4.9937501549720764e-01" nType="0">
        <Node pos="l" depth="1" NCoef="0" IVar="4" Cut="-4.0722829103469849e-01" cType="1" res="3.4173637628555298e-01" rms="3.2965949177742004e-01" purity="8.6503022909164429e-01" nType="0">
          <Node pos="l" depth="2" NCoef="0" IVar="0" Cut="-9.5882934331893921e-01" cType="1" res="3.8256463408470154e-01" rms="2.8139579296112061e-01" purity="9.1277700662612915e-01" nType="0">
            <Node pos="l" depth="3" NCoef="0" IVar="-1" Cut="0.0000000000000000e+00" cType="1" res="1.8839918775483966e-03" rms="4.3418979644775391e-01" purity="7.4531376361846924e-01" nType="-99"/>
            <Node pos="r" depth="3" NCoef="0" IVar="-1" Cut="0.0000000000000000e+00" cType="1" res="2.8613894246518612e-03" rms="2.3042340576648712e-01" purity="9.4349771738052368e-01" nType="-99"/>
          </Node>
          <Node pos="r" depth="2" NCoef="0" IVar="-1" Cut="0.0000000000000000e+00" cType="1" res="-1.6058461915235966e-04" rms="4.7396123409271240e-01" purity="4.5221859216690063e-01" nType="-99"/>
        </Node>
        <Node pos="r" depth="1" NCoef="0" IVar="0" Cut="-9.6031743288040161e-01" cType="1" res="-1.0503171384334564e-01" rms="4.3274703621864319e-01" purity="3.1627273559570312e-01" nType="0">
          <Node pos="l" depth="2" NCoef="0" IVar="11" Cut="-3.4205969423055649e-03" cType="1" res="-2.6105296611785889e-01" rms="3.3010879158973694e-01" purity="1.3180039823055267e-01" nType="0">
            <Node pos="l" depth="3" NCoef="0" IVar="-1" Cut="0.0000000000000000e+00" cType="1" res="-3.4342561848461628e-03" rms="4.4571644067764282e-01" purity="2.8914874792098999e-01" nType="-99"/>
            <Node pos="r" depth="3" NCoef="0" IVar="-1" Cut="0.0000000000000000e+00" cType="1" res="-1.7141316086053848e-02" rms="2.9507601261138916e-01" purity="9.8354592919349670e-02" nType="-99"/>
          </Node>
          <Node pos="r" depth="2" NCoef="0" IVar="4" Cut="-3.8404715061187744e-01" cType="1" res="6.2073864974081516e-03" rms="4.6191424131393433e-01" purity="4.4779670238494873e-01" nType="0">
            <Node pos="l" depth="3" NCoef="0" IVar="-1" Cut="0.0000000000000000e+00" cType="1" res="1.1348119005560875e-03" rms="4.7150689363479614e-01" purity="5.6144118309020996e-01" nType="-99"/>
            <Node pos="r" depth="3" NCoef="0" IVar="-1" Cut="0.0000000000000000e+00" cType="1" res="-2.1442826837301254e-02" rms="2.5882628560066223e-01" purity="7.8137531876564026e-02" nType="-99"/>
          </Node>
        </Node>
      </Node>
    </BinaryTree>
    <BinaryTree type="DecisionTree" boostWeight="1.0000000000000000e+00" itree="23">
      <Node pos="s" depth="0" NCoef="0" IVar="11" Cut="-2.3849092423915863e-01" cType="1" res="4.6404585242271423e-02" rms="4.5061638951301575e-01" purity="4.9971553683280945e-01" nType="0">
        <Node pos="l" depth="1" NCoef="0" IVar="4" Cut="-3.1502234935760498e-01" cType="1" res="3.4106528759002686e-01" rms="3.2895520329475403e-01" purity="8.6548620462417603e-01" nType="0">
          <Node pos="l" depth="2" NCoef="0" IVar="11" Cut="-4.5606550574302673e-01" cType="1" res="3.7433260679244995e-01" rms="2.9156574606895447e-01" purity="9.0533512830734253e-01" nType="0">
            <Node pos="l" depth="3" NCoef="0" IVar="-1" Cut="0.0000000000000000e+00" cType="1" res="2.8710353653877974e-03" rms="2.1684248745441437e-01" purity="9.5039463043212891e-01" nType="-99"/>
            <Node pos="r" depth="3" NCoef="0" IVar="-1" Cut="0.0000000000000000e+00" cType="1" res="2.3242973256856203e-03" rms="3.8396933674812317e-01" purity="8.1915128231048584e-01" nType="-99"/>
          </Node>
          <Node pos="r" depth="2" NCoef="0" IVar="-1" Cut="0.0000000000000000e+00" cType="1" res="-4.5318040065467358e-03" rms="4.2933616042137146e-01" purity="2.4635161459445953e-01" nType="-99"/>
        </Node>
        <Node pos="r" depth="1" NCoef="0" IVar="0" Cut="-9.3501985073089600e-01" cType="1" res="-1.0270440578460693e-01" rms="4.2997601628303528e-01" purity="3.1462228298187256e-01" nType="0">
          <Node pos="l" depth="2" NCoef="0" IVar="0" Cut="-9.5535713434219360e-01" cType="1" res="-1.5742498636245728e-01" rms="4.0802115201950073e-01" purity="2.4843107163906097e-01" nType="0">
            <Node pos="l" depth="3" NCoef="0" IVar="-1" Cut="0.0000000000000000e+00" cType="1" res="-7.6766349375247955e-03" rms="3.6764776706695557e-01" purity="1.7531044781208038e-01" nType="-99"/>
            <Node pos="r" depth="3" NCoef="0" IVar="-1" Cut="0.0000000000000000e+00" cType="1" res="1.9660948601085693e-04" rms="4.7020858526229858e-01" purity="4.6777391433715820e-01" nType="-99"/>
          </Node>
          <Node pos="r" depth="2" NCoef="0" IVar="10" Cut="-9.0476191043853760e-01" cType="1" res="2.5803092122077942e-01" rms="3.9534264802932739e-01" purity="7.5097566843032837e-01" nType="0">
            <Node pos="l" depth="3" NCoef="0" IVar="-1" Cut="0.0000000000000000e+00" cType="1" res="1.5971227549016476e-03" rms="4.3784487247467041e-01" purity="6.3307589292526245e-01" nType="-99"/>
            <Node pos="r" depth="3" NCoef="0" IVar="-1" Cut="0.0000000000000000e+00" cType="1" res="2.4894147645682096e-03" rms="3.6024364829063416e-01" purity="8.1210368871688843e-01" nType="-99"/>
          </Node>
        </Node>
      </Node>
    </BinaryTree>
    <BinaryTree type="DecisionTree" boostWeight="1.0000000000000000e+00" itree="24">
      <Node pos="s" depth="0" NCoef="0" IVar="11" Cut="-2.3839272558689117e-01" cType="1" res="4.8295952379703522e-02" rms="4.4956633448600769e-01" purity="5.0048744678497314e-01" nType="0">
        <Node pos="l" depth="1" NCoef="0" IVar="4" Cut="-4.0821549296379089e-01" cType="1" res="3.3895811438560486e-01" rms="3.2928887009620667e-01" purity="8.6470335721969604e-01" nType="0">
          <Node pos="l" depth="2" NCoef="0" IVar="0" Cut="-9.5486110448837280e-01" cType="1" res="3.8016071915626526e-01" rms="2.8087782859802246e-01" purity="9.1307961940765381e-01" nType="0">
            <Node pos="l" depth="3" NCoef="0" IVar="-1" Cut="0.0000000000000000e+00" cType="1" res="2.2835945710539818e-03" rms="3.8365200161933899e-01" purity="8.1898826360702515e-01" nType="-99"/>
            <Node pos="r" depth="3" NCoef="0" IVar="-1" Cut="0.0000000000000000e+00" cType="1" res="2.8974488377571106e-03" rms="2.0188641548156738e-01" purity="9.5731574296951294e-01" nType="-99"/>
          </Node>
          <Node pos="r" depth="2" NCoef="0" IVar="-1" Cut="0.0000000000000000e+00" cType="1" res="-3.1207580468617380e-04" rms="4.7124609351158142e-01" purity="4.4162744283676147e-01" nType="-99"/>
        </Node>
        <Node pos="r" depth="1" NCoef="0" IVar="0" Cut="-9.2212301492691040e-01" cType="1" res="-9.7567468881607056e-02" rms="4.3063640594482422e-01" purity="3.1771245598793030e-01" nType="0">
          <Node pos="l" depth="2" NCoef="0" IVar="0" Cut="-9.5486110448837280e-01" cType="1" res="-1.3327854871749878e-01" rms="4.1784465312957764e-01" purity="2.7442157268524170e-01" nType="0">
            <Node pos="l" depth="3" NCoef="0" IVar="-1" Cut="0.0000000000000000e+00" cType="1" res="-7.3612905107438564e-03" rms="3.7028002738952637e-01" purity="1.7808437347412109e-01" nType="-99"/>
            <Node pos="r" depth="3" NCoef="0" IVar="-1" Cut="0.0000000000000000e+00" cType="1" res="6.1809807084500790e-04" rms="4.6783679723739624e-01" purity="5.0848734378814697e-01" nType="-99"/>
          </Node>
          <Node pos="r" depth="2" NCoef="0" IVar="-1" Cut="0.0000000000000000e+00" cType="1" res="2.4501027073711157e-03" rms="3.6457738280296326e-01" purity="8.0219745635986328e-01" nType="-99"/>
        </Node>
      </Node>
    </BinaryTree>
    <BinaryTree type="DecisionTree" boostWeight="1.0000000000000000e+00" itree="25">
      <Node pos="s" depth="0" NCoef="0" IVar="11" Cut="-1.4261052012443542e-01" cType="1" res="4.7945905476808548e-02" rms="4.4827193021774292e-01" purity="4.9905443191528320e-01" nType="0">
        <Node pos="l" depth="1" NCoef="0" IVar="4" Cut="-2.4451468884944916e-01" cType="1" res="3.0271959304809570e-01" rms="3.6402025818824768e-01" purity="8.2551872730255127e-01" nType="0">
          <Node pos="l" depth="2" NCoef="0" IVar="11" Cut="-3.4664839506149292e-01" cType="1" res="3.3793953061103821e-01" rms="3.3441907167434692e-01" purity="8.6717283725738525e-01" nType="0">
            <Node pos="l" depth="3" NCoef="0" IVar="-1" Cut="0.0000000000000000e+00" cType="1" res="2.7764129918068647e-03" rms="2.5760787725448608e-01" purity="9.2722326517105103e-01" nType="-99"/>
            <Node pos="r" depth="3" NCoef="0" IVar="-1" Cut="0.0000000000000000e+00" cType="1" res="1.8240571953356266e-03" rms="4.4364419579505920e-01" purity="7.2081172466278076e-01" nType="-99"/>
          </Node>
          <Node pos="r" depth="2" NCoef="0" IVar="-1" Cut="0.0000000000000000e+00" cType="1" res="-1.4169512316584587e-02" rms="3.2796749472618103e-01" purity="1.2323015183210373e-01" nType="-99"/>
        </Node>
        <Node pos="r" depth="1" NCoef="0" IVar="0" Cut="-9.2212301492691040e-01" cType="1" res="-1.1871273815631866e-01" rms="4.1890335083007812e-01" purity="2.8549987077713013e-01" nType="0">
          <Node pos="l" depth="2" NCoef="0" IVar="0" Cut="-9.5486110448837280e-01" cType="1" res="-1.5071126818656921e-01" rms="4.0523320436477661e-01" purity="2.4605414271354675e-01" nType="0">
            <Node pos="l" depth="3" NCoef="0" IVar="-1" Cut="0.0000000000000000e+00" cType="1" res="-8.6967786774039268e-03" rms="3.5609096288681030e-01" purity="1.5727689862251282e-01" nType="-99"/>
            <Node pos="r" depth="3" NCoef="0" IVar="-1" Cut="0.0000000000000000e+00" cType="1" res="3.0479300767183304e-04" rms="4.6859756112098694e-01" purity="4.7618985176086426e-01" nType="-99"/>
          </Node>
          <Node pos="r" depth="2" NCoef="0" IVar="-1" Cut="0.0000000000000000e+00" cType="1" res="2.3645432665944099e-03" rms="3.7672626972198486e-01" purity="7.8265082836151123e-01" nType="-99"/>
        </Node>
      </Node>
    </BinaryTree>
    <BinaryTree type="DecisionTree" boostWeight="1.0000000000000000e+00" itree="26">
      <Node pos="s" depth="0" NCoef="0" IVar="11" Cut="-2.3782806098461151e-01" cType="1" res="5.0242897123098373e-02" rms="4.4700095057487488e-01" purity="5.0007206201553345e-01" nType="0">
        <Node pos="l" depth="1" NCoef="0" IVar="4" Cut="-3.8637164235115051e-01" cType="1" res="3.3732736110687256e-01" rms="3.2817071676254272e-01" purity="8.6503064632415771e-01" nType="0">
          <Node pos="l" depth="2" NCoef="0" IVar="11" Cut="-4.5546910166740417e-01" cType="1" res="3.7573665380477905e-01" rms="2.8353863954544067e-01" purity="9.1118037700653076e-01" nType="0">
            <Node pos="l" depth="3" NCoef="0" IVar="-1" Cut="0.0000000000000000e+00" cType="1" res="2.8555335011333227e-03" rms="2.1045647561550140e-01" purity="9.5352536439895630e-01" nType="-99"/>
            <Node pos="r" depth="3" NCoef="0" IVar="-1" Cut="0.0000000000000000e+00" cType="1" res="2.3428334388881922e-03" rms="3.7609833478927612e-01" purity="8.2877981662750244e-01" nType="-99"/>
          </Node>
          <Node pos="r" depth="2" NCoef="0" IVar="-1" Cut="0.0000000000000000e+00" cType="1" res="-9.4398396322503686e-04" rms="4.6617060899734497e-01" purity="3.9088186621665955e-01" nType="-99"/>
        </Node>
        <Node pos="r" depth="1" NCoef="0" IVar="0" Cut="-9.2212301492691040e-01" cType="1" res="-9.3905515968799591e-02" rms="4.2883530259132385e-01" purity="3.1682217121124268e-01" nType="0">
          <Node pos="l" depth="2" NCoef="0" IVar="0" Cut="-9.5486110448837280e-01" cType="1" res="-1.2939532101154327e-01" rms="4.1625872254371643e-01" purity="2.7309772372245789e-01" nType="0">
            <Node pos="l" depth="3" NCoef="0" IVar="-1" Cut="0.0000000000000000e+00" cType="1" res="-7.1731838397681713e-03" rms="3.6993587017059326e-01" purity="1.7767931520938873e-01" nType="-99"/>
            <Node pos="r" depth="3" NCoef="0" IVar="-1" Cut="0.0000000000000000e+00" cType="1" res="5.8526761131361127e-04" rms="4.6765848994255066e-01" purity="5.0575977563858032e-01" nType="-99"/>
          </Node>
          <Node pos="r" depth="2" NCoef="0" IVar="-1" Cut="0.0000000000000000e+00" cType="1" res="2.4403415154665709e-03" rms="3.6331129074096680e-01" purity="8.0383610725402832e-01" nType="-99"/>
        </Node>
      </Node>
    </BinaryTree>
    <BinaryTree type="DecisionTree" boostWeight="1.0000000000000000e+00" itree="27">
      <Node pos="s" depth="0" NCoef="0" IVar="11" Cut="-2.3758350312709808e-01" cType="1" res="5.2123293280601501e-02" rms="4.4567918777465820e-01" purity="5.0132530927658081e-01" nType="0">
        <Node pos="l" depth="1" NCoef="0" IVar="4" Cut="-3.9469423890113831e-01" cType="1" res="3.3690178394317627e-01" rms="3.2703694701194763e-01" purity="8.6586111783981323e-01" nType="0">
          <Node pos="l" depth="2" NCoef="0" IVar="11" Cut="-4.1891446709632874e-01" cType="1" res="3.7578570842742920e-01" rms="2.8143870830535889e-01" purity="9.1260856389999390e-01" nType="0">
            <Node pos="l" depth="3" NCoef="0" IVar="-1" Cut="0.0000000000000000e+00" cType="1" res="2.8331156354397535e-03" rms="2.1796104311943054e-01" purity="9.4996118545532227e-01" nType="-99"/>
            <Node pos="r" depth="3" NCoef="0" IVar="-1" Cut="0.0000000000000000e+00" cType="1" res="2.2839962039142847e-03" rms="3.8591459393501282e-01" purity="8.1735104322433472e-01" nType="-99"/>
          </Node>
          <Node pos="r" depth="2" NCoef="0" IVar="-1" Cut="0.0000000000000000e+00" cType="1" res="-6.7692145239561796e-04" rms="4.6790471673011780e-01" purity="4.0916365385055542e-01" nType="-99"/>
        </Node>
        <Node pos="r" depth="1" NCoef="0" IVar="0" Cut="-9.3700397014617920e-01" cType="1" res="-9.2402540147304535e-02" rms="4.2791423201560974e-01" purity="3.1632244586944580e-01" nType="0">
          <Node pos="l" depth="2" NCoef="0" IVar="0" Cut="-9.5535713434219360e-01" cType="1" res="-1.4540910720825195e-01" rms="4.0750971436500549e-01" purity="2.4994817376136780e-01" nType="0">
            <Node pos="l" depth="3" NCoef="0" IVar="-1" Cut="0.0000000000000000e+00" cType="1" res="-7.0876209065318108e-03" rms="3.6973118782043457e-01" purity="1.7746248841285706e-01" nType="-99"/>
            <Node pos="r" depth="3" NCoef="0" IVar="-1" Cut="0.0000000000000000e+00" cType="1" res="1.7875753110274673e-04" rms="4.6981316804885864e-01" purity="4.6747958660125732e-01" nType="-99"/>
          </Node>
          <Node pos="r" depth="2" NCoef="0" IVar="10" Cut="-9.0476191043853760e-01" cType="1" res="2.5610306859016418e-01" rms="3.9402729272842407e-01" purity="7.5271773338317871e-01" nType="0">
            <Node pos="l" depth="3" NCoef="0" IVar="-1" Cut="0.0000000000000000e+00" cType="1" res="1.5159685863181949e-03" rms="4.3976014852523804e-01" purity="6.2522149085998535e-01" nType="-99"/>
            <Node pos="r" depth="3" NCoef="0" IVar="-1" Cut="0.0000000000000000e+00" cType="1" res="2.4783071130514145e-03" rms="3.5669538378715515e-01" purity="8.1632834672927856e-01" nType="-99"/>
          </Node>
        </Node>
      </Node>
    </BinaryTree>
    <BinaryTree type="DecisionTree" boostWeight="1.0000000000000000e+00" itree="28">
      <Node pos="s" depth="0" NCoef="0" IVar="11" Cut="-1.4261052012443542e-01" cType="1" res="5.2544355392456055e-02" rms="4.4442316889762878e-01" purity="5.0097095966339111e-01" nType="0">
        <Node pos="l" depth="1" NCoef="0" IVar="4" Cut="-3.1502234935760498e-01" cType="1" res="3.0187609791755676e-01" rms="3.6072006821632385e-01" purity="8.2723504304885864e-01" nType="0">
          <Node pos="l" depth="2" NCoef="0" IVar="11" Cut="-3.8745591044425964e-01" cType="1" res="3.4147891402244568e-01" rms="3.2594957947731018e-01" purity="8.7569099664688110e-01" nType="0">
            <Node pos="l" depth="3" NCoef="0" IVar="-1" Cut="0.0000000000000000e+00" cType="1" res="2.7897432446479797e-03" rms="2.3653778433799744e-01" purity="9.4024914503097534e-01" nType="-99"/>
            <Node pos="r" depth="3" NCoef="0" IVar="-1" Cut="0.0000000000000000e+00" cType="1" res="1.9762651063501835e-03" rms="4.2817023396492004e-01" purity="7.5184351205825806e-01" nType="-99"/>
          </Node>
          <Node pos="r" depth="2" NCoef="0" IVar="-1" Cut="0.0000000000000000e+00" cType="1" res="-6.8041626363992691e-03" rms="3.9356729388237000e-01" purity="1.9687701761722565e-01" nType="-99"/>
        </Node>
        <Node pos="r" depth="1" NCoef="0" IVar="11" Cut="1.8385024368762970e-01" cType="1" res="-1.1228089779615402e-01" rms="4.1689297556877136e-01" purity="2.8528815507888794e-01" nType="0">
          <Node pos="l" depth="2" NCoef="0" IVar="4" Cut="-3.0717065930366516e-01" cType="1" res="-1.1866354383528233e-02" rms="4.5574790239334106e-01" purity="4.1000252962112427e-01" nType="0">
            <Node pos="l" depth="3" NCoef="0" IVar="-1" Cut="0.0000000000000000e+00" cType="1" res="4.6785880113020539e-04" rms="4.7231194376945496e-01" purity="4.7478836774826050e-01" nType="-99"/>
            <Node pos="r" depth="3" NCoef="0" IVar="-1" Cut="0.0000000000000000e+00" cType="1" res="-3.3667065203189850e-02" rms="2.0272979140281677e-01" purity="4.3969880789518356e-02" nType="-99"/>
          </Node>
          <Node pos="r" depth="2" NCoef="0" IVar="0" Cut="-9.3700397014617920e-01" cType="1" res="-1.8369293212890625e-01" rms="3.7069660425186157e-01" purity="1.9659474492073059e-01" nType="0">
            <Node pos="l" depth="3" NCoef="0" IVar="-1" Cut="0.0000000000000000e+00" cType="1" res="-9.0106427669525146e-03" rms="3.4488338232040405e-01" purity="1.5142036974430084e-01" nType="-99"/>
            <Node pos="r" depth="3" NCoef="0" IVar="-1" Cut="0.0000000000000000e+00" cType="1" res="1.5950374072417617e-03" rms="4.4029816985130310e-01" purity="6.5419739484786987e-01" nType="-99"/>
          </Node>
        </Node>
      </Node>
    </BinaryTree>
    <BinaryTree type="DecisionTree" boostWeight="1.0000000000000000e+00" itree="29">
      <Node pos="s" depth="0" NCoef="0" IVar="11" Cut="-2.3849092423915863e-01" cType="1" res="5.4177869111299515e-02" rms="4.4312790036201477e-01" purity="5.0087851285934448e-01" nType="0">
        <Node pos="l" depth="1" NCoef="0" IVar="4" Cut="-3.1502234935760498e-01" cType="1" res="3.3449736237525940e-01" rms="3.2682827115058899e-01" purity="8.6554676294326782e-01" nType="0">
          <Node pos="l" depth="2" NCoef="0" IVar="11" Cut="-4.5606571435928345e-01" cType="1" res="3.6635157465934753e-01" rms="2.9149648547172546e-01" purity="9.0516495704650879e-01" nType="0">
            <Node pos="l" depth="3" NCoef="0" IVar="-1" Cut="0.0000000000000000e+00" cType="1" res="2.8221565298736095e-03" rms="2.1622915565967560e-01" purity="9.5064061880111694e-01" nType="-99"/>
            <Node pos="r" depth="3" NCoef="0" IVar="-1" Cut="0.0000000000000000e+00" cType="1" res="2.2671539336442947e-03" rms="3.8466322422027588e-01" purity="8.1799423694610596e-01" nType="-99"/>
          </Node>
          <Node pos="r" depth="2" NCoef="0" IVar="-1" Cut="0.0000000000000000e+00" cType="1" res="-4.0186722762882710e-03" rms="4.3148452043533325e-01" purity="2.5239452719688416e-01" nType="-99"/>
        </Node>
        <Node pos="r" depth="1" NCoef="0" IVar="11" Cut="1.1506693810224533e-01" cType="1" res="-8.7284475564956665e-02" rms="4.2647978663444519e-01" purity="3.1684982776641846e-01" nType="0">
          <Node pos="l" depth="2" NCoef="0" IVar="4" Cut="-4.3064236640930176e-01" cType="1" res="3.9283193647861481e-02" rms="4.6308046579360962e-01" purity="4.8226571083068848e-01" nType="0">
            <Node pos="l" depth="3" NCoef="0" IVar="-1" Cut="0.0000000000000000e+00" cType="1" res="1.2342270929366350e-03" rms="4.7064673900604248e-01" purity="5.7819372415542603e-01" nType="-99"/>
            <Node pos="r" depth="3" NCoef="0" IVar="-1" Cut="0.0000000000000000e+00" cType="1" res="-7.5966799631714821e-03" rms="3.4492120146751404e-01" purity="1.6266424953937531e-01" nType="-99"/>
          </Node>
          <Node pos="r" depth="2" NCoef="0" IVar="0" Cut="-9.3105161190032959e-01" cType="1" res="-1.6470441222190857e-01" rms="3.8233053684234619e-01" purity="2.1566690504550934e-01" nType="0">
            <Node pos="l" depth="3" NCoef="0" IVar="-1" Cut="0.0000000000000000e+00" cType="1" res="-7.5911073945462704e-03" rms="3.5775074362754822e-01" purity="1.6743877530097961e-01" nType="-99"/>
            <Node pos="r" depth="3" NCoef="0" IVar="-1" Cut="0.0000000000000000e+00" cType="1" res="1.7337158787995577e-03" rms="4.3269532918930054e-01" purity="6.7266362905502319e-01" nType="-99"/>
          </Node>
        </Node>
      </Node>
    </BinaryTree>
    <BinaryTree type="DecisionTree" boostWeight="1.0000000000000000e+00" itree="30">
      <Node pos="s" depth="0" NCoef="0" IVar="11" Cut="-4.9095850437879562e-02" cType="1" res="5.3897567093372345e-02" rms="4.4207927584648132e-01" purity="4.9928963184356689e-01" nType="0">
        <Node pos="l" depth="1" NCoef="0" IVar="4" Cut="-2.9582288861274719e-01" cType="1" res="2.6877692341804504e-01" rms="3.8421779870986938e-01" purity="7.8272414207458496e-01" nType="0">
          <Node pos="l" depth="2" NCoef="0" IVar="11" Cut="-3.6595779657363892e-01" cType="1" res="3.1044992804527283e-01" rms="3.5685279965400696e-01" purity="8.3596897125244141e-01" nType="0">
            <Node pos="l" depth="3" NCoef="0" IVar="-1" Cut="0.0000000000000000e+00" cType="1" res="2.7551997918635607e-03" rms="2.4659222364425659e-01" purity="9.3439835309982300e-01" nType="-99"/>
            <Node pos="r" depth="3" NCoef="0" IVar="-1" Cut="0.0000000000000000e+00" cType="1" res="1.7773156287148595e-03" rms="4.4854629039764404e-01" purity="6.8987798690795898e-01" nType="-99"/>
          </Node>
          <Node pos="r" depth="2" NCoef="0" IVar="-1" Cut="0.0000000000000000e+00" cType="1" res="-9.8707256838679314e-03" rms="3.4763938188552856e-01" purity="1.4561466872692108e-01" nType="-99"/>
        </Node>
        <Node pos="r" depth="1" NCoef="0" IVar="0" Cut="-9.4345235824584961e-01" cType="1" res="-1.2805227935314178e-01" rms="4.0461710095405579e-01" purity="2.5929048657417297e-01" nType="0">
          <Node pos="l" depth="2" NCoef="0" IVar="0" Cut="-9.6775794029235840e-01" cType="1" res="-1.9271001219749451e-01" rms="3.6631566286087036e-01" purity="1.7559817433357239e-01" nType="0">
            <Node pos="l" depth="3" NCoef="0" IVar="-1" Cut="0.0000000000000000e+00" cType="1" res="-1.4390211552381516e-02" rms="3.0385425686836243e-01" purity="1.0580410063266754e-01" nType="-99"/>
            <Node pos="r" depth="3" NCoef="0" IVar="-1" Cut="0.0000000000000000e+00" cType="1" res="-3.2016411423683167e-03" rms="4.2066708207130432e-01" purity="2.5942939519882202e-01" nType="-99"/>
          </Node>
          <Node pos="r" depth="2" NCoef="0" IVar="4" Cut="-3.4164276719093323e-01" cType="1" res="1.5749093890190125e-01" rms="4.4058960676193237e-01" purity="6.2889492511749268e-01" nType="0">
            <Node pos="l" depth="3" NCoef="0" IVar="-1" Cut="0.0000000000000000e+00" cType="1" res="2.4207476526498795e-03" rms="3.9048379659652710e-01" purity="8.0254089832305908e-01" nType="-99"/>
            <Node pos="r" depth="3" NCoef="0" IVar="-1" Cut="0.0000000000000000e+00" cType="1" res="-3.5225197672843933e-02" rms="2.0790283381938934e-01" purity="4.6521481126546860e-02" nType="-99"/>
          </Node>
        </Node>
      </Node>
    </BinaryTree>
    <BinaryTree type="DecisionTree" boostWeight="1.0000000000000000e+00" itree="31">
      <Node pos="s" depth="0" NCoef="0" IVar="11" Cut="-2.3847943544387817e-01" cType="1" res="5.6648232042789459e-02" rms="4.3988782167434692e-01" purity="5.0060069561004639e-01" nType="0">
        <Node pos="l" depth="1" NCoef="0" IVar="4" Cut="-3.8997405767440796e-01" cType="1" res="3.3317127823829651e-01" rms="3.2526850700378418e-01" purity="8.6620318889617920e-01" nType="0">
          <Node pos="l" depth="2" NCoef="0" IVar="11" Cut="-4.1979390382766724e-01" cType="1" res="3.7037947773933411e-01" rms="2.8167358040809631e-01" purity="9.1237866878509521e-01" nType="0">
            <Node pos="l" depth="3" NCoef="0" IVar="-1" Cut="0.0000000000000000e+00" cType="1" res="2.7984126936644316e-03" rms="2.1889388561248779e-01" purity="9.4950163364410400e-01" nType="-99"/>
            <Node pos="r" depth="3" NCoef="0" IVar="-1" Cut="0.0000000000000000e+00" cType="1" res="2.2605990525335073e-03" rms="3.8450890779495239e-01" purity="8.1904834508895874e-01" nType="-99"/>
          </Node>
          <Node pos="r" depth="2" NCoef="0" IVar="-1" Cut="0.0000000000000000e+00" cType="1" res="-6.3935754587873816e-04" rms="4.6694657206535339e-01" purity="4.0328168869018555e-01" nType="-99"/>
        </Node>
        <Node pos="r" depth="1" NCoef="0" IVar="11" Cut="1.1508373171091080e-01" cType="1" res="-8.3367042243480682e-02" rms="4.2377665638923645e-01" purity="3.1548073887825012e-01" nType="0">
          <Node pos="l" depth="2" NCoef="0" IVar="4" Cut="-4.0015244483947754e-01" cType="1" res="4.0461562573909760e-02" rms="4.6127471327781677e-01" purity="4.8146787285804749e-01" nType="0">
            <Node pos="l" depth="3" NCoef="0" IVar="-1" Cut="0.0000000000000000e+00" cType="1" res="1.1675219284370542e-03" rms="4.7055453062057495e-01" purity="5.7041168212890625e-01" nType="-99"/>
            <Node pos="r" depth="3" NCoef="0" IVar="-1" Cut="0.0000000000000000e+00" cType="1" res="-9.4085950404405594e-03" rms="3.2552441954612732e-01" purity="1.3578177988529205e-01" nType="-99"/>
          </Node>
          <Node pos="r" depth="2" NCoef="0" IVar="0" Cut="-9.3700397014617920e-01" cType="1" res="-1.5902067720890045e-01" rms="3.7976163625717163e-01" purity="2.1407015621662140e-01" nType="0">
            <Node pos="l" depth="3" NCoef="0" IVar="-1" Cut="0.0000000000000000e+00" cType="1" res="-7.4120890349149704e-03" rms="3.5631889104843140e-01" purity="1.6655725240707397e-01" nType="-99"/>
            <Node pos="r" depth="3" NCoef="0" IVar="-1" Cut="0.0000000000000000e+00" cType="1" res="1.7239099834114313e-03" rms="4.2892876267433167e-01" purity="6.6850936412811279e-01" nType="-99"/>
          </Node>
        </Node>
      </Node>
    </BinaryTree>
    <BinaryTree type="DecisionTree" boostWeight="1.0000000000000000e+00" itree="32">
      <Node pos="s" depth="0" NCoef="0" IVar="11" Cut="-4.7619048506021500e-02" cType="1" res="5.7678166776895523e-02" rms="4.3892949819564819e-01" purity="5.0050878524780273e-01" nType="0">
        <Node pos="l" depth="1" NCoef="0" IVar="4" Cut="-3.3550691604614258e-01" cType="1" res="2.6773753762245178e-01" rms="3.8272470235824585e-01" purity="7.8294903039932251e-01" nType="0">
          <Node pos="l" depth="2" NCoef="0" IVar="11" Cut="-3.6507949233055115e-01" cType="1" res="3.1232866644859314e-01" rms="3.5260260105133057e-01" purity="8.4116673469543457e-01" nType="0">
            <Node pos="l" depth="3" NCoef="0" IVar="-1" Cut="0.0000000000000000e+00" cType="1" res="2.7430641930550337e-03" rms="2.4283628165721893e-01" purity="9.3685072660446167e-01" nType="-99"/>
            <Node pos="r" depth="3" NCoef="0" IVar="-1" Cut="0.0000000000000000e+00" cType="1" res="1.8154486315324903e-03" rms="4.4495823979377747e-01" purity="6.9966357946395874e-01" nType="-99"/>
          </Node>
          <Node pos="r" depth="2" NCoef="0" IVar="11" Cut="-2.7071955800056458e-01" cType="1" res="-1.8045981228351593e-01" rms="3.8502377271652222e-01" purity="1.9778719544410706e-01" nType="0">
            <Node pos="l" depth="3" NCoef="0" IVar="-1" Cut="0.0000000000000000e+00" cType="1" res="-2.1396842785179615e-03" rms="4.5394071936607361e-01" purity="3.0950310826301575e-01" nType="-99"/>
            <Node pos="r" depth="3" NCoef="0" IVar="-1" Cut="0.0000000000000000e+00" cType="1" res="-1.6614068299531937e-02" rms="2.8842851519584656e-01" purity="9.3316726386547089e-02" nType="-99"/>
          </Node>
        </Node>
        <Node pos="r" depth="1" NCoef="0" IVar="0" Cut="-9.3700397014617920e-01" cType="1" res="-1.2160412222146988e-01" rms="4.0282961726188660e-01" purity="2.5945052504539490e-01" nType="0">
          <Node pos="l" depth="2" NCoef="0" IVar="0" Cut="-9.5535713434219360e-01" cType="1" res="-1.6372327506542206e-01" rms="3.8151562213897705e-01" purity="2.0361436903476715e-01" nType="0">
            <Node pos="l" depth="3" NCoef="0" IVar="-1" Cut="0.0000000000000000e+00" cType="1" res="-9.3035735189914703e-03" rms="3.4179520606994629e-01" purity="1.4170181751251221e-01" nType="-99"/>
            <Node pos="r" depth="3" NCoef="0" IVar="-1" Cut="0.0000000000000000e+00" cType="1" res="-3.7698596133850515e-04" rms="4.6438261866569519e-01" purity="4.0936291217803955e-01" nType="-99"/>
          </Node>
          <Node pos="r" depth="2" NCoef="0" IVar="-1" Cut="0.0000000000000000e+00" cType="1" res="1.9922286737710238e-03" rms="4.0941429138183594e-01" purity="7.0887291431427002e-01" nType="-99"/>
        </Node>
      </Node>
    </BinaryTree>
    <BinaryTree type="DecisionTree" boostWeight="1.0000000000000000e+00" itree="33">
      <Node pos="s" depth="0" NCoef="0" IVar="11" Cut="-2.3789817094802856e-01" cType="1" res="5.7320687919855118e-02" rms="4.3745571374893188e-01" purity="4.9886456131935120e-01" nType="0">
        <Node pos="l" depth="1" NCoef="0" IVar="4" Cut="-3.9568147063255310e-01" cType="1" res="3.2887712121009827e-01" rms="3.2673022150993347e-01" purity="8.6419469118118286e-01" nType="0">
          <Node pos="l" depth="2" NCoef="0" IVar="11" Cut="-4.5555132627487183e-01" cType="1" res="3.6684098839759827e-01" rms="2.8300082683563232e-01" purity="9.1142290830612183e-01" nType="0">
            <Node pos="l" depth="3" NCoef="0" IVar="-1" Cut="0.0000000000000000e+00" cType="1" res="2.7992392424494028e-03" rms="2.0976051688194275e-01" purity="9.5385205745697021e-01" nType="-99"/>
