<?xml version="1.0"?>
<MethodSetup Method="MLP::MLP">
  <GeneralInfo>
    <Info name="TMVA Release" value="4.2.0 [262656]"/>
    <Info name="ROOT Release" value="5.34/38 [336422]"/>
    <Info name="Creator" value="han"/>
    <Info name="Date" value="Sat Apr 30 09:41:18 2022"/>
    <Info name="Host" value="Linux rz5950x.km.icrr.u-tokyo.ac.jp 4.18.0-305.3.1.el8_4.x86_64 #1 SMP Mon May 17 10:08:25 EDT 2021 x86_64 x86_64 x86_64 GNU/Linux"/>
    <Info name="Dir" value="/disk1/disk02/calib3/usr/han/mc/thermal_train"/>
    <Info name="Training events" value="9618642"/>
    <Info name="TrainingTime" value="3.96557452e+04"/>
    <Info name="AnalysisType" value="Classification"/>
  </GeneralInfo>
  <Options>
    <Option name="NCycles" modified="Yes">300</Option>
    <Option name="HiddenLayers" modified="Yes">N+1,N-1</Option>
    <Option name="NeuronType" modified="Yes">sigmoid</Option>
    <Option name="RandomSeed" modified="No">1</Option>
    <Option name="EstimatorType" modified="Yes">CE</Option>
    <Option name="NeuronInputType" modified="No">sum</Option>
    <Option name="V" modified="Yes">True</Option>
    <Option name="VerbosityLevel" modified="No">Verbose</Option>
    <Option name="VarTransform" modified="Yes">N</Option>
    <Option name="H" modified="Yes">True</Option>
    <Option name="CreateMVAPdfs" modified="No">False</Option>
    <Option name="IgnoreNegWeightsInTraining" modified="No">False</Option>
    <Option name="TrainingMethod" modified="No">BP</Option>
    <Option name="LearningRate" modified="No">2.000000e-02</Option>
    <Option name="DecayRate" modified="No">1.000000e-02</Option>
    <Option name="TestRate" modified="Yes">5</Option>
    <Option name="EpochMonitoring" modified="No">False</Option>
    <Option name="Sampling" modified="No">1.000000e+00</Option>
    <Option name="SamplingEpoch" modified="No">1.000000e+00</Option>
    <Option name="SamplingImportance" modified="No">1.000000e+00</Option>
    <Option name="SamplingTraining" modified="No">True</Option>
    <Option name="SamplingTesting" modified="No">False</Option>
    <Option name="ResetStep" modified="No">50</Option>
    <Option name="Tau" modified="No">3.000000e+00</Option>
    <Option name="BPMode" modified="No">sequential</Option>
    <Option name="BatchSize" modified="No">-1</Option>
    <Option name="ConvergenceImprove" modified="No">1.000000e-30</Option>
    <Option name="ConvergenceTests" modified="No">-1</Option>
    <Option name="UseRegulator" modified="Yes">True</Option>
    <Option name="UpdateLimit" modified="No">10000</Option>
    <Option name="CalculateErrors" modified="No">False</Option>
    <Option name="WeightRange" modified="No">1.000000e+00</Option>
  </Options>
  <Variables NVar="12">
    <Variable VarIndex="0" Expression="NHits" Label="NHits" Title="NHits" Unit="" Internal="NHits" Type="F" Min="4.00000000e+00" Max="1.96000000e+02"/>
    <Variable VarIndex="1" Expression="N200" Label="N200" Title="N200" Unit="" Internal="N200" Type="F" Min="7.00000000e+00" Max="1.01400000e+03"/>
    <Variable VarIndex="2" Expression="TRMS" Label="TRMS" Title="TRMS" Unit="" Internal="TRMS" Type="F" Min="1.03398860e-01" Max="6.84487343e+00"/>
    <Variable VarIndex="3" Expression="Beta1" Label="Beta1" Title="Beta1" Unit="" Internal="Beta1" Type="F" Min="-2.99421579e-01" Max="9.99789894e-01"/>
    <Variable VarIndex="4" Expression="Beta5" Label="Beta5" Title="Beta5" Unit="" Internal="Beta5" Type="F" Min="-2.52111167e-01" Max="9.96852100e-01"/>
    <Variable VarIndex="5" Expression="OpeningAngleMean" Label="OpeningAngleMean" Title="OpeningAngleMean" Unit="" Internal="OpeningAngleMean" Type="F" Min="1.02786553e+00" Max="8.92585068e+01"/>
    <Variable VarIndex="6" Expression="OpeningAngleSkew" Label="OpeningAngleSkew" Title="OpeningAngleSkew" Unit="" Internal="OpeningAngleSkew" Type="F" Min="-3.17615234e+02" Max="3.58269958e+02"/>
    <Variable VarIndex="7" Expression="OpeningAngleStdev" Label="OpeningAngleStdev" Title="OpeningAngleStdev" Unit="" Internal="OpeningAngleStdev" Type="F" Min="6.51247948e-02" Max="4.58720436e+01"/>
    <Variable VarIndex="8" Expression="MeanDirAngleMean" Label="MeanDirAngleMean" Title="MeanDirAngleMean" Unit="" Internal="MeanDirAngleMean" Type="F" Min="7.03744113e-01" Max="9.36049042e+01"/>
    <Variable VarIndex="9" Expression="MeanDirAngleRMS" Label="MeanDirAngleRMS" Title="MeanDirAngleRMS" Unit="" Internal="MeanDirAngleRMS" Type="F" Min="2.03593954e-01" Max="8.48523483e+01"/>
    <Variable VarIndex="10" Expression="DWall" Label="DWall" Title="DWall" Unit="" Internal="DWall" Type="F" Min="3.28723145e+00" Max="1.69000000e+03"/>
    <Variable VarIndex="11" Expression="DWallMeanDir" Label="DWallMeanDir" Title="DWallMeanDir" Unit="" Internal="DWallMeanDir" Type="F" Min="1.04148588e+01" Max="4.94083496e+03"/>
  </Variables>
  <Spectators NSpec="1">
    <Spectator SpecIndex="0" Expression="Label" Label="Label" Title="I" Unit="" Internal="Label" Type="F" Min="0.00000000e+00" Max="3.00000000e+00"/>
  </Spectators>
  <Classes NClass="2">
    <Class Name="Signal" Index="0"/>
    <Class Name="Background" Index="1"/>
  </Classes>
  <Transformations NTransformations="1">
    <Transform Name="Normalize">
      <Selection>
        <Input NInputs="12">
          <Input Type="Variable" Label="NHits" Expression="NHits"/>
          <Input Type="Variable" Label="N200" Expression="N200"/>
          <Input Type="Variable" Label="TRMS" Expression="TRMS"/>
          <Input Type="Variable" Label="Beta1" Expression="Beta1"/>
          <Input Type="Variable" Label="Beta5" Expression="Beta5"/>
          <Input Type="Variable" Label="OpeningAngleMean" Expression="OpeningAngleMean"/>
          <Input Type="Variable" Label="OpeningAngleSkew" Expression="OpeningAngleSkew"/>
          <Input Type="Variable" Label="OpeningAngleStdev" Expression="OpeningAngleStdev"/>
          <Input Type="Variable" Label="MeanDirAngleMean" Expression="MeanDirAngleMean"/>
          <Input Type="Variable" Label="MeanDirAngleRMS" Expression="MeanDirAngleRMS"/>
          <Input Type="Variable" Label="DWall" Expression="DWall"/>
          <Input Type="Variable" Label="DWallMeanDir" Expression="DWallMeanDir"/>
        </Input>
        <Output NOutputs="12">
          <Output Type="Variable" Label="NHits" Expression="NHits"/>
          <Output Type="Variable" Label="N200" Expression="N200"/>
          <Output Type="Variable" Label="TRMS" Expression="TRMS"/>
          <Output Type="Variable" Label="Beta1" Expression="Beta1"/>
          <Output Type="Variable" Label="Beta5" Expression="Beta5"/>
          <Output Type="Variable" Label="OpeningAngleMean" Expression="OpeningAngleMean"/>
          <Output Type="Variable" Label="OpeningAngleSkew" Expression="OpeningAngleSkew"/>
          <Output Type="Variable" Label="OpeningAngleStdev" Expression="OpeningAngleStdev"/>
          <Output Type="Variable" Label="MeanDirAngleMean" Expression="MeanDirAngleMean"/>
          <Output Type="Variable" Label="MeanDirAngleRMS" Expression="MeanDirAngleRMS"/>
          <Output Type="Variable" Label="DWall" Expression="DWall"/>
          <Output Type="Variable" Label="DWallMeanDir" Expression="DWallMeanDir"/>
        </Output>
      </Selection>
      <Class ClassIndex="0">
        <Ranges>
          <Range Index="0" Min="5.0000000000000000e+00" Max="4.1000000000000000e+01"/>
          <Range Index="1" Min="9.0000000000000000e+00" Max="6.8000000000000000e+01"/>
          <Range Index="2" Min="2.4521082639694214e-01" Max="6.1243968009948730e+00"/>
          <Range Index="3" Min="-2.4448513984680176e-01" Max="9.9240082502365112e-01"/>
          <Range Index="4" Min="-1.9174511730670929e-01" Max="8.9165902137756348e-01"/>
          <Range Index="5" Min="1.2544758796691895e+01" Max="8.8353736877441406e+01"/>
          <Range Index="6" Min="-2.5851339721679688e+02" Max="2.6868463134765625e+02"/>
          <Range Index="7" Min="1.6888325214385986e+00" Max="3.8577125549316406e+01"/>
          <Range Index="8" Min="4.1067986488342285e+00" Max="9.0634208679199219e+01"/>
          <Range Index="9" Min="1.8408114910125732e+00" Max="7.1406074523925781e+01"/>
          <Range Index="10" Min="3.2872314453125000e+00" Max="1.6900000000000000e+03"/>
          <Range Index="11" Min="1.0414858818054199e+01" Max="4.8596918945312500e+03"/>
        </Ranges>
      </Class>
      <Class ClassIndex="1">
        <Ranges>
          <Range Index="0" Min="4.0000000000000000e+00" Max="1.9600000000000000e+02"/>
          <Range Index="1" Min="7.0000000000000000e+00" Max="1.0140000000000000e+03"/>
          <Range Index="2" Min="1.0339885950088501e-01" Max="6.8448734283447266e+00"/>
          <Range Index="3" Min="-2.9942157864570618e-01" Max="9.9978989362716675e-01"/>
          <Range Index="4" Min="-2.5211116671562195e-01" Max="9.9685209989547729e-01"/>
          <Range Index="5" Min="1.0278655290603638e+00" Max="8.9258506774902344e+01"/>
          <Range Index="6" Min="-3.1761523437500000e+02" Max="3.5826995849609375e+02"/>
          <Range Index="7" Min="6.5124794840812683e-02" Max="4.5872043609619141e+01"/>
          <Range Index="8" Min="7.0374411344528198e-01" Max="9.3604904174804688e+01"/>
          <Range Index="9" Min="2.0359395444393158e-01" Max="8.4852348327636719e+01"/>
          <Range Index="10" Min="3.2872314453125000e+00" Max="1.6900000000000000e+03"/>
          <Range Index="11" Min="1.1410061836242676e+01" Max="4.9408349609375000e+03"/>
        </Ranges>
      </Class>
      <Class ClassIndex="2">
        <Ranges>
          <Range Index="0" Min="4.0000000000000000e+00" Max="1.9600000000000000e+02"/>
          <Range Index="1" Min="7.0000000000000000e+00" Max="1.0140000000000000e+03"/>
          <Range Index="2" Min="1.0339885950088501e-01" Max="6.8448734283447266e+00"/>
          <Range Index="3" Min="-2.9942157864570618e-01" Max="9.9978989362716675e-01"/>
          <Range Index="4" Min="-2.5211116671562195e-01" Max="9.9685209989547729e-01"/>
          <Range Index="5" Min="1.0278655290603638e+00" Max="8.9258506774902344e+01"/>
          <Range Index="6" Min="-3.1761523437500000e+02" Max="3.5826995849609375e+02"/>
          <Range Index="7" Min="6.5124794840812683e-02" Max="4.5872043609619141e+01"/>
          <Range Index="8" Min="7.0374411344528198e-01" Max="9.3604904174804688e+01"/>
          <Range Index="9" Min="2.0359395444393158e-01" Max="8.4852348327636719e+01"/>
          <Range Index="10" Min="3.2872314453125000e+00" Max="1.6900000000000000e+03"/>
          <Range Index="11" Min="1.0414858818054199e+01" Max="4.9408349609375000e+03"/>
        </Ranges>
      </Class>
    </Transform>
  </Transformations>
  <MVAPdfs/>
  <Weights>
    <Layout NLayers="4">
      <Layer Index="0" NNeurons="13">
        <Neuron NSynapses="13">
          4.1456621896840016e+00 5.9546096070169639e+01 4.6513474507811052e+00 1.6198216426892973e+01 -6.5658263448212475e+00 -9.5513375274357486e+00 -1.7792276068868752e+01 3.5586206124649813e+01 -4.8005625396585234e+00 -2.5187925971582651e+01 -8.1245064556473867e+00 1.5126170115301525e+01 -1.0889607546169429e+01 
        </Neuron>
        <Neuron NSynapses="13">
          -4.7013945262843384e+00 -7.4918031447935567e+00 1.3512902832187439e+01 -6.9260741671274406e+00 3.1768658731947067e+01 -1.3625044313670029e+01 1.6088609166088290e+01 -8.2652999233032993e+00 1.1511903375139502e+01 1.2668365531202955e+01 -9.5407366358528378e+00 -1.2948874750903878e+01 4.8062511187246365e+01 
        </Neuron>
        <Neuron NSynapses="13">
          -1.4579689776543125e-01 -4.9099134652960147e-01 1.4533626248744895e+00 -1.0076505483750609e+00 2.2338411710002313e+00 3.3283847396223826e-01 8.8390960846376501e-02 -8.8144758718253491e-01 2.5979043822614600e-01 3.4881780905130355e-01 5.8300648226167229e-01 5.8395195999794347e-01 1.8979996168050348e-01 
        </Neuron>
        <Neuron NSynapses="13">
          4.3207602596630430e+00 2.3828362985641807e+00 4.4305160588783465e+00 2.3109597197513412e+00 -3.1455447735767528e-01 -3.0710626327206803e-01 -2.0061057996808800e+00 3.1094014536393315e+00 -1.6629135854315962e+00 3.5736710507514169e-01 3.7366739806378639e+00 -1.0206954556030208e+00 2.3041534179774166e+00 
        </Neuron>
        <Neuron NSynapses="13">
          1.2141394931553493e+00 7.1963074282653750e-01 -2.6933443321801516e+00 -2.7175520939880560e-01 5.3058485864661153e-01 -9.4369663749496757e-01 3.9696587573387569e+00 -1.0840487721505481e+00 -4.4578216025476923e-02 1.0937888150236241e+00 1.4554452731115501e+00 1.4487706830070284e+00 1.3912544851864221e+00 
        </Neuron>
        <Neuron NSynapses="13">
          5.1247433912007034e+00 -8.9642255759615308e-01 1.4078691054053046e+01 -5.8343610617879615e-01 -9.4585664561709368e+00 2.8104751807682238e+00 -7.0633847475225409e+00 7.4566815744231940e-01 1.1678601008284486e+00 -2.0223028162003449e+00 4.6371816569956099e+00 -7.6097405107935652e+00 -1.1610016875179943e+00 
        </Neuron>
        <Neuron NSynapses="13">
          1.0478045909404707e+00 -3.3941889212025762e+00 -3.8211059855546814e-01 -7.6354437163900657e-01 -8.1373349146793039e+00 -2.1132143426740426e+00 -1.0328442255499979e+01 7.8078184988877164e-01 4.9283790839579716e-01 -1.0656282370981931e+00 -5.2527169506108407e-01 -9.7864439298134442e+00 -3.1996945656404927e+00 
        </Neuron>
        <Neuron NSynapses="13">
          6.0077750119447364e+00 1.0215867419043623e+00 -6.3344765423045839e+00 4.5899089072093852e-01 6.9102485101880893e+00 -9.7688371866356127e-01 1.3577410212202683e+00 -3.5487879180731770e+00 2.0589376335499434e+00 1.8004582940299061e+00 -1.2379370803867904e+00 5.2523936524692267e+00 7.4565315450821112e-01 
        </Neuron>
        <Neuron NSynapses="13">
          -2.3352084123227930e+00 1.7845780123428536e+00 -3.2252971677804760e+00 4.2030214883345183e+00 1.2415719484962631e+00 -5.3171667488350032e+00 7.5784117653548611e-01 4.0741673723285352e+00 2.0320116060986813e+00 4.3968047295868393e+00 -3.0292677275144936e-01 6.7245114510366486e+00 8.9811809863552805e-01 
        </Neuron>
        <Neuron NSynapses="13">
          2.0730041728721549e-01 -3.1161312961031550e-02 1.1549697914182212e-01 1.7348097841316603e+00 -1.3700355610209820e+00 -1.2869522071967496e+00 -1.5333455848168847e+00 -8.0791736775418321e-01 -7.4668181104669296e-01 4.7558268494093885e-02 1.3528154458036781e+00 -4.7444449904576915e+00 -2.6943401752770674e-01 
        </Neuron>
        <Neuron NSynapses="13">
          -1.7410734186180925e+00 1.2358878961326542e-01 -3.1267094629748360e-01 -1.3333142541544589e+01 -1.2323388445177310e+00 -9.6531228672997782e-01 3.4769730337703658e-01 1.0437564549148455e+00 -4.2785911181696079e-01 9.9666013840834189e-01 6.8821771864540748e+00 -9.4721307235334729e-02 -4.7708769034371945e-01 
        </Neuron>
        <Neuron NSynapses="13">
          6.5042756963318604e-01 -1.2678695362321750e+00 9.3991519630123688e-01 -6.3590272201007303e-01 -2.5061151012718103e-01 5.8182271388623064e-01 9.9492857209002361e-01 1.1282226681467566e+00 8.1116217360225580e+00 5.4538476295356570e+00 -8.3950626370905101e-01 3.2394170791057503e-01 -1.3537092399801645e-01 
        </Neuron>
        <Neuron NSynapses="13">
          4.8657543675042367e+00 5.0297423128569740e+01 1.0615579085962139e+01 -5.0534693448205461e+00 2.3462574289152357e+01 -2.5711746342749549e+01 -3.9147967001106254e-01 2.1891547891015303e+01 1.2191134387823576e+01 -9.5132377017714926e+00 -1.2825214564420197e+01 4.9226016046243917e+00 3.7985685623211367e+01 
        </Neuron>
      </Layer>
      <Layer Index="1" NNeurons="14">
        <Neuron NSynapses="11">
          -1.6396293055798459e+00 -1.5526652914874863e+00 3.4401497619056318e+00 -2.8663170647081854e-01 3.2746761876982364e+00 4.2936334481101168e+00 2.0096094585863700e+00 3.7610061865433064e-01 1.6941321737799533e+00 2.7053024489560511e+00 -5.8289163364582102e+00 
        </Neuron>
        <Neuron NSynapses="11">
          -4.1401681171987361e+00 -1.3331997918445635e+00 4.8475657660349745e+00 -9.2047772160736230e-01 2.8136016796559535e+00 1.7161954876359247e+00 -4.0821013884060617e+00 1.2855062876932479e+00 4.9327319823388553e-02 3.5794706051742113e+00 -4.5106547595225708e+00 
        </Neuron>
        <Neuron NSynapses="11">
          -2.0093339872926625e+00 3.9159552852547046e+00 2.5093064112313557e+00 6.0008778676329921e-01 -5.3053761000281083e+00 -2.9055287819774378e+00 1.6522420874298251e+00 -2.1604724768779957e+00 -4.8394791708403782e+00 -1.0413864803936368e+00 1.8918681083692496e-01 
        </Neuron>
        <Neuron NSynapses="11">
          -7.9560329425790828e+00 -4.6163313652712272e+00 5.9374076641372726e+00 3.2927832077864810e-01 -4.0853319395891443e+00 1.8307959269501279e+00 1.7663302736173578e+00 -5.0434672015132076e+00 -7.5671102054194854e+00 1.1777887589186558e+00 -1.0465402433877951e+00 
        </Neuron>
        <Neuron NSynapses="11">
          -6.5167697981507777e-01 3.2439845653621600e+00 -4.1984342372385447e-01 -5.7633894431204769e-01 -7.9527587380691225e+00 2.5474926180225981e+00 -1.1706714600160620e-01 4.0961782453665729e-01 -6.6442262310231390e+00 -8.7140692690314427e+00 3.6233520553340077e+00 
        </Neuron>
        <Neuron NSynapses="11">
          5.4563187516968030e+00 -5.6847133289513350e+00 -6.1807169188533422e+00 -6.0305377179274382e+00 -3.8254533663823085e+00 -3.9670896601406519e-02 4.8716277901625388e-01 -1.7357135678292230e+00 -1.9542543347177327e-01 -5.2772443061150265e-01 5.2758153698506105e-01 
        </Neuron>
        <Neuron NSynapses="11">
          -3.2671449529481728e-01 -7.0644949352517328e-01 -1.2556059953430614e+00 1.6031255079120732e+00 -8.0240240864411412e+00 1.8556595637951392e-01 -2.3791919438456239e+00 -1.0008385966486644e+00 -3.7234692014925601e+00 -4.8849016112161339e+00 3.0087884596324885e+00 
        </Neuron>
        <Neuron NSynapses="11">
          -3.8223728519573044e+00 1.5433422101382723e+00 4.3537783877218894e+00 -1.4640481650129612e-02 1.5718946168771155e+00 -5.7875899260513147e-02 6.3302283650496847e+00 3.9742694329034691e+00 2.6829719286866216e+00 1.5700798582340327e+00 -2.1456082340333364e+00 
        </Neuron>
        <Neuron NSynapses="11">
          2.8959587051140381e+00 8.1959208575309350e-01 -7.0329559095474456e+00 -3.1031975614691012e+00 -1.1915159016297530e+00 -1.2258682722660965e+00 1.4169026636955848e-01 2.3197835288064139e+00 1.1714183389353121e+00 -3.4335717358999860e+00 5.6429281957454513e+00 
        </Neuron>
        <Neuron NSynapses="11">
          3.1960174601490734e+00 4.4764270660766353e-02 -3.6638797633340459e+00 7.0165000653064136e-01 -1.5026787452031192e+00 -2.6518334886523515e-01 -1.7700926325630439e+00 2.0690551646864708e+00 -7.7156338585594386e-01 4.4122405591172986e-01 1.3031840613672632e+00 
        </Neuron>
        <Neuron NSynapses="11">
          7.9612680675139080e-01 -3.9235537646434404e-01 -1.5839285405449759e+00 -3.2947214078164664e+00 2.5026933940117746e+00 -1.5066303053572152e+01 -6.6001773938487018e-01 4.0158915865238363e-02 2.0047566234365997e+00 -5.8238297864928015e+00 2.1198131040435912e+00 
        </Neuron>
        <Neuron NSynapses="11">
          1.0303575906943743e+00 -2.0866605157206699e+00 -1.6340955812318259e+00 1.5043965774068564e+00 5.7784688306964327e-01 -1.8822815908679281e-02 4.1226736190818398e+00 -7.5836672736846533e-05 5.1780314031834296e-01 1.8720815034152516e+00 -9.5216428118099916e-01 
        </Neuron>
        <Neuron NSynapses="11">
          -7.2138529652780630e+00 1.1060228330778216e+01 7.9510044485543281e+00 -3.2265279819273722e+00 -5.1273071469363163e-01 -2.7771903083028482e+00 -5.0575897896170261e+00 5.0683030256540373e+00 -1.0031372637443405e+00 -2.6793664043680163e+00 2.8049737810891334e-01 
        </Neuron>
        <Neuron NSynapses="11">
          -8.1940240010588650e-01 -6.4449009238812751e+00 8.9502900109833727e-01 3.0708998754160453e+00 -5.6460945833678338e+00 -4.1004434845452371e+00 3.9173494351235809e+00 -4.6554527597371322e+00 -1.6822570068579026e+00 -3.1570721750037887e+00 1.7111470142035858e+00 
        </Neuron>
      </Layer>
      <Layer Index="2" NNeurons="12">
        <Neuron NSynapses="1">
          -3.6338503535903772e+00 
        </Neuron>
        <Neuron NSynapses="1">
          -2.7327148414636970e+00 
        </Neuron>
        <Neuron NSynapses="1">
          2.0956386081025618e+00 
        </Neuron>
        <Neuron NSynapses="1">
          4.9157404251056889e+00 
        </Neuron>
        <Neuron NSynapses="1">
          6.3373331622863773e+00 
        </Neuron>
        <Neuron NSynapses="1">
          -6.2245835590823129e+00 
        </Neuron>
        <Neuron NSynapses="1">
          4.5274650767053641e+00 
        </Neuron>
        <Neuron NSynapses="1">
          -1.7212355793168121e+00 
        </Neuron>
        <Neuron NSynapses="1">
          1.8461878301569092e+00 
        </Neuron>
        <Neuron NSynapses="1">
          -3.7543704691100563e+00 
        </Neuron>
        <Neuron NSynapses="1">
          -2.5203528047603818e+00 
        </Neuron>
        <Neuron NSynapses="1">
          -5.5543177862465285e+00 
        </Neuron>
      </Layer>
      <Layer Index="3" NNeurons="1">
        <Neuron NSynapses="0"/>
      </Layer>
    </Layout>
    <InverseHessian NElements="112225" NRows="335" NCols="335">
      <Row Index="0">
        1.0231103422253497e+01 5.1084915396841812e-01 -2.6365128603135912e-01 7.4569229098205847e-02 -4.7045494273667376e-01 -3.9123549645062083e-01 -1.4390153811362130e-01 3.7625349485987680e-01 2.4811265968881990e-01 6.5911344237393754e-03 -4.8532465091422228e-02 1.0615497990015074e-01 2.8154952704916775e-01 -4.9952782209357540e+00 -2.8888278758894481e-01 7.5305822798638389e-01 -1.2661856373708441e-01 4.8364763818446410e-01 1.0936391509878132e+00 2.4562887819588675e-01 8.8757620157649653e-02 -3.4126987083369792e-01 5.1276073245261927e-02 2.6623158059377366e-01 -3.3524125871609023e-02 -1.4710437859508885e-01 -1.6921581604556735e-01 -7.3821087067127214e-03 -5.5605256783852405e-04 8.8700945322150154e-03 1.0689676266954062e-02 3.4645578872902535e-03 8.6753688108445210e-03 -1.3337964928605398e-02 -8.9317475266524633e-03 -2.9643929597201297e-04 3.2465231701069991e-03 1.8560183060892556e-03 -1.7233822905269487e-03 -4.3520590607516410e-02 1.5553057098640471e-01 5.4409468281963323e-02 2.6921491860621466e-03 4.0691073747082876e-02 1.1633497541307469e-01 -4.0287469738138182e-02 9.5810862899654403e-02 -5.8897096487875764e-02 5.3035222476544207e-02 3.0577254736881693e-02 1.2990247061260368e-02 -1.7234612771804374e-02 -1.1653925463627884e-01 1.0165076762128883e-02 1.1734252529073078e-02 -3.1396226327885740e-03 9.0131572848171568e-04 3.0705428418642947e-02 -1.5331924357206650e-02 -1.5827722223825919e-02 -1.6119337329768398e-02 1.4753647652218427e-02 1.4006551338032634e-02 -2.3686269422404350e-02 -2.6656204721934168e-03 6.5717934067312078e-02 -5.7195298463160543e-02 -7.2499036299657094e-02 3.3159216035345773e-02 5.4177844895250231e-02 -7.2963405805235457e-02 -1.4609678652977697e-02 8.3544819296302308e-02 8.2891364343479403e-03 -2.3106894233438507e-02 7.5582945099029186e-03 -6.5774313022130999e-03 -1.5524468328292573e-02 4.5003429919662802e-01 -7.9583407817007151e-02 -1.5867483897910296e-02 -3.9796133529009306e-03 -2.9351615627129573e-03 -3.5479417553935078e-02 1.1168807196738517e-02 -3.7919207308796887e-02 3.7488342031393743e-02 6.4321806378632579e-03 3.1619125377678303e-02 -6.6003921185680409e-04 1.3419750981513531e-02 1.1871678560482929e-01 -1.4195297564333010e-02 -3.2283053126934885e-02 8.5188165494884671e-03 -2.0586407353990328e-02 4.1395393994557869e-02 2.3976401958835609e-02 -1.7038154778450595e-02 -2.3260035283729570e-03 1.6503199567698475e-02 -6.4877020743738245e-03 -4.1932704535779367e-02 2.0043423793447125e-02 -1.4588711190503320e-01 2.3482488775896648e-01 1.5528399755851682e-01 -3.4794124469145316e-02 1.3725226157962650e-02 1.7491908155681618e-01 -3.4834721071465964e-02 1.0637579904644916e-02 -9.1617942878822647e-02 1.0897607259630665e-01 6.2016384690942949e-02 -2.9100653420646716e-02 7.6679313249771661e-03 1.8011596011348815e-02 7.1740712452119729e-03 1.0624896521581353e-02 -1.1850829949121996e-02 6.2709680863541339e-03 1.4888017283709490e-02 -7.0001943412559900e-03 -5.6999959605294526e-02 -8.1887302673260554e-03 1.6732259468615143e-02 1.4234092660859914e-02 2.3966212791337579e-02 8.6544793588841373e-05 -6.2317945579875633e-02 2.1465576498895800e-02 6.3014463549261020e-03 3.7847264518479529e-02 -7.5444487219344658e-03 9.3239110664931693e-03 -1.0254234879660748e-02 9.2900817227435512e-03 -9.1919562102988073e-03 8.7349590385141975e-03 5.2852265388688896e-02 -1.1854821443920849e-02 6.9742813064243361e-03 -2.2496797563929954e-01 -2.8430312424764681e-02 -2.0179544933968660e-02 8.4064973211703184e-03 1.7388118899855434e-02 -9.5198796401912422e-03 -4.2648876973199745e-03 7.2347804356603873e-02 -4.0011544118560768e-03 3.6751844111912985e-02 -9.9183866570620033e-03 -2.4398146512656593e-02 -2.8257194807002270e-03 4.9915998834217703e+00 2.3083456614954409e-01 4.7922776382473714e-01 -3.2131366130065286e-02 1.2195143190556701e-02 7.3565841663269793e-01 9.1971750290489040e-02 4.0085142550854669e-01 -1.2080981316698769e-01 8.5558147145711180e-02 2.3868100770012513e-01 3.0668690741603943e-02 1.2915080778054966e-01 2.1049060708795381e-01 1.8160649582118704e-01 -2.4863462756699173e-01 -4.5336844320774894e-02 9.1174534077069047e-01 2.5751749026039770e+00 -5.0355958233263520e-01 -6.2439727814846968e-02 1.6767858373552200e-01 4.9804944330051892e-01 -9.8626047098194380e-01 4.8646391531889543e-02 3.1160973507980513e-02 -7.9563010697880618e-02 -7.7412622820200838e-02 -2.7938241144406309e-02 -3.3989266951790498e-02 7.1508702096152524e-02 5.6912881851292840e-02 -2.5383679048675278e-02 -5.4078885365747564e-03 4.3435946653116328e-02 -8.1403529124096374e-03 -9.0710452530463129e-03 -1.4050876400785478e-02 2.1513242258651422e-02 -5.7455557279256227e-02 -6.3822827819869477e-02 1.0081473518035622e-02 3.5218876910881998e-02 -4.3691348108958472e-02 -6.9107158621817211e-02 -2.2326619158888603e-02 -3.2062773210768114e-02 -6.2520653670164128e-02 1.6141776533551422e-04 -2.4604442292826434e-02 -3.2430287169749716e-02 -3.6046875242552942e-03 -1.0926727349287457e-03 -1.1115511668311075e-01 -4.0387176799953073e-02 5.4754435936369472e-02 9.3155059268584806e-03 -1.0151609427245453e-01 -7.2660845606353497e-03 5.5372050184720245e-02 3.8416998919689443e-02 -1.0583940013683429e-01 1.2926348332888114e-02 -3.3133248883027988e-02 1.0750802392551773e-03 -2.3633977947991047e-02 -2.6200983129714239e-01 -3.8938628311165402e-02 4.2802353220776967e-02 4.5131513145007657e-02 1.0758445983777676e-02 -2.4807240137783432e-01 7.8734137777302093e-03 -5.1234610000478964e-02 -2.7060319897720814e-02 -4.4460848064790670e-02 -1.0140960602183552e-01 -2.5837298362786254e-02 -2.6795213330230161e-03 3.8383896416044339e-03 -1.5559122435775920e-02 -2.5984691352194861e-02 4.7436113176251904e-02 -1.1919856531516576e-01 -2.2212227867655247e-02 1.0052501203089287e-02 6.4877823658330280e-03 -6.1601791926490693e-02 -2.0487893832961174e-01 2.3928513684186692e-02 1.7667605594199626e-01 -3.3129357574247564e-02 -2.5164350193349594e-01 6.5959351653487097e-02 -1.1171934900864187e-01 1.7293335012470806e-02 -3.1739056686072648e-01 -1.1812456562796392e-02 -9.9423964334935166e-02 3.3239776977008681e-03 3.2343121837695588e-01 8.6255502272914786e-02 -1.4885046991747419e-02 -1.3285167188308078e-01 -4.5279505289961205e-02 3.2027529778472646e-02 9.6119429146557245e-04 -1.3548372305428463e-03 1.9355565456502966e-02 3.9064777736674272e-03 -1.6035591140286000e-02 -1.7539515941632833e-02 -3.1375181215181042e-02 -1.1082712989012311e-03 5.7233728026195058e-02 9.6721376832187289e-03 9.4075771398932972e-02 -5.5138216931757689e-03 2.1858468379896967e-02 -1.4623873268312826e-02 3.3029157901753425e-02 2.3065624023818274e-02 -6.1743964016791816e-02 2.2832508402534507e-03 -6.5015730495550650e-03 -1.5731651812713243e-02 3.2625418772252779e-02 -2.9919781310952839e-02 -4.8633903323059346e-01 6.7165344114917536e-03 -6.6448761970424708e-02 2.0578523481221772e-02 -1.4523371696669574e-01 2.5813901605937273e-02 3.1589539863860316e-02 -1.8144441113375487e-02 -2.1135439820263335e-02 3.4304782214257479e-02 -6.3828448988010322e-03 -4.7602009964411440e-03 -1.7896627200687742e-02 -5.7163517704074178e-02 2.9859344260563803e-02 5.0353730167356447e-02 6.1829080537512793e-02 -9.4274686639629846e-02 -5.2757950078577975e-03 8.7793152787184359e-02 1.6731612493676568e-02 1.5369494876008089e-01 1.0714031993780904e-02 3.1483973043758551e-02 6.2050791763079927e-02 1.0248248426674067e-01 1.1023801318969881e-01 -2.0274628604109869e-02 -2.6641622909846607e-01 -1.4129300006827772e-01 3.4939524597479099e-01 6.4372266144525320e-02 -1.0058404204428444e+00 -2.5310012758452434e+00 4.4631916632901281e-01 4.2008964270301472e-02 -2.3470152871551925e-01 -5.9315983635717084e-01 9.4661026914030411e-01 -4.5297097003559883e-03 4.8176994386150418e-03 1.0940128187953591e-02 -6.3784046874815425e-02 6.0973742153278720e-02 1.9072269435810751e-02 3.8409594263169200e-02 2.6213329846623723e-02 -7.1552490271777902e-03 9.9514926385816826e-02 2.0017267043528908e-04 -5.4098618415395906e-02 
      </Row>
      <Row Index="1">
        5.1084915394074382e-01 6.4389988988649645e+00 -4.6770982931464766e-01 2.5781377715571929e-01 -3.8502482835121463e-02 -4.0424608257995920e-01 -5.2345279140101142e-01 -3.8614158359376760e-02 1.8797894916148028e-02 -8.4725830928222834e-04 -4.0740146655657167e-01 -1.5199029270125686e-01 2.6614377682969914e-01 -5.1343840021168374e-01 -1.7716639604319235e+00 6.2446102452545316e-01 -3.6897420506843015e-01 5.0579556709994611e-01 8.8931998431355130e-01 2.2844627736197509e-01 2.4211800657863924e-01 -2.9273179471061700e-02 2.9432773660079153e-02 3.7516931239495255e-01 1.7808534793118602e-01 -7.6528285326007539e-01 -1.0760238497499517e-02 -5.1619871010655148e-02 3.9657778819529935e-04 -3.3569889603256103e-04 1.7150495711371824e-02 1.2102166036742079e-03 2.3209952717296845e-03 7.0730301659729378e-03 1.6389440516462218e-03 1.2439132119666726e-03 2.9756799213659785e-03 1.7331241025380683e-03 -5.5611000369065761e-03 -2.5484246216319145e-02 9.2929327908559109e-02 -7.9255285115194474e-02 4.7951906964351469e-02 1.4748296109873375e-02 -7.2556948615941835e-02 5.0494151244655734e-02 6.3823523835846080e-02 -7.0816853791233522e-02 -1.5174468655574924e-01 -5.9741176444892748e-02 2.0302059644237390e-02 -3.9441836021168099e-03 1.0933734763312858e-02 -6.2048304057019665e-03 8.2504495858481616e-03 -4.0275317240524629e-03 1.3168041488376039e-02 7.0151573060491523e-03 7.8876604786724258e-03 1.3633068248998133e-02 -1.9517777160709474e-03 -8.5560192612136807e-04 -7.5342437757928982e-03 -5.3737485803388024e-03 -1.4299721213905423e-02 -7.3640570993758370e-02 1.2508649024764573e-01 -6.5808489299613027e-02 1.3902702998645381e-02 -7.9731418651616731e-02 -3.6375766662157409e-02 1.9783765772910439e-02 -1.9787677461778896e-03 -8.7422708479242342e-03 -2.6974205878197093e-02 -2.6607616154148972e-03 -4.8006026336786523e-03 -5.7840216483207585e-03 4.9760619102374684e-02 -1.7284863025959760e-01 9.9635067741611974e-03 -3.2881902450278888e-02 -7.2424582073336588e-02 8.7565832740827340e-02 -3.8245558375090943e-02 -6.3684175624194206e-02 3.8002823548701520e-02 4.4573584695800708e-02 6.8636538085983079e-02 -9.5496542057484368e-03 1.8085133123281975e-02 1.0970715843434020e-01 -2.6794171562650439e-02 -1.2234844671984983e-02 8.6627164175594462e-03 2.9650803320854881e-02 -4.1081575918951105e-03 -3.4198150815245895e-02 3.2306769262985160e-02 -1.4070697599307305e-02 -1.4279876858451467e-02 -1.6921506744050407e-02 -2.1650544544402857e-02 8.0592039757623468e-03 4.0578749172234932e-02 -9.4121070411356339e-02 -3.9472854445654022e-02 2.7392861660404277e-02 3.9359583000762963e-02 -4.3688360028565076e-03 1.9368751030742561e-02 3.0480699347150864e-02 -8.4677781158823254e-02 -1.4677111326621103e-01 -2.8156288139114027e-02 3.5782232255199144e-02 2.8099720763100435e-02 -3.4892115700129941e-03 -1.7664230288626365e-02 -2.0331885055012495e-02 5.1609775390203672e-03 2.2187086601183209e-03 7.3010920260537758e-03 1.2893975080289629e-02 2.0491072120520828e-02 -1.0796300958979335e-02 -3.2465810655812333e-02 -5.5495714296577986e-04 8.2550033697302849e-03 4.2634620863224674e-03 -1.6456228689109911e-03 -9.0818738193951306e-03 -7.1109486535597824e-03 -2.1859532245687152e-02 4.3797642139455639e-03 1.0933960140790856e-02 1.1713420627345508e-03 -1.3999383349624158e-03 -2.2894861250599322e-02 -1.4188106498126985e-02 8.9404761346654205e-03 -6.0778774938782436e-03 1.1465589549122340e-02 -7.5143765512624694e-03 -9.7600104551676475e-02 6.3157561718875030e-04 -2.1966279938866401e-03 -1.9732412746491096e-02 1.4258452792105386e-03 4.6693215373842384e-03 1.0887269806850156e-02 -4.1480075070043552e-02 -3.1993776923759175e-02 -3.1922514390574641e-03 -4.4421117572452790e-03 -2.2221615241955553e-03 4.7558794480629274e-02 4.3073780029373836e+00 1.6156481058536798e-01 -1.3517126406723001e-01 4.6038568536366009e-01 5.0353943681486424e-01 -2.8953075205798351e-01 2.5000302966254395e-01 -5.5951102201224678e-02 2.8646255105488905e-03 -3.5019428601665847e-02 3.1646840216878580e-02 -4.7253614665303434e-01 2.3525999138741260e-02 1.3104397021617648e-01 -4.2614366630138012e-02 1.6270512213828470e-02 1.2556022618633556e-01 2.3899298069163932e-01 6.7585563493384848e-02 -2.0576956285870918e-02 4.2348800711678930e-02 1.2378345128100321e-02 1.2000443860837184e-01 2.2414023891279750e-01 1.5130037675454490e-02 -5.6337362437069038e-01 8.2794545392547964e-02 -2.6516076854190523e-01 -1.3009155159903008e-01 3.1922100336358650e-01 -1.7169612509417631e-01 -6.8825336459840125e-02 -1.0847247657050912e-01 4.9660742801040808e-01 8.6503229589610584e-03 -1.3023263576205021e-02 -1.9266175773684679e-02 3.6369505790652928e-02 -4.7722946154163559e-02 -5.9538298598256822e-02 -1.4132868102002677e-03 -3.0926586398004163e-02 1.7322052294819867e-02 7.6917945450309666e-03 -9.8969922531417925e-03 -3.8320379824363648e-02 -2.7573562534604822e-02 -2.4042204653484139e-02 -2.0425996993872722e-02 -7.2230855292638174e-03 -3.3256987900775817e-02 -1.8880221257843097e-02 -6.0324078368319239e-02 -3.1679154642729884e-02 -1.0945052571148292e-02 2.3798419139326454e-03 -4.9381691548771506e-02 -4.7200504582202707e-02 3.0891969204887154e-03 -3.1655296352616658e-02 1.3540323002935900e-01 -1.2422838602191056e-02 -4.6719420243744869e-02 5.2629720412200862e-02 5.0207786486555217e-03 2.9225836044188053e-01 -7.1514026803089603e-02 1.5821925716240370e-01 -2.7155326269429472e-02 -1.9790115217471016e-01 -6.6162788627561267e-02 -1.2844803231704410e-01 -3.3081440762287424e-02 8.8889693447852303e-02 -1.3687456251459096e-01 -4.4809619380699772e-02 -1.3813739434365158e-01 1.8435741809826442e-01 -2.1959975157369818e-02 -5.3107150811494308e-02 2.3328388172437320e-02 3.4426855812918870e-03 -4.9423282271073288e-02 -4.8934580812243847e-03 -3.2427655215798615e-02 -7.5850445296744284e-03 -2.0578615995640370e-02 -1.3123724490832933e-02 -6.7308946252595536e-02 4.3018266985842463e-02 -8.8201941512433407e-03 -6.0408870458469183e-02 1.2943756280027377e-02 5.5867707991546778e-02 -3.4328401378672935e-02 -2.2947695587764447e-01 9.2427974477864661e-02 5.4743836270820273e-02 7.8998504023629665e-02 3.7068218035229472e-02 -1.0618272467299938e-01 3.3040947564346307e-02 -1.1927247419850462e-02 -5.3671565853070757e-02 -2.1727938461703393e-02 8.5146906886673923e-03 1.5671717808198704e-02 7.1150577361544926e-03 -7.8075580235629216e-03 -1.6612371989859813e-02 5.4525508646539045e-02 7.6588855160117153e-02 -1.2277064427772544e-03 -4.8335170080599232e-02 1.7400659938970442e-02 -7.5215918600825965e-04 -1.4496595522623890e-02 6.1171308539308081e-03 -4.5816756910348477e-03 -1.3093375792725404e-03 -4.0295405691238385e-02 7.4112062088926428e-02 6.3931433940122850e-03 -2.3805669493223908e-02 4.1251558132381246e-03 -7.4543689871120478e-04 -2.8310077693393970e-02 -5.3245338539536968e-01 -8.1518358612846509e-03 -3.0729870407142409e-02 2.1827506313282230e-03 -1.5495947068878413e-03 1.0212402440251823e-02 -5.3335399172518283e-03 -4.2857511487813249e-02 3.6170541825937645e-02 2.9304616709492304e-02 4.8782542953063057e-03 -1.4623328984657569e-03 -4.8820018651168196e-02 -1.5680631822058144e-02 2.8697037762475064e-02 2.1612207933211558e-02 5.5471846995667207e-03 -2.2587873134624620e-01 1.0332878955282609e-01 3.1808302984318948e-01 -8.9201979167499307e-02 4.5340635465916101e-02 3.8055828153369942e-03 -2.1460325031321126e-01 2.9428813505958440e-01 5.7612540446973171e-02 -1.7014030829281213e-02 -1.8621347596279442e-01 -4.2931972369120719e-02 -1.8765514329598831e-01 2.1545981150311222e-01 2.8914019357702103e-02 8.3853534588580914e-02 -1.0668288303250528e-01 -1.1608603861140376e-01 -2.0284542406227013e-02 -7.4400770521211412e-02 2.8058966364758575e-02 -3.9985744075821716e-01 1.0979107663076262e-02 -2.5269886978285735e-02 3.0285514304240733e-02 -6.9517696672657281e-02 1.3052592089718706e-03 1.1105798332609051e-03 2.5012024993478210e-03 4.9784124444891553e-02 6.9222946108338235e-05 -8.8226177893324764e-02 2.2793545772390456e-03 -5.1649920179134334e-02 
      </Row>
      <Row Index="2">
        -2.6365128602179277e-01 -4.6770982934193250e-01 1.7233528690508861e+00 -7.1654036820233413e-02 6.6340382317414584e-02 1.9383491832250649e-01 1.1679959028197767e-01 -1.9178567303656890e-01 7.0706362885317411e-02 9.3941361916191596e-02 1.0307068347100878e-02 -1.8837821550632322e-01 -2.9166160256804946e-01 -3.5551518027393314e-02 -6.7173724420135361e-02 -2.3191574245986253e+00 3.4243712422977990e-01 -1.2015156494391949e-01 -5.3205195443363551e-02 -1.0903673747970258e-01 7.3568194565347661e-02 2.9973668844471616e-02 2.0223602626349420e-02 -6.9549208386092826e-02 4.2798003976226573e-02 1.2262180243043662e-01 2.8523727099828700e-03 -5.0455760433064135e-03 -2.7704145129213154e-02 9.9127297716877071e-03 3.0228887183275871e-04 -4.3770831888397237e-03 1.4437023313512787e-03 1.7688614671769666e-02 -5.5471456166739704e-04 -4.5612616685589951e-03 4.0244044278992530e-03 -7.1822193126784770e-03 4.3877496285747303e-03 -9.2179815543158738e-02 -3.6927606815547673e-02 -4.0207281165284797e-02 1.0645648706148378e-02 -2.5842214370078165e-03 1.1264644603890539e-03 1.1581595680852165e-02 -5.3477216583306821e-02 1.1998343370261499e-03 2.5244756418308072e-04 -2.1322674480754731e-02 2.1179610971569639e-02 5.8316207274779035e-03 -1.5155785694652008e-03 1.3396405346059662e-02 -5.8857582836752950e-02 -4.0231069838115958e-03 4.3775565553682508e-04 6.8986236509812268e-03 -1.1422362516733973e-02 2.6056603810057644e-03 1.8787086678994577e-03 5.5327618941047457e-03 8.1894541135460290e-04 7.6536869361306416e-03 -3.1622079832713829e-03 -9.7886696992972921e-02 -4.7647208664674028e-02 8.5708908636666095e-02 1.5675747581665248e-02 -3.7572126063464245e-02 -8.1753326414872683e-03 1.5773599494854428e-02 2.3058162028975815e-02 -1.9518612500242193e-03 -1.6663441777953914e-03 -1.4318555120359372e-03 -4.5625557348300122e-03 5.2783207065535409e-03 -1.3874748293901947e-02 1.9420166233329806e-02 1.1807702039308966e-01 -1.6402348420147955e-02 -1.1717591647151887e-02 -6.9614789894953122e-03 -1.4629082724944495e-03 -3.5788963401206617e-02 7.4899253320859886e-03 2.8840224156079231e-04 -5.5053099005837047e-03 3.1297606026384803e-02 1.1788308450691686e-02 -3.5064245317138212e-02 4.6535711831772134e-03 -6.9722188921719913e-02 -3.9398252614452900e-03 1.7170916530720146e-02 -9.1469652038509638e-03 -1.2757313345962040e-02 1.3910284923444698e-02 3.5448548525917303e-03 -6.1750621072332798e-04 9.7307533033700634e-04 1.5895817008288068e-02 2.8659338911744461e-03 -2.4047505851852724e-04 -1.0173799608617678e-02 -4.7082337896473543e-02 -4.9232623646452154e-03 1.2408111995333319e-02 -5.1209958701905860e-04 4.9919725278861097e-03 -9.5348515091645991e-02 5.7760668313263513e-03 -4.8039002321612180e-03 -2.4062617534705628e-02 3.5486189362601755e-02 1.2157996885884047e-02 -2.3503232026662775e-03 -4.1596850764116650e-03 1.4615488283240938e-03 -6.7540191118754464e-03 -2.6980396680595445e-03 9.6859897219100585e-05 -3.6007250072666338e-04 9.8785355995826048e-03 3.0613281862094336e-03 -4.9099945846908469e-03 -3.1203961437758550e-03 1.0891093185522668e-02 6.3910138649325189e-03 1.6920041771451427e-02 8.7145736061468547e-03 3.1801280833833462e-02 4.9915640296722907e-02 -2.0296236896962341e-03 6.2615178926748059e-03 -2.4302093419197347e-03 -1.8765091396091598e-02 5.6565538673587039e-03 1.4301573596025323e-03 4.0705891136312566e-03 6.1865131927904375e-03 -2.9835432749280655e-03 -1.1458022321753619e-02 1.3261183954099216e-02 -4.9455080498877271e-03 -1.6912308841285221e-03 -4.5055541276098170e-04 -6.8653208467715603e-04 -2.1926993659227012e-04 -2.0669292397206558e-02 -4.7216453715117485e-03 -6.2370707557346111e-03 -2.1255710597482061e-03 4.4298984610705097e-03 2.8718740951826187e-03 -3.0543153577782278e-01 -4.9105662850642678e-01 -6.4553293546758783e-01 2.9681012076482033e-01 -4.8352708095960109e-02 1.3971266870434751e-01 -4.1747207441292233e-03 -1.0546424073686272e-01 1.0163019834556031e-01 1.1063552541381530e-01 -5.8526051622594610e-02 -1.1847082880927548e-01 -1.6681679952087658e-01 -1.6413501885887666e-02 -3.1701492071457546e-02 3.5523894866478944e-02 -2.1316899608517501e-02 1.0745528506003232e-01 1.9296881701437540e-01 -3.5816754591316280e-03 3.6914463497199720e-02 5.2337518442023619e-02 -6.6981222607844601e-02 8.1750316827708877e-03 -1.0913385440823910e-02 -2.9543954735143950e-02 4.7672323930327824e-02 -2.7459101427911720e-02 6.3908268323600442e-02 -1.0088855912721538e-02 -4.3661381915246579e-02 5.4162384058447255e-02 4.2917743078745740e-02 1.5237399400781074e-02 -2.7454169289421307e-02 3.3514588198805860e-03 1.1430177541511535e-02 1.6409686806706694e-02 -4.9404743521353689e-03 1.8052815592902746e-01 1.0599633331880755e-01 -2.2105849965915362e-02 3.1082418411330082e-03 1.8046308883403195e-03 -1.6261390601905498e-02 -5.4434412776860758e-03 -8.0254271686171219e-02 -4.3631669532872286e-02 3.5087781473112201e-02 1.2305719046467004e-02 8.1498582659830510e-02 1.6014758876526557e-02 6.4985353484662556e-03 -3.4273127363088310e-02 -3.3472895837936251e-02 -1.4252184419712155e-03 -2.7765605066630950e-02 1.1007686236830322e-02 -2.3063049707833495e-02 -8.7794820840849941e-03 2.5523479429105489e-02 1.8231913163294700e-02 3.3920521568946670e-02 -1.4138194631490684e-02 -7.8940560705374474e-03 -3.4623907666319897e-03 1.2850704790144385e-02 1.8721856694202191e-03 -5.3951272170388448e-03 -2.6737748721973875e-02 -2.3561990574501458e-02 -9.0301139838089173e-03 -1.0618487909163275e-02 -1.3150167263166881e-02 3.0541676323278012e-04 -1.0367027392675796e-02 1.8451497518216731e-02 2.8794253509954848e-02 -9.4034393114286186e-03 -7.5778743917380431e-04 8.4413706050821217e-03 -3.8227679350442342e-03 4.0644178939075806e-03 -2.4699615787282747e-02 4.4008349331307733e-03 7.6944832878069955e-03 -2.9218255240166552e-02 9.6424508329670672e-03 5.5834645954924433e-03 1.1262492281078475e-02 -2.9925483794510654e-02 -4.2149712916819099e-02 3.7022454473438604e-02 -2.1708123526815566e-02 1.3601282603884235e-01 8.6511315747655929e-02 1.6203560191116583e-02 8.4237125858997924e-02 1.4513541975244657e-01 2.6658418874635562e-03 4.2270735285090538e-03 5.0677722102871414e-02 -2.1769140566517999e-03 6.0140125083094985e-02 1.0162795759646751e-02 -2.3689479616381348e-02 2.8604313518206942e-03 -1.4038914276287201e-02 -9.7770129423503938e-03 -1.7739225929096714e-02 1.2728814957986903e-02 -5.9375827110830226e-03 -1.7813426953258604e-02 8.9591385606328441e-03 -5.1622155533758984e-03 8.3549739495519804e-03 -3.1941465076279700e-02 -2.5073667244427389e-02 -1.1968840591489380e-03 1.2543021459954229e-04 -1.4852176916552606e-02 9.6202268721848269e-03 -1.1178332780888769e-03 -1.6689922152118730e-02 5.6594576238480632e-03 8.1835808233219395e-03 2.6145385666428989e-03 1.0739284670147786e-02 -1.2382462445206688e-02 1.0102393974558130e-02 7.5211643989704854e-03 -2.5145941791082427e-02 -1.4078437423009238e-02 -5.2784555186812694e-03 3.7941661980425145e-03 7.1472821056724790e-03 3.3341892087148245e-03 -2.0239600850685963e-03 -2.1824092683922630e-03 -3.8809780497575247e-03 5.3777699048127570e-03 -2.0388801950297353e-03 4.0481411092912478e-03 -1.7512665936630645e-02 -4.6005893660503172e-03 -5.5888379509875241e-02 2.0216632840655435e-01 8.9112423309975042e-02 3.1706794517884183e-02 -1.4317484187520921e-01 -7.0434048591923676e-02 1.2155704711776560e-01 -6.6742162552499998e-02 -1.9570886654549033e-01 -3.9372340665707634e-02 3.2440499455200139e-02 3.6765449575928089e-02 -1.0253805261541010e-01 -1.8139760427186502e-01 -9.3522377632769063e-03 -3.3426823968049413e-02 -1.3316711193384764e-01 -7.1514278743939202e-02 4.5915553073400950e-03 7.5624204098900333e-02 8.7810320419270171e-02 -6.6146693173111809e-03 -1.2005649062753088e-02 9.8273970398345886e-03 -7.1783767570505752e-03 9.6178067402870465e-03 -7.1521396303524498e-02 7.0170678209010684e-02 8.2957513622868018e-03 1.4060585265738001e-03 7.6566465224195586e-03 -1.0928866852701224e-02 2.3880860202799836e-03 -2.9049075201852304e-03 
      </Row>
      <Row Index="3">
        7.4569229104176127e-02 2.5781377715381465e-01 -7.1654036820463007e-02 1.7424581342768035e+00 7.6025620020604062e-02 -2.2171469709301464e-01 -2.0886607267381035e-02 -1.6535505854059607e-01 -2.9865742223455616e-02 1.4818085863295136e-01 -6.1227757332504865e-02 3.3912758427446794e-02 1.0717709625428737e-01 -2.0058996099776480e-01 -3.1947810134560128e-01 -1.0546247300097093e-01 -7.9036275878862394e-01 -1.2380130823156829e-01 -2.2021039722309954e-02 -2.5669182780961856e-02 2.5482127388295761e-01 6.1403641996783574e-02 -4.0465195474652126e-02 3.3100566967197631e-01 -7.3864722794020066e-03 -1.9061975314187388e-01 -1.9947932492753798e-03 -1.7743269310383013e-03 1.5923382761584004e-03 -3.9570769905051886e-02 3.5686748201087842e-03 2.0051736710325428e-03 -5.7904698116540473e-04 5.5491299931930606e-03 -1.8536134336672814e-03 -1.2215185563984150e-03 9.0671426694666733e-03 -9.6595020378103798e-04 6.5062452787943248e-04 6.4711814633619264e-03 9.2739154053689803e-03 2.7376478693993997e-02 -4.4540074812887155e-04 -3.0856908422031992e-02 -4.5741928265737308e-03 1.0357243186661400e-02 -8.9645448155445395e-03 -2.8040486366582643e-03 -1.6688186087190155e-02 -8.9428660201287993e-02 -2.8457173747698829e-03 -2.4062902338861162e-02 2.3203030088477573e-03 -7.1991649035003224e-03 -1.3767009199026379e-02 -1.4738271256823084e-02 -7.9721026110744064e-03 -2.2036356886071112e-03 1.4608961824791045e-03 1.0687801898744288e-03 2.6704068791353064e-03 -7.7654546639294858e-04 -2.0216780849918528e-02 4.0663681675650364e-03 -1.0585836226046606e-03 5.2698160399004892e-03 -3.4631909015885526e-03 4.9781286157562880e-03 4.8335604707748295e-03 -2.6509730060776740e-02 -1.8329689666465074e-02 5.2517303146376940e-04 1.6306582417231485e-03 -1.0145751924301069e-02 -1.2676899747242860e-02 -3.5852179751095711e-02 4.1052834840472931e-03 9.4683168525787065e-03 1.3280882629996915e-02 -6.9097967670786291e-03 4.8461119669434543e-03 -1.7340462889156472e-02 -5.6105825124146301e-03 -1.6450702087747598e-03 -1.0185329731528921e-02 -1.0180156395387698e-03 1.0287165108444407e-02 -1.1628239726169101e-03 7.4154842870823023e-04 -6.4149358272275470e-03 8.0762495194694646e-03 2.3009920650651015e-02 1.3372531717061147e-03 -1.1559313019834719e-03 -1.2874537586004955e-02 4.4347051547782854e-03 9.4527510053815586e-03 -1.4073074644813388e-03 2.0612655692433653e-02 1.7746126211892466e-03 -7.0351713612990321e-03 1.4756811439970614e-02 7.3694915828943046e-03 1.0695363139845938e-03 -6.8538756113558936e-04 8.7064337209402931e-03 3.1688278720968355e-02 3.1600279467336220e-02 -2.1682727232337724e-02 1.5144190725993966e-02 1.0831406388858919e-02 -2.1925092115955100e-02 1.1216601901017628e-02 -1.6636612080971690e-02 -8.0139761179007549e-02 4.9979406198925463e-03 -2.1846296338264525e-02 2.8218051080762321e-03 -2.1500443813849061e-03 1.7795005737418961e-03 4.4812715578000539e-02 -9.8889930008653343e-03 -2.8773927081525135e-03 3.4734739134247641e-03 6.2247342088680019e-03 3.3776564550334238e-03 -6.4335285422448506e-03 -3.2122013216974395e-02 -8.3490092020869454e-03 -2.3120990580590937e-03 1.1667665498605526e-03 2.7422672912413709e-03 8.1465796116687340e-03 -4.4372565633473943e-01 1.6121835636028273e-04 -5.8237792373149831e-03 1.2469212278086814e-03 -8.2899327810118002e-03 2.3587211118679223e-03 7.0317302787634671e-04 -1.9639009015723186e-02 -9.1135822519672772e-04 -2.5155829062928009e-03 -4.2222879776858350e-03 -4.0932199280361257e-03 7.1428641822448847e-05 -2.9300194297903460e-02 -3.5274148085191067e-03 5.7259307556109841e-03 -3.7506236202449975e-03 -1.3778458780357019e-02 1.8676798164781606e-02 -7.3261261440269940e-03 6.2982735369586755e-03 -2.1193052934152939e-03 1.8920632028492669e-03 -1.1024221574551724e-01 -6.9629938374089387e-02 -1.6439373186323772e-01 4.8492351702793079e-01 -5.1898272157176809e-02 -2.3093060687493511e-01 -4.5146544400346274e-02 8.6752299715542394e-02 4.2594105200331800e-02 1.0337558127514151e-01 2.5593198745580137e-01 2.8234189732784826e-02 -8.7434266391830634e-02 3.8125307158435873e-03 4.0913581497068030e-02 -1.5104907466072237e-02 4.2762427705282054e-02 -1.1508361851406496e-02 -2.2349249664244136e-01 -7.4784906517423918e-03 5.1557547722876809e-02 3.8685320663861975e-02 3.6423826936273537e-02 -3.0528128820462005e-02 1.6511658398537549e-02 5.4336149826526847e-04 -4.7297723427459748e-02 1.6511039103528080e-03 -1.3487616467453358e-02 -1.2775701612045507e-02 1.0877369650871868e-02 4.9043213373562961e-02 2.7918069868107631e-02 -4.7235229495969061e-02 1.1176058102588537e-02 3.3723736663044679e-02 -1.8618436914709244e-02 -2.9561579059852877e-02 2.0096617113062508e-02 1.3260121201621809e-02 9.6042923821528847e-02 -6.5347795924300713e-03 -2.0675865858512950e-02 -9.4302986730762650e-04 3.3767089509346759e-02 -6.4647256444699680e-03 1.1051018378937405e-02 2.1804524636293629e-01 -2.0110190205654882e-01 -2.4023007600306463e-02 4.6121651246226242e-01 -9.9981842700515036e-02 -8.3586752605891601e-02 2.0843421627542533e-01 4.0963443753253681e-01 -9.9617452506413601e-02 7.9828435864966740e-02 1.9507802619875919e-02 -6.0900393646013545e-03 -3.1060696304880675e-03 5.2854147324699313e-02 6.4409841909582495e-03 -1.2425315151461128e-02 6.7753661742076948e-03 -4.2114962623720525e-02 -3.0616257822887127e-02 2.4891666173023408e-02 5.6600261404135543e-04 -3.1132006516796998e-03 6.6340168835307550e-03 2.2828105593867692e-02 2.0607912543643567e-02 -1.4999077798723656e-02 -4.7852075823179019e-03 1.2009608682549633e-02 -5.0070733429874448e-03 -7.6474145490458426e-03 -3.9840547869036458e-02 3.7635468127279581e-02 6.6650393865306384e-03 1.2075580407738973e-02 4.9697693309445970e-03 -4.8563123489427928e-03 -1.1805377593103513e-03 -9.3143837410508690e-04 1.1843853797569717e-02 -4.4936098511722547e-02 -3.6289042108594460e-02 3.2929310484444883e-02 7.9455005905669229e-03 -8.5961602857872021e-02 5.3182623953822832e-02 5.4198071941554647e-02 -5.0521353488520715e-03 3.5841011666644426e-02 -6.3170250850319493e-02 8.4487529978965276e-02 1.2185505264586061e-01 1.0265983656771605e-01 -1.2992222744057418e-02 -1.1806318357113862e-02 -2.1911172084505215e-02 -3.8990166287369288e-03 1.0490778663039485e-01 3.3451819830334295e-02 -6.2224542579736135e-04 1.0480075843278508e-02 -8.9088588818889321e-03 -4.0363661024099065e-03 -3.5551329526268619e-02 2.5983202309803888e-04 -4.7977040175466390e-02 1.5053895815472611e-02 -1.4069096816752114e-02 -2.0699454787367622e-03 -4.8556746545285745e-03 -8.6105265907801681e-03 5.5395074585929613e-03 -3.7139683720580898e-03 -1.5411589399148926e-02 1.4976848530665835e-03 1.5436231938560712e-02 2.4622710455768151e-02 1.9959432002296031e-02 1.1625427029726347e-02 -1.6121646345581768e-02 -1.1835516446779604e-02 3.3951415875354565e-02 3.2301697038613286e-01 -6.6948144950177146e-03 2.9808409901499855e-02 4.8713563187898844e-02 5.7457733309115286e-02 1.3168569245779457e-02 -3.4541023965565174e-03 1.1958462888502837e-02 1.1103510966890086e-02 2.2478734756096741e-03 8.5748093853025564e-03 -1.0286024556167561e-02 -1.2888576639526420e-02 1.0488923360636948e-02 2.6105348366064540e-02 -2.4419037304978380e-02 8.8892261456552726e-03 -3.6356723114725202e-02 -1.8657950332482853e-02 2.1277841267144243e-02 2.3237124711062533e-02 -3.9795086482625260e-02 3.7091677457618377e-02 -4.7122540389311712e-02 -1.1490403996174348e-02 -5.9960585233940003e-02 2.2620829842671247e-02 -5.1450229431187613e-02 -4.2365311622632046e-03 -4.1819840516465090e-02 -6.2142623537583416e-02 -9.5603454000791149e-02 1.3915554171296973e-02 1.9610700496759773e-01 4.9459749022448214e-02 -6.6160470617020350e-02 -2.8064763658561004e-02 2.3431124371012801e-02 6.7416673523794407e-02 4.6832236439312905e-03 -2.1673262701485910e-02 1.5294627221231205e-02 7.8729037389336731e-02 -1.3024071864033565e-02 -1.4071009215011632e-01 2.8109847059532289e-03 5.9841869851949680e-03 -1.2668679522843590e-02 -9.4764721534027901e-03 6.4313674495273775e-03 -1.2301205185729089e-02 
      </Row>
      <Row Index="4">
        -4.7045494272607163e-01 -3.8502482824353007e-02 6.6340382323846439e-02 7.6025620022631565e-02 1.3427123523638165e+00 1.8328951819249498e-01 -9.4235461874504184e-02 -8.5948985915240694e-04 -2.3766482683944223e-01 9.6506283594769426e-02 1.5528057377091822e-01 3.0842975303489856e-01 -1.2275444813456035e-01 2.4800803639224955e-01 -1.3602902281334411e-01 4.8642570762776505e-02 -3.7981450623459950e-02 -1.3810753654966379e+00 -1.1295162614418797e-01 -4.7491624496434071e-03 2.0886053758479302e-02 2.1022791592745210e-01 1.2452377163061358e-01 -1.8081545700253315e-01 -1.7400111545529018e-01 -5.3719299391720994e-02 3.8694912406728680e-03 -5.8713071757529340e-04 -4.9966418037320735e-03 2.6264099211833073e-03 -3.7969471144101041e-02 -1.4655520115785560e-04 2.0325903959798044e-03 1.1888152225352337e-02 -2.1547344501071236e-03 -6.5606383019119223e-03 -1.2936013125019463e-03 -2.6375405245558561e-02 -1.0518943015514325e-03 4.5639591907351368e-02 -1.4130280874805209e-02 -9.1495676588000674e-04 -1.9663113031276547e-02 -1.0270809639981468e-01 -3.2265239763667339e-02 3.0574698594099451e-02 -5.4257674357949398e-02 3.0982250156973729e-02 1.7573606552476334e-02 1.0093713752518864e-02 -2.3703346899129871e-02 -8.7845371082816044e-03 -2.4668160391034663e-03 -2.0603319074254320e-03 -2.5633251707024478e-03 1.1439215834922120e-03 -2.1413071079798274e-02 -3.2245531641015603e-03 -1.7354668970002689e-02 8.1511381708498712e-03 -5.4264179487910850e-03 -1.9388014314086627e-03 -4.5961277463414663e-03 5.5770722848820647e-03 -1.8566163540049375e-03 8.4225071606834429e-02 1.5174979096078988e-03 1.1242036502610894e-02 -2.7139230847599959e-04 6.8042238023123425e-02 2.3827346567268808e-02 4.3889061535792723e-02 -5.1042916512288622e-02 9.2089896482582846e-04 1.1988581482532686e-02 2.2885378772504409e-02 7.5683964132670603e-02 1.5203292749590900e-02 7.8832592572073285e-03 -1.9068307682019794e-03 1.3461822343647225e-02 6.2602767466729270e-03 1.2607107393205927e-01 7.1883149933540252e-04 4.3665821204122927e-02 -1.4938712498640212e-02 -2.0573520675943868e-03 -2.2685998370422650e-03 -7.2372129525556383e-03 7.5401714615380699e-02 1.6404164712404311e-02 -1.2087845622993434e-02 -1.2214935342371787e-02 -1.7775409977746529e-02 6.3324741532827522e-03 -7.0095606265038038e-02 -1.4804124421286646e-02 -9.9110765028670826e-03 6.6900202080039523e-02 1.0667517032938395e-03 -1.3671910475514713e-02 -1.7275920771036249e-02 -5.9063226500694857e-02 -9.6338903435170854e-03 1.1841628303734003e-02 -8.6952731065010145e-03 8.8140281440080102e-03 -1.7883990466342981e-02 -9.6919493370375365e-02 -5.7029094458116845e-02 8.6120672609230932e-03 -4.8484581044426017e-02 3.7337296077267268e-02 6.3319481131481371e-03 -1.4466378054002665e-02 -7.6855141851235348e-02 -1.2192099976233092e-03 5.3929789347731127e-03 9.7350926380244257e-04 -2.0352331743827695e-03 -5.4320975133736399e-03 -9.8550133989217525e-03 -9.8899631066278956e-03 9.3262683214262818e-03 2.3769689609865752e-03 -8.2148471013672062e-04 -8.8096358197467528e-05 1.1278754454435765e-03 2.3820815261011440e-02 1.5485322339860216e-03 -3.7994963820523059e-03 1.5166912077848038e-03 1.4152648936587818e-03 1.2445006914269863e-02 3.2596319873498932e-02 2.1445468183631244e-03 -4.7226324511619186e-03 -1.3270561559782339e-02 -2.4192034146538338e-04 -3.9433706269973758e-03 1.2012544677792308e-03 1.0111046917028025e-02 2.7956451285272603e-03 1.5451662488143322e-02 1.1177755103914338e-02 5.3437941090053055e-03 -2.7595480628248414e-03 -3.0975962110939354e-02 -9.2667761701163839e-04 -2.8753029030370355e-03 -3.0786045515180646e-02 -1.3946275572018687e-02 -1.2924052818619899e-02 1.9600790658523062e-03 2.8974945891188618e-03 2.0022015438345645e-03 -2.2464163221417088e-01 -1.7389733027835722e-01 1.0189468448729332e-01 3.7808134798353210e-02 -6.2312003848070674e-02 4.7473223915699247e-02 -1.0184930746717025e-01 3.4210599098421154e-02 -2.9031128083275903e-02 2.0402012736074271e-01 -4.2092233677516022e-02 1.0952445118851578e-01 -1.7419679999033155e-01 -3.5456174487294156e-02 1.4061665459797479e-03 4.1552349700111499e-02 -1.1955507790944897e-02 -5.0513260428320716e-02 -1.4618328540417785e-01 -3.4303585338489789e-02 3.5088221918067153e-02 -2.4332298699000422e-02 8.6165098339067839e-02 1.1830332627027929e-02 -2.5092033567182342e-02 2.5114608298027332e-02 2.8587656960306629e-02 8.7057260653436441e-04 -2.0536463069763866e-02 -3.0091345804257708e-02 -2.1220481090492752e-02 1.5851645817646587e-02 -2.1848945137611819e-02 -2.5030566593680970e-02 -4.3629321187320484e-03 -7.8062006265490341e-03 -4.5441688386838389e-04 3.7718536146756076e-03 8.6524619462820772e-03 -3.3854496645013610e-02 -1.4625541592925402e-02 1.3016127731340761e-02 -7.7517782201340368e-03 -1.5345844392394364e-02 -6.9278028234888850e-03 4.0860373757640525e-03 -1.0938869199911022e-01 -1.9849362283872796e-02 8.1840617218307793e-02 -9.2112213795403353e-05 -3.8816476737854724e-02 2.4922664861900388e-02 -1.7250536264690752e-03 -3.7461759824482452e-02 -4.5507157254029096e-02 2.4808589270710960e-03 -1.6326082646869987e-03 2.8412956393489064e-02 1.3110048638965144e-02 -6.9938556301934962e-02 -2.5582665950849917e-02 4.1445892773051041e-01 1.2756121095796442e-02 1.4775218257972768e-02 4.2229007183124931e-02 1.0699387767321006e-01 3.1356803812201772e-01 5.3045983492427624e-02 -5.6933346050987294e-03 5.3374141956352976e-02 2.4120249858280166e-02 -8.8118951970172360e-04 -4.4039518687564450e-02 3.5481048228858239e-02 1.6193234350564217e-02 -9.4713388173574171e-03 -3.1255376468404608e-02 -1.1260045855326473e-02 -1.8692336026443816e-02 -1.2060953125313884e-02 1.0210121764566756e-02 2.7272539036730173e-03 -9.9730964660048327e-04 -8.1885846892089081e-02 3.4681295521082692e-02 1.5089171002698881e-04 5.6222535665685497e-03 -2.2071673409042980e-02 3.2238562511173435e-02 1.2514254282558108e-02 -1.4168572450022093e-01 -6.1976346823221177e-03 1.2086330088817121e-01 -5.2182535778353065e-03 4.2482531881886200e-02 -3.9785157686244091e-02 1.1144645525213034e-01 7.8912868364331604e-02 7.6385553390747429e-02 3.5463901748646769e-02 -2.8614799548516104e-02 5.4622095298193174e-02 1.3417857940388939e-02 -3.6178788300770752e-02 -2.2196582367389750e-03 -1.9795312904887619e-02 -8.9428671733813338e-03 -3.8677170137224604e-05 7.4476971952386721e-03 1.3944718420129093e-02 3.0478505345663043e-02 1.6185079225765342e-02 7.4673846514721753e-03 5.4190777799408285e-03 -1.0484781504080790e-02 -7.9442661849752350e-03 -1.5996112692613522e-02 2.9484833233911628e-03 -1.0527669607599556e-02 8.9352107207179426e-03 -1.0035329211047050e-02 -1.9209188404738980e-02 3.1151263450785519e-03 -4.5163353906305312e-03 -1.8020961898759791e-04 1.2635057134052267e-02 -1.8427677022380351e-02 4.8741735399404351e-03 -2.3823141936484038e-01 -2.3429859173279000e-03 3.2684656550182045e-03 -2.6930545627232919e-03 -7.7054122564190614e-03 -1.0887637707855696e-02 2.2124433462698160e-02 -5.3778482063082667e-04 -2.2827924840955194e-02 -6.9335693092219264e-03 3.6654256714875433e-02 -3.5105843201733156e-03 2.4409046811577961e-02 -6.2755923524643875e-03 3.5171039760657059e-02 -1.5426225826447565e-02 -8.3246418216845752e-03 -3.5679646656922900e-02 -1.5778517724493679e-02 4.7381110449538022e-02 1.0553629406337042e-02 -3.6778331879901913e-03 -4.0900189580853841e-02 -5.9313980850488876e-02 -1.5573107964291372e-03 -6.7615822078603838e-03 6.1177423760570726e-02 -1.6791790539674389e-02 1.4204130365593565e-02 -3.7236811806423242e-02 -4.8841084222465872e-02 1.6695156983105003e-02 8.0174622097933357e-02 2.0788631772507765e-01 6.1920667025981119e-02 -4.5107240310916376e-02 1.8205970315535724e-02 -1.0055676363637556e-01 -1.2063246024456298e-02 9.8922311051960286e-03 -4.5428818472215693e-03 -8.7903720582449552e-04 -2.8250179012860865e-03 -5.5623825480339936e-02 1.3301606433436808e-01 -2.0692354626344667e-02 5.4498092123395799e-03 -2.7159335335349977e-03 -5.9152606150727288e-02 -7.5740091998580047e-03 2.3734900547153662e-02 
      </Row>
      <Row Index="5">
        -3.9123549646321043e-01 -4.0424608261075384e-01 1.9383491831267671e-01 -2.2171469708767277e-01 1.8328951818796560e-01 1.8551369426156714e+00 1.1478187660370071e-01 -4.7650937190492293e-02 1.3492205809809432e-01 2.6766213110319043e-02 2.8053641937464646e-01 -2.3240928484773057e-01 -2.2631669098053228e-01 5.1574787202777306e-01 -2.2699656481344310e-02 -3.8396684362470879e-01 2.4402994712405202e-01 -1.3601893539180676e-01 -1.3179113827813733e+00 -8.7576940251116869e-02 -7.5063144957585773e-02 1.7621028119783499e-02 -4.3787044932690644e-02 -5.4433936224626667e-01 9.5219490083140484e-02 2.8039385184470950e-01 -5.7178838450783476e-03 3.1275816809493715e-03 -6.3036697002026975e-03 2.2497307226179834e-03 -4.7152172409565029e-03 -1.5638502157061987e-02 -1.3058591889404773e-03 7.3630276552758729e-03 -2.4536808653387479e-03 -1.6796278496196094e-03 2.2843357672181278e-03 2.4275258363503846e-03 2.3426316116487676e-03 1.0891274374032231e-01 -1.0131651929379740e-01 -5.1814000718108780e-02 3.2255776156159238e-02 -1.9458251820240247e-02 -1.7394646710962072e-01 -5.1546846701197614e-03 -4.6027379544575836e-02 5.0360925023243873e-02 5.6795508362949700e-02 2.1198629018213198e-02 3.1741389208631579e-02 1.0750135328291076e-02 2.7009990023117481e-02 -7.7967080136039507e-03 8.6418649373263060e-03 5.3135016787011942e-03 5.1254333237256604e-03 -3.2031942178917576e-02 -1.0781546128171421e-03 1.2187985035487653e-03 1.5558268546066517e-03 1.4959867263263232e-03 -5.9128393096577608e-03 -2.7091184627777813e-03 -3.4717072599493096e-03 1.5781489293203214e-02 -4.1224742269479857e-03 -2.7305828457292663e-02 -6.3585781964065405e-03 1.6326381325619796e-02 5.4061116093308218e-03 -1.6908564187875834e-02 4.8135851143360879e-03 -1.0553668480248524e-02 5.2583973330110056e-03 5.9384985761051556e-02 -3.6827403766918898e-04 1.1071329705197641e-02 -1.1242720237787173e-02 5.1721882471357498e-02 8.3934003405374529e-03 1.7685276465614012e-02 7.4262359258232841e-03 3.7246219133763393e-02 -5.0258373664032463e-03 -2.6427424336998805e-02 -2.4886456554896512e-02 -2.0856416070606891e-02 -1.8895713640524205e-02 2.9691081671748831e-03 9.0518042235623684e-03 3.4324076054619401e-02 -4.1329376377625716e-03 1.3119742612384730e-02 -3.1167972529227983e-03 -8.8865127735959469e-03 -2.1713779964484675e-03 3.5430350276453044e-03 9.6612066437359312e-03 -3.9245862488916311e-03 -4.5741516207879578e-03 -1.9000553693310974e-02 7.4636201159191118e-03 -1.4231195116696030e-03 7.8804677329123690e-02 -7.7263994275989872e-02 -2.8180252922226388e-02 5.9518193580336776e-02 -2.9126221270866184e-02 -1.8566305894690918e-01 1.1026671296893260e-02 -7.5471259591176260e-02 4.6011557615736387e-02 6.1150591715986448e-02 -5.3002731696038030e-02 3.9098721939119126e-02 -1.4423725789511843e-02 8.0410777641747935e-03 -1.1836287405193102e-02 -7.0599324292315016e-03 1.1384779344244872e-02 -1.5275573196206933e-03 -3.3419040172030672e-02 -3.4570433404303401e-03 -1.3699811384101653e-02 3.8009345454006124e-03 9.1779803346727796e-03 3.8292423514580884e-03 5.4495692977756111e-03 3.6261911800338281e-03 -7.2493298266506356e-03 -5.1034871218660020e-03 -1.0301734071576415e-03 6.0927771963172561e-02 3.0303388712539618e-03 -4.7714166001448441e-04 1.0219525140162371e-05 -9.1601579418023257e-03 7.0643878333477572e-04 5.7862167401588520e-03 8.0769246176959353e-03 -5.5238051007716294e-03 -7.0702422247170237e-03 1.7065896173153218e-03 1.6087269187794344e-02 7.9845701251011723e-03 -2.2586600632508616e-03 6.7892911108923849e-03 -2.0470302821588418e-02 -8.0993795418484414e-04 2.8587184118615693e-03 -3.2099071703011059e-02 3.7728651020477663e-03 -5.6221906656867887e-03 1.4821156783805037e-03 -2.6080509649843093e-03 1.7077744313858384e-01 -4.1080557650517380e-01 -1.7339445924634012e-01 8.7592040147044359e-02 4.5759737937480435e-02 4.4056856420104651e-01 2.4382765026227965e-02 -1.1533293945555784e-01 1.3229615244318138e-01 -1.4521217543287127e-02 -2.7747682579261412e-01 -1.2618570100420887e-01 6.6599001102772684e-02 6.0722500993603629e-02 -3.7687520130096637e-02 -8.5277918639109815e-02 -1.6866751909681149e-03 1.0128997824491295e-02 5.9427495240895772e-02 3.3371678575260161e-02 -3.1506355120397844e-02 -8.4468742286042398e-03 -2.8658642828728875e-02 -1.1376252572748033e-02 -1.4724867356608620e-01 7.9597927645792460e-02 1.6175031481671970e-01 3.2487840355236816e-02 8.0175490032918989e-02 5.2639992456326778e-02 -3.5195449961102895e-02 1.8871336455442381e-02 2.1652119873344644e-03 6.0911250333541694e-02 -7.8347856867983956e-02 -1.0726692733059907e-02 1.0078657509716954e-02 -5.2092590325553681e-03 -1.4421160160556584e-02 9.6021158258306899e-03 6.9490580517889786e-03 -3.2255043522987081e-03 1.3612229367317707e-02 3.7778061567013604e-02 -4.4415685660055104e-02 -6.5875157271809140e-03 -1.0292791124029299e-01 -1.6829316349486062e-02 4.1004123722468200e-02 -1.3170018093112468e-02 -6.6151926075040446e-02 2.2159687945265807e-02 3.1525535979748665e-02 3.3493490362020803e-02 -4.1264779594016615e-02 2.1668998919707919e-02 -3.0375101192305951e-02 -3.4144644468305368e-02 1.2467306670526035e-02 6.1631268006724638e-03 4.3983454717051618e-02 7.1866767017762345e-02 1.9272304064018288e-02 8.7866317253985499e-03 -1.3097178065065631e-02 4.5564667418821259e-02 -6.8268810088380483e-02 -2.9846269817476734e-03 7.9535454074491363e-03 -2.8579716398660374e-02 5.2418308387798096e-02 5.7353680965581022e-02 3.8727663953299879e-02 6.4039843144387043e-02 4.0395874456826270e-03 -7.9529108383881303e-03 -5.0109951594325575e-02 8.6181975932211774e-02 -5.2006345989211389e-02 1.0962008596945558e-02 -2.4187254042176816e-02 -2.2277066035338806e-02 -4.7495967353250013e-02 -1.2065188753698997e-02 -2.0085044595997754e-02 -5.5310584043943151e-03 1.8815233091072664e-02 7.0116073531752324e-02 -1.2298752318954875e-01 1.0617932486897907e-02 -6.9500772840994998e-03 6.3147680363547884e-02 -1.5260944292477541e-02 -1.1742460358869222e-03 2.4082825984001438e-02 4.9950254608784736e-03 -5.3442711648391261e-02 -7.8213655155687789e-03 -9.8204331226696695e-03 2.5075175175722959e-02 -2.9142031822949145e-02 2.3753708854544697e-02 -3.3335514465170635e-03 3.6090111828495613e-02 -3.9599286353242467e-02 -1.3548931305297888e-02 2.0197700690331531e-03 1.3749564065081793e-02 -1.3541999616986988e-02 9.8580766016041661e-03 -3.2765177738872692e-02 3.7173849767455358e-02 -3.9732311946422683e-03 -1.5193017690709770e-02 1.1926788686035888e-02 3.4915007542659360e-03 1.0026380446877457e-02 -1.8356603519161657e-03 -2.7001985565069386e-03 -1.0331401538816731e-03 1.7717621395975824e-02 5.7839912873410976e-03 3.6578410793524085e-03 -3.2254121627242113e-03 -1.2587782775584713e-02 1.0854780355702767e-02 -1.9139486246203125e-02 -2.2830469858999614e-02 1.4308869297938909e-01 -3.1541226824337576e-03 -2.2095590991335623e-03 -3.8532502397470303e-02 3.5748889793814645e-02 1.4189836299466629e-03 -9.6894438805217309e-04 1.4389429780362450e-02 1.3012621832126314e-02 1.0034405746410166e-02 9.0425492422926967e-05 -6.7922196215808028e-03 7.5597986954394347e-03 5.3458967309300554e-03 -5.1801044031202850e-03 2.6442752634877220e-02 4.0760592972816090e-04 8.1846229052754987e-02 -1.3595824208555207e-02 -1.2000447167569692e-01 -1.9385731999221729e-02 -1.8615102011160872e-02 -3.3173829037396588e-02 -6.5281354730601204e-02 -6.3201821347590365e-02 -2.4070360915523947e-02 8.3369993893560382e-03 1.9651742271646004e-02 -1.7689288684799631e-02 -3.7420133603703165e-02 -3.6714795058454708e-02 4.6385424297425829e-02 -2.8471572008279641e-02 -9.0094026950667858e-02 3.9394554870401402e-02 3.8758182225616319e-02 2.5145171308336434e-02 -1.7618420186197636e-02 3.4046255732420094e-02 1.4616144341966217e-02 8.8720057974309204e-03 1.0573957487933792e-02 -8.1286793110468436e-02 -1.9864792192138547e-03 3.7960224004490062e-02 -4.4131770656361206e-03 -1.5951592605628603e-02 2.4854009491610984e-02 6.7021430358821243e-02 5.4461269956617778e-03 -7.7917996074745397e-03 
      </Row>
      <Row Index="6">
        -1.4390153808115769e-01 -5.2345279141701284e-01 1.1679959025455335e-01 -2.0886607265781135e-02 -9.4235461871526413e-02 1.1478187662397986e-01 4.0509586440214349e+00 -1.8985270176561508e-01 -2.2023260069412176e-01 -4.6248283914211546e-01 -3.4243602382695131e-03 -3.8551470021913764e-01 -1.9273098182967632e-01 1.3388677849592120e-02 -3.7147640852887132e-02 -1.2180353587682025e-01 -7.9478539462918274e-02 2.2583961563634031e-01 -5.3101905869071819e-02 -2.2764273635494749e+00 2.5464955856159210e-01 3.6125431724444979e-01 2.6819210837018315e-01 1.1778132018200912e-01 1.1738493193150146e-01 2.3535548463345768e-01 1.1618591463185377e-02 8.4861302542092558e-03 7.6495035411282344e-03 -2.1651705970678289e-03 2.3905488035799040e-02 -1.6115546506083687e-03 -4.4373157918243672e-02 -4.0624250039654163e-03 8.2019473211422927e-03 1.2153534047309650e-02 9.1949462358124900e-04 -1.0571234198408080e-04 5.5834144036830506e-03 -4.8321641666710380e-03 8.3913471683292051e-03 5.7368169877780983e-02 -2.4175349517051192e-02 5.3971660185025735e-02 1.6622673358787587e-02 6.5162207982453951e-02 -1.2837680657454920e-01 3.6295008669428294e-02 6.1146184425042716e-02 2.0295513838017382e-02 1.5991814139969418e-02 1.1102327044856633e-02 7.4127798854637522e-04 -3.7386503115400427e-02 -7.0299608785184958e-02 1.2257620127170311e-02 -5.9530773968950484e-02 -1.5201664986454186e-02 -2.3294521442836796e-01 1.3481077166477562e-01 1.3229006056410558e-02 -2.1278832161808425e-02 -7.9478075855316799e-03 -6.0175058587267183e-02 -1.1477988645787817e-02 1.0074788057432629e-03 4.5007054411051683e-02 1.2656764464303225e-01 -1.0482142006233125e-02 2.5243140330662356e-02 1.9445414745574235e-02 3.2762759759423082e-01 -2.0628619051702768e-01 -3.2160988830435167e-02 4.0631941569963130e-02 -8.0687823729611863e-03 1.2686119501969378e-01 8.7126794620808624e-03 -6.6636227505266585e-02 9.5869835765280340e-02 1.6552035346895921e-01 -6.4184066783166821e-03 9.0439069432771024e-02 6.4843914593032292e-02 5.9767128797808011e-01 -2.4388352345232878e-01 -8.6518739463682506e-02 2.2555406310064849e-02 3.1198420511190372e-03 1.7471682183458886e-01 1.0752052660929108e-02 2.9732958970647337e-02 -1.1545585327372189e-02 -2.4685741659259131e-03 2.8476998044316137e-03 4.6106095820469199e-02 -2.6411109694512783e-03 -8.0028005802217958e-02 8.1700836023323051e-02 4.2620473148127648e-02 1.3827011277332503e-02 -3.6260000999999015e-03 -7.3865857126980267e-02 8.2387678744260395e-03 -1.0473393304555198e-02 -2.0823269732821170e-04 -1.8183026208131682e-03 -2.4454490168218213e-02 3.5247113796725807e-02 1.1570284617910133e-02 -4.6673321231935787e-02 -6.5782108221296820e-02 6.1428989331232274e-02 5.1550520767318281e-02 1.3636093578843655e-02 -8.8088069084171633e-02 6.6882858099919437e-03 -1.4321759442913765e-02 1.2808971677760107e-02 3.4529875724255456e-02 -5.4340662555079512e-03 1.7937045413347369e-02 2.0986790124172809e-02 6.6025972298543206e-02 -1.0304663583100726e-02 -1.2060425344305348e-02 9.6461725499978682e-03 4.3737490891152461e-03 6.0096272009750797e-02 -6.3991011068127851e-03 -8.3849077921355486e-03 -1.7626647340129586e-03 -1.3076442798063526e-02 4.8220755650385083e-02 -2.6950566665253181e-02 1.3812996395117100e-03 1.4324713061894801e-02 7.2357803478671906e-03 -1.0894274807884139e-03 -7.9553376540810669e-03 -2.2229709577806234e-02 -2.9626561376128874e-04 -8.2555252048650864e-03 -3.1981836086694693e-03 -1.7253262235762592e-03 -2.1310018310561770e-03 4.5240665503939459e-03 2.4539171550690322e-03 -1.8377705363014363e-03 -1.1377320379672315e-01 -5.8480512091013794e-03 3.4720649924203373e-03 -4.2982242988562347e-04 -6.0029349844907542e-04 8.7196103539482206e-03 1.4388531079885872e-04 -1.3283357865270862e-01 -5.5597053888956882e-01 -5.8037358478485235e-02 -4.2772067191930496e-02 1.0160255516599803e-01 6.0111262751663674e-02 1.5493627389762432e+00 1.8984668171006713e-01 1.5863806233828801e-01 -1.9271939915678934e-01 9.9171994201406211e-02 -3.0701324477053760e-01 3.0653988400772686e-02 -1.3560111751717563e-03 1.2025522740034017e-02 -1.8108219688066474e-02 -2.0688559991406064e-02 -1.6830183141970378e-03 -8.7281348315074961e-02 6.0307124161301698e-02 -1.2836981399507064e-02 -3.6507990129429693e-02 -1.2547546530514153e-02 5.7533182354327250e-02 -5.4439202893895589e-03 4.5642147080776810e-02 7.8121387311835877e-02 -2.9131215865392940e-02 1.1317850529481382e-01 2.1059692127367441e-03 2.8608536028186755e-02 6.3725146756226050e-02 6.1166496929182301e-02 6.9052340164082349e-02 -6.1918239889919485e-02 1.5005657319109848e-02 -2.4102361451043830e-03 1.3579193479621138e-02 5.6007991221742048e-03 -6.2243568223966372e-02 1.7892430780460877e-02 2.2008372562140985e-02 5.1117709505805603e-03 -2.5654570420540757e-03 -2.6075183371141453e-03 1.1047872452326524e-02 9.3051698783963133e-02 -1.4572060461296887e-02 4.6258875669895616e-03 2.2755920831216692e-03 8.2043124197774125e-03 -5.0509732404850141e-03 -9.7873848768472715e-03 5.1102963715137645e-03 -4.1828650510452925e-02 2.8917544883386145e-02 -5.5175498129118039e-03 -4.1864362401865612e-02 -4.9533940889776196e-02 3.1301480969788908e-02 2.4476042256114883e-02 1.2491967786660035e-02 -8.3489804703752619e-03 1.8362958171575475e-02 1.7447337724839418e-02 1.6649888345739206e-01 1.1566322967324158e-01 -8.8398801668167271e-02 -2.8722895019451300e-02 -2.2288872570359830e-02 -5.0239333816077258e-02 3.9944440296969155e-02 -3.9075162303661037e-02 7.7585399147383771e-03 -1.8732098946485198e-02 1.3324919311372529e-02 -8.7871076280778837e-03 6.9747068249527977e-02 -8.7288208824984337e-03 -3.0354892985248912e-02 5.6574937464094602e-02 -9.2351415120736607e-02 8.2800911316273498e-02 3.5976187762835221e-01 4.9840514782753503e-02 -1.2238739048928787e-01 -1.0761504670856092e-01 -3.1569827441565224e-01 1.6534776847576121e-01 1.8943227361884984e-01 -8.6345428631500631e-02 3.8602665333576508e-02 8.2999637145917182e-02 -5.6584064243418677e-02 6.4841300691360917e-02 -1.5341071315602545e-02 -1.7903784276116455e-02 -6.4240683080632466e-03 1.3466016656702995e-03 -5.8014413077925459e-03 -9.7574413654792413e-02 -1.5018252457450543e-01 2.8326126268809482e-03 -1.3035857320076172e-04 3.4130684304510536e-02 6.2120899257050886e-03 -4.5760023545802775e-03 2.6055628568383282e-03 1.4185504407724994e-02 1.6532858788555427e-02 4.1333973165034607e-02 -7.1693536343290454e-02 -2.0983090339625046e-02 -4.1356584418619224e-03 -2.0632615232462348e-03 -2.8349960023468235e-03 -3.1929480445076451e-02 -1.6669786640758244e-02 -3.6254834176357845e-02 2.0510235618811379e-02 2.4751045669406779e-02 2.7210663066004004e-02 -3.0590401276324661e-02 -1.2085981004990908e-02 3.8034631226786658e-03 6.9244737208196822e-03 1.0247408199360722e-02 3.6163499881579193e-02 1.1762651909025928e-01 6.3793398604197749e-04 -1.6003183777061641e-02 -1.3265931617035875e-02 4.9317902571203887e-02 -7.8670794843709313e-03 5.0705482711444372e-02 -2.3774140070705357e-02 -6.1937990148239752e-02 -1.3668804729022210e-02 2.4011620710272658e-02 2.0148317658926024e-02 2.9393195598302668e-02 -4.8470156016265253e-02 -7.8064094896638236e-03 2.0788593548395129e-02 -2.0911796386563264e-02 6.6405422642815820e-02 -9.1550400087759054e-02 2.9992381053412093e-02 3.9668898480064219e-02 4.7285354016002035e-03 1.3775849886621019e-02 -1.1688334630329589e-02 -6.2094234185960162e-02 1.3290511396271132e-02 5.2716013583839372e-02 -5.1476394759216781e-02 1.0994704932837385e-01 5.4980994288049923e-02 3.2122445924537335e-02 -3.0450642266923428e-02 -6.7427357838082486e-02 5.7529212645270972e-02 -8.1554424087169758e-02 4.5011749403057438e-02 2.9160873619648305e-02 -1.1088231927179726e-01 7.9894093192615867e-02 -2.3548227241481173e-02 9.6683856653692613e-04 -3.0270106149169168e-02 5.3218270403926793e-02 -9.0973425615954173e-02 1.3679209433435036e-02 -4.4233164968397194e-02 -1.0763296663196337e-02 6.4300597074753441e-03 1.5667285741475689e-02 -2.6161387676108538e-02 8.5815641648190250e-02 
      </Row>
      <Row Index="7">
        3.7625349502353211e-01 -3.8614158412025493e-02 -1.9178567303908833e-01 -1.6535505855299748e-01 -8.5948987241286131e-04 -4.7650937190790471e-02 -1.8985270175065252e-01 6.6771263285552056e+00 -1.6883944958173647e-01 -6.4783700337272476e-01 8.1437570350661778e-02 -2.5113835929613859e-01 7.3792584727309471e-02 2.6186136735151644e-01 8.8104620996142205e-02 -6.4024601631230582e-02 -5.7541626726601958e-02 -2.8962826165928313e-01 -6.7501627759809002e-02 -1.3214415139270613e-01 -2.7884067972501030e+00 2.1663794169218753e-01 3.1090236371278024e-01 3.7266378338702388e-02 5.7676105151349466e-01 2.1265884158198958e-01 -1.8589279874093395e-02 -9.0234221490352838e-03 1.6281806678056981e-02 2.1064850350756394e-03 -1.4209982561256496e-02 7.2108043919445197e-03 1.6001486078537370e-02 -1.3954851104055627e-01 -3.8106745692972803e-03 8.8632002624763236e-03 -2.2035813187165909e-03 -1.0316934932813743e-02 -1.7580865486392129e-03 1.6589560666591241e-01 2.6218378919238464e-02 -2.6548262913806617e-02 1.3291328088914270e-02 -3.8099621154243944e-02 -4.8206718469544260e-02 -4.9211195822442343e-02 2.4833863718698829e-01 4.6007855135663842e-02 -2.0835946768548393e-02 -1.6151725944549420e-02 7.9646522691143945e-02 1.9297043194281566e-02 9.4386372891450254e-03 2.5372089673857366e-03 -1.6367574913189617e-02 -1.7680421710182439e-04 2.6870371979508256e-03 1.9435739633023641e-02 -1.3724778942586932e-02 -1.8124374413188468e-01 -4.3870905165677727e-03 3.4662508648704779e-02 -3.8394242053463312e-04 6.5417759865751867e-03 6.4023461202572379e-03 1.1112123387730626e-01 -8.2569637702575860e-04 8.1059644183875734e-02 2.2502345875008677e-02 7.2743705396825550e-02 -1.0958715486046933e-02 5.3247631745575924e-02 1.2482532732375434e-01 1.9793439843237844e-02 -1.5661923575812194e-02 -4.1455059077206945e-03 -5.1852740856350825e-02 1.2123503100276559e-02 7.9732534317813297e-02 -4.9281638339995631e-03 2.1645741582510987e-02 6.7287543003612810e-03 5.6104504446418096e-02 7.6721833742671641e-03 7.1016535583580287e-02 1.8602855549541819e-01 -1.2813389889289855e-02 -2.1912291573001383e-02 2.1758692184264294e-02 -1.9901972792280787e-02 -3.8575361969155758e-03 9.4838047731726938e-02 -1.5515803114838708e-02 -8.2223274578550314e-03 4.4775567656841486e-03 -1.9445130132195426e-02 5.3404766748540902e-02 4.9994019159614982e-02 -5.1910753332132098e-01 1.7392005726658440e-02 7.9324345594931775e-02 1.9372341201230214e-02 -5.9394741543681961e-02 -1.3146235702997281e-02 1.3314345243356812e-01 1.9312488047770311e-02 -9.0090109384141540e-02 -5.6855714857378947e-04 -7.1455073736654842e-02 -3.9662283577514397e-02 -8.8574016596535868e-02 3.3734062276007715e-01 6.9862729955693509e-02 1.9947134451972125e-02 -1.4322445991409416e-02 1.1274520485117646e-01 2.8588650644142885e-02 1.4467981884498018e-03 -3.3236461245958783e-03 9.1907965536260905e-03 1.4679308387422593e-02 8.5941748894627946e-03 2.0680093836700338e-02 3.4124701141627557e-02 -1.4185696636827741e-01 -2.0989279238972272e-02 1.1293569710876691e-02 1.0703038582221453e-02 -4.3801185319195567e-03 9.7739938797536396e-04 -2.0043660128184686e-02 1.2035883476041294e-02 -1.2636725754825256e-02 -1.9916514600402030e-02 4.4648916587710918e-03 -1.6619681695645809e-03 -1.7798477904316032e-02 1.3344777476681097e-01 -8.9962861011728089e-04 -5.5703855934193594e-03 -2.4014408160374145e-02 1.1292181079437955e-02 2.6961580207160354e-05 3.6891194772947042e-02 1.4034358880766075e-02 -1.2907382014454323e-02 -2.3561763376314659e-04 1.0731419892536419e-02 1.7903434806666174e-03 -3.9738394190964180e-03 1.5383737764475255e-01 5.2726449717395305e-02 5.1438742847609777e-02 -3.4739646804769209e-03 -5.8700309277192053e-03 5.7936454745516463e-03 6.5061404030026537e-01 6.9747552760412751e-02 -2.7444425696215191e-01 -2.1686503827839854e-01 -2.7246288337420443e-01 -7.9412134650170052e-02 -2.9003969559153220e-01 3.2532417553003663e+00 7.2387605985329895e-02 -2.6960938710423132e-01 1.0677563925339573e-01 3.2024160937501633e-01 2.8328135007610483e-01 7.5770985440249086e-02 -5.6579605019203782e-02 -9.0055191086203523e-02 8.8664777775464554e-03 5.5605645980842944e-03 2.6087604488316901e-01 -2.7148623774979092e-01 -7.8480334713737054e-02 -2.6624295203270011e-02 -1.4975741145203170e-01 1.0809002274663704e-01 1.5882729369762275e-03 3.4784198258575531e-02 4.2186872131512398e-02 4.0384933057790895e-02 2.2780873661166712e-02 2.0617800121253083e-02 9.5438869040162300e-02 4.7802412320825924e-02 2.0289163570314295e-02 2.0430441149636769e-02 -5.4343486230072971e-02 2.5686037749775983e-02 -2.0817768491649583e-02 -1.8469125506344823e-02 -4.2134706790338816e-03 4.9209467228902758e-02 -1.5280661530479883e-02 -7.6503472461804806e-03 8.2328023789294737e-03 9.1383100308785048e-03 6.2870842718647513e-03 -1.6591755878022495e-02 1.2608129454645878e-01 2.4064160607971091e-02 -5.9551085413425887e-02 -1.2940865379079236e-02 5.4677092581228992e-02 -3.9396066608965753e-03 -6.6991379447291499e-02 7.9147378172786699e-03 6.8162101401373132e-02 -2.5991007509377412e-02 7.1472095921544243e-03 3.7517282157010723e-02 2.5411566117787054e-02 9.6249797797326314e-03 -3.9385694076847111e-02 5.5962921035108082e-02 3.7988666553009705e-02 -5.3340709042201333e-02 -5.1840853182980928e-02 -1.5735722989805984e-01 9.0217807745031880e-02 1.1671447757165526e-02 -1.9040697351541291e-02 -4.1172996885673753e-02 -3.2828604623458491e-02 -2.8267010465903547e-02 -3.9856242353940308e-04 -1.3273449036303193e-02 1.4141469201284246e-02 3.8778660962576261e-02 2.1777045300995949e-02 -4.1498849834013585e-02 7.9130358499475834e-03 4.5880981116956238e-03 -1.1736256714328687e-02 4.6648222206987361e-04 1.5048343051936725e-03 3.7716830879874319e-02 -2.5305541855630512e-02 -4.8362772059162021e-02 -6.2579526413193587e-02 -6.7498820091870138e-02 3.3311357936444796e-02 2.7495753928093392e-02 5.6095364380838275e-01 -2.9663570895218544e-01 -7.5331997599071332e-01 6.6871885820559834e-03 -3.6931973456210743e-01 2.0623968232288896e-02 -5.4213755205168557e-01 -8.0329696996560340e-01 -5.6945871815421079e-01 -3.2694718591575761e-01 6.6423770618142530e-01 5.9618779118393306e-02 1.3169853014463051e-03 -8.5678699785965096e-02 -2.1169014806553151e-03 3.0280922781917435e-02 -1.5863335678277871e-03 4.0491729442958979e-02 2.7017445783558844e-02 1.0459940938436052e-02 4.4062010573609596e-02 3.9893835559901003e-03 -4.7378528135251008e-02 3.5663079747806123e-02 6.7555931105465747e-02 1.5148181097738675e-02 1.2581675622470411e-02 -3.4263571648994740e-03 7.1386581016902831e-02 6.3647906949581015e-02 3.2201552429487634e-02 -6.5126727537028904e-04 -4.9233480630675376e-02 -4.9291772453860889e-03 8.5650453638919447e-03 2.2400208511380582e-05 -8.3956048400195549e-03 4.1110190075854397e-03 1.0164127187683780e-01 1.0668246027345320e-02 2.3150268564494092e-03 1.5946404766188638e-02 1.0041037481850701e-02 1.4914821026487432e-02 -5.5072922760257548e-04 -2.8401259423421893e-02 -1.5921543161777851e-02 -1.5602374476724856e-02 7.8527309037923210e-03 1.5059402437133107e-03 -1.0130377651827338e-02 1.9778084272472962e-02 3.2457359720027168e-02 -2.0839426945690853e-02 -1.5112273664348086e-02 2.2743881213031451e-02 1.0104246131294470e-01 3.5476639737306859e-02 -1.1161973304314371e-02 -1.3462685184726306e-02 -1.2656342290403022e-02 5.7025990426974205e-02 3.2207196531166105e-02 1.0687575492680290e-02 1.1854676602827491e-02 1.5594632823453365e-02 -1.5701331200263158e-01 -1.1818548162678688e-02 1.7510399261393494e-01 -6.3888643803717074e-04 -2.6384259260940124e-02 -2.6101589440917905e-01 2.2527401703557712e-01 3.3315194042067175e-02 3.5137177801995892e-02 1.4963045503542327e-01 -1.2315514064349337e-01 -7.9685765560090771e-03 7.3726038189582312e-03 -6.6710147835682132e-03 2.5890426072467720e-02 3.8776847316766630e-02 7.7411680469021207e-02 2.3524527751073165e-02 2.0281092327896549e-03 -8.9168182296888165e-03 -7.4656489319278735e-02 6.0214031813379809e-03 -2.2405676308024838e-02 
      </Row>
      <Row Index="8">
        2.4811265967055662e-01 1.8797894881508834e-02 7.0706362890055302e-02 -2.9865742218511265e-02 -2.3766482684501869e-01 1.3492205810053048e-01 -2.2023260068677852e-01 -1.6883944957347741e-01 2.6774353404646760e+00 6.2586901264051320e-01 -9.0743192906432388e-02 1.4200336236549360e-01 -2.2511609679305933e-01 -2.2482599055483671e-01 -6.6585556699720133e-02 -1.0246859149727486e-01 2.9892642656909330e-01 1.0022201516134839e-01 2.2725333538087047e-02 1.4601109853197292e-01 2.8115702464841391e-01 -1.7089705761216112e+00 -3.4786811361644410e-01 1.8557384431613444e-01 -5.7078068995099276e-02 1.6509224995905347e-02 3.1957310150663998e-04 2.4957773340047139e-03 3.6558017286665578e-04 -6.6780966190279137e-04 3.4600689603431212e-03 -3.7003668088774998e-03 1.5244084030533595e-03 -2.7017221180322334e-04 -1.9131591133678794e-02 -1.8180948504950105e-03 5.6060883566620770e-03 -3.7639251191237217e-03 1.9365377562503699e-03 -4.4393671715130950e-02 -6.1217747784057627e-02 -1.7004085663096025e-02 2.2486346207049063e-02 7.4728589674484258e-03 1.1440465089398083e-02 4.5358705136437652e-02 8.9711641870556413e-02 -1.1760447901485513e-01 -3.9948371161296743e-02 -6.2783134696001814e-05 -4.2965419138178029e-02 3.4705413349549515e-03 -9.4931760792847791e-03 5.6849831803432727e-03 7.7408219297630896e-03 9.8599401837541536e-04 -4.6416110773640773e-03 3.9263100621443059e-03 -1.1935119254652987e-02 1.7118122112416909e-03 -6.9040734561585729e-03 8.1980019285279454e-03 1.3256146635765853e-02 -1.2973004364006339e-03 -4.3864227474926607e-03 -5.6056797090309612e-03 -6.8858343916647999e-03 -1.1033786295627901e-02 9.4312305408279645e-03 -9.9766161569204842e-03 -2.9334693881925757e-02 2.3132163365020039e-02 1.0178460347396279e-02 -2.4148050386602088e-02 -2.6059115392358154e-02 -2.0399650439486508e-02 2.3604769882998086e-02 -4.2334222933343435e-03 1.0086178536527317e-03 1.0839469415779918e-02 2.6168733481477524e-03 1.0373037649232641e-02 -1.4913404459389462e-02 8.4262402758031041e-03 2.6101928222434501e-02 -2.3420239592942690e-02 -3.6483457486045742e-02 -2.6672146677353514e-02 -1.2760127850783006e-02 4.2712910566397727e-02 1.4672661579570909e-02 -3.9545647494111325e-02 -6.2766468089668209e-03 1.5225943906621672e-02 -1.2714005398623773e-02 1.4381063602780048e-02 1.7840443907296305e-02 9.6647718963952696e-03 -3.4834648146170669e-04 -6.3941558590732542e-02 -1.0629116581103763e-02 1.2403879636028400e-02 -3.2151952589207625e-02 3.4717821985358575e-03 -4.7125357403050253e-02 -4.9594536181381488e-02 3.4289012159918544e-03 1.5237866158030133e-02 8.6727631554580076e-03 3.7430149408987201e-02 3.0753678036849738e-02 7.5159535349403894e-02 -1.7669202221726144e-01 -4.1720278426259645e-02 1.8193780730645037e-02 -7.1202797660343445e-02 1.0698256074941778e-02 -3.3224680325460443e-03 -5.3588074203903902e-03 -2.1917564797434147e-03 4.4095375618744478e-03 -7.1943873099612893e-03 5.8148008753934471e-03 1.0538868194214880e-02 1.2516015032038863e-03 -1.9877816124396284e-02 -4.4352761167174640e-03 3.9046651756506241e-03 2.3456567934114519e-02 4.8907770327074867e-03 1.9435962981623790e-03 -1.2931774863504733e-03 1.2398859155852079e-03 2.2775698153662122e-02 -9.9675515340064934e-03 -7.7473766856043652e-03 -3.2578860930789853e-03 9.9278850006561357e-04 3.9853763533954645e-03 9.6284571857021516e-03 8.4406099726132347e-03 2.9578744404317320e-03 2.6771157898622285e-03 4.5061809895258070e-03 8.3217757849090163e-03 6.0148067945728920e-03 -3.3679480531526584e-03 3.2320617013764062e-03 -1.4788852798239164e-02 -4.9951509250805576e-03 -5.7732630403127955e-03 -1.7149481815249737e-01 -1.5328436055189867e-02 -1.1001915770662611e-02 2.1749283828642968e-02 6.1339831394270003e-03 1.5761533918556836e-03 -4.1044954679014894e-02 -1.8067161066993409e-02 2.7915468900161788e-01 -1.3649224756306644e-01 1.6216257670073403e-01 -6.9943310670389267e-02 1.1364271151205566e-01 7.3259163568280261e-01 2.6310321105761236e-01 1.1411373791522947e-01 8.0055040525804769e-02 -1.9395102559806765e-01 1.7225315023368826e-02 1.4987294437595167e-02 2.9871609466238902e-02 6.1746968426561216e-02 1.8231398604254934e-02 -4.8823329892107400e-02 -3.2771832193383144e-02 -1.5546608551447155e-02 -7.9164790697281301e-03 5.0894209053764072e-02 3.3205804556370011e-02 -1.4805182247078275e-02 9.1732618115413223e-03 5.8721725989761164e-02 -3.4646357398631172e-02 3.4428540192520007e-02 3.2864768145697637e-02 -1.9998527598531587e-02 -2.8318725221305657e-02 1.0472990380085673e-02 4.9973160180627696e-02 -3.8213931045335457e-02 3.8044860100121536e-03 -1.1043583277257213e-03 5.8369175772237866e-03 8.4312605840824832e-03 2.6584436150427493e-02 -1.2251879407008198e-02 4.4098620876420469e-04 -7.1526711595122638e-03 1.3071759862148785e-02 -1.4212070981732161e-02 6.4197510399309765e-03 -6.6127139671137064e-02 3.8571248954739068e-03 7.5915947572884113e-02 -1.4934519160715707e-02 7.6581824161494894e-02 2.7541120401746499e-02 -3.9883782587013528e-04 -2.1246866223766370e-03 -1.0090308459083785e-01 2.4228560830711343e-02 -1.4302666312134477e-02 -1.1422643312051756e-02 2.6336369023822560e-02 1.1125079725438636e-03 5.1899797237091261e-02 -6.6048605540616853e-02 1.5686253973504660e-02 1.2252291674492627e-02 -5.0703569876941010e-02 6.1015142233358244e-03 -1.0020550735758832e-01 -1.2026953746425428e-02 1.4175022959477285e-02 -1.7339122203641949e-02 -4.5169559289543249e-02 -9.8587287144544039e-02 2.1694564780504688e-02 -1.2669496653171727e-02 -5.8307951460176421e-03 1.7591450791493157e-03 2.1125614167707307e-02 -2.6735820302150715e-02 -7.0782479122361575e-03 -9.8846205599600889e-04 2.4977498789105726e-02 7.6453498330489884e-03 1.1240462936714574e-02 -4.4479926791330948e-02 1.1894219632140046e-04 -8.3113367996537069e-03 -1.0767983007276494e-02 -1.8812254233101289e-02 -1.7199432132175396e-01 -4.9550053869638067e-03 1.3058903005039757e-02 4.0379038906298410e-02 2.3295584379443401e-02 4.5462344251710307e-02 7.3744575363737944e-03 -2.5490658857742882e-03 -5.8447755750080488e-02 4.5054409807572249e-03 -8.9440066416768271e-04 4.3830994964211278e-02 5.8948694479430602e-02 4.8095035825252097e-02 -1.5119302457718475e-02 6.0909842211123932e-01 -9.0096327581214941e-02 -2.7559788468016655e-02 -2.6485911413892671e-02 -2.3016997736116818e-02 2.0213542107135885e-02 -1.1052942020142731e-02 -1.1585221219003070e-01 -1.4883871467882984e-01 -9.1287490292897289e-03 -3.6423089316213755e-02 -5.3129392644693629e-02 1.5615461268643216e-03 2.2915975776775160e-02 5.9626243229133347e-03 -1.1678552066553065e-02 -3.1296990877999753e-02 1.7810626550835373e-02 1.4807847892346666e-02 5.7557660931952526e-03 1.1751835120589405e-02 -7.6393551415963601e-03 -1.9570394663458252e-02 5.3460274159859988e-03 2.8501558852482012e-03 8.6672093424256857e-02 4.8422112718542465e-03 7.2936315222251746e-03 -1.0557217162858221e-02 -3.4305156197074194e-03 -1.6893640518766545e-03 3.6649529701704431e-04 -1.8390420276340538e-02 -5.1673813996787679e-03 4.0426810898714610e-02 1.8343920586748996e-02 -1.7459576551477826e-03 2.9156397330634187e-02 1.0589123630887570e-02 1.6608461350944397e-03 7.8984608454345254e-02 -1.0617216469295337e-02 -1.5740198758906476e-02 -2.0120589521608334e-03 3.8687507702607149e-02 9.4446791006188215e-03 -2.7866763694608498e-02 -1.6663889817830985e-02 -1.7811887033189505e-02 6.7174117209716000e-02 -3.8384164218628003e-02 -2.2421696031520319e-02 2.0300722738923221e-02 -2.7681967997515711e-02 2.9137023193855360e-02 -6.5859008958624232e-01 -2.2608457090591214e-03 -3.0639670283843567e-02 5.3809293097402934e-02 6.5756241662160680e-02 -1.7507219873901136e-02 3.2724326001532231e-02 -2.7245338270130148e-02 1.4228447809978545e-01 -1.4942128158691101e-02 5.7384989071859044e-03 -1.1712780585296753e-02 -1.5723116044406016e-03 2.2670667595980243e-02 4.1681940688005348e-02 -1.4222321761334158e-02 -1.0740633147554787e-02 1.2716511152769006e-02 8.7187557823656475e-02 -6.4459077800571585e-04 3.0931940296387225e-02 
      </Row>
      <Row Index="9">
