<?xml version="1.0"?>
<MethodSetup Method="MLP::MLP">
  <GeneralInfo>
    <Info name="TMVA Release" value="4.2.0 [262656]"/>
    <Info name="ROOT Release" value="5.28/00 [334848]"/>
    <Info name="Creator" value="han"/>
    <Info name="Date" value="Thu Sep 10 08:24:15 2020"/>
    <Info name="Host" value="Linux sukla01 3.10.0-327.36.3.el7.x86_64 #1 SMP Thu Oct 20 04:56:07 EDT 2016 x86_64 x86_64 x86_64 GNU/Linux"/>
    <Info name="Dir" value="/disk02/usr6/han/gd/ntgd/ntgd"/>
    <Info name="Training events" value="2882689"/>
    <Info name="TrainingTime" value="4.23383841e+04"/>
    <Info name="AnalysisType" value="Classification"/>
  </GeneralInfo>
  <Options>
    <Option name="NCycles" modified="Yes">600</Option>
    <Option name="HiddenLayers" modified="Yes">N+5</Option>
    <Option name="NeuronType" modified="Yes">tanh</Option>
    <Option name="RandomSeed" modified="No">1</Option>
    <Option name="EstimatorType" modified="No">MSE</Option>
    <Option name="NeuronInputType" modified="No">sum</Option>
    <Option name="V" modified="Yes">False</Option>
    <Option name="VerbosityLevel" modified="No">Default</Option>
    <Option name="VarTransform" modified="Yes">N</Option>
    <Option name="H" modified="Yes">True</Option>
    <Option name="CreateMVAPdfs" modified="No">False</Option>
    <Option name="IgnoreNegWeightsInTraining" modified="No">False</Option>
    <Option name="TrainingMethod" modified="No">BP</Option>
    <Option name="LearningRate" modified="No">2.000000e-02</Option>
    <Option name="DecayRate" modified="No">1.000000e-02</Option>
    <Option name="TestRate" modified="Yes">5</Option>
    <Option name="EpochMonitoring" modified="No">False</Option>
    <Option name="Sampling" modified="No">1.000000e+00</Option>
    <Option name="SamplingEpoch" modified="No">1.000000e+00</Option>
    <Option name="SamplingImportance" modified="No">1.000000e+00</Option>
    <Option name="SamplingTraining" modified="No">True</Option>
    <Option name="SamplingTesting" modified="No">False</Option>
    <Option name="ResetStep" modified="No">50</Option>
    <Option name="Tau" modified="No">3.000000e+00</Option>
    <Option name="BPMode" modified="No">sequential</Option>
    <Option name="BatchSize" modified="No">-1</Option>
    <Option name="ConvergenceImprove" modified="No">1.000000e-30</Option>
    <Option name="ConvergenceTests" modified="No">-1</Option>
    <Option name="UseRegulator" modified="Yes">False</Option>
    <Option name="UpdateLimit" modified="No">10000</Option>
    <Option name="CalculateErrors" modified="No">False</Option>
    <Option name="WeightRange" modified="No">1.000000e+00</Option>
  </Options>
  <Variables NVar="23">
    <Variable VarIndex="0" Expression="N200" Label="N200" Title="N200" Unit="" Internal="N200" Type="I" Min="7.00000000e+00" Max="3.28000000e+02"/>
    <Variable VarIndex="1" Expression="ReconCT" Label="ReconCT" Title="ReconCT" Unit="" Internal="ReconCT" Type="F" Min="2.00124341e+03" Max="5.34947250e+05"/>
    <Variable VarIndex="2" Expression="N10" Label="N10" Title="N10" Unit="" Internal="N10" Type="I" Min="7.00000000e+00" Max="5.00000000e+01"/>
    <Variable VarIndex="3" Expression="N50" Label="N50" Title="N50" Unit="" Internal="N50" Type="I" Min="7.00000000e+00" Max="7.00000000e+01"/>
    <Variable VarIndex="4" Expression="QSum10" Label="QSum10" Title="QSum10" Unit="" Internal="QSum10" Type="F" Min="7.40958273e-01" Max="3.87809448e+02"/>
    <Variable VarIndex="5" Expression="TSpread10" Label="TSpread10" Title="TSpread10" Unit="" Internal="TSpread10" Type="F" Min="6.25000000e-01" Max="1.00000000e+01"/>
    <Variable VarIndex="6" Expression="TRMS10" Label="TRMS10" Title="TRMS10" Unit="" Internal="TRMS10" Type="F" Min="2.13648260e-01" Max="4.81041956e+00"/>
    <Variable VarIndex="7" Expression="TRMS50" Label="TRMS50" Title="TRMS50" Unit="" Internal="TRMS50" Type="F" Min="5.14846519e-02" Max="1.64199219e+01"/>
    <Variable VarIndex="8" Expression="Beta1" Label="Beta1" Title="Beta1" Unit="" Internal="Beta1" Type="F" Min="-1.66489258e-01" Max="9.99632418e-01"/>
    <Variable VarIndex="9" Expression="Beta2" Label="Beta2" Title="Beta2" Unit="" Internal="Beta2" Type="F" Min="-1.63875788e-01" Max="9.98897672e-01"/>
    <Variable VarIndex="10" Expression="Beta3" Label="Beta3" Title="Beta3" Unit="" Internal="Beta3" Type="F" Min="-1.62490681e-01" Max="9.97796118e-01"/>
    <Variable VarIndex="11" Expression="Beta4" Label="Beta4" Title="Beta4" Unit="" Internal="Beta4" Type="F" Min="-1.53517544e-01" Max="9.96329069e-01"/>
    <Variable VarIndex="12" Expression="Beta5" Label="Beta5" Title="Beta5" Unit="" Internal="Beta5" Type="F" Min="-1.51647344e-01" Max="9.94497597e-01"/>
    <Variable VarIndex="13" Expression="BSenergy" Label="BSenergy" Title="BSenergy" Unit="" Internal="BSenergy" Type="F" Min="0.00000000e+00" Max="9.99900000e+03"/>
    <Variable VarIndex="14" Expression="BSwall" Label="BSwall" Title="BSwall" Unit="" Internal="BSwall" Type="F" Min="-1.24507217e+04" Max="1.69000000e+03"/>
    <Variable VarIndex="15" Expression="BSgood" Label="BSgood" Title="BSgood" Unit="" Internal="BSgood" Type="F" Min="0.00000000e+00" Max="9.99900000e+03"/>
    <Variable VarIndex="16" Expression="BSdirks" Label="BSdirks" Title="BSdirks" Unit="" Internal="BSdirks" Type="F" Min="4.35982160e-02" Max="9.99900000e+03"/>
    <Variable VarIndex="17" Expression="BSpatlik" Label="BSpatlik" Title="BSpatlik" Unit="" Internal="BSpatlik" Type="F" Min="-2.46645355e+00" Max="9.99900000e+03"/>
    <Variable VarIndex="18" Expression="BSovaq" Label="BSovaq" Title="BSovaq" Unit="" Internal="BSovaq" Type="F" Min="-1.00000000e+00" Max="8.81076097e-01"/>
    <Variable VarIndex="19" Expression="DWalln" Label="DWalln" Title="DWalln" Unit="" Internal="DWalln" Type="F" Min="9.76562500e-04" Max="1.68876477e+03"/>
    <Variable VarIndex="20" Expression="prompt_bonsai" Label="prompt_bonsai" Title="prompt_bonsai" Unit="" Internal="prompt_bonsai" Type="F" Min="1.35710263e+00" Max="1.94182344e+04"/>
    <Variable VarIndex="21" Expression="prompt_nfit" Label="prompt_nfit" Title="prompt_nfit" Unit="" Internal="prompt_nfit" Type="F" Min="2.09211826e+00" Max="4.50909814e+03"/>
    <Variable VarIndex="22" Expression="bonsai_nfit" Label="bonsai_nfit" Title="bonsai_nfit" Unit="" Internal="bonsai_nfit" Type="F" Min="1.15801704e+00" Max="1.97239023e+04"/>
  </Variables>
  <Spectators NSpec="0"/>
  <Classes NClass="2">
    <Class Name="Signal" Index="0"/>
    <Class Name="Background" Index="1"/>
  </Classes>
  <Transformations NTransformations="1">
    <Transform Name="Normalize">
      <Selection>
        <Input NInputs="23">
          <Input Type="Variable" Label="N200" Expression="N200"/>
          <Input Type="Variable" Label="ReconCT" Expression="ReconCT"/>
          <Input Type="Variable" Label="N10" Expression="N10"/>
          <Input Type="Variable" Label="N50" Expression="N50"/>
          <Input Type="Variable" Label="QSum10" Expression="QSum10"/>
          <Input Type="Variable" Label="TSpread10" Expression="TSpread10"/>
          <Input Type="Variable" Label="TRMS10" Expression="TRMS10"/>
          <Input Type="Variable" Label="TRMS50" Expression="TRMS50"/>
          <Input Type="Variable" Label="Beta1" Expression="Beta1"/>
          <Input Type="Variable" Label="Beta2" Expression="Beta2"/>
          <Input Type="Variable" Label="Beta3" Expression="Beta3"/>
          <Input Type="Variable" Label="Beta4" Expression="Beta4"/>
          <Input Type="Variable" Label="Beta5" Expression="Beta5"/>
          <Input Type="Variable" Label="BSenergy" Expression="BSenergy"/>
          <Input Type="Variable" Label="BSwall" Expression="BSwall"/>
          <Input Type="Variable" Label="BSgood" Expression="BSgood"/>
          <Input Type="Variable" Label="BSdirks" Expression="BSdirks"/>
          <Input Type="Variable" Label="BSpatlik" Expression="BSpatlik"/>
          <Input Type="Variable" Label="BSovaq" Expression="BSovaq"/>
          <Input Type="Variable" Label="DWalln" Expression="DWalln"/>
          <Input Type="Variable" Label="prompt_bonsai" Expression="prompt_bonsai"/>
          <Input Type="Variable" Label="prompt_nfit" Expression="prompt_nfit"/>
          <Input Type="Variable" Label="bonsai_nfit" Expression="bonsai_nfit"/>
        </Input>
        <Output NOutputs="23">
          <Output Type="Variable" Label="N200" Expression="N200"/>
          <Output Type="Variable" Label="ReconCT" Expression="ReconCT"/>
          <Output Type="Variable" Label="N10" Expression="N10"/>
          <Output Type="Variable" Label="N50" Expression="N50"/>
          <Output Type="Variable" Label="QSum10" Expression="QSum10"/>
          <Output Type="Variable" Label="TSpread10" Expression="TSpread10"/>
          <Output Type="Variable" Label="TRMS10" Expression="TRMS10"/>
          <Output Type="Variable" Label="TRMS50" Expression="TRMS50"/>
          <Output Type="Variable" Label="Beta1" Expression="Beta1"/>
          <Output Type="Variable" Label="Beta2" Expression="Beta2"/>
          <Output Type="Variable" Label="Beta3" Expression="Beta3"/>
          <Output Type="Variable" Label="Beta4" Expression="Beta4"/>
          <Output Type="Variable" Label="Beta5" Expression="Beta5"/>
          <Output Type="Variable" Label="BSenergy" Expression="BSenergy"/>
          <Output Type="Variable" Label="BSwall" Expression="BSwall"/>
          <Output Type="Variable" Label="BSgood" Expression="BSgood"/>
          <Output Type="Variable" Label="BSdirks" Expression="BSdirks"/>
          <Output Type="Variable" Label="BSpatlik" Expression="BSpatlik"/>
          <Output Type="Variable" Label="BSovaq" Expression="BSovaq"/>
          <Output Type="Variable" Label="DWalln" Expression="DWalln"/>
          <Output Type="Variable" Label="prompt_bonsai" Expression="prompt_bonsai"/>
          <Output Type="Variable" Label="prompt_nfit" Expression="prompt_nfit"/>
          <Output Type="Variable" Label="bonsai_nfit" Expression="bonsai_nfit"/>
        </Output>
      </Selection>
      <Class ClassIndex="0">
        <Ranges>
          <Range Index="0" Min="1.0000000000000000e+01" Max="8.6000000000000000e+01"/>
          <Range Index="1" Min="2.0012434082031250e+03" Max="1.3432401562500000e+05"/>
          <Range Index="2" Min="7.0000000000000000e+00" Max="5.0000000000000000e+01"/>
          <Range Index="3" Min="7.0000000000000000e+00" Max="7.0000000000000000e+01"/>
          <Range Index="4" Min="2.5006875991821289e+00" Max="1.6309651184082031e+02"/>
          <Range Index="5" Min="1.2045898437500000e+00" Max="1.0000000000000000e+01"/>
          <Range Index="6" Min="4.0958687663078308e-01" Max="4.4855685234069824e+00"/>
          <Range Index="7" Min="1.9781260192394257e-01" Max="1.4267951965332031e+01"/>
          <Range Index="8" Min="-1.5007036924362183e-01" Max="9.6221917867660522e-01"/>
          <Range Index="9" Min="-1.4869862794876099e-01" Max="8.9085263013839722e-01"/>
          <Range Index="10" Min="-1.4737832546234131e-01" Max="7.9369443655014038e-01"/>
          <Range Index="11" Min="-1.4640793204307556e-01" Max="7.6422852277755737e-01"/>
          <Range Index="12" Min="-1.3427324593067169e-01" Max="6.8446487188339233e-01"/>
          <Range Index="13" Min="1.5540670156478882e+00" Max="9.9990000000000000e+03"/>
          <Range Index="14" Min="-1.2450721679687500e+04" Max="1.6711250000000000e+03"/>
          <Range Index="15" Min="9.9544242024421692e-02" Max="9.9990000000000000e+03"/>
          <Range Index="16" Min="5.7536739856004715e-02" Max="9.9990000000000000e+03"/>
          <Range Index="17" Min="-2.3201324939727783e+00" Max="9.9990000000000000e+03"/>
          <Range Index="18" Min="-4.9045401811599731e-01" Max="6.5073448419570923e-01"/>
          <Range Index="19" Min="9.7656250000000000e-04" Max="1.6667652587890625e+03"/>
          <Range Index="20" Min="1.3571026325225830e+00" Max="1.9192802734375000e+04"/>
          <Range Index="21" Min="2.3479342460632324e+00" Max="2.6508952636718750e+03"/>
          <Range Index="22" Min="2.0275955200195312e+00" Max="1.9177501953125000e+04"/>
        </Ranges>
      </Class>
      <Class ClassIndex="1">
        <Ranges>
          <Range Index="0" Min="7.0000000000000000e+00" Max="3.2800000000000000e+02"/>
          <Range Index="1" Min="2.0038515625000000e+03" Max="5.3494725000000000e+05"/>
          <Range Index="2" Min="7.0000000000000000e+00" Max="2.6000000000000000e+01"/>
          <Range Index="3" Min="7.0000000000000000e+00" Max="6.8000000000000000e+01"/>
          <Range Index="4" Min="7.4095827341079712e-01" Max="3.8780944824218750e+02"/>
          <Range Index="5" Min="6.2500000000000000e-01" Max="1.0000000000000000e+01"/>
          <Range Index="6" Min="2.1364825963973999e-01" Max="4.8104195594787598e+00"/>
          <Range Index="7" Min="5.1484651863574982e-02" Max="1.6419921875000000e+01"/>
          <Range Index="8" Min="-1.6648925840854645e-01" Max="9.9963241815567017e-01"/>
          <Range Index="9" Min="-1.6387578845024109e-01" Max="9.9889767169952393e-01"/>
          <Range Index="10" Min="-1.6249068081378937e-01" Max="9.9779611825942993e-01"/>
          <Range Index="11" Min="-1.5351754426956177e-01" Max="9.9632906913757324e-01"/>
          <Range Index="12" Min="-1.5164734423160553e-01" Max="9.9449759721755981e-01"/>
          <Range Index="13" Min="0.0000000000000000e+00" Max="9.9990000000000000e+03"/>
          <Range Index="14" Min="-1.2450721679687500e+04" Max="1.6900000000000000e+03"/>
          <Range Index="15" Min="0.0000000000000000e+00" Max="9.9990000000000000e+03"/>
          <Range Index="16" Min="4.3598216027021408e-02" Max="9.9990000000000000e+03"/>
          <Range Index="17" Min="-2.4664535522460938e+00" Max="9.9990000000000000e+03"/>
          <Range Index="18" Min="-1.0000000000000000e+00" Max="8.8107609748840332e-01"/>
          <Range Index="19" Min="9.7656250000000000e-04" Max="1.6887647705078125e+03"/>
          <Range Index="20" Min="3.1877620220184326e+00" Max="1.9418234375000000e+04"/>
          <Range Index="21" Min="2.0921182632446289e+00" Max="4.5090981445312500e+03"/>
          <Range Index="22" Min="1.1580170392990112e+00" Max="1.9723902343750000e+04"/>
        </Ranges>
      </Class>
      <Class ClassIndex="2">
        <Ranges>
          <Range Index="0" Min="7.0000000000000000e+00" Max="3.2800000000000000e+02"/>
          <Range Index="1" Min="2.0012434082031250e+03" Max="5.3494725000000000e+05"/>
          <Range Index="2" Min="7.0000000000000000e+00" Max="5.0000000000000000e+01"/>
          <Range Index="3" Min="7.0000000000000000e+00" Max="7.0000000000000000e+01"/>
          <Range Index="4" Min="7.4095827341079712e-01" Max="3.8780944824218750e+02"/>
          <Range Index="5" Min="6.2500000000000000e-01" Max="1.0000000000000000e+01"/>
          <Range Index="6" Min="2.1364825963973999e-01" Max="4.8104195594787598e+00"/>
          <Range Index="7" Min="5.1484651863574982e-02" Max="1.6419921875000000e+01"/>
          <Range Index="8" Min="-1.6648925840854645e-01" Max="9.9963241815567017e-01"/>
          <Range Index="9" Min="-1.6387578845024109e-01" Max="9.9889767169952393e-01"/>
          <Range Index="10" Min="-1.6249068081378937e-01" Max="9.9779611825942993e-01"/>
          <Range Index="11" Min="-1.5351754426956177e-01" Max="9.9632906913757324e-01"/>
          <Range Index="12" Min="-1.5164734423160553e-01" Max="9.9449759721755981e-01"/>
          <Range Index="13" Min="0.0000000000000000e+00" Max="9.9990000000000000e+03"/>
          <Range Index="14" Min="-1.2450721679687500e+04" Max="1.6900000000000000e+03"/>
          <Range Index="15" Min="0.0000000000000000e+00" Max="9.9990000000000000e+03"/>
          <Range Index="16" Min="4.3598216027021408e-02" Max="9.9990000000000000e+03"/>
          <Range Index="17" Min="-2.4664535522460938e+00" Max="9.9990000000000000e+03"/>
          <Range Index="18" Min="-1.0000000000000000e+00" Max="8.8107609748840332e-01"/>
          <Range Index="19" Min="9.7656250000000000e-04" Max="1.6887647705078125e+03"/>
          <Range Index="20" Min="1.3571026325225830e+00" Max="1.9418234375000000e+04"/>
          <Range Index="21" Min="2.0921182632446289e+00" Max="4.5090981445312500e+03"/>
          <Range Index="22" Min="1.1580170392990112e+00" Max="1.9723902343750000e+04"/>
        </Ranges>
      </Class>
    </Transform>
  </Transformations>
  <MVAPdfs/>
  <Weights>
    <Layout NLayers="3">
      <Layer Index="0" NNeurons="24">
        <Neuron NSynapses="28">
          -3.3597487504525425e-01 1.6551975312431175e+00 1.2944381014883082e+00 1.4132526755097228e+00 -1.4600749670906048e+00 -1.6438787389046521e+00 -6.7336902766643503e-01 1.6203392619482280e+00 -2.2260358967529541e+00 -6.9425639551316365e-01 -1.1391179926003407e+00 -1.2133491009753616e+00 -1.1259647463336631e+00 -6.9024446076942836e-01 -1.5200119794260587e+00 6.8116965322676959e-01 -1.3362896086534740e-01 2.1566836911781664e+00 4.9952285365739263e-01 9.3605371382485869e-01 -3.7468729408052365e-01 -3.3841000679633302e+00 6.5309431967650178e-01 3.7485993183378941e-01 -6.6887718289891773e-01 -3.8784592636538429e-01 2.3471915054073875e+00 -8.7154045585345907e-01 
        </Neuron>
        <Neuron NSynapses="28">
          3.9498542566378100e-03 1.7681443416553266e-01 6.0905300358629333e-01 9.5535281999603627e-01 2.1799477368905164e-02 -9.1767004874072938e-02 -9.8928356324756495e-02 -4.0109887841402742e-01 -3.1299056658013324e+01 4.5919913907472319e-02 -1.7719546296414257e-01 1.6268138642838958e+00 1.0192069903187384e+00 9.6355626090721944e-02 2.8895769741118680e+00 -8.3825240981049473e-02 -1.9004170694696573e-01 -1.5368545070169588e+00 -5.7413917760382782e-01 -1.2072539089035531e-01 1.4793523610317680e+00 7.8583411819987319e+00 -9.8283339229161590e-02 5.6892085658599789e-01 -1.6911601166963952e+00 1.2945157940186183e+00 -1.4237722018184338e+00 -3.1946537633173313e+00 
        </Neuron>
        <Neuron NSynapses="28">
          -1.1610481102362795e+00 -2.0122736599418891e+00 1.9572870321810230e+00 2.9394153311575749e-01 -1.0373857703534941e+00 1.5544262458425068e-01 -2.5008338884271814e-01 2.3782577623045698e-01 1.1643188516257318e+01 2.9642121405733535e-01 7.5263286655657746e-01 -2.1103861031200313e+00 5.6432868525216306e-01 -7.5100210908852350e-01 -2.8920953795267641e+00 -1.4203537352572129e+00 1.0137439728518136e+00 1.8280513387960542e+00 1.9462978740654335e+00 -5.3732667435409009e-01 -1.9793509452691618e+00 -7.4460851186457049e+00 1.0805839375656718e+00 7.4469550844568033e-01 2.5266039018736026e+00 4.6872536817715127e-01 1.8852177371403855e+00 -7.7828055088699910e-01 
        </Neuron>
        <Neuron NSynapses="28">
          -2.7622289084258417e-01 -6.0889603006395532e-01 1.4880279545392037e+00 -1.2888283544241816e+00 -7.7260648842221735e-01 -1.8492480495196653e+00 -1.0234575811031917e-01 -3.8065378756593760e-01 3.2701520942475354e-01 -1.1085553338069878e+00 -1.8735708997976955e-01 8.3439732814663481e-01 -8.1411757863302170e-01 -1.3233145255862140e+00 -3.1562064742951690e+00 8.3917673262134521e-02 -1.6378604630262823e+00 -1.0947426984779400e+00 8.6720067033922210e-01 1.0447684137596294e+00 -1.2068963624744147e+00 -1.7572724269975873e-01 -1.0189623494066737e+00 -5.0456352447518116e-01 4.4973781524182604e-01 1.7141147219741981e-01 -8.6708225676445871e-01 2.3728164939610084e-02 
        </Neuron>
        <Neuron NSynapses="28">
          1.4955615279321452e-01 2.0148001730355825e-01 -1.0355008802793173e+00 1.4353740993255699e+00 7.7441100017831144e-01 -1.1318658079866462e+00 8.5367419179706017e-01 -1.5531467452306402e+00 -4.1660198080482669e+00 5.0271372214136112e-01 1.3770032998681889e-01 1.0193425611272817e+00 5.8632295599407769e-01 -3.5213813429661978e-01 -1.6496663449576900e+00 1.6448473773134623e-01 -1.4469667972255349e+00 1.5285799146286925e+00 6.1951766694361987e-01 -2.0362909763791261e+00 6.0192734405888326e-01 -2.7935919874724218e+00 3.9815176891611737e-02 1.4436719891623964e+00 2.3143410048826882e+00 -2.0553373350112780e+00 1.1779396666221100e+00 2.2184865898555017e+00 
        </Neuron>
        <Neuron NSynapses="28">
          6.9965559362908636e-01 3.0451327101307812e-01 -1.7388206260385879e+00 -7.8800118469225314e-03 -4.1824319605634880e-01 1.5267941318637013e+00 -3.0227178200770560e-01 -2.7008253548799810e-01 2.2747102860257962e-01 3.6911039666682098e-02 -5.8300926851934909e-01 1.4004650451269254e+00 1.7312166975351675e+00 -2.4175959845804429e-01 -3.0922652668328277e-01 5.9757042359994650e-01 6.4648789123949968e-01 2.2862119765806807e-01 5.3829258636472144e-02 -1.0237199393697802e+00 1.5727149126714952e+00 4.5083332874971384e-02 5.5897302489672207e-01 1.0465481754604436e-01 -3.2532270869711627e-01 -4.5629658218849301e-01 -1.0849729925863267e+00 5.3124817717318897e-02 
        </Neuron>
        <Neuron NSynapses="28">
          -8.4655010155200494e-01 -3.2110349414205791e-01 1.5343414882058550e+00 9.7883631332536647e-01 4.1101829827703784e-01 1.4193113521381708e+00 5.9973114734739408e-01 -1.8214341019914548e+00 -1.4138018055454744e+00 -9.3322528343864036e-02 5.8607142461348138e-01 -1.0836132953136153e+00 -1.5309218719379296e+00 5.4162322323358580e-01 1.1530987079979267e+00 -7.7663103086795371e-01 -2.6962084124916125e-01 -6.4742646669492498e-01 -3.8814868261582453e-01 1.1130266001854634e+00 -3.5390669789778106e-01 9.0792886221851166e-01 -7.0428746971119027e-01 7.6744362168534708e-01 5.6001887308183829e-01 1.1124726507419245e+00 2.8374082967915865e-01 -4.7416193937637946e-01 
        </Neuron>
        <Neuron NSynapses="28">
          5.7448839535650074e-02 4.3911647843614225e-02 3.9394335900182870e-01 -8.1076819229259922e-01 5.4572301008490899e-02 2.7577236585721632e-01 1.6461516367337400e-01 -1.5282719348500100e+00 -3.5212640917517563e-01 1.2810848628144811e-01 6.0324833197343740e-02 5.6950906741381979e-01 1.3946575809431745e+00 2.5140434512244747e-01 1.2657590028453076e+00 -9.3364778124033904e-02 -1.3196105494056078e+00 -3.8300700151519507e-01 -8.6569517278353610e-03 -2.5409508252014418e-01 7.0908656148461158e-01 7.5132560859124842e-01 2.9399354214633339e-01 -1.1596162946852777e+00 -8.2367243661280121e-01 -2.4958350167164098e-01 -5.7179684444165191e-01 6.7005491920316673e-01 
        </Neuron>
        <Neuron NSynapses="28">
          1.9369618014060924e-02 -5.2475886629065327e-01 7.5877791135293493e-01 1.5084643689481014e-01 -2.4541239245025934e-01 -9.6450440212112709e-01 4.2706107559687950e-01 4.7067363159509013e-01 -5.9429667470515801e-01 -1.9095147645481278e-01 -3.4479486549354899e-02 -1.5462992572446401e+00 8.3463260419570517e-01 7.2823469258257459e-02 -6.7378943537318570e-01 -1.0828993715052077e-01 -1.6387704905363090e+00 -8.1570401586307684e-01 -5.1624651845881586e-01 -9.3376781867816852e-02 -1.8316221632794949e+00 5.1537388900180270e-01 -8.2634979208347087e-02 -1.2703133359740664e+00 -1.1802755013217632e-01 -6.9804528216162753e-01 3.0473431255114769e-01 -2.8206040404774542e+00 
        </Neuron>
        <Neuron NSynapses="28">
          1.4312829646140546e-01 1.1994182525062869e+00 1.4620656414750723e+00 -5.7562135551753202e-01 2.8945804539456273e-02 -1.0254375073207331e+00 -5.4670782312521460e-01 -1.2945323656068273e+00 -1.1148327123425344e-01 3.9281548925346782e-01 9.6571233968688541e-01 5.5223127204777886e-02 3.0907404417694534e-01 -3.0982799081261370e-01 6.6775361102293251e-01 9.4674419407345689e-01 9.8400644674260496e-01 -8.7951929720286315e-01 -4.5320011805519167e-01 9.3136946599873838e-01 1.2850250348327230e+00 8.9202158239377505e-01 -1.9771186971191465e-01 2.0550351569541263e-02 5.9264136489683550e-01 1.1507839876310935e+00 1.2725446571250021e+00 -1.7480018283509591e-01 
        </Neuron>
        <Neuron NSynapses="28">
          4.0525300704058731e-01 -4.7264495868557421e-01 -1.2443532786135483e+00 -3.2387170228379741e-01 -2.9075190981235416e-01 -1.3906660764252121e+00 -9.9940888011807660e-01 1.8158001800423438e+00 -1.4406915219053587e+00 1.6383669689374933e+00 -1.4655081189818511e+00 9.0062438945945011e-01 -9.4194153989250695e-01 7.2022224719579786e-01 1.4923763907408685e+00 -1.0621624759921264e+00 9.5217335640302395e-02 2.0690375243711454e-02 -1.4219274213977637e+00 -9.6435651282204682e-01 -1.6544344608178960e+00 2.2108156211254708e+00 1.3514377914332798e+00 -2.5122988062839363e-01 -1.2338799367255823e-01 -7.4919858388954741e-01 -8.1875410259673065e-01 -5.4133380592680380e-01 
        </Neuron>
        <Neuron NSynapses="28">
          -6.3015669921141726e-01 -1.2552943027204368e+00 1.1311651398768028e+00 -1.1642615364583542e+00 3.2782650551990075e-02 1.7081408867855483e+00 3.1857353630180030e-01 -4.2133727364694756e-01 -1.0445720402972596e+00 -9.8705991306017982e-01 1.0805752912902480e+00 8.8133024992270703e-01 -9.0101013599080060e-01 -1.5769682517217323e-01 7.3487183044853432e-01 -6.4557199191719117e-01 2.6510843073871726e-01 1.1919901763416874e+00 1.4228319648111596e+00 1.3997832610730627e+00 -1.3158459366462707e+00 1.8268329471140483e+00 -1.3233665624291238e+00 8.8177567116034561e-01 -1.6932309689424223e+00 -1.6994710113577427e+00 3.6081639136511789e-01 -3.1546747484264520e-01 
        </Neuron>
        <Neuron NSynapses="28">
          2.8525388030324578e-01 7.5690555536434501e-01 4.4155894750545938e-01 -6.2633452705371642e-02 2.8640610295994229e-01 7.3544560867158632e-02 1.6712436735453795e+00 -1.3898421173490327e+00 -1.1168352392989471e+00 -5.1140949295447269e-01 -4.1393917402268660e-01 9.1611496827589595e-02 3.0739590444081766e-01 -3.0345322583178941e-01 1.5003963369642563e+00 1.2848151964163466e+00 4.5137336938129935e-01 -5.7166006458342500e-01 -4.7391344914455580e-01 -9.5755265499573072e-01 -1.6798584404801540e+00 2.3402772266731802e+00 -4.6847019481281406e-03 -8.4930407014429976e-01 3.6587618475738304e-01 -1.5722802962955094e+00 -7.3066275303294392e-01 -7.2803033371898862e-01 
        </Neuron>
        <Neuron NSynapses="28">
          7.9000601058177145e-01 -1.4859335277942769e+00 -2.1243072956255316e+00 -6.9793904177469479e-01 -6.3521206509145423e-01 -1.5605514021194973e+00 1.2650898294954454e+00 -1.1184857390482112e+00 -1.3382735336808143e+00 1.8566563062233545e+00 -5.6531926335589822e-01 -1.1979448827100435e-02 -2.6177385751499166e-01 8.2287883866363043e-01 8.5701200116458531e-01 5.9144975556353652e-01 -3.6636170018946640e-01 -5.7429576224950152e-01 -9.6005615240748765e-01 1.1584384834375072e+00 8.8698254386722830e-01 -8.2698356514165694e-01 3.3916659571128804e-01 8.0503768851296975e-01 1.8683629127370103e+00 -1.5053267446977898e+00 1.2119468481635409e+00 8.7384405339137539e-01 
        </Neuron>
        <Neuron NSynapses="28">
          -1.6257530266234395e+00 -1.3460867943351099e-01 -6.7036416030533552e-01 1.6901827652161139e+00 1.6108773631184686e-01 1.0310354572791667e+00 1.6774491809689225e+00 5.3157113636598097e-01 1.1911726403333378e+00 1.1922897680188824e+00 1.1493829434819812e-01 -7.6923033961208165e-01 2.0368276299058308e+00 -1.4257459940006121e+00 4.2864403903376080e-01 1.4581084147497982e+00 -1.3311750675952279e+00 -1.2241818014560639e+00 -4.0558971221532308e-01 -1.0730569436187913e+00 4.6398666762814783e-01 -6.1125795011057305e-01 3.3353572095437406e-01 -6.0314806695807399e-01 1.2464572931901918e+00 1.3540011697553760e+00 1.4324745670082288e+00 -1.9266968456233595e+00 
        </Neuron>
        <Neuron NSynapses="28">
          -5.9138589554717269e-01 2.8471951483902763e-01 1.4765954372794707e+00 -2.7809575139741360e+00 -8.9518872132000993e-01 -6.1750782981779573e-01 -1.4479965011384708e+00 -2.9469533005791151e+00 2.0412922067255272e+00 1.3352465695779725e+00 2.5703876863639519e-01 -2.5604538672498687e+00 -2.6978244305301446e+00 -5.6186488813572155e-01 1.0928963029092960e+00 2.0261283674002146e+00 2.5893541549489627e+00 -1.2956559573470125e-01 -1.4417545221452257e+00 -4.2221412168168398e-01 -1.3519240704678404e+00 -1.3286605331290540e+00 -8.2492442834436819e-01 5.2189888934307815e-01 -9.1169979127328871e-01 1.3761685682765257e+00 1.6227186641879985e+00 2.1684416515151725e+00 
        </Neuron>
        <Neuron NSynapses="28">
          -8.4242931333182203e-01 -1.0088489870718294e+00 1.3706086529899089e+00 -7.0568620411994754e-01 6.5156682061486559e-01 1.6430712862780910e+00 1.5612523634000535e+00 -7.2559967911907697e-01 1.2944066973655421e+00 -1.7718478140644862e+00 4.9843223212845433e-01 1.5441247551883461e+00 -5.2097645267169423e-01 -8.1630127302309829e-01 -6.5714240541587698e-01 -5.1651347349073062e-01 1.7751517795144525e+00 4.3629797387639840e-01 -8.0410523312925683e-02 -1.2473999673106195e+00 -9.2307446720534495e-02 8.8022896991007382e-01 -3.5333877748109099e-01 -8.8769424796731133e-01 -1.7003521878880121e+00 1.6442478168157564e+00 -1.4191462998172069e-01 -1.0019026263235218e+00 
        </Neuron>
        <Neuron NSynapses="28">
          -1.8659144193529356e-01 -3.1797588142238797e-01 7.4333914003043478e-01 1.3238015654158974e+00 -6.2665059167856996e-01 -8.1538089737115504e-01 1.5999407938595184e-01 1.5688591138927472e+00 5.1120315430280094e-01 -1.1792308597529853e-01 -1.0020869256969829e+00 -6.3773778869960018e-01 7.9046931391312680e-01 -2.2637425808582021e-01 -1.1925186970734850e-01 -1.7918356536750188e+00 -1.3291879437329437e+00 -5.9938389341407960e-01 1.2938053524737732e-02 -8.6301325691577913e-01 6.7412605711812978e-01 -4.0073923889800606e-01 2.7966204726850080e-01 2.6004428539184471e-01 -1.0893292837409476e+00 1.3331159369673853e+00 1.0047520847293765e+00 -2.2214473081010919e-02 
        </Neuron>
        <Neuron NSynapses="28">
          -3.3448433393041521e-01 -8.1414551934766299e-01 1.8281000416984352e+00 -1.5981044310381276e+00 3.2247960870168657e-01 -1.3300048190758462e+00 1.1362650326065198e+00 -1.1831807371725716e+00 2.6458011799053949e-01 -2.8063624093719758e-01 2.3855904836050651e-01 -5.9693405660500898e-01 -1.0113915787727770e+00 6.4725906042590109e-01 2.4294617699409349e-01 6.3960482560525256e-01 1.0175616921993158e+00 -1.5858947363311662e+00 1.1741501401164247e+00 -1.4536829335063046e+00 1.0299039042589360e+00 -1.0465611841123534e-01 6.2371505018814533e-01 1.5215189474127357e+00 1.1492767980437986e+00 -1.9481417620297981e+00 -7.8576438303378193e-01 -1.0246911585041119e+00 
        </Neuron>
        <Neuron NSynapses="28">
          -1.2910839413161679e-02 -5.7100913360642373e-02 3.2436621498774287e-01 -5.3225163680936738e-01 -1.3248210892814594e-01 -1.1296403923198466e+00 5.6053906039776301e-02 -1.3374303441647006e+00 -1.2746860432051149e-01 -1.1396640969765824e-01 -2.3913820706985226e-02 -1.4688700709468558e+00 4.1017465762563493e-01 9.3320242939098505e-02 -1.0108783137633697e+00 -3.2700932619982644e-02 1.1678222702455363e+00 6.7809812042279660e-01 -6.3101451848382603e-02 2.0431266727936027e-02 -1.2604587212286782e+00 -1.2099332249624528e-01 -7.0398583967835757e-02 -1.0617136696754317e+00 2.6855689634878599e-01 -1.2315484961838361e+00 1.1331449896306980e+00 -1.4304526308596044e+00 
        </Neuron>
        <Neuron NSynapses="28">
          8.2786069780077332e-01 1.2752537984273229e+00 1.3274696394696079e+00 4.0182595087067874e-01 6.3559273571572128e-01 4.7421386798128948e-02 -9.0522977453296904e-01 -2.7057001621738008e+00 -1.8124102727646452e+00 -1.1294271092812902e-01 1.4047024356533884e+00 -4.2153054102113868e-02 -2.2064362223909087e-01 8.4734869248989597e-01 1.1649217293814997e+00 -7.3614133219655842e-01 1.1139394352025502e+00 -1.0903069627414357e+00 1.2960704600045243e+00 -1.6223453903365463e+00 3.1799942944776442e-02 -1.4203932926783394e-01 5.4257310526774527e-01 -1.3990652533489243e+00 5.2421088104812363e-01 -1.8381972594103357e+00 1.4791737232507896e-01 1.9445111327610085e+00 
        </Neuron>
        <Neuron NSynapses="28">
          -7.2550406303514836e-01 3.0041509791650189e-01 -1.2522277410017879e+00 7.6093985037357881e-01 9.9226963438106386e-02 6.4541383455954615e-01 -1.2992171110371806e+00 -1.2528873668740796e+00 8.5437690108302891e-02 -1.2880843510764919e+00 -8.0922985781593837e-01 -1.0039848764760579e+00 1.0944332733107300e+00 5.3283520444857724e-01 1.3518540916262405e+00 -1.1741164967392879e+00 9.3777409906813036e-01 6.7935253199518109e-01 7.1004034374644043e-01 -1.2156329662517986e+00 -1.3589966748345399e+00 -8.9861543716245029e-01 2.8301243184598929e-01 1.8115080892313222e+00 -2.5510552522295304e-01 -1.2035673854581941e-01 -3.4809665940110607e-01 2.1548518401057318e-01 
        </Neuron>
        <Neuron NSynapses="28">
          -2.5204569688563144e-01 8.6123606055089041e-01 -1.0327164219610800e+00 -2.1563733763046562e+00 1.5931693317340549e+00 1.3456001756487207e-01 1.6234129789562950e+00 -9.3093158560124456e-01 6.9726542902942246e-01 -4.1537360449640714e-01 -1.5409800912187785e+00 -5.2425254489358253e-01 -1.5526284041200129e+00 -6.1561539192491777e-01 -1.0708527631017295e-01 -1.5353530220445277e-01 1.7257021162018131e+00 -1.3274254710926596e+00 -7.7227741724326482e-01 2.3687029057735609e-01 -1.0560453913431440e+00 8.6209962905271431e-01 7.4265345590976661e-01 -1.2724266739414718e+00 -1.1701543781506137e-01 -1.4891557100990211e+00 7.8709136964275972e-01 9.0456270507840131e-01 
        </Neuron>
        <Neuron NSynapses="28">
          -8.9732415395498799e-01 -4.4203500475718982e-01 -2.1121182454658518e+00 1.9803878126689332e+00 -3.6607236074154459e-01 1.4043718101444758e+00 -1.6884155160672767e-01 -6.3797491957003705e-01 -2.8661117072056825e+01 -1.5812113670608001e+00 1.4447257325907246e-03 1.6499002522306632e+00 3.6891961661401718e-01 -9.8214308881223922e-01 1.3148612270376947e+00 1.3707035938220044e-02 -1.8027047857076346e+00 1.4183312346850108e+00 5.0852606474408069e-01 -1.0818312645680943e+00 -1.0542329501864058e+00 9.7455381197672844e-02 1.5488104381599421e-01 1.2874255600422317e+00 5.7684374706348551e-01 1.0464178425007118e+00 -2.8129255755849072e+00 -1.1955700398418785e+00 
        </Neuron>
      </Layer>
      <Layer Index="1" NNeurons="29">
        <Neuron NSynapses="1">
          -8.2201175575578043e-04 
        </Neuron>
        <Neuron NSynapses="1">
          -8.5379619680825121e-04 
        </Neuron>
        <Neuron NSynapses="1">
          1.0240175480037519e+00 
        </Neuron>
        <Neuron NSynapses="1">
          -5.6382683492727370e-01 
        </Neuron>
        <Neuron NSynapses="1">
          1.1527360472006493e-03 
        </Neuron>
        <Neuron NSynapses="1">
          4.0971122258099596e-02 
        </Neuron>
        <Neuron NSynapses="1">
          -1.5265395445720966e-03 
        </Neuron>
        <Neuron NSynapses="1">
          -1.1119843868088632e+00 
        </Neuron>
        <Neuron NSynapses="1">
          6.3977735107365830e-01 
        </Neuron>
        <Neuron NSynapses="1">
          9.8204147032338604e-04 
        </Neuron>
        <Neuron NSynapses="1">
          -1.9613738716780104e-03 
        </Neuron>
        <Neuron NSynapses="1">
          -3.5969736717238042e-02 
        </Neuron>
        <Neuron NSynapses="1">
          1.1620280033107564e+00 
        </Neuron>
        <Neuron NSynapses="1">
          1.9816078653832046e-03 
        </Neuron>
        <Neuron NSynapses="1">
          -7.2058470206878708e-02 
        </Neuron>
        <Neuron NSynapses="1">
          1.3990327698134601e-03 
        </Neuron>
        <Neuron NSynapses="1">
          -7.0923517540125791e-01 
        </Neuron>
        <Neuron NSynapses="1">
          -1.1362676490705211e-02 
        </Neuron>
        <Neuron NSynapses="1">
          4.6735156314356880e-04 
        </Neuron>
        <Neuron NSynapses="1">
          -2.9315358717533861e-04 
        </Neuron>
        <Neuron NSynapses="1">
          8.3368639531141320e-05 
        </Neuron>
        <Neuron NSynapses="1">
          2.0122615654480813e-01 
        </Neuron>
        <Neuron NSynapses="1">
          -2.6966655915622684e-03 
        </Neuron>
        <Neuron NSynapses="1">
          -1.1540554259664330e-04 
        </Neuron>
        <Neuron NSynapses="1">
          -9.6789131620806103e-05 
        </Neuron>
        <Neuron NSynapses="1">
          -8.2242320802613708e-04 
        </Neuron>
        <Neuron NSynapses="1">
          -5.3373859286952385e-01 
        </Neuron>
        <Neuron NSynapses="1">
          1.9533597815753340e-01 
        </Neuron>
        <Neuron NSynapses="1">
          9.8410284071390519e-01 
        </Neuron>
      </Layer>
      <Layer Index="2" NNeurons="1">
        <Neuron NSynapses="0"/>
      </Layer>
    </Layout>
  </Weights>
</MethodSetup>
