<?xml version="1.0"?>
<MethodSetup Method="MLP::MLP">
  <GeneralInfo>
    <Info name="TMVA Release" value="4.2.0 [262656]"/>
    <Info name="ROOT Release" value="5.28/00 [334848]"/>
    <Info name="Creator" value="han"/>
    <Info name="Date" value="Thu Aug 27 16:01:40 2020"/>
    <Info name="Host" value="Linux sukla01 3.10.0-327.36.3.el7.x86_64 #1 SMP Thu Oct 20 04:56:07 EDT 2016 x86_64 x86_64 x86_64 GNU/Linux"/>
    <Info name="Dir" value="/disk02/usr6/han/gd/ntgd/ntgd"/>
    <Info name="Training events" value="1314136"/>
    <Info name="TrainingTime" value="1.89576507e+04"/>
    <Info name="AnalysisType" value="Classification"/>
  </GeneralInfo>
  <Options>
    <Option name="NCycles" modified="Yes">600</Option>
    <Option name="HiddenLayers" modified="Yes">N+5</Option>
    <Option name="NeuronType" modified="Yes">tanh</Option>
    <Option name="RandomSeed" modified="No">1</Option>
    <Option name="EstimatorType" modified="No">MSE</Option>
    <Option name="NeuronInputType" modified="No">sum</Option>
    <Option name="V" modified="Yes">False</Option>
    <Option name="VerbosityLevel" modified="No">Default</Option>
    <Option name="VarTransform" modified="Yes">N</Option>
    <Option name="H" modified="Yes">True</Option>
    <Option name="CreateMVAPdfs" modified="No">False</Option>
    <Option name="IgnoreNegWeightsInTraining" modified="No">False</Option>
    <Option name="TrainingMethod" modified="No">BP</Option>
    <Option name="LearningRate" modified="No">2.000000e-02</Option>
    <Option name="DecayRate" modified="No">1.000000e-02</Option>
    <Option name="TestRate" modified="Yes">5</Option>
    <Option name="EpochMonitoring" modified="No">False</Option>
    <Option name="Sampling" modified="No">1.000000e+00</Option>
    <Option name="SamplingEpoch" modified="No">1.000000e+00</Option>
    <Option name="SamplingImportance" modified="No">1.000000e+00</Option>
    <Option name="SamplingTraining" modified="No">True</Option>
    <Option name="SamplingTesting" modified="No">False</Option>
    <Option name="ResetStep" modified="No">50</Option>
    <Option name="Tau" modified="No">3.000000e+00</Option>
    <Option name="BPMode" modified="No">sequential</Option>
    <Option name="BatchSize" modified="No">-1</Option>
    <Option name="ConvergenceImprove" modified="No">1.000000e-30</Option>
    <Option name="ConvergenceTests" modified="No">-1</Option>
    <Option name="UseRegulator" modified="Yes">False</Option>
    <Option name="UpdateLimit" modified="No">10000</Option>
    <Option name="CalculateErrors" modified="No">False</Option>
    <Option name="WeightRange" modified="No">1.000000e+00</Option>
  </Options>
  <Variables NVar="23">
    <Variable VarIndex="0" Expression="N10" Label="N10" Title="N10" Unit="" Internal="N10" Type="I" Min="7.00000000e+00" Max="5.00000000e+01"/>
    <Variable VarIndex="1" Expression="dt" Label="dt" Title="dt" Unit="" Internal="dt" Type="F" Min="9.82178955e+02" Max="5.34945375e+05"/>
    <Variable VarIndex="2" Expression="N200" Label="N200" Title="N200" Unit="" Internal="N200" Type="I" Min="7.00000000e+00" Max="8.01000000e+02"/>
    <Variable VarIndex="3" Expression="N50" Label="N50" Title="N50" Unit="" Internal="N50" Type="I" Min="7.00000000e+00" Max="2.97000000e+02"/>
    <Variable VarIndex="4" Expression="sumQ" Label="sumQ" Title="sumQ" Unit="" Internal="sumQ" Type="F" Min="-3.15459490e+00" Max="3.34504456e+02"/>
    <Variable VarIndex="5" Expression="spread" Label="spread" Title="spread" Unit="" Internal="spread" Type="F" Min="1.03125000e+00" Max="1.00000000e+01"/>
    <Variable VarIndex="6" Expression="trmsold" Label="trmsold" Title="trmsold" Unit="" Internal="trmsold" Type="F" Min="3.01906079e-01" Max="4.82897568e+00"/>
    <Variable VarIndex="7" Expression="beta1" Label="beta1" Title="beta1" Unit="" Internal="beta1" Type="F" Min="-1.65742278e-01" Max="9.99754250e-01"/>
    <Variable VarIndex="8" Expression="beta2" Label="beta2" Title="beta2" Unit="" Internal="beta2" Type="F" Min="-1.62310392e-01" Max="9.99262691e-01"/>
    <Variable VarIndex="9" Expression="beta3" Label="beta3" Title="beta3" Unit="" Internal="beta3" Type="F" Min="-1.61135599e-01" Max="9.98525918e-01"/>
    <Variable VarIndex="10" Expression="beta4" Label="beta4" Title="beta4" Unit="" Internal="beta4" Type="F" Min="-1.53760567e-01" Max="9.97543812e-01"/>
    <Variable VarIndex="11" Expression="beta5" Label="beta5" Title="beta5" Unit="" Internal="beta5" Type="F" Min="-1.52392000e-01" Max="9.96317804e-01"/>
    <Variable VarIndex="12" Expression="prompt_nfit" Label="prompt_nfit" Title="prompt_nfit" Unit="" Internal="prompt_nfit" Type="F" Min="6.13797307e-01" Max="4.56468359e+03"/>
    <Variable VarIndex="13" Expression="tbsenergy" Label="tbsenergy" Title="tbsenergy" Unit="" Internal="tbsenergy" Type="F" Min="0.00000000e+00" Max="9.99900000e+03"/>
    <Variable VarIndex="14" Expression="tbswall" Label="tbswall" Title="tbswall" Unit="" Internal="tbswall" Type="F" Min="-1.24507217e+04" Max="1.69000000e+03"/>
    <Variable VarIndex="15" Expression="tbsgood" Label="tbsgood" Title="tbsgood" Unit="" Internal="tbsgood" Type="F" Min="0.00000000e+00" Max="9.99900000e+03"/>
    <Variable VarIndex="16" Expression="tbsdirks" Label="tbsdirks" Title="tbsdirks" Unit="" Internal="tbsdirks" Type="F" Min="4.50848043e-02" Max="9.99900000e+03"/>
    <Variable VarIndex="17" Expression="tbspatlik" Label="tbspatlik" Title="tbspatlik" Unit="" Internal="tbspatlik" Type="F" Min="-9.99900000e+03" Max="9.99900000e+03"/>
    <Variable VarIndex="18" Expression="tbsovaq" Label="tbsovaq" Title="tbsovaq" Unit="" Internal="tbsovaq" Type="F" Min="-1.00000000e+00" Max="9.41865563e-01"/>
    <Variable VarIndex="19" Expression="prompt_bonsai" Label="prompt_bonsai" Title="prompt_bonsai" Unit="" Internal="prompt_bonsai" Type="F" Min="1.28125226e+00" Max="1.93151250e+04"/>
    <Variable VarIndex="20" Expression="nwall" Label="nwall" Title="nwall" Unit="" Internal="nwall" Type="F" Min="9.76562500e-04" Max="1.68554614e+03"/>
    <Variable VarIndex="21" Expression="trms40" Label="trms40" Title="trms40" Unit="" Internal="trms40" Type="F" Min="5.14846519e-02" Max="1.63355007e+01"/>
    <Variable VarIndex="22" Expression="bonsai_nfit" Label="bonsai_nfit" Title="bonsai_nfit" Unit="" Internal="bonsai_nfit" Type="F" Min="1.49690378e+00" Max="1.97353105e+04"/>
  </Variables>
  <Spectators NSpec="0"/>
  <Classes NClass="2">
    <Class Name="Signal" Index="0"/>
    <Class Name="Background" Index="1"/>
  </Classes>
  <Transformations NTransformations="1">
    <Transform Name="Normalize">
      <Selection>
        <Input NInputs="23">
          <Input Type="Variable" Label="N10" Expression="N10"/>
          <Input Type="Variable" Label="dt" Expression="dt"/>
          <Input Type="Variable" Label="N200" Expression="N200"/>
          <Input Type="Variable" Label="N50" Expression="N50"/>
          <Input Type="Variable" Label="sumQ" Expression="sumQ"/>
          <Input Type="Variable" Label="spread" Expression="spread"/>
          <Input Type="Variable" Label="trmsold" Expression="trmsold"/>
          <Input Type="Variable" Label="beta1" Expression="beta1"/>
          <Input Type="Variable" Label="beta2" Expression="beta2"/>
          <Input Type="Variable" Label="beta3" Expression="beta3"/>
          <Input Type="Variable" Label="beta4" Expression="beta4"/>
          <Input Type="Variable" Label="beta5" Expression="beta5"/>
          <Input Type="Variable" Label="prompt_nfit" Expression="prompt_nfit"/>
          <Input Type="Variable" Label="tbsenergy" Expression="tbsenergy"/>
          <Input Type="Variable" Label="tbswall" Expression="tbswall"/>
          <Input Type="Variable" Label="tbsgood" Expression="tbsgood"/>
          <Input Type="Variable" Label="tbsdirks" Expression="tbsdirks"/>
          <Input Type="Variable" Label="tbspatlik" Expression="tbspatlik"/>
          <Input Type="Variable" Label="tbsovaq" Expression="tbsovaq"/>
          <Input Type="Variable" Label="prompt_bonsai" Expression="prompt_bonsai"/>
          <Input Type="Variable" Label="nwall" Expression="nwall"/>
          <Input Type="Variable" Label="trms40" Expression="trms40"/>
          <Input Type="Variable" Label="bonsai_nfit" Expression="bonsai_nfit"/>
        </Input>
        <Output NOutputs="23">
          <Output Type="Variable" Label="N10" Expression="N10"/>
          <Output Type="Variable" Label="dt" Expression="dt"/>
          <Output Type="Variable" Label="N200" Expression="N200"/>
          <Output Type="Variable" Label="N50" Expression="N50"/>
          <Output Type="Variable" Label="sumQ" Expression="sumQ"/>
          <Output Type="Variable" Label="spread" Expression="spread"/>
          <Output Type="Variable" Label="trmsold" Expression="trmsold"/>
          <Output Type="Variable" Label="beta1" Expression="beta1"/>
          <Output Type="Variable" Label="beta2" Expression="beta2"/>
          <Output Type="Variable" Label="beta3" Expression="beta3"/>
          <Output Type="Variable" Label="beta4" Expression="beta4"/>
          <Output Type="Variable" Label="beta5" Expression="beta5"/>
          <Output Type="Variable" Label="prompt_nfit" Expression="prompt_nfit"/>
          <Output Type="Variable" Label="tbsenergy" Expression="tbsenergy"/>
          <Output Type="Variable" Label="tbswall" Expression="tbswall"/>
          <Output Type="Variable" Label="tbsgood" Expression="tbsgood"/>
          <Output Type="Variable" Label="tbsdirks" Expression="tbsdirks"/>
          <Output Type="Variable" Label="tbspatlik" Expression="tbspatlik"/>
          <Output Type="Variable" Label="tbsovaq" Expression="tbsovaq"/>
          <Output Type="Variable" Label="prompt_bonsai" Expression="prompt_bonsai"/>
          <Output Type="Variable" Label="nwall" Expression="nwall"/>
          <Output Type="Variable" Label="trms40" Expression="trms40"/>
          <Output Type="Variable" Label="bonsai_nfit" Expression="bonsai_nfit"/>
        </Output>
      </Selection>
      <Class ClassIndex="0">
        <Ranges>
          <Range Index="0" Min="7.0000000000000000e+00" Max="5.0000000000000000e+01"/>
          <Range Index="1" Min="2.0032404785156250e+03" Max="5.3491462500000000e+05"/>
          <Range Index="2" Min="7.0000000000000000e+00" Max="8.1000000000000000e+01"/>
          <Range Index="3" Min="7.0000000000000000e+00" Max="7.2000000000000000e+01"/>
          <Range Index="4" Min="2.6479289531707764e+00" Max="1.7359020996093750e+02"/>
          <Range Index="5" Min="1.1171875000000000e+00" Max="1.0000000000000000e+01"/>
          <Range Index="6" Min="4.3249893188476562e-01" Max="4.5650372505187988e+00"/>
          <Range Index="7" Min="-1.5331125259399414e-01" Max="9.7219896316528320e-01"/>
          <Range Index="8" Min="-1.6100673377513885e-01" Max="9.1859567165374756e-01"/>
          <Range Index="9" Min="-1.5693852305412292e-01" Max="8.4298223257064819e-01"/>
          <Range Index="10" Min="-1.4721144735813141e-01" Max="7.5056195259094238e-01"/>
          <Range Index="11" Min="-1.3942816853523254e-01" Max="7.0602518320083618e-01"/>
          <Range Index="12" Min="6.1379730701446533e-01" Max="3.1275036621093750e+03"/>
          <Range Index="13" Min="0.0000000000000000e+00" Max="9.9990000000000000e+03"/>
          <Range Index="14" Min="-1.2450721679687500e+04" Max="1.6687429199218750e+03"/>
          <Range Index="15" Min="0.0000000000000000e+00" Max="9.9990000000000000e+03"/>
          <Range Index="16" Min="6.0695543885231018e-02" Max="9.9990000000000000e+03"/>
          <Range Index="17" Min="-2.3100085258483887e+00" Max="9.9990000000000000e+03"/>
          <Range Index="18" Min="-1.0000000000000000e+00" Max="9.4186556339263916e-01"/>
          <Range Index="19" Min="1.2812522649765015e+00" Max="1.9276841796875000e+04"/>
          <Range Index="20" Min="9.7656250000000000e-04" Max="1.6652637939453125e+03"/>
          <Range Index="21" Min="1.2095867097377777e-01" Max="1.4158406257629395e+01"/>
          <Range Index="22" Min="1.4969037771224976e+00" Max="1.9471378906250000e+04"/>
        </Ranges>
      </Class>
      <Class ClassIndex="1">
        <Ranges>
          <Range Index="0" Min="7.0000000000000000e+00" Max="5.0000000000000000e+01"/>
          <Range Index="1" Min="9.8217895507812500e+02" Max="5.3494537500000000e+05"/>
          <Range Index="2" Min="7.0000000000000000e+00" Max="8.0100000000000000e+02"/>
          <Range Index="3" Min="7.0000000000000000e+00" Max="2.9700000000000000e+02"/>
          <Range Index="4" Min="-3.1545948982238770e+00" Max="3.3450445556640625e+02"/>
          <Range Index="5" Min="1.0312500000000000e+00" Max="1.0000000000000000e+01"/>
          <Range Index="6" Min="3.0190607905387878e-01" Max="4.8289756774902344e+00"/>
          <Range Index="7" Min="-1.6574227809906006e-01" Max="9.9975425004959106e-01"/>
          <Range Index="8" Min="-1.6231039166450500e-01" Max="9.9926269054412842e-01"/>
          <Range Index="9" Min="-1.6113559901714325e-01" Max="9.9852591753005981e-01"/>
          <Range Index="10" Min="-1.5376056730747223e-01" Max="9.9754381179809570e-01"/>
          <Range Index="11" Min="-1.5239199995994568e-01" Max="9.9631780385971069e-01"/>
          <Range Index="12" Min="3.3139374256134033e+00" Max="4.5646835937500000e+03"/>
          <Range Index="13" Min="0.0000000000000000e+00" Max="9.9990000000000000e+03"/>
          <Range Index="14" Min="-1.2450721679687500e+04" Max="1.6900000000000000e+03"/>
          <Range Index="15" Min="0.0000000000000000e+00" Max="9.9990000000000000e+03"/>
          <Range Index="16" Min="4.5084804296493530e-02" Max="9.9990000000000000e+03"/>
          <Range Index="17" Min="-9.9990000000000000e+03" Max="9.9990000000000000e+03"/>
          <Range Index="18" Min="-1.0000000000000000e+00" Max="8.4958106279373169e-01"/>
          <Range Index="19" Min="5.0626158714294434e+00" Max="1.9315125000000000e+04"/>
          <Range Index="20" Min="9.7656250000000000e-04" Max="1.6855461425781250e+03"/>
          <Range Index="21" Min="5.1484651863574982e-02" Max="1.6335500717163086e+01"/>
          <Range Index="22" Min="2.2598018646240234e+00" Max="1.9735310546875000e+04"/>
        </Ranges>
      </Class>
      <Class ClassIndex="2">
        <Ranges>
          <Range Index="0" Min="7.0000000000000000e+00" Max="5.0000000000000000e+01"/>
          <Range Index="1" Min="9.8217895507812500e+02" Max="5.3494537500000000e+05"/>
          <Range Index="2" Min="7.0000000000000000e+00" Max="8.0100000000000000e+02"/>
          <Range Index="3" Min="7.0000000000000000e+00" Max="2.9700000000000000e+02"/>
          <Range Index="4" Min="-3.1545948982238770e+00" Max="3.3450445556640625e+02"/>
          <Range Index="5" Min="1.0312500000000000e+00" Max="1.0000000000000000e+01"/>
          <Range Index="6" Min="3.0190607905387878e-01" Max="4.8289756774902344e+00"/>
          <Range Index="7" Min="-1.6574227809906006e-01" Max="9.9975425004959106e-01"/>
          <Range Index="8" Min="-1.6231039166450500e-01" Max="9.9926269054412842e-01"/>
          <Range Index="9" Min="-1.6113559901714325e-01" Max="9.9852591753005981e-01"/>
          <Range Index="10" Min="-1.5376056730747223e-01" Max="9.9754381179809570e-01"/>
          <Range Index="11" Min="-1.5239199995994568e-01" Max="9.9631780385971069e-01"/>
          <Range Index="12" Min="6.1379730701446533e-01" Max="4.5646835937500000e+03"/>
          <Range Index="13" Min="0.0000000000000000e+00" Max="9.9990000000000000e+03"/>
          <Range Index="14" Min="-1.2450721679687500e+04" Max="1.6900000000000000e+03"/>
          <Range Index="15" Min="0.0000000000000000e+00" Max="9.9990000000000000e+03"/>
          <Range Index="16" Min="4.5084804296493530e-02" Max="9.9990000000000000e+03"/>
          <Range Index="17" Min="-9.9990000000000000e+03" Max="9.9990000000000000e+03"/>
          <Range Index="18" Min="-1.0000000000000000e+00" Max="9.4186556339263916e-01"/>
          <Range Index="19" Min="1.2812522649765015e+00" Max="1.9315125000000000e+04"/>
          <Range Index="20" Min="9.7656250000000000e-04" Max="1.6855461425781250e+03"/>
          <Range Index="21" Min="5.1484651863574982e-02" Max="1.6335500717163086e+01"/>
          <Range Index="22" Min="1.4969037771224976e+00" Max="1.9735310546875000e+04"/>
        </Ranges>
      </Class>
    </Transform>
  </Transformations>
  <MVAPdfs/>
  <Weights>
    <Layout NLayers="3">
      <Layer Index="0" NNeurons="24">
        <Neuron NSynapses="28">
          -1.4934057368686893e-01 5.1980359363411432e+00 1.1013587566057466e+00 1.4955075232454027e+00 -6.2658637211091497e+00 -1.5560239428618261e+00 -2.9035923419315894e+00 1.4818257405052584e+00 -6.4747914322520392e+00 -2.2002741752545893e+00 -9.8191772861661508e-01 -1.0561502649925145e+00 -1.1878716728901659e+00 -1.2116162355752957e+01 5.0536153418141827e-01 5.5203449228053252e+00 -5.4892654613428660e-01 2.3662598905491157e+00 8.2138657258461798e+00 1.5617044762278400e+00 -4.7229000633543489e-01 6.7349759933059650e-01 -3.6772741184199944e+00 5.2464925040766595e+00 5.9413392731700236e+00 -5.6293955979960353e-01 1.6664877626854604e+00 -7.4325222626324838e-01 
        </Neuron>
        <Neuron NSynapses="28">
          2.0993905894204024e-02 -4.8515787281118344e-01 2.8696857166122963e-01 1.7837934629471976e+00 -6.2261025840279083e-01 1.5840423229411144e-01 4.3242572437854010e-01 -1.1554870776775686e-01 7.2151511657130718e-01 1.2243452188303372e+00 -1.8549911921770679e-01 1.0903280650776993e-03 4.7769744102176381e-01 9.7184852718309978e-01 5.6911743656807220e-03 -5.2436317826727585e-01 -8.0521435666183772e-01 1.4794780188171095e+00 -7.4395566181710915e-01 -3.9382607810075337e-01 1.3692806746587671e+00 3.4849181348116592e-01 6.5518181340810477e-01 -6.2724580094969273e-01 -7.3019724759218996e-01 1.0445831605916018e+00 -8.0530387792941227e-01 1.1054355214061985e-02 
        </Neuron>
        <Neuron NSynapses="28">
          -1.8019164868781794e+00 -1.0635743619005986e+00 2.0074834673427064e+00 5.2448540009307465e-01 5.0420426537024265e-01 1.9969508614572112e-01 -1.0336694146150143e+00 2.0170772586833305e-01 4.8808173444280545e+00 -2.0964793934944320e-01 1.3928637627272625e-01 -1.3138287554285184e+00 8.1441896641356382e-01 8.6946281924460056e+00 -8.5167844114663360e-01 4.2719295392556245e-01 7.5711556152958781e-01 6.5125350114885894e-01 3.1219907012363524e+00 4.1679694822196356e-02 -2.0173202282878147e+00 -2.4596182412379877e+00 2.6161902922786422e+00 2.3945291627306515e+00 3.6998699777677957e+00 2.7881603783824410e-01 1.2710864149246881e+00 -1.1132530579826447e+00 
        </Neuron>
        <Neuron NSynapses="28">
          -9.6363977066560924e-01 1.4723434320200506e+00 1.5778240007832174e+00 -1.4024587614287252e+00 -3.4839768553489736e+00 -1.8132598688549775e+00 -8.8604931082066685e-01 -6.1829312714200302e-01 1.9600322715267646e+00 -1.9814295832159095e+00 -7.9655666537453296e-01 1.4644472553796846e+00 -7.9600693435936554e-01 5.1223318462641405e+00 -1.2372493173011856e+00 2.8401953008339196e+00 -1.9251947591403986e+00 -2.4377959304896288e+00 3.3692483487899825e+00 2.0056285282042392e+00 -1.3171710723682690e+00 1.4712359771241561e+00 -2.3277663533992962e-01 1.4253238212580084e+00 2.5412794683460533e+00 -2.5307316036044213e-02 -1.5498428405479903e+00 1.1395259549437944e-01 
        </Neuron>
        <Neuron NSynapses="28">
          -6.4787461603137156e-02 3.3493739654964871e-01 -1.0147535597562025e+00 1.4768940234667596e+00 1.7518903661767322e+00 -1.1180435607848755e+00 -1.8253438641450456e-01 -1.5294037285201343e+00 -1.6839443460553256e+00 -3.0816689486983101e-01 -1.3768782395428653e-01 1.5095823730662148e+00 8.2756753148823259e-01 5.0556290208090591e+00 -2.5833256727533399e-01 -3.8447791673836640e-01 -1.7947293541288789e+00 8.1585649321270648e-01 -5.8229821181292862e-01 -1.4983383095279832e+00 4.8683187697658031e-01 -1.9562753346996427e+00 -7.5048244682224641e-01 1.5963495626169464e+00 1.3475761241021438e+00 -2.1909157453546544e+00 5.9290669838356702e-01 1.1181946388855828e+00 
        </Neuron>
        <Neuron NSynapses="28">
          8.9362620504664703e-02 -4.8329022589634348e-02 -1.6965445643489345e+00 -5.3326826030102243e-04 2.5179877245677973e-01 1.7588071492397468e+00 -3.6299826743589758e-01 1.7299829246345742e-02 -4.2952225185710474e-01 2.8281420960307391e-01 -1.1217675633526608e-02 5.6248345638856390e-01 1.5101393579063520e+00 -2.4451166757288492e-01 -3.0978603771743207e-01 3.0200125887269197e-01 6.3139454366079584e-01 3.3339844318758904e-01 4.0153793754459460e-01 -1.7320225406271004e+00 1.6628380741112134e+00 2.3098672870312534e-01 -3.6902907967148391e-01 4.9705822052652132e-01 4.2797838231856555e-01 -3.2824701150705332e-01 -8.2031578961602025e-01 2.8622104576173302e-01 
        </Neuron>
        <Neuron NSynapses="28">
          -5.2232903875215994e-02 -6.8295431333852774e-01 1.6031846112822565e+00 9.9137750613522602e-01 -1.1520158422187787e+00 1.5761743091266982e+00 9.4844816355614503e-01 -1.6658150868150634e+00 1.6663552138098037e+00 5.1581505176881692e-01 1.3309960724880077e-01 -8.7323364669374004e-01 -1.6579754036470939e+00 1.8680925330872797e+00 4.5479253079229837e-01 -9.6038315558284681e-01 -4.0180386759714121e-01 4.4470212071154969e-01 -1.4033717208511927e+00 1.7187808490342797e+00 -3.4971194784199672e-01 5.6890664233816313e-01 1.3580009287984913e+00 -1.3013078238339382e+00 -1.4519474390460569e+00 1.1189895252726849e+00 1.8281038359881735e-01 -2.7152044696087413e-01 
        </Neuron>
        <Neuron NSynapses="28">
          -1.5994516345215012e-01 -9.6549797971438645e-01 5.1540987287782676e-02 -5.4717954179685357e-01 -2.6112506124738194e-01 6.2882093185837329e-01 1.1526090574214622e+00 -1.0924047640496553e+00 1.8852595625516691e-01 3.5176365273666618e-02 -9.1849673642515839e-02 -7.2936222091841599e-02 1.2611554606660207e+00 2.5486434744484276e-01 -1.8412259648628249e-01 -3.8319774101786765e-03 -1.4922499446722302e+00 1.7309996104124221e-02 -5.7616505729103784e-01 7.9639478291773458e-01 7.6871440375387445e-01 1.2632795940778430e+00 2.0048388874091643e+00 -1.6001299058391922e+00 -3.9978823221433007e-01 6.7565811569915590e-02 -7.4878406162973921e-01 1.0285610897888845e-02 
        </Neuron>
        <Neuron NSynapses="28">
          1.0267416504614550e-01 -3.3766286979068760e-01 4.9805980966983487e-01 4.1696588547593333e-01 -6.1356665867350146e-01 -8.6918993897234209e-01 2.3800617277616928e-01 5.5414816086112451e-01 2.9190511284410681e-01 -1.3137208358022388e+00 2.6549262369926451e-02 -3.7001739809422607e-01 6.3121262489373486e-01 1.5322899374074009e-01 -6.5706245134163815e-02 6.1099840636723003e-02 -1.7183109627904527e+00 3.6724078232183843e-01 -1.3736730996114441e-01 -1.7309674394661521e+00 -1.8716695529276102e+00 -8.4844410283087299e-02 1.0664257317296333e-01 -2.4996191193310946e-01 -2.3031808301839879e-01 -7.1908351076839805e-01 1.2612062060683735e-01 -1.1180651695241595e-01 
        </Neuron>
        <Neuron NSynapses="28">
          7.2710046484287333e-02 -1.0953467437744824e+00 1.1974515888805992e+00 -2.3879742176388913e-01 -1.6321477786807124e+00 -9.4834943716854114e-01 5.7929340305421528e-01 -1.3119213565561894e+00 1.5601468156664937e+00 3.8616376541743219e-01 4.7020102717350398e-01 -1.5108457166483297e-01 1.2012190289345527e-01 2.1008225013766078e+00 -1.3270315749029313e-01 -9.4424482422008726e-01 1.1666968584700652e+00 6.9652899255620171e-01 -1.1610247392085540e+00 7.6183313557694965e-01 1.2557909533012381e+00 6.9190030281755199e-01 9.4440321677793337e-01 -6.7298843518130935e-01 -1.0648548484020617e+00 1.1247578194969146e+00 6.2790254257640354e-01 3.5413749482289625e-01 
        </Neuron>
        <Neuron NSynapses="28">
          8.9155618910120429e-02 -9.1390574927338408e-01 -1.5075757182629490e+00 2.0073767296873241e-02 -1.2674382737853964e+00 -1.2211659074216084e+00 6.7232900921564609e-01 1.8775841331305656e+00 1.0561908269474800e+00 1.8208682685867763e+00 -1.5503234095339500e+00 1.8971659454811193e-01 -1.1722909935399821e+00 1.0927785977870108e+00 2.1169627496957921e-01 -5.0442196024624886e-01 1.7963215089049472e-01 4.1611613298760031e-01 -1.2240963069606583e+00 -1.5238120066159475e+00 -1.6768948125887635e+00 5.1510613182297847e-02 1.0854801822855515e+00 -1.2243826772963600e+00 -6.1158863410377762e-01 -7.6551947444569013e-01 -1.0593209077673709e+00 -7.3577074864358938e-01 
        </Neuron>
        <Neuron NSynapses="28">
          -1.7974030643554559e-01 -1.3611111666070330e+00 9.7011381462796198e-01 -7.6792003006487286e-01 -1.4837388195957406e+00 1.8166261009352742e+00 2.8232185500222134e-01 -4.2277489712414895e-01 1.4183768559371202e+00 -1.6039154803954452e+00 9.5000359655516509e-01 3.2376753826663923e-01 -1.0788049688812060e+00 9.9872214952583227e-01 -1.0688476817514669e-01 -1.0514503019609658e+00 4.4364625280353287e-01 1.0867081424830081e+00 -1.4421651311463035e+00 1.4207880238820723e+00 -1.3361850323592004e+00 4.0920807399839065e-01 3.3022839192802778e-01 -4.7946554745888642e-01 -1.0639536188029686e+00 -1.7016780921636365e+00 -2.8115110547204898e-02 6.4394506179165489e-01 
        </Neuron>
        <Neuron NSynapses="28">
          1.9688684402177286e-02 -5.9952871829241106e-01 6.2009149928227369e-01 -4.7235601645159060e-02 -2.0210202174668348e+00 -2.6924643822404528e-02 7.5932870326491841e-01 -1.6007947471915658e+00 1.9121982973011338e+00 -1.6880451973469637e+00 -1.7050214324590077e-01 1.1903665756699587e-01 1.5773484321275485e-01 8.4231865216005364e-01 1.9652622226987826e-02 1.3482738807254346e-01 7.5505411188434945e-01 -9.4140977583131846e-01 -8.7182613516630691e-01 -1.1919830749190847e+00 -1.8490592979658635e+00 -1.8238429828559954e-01 1.8354100070227384e+00 -9.7269751534112781e-01 -2.6724611877777354e-01 -1.7622957411216926e+00 -8.3138808945084319e-01 -1.4335371758883142e-01 
        </Neuron>
        <Neuron NSynapses="28">
          8.3531657284311323e-01 -2.1315142544942907e+00 -1.9397477558107528e+00 -2.6984906092681155e-01 -7.8926908316073541e-01 -1.5790924035433911e+00 1.7996374735823264e+00 -1.1083985669659608e+00 -1.2038595901862161e+00 2.0736416966512476e+00 1.1644651204002281e+00 6.9981939130867021e-01 -6.4392575686771714e-01 8.5023632589948672e-01 8.6763152180093717e-01 -1.0497783783039114e+00 -1.0446638913769886e+00 -4.7907286508048774e-01 -2.9219606553189181e+00 8.2950552504949515e-01 9.5021410211577328e-01 -6.1203997476895355e-01 3.9456249281762079e-01 -8.9539515995767571e-01 1.9433383075047677e+00 -1.6034712950044105e+00 1.9814472306844624e+00 9.5999143886361937e-01 
        </Neuron>
        <Neuron NSynapses="28">
          -1.8003360074701593e+00 7.7729094277151201e-01 -8.8021233812711375e-01 1.7630609242770825e+00 -5.0937022187109403e-02 9.7523949084825845e-01 3.7882994337271128e+00 4.9704592157970345e-01 3.4350815871567217e+00 1.6810582349231764e+00 -5.7856300049704459e-03 -9.9327557608911876e-01 1.7991643777985800e+00 -3.9597013846170697e+00 2.5007562904302372e-01 2.4902395785538767e+00 -1.0688056703336055e+00 7.6241710172544996e-01 -7.7833188195926972e+00 -1.6224772053330476e+00 2.9901670377841932e-01 -1.8045604879342592e+00 1.3551023469700862e+00 3.4745254214702526e-01 4.3195009253486321e+00 1.1912843590704369e+00 5.7837753244585044e-01 -6.4941808693728986e-01 
        </Neuron>
        <Neuron NSynapses="28">
          -5.6740633382730776e-02 5.0876238651630445e-01 1.6915792416887652e+00 -2.2255895132371490e+00 7.3322498940421310e+00 -5.4300760571744477e-01 -9.0728818166617653e-01 -2.9842189824151411e+00 -2.1942888695317060e+00 6.6479697943046001e-01 1.9524552440045617e-01 -2.1789535565233611e+00 -2.7507806578365890e+00 -5.7191364295466496e+00 2.3078808071864900e+00 5.1970496266925705e+00 1.4854810492799841e+00 -3.5256568334282501e+00 -3.5320622581945345e+00 -1.9882577123369435e-01 -1.2856040027601050e+00 -2.8259902273874054e+00 -2.7796753982352835e+00 2.3828425303369962e+00 -8.5294139040100703e-01 1.3003856944053018e+00 2.5123431375568388e+00 1.7365909846264591e-01 
        </Neuron>
        <Neuron NSynapses="28">
          -7.9521169567034744e-01 -1.6591457015499025e+00 1.5563088583865783e+00 -2.7773031352053901e-01 5.3723545380006288e-01 1.6237268909586680e+00 2.0971990184135612e+00 -7.1547639862106860e-01 1.4010549234018503e+00 -1.5508317871840769e+00 2.2294591171524467e+00 2.2565139023119243e+00 -9.0301649473492918e-01 -8.5961164684366953e-01 -6.4571363500964030e-01 -2.1308421106155411e+00 1.0968225377214145e+00 5.2879382443174905e-01 -2.0715769466415259e+00 -1.5755789532754358e+00 -2.9053489166457721e-02 1.0859761698015957e+00 -2.9752811854967159e-01 -2.5844590399622489e+00 -1.6020907367399975e+00 1.5459426125196762e+00 6.2768596894378936e-01 -9.1519155296978427e-01 
        </Neuron>
        <Neuron NSynapses="28">
          -2.0628162358575508e-01 8.5119882232982738e-02 6.5924867876016136e-01 1.8492385119625554e+00 1.3730748440653301e-01 -8.3041492120414273e-01 -1.0425798411027627e-01 1.6747762613163466e+00 -3.2143037916207068e-01 -3.6152820797631785e-01 -2.2227597702558025e-01 -8.1660566000931190e-02 7.4955086320230746e-01 -4.8447106636675286e-01 -2.1110116823864108e-01 5.9667387662502225e-01 -1.7568616608546603e+00 -1.5643560953383280e+00 6.5485777163324488e-01 -2.0618572042481467e+00 8.3873513873792216e-01 -9.2512290553308174e-02 -2.0338536005684871e-01 5.1553316734096810e-01 7.2441586315350870e-01 1.6033208052728347e+00 1.6325092465666236e+00 -1.5310114178695561e-01 
        </Neuron>
        <Neuron NSynapses="28">
          -1.5539496415596452e-01 -5.8932097519998661e-01 1.8765767763670300e+00 -1.1864340007165215e+00 -4.0398232093528275e-01 -1.3444806847168647e+00 -9.7867626173682987e-01 -1.2434628847463138e+00 7.0512658367494963e-01 -1.4059572138913357e-01 2.2878479142815419e-01 4.1524088755246887e-02 -1.2152742346459040e+00 -9.6569927456846083e-01 4.2953813971931382e-01 1.3113328437366547e+00 6.7611036778416644e-01 -4.6822440670916554e-01 2.1173887579339121e+00 -2.1375678141932561e+00 9.7802082555272518e-01 5.6145194452489466e-01 1.4414311626082185e-02 1.8609922519505528e+00 4.3700115583361065e-01 -2.0351356715244351e+00 -7.6124315887938709e-01 -2.0474071611682970e-01 
        </Neuron>
        <Neuron NSynapses="28">
          1.9585769701751721e-01 1.8053143039190839e-01 -3.1323221008725638e-01 -1.3175210584024206e+00 -2.4778750832176133e+00 -1.0384874097209584e+00 -4.9835090107474989e-01 -2.6593582603210644e+00 -6.2289467873791049e-01 2.5262495835900056e-01 -6.9734990971646194e-01 -1.4542113306282709e+00 3.8332144812202795e-01 8.8085096095527540e+00 -2.4392509250801492e-01 -5.3498613450539558e+00 2.4160025032533592e+00 6.9311049248758283e-01 5.0428615478225018e-02 1.0580601570919721e+00 -1.1111750300394672e+00 2.6754217625879934e-01 -9.3324745873922521e-01 -2.4103196485785947e+00 -1.7772381742644388e+00 -1.0930578238644675e+00 2.1914251913610721e+00 -1.3493202533136925e+00 
        </Neuron>
        <Neuron NSynapses="28">
          6.1013874422266981e-02 5.0227761969108897e-01 1.4971811169024531e+00 3.1316590775336905e-01 2.1593091038078149e-01 6.1635006478953994e-03 9.7517071254391896e-01 -1.4397142042438613e+00 -2.8680383816695626e-01 -1.3044848730326519e-01 -2.5167846173891262e-01 1.2368125470257171e-02 2.8076537472031543e-01 -1.7209386036939528e-01 2.7457591907342309e-02 1.9746101687548287e-01 1.5679120742150363e-01 -9.7378622444650592e-02 6.7879247418016098e-02 -1.1511832423577877e+00 -6.7908552042038509e-02 -7.4607227446849100e-01 1.2262517341676022e+00 -8.0405126893206014e-01 4.4348027950491621e-02 -1.7396738009895840e+00 1.6583486724427532e-01 4.9095402637869656e-02 
        </Neuron>
        <Neuron NSynapses="28">
          -5.7969129747342543e-02 -6.4776564260184877e-01 -1.3655171224515732e+00 1.5646374995990588e+00 -8.1556109393383991e-01 6.0322142212680008e-01 -1.2069233868270449e-01 -1.1745365731907447e+00 8.0582490154816655e-01 -1.7453371155490085e+00 9.8494326503782162e-02 -1.0477209194253363e-01 1.0598984141284578e+00 4.9357799549302711e-01 -1.0766720052394356e-01 -9.0849160971673129e-02 3.9189441314871554e-01 1.1170214606372733e+00 -2.2671541503857501e-01 -9.8908244259804912e-01 -1.3641024474860926e+00 3.7763632145751375e-01 -1.7557109171424851e-01 2.0501745420546982e-01 -5.0401090943600546e-01 -2.7008354387786920e-01 -9.6312795994413869e-01 -1.7800388522665279e-02 
        </Neuron>
        <Neuron NSynapses="28">
          -4.1009366172725992e-01 1.1364100437103100e+00 -8.6849046339926383e-01 -2.1825003225818644e+00 3.8362521882033418e+00 1.6135990434639264e-01 1.6118727427314641e+00 -9.2764853122667634e-01 -7.8915037045988268e-01 -9.8677437169898774e-01 -1.1060276516111238e+00 -1.4070834155610243e-01 -1.3275843304031982e+00 -6.2342964685935929e+00 -1.7099140038891417e-01 -3.0774026602493874e+00 1.4079253086801795e+00 -4.4886122129804262e-01 -2.4453375881076291e+00 3.2957353938461997e-01 -9.4874437616490637e-01 8.3444531819966550e-01 -7.4728964630029523e-02 -1.6103216992340075e+00 -1.4997580220154572e+00 -1.4027916083117105e+00 1.4502932164328124e+00 5.1692753295829685e-01 
        </Neuron>
        <Neuron NSynapses="28">
          -1.4365865640368283e+00 -8.8154226071089825e-01 -2.1617061237570825e+00 1.9739296793264784e+00 -6.2916175782837227e+00 1.3915515247790757e+00 8.8110315512380877e-01 -6.2174012317132277e-01 -6.9318228707221596e-01 -9.0193216016040312e-01 3.5158147255191785e-01 8.0158256892555391e-01 1.1426573368671714e-01 1.1787528447655177e+01 8.1331847809447411e-02 -3.8227971304975821e+00 -1.4462930806475778e+00 2.9011104318223735e+00 2.5966298428611552e+00 -1.8448000062147698e+00 -9.2042794633055114e-01 7.4985773242708165e-02 1.4891550617483060e-01 -8.1416840405900748e-01 5.2091212167540335e-01 1.2430507206409029e+00 -2.1789078819691934e+00 -6.3842563329592006e-01 
        </Neuron>
      </Layer>
      <Layer Index="1" NNeurons="29">
        <Neuron NSynapses="1">
          7.4075999879306209e-03 
        </Neuron>
        <Neuron NSynapses="1">
          1.2435255558156465e-01 
        </Neuron>
        <Neuron NSynapses="1">
          1.2762830808534156e+00 
        </Neuron>
        <Neuron NSynapses="1">
          -8.1394757810014007e-01 
        </Neuron>
        <Neuron NSynapses="1">
          -5.8392078272296133e-01 
        </Neuron>
        <Neuron NSynapses="1">
          -2.8858331859285757e-01 
        </Neuron>
        <Neuron NSynapses="1">
          3.2856825006450568e-01 
        </Neuron>
        <Neuron NSynapses="1">
          -1.0119829859455165e+00 
        </Neuron>
        <Neuron NSynapses="1">
          -3.7479870711295626e-01 
        </Neuron>
        <Neuron NSynapses="1">
          6.4229404714315053e-01 
        </Neuron>
        <Neuron NSynapses="1">
          -5.3761038534918025e-03 
        </Neuron>
        <Neuron NSynapses="1">
          1.9076844550114287e-03 
        </Neuron>
        <Neuron NSynapses="1">
          1.0631058716045096e+00 
        </Neuron>
        <Neuron NSynapses="1">
          -4.0121771985106724e-01 
        </Neuron>
        <Neuron NSynapses="1">
          1.0789684310127681e-02 
        </Neuron>
        <Neuron NSynapses="1">
          4.2474236884536581e-01 
        </Neuron>
        <Neuron NSynapses="1">
          2.4554129964967142e-01 
        </Neuron>
        <Neuron NSynapses="1">
          -5.1574806286025554e-01 
        </Neuron>
        <Neuron NSynapses="1">
          -5.3453546355226145e-01 
        </Neuron>
        <Neuron NSynapses="1">
          1.3788421928176489e-01 
        </Neuron>
        <Neuron NSynapses="1">
          -2.6190079944674716e-01 
        </Neuron>
        <Neuron NSynapses="1">
          1.8922132070223502e-01 
        </Neuron>
        <Neuron NSynapses="1">
          -2.3974294980779912e-01 
        </Neuron>
        <Neuron NSynapses="1">
          3.0074047464808445e-01 
        </Neuron>
        <Neuron NSynapses="1">
          -4.9824217036572549e-01 
        </Neuron>
        <Neuron NSynapses="1">
          8.0476880302941228e-02 
        </Neuron>
        <Neuron NSynapses="1">
          -1.5562611829622841e+00 
        </Neuron>
        <Neuron NSynapses="1">
          3.1204866229689078e-03 
        </Neuron>
        <Neuron NSynapses="1">
          9.4684563537158395e-01 
        </Neuron>
      </Layer>
      <Layer Index="2" NNeurons="1">
        <Neuron NSynapses="0"/>
      </Layer>
    </Layout>
  </Weights>
</MethodSetup>
