<?xml version="1.0"?>
<MethodSetup Method="MLP::MLP">
  <GeneralInfo>
    <Info name="TMVA Release" value="4.2.0 [262656]"/>
    <Info name="ROOT Release" value="5.28/00 [334848]"/>
    <Info name="Creator" value="han"/>
    <Info name="Date" value="Tue Sep 15 03:52:46 2020"/>
    <Info name="Host" value="Linux sukla01 3.10.0-327.36.3.el7.x86_64 #1 SMP Thu Oct 20 04:56:07 EDT 2016 x86_64 x86_64 x86_64 GNU/Linux"/>
    <Info name="Dir" value="/disk02/usr6/han/gd/ntgd/ntgd"/>
    <Info name="Training events" value="2914564"/>
    <Info name="TrainingTime" value="4.23610497e+04"/>
    <Info name="AnalysisType" value="Classification"/>
  </GeneralInfo>
  <Options>
    <Option name="NCycles" modified="Yes">600</Option>
    <Option name="HiddenLayers" modified="Yes">N+5</Option>
    <Option name="NeuronType" modified="Yes">tanh</Option>
    <Option name="RandomSeed" modified="No">1</Option>
    <Option name="EstimatorType" modified="No">MSE</Option>
    <Option name="NeuronInputType" modified="No">sum</Option>
    <Option name="V" modified="Yes">False</Option>
    <Option name="VerbosityLevel" modified="No">Default</Option>
    <Option name="VarTransform" modified="Yes">N</Option>
    <Option name="H" modified="Yes">True</Option>
    <Option name="CreateMVAPdfs" modified="No">False</Option>
    <Option name="IgnoreNegWeightsInTraining" modified="No">False</Option>
    <Option name="TrainingMethod" modified="No">BP</Option>
    <Option name="LearningRate" modified="No">2.000000e-02</Option>
    <Option name="DecayRate" modified="No">1.000000e-02</Option>
    <Option name="TestRate" modified="Yes">5</Option>
    <Option name="EpochMonitoring" modified="No">False</Option>
    <Option name="Sampling" modified="No">1.000000e+00</Option>
    <Option name="SamplingEpoch" modified="No">1.000000e+00</Option>
    <Option name="SamplingImportance" modified="No">1.000000e+00</Option>
    <Option name="SamplingTraining" modified="No">True</Option>
    <Option name="SamplingTesting" modified="No">False</Option>
    <Option name="ResetStep" modified="No">50</Option>
    <Option name="Tau" modified="No">3.000000e+00</Option>
    <Option name="BPMode" modified="No">sequential</Option>
    <Option name="BatchSize" modified="No">-1</Option>
    <Option name="ConvergenceImprove" modified="No">1.000000e-30</Option>
    <Option name="ConvergenceTests" modified="No">-1</Option>
    <Option name="UseRegulator" modified="Yes">False</Option>
    <Option name="UpdateLimit" modified="No">10000</Option>
    <Option name="CalculateErrors" modified="No">False</Option>
    <Option name="WeightRange" modified="No">1.000000e+00</Option>
  </Options>
  <Variables NVar="23">
    <Variable VarIndex="0" Expression="N200" Label="N200" Title="N200" Unit="" Internal="N200" Type="I" Min="7.00000000e+00" Max="3.28000000e+02"/>
    <Variable VarIndex="1" Expression="ReconCT" Label="ReconCT" Title="ReconCT" Unit="" Internal="ReconCT" Type="F" Min="2.00313013e+03" Max="5.34947250e+05"/>
    <Variable VarIndex="2" Expression="N10" Label="N10" Title="N10" Unit="" Internal="N10" Type="I" Min="7.00000000e+00" Max="5.00000000e+01"/>
    <Variable VarIndex="3" Expression="N50" Label="N50" Title="N50" Unit="" Internal="N50" Type="I" Min="7.00000000e+00" Max="7.20000000e+01"/>
    <Variable VarIndex="4" Expression="QSum10" Label="QSum10" Title="QSum10" Unit="" Internal="QSum10" Type="F" Min="7.40958273e-01" Max="3.87809448e+02"/>
    <Variable VarIndex="5" Expression="TSpread10" Label="TSpread10" Title="TSpread10" Unit="" Internal="TSpread10" Type="F" Min="6.25000000e-01" Max="1.00000000e+01"/>
    <Variable VarIndex="6" Expression="TRMS10" Label="TRMS10" Title="TRMS10" Unit="" Internal="TRMS10" Type="F" Min="2.13648260e-01" Max="4.81041956e+00"/>
    <Variable VarIndex="7" Expression="TRMS50" Label="TRMS50" Title="TRMS50" Unit="" Internal="TRMS50" Type="F" Min="5.14846519e-02" Max="1.64199219e+01"/>
    <Variable VarIndex="8" Expression="Beta1" Label="Beta1" Title="Beta1" Unit="" Internal="Beta1" Type="F" Min="-1.66489258e-01" Max="9.99632418e-01"/>
    <Variable VarIndex="9" Expression="Beta2" Label="Beta2" Title="Beta2" Unit="" Internal="Beta2" Type="F" Min="-1.63875788e-01" Max="9.98897672e-01"/>
    <Variable VarIndex="10" Expression="Beta3" Label="Beta3" Title="Beta3" Unit="" Internal="Beta3" Type="F" Min="-1.62490681e-01" Max="9.97796118e-01"/>
    <Variable VarIndex="11" Expression="Beta4" Label="Beta4" Title="Beta4" Unit="" Internal="Beta4" Type="F" Min="-1.53517544e-01" Max="9.96329069e-01"/>
    <Variable VarIndex="12" Expression="Beta5" Label="Beta5" Title="Beta5" Unit="" Internal="Beta5" Type="F" Min="-1.51647344e-01" Max="9.94497597e-01"/>
    <Variable VarIndex="13" Expression="BSenergy" Label="BSenergy" Title="BSenergy" Unit="" Internal="BSenergy" Type="F" Min="0.00000000e+00" Max="9.99900000e+03"/>
    <Variable VarIndex="14" Expression="BSwall" Label="BSwall" Title="BSwall" Unit="" Internal="BSwall" Type="F" Min="-1.24507217e+04" Max="1.69000000e+03"/>
    <Variable VarIndex="15" Expression="BSgood" Label="BSgood" Title="BSgood" Unit="" Internal="BSgood" Type="F" Min="0.00000000e+00" Max="9.99900000e+03"/>
    <Variable VarIndex="16" Expression="BSdirks" Label="BSdirks" Title="BSdirks" Unit="" Internal="BSdirks" Type="F" Min="4.35982160e-02" Max="9.99900000e+03"/>
    <Variable VarIndex="17" Expression="BSpatlik" Label="BSpatlik" Title="BSpatlik" Unit="" Internal="BSpatlik" Type="F" Min="-2.46645355e+00" Max="9.99900000e+03"/>
    <Variable VarIndex="18" Expression="BSovaq" Label="BSovaq" Title="BSovaq" Unit="" Internal="BSovaq" Type="F" Min="-1.00000000e+00" Max="8.81076097e-01"/>
    <Variable VarIndex="19" Expression="DWalln" Label="DWalln" Title="DWalln" Unit="" Internal="DWalln" Type="F" Min="9.76562500e-04" Max="1.68876477e+03"/>
    <Variable VarIndex="20" Expression="prompt_bonsai" Label="prompt_bonsai" Title="prompt_bonsai" Unit="" Internal="prompt_bonsai" Type="F" Min="8.92594457e-01" Max="1.94182344e+04"/>
    <Variable VarIndex="21" Expression="prompt_nfit" Label="prompt_nfit" Title="prompt_nfit" Unit="" Internal="prompt_nfit" Type="F" Min="2.09211826e+00" Max="4.50909814e+03"/>
    <Variable VarIndex="22" Expression="bonsai_nfit" Label="bonsai_nfit" Title="bonsai_nfit" Unit="" Internal="bonsai_nfit" Type="F" Min="1.15801704e+00" Max="1.97239023e+04"/>
  </Variables>
  <Spectators NSpec="0"/>
  <Classes NClass="2">
    <Class Name="Signal" Index="0"/>
    <Class Name="Background" Index="1"/>
  </Classes>
  <Transformations NTransformations="1">
    <Transform Name="Normalize">
      <Selection>
        <Input NInputs="23">
          <Input Type="Variable" Label="N200" Expression="N200"/>
          <Input Type="Variable" Label="ReconCT" Expression="ReconCT"/>
          <Input Type="Variable" Label="N10" Expression="N10"/>
          <Input Type="Variable" Label="N50" Expression="N50"/>
          <Input Type="Variable" Label="QSum10" Expression="QSum10"/>
          <Input Type="Variable" Label="TSpread10" Expression="TSpread10"/>
          <Input Type="Variable" Label="TRMS10" Expression="TRMS10"/>
          <Input Type="Variable" Label="TRMS50" Expression="TRMS50"/>
          <Input Type="Variable" Label="Beta1" Expression="Beta1"/>
          <Input Type="Variable" Label="Beta2" Expression="Beta2"/>
          <Input Type="Variable" Label="Beta3" Expression="Beta3"/>
          <Input Type="Variable" Label="Beta4" Expression="Beta4"/>
          <Input Type="Variable" Label="Beta5" Expression="Beta5"/>
          <Input Type="Variable" Label="BSenergy" Expression="BSenergy"/>
          <Input Type="Variable" Label="BSwall" Expression="BSwall"/>
          <Input Type="Variable" Label="BSgood" Expression="BSgood"/>
          <Input Type="Variable" Label="BSdirks" Expression="BSdirks"/>
          <Input Type="Variable" Label="BSpatlik" Expression="BSpatlik"/>
          <Input Type="Variable" Label="BSovaq" Expression="BSovaq"/>
          <Input Type="Variable" Label="DWalln" Expression="DWalln"/>
          <Input Type="Variable" Label="prompt_bonsai" Expression="prompt_bonsai"/>
          <Input Type="Variable" Label="prompt_nfit" Expression="prompt_nfit"/>
          <Input Type="Variable" Label="bonsai_nfit" Expression="bonsai_nfit"/>
        </Input>
        <Output NOutputs="23">
          <Output Type="Variable" Label="N200" Expression="N200"/>
          <Output Type="Variable" Label="ReconCT" Expression="ReconCT"/>
          <Output Type="Variable" Label="N10" Expression="N10"/>
          <Output Type="Variable" Label="N50" Expression="N50"/>
          <Output Type="Variable" Label="QSum10" Expression="QSum10"/>
          <Output Type="Variable" Label="TSpread10" Expression="TSpread10"/>
          <Output Type="Variable" Label="TRMS10" Expression="TRMS10"/>
          <Output Type="Variable" Label="TRMS50" Expression="TRMS50"/>
          <Output Type="Variable" Label="Beta1" Expression="Beta1"/>
          <Output Type="Variable" Label="Beta2" Expression="Beta2"/>
          <Output Type="Variable" Label="Beta3" Expression="Beta3"/>
          <Output Type="Variable" Label="Beta4" Expression="Beta4"/>
          <Output Type="Variable" Label="Beta5" Expression="Beta5"/>
          <Output Type="Variable" Label="BSenergy" Expression="BSenergy"/>
          <Output Type="Variable" Label="BSwall" Expression="BSwall"/>
          <Output Type="Variable" Label="BSgood" Expression="BSgood"/>
          <Output Type="Variable" Label="BSdirks" Expression="BSdirks"/>
          <Output Type="Variable" Label="BSpatlik" Expression="BSpatlik"/>
          <Output Type="Variable" Label="BSovaq" Expression="BSovaq"/>
          <Output Type="Variable" Label="DWalln" Expression="DWalln"/>
          <Output Type="Variable" Label="prompt_bonsai" Expression="prompt_bonsai"/>
          <Output Type="Variable" Label="prompt_nfit" Expression="prompt_nfit"/>
          <Output Type="Variable" Label="bonsai_nfit" Expression="bonsai_nfit"/>
        </Output>
      </Selection>
      <Class ClassIndex="0">
        <Ranges>
          <Range Index="0" Min="9.0000000000000000e+00" Max="9.5000000000000000e+01"/>
          <Range Index="1" Min="2.0031301269531250e+03" Max="5.3474212500000000e+05"/>
          <Range Index="2" Min="7.0000000000000000e+00" Max="5.0000000000000000e+01"/>
          <Range Index="3" Min="7.0000000000000000e+00" Max="7.2000000000000000e+01"/>
          <Range Index="4" Min="2.2241940498352051e+00" Max="2.2967013549804688e+02"/>
          <Range Index="5" Min="1.6093750000000000e+00" Max="1.0000000000000000e+01"/>
          <Range Index="6" Min="5.4588359594345093e-01" Max="4.5085577964782715e+00"/>
          <Range Index="7" Min="1.3069477677345276e-01" Max="1.4597652435302734e+01"/>
          <Range Index="8" Min="-1.6410940885543823e-01" Max="9.9464565515518188e-01"/>
          <Range Index="9" Min="-1.5560021996498108e-01" Max="9.8404341936111450e-01"/>
          <Range Index="10" Min="-1.5704253315925598e-01" Max="9.6840232610702515e-01"/>
          <Range Index="11" Min="-1.3612492382526398e-01" Max="9.4802802801132202e-01"/>
          <Range Index="12" Min="-1.3322396576404572e-01" Max="9.2331093549728394e-01"/>
          <Range Index="13" Min="1.5547795295715332e+00" Max="9.9990000000000000e+03"/>
          <Range Index="14" Min="-1.2450721679687500e+04" Max="1.6823377685546875e+03"/>
          <Range Index="15" Min="7.3565915226936340e-02" Max="9.9990000000000000e+03"/>
          <Range Index="16" Min="5.9103861451148987e-02" Max="9.9990000000000000e+03"/>
          <Range Index="17" Min="-2.3235290050506592e+00" Max="9.9990000000000000e+03"/>
          <Range Index="18" Min="-4.5514735579490662e-01" Max="6.2070828676223755e-01"/>
          <Range Index="19" Min="9.7656250000000000e-04" Max="1.6796208496093750e+03"/>
          <Range Index="20" Min="8.9259445667266846e-01" Max="1.9171314453125000e+04"/>
          <Range Index="21" Min="2.6512212753295898e+00" Max="3.1646000976562500e+03"/>
          <Range Index="22" Min="1.5609626770019531e+00" Max="1.9392500000000000e+04"/>
        </Ranges>
      </Class>
      <Class ClassIndex="1">
        <Ranges>
          <Range Index="0" Min="7.0000000000000000e+00" Max="3.2800000000000000e+02"/>
          <Range Index="1" Min="2.0038515625000000e+03" Max="5.3494725000000000e+05"/>
          <Range Index="2" Min="7.0000000000000000e+00" Max="2.6000000000000000e+01"/>
          <Range Index="3" Min="7.0000000000000000e+00" Max="6.8000000000000000e+01"/>
          <Range Index="4" Min="7.4095827341079712e-01" Max="3.8780944824218750e+02"/>
          <Range Index="5" Min="6.2500000000000000e-01" Max="1.0000000000000000e+01"/>
          <Range Index="6" Min="2.1364825963973999e-01" Max="4.8104195594787598e+00"/>
          <Range Index="7" Min="5.1484651863574982e-02" Max="1.6419921875000000e+01"/>
          <Range Index="8" Min="-1.6648925840854645e-01" Max="9.9963241815567017e-01"/>
          <Range Index="9" Min="-1.6387578845024109e-01" Max="9.9889767169952393e-01"/>
          <Range Index="10" Min="-1.6249068081378937e-01" Max="9.9779611825942993e-01"/>
          <Range Index="11" Min="-1.5351754426956177e-01" Max="9.9632906913757324e-01"/>
          <Range Index="12" Min="-1.5164734423160553e-01" Max="9.9449759721755981e-01"/>
          <Range Index="13" Min="0.0000000000000000e+00" Max="9.9990000000000000e+03"/>
          <Range Index="14" Min="-1.2450721679687500e+04" Max="1.6900000000000000e+03"/>
          <Range Index="15" Min="0.0000000000000000e+00" Max="9.9990000000000000e+03"/>
          <Range Index="16" Min="4.3598216027021408e-02" Max="9.9990000000000000e+03"/>
          <Range Index="17" Min="-2.4664535522460938e+00" Max="9.9990000000000000e+03"/>
          <Range Index="18" Min="-1.0000000000000000e+00" Max="8.8107609748840332e-01"/>
          <Range Index="19" Min="9.7656250000000000e-04" Max="1.6887647705078125e+03"/>
          <Range Index="20" Min="3.1877620220184326e+00" Max="1.9418234375000000e+04"/>
          <Range Index="21" Min="2.0921182632446289e+00" Max="4.5090981445312500e+03"/>
          <Range Index="22" Min="1.1580170392990112e+00" Max="1.9723902343750000e+04"/>
        </Ranges>
      </Class>
      <Class ClassIndex="2">
        <Ranges>
          <Range Index="0" Min="7.0000000000000000e+00" Max="3.2800000000000000e+02"/>
          <Range Index="1" Min="2.0031301269531250e+03" Max="5.3494725000000000e+05"/>
          <Range Index="2" Min="7.0000000000000000e+00" Max="5.0000000000000000e+01"/>
          <Range Index="3" Min="7.0000000000000000e+00" Max="7.2000000000000000e+01"/>
          <Range Index="4" Min="7.4095827341079712e-01" Max="3.8780944824218750e+02"/>
          <Range Index="5" Min="6.2500000000000000e-01" Max="1.0000000000000000e+01"/>
          <Range Index="6" Min="2.1364825963973999e-01" Max="4.8104195594787598e+00"/>
          <Range Index="7" Min="5.1484651863574982e-02" Max="1.6419921875000000e+01"/>
          <Range Index="8" Min="-1.6648925840854645e-01" Max="9.9963241815567017e-01"/>
          <Range Index="9" Min="-1.6387578845024109e-01" Max="9.9889767169952393e-01"/>
          <Range Index="10" Min="-1.6249068081378937e-01" Max="9.9779611825942993e-01"/>
          <Range Index="11" Min="-1.5351754426956177e-01" Max="9.9632906913757324e-01"/>
          <Range Index="12" Min="-1.5164734423160553e-01" Max="9.9449759721755981e-01"/>
          <Range Index="13" Min="0.0000000000000000e+00" Max="9.9990000000000000e+03"/>
          <Range Index="14" Min="-1.2450721679687500e+04" Max="1.6900000000000000e+03"/>
          <Range Index="15" Min="0.0000000000000000e+00" Max="9.9990000000000000e+03"/>
          <Range Index="16" Min="4.3598216027021408e-02" Max="9.9990000000000000e+03"/>
          <Range Index="17" Min="-2.4664535522460938e+00" Max="9.9990000000000000e+03"/>
          <Range Index="18" Min="-1.0000000000000000e+00" Max="8.8107609748840332e-01"/>
          <Range Index="19" Min="9.7656250000000000e-04" Max="1.6887647705078125e+03"/>
          <Range Index="20" Min="8.9259445667266846e-01" Max="1.9418234375000000e+04"/>
          <Range Index="21" Min="2.0921182632446289e+00" Max="4.5090981445312500e+03"/>
          <Range Index="22" Min="1.1580170392990112e+00" Max="1.9723902343750000e+04"/>
        </Ranges>
      </Class>
    </Transform>
  </Transformations>
  <MVAPdfs/>
  <Weights>
    <Layout NLayers="3">
      <Layer Index="0" NNeurons="24">
        <Neuron NSynapses="28">
          -3.2385042816703241e-01 5.7810440768638411e+00 5.4070057405511907e-01 8.9579969142715321e-01 -3.2731935259303819e+00 -1.4774257069650887e+00 -5.0231063001444276e-01 1.8188315777724324e+00 -1.2073737335541859e+00 -5.4871820927965531e-01 -2.0624431135407604e+00 -8.2808243197042974e-01 -1.1146643148456181e+00 3.9565522272345386e+00 -5.3320998546628884e-01 6.5879703314191540e-01 -1.1906721152461497e-01 1.2895247247073636e+00 2.5858628932371530e-01 6.9820253697327095e-01 1.8062276744094222e-01 -6.0066760039715295e-01 5.4724669196955977e-01 2.7706314942553800e-01 -5.4938764897217518e-01 5.9153520947165993e-02 7.4458590303967531e-01 -1.7425358310418206e+00 
        </Neuron>
        <Neuron NSynapses="28">
          -4.4885994958241721e-02 6.7123247344542336e-01 3.8862848676279360e-01 1.0830900593787673e+00 -8.0657281530145664e-01 1.0574683093693080e+00 -1.8231308907031094e-01 -1.5329008170021652e-01 8.9338858441184842e-03 7.0366361365125432e-02 -1.1515190817809184e+00 -2.5027703382459160e-01 8.8219377116914477e-01 1.0216785469829133e+00 -8.7692533293267108e-02 -3.9868280099751581e-02 -3.2076193390561850e-02 -7.9746241624683217e-02 -2.1081699168691272e-02 3.0228620554141463e-02 1.3221197564875864e-02 -6.1832626680541992e-02 -2.8699560305078687e-03 -1.8538947547061108e-02 -2.9682866319542950e-01 1.4124101955885796e-01 6.5324385874586066e-01 -7.2932106375226635e-01 
        </Neuron>
        <Neuron NSynapses="28">
          -9.8794267992455831e-01 -1.1956440166124221e+01 1.3263986974211612e+00 -2.2345190576750648e-01 1.4608090315335052e+00 2.4678639721938078e-01 -1.0930369016637348e-01 3.9166260530583269e-01 1.0972302983414199e+00 -1.0137272391967517e-01 -4.5491456802275027e-01 -9.8399076823072851e-01 5.8536936003146378e-01 -1.7257187490629693e+01 4.4732299952879140e-01 -1.1386025959030528e+00 1.0602849665435370e+00 1.0898401902920265e+00 9.0100468527473121e-01 -4.4541420867119491e-01 -1.1818497145237921e+00 -1.0043757547953880e+00 7.9289038557903713e-01 2.5217367200858626e-01 2.2331210777484012e+00 3.0683446990437929e-01 -5.4929619138380357e+00 1.0747075599414893e-01 
        </Neuron>
        <Neuron NSynapses="28">
          -3.4367974134980905e-01 8.1972467616052935e-01 8.6887331038011961e-01 -1.8376113522016249e+00 -6.6317020687222170e+00 -1.4257863751127280e+00 3.9912466530446760e-03 -2.1274827875024954e-01 7.0734824894082959e-01 -8.7698301156830527e-01 -1.2941818556410167e+00 1.4092874175858123e+00 -9.1177772716046601e-01 4.2912727321367408e+00 -4.0271493199481478e-01 6.3030734336490468e-01 -1.5907354850341087e+00 -1.2231293314840028e+00 5.0385178681960088e-02 6.1478676260995602e-01 -5.6074961529963185e-01 1.7881775105145998e+00 -7.8507205987700535e-01 -7.4341347082346609e-01 1.0750577106932397e+00 3.9538700671379401e-03 -3.3946150872582859e+00 -1.0907953250536480e+00 
        </Neuron>
        <Neuron NSynapses="28">
          8.1303959267483017e-02 1.5766046095089299e+00 -1.5491827884463547e+00 9.3453701964663993e-01 -1.7455425839486614e+00 -1.1446561371055493e+00 6.2130536832577377e-01 -1.3715703424335068e+00 -1.2351441004679347e+00 1.4288720849911199e-01 -9.2996417351654481e-01 1.6296289078758239e+00 5.8906983809311764e-01 6.3034905130904031e+00 -4.2272708299541450e-01 8.6385787753459661e-02 -1.4567639218976172e+00 6.0817496807509253e-01 4.6037725083183756e-01 -1.7216178377709326e+00 1.1282458745298543e+00 -1.2892864036126570e+00 -5.9686815566943746e-02 1.0994412060106156e+00 1.6022396008297632e+00 -1.2672709687038313e+00 5.2693779888967252e-01 5.2849604785856874e-01 
        </Neuron>
        <Neuron NSynapses="28">
          4.1872111298433816e-02 -2.0284039251739042e-01 -1.2622180083169097e+00 4.9632719251497187e-01 4.1218086896840450e-01 7.2856602250022384e-01 -1.9121889215482643e-01 2.1854154256512290e-01 -4.1403764613403260e-01 6.5207910798995503e-02 -8.8385015426937197e-01 1.3045453617264996e-01 1.6700874985812197e+00 -5.3562782732852365e-01 -1.6780885190849207e-01 2.7373796117366339e-01 6.1021457276939584e-01 6.4734121028366565e-02 -7.9172910697398707e-02 -8.5957657741355914e-02 4.2750368851894660e-01 2.3430497793347663e-02 5.2864044736810785e-02 -1.5507892480463864e-01 1.9297443663178079e-01 -2.0133395589128042e-01 -4.8016387179246228e-01 1.5277181897184416e-01 
        </Neuron>
        <Neuron NSynapses="28">
          -5.0247650272709679e-02 1.9567949244278759e+00 1.6005068052423428e+00 1.2377832183960769e+00 -1.9961337062815188e+00 8.0237194046044846e-01 -6.6361669712358351e-02 -1.4104047554831729e+00 5.5602722718669151e-01 6.2104980232922345e-02 5.8263899592621138e-01 -5.6031357945655391e-01 -1.5875404078958795e+00 2.5992365046717967e+00 1.4361559473385788e-01 -4.1487084735941165e-01 -3.1571601706947583e-01 -2.0970536545155730e-01 1.5287170744112224e-02 1.6648725215076360e-01 -4.4517941925920279e-01 2.0416256049792744e-02 -7.2843609706606374e-02 1.6767163576572774e-01 -3.4412285449771435e-01 4.1446635242381136e-01 1.4709180255343652e+00 -1.1364688423981988e+00 
        </Neuron>
        <Neuron NSynapses="28">
          6.6048172849201753e-02 2.0298169298131091e-01 3.5213475656021886e-01 -1.2792727962201225e+00 3.8399125604479389e-01 1.3924727122402483e+00 5.2020707618169987e-02 -1.2733822085754021e+00 -4.0359898992410170e-03 1.3169352636224962e-01 -6.8605825522368946e-01 -3.4431927687917396e-01 1.4844871354633336e+00 -2.2400680901680498e-01 1.2636670225896224e-01 -1.1369679709411008e-01 -1.3589790182917565e+00 5.0025268914287484e-02 2.5517429378307564e-02 -1.6450150099958852e-01 3.5643559265140415e-02 -2.6952435806072622e-01 6.8729532622299805e-02 1.3334660980680704e-01 -3.6306225804584258e-02 6.6238013817709690e-02 1.0007737387991340e+00 3.6558695942732311e-01 
        </Neuron>
        <Neuron NSynapses="28">
          1.9138694709355786e-01 7.0917529052568617e-01 3.9505348032662446e-01 -1.8436442526769594e-02 -8.7023035905451163e-01 -9.3940088966239799e-01 -1.1331288489644693e-01 4.7512591960402216e-02 -7.9635758015125947e-03 2.0939791325433641e-02 1.2406557778703802e+00 -1.7007710108671054e-01 8.6343468619623731e-01 7.1955506188676699e-01 -2.5226627841149568e-02 -5.2983448900973382e-02 -1.6138373975010063e+00 8.4609333560734232e-02 -4.4878136136171261e-02 5.0536409070493588e-02 -1.4017670245929212e-01 -1.4920315313797006e-01 1.7645073168009444e-02 -2.1795751061545958e-02 -9.0079319304533112e-02 -5.5305053909247984e-03 4.9645232372464182e-01 -2.0343011390870434e+00 
        </Neuron>
        <Neuron NSynapses="28">
          8.7742933438874099e-02 3.7568700685455503e-01 1.1780741594919657e+00 -9.0732805792076443e-01 -2.3655083173178729e-01 -9.8635650732510433e-02 -7.2037551176626052e-02 -1.5692180021562432e+00 1.2713954606361114e-02 2.5758783310952143e-02 1.4767895574368832e+00 -5.7763492360598294e-02 3.4689025911971177e-01 -1.5153667710624723e-02 -3.0107680671609749e-01 1.9293945080086961e-01 8.9989536693927097e-01 -1.8638773668578645e-02 2.5051984402801996e-02 1.9161642987973440e-01 6.8071200919507613e-01 -3.4106286415938922e-02 -1.2782263888703727e-01 -4.9987847127053307e-02 -9.8636429528894579e-02 1.1374885224156067e-01 7.6388041817872829e-02 2.0772469539586050e-01 
        </Neuron>
        <Neuron NSynapses="28">
          9.5089678935703192e-02 2.5819171555960376e+00 -1.4663946565798252e+00 -6.9621096971792196e-01 -1.9551466571211575e+00 -4.3326142734689910e-01 -3.3643642024877357e-01 1.6503364739714204e+00 -8.2072745374510214e-01 4.8953885061791824e-01 -1.9321443463015697e+00 -2.3863814253068136e-01 -9.7658040737826490e-01 2.2758718123480124e+00 2.1345104069290299e-01 -2.0031219569331271e-01 4.5378713275932056e-02 -1.4332858287171851e-01 -5.9843585938142263e-01 -3.6877215318923823e-01 -2.7007406403570383e-01 -2.4576738096345674e-01 5.0655040489148484e-01 -1.6398238639924179e-01 -1.5141731780176679e-01 1.1197604372634483e-01 1.2326232160627593e+00 -7.7781424680100320e-01 
        </Neuron>
        <Neuron NSynapses="28">
          -2.4947411786690335e-01 2.1302850640954509e+00 9.0411708834005877e-01 -1.5247880290513411e+00 -1.5166835850031686e+00 2.1918549614912672e+00 5.1143573663141706e-02 -5.7391380250495105e-01 9.2494014565725502e-01 -2.7779705993143849e-01 9.9279716367476722e-01 -8.3874214480910758e-02 -9.6991932795348779e-01 1.5324839791992231e+00 -4.8795770806320293e-01 -1.7058580233988485e-01 2.4014592437364549e-01 1.7787196868751787e-01 7.0489353143371181e-01 5.0618883850484397e-01 1.6369963469045144e-02 -4.4084235560787235e-02 -5.5349156803318145e-01 4.6306950319334156e-01 -7.3187715564684963e-01 5.9477142690147547e-02 8.5706958888653628e-01 -9.9192696691464455e-01 
        </Neuron>
        <Neuron NSynapses="28">
          2.0091991929552144e-01 1.6260487023275156e+00 2.4586227034417082e-01 -4.4196438941852034e-01 -1.2285326649816009e+00 6.4689183238567372e-01 2.8762239727918149e-01 -1.5995344046005695e+00 -2.4510563606992253e-01 -1.3491281923617032e-01 -9.0506280251344262e-01 2.1941001229186230e-01 2.9934362195141034e-01 1.0408464950050953e+00 2.4254747552019254e-01 3.6482565416039092e-01 4.2026723046277731e-01 -2.2332945827260306e-01 -2.2877376002260072e-01 -2.1740855588878263e-01 -2.6507039061492527e-01 -8.3718482678643721e-02 2.0000850180019367e-01 -3.4915454637140531e-01 3.1257718412909322e-03 1.1472730934264089e-01 9.6492624211988698e-01 -6.4109268517286278e-01 
        </Neuron>
        <Neuron NSynapses="28">
          8.7390121056417158e-01 -1.7796666807007340e+00 -1.5259302467608324e+00 -2.8560546106606105e-01 -7.0702369331726300e-01 -1.6132692553711427e+00 1.2190721441894798e+00 -1.0870307426703354e+00 -1.2703587999449619e+00 1.8672272984794196e+00 2.1492244349829433e-02 6.5646655839309453e-01 -4.0423376151875201e-01 7.7105866783073063e-01 7.2032732302155766e-01 5.7820265496080914e-01 -2.1747676814404418e-01 -4.9240901796333864e-01 -4.4349832965125030e-01 1.1393119922754025e+00 4.9251241297029580e-01 -9.3212179460786548e-01 3.5257350085549177e-01 8.4312786834041553e-01 1.7194007960255646e+00 -1.5024787045430363e+00 1.5166461778721909e+00 8.9148592311960639e-01 
        </Neuron>
        <Neuron NSynapses="28">
          -8.6547073070169933e-01 -5.9731391736587742e+00 -1.5030499364130645e+00 9.0639932756426855e-01 2.8930647190900785e+00 6.9844353980378771e-01 1.6385105006072793e+00 7.4607872228757910e-01 1.1205130562088295e+00 9.3641636179377019e-01 5.3758115195036871e-01 -8.2356486030690246e-01 1.9069847078544833e+00 -3.4545656891539434e+00 5.3370009325091849e-01 1.4411056214036535e+00 -1.3469750707300319e+00 -4.8990111861856167e-01 -2.9888749405158432e-01 -9.3426693884898637e-01 -4.5996373369747053e-02 -1.5277072551470081e+00 -2.0248386431541074e-02 -4.3349972766139450e-01 1.0541093939867177e+00 5.7050270498337841e-01 -1.6773203176888001e+00 3.5805324508849729e-01 
        </Neuron>
        <Neuron NSynapses="28">
          -8.3916866218587449e-01 -3.1882561277246294e-04 2.3157352076501247e+00 -1.9681102242589865e+00 9.3101063881965178e+00 -4.4087293912298675e-01 -1.4822248462722174e+00 -2.9920407904599258e+00 -1.0135049130588261e+00 1.1229643249358812e+00 -5.3658371260274662e-01 -1.9147735429746866e+00 -2.7972595967214993e+00 5.2633222982656869e-01 1.5418827994880422e+00 1.6316973678326319e+00 2.6269319928880241e+00 -9.7746695872896017e-01 -1.4644977346294443e+00 -3.7185165596751929e-01 -6.8046817914326119e-01 -1.5392255153850358e+00 -5.1158894458809412e-01 3.2606571454436534e-01 -1.3554985253919158e+00 1.8278975593785312e+00 3.7753340597440882e-01 5.1512546051145183e+00 
        </Neuron>
        <Neuron NSynapses="28">
          -7.5991824473288117e-01 -1.3109090589117103e+00 1.9683770556349593e+00 -2.9342466742361017e-01 6.0907758262730638e-01 1.5897191565645179e+00 1.5149147240256848e+00 -6.9415600289526447e-01 1.3352987661016054e+00 -1.7629742234851393e+00 1.0850402761875835e+00 2.2134149214319523e+00 -6.6334860843122490e-01 -7.9329240113826982e-01 -7.9447366544740627e-01 -5.2884067510581900e-01 1.9239817179439449e+00 5.1753659987607803e-01 4.3736314953504002e-01 -1.2663354741140944e+00 -4.8682773944562174e-01 7.7611150790246253e-01 -3.3915625224930557e-01 -8.4943695612494552e-01 -1.8495440518648067e+00 1.6469604668419917e+00 1.6394676034706401e-01 -9.8488283584102654e-01 
        </Neuron>
        <Neuron NSynapses="28">
          -1.1723474187154860e-01 -1.0662354424744752e+01 1.3754314712483315e+00 1.7785070983327400e+00 8.0789352465114969e-02 -1.0388504670448417e+00 -2.7037760011898132e-01 1.6002586675167778e+00 1.7901088457715378e-01 1.6235674334527408e-01 -7.9268525433484249e-01 2.0559831941248269e-01 6.4881126162308267e-01 9.0196736770521007e+00 1.1713468707370120e-01 -7.1140940133910624e-01 -1.4385676614352501e+00 -2.2551028719255424e+00 1.5173665273873160e-01 1.9086083298013060e-01 -6.8546774001983543e-02 -1.4346444892857410e-01 4.3257378209752798e-02 3.5763542727218939e-04 -2.1435100128623015e+00 8.6626218543604738e-01 5.1627669171473061e+00 3.0984554967606565e-01 
        </Neuron>
        <Neuron NSynapses="28">
          -1.2252970946705673e-01 2.2654496620989573e+00 1.8758627811228505e+00 -1.5137156816543340e+00 2.3155430023142023e-01 -1.2517451103853869e+00 2.9695384991237866e-01 -1.1013815598639469e+00 -2.7324882447060794e-01 8.3860653667993279e-02 4.9314531608580847e-01 2.2136393334950294e-02 -1.1506324455118671e+00 -1.0946153790263555e+00 3.7651678373912506e-01 3.7170921267444157e-01 1.0571195227292771e+00 -1.8682174421429346e-01 2.6839207576179069e-01 -4.4099622678626027e-01 5.6353690082796382e-01 1.3033706224816999e-01 1.5383742588659771e-01 4.4449408941243140e-01 6.6860409730029191e-01 -7.8407838653236039e-01 1.5351600512906874e-01 -3.2572045561896412e-01 
        </Neuron>
        <Neuron NSynapses="28">
          7.6373630063418088e-02 -3.0273469802738406e-01 -2.2702614182627892e-01 -7.3604265987147155e-01 -1.3089372723585810e-01 -1.1863864484695041e+00 -3.9977079136644771e-02 -1.3160114253614010e+00 1.4970484101864526e-01 -1.1668016995871458e-01 -6.9828467770907776e-01 9.3929651377202494e-02 3.4363268516273904e-01 1.1800247383031510e-01 -1.1132866283852272e-01 -1.5214269317399573e-01 1.2226038403784809e+00 -7.5032786185173075e-02 2.2764750131161467e-02 3.3762966254291184e-02 -9.0900632729790279e-02 -2.3732739476084541e-01 2.3108723823578002e-02 3.5040055510655164e-02 -7.6902574031584936e-01 8.8321473208399795e-02 2.3243669975414150e-01 -1.1685556171234996e+00 
        </Neuron>
        <Neuron NSynapses="28">
          3.3053306627547313e-01 1.6622191051731483e+00 1.9405949808021226e+00 1.0560015253667003e+00 -3.1877773309359769e+00 3.2002533287883161e-01 -1.0104966540122953e+00 -2.8748655549043658e+00 -5.9660527266150502e-02 1.2066652375568694e-01 1.0707047165201300e+00 2.9104214806928010e-02 -8.5993432084800370e-02 6.0192551451549070e+00 5.7151457650091142e-01 -3.9414359661002324e-01 1.1082901793561968e+00 -2.1999766291524608e-01 1.1469320893079911e+00 -1.0228767775231511e+00 5.4807471493292981e-01 -4.7145404793270823e-01 1.7782003162443755e-01 -3.9846147132791665e-01 1.6234315135644634e-01 -2.6120030997819554e-01 1.5982498997864001e+00 6.1987987008557932e-01 
        </Neuron>
        <Neuron NSynapses="28">
          4.5613530426810711e-02 2.3878112867578509e+00 -1.7889581446761089e+00 3.3881392818615147e-01 -7.4611016023307641e-01 8.4884394524704687e-01 -6.8834667298386953e-01 -1.1341185109720928e+00 8.2929618155445695e-01 -9.0847903534162178e-01 -1.8512661515237721e+00 -6.5695155712812470e-01 1.0975690707234811e+00 8.8812967787420094e-02 5.6784283113164835e-01 -4.8186150680201684e-01 9.3667962400045368e-01 1.1494974084745166e-01 2.2403069479993371e-01 -4.8367638884339387e-01 -5.3570987426490257e-01 1.9656129400980358e-02 -3.9549988338984980e-02 4.7951190600096411e-01 -8.8170132832536899e-02 1.1434778322751711e-01 1.7161676901068315e+00 -1.2560053327093235e+00 
        </Neuron>
        <Neuron NSynapses="28">
          -4.4157849961201306e-01 -3.1303302209662054e-01 -4.1960876553579957e-01 -1.5218242492749525e+00 2.2901088234775870e+00 3.7517025582242641e-01 1.3785603003255327e+00 -1.0816778829548470e+00 -9.8313541240966501e-03 1.6169510071074655e-02 -1.9064394259055832e+00 -2.7422891539284916e-01 -1.4185580199289853e+00 -4.6885387952434820e+00 -5.6224824807821916e-01 -8.1922605524845527e-03 1.7277126610775253e+00 -4.5247402098370720e-01 -8.4866227418844697e-01 8.2306369973753324e-01 -4.7916897029951194e-01 4.0177143418557704e-01 1.2516836809232454e-01 -1.8181615736511283e-01 -5.7514821648300263e-01 8.2211053183979199e-02 9.8123856505974028e-01 -5.1653370721874026e-01 
        </Neuron>
        <Neuron NSynapses="28">
          -9.1979681100335720e-01 -3.4779515086182360e+00 -1.4278319490846871e+00 2.5137867409463435e+00 -9.8926895456086719e+00 1.6404172575893992e+00 -9.9569524948826413e-02 -8.0047887033881737e-01 -1.8337857519430523e+00 -1.4329510761913697e+00 1.0969500349085639e+00 9.9367993183656467e-01 3.6716101331746148e-01 -2.0775459961514420e+00 8.3014075885423710e-01 1.8091902362023893e-01 -1.7590326121386475e+00 2.2737112710324285e+00 5.5504454583330642e-01 -1.1102852207175384e+00 -1.6466529959144010e+00 -1.7859067384730947e+00 2.5302305510681750e-01 1.4698640406584851e+00 9.5333951768838254e-01 4.8082245393398848e-01 -1.0559335999019845e+00 -3.7205539574300128e+00 
        </Neuron>
      </Layer>
      <Layer Index="1" NNeurons="29">
        <Neuron NSynapses="1">
          5.3917251733443541e-02 
        </Neuron>
        <Neuron NSynapses="1">
          -5.0792253345137506e-01 
        </Neuron>
        <Neuron NSynapses="1">
          8.8647024087163551e-01 
        </Neuron>
        <Neuron NSynapses="1">
          -1.6450380699612202e-02 
        </Neuron>
        <Neuron NSynapses="1">
          -6.0026594521194454e-01 
        </Neuron>
        <Neuron NSynapses="1">
          -6.8425016469668698e-02 
        </Neuron>
        <Neuron NSynapses="1">
          2.1578620617071113e-02 
        </Neuron>
        <Neuron NSynapses="1">
          -1.1101167606216169e+00 
        </Neuron>
        <Neuron NSynapses="1">
          3.8457450167826604e-02 
        </Neuron>
        <Neuron NSynapses="1">
          3.1087253452619187e-02 
        </Neuron>
        <Neuron NSynapses="1">
          -5.8915989831950089e-01 
        </Neuron>
        <Neuron NSynapses="1">
          -3.4032883347478178e-02 
        </Neuron>
        <Neuron NSynapses="1">
          9.6154203878895472e-01 
        </Neuron>
        <Neuron NSynapses="1">
          -4.5021307993986537e-01 
        </Neuron>
        <Neuron NSynapses="1">
          -6.0193176858041965e-02 
        </Neuron>
        <Neuron NSynapses="1">
          1.3928763697835063e-02 
        </Neuron>
        <Neuron NSynapses="1">
          -8.0619276213814495e-01 
        </Neuron>
        <Neuron NSynapses="1">
          3.9935296278781771e-02 
        </Neuron>
        <Neuron NSynapses="1">
          -2.8199432869620718e-03 
        </Neuron>
        <Neuron NSynapses="1">
          -5.6936290385030945e-02 
        </Neuron>
        <Neuron NSynapses="1">
          -1.5805467076477672e-02 
        </Neuron>
        <Neuron NSynapses="1">
          5.5495967800584377e-02 
        </Neuron>
        <Neuron NSynapses="1">
          3.8299671125214103e-02 
        </Neuron>
        <Neuron NSynapses="1">
          -5.2482445316250710e-04 
        </Neuron>
        <Neuron NSynapses="1">
          -1.3428549694411138e-01 
        </Neuron>
        <Neuron NSynapses="1">
          -1.7835698345385238e-02 
        </Neuron>
        <Neuron NSynapses="1">
          -1.1392934464460774e-01 
        </Neuron>
        <Neuron NSynapses="1">
          4.6254475459493277e-01 
        </Neuron>
        <Neuron NSynapses="1">
          7.0932054769617825e-01 
        </Neuron>
      </Layer>
      <Layer Index="2" NNeurons="1">
        <Neuron NSynapses="0"/>
      </Layer>
    </Layout>
  </Weights>
</MethodSetup>
