<?xml version="1.0"?>
<MethodSetup Method="MLP::MLP">
  <GeneralInfo>
    <Info name="TMVA Release" value="4.2.0 [262656]"/>
    <Info name="ROOT Release" value="5.28/00 [334848]"/>
    <Info name="Creator" value="han"/>
    <Info name="Date" value="Tue Sep  8 16:17:37 2020"/>
    <Info name="Host" value="Linux sukla01 3.10.0-327.36.3.el7.x86_64 #1 SMP Thu Oct 20 04:56:07 EDT 2016 x86_64 x86_64 x86_64 GNU/Linux"/>
    <Info name="Dir" value="/disk02/usr6/han/gd/ntgd/ntgd"/>
    <Info name="Training events" value="35"/>
    <Info name="TrainingTime" value="8.63391161e-01"/>
    <Info name="AnalysisType" value="Classification"/>
  </GeneralInfo>
  <Options>
    <Option name="NCycles" modified="Yes">600</Option>
    <Option name="HiddenLayers" modified="Yes">N+5</Option>
    <Option name="NeuronType" modified="Yes">tanh</Option>
    <Option name="RandomSeed" modified="No">1</Option>
    <Option name="EstimatorType" modified="No">MSE</Option>
    <Option name="NeuronInputType" modified="No">sum</Option>
    <Option name="V" modified="Yes">False</Option>
    <Option name="VerbosityLevel" modified="No">Default</Option>
    <Option name="VarTransform" modified="Yes">N</Option>
    <Option name="H" modified="Yes">True</Option>
    <Option name="CreateMVAPdfs" modified="No">False</Option>
    <Option name="IgnoreNegWeightsInTraining" modified="No">False</Option>
    <Option name="TrainingMethod" modified="No">BP</Option>
    <Option name="LearningRate" modified="No">2.000000e-02</Option>
    <Option name="DecayRate" modified="No">1.000000e-02</Option>
    <Option name="TestRate" modified="Yes">5</Option>
    <Option name="EpochMonitoring" modified="No">False</Option>
    <Option name="Sampling" modified="No">1.000000e+00</Option>
    <Option name="SamplingEpoch" modified="No">1.000000e+00</Option>
    <Option name="SamplingImportance" modified="No">1.000000e+00</Option>
    <Option name="SamplingTraining" modified="No">True</Option>
    <Option name="SamplingTesting" modified="No">False</Option>
    <Option name="ResetStep" modified="No">50</Option>
    <Option name="Tau" modified="No">3.000000e+00</Option>
    <Option name="BPMode" modified="No">sequential</Option>
    <Option name="BatchSize" modified="No">-1</Option>
    <Option name="ConvergenceImprove" modified="No">1.000000e-30</Option>
    <Option name="ConvergenceTests" modified="No">-1</Option>
    <Option name="UseRegulator" modified="Yes">False</Option>
    <Option name="UpdateLimit" modified="No">10000</Option>
    <Option name="CalculateErrors" modified="No">False</Option>
    <Option name="WeightRange" modified="No">1.000000e+00</Option>
  </Options>
  <Variables NVar="23">
    <Variable VarIndex="0" Expression="N200" Label="N200" Title="N200" Unit="" Internal="N200" Type="I" Min="1.10000000e+01" Max="3.90000000e+01"/>
    <Variable VarIndex="1" Expression="ReconCT" Label="ReconCT" Title="ReconCT" Unit="" Internal="ReconCT" Type="F" Min="2.68396504e+04" Max="5.32903312e+05"/>
    <Variable VarIndex="2" Expression="N10" Label="N10" Title="N10" Unit="" Internal="N10" Type="I" Min="7.00000000e+00" Max="2.60000000e+01"/>
    <Variable VarIndex="3" Expression="N50" Label="N50" Title="N50" Unit="" Internal="N50" Type="I" Min="8.00000000e+00" Max="3.30000000e+01"/>
    <Variable VarIndex="4" Expression="QSum10" Label="QSum10" Title="QSum10" Unit="" Internal="QSum10" Type="F" Min="5.82696152e+00" Max="3.05867386e+01"/>
    <Variable VarIndex="5" Expression="TSpread10" Label="TSpread10" Title="TSpread10" Unit="" Internal="TSpread10" Type="F" Min="6.04687500e+00" Max="1.00000000e+01"/>
    <Variable VarIndex="6" Expression="TRMS10" Label="TRMS10" Title="TRMS10" Unit="" Internal="TRMS10" Type="F" Min="1.89514637e+00" Max="4.30847073e+00"/>
    <Variable VarIndex="7" Expression="TRMS50" Label="TRMS50" Title="TRMS50" Unit="" Internal="TRMS50" Type="F" Min="1.64910007e+00" Max="1.14932404e+01"/>
    <Variable VarIndex="8" Expression="Beta1" Label="Beta1" Title="Beta1" Unit="" Internal="Beta1" Type="F" Min="-7.26116449e-02" Max="9.01963115e-01"/>
    <Variable VarIndex="9" Expression="Beta2" Label="Beta2" Title="Beta2" Unit="" Internal="Beta2" Type="F" Min="-6.52905256e-02" Max="8.10539484e-01"/>
    <Variable VarIndex="10" Expression="Beta3" Label="Beta3" Title="Beta3" Unit="" Internal="Beta3" Type="F" Min="-5.27240634e-02" Max="8.48644674e-01"/>
    <Variable VarIndex="11" Expression="Beta4" Label="Beta4" Title="Beta4" Unit="" Internal="Beta4" Type="F" Min="-3.20309587e-02" Max="7.42794037e-01"/>
    <Variable VarIndex="12" Expression="Beta5" Label="Beta5" Title="Beta5" Unit="" Internal="Beta5" Type="F" Min="-6.35468215e-02" Max="7.78404355e-01"/>
    <Variable VarIndex="13" Expression="BSenergy" Label="BSenergy" Title="BSenergy" Unit="" Internal="BSenergy" Type="F" Min="1.87189329e+00" Max="9.99900000e+03"/>
    <Variable VarIndex="14" Expression="BSwall" Label="BSwall" Title="BSwall" Unit="" Internal="BSwall" Type="F" Min="-1.00000000e+02" Max="1.62540991e+03"/>
    <Variable VarIndex="15" Expression="BSgood" Label="BSgood" Title="BSgood" Unit="" Internal="BSgood" Type="F" Min="2.27768883e-01" Max="7.13361919e-01"/>
    <Variable VarIndex="16" Expression="BSdirks" Label="BSdirks" Title="BSdirks" Unit="" Internal="BSdirks" Type="F" Min="1.56800061e-01" Max="9.99900000e+03"/>
    <Variable VarIndex="17" Expression="BSpatlik" Label="BSpatlik" Title="BSpatlik" Unit="" Internal="BSpatlik" Type="F" Min="-2.06945443e+00" Max="9.99900000e+03"/>
    <Variable VarIndex="18" Expression="BSovaq" Label="BSovaq" Title="BSovaq" Unit="" Internal="BSovaq" Type="F" Min="-8.83959830e-02" Max="4.19404566e-01"/>
    <Variable VarIndex="19" Expression="DWalln" Label="DWalln" Title="DWalln" Unit="" Internal="DWalln" Type="F" Min="6.83593750e-03" Max="1.61418860e+03"/>
    <Variable VarIndex="20" Expression="prompt_bonsai" Label="prompt_bonsai" Title="prompt_bonsai" Unit="" Internal="prompt_bonsai" Type="F" Min="1.97314739e+01" Max="4.01737158e+03"/>
    <Variable VarIndex="21" Expression="prompt_nfit" Label="prompt_nfit" Title="prompt_nfit" Unit="" Internal="prompt_nfit" Type="F" Min="4.38333282e+01" Max="2.42851636e+03"/>
    <Variable VarIndex="22" Expression="bonsai_nfit" Label="bonsai_nfit" Title="bonsai_nfit" Unit="" Internal="bonsai_nfit" Type="F" Min="8.21488495e+01" Max="4.25414746e+03"/>
  </Variables>
  <Spectators NSpec="0"/>
  <Classes NClass="2">
    <Class Name="Signal" Index="0"/>
    <Class Name="Background" Index="1"/>
  </Classes>
  <Transformations NTransformations="1">
    <Transform Name="Normalize">
      <Selection>
        <Input NInputs="23">
          <Input Type="Variable" Label="N200" Expression="N200"/>
          <Input Type="Variable" Label="ReconCT" Expression="ReconCT"/>
          <Input Type="Variable" Label="N10" Expression="N10"/>
          <Input Type="Variable" Label="N50" Expression="N50"/>
          <Input Type="Variable" Label="QSum10" Expression="QSum10"/>
          <Input Type="Variable" Label="TSpread10" Expression="TSpread10"/>
          <Input Type="Variable" Label="TRMS10" Expression="TRMS10"/>
          <Input Type="Variable" Label="TRMS50" Expression="TRMS50"/>
          <Input Type="Variable" Label="Beta1" Expression="Beta1"/>
          <Input Type="Variable" Label="Beta2" Expression="Beta2"/>
          <Input Type="Variable" Label="Beta3" Expression="Beta3"/>
          <Input Type="Variable" Label="Beta4" Expression="Beta4"/>
          <Input Type="Variable" Label="Beta5" Expression="Beta5"/>
          <Input Type="Variable" Label="BSenergy" Expression="BSenergy"/>
          <Input Type="Variable" Label="BSwall" Expression="BSwall"/>
          <Input Type="Variable" Label="BSgood" Expression="BSgood"/>
          <Input Type="Variable" Label="BSdirks" Expression="BSdirks"/>
          <Input Type="Variable" Label="BSpatlik" Expression="BSpatlik"/>
          <Input Type="Variable" Label="BSovaq" Expression="BSovaq"/>
          <Input Type="Variable" Label="DWalln" Expression="DWalln"/>
          <Input Type="Variable" Label="prompt_bonsai" Expression="prompt_bonsai"/>
          <Input Type="Variable" Label="prompt_nfit" Expression="prompt_nfit"/>
          <Input Type="Variable" Label="bonsai_nfit" Expression="bonsai_nfit"/>
        </Input>
        <Output NOutputs="23">
          <Output Type="Variable" Label="N200" Expression="N200"/>
          <Output Type="Variable" Label="ReconCT" Expression="ReconCT"/>
          <Output Type="Variable" Label="N10" Expression="N10"/>
          <Output Type="Variable" Label="N50" Expression="N50"/>
          <Output Type="Variable" Label="QSum10" Expression="QSum10"/>
          <Output Type="Variable" Label="TSpread10" Expression="TSpread10"/>
          <Output Type="Variable" Label="TRMS10" Expression="TRMS10"/>
          <Output Type="Variable" Label="TRMS50" Expression="TRMS50"/>
          <Output Type="Variable" Label="Beta1" Expression="Beta1"/>
          <Output Type="Variable" Label="Beta2" Expression="Beta2"/>
          <Output Type="Variable" Label="Beta3" Expression="Beta3"/>
          <Output Type="Variable" Label="Beta4" Expression="Beta4"/>
          <Output Type="Variable" Label="Beta5" Expression="Beta5"/>
          <Output Type="Variable" Label="BSenergy" Expression="BSenergy"/>
          <Output Type="Variable" Label="BSwall" Expression="BSwall"/>
          <Output Type="Variable" Label="BSgood" Expression="BSgood"/>
          <Output Type="Variable" Label="BSdirks" Expression="BSdirks"/>
          <Output Type="Variable" Label="BSpatlik" Expression="BSpatlik"/>
          <Output Type="Variable" Label="BSovaq" Expression="BSovaq"/>
          <Output Type="Variable" Label="DWalln" Expression="DWalln"/>
          <Output Type="Variable" Label="prompt_bonsai" Expression="prompt_bonsai"/>
          <Output Type="Variable" Label="prompt_nfit" Expression="prompt_nfit"/>
          <Output Type="Variable" Label="bonsai_nfit" Expression="bonsai_nfit"/>
        </Output>
      </Selection>
      <Class ClassIndex="0">
        <Ranges>
          <Range Index="0" Min="3.6000000000000000e+01" Max="3.9000000000000000e+01"/>
          <Range Index="1" Min="2.6839650390625000e+04" Max="4.6345162500000000e+05"/>
          <Range Index="2" Min="2.1000000000000000e+01" Max="2.6000000000000000e+01"/>
          <Range Index="3" Min="2.8000000000000000e+01" Max="3.3000000000000000e+01"/>
          <Range Index="4" Min="2.5993665695190430e+01" Max="3.0586738586425781e+01"/>
          <Range Index="5" Min="8.6875000000000000e+00" Max="9.7812500000000000e+00"/>
          <Range Index="6" Min="2.5724575519561768e+00" Max="2.7793431282043457e+00"/>
          <Range Index="7" Min="6.4999928474426270e+00" Max="7.5945115089416504e+00"/>
          <Range Index="8" Min="1.8874292727559805e-03" Max="1.3097447156906128e-01"/>
          <Range Index="9" Min="-2.6970749720931053e-02" Max="2.6433814316987991e-02"/>
          <Range Index="10" Min="-1.7274042591452599e-02" Max="-4.4445255771279335e-03"/>
          <Range Index="11" Min="-6.3164331950247288e-03" Max="5.8111816644668579e-02"/>
          <Range Index="12" Min="9.6634002402424812e-03" Max="3.0794309452176094e-02"/>
          <Range Index="13" Min="5.4849119186401367e+00" Max="6.2780451774597168e+00"/>
          <Range Index="14" Min="6.8919226074218750e+02" Max="1.6254099121093750e+03"/>
          <Range Index="15" Min="5.8979964256286621e-01" Max="6.3852131366729736e-01"/>
          <Range Index="16" Min="1.5680006146430969e-01" Max="2.1223953366279602e-01"/>
          <Range Index="17" Min="-2.0694544315338135e+00" Max="-1.9200220108032227e+00"/>
          <Range Index="18" Min="3.2327735424041748e-01" Max="3.6266386508941650e-01"/>
          <Range Index="19" Min="5.5668371582031250e+02" Max="1.6141885986328125e+03"/>
          <Range Index="20" Min="1.9731473922729492e+01" Max="8.9123672485351562e+01"/>
          <Range Index="21" Min="4.3833328247070312e+01" Max="1.3341929626464844e+02"/>
          <Range Index="22" Min="8.2148849487304688e+01" Max="1.3553494262695312e+02"/>
        </Ranges>
      </Class>
      <Class ClassIndex="1">
        <Ranges>
          <Range Index="0" Min="1.1000000000000000e+01" Max="2.8000000000000000e+01"/>
          <Range Index="1" Min="3.7999472656250000e+04" Max="5.3290331250000000e+05"/>
          <Range Index="2" Min="7.0000000000000000e+00" Max="1.0000000000000000e+01"/>
          <Range Index="3" Min="8.0000000000000000e+00" Max="1.7000000000000000e+01"/>
          <Range Index="4" Min="5.8269615173339844e+00" Max="2.4460725784301758e+01"/>
          <Range Index="5" Min="6.0468750000000000e+00" Max="1.0000000000000000e+01"/>
          <Range Index="6" Min="1.8951463699340820e+00" Max="4.3084707260131836e+00"/>
          <Range Index="7" Min="1.6491000652313232e+00" Max="1.1493240356445312e+01"/>
          <Range Index="8" Min="-7.2611644864082336e-02" Max="9.0196311473846436e-01"/>
          <Range Index="9" Min="-6.5290525555610657e-02" Max="8.1053948402404785e-01"/>
          <Range Index="10" Min="-5.2724063396453857e-02" Max="8.4864467382431030e-01"/>
          <Range Index="11" Min="-3.2030958682298660e-02" Max="7.4279403686523438e-01"/>
          <Range Index="12" Min="-6.3546821475028992e-02" Max="7.7840435504913330e-01"/>
          <Range Index="13" Min="1.8718932867050171e+00" Max="9.9990000000000000e+03"/>
          <Range Index="14" Min="-1.0000000000000000e+02" Max="5.4691931152343750e+02"/>
          <Range Index="15" Min="2.2776888310909271e-01" Max="7.1336191892623901e-01"/>
          <Range Index="16" Min="1.9027601182460785e-01" Max="9.9990000000000000e+03"/>
          <Range Index="17" Min="9.9990000000000000e+03" Max="9.9990000000000000e+03"/>
          <Range Index="18" Min="-8.8395982980728149e-02" Max="4.1940456628799438e-01"/>
          <Range Index="19" Min="6.8359375000000000e-03" Max="1.4658037109375000e+03"/>
          <Range Index="20" Min="2.8743930053710938e+02" Max="4.0173715820312500e+03"/>
          <Range Index="21" Min="6.2116893768310547e+01" Max="2.4285163574218750e+03"/>
          <Range Index="22" Min="1.6549763488769531e+02" Max="4.2541474609375000e+03"/>
        </Ranges>
      </Class>
      <Class ClassIndex="2">
        <Ranges>
          <Range Index="0" Min="1.1000000000000000e+01" Max="3.9000000000000000e+01"/>
          <Range Index="1" Min="2.6839650390625000e+04" Max="5.3290331250000000e+05"/>
          <Range Index="2" Min="7.0000000000000000e+00" Max="2.6000000000000000e+01"/>
          <Range Index="3" Min="8.0000000000000000e+00" Max="3.3000000000000000e+01"/>
          <Range Index="4" Min="5.8269615173339844e+00" Max="3.0586738586425781e+01"/>
          <Range Index="5" Min="6.0468750000000000e+00" Max="1.0000000000000000e+01"/>
          <Range Index="6" Min="1.8951463699340820e+00" Max="4.3084707260131836e+00"/>
          <Range Index="7" Min="1.6491000652313232e+00" Max="1.1493240356445312e+01"/>
          <Range Index="8" Min="-7.2611644864082336e-02" Max="9.0196311473846436e-01"/>
          <Range Index="9" Min="-6.5290525555610657e-02" Max="8.1053948402404785e-01"/>
          <Range Index="10" Min="-5.2724063396453857e-02" Max="8.4864467382431030e-01"/>
          <Range Index="11" Min="-3.2030958682298660e-02" Max="7.4279403686523438e-01"/>
          <Range Index="12" Min="-6.3546821475028992e-02" Max="7.7840435504913330e-01"/>
          <Range Index="13" Min="1.8718932867050171e+00" Max="9.9990000000000000e+03"/>
          <Range Index="14" Min="-1.0000000000000000e+02" Max="1.6254099121093750e+03"/>
          <Range Index="15" Min="2.2776888310909271e-01" Max="7.1336191892623901e-01"/>
          <Range Index="16" Min="1.5680006146430969e-01" Max="9.9990000000000000e+03"/>
          <Range Index="17" Min="-2.0694544315338135e+00" Max="9.9990000000000000e+03"/>
          <Range Index="18" Min="-8.8395982980728149e-02" Max="4.1940456628799438e-01"/>
          <Range Index="19" Min="6.8359375000000000e-03" Max="1.6141885986328125e+03"/>
          <Range Index="20" Min="1.9731473922729492e+01" Max="4.0173715820312500e+03"/>
          <Range Index="21" Min="4.3833328247070312e+01" Max="2.4285163574218750e+03"/>
          <Range Index="22" Min="8.2148849487304688e+01" Max="4.2541474609375000e+03"/>
        </Ranges>
      </Class>
    </Transform>
  </Transformations>
  <MVAPdfs/>
  <Weights>
    <Layout NLayers="3">
      <Layer Index="0" NNeurons="24">
        <Neuron NSynapses="28">
          -3.0768937356034054e-01 1.9393840618116784e+00 9.8781162701648206e-01 1.6749073996188266e+00 -1.7528623478144010e+00 -1.6035606017986350e+00 -8.5064334336779079e-01 1.8799098974729624e+00 -1.3912538969367632e+00 -9.7622996037694254e-01 -1.5935168504558592e+00 -3.7056436248164537e-01 -1.0273313797853374e+00 -4.5392605423771659e-01 -6.5813983508016061e-01 5.4724770202879713e-01 -4.9392903856386861e-01 1.7517116670718600e+00 2.0557116646411844e-01 1.3607273288870552e+00 -3.2010645217459621e-01 -6.6759621699627714e-01 7.0208407596038958e-01 1.6531823944923801e-01 -1.1270706922436116e+00 -2.2262877967532421e-01 1.5195220134024445e+00 -1.0660231279126862e+00 
        </Neuron>
        <Neuron NSynapses="28">
          -1.8620001526525081e+00 1.2534990573542218e-01 7.5998341536729819e-01 1.9283723541309186e+00 -4.0451334779944087e-01 7.8385981263934437e-02 3.2959987392416129e-01 -1.3436088972541743e-01 -1.4384343100219763e+00 1.5876895962524253e+00 -1.1173062900258803e+00 1.3292032662735316e+00 1.0554095193030282e+00 8.3913684844833847e-01 1.7843656378223265e+00 1.4254593115548595e+00 -5.8310673988993422e-01 -1.6370135597878082e+00 7.0029851624430850e-01 -1.9275909305764746e-01 1.5732671841665722e+00 1.2542697099084319e+00 1.6333143083691777e+00 1.2216240506311802e+00 -1.6519587889409126e+00 1.2167735391414498e+00 -1.6069439299892498e+00 -9.4949624671377542e-01 
        </Neuron>
        <Neuron NSynapses="28">
          -1.2603876456576568e+00 -1.8598677622546280e+00 1.5457382033981817e+00 9.6944231177490725e-01 -1.1573586521268004e+00 3.0574285198526885e-01 -4.0034517154630367e-01 7.9233879685449538e-01 1.8835219722685155e+00 -1.7992042070257253e-01 -1.6218140405793388e-01 -9.2401624760612611e-01 1.0072536547410336e+00 -8.7615425589440221e-01 -1.1084129842755437e+00 -1.4417156695545559e+00 8.8227569706881448e-01 1.2070048721946036e+00 1.3575294444274779e+00 -3.9308626378319744e-01 -2.0565355730016175e+00 -2.0335619318034479e+00 1.0220846539324562e+00 4.5105530101397878e-01 1.9817265545239919e+00 5.9334294329273807e-01 1.1291181452462320e+00 -8.4140367484972090e-01 
        </Neuron>
        <Neuron NSynapses="28">
          -8.4672881934022726e-01 -2.1634094738483053e-01 1.1725166162209313e+00 -7.9185728422256496e-01 -1.2722401390298519e+00 -1.7582554020181007e+00 -2.5171116544142019e-01 1.1228226344301814e-02 1.6759046792100614e+00 -1.4980389074392049e+00 -1.0367914563763283e+00 1.8364693021672134e+00 -6.7765497422591592e-01 -1.5479759737005019e+00 -1.7401527025380583e+00 1.6083175248546372e-01 -1.7758183691633902e+00 -1.5773050708796634e+00 7.3411577823008323e-01 1.6032422097164760e+00 -1.2476277324765830e+00 1.5174339418371554e+00 -9.0987971839014747e-01 -8.6571283738221294e-01 9.3468907554185808e-04 3.0207370662169736e-01 -1.7035874048479926e+00 2.2365245217137616e-01 
        </Neuron>
        <Neuron NSynapses="28">
          2.9703136532213220e-01 1.6442348916866870e-01 -1.2773201279834365e+00 1.9444350680982112e+00 7.0060858279407168e-01 -1.2388224452887424e+00 6.7782202387927548e-01 -1.0689723861205727e+00 -1.5503640955650642e+00 2.2122065193802190e-01 -5.7725062912330571e-01 1.7676704953532993e+00 7.8301314449775183e-01 -4.1178477118793778e-02 -5.3536555485931492e-01 1.2699248536252677e-01 -1.8830369894552803e+00 1.0905984488824347e+00 1.9490278336444294e-01 -1.6972193920720877e+00 6.0845886344496491e-01 -1.4798408778478458e+00 5.1519123808084294e-02 1.2127115073851427e+00 1.7422565728297832e+00 -1.8715166542927224e+00 3.8229185022574214e-01 1.5158368450817472e+00 
        </Neuron>
        <Neuron NSynapses="28">
          1.6490252910848058e+00 3.5250555060293287e-01 -1.5984087331876713e+00 6.4469525296864824e-02 -1.5539173681363958e+00 1.5821210125019676e+00 1.2997431167411961e+00 -5.6167296237386666e-01 -4.1169968428108045e-01 -1.6599893688337284e-02 -1.3697887220285894e+00 7.6597484404611382e-01 1.4802685759062566e+00 -5.6233868885713223e-01 -5.8719079737573876e-01 5.4716674342408400e-01 8.2163214829823694e-01 4.6954571682599394e-01 8.3133849379337632e-01 -1.6343460475536762e+00 1.5642800931179879e+00 6.5590195865078427e-01 4.7136939800201733e-01 5.4302024646591351e-01 9.6420293049304984e-01 -5.4364273564418886e-01 -5.9155693270634901e-01 1.0189838542869041e+00 
        </Neuron>
        <Neuron NSynapses="28">
          -8.9006822358607030e-01 -3.6370212929201917e-01 1.4921718443327310e+00 1.1747307621309737e+00 -3.1640611084502696e-01 1.5227614977877180e+00 1.8662885686460198e+00 -1.9393126020227955e+00 6.4688259579838825e-01 -3.0829236504463235e-02 4.3983253352960860e-01 -1.5382244867658352e+00 -1.6551013939882413e+00 1.1320173567984562e+00 1.6878777294911669e+00 -1.5393179307242701e+00 -5.6783414022473153e-02 -5.9570471872781716e-01 2.7570837988073765e-01 1.6699001106970552e+00 -3.9941442235331637e-01 -5.9227272345370507e-01 -1.0363290888362358e+00 1.0293088605188889e+00 1.6049504233649075e+00 1.0615451462947474e+00 2.8158445049176478e-01 -8.4231896041569443e-01 
        </Neuron>
        <Neuron NSynapses="28">
          -1.9771770010888245e+00 1.5085391973706210e+00 2.4402854507330779e-01 -8.9436013633350431e-01 -9.6320575997842039e-01 3.6183240725843807e-01 2.0018290197101093e-01 -1.7095515340028693e+00 1.5607179218739486e+00 6.2951248850590447e-01 -6.7603920611787616e-01 1.5706533088603258e-01 1.2451065491100040e+00 1.0632091535726986e+00 4.3030862531542557e-01 2.5536484042645863e-01 -1.7592811261326033e+00 -5.7614481615950686e-01 1.7146291402232083e+00 1.1888252399573820e+00 7.4098368192546948e-01 1.7249015300303536e-01 2.0216812271674773e+00 -1.7870310188418075e+00 -1.3018978805598107e+00 -1.6652421837557088e-01 -1.1463659867281006e+00 9.1863365673778064e-01 
        </Neuron>
        <Neuron NSynapses="28">
          1.7995963971269431e+00 -1.1920035851347899e+00 9.7233021500952999e-01 -2.5433596741733711e-01 -1.9686199113584681e+00 -1.1021713925755532e+00 1.1280790441933988e+00 -5.0090228602091093e-02 9.6422169520473500e-01 -1.3640831356987695e+00 1.8752749156966337e+00 -1.8615030849114236e+00 6.7274476545604001e-01 6.7414202383268035e-02 -1.4051516307596150e+00 -1.2595060707371306e+00 -1.9724737481840051e+00 -4.0290795917473388e-01 -1.9072347311061479e+00 -1.6653121196188614e+00 -1.8581374692510149e+00 1.8145893245800687e-01 -1.1165252764642779e+00 -1.5968596500946397e+00 1.4103523430820317e+00 -7.9144598044477021e-01 1.1456787289197148e-01 -1.0273780579643694e+00 
        </Neuron>
        <Neuron NSynapses="28">
          2.7863247816816072e-01 1.8560053882639667e+00 1.5532689035125693e+00 -1.0196606759996281e+00 -1.6946971740908634e+00 -1.1747830695521644e+00 -8.6389464330547239e-01 -1.7540175582247233e+00 2.9276669995314053e-01 1.1379223624163153e-01 2.0587675798224376e+00 -3.1373708055589117e-01 1.8937858310975730e-02 -5.3441066850851959e-01 -1.9594257825543173e+00 1.2942210334319457e+00 1.1169114535878781e+00 -7.5338146491159563e-01 -1.0465588555344765e+00 8.3170990667445843e-01 1.2799397298418196e+00 4.6772916104191309e-01 -5.4279264409301153e-01 -3.0883183214600324e-01 1.4464302594082337e+00 1.0684987831542558e+00 7.3447443023943471e-01 -2.4858870752560727e-01 
        </Neuron>
        <Neuron NSynapses="28">
          2.8093519742721479e-01 -3.5596752732227921e-01 -1.3229418613820727e+00 -6.8773697307774773e-01 -1.8283079559281428e+00 -1.5392917362955345e+00 -1.5778302044657977e+00 1.6167067156204504e+00 -1.8663329814731704e+00 1.6183864567768336e+00 -1.3585752520331691e+00 1.1761945280202226e+00 -1.2078927232222978e+00 4.7073536612552169e-01 8.0705655580915991e-01 -1.8730360116837512e+00 1.1744390453599121e-01 6.8063152581942488e-01 -1.8882739076803468e+00 -1.4479716207234659e+00 -1.6558807032687575e+00 -7.8467007917556519e-01 1.7914592847213680e+00 -5.1832524763514820e-01 2.7815487097413033e-01 -8.5054026463508536e-01 -1.4375306281603117e+00 -1.6831530013878495e+00 
        </Neuron>
        <Neuron NSynapses="28">
          -9.2876200432142908e-01 -1.2643064631066228e+00 1.0656739128862047e+00 -1.4007631220980428e+00 -1.3084764868314644e+00 1.5980524710954080e+00 2.8148967417592108e-01 -6.3549523690615506e-01 1.8257183818689748e+00 -1.8515865794873725e+00 1.5588955462711815e+00 1.1215149869070014e+00 -1.1665590534537638e+00 -7.9925540167804221e-01 -5.1343503850401213e-02 -1.1212206639017028e+00 4.0567201552506693e-01 2.0729130097823574e+00 1.3930545444523399e+00 1.5310423501233963e+00 -1.3178980180802482e+00 1.0701775092605796e+00 -1.9958400130619649e+00 6.4009846569788598e-01 -1.7285452710078075e+00 -1.7759027709925617e+00 -2.3338562506151961e-01 1.2697456080506480e+00 
        </Neuron>
        <Neuron NSynapses="28">
          4.7691738944848244e-01 1.1455573303374922e+00 4.0789785720390015e-01 -2.3711697115863592e-01 -7.5774290517517018e-01 -4.1633545243592598e-02 1.8951575542931196e+00 -1.6684848275310862e+00 2.6637436677251281e-01 -1.4505945633164667e+00 -2.8242132976696299e-01 1.8987009942240274e-01 9.2463217741060380e-02 -1.1415571003247884e+00 9.3086602615187952e-01 1.7644379118183702e+00 6.1537375682758588e-01 -3.8747582125010713e-02 -8.5422987857290367e-01 -1.5140091095545971e+00 -1.6787559674026238e+00 1.0405950925266227e+00 -5.7861996659680193e-01 -1.1427215717440304e+00 4.9393333103570441e-01 -1.6366635985865370e+00 -1.3708061447976736e+00 -1.5939044234662683e+00 
        </Neuron>
        <Neuron NSynapses="28">
          9.9685462848106099e-01 -9.7058735898009296e-01 -1.9634258382017324e+00 -1.0499145652479926e+00 -1.0138681306324813e+00 -1.8331441386026863e+00 1.0080827182267109e+00 -1.7102980296572996e+00 -1.2842377809645338e+00 1.6406334672374763e+00 4.0796710847710205e-01 3.9986576400110957e-01 -3.0728427759244353e-01 1.3158845235900645e+00 1.5147934925038113e+00 7.2824458175643847e-01 -9.4547834892461702e-01 -7.0021628124902802e-01 -1.8158819553730490e+00 8.1190758224736048e-01 8.9947068691487497e-01 2.6403616080417247e-01 1.0137071818710737e+00 1.0616241770407360e+00 1.6021113493207373e+00 -1.2214959180508145e+00 1.8724575695851176e+00 7.9336803843569226e-01 
        </Neuron>
        <Neuron NSynapses="28">
          -1.9161301295444479e+00 -4.3857699769582958e-01 -9.8833492614839591e-01 1.2559895863589654e+00 9.0338851080010329e-01 9.0962243440839452e-01 1.7234437996986158e+00 -2.8101202455022289e-01 1.8569271662077798e+00 1.8878246550142204e+00 8.4161455144690686e-02 -1.0220384827902174e+00 1.9423077211277642e+00 -1.9854225830064600e+00 3.4363010945168315e-01 1.6625028541095352e+00 -3.2194784285282002e-01 -7.3898992976697264e-01 1.4042372929415009e-03 -1.2662264957440670e+00 3.2422718253803617e-01 -2.0388367131521941e+00 2.2813870593991542e-01 -2.4219055870112419e-01 1.7385967853760840e+00 1.1693443837864701e+00 1.7121370740000212e+00 -5.6478850976713157e-01 
        </Neuron>
        <Neuron NSynapses="28">
          -4.1966679666615042e-01 4.4768144277130650e-01 1.8222723557010789e+00 -1.8801429460414134e+00 -1.3957212209555645e+00 -5.1870070273736890e-01 -1.4191518080374257e+00 -1.7921118131995970e+00 -1.4646233284350683e+00 5.9083015350826362e-01 1.5237527006515963e-01 -1.9734370455797079e+00 -2.3116003894573587e+00 -1.5336305441622680e-01 1.8648795496155226e+00 1.9282861254481101e+00 1.1155752516624167e+00 -6.4674034280958503e-01 -1.9575462332007945e+00 -2.8947298577831221e-01 -1.2624979980425093e+00 -1.7103200098303382e+00 -6.5397346439060633e-01 1.7784758463178325e-03 -1.4939666136365417e+00 1.6013355144833401e+00 9.9859689604218715e-01 1.5572501633670008e-01 
        </Neuron>
        <Neuron NSynapses="28">
          -6.3522477320716797e-01 -4.9347956316535485e-01 1.5308285420561223e+00 -1.0574503505563202e+00 2.7290120487799829e-01 1.3707212691672448e+00 1.3043568630468241e+00 -1.3174083961813325e+00 1.3209481365791609e+00 -1.9878709444436344e+00 1.4716406918050051e+00 1.9564569294194623e+00 -5.6645683220691334e-01 -3.2283109801863380e-01 8.9289798236579562e-04 -3.7976148095395057e-01 1.1958669152274963e+00 3.0999797006218655e-01 -9.3685633411578240e-01 -1.5940446833680295e+00 -7.9814641560969304e-02 1.9732401434491771e+00 3.2143942509026641e-01 -6.3116985304495388e-01 -1.9670181542278984e+00 1.9281939917087600e+00 5.1853248791367368e-01 -1.0812923742252949e+00 
        </Neuron>
        <Neuron NSynapses="28">
          -3.2307140021884367e-01 -9.1767084143782884e-01 1.2189006975559191e+00 1.1320298861192182e+00 -1.1976405818027476e+00 -9.9841734723410847e-01 1.6622273886004377e+00 1.1520616732692757e+00 2.5514551866703583e-01 2.5586918723286326e-03 -9.8622432464428145e-01 -1.5458600525373429e+00 9.1598624041303889e-01 3.8842982420575295e-01 8.1864074359488670e-01 -1.8051321596887948e+00 -1.9518017719390321e+00 -2.0203809239986734e+00 -3.3919940056628906e-01 -1.7598687301595686e+00 8.5044939327306834e-01 -2.2846686459914914e-01 1.6497161366618647e+00 3.5959919868451168e-01 -2.0320926647063384e+00 1.5287854429605923e+00 1.7698649917791633e+00 1.1901333914051639e+00 
        </Neuron>
        <Neuron NSynapses="28">
          -4.1357072257155292e-01 -1.1283194348001759e+00 1.8532756049295942e+00 -1.3670273768629464e+00 4.4909160816548099e-01 -1.0048409363771169e+00 1.4713208878845871e+00 -9.7290591298040219e-01 3.3634879528550410e-01 -3.6380553705644841e-01 2.7043570395168698e-01 -3.9066603496834751e-01 -9.0810529393277373e-01 8.0483665046351505e-01 1.9246980308233977e-01 7.1786012383473918e-01 1.0441921647084378e+00 -1.6858151784681039e+00 1.3695375965644103e+00 -2.0472656489038989e+00 9.5591180666962394e-01 8.4957679698351418e-01 8.6777988358283142e-01 1.4922776615147164e+00 1.4767911849512352e+00 -2.0624792461030843e+00 -6.4808961169073187e-01 -9.9535821647075695e-01 
        </Neuron>
        <Neuron NSynapses="28">
          6.8868495223038029e-01 -1.9063341650306459e-01 -3.3357588744000344e-01 -4.1418862530622441e-01 -2.2871463977735670e-01 -1.1127329048210537e+00 -4.1787100689824430e-01 -1.8444993934115326e+00 -3.3899733641608815e-01 2.7414106404240846e-01 -9.9382436293861431e-01 -1.2138554301810283e+00 8.7303742573525067e-01 2.4773721288914241e-01 -4.9174789829483978e-01 -1.4647881068788571e+00 1.9116428964747771e+00 -1.1458330137224269e-01 7.3350308480872328e-01 8.0268205303800377e-01 -1.3090809718947862e+00 -1.0269589184234547e+00 -2.5443328511137980e-01 -1.9280161317792641e+00 -5.9270890060171155e-01 -1.1509951781702561e+00 1.3625631047523614e+00 -1.9033591609875220e+00 
        </Neuron>
        <Neuron NSynapses="28">
          1.5719530677677451e+00 1.9665705330880285e+00 1.5121362936514062e+00 1.0671757699214670e+00 3.6683452813425083e-01 9.0807273647800016e-02 -9.0773179246666003e-01 -1.7840124988856050e+00 -1.0170126881267396e+00 -9.1255392265304791e-01 1.2935600607006279e+00 1.7643116517422117e-01 -5.7709690949167246e-02 1.4457362939802807e+00 1.0917512445372120e+00 -1.0565524729402453e+00 3.3096944176370152e-01 -1.7273188755999822e+00 8.4387378503850763e-01 -1.9143525331804396e+00 6.2078729450021630e-02 -1.1786162077220241e-01 1.0245870333050928e+00 -1.9288235259213411e+00 3.1792040605308586e-01 -1.7093895550044045e+00 -8.6950903713578276e-02 1.2565540646337430e+00 
        </Neuron>
        <Neuron NSynapses="28">
          -5.8696712449028909e-01 3.3273994205369328e-01 -1.6271413485625976e+00 1.0409823514988530e+00 -3.5308145682477060e-01 7.4782255515595430e-01 -1.8364351584116694e+00 -1.1085377306557567e+00 1.8941003515523873e+00 -1.7617297634385680e+00 -1.2003360793989191e+00 -6.8333131377317935e-01 1.4176501095867799e+00 1.4363122462339943e+00 1.3066707140570355e+00 -1.8023785555257501e+00 8.3543045971575824e-01 6.7701131558041006e-01 2.7060158582620736e-01 -1.2732324585754797e+00 -1.3489184051248579e+00 -1.1263203883103298e-02 -1.7871788262069455e-01 1.5443217480903773e+00 -5.8256785434667357e-01 -9.0414649465220293e-02 -1.3710192019429366e+00 1.3819440774507981e+00 
        </Neuron>
        <Neuron NSynapses="28">
          4.4359080074358154e-01 1.4846087637473913e+00 -8.4996925414225699e-01 -1.3622986737278566e+00 1.3569145071617921e+00 1.5840024741236891e-01 1.6290626394701206e+00 7.7122237036811305e-03 -9.7053543750315630e-01 -1.2831528533874192e+00 -1.6191296582695385e+00 -2.8538708902174786e-01 -1.4816241436484685e+00 -7.3469906865437709e-02 -1.4462513113923167e-01 -3.9503768421320695e-01 9.3384553787122049e-01 -2.0400975852088856e+00 -1.2769143618431282e+00 -9.1271220080987939e-02 -9.7960765795244620e-01 7.7078206079739131e-01 1.3428908467780996e+00 -1.7956410123332949e+00 -2.9356492931702738e-01 -1.3909123251790092e+00 5.8251600362708111e-01 3.9499738124780343e-01 
        </Neuron>
        <Neuron NSynapses="28">
          -1.1231514779953653e+00 -6.4482485177879345e-01 -1.6091589374332143e+00 1.2384442740215806e+00 -2.0910049911937612e-01 1.2108327109093542e+00 -1.5395686611203942e-03 -1.2655122499429710e+00 -1.4123225959216985e+00 -1.3719634153206768e+00 7.6091233146700576e-01 4.5410738298562409e-01 -9.7536348535851247e-02 -1.3420626006338712e+00 9.8703004189288412e-01 4.3764511681502125e-02 -1.8184632044627120e+00 1.8683870499162545e+00 9.8613715492883003e-01 -1.3775806575326603e+00 -9.4762106625952369e-01 -1.6329280429488973e+00 4.9267134575868898e-02 1.6482438041470182e+00 1.1074310499648670e+00 9.6177955968702222e-01 -2.1175068467674190e+00 -7.1240628886120461e-01 
        </Neuron>
      </Layer>
      <Layer Index="1" NNeurons="29">
        <Neuron NSynapses="1">
          -4.8743152597953543e-01 
        </Neuron>
        <Neuron NSynapses="1">
          -6.6615679826566476e-01 
        </Neuron>
        <Neuron NSynapses="1">
          2.1705342787216714e-01 
        </Neuron>
        <Neuron NSynapses="1">
          -5.3388039210940808e-01 
        </Neuron>
        <Neuron NSynapses="1">
          7.7214764020327542e-01 
        </Neuron>
        <Neuron NSynapses="1">
          -7.5841205578332194e-01 
        </Neuron>
        <Neuron NSynapses="1">
          -2.9671403139179414e-01 
        </Neuron>
        <Neuron NSynapses="1">
          -8.2833814530553374e-01 
        </Neuron>
        <Neuron NSynapses="1">
          1.3489650602748136e+00 
        </Neuron>
        <Neuron NSynapses="1">
          1.1968669964488937e-01 
        </Neuron>
        <Neuron NSynapses="1">
          1.5123323858656994e+00 
        </Neuron>
        <Neuron NSynapses="1">
          -6.3002679599269895e-01 
        </Neuron>
        <Neuron NSynapses="1">
          1.2285097425141187e+00 
        </Neuron>
        <Neuron NSynapses="1">
          7.1590894912418851e-02 
        </Neuron>
        <Neuron NSynapses="1">
          9.4966117653748205e-01 
        </Neuron>
        <Neuron NSynapses="1">
          -4.5449423411768780e-01 
        </Neuron>
        <Neuron NSynapses="1">
          -6.3776400275666811e-01 
        </Neuron>
        <Neuron NSynapses="1">
          -5.8378346763970246e-01 
        </Neuron>
        <Neuron NSynapses="1">
          2.7551504965710100e-01 
        </Neuron>
        <Neuron NSynapses="1">
          2.6591867357777055e-01 
        </Neuron>
        <Neuron NSynapses="1">
          4.8335295371593856e-01 
        </Neuron>
        <Neuron NSynapses="1">
          5.5503285058456875e-01 
        </Neuron>
        <Neuron NSynapses="1">
          -6.1288193777358529e-02 
        </Neuron>
        <Neuron NSynapses="1">
          1.9702507330370542e-01 
        </Neuron>
        <Neuron NSynapses="1">
          9.6762956525379884e-01 
        </Neuron>
        <Neuron NSynapses="1">
          -8.6256892458994566e-02 
        </Neuron>
        <Neuron NSynapses="1">
          -8.0053694405049192e-01 
        </Neuron>
        <Neuron NSynapses="1">
          -1.3301412356940224e-02 
        </Neuron>
        <Neuron NSynapses="1">
          1.1893646589580780e+00 
        </Neuron>
      </Layer>
      <Layer Index="2" NNeurons="1">
        <Neuron NSynapses="0"/>
      </Layer>
    </Layout>
  </Weights>
</MethodSetup>
