<?xml version="1.0"?>
<MethodSetup Method="MLP::MLP">
  <GeneralInfo>
    <Info name="TMVA Release" value="4.2.0 [262656]"/>
    <Info name="ROOT Release" value="5.28/00 [334848]"/>
    <Info name="Creator" value="han"/>
    <Info name="Date" value="Wed Nov 24 16:39:27 2021"/>
    <Info name="Host" value="Linux sukla01 3.10.0-327.36.3.el7.x86_64 #1 SMP Thu Oct 20 04:56:07 EDT 2016 x86_64 x86_64 x86_64 GNU/Linux"/>
    <Info name="Dir" value="/disk02/usr6/han/phd/test"/>
    <Info name="Training events" value="530"/>
    <Info name="TrainingTime" value="4.24729681e+00"/>
    <Info name="AnalysisType" value="Classification"/>
  </GeneralInfo>
  <Options>
    <Option name="NCycles" modified="Yes">300</Option>
    <Option name="HiddenLayers" modified="Yes">N+1,N-1</Option>
    <Option name="NeuronType" modified="Yes">sigmoid</Option>
    <Option name="RandomSeed" modified="No">1</Option>
    <Option name="EstimatorType" modified="Yes">CE</Option>
    <Option name="NeuronInputType" modified="No">sum</Option>
    <Option name="V" modified="Yes">True</Option>
    <Option name="VerbosityLevel" modified="No">Verbose</Option>
    <Option name="VarTransform" modified="Yes">N</Option>
    <Option name="H" modified="Yes">True</Option>
    <Option name="CreateMVAPdfs" modified="No">False</Option>
    <Option name="IgnoreNegWeightsInTraining" modified="No">False</Option>
    <Option name="TrainingMethod" modified="No">BP</Option>
    <Option name="LearningRate" modified="No">2.000000e-02</Option>
    <Option name="DecayRate" modified="No">1.000000e-02</Option>
    <Option name="TestRate" modified="Yes">5</Option>
    <Option name="EpochMonitoring" modified="No">False</Option>
    <Option name="Sampling" modified="No">1.000000e+00</Option>
    <Option name="SamplingEpoch" modified="No">1.000000e+00</Option>
    <Option name="SamplingImportance" modified="No">1.000000e+00</Option>
    <Option name="SamplingTraining" modified="No">True</Option>
    <Option name="SamplingTesting" modified="No">False</Option>
    <Option name="ResetStep" modified="No">50</Option>
    <Option name="Tau" modified="No">3.000000e+00</Option>
    <Option name="BPMode" modified="No">sequential</Option>
    <Option name="BatchSize" modified="No">-1</Option>
    <Option name="ConvergenceImprove" modified="No">1.000000e-30</Option>
    <Option name="ConvergenceTests" modified="No">-1</Option>
    <Option name="UseRegulator" modified="Yes">True</Option>
    <Option name="UpdateLimit" modified="No">10000</Option>
    <Option name="CalculateErrors" modified="No">False</Option>
    <Option name="WeightRange" modified="No">1.000000e+00</Option>
  </Options>
  <Variables NVar="11">
    <Variable VarIndex="0" Expression="NHits" Label="NHits" Title="NHits" Unit="" Internal="NHits" Type="F" Min="4.00000000e+00" Max="3.70000000e+01"/>
    <Variable VarIndex="1" Expression="N200" Label="N200" Title="N200" Unit="" Internal="N200" Type="F" Min="1.20000000e+01" Max="6.10000000e+01"/>
    <Variable VarIndex="2" Expression="TRMS" Label="TRMS" Title="TRMS" Unit="" Internal="TRMS" Type="F" Min="2.19863236e-01" Max="7.15431643e+00"/>
    <Variable VarIndex="3" Expression="Beta1" Label="Beta1" Title="Beta1" Unit="" Internal="Beta1" Type="F" Min="-1.75952882e-01" Max="7.95856476e-01"/>
    <Variable VarIndex="4" Expression="AngleMean" Label="AngleMean" Title="AngleMean" Unit="" Internal="AngleMean" Type="F" Min="3.13775997e+01" Max="7.47820053e+01"/>
    <Variable VarIndex="5" Expression="AngleSkew" Label="AngleSkew" Title="AngleSkew" Unit="" Internal="AngleSkew" Type="F" Min="-1.52235779e+02" Max="1.38536545e+02"/>
    <Variable VarIndex="6" Expression="AngleStdev" Label="AngleStdev" Title="AngleStdev" Unit="" Internal="AngleStdev" Type="F" Min="2.11948872e+00" Max="3.24465942e+01"/>
    <Variable VarIndex="7" Expression="ThetaMeanDir" Label="ThetaMeanDir" Title="ThetaMeanDir" Unit="" Internal="ThetaMeanDir" Type="F" Min="2.08037777e+01" Max="8.42530670e+01"/>
    <Variable VarIndex="8" Expression="DPrompt" Label="DPrompt" Title="DPrompt" Unit="" Internal="DPrompt" Type="F" Min="4.11376610e+01" Max="2.60368652e+03"/>
    <Variable VarIndex="9" Expression="DWall" Label="DWall" Title="DWall" Unit="" Internal="DWall" Type="F" Min="-1.00000000e+02" Max="1.66016736e+03"/>
    <Variable VarIndex="10" Expression="DWallMeanDir" Label="DWallMeanDir" Title="DWallMeanDir" Unit="" Internal="DWallMeanDir" Type="F" Min="2.82284760e+02" Max="4.65323633e+03"/>
  </Variables>
  <Spectators NSpec="1">
    <Spectator SpecIndex="0" Expression="Label" Label="Label" Title="I" Unit="" Internal="Label" Type="F" Min="0.00000000e+00" Max="3.00000000e+00"/>
  </Spectators>
  <Classes NClass="2">
    <Class Name="Signal" Index="0"/>
    <Class Name="Background" Index="1"/>
  </Classes>
  <Transformations NTransformations="1">
    <Transform Name="Normalize">
      <Selection>
        <Input NInputs="11">
          <Input Type="Variable" Label="NHits" Expression="NHits"/>
          <Input Type="Variable" Label="N200" Expression="N200"/>
          <Input Type="Variable" Label="TRMS" Expression="TRMS"/>
          <Input Type="Variable" Label="Beta1" Expression="Beta1"/>
          <Input Type="Variable" Label="AngleMean" Expression="AngleMean"/>
          <Input Type="Variable" Label="AngleSkew" Expression="AngleSkew"/>
          <Input Type="Variable" Label="AngleStdev" Expression="AngleStdev"/>
          <Input Type="Variable" Label="ThetaMeanDir" Expression="ThetaMeanDir"/>
          <Input Type="Variable" Label="DPrompt" Expression="DPrompt"/>
          <Input Type="Variable" Label="DWall" Expression="DWall"/>
          <Input Type="Variable" Label="DWallMeanDir" Expression="DWallMeanDir"/>
        </Input>
        <Output NOutputs="11">
          <Output Type="Variable" Label="NHits" Expression="NHits"/>
          <Output Type="Variable" Label="N200" Expression="N200"/>
          <Output Type="Variable" Label="TRMS" Expression="TRMS"/>
          <Output Type="Variable" Label="Beta1" Expression="Beta1"/>
          <Output Type="Variable" Label="AngleMean" Expression="AngleMean"/>
          <Output Type="Variable" Label="AngleSkew" Expression="AngleSkew"/>
          <Output Type="Variable" Label="AngleStdev" Expression="AngleStdev"/>
          <Output Type="Variable" Label="ThetaMeanDir" Expression="ThetaMeanDir"/>
          <Output Type="Variable" Label="DPrompt" Expression="DPrompt"/>
          <Output Type="Variable" Label="DWall" Expression="DWall"/>
          <Output Type="Variable" Label="DWallMeanDir" Expression="DWallMeanDir"/>
        </Output>
      </Selection>
      <Class ClassIndex="0">
        <Ranges>
          <Range Index="0" Min="7.0000000000000000e+00" Max="3.7000000000000000e+01"/>
          <Range Index="1" Min="2.4000000000000000e+01" Max="6.1000000000000000e+01"/>
          <Range Index="2" Min="2.2222852706909180e+00" Max="4.1708841323852539e+00"/>
          <Range Index="3" Min="2.1251630038022995e-02" Max="4.7805330157279968e-01"/>
          <Range Index="4" Min="4.7263824462890625e+01" Max="6.6729171752929688e+01"/>
          <Range Index="5" Min="-6.4559967041015625e+01" Max="3.8685119628906250e+01"/>
          <Range Index="6" Min="1.5716254234313965e+01" Max="1.9867752075195312e+01"/>
          <Range Index="7" Min="3.9898815155029297e+01" Max="7.0646942138671875e+01"/>
          <Range Index="8" Min="4.1137660980224609e+01" Max="1.2637844238281250e+03"/>
          <Range Index="9" Min="5.0904577636718750e+02" Max="1.6601673583984375e+03"/>
          <Range Index="10" Min="1.5634699707031250e+03" Max="2.6564553222656250e+03"/>
        </Ranges>
      </Class>
      <Class ClassIndex="1">
        <Ranges>
          <Range Index="0" Min="4.0000000000000000e+00" Max="2.5000000000000000e+01"/>
          <Range Index="1" Min="1.2000000000000000e+01" Max="5.2000000000000000e+01"/>
          <Range Index="2" Min="2.1986323595046997e-01" Max="7.1543164253234863e+00"/>
          <Range Index="3" Min="-1.7595288157463074e-01" Max="7.9585647583007812e-01"/>
          <Range Index="4" Min="3.1377599716186523e+01" Max="7.4782005310058594e+01"/>
          <Range Index="5" Min="-1.5223577880859375e+02" Max="1.3853654479980469e+02"/>
          <Range Index="6" Min="2.1194887161254883e+00" Max="3.2446594238281250e+01"/>
          <Range Index="7" Min="2.0803777694702148e+01" Max="8.4253067016601562e+01"/>
          <Range Index="8" Min="1.0728940582275391e+02" Max="2.6036865234375000e+03"/>
          <Range Index="9" Min="-1.0000000000000000e+02" Max="1.6186702880859375e+03"/>
          <Range Index="10" Min="2.8228475952148438e+02" Max="4.6532363281250000e+03"/>
        </Ranges>
      </Class>
      <Class ClassIndex="2">
        <Ranges>
          <Range Index="0" Min="4.0000000000000000e+00" Max="3.7000000000000000e+01"/>
          <Range Index="1" Min="1.2000000000000000e+01" Max="6.1000000000000000e+01"/>
          <Range Index="2" Min="2.1986323595046997e-01" Max="7.1543164253234863e+00"/>
          <Range Index="3" Min="-1.7595288157463074e-01" Max="7.9585647583007812e-01"/>
          <Range Index="4" Min="3.1377599716186523e+01" Max="7.4782005310058594e+01"/>
          <Range Index="5" Min="-1.5223577880859375e+02" Max="1.3853654479980469e+02"/>
          <Range Index="6" Min="2.1194887161254883e+00" Max="3.2446594238281250e+01"/>
          <Range Index="7" Min="2.0803777694702148e+01" Max="8.4253067016601562e+01"/>
          <Range Index="8" Min="4.1137660980224609e+01" Max="2.6036865234375000e+03"/>
          <Range Index="9" Min="-1.0000000000000000e+02" Max="1.6601673583984375e+03"/>
          <Range Index="10" Min="2.8228475952148438e+02" Max="4.6532363281250000e+03"/>
        </Ranges>
      </Class>
    </Transform>
  </Transformations>
  <MVAPdfs/>
  <Weights>
    <Layout NLayers="4">
      <Layer Index="0" NNeurons="12">
        <Neuron NSynapses="12">
          -2.9021191116087536e-01 2.4279905037507472e+00 7.1189895821185289e-01 1.6951102088079240e+00 -1.8714343890977583e+00 -1.7176226985182566e+00 -1.0406030892175335e+00 2.6180802266198278e+00 -1.5844451793936263e+00 -1.5543135880933601e+00 -1.6683667246520677e+00 -1.0490830695542686e+00 
        </Neuron>
        <Neuron NSynapses="12">
          -1.1557426093623513e+00 9.4287979667983315e-02 -7.9863430788343004e-01 6.5613447386849011e-01 -2.8207172152290749e-01 1.4554617535763033e+00 -4.3201234488566893e-02 1.8362417195272145e+00 -4.4839691937270720e-01 -1.1719129456324515e+00 8.0008453265241630e-01 -5.6674337897376614e-01 
        </Neuron>
        <Neuron NSynapses="12">
          -1.2485103181328776e+00 -6.8513208396192815e-01 1.5903008766868190e+00 -1.0568308055373348e+00 -1.8964970404662862e+00 3.0715895852309744e-01 8.3497987326366507e-01 1.4072190183884057e+00 -3.2612450161203160e-01 2.9230562556935308e-01 3.8720221173462584e-02 -7.1274189594363366e-02 
        </Neuron>
        <Neuron NSynapses="12">
          -1.4380604488958999e+00 1.5713771391704956e+00 -1.0029958702286639e+00 1.0578961048175950e+00 1.2498755334063674e+00 9.1530814864061749e-01 1.8719296577699636e+00 8.7376566125419852e-01 -6.2024023160429942e-01 -1.7583093199902740e+00 6.9084978515484152e-01 4.0616017950215283e-01 
        </Neuron>
        <Neuron NSynapses="12">
          1.5046804573955388e+00 1.4534706909626101e+00 1.4410922643273536e+00 1.3630834065586499e+00 -1.7042413064405448e+00 1.3045753591421565e+00 -1.7676015794607494e+00 -7.6893215772964774e-01 -1.4075283511368473e+00 -1.4163562964083245e+00 1.5594093647449301e+00 5.2829633337712112e-01 
        </Neuron>
        <Neuron NSynapses="12">
          -1.5741684521428174e+00 9.3163922333685700e-01 -4.0364706028986252e-01 6.6952122416079085e-01 1.8667230293200516e+00 -4.9807158658206402e-01 -6.9733090107535950e-02 -9.5994650954249650e-01 8.0733250626350450e-01 -1.5972508941015986e+00 -5.6199248351954179e-01 -1.8553012454549549e+00 
        </Neuron>
        <Neuron NSynapses="12">
          7.3952647095639346e-01 7.4215764189476918e-01 1.4662698739990281e+00 -3.7277517324255610e-01 -1.9230253989540236e+00 -1.7900564049887882e+00 1.1426739117576912e+00 1.4060490076438600e-01 1.9703166260823000e+00 9.9678796045324647e-01 9.2423459745331116e-01 -5.1304412866047477e-01 
        </Neuron>
        <Neuron NSynapses="12">
          -8.8287147635436547e-01 -5.5909297310937370e-02 9.7658738923152066e-01 -1.0641496133118318e+00 -1.6120043568582323e+00 -1.7580775976726926e+00 -2.4908271888719680e-01 2.7294289558117524e-01 1.4995817068276751e+00 -1.4956750651699227e+00 -8.1940901768591246e-01 1.3014244873167653e+00 
        </Neuron>
        <Neuron NSynapses="12">
          -1.0383290460566199e+00 -2.0393030905629419e+00 -1.1341689052352335e+00 4.4344075263078146e-02 -1.9699411045239172e+00 -1.3239190217642054e+00 7.0362938852861345e-01 1.1186143622658358e+00 -9.3674367756657906e-01 1.4957152063305721e+00 -1.3198881518442480e+00 2.7383704140289739e-01 
        </Neuron>
        <Neuron NSynapses="12">
          1.3002261121623937e-01 8.0732643646552038e-01 -2.1515491874728543e+00 3.2535442014643329e-01 3.6618169604721085e-01 1.3171858637835523e-01 -1.3812289892349718e+00 2.4224459852997744e+00 7.0724577159949245e-02 -8.0171262646584973e-01 1.1505694796377759e+00 -2.2755057991378274e+00 
        </Neuron>
        <Neuron NSynapses="12">
          -1.6239168436925520e+00 -3.4831030056203655e-01 -8.5271012751887684e-02 1.7842770410105022e+00 7.6920071901295350e-01 1.4465881303038369e-01 -2.5686703942653960e-01 -2.5507632782109096e-01 -1.6625389367861956e+00 1.3328281737275984e+00 -6.5733608893294410e-02 -1.0284769892874075e+00 
        </Neuron>
        <Neuron NSynapses="12">
          8.7124804400588907e-01 -1.0543431941124159e+00 -5.1632478146877395e-02 1.1637713973845203e+00 1.7490502473986593e+00 -2.1777893893557447e+00 4.0098357933786161e-01 1.0246713157639538e+00 1.8372506679741580e+00 4.4091038471268973e-01 -1.0166812207868845e+00 -2.2489633961047414e-01 
        </Neuron>
      </Layer>
      <Layer Index="1" NNeurons="13">
        <Neuron NSynapses="10">
          -1.7817776612556948e+00 1.5369945843267758e+00 1.5533902187161650e+00 -6.3484757833670902e-01 -1.3172433620072704e-01 1.5626359514928578e-01 -1.3018188820543857e+00 6.4957961438702094e-01 1.8099203415481622e+00 -5.8519835072735937e-01 
        </Neuron>
        <Neuron NSynapses="10">
          -1.0815853654087186e+00 2.5552091872470473e-01 1.9743615010140090e+00 8.2841082303684122e-01 1.5656724112261726e+00 -1.4950032864372687e+00 1.6158031000680824e+00 7.3173488860857672e-01 5.0865495845230535e-01 7.6429543786490839e-01 
        </Neuron>
        <Neuron NSynapses="10">
          9.6652644959071432e-01 -6.0332327392896656e-01 -7.7509269675533643e-01 7.6459327887841377e-01 -1.1223545134153481e+00 -5.7127370750558970e-01 1.5767576957686174e+00 1.0620152653538761e+00 -1.9711272847694208e-01 1.3831793530740741e+00 
        </Neuron>
        <Neuron NSynapses="10">
          1.4008183218513117e+00 -1.9770589990876699e+00 1.0174328981812981e+00 -8.6071961017873594e-02 4.8884070422167059e-01 -1.7006871024392238e+00 -1.4805822778358424e+00 1.1890930649419984e+00 2.0352869053271077e+00 -1.5986119779209080e+00 
        </Neuron>
        <Neuron NSynapses="10">
          -5.9423089331432244e-01 -6.0276803124954514e-01 3.4619789388162003e-01 1.4826834003152158e+00 -4.9109132687539037e-01 -4.7505566687760609e-01 -1.0105608643129067e+00 1.1342418734238882e+00 1.9137812533119829e+00 1.1097032245267333e+00 
        </Neuron>
        <Neuron NSynapses="10">
          1.5006571886133430e-01 -8.1899495518451548e-01 -1.5938541055305095e+00 1.1315220994204864e+00 7.1570941679869116e-01 -1.3879871912957875e+00 -6.5917626490849823e-01 3.1234716152691971e-01 1.3754712696963461e-01 -1.9856041569578489e+00 
        </Neuron>
        <Neuron NSynapses="10">
          1.5908637839355113e+00 8.4475099435692569e-01 -1.5075434433286277e+00 -5.9879413408301674e-01 5.9073763080021335e-01 1.0645611495056306e+00 4.6900111288740387e-01 -1.8685021363283396e-02 -1.6280517954425069e+00 -9.7664142069573479e-01 
        </Neuron>
        <Neuron NSynapses="10">
          1.2598841686773350e+00 1.2968729177710991e+00 1.4873196020185897e+00 3.7396223519192656e-01 2.3010115376484976e+00 -1.7184169308287622e+00 -1.2269966276452571e+00 -1.1100971658203515e-01 -1.3156924835528099e+00 1.1165161035858595e+00 
        </Neuron>
        <Neuron NSynapses="10">
          1.3542424747594646e+00 -1.2638136675039000e+00 1.0040707924875274e+00 -3.8604725191995254e-01 -1.6768236344722729e+00 -1.0741610506428558e+00 1.0577429755372585e+00 1.0030135607211274e-01 1.2142305756231209e+00 -1.1819406041143949e+00 
        </Neuron>
        <Neuron NSynapses="10">
          1.9194117973842364e+00 -1.7899492563538428e+00 -5.9582338756568543e-01 -6.5813410368702574e-01 -2.8428081738575708e+00 -1.3039364463132164e+00 -1.9790853078087323e+00 -2.7117159485288989e-01 -1.5816568751786513e+00 -1.7737893220109791e+00 
        </Neuron>
        <Neuron NSynapses="10">
          -2.0606688941760813e+00 1.7534159687321547e-02 -7.8895960181022773e-01 -1.6368843051678634e+00 1.5666042356199261e+00 -8.4436371972627333e-01 1.8244865959718556e-01 -1.0518166488490277e+00 2.5976028257825740e-01 1.8074532528601697e+00 
        </Neuron>
        <Neuron NSynapses="10">
          1.4153019223898300e+00 -9.0108284752572210e-01 -1.9199081430547273e+00 -1.5215958112786632e+00 -1.2496363102120776e+00 -1.6302101755473153e+00 3.1295628900983230e-01 3.4989236308787036e-01 1.9828248203390995e+00 -5.2624657079811910e-01 
        </Neuron>
        <Neuron NSynapses="10">
          -1.5534917692894942e-01 -5.5750505296726505e-01 -1.9330793925018399e+00 8.8077822882489465e-01 9.8528230634415692e-01 -8.3459196829936322e-01 -1.0353911732037284e+00 9.6747131351551019e-01 1.5477221586344103e+00 4.4072286080941170e-01 
        </Neuron>
      </Layer>
      <Layer Index="2" NNeurons="11">
        <Neuron NSynapses="1">
          -1.8354939909722900e+00 
        </Neuron>
        <Neuron NSynapses="1">
          1.4524759731888234e-01 
        </Neuron>
        <Neuron NSynapses="1">
          3.7280412993605379e+00 
        </Neuron>
        <Neuron NSynapses="1">
          1.3286449389668418e+00 
        </Neuron>
        <Neuron NSynapses="1">
          4.0374595062550096e+00 
        </Neuron>
        <Neuron NSynapses="1">
          -3.1015571843521761e-01 
        </Neuron>
        <Neuron NSynapses="1">
          3.2182205692976523e-01 
        </Neuron>
        <Neuron NSynapses="1">
          -8.3375465867067389e-01 
        </Neuron>
        <Neuron NSynapses="1">
          -1.9536993155681408e+00 
        </Neuron>
        <Neuron NSynapses="1">
          1.1947288730773922e+00 
        </Neuron>
        <Neuron NSynapses="1">
          -2.4842819625878803e+00 
        </Neuron>
      </Layer>
      <Layer Index="3" NNeurons="1">
        <Neuron NSynapses="0"/>
      </Layer>
    </Layout>
    <InverseHessian NElements="81225" NRows="285" NCols="285">
      <Row Index="0">
        3.2208594158232730e+05 2.3854398705710104e+04 4.4793034663606391e+04 -6.4056644100237660e+04 -1.8126835170884246e+04 -1.0146948610225765e+04 2.9346583294951884e+04 6.8882986994716048e+03 -1.0339252483473072e+04 3.0835220072566663e+03 -3.0921391496242410e+04 4.5276071295098627e+03 -1.2440631175374714e+05 6.3717472057004161e+03 -3.8010685157721928e+03 4.8547252999644959e+04 2.2547847708831123e+03 -1.6046318622339146e+04 -9.0974531724805620e+03 -2.7976593076048784e+03 2.1275063044899438e+04 5.4201508755795894e+03 8.6086463189016649e+03 -1.3746203031224161e+03 -3.5781499134276499e+04 -1.2289420510366767e+03 -2.7438713033980199e+04 -2.7065526386350712e+03 -1.5358609491164931e+04 7.5775045945151760e+03 -2.1339754525295863e+04 -5.5980687476796129e+03 1.7151355942034214e+04 2.2817853418212258e+03 5.1665810459684380e+03 1.7116966462916844e+02 -1.2755466880452618e+03 1.9435326160830547e+04 8.2263399926572311e+03 3.3113107157946040e+04 1.2937723135869019e+04 2.8217392922347448e+04 -6.4972720451248369e+03 -1.4352736609804275e+04 -1.6747892111290221e+04 -6.5767493463099445e+03 1.2481421917843776e+04 -2.5838691650379969e+03 2.9116359749245374e+04 1.7306898112799430e+04 6.5043093074979188e+03 2.9189776323134527e+04 -3.6937780339749161e+03 -1.0859597337368530e+04 4.9174706663673942e+03 1.7513069253948532e+04 -6.3592713817464510e+03 -1.1088015097205052e+04 -6.3573236952615407e+03 6.8178764951323146e+03 3.5141796001469018e+04 -1.8090827531800012e+03 1.0271126669628084e+04 1.2963157781371163e+04 2.4202407812844904e+03 2.8085842272220150e+04 -3.6177531402076684e+03 1.8154601826616305e+04 1.9008241595842159e+04 -1.1102966750186984e+04 -1.9392954319158430e+03 -5.2520577228285183e+03 -1.8365943269038333e+04 5.8085903199515924e+03 2.1196714906934576e+03 1.9799316273573651e+04 5.5992225521502633e+03 -7.5691984239444791e+03 -3.6326265825062569e+03 -9.7838197478752954e+03 1.6793223583880212e+04 8.2335221431627306e+03 8.4502161035569152e+03 -5.6526400621922739e+03 -1.6199566089523565e+04 3.0929318708273195e+03 4.2794036423275429e+03 2.6600175722932563e+04 1.0819033275529109e+04 2.4694136588313751e+04 -1.1341425489592963e+04 -1.8668089126139344e+04 1.3571611122354858e+04 2.1109572935636097e+03 1.3577141188710306e+04 -5.2257595633766105e+03 -1.5007883906453571e+02 -2.2739828044690235e+04 2.7679182198840717e+03 1.6611809950300492e+04 1.0995569654067931e+04 -3.5682278229948177e+04 -5.7060923514646311e+03 -1.0837204901972378e+04 1.6430723406956105e+04 9.1462778286152206e+03 -4.2883558250785572e+03 2.4318377805852624e+03 7.2626580702579740e+03 1.2942281653187624e+03 1.4045824035378278e+04 1.1424997297334578e+04 1.2650869194643035e+04 3.0073206400141211e+04 3.3582772168438805e+02 -7.6314615672837099e+03 1.1477043770911390e+04 8.3261762965549497e+02 -6.1597324288164182e+03 -1.9948470387096677e+02 5.9984908502862483e+04 2.1643667969125818e+02 9.8667797218576961e+03 3.6970696326440819e+04 7.9873142719279804e+03 4.7072345837713292e+03 -1.9402213876787191e+03 2.1820624695282531e+03 -7.2105475545800919e+03 -2.2556020002278183e+03 1.1401933968402742e+04 -2.1610022041569764e+03 1.0533653947542762e+05 1.7401476124767654e+04 2.0345712082006514e+04 -2.9432399387968117e+03 -1.5699148887759060e+04 -5.0395474760407233e+03 1.2299853287637896e+04 -5.8050110978744851e+02 1.9842983719652133e+04 4.1827227305599208e+03 -1.1258393311729908e+04 2.1514527904483498e+03 3.5263454243697197e+03 6.2557363727029733e+03 2.0069364517501279e+04 1.1048540520126106e+04 9.9776820777376943e+03 -5.8412620250722739e+02 -9.7389123111674271e+03 1.7305296467028529e+03 7.7406800143556902e+03 -8.0178226938077569e+03 3.6455401510246833e+04 1.8825185988594790e+03 -1.7779731058655416e+04 1.1416502072236624e+04 -2.5070138822219895e+04 -8.4304293798469871e+01 -2.2748810263507976e+03 -3.8657546060323730e+03 -3.6114297464829870e+03 -4.0255088785279222e+03 -4.5790397481336695e+03 5.0275164438302454e+02 -3.6627913877588013e+04 6.9063180975218311e+03 -1.8074643495668133e+04 -1.6965091835958883e+03 -3.8966024892658716e+03 1.5665098790171280e+04 -1.2431081272443025e+04 1.0461405050677575e+04 -2.0370722229103725e+04 5.1093018721347134e+03 -3.2930233116404117e+04 2.7422746276369144e+04 1.3664512969179879e+04 4.5135340922884643e+02 1.4351309155172472e+04 5.6959775940831732e+03 2.7288587022164429e+03 -3.6103727751810948e+02 1.3194039815707314e+04 2.1510444567664308e+02 -1.0340097033082679e+04 -1.0475436623469359e+03 -8.6034226169770263e+03 -3.2378118337745218e+02 9.3248556286753446e+03 6.3492924411474087e+02 -1.9088533776895143e+04 -1.3193093691314876e+04 -2.4175436373501092e+04 -8.0156059870589525e+02 -1.0208328083653032e+02 -2.8099179250782108e+04 -1.6287667529773194e+04 3.0421345922164619e+01 -1.0263477564122946e+04 -1.6283690385614464e+03 1.3229090416702238e+04 -1.1553783185621985e+04 -3.0271017529610326e+04 -2.8499487335283775e+03 -1.4344665948588321e+04 -2.1358890089885506e+04 1.3228372426760117e+04 -2.5176333451317623e+02 1.1016745448338625e+04 6.2875647533083320e+03 -6.4507944673254387e+03 -1.2810387049327837e+03 2.2464284295428661e+03 6.2529881056867889e+03 -1.4720879574049759e+04 4.0731426122276200e+04 4.3368799766341748e+04 -1.9831342100561596e+02 1.2903359215820674e+03 -1.7711492106484249e+04 -9.6302282049781206e+03 1.6253237712184200e+04 -6.1061356919902264e+03 5.5055560019061231e+03 3.8831089047783389e+04 -8.7670169495386672e+03 -3.4849796187552020e+03 -4.9219076724664774e+02 2.6929854430229534e+03 4.1635921608907520e+03 2.2050115597114564e+03 3.6275806453756959e+03 1.3560260122462310e+04 -1.1829163175857684e+03 3.6336762670693788e+03 -1.4662891235303523e+04 -6.7624861186961025e+03 3.1900183979421854e+02 -1.6000175688702730e+03 1.7276467835695599e+04 -4.2595787945876364e+03 -1.0769857851890098e+04 -3.0338174707940143e+04 4.7717430380010046e+03 1.9698510625077230e+04 6.2728588321219577e+03 -9.6202116446395012e+03 -7.7221914058178663e+02 -1.6134108910478710e+04 1.0937615999167145e+04 3.1803627067752561e+04 1.1616384908933978e+04 -7.6902415743734018e+03 1.5091484048338607e+03 -1.2508515124948437e+04 -1.0087375696211704e+04 6.7922162623688819e+03 2.0616417541820556e+02 7.4324806140834698e+02 5.7284962839028012e+03 -2.2993138896260207e+04 -3.0488542606366245e+03 2.5165795303962968e+04 3.1635520349315238e+03 -1.4329058084936223e+04 3.1008680946490975e+04 -1.1656732616929490e+04 8.2134844947545162e+01 1.8313782783629722e+03 1.1260005035666796e+04 -3.7304991446621716e+03 4.6319232455797737e+03 -2.7568879228318988e+03 3.0667934444536630e+04 -4.4428766555484572e+03 3.3382098149696722e+03 -2.3109045564090076e+04 -2.9250309748970903e+02 -1.3831387790246634e+04 1.2758397722581691e+04 -3.5779394550509774e+03 4.8674530957143852e+03 -1.8291467983474006e+03 
      </Row>
      <Row Index="1">
        2.3854398710690264e+04 2.4447252833657924e+05 5.6426463209519789e+03 -8.6652596258066733e+03 -8.5996724080056156e+03 3.2645386281379044e+04 -1.6425249758396953e+04 -7.6730270115700841e+03 -2.6267627521657509e+04 4.9109281695681057e+04 1.8768383731816193e+04 1.6753712356607302e+04 -1.6024993743707464e+04 -3.5843965033035034e+04 -2.3409763738859179e+04 2.3904871294354642e+04 3.7916411572478455e+02 -1.4734261616918800e+04 4.1963509401079145e+03 3.7950471351799570e+02 1.7124911736396141e+04 -3.1080678141438802e+03 -1.6565929428089963e+04 3.6762268560772245e+03 3.6543910034571127e+03 -3.0013380237419493e+04 -6.4680383661243077e+03 -2.3350533630959349e+03 -3.0696425927812897e+03 4.9735529864227401e+03 -1.7233363927584164e+03 5.9296596182062349e+03 3.1486178776248116e+03 -1.3948098589429869e+03 -2.5667344797475977e+04 -1.8470187688376352e+03 3.2181541032037989e+04 -3.2412612464986152e+04 -2.8581630182755816e+04 -1.4210864039439803e+04 4.8769287001700377e+03 -9.1292621543292153e+03 -3.7597216762116286e+03 1.2644757097358328e+04 9.0347035994552443e+03 -3.2620600926108898e+04 -1.7600596261554580e+04 -1.7507277182709910e+04 8.2642401147926412e+03 7.1375240808573362e+03 -3.7773054737784696e+02 1.3606290984291093e+02 -5.3784209785604617e+01 2.0777431350050068e+04 -1.5175663328600505e+04 1.2107638148036607e+04 -5.9489629640427665e+01 -1.6411126733296283e+03 3.4013808697554196e+03 -9.2740656061420996e+03 -4.1905468124314611e+03 4.4637703858429937e+04 5.6762541809779286e+03 3.4022169161362704e+04 3.1574615260993596e+01 -3.4343165683023290e+04 2.0685866992702231e+03 2.4815430160660553e+03 -2.2636647746056951e+04 2.2089762036535809e+04 2.1335983513186093e+04 8.4836076091897648e+03 -2.0987422928460117e+04 3.2744135068997934e+04 -1.8142577397459998e+04 6.3789784139785988e+03 -5.8541166996189913e+03 -1.5307035585370108e+04 2.9807249601020321e+03 1.6464405033263149e+04 3.8357063508240899e+03 -1.4324310484793066e+04 -2.4009474121921130e+03 -1.5155961038846251e+03 2.4231336987837149e+03 -4.3245478254018999e+04 -6.8743284868501032e+03 7.6671171021158225e+03 2.5945345052498219e+03 -1.4581719202213084e+04 4.3410121304585500e+03 2.3015211731857184e+04 4.5782955853200256e+03 -1.9772781817934236e+04 8.1482591202383719e+02 -2.3861020291986279e+04 -7.0708831788664929e+03 -2.8960035435810525e+04 5.5913559878110536e+03 1.3211394063533346e+04 -8.2515867980571929e+03 6.1245855836826377e+03 4.4608168931335404e+03 1.7259722099543582e+04 1.9687120443845677e+04 1.3692692734655066e+03 4.6709269470206527e+03 1.1706895687766404e+04 -1.0611457155887238e+04 5.4892087367504981e+04 -6.1574536014883342e+03 1.9729713426078702e+04 1.5044474009872984e+03 -1.0838774071689040e+04 1.4333897636259639e+04 6.3651075056386599e+03 -7.5684658903691525e+03 8.9640768750110601e+03 2.8500730723583511e+03 2.6405030134799730e+04 2.2287955163817780e+04 2.4077806325158766e+04 5.3452068173244625e+03 1.7770391483925294e+04 7.5040387093065783e+03 1.4441157745610060e+04 -1.8032808641216343e+03 1.2052411939906433e+03 -1.1032592262267866e+04 8.8528287321442876e+03 1.0844259917098545e+04 1.2011715574162121e+04 -2.3604522784484332e+04 6.9917051247968775e+04 -5.1387881539232549e+03 1.8736364041644931e+04 -1.6568417937278900e+03 -2.9166442073961924e+04 -3.6609199562725375e+03 -7.4029999808016364e+03 -1.7011343243361509e+04 2.4563889189889742e+04 -6.3972615486267714e+03 1.4953028834000028e+04 -1.0966271875435010e+04 1.7145648582299400e+03 9.3126476282186104e+03 -1.0667710309102347e+04 -1.5902596208074532e+04 1.7389667096202465e+03 1.2681985943642037e+04 2.2238047358894641e+04 7.7543754609411117e+03 1.0175692585116441e+04 -3.4864715954951971e+04 4.1759399211289710e+03 -1.4962078386390992e+05 4.8667933383156102e+04 -6.9362293920874450e+04 -3.9666649571118705e+02 4.4104197095169093e+03 -1.0313179941575174e+04 -5.7572906463909894e+03 3.7353890526142204e+03 -2.2814941667842661e+04 7.2408344196577673e+01 1.9827325008865082e+03 7.3782119094875816e+03 -1.1141138746723271e+04 4.9242920392006636e+02 -1.2052869572497618e+03 -7.3189955204619910e+03 4.5923951911717377e+03 -5.2504576499908289e+03 -7.5118765933415671e+03 5.0606321731022763e+03 -1.7818985376622171e+04 1.0304263498528162e+04 -4.7837288901654392e+03 -9.6368514389603661e+02 7.0679030597359088e+03 6.9075794030692396e+03 -1.3202338236251489e+02 -9.0945470801170304e+03 7.7427416459552478e+02 1.1770051543181107e+03 1.1198807628391187e+04 1.0139861500876104e+03 6.1673708283258020e+02 -4.1415810721038724e+01 6.9054904196267016e+03 1.6070159029699775e+04 -7.5617906827514526e+03 -3.4515073765049601e+03 -1.8115637086829374e+03 -1.4381736936508278e+03 2.3884016070858255e+04 1.6827731743784942e+04 2.4554267834594037e+04 5.6495415977761149e+02 1.0359094977215580e+04 1.3932896874668571e+04 2.5493314246372669e+04 1.9425885307707649e+04 -3.3079816948487452e+04 2.9432767118178308e+03 -4.3158486661213828e+03 2.0265255775530964e+04 4.4398446658835601e+03 -3.7080673085122180e+02 1.0983007074773537e+04 -4.8197226255774149e+02 -2.8705265920991078e+03 -6.5569898569463621e+03 1.3441111341660144e+02 2.7512502973212104e+03 -2.7273456216024293e+04 1.0476983469136234e+04 6.8841725371103748e+03 9.4320759113412350e+01 -2.3490096600899560e+03 1.3057035533332848e+04 -3.5595433080017247e+03 -1.7156895915755798e+04 1.7576300805839950e+04 9.7923898130722228e+02 8.4405829583062732e+03 -4.4312010089706546e+03 1.4609733943681171e+04 4.5730659626144916e+02 9.7680400836784393e+03 7.3796064720666036e+03 6.5864920434495434e+02 5.1310448163205874e+03 6.2338670335427742e+02 -1.1400263103930192e+03 -1.3934930041029809e+04 -6.4510692022884032e+03 -2.2042723681651856e+04 -2.8361234210431576e+02 1.4361586979046973e+04 -1.2501735982194805e+02 -6.5976859718847845e+03 1.6688852305762673e+04 -5.2692352504384326e+03 1.7870998406742001e+02 5.0520138127179252e+03 -2.6506114580324385e+04 2.4891059993444003e+04 4.4838457730971277e+02 2.4895217676108005e+04 1.0492073760330772e+04 9.9200204327326792e+03 -6.6968753765319707e+02 2.1006046971550037e+04 -1.3721805649697781e+03 -1.6744511116288286e+04 -1.2736220289513178e+04 1.3678945817936707e+04 7.9325817161425948e+02 -2.9957771088322625e+02 -7.6290249284842303e+03 -1.2525114528415113e+04 1.6367364772305009e+03 1.3284786326525464e+04 1.1974059445372113e+03 5.1316766079726680e+04 4.1982224942943794e+03 2.4239019741714641e+04 1.9697743712355987e+02 5.9078953247530153e+03 6.3677900545397570e+03 -3.4070398654781748e+03 -3.5266833932674335e+03 -2.2079678533467559e+04 1.4702593844052288e+04 -2.2127686684475986e+04 -1.2595600074319915e+04 7.3044485336490470e+03 -6.3354625851288438e+02 -8.1964852999971481e+03 1.2727952887749709e+04 3.0800420085269780e+03 -1.1402039260418967e+04 4.7576880592347334e+03 
      </Row>
      <Row Index="2">
        4.4793034662260092e+04 5.6426463221103368e+03 2.9144497247055033e+05 4.7497539457360610e+04 4.3674361551169495e+03 -2.9237214510650883e+04 1.3724475387051512e+04 7.2773033714668854e+03 -1.9442403787369249e+03 -1.0513047655699957e+04 1.3029921102271259e+04 -5.5059565990706151e+03 -2.3238859997545707e+04 -9.5491274491297299e+03 -1.0422745229591214e+05 -4.2340470094112126e+04 2.0545574390151131e+04 2.8271246765973206e+04 -3.3889723051707856e+03 -1.2222503945486180e+04 3.2618695633776959e+04 1.0744629651811986e+03 -1.9559825023576690e+04 -2.1075303467320682e+03 1.0419366286166791e+04 -7.1533239155266074e+03 1.3516319689071997e+03 -1.7112485403792311e+04 -4.3126514708113436e+03 -1.9305420378874420e+04 -1.3013794595818186e+04 -2.8307912298968795e+03 -2.7073341302084245e+03 -6.2448923643372091e+03 -1.2767691359817200e+04 1.6064118963818550e+04 -1.5349168700859169e+04 1.0081471286264568e+03 -4.8277128645085242e+04 9.7062675278129245e+02 -4.4187021211757383e+03 -2.7406496726777765e+04 6.2274305350242703e+03 -1.5682808299378499e+04 3.1318117748978686e+04 7.5533915450736167e+03 -5.3347109580532197e+03 -1.5286142408373291e+04 6.8586595913622750e+03 -5.4582322942165902e+03 5.0669848848141773e+04 -1.8918760056981489e+04 1.2114735436173425e+04 -9.8330497528499473e+03 8.2439848938507657e+03 6.6880831335587864e+03 3.0228342013808142e+03 5.0402030416051748e+03 -3.5007421328472847e+03 -5.5042907292222590e+03 1.6900477464257056e+04 -3.0479959269312985e+03 3.1121372885810229e+04 9.1655043392450934e+03 5.0488553469150102e+03 2.7848505648075567e+04 2.3594373306026446e+03 4.5141056674636884e+03 -4.0394617351969964e+02 9.6389599367066774e+02 7.3583745830633916e+03 -6.7541762632526315e+03 1.6854872267795487e+04 -4.9434058114350864e+02 3.4182805101555110e+04 -4.1277283518304921e+03 3.4685423687809882e+04 5.2258486489287843e+03 -8.6889864330383207e+03 -7.2956704882185350e+03 7.0017915171125278e+03 7.1900474315376614e+03 8.5595441231933728e+03 -1.1446397516054219e+02 1.4995231224044503e+04 1.2286000269493532e+04 -3.2599171389577088e+04 7.8167185949018385e+03 1.6393126003357418e+04 1.1338684965101182e+04 -1.4733940438196178e+03 -2.2373200916407157e+04 1.5696460801703695e+04 3.6285515580871579e+03 -9.7424577133979001e+03 1.6069673148682350e+03 -3.1884256379473809e+03 -3.4222278362332690e+03 -4.3099076463827521e+04 4.0815456126473728e+03 3.8827609065873345e+04 4.0974788847010714e+03 6.4734609845782470e+03 -6.3961807339664811e+03 8.6854063997874982e+03 -7.8041744767707069e+03 -2.0524942228542546e+04 2.7000064161406053e+03 -9.0970300278809991e+03 5.8006273819031812e+03 1.4357907502311684e+04 1.2864324387053563e+04 2.4189973989244048e+04 1.3611685879906770e+04 2.9150738311186797e+03 -1.5862376134768954e+04 2.7032451652838961e+04 -8.2004714644182241e+02 2.0852471832217096e+04 -1.1042835425788260e+04 8.3613094755060738e+03 -5.3125951459162970e+03 7.2348886210585348e+04 2.5754589322362403e+03 -6.6429282757094261e+03 4.8896556887778570e+03 1.1159962201632416e+03 1.1350770533251554e+04 -1.8501390897491494e+03 -5.2322158834180609e+03 -1.3238692241160643e+03 -4.8344482929209062e+02 1.3311741838775763e+04 -4.4918707407740621e+03 1.2144755772366631e+05 1.6673887281408417e+04 1.2041753036569435e+04 -1.1639997507920194e+04 9.1848614575817664e+03 2.7589282278982591e+03 1.1194540288430580e+04 -1.2608844445381803e+04 -3.3692394090958774e+03 4.5559323465129419e+03 -8.1375043188950913e+03 4.3102466465245088e+03 1.9796813434790605e+04 -1.6774407233192262e+04 7.2002034244642555e+03 -1.4034169720636273e+03 -7.7432367216687999e+02 -4.8694646229256032e+03 1.0113678494539112e+04 -3.6657369825832557e+03 -2.5897076301859823e+04 4.4018912045713159e+02 -5.5878128909036077e+03 -9.9476551152600168e+03 -3.3338504600447777e+02 1.8314778438737090e+02 3.3440229286294962e+03 -3.0440901204643346e+03 7.5946202199626714e+02 -2.0957646234015789e+04 -3.7813763696340451e+04 3.1597055411205893e+03 1.4754707925993680e+04 -9.3377231664211085e+03 4.1612365535640216e+04 -2.0426279007270932e+03 -2.1493312552489639e+04 -2.1088107680982874e+04 1.3844013395515474e+04 -4.8174518161988584e+04 -4.5954911361634222e+03 -6.8001007783488785e+02 1.6898873486705204e+04 -3.0485196410151861e+04 2.6623974543006960e+04 2.0118514512106776e+02 5.6874872693682555e+03 8.0178429854891292e+03 1.1675033717741026e+04 -1.3835171782305988e+04 5.3603181070674054e+02 -4.3568745100480737e+02 1.8959171749122648e+04 1.9178541225028348e+04 -1.7522688731335329e+03 1.4649691339470883e+02 -5.0982288617617742e+03 1.6237372426547126e+04 -1.6896284873824450e+04 -1.2202762142075688e+04 -4.9466851125556714e+03 -3.5595014025594919e+03 8.2571218663374748e+03 -7.6276176742032258e+03 1.8601192575983398e+04 2.4526621707831509e+02 -1.1394200499267798e+04 8.4968531187886256e+03 2.2885375523015391e+03 -6.9644921767203195e+03 1.0245951065800480e+04 -7.8806550710974261e+02 -1.1070170804246207e+04 -5.3925433972476130e+03 8.7559222260162715e+03 -4.1449106448690873e+02 6.8358593245742959e+03 2.0470956985898520e+03 -1.3431587173193693e+03 1.3811875392918853e+04 -3.6457923994731973e+03 -7.9132614352094242e+02 1.2091166251841409e+04 -3.5097396238643632e+04 2.1651348067133702e+04 3.5749926359578967e+02 2.8074534082502360e+03 -1.3291375455845497e+04 1.1339154520094948e+04 -1.5989537088643207e+04 1.6802947389275701e+04 3.0796390723847435e+03 -2.4228239633215839e+04 2.0075355754495027e+04 -1.0355077451683104e+04 -4.3595288856711704e+02 6.6880092486188660e+03 -5.5900869695064612e+03 -1.4852032903600368e+04 1.7070731191662442e+04 7.3791862470510860e+03 1.6757478393013862e+03 9.3418133044085994e+02 1.4551851706922156e+04 -2.9805695338915684e+03 -8.2905954254418612e+02 -4.1984110838535707e+02 -5.2969863647285383e+03 -7.5597748876580299e+03 -3.1723571251333233e+03 1.9947595697271707e+04 1.6820678461998468e+03 2.9436686608481796e+03 1.9381526093508801e+04 -1.9453751035058202e+04 -1.4854263181611896e+02 -6.1968576492025968e+03 -3.1351988720017107e+03 -3.7388695700724784e+03 6.5768029169490619e+03 1.9593079442657299e+03 3.6274706164565869e+03 -1.7684058686666707e+04 1.2294476564695036e+04 -4.7084244746454642e+03 -1.5228199649347225e+03 -1.9132309905392176e+03 -1.7755900444523722e+03 -7.1792273702557432e+03 9.7143729077062235e+03 5.7790449504769786e+03 1.7113627710832734e+03 -1.1433998152403496e+04 -7.0189307051814249e+03 -2.6593871879331746e+04 -6.2881180067781679e+02 7.3791776822380598e+01 -2.3830277683635941e+03 5.9381092534563504e+02 8.0491868786322411e+03 6.2607656533967402e+03 1.2630611930867832e+04 2.1857566923411603e+04 -1.8606306279837236e+03 -8.8123480469308379e+03 2.0110041849585250e+03 5.2039529979270010e+03 -7.0328617671166221e+03 -1.1135628160260517e+03 8.9503070047668170e+03 -2.0250526130176388e+03 
      </Row>
      <Row Index="3">
        -6.4056644102178994e+04 -8.6652596294502473e+03 4.7497539460297121e+04 3.7939214434156055e+05 2.0859043205018967e+04 -2.6868099605520983e+04 -1.5359722214766403e+04 -1.2095898308338594e+04 1.1068902979010561e+04 8.1746756685350338e+03 7.5310616413739408e+03 -4.8749620126335994e+03 2.3455508099470033e+04 3.5192934075974954e+03 -4.2135577715730404e+04 -1.2090533802845246e+05 -2.8911706638134146e+04 1.5661506968477275e+04 4.7876745747667346e+03 4.8245186330836859e+03 3.7590349750736554e+04 -3.0622763848843647e+03 -3.1263903683118926e+04 8.3542337064900039e+03 1.8773890131587177e+04 2.6553672622400877e+03 -3.8651614549668307e+03 -2.3888005292965958e+04 5.0257097026281945e+03 -2.3588180298932311e+04 6.1950700067052348e+03 -4.1838651755622295e+03 -9.9964149484042391e+03 5.3767108881555178e+03 -2.2649390452161097e+03 6.1724847113933747e+03 -8.3140937598817982e+02 -2.8502133881110232e+04 -3.1606326097509282e+02 -6.6118946701706634e+04 -1.0771731293213013e+04 7.5577398293470378e+03 3.6767941813640023e+03 8.6889483471126368e+03 2.9612691594015629e+04 -1.3336856551078785e+04 -1.4209914850498390e+03 8.5031089832797488e+02 7.8399791479502310e+03 -5.0517188385627514e+03 -4.0708859295721864e+04 6.4567191448712139e+04 -1.2549716002709603e+04 2.3052569990322627e+04 9.6312421699778110e+02 1.3286734941804985e+04 9.1956698327057165e+03 8.9235372591248215e+03 7.3739607733046723e+03 3.3281173977426142e+03 1.3633249063275613e+04 9.7805587936666434e+03 -2.7092843009181161e+03 2.0044122764243020e+04 2.3995672612829843e+04 2.6304723413342374e+04 3.6681567791916432e+03 3.0966112976994682e+03 1.2633432840345211e+04 1.1002337400176571e+04 -1.0562989624762537e+04 -4.8304617620470535e+03 2.0291351479603873e+04 -7.3572953967729591e+03 -2.0704246676506493e+04 3.4517412028893988e+04 2.4333726295609999e+03 6.3975443106346283e+03 4.7339643977634978e+03 1.1330048876039837e+03 -2.6654882770064891e+04 1.0651868507521591e+04 1.1615162908936336e+04 1.2389598218007914e+03 4.7719330084619942e+03 -3.7819934835166086e+03 1.5318076355623369e+04 -2.5096696477510093e+04 -1.2631394418828519e+04 -7.7715938068834475e+01 1.9150816974397723e+04 -4.0637441491571462e+03 -1.3197057196112553e+04 -1.1137958585917586e+03 -1.8131982214115487e+02 2.9906688650515571e+03 -5.7980751973592305e+03 -4.4284925063891596e+03 1.4628131186679737e+04 1.4057787368149497e+04 -2.1484501384227362e+04 -5.9032434197547300e+03 8.7444465040162413e+03 -1.1697571328519538e+04 2.3590590735407422e+03 -7.3126229519688659e+03 -4.8149733713781625e+03 -2.3368635742509941e+03 -5.4578321748546077e+03 -1.8062903016595072e+04 1.8913098317167340e+04 -1.3812816562552582e+04 2.2803184014447943e+03 1.5049748033559561e+04 -4.5918241238080409e+03 -1.3256711363012881e+04 3.8583064223463603e+04 -1.3766541151067628e+04 -7.7202750497475099e+03 -3.1874506580988163e+03 -6.7053872598445569e+03 1.8073045019428755e+03 -6.9086885978520731e+03 8.7900537751638942e+04 -5.6855214343218831e+03 2.7296841037849845e+04 -4.5954413459187999e+03 9.0484321228379340e+03 -3.4176948654544540e+03 -6.6765011707797275e+03 -1.1632703794345445e+04 3.5039103520085323e+03 -2.4245582658795043e+04 -8.5213580812961281e+03 3.1537628836448072e+04 1.4296371758793254e+05 1.1553848807170463e+04 -8.4819708772978265e+03 -5.0694721103424872e+03 -7.1248139358754306e+03 5.1156448268433687e+03 4.5286675434283734e+03 -2.0401398606051913e+04 2.1094984674936823e+03 3.6145628856144511e+04 -1.9397291000810364e+03 1.1275410616593586e+04 4.8664750472621072e+03 2.0364617047108259e+03 -8.1334810121521150e+02 8.8892502628102047e+03 -5.2635770613490022e+03 -6.0600721622537239e+03 -1.6289398798541297e+04 -1.0462657671915811e+04 -2.7529400399691622e+03 -2.0767842163794405e+04 -8.8471315154002950e+03 2.8019295606778262e+04 -1.7689285819568681e+02 6.2866774888732543e+03 -3.4908143084696203e+03 -2.1731195705158170e+03 2.4562741784785256e+04 -4.4957727543589630e+04 -1.5379547919315228e+03 -3.0567236634113051e+04 5.8980520423535272e+03 -1.8217481430348795e+04 6.9715951826330274e+02 9.6640309306497511e+03 2.4318310503594290e+04 1.1502060362873817e+03 4.2288243819323980e+04 -4.4210984473971213e+04 -2.3318581981320049e+03 -5.3880264191901944e+04 1.0551818289164192e+04 -2.4850047369074673e+04 -5.2880621606856585e+02 1.4527695744131110e+04 -2.0896915908438856e+04 -2.5693298678313789e+04 6.8292202977110486e+04 -2.9905119870531171e+03 5.3094596768979764e+03 6.9286241208155261e+03 -1.6876761673927416e+04 8.8042582831062937e+03 1.3434299031503069e+03 -9.8739329689830702e+03 2.4040962195893262e+04 3.4132779183940569e+04 -1.9441256851571350e+04 7.5673670132964144e+03 -6.3705579715750082e+02 -2.9115812546170637e+03 -1.1981254229082719e+04 3.4765319787351473e+02 4.5091600022278726e+02 -8.4162133623987247e+03 2.4342278398945928e+03 1.8877850821416243e+04 -3.1609573725026603e+04 6.6546249506080530e+03 7.5143466638396494e+03 -4.4188606786568407e+03 -1.5715179242358065e+04 2.1754441122595999e+03 6.6214449765899917e+02 -3.4846983315190300e+02 7.2800581081263808e+03 1.3347269731300214e+04 -2.1279788607072202e+04 1.3115926485925127e+04 -4.9942850077539188e+03 -1.9551683815800698e+04 1.0774010003362826e+04 1.5783488306619100e+04 -7.4044010343123227e+02 6.9225710299656494e+03 -7.5294969964636839e+03 -1.3263335560459862e+04 2.5623432264381561e+04 -7.0778381114252552e+03 1.9770787089050209e+03 8.7765395708853375e+03 2.5364496685627571e+04 1.0366435154340897e+04 6.8948165297182277e+02 1.1727172698257054e+03 1.5962852608759480e+04 1.1934364451452217e+04 6.2623938846942619e+03 2.0978242323886603e+04 3.4708571736056729e+03 -7.3741060703373150e+03 -1.1419696791572933e+03 1.4869205626689771e+04 1.4117922595194541e+03 -7.6622039641353767e+03 2.2737181576499293e+04 1.6007949530444806e+04 -2.7005528738686684e+04 -2.6811165192252032e+04 -1.7653234250543173e+03 3.8074963932805724e+04 -1.1137384166727759e+04 -1.8628827968805279e+04 1.4566190609149635e+03 -5.3143715929362806e+03 1.9337873925962253e+04 2.1212015751222818e+04 -9.6419432498768147e+03 1.4933602107307001e+04 2.2351627926675301e+03 1.2148948310192689e+04 -1.3942534343119854e+04 -8.9920169025358264e+03 -9.4922956154309213e+02 -3.1658996051652357e+03 2.2386887880826835e+03 5.2084228264010744e+02 -9.0109457420190156e+03 2.0746059727589185e+04 -3.3971019992334914e+02 1.1644046025024434e+04 -4.2402982778655714e+03 1.2875419080331772e+04 7.0048219700083428e+02 2.4672309993795352e+01 1.5688272646869365e+04 1.3077032521129178e+04 1.7871745830329992e+03 2.9581902368704061e+04 -1.5848978120320942e+04 3.1056068891317041e+03 1.2645104640306854e+03 1.0982008620746685e+04 -2.3450806757144164e+03 5.5097689964410820e+03 4.5848303269701792e+03 -1.0087656201615846e+04 -5.4122838445103798e+02 -1.7469544469174234e+04 
      </Row>
      <Row Index="4">
        -1.8126835169991093e+04 -8.5996724054498154e+03 4.3674361551698603e+03 2.0859043204189453e+04 1.6388787413874405e+05 -9.8216841383435894e+03 -7.1063108484713757e+02 -1.6184721380143723e+04 3.3771098692457817e+04 4.4190469806605724e+03 -7.4332731291437904e+03 -2.8541507940911479e+03 1.5377327624906080e+04 7.0944396970731614e+03 2.1189311128595684e+04 -5.3157107361719958e+04 -4.7925061948484617e+04 -1.4367708961434229e+04 -9.9880225385114172e+03 -8.0159169950314845e+02 -2.7026473240408195e+03 2.8316004474645933e+02 -1.8756429602151729e+04 -1.0815874242665504e+03 -8.9035624676533025e+03 -6.4104292524816447e+03 1.6670714912965977e+04 -6.9586696603108430e+02 2.1032550314392975e+04 -9.9510398267178953e+03 2.1376380264613445e+03 -5.2048962025504707e+03 7.4226171487456577e+02 -1.4807535868825746e+03 -6.2282141237832475e+03 5.7541831330517180e+03 -8.6124098912643967e+03 7.6919586904280814e+03 -2.0352355373786995e+03 -1.8231108777696500e+04 -6.8861043805715424e+04 -1.0579785761737745e+04 -6.8351892046270295e+03 1.1974546014354928e+01 1.1627519900407497e+03 1.0261667495680140e+04 7.4763835557489911e+03 -6.2468412230904378e+03 -9.1764616729513946e+03 -6.5734564441761177e+03 1.3429547299893440e+04 2.6293365532829193e+02 5.0840392043596963e+04 -1.7090109120567879e+04 -6.1940138143000677e+03 9.5031014206896070e+03 -8.1163792515801597e+03 2.8865329830627411e+03 -1.1010822141948001e+03 -5.0314067315868833e+03 1.5872078699492822e+04 1.6601589930988944e+03 5.0366685195033715e+03 6.2644189727020876e+02 -2.7002518550913286e+04 5.2894201725504599e+03 2.2212701658294600e+03 -1.8620146728148627e+03 -6.5598900282027080e+02 8.0162976288680520e+03 1.4500358722923917e+04 -1.8118693552905952e+03 -3.5093833942461497e+03 -1.3826434174673672e+04 2.0442808008446747e+04 -1.9950978477155113e+03 2.9950652633870341e+04 5.5147977347487995e+02 1.2745702661024179e+03 2.5251077522503056e+03 3.4619609535296695e+03 -1.0212332146209164e+04 4.3801878164187046e+03 -1.0518453232299667e+03 -6.0798512909964975e+03 -9.6015893122810176e+03 1.5027178806522556e+04 -8.7682989656957579e+03 -1.2068160274019192e+04 -3.4493454067364228e+03 5.4256133765720633e+03 2.3387182189260066e+03 -2.5071450703575974e+03 9.6582116125985303e+03 1.0574049608322774e+04 1.8048966753244094e+03 6.3461923037880970e+03 -1.0261945588361164e+03 2.9056763899212401e+04 -1.9294803284824975e+04 2.1847152673635144e+04 -2.7015613185238588e+04 -3.7295242706188515e+03 2.4785517035899175e+03 3.3334971029898015e+03 -5.4986816452226321e+03 -1.0550694237626667e+03 -5.5175574790888550e+02 -4.9488618151065548e+03 7.0111966301163848e+03 2.5253755721702022e+04 -1.5760572981839454e+04 -3.2830136118113778e+03 8.2043777220043921e+03 -1.0685572473667888e+04 -1.6682001792521871e+04 3.3340293458491156e+04 -3.6272852504257371e+03 3.4081434301005816e+03 -6.7237588593193750e+03 -3.2498957458520317e+03 6.3035333825937078e+03 -2.4878304317662958e+04 -1.5978701651571893e+04 1.0805709653452999e+04 -1.6801609769017959e+03 -5.6989019158343290e+03 -1.4359294516088257e+03 1.7335001521085938e+04 -1.2910897741331191e+03 -2.3472847069939435e+03 -4.1956826546261909e+03 -1.6102646227318743e+04 -1.9200065040125683e+04 2.7324657584235625e+04 -2.9665754113251946e+03 2.4800555342364984e+04 -2.6394498885507659e+04 -9.1003826975124957e+03 -1.2631890074336970e+03 9.7942869514925314e+03 9.0618219130587677e+03 -2.2484991260266856e+04 1.1621984889230334e+03 1.2958643636621508e+04 -1.9268391512367180e+03 -5.6264137195844314e+03 -1.5241265626481363e+03 -2.6001713459153389e+03 2.2392592678518849e+02 1.0287939094164009e+04 3.0172738176358689e+03 -7.8071485384413972e+02 -2.0921229058259050e+03 -1.6091848771927616e+04 -1.2191365864160252e+02 1.1641369814202419e+04 -6.6906689955499023e+03 -2.1888271427307507e+04 2.1386713221125399e+02 -1.0803065132405487e+04 5.2778178919935963e+03 4.6353004165596212e+02 3.2016224171087571e+04 -3.8821137480511061e+03 -1.8707077470467048e+03 1.2031374934566164e+04 -6.3181441313451214e+03 1.7663294728076522e+04 -1.4943929040990770e+02 8.8469676523042726e+03 -1.1454300020330338e+04 -2.5082351214676237e+03 5.5846548782312275e+03 2.3878804182282940e+04 -2.1096977758357116e+03 -5.7959971622232697e+03 1.0772129709498113e+03 -2.4253763052671293e+04 2.1317885579029098e+02 -1.2180822882840599e+04 1.6089341221257120e+04 8.8448552094296174e+03 -3.1732477192664694e+04 -2.5819510051481902e+04 6.5669886715173084e+02 2.2287991379760395e+04 1.8207296191786372e+04 -5.2972063354879792e+03 2.6410709726547941e+02 2.3851861520612147e+02 7.7544808666587342e+03 1.3290646842036222e+04 4.1636864861451446e+04 -1.3515644881092230e+03 2.5340931256140220e+03 -5.5723300158595703e+03 -6.8238111928747821e+03 8.6318927146311216e+03 -2.8864219731185585e+01 6.4785036855430972e+03 1.2090196089074016e+03 3.5889561096594111e+03 -1.9974630865828949e+03 2.0029306137385287e+04 1.2481630091858096e+03 4.9176463755553632e+03 -3.9085680322058010e+03 -1.5648955019096713e+03 9.1482690893078689e+02 -1.5093705004545969e+04 1.6739874137054343e+04 3.1619868569413666e+03 1.8291195150776221e+03 1.7436817995493351e+04 7.9633164041955024e+02 1.7370437670435458e+04 -4.2119377435335839e+04 1.8601728356109339e+04 5.1176033042627387e+02 -9.5971513932764210e+03 1.8283254528275051e+04 -2.0745040462938123e+03 -2.1760969552854367e+04 -8.8589371099355085e+03 -7.8451569774557720e+02 1.1188525695785360e+04 8.9221185217139573e+03 1.0130236640593937e+04 6.1582924053585157e+02 5.4053227135388152e+03 7.5769966441092838e+03 5.6765875237516011e+03 1.1067440253747700e+04 1.2197759501886394e+03 -1.9574672441420662e+03 -3.3152282945276253e+04 1.8513505238100879e+04 4.8543756979606278e+03 -7.7024964618962258e+01 8.8297696953215636e+03 3.1462163345073059e+03 6.0384696444702931e+03 -1.1715277301240512e+04 -8.1193047810001153e+03 8.7743423513579182e+02 8.9795575006416530e+03 -1.2174315978759747e+04 -7.4650969183010784e+03 -8.1879129944229499e+02 1.3087745803807687e+04 1.2736088031862746e+04 1.0117193274677324e+04 -1.1230110383436411e+04 -3.3559895056667374e+03 -1.9328186358988751e+03 -5.2279469163615449e+03 1.2467829727687640e+03 4.0850120786770203e+03 6.7290241562435403e+02 6.9912624356233864e+03 1.9784421492728216e+03 -5.2124279686083319e+03 1.1510802434066289e+04 -1.7586086135764451e+03 -9.8226551095643117e+02 -1.0306767671971662e+04 -4.2987355117522304e+04 1.9355994038829751e+04 4.4025348585013489e+02 3.1813632971753832e+03 7.6936402965519965e+03 2.5544650537537927e+03 -1.0961465130022063e+04 1.9947782836585433e+04 -5.2751226513031288e+03 2.0642668814280092e+04 2.9465288389436610e+03 -1.7871206150208727e+03 -1.4248604542734101e+03 4.5961620731960575e+03 1.0235602245008577e+03 -8.9260578208596344e+03 2.0489736072482137e+03 -9.9257116114469209e+03 
      </Row>
      <Row Index="5">
        -1.0146948609754438e+04 3.2645386284828724e+04 -2.9237214507504264e+04 -2.6868099603692463e+04 -9.8216841351543681e+03 4.1134062546131609e+05 -7.4665398518543989e+03 -1.3717802115438295e+04 -8.5865050737395941e+03 1.1895715652601091e+04 2.1671680764312867e+04 -4.2517767424547774e+03 3.3709475925918232e+04 -6.9871864465699800e+03 7.8191817376323961e+03 3.8217350733154795e+04 -2.3221478984849979e+04 -1.2223296953161739e+05 -7.8782732797902827e+03 5.4349045473871665e+03 2.8995169744242166e+03 6.2380645333805205e+03 -2.3206342853238752e+04 9.7923318309975039e+03 1.1425918812192964e+04 -1.4897230840461110e+04 -1.8622626015730249e+04 1.0500298032462830e+04 6.5476943096533050e+03 -2.8205786262149748e+04 -1.4893289560673841e+03 -1.4327309056151447e+04 6.0793937856660668e+03 -1.7089491711039202e+04 -1.2490020660920511e+04 -5.6756188600825562e+03 3.2840027534875437e+04 -1.8891882734934217e+04 -1.5829839591525242e+04 1.8753214110338540e+04 1.4266438398231083e+04 -4.6292581643191079e+04 1.0289123923094858e+04 3.4612570800036333e+03 1.5030793926362225e+04 -1.2116765845799237e+04 -1.4184691033484669e+04 9.9815402670127842e+03 -1.4626842689748933e+04 1.2954182615291800e+04 3.1130439950383625e+03 -2.8448457069512806e+03 -5.4337401124391436e+03 7.0814201917730425e+03 -5.8202366911643185e+03 -2.9644748525076866e+03 3.2630587180507891e+03 1.6715754172848148e+04 1.8157171386603979e+04 3.9425426195247546e+03 9.4583668896832114e+03 7.3521682773997918e+03 1.7843120365278810e+03 -1.0502211001990698e+04 -4.2347882144966134e+03 4.1637799626791188e+04 7.8061417362795564e+03 7.1140553028854138e+03 -3.5154749540074281e+03 2.2281934392756095e+04 -4.1604699469450861e+03 -4.7906883383135992e+03 -4.2438727938745717e+04 -1.2855302356954551e+04 1.0488613206477457e+04 1.4004395053836462e+04 -1.0187358090666514e+04 -1.3477180020158856e+04 1.4914756148543478e+04 3.6066058568049493e+03 -1.4109921565052489e+04 1.4106708065187622e+04 2.9581321262887435e+04 -4.0115971685496188e+03 -2.6246258849516453e+03 -7.3750340056713649e+03 7.3521602691118569e+03 -2.1136266471647359e+03 1.2988144874123733e+04 -1.4145164450496026e+04 1.0041684225046221e+04 5.4442277595353544e+03 3.8713343303344154e+03 -2.1241354472273451e+03 -7.9153004721533853e+02 -1.5763718726737854e+03 -2.2749776370780764e+04 -7.9523024318562266e+03 4.1781574028480081e+03 2.6811686228052742e+04 -4.1718416775803053e+03 4.1210374479405058e+04 7.8412354787222539e+03 -7.8926371242953974e+03 -1.3168419276581670e+04 -1.6805558278791927e+04 7.3525106834646667e+03 -7.6839777352028104e+03 -8.8898317845511883e+03 -5.6227814886506312e+03 3.2408973815349818e+03 1.6586241200180211e+04 -5.2687338864171716e+03 -3.1979573408375727e+04 -7.2999602464569398e+02 -7.0487513688338177e+03 -2.0114094555308897e+04 -1.3174956888074303e+03 1.4013836260067962e+03 1.8680373106787774e+03 2.2143678618485210e+04 2.2122666192142501e+03 1.2479553592286757e+04 2.8424195395968603e+04 -6.6827316079463690e+03 5.2014407384192295e+04 -1.2308177012161408e+04 8.6206336742934473e+03 -3.9484944568075380e+03 3.7031813831939035e+03 -2.3398885263086049e+03 2.3569896483008019e+03 -9.9563537324519366e+03 2.3438975089380860e+04 -1.2067441382164483e+04 -1.5639316698906974e+04 -6.7989407852166951e+03 1.7395372444839228e+05 -2.9757301683853057e+03 -1.4625364677398265e+04 4.3197256485138714e+03 5.7277458635738913e+03 -2.5847345981914623e+02 -3.0491108600143634e+03 1.3517693812238576e+02 -2.4762511992880100e+03 3.5808494188621276e+04 -1.8394236235990073e+04 -9.6015078598290002e+03 -2.1602540028597323e+03 5.9404694536842871e+03 3.4007035407506628e+03 -1.6946572969797999e+03 1.5798858811942060e+04 5.9106435896797630e+03 -7.5669428416316987e+03 2.1387605608518701e+04 -5.8162878329789964e+04 -1.9245281859222698e+04 1.6768866419459846e+02 -1.0719427854270696e+04 3.3845591763958391e+03 4.0953652869277867e+03 4.6525180028604984e+04 1.0454931990855352e+04 -4.3425237807220838e+03 2.2963088838348231e+04 -5.3456966729139931e+03 7.0561437544160071e+01 -1.9619399448484182e+02 -7.4057122871200409e+02 4.2089928065043059e+03 -3.5126196842499048e+03 9.2643926238788554e+03 -1.9855040692874063e+04 -7.3136992909912624e+03 7.6871622637390974e+03 -7.2800115890483285e+03 -2.8936993622914015e+03 1.4528876975812018e+03 -1.3747034802301088e+04 5.2570143872333647e+03 -4.2622752897017635e+03 4.0259533222892693e+04 2.4070795688188664e+03 1.0244214433184461e+03 1.1469527430899179e+04 -6.6829798248718726e+03 -7.5384550294622932e+03 5.0789933798021229e+02 -5.1392552482534957e+03 8.2257467005219078e+03 -1.2088637467473745e+01 -4.3030355595034780e+02 -1.3597363483847927e+04 3.0802264396132887e+03 -1.0284852912261945e+05 8.2467264080638910e+04 4.7281541438370972e+04 1.4986818818375468e+01 -5.8240052670634468e+03 3.1199827601320576e+03 -2.1820999340059177e+04 -7.0997659682262660e+04 -2.3749282421627926e+04 -2.4771748214997351e+03 3.7594134567291621e+02 2.8936472082552042e+04 -1.0763962378659613e+04 9.3812001486803638e+02 -1.1240472931090429e+04 -7.9467259548189468e+03 -7.4060921213262482e+03 7.3224938255285961e+03 5.3240863271966227e+03 -8.0744736067849444e+03 -1.2625138439103161e+04 1.4595324209202663e+03 -7.2013682228086400e+03 2.0908092376613058e+02 -8.9051458882064362e+03 7.4684021249798825e+03 -1.0848465818588338e+04 3.2957302173576521e+04 1.9039794258779781e+04 -3.1085577968000725e+03 -1.5024068650064621e+04 -4.6232397718359607e+02 2.7241355273478417e+04 -3.2335103860497475e+02 1.8961439615969539e+03 -4.9736715034150984e+03 -7.0868373798786197e+03 3.6984617973490822e+02 1.8299981926447552e+04 1.7038199165160950e+03 -1.6429397511601506e+04 9.4641632089628420e+03 1.5737971946948499e+04 2.1412858570367098e+02 6.3972483649554197e+03 4.5515087035112083e+02 -1.4381634846135508e+04 -2.7803406342710587e+04 7.3675611574068389e+03 -6.5766577785531990e+02 -3.2235385642627582e+04 2.4082123775020886e+04 2.0968335744834541e+04 -1.3156881879549474e+03 8.9474692914844018e+03 2.2048535657115164e+04 -4.8236694167544338e+03 -6.8177352454712527e+04 -2.6255322142299687e+04 6.6497751877773553e+03 -6.4842124380208988e+03 3.2903598989032485e+04 -7.3057897713549100e+03 -4.2137696910649538e+02 1.7696370116702048e+04 -6.8140134265019587e+03 -4.6439535279733827e+03 -2.2723130128504679e+04 -3.1410549012305291e+03 -3.6000330779053693e+03 1.2307660485719576e+04 -5.4588594338188064e+04 -1.1332958687813612e+04 3.8303332804290767e+02 -2.5952456029553141e+03 1.7386958844143373e+02 -7.4690209471496928e+03 2.4134598659191983e+04 3.0288358329604627e+04 -4.9135041200764317e+04 4.9955689208208241e+04 -6.5618992395901450e+03 7.7929141673602601e+01 -1.2705990049121901e+03 -1.0861145322829485e+04 -8.5629168431265498e+03 -1.3968572004966118e+04 1.0191478627323982e+04 -9.4582071996389677e+03 
      </Row>
      <Row Index="6">
        2.9346583295046737e+04 -1.6425249758026956e+04 1.3724475388915873e+04 -1.5359722214582815e+04 -7.1063108249199195e+02 -7.4665398493852617e+03 7.6763515098710137e+04 -5.2449338832551439e+02 5.4967087513290853e+03 -9.6978431929849157e+03 -1.2391918852894260e+04 7.4103138850508240e+03 -1.8922908981019795e+04 9.7045527585771179e+03 -1.4713521536809385e+03 1.5830866418813810e+04 -3.4158265513918927e+03 4.9884561957882179e+03 -1.9500158863279841e+04 -1.5281794999918520e+03 9.4037188507893734e+03 2.7742918978462012e+03 5.7564389072808863e+03 6.8960854453527736e+02 2.9340563067990552e+03 -2.3349693212023094e+03 1.4543138372650794e+04 2.8619617446142656e+03 -1.6088802952763413e+03 -1.5477317414582294e+04 -1.2090609543043547e+04 -6.3915323966627320e+03 -1.4233661768476602e+03 -3.5689133391859023e+03 -5.7382339568462012e+03 -3.7120863952149698e+03 1.0235142650307942e+04 1.1609350186379752e+04 8.5824626374404561e+03 2.6855680810265749e+03 -1.4210326625915408e+04 1.8655252310759948e+04 -4.0537232877932023e+04 -5.1515477738974923e+03 1.7561962347327208e+03 1.0018013776006970e+04 6.4472442861635282e+03 -7.9290936698141195e+02 4.7696153451335285e+03 -3.5834716008087926e+03 1.1151722375602365e+04 2.2188236734910461e+03 9.6168152550996365e+02 -7.9908192428422662e+03 1.3525456941675267e+04 1.1178352125447418e+03 -1.4277793965193439e+04 4.8413978414756575e+03 -6.5526217143402491e+03 -7.9711351031147296e+02 -2.5015574292367801e+03 -5.2650180354228969e+03 -1.0932676822488922e+04 -1.8255196968044529e+03 3.9812709776302972e+03 -3.1302050018171794e+03 1.0972813903132419e+04 -9.7822430544441545e+01 -3.6412784256472842e+03 1.4328504754158589e+03 -1.2189524057353206e+04 5.5944138687753275e+03 4.6701297088725405e+03 -6.6060749457021284e+03 1.3492816464910484e+04 -1.1451761774294733e+04 3.3635373034090171e+03 2.1390180923797172e+04 -2.4245357386571054e+03 -2.6604694092333002e+03 6.0585549677511135e+03 -4.0246317305039311e+03 -4.5814317941039890e+03 -3.4076827700447029e+02 -7.4464655778445594e+03 6.5375412243373594e+03 1.7361986911961765e+04 1.1318702339253399e+04 -1.2944199568465996e+04 1.5932537782613552e+04 -2.4779078036194038e+04 -3.5231536464328433e+03 -2.6968875579237661e+03 -9.0006312056651586e+02 -1.1167631026069299e+04 6.4039438231996219e+03 -1.0276017749131170e+03 -1.9788879186254890e+03 -3.0249228079598556e+03 8.7643153377843610e+03 -6.2428417223325569e+03 -8.2853874534214410e+03 4.5053518017744427e+03 2.2202803952865470e+03 -2.3478929674360388e+03 -1.3279760122922349e+04 4.1586948955411062e+03 1.1075465915868781e+03 8.7882196390220743e+03 -8.9075366349175965e+01 -7.4078736337907721e+03 4.8119847571454611e+03 -5.0493063118661057e+03 -1.3289390249555563e+03 1.2423900306788828e+04 -6.6155650722556093e+03 4.3578317064890070e+03 -6.1402452079656687e+03 9.3629880437622051e+03 2.9869583212242487e+03 -4.8138463113528578e+03 -3.0957250011826291e+03 8.0863998795335101e+02 1.3569898308613932e+04 4.1717709697115861e+03 2.9317336992929513e+03 1.0164625897893420e+04 3.5605000979111173e+03 1.7745684009322811e+03 -3.1295011331585329e+03 3.6696309882798432e+03 6.5990955744508301e+02 6.3732944227293738e+03 -3.2338974784574602e+03 1.7456016295073743e+04 -2.9699636126571354e+03 -8.8743230543267946e+03 -9.0974066014576711e+03 2.5231430048727194e+04 -5.0594568492118769e+03 1.1389676417169479e+04 -3.7157152604529601e+03 -1.5982551728129458e+03 2.8881578364940142e+03 7.9210559267843273e+03 1.1806106306325782e+03 1.1092521908836037e+04 -1.2412695433552799e+03 -4.4309959413779561e+03 -7.6959565214854956e+02 -4.4113193681932316e+03 1.6215237931758711e+03 -5.3995766281055767e+03 -3.5581228456384197e+03 -5.9390458797868778e+03 1.6662334854484225e+03 3.8051706408137616e+04 -9.4490169201037133e+01 -4.2183446071373182e+03 -4.8703524564021563e+01 -2.6089660524671344e+03 -3.3122833449739946e+03 -1.9748970325917471e+03 1.6346663499779148e+04 -4.2889079326267456e+03 -1.6332160114953513e+03 5.4701923377998864e+03 -9.6393229886540303e+03 1.3485722693454984e+04 4.1992486098082736e+02 -1.9385425293427234e+03 7.6334460956299672e+03 -5.3364723198380234e+03 5.2773240440928166e+03 3.4216180554852217e+03 1.8997944896376557e+03 1.9023093212253163e+04 -6.4077466734358168e+03 -2.1693824436333547e+04 -6.0516908630542457e+02 -8.5444731268821924e+03 3.9500513445980832e+03 -1.5437843503482436e+03 2.5028088720945081e+04 -9.6754520081638693e+03 1.6190852340394231e+03 -1.3105954358845865e+03 -1.6924155566818081e+02 1.5111870742858315e+04 -2.4110552804131821e+03 8.0400056975206580e+03 -1.6155325621580414e+02 7.0803485270706005e+01 -3.2384039999050619e+03 2.0405853033335283e+04 -7.0820809902452493e+02 -9.3295653704160286e+03 4.8567294017431414e+03 1.3471016349165238e+04 -1.9428945785574615e+02 7.7874336494274612e+03 8.4004183960959053e+03 4.7609245627347736e+03 -2.0627553770623577e+04 3.1058343966809538e+04 6.9360183684750227e+03 -1.2770887452572966e+04 1.1685859748500983e+04 7.2251478492638007e+03 -2.1433696763147072e+03 -1.0100308429603887e+04 -6.6219011047317836e+03 -9.1848255814713775e+02 -2.2014133474003596e+04 7.1280925216915784e+02 1.4680298300335198e+03 6.0207284609494163e+03 -4.6584743401360611e+03 4.3112405897353410e+03 1.6460421239258721e+02 -4.6866827202905552e+02 -6.2194174217028194e+03 -1.1700002082784076e+04 4.0120110518415822e+03 -2.7272343352048629e+04 3.2087098237557548e+03 -1.7532747141776475e+04 -2.6021559975522259e+03 -2.5365895797628855e+03 -1.4518554512618284e+03 2.7800598315503012e+03 1.2828646511151746e+03 5.5084571860314463e+03 1.2832483950608264e+04 2.2654738770179330e+04 1.6332936982364517e+03 2.3887814641043569e+04 -1.0834638736386794e+04 -1.3234469767789953e+04 -1.2922903308477253e+03 -4.7480953183797537e+03 1.6978849709440081e+04 5.8977000483373413e+03 -4.4304653958793870e+03 1.0065748867084971e+04 3.4998835886558081e+03 -1.2782583999058694e+04 -6.3995102158203190e+03 -5.8755899030998535e+02 -8.7419568646047264e+02 1.3198799767491651e+04 7.0278828625086608e+03 2.7435526164703188e+03 -6.9850223455164087e+03 -8.0795454300004658e+03 -3.4551856092915405e+03 -1.2797439337552594e+04 6.1748245388809482e+02 -5.8257258102865308e+01 -2.4381822395510972e+02 -8.8599168750016834e+03 1.6542047919652541e+03 -1.2587500798093970e+02 8.5349220906369737e+02 -7.1794941591552160e+03 2.0012271928166556e+03 -2.1537040889636883e+03 2.0870901203197827e+03 7.4100718580580815e+03 -1.3777551811243352e+03 -1.0633300802299345e+03 7.3085216858787335e+03 -1.0473961490747752e+03 8.2859212839260144e+03 9.0326740624704798e+03 2.2521821831378591e+04 -5.5671574260307025e+03 -2.5077899764637900e+03 -2.5610129488886773e+03 4.5120254997168668e+03 -1.4532442879041992e+02 4.6092847327772615e+03 -5.5290788177709237e+03 -4.3526934373639006e+03 -4.7360993949883577e+03 
      </Row>
      <Row Index="7">
        6.8882986999373497e+03 -7.6730270092807477e+03 7.2773033707004797e+03 -1.2095898307566971e+04 -1.6184721382727268e+04 -1.3717802111937050e+04 -5.2449338910310962e+02 1.0650478742465611e+05 2.2169385502559093e+04 7.3602812149801830e+03 -1.5576367580594073e+04 -2.4862024059032101e+03 3.6022191573642576e+03 -2.4378198423359081e+03 -8.6792443793575094e+03 6.3069169911114395e+03 1.0396768982882770e+04 4.1678137956224818e+03 -1.8458179540104882e+03 6.5897960145307588e+03 -3.9173516186329398e+04 -1.6302230084217830e+04 1.9956541136911540e+02 -6.8368700704576058e+03 1.9466109422459707e+04 -3.1639959803212100e+03 -5.5903499712701796e+03 -4.6380557455787930e+03 4.0325751625368939e+03 2.2665022372659214e+03 3.6277326306691216e+03 -5.1867390191948489e+03 -9.7993440469342877e+03 -9.4073179905463094e+03 -2.3146201462785002e+03 -9.0303926772477953e+03 -1.0598179742663153e+04 1.9200004928478098e+04 1.7335815760181293e+04 2.0163413014036760e+04 2.2256038324652254e+03 8.7849343442832323e+03 -1.8479618983109347e+04 6.5334227754311087e+03 -1.6417751626916535e+04 -1.1905441659301168e+04 -1.0462128216484114e+03 3.3085274835135397e+03 -1.2043701377115060e+04 2.8069974824890593e+04 9.3524288984381528e+03 1.0125275846134537e+03 -2.5422385215558375e+03 -5.1047439160004096e+03 -4.7790027319218252e+03 2.9287822691485544e+03 1.2356786501222010e+04 1.3710213662534470e+03 -1.5397762320847323e+03 2.3871133481034685e+03 8.9734520617041471e+03 2.1952295730949576e+04 1.0816312262803651e+04 7.9388250803385299e+03 -3.6421533621284771e+03 5.3419368076408828e+03 2.5231767064238620e+03 5.5603779918789733e+03 1.5086592379669140e+04 1.7327220317749678e+04 7.4123327586258092e+03 -1.4086124739999923e+02 8.1432926364553314e+03 -6.8307863651164189e+02 -7.0273379593876907e+03 2.1906525084865089e+03 1.3340537090102237e+03 -1.4654965135677412e+02 -8.5547811195857366e+02 1.2792244226647830e+04 -6.0509566656785937e+03 3.1016730038867113e+03 -1.2827069089428986e+04 2.2286662037961050e+03 5.1485895303051029e+03 9.6929030450664923e+03 4.9764658689434991e+03 5.7586228560221462e+03 -6.3615941466777203e+03 1.8499653931473767e+04 -4.0044368824685193e+03 -1.9786595679743830e+04 2.6151808404056746e+03 -1.0706505945816562e+04 -1.5959781408860763e+03 9.1051105696994830e+02 9.0748757042706147e+03 -4.3121434587764379e+04 4.7628165143879742e+03 -1.6397984509283087e+03 3.7021789824995194e+03 -1.9226547519605872e+04 8.3277967391314669e+03 -6.5818687713292820e+02 3.9948370401920947e+03 -6.2371180574954251e+03 -2.7153488804091467e+01 -9.4323642624634340e+03 1.1971028020736667e+04 -2.4912070351409831e+04 1.4299498288091911e+02 -4.8633965638161108e+03 3.7001889596009983e+03 6.1263004557536333e+03 -3.5827547530715929e+03 6.4650418761690482e+04 -2.7867913409747009e+04 -8.5801003296476847e+03 -9.7438214442220328e+02 -3.8180044923896749e+03 9.8461073171198277e+03 -4.9646507326616602e+03 1.1398047311487048e+03 1.7960469388838094e+03 -4.4806046420036191e+03 -1.2264454528875933e+04 1.5034513141139550e+03 1.4856908457370924e+04 8.7865183789904927e+02 8.5815254883041762e+03 -4.1895110697597338e+03 7.5403196071118487e+02 5.7279862530319788e+03 -1.1313686845334516e+04 -2.0661681627423177e+03 -3.0608155003244638e+03 -6.9661773976551149e+03 -7.3310941915036456e+03 -2.7677480448384249e+03 3.9889568329608373e+04 2.5140285134978694e+02 9.6766465084353240e+02 -4.8348242558139482e+03 -1.0510955781047713e+04 -1.4992336045474502e+04 2.0363763818890657e+03 2.5610673750928659e+03 4.9974917602830637e+03 -6.3249977514382635e+03 2.2053117417092290e+03 -9.8505689054578252e+03 6.0853343939743354e+00 -8.9181781296744375e+03 9.0434623761527619e+03 -1.2428874997799358e+04 -3.5894414882209458e+02 -4.1397430505353368e+03 -1.9209999994170888e+04 -3.1310462736908004e+04 -2.9242529562033724e+01 -6.9317813097210092e+01 -3.0066790761995876e+03 5.4974871553331031e+03 -2.3130344875266601e+04 -4.3133986473376899e+02 2.0220126159946574e+03 -1.3340503174084552e+04 7.2346356013019522e+03 -2.1603073864077967e+04 3.7729744047112763e+02 2.6718289638807619e+01 -1.2653170996609986e+04 8.5586765799928980e+03 -2.8958404257295588e+04 -1.5486128198466031e+03 2.0222446800493890e+03 1.8281291146315307e+03 -5.2638984829164765e+03 -6.2952637236484661e+03 6.1043897842545994e+02 3.4487581377491879e+03 -1.2229668161138034e+03 4.0074492143354801e+03 1.5073002340620878e+04 -6.6752252144013801e+03 -9.2543562268200913e+02 -6.2574232634082473e+03 -1.3610487201035337e+04 -1.2167184029807873e+04 3.6954020698691174e+03 -5.3117853712808428e+03 1.0473858813171741e+04 5.3725894640892802e+03 -1.5526489252611687e+04 2.1579239825583209e+03 6.4207113175068116e+02 5.9554622833233534e+03 -4.7728996992865468e+03 -2.5401682166701994e+03 7.0016864890139550e+02 -2.2525168889156216e+03 1.2756974948650241e+03 -9.1914596382806776e+03 -7.4744545862890209e+03 2.0416397062696989e+04 -9.5604827683418989e+00 -2.6903354036999763e+03 -3.9907499307804292e+03 2.0561546543776898e+04 3.5067985235009983e+03 -6.5031526094334986e+03 1.4008064913885537e+03 2.6525993981329375e+03 1.0863805075885437e+04 -8.0149247275581802e+03 2.2881997133164114e+03 -4.3248937729417506e+04 3.6305101146910492e+04 -3.7796774309024629e+04 -1.6592504967600107e+03 6.5079229960849043e+03 -3.9615161819409463e+04 -3.8333579162959795e+03 -1.5388431099138783e+04 2.1485986442302667e+04 1.4446381142062955e+03 3.0876261270379789e+04 -1.8158643903962715e+04 1.3811457895206529e+04 3.7269525110293180e+03 -8.8256515053202311e+03 5.3068588719136023e+03 2.0623116714344505e+03 4.8199215877549796e+03 -2.4360999984491562e+04 1.1218296623515380e+03 -1.9817700435643434e+04 -3.6839712114874728e+03 1.2135199487030921e+04 3.5438087023235857e+03 -6.6566690434340271e+03 1.4599837876124511e+03 -5.6836391578834427e+03 1.1332883939649299e+04 3.5411003044593344e+03 3.1220025913536665e+02 -1.1238619341824524e+04 6.9311369529149888e+03 4.5486005991169686e+03 1.3978045117314905e+03 -8.1937193697043695e+03 -8.8772256037223269e+02 -1.0280319020086314e+04 1.8264969462326026e+04 3.8818879494715031e+04 2.6804076429228298e+03 5.1831427184173745e+03 2.1646321034875578e+04 1.9881023783604542e+04 1.4739813574990258e+03 -1.4125038017527550e+02 -1.1828512430071609e+04 -1.3527712225569558e+04 -6.4261988662595977e+03 7.2602533920242167e+03 2.7967152713402756e+03 4.2908425061087628e+03 8.4471797415290494e+03 1.3798143798648471e+03 3.1802948729667492e+03 -2.0694633721749633e+03 -1.5071467341203024e+03 9.6869305059796898e+02 3.1158851352274078e+03 2.1681486848943873e+03 2.1635579781981578e+04 1.0384394573699687e+04 1.5414782681330047e+04 -2.8403541434072522e+04 -1.0416371117120376e+04 -2.3029846470986668e+03 -3.8837253532729519e+03 -8.9319571090596673e+02 1.7542591076254248e+04 -1.6688258779817586e+03 
      </Row>
      <Row Index="8">
        -1.0339252482479467e+04 -2.6267627522525047e+04 -1.9442403762920785e+03 1.1068902975731507e+04 3.3771098688784521e+04 -8.5865050705249359e+03 5.4967087537555963e+03 2.2169385501830238e+04 2.3980299916501224e+05 1.8269592367237219e+04 3.9978313913700607e+04 -8.4383610653406322e+03 -5.5641171307351879e+03 4.4380667164817096e+03 1.5009281725215224e+03 7.9293355905554481e+03 -9.6800165419731802e+03 2.9901733339347902e+02 5.7486755493050769e+03 -3.6268206849649199e+04 -6.3089148392781703e+04 -8.9757944347115554e+03 -2.3801871275933509e+03 1.0967169025130876e+04 -1.3333685797091393e+03 -8.3882753724500617e+03 4.2138368021289680e+03 -1.0291061350054195e+04 -2.5574691495299076e+03 -4.9658675632209124e+03 -6.7734278768021404e+03 -1.6504460936613723e+04 2.3366080293987565e+04 -3.6410091454479834e+03 -6.7111339467541948e+03 7.9958168735610498e+03 3.1597897497026133e+02 1.0366785275238608e+04 4.2514491650791770e+03 2.1924219813122345e+04 -5.9658674620219808e+03 8.3765910425281363e+03 6.5062433285145744e+01 -2.3954181156686784e+04 -6.9320444417703402e+02 5.4293359330435524e+03 -1.4327031685396651e+03 -2.2945222703257496e+03 1.3897007824738357e+03 -1.9233573081153127e+03 1.4316947675949290e+04 2.2301483855697457e+04 1.3905475278072934e+03 -2.5986141529744396e+04 6.6342627813224726e+03 -2.5945422340399455e+02 4.4913375126312116e+04 4.0958635987681391e+03 5.2716458948716827e+03 5.2367364665643854e+03 7.7092308647690006e+03 5.5153713553025973e+03 2.1617592286978324e+03 -9.1974625669931229e+03 -1.5551622010450451e+03 1.6595818313320655e+04 -1.5924998864371219e+03 7.4105928903667445e+03 -3.2996865430339298e+04 1.6513632148769728e+04 3.5551416468404641e+03 7.1636806638423036e+02 3.3765408303172680e+03 -1.9183434428106440e+04 -6.1188606272093748e+03 -2.3632164952347553e+04 1.3113424031721508e+04 -2.6301581991659379e+04 -1.6939088607203728e+04 1.0121558944445514e+04 -5.5486686504767786e+04 -4.4041188837229565e+03 -5.7686358122414395e+03 -1.9276793659843815e+03 2.0286184734206850e+04 2.8872222596732672e+03 4.9679420347820924e+03 8.2719115726727432e+03 1.6743601826392121e+04 2.3714058149202421e+04 -9.2201329834184580e+03 -1.4070954842567582e+04 -4.5435615978522008e+04 9.0490825427647615e+03 6.0499692792532460e+03 -1.3870020938387790e+04 1.2050705702774821e+04 3.5899336301340009e+02 6.6492536110226283e+03 1.7226289021778852e+04 -3.2084774105549313e+03 -4.9129179214752570e+04 4.0702342636868616e+02 2.1366679511953480e+03 3.7333546510340588e+04 -8.2494043669947896e+03 -1.0469565454441479e+04 8.9620255232552481e+03 -3.5604842947905163e+03 -5.9363848101187759e+03 9.8181682940792707e+03 -8.1147019065692220e+03 -3.0610575892513416e+03 1.5490657231610465e+04 4.6761726608917197e+03 -9.8936952020017125e+03 -7.3450694908483647e+03 -3.3316648889014359e+03 6.6231497731312575e+03 1.1800532924618796e+04 -5.3119172077434769e+02 2.7685730888811959e+03 -1.2645530245859172e+04 7.5670966316365148e+03 4.5058139068763949e+03 -1.7477946974859718e+04 6.6979721965532553e+03 3.1396358614717583e+03 1.0278232690311782e+05 5.0832573282112753e+02 1.7031506469502518e+04 6.8856616700235427e+03 1.4529018633940032e+03 -2.1143697402341462e+04 1.6819967769414779e+03 3.0300022510586623e+04 4.2559851142752814e+03 -3.7501284158960720e+04 1.2721102759177138e+03 -1.8845167044566706e+03 2.6540279741568775e+04 3.9728318500313412e+03 1.5741051985886344e+04 -2.2985674715816658e+03 2.1451494380462536e+03 -1.6202193322013354e+03 1.0015633900068839e+04 1.3993920645684027e+04 -6.4919802418249546e+03 1.9677037700648980e+03 2.6967078696176759e+02 -1.0383098380744112e+04 -1.4286923060150002e+03 -6.7716544756062067e+03 -3.4721534827311480e+03 1.0862734110898800e+03 2.1680984811212715e+04 -3.4383330955745565e+04 1.6850132228136499e+02 -6.1824724048335497e+01 -4.9775003210612094e+03 2.3479056189929056e+03 -7.0703299325471744e+02 3.4586645928950762e+04 -4.5804020885696373e+03 -6.2057073349604252e+01 -1.3956651001453094e+04 -1.1682739139069618e+03 3.8468895704739858e+04 7.8846687030652538e+02 -6.3564998005578673e+03 -1.3755498088257009e+03 -1.2328590774889013e+04 -1.9729066030963757e+04 5.1427068308148315e+04 6.9133641682241068e+02 2.9909313482944635e+03 8.0755822553608923e+03 -1.3630801789599056e+04 -2.0024825764819980e+02 -1.0072237357435748e+04 3.9425881684704800e+03 -2.6124795165351621e+04 4.0581995101416382e+04 -4.7099422514064136e+03 -1.6254450905164349e+03 -5.0455019724240274e+03 -1.6914981761003808e+04 2.1205043495563543e+04 2.3123476851720789e+03 4.5976919313460530e+03 -2.4871113019786921e+04 1.7723677760809660e+03 2.3997945561524051e+04 -3.3521772619922718e+04 3.1375462016966130e+03 2.2761602078298154e+04 -2.5435148280066089e+04 -2.7224061148809022e+04 4.1098050142126158e+02 4.4844575936907022e+03 -1.4918576651811047e+04 8.0741708116387599e+01 -3.2073705380124804e+04 1.0776637515113214e+04 -5.7961239719809964e+02 -1.7073659431635559e+04 1.2115345806978883e+04 4.4532993606863429e+03 2.3857731963917031e+03 -7.9837247068272627e+03 -1.5024455980921310e+04 -1.4596915495027177e+04 -1.4113508789113053e+04 1.4654837338316425e+04 1.5033210775218176e+03 -2.0234579458852058e+03 -2.5924399950845487e+04 1.0780276956646640e+04 -9.4227490619954187e+02 -8.8702234933290456e+03 -2.5595960305875051e+03 -1.1782656168999223e+04 1.6634042950028081e+04 3.4444435415906373e+03 -3.6160685502089332e+03 1.2027124294627343e+04 -2.0161892663948631e+04 -7.0498046812386485e+04 2.8070901055335999e+03 -5.9871082969330600e+03 -2.0270544860463575e+04 3.2844875073539122e+04 -4.5033757896333962e+04 -1.8341740738752153e+04 -1.3163165864239318e+03 -9.5245323888413041e+03 7.0825824158774340e+03 9.9034805186342601e+02 2.9859027037769556e+03 -1.2052011564520129e+04 5.2071236591524212e+02 -1.3288008485639002e+03 -8.3904789217182843e+03 2.7645380403486444e+04 -3.4151272528627887e+03 3.4245158844336765e+03 -2.0233665629535244e+02 1.1642052487010442e+04 4.5769044902175665e+01 9.3465833886082692e+03 -2.5020048527044011e+04 6.2227045241881278e+03 -2.7188374992319325e+04 2.6335599036027823e+04 -4.0499384275544435e+02 -1.1760433633257197e+04 1.7426260137204081e+04 -2.3043231327563000e+04 1.4181595816435292e+03 4.4285182124829153e+03 -9.4998637376144143e+02 -1.3232326230154846e+04 2.3958053656577984e+04 -3.5679111152946272e+04 1.7219286474071541e+03 6.5506133258314867e+03 -9.2402323491732386e+03 4.7929872188267953e+04 2.4016261960830047e+03 -1.7506471163622773e+03 -7.3193698493083430e+03 -7.4157495658781845e+03 3.2895872792984010e+04 6.5474308548484005e+03 2.0992950234211032e+04 -4.4549677716386483e+04 1.3326987534593269e+04 4.2377305104795261e+04 -7.8783387451586314e+03 1.0275627868144657e+04 -8.3994343724602240e+03 -3.8304622405485206e+03 1.4904941768560020e+04 4.8963642576143678e+02 
      </Row>
      <Row Index="9">
        3.0835220094484662e+03 4.9109281694723089e+04 -1.0513047653571281e+04 8.1746756693484058e+03 4.4190469808305497e+03 1.1895715650938528e+04 -9.6978431939935181e+03 7.3602812119137452e+03 1.8269592368284844e+04 7.5532905518765707e+04 3.3596162735289945e+03 9.0092697143241166e+03 -5.2933299829683729e+03 -9.9611260466230069e+03 2.9070335761539404e+03 -1.5401682811589473e+02 -3.9983772582699817e+03 8.0694458986610425e+03 4.3038698026961839e+02 -1.0181777881411199e+04 9.0590215431893339e+03 -8.2915921138846643e+03 -1.3565851100331123e+04 5.2418927929503943e+03 -9.4601369861317944e+03 2.8803490063182671e+03 -3.8266821877160323e+03 -9.0497151448496734e+03 1.1502729693570407e+04 4.1757215108229630e+03 2.0210490769232388e+03 -7.0085915861731655e+03 8.4194685571918635e+03 -5.8135220832102714e+03 -2.9087410997126194e+03 -3.0673946880163990e+03 8.2327604946007923e+03 -1.9271976020571547e+04 2.7326749307601108e+03 2.4689910681856873e+02 1.7228381214517547e+03 9.9910178408726460e+03 5.0558061179604465e+03 -1.4645993502313531e+04 3.9007726427924340e+03 -4.3381085489423194e+03 -2.4178323586215767e+04 7.4526099993783555e+03 4.5024006335432878e+03 -1.2380502608665396e+04 1.2942270813781521e+04 1.8032176811555255e+03 5.8099535582772351e+03 -3.3150877537010820e+03 -5.3373129875342074e+03 -1.0188311373089564e+03 5.5889142116399380e+03 1.0984984030678836e+04 -4.9382073066889643e+03 4.9780638188470784e+03 -5.1292361507454689e+03 1.0213876380368099e+04 5.0381462926398308e+02 5.3318940444865730e+03 -6.4656694160524967e+03 -8.9115656033912474e+03 5.4565224051854384e+03 1.3468734940466191e+04 4.3942901298418547e+03 2.6777921764952313e+04 1.3510166343390883e+03 3.3087037858364806e+03 -1.0862642663095048e+04 -1.6009800003436321e+03 -7.3275840934721946e+03 -5.6490612828587155e+03 -2.1718633314659041e+03 -3.1174813613995888e+04 5.9146007286837457e+03 4.5604783318884238e+03 -6.7323565525771464e+03 1.9625512050948732e+03 1.3245711346300984e+03 4.1431674244052010e+03 -3.2131544079515261e+03 -2.4715225391690883e+03 1.5309999233234901e+04 -7.5340367906967003e+02 3.2228707229903721e+03 1.3374625562413825e+04 5.1537535935819287e+03 -3.0045346884317155e+03 -4.8322615547010209e+03 -6.7240635076799654e+03 4.4460811431719958e+03 7.5572858638224204e+02 -2.0467708181549656e+03 7.0947346049676089e+03 -4.9535191934053764e+03 6.9694315808499832e+03 -2.3659999556879993e+03 -5.8777116300610942e+02 -7.6867059062396829e+03 8.5696531477439348e+03 1.9556143169874511e+04 -1.0200925810872597e+04 -1.9906935294836364e+02 1.2087183228494250e+03 8.8001608050465802e+02 1.0436420342516025e+04 -1.2003341846596644e+04 8.3995593939647970e+03 -7.3809337967400761e+03 -1.2557972065960616e+03 2.4868386262047898e+03 1.0635608275611776e+02 2.3177710118100440e+03 9.8709435416394699e+03 -4.2786479182532003e+03 9.2370763255014899e+03 1.5933454980171256e+04 2.1951329744722407e+03 1.1295564190427696e+04 5.4535437869545349e+03 2.2438639744363668e+03 -9.4413563625915831e+03 -4.3769463396032779e+03 4.1881564011965866e+03 4.5196011742812698e+03 4.7238781302814023e+03 7.8954358779988206e+03 -1.8608802439106239e+02 -7.8651633351370256e+03 2.9227023446237192e+04 -2.3253051897499736e+03 3.7432932742620715e+03 1.6457054273572339e+01 6.5023927895133966e+02 -7.2602612599658924e+03 -3.7152196997489118e+03 -2.7665081768753662e+03 3.2614241341679397e+04 -1.1375117218707488e+04 8.4997728146020054e+03 -1.5241886313402683e+04 1.7132716251689053e+03 -2.6638413402236092e+03 1.1711990111213017e+03 -1.5969416022323758e+04 1.8372018647428995e+03 -5.4630608080630773e+03 -3.6771712913619849e+03 -3.3363822265690978e+03 1.9595872026785582e+03 -1.8494570517612156e+04 1.8134200252431938e+03 1.7015652214383153e+03 1.4282922023810053e+04 2.3906229878681552e+02 1.8404401997502760e+01 -1.0173944089678214e+04 3.0713487157801528e+03 -1.0958376146907103e+03 2.6146193510682308e+04 -6.5519052818354103e+03 -7.8889535857713781e+02 4.4793371518971762e+03 8.6438719799535975e+03 1.3192322672152310e+04 -2.6160265152435750e+02 6.0234587164015284e+03 -6.2200362802013697e+03 -4.7000428970462108e+03 4.4731226073570724e+02 -7.6444523891059680e+03 2.8857290578212760e+03 -3.4293301226542044e+03 1.5562213812430855e+02 2.0756283917033215e+04 -1.9678007441665977e+02 -1.2015639057852095e+03 1.3603501293721347e+03 1.8679388370913366e+04 -1.3030727191115438e+04 -3.6757911287235765e+02 6.3145179945661994e+02 -4.2532061894432154e+03 1.5304309595747394e+04 7.0063185035129718e+03 1.0371494242897661e+03 -1.1040910701434723e+03 -5.7968037307825125e+03 5.3030560160867171e+03 2.2937993537281676e+04 7.7179467594146336e+03 3.9960883402084164e+02 -7.8852586014178796e+03 -1.2150311738089156e+04 4.7692083854688026e+03 3.4335911580547690e+02 -4.4723952184484915e+02 -3.6305792770343833e+03 7.9181344825120323e+02 -8.4062627210242645e+03 -1.4982969190879994e+04 4.4883504992129747e+03 -3.3974306824856667e+03 2.3404319855525096e+03 3.4280964227262284e+03 4.9165153514625854e+02 9.4881892540705448e+03 -5.6784862150032423e+03 3.2687238480941305e+03 -1.0889492073888177e+04 5.5658404486518120e+03 4.5947045765389157e+03 -3.4600476812681507e+02 -3.3930078938047955e+03 8.3906594882014706e+03 -2.7326461711362936e+02 -8.7876972988511552e+03 7.8255944853224792e+03 1.7618761913047110e+04 2.8565980333996726e+04 6.0042631884002130e+03 9.6473071187158348e+02 2.5390828292700007e+04 -7.0252658724825960e+03 8.5478994816900740e+03 1.5140643973015249e+03 -7.7206411327410024e+03 -2.1989845832515202e+03 -2.4165612915906822e+03 -5.0808117835209559e+03 2.2734924786876218e+02 -1.0348365537431528e+02 -2.4995641209020087e+04 1.1579261065814208e+04 -1.2157972773481088e+04 5.2217561046779156e+02 4.1168587510033976e+03 -2.3412599576995068e+04 2.7885892884410860e+03 1.5983831705447010e+03 -7.3492096454848652e+03 -7.2734921673731878e+02 3.5018685622816006e+03 -1.1605765297007514e+04 7.7600614765655628e+03 4.8239599983766675e+02 -6.6268505174073798e+03 -1.0373730455110657e+04 -8.0866521452975576e+02 -4.3233886165031581e+03 1.7412715821972484e+04 -1.4543240700224414e+03 1.1119474843488191e+04 -9.4100408797174041e+03 1.1578665189827785e+04 8.1813842237903737e+02 3.8019204122228548e+03 -2.7698748312398020e+03 -3.4308326782267413e+03 3.6755549744737873e+03 1.4455374769015030e+04 1.7435907468812075e+03 -1.6596650567018971e+03 -1.5431602400390817e+04 -1.3583695659534224e+04 1.0991943183845215e+03 -2.3452315974347730e+03 -1.2869846320743763e+03 2.2418217774631921e+03 -1.0159670176684969e+04 7.7008668699242335e+03 2.1198669723298561e+04 -9.6267373304795910e+01 -8.1389904918369593e+03 1.3870649159651241e+04 -3.5848023231136613e+03 -5.4700957720041333e+03 -4.1779147366849293e+03 -7.5023924691353841e+02 -2.1144724227894385e+04 -2.2355659541022505e+03 
      </Row>
      <Row Index="10">
        -3.0921391496997592e+04 1.8768383727475386e+04 1.3029921101613385e+04 7.5310616431073831e+03 -7.4332731288299856e+03 2.1671680762353637e+04 -1.2391918854168323e+04 -1.5576367577947596e+04 3.9978313909592696e+04 3.3596162710806384e+03 1.9114348300690958e+05 -1.0536583797488736e+04 9.9542746958307780e+03 6.2659934835008635e+03 -7.4904101400852978e+03 -4.2511318975853217e+04 -9.6578920365205868e+03 -2.2589203130939171e+04 7.5355986967025210e+03 -2.0673383752710179e+03 -1.4631675191500104e+04 -2.1152055022442728e+03 -8.0535916230244038e+04 7.3344969778041122e+03 1.4860714468534288e+03 -6.7448282397515468e+03 1.3467947922226205e+04 -2.3920489900816086e+04 -3.2025228085286826e+03 3.6912815771262922e+03 3.0533090077421716e+03 -1.1629022771687980e+03 -2.2417717497271427e+04 -1.8313048811688382e+03 -9.5465010164714804e+03 1.1915462817916736e+04 -4.6216540213787812e+02 1.7117389829681899e+04 3.5859308921428837e+03 -8.5845872974875238e+03 1.4289239802074480e+03 -9.4995022994262399e+00 -8.8174198837908880e+03 -1.8556700533932672e+03 1.2708803864347858e+04 -1.7175203093600144e+03 -4.1942627889078220e+04 -8.3267288909594772e+03 -5.0022212404467900e+03 1.4153065994654720e+04 -1.9662480061428159e+03 1.2336913664239983e+03 4.3599404974937370e+03 -8.9912192970898795e+03 -1.0718519634338169e+04 1.8932224840281560e+02 -8.0462437830516628e+03 7.0044603237830725e+03 -2.5978220533506292e+03 -1.4177622665457429e+03 -1.2948964922383751e+04 3.7601564608896197e+03 -1.0460925156540939e+04 -3.3477235096072654e+04 -1.0646265957866228e+04 -2.9872291042298984e+03 -3.0408165388093130e+02 2.2785430766366480e+03 3.4887900778268886e+01 -8.4737633329753262e+03 2.4672083620474994e+04 4.2123211140776975e+03 -3.4632039831425354e+03 -4.6759374025674879e+03 -1.8263292464413898e+03 6.7066851486784490e+03 2.0092831784093607e+04 -7.7547249073357016e+03 5.6829889614665517e+03 -1.2525022265617514e+04 6.8852157251812205e+03 3.1300190375575944e+03 1.6288066587263311e+03 -9.9406933720786765e+02 1.3419167157818352e+04 -2.4636436941057123e+03 -1.4724716414636698e+03 -3.8397861402932540e+02 1.7771139129667114e+04 -6.4869297142115629e+03 6.8078158550190510e+03 -1.4936209654017506e+04 7.0280516040526090e+03 -3.4745052082173333e+03 2.4916244245160164e+04 -1.1389607000831502e+04 -1.4860249188930826e+04 -1.3551999089343679e+04 -1.4395289478096201e+04 1.0274543613212838e+04 7.0139140616342738e+03 2.1176046131121766e+03 7.3237585665998267e+01 -3.9751706978028815e+03 -6.7909005204245150e+03 -4.0849553876026894e+03 1.4861469817081113e+04 2.8126739720433488e+03 -4.9889730890672818e+03 -6.3072594885814251e+03 1.5961112661667328e+04 6.2803120093152620e+02 -7.0227658962460191e+03 -4.8135036832007554e+03 1.0090793440155203e+03 -5.9474871148738748e+02 3.6039639359062538e+04 4.2038430205851364e+03 -3.6729083452044360e+04 2.2838606395995494e+03 -5.7384910851124732e+03 -1.7323318355594347e+03 1.0248562649285905e+04 -1.4827310314730761e+04 -8.8138340566533589e+02 -1.8487844726193362e+03 4.1143707631735997e+03 2.8504513518749791e+03 4.6259329693540640e+03 5.8618465274258251e+03 2.3543132381372128e+04 1.3558094735193895e+03 4.7345664683317391e+03 4.4213612935168221e+03 9.7143837803534025e+03 -2.5101996692447421e+04 -1.3226505577852975e+04 4.2185757478915093e+03 -6.0334224051052261e+03 -1.0630206486546589e+04 4.4552078415249445e+04 -1.5180485922093071e+03 7.8292595283460643e+04 3.7471287552785225e+02 4.2213859616387126e+04 1.4307515507115140e+03 1.3532627685586176e+03 1.6374064121816446e+04 3.9837244998903407e+03 -1.8752576615191720e+03 2.8252285748410868e+03 -1.4937851464891513e+04 -8.7149407976268267e+03 7.1598573468020186e+02 2.0939515027450565e+04 -8.2510658714545207e+03 5.6445415649798451e+03 -4.7229625442984325e+03 -3.5348241319282468e+04 -1.0974094643830520e+02 -7.6774348995983628e+03 3.4777436482549792e+03 8.2460584712820128e+02 -2.1298081312008093e+04 2.9566488249330949e+04 1.1197862302010908e+03 3.4814184066569549e+04 4.3417001838557844e+03 -4.6880651732598926e+02 2.0652384868035597e+01 -8.3486441981212502e+03 -2.3204849992101808e+03 -3.3385573986393774e+02 -2.3087920805741505e+04 1.9472898485013298e+04 -4.5420707779513295e+03 -1.3291782328627442e+04 2.8623217887053324e+04 -2.3918794651385906e+02 3.5097745193820447e+02 -8.5099410999172833e+03 3.8247636969577507e+03 -2.5915153460465372e+03 -1.8911246590466577e+04 -1.8053741948219911e+04 2.2750186392642245e+03 -9.4085508163031136e+02 7.1037104076531341e+03 4.1322456042616450e+03 -1.0647375471694704e+03 7.9715590666752250e+03 -3.3000101047342177e+03 1.7231967652134597e+04 1.6423122989204276e+04 -2.7121404125730158e+04 1.9950247124767056e+03 -1.2674437174632780e+04 -7.7633858886944581e+03 -6.0993742482438283e+03 5.4780070961872116e+02 -5.3131821676105246e+03 6.3546287709248718e+03 3.3179349726810615e+03 1.7907233842955120e+04 3.5570825730300567e+03 7.4035782812031393e+03 -9.9231725538744422e+02 -1.6205186566029952e+03 -2.2387684586784297e+04 -1.3744787642990705e+03 1.0936390338279001e+04 -1.3840623637307479e+04 1.4309189272457152e+03 1.1023665714639319e+04 -6.4757962308853166e+02 -4.9911549882383842e+03 1.4066431423215581e+04 1.6597042810167557e+04 4.4526033106773393e+03 -1.3678751001111232e+02 -7.0308944512829767e+03 -4.8871281950466218e+03 -9.2925480764922249e+03 -8.1392041351443222e+03 -2.2987844889360884e+04 2.0808022104450065e+03 -1.7049229661616431e+04 1.5179070924692194e+04 3.2055657619693793e+03 -1.7450964640779421e+03 1.2069780918061879e+03 -9.1993218189182808e+03 -1.7436076029904907e+03 -2.2079363602071695e+04 -2.1579249103394977e+02 5.0213631491864689e+03 7.4916386493229074e+03 2.2365339376847525e+04 2.2781070995106165e+04 -7.7363792905304581e+02 -9.7157965802138497e+03 -2.9349459513581714e+03 5.3478803771581734e+03 2.2786560313964155e+03 -6.0715237956148201e+04 5.2855079745757394e+01 -1.1918502015755786e+04 -5.0557096498017258e+04 3.3176239819280803e+04 2.3109908827999607e+02 1.0932945202338495e+04 -7.7790702936800662e+03 -2.6111394722974946e+03 2.0891583879863567e+04 -1.7673399279900746e+04 9.3389231029027142e+03 -1.5114371895938109e+04 -2.7610404681499822e+04 -2.5680770298000505e+04 -1.5727254935600795e+03 4.6632682249683130e+03 -1.5619591774032495e+04 -2.3196657370129979e+03 3.7556013476274180e+04 1.6667126435172191e+04 3.4444731795669577e+02 1.0480094684899725e+04 -2.0844040025703180e+04 5.0299549691611428e+03 -1.1246164617121879e+03 -5.1006184023570822e+03 -5.0340970886433461e+03 7.3611249091222417e+03 -2.1163595935501038e+04 -1.0422285651453974e+04 -1.8029175978884799e+04 -8.9439904570588296e+03 -4.8263630204958117e+03 7.9446766057928307e+03 3.6790914599518292e+03 7.4306409594336583e+03 -3.0879060915252539e+03 7.4207788048770062e+03 9.0577220484091049e+03 3.3667944706231483e+03 
      </Row>
      <Row Index="11">
        4.5276071301188240e+03 1.6753712357665449e+04 -5.5059565994836084e+03 -4.8749620139455437e+03 -2.8541507932973245e+03 -4.2517767407357851e+03 7.4103138851737367e+03 -2.4862024075947047e+03 -8.4383610691672911e+03 9.0092697146200662e+03 -1.0536583796729879e+04 4.2672286826926844e+04 -5.1735720965057244e+03 -9.0331300951724515e+03 1.4218600852298910e+03 9.2547952526022782e+03 5.6104710959136346e+03 -1.6004554325608406e+03 4.7609035829849392e+02 -5.8398363965446915e+03 1.8837988455534160e+04 -3.4054402323177442e+02 1.9537142898214533e+03 -5.6672084791658854e+03 3.9805112411364898e+03 -6.5370894636603964e+02 -3.4607444282649963e+03 1.7518724942030487e+04 5.7891229995831145e+02 -6.0628273827001594e+03 -2.3182387111081530e+03 -3.2775903848280950e+03 6.4864119157217056e+03 -2.8162669603386689e+03 -3.9578600648703468e+03 -5.7398558090227652e+03 -1.0095590318117611e+03 -1.8234160710577824e+04 -9.8772774983678719e+03 -1.0300061685574332e+04 -2.4941358707539985e+02 1.0285224542784481e+03 -3.9198486301630574e+03 -4.4263636630430419e+03 7.4402837549643991e+03 -2.5782210075474732e+03 -1.4180424769519728e+04 -2.3366596500118308e+03 2.8086929282148271e+03 -8.6882102645565137e+03 -4.7993836664045848e+03 -3.4266425172891759e+03 2.8625780583194287e+03 -7.4041582257219752e+03 -1.9270077757949446e+03 2.5445238436184954e+03 -2.7137313043659997e+03 -1.7224763725502771e+03 -1.1219596160898576e+04 6.0931384646496181e+03 -5.1861103894621647e+03 6.0032015511371637e+03 -3.2090130731229137e+03 9.9023006014055136e+03 -5.7989700371654180e+02 -5.9503815502596271e+03 3.2763836353245274e+03 2.9218898196008490e+03 -1.1367246454828455e+04 8.6190977760256446e+03 3.4465113886829349e+03 1.5487858327242488e+04 -5.0316033648054508e+03 -5.3189884753575689e+02 4.0687900065466583e+03 1.3488996325447173e+04 -1.5613232819126861e+03 -3.7486185134630750e+03 -5.1599335383547486e+03 3.0199867091321676e+02 -6.0238491770300161e+03 2.9583478036655101e+03 -2.6802081101712247e+02 2.6753789691457278e+03 -2.2461806841092757e+03 6.3274840660058981e+03 5.0011072918265309e+03 8.6684072059705959e+03 4.6067847793111305e+03 -1.7978437615823427e+03 -3.3992030641733913e+02 9.2424384055779774e+02 -3.7963471820432769e+03 8.1085743656075592e+03 -3.3725513122004591e+03 -8.0322371663779595e+03 -1.0803549818285883e+03 9.4764609695604140e+03 -1.7519275072061282e+02 -1.7309874547852960e+03 1.1994901629780525e+03 -1.4050053386495783e+04 -2.2261056497401023e+02 4.6356191571363706e+03 1.0557678661967486e+04 -1.9398215622210446e+03 4.4501415210426967e+03 8.3371713534562696e+02 -3.6945524203263449e+02 -2.3315080094344376e+02 -5.7575660253088863e+03 7.0634432413244840e+03 -1.2234506532695286e+03 -5.3531154845230421e+03 4.0485111406508140e+03 -2.2983212377608061e+02 1.1497221486131832e+04 2.9724830229501677e+03 6.4100451188374136e+03 1.5174514725635903e+04 6.9104101531040506e+03 2.8153141668771950e+03 2.1518041666506415e+03 2.7033041258376261e+03 6.8542546378038674e+02 -1.7515820788003926e+04 5.2445537205222490e+02 -3.8587408949068777e+02 1.2964091291662771e+02 -1.0829259518796289e+03 9.0314457293064936e+02 9.0030626548686178e+03 -1.4409485545121443e+04 1.4360402489948536e+04 -3.8279095203196230e+03 5.5002244875936922e+03 2.5098527585518714e+03 -8.1290827403063486e+03 5.3073498979651176e+03 -2.0282466068635131e+03 -5.8392882263573993e+03 4.7651219621386208e+03 4.2532332605762861e+01 2.2222939815947895e+04 -9.0685292746890882e+03 -3.0707857380409223e+01 -6.6888106463173526e+03 -2.1953006049945598e+03 6.4432385344876138e+01 -5.7930196522099141e+02 -1.9289606654761374e+03 -2.6777234009625172e+03 -7.2850911624589935e+02 -1.7366037213474019e+03 -8.8850640919918878e+03 -2.2168406873737513e+02 2.1316845483939869e+04 9.6106010314966643e+03 7.0456645600364727e+03 4.5844112902280976e+01 1.3339117482762103e+03 -2.8229702544778193e+03 -7.7084258181293262e+02 9.2120663696363408e+03 -3.5512731625160559e+03 -4.1195553671766538e+02 -5.6987236507602720e+03 2.4167978828218256e+03 -2.5243795447582288e+03 -6.5601377807836980e+02 -2.3324568960113902e+03 -3.2420047992909385e+03 -1.4856728770622565e+04 9.1956004722531070e+03 3.3787026428503232e+03 -9.7929391298778705e+02 3.9122159118704894e+03 -1.1701765707667131e+04 1.2646759519129158e+04 5.8250570592470467e+01 -3.7984265726318117e+03 1.5415806304407532e+04 1.1286657587834052e+03 -1.0400967245106644e+04 4.1657319286500606e+03 -4.3976489698535988e+02 9.2260700032908990e+03 1.4822516252327687e+04 -3.4308453695332946e+03 -3.7288866955792037e+02 -2.0634982774143218e+03 1.3064083713994594e+04 -4.9458485919313098e+03 -1.1067445766096571e+04 4.7955596778421823e+03 -4.9362572532177637e+01 2.1057648003512622e+03 -3.3699769043645329e+03 -3.1229351378320735e+03 1.9363571252301335e+02 -2.5804802856790384e+03 -6.0485403208818752e+01 4.7195959380893628e+03 3.2533131413758383e+02 -4.2549603857364764e+02 -8.5563678424851969e+02 -2.1281593892424789e+03 -4.6687072748613673e+03 6.2772758381346230e+03 -1.2453171760353143e+01 -6.2502059456432144e+03 1.3529421188265716e+04 1.0322495961555833e+03 2.8141924912140894e+03 -1.0736725356524825e+04 -1.2761578480669414e+02 -2.5223818109549611e+03 5.7340030551913296e+03 9.8456113077641239e+03 -1.3167858355375938e+02 1.9787064568218193e+03 -3.2471503276838921e+03 -1.1127037329369996e+03 6.0469617926515093e+03 -8.5388962479586576e+02 3.9255070977162177e+02 9.0579323540071964e+03 -1.7649257628628693e+04 -1.0633012228038442e+04 2.5779025780817028e+02 4.7326103534557114e+02 1.6270935244969180e+04 4.3829437529903953e+03 1.2398474523809433e+04 1.4605525896586762e+04 -4.3511578127678149e+01 -6.3587027574734893e+03 9.3860115775336453e+01 5.3569205067910152e+03 -2.8310088256374002e+02 -2.8203479540246190e+03 1.3170679033438544e+04 6.5163557513937121e+02 -6.7800857082473412e+03 -7.2492799837698476e+02 -4.1822030308539979e+00 -1.8583264804366383e+04 -2.1285925836331735e+03 1.0897753325706373e+04 5.6240026156418025e+02 -3.8339352858239145e+03 9.5438963162450018e+03 1.1747497749620379e+03 1.0468432486774582e+04 9.4476951734351132e+02 1.6534674989008345e+03 -6.7934746670513086e+03 -1.5199130622618830e+04 3.7171770297132389e+03 -8.0556387219158933e+02 4.4638577922616678e+03 -2.5881536006946990e+03 -5.5279720392729505e+03 -9.2925806558515906e+03 2.3986882238140970e+03 -6.3269586689138123e+02 1.6835856638744182e+04 8.6044636311887734e+03 -1.4138048995003825e+04 -1.8359166419243275e+02 -1.8267822340709822e+03 1.5286824079113296e+04 8.2336579420123599e+02 3.7570498705117780e+03 -6.5148004830206228e+03 -6.5269210630284724e+03 -6.0210431039915748e+03 -1.7861195977924353e+03 -4.2900466959435225e+03 5.7714615704957396e+02 4.4048080424018844e+03 1.7117767123510195e+04 -1.8606355554470197e+03 -9.6457553674756764e+03 -2.6496661999813236e+03 
      </Row>
      <Row Index="12">
