<?xml version="1.0"?>
<MethodSetup Method="MLP::MLP">
  <GeneralInfo>
    <Info name="TMVA Release" value="4.2.0 [262656]"/>
    <Info name="ROOT Release" value="5.34/38 [336422]"/>
    <Info name="Creator" value="han"/>
    <Info name="Date" value="Fri Apr 29 04:59:39 2022"/>
    <Info name="Host" value="Linux rz5950x.km.icrr.u-tokyo.ac.jp 4.18.0-305.3.1.el8_4.x86_64 #1 SMP Mon May 17 10:08:25 EDT 2021 x86_64 x86_64 x86_64 GNU/Linux"/>
    <Info name="Dir" value="/disk1/disk02/calib3/usr/han/mc/thermal_train"/>
    <Info name="Training events" value="9641931"/>
    <Info name="TrainingTime" value="3.98899288e+04"/>
    <Info name="AnalysisType" value="Classification"/>
  </GeneralInfo>
  <Options>
    <Option name="NCycles" modified="Yes">300</Option>
    <Option name="HiddenLayers" modified="Yes">N+1,N-1</Option>
    <Option name="NeuronType" modified="Yes">sigmoid</Option>
    <Option name="RandomSeed" modified="No">1</Option>
    <Option name="EstimatorType" modified="Yes">CE</Option>
    <Option name="NeuronInputType" modified="No">sum</Option>
    <Option name="V" modified="Yes">True</Option>
    <Option name="VerbosityLevel" modified="No">Verbose</Option>
    <Option name="VarTransform" modified="Yes">N</Option>
    <Option name="H" modified="Yes">True</Option>
    <Option name="CreateMVAPdfs" modified="No">False</Option>
    <Option name="IgnoreNegWeightsInTraining" modified="No">False</Option>
    <Option name="TrainingMethod" modified="No">BP</Option>
    <Option name="LearningRate" modified="No">2.000000e-02</Option>
    <Option name="DecayRate" modified="No">1.000000e-02</Option>
    <Option name="TestRate" modified="Yes">5</Option>
    <Option name="EpochMonitoring" modified="No">False</Option>
    <Option name="Sampling" modified="No">1.000000e+00</Option>
    <Option name="SamplingEpoch" modified="No">1.000000e+00</Option>
    <Option name="SamplingImportance" modified="No">1.000000e+00</Option>
    <Option name="SamplingTraining" modified="No">True</Option>
    <Option name="SamplingTesting" modified="No">False</Option>
    <Option name="ResetStep" modified="No">50</Option>
    <Option name="Tau" modified="No">3.000000e+00</Option>
    <Option name="BPMode" modified="No">sequential</Option>
    <Option name="BatchSize" modified="No">-1</Option>
    <Option name="ConvergenceImprove" modified="No">1.000000e-30</Option>
    <Option name="ConvergenceTests" modified="No">-1</Option>
    <Option name="UseRegulator" modified="Yes">True</Option>
    <Option name="UpdateLimit" modified="No">10000</Option>
    <Option name="CalculateErrors" modified="No">False</Option>
    <Option name="WeightRange" modified="No">1.000000e+00</Option>
  </Options>
  <Variables NVar="12">
    <Variable VarIndex="0" Expression="NHits" Label="NHits" Title="NHits" Unit="" Internal="NHits" Type="F" Min="5.00000000e+00" Max="1.63000000e+02"/>
    <Variable VarIndex="1" Expression="N200" Label="N200" Title="N200" Unit="" Internal="N200" Type="F" Min="7.00000000e+00" Max="9.68000000e+02"/>
    <Variable VarIndex="2" Expression="TRMS" Label="TRMS" Title="TRMS" Unit="" Internal="TRMS" Type="F" Min="3.32703501e-01" Max="7.23214197e+00"/>
    <Variable VarIndex="3" Expression="Beta1" Label="Beta1" Title="Beta1" Unit="" Internal="Beta1" Type="F" Min="-1.99142292e-01" Max="9.99812365e-01"/>
    <Variable VarIndex="4" Expression="Beta5" Label="Beta5" Title="Beta5" Unit="" Internal="Beta5" Type="F" Min="-1.86490551e-01" Max="9.97185647e-01"/>
    <Variable VarIndex="5" Expression="OpeningAngleMean" Label="OpeningAngleMean" Title="OpeningAngleMean" Unit="" Internal="OpeningAngleMean" Type="F" Min="1.25850713e+00" Max="8.99220734e+01"/>
    <Variable VarIndex="6" Expression="OpeningAngleSkew" Label="OpeningAngleSkew" Title="OpeningAngleSkew" Unit="" Internal="OpeningAngleSkew" Type="F" Min="-3.29565704e+02" Max="3.61686951e+02"/>
    <Variable VarIndex="7" Expression="OpeningAngleStdev" Label="OpeningAngleStdev" Title="OpeningAngleStdev" Unit="" Internal="OpeningAngleStdev" Type="F" Min="1.35172307e-01" Max="4.45247307e+01"/>
    <Variable VarIndex="8" Expression="MeanDirAngleMean" Label="MeanDirAngleMean" Title="MeanDirAngleMean" Unit="" Internal="MeanDirAngleMean" Type="F" Min="6.98130012e-01" Max="9.34165955e+01"/>
    <Variable VarIndex="9" Expression="MeanDirAngleRMS" Label="MeanDirAngleRMS" Title="MeanDirAngleRMS" Unit="" Internal="MeanDirAngleRMS" Type="F" Min="1.31463990e-01" Max="8.65177765e+01"/>
    <Variable VarIndex="10" Expression="DWall" Label="DWall" Title="DWall" Unit="" Internal="DWall" Type="F" Min="4.88281250e-04" Max="1.67782715e+03"/>
    <Variable VarIndex="11" Expression="DWallMeanDir" Label="DWallMeanDir" Title="DWallMeanDir" Unit="" Internal="DWallMeanDir" Type="F" Min="2.35629196e+01" Max="4.94376709e+03"/>
  </Variables>
  <Spectators NSpec="1">
    <Spectator SpecIndex="0" Expression="Label" Label="Label" Title="I" Unit="" Internal="Label" Type="F" Min="0.00000000e+00" Max="3.00000000e+00"/>
  </Spectators>
  <Classes NClass="2">
    <Class Name="Signal" Index="0"/>
    <Class Name="Background" Index="1"/>
  </Classes>
  <Transformations NTransformations="1">
    <Transform Name="Normalize">
      <Selection>
        <Input NInputs="12">
          <Input Type="Variable" Label="NHits" Expression="NHits"/>
          <Input Type="Variable" Label="N200" Expression="N200"/>
          <Input Type="Variable" Label="TRMS" Expression="TRMS"/>
          <Input Type="Variable" Label="Beta1" Expression="Beta1"/>
          <Input Type="Variable" Label="Beta5" Expression="Beta5"/>
          <Input Type="Variable" Label="OpeningAngleMean" Expression="OpeningAngleMean"/>
          <Input Type="Variable" Label="OpeningAngleSkew" Expression="OpeningAngleSkew"/>
          <Input Type="Variable" Label="OpeningAngleStdev" Expression="OpeningAngleStdev"/>
          <Input Type="Variable" Label="MeanDirAngleMean" Expression="MeanDirAngleMean"/>
          <Input Type="Variable" Label="MeanDirAngleRMS" Expression="MeanDirAngleRMS"/>
          <Input Type="Variable" Label="DWall" Expression="DWall"/>
          <Input Type="Variable" Label="DWallMeanDir" Expression="DWallMeanDir"/>
        </Input>
        <Output NOutputs="12">
          <Output Type="Variable" Label="NHits" Expression="NHits"/>
          <Output Type="Variable" Label="N200" Expression="N200"/>
          <Output Type="Variable" Label="TRMS" Expression="TRMS"/>
          <Output Type="Variable" Label="Beta1" Expression="Beta1"/>
          <Output Type="Variable" Label="Beta5" Expression="Beta5"/>
          <Output Type="Variable" Label="OpeningAngleMean" Expression="OpeningAngleMean"/>
          <Output Type="Variable" Label="OpeningAngleSkew" Expression="OpeningAngleSkew"/>
          <Output Type="Variable" Label="OpeningAngleStdev" Expression="OpeningAngleStdev"/>
          <Output Type="Variable" Label="MeanDirAngleMean" Expression="MeanDirAngleMean"/>
          <Output Type="Variable" Label="MeanDirAngleRMS" Expression="MeanDirAngleRMS"/>
          <Output Type="Variable" Label="DWall" Expression="DWall"/>
          <Output Type="Variable" Label="DWallMeanDir" Expression="DWallMeanDir"/>
        </Output>
      </Selection>
      <Class ClassIndex="0">
        <Ranges>
          <Range Index="0" Min="6.0000000000000000e+00" Max="4.2000000000000000e+01"/>
          <Range Index="1" Min="9.0000000000000000e+00" Max="6.8000000000000000e+01"/>
          <Range Index="2" Min="4.5019200444221497e-01" Max="6.7804813385009766e+00"/>
          <Range Index="3" Min="-1.6602841019630432e-01" Max="9.2131888866424561e-01"/>
          <Range Index="4" Min="-1.5579359233379364e-01" Max="5.4058229923248291e-01"/>
          <Range Index="5" Min="2.2305124282836914e+01" Max="8.3236129760742188e+01"/>
          <Range Index="6" Min="-2.7767999267578125e+02" Max="1.8083393859863281e+02"/>
          <Range Index="7" Min="3.1580772399902344e+00" Max="3.2628269195556641e+01"/>
          <Range Index="8" Min="1.2680865287780762e+01" Max="9.0907150268554688e+01"/>
          <Range Index="9" Min="2.2716827392578125e+00" Max="7.1500595092773438e+01"/>
          <Range Index="10" Min="4.8828125000000000e-04" Max="1.6767836914062500e+03"/>
          <Range Index="11" Min="3.0689203262329102e+01" Max="4.8595893554687500e+03"/>
        </Ranges>
      </Class>
      <Class ClassIndex="1">
        <Ranges>
          <Range Index="0" Min="5.0000000000000000e+00" Max="1.6300000000000000e+02"/>
          <Range Index="1" Min="7.0000000000000000e+00" Max="9.6800000000000000e+02"/>
          <Range Index="2" Min="3.3270350098609924e-01" Max="7.2321419715881348e+00"/>
          <Range Index="3" Min="-1.9914229214191437e-01" Max="9.9981236457824707e-01"/>
          <Range Index="4" Min="-1.8649055063724518e-01" Max="9.9718564748764038e-01"/>
          <Range Index="5" Min="1.2585071325302124e+00" Max="8.9922073364257812e+01"/>
          <Range Index="6" Min="-3.2956570434570312e+02" Max="3.6168695068359375e+02"/>
          <Range Index="7" Min="1.3517230749130249e-01" Max="4.4524730682373047e+01"/>
          <Range Index="8" Min="6.9813001155853271e-01" Max="9.3416595458984375e+01"/>
          <Range Index="9" Min="1.3146398961544037e-01" Max="8.6517776489257812e+01"/>
          <Range Index="10" Min="4.8828125000000000e-04" Max="1.6778271484375000e+03"/>
          <Range Index="11" Min="2.3562919616699219e+01" Max="4.9437670898437500e+03"/>
        </Ranges>
      </Class>
      <Class ClassIndex="2">
        <Ranges>
          <Range Index="0" Min="5.0000000000000000e+00" Max="1.6300000000000000e+02"/>
          <Range Index="1" Min="7.0000000000000000e+00" Max="9.6800000000000000e+02"/>
          <Range Index="2" Min="3.3270350098609924e-01" Max="7.2321419715881348e+00"/>
          <Range Index="3" Min="-1.9914229214191437e-01" Max="9.9981236457824707e-01"/>
          <Range Index="4" Min="-1.8649055063724518e-01" Max="9.9718564748764038e-01"/>
          <Range Index="5" Min="1.2585071325302124e+00" Max="8.9922073364257812e+01"/>
          <Range Index="6" Min="-3.2956570434570312e+02" Max="3.6168695068359375e+02"/>
          <Range Index="7" Min="1.3517230749130249e-01" Max="4.4524730682373047e+01"/>
          <Range Index="8" Min="6.9813001155853271e-01" Max="9.3416595458984375e+01"/>
          <Range Index="9" Min="1.3146398961544037e-01" Max="8.6517776489257812e+01"/>
          <Range Index="10" Min="4.8828125000000000e-04" Max="1.6778271484375000e+03"/>
          <Range Index="11" Min="2.3562919616699219e+01" Max="4.9437670898437500e+03"/>
        </Ranges>
      </Class>
    </Transform>
  </Transformations>
  <MVAPdfs/>
  <Weights>
    <Layout NLayers="4">
      <Layer Index="0" NNeurons="13">
        <Neuron NSynapses="13">
          7.7084077305965382e+00 5.4494459493743427e+01 1.3086992067975592e+01 1.4448151142050103e+01 -8.1675943699758200e+00 -1.6853197458741146e+01 -7.8478107091036371e+00 3.9204218960777162e+01 -3.6702471544405766e+00 -4.0926389526979392e+01 -8.1125723852812062e+00 4.8318072642211263e+00 -1.2819468417181229e+01 
        </Neuron>
        <Neuron NSynapses="13">
          -3.6968220022855096e+00 -2.8244404849142910e+00 -4.4843944851562028e+01 4.1891316443209994e-02 1.9938736143936875e+01 4.0991804736212103e+00 3.2737642251510675e+00 -1.7492130690087127e+01 8.4880789284413112e+00 1.8944666859603444e+01 2.0202872326922297e+01 2.3228690090444520e+01 2.6436862025839929e+01 
        </Neuron>
        <Neuron NSynapses="13">
          4.0038023617656116e-01 -4.5503320416035314e-01 -1.6525317024041808e+00 -1.4818883277346124e+00 1.1289492903326654e+00 3.8273656788117877e-01 8.1710465861267473e-03 -9.2396810786512862e-01 1.2830792254153463e-02 1.2014122830309637e+00 -2.4659746699371277e+00 1.7162464159521003e+00 2.6008580768017792e-01 
        </Neuron>
        <Neuron NSynapses="13">
          7.1354561603282498e+00 8.7086027027896107e-01 -3.1108705589987622e+00 3.4249475636021560e+00 4.7794369437565436e+00 5.9555638293382280e+00 -3.2833304686835780e+00 6.7125158125576556e-01 -2.2217361410723030e-02 -1.3255435894985581e+00 -3.3788818660720641e+00 2.2218027404321186e+00 -4.1052785879701474e+00 
        </Neuron>
        <Neuron NSynapses="13">
          -2.5398508302264478e-01 -1.9997081391091100e+00 -1.4049484792260163e+00 -8.3174568267060600e-01 3.6725933315446041e-01 2.8307797965425707e-01 7.1853852013025332e-01 -8.6522301440885130e-01 -7.9705155256523996e-01 -4.2069706102413642e+00 -3.1756836943354921e-01 -2.5377364744653534e+00 1.7736190373257623e+00 
        </Neuron>
        <Neuron NSynapses="13">
          7.1544150038384560e+00 -5.0816558312302695e-01 -3.7619054545574526e+00 3.8615207661492694e+00 -7.2470365733226529e+00 2.8690402067343652e+00 -7.7081321054329310e-01 -4.9499201415206722e+00 1.9962623107821786e+00 1.3352818863617950e+00 -1.4848710685768327e+00 1.6490797184307482e+00 -1.1857312456999342e+01 
        </Neuron>
        <Neuron NSynapses="13">
          1.1027364616428321e+00 9.5107750344497116e-02 1.4263983198614005e+00 -1.3850001741410882e+00 -2.6942921376381007e-01 -1.7493744266973396e-01 -8.2259193172177669e-02 1.4034498204554282e+00 -1.4854992215625346e-01 3.9698783379486189e+00 3.8165162453062154e+00 -1.2293727921252562e+00 -1.0639884161849759e+01 
        </Neuron>
        <Neuron NSynapses="13">
          2.7031736774487660e+00 3.0079526460811890e-01 1.5488116700643828e+00 8.3617419234746904e-01 4.1490771312774628e+00 7.7013311224191527e-01 4.6877074826325060e+00 -1.4478959971969403e+00 2.6747492607659401e-01 -2.6131846767584168e+00 3.2873328429610764e-02 -8.0598913342321976e-01 4.8808712046155325e+00 
        </Neuron>
        <Neuron NSynapses="13">
          -3.8924410046957891e-01 9.1294289493110181e-01 -1.9650885336525077e+00 3.2823412727101218e+00 4.4783951706273459e+00 1.2644211006867565e+00 3.3522034896419126e+00 3.0561614915382331e+00 4.3667766891149351e-01 -9.8463914040128175e-01 -4.2533621788721296e+00 3.9052072059260462e-01 -4.4677952604634069e-01 
        </Neuron>
        <Neuron NSynapses="13">
          3.1618746666071590e-01 5.9834432142973371e-01 -4.7669080210308207e-01 -1.2681104716232490e+00 2.5568291516981012e+00 -6.1559254086500280e-02 3.6167867213715832e-01 8.0598049459374099e-01 -1.2632570869513036e+00 1.8298297578999423e+00 -8.1089825219006470e-02 1.9410370705500116e-01 -9.7046176148529317e-01 
        </Neuron>
        <Neuron NSynapses="13">
          -1.2979628580071161e+00 -6.3569013196723667e-01 -4.7891020145023599e-01 3.0067895753491021e+00 -8.8268322954496181e-01 4.0163911765111955e+00 4.8571909232721899e-01 1.0717080472185792e+00 -2.2180960073095575e+00 3.8272580839752213e-01 1.3939639537652679e-01 -4.2210376855019591e+00 1.7096330195917005e-02 
        </Neuron>
        <Neuron NSynapses="13">
          8.9577577363588301e-01 -2.8012139793392623e+00 -6.7962234232150787e-01 8.3901951228500220e+00 2.0899030905937671e-02 -9.5085359776186285e-01 -7.9058334189733803e-01 -1.4478879584293554e+00 1.0142781076091465e+01 3.3428486554231061e+00 -5.1690365948157302e-01 -1.1523475819999600e+00 1.0053910350685196e+00 
        </Neuron>
        <Neuron NSynapses="13">
          7.7553930801808466e+00 4.8114308842338282e+01 -3.1022619994474265e+01 9.8980448875120146e+00 1.0632342217731221e+01 -7.0349341494424520e+00 -5.8924731025953143e+00 1.9862767577738335e+01 1.1321804442602335e+01 -2.5082790697105747e+01 1.1748747040846375e+01 2.1366472624836096e+01 1.3349199218772267e+01 
        </Neuron>
      </Layer>
      <Layer Index="1" NNeurons="14">
        <Neuron NSynapses="11">
          -1.5714066658985411e+00 -9.2606316543468936e-01 4.5226629951592603e+00 -6.4800562826443520e-01 1.8229269196473976e+00 -3.2293579172353937e+00 -1.1360018182909475e+00 2.8296919828187277e+00 5.9419838940415382e+00 5.6320173461690703e-01 -3.3333724710761854e+00 
        </Neuron>
        <Neuron NSynapses="11">
          -5.5596391198894555e+00 9.6308700622875262e-02 4.3963968194780758e+00 -7.1951501071232444e+00 -1.8270760998526498e+00 4.9598837772475474e-01 -3.8365727923349717e+00 1.2790122425408914e+00 1.1927852331170556e+00 -1.0371754594556965e+01 -6.6515580305789328e+00 
        </Neuron>
        <Neuron NSynapses="11">
          1.0960933790502699e+01 1.2164314532802638e-01 6.5012487995966539e-01 8.4285675287446171e-01 1.9430320453035619e+00 -3.4493140790259584e+00 1.0432257943579604e+01 -2.0209795971939508e+00 2.2192804450078052e+00 8.8743437620210908e-01 1.0124648835462733e+00 
        </Neuron>
        <Neuron NSynapses="11">
          -1.7345373381852962e+00 -2.4726676761738124e+00 2.3467130042796920e+00 2.7154767265570978e+00 8.3231307916898853e-03 -5.5464860350318268e-01 1.4778222293773025e-01 9.4764107118442586e-01 8.5890431341490686e-02 -2.1517203563032914e+00 -3.8359238255377721e+00 
        </Neuron>
        <Neuron NSynapses="11">
          -1.4496862454118411e+00 1.5539745574923389e+00 -6.6431807061127799e+00 -7.8059713533546016e-01 -5.4856694321835242e+00 1.0544656652089708e+01 -6.1064945017516310e+00 -8.8039778013696246e-01 -1.0638386884010298e+01 1.7928032678495964e-01 1.8945218339659624e+00 
        </Neuron>
        <Neuron NSynapses="11">
          2.0300784960754603e+00 -2.7884242154572019e+00 -1.6245077537038539e+00 3.2468130587240336e+00 -7.1756381215447296e-01 1.7609791884700159e+00 -1.1926129520229212e+00 7.0425917860515552e+00 1.0526431878784202e+00 -1.2312762786031590e+00 1.2864958456134261e+00 
        </Neuron>
        <Neuron NSynapses="11">
          1.5610279239728457e+00 2.6853942343563858e-01 -8.3654270641333206e-01 -4.9292238332097353e+00 2.7745358793756103e+00 -1.9919978077737610e+00 3.8309613209113680e-01 -2.6581644455900175e+00 1.5889732596423485e+00 1.0881841141390827e+00 1.6527887013221281e+00 
        </Neuron>
        <Neuron NSynapses="11">
          1.4910030120435434e+00 -2.7164202460531213e+00 3.7760901753438909e+00 -3.8578220575238391e+00 -2.5368820311476323e+00 -1.6138550331886452e+00 3.2439675460471493e+00 3.0687957778062271e+00 2.3333130848655825e+00 -4.7880809086597633e+00 -5.1275992873762153e+00 
        </Neuron>
        <Neuron NSynapses="11">
          1.9317122115499861e+00 -5.0891414220857891e+00 -4.0001150353664929e+00 -1.1626840256192019e+00 4.6466843872117353e-01 2.8052909298913868e+00 -2.4956280924972960e+00 -7.5798434354492805e-01 -2.1647224197891033e+00 -6.3966044461609572e-01 5.0184405662347222e+00 
        </Neuron>
        <Neuron NSynapses="11">
          2.1103543745446691e+00 -2.6070295205285872e+00 -4.7562222936643259e+00 -1.4607768746981196e+00 2.0757640899571004e+00 1.6602434394137406e+00 -5.0325238745277424e-02 -1.7105049450321097e+00 -8.9657281934080153e+00 1.5370327557001746e+00 2.7072943031811003e+00 
        </Neuron>
        <Neuron NSynapses="11">
          -6.7977825301468400e+00 4.9363965093771460e+00 -4.5035567379015712e-01 -1.2467217288780690e+00 4.6694002667851686e+00 -1.8520399425296263e+00 -5.2659544990390224e+00 4.7575550912820408e-01 1.5625886475881180e-02 1.6850339365978464e+00 7.5817486759661312e-01 
        </Neuron>
        <Neuron NSynapses="11">
          -2.5683136767443226e+00 7.0016032259690979e+00 5.2497088919748480e-01 2.0197387652110526e+00 -6.2753502945289608e-01 2.2582423826456259e+00 -1.5144493726459168e-01 -3.3005432040817684e-01 -3.0090604385142758e+00 -3.3787784578537033e-01 -6.1595689304265122e-01 
        </Neuron>
        <Neuron NSynapses="11">
          -6.0455261050760729e+00 4.3995709843491709e-01 -5.5046984563054471e+00 -1.5571499522794670e+00 -4.0479858390345358e+00 6.4702966711079002e+00 -1.0112525051187814e-01 -1.7010883729284392e+00 -1.0355060239774749e+01 1.6401247365420146e+00 2.5932239712690506e+00 
        </Neuron>
        <Neuron NSynapses="11">
          -4.7007252606181540e+00 -2.2686196098564233e+00 -2.1199725150483082e+00 -1.9085869593591689e+00 -5.1746093023526252e-01 3.0310670462390610e-01 5.5369437013392435e+00 -2.5287853694899476e-01 -8.4736302400288963e+00 -1.5529562416136625e-01 -1.6952473645006803e+00 
        </Neuron>
      </Layer>
      <Layer Index="2" NNeurons="12">
        <Neuron NSynapses="1">
          -2.2621522433041892e+00 
        </Neuron>
        <Neuron NSynapses="1">
          4.8826960884031534e+00 
        </Neuron>
        <Neuron NSynapses="1">
          2.0597958827531131e+00 
        </Neuron>
        <Neuron NSynapses="1">
          -4.6888986433556505e+00 
        </Neuron>
        <Neuron NSynapses="1">
          4.1644061432479269e+00 
        </Neuron>
        <Neuron NSynapses="1">
          -2.6980215737179658e+00 
        </Neuron>
        <Neuron NSynapses="1">
          2.2423112442225155e+00 
        </Neuron>
        <Neuron NSynapses="1">
          -5.6543925583713879e+00 
        </Neuron>
        <Neuron NSynapses="1">
          9.3479799143203124e+00 
        </Neuron>
        <Neuron NSynapses="1">
          -3.1531944393236886e+00 
        </Neuron>
        <Neuron NSynapses="1">
          -1.9948505354922761e+00 
        </Neuron>
        <Neuron NSynapses="1">
          -1.1808127930909587e+00 
        </Neuron>
      </Layer>
      <Layer Index="3" NNeurons="1">
        <Neuron NSynapses="0"/>
      </Layer>
    </Layout>
    <InverseHessian NElements="112225" NRows="335" NCols="335">
      <Row Index="0">
        7.3289880316018534e+00 -3.8189904536726632e-02 -1.5425265067216276e-01 -1.4751000329675246e-02 -1.0780295791376804e-01 -1.3863249509004608e-01 -1.3656041913197334e+00 2.5799328892548506e-01 3.6243849300241826e-01 -2.9881545242281382e-01 4.5553312538596569e-02 -5.6873419149775195e-01 -5.5037472797474951e-01 -4.4127872862529491e+00 1.4105456867686123e-01 1.1480256882578906e-01 -3.7942848472077251e-01 1.5598507817375684e-01 3.0872058595608443e-01 1.5302891630578250e+00 1.0601655787003150e-01 -5.1274128862916291e-01 4.0017514946084666e-02 -2.4610698695876032e-01 2.9625603457165905e-01 2.8347141841135259e-01 -9.0400755598508867e-02 5.1028487223909120e-03 2.2781974967416010e-03 3.0197210861108974e-03 4.0838445164439281e-03 -2.4963515568493912e-03 5.5202195028682621e-02 6.2748187307929276e-03 5.5963636627447480e-03 5.8926433490845793e-03 2.7862962527608656e-02 -8.1483195285032770e-03 2.7310505599806257e-03 2.5835594487051272e-01 -2.2661823555423288e-02 2.1340117232164280e-02 -4.4706788961233257e-02 3.1345080620072296e-02 -9.9713721747329565e-02 1.8561841906894061e-01 1.7479135873430038e-01 -6.5915509701633956e-03 -7.4295861182478495e-02 1.3405392903591726e-01 5.2516321274294842e-02 -4.0719744655658280e-03 -1.0935746762822336e-02 8.6711627553964776e-04 -1.0198151854602933e-03 4.9972347037058745e-03 5.7207691677774522e-03 -1.1879613018896062e-02 -5.5778379386993635e-03 1.4457148527021832e-02 -3.7183074248697823e-02 -4.7454860823952241e-02 -7.2303862494264258e-03 -1.9193980989181549e-02 1.5547554212563961e-02 3.6126959774270118e-01 -7.7231704580044067e-03 -1.6679503746926949e-03 6.3957015651880542e-02 3.6613012003402633e-02 -7.6554584413121296e-03 3.2743411185594817e-01 -5.3968598387369449e-02 9.5637709791424469e-03 1.0005409825070063e-01 6.1626894768176850e-03 1.2913150127624434e-02 6.7068109569902057e-02 1.4646608030024527e-01 -8.8406455677612020e-03 2.8075160741575147e-03 1.9062036467172250e-02 -4.3121201298672640e-02 2.8040442180805994e-02 1.2282000022026507e-02 -2.2825982984261917e-02 1.1798932140553421e-02 1.0706304574618211e-01 -3.5112129574003059e-02 -6.2897516353570757e-03 1.7149628976756554e-02 2.3355594212291575e-01 -1.0635461217649005e-02 -1.6677054845547906e-03 1.2884520133451677e-02 -6.4753590900251956e-03 2.1237868719871145e-02 1.7183079236960466e-01 2.1546638678083506e-02 1.5704471826097521e-02 -2.3459036543222830e-02 4.0514046598186595e-02 -7.8486920949521199e-03 -5.4619652643747019e-03 -1.6450137784031213e-01 -2.5705273873416423e-02 1.4946701974770018e-02 -8.9441583234020156e-02 4.0754920587305170e-02 -7.2750365777686163e-02 -1.1391984565782641e-01 2.0881423661580067e-01 -2.2184451551411605e-02 -1.3023094247225570e-01 1.3075103142175376e-01 1.0654465633286202e-01 -1.2772567018237570e-02 -2.2675290678833393e-02 -1.9748905393411412e-03 3.7447926312017994e-03 -1.9842989022730823e-02 -2.1512270538810874e-03 1.0823737211671652e-04 1.8703177539831046e-02 4.0339657603142856e-02 -1.8189894694032371e-02 2.1654575810708156e-02 2.6199723974718626e-02 -5.4949767620499426e-03 4.6927728742420603e-03 -6.5058156053085472e-02 -3.9072798583907348e-03 -3.0155392716846481e-03 6.1618569258122622e-03 5.8752759912112278e-03 -1.6677659017605262e-02 -7.6495271152530409e-02 2.7781794024806548e-02 -2.9414376572902589e-02 8.5970095466072344e-03 -3.4765661355780015e-03 -1.7813970504273618e-02 2.1190463013676438e-03 -2.1441012900557449e-01 4.4075748830800406e-03 6.6761867412348831e-03 2.5973363382170933e-02 1.3184022659958359e-02 1.6743827669696947e-02 1.0754860534409424e-01 -1.0102023150893320e-02 4.8485392988688147e-02 2.6261063242227892e-02 -1.9119276690592046e-03 -9.9118989108020819e-03 1.0587430865373238e-02 2.8292523735408084e+00 9.3415029528655324e-02 -2.6690199919164187e-02 -4.1197514006540437e-01 6.4927453872698590e-02 1.4365565076309417e-01 1.8343974371792338e-01 4.1293954751636752e-01 -1.6966079221776820e-01 -2.9071120182669602e-01 -1.7007559558837623e-01 -2.5417512764531336e-01 -2.4883233343803579e-01 8.7913015765407054e-03 4.6913640745834040e-02 -5.7750327498887144e-01 1.4399583219926391e+00 -3.9616764204410793e-02 2.9687260661482162e-01 -1.0994970844568352e-01 -2.1723426892481462e-01 6.6296832255938387e-01 1.3998300302545408e-01 3.3420590281646190e-01 9.8307779432449061e-02 7.7238395175620145e-02 1.8648705350078121e-02 1.7617336784481097e-01 -4.0258618757717607e-02 1.7010762359381371e-02 2.9379238483174253e-02 -3.3236801695966545e-02 3.4452834937299670e-03 3.5158932684284139e-01 -1.1207266604678567e-01 5.3569612964952107e-03 -1.2937183717805611e-02 5.4152207304837996e-02 9.3358772539324786e-03 -3.2701283485496377e-02 5.7034790605398900e-03 8.3317904618924465e-02 -6.5737338727565153e-02 2.3293100070463674e-02 -2.6856016169036823e-02 3.8143922829288468e-02 -9.2179309306174018e-03 -2.0612241179401236e-01 5.0255549035197966e-02 -8.9753893566180881e-02 -1.5432261546665493e-02 1.0832159809429864e-02 3.0739404879040366e-02 3.0611337892048840e-02 8.6077628652991844e-03 -1.7518593896437132e-02 -1.5442006261729913e-01 4.7207177076139667e-02 7.3080057359642348e-02 -1.1822777766490544e-01 -1.7678361254973574e-02 -6.2364712327296012e-02 -1.3355788799327417e-03 -9.2163755950563919e-03 1.5473334081567214e-01 1.9680742428140774e-02 1.7820064707873763e-02 7.7484241085058914e-02 2.3192649319815573e-02 -7.9010675703041544e-02 4.3801658057297563e-02 -1.0762658386596774e-01 -9.1949901343557905e-03 3.7023510654696778e-02 -1.4055823797285705e-02 -7.0967934297951563e-02 1.9699411559118390e-02 -1.2432973941407521e-03 3.2259758290809515e-02 3.0943082395351040e-02 -9.4713172166166357e-02 -3.1085688883186524e-02 5.7303827206973301e-01 -3.1631942110333766e-02 7.1358568219344054e-03 2.4862878658457099e-02 -9.0941566092931740e-03 -3.1736963650266778e-02 -2.9550638646007425e-03 3.4591414273225540e-02 4.5944579742885724e-02 7.4991469935676486e-02 -5.8241109885137476e-02 5.7999365403780728e-02 3.0055573560072133e-02 9.2249979487709688e-02 1.4009969037027892e-02 -2.4867279141730037e-01 -1.1122601776067434e-01 2.0684707483675185e-01 1.0842340108419604e-01 1.1675249075587857e-01 -8.9842874491333768e-03 -7.2059364622065636e-02 -6.2267623584767762e-01 -1.6630500165738138e-02 -6.0957044889160983e-02 7.9852546128409307e-02 -9.1011399340092725e-02 4.8141427468605918e-02 1.5644701810438466e-01 1.1081272259723107e-01 -3.1851676460527098e-02 3.5451978636056813e-02 1.0424212242662211e-01 7.7318874912692792e-02 -4.4448810443547954e-02 -2.0614983523710727e-02 -5.0068863739519930e-02 4.9365517628705155e-02 2.8726916684432041e-01 -1.2518658384455796e-02 1.6792762307308029e-02 -6.6952052473637946e-02 2.3894749435413809e-02 3.4794322626687357e-02 3.9953206236124084e-02 1.1268429160001259e-02 -3.6615278772341719e-03 -9.1093950025688541e-02 2.7175463569846237e-03 1.2731574232042705e-02 -4.5143900793383207e-02 -3.7684451600151651e-02 5.2563415349081488e-02 7.4559259870595973e-02 4.7442467737466520e-02 -1.1746745263562330e-01 -1.2497217965854124e-02 -1.6009532768602987e-02 1.4443331429403815e-02 1.3022314179199409e-02 8.8972359945312274e-02 -2.7243950152186648e-02 -2.7708833891724356e-02 6.9999133350980181e-02 6.3509329087266364e-02 9.6394489869671807e-02 3.1984610663788215e-02 -6.3139528530937683e-02 6.0692168634011168e-02 1.1390109759452094e-02 2.2462589577852743e-02 -1.0351708077963262e-01 -4.7893045112951754e-02 7.4337559011960763e-03 -1.8436235105566517e-01 -1.7072413303506551e-01 5.0835313699074947e-01 -7.4219786662156695e-01 1.1222914893271113e-01 -2.9390367012300217e-01 1.1746911639481272e-02 3.4733383566801257e-01 -7.3472981695590767e-01 -3.0685954799420367e-01 -4.1304178427048394e-01 -8.1860950596889942e-03 -4.4323822852335104e-02 -1.7271866520845114e-02 -2.1635947000505373e-01 1.3301432824590342e-02 -1.1532675007816684e-02 -1.9171115387534118e-02 3.0391815907472690e-02 5.1148455343501986e-02 -1.1582310517896204e-01 7.8556757058826865e-02 -2.0895871679235650e-02 
      </Row>
      <Row Index="1">
        -3.8189904547508535e-02 1.2627975316061889e+01 8.2225704507695396e-02 1.1075092291285900e+00 1.0019216099597264e-01 -2.3549198574988894e-01 2.6044883436692579e-01 2.8556927444841895e-01 1.4920994986238889e-01 2.8538889511368537e+00 4.8926901291531266e-02 -1.6796199329359562e-01 4.2740150311943459e-01 9.6586366665001533e-02 -2.3432188737936723e+00 -1.3813692273784186e+00 4.5171030283525893e-01 -4.3816925607590984e-03 -1.0400085431087561e-01 -9.1598165709258295e-01 1.1600725073330356e+00 -9.2412723164078070e-01 -2.6451438655033206e+00 4.9014077775180376e-01 1.2652617411071869e+00 -1.9983472213567152e-01 5.0592462301083524e-03 -7.4883809551539934e-02 -6.0369416810706457e-03 -3.4429271311144108e-02 2.0026750577482929e-03 -1.6826336925080954e-03 -1.2719326228911598e-02 -2.0989643085098909e-02 -9.2331445415564685e-04 -7.3588171436744773e-02 6.3353920674606504e-03 4.6902439934673551e-02 -5.1730241001314969e-03 -1.8037905692707967e-02 5.6776657099950500e-02 -8.3592682169540522e-02 -1.6382930300080326e-02 -5.6492994012109610e-02 7.4862971390991850e-02 1.0151924993311912e-02 -7.0415685380271056e-02 6.5823773735427110e-03 -1.3304845045321859e-01 6.6069787955816920e-03 8.9756778945692922e-02 -8.4479725733897504e-02 2.3941570122840726e-02 -3.7077299102821992e-01 6.0032148463058932e-02 -2.0308443745631746e-01 6.7174813230584159e-03 7.3596067001894694e-02 -4.2979786692152605e-02 -1.0574058653829341e-01 -1.9315071117125188e-02 1.4941584661401686e-01 -3.5886436025466976e-02 -4.0318204175103324e-02 3.0678947177441621e-03 -1.3631032407872157e-01 -2.8067007486770140e-02 -8.5020701270333510e-02 -4.9865391256430899e-02 -3.1373431563459675e-02 7.7614461396245241e-02 1.2306203509422113e-01 -2.7523204502135690e-02 -1.3525983461057162e-01 -2.0223839248379227e-02 -6.8350029758085240e-02 2.8393344432642648e-02 -3.0567161450745228e-02 -6.9105135712013113e-02 7.4245489625623787e-02 1.7567699273145873e-02 2.9217350713327137e-02 -5.4752146603836982e-04 5.7196200960861476e-03 9.7308078033317494e-03 9.8237629361186046e-02 -1.5134389469939433e-02 -1.7223316269070858e-02 2.3413126900222254e-02 1.6204241441623989e-02 -8.2817100630467929e-03 -5.8543095081334130e-02 -4.0297893464347784e-02 -2.3819878605652184e-02 -7.7822394945487483e-02 2.2430879450115682e-02 -2.9269089728196501e-02 5.4884885773407999e-02 -2.4584061876358740e-02 -7.7716037540677962e-03 3.8956055996613392e-02 -2.5484551922261751e-02 -8.6551622258574129e-02 -1.3241575345426623e-02 8.1798952560282787e-02 3.3610903211563146e-02 -2.6055841759777140e-02 7.0524028303555808e-02 -6.2702878918382207e-02 -1.4297995638420605e-02 -2.7357444214761911e-02 -7.2217809881302747e-02 8.3389148919867068e-02 -1.8220109195039635e-01 6.2849689702174139e-02 8.5651674364766867e-02 -8.8499929793106946e-02 1.3097930266447767e-02 6.1582137456485685e-02 -3.5848086276579462e-02 4.0993691438008795e-02 -1.3456006216456012e-02 -2.8182441621912448e-02 -1.1025225511575081e-02 3.0592249221332864e-02 3.2604359632231773e-02 -1.1653438705381332e-01 3.2064274436468101e-02 2.5077431741014046e-02 -1.9840657625726326e-02 -9.2200131746145702e-03 -7.3483361410580622e-02 2.8790266462014300e-02 4.6648313774132207e-02 -4.7558742844488822e-03 3.9061852995225674e-02 8.4677514374393512e-03 1.6697462588185247e-02 2.5966882510767304e-02 2.5892335417973693e-02 8.4687865899748596e-03 -6.9426200001407742e-02 6.7586653688072144e-03 -3.8038334812051128e-02 -4.8954683537933580e-01 4.2732493997283176e-02 1.2988358466701569e-01 -1.5070759348568413e-03 1.3636806795409342e-02 -9.6793545923257521e-03 -3.1466657072146478e-02 -5.8221823612269685e-02 -5.4359487808217574e-02 -2.9744764534087309e-03 -1.7812943590813035e-02 1.1744376752091031e-02 6.2106131412491994e-02 9.5652491002180344e+00 -1.2004231315757434e+00 1.3534630373115462e+00 9.8783236203665095e-02 -2.6110435754695516e-01 -6.7985077479705547e-01 1.3295354252769223e+00 -7.3708524746858073e-01 2.6525040787727694e-01 5.2773546043961417e-01 9.7952815670176252e-01 1.9315839299335663e-01 -2.1973610324673487e-02 2.8559391407301504e-01 2.6307246909911508e-01 4.3715417479834207e-02 -5.1098538841104435e-02 6.9011200375807529e-03 -1.3421401319702841e-01 1.3373508441222592e-01 1.5104002919640791e-01 -1.0706020765870150e-01 -2.9527566967756863e-01 1.1378463298978905e+00 -3.2055462048838912e-03 -6.0432579027671607e-01 -3.4122242521877916e-01 2.9113484211902729e-01 -8.0687052368527690e-02 7.6501401058738239e-01 -1.1677276347322335e-01 -1.3196800287703214e-01 -1.0016994796533716e+00 1.1872726879952027e+00 -7.7352714809854728e-02 3.4327719029532723e-02 -2.3662352589246391e-01 -6.1776949362555178e-02 4.5150886722893330e-02 -7.6505877954279461e-02 -1.0771681338707195e-01 1.7561434246829896e-01 -5.9279639413207172e-03 1.2395232881847285e-01 -5.6979287644107313e-02 1.3069507713081824e-02 2.2126585574092528e-01 -8.1948901073738631e-02 -1.8368843513353078e-01 -3.7292934789281515e-02 -2.4931980587933222e-02 -1.5013205154952164e-03 -1.0020589000217284e-02 2.6996631479734301e-02 7.8441705263493283e-02 -3.7731476875160985e-02 1.5385344464946310e-01 2.4606714980274114e-02 1.4436658919961287e-01 1.0689480230111323e-01 4.5702903184802746e-02 -6.7051040540684781e-02 8.8280092411509414e-02 -2.0115721398866904e-01 1.0512353649783093e-01 1.4339651874455572e-02 1.4243531200253989e-01 6.5806800639756136e-02 2.1606595323065969e-02 -8.9232128256479804e-02 -2.9808953809335653e-01 4.3882471153531111e-02 2.2287683166747882e-02 6.2932981238981361e-02 2.6448032727823922e-02 -2.0083002628997038e-02 -1.4942108615814798e-01 -9.2020903199871107e-02 3.5213488854237196e-02 -1.5450247444556919e-02 4.9436829503838819e-02 3.4841388870656409e-01 -2.5705002156700157e-02 4.2702179776277216e-03 -5.6048592424498965e-02 6.0198177843671714e-02 4.6776890268146111e-02 1.7759962808332107e-02 -1.7474683644542807e-01 -1.3779153126014781e-01 -2.1045893260465784e-02 -6.5035183525911089e-03 2.0770676313408917e-01 -9.8924019488780546e-02 5.7607807071569539e-02 -2.9606074802893828e-01 -1.3884331376909531e-01 4.7676582253842303e-02 2.0334692009217400e-01 5.4018796791143853e-02 2.4083978063889333e-01 -1.0755290399443795e-01 -9.4375018742767214e-03 8.7888128910594787e-01 5.7645534784151409e-02 1.0581829308886627e-01 1.5242195833453309e-01 1.8769116796790852e-01 -2.4170338905136295e-02 -6.4485027223892288e-01 2.4266698931821523e-01 2.5254285744891020e-01 -2.9051697145114358e-01 -2.5438009385621313e-01 8.4628586178422505e-02 2.2409782181723847e-01 2.4589607826142307e-02 1.0667371495454064e-01 -2.0733685311510763e-02 2.9614207818511601e-01 1.0693954446722115e-01 3.1551980919952793e-01 -7.3132330342348145e-02 5.4507465984494630e-03 2.5648107937483677e-01 6.4697667690829908e-02 3.7855218412998826e-02 1.5700836481782665e-02 -4.5327002253654596e-03 -8.2722828366226478e-02 -1.6096637637661028e-03 -1.2618263233678734e-01 -1.5893583964791996e-01 3.2026353448599276e-02 -2.4311842553995877e-02 8.2525486765478440e-02 -2.3694766754915306e-01 -7.7178926151648328e-02 2.5182061441495762e-02 -2.3710490058035823e-02 3.6951468996811995e-02 1.0736928099344317e-01 -2.0017703184169910e-01 -6.1601711470213080e-02 -2.2537514683685367e-03 3.2557047585706878e-02 2.2062136268190038e-01 1.9021067092800936e-02 -9.3876595410708544e-03 1.6300257284174235e-01 -2.2553931643914182e-02 -4.9709801149367072e-02 -1.5757716404615124e-02 -4.1722581963063582e-02 8.2475286317040444e-02 -8.1755696647623244e-01 -2.3920349082943204e-01 1.1934647583703928e-01 -9.4928897758897968e-01 -2.2135149284713118e-01 -8.4650037313144355e-02 -3.2848399334897493e-01 -2.8492376835012179e-01 -9.8652989578465577e-02 4.9908274541247599e-01 -4.4254355989880345e-01 6.5061398611673982e-02 -4.2523868582157287e-02 7.5751278030355584e-02 -8.1235907356508363e-01 -4.5589854425614793e-02 6.6635864449989479e-02 2.4695611122609928e-02 -8.5652692236255601e-02 1.5923853314374092e-01 6.3409667448334595e-02 -4.4389835924950313e-02 1.0462004091753453e-02 
      </Row>
      <Row Index="2">
        -1.5425265071234281e-01 8.2225704509894887e-02 2.1101685610575904e+00 2.5854254400022292e-01 -1.4947189710097647e-01 2.2869475315674070e-01 -3.9998608508254363e-01 -3.6010200839651785e-03 1.5026922743386413e-02 2.7321036615715777e-01 3.8658169082994176e-01 1.5928277627315302e-01 2.4232561176959644e-01 2.0512510630720016e-01 -2.2148328036788256e-01 -3.7553620094400966e+00 -7.9221843729555141e-01 4.1019099144965065e-01 1.4960334217596927e-01 8.7633507103663355e-01 3.6660285850800345e-01 1.6166783698880627e-01 -1.1499591603534150e-01 -1.1210829792591166e+00 5.1957784586465738e-01 -1.1060852410100380e-01 7.1020276931422453e-03 7.8076028849054851e-03 -1.2395545595833082e-02 4.9366803490587859e-03 2.3928938107641011e-02 7.6454733011576265e-03 2.7927714936602250e-03 -1.2992480481676564e-02 6.6790193450621182e-03 -1.9887457712481694e-05 -6.9965467610769196e-03 1.2652656301332436e-02 2.7393488087594613e-03 -2.3902059922642448e-02 -2.4571024084649312e-02 -9.2746514481184247e-02 -2.7486198457326250e-02 4.8868223420333312e-02 4.0444943042580200e-02 8.6759142891905158e-02 5.9243797024812389e-02 -1.5212930930394025e-03 5.8880841153650110e-03 -3.8095676657477567e-02 3.0777685789655757e-02 -1.6878379535137641e-02 7.9680901346750547e-03 1.4728583636037462e-02 -8.6234268668735903e-02 -1.3077461328616868e-02 1.3866135157706115e-02 7.6216839873810560e-04 9.2857672920589537e-03 -1.2291045375252982e-02 8.5622245869079183e-03 1.8829934625878227e-02 -1.0376173720014696e-02 9.2190770703503618e-03 2.8256986180190732e-03 -4.1257981552434431e-03 1.0489800541022018e-02 -1.6776077738533204e-01 -4.5909326624882549e-02 -4.0885079949362108e-02 3.6049036897737613e-02 -4.2487030686618882e-03 -5.1464546517547061e-02 -1.0317673553225291e-02 2.8946935202611671e-02 -5.1711686666886997e-02 3.2256044147031482e-02 -1.3158923347267537e-02 -5.8821134146979474e-03 7.5646921089366813e-03 -3.4555285168816709e-02 3.5479897124538473e-03 -2.9194610578571433e-02 -9.3741835843293396e-03 8.1773054118906494e-03 2.4861706696795660e-02 -7.2761927943541943e-03 -2.2149968391039151e-03 -1.2424654719910139e-02 -7.5028095299133745e-03 -1.2340732964808135e-02 1.7659466393667674e-02 -1.7683850812399905e-02 5.2995481241057317e-02 -4.9110338854279137e-03 2.3616379082043254e-02 -7.9059510040849629e-03 3.2187372799167169e-02 -4.1654728496742531e-02 2.6216839011617560e-03 -9.1051244241123208e-03 2.1718703104994233e-03 -2.5590430945985759e-02 1.6538900769955123e-04 -6.6958866559670366e-03 -2.3684049462648515e-02 3.2899018342028713e-05 2.9934322432909775e-03 3.7581774953858005e-02 -3.2411304396115503e-04 9.8679713842863531e-02 9.8752067283549821e-02 -4.1550603903968142e-03 -1.4968814143241343e-02 -5.6070124501357670e-03 1.2555302607549123e-02 -1.5936018278096997e-02 4.3937446831592247e-04 -9.2120844609094137e-03 -2.9545814463969255e-02 -1.1068181970374496e-03 2.3225707268320586e-02 -8.6885684991325728e-04 2.5552243102236336e-02 2.2096769867789967e-02 8.4773696953458020e-03 -7.1307545969038679e-03 -8.2073330707941646e-03 8.5974139942243018e-03 -3.2029917933828500e-03 -4.3278766832269208e-03 2.2729379925461028e-02 -1.7993114414475445e-02 4.5272804403073685e-04 -6.3139916808253741e-03 1.4327664455512687e-02 5.0912797444847765e-03 1.4323645670268113e-02 1.0852140206816773e-02 1.0317795239521550e-02 4.0351017386298310e-03 1.8908498045562220e-02 7.4974070858041721e-03 1.0092244306691485e-02 2.1924962533551137e-02 -4.3776375683274776e-02 5.6214940688545934e-03 5.5375913653648318e-03 -4.0611932614805710e-03 -6.0004675677839334e-04 -1.8490281918978890e-02 -5.4746376340632952e-02 -1.1584640486192180e-02 -8.1805347709386737e-03 -9.7793953697816738e-04 -5.5792143531353498e-03 5.6536519911843386e-02 -1.3752451437432800e-01 -1.6378333632286006e+00 -5.2734422109924739e-01 2.6042206502794346e-01 3.6767991317211335e-01 5.0913588220445816e-01 3.4623451252529902e-01 1.6289838556251413e-01 1.6093037452119108e-01 -7.1705029221859851e-01 6.6350608020035540e-01 1.1912103816276609e-01 -8.3520888673934701e-03 -1.5845449295826985e-02 4.8845681719178455e-02 1.1098287355468552e-01 -2.3037840718760361e-02 1.0489692596439615e-02 9.9421196065334907e-02 2.0005065488295892e-02 -7.9188666085549531e-03 -1.9962811194802255e-02 -5.2334236743034612e-02 -1.5195156059727460e-01 -6.4162586511723796e-02 7.7043555639246808e-03 -1.8372586658495138e-01 -7.2511312651674792e-03 -5.7500031768684123e-04 -9.4828781269343965e-02 3.7976612693064127e-02 -4.2672601611914440e-03 -1.3824655602672742e-01 -8.9723474019267557e-02 -3.7376386134881212e-01 -1.6254938765488058e-02 -1.2827739078466299e-01 -9.3301709685503775e-03 -1.1412136826169761e-01 1.6749779425284653e-01 -4.9731176409217248e-01 1.0061403565879105e-01 -4.4417010895646702e-02 -4.1145696940066034e-02 -6.0010306172549099e-02 -1.0158824420131607e-02 -3.7326034939748176e-02 -7.2979398180469529e-03 6.0303037639229951e-03 -6.9736766890741431e-03 6.9779091463928467e-04 7.2265998816221956e-03 2.3857569626324765e-03 -6.9763763574799686e-03 -1.4251236289194271e-02 -6.6420584441305372e-03 3.9663851058908045e-02 -2.5300887342166734e-04 -1.5649483429985289e-02 -7.4151103591794665e-02 5.8357293276572880e-03 -5.7580473842426164e-02 2.0465793449516927e-02 3.2426916198819988e-02 -1.7453417543134775e-01 -3.0200823369290031e-02 -9.9826826659067391e-03 -2.3396644427997049e-03 1.2281181177294376e-02 1.2760980222538090e-02 -1.3873628180632560e-02 1.4958667785538185e-02 -8.8838255996822602e-03 -3.0550680160694399e-02 2.3420562570281772e-02 -8.9601166312222383e-03 -3.0262631662930368e-02 -3.8142902921581033e-02 2.6948752020075972e-02 1.5226792222457375e-02 -2.5079552410294470e-02 6.9845090132133109e-02 1.0758872765969818e-02 3.9019197790341742e-03 2.5813014871409336e-02 3.5885930826948013e-02 1.8275806194367483e-03 -3.8396385649037551e-03 7.8905525645095453e-03 -1.1408217980456845e-01 -2.6294820192601768e-02 -8.2149242819064244e-02 -2.5281435747595005e-02 -3.3208768414543066e-02 6.4367769077175480e-02 -5.7595086829293513e-02 2.9023648953223180e-02 -3.1955865104998718e-02 4.4831626933949265e-02 1.0173654649384084e-01 1.5718523595954492e-02 -6.5901083725374149e-02 -7.3793465350836751e-02 -1.7393839953822149e-01 3.8786820080949358e-03 3.0060570454537416e-02 -1.7627897077013621e-01 1.8640451067115038e-02 -3.6715318482467889e-02 -2.0790363597766426e-01 1.1300594284524088e-01 2.2932909145553231e-02 -4.6602731777066919e-02 -3.7974768881267329e-02 4.5013444259783542e-03 4.3878811625853303e-02 -1.9895747329173152e-02 -4.1299859767977502e-02 1.2136876780038108e-02 4.2239300730783053e-02 5.9784731700174287e-03 1.0831036702436236e-02 3.2327407779140482e-01 6.1326738164216632e-02 5.7563938177387031e-02 1.8973138719326738e-02 1.4735761720015450e-01 -1.1892560489783388e-01 3.5713161842662638e-01 -6.1584174903005932e-02 7.0092669598470825e-02 1.2849078333976194e-02 1.6726115583882366e-02 -1.5677005110362630e-02 9.9332128739582970e-02 1.9217883160307859e-02 1.3822045971483624e-02 -2.5769572132730428e-03 2.1963937397120360e-03 -5.7740747836291240e-03 4.2579569439398345e-03 -5.9213219295490005e-03 -3.6763771434023221e-02 -4.0572696529984423e-02 2.1087449534717306e-02 1.7461708985899826e-02 -5.9692764015793778e-02 -9.0429750863491032e-03 -3.4148532358882489e-03 -2.9129410577963144e-02 -2.2986692457449234e-02 -1.4715881248329010e-02 1.0128965948049774e-02 -1.0797351518971883e-02 1.6397131766568533e-02 6.3799466094986990e-02 4.4424161626183789e-02 1.0162199542577448e-01 8.9026241017407415e-02 -4.7098469725525005e-03 -4.8111395932570300e-02 2.4827700795129160e-01 -7.1623577646336867e-02 4.7416462809411794e-02 2.7098212138677169e-01 -1.5248238914945811e-02 4.9095039233726786e-03 -3.2499571641069556e-02 1.9833617494414701e-03 1.5124034981358392e-02 -2.8786759870871204e-02 -2.0981525619400816e-02 1.0335985392798341e-02 -4.2692040076620461e-02 -9.3253282739082399e-02 -4.0727237041949249e-03 9.5907795599736168e-03 5.6117705101346047e-02 
      </Row>
      <Row Index="3">
        -1.4751000314959462e-02 1.1075092305518510e+00 2.5854254404412769e-01 2.4121257031009161e+01 -9.2236680478283484e-02 1.3868698734936136e-01 -2.8091977665314927e-01 -5.5867466546073219e-02 -2.0980313263872508e-01 8.9236443020220513e-01 -4.2706041198820544e-02 2.3648302828406909e-01 3.3954984828280788e-01 -1.4305811418468295e-01 1.8068751681820217e-01 2.1681459304897532e-01 -6.0912676109897488e+00 5.1093545657810324e-02 -1.2507893330300524e-01 6.7879587531443686e-01 4.3427504608886514e-01 7.8427073722975749e-02 -1.0164462615228487e-01 -4.4950863875469138e-01 -1.8081132189759430e-01 -5.0495765497384815e-01 2.6774238225932036e-02 -3.8201110506189268e-02 5.2583308001403224e-03 -3.9818389974374091e-01 -2.5316768824501790e-03 -1.0416391111349475e-02 2.4362546976104613e-02 -4.7720326349781055e-03 2.8663453563354899e-03 2.0902969325530946e-02 3.9034882108953090e-02 3.7498764159365761e-03 -1.2958487539286211e-02 6.7588445019071297e-02 9.2260784312281352e-03 -3.4790611943691596e-02 1.5576082743833930e-01 -2.5804110800471847e-02 -2.4725158526635482e-02 2.7847377206658641e-01 9.0879468191491924e-02 -1.1818690721818847e-02 -1.4151506536821246e-01 -5.3748895870309177e-03 6.0258150744262828e-02 -1.4582036988020936e-02 6.4496462041066779e-02 -1.0380774000506243e-02 4.4591521355578090e-03 -2.3591116804572851e-01 -2.3694464009078420e-03 1.3942873697869729e-04 -5.5651639546709937e-02 -3.5480023266089220e-02 -7.9564185765982759e-03 -1.1436400913816802e-01 -1.9535075958311839e-02 -2.6296756648302590e-02 -3.0453806639412290e-02 1.7299884428490542e-01 -2.2973444405492344e-02 3.6794077492562083e-04 6.1475342322791637e-01 2.6663413789244236e-02 5.4385067101066775e-03 1.5638962711915361e-01 -7.3738590299630521e-02 -5.3740741017243160e-02 -2.3398464162757864e-02 -1.4306626740566130e-02 2.3025908375934247e-02 3.2457208546714855e-02 4.7831814465058256e-02 -3.8570258757863345e-02 2.9466251763376076e-02 -2.8759540239131587e-01 2.2322899026432003e-02 1.2408475336039060e-02 -6.2715128862586650e-02 3.1356409768266313e-02 -9.0468815450046591e-03 1.1200793960612854e-01 -4.3862409791185775e-03 7.2328265788907525e-03 5.6804804112846663e-02 2.2625070362352145e-02 5.5174179496633391e-02 -2.4342066540542599e-02 -5.5337745876428347e-02 -1.4963541754664640e-02 -1.6027694224606273e-02 2.0631193370005102e-02 1.2623869101621457e-02 4.5021437162592881e-04 -5.0151759242887409e-02 -3.5573028644368060e-03 -1.0217920085710083e-02 -1.3232994237207543e-02 -1.0596833926079886e-01 3.5275021924509334e-02 -4.8651263194698924e-02 -1.4135411048633828e-01 -3.2980898351455554e-02 -2.7371231698828657e-02 1.7897175309823193e-01 1.1914417108903752e-01 6.0941400747033192e-02 -1.5577041955970880e-01 -9.7931957516136682e-03 5.5941131270161738e-02 -2.9051657096527815e-02 -1.4392300201977612e-02 -5.0692659696135230e-03 3.8678985293258594e-03 -3.3801927801518528e-01 9.5727570253270958e-04 4.6272434469020532e-03 4.0358304002855609e-02 6.2835271688251704e-02 -1.6775680689713968e-02 5.3676844770423421e-02 7.5012591833347603e-03 7.6730743942087787e-03 1.3443134517161316e-02 -3.1506788837732030e-02 6.9028219510496071e-03 3.6799942209428827e-03 3.5705087015250198e-01 2.2964305857444758e-03 3.6526204710950361e-02 2.0556884625696943e-03 2.5198392853940932e-02 -2.1806423118942812e-02 -7.9033208794385967e-03 -1.0242664092481243e-02 4.1800252566467216e-03 3.3151497917866934e-03 -4.0237912566919044e-03 1.4729880941970280e-02 -1.4984212004498620e-02 4.4373882785297336e-01 -7.5562111451532923e-04 1.7253050374561041e-03 3.0419501485867487e-02 -3.6613399079207402e-02 1.2732867512556711e-01 -1.7555992672643180e-02 -3.6643995975556773e-02 -1.6955096440708417e-02 -9.8289627872857679e-03 -9.2229587409180191e-02 1.2144097805140739e+00 4.5604460666522739e-01 1.6723722369847145e+01 -4.1595651737073303e-02 1.8677502472891128e-02 3.7830020345019910e-01 3.8192099649436440e-01 -3.5586084707622367e-02 6.8852337943880926e-01 -5.0415559733343007e-01 2.1009659147744664e-02 -1.8778870982775842e-01 7.8641711814524076e-02 1.2543078875498237e-01 -5.3298248069745813e-02 -8.1166264813884492e-01 -1.0906506572145525e-01 1.2022302428240428e-01 1.0955108535277591e-02 1.7012125916401444e-02 -1.7943958380693270e-01 -5.0879444842480505e-02 2.3793474637099798e-02 8.1827325726782307e-02 2.0945528080433151e-02 -1.1202822648298350e-01 -1.1975394866546887e+00 6.5750978958435735e-02 1.4557007699866009e-02 -1.6471558058240854e-02 -9.1709366881319587e-03 3.0539899069194298e-02 -2.4410794774926803e-01 -1.9357306925767204e-02 3.5197097570839553e-02 -8.1878736761969217e-02 7.8485414257211117e-02 1.1933692217562519e-01 -2.1194206930537640e-03 -5.5516880698110005e-02 8.7448533390470207e-02 5.0822366094085164e-02 3.8561357971547000e-02 8.8564332794156542e-03 -6.0455947457570325e-02 1.3255331679982948e-01 7.1127352777683228e-02 -1.1036486938160253e+00 -1.8185277101727887e-01 -1.2450683817346558e-01 -5.8695094255794354e-02 1.8533205052841750e-01 -9.8247501207207599e-02 -1.4484547431932676e-01 -5.9574181661003300e-01 8.9317249550565470e-01 1.5994123984323094e-03 4.8594904495945390e-02 2.6800394186657139e-02 8.7361987246077688e-02 -4.4514256799615737e-02 7.0720650638058602e-02 3.5951114348851676e-02 -2.6496194932986139e-01 9.8311509479582282e-02 -2.9825076396930855e-02 -1.3205174205770029e-01 -5.3934329092038324e-02 -5.1836532471939645e-02 3.1879876655593629e-02 1.6279307242415117e-01 -4.5963399366244717e-02 -9.7353545370062466e-03 2.2941518647715764e-02 1.8579007328258235e-02 -1.5999978650460142e-02 -1.3518922724357330e-01 7.5359557690179990e-04 -4.5209116336280997e-02 3.4980346324150806e-02 -2.4031029880104471e-02 -2.7928861711321940e-01 1.4576423215104883e-02 -7.1314266066403675e-02 1.2992118102225017e-03 7.6522514663264971e-02 -4.4680470992839297e-02 6.2028624957684464e-02 2.3757997916026730e-02 9.3627893210279957e-03 4.5816442433490270e-02 -4.0932564991589260e-02 -1.5270510610027905e+00 2.5004150471372496e-02 3.9025391372084356e-02 -7.8992572038112940e-02 1.3699745326217538e-02 -4.3837059118800564e-02 -1.8859126050512076e-01 4.6156179616327897e-02 2.9986150518740118e-01 6.8187875582126911e-02 -2.4094283034673314e-02 -1.4641520791970617e+00 7.8565721524308130e-02 -7.8351448516150946e-02 3.0557055631360353e-02 5.3956116393782949e-04 5.6137117512404411e-02 -5.3069443764032678e-02 6.5014603900039880e-02 -1.6873195227956478e-01 1.5825210394727285e-01 3.7021240798210447e-01 3.5954694867120779e-01 1.2768810609207371e-02 -3.1138145321494913e-02 -2.5310113407399762e-02 1.3381224836783723e-01 1.8320115698729361e-01 -8.3135118972538891e-02 -3.0075513578638291e-01 -1.2544664525095281e-01 1.1684139066796162e-01 -5.3586834828522112e-02 1.0548712520794562e-01 6.2944244469315791e-02 -7.5741600899897732e-02 -8.7988428745527494e-02 2.1940988836055664e-02 -5.5671966592538723e-02 1.3278160167807884e-01 1.2377245649113366e-01 -4.1166486389243973e-02 -1.6705000948781290e-01 -4.9176950793980378e-02 4.8709498122881736e-02 -1.7414714038491763e-02 1.2741149816365982e-03 3.7679048971206386e-02 6.8623824707414988e-02 1.4451600931972286e-03 -3.8923378184378410e-03 1.9314214300846527e-01 -1.0393026523693960e-01 3.5260712666578931e-02 -1.5600946148767725e-01 1.9704562755946664e-01 8.0674998726553260e-02 -1.6105609790153519e-02 3.2788740948303349e-02 8.2672897799932810e-02 -2.5748049819870333e-02 1.0562084883150821e-01 5.6580710667875761e-02 -3.1704060002695311e-01 -9.0782172482423817e-02 1.9516391194032492e-01 2.1178075898244346e+00 -1.6901611034474281e-02 4.5622508087010960e-02 -1.0838349179103401e-01 -1.0861885194045251e-01 1.4734965464792826e-01 1.6547567386195206e-01 -2.2814404090347135e-01 -1.2130427598592966e-02 4.4574376862962062e-02 4.2069144642279732e-02 1.7460648578883564e-01 3.5749497369462480e-02 2.1238733084082778e-02 -1.3961923969081913e-02 -8.7655819499523599e-02 4.2534994366413503e-02 2.5085934518079400e-01 -5.8949687010852458e-03 5.2546414297052540e-03 
      </Row>
      <Row Index="4">
        -1.0780295788426571e-01 1.0019216079224902e-01 -1.4947189709836434e-01 -9.2236680461728060e-02 1.2450403529305347e+00 -1.8328602414063969e-01 -1.0104147743183700e-01 -2.3742299313338516e-02 -3.6184038745293590e-01 1.4153482696807573e-01 3.7332983962715260e-01 -1.8044910433157443e-01 -1.9653117718442192e-02 1.6520170349210450e-01 -9.3051362118171402e-02 2.4520446987244127e-01 1.1153099426389712e-01 -2.0148849752178739e+00 -7.5853220022199852e-02 1.0223500101655258e-01 -2.7498391988360793e-02 3.8464604550974490e-01 -1.7774294476902289e-03 -7.3859516412599469e-01 3.5340347821387202e-01 -8.5000112751143497e-03 -5.9119605885201154e-03 -3.7201075139692446e-03 1.8210003351329787e-02 -4.4577815411010538e-03 -6.0364593682126544e-02 1.6590295093096992e-03 -1.7542804110849053e-03 1.0339463821565011e-02 -1.2317425710034854e-02 2.5461532684462043e-03 7.1017263604707080e-03 5.9484527817785307e-03 -6.2153030828156252e-03 -2.1179440256238045e-02 -9.9519653794685192e-03 4.0784912176682064e-02 -7.8409452128053170e-03 -1.8353546193743192e-01 1.9876051810546747e-04 -9.1672581294617306e-03 1.3201840220500513e-02 3.2425577205298525e-02 -1.9766521540251006e-02 1.3027982380320383e-02 -6.0357763578777757e-03 -7.1894768375281928e-03 -8.2597813674241786e-03 -8.8891765776160925e-03 1.5244693007621489e-02 -4.2716231351676327e-03 -3.3510439807486192e-02 -7.8892697055412131e-03 -5.0507594985052390e-03 4.6871807309080199e-03 -4.8926939389546363e-03 -3.1033306337242619e-03 5.9090057758147581e-04 -1.6290246650270446e-02 -2.3912610482743468e-03 2.2141790738677281e-02 -1.8367309120762062e-03 3.7569989025004087e-02 2.9389853741578809e-02 1.2615231484234762e-01 1.6412463306374043e-02 7.3347741959711513e-03 -2.7249892047162771e-02 3.0386133943677545e-02 1.8188714314018913e-03 -1.8941540599083199e-02 3.3243460732608074e-02 -1.0208304364206042e-02 2.1322528787838125e-03 -8.5978687396909108e-04 8.7685516466606481e-04 1.3282231655558141e-02 6.3473955192709278e-02 8.7259375932301556e-03 -3.1836410158648971e-02 -2.0784762896820116e-02 4.4795935954219546e-02 -7.7860256265153971e-05 1.0111294470367996e-02 4.7572291856336352e-03 -9.9469674201786012e-03 -1.3219318073451529e-02 -6.5297173802313785e-04 -1.2106390646182316e-02 -2.7565132937019780e-03 -1.1601328769393844e-01 2.5709397328006200e-03 -5.0138939499160873e-02 2.6843526727713271e-02 1.0208809796598300e-02 -1.6562077047683556e-02 2.2306889600521181e-02 -4.2776894870477505e-03 -5.4000056124410747e-03 -2.7168434645999783e-02 -1.4723561721365627e-02 2.3662344794698437e-02 -2.5470148660040381e-02 -1.5390092278611084e-01 -2.4479760403202239e-03 -3.2112655665897868e-02 1.8250916681564075e-02 1.1029953659867864e-02 -2.0191957177705222e-02 1.7291959384891364e-02 -3.1849526666613476e-02 1.8901704733392949e-03 -7.4950024599457540e-03 -3.3463673153681216e-03 8.5690250280903990e-03 -2.8877036672637219e-03 -7.7618375468504738e-02 -1.6905431265723143e-03 -1.4250559355433109e-02 5.6111352864367491e-03 1.2103170418701771e-02 -1.1715348547863876e-03 5.6560777698686539e-03 -1.0116790857330887e-02 -1.4959131776919434e-03 -4.3712740824168872e-03 -6.3995975281539563e-03 9.4107172164928574e-03 -1.8677039127168449e-04 4.3774609445916081e-02 4.6542046338647978e-03 -1.6806850018575202e-02 -5.8098890996038915e-03 6.0010173140795039e-04 1.3305000505192156e-03 1.5605306639781234e-04 -1.9949694931108774e-02 -1.3107133449901534e-03 1.2643441208606401e-02 -6.8388724597384220e-03 1.1730466828235879e-02 7.0794153237986740e-03 -3.3848918093144630e-02 1.7893145136649736e-03 1.7857427798380378e-02 3.0041474286818734e-03 1.0212676369270313e-02 3.9001929307320611e-03 -4.2384529608760178e-03 -7.0853708151481752e-03 1.5254735153485055e-03 3.7224448459047287e-02 -3.7852376122512765e-03 9.4798199320512699e-02 7.2680183228479786e-03 -7.5739573891755041e-01 -2.5092836897980519e-01 -1.1233020660801292e-02 -2.7159391083196385e-02 2.1183736117205323e-02 1.2632431178900599e-01 -3.5113529966579637e-01 1.2790396097373213e-01 -3.3060244028962793e-02 1.8698949579138840e-03 3.6287956300621205e-02 -4.4578114992680218e-02 1.6019926864868195e-02 3.7048528991089756e-02 -6.1996490491071643e-03 -2.8558925110729216e-02 5.1803982390745823e-03 4.7295109983520545e-02 -4.0161689117433619e-03 2.0073928468074057e-03 1.5619030478279866e-02 1.7581504144723648e-02 -2.9974949445219057e-02 2.1850013887909747e-02 -1.8968093991923160e-02 6.9507622050422047e-03 3.7451067628805235e-02 -7.3780164346679000e-03 5.0309155541211625e-03 2.8632730019051422e-03 2.2399916248573071e-02 1.3799203044448038e-01 -5.2365273714512425e-02 -3.1180905842676243e-03 1.6291551376351632e-02 4.6899270733390619e-02 -1.7820506860542207e-02 1.2866639657596776e-01 -3.7394037566938265e-02 5.9545944854004062e-03 -6.3130053240516709e-03 1.7990936371887933e-02 -2.2777486496668008e-03 -2.5313212166305998e-02 -2.0135153134635812e-02 3.3540346447838241e-03 2.3797131511695824e-03 2.1522000187145507e-03 -9.4994006743295140e-03 -4.0267018299066371e-03 8.5286464422642400e-03 1.5805952307218794e-02 -2.6840984050441330e-03 -1.1680289601491273e-01 -3.4415394313623948e-02 -1.0688556868036270e-02 6.7123976749894509e-02 -4.8688153624997982e-02 -2.1266834230870449e-01 -1.7809377424116196e-01 2.3630682135818937e-01 8.8422065203004918e-01 8.8458114814966862e-02 1.7604564512465481e-01 1.4520167534498359e-02 1.3377236419423816e-02 1.0498331511731657e-02 -3.6037764583732243e-03 3.0901503819854431e-02 -1.2024859275630573e-02 -2.1707215632886870e-03 -6.5623268785565125e-02 3.6681074357256399e-02 8.9108636303392719e-03 1.6217891005947283e-02 3.2279206697905793e-03 3.0444201266049298e-02 -1.9549444634594501e-02 2.4430750172527445e-02 4.5118420019861646e-02 -2.4797928156450405e-02 -2.3826850966022259e-02 -1.0023533721945551e-02 5.0880937683383198e-02 1.7352530716747000e-03 2.8599405212234724e-03 -9.0127258966476512e-03 6.5975488504658522e-03 4.0743063162780313e-03 3.5325245121871372e-02 4.9119959271028073e-02 5.6967151036906305e-03 -3.1301721363956245e-02 -2.0590520822224234e-02 1.0237537228250094e-02 -6.1137169091654286e-02 -5.2590564738734691e-02 -1.0296562301902557e-01 3.1533156815633942e-02 5.6489497231894337e-02 6.8677032130386906e-01 3.3615625528776269e-02 -5.7131820827006130e-02 -7.4839966014619008e-03 2.5045757693947582e-02 4.5376584670060241e-03 1.4621007728278135e-01 -2.4653769112780721e-02 -9.6367422239239525e-03 3.2072364711768678e-02 2.9656968372553653e-02 -1.3959001449142739e-02 1.3638031564533908e-02 -2.0053626603803460e-03 -3.9161527385690861e-03 -7.8864342579648208e-03 -7.3035347744100226e-02 4.0523699154061954e-03 -3.5613933673871202e-03 -4.1209222292996006e-02 3.6196959936018014e-02 -1.5570988679021791e-02 -2.0248919391505887e-02 7.2630351935962179e-02 -4.6168502083056395e-02 -3.2503027659889112e-02 -2.3899144006623851e-03 4.0996942738262487e-02 3.5951544249255764e-02 1.8869535111348680e-02 2.6888999769688504e-02 -2.0621841311930122e-02 -4.8814066440817303e-03 -1.5205669561117151e-02 9.7619445443473049e-03 -1.9451427629958988e-02 2.8509236339557126e-03 -1.9475372996369623e-02 -2.8325483388215555e-02 1.7216334116009941e-02 1.4384031201863490e-02 1.3028982485584595e-02 -1.6868893434001497e-02 9.7866060418138501e-02 -4.2611531354763144e-03 -3.0733194054420453e-02 3.1460464600125929e-02 2.1203629920318393e-02 -5.3381248572826889e-03 -1.6281879390499585e-01 -2.5958157231390448e-03 -3.3133142172540875e-02 3.0499923830213160e-02 -7.8090371815999093e-02 1.0535117335541078e-02 -6.9386738767942135e-01 -1.4278281398177525e-01 9.4397384175378185e-02 4.2824112693669036e-03 2.8125471921378598e-02 -1.0515926259230496e-01 -1.5757352835938898e-01 -1.6104492241177465e-02 7.9097451732736829e-04 5.2275860049313672e-03 2.6031874831511995e-02 1.5076546166913896e-02 -3.8944184022396605e-02 7.4873076428906837e-03 8.4554208988909720e-03 -9.9714117254377163e-03 -1.3156044247107324e-01 1.2436862597422202e-02 7.3513089938569143e-04 2.9770313574814702e-02 
      </Row>
      <Row Index="5">
        -1.3863249512601813e-01 -2.3549198614924599e-01 2.2869475308276538e-01 1.3868698719052963e-01 -1.8328602415926440e-01 5.8424645135306497e+00 3.2686904043516207e-02 -1.9440944874763100e-01 1.6929150887184805e-01 -1.9754814421720779e-03 3.2006085280628332e-01 3.1210382227641820e-01 -3.3198396253724743e-01 -3.5642081399028802e-02 -1.4319326337565741e-01 -1.9754420110872958e-02 -2.7325156208830720e-01 3.5009729515811439e-01 -3.0103526966334253e+00 -3.2202751175863331e-01 6.4757218068269384e-01 -3.6190387732631502e-01 2.6198944717531925e-01 5.1557421181054242e-01 4.0532903579553742e-01 5.1788861406691800e-01 1.7025524931209781e-03 2.9679025104101486e-02 3.3680671220700734e-03 1.8504496902583489e-02 1.7854230920166136e-02 -6.7180130719767001e-02 1.4375183336653843e-02 1.3038555840109073e-02 -7.8766218261890290e-03 -1.1468856281880544e-02 1.8280360552067984e-02 -1.7876749515406555e-02 2.1248326884887141e-02 1.3504792608195079e-02 3.6689280883674069e-02 -1.3736376742298224e-02 -8.4333615595409112e-02 4.8698224906056076e-02 -5.1465011048084619e-01 2.1377676914813848e-02 4.4033052185564331e-02 -1.6213384150439963e-02 1.7701831507936860e-02 1.7674891989377144e-02 7.4216161538412373e-03 -1.6577557151797279e-02 -5.5589033485230459e-03 -7.3930124950540299e-03 -2.2770367954958994e-02 2.2734026999178925e-02 1.3439774310788371e-02 -4.7010972174229781e-02 1.2344898595765132e-02 1.7320731416115703e-02 1.5345777547845902e-02 4.3414411076026782e-02 9.2471369338374548e-03 1.6833063547228053e-02 6.7135309047580971e-03 4.2119810925303369e-02 5.2057848987393143e-02 3.3436609414208722e-02 -3.2847651404292258e-02 -4.2079649911336614e-02 -2.5490049212900207e-01 1.3289712754955746e-02 -2.4899602500212947e-02 1.1996145381973092e-02 -3.0300317764631463e-02 4.7796370091030278e-02 -5.8632321639543947e-03 -4.8139163871783713e-02 3.1281187858272275e-02 -2.0422507286803216e-02 5.0732098676126991e-03 -1.2878290283190416e-02 -2.3052479941649551e-02 9.1184693471908131e-03 1.7218483074628588e-02 -2.9553427242814040e-02 1.5053237413515705e-02 -5.9219937343838160e-02 -2.2121687908250809e-02 1.0173660502128146e-02 -7.0175609909227110e-02 -2.7561140608194992e-03 -1.6074021839134998e-02 -5.4344987543340374e-03 -3.4078509841514240e-03 3.6951740492958116e-02 -7.4397242698492932e-02 2.0735984320510381e-02 -2.3235412942088939e-02 -7.0623235129028683e-03 2.6978757547106026e-02 -2.5441298327059433e-02 -1.7486411130358707e-02 2.3218282064581236e-02 -2.8338720040112689e-02 -2.8192585725044794e-03 -4.6175457417314041e-02 -6.6215517395042500e-02 4.9134711840120332e-02 -2.4921118133057907e-01 7.2311800953879124e-02 1.1044996711286985e-01 -1.6656525559293534e-02 4.9977295592773946e-02 -2.4406499292825935e-02 -5.5847673213077244e-03 -1.4245728994485675e-02 6.1989361169469091e-03 -3.5530382670167435e-03 -6.4631315577299599e-04 -1.7630111628944012e-03 2.0950544319651362e-02 -2.0145152395908084e-02 3.6550219666765249e-03 7.2088073082005738e-03 3.1983735480493186e-04 -1.7372176846174127e-02 5.1851742896686752e-03 1.4486953599972477e-02 -4.7309344666477205e-03 -2.6531877235523183e-03 1.8546480379031977e-02 -2.2346009065147016e-03 -1.3245175116562091e-02 -3.5909229090315101e-03 -1.6486851840366845e-01 5.0768470555054290e-03 -1.5117432991109937e-02 -1.2883818284094111e-03 -1.8397787807292908e-02 2.5097410159286015e-03 1.5961824757708763e-02 -1.0607620737988363e-02 2.6248728109303093e-02 1.0516211352764510e-02 -1.2385410785953899e-02 -3.9815118094332774e-02 8.9046007039297360e-03 -7.8538458781440668e-02 -3.3594574010595950e-02 1.1772242866253340e-02 4.5528131093195978e-03 -2.4781973803951973e-02 -8.7479079690365585e-03 -1.6435000708084395e-02 1.6539037703162056e-02 -1.6500847926533518e-01 -3.8107987644751184e-01 1.7884337494632946e-01 -1.1807888486735955e-01 1.7384246911232182e-01 2.4495305975235584e+00 -2.9475396086718214e-01 4.5884938641596418e-01 -1.6385310728475327e-01 2.8381328170789366e-01 8.0294363301188054e-01 7.0651347985710256e-01 1.7283476637665718e-01 7.3511352670957777e-02 8.3651230583213221e-02 -1.2045761827074686e-01 -8.7566118115860014e-02 -4.3614399321653757e-02 -1.8526400016277700e-02 5.5401102930451196e-02 -1.0735632589296329e-02 -1.4962159100289932e-01 1.0207995821528426e-03 1.8538191900341339e-04 -1.1515842605519037e-01 -3.3362740574984340e-02 2.3194929669612896e-02 -3.4602703720612060e-01 7.1688220935406943e-03 9.9913314237166373e-03 -8.4405624481978858e-02 -1.9697769022461015e-01 -5.4511330883872500e-02 1.6479176651261263e-01 -9.1197342900690870e-02 -4.7358758255509337e-02 1.5045283331097284e-01 6.3632382451106972e-02 -3.5709124866506681e-02 -3.6775145611818646e-03 -7.7035227082416641e-03 4.7806948529552473e-02 -1.6052852174176990e-01 1.9738368414661464e-02 9.7883895442953672e-03 -1.6752106618506346e-02 -8.0260764689233655e-03 -4.8232542223136488e-01 -7.1415787073327896e-03 7.2906657898523464e-02 -3.5706408729112002e-02 1.5086515187503924e-02 2.4673858883274266e-02 4.7595895571358321e-02 2.4697767658088056e-03 7.4512209702370005e-02 -4.8177009438065577e-02 -1.9012139920554005e-02 1.4817078974977374e-02 3.4547710335590909e-01 -4.1148455781284454e-02 6.2505454805384830e-02 1.4103259057898271e-01 -6.1423442781205734e-02 2.6598320138175513e-01 -1.4564171978358903e-01 -3.6700733515316615e-02 -1.8423623163525160e-01 1.2733784197935194e-01 -3.3726761872707406e-01 -1.8388916007005982e-01 -1.8534256205161828e-01 -1.4860427330804082e-01 1.2009891212579497e-01 1.9235063489376081e-02 3.0152688926475713e-01 1.0919351446418982e-01 -5.2512955701215877e-02 1.1926764123773594e-01 -3.6774328089453134e-02 -3.7574140132210332e-02 -3.6098167549699356e-02 -2.8380327644883629e-01 -2.9531601090891368e-03 -1.1751836327626053e-02 8.8093876427027436e-03 1.4978521633570788e-01 2.8661880472725422e-03 -1.3624284977125159e-03 4.3397868434316644e-02 8.8502926225400430e-02 4.5385642047719305e-02 -1.6845237246882339e-01 -7.2417148108457133e-02 -2.7271435732130610e-02 -1.4212174734254124e-01 3.8928653991450152e-02 1.1761997659202417e-01 -3.0616635205122488e-02 7.9781186411703148e-02 4.6316049700725670e-02 -1.2889017485577270e-01 -3.6404879597081483e-02 -3.4048957335463870e-02 1.2501810976466834e+00 3.5314304697812562e-02 -5.8208989730236596e-03 -2.9507332671439540e-02 4.2229726978564924e-01 -2.5232463169436947e-02 -1.8609202151789894e-01 2.9224470442292183e-01 6.4986857685394597e-02 -2.3021070039460251e-01 5.0360924980324046e-02 -1.5130359732377682e-02 -1.1382830710709058e-02 4.4159893847108889e-02 -8.4490171329497876e-02 3.7739824236156780e-02 -3.8615291141000013e-02 -9.2653321718077386e-02 -2.2642139709169298e-02 -5.8543915897523433e-02 -5.0148688028386276e-02 1.0512101258797202e-02 1.7473244760803697e-02 -7.1309023218641798e-02 4.1485295843569192e-02 -5.5469338686405634e-02 1.2513302590952327e-01 2.8109193558374684e-02 -1.1784261517742645e-01 -5.8615518878450512e-02 1.1221184078408830e-02 3.4638066090215247e-02 -8.1955151679863683e-02 1.1896353680298258e-01 -8.3094324518610402e-03 2.8565841290776384e-02 -1.6766320742335403e-02 1.1835635860684790e-01 3.6156732960933025e-03 2.4337483692289309e-02 6.7367650485783012e-02 2.5672790022015612e-02 -6.2185051007327408e-03 -3.3008905941718236e-03 3.6526941255371481e-04 5.7032022338103970e-02 -5.0773136273502883e-02 -2.8046184068046598e-02 3.5848395700545987e-02 -2.3508356788452750e-01 -1.2531741167171070e-01 -2.0500435045174181e-02 -4.9190885212752056e-03 1.8008539976508775e-01 2.7522267938195610e-01 -9.2681766756402761e-01 1.3738200167471210e-01 -7.1848657544862971e-02 1.6287339033345671e-02 -5.7288795487403621e-01 6.8778628856034363e-02 2.2792590502366261e-01 -3.1565476241147006e-01 5.7448460153271767e-03 -3.6913767313022594e-02 3.3398477977172769e-02 1.3575868698635774e-01 2.7360041666082469e-02 -9.2721587184308452e-03 -3.3379818670338512e-02 -4.7473690399498357e-02 9.1794357743351096e-02 -2.0254272389053851e-01 1.1911041355454510e-02 6.0779871477805197e-02 
      </Row>
      <Row Index="6">
        -1.3656041913178485e+00 2.6044883437604605e-01 -3.9998608512442307e-01 -2.8091977668657742e-01 -1.0104147743034597e-01 3.2686904046148268e-02 3.6762676366135190e+00 -1.7682752084234554e-01 5.5750416931361868e-01 1.6026435717075654e-02 5.4439473361040491e-01 -8.8333618898972510e-03 3.0641753459484961e-01 7.7870784081532129e-01 -2.2108487798450271e-01 4.0260424389815974e-01 4.5818545314862291e-01 9.9259379638784173e-02 -5.4223333571588428e-01 -4.4616820994067474e+00 5.0182332008799080e-01 -3.0024072369028376e-01 2.0882924926732507e-01 -6.6218331880783987e-01 1.6205246139798646e-01 -2.7341282828054791e-01 9.5925070733468565e-04 2.2897050551575282e-03 -1.2142837800655629e-02 -2.4666818506034211e-03 -3.0219667483019630e-04 1.0798953047195529e-02 2.4839732846648407e-04 -8.2507554631873828e-04 -2.9429516459710328e-03 -5.1924719365289062e-03 4.0582046156624044e-02 -1.4098901841752762e-02 -1.2026234804689544e-02 -5.1981194069520370e-02 3.3170135731279471e-02 -5.8041385206069607e-03 1.8109456413515801e-02 -7.0690150611877264e-02 8.4148100606349224e-02 -3.3024509935510893e-01 -1.0945640791214573e-02 1.5486816408754003e-02 2.7925257327355679e-02 5.2525585991629625e-02 -5.6933485673922868e-02 1.1281781329555013e-02 -1.1508547006497831e-02 -1.5861806749324803e-02 1.3989887511002969e-03 -6.5982597315695016e-03 -4.8108454797049765e-03 1.1264045643813336e-02 -3.1891013493981706e-02 6.9486987169870909e-03 -1.6422368980012148e-02 2.1429990596444792e-02 1.9326425883682136e-03 -4.2976358756339154e-03 -3.7024427126040246e-03 -1.2931945113834309e-01 1.2297600825242741e-02 -5.0103877638774212e-03 -3.0810583571128813e-02 1.0825708168331727e-02 1.7198935600968551e-02 -6.1782067860857215e-02 -6.0234562542942072e-04 -2.3546210908419612e-02 -1.4216465669301515e-02 -1.5540469474241272e-02 1.1840223915640186e-02 -5.6194200443194231e-02 -1.6005224307430649e-02 1.3724160934506513e-03 3.4332751861799432e-02 4.1470879868785171e-03 1.3787926062946931e-02 -1.9611713034236311e-02 -1.7940719830086688e-02 -5.8368096077879572e-03 -2.8765156472891129e-02 -2.0147505492142160e-02 -6.5877075050990469e-02 1.8094366174256915e-02 -2.0546477977034818e-02 -7.4313236481085385e-02 -6.6200257637295881e-03 8.7582705463048471e-03 -8.2742635057401585e-03 1.3052543823834421e-02 -4.7023627713563909e-03 -1.7283339213654214e-01 7.4503898909408159e-03 -3.3837803500779196e-02 1.5294654278049036e-02 8.0437223813214914e-03 9.4666686636948189e-03 -3.8700251325753821e-03 5.9312482454076117e-02 3.2084057484665009e-02 2.9926209233990010e-03 4.0540945019490571e-02 -7.6249869462510986e-02 5.4553149562603598e-02 -3.8293316869934219e-01 2.4081077202319057e-02 2.2103842280094099e-02 4.3620210917772240e-02 7.2847190788189922e-02 -8.0674141128137519e-02 2.4744961766202288e-02 1.0805223541865833e-03 1.2047590500804645e-02 4.2119642703870117e-03 1.1940574005113586e-02 -4.0272016219232556e-02 7.6031343907894122e-03 -3.8235235685788779e-02 1.7835666058290650e-02 4.5401538796742691e-03 3.4280343201707440e-03 -1.0760975411061455e-02 4.6706868199897781e-06 1.7880219671412553e-02 6.2854826001099671e-03 -5.5763710999619590e-03 3.4000895162134273e-03 -2.4259010591816399e-03 -5.3306768779277751e-03 2.9458561246317697e-02 1.0249369399231711e-02 4.0906412965107317e-03 -5.5378451725765759e-03 -5.1771195609014165e-04 -6.0265324508669994e-04 9.7118231409448232e-03 4.8699475887408784e-03 1.4870567308030130e-02 -1.4292868147630811e-02 1.3404997935359420e-03 -5.1709081975145343e-03 1.3790223177368131e-03 -9.9660617527619622e-03 -3.7824082454589542e-02 4.1195968799312976e-03 2.1991435573468499e-03 -3.9345899004968946e-03 5.4987273259682751e-03 -2.6218253004621862e-02 -2.4940932660354187e-03 -5.6020574662251132e-01 3.5096180016640915e-02 3.7973866673194911e-03 1.8506479250646707e-01 -1.6754954920257928e-02 -4.6068188760669726e-01 -9.7399291535751686e-01 3.2454843915879311e-01 2.2178370464377273e-01 2.4148061822068884e-01 -1.1867784951401175e-01 1.2796944013596268e-01 4.9719134423132472e-02 5.4148189697246191e-02 -7.6930338015070987e-02 4.1386711189555309e-01 -3.2485579545277865e-01 -1.4759619778133709e-01 -7.4679843922406786e-02 1.1007320915095564e-01 1.0188049276950850e-01 -2.1648137327272443e-02 -6.8165095598866410e-02 -1.8740280941625728e-01 5.7798057900114913e-02 -3.8790023047616362e-02 -2.4858746453718439e-02 1.2795717195304213e-01 3.4607742333813390e-02 -1.6875761813098911e-02 2.8697584141695431e-02 2.6174095910012518e-02 2.5821311785232920e-02 2.7606191237337541e-02 1.1984356899075876e-01 -3.4127324920723012e-03 -2.6409318088246425e-02 6.1757934690873040e-02 1.4839577506343182e-02 -6.5655041302309647e-02 5.4562102054823258e-02 7.9553867612600970e-02 1.1540203449285497e-01 -1.8931601626223815e-02 -6.0012978300107156e-02 -7.7114989428280489e-02 2.5605653230076353e-02 1.6980733034489859e-01 2.6315575883184544e-02 -2.9129752271400612e-02 1.5722191737229441e-02 1.4351276141085723e-02 -1.4438341369025109e-02 -5.1578243033933990e-03 2.5038352206652632e-02 -6.0051452886567096e-03 6.7035436762903355e-03 4.1221481703320961e-02 -3.8487143570243965e-02 1.2246008589736057e-01 4.6208308126198361e-02 -6.9476679051812040e-02 -6.4978562051665079e-02 9.8257198766574974e-02 -4.1589783102622846e-01 3.8907852118570507e-02 -5.0836156811637424e-02 -1.1334215375000323e-01 1.1693016842533321e-02 7.1468656615278681e-02 1.4339659155211744e-02 -8.0811075270778604e-02 2.9761991635639518e-02 -9.7976747507922124e-03 2.3379125972867083e-02 7.9285397434554872e-02 5.3476785664162016e-02 -3.8776525894586356e-02 -5.0042066164631374e-02 1.0976994397123456e-02 8.4558581794118515e-02 5.1983664225810300e-02 -4.8791176173591277e-01 1.3305119394392273e-03 -6.0262941002708514e-02 1.8828915781318650e-02 -9.9961728927105781e-02 1.3623827858564922e-02 4.6446298814483075e-02 3.4743285175860894e-02 4.6747428377694009e-02 4.7703069962489658e-02 9.3119459216132766e-02 2.4947481966286100e-02 -5.5743825594996993e-02 1.3555413621990434e-03 -9.9770671148171636e-03 -4.7330691088783849e-03 7.7311532935313981e-04 -4.7904050263627707e-02 -6.4953854673026945e-02 -2.5014792265784846e-02 1.1064483530330715e-01 1.5995731707746796e-01 -5.9799165448272718e-01 -3.8052298232440135e-02 2.2608057827592065e-02 4.3487096660682401e-02 -1.9212590408538643e-01 4.0588570567448301e-03 6.9065281268103629e-03 -3.3200092923108604e-01 -1.2117458840696704e-02 7.2363671872853641e-02 -1.1188941065351943e-01 -1.4848952395352888e-02 2.3497790092767090e-02 -3.3160047914603183e-03 -9.6712348159608691e-03 -2.1787762206770700e-02 -6.9843547660316863e-02 2.2770046602978544e-02 3.9032806232430217e-02 -1.6345333864894110e-01 -1.6664009815788638e-02 -8.7544921681205867e-02 -5.3683142957146712e-02 1.1044313584449622e-01 -4.9060099383445188e-02 -1.9014479057201866e-01 -4.6135689282458481e-02 2.1702743169214091e-02 8.1476351660721591e-02 6.6161844064567987e-02 9.8044892372275427e-03 -4.0056092968289825e-02 -3.2806693169480927e-03 4.9115299741063767e-03 2.1146804517961110e-02 2.8985915990426270e-03 -1.9105988827630704e-03 3.4704437069264793e-04 1.0084549504887574e-02 -6.6945844726517129e-03 1.9175473681236621e-03 3.1224792408373503e-02 -3.2054444102728452e-02 -6.0270269748094574e-02 7.0068920594710815e-02 1.0488677719945413e-01 -7.9283627697108283e-02 -1.8906970944884360e-02 -2.1055605944500289e-02 1.5917323148192664e-01 2.1886047528206429e-02 1.8010544250569929e-02 5.0349479369582006e-02 -1.8819865256213930e-02 -5.7028862079316256e-01 9.8281125177385387e-01 1.2219984407835957e-01 5.5376315395490219e-02 -1.0172316210118779e-01 3.6936777267216059e-02 -3.8691656535354557e-02 6.4808599135746797e-02 5.3531394940218835e-01 -1.4199702235919124e-02 6.7460236678522634e-02 -1.4786786178943689e-02 -1.2867687956745844e-01 9.1588732144024521e-03 -3.2952897692506145e-03 -1.2276829903046238e-04 1.0691492855568682e-03 -3.3600362339328393e-02 1.0652606349884880e-02 -2.2292736155276521e-02 1.1150454316525822e-02 
      </Row>
      <Row Index="7">
        2.5799328892920059e-01 2.8556927491090484e-01 -3.6010198558592693e-03 -5.5867466512268926e-02 -2.3742299365873243e-02 -1.9440944859516326e-01 -1.7682752078732000e-01 1.0662617699757709e+01 -3.2728222639873378e-02 -2.9825831388283225e-01 5.9147467552297384e-02 -1.4492618601140255e+00 -3.3309901753121762e-02 -4.2608766352767447e-02 -3.1189355269573682e-01 4.1392447582092651e-02 5.1735732703293669e-01 2.8775886288766350e-01 1.6475640437296973e-01 2.6239697194250988e-01 -4.9693079016801072e+00 5.0997100507058057e-01 4.0871342473670619e-01 5.4610674472161347e-01 6.2174889659628296e-01 -3.5815963242818238e-01 4.2021063200716469e-03 -3.8080402498599213e-03 -9.1097990343264740e-04 -3.7357612722998812e-03 2.7113570645638685e-02 1.2058257405425281e-03 2.5719298873726336e-02 -1.5139380134445818e-01 1.4878706272058229e-02 1.8959430035284476e-02 -8.8881548586387527e-03 1.4967271488656208e-02 -6.7265089107466716e-03 1.6677619095070040e-01 6.6667375246190708e-02 1.1545887768462104e-01 -3.7456752306698315e-02 4.0673527579220048e-02 1.0098038109346244e-02 -1.1607349931881006e-01 -1.1445535725086230e-01 9.4739801743391888e-02 -1.6096044223853645e-01 7.0293274939830230e-03 9.3077737675612230e-03 -2.8774888733566359e-02 1.4389723891670814e-02 -7.5693513079677366e-03 -1.2883233876486686e-02 -4.4449012530638279e-03 -3.2068634902054282e-03 -9.3204263392216991e-03 2.7205158295884234e-02 -1.7310372557904463e-01 -9.7180395078828932e-03 -3.7747377081657998e-02 6.7846281563954721e-03 4.2780048716014242e-02 -1.6034719619105395e-03 1.6492328488055763e-02 -2.2151910051744603e-01 -1.4508187495538868e-01 -2.7506502709119529e-03 1.3350548157047060e-02 -7.4435091674357856e-02 1.3034490372494345e-01 -6.2721827024162835e-01 3.1300214089427347e-02 2.3488180330600883e-01 7.3525780428869009e-02 2.1644326919917264e-01 1.1716400721732201e-01 1.2004412131825869e-02 -1.3728786172650338e-02 -6.9651222946160996e-03 5.5290785699727674e-02 -3.2215039699973663e-02 3.5929603597022547e-02 5.0627061714003330e-02 2.4799891686481818e-01 1.2465585253978229e-02 3.6293855588649601e-02 4.9779897114957880e-03 1.0159605354729470e-02 6.9592630808283665e-02 1.0803534978087005e-01 -4.6300115394476600e-02 -1.1720851796223709e-02 8.7485361731094446e-03 2.0886784865001774e-02 4.6167696572946115e-02 1.5188362826155050e-01 -3.4378072132567128e-01 -5.9527887188701167e-03 -4.6328646130107301e-02 1.4452466879633391e-02 7.7956717905786399e-02 -2.2652239730667760e-02 1.6775232903442713e-01 1.7197221796908119e-01 2.1949637144102810e-01 -3.4320683111627837e-02 4.6968694795843091e-03 7.5105101606318780e-02 -7.5952143588802978e-02 1.2662819565346492e-01 5.0036693400239418e-02 -3.2613253037428397e-01 -2.7307597860466330e-02 -7.8833980877957011e-02 -9.2168211382063409e-02 2.7557707647465231e-02 2.7753996202507632e-02 4.3816055874089842e-02 2.3512766988501362e-02 1.5250150417599594e-02 2.2780403664393451e-02 -5.8497767846272010e-03 5.0534811854981432e-02 3.6478932720584084e-02 -3.7499148836582397e-02 1.9488183060190900e-03 -2.4928068360502580e-02 -1.1990632002950696e-02 -1.3681411491730480e-02 3.6537146018163227e-02 2.6768557483685826e-02 -4.9170135843232821e-03 -6.8611150333712997e-03 3.1041616025781371e-02 9.6559920794309084e-04 1.7506996879819550e-01 5.2606438357025824e-03 -7.2209002977517466e-03 4.6749946246444065e-03 -1.5870002793614241e-02 -5.6824063394921246e-03 5.9383507569643196e-03 -1.9188131060798377e-03 -3.1584092746086354e-03 -2.3549342256651618e-02 5.8770280311668810e-03 4.0028967912208169e-03 7.2051131493746645e-03 -3.5067719319254725e-01 -6.5083081887935851e-02 5.7439247483221545e-02 -1.2821571781645742e-02 5.4977386369293918e-02 2.6972502670759811e-03 2.8611732694335790e-01 4.0701563723467914e-02 9.7147606294487265e-02 4.6064348998032989e-01 2.3652068842398402e-01 1.2146517969148007e-02 6.2085318442924864e-02 5.1751955503832630e+00 4.2119220530278761e-01 -3.5489067028719096e-02 5.9527985609883161e-01 -7.4033295433211066e-01 -3.9104913534029517e-01 9.6128048964145840e-03 8.8460318427652451e-02 9.5715456658687845e-02 4.7209571691521557e-01 -4.2289807118087164e-02 1.4558667534089598e-01 -1.5806290412176122e-01 -1.5351448064183021e-01 -2.2439441565477636e-01 -3.7817292295016958e-02 -1.4658534632251641e-02 -6.5091829757187386e-02 2.0305732897354245e-01 2.5885372710584709e-01 1.8435897207177879e-01 -6.6319479806476331e-02 -1.6170892635041234e-02 8.3787801920036764e-02 1.4956864970961337e-01 -1.0586840681282161e-01 3.9246299805813400e-02 -1.2843546530359448e-02 -1.8874668713227560e-01 -5.9274348021421341e-02 6.3812470071849536e-03 -7.5999271936963847e-02 5.6488225656370253e-02 -6.8249817787259248e-03 7.5360019593479155e-02 1.9483583186610587e-02 2.9034585349346151e-03 -9.8013072338374835e-02 -1.5539242964279720e-02 -1.5274520133925829e-02 -2.3056761270438297e-01 1.6004331273112765e-02 -2.2522157954797645e-02 6.7895841812025404e-03 -2.3803443311136874e-02 1.1684909742988466e-02 -8.4791199824206381e-03 1.5381865805757766e-02 7.6158777824676657e-02 3.8946181049935927e-04 2.7921482482914178e-02 -1.0722073968677304e-02 -1.3358348236896589e-01 -1.5039540539583102e-01 1.2032496242212426e-01 -6.2396918568982440e-02 -5.2328322807235518e-02 -4.0423716704792412e-01 2.8682120631846153e-01 1.1851603088844577e-01 1.1623562623413253e-01 -6.2260536341531503e-02 3.5354532316458576e-02 3.7734817675076637e-03 -1.3364777618918561e-01 -6.3785746496711204e-04 1.4983732640625469e-02 2.6333251142798136e-03 -9.3539388660001138e-02 -1.0044708612509279e-02 -6.4669863446205400e-02 -6.9328306402482665e-02 -6.4978968037545326e-02 -6.5584217450573912e-02 -4.6429921727924789e-02 3.1427685088211188e-01 -1.1949467042098194e-01 1.2308539842764921e-01 -9.4820634301086393e-02 2.0657337724329095e-02 -7.0382151149576772e-02 -7.7568873359392887e-02 -3.1937738806855853e-02 -2.9760312191210031e-02 6.7039660123359224e-01 -7.2081793697196450e-01 -7.2967484124954896e-01 4.0882037155375850e-01 3.7635276629355152e-01 -5.3316730227564602e-01 -5.5144322648711763e-01 -4.7503266845268305e-01 -6.5987727555793874e-01 4.2650429201749590e-01 -1.2116882314948607e-01 -7.8165854871939194e-02 -4.3036309369098635e-02 -2.9353752135268918e-02 4.2630671462141251e-02 8.6682169676710163e-02 -1.7434060792172495e-01 5.8413887305079348e-02 4.4728348926593997e-02 -4.3014425268476764e-02 -2.5256644441508858e-01 -8.0848529372802611e-02 -7.4941099640682962e-03 -1.4323379086196819e-01 2.9780864745166225e-02 -4.7834874184870528e-02 -8.3447877388078406e-03 -3.5835140293776546e-02 4.7181086490065610e-02 -1.8674742599000016e-01 -6.0375338527932199e-02 -5.1048690183475021e-04 1.8411662000156731e-01 -7.7056374863483268e-02 1.1936131945693318e-01 3.6142641482374616e-02 -2.6348912827064896e-01 5.9220670214972349e-02 2.8605588318376569e-02 -4.3909800511480163e-02 1.2872444495311438e-02 -1.9998354782838734e-02 -9.3225885414131127e-02 1.2373085196947964e-01 5.5642551495713732e-02 -5.0980851529802362e-02 -1.0733126018511703e-01 7.5301566301706729e-02 -6.8781553458160949e-04 -6.8458334941073423e-02 -6.8494215027390587e-02 7.8109811290785230e-02 4.9121423506966952e-03 -4.1389900399643464e-03 1.5679213795191127e-01 6.3306000443752897e-02 -1.4374497681109510e-01 -6.1117041193164273e-03 7.0217051595640720e-02 -2.2543110798871502e-02 -1.8015312388685867e-02 4.0872112039369579e-03 3.5000193133779067e-01 -5.2697573231568789e-02 -1.7493896981256918e-02 3.2086734716587539e-01 -4.3637203806343061e-01 -4.3688819963192821e-02 -4.2116335526652904e-01 -5.1104483382604593e-02 -3.6397378566938859e-01 4.5334772462724882e-01 1.9168861138392146e-01 2.9238365457496007e-01 8.6098937859027003e-02 2.0922946853439456e-01 -5.7867950986517744e-02 -2.9990286757742846e-03 -6.0612318000651297e-02 -2.3343415044061722e-01 6.6835673533514231e-02 -2.6063723475944933e-02 -2.7276791747353313e-02 -1.2196952317813509e-01 6.7509429606362481e-01 -8.4932762709522075e-02 -1.7336508535903059e-02 1.4256612089876891e-01 
      </Row>
      <Row Index="8">
        3.6243849302790376e-01 1.4920995003885967e-01 1.5026922722720949e-02 -2.0980313266666450e-01 -3.6184038746026337e-01 1.6929150886964228e-01 5.5750416930936941e-01 -3.2728222542267704e-02 5.1100354344863659e+00 -3.6781613906803062e-01 1.8991842664230929e-01 -6.5470462314334288e-02 -8.5737178234903760e-02 -4.4292963242618544e-01 3.4678913228806119e-02 1.4969112792803821e-01 1.7603328559411446e-01 3.7229673565205923e-01 -1.8406581484917825e-01 -4.3048776352900048e-01 2.6135915008338823e-01 -6.2513992984427622e+00 1.0949111505546452e-01 1.8078467475527819e-02 -1.4859428746823167e-03 1.1600531874456843e-01 9.0653681323139002e-03 -7.6649715027858377e-03 4.0325776501329083e-03 -1.8266760449395805e-02 -2.4465751849729322e-03 6.6972937530518405e-03 -1.7756491982790685e-02 1.3645639641879682e-03 5.4001439438082985e-03 9.4796414968965122e-03 -2.2983640138080241e-02 -1.8432320951547732e-03 1.9415299666792705e-03 -6.8609295263857839e-02 4.0778396714056253e-03 1.0915783631467019e-02 6.4996079027242526e-02 1.4104260254003700e-02 4.5236773467613386e-02 -6.3684760913055360e-02 2.8391870867902014e-02 -5.6221126968674776e-02 -1.1874176291144539e-02 -2.1888011086108314e-02 2.9507172060703610e-02 2.7906605700731592e-02 -8.3365546214317996e-03 3.0202783374648212e-03 1.1931849098658583e-02 -1.6668788148726868e-02 4.0777027543032474e-03 -1.0750892542799484e-02 -6.1078442381275293e-03 2.2316148305466847e-02 -7.2317743712046550e-02 -2.4891088331969829e-02 1.4862091226445426e-03 1.5797570568528124e-02 1.0526649032345788e-02 -2.3716365378255416e-02 2.1600860350060362e-02 3.5815910066114169e-02 3.3749690630945683e-02 2.2977386533042821e-02 1.6096688232986017e-02 1.1424507137612186e-02 4.4309295669670790e-02 -3.0214136303858374e-01 4.0247215715612128e-02 -6.7888361817948660e-03 8.0660116908828627e-02 3.2110800249338961e-02 -1.5297752667651113e-02 5.3354991620655811e-03 4.5374525187085093e-03 7.4141227423257655e-03 2.0665004928225421e-02 -6.9870194593163633e-03 8.8918642500245559e-03 -2.9646677474307444e-02 -5.4163640272919089e-02 2.3680873378018372e-02 3.5570509884796098e-02 5.5026814443546179e-03 -7.7171735369151542e-04 -2.9649791297100964e-02 1.6882289171347223e-03 -4.6776495906811488e-03 -8.5878954014972468e-03 -4.7882596792630586e-03 -1.3258567848959367e-02 2.8287831545608412e-02 1.3407922141026641e-02 -9.5953150275310581e-02 -1.1479497845894410e-02 8.5131595321399911e-04 3.3215592303469904e-02 -4.2371369820044802e-04 -4.2056393726645047e-02 -6.2708939067740929e-03 -5.4692147131857882e-03 7.5485541122920718e-02 1.5619679197661749e-02 9.3831205108327043e-03 -3.3870914982203695e-02 1.4254025000612350e-02 2.5377871908293326e-02 -3.5452679956034738e-02 -3.3089423003042337e-02 -1.9069029679550653e-02 3.9890043156972574e-03 -8.6931819570673675e-03 -3.5174117348467891e-03 -2.0483884628869063e-03 -3.4030376283360822e-03 7.1783689759305578e-03 -1.2340914798333882e-03 -1.0326400212945244e-02 -5.8736095998375946e-04 1.5001448654879408e-02 7.9129427121400198e-03 -3.4155552448586340e-03 -5.0807486199385202e-03 1.8392907259760210e-03 2.7168336611797655e-03 -1.3344256126024759e-03 2.6529812766205177e-03 3.6506977791772588e-02 -1.9253081819335409e-03 1.9166246029821091e-02 -1.5547359550747986e-05 -1.1201498176624455e-03 1.1575765876292091e-01 7.0704162914171460e-03 9.7742467498729280e-03 1.4900695304666745e-02 3.5721491470243950e-03 -4.4476197949755228e-03 -2.4813031723994600e-03 5.7896428833188497e-03 9.4891386249916707e-02 8.7186460717385839e-03 2.8450385577488690e-03 -9.6305488025386216e-03 -2.5663717817506634e-02 -4.8201936739499657e-01 9.8325265459871664e-03 -4.7709005807854594e-03 -7.8658652525490369e-03 -4.0317986491449354e-03 -1.1949739401168119e-01 1.8359287378553801e-01 1.5899562448119409e-01 -5.9304321679097695e-02 2.6785772101523095e-02 -1.3270790169550017e-02 7.5714809411844261e-02 2.1117107667023763e-01 -1.4283796217519398e+00 -2.7514803585243947e-01 2.0648885411005258e-01 -3.6733861333495377e-02 3.2559450301405002e-02 -2.5723429350664045e-02 -3.8923888311026722e-02 3.0677185445423166e-02 -3.9446546575501729e-02 -3.4287361735259925e-02 -8.2440103250930319e-03 3.1406442830427095e-02 -3.5426636017153235e-02 -3.8376749961654855e-02 2.1150129264655426e-03 -4.4154249900890230e-02 4.5937563310874875e-02 -1.5784470822324326e-01 1.0817879832017763e-02 1.0379212935507087e-01 1.0522896785103833e-02 -2.9768168564439867e-02 -5.0444923944373221e-02 -5.5585018265094099e-03 -1.6603301491533218e-02 1.1374939943964790e-01 4.8184373538810221e-02 1.4957219719504478e-02 2.4750747836898665e-01 7.6031159028322248e-02 -1.4746283683111511e-02 -5.5591003004841516e-02 -4.6314384749545641e-02 2.0617625112114513e-01 3.0580341460764292e-02 6.0639948009334706e-02 -2.6538368223466946e-02 -5.1047163738231670e-02 2.9001315834226826e-02 -1.1469577370203379e-01 1.9060008636881599e-02 -2.8405915374504948e-02 5.9428135602648258e-03 9.5967802261953672e-03 7.9370089112282272e-04 -1.7407295543993284e-02 -1.6871237276364144e-02 1.4011625812377804e-02 1.6317776091250957e-02 3.3912499864881790e-02 2.7160377772762312e-02 -6.1474598741502517e-02 -7.7210973220365187e-03 2.3210408677701341e-02 -7.6339490973572122e-02 -8.4497758987560734e-02 -1.8025555983330843e-01 2.6353414955658461e-02 -1.3144628960920152e-04 -1.2358448292320690e-02 -9.1191317543152794e-03 -2.5319280324969584e-01 -2.3881129955227037e-04 -6.7024067088184841e-03 1.6837881637831946e-02 -9.0106753815680785e-03 3.6922931897781786e-03 1.1530464697895426e-02 -2.6937892322009133e-03 -6.8233074271305538e-03 -3.3100703045473766e-02 3.3212871136180100e-03 -1.6405971785657569e-01 1.1293346206154131e-02 -7.0525736931674132e-02 -3.9949983039782450e-02 1.5680143421223924e-02 1.9197072639869805e-02 3.1680796497275510e-02 -4.1402455813836267e-02 -3.6520169726096813e-03 -7.8710517691877001e-03 7.5846128099688992e-02 2.8924545883479369e-01 1.6755811452129107e-01 -1.0213769188594921e-01 -1.0864104518522953e-01 -1.0305596224919833e-02 1.1720847015767120e-01 -3.2644543453783981e-02 4.2252833162675738e-02 -1.8464199783283841e-01 -1.7551060973733806e-01 8.1021277425585148e-01 -2.7400447312371595e-01 2.6223595488320117e-01 -2.7234388524924924e+00 -5.3508213273610195e-01 3.7031800638769902e-02 6.6051000192125509e-01 2.0676688539917609e-02 -2.1988266245726645e-01 -1.0270891067920762e-01 -9.1350902861534578e-01 -4.1960004228848970e-02 1.3159063854361319e-01 -8.2987929465735966e-02 3.0076577127150089e-03 -4.5699201963230185e-03 -1.6118287288973670e-02 -1.8228496967887045e-02 9.5380102579250559e-03 1.5019119344914383e-01 7.9335064100676256e-03 1.8691456078866714e-02 3.3036668665233443e-02 -1.4925247364157745e-01 -6.0655109987769740e-03 2.2946049031359841e-02 -5.9069437420580184e-02 6.6579142492750487e-02 -2.2081414365676646e-02 4.8269825846378178e-03 -6.6151808358522413e-02 -2.9497426030244758e-03 1.1038584123342479e-02 5.1041091925334015e-03 2.7196243473682635e-01 4.7414889313354282e-02 -4.3201016462952047e-03 5.4883976043145176e-03 2.7265915139380162e-02 2.0096692993208924e-02 8.7403312845602266e-03 6.4211853490838466e-02 -4.2753777942423493e-03 -3.9750686469940538e-02 -4.2062910210194371e-04 3.5189411077805266e-02 -7.2672210731366427e-02 2.5902658967024227e-02 3.4241166040955513e-02 2.8154442478050878e-02 -1.6608816215539737e-02 1.5332726621365311e-02 6.5473862077473743e-02 4.1851026494006960e-03 2.5501547627213461e-02 -7.9111635929530322e-01 2.8418974706019468e-01 -3.8614895584665609e-01 2.7552593446357858e+00 6.0684573539223408e-01 -3.6233263551280412e-02 -7.3748459737309691e-01 3.2887279737467412e-03 2.2500641825301138e-01 1.1307453582624249e-01 1.0233917178218748e+00 -1.0217324030045652e-02 -2.1717281306073513e-01 -2.9171371093866052e-02 -1.0517118704549411e-02 2.8168443754532257e-02 9.3310394240233904e-03 -4.1728109961849724e-02 -4.9143325679264882e-02 1.8472092344216962e-01 -1.5850389044864618e-02 -1.6329426893084142e-03 6.6246307396561233e-02 
      </Row>
      <Row Index="9">
