<?xml version="1.0"?>
<MethodSetup Method="MLP::MLP">
  <GeneralInfo>
    <Info name="TMVA Release" value="4.2.0 [262656]"/>
    <Info name="ROOT Release" value="5.34/38 [336422]"/>
    <Info name="Creator" value="han"/>
    <Info name="Date" value="Fri Apr 29 08:50:17 2022"/>
    <Info name="Host" value="Linux rz5950x.km.icrr.u-tokyo.ac.jp 4.18.0-305.3.1.el8_4.x86_64 #1 SMP Mon May 17 10:08:25 EDT 2021 x86_64 x86_64 x86_64 GNU/Linux"/>
    <Info name="Dir" value="/disk1/disk02/calib3/usr/han/mc/thermal_train"/>
    <Info name="Training events" value="9684078"/>
    <Info name="TrainingTime" value="4.01190581e+04"/>
    <Info name="AnalysisType" value="Classification"/>
  </GeneralInfo>
  <Options>
    <Option name="NCycles" modified="Yes">300</Option>
    <Option name="HiddenLayers" modified="Yes">N+1,N-1</Option>
    <Option name="NeuronType" modified="Yes">sigmoid</Option>
    <Option name="RandomSeed" modified="No">1</Option>
    <Option name="EstimatorType" modified="Yes">CE</Option>
    <Option name="NeuronInputType" modified="No">sum</Option>
    <Option name="V" modified="Yes">True</Option>
    <Option name="VerbosityLevel" modified="No">Verbose</Option>
    <Option name="VarTransform" modified="Yes">N</Option>
    <Option name="H" modified="Yes">True</Option>
    <Option name="CreateMVAPdfs" modified="No">False</Option>
    <Option name="IgnoreNegWeightsInTraining" modified="No">False</Option>
    <Option name="TrainingMethod" modified="No">BP</Option>
    <Option name="LearningRate" modified="No">2.000000e-02</Option>
    <Option name="DecayRate" modified="No">1.000000e-02</Option>
    <Option name="TestRate" modified="Yes">5</Option>
    <Option name="EpochMonitoring" modified="No">False</Option>
    <Option name="Sampling" modified="No">1.000000e+00</Option>
    <Option name="SamplingEpoch" modified="No">1.000000e+00</Option>
    <Option name="SamplingImportance" modified="No">1.000000e+00</Option>
    <Option name="SamplingTraining" modified="No">True</Option>
    <Option name="SamplingTesting" modified="No">False</Option>
    <Option name="ResetStep" modified="No">50</Option>
    <Option name="Tau" modified="No">3.000000e+00</Option>
    <Option name="BPMode" modified="No">sequential</Option>
    <Option name="BatchSize" modified="No">-1</Option>
    <Option name="ConvergenceImprove" modified="No">1.000000e-30</Option>
    <Option name="ConvergenceTests" modified="No">-1</Option>
    <Option name="UseRegulator" modified="Yes">True</Option>
    <Option name="UpdateLimit" modified="No">10000</Option>
    <Option name="CalculateErrors" modified="No">False</Option>
    <Option name="WeightRange" modified="No">1.000000e+00</Option>
  </Options>
  <Variables NVar="12">
    <Variable VarIndex="0" Expression="NHits" Label="NHits" Title="NHits" Unit="" Internal="NHits" Type="F" Min="4.00000000e+00" Max="6.19000000e+02"/>
    <Variable VarIndex="1" Expression="N200" Label="N200" Title="N200" Unit="" Internal="N200" Type="F" Min="7.00000000e+00" Max="1.72100000e+03"/>
    <Variable VarIndex="2" Expression="TRMS" Label="TRMS" Title="TRMS" Unit="" Internal="TRMS" Type="F" Min="1.31619960e-01" Max="7.07395029e+00"/>
    <Variable VarIndex="3" Expression="Beta1" Label="Beta1" Title="Beta1" Unit="" Internal="Beta1" Type="F" Min="-3.05229545e-01" Max="9.99846637e-01"/>
    <Variable VarIndex="4" Expression="Beta5" Label="Beta5" Title="Beta5" Unit="" Internal="Beta5" Type="F" Min="-2.30799347e-01" Max="9.97701824e-01"/>
    <Variable VarIndex="5" Expression="OpeningAngleMean" Label="OpeningAngleMean" Title="OpeningAngleMean" Unit="" Internal="OpeningAngleMean" Type="F" Min="1.00614476e+00" Max="8.91572342e+01"/>
    <Variable VarIndex="6" Expression="OpeningAngleSkew" Label="OpeningAngleSkew" Title="OpeningAngleSkew" Unit="" Internal="OpeningAngleSkew" Type="F" Min="-3.28751740e+02" Max="3.54241364e+02"/>
    <Variable VarIndex="7" Expression="OpeningAngleStdev" Label="OpeningAngleStdev" Title="OpeningAngleStdev" Unit="" Internal="OpeningAngleStdev" Type="F" Min="8.39482695e-02" Max="4.57636070e+01"/>
    <Variable VarIndex="8" Expression="MeanDirAngleMean" Label="MeanDirAngleMean" Title="MeanDirAngleMean" Unit="" Internal="MeanDirAngleMean" Type="F" Min="6.02783740e-01" Max="9.38956985e+01"/>
    <Variable VarIndex="9" Expression="MeanDirAngleRMS" Label="MeanDirAngleRMS" Title="MeanDirAngleRMS" Unit="" Internal="MeanDirAngleRMS" Type="F" Min="1.30889729e-01" Max="8.74943619e+01"/>
    <Variable VarIndex="10" Expression="DWall" Label="DWall" Title="DWall" Unit="" Internal="DWall" Type="F" Min="3.28723145e+00" Max="1.69000000e+03"/>
    <Variable VarIndex="11" Expression="DWallMeanDir" Label="DWallMeanDir" Title="DWallMeanDir" Unit="" Internal="DWallMeanDir" Type="F" Min="1.14885378e+01" Max="4.94076807e+03"/>
  </Variables>
  <Spectators NSpec="1">
    <Spectator SpecIndex="0" Expression="Label" Label="Label" Title="I" Unit="" Internal="Label" Type="F" Min="0.00000000e+00" Max="3.00000000e+00"/>
  </Spectators>
  <Classes NClass="2">
    <Class Name="Signal" Index="0"/>
    <Class Name="Background" Index="1"/>
  </Classes>
  <Transformations NTransformations="1">
    <Transform Name="Normalize">
      <Selection>
        <Input NInputs="12">
          <Input Type="Variable" Label="NHits" Expression="NHits"/>
          <Input Type="Variable" Label="N200" Expression="N200"/>
          <Input Type="Variable" Label="TRMS" Expression="TRMS"/>
          <Input Type="Variable" Label="Beta1" Expression="Beta1"/>
          <Input Type="Variable" Label="Beta5" Expression="Beta5"/>
          <Input Type="Variable" Label="OpeningAngleMean" Expression="OpeningAngleMean"/>
          <Input Type="Variable" Label="OpeningAngleSkew" Expression="OpeningAngleSkew"/>
          <Input Type="Variable" Label="OpeningAngleStdev" Expression="OpeningAngleStdev"/>
          <Input Type="Variable" Label="MeanDirAngleMean" Expression="MeanDirAngleMean"/>
          <Input Type="Variable" Label="MeanDirAngleRMS" Expression="MeanDirAngleRMS"/>
          <Input Type="Variable" Label="DWall" Expression="DWall"/>
          <Input Type="Variable" Label="DWallMeanDir" Expression="DWallMeanDir"/>
        </Input>
        <Output NOutputs="12">
          <Output Type="Variable" Label="NHits" Expression="NHits"/>
          <Output Type="Variable" Label="N200" Expression="N200"/>
          <Output Type="Variable" Label="TRMS" Expression="TRMS"/>
          <Output Type="Variable" Label="Beta1" Expression="Beta1"/>
          <Output Type="Variable" Label="Beta5" Expression="Beta5"/>
          <Output Type="Variable" Label="OpeningAngleMean" Expression="OpeningAngleMean"/>
          <Output Type="Variable" Label="OpeningAngleSkew" Expression="OpeningAngleSkew"/>
          <Output Type="Variable" Label="OpeningAngleStdev" Expression="OpeningAngleStdev"/>
          <Output Type="Variable" Label="MeanDirAngleMean" Expression="MeanDirAngleMean"/>
          <Output Type="Variable" Label="MeanDirAngleRMS" Expression="MeanDirAngleRMS"/>
          <Output Type="Variable" Label="DWall" Expression="DWall"/>
          <Output Type="Variable" Label="DWallMeanDir" Expression="DWallMeanDir"/>
        </Output>
      </Selection>
      <Class ClassIndex="0">
        <Ranges>
          <Range Index="0" Min="4.0000000000000000e+00" Max="6.2000000000000000e+01"/>
          <Range Index="1" Min="8.0000000000000000e+00" Max="9.0000000000000000e+01"/>
          <Range Index="2" Min="3.3537304401397705e-01" Max="6.2951798439025879e+00"/>
          <Range Index="3" Min="-2.3664204776287079e-01" Max="9.9267542362213135e-01"/>
          <Range Index="4" Min="-1.8398496508598328e-01" Max="8.9531034231185913e-01"/>
          <Range Index="5" Min="9.1704483032226562e+00" Max="8.5475028991699219e+01"/>
          <Range Index="6" Min="-2.2065924072265625e+02" Max="3.2009973144531250e+02"/>
          <Range Index="7" Min="2.0532677173614502e+00" Max="3.5262054443359375e+01"/>
          <Range Index="8" Min="3.9768588542938232e+00" Max="8.9976463317871094e+01"/>
          <Range Index="9" Min="1.5226427316665649e+00" Max="7.1190795898437500e+01"/>
          <Range Index="10" Min="3.2872314453125000e+00" Max="1.6900000000000000e+03"/>
          <Range Index="11" Min="1.1488537788391113e+01" Max="4.8818457031250000e+03"/>
        </Ranges>
      </Class>
      <Class ClassIndex="1">
        <Ranges>
          <Range Index="0" Min="4.0000000000000000e+00" Max="6.1900000000000000e+02"/>
          <Range Index="1" Min="7.0000000000000000e+00" Max="1.7210000000000000e+03"/>
          <Range Index="2" Min="1.3161996006965637e-01" Max="7.0739502906799316e+00"/>
          <Range Index="3" Min="-3.0522954463958740e-01" Max="9.9984663724899292e-01"/>
          <Range Index="4" Min="-2.3079934716224670e-01" Max="9.9770182371139526e-01"/>
          <Range Index="5" Min="1.0061447620391846e+00" Max="8.9157234191894531e+01"/>
          <Range Index="6" Min="-3.2875173950195312e+02" Max="3.5424136352539062e+02"/>
          <Range Index="7" Min="8.3948269486427307e-02" Max="4.5763607025146484e+01"/>
          <Range Index="8" Min="6.0278373956680298e-01" Max="9.3895698547363281e+01"/>
          <Range Index="9" Min="1.3088972866535187e-01" Max="8.7494361877441406e+01"/>
          <Range Index="10" Min="3.2872314453125000e+00" Max="1.6900000000000000e+03"/>
          <Range Index="11" Min="1.4950725555419922e+01" Max="4.9407680664062500e+03"/>
        </Ranges>
      </Class>
      <Class ClassIndex="2">
        <Ranges>
          <Range Index="0" Min="4.0000000000000000e+00" Max="6.1900000000000000e+02"/>
          <Range Index="1" Min="7.0000000000000000e+00" Max="1.7210000000000000e+03"/>
          <Range Index="2" Min="1.3161996006965637e-01" Max="7.0739502906799316e+00"/>
          <Range Index="3" Min="-3.0522954463958740e-01" Max="9.9984663724899292e-01"/>
          <Range Index="4" Min="-2.3079934716224670e-01" Max="9.9770182371139526e-01"/>
          <Range Index="5" Min="1.0061447620391846e+00" Max="8.9157234191894531e+01"/>
          <Range Index="6" Min="-3.2875173950195312e+02" Max="3.5424136352539062e+02"/>
          <Range Index="7" Min="8.3948269486427307e-02" Max="4.5763607025146484e+01"/>
          <Range Index="8" Min="6.0278373956680298e-01" Max="9.3895698547363281e+01"/>
          <Range Index="9" Min="1.3088972866535187e-01" Max="8.7494361877441406e+01"/>
          <Range Index="10" Min="3.2872314453125000e+00" Max="1.6900000000000000e+03"/>
          <Range Index="11" Min="1.1488537788391113e+01" Max="4.9407680664062500e+03"/>
        </Ranges>
      </Class>
    </Transform>
  </Transformations>
  <MVAPdfs/>
  <Weights>
    <Layout NLayers="4">
      <Layer Index="0" NNeurons="13">
        <Neuron NSynapses="13">
          9.4765166211475105e+00 5.4561958560823662e+01 1.1129473632911472e+01 1.5472123466498868e+01 -2.3909187743158238e+01 -3.0304710677526966e+01 -2.9767752205386795e+01 7.4353657070446204e+01 -1.3114066538376802e+01 -3.4996514600614802e+01 -2.1943678524722237e+01 4.0114112381014998e+01 -1.5793819644549018e+01 
        </Neuron>
        <Neuron NSynapses="13">
          -3.5953833261580752e+00 -2.5319421950166792e+01 -2.1320594918450833e+01 6.4579554295958896e+00 3.5804027429658142e+01 1.4308655546388739e+01 1.6803077731162144e+01 4.5174633135239234e-01 6.0155702520364231e+00 3.6504306538756083e+01 5.5852823010538240e+00 7.4926812212717016e+00 -9.6448659911982091e+00 
        </Neuron>
        <Neuron NSynapses="13">
          -1.0926353960922031e+00 -9.8478365568232740e-01 -1.5978984939768537e+00 -3.5690097152508776e-01 8.3548470373200190e-01 1.0746024914452832e+00 -1.5023001035411794e+00 -4.7368912715406009e-01 2.1803180974721945e-01 2.1012779108137533e-01 4.9956423012374279e-01 -1.4333858500375168e-01 -1.7512270283539697e+00 
        </Neuron>
        <Neuron NSynapses="13">
          8.3761925519191518e+00 3.3069133073448445e+00 -5.1244681562015062e+00 7.4601196142370965e+00 4.7151589794787802e-01 -2.8254223990223387e-01 5.3630100069934139e+00 -1.3269705193262324e+00 -1.1173282612311883e+00 9.0602311964886537e-03 -1.7425286006427854e+01 5.0939069317472896e-01 -3.8508028553983000e+00 
        </Neuron>
        <Neuron NSynapses="13">
          8.9561604140826279e-01 -1.6220544007277078e+00 1.6508756032002099e+00 -1.1762819561221061e+00 -1.7214862934570838e-01 -7.2788647603772172e-01 3.2998137005986066e+00 -2.5863145941907484e-01 -2.3254592368615512e-01 3.4195856051318962e-01 -1.2141216870934657e-01 1.1557892173250832e+00 9.4720778374479153e-01 
        </Neuron>
        <Neuron NSynapses="13">
          4.2551244225718809e+00 -2.0830754687376825e+00 -9.1287331909942235e+00 4.1018932004660984e+00 -6.0894919082158134e+00 3.6652492389905702e+00 4.1017333458099248e-01 1.5237226501933874e+00 -4.1449138056819601e-01 6.9901103036353385e-01 -8.0653623638742769e+00 -2.5130878463898667e+00 -6.7440418501229935e+00 
        </Neuron>
        <Neuron NSynapses="13">
          1.4806427699245164e+00 3.5305823791817734e+00 2.5898361466890880e+00 -1.2777925493185416e+00 -7.8602152617308929e-01 -1.7104347770816746e+00 -1.3984495899425653e+00 1.4878185078041768e+00 -3.7037977860086175e+00 -6.7234430372349585e-01 -4.8936989415038061e+00 -3.6539424357559591e+00 2.1797360733831450e+00 
        </Neuron>
        <Neuron NSynapses="13">
          3.9019947724968205e+00 2.9633401591475195e-02 3.4606320221949129e+00 -7.8188010896741800e-01 4.2523767716082643e+00 -1.0021179206211377e+00 1.5074457955310610e+00 1.3416216304918043e+00 -9.2679079634775430e-01 -5.8941356232280318e-01 8.5568480959587756e-01 -2.8145242415726701e-01 1.6784317875774128e+00 
        </Neuron>
        <Neuron NSynapses="13">
          2.3699416657313486e+00 6.3210368500479293e+00 2.4077912768217598e+00 6.7156056148202969e+00 2.4556481007284505e+00 -2.3103207405945643e+00 4.7145104521743519e+00 7.5639299094312547e-03 3.1351921335058117e+00 9.3126095192569847e-01 -2.1608644362409589e+01 -2.0472746317968402e-01 -2.7176934193197233e-01 
        </Neuron>
        <Neuron NSynapses="13">
          8.0200777697365400e-01 1.0488468452515585e+00 7.1877846826635250e-01 3.7716528180739046e+00 6.5564993826410733e-01 -8.9366995056031873e-01 1.9197328699097738e+00 -1.5101287113548023e-01 -1.0635773578969194e+00 -2.7875796179637541e-01 -6.5964458626191336e+00 -3.2390811627034399e-01 9.4382054671019999e-01 
        </Neuron>
        <Neuron NSynapses="13">
          -1.0835790780192846e-01 4.9149546053379339e-01 6.0614030261974552e+00 -1.6886335295247001e+01 1.0463567900933350e-01 5.0257671959890127e+00 1.2769688629413074e+00 -1.9748153582991343e-01 -1.2198679537697792e+00 7.8786575448359975e-01 -1.6043122087511014e-03 -2.8306944659791378e-01 -3.7942641235833245e+00 
        </Neuron>
        <Neuron NSynapses="13">
          -4.9962751879617034e-01 -1.4107234279060978e+00 -6.1077229026238689e-01 -4.8131317010530209e-02 -4.2688920611839176e-01 -2.1834614559565338e-01 -8.6751546970370619e-01 6.5290170892309607e-01 1.8947539428795395e+00 3.1425302464315168e+00 2.7263956234668035e-01 -1.0160471479169029e+00 8.3270574383679052e-01 
        </Neuron>
        <Neuron NSynapses="13">
          9.6491321067865208e+00 2.9421848070521218e+01 -3.7321187953239314e+00 2.9760854205229710e+00 1.1563608773054062e+01 -1.4305262429168152e+01 -1.1479681619326776e+01 7.0209165342981748e+01 -7.9517071592504571e+00 3.1843586164268265e+00 -1.9597110544204213e+01 4.7254671283238501e+01 -2.5690395653454889e+01 
        </Neuron>
      </Layer>
      <Layer Index="1" NNeurons="14">
        <Neuron NSynapses="11">
          4.8681401268219265e-01 1.6966470660666972e+00 2.5739851688907809e+00 -3.4235657956674275e+00 1.8802510393780159e+00 3.6716713861753960e+00 -2.2331938513678984e+00 -1.6278499971818963e+00 5.0410192072605409e-01 2.2544446719988556e+00 -4.2747198960294828e+00 
        </Neuron>
        <Neuron NSynapses="11">
          -2.2362393326246299e+00 4.9209463083993903e+00 1.7223744763282927e+00 -2.4335437016086167e-01 5.8733619847285032e+00 -1.1468307062589365e+00 -8.2374649056844040e-01 1.8766877694410438e+00 2.8787878573412229e+00 -2.5815269324299144e+00 -4.5678654979178006e+00 
        </Neuron>
        <Neuron NSynapses="11">
          2.1155670596872143e+00 1.4737451025023769e-03 -1.6568556878651024e+00 -2.3808128432670175e-01 4.3225542810941295e+00 -6.8603429427517053e+00 6.2646381959276018e+00 3.7181535928973752e-01 1.5089803759083436e+00 -2.4580490299671411e+00 2.7476312187498725e-01 
        </Neuron>
        <Neuron NSynapses="11">
          -3.6482490309354896e+00 -7.3567669841805328e-01 2.1087508807285595e+00 2.6695690466343645e+00 9.1918707701728997e-01 -6.8833098045512529e+00 2.0819468002929678e-01 3.0159707479429407e+00 1.9245362556607721e+00 -4.7516676251038353e-01 -1.7391143250889096e+00 
        </Neuron>
        <Neuron NSynapses="11">
          -6.1816920703523603e+00 -4.6051687145163909e+00 -7.1314576698549743e+00 -2.3730772799395955e-01 3.6530905349375986e-01 8.9252388210049194e+00 -8.4573718524931056e+00 -9.7362079848760408e-01 -2.0676064447937592e+00 5.4112013751763834e+00 1.1153756814910677e+01 
        </Neuron>
        <Neuron NSynapses="11">
          1.1284179544872937e-01 -9.4210980487401521e+00 -1.4933721600338179e+00 -4.6760917060234286e+00 -9.9594932664524971e-01 -3.3926095232760231e-02 -3.5614505841012947e+00 -2.2004404282756256e+00 1.7300696861629274e+00 2.5104152258949780e-01 3.9240266681920000e+00 
        </Neuron>
        <Neuron NSynapses="11">
          2.1393827273144210e+00 -3.2047787556204952e+00 -1.9187139014437513e-01 -3.4168829456748959e+00 3.5292902851380964e-01 4.4482308528774359e+00 -4.1984266085706139e+00 -2.8995351408971799e+00 -2.1841869459467471e+00 -2.2573212931915139e+00 6.7759053422830817e+00 
        </Neuron>
        <Neuron NSynapses="11">
          -1.8122331329968308e+01 3.8224269851992082e-01 3.1418739044152808e+00 -7.9989230413610759e+00 5.0512191871145609e+00 -9.8528774076078451e-01 8.4984047726249514e+00 1.2395037028237921e+01 -1.0963765126204146e+00 -1.9523066418858264e+00 -1.5076165795455134e+01 
        </Neuron>
        <Neuron NSynapses="11">
          5.8043928988063764e-01 2.0041797172616609e+00 -1.5667746413994688e+00 1.8858318940102581e+00 -1.0839414455450578e+00 7.1351020379459951e-01 -2.3036148618561261e+00 -2.1500079256843310e+00 2.1565780859898045e-01 -8.6376633127479385e-01 1.3341297141668051e+00 
        </Neuron>
        <Neuron NSynapses="11">
          8.9300542442320263e-01 -3.6511439499560496e+00 -2.8135542055494693e+00 -1.3113449676899356e+00 -1.0209344372515521e-01 -1.9321498713676599e+00 -1.7565118595688149e+00 6.6177039753070801e+00 5.1643541941818105e-01 5.7984609222851162e+00 1.3173559632409952e+00 
        </Neuron>
        <Neuron NSynapses="11">
          3.7032661042581929e+00 -3.6544183551318477e-01 1.1578848740893046e+00 -2.3149219918417936e+00 -5.2572043994706785e-01 -9.5168828632789848e-01 1.2244761185493838e+00 3.3302417911325405e-02 1.6676146317549263e+00 -3.0060813059076827e+00 2.0360448075091475e+00 
        </Neuron>
        <Neuron NSynapses="11">
          -9.6117464424978163e+00 -1.2425480486658809e+00 -8.1218272631725057e+00 -2.6984493759407200e+00 1.2549596771848035e+00 2.1378918624334524e+00 8.2734306189154505e-01 3.8013539497291697e+00 -8.8853472481115467e+00 -2.3856886454265056e+00 -5.2443220692661905e+00 
        </Neuron>
        <Neuron NSynapses="11">
          1.4107333342106312e+00 1.7620418754364957e+00 -7.3428199359999802e-01 1.8570534074588025e+00 -4.4250582605288420e+00 -1.7499276369523256e+00 -3.7448637998208296e+00 -1.5213480981755112e+00 1.2399086763529160e-01 1.1668219825057884e+00 2.1033468602106757e+00 
        </Neuron>
        <Neuron NSynapses="11">
          1.6289740841691858e+00 -4.9472265980931516e+00 7.8647689771243243e+00 1.4937317497366920e+00 -1.1194441514551276e+01 -2.9656030256148789e+00 4.2593693995423791e+00 -5.8544420296756350e-01 -3.8529775049914088e+00 -4.2106704273127402e+00 3.2558480616014740e+00 
        </Neuron>
      </Layer>
      <Layer Index="2" NNeurons="12">
        <Neuron NSynapses="1">
          -4.4989551499779727e+00 
        </Neuron>
        <Neuron NSynapses="1">
          -7.0517158856700828e+00 
        </Neuron>
        <Neuron NSynapses="1">
          6.5915005934203492e+00 
        </Neuron>
        <Neuron NSynapses="1">
          5.2114843931670602e+00 
        </Neuron>
        <Neuron NSynapses="1">
          8.2108981175704105e+00 
        </Neuron>
        <Neuron NSynapses="1">
          -2.0636218423672901e+00 
        </Neuron>
        <Neuron NSynapses="1">
          2.8739856352972875e+00 
        </Neuron>
        <Neuron NSynapses="1">
          -4.9446577913567005e+00 
        </Neuron>
        <Neuron NSynapses="1">
          -3.9115369323123304e+00 
        </Neuron>
        <Neuron NSynapses="1">
          -1.6794112575089017e+00 
        </Neuron>
        <Neuron NSynapses="1">
          -2.1772774371246837e+00 
        </Neuron>
        <Neuron NSynapses="1">
          -1.9704248511715066e+00 
        </Neuron>
      </Layer>
      <Layer Index="3" NNeurons="1">
        <Neuron NSynapses="0"/>
      </Layer>
    </Layout>
    <InverseHessian NElements="112225" NRows="335" NCols="335">
      <Row Index="0">
        3.9486768324541707e+01 2.7181270889106761e+00 1.1984831337706976e+00 1.5071489545731320e+00 -2.0535999393853914e+00 4.5275728234446388e-01 3.3856536646964575e-01 -2.4506666487781403e-01 -9.1320409961692617e-01 1.1634938875898309e+00 -1.3533278327511944e-01 8.5626967961608180e-01 -2.1207915075035215e+00 -9.9828030941520858e+00 -2.5701215794571453e-01 -7.5549309496995698e-01 -3.0681149228453783e+00 1.3658568855407978e+00 1.5835096565745368e+00 -2.4852605972346048e-01 1.1019717417039341e+00 -4.3369070484157257e-01 -1.0118008650375385e+00 -4.0438147982000200e-01 -6.7966215711219358e-01 9.9872066133735826e-01 -2.2354617101323071e-01 -2.3119245940885810e-02 -1.8088112261354095e-02 -6.1029307924683474e-03 1.3669356042769615e-02 4.4604016400092567e-02 -7.1581498817764877e-02 -1.2094227755158143e-02 -1.7614707793135259e-02 -2.0749925102956399e-02 1.2980257488409419e-02 2.0076529383937156e-03 7.5574306428050457e-03 -1.1929395538192362e+00 2.1869708737367113e-02 -6.3973630102904980e-02 -1.7774912568921342e-01 -2.2638511098298758e-02 1.1458554147161903e-01 5.6642561900869415e-02 9.6796348045821046e-02 2.4593302543974538e-01 -3.7910609678439761e-02 -7.8031845473568262e-01 -6.1173503896787967e-04 3.5493943236130510e-01 -1.3919704539759967e-01 -3.7067142602828958e-02 -7.7232387194703378e-04 -8.1554771443638138e-03 3.3893706056201262e-03 4.1582148911724154e-02 9.4793496781906184e-02 -1.4254000636131067e-02 6.1580227237979596e-02 2.5775461276388911e-02 -4.4287659027198945e-02 -5.9804987475731708e-03 -1.1449859695233378e-02 -3.2873773992984207e-01 -4.3621403642297413e-02 3.5121650276555283e-02 6.5141802093074075e-02 -3.2203534930079492e-02 -1.0898799049393659e-01 1.0200101953825857e-01 3.5041261920299660e-02 6.9680016025651992e-02 3.0075788051007746e-02 -3.9507130734127099e-01 3.1056022919192183e-02 1.2127993898913336e-01 1.8674398557112171e-01 -3.7816805109475826e-02 5.3659740817865065e-02 5.7850177395864288e-02 -7.5047452881729622e-03 -1.5529194697894499e-01 -3.5786402344154200e-02 7.2906196130156101e-02 -1.6145182332644625e-01 -5.2045615501081915e-03 -5.7093212669056204e-02 5.0541024338517010e-02 -5.1119490794781924e-03 -2.1010575009026444e-01 -8.1348991568545387e-02 4.6947731614727900e-02 2.4261903594694489e-03 6.5494821421095528e-02 2.6401115156315935e-02 -6.8923506721930594e-02 1.0840556079729297e-01 8.2989306829989520e-02 -8.9242038342022337e-03 4.8910139340236802e-02 7.9400836176536128e-04 5.5073635563819390e-02 -6.8106334115029699e-01 1.2944573844580812e-01 -1.0052264551693030e-01 -3.0471807695526487e-01 -5.4832906978145329e-02 1.6407493205618723e-01 -1.0057547196731208e-02 1.4487493668277418e-01 2.2049406605825492e-01 -1.0962370485952073e-01 -7.2980832570241683e-01 2.7016007337119827e-02 3.4747549159049546e-01 -1.0120003551610816e-01 2.4082253701034062e-04 -7.4990198948271525e-05 -3.7891919341228875e-02 1.1041571577871653e-02 -1.5671416854991821e-02 3.1647648694883457e-02 2.9158442820006736e-03 1.7825231790941698e-02 -8.3955882702166362e-04 -2.4090689088879691e-01 8.2862843558011746e-03 4.6193299766881288e-02 -5.5220644443557662e-02 -3.2131480360102896e-02 6.8675610295344108e-02 1.7186350078454055e-01 -1.0334659186126360e-02 2.8625715773713395e-03 4.4449587219158565e-02 -1.4808501992374086e-02 -6.3744354607319781e-02 -1.6606907057506070e-02 2.3059970670597240e-02 2.5469167833545150e-02 -2.4243539909285572e-02 -1.9668538379304551e-01 -2.1971997932802023e-02 -1.0761320963414126e-02 -2.9117337139265370e-02 1.0426060305388975e-03 9.3724475427192869e-03 -1.3764232841923185e-02 5.0116089651174880e-02 7.8072809455062508e-02 -3.3564064032152993e-02 -1.6936115570103258e-02 -1.6210822173504932e-02 -7.3835084032986015e-03 2.8578362659104492e+01 2.3789001315314562e+00 4.7947998486404453e-01 -1.3391786138487227e+00 -6.5183653228776539e-01 2.0270600288480898e+00 7.4164162788144417e-02 8.1289832579854060e-01 -1.2813282074571384e+00 1.1889627529761415e-01 -5.9656617791512900e-01 2.0787566384686929e-01 -1.0681017260209584e+00 -5.7384026107545116e-02 9.7281027831186417e-01 -7.0464915790717175e-02 4.9513604799629185e-02 3.6020089879166106e-01 1.5435182596734975e-01 -4.2761407021143061e-02 8.5321503977351831e-02 -5.5613229688022528e-02 1.7251277496638129e-01 4.5691031050294484e-02 -5.1132621082269077e-02 -1.0214415015314238e-01 -1.4740348031624859e-01 3.2907785688233016e-01 -2.3212991386496995e-01 -1.3539038898289918e-01 1.1535338253332711e-01 7.7282404944767097e-02 -1.4324351146670966e-01 7.8504182123099397e-02 3.6615678837839671e-01 -5.3676822355963383e-02 -6.1448417633544805e-02 3.8654700837959473e-02 -3.9300381966287379e-01 -4.1908129081154100e-02 1.0432920774641197e-02 -7.6114700782206890e-02 -3.8898425920676938e-02 1.9306755513593572e-02 -1.3402867581542299e-01 -2.1507278191638425e-02 9.6382861296582023e-02 -1.0757809630147053e-02 1.1209450507672206e-01 1.1256554375784095e-01 1.8495328906240921e-02 2.9683347423622697e-01 -7.3523029691872743e-02 -7.0461583376615330e-02 2.0460206479552848e-01 1.7445333407277941e-02 -1.4030941764903049e-01 1.4218121860760080e-01 9.8842357824321159e-02 1.7288352075292246e-01 -4.8342754840403179e-01 3.4367180656213359e-02 6.4315640966138510e-02 -1.0957556308508387e-01 1.5635529101176704e-01 -1.5314893814663513e-01 2.9323118057534614e-01 -9.0894044777407668e-01 -1.9763463946360638e-02 -8.6341157022157500e-02 -9.0096618975755188e-02 1.2523216342171883e-01 -5.2710595941409810e-02 -6.2391119386845328e-02 -2.6830571834597361e-01 -2.6244001592089050e-01 -2.4192907592830437e-02 -1.3346431268401571e-02 6.4098671866893442e-02 5.3054659546514227e-04 -3.7491100642138175e-02 9.1368944748846576e-02 -2.3072904360273272e-01 9.1425452834099724e-02 -8.4414163291549049e-02 2.0433171023179442e-01 1.3547660599882599e-01 -1.9907632443804868e-01 2.4046692483745222e-01 -4.1322286128591990e-01 -5.6009611291224601e-02 -3.9150490907374103e-02 -6.0769190571730092e-01 1.5293391203309508e+00 -2.3687192130024548e-01 -3.0583080433847731e-01 3.0164217975345786e-01 4.0051404404314406e-01 -3.2077803287524631e-02 -1.5936795253672797e-01 1.6444460112901620e+00 -1.0017592195397751e-01 -1.4233225960907298e-01 -5.9741371354349759e-02 -5.1638620451002382e-01 -5.0174584894039032e-02 -1.1109511674819339e-01 2.1513672305695652e-01 1.1937580682279603e-01 -2.3128874249756431e-02 3.5793190700000688e-01 -6.1240904759413406e-03 5.2387371494475143e-02 4.3450883715725919e-02 3.3970691007523812e-02 2.7658447827611266e-01 -4.5463149835196615e-02 4.0646996507555100e-02 -5.3343296309280690e-03 1.7798773884448271e-01 -1.2871193296326133e-01 1.1618535661881424e-03 -1.6220925598751235e-01 -1.7095497282196148e-01 -4.1606517794345821e-02 -6.0656480487910100e-02 -1.4579244088223392e-01 -6.9502744301852548e-04 -1.1157923035816397e-01 1.2471088193705371e-01 7.2716851600804100e-02 -7.7220077464130954e-02 4.4115284236661889e-02 -1.2189777650668676e-01 3.2853045655486746e-02 1.7669345763967392e-02 -2.2712090963458767e-01 3.8197755501308939e-01 -6.7900497886419053e-02 1.2163436770644331e-01 1.8452071074798737e-02 1.0822881179874955e-02 -2.1248723124627844e-01 6.8635140113496362e-02 5.6871446632762934e-01 -6.4893261316593787e-02 -2.4976749158257733e-02 -1.0861643405601658e-01 5.9380443052084453e-02 3.7853422777795964e-02 -1.0765457555280022e-01 -2.5675261928922094e-01 -2.6754534049506534e-01 8.1082458110026012e-02 -1.1141083091660650e-01 1.2972046889484556e-01 2.1591593385667673e-01 -8.8527586288181592e-01 4.7041609634406906e-01 -4.3509944141193557e-01 -3.2774856628341981e-02 3.4342414454527237e-02 -2.4209147885692062e-03 -1.5403131375144108e-01 5.4020199901603716e-01 -3.5566180730139685e-01 -4.1169894564566079e-01 1.1789160945480659e-02 -1.2452249385840819e-01 -7.4742283463939074e-02 -1.0422160125510871e-01 2.5550214804281629e-02 4.4017301442229873e-02 -3.7318362926854018e-02 8.7191713483284472e-02 2.9029234110304186e-01 3.8007513127298220e-02 -4.4330773214242170e-02 7.9053676911544635e-04 
      </Row>
      <Row Index="1">
        2.7181270896342702e+00 1.7919912057002016e+01 1.5254527884452451e+00 8.3614206329411489e-01 2.1983954466201183e-01 -1.8011339988989294e-01 -7.7467070663017157e-01 1.5195037721405349e+00 -2.8557438353949927e-01 4.9425653131637448e-01 3.6658318233172515e+00 -3.2526371748400973e-01 -1.0281395869724514e+00 -4.8921654849073670e-01 -6.0143376949891616e+00 -1.4200135317141687e+00 -8.8231441213517936e-01 4.6166282069919407e-01 3.2909210879602968e-01 -1.0293394800684941e-01 8.9284060473969057e-03 6.1407320647960018e-01 -8.8636772865055558e-01 -2.1139437515741077e+00 1.5044280263772924e-01 1.1716617387366459e+00 -6.6074442320851690e-02 -1.9596157117816659e-01 -4.8482401054921742e-02 -5.0933383849942226e-02 1.4441476184007259e-02 4.5503453606750767e-02 -3.6752411156317930e-02 -2.6350696240506361e-02 1.7821172125939228e-02 -6.8065378535722872e-03 -7.0873995908753429e-03 1.0069876762012007e-02 -5.1410456896704617e-03 3.6266941516568452e-01 2.9261380787602320e-01 -9.5466270615160248e-02 -3.4705891965857494e-02 4.1556946614506665e-03 -4.3983786323510854e-02 1.2717154267568337e-01 3.8031379210318961e-02 -2.0178675698692666e-01 -9.6638070737907426e-03 1.4310326209427365e-01 -6.7422949603223106e-03 1.0487670699021762e-01 -1.1446036048587486e-02 -2.1503867082265365e-01 1.6879976919614528e-02 -6.4644810414902582e-02 3.1286769823909905e-02 5.9438895506608982e-02 1.3347977089683513e-01 -3.2384078029797508e-02 2.2586159967618438e-02 -2.1441962161506664e-02 5.9324600290360359e-02 -8.3075517243336450e-03 -2.0817553249351445e-02 8.1386457940434309e-02 -2.3502452157536324e-01 -1.8840124444028203e-01 -2.5797832302080742e-02 -7.1468715862438414e-02 1.5253719904468999e-01 1.2177269326550633e-01 -6.8618745335397802e-02 -3.4154266288839275e-02 5.6779822333530461e-02 3.1222403498144757e-01 -8.4206123126001065e-03 -9.2279640206017532e-02 7.5576274458296511e-02 4.2994066204027959e-01 1.3352281474655631e-01 1.5669212506537383e-01 -7.6653147009303257e-02 -1.2051217349429766e-01 -9.7048870801681758e-02 8.8674235844512686e-02 -1.0821840900437679e-01 1.0236640406605921e-01 5.0378164282409155e-02 2.1243454169469760e-02 3.6923411551673731e-02 3.4831262518005390e-02 -1.6122744148738979e-01 -1.7512671303365202e-03 -4.4061437958579086e-03 6.7000684856088594e-02 -7.1480710545275272e-03 2.3062039578681248e-03 5.6753397261840213e-02 -1.4559626727579017e-02 2.3285669117200244e-02 -7.6219513248254989e-02 2.8570415754732688e-02 6.5245598161740484e-02 2.9494329017022497e-01 6.3521884477083257e-01 5.8964742758548475e-02 6.3150538788314503e-02 7.6072459834129746e-04 -2.2507934137956595e-01 5.3944644186775387e-02 1.8149927964309023e-01 -2.0094868114590647e-01 -4.4274232438265212e-02 -4.8660483546079547e-02 -2.1391694107053771e-02 2.3346241121982886e-01 5.0878100983416275e-02 8.4997097289585655e-02 3.0422745397090722e-02 4.8917358737707139e-02 4.5973158357433264e-03 -3.8514698785284851e-02 4.1668585407361958e-02 1.3170856478017991e-02 -3.5374979621431851e-02 2.2440738671958942e-02 7.9650601998299084e-02 5.5139134139705502e-03 2.9241478695164250e-02 -9.2459998011405892e-03 4.2283280537747492e-02 6.4986272303675971e-02 -1.4333735765109654e-01 6.4430405357211729e-04 1.9449893884588842e-03 4.0105389599741810e-03 1.2385014261349771e-02 -6.2038790237383670e-03 -2.9135388877047162e-02 -2.4986374425322339e-02 -5.8648357524366569e-03 6.0569763711148708e-02 -6.0315881024588416e-02 -1.9406716537853907e-01 -7.8729265979496851e-03 -5.2485393022919683e-03 -2.3368645439593577e-03 1.9934662670787903e-02 -1.8058628633047278e-02 -2.3882934321557296e-02 3.3452267948253317e-02 -3.1748264180901840e-02 -5.1677075563411005e-03 9.5550505207775416e-04 -8.5523274891580806e-03 2.2190626345198989e+00 1.1636834309273496e+01 1.8487843190081765e-01 -2.0240317985265960e-01 6.5065300484735022e-01 1.6747684381187014e-01 -8.3945009941232662e-01 1.4595472332237138e+00 3.0823134635356630e-01 -4.3629255680441281e-01 1.5289886293866433e+00 -1.7349094090949674e-01 1.7436284613140418e-01 -4.0315958361463455e-03 2.3022900503988875e-01 -3.1039720613245725e-02 1.0504872939965171e-01 3.2994342564035550e-03 -1.5933989507094015e-02 1.4916600577972342e-01 3.2631748715040487e-02 -3.6992579567928618e-02 -6.1995348239920589e-02 8.2437727607421185e-03 3.2628087581990645e-01 -4.0844512847299008e-01 -2.8277060824938777e-01 -1.0532774007681889e-01 -4.6081902479512959e-01 1.9709947560512969e-01 -9.1743522095331681e-02 -3.6925790405652414e-01 -3.9415773926400888e-01 2.1240126489891198e-01 1.1594070788667281e+00 -5.6033484959704394e-03 8.6699030968658775e-02 4.9277303699848694e-02 1.0716192571295138e-01 6.9681548883974279e-02 3.1789917554068459e-02 -2.1665497176543369e-01 -1.4568619671621708e-02 -5.5409405050466931e-02 3.5460289296906766e-01 -4.5530747698616467e-02 9.4706722476050054e-02 5.0019731867396167e-02 1.0649784550576920e-01 1.7116360997104146e-02 1.6554349564020021e-02 -8.7832024664718039e-02 2.3540615526958897e-03 5.2368483952985663e-02 -7.5941266572888716e-02 3.0058201672933355e-02 6.3102170036050786e-02 -2.4585018390561664e-01 -6.8039220347642981e-02 1.6347728641208842e-01 -7.3835018129111418e-02 2.8178158076199500e-02 1.8703016224769264e-01 -1.4829977890742385e-01 7.7289806680318929e-02 3.1848059017988950e-01 -5.5523432098238468e-01 9.7978641504597952e-02 -1.3869491436487635e-02 -1.1247562319165522e-01 -5.2849026385863695e-02 -1.1188141440233615e-01 -1.2758926617260502e-01 -1.0166632196793882e-01 1.4714477867631470e-01 -1.0293605216682433e-04 5.4647168610303387e-02 -3.6609577027950463e-01 1.6527739479611392e-01 -5.0199717830839541e-02 1.1019981178546595e-01 4.0314521178981100e-02 2.5751937472460251e-01 3.3637378778359067e-02 -1.2667203558750423e-01 1.1275238211655891e-01 3.1862906858932658e-02 9.3370432625978494e-02 -2.8351465851363689e-01 -1.3614217877593138e-01 -2.5185397568486145e-01 1.7043791500003541e-02 -1.0222052962190387e-01 6.5684650447089599e-02 9.9933411856430177e-04 1.5026188642751959e-02 1.3462870515480008e-02 -6.5106105774238587e-01 -2.7358563063233476e-01 -2.3229480306048544e-02 -5.6301311969121803e-02 2.0991501546349323e-02 -1.3602313288461176e-01 -1.5765529867967976e-02 -2.1109018533946866e-02 -3.5831313564124556e-02 -3.9350065360599651e-02 7.4701537323171696e-02 8.1621437873892866e-02 3.1074383981680595e-02 -1.4537380458339039e-01 -7.5895799136495384e-02 1.9020163895389519e-02 -1.1292950752873587e-01 -5.7317347382783823e-02 -6.5999866390068052e-02 -2.1448515086748085e-01 5.5918100328655740e-04 9.5754389846641419e-02 2.1994601212665621e-01 -1.0425840725409879e-01 -1.0135937852616017e-02 2.1288765316791258e-01 1.2211616626465523e-01 -6.2061280378797046e-03 -3.2834015316476894e-03 -4.4629502178917035e-02 8.1517875114719363e-02 3.4020988273788966e-02 -1.4956004976743598e-01 -4.2603855199051133e-02 1.0118990910841655e-01 7.7994276818493691e-02 5.2654863809700192e-03 -2.7926130040500929e-03 -2.4279390268102802e-01 -1.8489732149993243e-01 -8.3059913591296941e-02 -2.9411330033250932e-01 -1.7242244963492581e-02 1.0600974883264078e-01 1.2263438392333836e-01 -3.7351817207937854e-01 2.7236203313555318e-01 2.3253207042573976e-01 -3.8314787542938822e-02 -1.9825141955503711e-01 -4.7878813891118678e-02 -2.5540497400657142e-01 -2.5209771486780796e-01 -2.1378578275886184e-02 4.2819401597395779e-02 -2.8798552602293817e-02 1.0403206032422807e-01 -2.2521211219529474e-01 2.0982925358862708e-01 -2.7669477081813687e-01 2.4118783024581614e-01 3.0436646015653790e-01 1.6324926348620528e-01 5.5874997850199826e-01 -4.2639539009636351e-02 -2.0703265533324167e-01 7.1945461067270067e-02 3.9545620605758147e-01 1.6486234534812949e-01 -1.0580700391609437e+00 6.7845982649759717e-02 -5.0981922698051285e-01 -1.5049919883690421e-02 8.8588339772832647e-03 8.5276466489339620e-02 2.4639292359164740e-02 -5.6511861724543311e-03 1.0360449684484446e-01 2.5417801433066545e-02 -5.6968814060547601e-02 4.1963270278708331e-02 -1.1885433058951866e-01 
      </Row>
      <Row Index="2">
        1.1984831335139292e+00 1.5254527885356899e+00 9.4509801461699539e+00 2.4108494690006586e+00 -4.4621225276990967e-01 3.5681039332897102e-01 -2.1401466375793214e+00 1.0005995122019338e+00 1.1287097537162083e-01 2.6328430367426225e-01 -2.7283985164146074e-01 -7.8240808030671349e-02 4.2191580677595653e-02 -1.1994412996502599e+00 -1.2419221569312462e+00 -5.8864152777162921e+00 -1.0381649369823038e+00 1.1217715351675122e+00 6.7649540996966140e-01 7.9594901028975951e-01 5.5541750915262844e-01 -1.0276181225801391e+00 -1.5494851275828819e-01 -5.4777984838365601e-01 -3.7204655575293200e-01 -1.5285281429786157e+00 -3.4213080649870165e-02 -1.7421192855426575e-02 -1.3794713176607501e-01 9.2256093046786392e-03 5.6531328548906738e-03 3.9073711982031439e-02 -4.3831194067964867e-02 -5.1780097824054086e-03 -1.2787393748307802e-03 -1.6470762161430591e-03 -5.8631566209326746e-03 1.1532038178474337e-02 -6.9727291900539001e-02 -1.3482968411527518e-02 -6.9619991442337117e-03 -5.3027926161136474e-01 -2.6978884667259811e-02 4.4153908814125578e-02 -5.7499021700816222e-02 1.9738768860822037e-01 4.4902343309580151e-02 -1.9833377699598309e-02 -2.3637591495838484e-02 7.2264630104160316e-02 -4.8778556573375542e-02 -2.1198377217001119e-01 1.4369784298432615e-02 -1.1670823096802625e-02 3.6218128869785163e-02 8.9393020217393183e-03 2.5056926828198503e-02 -1.9131691956396878e-03 1.2645456078351583e-01 2.1249584237849339e-02 -2.3555744535104998e-02 -1.1324655877795076e-02 3.8806582380627196e-02 -1.0818080873408256e-02 3.5733005648228955e-02 2.9785399623637840e-02 3.0927548131570282e-02 -5.5774772933170491e-01 6.2473002939610778e-02 -1.2784831682963638e-01 3.5741757163987725e-03 1.3455946652130302e-01 4.2539203933282949e-03 1.3390034366254855e-02 2.8580015554506399e-02 -5.3192490337209380e-02 -2.7150455994152348e-02 -2.0666967610855408e-01 5.8810907398819390e-02 4.7642300744017249e-02 2.9729002433106588e-01 -5.9893176359167723e-02 -7.3240903399956550e-02 -1.2977571307258132e-01 -4.9815070344751931e-02 -4.0947457037592803e-02 -2.5876441186675217e-02 1.6716852171888730e-02 -3.5547590353202929e-02 -4.2985772146721286e-03 1.0069096143109144e-01 9.4348593752565102e-03 -2.8614050731508755e-02 4.9478651669517731e-02 -4.7443137884341180e-02 9.6995862376399677e-02 -3.1080079311687298e-02 1.6707303851671292e-02 1.3842916925970526e-02 -4.2853428760191076e-02 -8.4811917906669476e-03 -2.2084525687650153e-02 -1.5096938349676250e-02 2.1830628332518438e-02 -5.3900096277817319e-02 -2.9776439174971133e-02 -5.0106903374373978e-02 -8.3965914321517121e-02 5.9959230690772476e-02 -9.9742413027886501e-02 1.5091183580774359e-01 3.6434276368200041e-02 5.0254083028689125e-02 -4.0155786362473342e-02 1.1622530597111924e-01 -5.9487220146371908e-02 -8.7325237595234723e-02 1.0169412574501102e-02 -6.1650743146647938e-03 1.1663832126423350e-02 -6.9699940783824778e-04 1.6159761006533626e-02 -3.1062004137528541e-02 6.0165224308639798e-02 1.3735909486426168e-03 -2.4060991045246144e-02 -1.3681649252536999e-04 3.6676692089484708e-02 -8.6580417774159597e-03 2.8709519485539736e-02 -2.7481512756234484e-03 -1.4731598557302661e-03 2.3759698686435793e-01 -4.5453181597670922e-02 4.1248836292776120e-03 7.0127972751068968e-02 1.5765188377656104e-02 5.4449616483003881e-03 -1.4359327337002216e-02 -1.0982681706758625e-02 9.1820541477936612e-03 5.0561352830807288e-05 -7.5645744649053437e-02 5.6675338479943854e-04 -1.6512148069847885e-02 -6.0417895675654483e-02 -1.8971303402899493e-02 5.1586383232144276e-03 -2.7788180706765685e-03 3.2388564457148938e-02 -9.6150208363221940e-03 2.6326092726612446e-02 1.2461084588155424e-02 -1.2600073907076834e-02 -8.0672332507212043e-03 1.5183422865970629e-02 2.1705352941488065e-02 2.5434554778639706e-01 3.6697317046185947e+00 1.2739909395872770e+00 7.0421527462677025e-01 1.0430112281244341e+00 -1.3012443528458815e+00 1.4942388982130894e+00 -9.3345485729208122e-01 8.6822779505998371e-02 -7.5584090034012741e-01 -4.6111042571060612e-01 -1.4459454388781270e+00 -1.6645095389202225e-03 -6.3627623998288474e-02 -5.4322451214552703e-02 5.4259183716503345e-02 2.6472309889160509e-02 -3.1194885151824447e-02 1.0636539889913643e-01 1.2707522858255604e-02 -9.3170106744948078e-03 5.3528953599252582e-02 3.3947257390542607e-02 1.2678287112836473e-02 -1.8079104321373882e-01 -1.1702281326365804e-02 -1.9600630188326029e-02 8.3288706880387253e-02 -8.7986933151643923e-02 -1.4931272029146403e-02 -4.7088193337329720e-02 -9.7640261365681269e-03 -5.7615072296080538e-02 3.1825687589023266e-03 -9.7280172801068154e-02 2.1567674682829757e-01 7.0644593580669601e-02 -1.4745844998139024e-02 -1.7420467421164143e-01 2.4124086612234880e-01 -4.2107760979519021e-01 -2.0363856949538128e-02 -9.2203905732007554e-02 8.7149865118716252e-02 3.2960086007831818e-02 -1.1951928756039432e-01 2.9735942231601045e-02 4.1108467437923790e-02 -4.8618980802320882e-02 9.4975048506588361e-02 2.0012876508055277e-01 -5.4733923981203102e-02 -6.2221702078942606e-02 -7.3856297122829442e-02 -2.1710914908928430e-02 -7.0106797955355626e-02 2.6094076989347670e-01 1.7828633313242576e-01 9.3067919761519513e-02 1.0541795497114137e-01 9.8869122276321164e-02 -4.4994095404441392e-01 3.8447123053294791e-01 1.0042572702674538e-01 9.9291777423706498e-02 -1.3634324306709522e-01 -1.7611413738198983e-01 1.2504781421658590e-01 7.2680511652069804e-02 -1.0065333296733966e-01 1.0879411069123107e-01 2.6421255656480624e-01 -4.2304283330429682e-01 2.6621621827237174e-01 -1.6265398533388695e-02 -4.6477556893251115e-02 -2.5735290304020936e-01 -9.2680429807792619e-02 -1.9669511750716684e-02 -1.4341552596501245e-01 -4.8658660875782592e-02 5.6393687532519221e-02 4.5013620425319811e-02 -2.5313164944791960e-01 3.3486057914215467e-01 1.0251973908815992e-01 4.8986312716137820e-02 -2.2338262256248964e-01 -7.9894760955508792e-02 -9.0046788080684603e-01 3.0305500432592114e-02 2.1968121873808616e-02 -1.8164956215235084e-01 -1.1793949579124609e-01 7.6292271877244522e-02 -2.4819029567031992e-01 4.0986139405037925e-02 -2.5962633657668832e-01 -7.5467323777062889e-02 -7.7333521692339890e-01 -2.3418021805167940e-02 -4.1597323171223818e-02 -1.6366611582492308e-03 2.7370676470154232e-03 2.6216549416150176e-02 -6.3720801009466421e-02 1.2204581486736887e-01 8.7543543693001324e-02 -1.9066408760026521e-02 -6.4800805975025466e-02 -6.8352068783067335e-02 -2.3425811976598432e-02 6.6344650639971026e-02 1.2640152193780840e-02 7.7317717640102979e-02 6.4428300491784607e-02 -1.1600341770003775e-01 7.2505289008378715e-02 -6.3833713193748309e-03 1.4526457579500107e-02 6.8336061257362246e-02 -7.3111380442710747e-02 2.0343285910707103e-02 2.0000761497564086e-03 4.7734380982367854e-02 1.3900065297334563e-02 -1.7483140046551757e-02 4.4663923604886357e-02 -3.2172580446383457e-03 1.2255484730717831e-03 4.2307305117107508e-02 -7.5579076114349386e-02 3.5763592432685509e-02 3.6990190311568583e-02 1.5414562088704942e-01 3.6936711520052595e-02 1.0367682660175165e-01 -4.2444709959907900e-02 1.0415946564615841e-01 -2.4338399146834414e-01 -9.8994492920581045e-02 -2.4023262136587997e-01 1.3863337678206022e-02 -6.5927807016187098e-02 2.2349972098711264e-02 -8.3817535440488394e-03 -7.0801597816625428e-02 -2.5775829394949490e-03 1.3219510738334719e-01 -2.1729763544638958e-01 2.1805760005203909e-01 -5.1962706467074668e-02 -5.1308739211226195e-02 -2.1411011334759267e-01 -8.0465373676258528e-02 -5.7697242234843849e-02 -1.6577510941772733e-02 2.7073127594580360e-02 -1.9801263966893512e-01 -2.3476963373547144e-01 3.1665952109186080e-01 -8.7685185673188962e-02 5.2039809257549585e-02 1.7272455191694708e-01 1.3966739760452462e-01 2.1263399813237482e-01 -1.9049799151973495e-02 -6.7505042419786443e-02 2.5955741485667039e-03 1.9996743158318786e-02 -1.5217655326755436e-01 1.2188316395791952e-02 4.7487405014470907e-02 -3.6857410285785958e-02 4.9209304605366412e-02 2.3840418807517985e-02 1.6362338565364287e-02 -7.3462328420197398e-03 
      </Row>
      <Row Index="3">
        1.5071489542745224e+00 8.3614206317891859e-01 2.4108494686512096e+00 1.2066316683543306e+01 3.7876878544081727e-01 1.5250962958545289e+00 1.1029991184166796e+00 1.3632564974161052e+00 5.9525919495882085e-01 5.9768062892346219e-01 2.6568006121878973e-01 1.5143655491571406e-01 2.1900483288615302e-01 -1.6562568230165893e+00 -4.5051807863868198e-01 -7.0960450618652127e-01 -5.4325548543317463e+00 -2.4026643931891620e-01 -2.8663989042133053e-01 -2.4069219886495255e-01 2.0617472367667189e-01 -5.3364201687681967e-02 -4.4894823195598466e-01 -7.0833205103732855e-01 -2.3531624644205495e-01 3.3501239602302207e-01 2.5143334042094626e-02 -1.0827288632979035e-02 -1.8313213541685247e-03 -5.8512625396253973e-02 -1.0759375213505172e-02 -1.8633616304261927e-02 -2.9499493664504880e-02 -1.4710425329874963e-02 1.2632760932392887e-02 -1.1740612029999854e-03 6.5895615000369475e-03 3.4175350501996138e-03 5.6644834631050335e-02 1.5614045186351788e-03 -8.9575421894464990e-03 -8.9160686509354659e-02 -4.1252258790274077e-01 -1.8653319835813816e-02 -7.1201921793377920e-03 5.4392029337609615e-02 -4.2895391338449745e-02 -9.7870672149054094e-03 -3.6675505170537595e-03 -1.0097055196917426e-01 -1.8357841562239352e-02 5.5446445191270344e-02 -4.4332247168008806e-02 -2.1546168699144455e-02 -6.4420818068868868e-03 -3.4240278952580208e-02 8.2865650798671711e-03 7.9057444668206960e-03 4.4499434901822219e-02 -3.9125061496474156e-04 6.7673366719181935e-03 -2.0339455696126552e-02 1.4471082153895039e-03 -1.3551961740523567e-02 6.9553598354995527e-03 1.5486978166959975e-01 6.7912505879963669e-02 3.6174559057792210e-03 2.3800103738266987e-01 -6.5224803455165237e-02 -1.4845832309478113e-02 9.1956834803522125e-03 -3.2907567643582936e-02 3.1683695986566895e-02 1.9952781029069278e-02 -6.1008230601052316e-02 -9.6203290595223145e-03 1.2586053845089418e-01 -4.7515905028758965e-02 3.6991507151356788e-02 -1.7147681847811347e-02 4.7425688371023990e-02 1.9954866336956516e-02 3.7797139968992435e-02 -5.5765508921975918e-02 4.6786720197348745e-02 -1.0177994857349076e-01 8.2956092746286764e-03 -4.6757346849061465e-02 1.3465509196006484e-02 -1.2159252617431772e-01 -8.4022518229237564e-02 -4.0612758930246712e-03 -2.9262811256876228e-02 -1.5503114490574840e-01 1.9865203782313649e-02 -3.0116282474330736e-02 -1.3844182434058522e-02 2.5879513766352575e-02 -2.9160064291373675e-02 -8.7434993533573313e-03 -1.0900506323936521e-02 2.5291316338635350e-03 -2.5320746803051630e-02 -1.4973736183708591e-01 -3.4638943124690555e-02 -1.1125206786674643e-01 -5.1097503986355775e-01 3.0910776845180662e-02 -8.5039485122077665e-03 1.5093809979959308e-02 2.6313509865083580e-02 -3.1407805669071580e-02 -7.8426255158947772e-03 -7.9206599836056935e-02 -7.5251458120143885e-03 -6.1151105320403402e-02 -1.8991578002134801e-02 3.6379159477007983e-03 -2.4214211292302133e-02 -9.0707556593483452e-02 3.9211159802060285e-03 1.0439118863701774e-02 1.5690657845876199e-02 -1.3810567850590586e-03 -3.5421708923857848e-02 -2.6506967397705167e-03 -2.5610130000940146e-02 -2.9310425426359865e-03 -3.2859376037688202e-02 -7.4577280236332449e-03 6.1699580479608329e-03 2.4169277836951442e-02 -2.3382026706086312e-01 2.1868552649239398e-02 -5.5427895665484395e-02 2.3846477574513990e-02 1.6596329072430905e-02 -4.6480323922723013e-03 2.5902899572177694e-03 -5.4881814110666061e-03 -1.6372798057137875e-03 2.8126906383483641e-02 -1.0418112190089118e-02 6.3787018113836622e-03 -2.3591183412643930e-04 1.9795369558919113e-02 6.7963480024638562e-03 -3.6340388303448623e-03 8.2488880830655642e-04 7.9546936010287880e-03 -2.9194536057690623e-03 -1.6903620033348526e-02 -1.2133966853484016e-03 -5.7288128575989986e-03 -3.3736919687156419e-02 -2.3994486417304906e-01 3.4104453681917357e-01 1.6504283802129542e+00 6.0335847141116972e+00 1.7022757783085718e-01 1.1828491141034090e+00 8.6327176341537371e-01 1.5279707985061974e+00 5.0308980231709199e-01 1.2313323010787358e-01 -4.3508205375304621e-01 -8.1350435004097332e-02 5.4077823043315387e-01 -2.0205314958975665e-02 -1.6845029086452445e-01 -5.0624435847517857e-02 -2.8005808731162596e-02 -4.8007769659657418e-02 8.5431915306420914e-02 7.9058542237431029e-02 -1.0267933685139896e-02 -8.4121326918427108e-03 2.3174755931887336e-02 1.3760196789199597e-02 8.1751339075283869e-02 -2.3443460375705438e-01 2.4932904764737251e-02 1.1496548924372609e-01 -1.0481341475990824e-01 1.1115240255419773e-01 2.0379263071389708e-02 -1.0993219270197270e-01 -3.0465963923531625e-05 -5.5125272827942329e-02 3.4694936276023637e-02 -4.8801563369907652e-03 4.9160519665223668e-02 4.3169331908757103e-02 -4.3834280123256464e-02 -3.8879800310509388e-03 2.6465466751177044e-02 -4.0585605655354073e-02 -1.9855941534606243e-02 1.3338816137475567e-02 -1.7232248721669952e-02 -2.6223373182030538e-02 -5.4556667290466199e-01 3.9624480973408094e-03 1.9145765060648942e-01 -1.0472166842131675e-01 1.0255068373115005e-02 1.2630470819165096e-01 4.8015904539531890e-03 -5.5315519768956788e-02 -1.9094274302301913e-03 -8.9829973297224586e-02 -1.0886687117787555e-01 7.4220275508869449e-02 1.8026445587748796e-03 1.9437480857338124e-02 1.1096176305020053e+00 5.7777496790107796e-02 -7.5750060504346628e-02 7.0915803654453047e-02 1.0300816672124868e-01 1.7711333122927145e-01 -5.5224075883391899e-02 6.1863862406137088e-02 1.7421445267420177e-02 4.0202078486989645e-02 -7.6259651215719565e-02 -4.4095288789320633e-02 -6.7901388454965517e-02 1.6083276048695919e-01 -4.6540591038523538e-02 -1.1370009207121679e-01 7.0175450683369611e-03 -1.0002081201809440e-01 8.1557884094525690e-02 1.2920588502671027e-02 -7.4782525762562557e-02 -1.7008161372506075e-03 6.8667071211825081e-03 9.8455154546749184e-03 -1.2437107344723977e-01 6.6492743421173200e-02 7.1466193196145403e-02 4.1303575513400692e-02 -1.1927979346065176e-01 1.3539673630936222e-02 1.0146994537371556e-02 1.2139925438710603e-01 -1.0994099607025146e-01 3.0399694716543468e-02 -2.1561680128408456e-01 1.2572398859708317e-01 -1.6255831335643722e-01 -4.7166702868166488e-01 1.9535785902822012e-02 -1.4371810637581028e-01 1.0165333179093319e-01 -2.1159086364210773e-02 -3.4182345038880561e-02 5.0199422979562147e-03 -1.1078468857717549e-01 1.6751914393003178e-02 -6.7660661390601673e-03 6.3198093859610949e-02 1.6061751615322528e-02 5.3211922274719048e-03 -3.7971700900641059e-02 -5.9956170273035882e-03 -6.9437769843418984e-03 -1.2435420074226045e-03 8.8863626145712082e-03 2.3256527494435852e-02 2.7390793801416870e-02 -5.0609119713510675e-02 -4.1561779687602662e-02 1.5272861132705762e-02 3.9414121327022933e-02 1.1054549300441252e-02 -8.6282452721572866e-02 -2.0376777535307256e-02 -1.7372348670854382e-02 3.8529294738890024e-03 1.1662235640321106e-01 4.3907756333319836e-03 6.4809027505609601e-02 2.6911262971632488e-02 -3.7093567978431163e-02 -1.4874504834516161e-02 -5.6062205185597569e-02 1.4016764858982931e-02 -1.5173106966240857e-02 6.9074807817153083e-02 8.0704576826335916e-03 7.6651060235876284e-02 2.5797503962442292e-02 3.0196210444035643e-02 -3.3409911103552514e-02 2.3723545507535304e-02 1.0990835497504747e-01 1.0211059167847480e-01 -1.6729446277628365e-01 3.0525129316612137e-02 -4.9543623422257377e-03 -6.7588084834520612e-02 -2.4308556104301729e-02 -6.3864690652559009e-02 1.7161143182079286e-02 -9.6704382479881251e-02 -8.2705847879647479e-02 7.1729829778602872e-02 -3.4240319003386394e-02 4.7983523482938398e-02 -3.1090132676149601e-02 3.2349274168275144e-01 8.2714229614601176e-02 4.0766949687196963e-02 1.8097299957093238e-01 -2.5399238422206305e-01 8.4814813208855533e-03 1.7942881039916969e-01 -6.5415306075055413e-02 7.6270566151314778e-02 1.6200340661069124e-02 -1.4362060178740033e-02 -2.5730831694329442e-01 -8.3277383110906822e-03 5.7559276489848821e-02 6.1603082681436952e-02 -1.7140311329925696e-03 -1.9400430751297382e-03 -7.7826440257071416e-02 -2.3162250510078780e-02 -6.1412159588193904e-03 8.7976348973690666e-03 7.7827575580543984e-02 
      </Row>
      <Row Index="4">
        -2.0535999392943256e+00 2.1983954369741041e-01 -4.4621225371236378e-01 3.7876878511322909e-01 7.2896606685622629e+00 7.8159416433316498e-01 -8.8574635627803655e-01 -7.3597409247670365e-01 1.5980852523952116e-01 -2.1272079774352193e-01 4.0439198780981380e+00 6.0027210530742403e-01 -2.4405440167292802e-01 5.8045564572716346e-01 -2.1124883135218298e-01 3.0267291416727593e-01 -2.0811146264095992e-01 -4.4787703329986766e+00 -8.5878366458488831e-01 -3.5177389283556015e-02 4.1228231096145085e-01 -6.2263539089296316e-01 -4.8206685159171103e-01 -1.2057502953867463e+00 3.1014276803339147e-01 8.1133000978332437e-01 7.5473743179593263e-03 2.0140072543593786e-02 2.1944299480401223e-02 -4.6164406346844156e-03 -7.1503061396001794e-02 -1.8129593197879872e-02 3.1311583020908675e-02 1.0276100251081327e-02 -2.8481448120424427e-02 -4.0487711340869773e-03 -2.0112420482865101e-02 -9.2848268686543649e-03 3.3000702120114730e-02 1.0068474341811387e-01 -1.0947366669402440e-01 5.3848865644179317e-02 -1.2317343675188545e-01 -1.4804786308615944e-01 -7.4205774775382149e-04 -1.8703400250718857e-02 3.0224325725366527e-02 7.4985659619073469e-02 1.5727651758446072e-02 -1.3995345708418669e-01 3.8232959983534237e-02 1.4746605581745525e-01 -1.8549240526515715e-03 1.5391825723226095e-02 -2.9529474701687014e-02 8.5628727541348423e-03 -2.4782431952434431e-02 4.0007778980991008e-03 -7.0991678584425524e-02 -7.7810698965100622e-03 4.4688675161994845e-02 -4.0884880049915640e-03 -4.6366723467111300e-03 3.3172652490274304e-02 -3.8321132458788432e-02 1.2423574933776671e-01 -1.1093076697820670e-03 8.2774533031490391e-02 -1.5915517177217675e-02 3.7373486575609488e-01 5.7223793613123852e-02 2.4757671880355825e-02 -2.3051949527019340e-02 1.0452228848993869e-01 -2.7548803304304571e-02 3.6497208726482086e-02 -5.5548112570304037e-02 2.4300171269019177e-02 1.4168188731725651e-02 -3.0077975371772578e-02 -3.4670233447631135e-02 -1.8917874827866221e-03 6.7887558113978397e-02 6.6461735267761488e-02 8.6056586622946046e-02 3.7162639902043326e-02 8.8723388362586142e-02 -4.1941647577671562e-02 -9.5936930298380352e-03 -1.0784123188458930e-01 -1.0171742609924046e-02 6.2527255503170620e-02 2.7984856526229784e-02 -1.3634202293267034e-02 -1.5650647302725251e-02 -3.1699053709153502e-01 -1.6521444579398546e-02 2.5052528386643586e-02 5.5201618814431599e-02 -6.0273722291824636e-02 -5.8317950491999268e-02 -7.5163327278091496e-02 -2.9904296044184028e-02 2.3090305598710809e-02 -2.6027141248346763e-03 -1.1916693469613435e-01 -3.5453269107831274e-02 -1.0567006504311863e-01 -3.1685823808005209e-01 -4.9980036352021322e-03 -3.6514917451110449e-02 2.6794769818296999e-02 9.6979273828770585e-04 5.6421536655167290e-03 -2.0231632904907881e-01 1.7956952601653423e-02 1.1621348659006495e-01 -1.1722492335426438e-03 -1.1761168234399407e-02 3.0494381939787096e-03 -2.0644684081874670e-02 -6.3158058973348946e-02 4.3283041192768209e-03 -5.3010536291938637e-03 1.4213031531640268e-02 2.3909776377339837e-02 -8.8641963883677559e-03 -4.3453149053892942e-02 -1.0346920499150852e-02 1.7193220261176118e-02 -1.7476731562509000e-02 5.8205295727036255e-03 -4.7814829282531002e-02 3.2290907786203887e-02 9.6777890221636416e-03 -3.8574458496649866e-02 -2.2379934430863634e-02 3.0778088641069679e-03 7.2673140582571322e-03 -2.3047949100733281e-03 -3.5779903328058971e-03 -1.7452200572792599e-02 1.2893530955239121e-02 3.1811251289847839e-02 3.1765796052695916e-02 4.3407810365718160e-03 1.4411247845108478e-02 -3.6245293727792019e-02 -1.7748097199987212e-02 5.7466364425011462e-04 -5.8436170074702143e-04 -1.4143333641185547e-02 -4.3209401898628118e-02 -1.3912492488130396e-02 -2.4585825846603591e-02 -1.1036344512830976e-02 -1.4549333874898167e+00 1.6685341990151592e-02 -1.8426661109067943e-01 1.9198338530508191e-01 2.6251061932063666e+00 -9.3115701913406471e-02 -9.2685636301355978e-01 -2.9126940248204192e-01 -4.2920165312448766e-01 -6.8026894873447585e-01 2.7515010114843514e+00 9.1397469832553413e-01 5.6549550456514908e-01 1.3374322431050106e-02 -1.3690900093554992e-01 -3.8550247233736679e-02 1.7740963636656171e-02 -9.0920964893920264e-02 -1.3498432734143484e-01 -4.8416693780449549e-02 3.5163826733593924e-02 -5.2547817688989473e-02 -6.3503526785347125e-02 1.2447007066356064e-01 -1.2498378030243541e-02 8.4986644547547563e-02 9.0873386751161217e-02 -7.1195661122259168e-03 1.3323027733682224e-01 2.3995780238068778e-02 1.5446510616356015e-02 -1.5205635089890628e-02 5.4017987656054312e-02 -7.1711632517728496e-02 -6.3195602885089519e-02 3.7154186441414799e-02 -1.2614080772182280e-02 -1.4817748489628246e-02 -3.2082539245236408e-02 6.7378695241321895e-02 1.0106433405144744e-01 9.8564204843585579e-02 1.0237614835183081e-02 -7.8524118752719627e-02 1.7862833289211233e-02 -1.8038292960194720e-02 -1.7131797663047843e-02 -2.0706511524552218e-02 -6.7584106654973580e-02 4.4921432855167254e-03 1.4731019198865328e-02 1.3327101372380801e-02 5.9923011967078100e-03 2.6431438995479228e-02 9.3380957255990160e-03 -5.9741261811731228e-02 9.8165298516295074e-04 -2.3744992516268409e-01 -4.3198783422074305e-01 -7.2176863917807565e-01 1.1278044892558015e-01 5.0160518550644656e-02 3.6315557781484742e-01 -1.4655118978860585e-01 -2.7062816976797327e-02 3.4704175420439998e-01 3.7199750921604724e-01 7.6239595710348618e-01 -2.6133548511124483e-02 2.4463539023101399e-01 -7.5268720592922000e-04 1.7035817505469453e-01 -1.3761423744034018e-01 6.1400579923263990e-02 -1.6098886152629555e-01 -8.1680005493032976e-02 1.6314163466434017e-01 2.3561290982715699e-03 6.2275404587785355e-02 -1.1584287813691224e-02 -7.8531159919815907e-02 -5.4482484564112019e-02 -5.5009180242505340e-02 1.7436188817837359e-02 1.1987331533107776e-01 -1.3936294765485588e-01 -3.5069757373350080e-02 3.2169887759873228e-02 3.7161604497814804e-02 8.3632571839817871e-03 -2.5863884803127912e-01 -3.0924033748288587e-02 1.0698621147549069e-01 -2.3963236413156785e-01 -4.0017476058429098e-02 -4.4083883294652071e-02 2.0712686753751419e-01 2.0614283987398196e-01 -7.1397835962035694e-02 -7.5138248117362361e-03 -1.9803669570914395e-01 2.2791623587572696e-02 1.2626020453486764e-02 -5.6256323705934752e-02 2.7612167668337406e-02 1.5254345696418328e-02 7.6083847623608980e-02 -1.4630175023135922e-01 -8.4996135058006045e-02 3.8607421049135615e-02 -3.8043150954239602e-02 9.1875797867515679e-02 2.4461106075244987e-02 -1.2553701271737233e-01 -1.3976089516896037e-01 -6.6178966068271228e-02 3.0634287520440173e-03 3.4441506314291992e-02 -1.0056202434740458e-01 -2.8775439446750650e-02 -5.3159573215581513e-03 -4.6245661796460169e-03 9.8211785288193409e-02 2.1304483028869246e-02 3.9228594797010574e-03 3.5738277226483144e-03 -4.1074152599192594e-02 5.3116504988217794e-02 6.5566990085388244e-02 -1.8416216713363465e-02 -1.7260462117005118e-02 -7.8912322098124293e-03 -9.5227531131718002e-03 -2.1007287419118836e-02 1.5538942831678670e-01 7.3337527885809273e-02 2.7729960276640897e-01 -2.0438262634794979e-02 5.1111467162190116e-03 -1.0061240341825661e-01 -2.9418389358289165e-02 -1.2665209096080021e-01 3.0177860485219021e-01 -1.0175558629956782e-02 -8.0082628512804954e-02 1.3867384265710450e-02 5.6507318507687004e-02 -2.1182564826869865e-03 7.0548225305737122e-02 -1.0399802968664952e-01 4.8449020184859748e-02 -1.4304235304682786e-01 -5.5243321642440585e-02 1.1844586843488886e-01 2.0119100698641035e-02 1.0649048849969689e-01 -8.3560191356929714e-02 2.1975178608431389e-01 1.2895790548624753e-01 5.9658527735990674e-03 4.2932546976925945e-02 -3.8655749911253423e-02 3.5584368556037482e-01 1.2002294173264141e-01 -2.4284049695869703e-01 7.7394753800890448e-02 -3.4374188014632301e-01 4.1045305835874846e-02 2.6704034713190378e-01 -5.7101451022225080e-02 -5.3236900583842894e-03 -5.3747227393193625e-02 -3.4595769635478016e-02 -4.4312577885774911e-02 2.2846893764452147e-03 -6.1981616362288980e-02 -3.2874242483160843e-02 -4.0146518060240222e-02 6.9797984637327559e-02 
      </Row>
      <Row Index="5">
        4.5275728190216136e-01 -1.8011340168224116e-01 3.5681039283867744e-01 1.5250962955823777e+00 7.8159416465003995e-01 1.1320356009586142e+01 -1.1426351590237029e+00 2.7923070465652344e-01 2.2254449742992297e+00 5.5159827111926485e-01 7.1820817111546464e-01 -2.5307058895945989e-01 -3.3185458852057939e+00 9.0685152787056023e-02 -2.9747616714166802e-01 6.2463966005738314e-01 1.1338199564671703e-01 -7.2882931662439931e-01 -5.0868350607903920e+00 8.0911726721782040e-02 -2.6299583022045950e-02 -2.5266991269585537e+00 -1.7078768093511842e-01 -1.2281622286885092e+00 -2.0568265788900997e-01 2.3871619018011372e+00 9.4310239380637380e-03 1.0818532826744789e-02 2.2558366317071012e-02 -8.6403481532209558e-03 -2.2059297527657902e-02 -1.0306126229469917e-01 8.8000002542255300e-03 8.1002014149154280e-03 -3.0510798252155483e-02 5.0797312036255787e-03 -2.3476222002623018e-02 -2.9840432141065524e-03 1.0138830187753925e-01 9.7076885120777390e-02 -1.6234157412624992e-01 3.3132553317994952e-03 -1.8789677971750463e-02 3.4372616668261802e-02 -1.6160270027455947e-01 1.6879197077971780e-02 -4.6875518035478875e-02 -2.5259866496151709e-02 -2.2411489754883697e-02 -6.0969691070246372e-03 -1.8918614691683197e-02 1.4018286247776018e-01 4.0562043311000565e-02 6.0609934789889026e-02 2.6411081558178839e-02 6.2151201447568818e-02 -2.6878226369491734e-03 1.8164931842550022e-02 -1.5144329732435333e-02 -1.3676294366192235e-02 -3.7020547085278022e-03 2.6458947967037683e-03 3.8366419026323248e-03 -2.2485108167976109e-03 -2.6065334818411778e-02 2.9587143141484140e-02 3.7335041247523459e-02 -1.9680606677636436e-02 -1.3483928374586143e-01 8.6425983267058915e-02 -3.0602061570706390e-01 -5.5615170165330963e-02 2.4015866568321609e-02 1.0502697534749877e-01 -2.1120351547634197e-02 -6.1947124368729768e-02 1.8538420905571951e-02 3.1959761831842404e-01 -2.8641535590116451e-02 -4.0266262273720807e-02 -4.6875410441695783e-02 -9.0845186624517904e-02 3.0588307935914914e-02 2.2583830058757942e-01 3.7672775295560360e-02 -1.9382773922424837e-02 9.0436754378753495e-02 -1.1766573714704881e-02 9.5187867745204074e-02 3.9509781814624625e-02 -1.6528733910154414e-01 7.6487828759728510e-02 2.8580366076029165e-02 1.4618041928694384e-02 -6.9651179859483991e-03 -6.1675132046109304e-02 -3.8076908475541661e-02 1.0479474113310405e-02 -1.3026837893179745e-02 -4.7731900088839624e-02 1.2709248672955212e-02 6.2822236755142175e-03 -1.2627601451109791e-02 -4.7527012110732660e-02 3.7558713659234633e-02 -2.5394791110147097e-01 8.4621339038295600e-03 2.4928277771425922e-02 1.9473206491274653e-02 1.0617524016062710e-01 8.6640986521760083e-02 -6.0527128010307706e-02 -5.9686941178961325e-02 -6.2058461318861141e-04 7.6256163144929945e-02 -1.3723977090140093e-02 -1.0897389002070559e-01 -2.2568669828297860e-02 -1.4710002941716956e-02 3.4878664265223375e-03 -9.1188814676511354e-03 7.4947078988291393e-03 2.2623424409543930e-02 -4.1961858048478184e-03 -1.1752145609571871e-02 1.8055947382101863e-02 -1.2049501511236297e-02 3.5226842313700560e-02 1.3772270629979141e-03 -2.3351001513444384e-02 1.3395897990076788e-02 -2.4824141809121514e-02 2.9994554206134921e-02 -6.4270470369897734e-02 -9.5585942927741141e-03 -1.9912635500991049e-01 -2.4763156267500364e-02 -8.2926104383872733e-04 1.8196133844696656e-02 -1.5849028463385463e-02 1.1724298766667127e-02 2.0618998314920721e-03 6.7373965655400714e-02 1.0734041120733950e-02 4.8383517957145461e-02 5.3704426226305777e-03 -5.8685182123449642e-04 3.1132427021326112e-03 -8.6846584322549103e-02 -2.0226189569693548e-03 2.1917708231867505e-03 -3.7101493204733244e-02 -1.0432139513440228e-02 1.3426670020166981e-03 6.9865824296480791e-03 1.8203957270586435e-02 5.9946450199405898e-01 -4.6220120906928941e-01 1.0100198067897510e+00 1.5996876568391900e+00 4.0863796726453516e-02 6.0471947372477111e+00 -1.0298729264150994e+00 2.1658648215351900e-01 -3.3827960266696677e-01 3.7248458392508399e-01 -4.6801331572685934e-01 -4.4740803383909211e-01 -9.1519560898182895e-01 2.4383593277580384e-02 -1.7950499450418866e-01 -6.7577236587425149e-02 2.0176389066448419e-01 -2.5329221533704621e-03 -1.2461049531507795e-01 7.6049804335379778e-02 3.7164783930938694e-02 -2.5509965394220235e-02 -3.9278790149576470e-02 1.4681077471626969e-01 -2.8298304792415227e-02 2.3680948606042684e-01 4.0614362821291078e-02 1.8420269914550413e-01 -3.6010521836016218e-02 -1.5308101493469106e-01 1.1552209965937749e-01 8.0225755726935868e-02 9.2983921195228858e-02 -2.8667706813556515e-02 -1.5920428675171999e-01 6.5737092522528684e-03 4.3776884855151760e-01 6.5704222943685497e-04 2.8858201376905968e-01 -6.8844728112165826e-03 5.4940602861313748e-02 7.2314373878763438e-02 3.9143731400718695e-03 -8.3388993364399457e-04 2.8760964626837471e-02 -2.7625650343737550e-02 -1.0222854561151362e-01 -6.1449078276322233e-02 -9.6312174633706726e-02 -2.0117019188144028e-01 1.5276633433852526e-02 6.1106025038132339e-03 -7.5883341085807562e-02 -5.2827805173428069e-02 3.5383058057782413e-02 -1.8520917592792563e-02 6.9471678462406095e-02 -1.3723373995806698e-01 -2.3310817958708829e-01 -1.6518466295705242e-01 2.5861107632141334e-03 5.3590874288412499e-02 1.4725439641361415e-02 -8.2402098399869395e-02 -4.4324578381112027e-03 -1.0780887518630482e-02 -1.0123803221054684e-01 -7.1995560625300686e-02 -3.5375454962789654e-02 -5.7697559889232003e-02 -1.4849384556345904e-01 -5.3659299308595576e-01 -1.1503746550473037e-01 -9.3407209495606144e-02 -3.7269558692040905e-01 -8.8439794695016699e-02 1.3373045284756718e-02 3.3820939849303774e-02 2.1989826882764840e-01 1.8581377719708497e-02 -2.7819523191700801e-01 2.2029849819742493e-02 -8.7659804547316034e-02 -8.7516678123711333e-03 2.2057787447301580e-03 -3.3254010635899070e-02 7.2083831467105564e-02 -5.2669720948287681e-02 -6.7620724413185229e-02 -1.6451971706185808e-01 -1.7016670470072526e-01 -9.4035380230217305e-02 -1.5222113201003053e-02 1.2847258165927844e-01 -2.5823769839376809e-01 9.3980439558128182e-02 -1.9073631029033675e-01 -3.3019404088196735e-01 -2.0496330282749770e-01 -3.0999102106991194e-02 3.7048781221468863e-01 -3.7701222371614961e-03 1.4048248294810392e-01 -1.5155053755988052e-02 2.5529525565062983e-01 3.1169694811052667e-02 -5.2114749727017462e-02 1.0369247112335687e-01 3.3633471922266733e-02 1.6159867508987014e-02 -5.0984715856930297e-02 -4.2076427994441910e-02 4.7421853439596762e-03 -5.6430907884563786e-02 -3.8061177014162589e-02 -1.3067809375600525e-01 7.0182485434370112e-02 1.2694842444570476e-02 -5.6657747243310408e-02 -8.6495036403306469e-02 1.4785083495168827e-02 4.3421870674474228e-02 1.6371723635898006e-02 3.1411280411578958e-02 -1.4901534590537141e-02 -1.1973857147773714e-03 -4.5252635638464822e-02 -1.3557089541690234e-02 -6.7796854250081751e-03 3.3061035712002237e-02 -1.5515229690671707e-03 -7.2376600209851823e-03 -9.0942772298681085e-03 8.3526198333102042e-03 -1.0193722401921568e-01 2.2569944162096001e-01 -4.9835170395264694e-02 -2.1054985640616142e-02 1.7759141743961315e-02 8.1418044265602701e-02 -4.2127708977778899e-02 -5.5097315281726178e-02 5.5696124337588859e-02 7.0285614257501905e-02 8.5084168850330433e-02 2.2367574669982147e-02 -3.0992868626178227e-01 -1.1747279314041155e-01 -2.5777137110632220e-01 -1.4460724725658175e-01 -1.4697679536569108e-01 -2.4416580790001138e-01 -1.0063102144325894e-01 4.6888323354494943e-02 4.0799884787105806e-02 8.6635993417215756e-02 7.3123781234208929e-02 3.2685141988867628e-01 2.5634152027880841e-01 -7.5122972804233967e-02 1.2880807898339031e-01 2.3919271965817024e-01 1.7152850616697057e-01 4.7184483520253728e-02 -5.2640643837813528e-03 -2.2024607502557525e-02 -2.0313812534616282e-01 2.6207361485814373e-02 2.9983996808596969e-01 -6.8972715860574629e-03 2.8837360910935228e-01 1.6256832422772111e-01 -2.0568175103759030e-02 1.9670103550552626e-02 -9.6383312647033287e-02 6.4934163656384398e-03 -2.8110690162207130e-02 -5.0573983493372388e-02 1.2023264145568702e-01 
      </Row>
      <Row Index="6">
        3.3856536530372239e-01 -7.7467070810427119e-01 -2.1401466374980953e+00 1.1029991182464816e+00 -8.8574635656774392e-01 -1.1426351590315555e+00 3.1582845305047414e+01 -2.1373631052326014e+00 -3.8860328795364385e-02 1.0211028579980863e+00 -9.0939514155445078e-01 -3.3178739609331465e-01 6.5129657794439844e-01 -1.9438012652689629e-01 8.7048779450112412e-02 1.8812455889036528e+00 -3.3024805567870530e-01 -8.2790418481207573e-01 -4.9238504403167838e-01 -1.2404665150358571e+01 2.0628510566269220e-01 9.1053685530852446e-01 5.6602666874034424e-01 2.3751723463795971e-01 2.2305670411264367e-01 7.6228307309696852e-01 1.1846296223159358e-02 4.8232609196812479e-02 5.8419543011490646e-02 3.0660602181566299e-02 1.1403987109636179e-02 1.2904546729587157e-02 2.5257354056905490e-01 -2.4776198265149735e-02 5.0908355237192601e-02 2.2821984433782201e-02 -2.0564106532475729e-02 -1.2470182853941584e-02 -8.5853754472280691e-02 -1.1755388825621899e-01 -1.7519033457280481e-01 2.2554205800933783e-01 -1.8073717877377177e-01 -7.4007540388299820e-02 -1.7006530043409418e-01 -1.7519845839658728e+00 8.1442599392872406e-02 2.1226742475832172e-02 -7.2994979422769973e-02 4.7290641794351113e-01 4.9665090444794863e-02 3.3689900561662589e-01 5.6948537142031741e-02 7.2994392339192971e-02 -4.1013112885863734e-03 -6.4604326824673070e-02 -6.2870455646377332e-02 -4.5432714860957846e-02 -7.5540074551885017e-01 1.0316660574903758e-01 -9.0498332556306682e-02 -4.6837860030356726e-02 6.8816922912257328e-03 2.3261232771502716e-02 1.5951457456153129e-01 -4.7874108627223633e-02 1.4826752426572398e-01 3.9297313208152290e-01 5.9398002818350504e-02 3.1127549128818655e-02 -2.6238303531817436e-01 -1.0492753286961376e-01 2.7148043531160071e-02 -5.9328113100565461e-02 -8.9509039275138758e-02 1.2697692271469763e-01 3.5418645124437265e-02 6.0151560491567113e-02 -8.6650256028885431e-02 -1.2419591940628227e-01 -7.0834826763045505e-02 5.8938168413153136e-02 1.1646504519070332e-01 -1.3239641568668969e-02 4.4173935000091524e-01 -5.7470283301568954e-02 1.5390797990405808e-01 -3.5489041879919470e-02 9.5413287814172465e-02 -1.8456334345646710e-02 -5.6526771630600825e-02 -1.6482538780597300e-02 4.5423396237955493e-03 -6.9863555813991493e-02 -1.7453110728011367e-02 -3.3210167374036259e-02 -3.3282515058825901e-02 -4.3508919373496618e-01 3.2406535194852149e-03 5.2847356750267582e-02 5.2685541829996241e-03 -3.9505991984828903e-02 -9.7490850448709726e-03 3.5529175917158373e-02 -1.6206144690979429e-01 -3.3687259184563628e-01 -6.6256091921646165e-02 -2.0327557869357812e-01 -6.2310196735241269e-02 -1.6603281575382472e-02 -1.6695759471520144e+00 3.5239760203808840e-02 1.4888124026992577e-02 -5.7337530055888958e-02 5.1653923697898130e-01 3.0069474498008661e-02 2.8441164014862275e-01 -1.5738726261833591e-02 -4.7835512238828010e-02 1.2499021938808148e-02 -4.6697292849695843e-02 -1.4905489879951384e-02 -2.6650503757691735e-02 -5.1697910752938769e-01 3.0538743981304309e-02 7.1257446194517501e-03 -4.1814156148917175e-02 1.5733518967712218e-01 1.3242473142661785e-02 1.0487148740284691e-01 -1.2013676584965410e-02 7.4304208729616406e-03 -1.4478293914928214e-01 -1.2609982630765765e-01 -3.1512247304895852e-02 2.7699813096498827e-02 -1.9806798083015256e-01 3.7245287100210883e-02 -1.0340713095593042e-02 -2.4737165099975117e-02 -2.3306232713567465e-03 2.1303863477147932e-02 -5.9915203414799029e-02 -7.1411326353422733e-03 3.9003570811014333e-02 2.7690938319348057e-02 1.8916497045567870e-02 3.4438399852440155e-03 -2.1846734788778743e-02 2.2672749392332880e-03 -2.0901447635896908e-02 -4.4618570429096935e-02 -3.1626843630536833e-02 -2.0265468025283298e-02 3.3758038080432783e-03 -3.2190669736852584e-02 1.7490666013706857e-01 -6.7762484222897168e-01 -3.8696105681188442e-01 5.8382952632169083e-01 -1.6911700328463284e+00 -1.5763407419440805e+00 1.8173456641074669e+01 -1.8024336020934397e+00 8.4311398357063139e-01 1.5185329278819935e+00 -6.0980140543402328e-01 -7.6864778319580274e-02 1.4735576254809359e+00 2.7737383137801608e-02 -8.0048441854278174e-02 -1.1655546562081120e-02 2.6685331347505475e-02 -1.3801322356471313e-01 -9.7658737607520862e-02 -7.0213819503324615e-02 -3.8058983940107816e-02 1.4519619353586699e-02 1.4065385641303685e-01 1.3813323329376281e-01 -1.1272567318666124e-01 9.2560796998842343e-02 7.8929028024811831e-02 1.1121456504194827e-02 2.2404890042552972e-01 -2.3308550207365941e-02 6.9917396149608013e-03 9.2751384096250999e-02 2.3215201161329757e-01 -1.6087866329221967e-01 -2.0415162824183547e-01 5.0223626861044535e-02 2.3113215101478624e-01 -6.9806257643741709e-02 3.3506448082119422e-01 -6.3892107524016833e-02 -3.0737055442372807e-01 4.6261517296893007e-01 1.5610852266390018e-01 5.3966358313675702e-02 3.5961940311408425e-02 -1.3668044813211933e-01 9.1521201628208981e-02 4.7800121897759729e-02 -6.7898158103361750e-02 2.6893679125398418e-02 -8.8480981537168379e-02 -4.3465551694689519e-02 1.4258165767473205e-01 -2.6111109252127687e-02 1.6516078366086259e-01 2.8705994466398793e-02 1.8305797552452496e-01 -9.3931904485295536e-02 1.1995282908690585e-01 1.0809047851858872e-01 -2.9543985309137444e-01 -1.7941178278246273e-01 -1.8860995479046050e-01 -8.2449870810212655e-02 -3.3129209184454750e-02 -4.2415270203749356e-01 -5.2853770941291256e-01 -4.8484427464792579e-01 1.8047454261123974e-02 3.2170935518117361e-01 9.5759292281048763e-02 1.9007592546012470e-01 -5.6885025860032634e-02 1.2855063969561126e-01 -2.1511586310251940e-01 -1.0076023102211012e-01 1.5965857076327605e-01 5.5394741503088873e-02 -1.6099687331642798e-01 8.1324888139888563e-01 -8.9674232193607051e-01 -9.2175902579735403e-02 -6.4849230015238168e-01 8.9428485414672687e-02 1.0962688821150683e+00 -1.1072826952020536e+00 -8.2979925151741196e-01 -2.8344316762232519e-01 -2.8959600944090713e-01 2.1921517117856908e+00 -1.9753063809325688e-01 -1.0506596244142238e-01 1.8865112714852583e-04 -3.2461897834434073e-01 3.1595708176594337e-02 -7.2248244800210054e-02 4.3172864637341291e-01 -1.5229977707000097e-01 1.0942369287173737e-01 3.6496157461238354e-02 -6.4967644580792983e-01 4.9364880839843028e-02 7.2925854675097782e-02 -2.6828547648788306e-02 -9.4434034833703606e-03 -7.6733520544893477e-02 -4.6155656607544449e-02 -7.9522867488852178e-02 -6.2599536709416093e-02 -5.8658077369507788e-02 -1.3647066370459981e-02 1.8162116387055000e-01 -7.1647015451593660e-02 -1.2712907935086060e-01 -4.8323865060104221e-02 -6.0586163572811991e-02 5.8556104459962288e-02 1.8137748308028440e-01 -2.1470098623080380e-01 -3.3319201197456572e-02 6.9625782542386438e-02 1.4728890657224269e-02 1.0815776032059643e-01 1.1097477286923889e-01 -2.4113636923975168e-02 9.2697724425659933e-03 -7.6076258346735981e-02 4.0013619028157761e-02 6.4167827359625784e-02 -2.4640220512339939e-02 -1.1306691342306729e-01 1.5643775317020436e-02 -1.9300182693901091e-01 6.4391214707803068e-02 -2.1025537129029459e-01 3.5509171419824426e-01 2.7094982078081919e-02 1.9036271645224145e-01 1.6521991752909138e-03 -2.8542276797790578e-01 4.4387980586779519e-01 2.5123268104279561e-01 2.4262948856910782e-01 1.3351490738461536e-02 -3.1517637827171718e-01 3.3891632186368481e-02 1.6700400932685583e-01 5.2624997111561544e-02 1.4704791997598154e-01 2.1317784242897206e-01 1.8675010928310698e-03 7.8275618514131895e-02 -1.0962631966825231e-02 2.9406917085497963e-01 6.4712735016096978e-02 -1.9488628341798347e-01 7.3545807820494247e-02 -1.1249995851538497e-01 2.8380328419803647e-02 -9.2732073456430808e-02 7.9485582743991756e-02 4.0708215684565729e-02 1.2758926696048034e-01 5.3363931556046573e-02 -3.8575674512644631e-01 8.1693402898932455e-03 -1.6489295991693709e-01 4.7780191661324523e-02 1.1120031008078735e-01 7.3273480174421257e-02 1.1505355592955091e-01 -2.3615833460477464e-03 5.2181441438321485e-03 -5.5119255263569117e-02 2.9077922420399159e-02 -4.8926549086419496e-03 3.2583185534389464e-02 -6.6127577060846265e-02 -7.9563869792274922e-02 
      </Row>
      <Row Index="7">
        -2.4506666615970715e-01 1.5195037734435055e+00 1.0005995112538204e+00 1.3632564974224115e+00 -7.3597409106512401e-01 2.7923070655417082e-01 -2.1373631008306866e+00 1.2884600723938028e+01 -2.3745752790365886e+00 -7.7660308330376182e-02 -1.8504607368679231e+00 -5.7955420812488079e-01 -3.1134044342227760e+00 1.3892302274897670e+00 4.1137447524107795e-01 -3.0797992532227170e-01 9.1696976394924690e-02 6.9854270840781563e-01 -3.4514053161951885e-01 -5.2899313923317259e-01 -1.3520528714139459e+00 1.1315064505459551e+00 8.2642471922427141e-01 1.0186477415288178e+00 5.5017710128311315e-01 -9.1131629515441426e-01 -8.2958632911985276e-03 -5.6485815810710296e-03 -1.4900304245475601e-02 -1.5585366068675055e-02 1.7997564175701409e-02 -6.1531740580851981e-03 4.3036905668785153e-03 -4.7058202323460044e-02 3.2443478527641428e-02 9.1186153721116679e-03 4.3434431274920852e-03 3.5276133290305955e-03 3.7625222121149618e-02 -3.8655414435155161e-03 -4.9303367494525047e-02 -7.1295660947852682e-02 -1.4530639935930678e-01 -6.7304817377582538e-03 -5.2807663735250254e-02 1.4330134247555443e-01 -1.9853884936370930e-01 1.1812183887481331e-01 3.6072014903749790e-02 -6.1276077563981950e-02 -3.5872161094627042e-02 -5.3481041200991064e-02 1.8271759058533014e-02 1.1035366839583595e-02 -6.7470128265031681e-03 3.6346471575611008e-02 8.7665821126233501e-03 2.5694484630380196e-03 -5.2207367228097809e-03 -5.9933090423601204e-02 9.4099363845366601e-04 -1.7631464842906230e-02 2.4002053770448124e-02 5.1009147210698980e-03 6.8209971211255493e-03 -1.8020106777645747e-02 1.0137802295715528e-01 1.9711833567400944e-02 1.7867281201108476e-02 -1.1823353380548818e-01 -2.9354665452545850e-02 -2.7805402340626645e-02 2.7141901177719374e-01 -2.3394184831073717e-01 3.9153242983722414e-02 -9.3383972909462640e-02 -5.3685612555338033e-02 -4.9015057606320259e-02 -2.4920070456273258e-03 3.9377182238852004e-02 1.3115834337244317e-01 7.1495300320499666e-02 -1.4446836002707459e-02 3.5175514291650001e-02 -4.5525944679334823e-02 2.1319378930488112e-01 -3.9470297799491216e-01 3.0857594521275400e-02 -3.2455902583568230e-02 -1.5655578985065113e-02 -4.6469909812403502e-02 3.2905326149722317e-02 6.4711583807099349e-02 5.3194657536065976e-02 5.3881947860125026e-02 6.6843288224105207e-02 1.1525203431583253e-03 -2.0132119713315383e-02 1.1854060224171792e-01 -1.0248594226656918e-01 2.7295808363612180e-02 5.3085928627703907e-03 4.1270951989541317e-02 -7.1750162253501171e-02 -3.0697573616200163e-02 -9.0855465435723398e-02 -1.6935634799215102e-02 -1.0652522881834463e-01 2.5606164244165931e-02 -4.3899773499968771e-02 1.3239099800327270e-01 -9.5049520155161007e-02 3.5560361770880045e-01 6.3592692201782708e-02 -4.8041197242777944e-02 -2.7526318294488258e-03 -9.1936451458181828e-02 2.5290616344619821e-03 -1.4588468065795933e-02 -7.7045232104165293e-03 -4.8889318342643658e-02 3.8979197697815056e-03 3.9651220864266312e-03 1.6592390729280579e-02 -4.0986641336169957e-02 -8.3120855869292756e-02 -7.3228976712040317e-03 -3.3722455158541331e-03 -2.2490841454464935e-03 -2.8726742584764889e-03 -4.8237825284699686e-02 -5.8774748049401637e-03 8.8323489948511857e-02 1.7002291945051820e-01 1.4797630504009299e-02 1.7884988965386872e-02 2.1369741255999893e-02 2.1010883901146957e-02 -6.1148434046405131e-02 3.1050511338867045e-02 -3.7707657666753165e-02 -1.8827642030387656e-02 -8.9442623272076666e-02 -3.9646671640930671e-03 2.6823810675596020e-02 -1.8355277577735037e-02 2.2035097885877764e-02 -1.4389022466339359e-02 -4.1372306679221538e-03 -3.8123326215984465e-02 1.3230052217342816e-02 8.3683180743406999e-02 5.1043348952636125e-02 -1.1197610201012689e-02 6.8822263793751450e-03 -6.3544570863612648e-02 1.1224035401836563e+00 1.8830631884201601e+00 7.2106338748712906e-01 1.5824386031564888e+00 -5.8694328843271748e-03 -5.5780057447526170e-02 -2.6121513759325428e+00 1.0916049186192499e+01 -1.2121454859141452e+00 7.7575763598599456e-01 -8.2162582097176262e-01 -3.2959013663679287e-02 -3.9894253350666173e+00 -4.4306302051385638e-02 3.8586598162779318e-02 2.0766278033697572e-02 1.1814654008672057e-02 -2.9384405609216069e-02 -3.3205830688543880e-02 1.1011785438599375e-02 -5.0380128430173921e-02 8.1512072571695071e-02 1.8435932448143366e-01 2.4747453731424063e-02 1.7104286314868183e-02 -2.3977660701950176e-02 3.1190825039021097e-02 -1.1033347832128504e-02 4.9915771305912321e-02 -3.2277679516314751e-02 8.6387030540811760e-02 6.4398641222803019e-02 1.0918604633066631e-01 -1.7141990343912883e-01 -5.4151329062579315e-02 -7.5494063479050744e-03 4.6496540978731238e-02 1.5202503252604443e-02 6.6745842504147279e-03 8.3711674345507692e-03 -1.3706867012640767e-01 1.1469330931990553e-01 2.0381306975690079e-02 -6.5685877917022073e-02 4.0914798558133736e-04 3.9147527969486673e-03 -6.9788130209067822e-02 -2.0914757320230598e-02 -1.6265979262296004e-03 -4.4626043734775744e-02 3.0411966126668018e-02 -7.9767384417857023e-02 3.8315104941521336e-02 5.6271893380294875e-02 -5.7824927744657070e-02 -3.1409346394380158e-02 -2.8795421937368448e-02 1.7744724778835930e-01 7.1296318576898499e-02 2.2207061428340558e-01 6.9587267521353802e-03 -1.4160354374361611e-02 -9.7949247943995843e-03 6.9016260718775160e-02 -1.7199261137701510e-02 2.0506698513675625e-01 3.7054747125639498e-02 -1.7785716103109162e-01 4.2013141449293023e-02 -1.9400631760108131e-02 9.1981994472133538e-03 1.0233800706386109e-01 -4.9698029305966784e-03 1.0577184910772891e-03 -2.5569974380417049e-01 -1.2605246324660130e-01 -1.1614992818687497e-02 -9.1253294102732058e-02 -3.0166897960605482e-02 -3.2279115740916256e-02 -2.5901674661178237e-02 -1.6787045245077101e-02 -7.9812976919482415e-02 -2.2059560435189515e-02 3.0255622730468557e-02 -5.1410127516346937e-02 -7.6635355522220117e-02 -6.7235950432517622e-03 -6.9056599118928863e-02 -8.9844860069007049e-02 -2.4144538958615858e+00 1.1594832874096332e-01 -3.5095166273990708e-01 -1.1947789429979627e-01 -8.2900708798129585e-01 3.4044451333768144e-01 -1.1839548504515642e+00 5.0807004079916895e-02 -5.0479584404003452e-01 -2.5804189191088145e-01 1.3395879023030266e-01 -6.2505125518539789e-02 -8.0026884205282811e-02 1.0936436934291827e-01 -1.5833783572536708e-01 1.3408529155249793e-01 -1.0334231843450919e-01 2.1578179882563026e-01 1.3990002883349306e-01 5.1054663593917693e-02 3.6174613566247515e-02 -1.8665923641404544e-01 7.2026723906785994e-02 6.3773048451202324e-02 3.5598541090568592e-02 -1.6496720789327735e-02 5.8051070284714401e-02 2.4562906617527136e-02 8.4905943265301209e-02 1.5547403006737090e-01 6.1183074468067922e-02 2.8806272334137351e-02 -3.8981210303978830e-04 1.9591276059969118e-02 3.1182367139066185e-02 -7.1357803628625260e-03 1.5398515164392712e-01 -4.1757719327300873e-02 -2.6725142637819069e-02 4.5821313082294521e-03 -8.0137416996759539e-02 3.1320718983386966e-02 -1.4818437325935296e-02 -7.6324953790166961e-03 1.2384229757085374e-01 -6.4189800438190031e-02 1.5875874741289916e-02 1.6129579326038135e-01 2.8737621689676640e-02 -9.1896056250522884e-02 1.0753978622066021e-01 2.1112733251673510e-01 -2.4410383915851774e-01 -6.4669885316689601e-02 5.0794288495834117e-02 -6.4172913045896299e-03 7.6858299340311076e-03 1.2695908702672669e-02 2.5162978471551578e-02 -1.9861600671400415e-02 -1.4373209499920492e-02 -1.0311832206285299e-01 -1.2150713662530482e-02 -4.1271238210441707e-02 -6.0657797445695494e-02 -2.9521956608693001e-02 -2.9899702278618401e-01 -3.6985546920406911e-02 -9.8265563792808486e-02 -1.3964641330523619e-01 8.6209085919525807e-03 1.5212904280888617e-01 9.1787069675430821e-02 4.0304462701919230e-02 -1.2112235184495163e-01 -6.5480691819682413e-02 -1.2731615072646107e-01 -2.2108150060002135e-02 -7.9824589380116606e-02 1.0796332562623689e-03 1.8630158008267950e-02 2.2918432355362339e-01 2.9716841588860649e-02 -7.0825218520066860e-02 1.7493767407379474e-01 3.2304511883524206e-02 5.3677480468811031e-02 -4.8607676834686725e-03 -1.7641341472621619e-01 
      </Row>
      <Row Index="8">
        -9.1320409929291091e-01 -2.8557438266338531e-01 1.1287097585203398e-01 5.9525919511248127e-01 1.5980852484348596e-01 2.2254449740216078e+00 -3.8860331803032722e-02 -2.3745752789331687e+00 1.2791176188475974e+01 1.4686282142020781e+00 4.2608784787454512e-01 3.3358478828452109e-01 -1.0002409510814969e-01 -2.7944487856548150e-01 6.6143143268282856e-02 -4.3268944626626193e-01 2.3476015920378845e-01 -3.8877035780473429e-01 -2.0718697179211039e+00 1.1423814338203380e+00 -1.4523418111711398e-01 -5.9970837822591978e+00 2.5703039693547491e-01 -3.0403003715411825e-01 -3.6475031426134041e-01 7.7355756075862336e-01 -2.4078599457340547e-02 2.8274507032907820e-02 1.2150073773464576e-02 1.2153748341885789e-02 -1.2071378251001758e-02 -1.4915598743943242e-02 2.0786191042823532e-02 1.5605901641465624e-02 -7.7772458399589406e-02 9.2340330129958986e-03 -8.1005027889805813e-03 -1.0411944860605754e-02 8.2346737321951288e-03 3.4037339208643580e-01 -1.1872549817717394e-01 9.4690315741910967e-04 -1.5034106374163336e-01 -2.5213065555441450e-02 -9.0811917156396804e-02 -6.6389126383078423e-02 -2.2516870984829962e-02 -4.2938901905436017e-01 -7.1858806259349331e-02 1.4072707307511223e-01 3.4002465295227755e-02 2.3450538109510249e-01 7.1051400488943914e-02 4.1308804039763315e-02 1.5678703964401089e-03 2.6301904045908049e-02 1.1068967480224234e-02 -2.6055994195692406e-03 -3.2324490212152446e-02 2.0671964224761030e-02 1.1848523187868581e-03 1.7906850970544425e-02 2.0980146130813213e-02 1.1963080014600294e-02 -2.6210783891396083e-03 1.7678828642056588e-01 -5.6492225955471209e-03 4.0636419736075458e-02 -6.0084539782486679e-02 1.0131938804692098e-01 -4.6627496807691404e-02 -6.9901128318247130e-03 -1.4207866539017014e-01 2.6503377710315634e-02 -3.8726979248578652e-03 -9.9070544719475351e-03 4.6787214739003630e-02 1.5526714246371850e-01 -5.6408941927269862e-02 -5.7987129544116472e-02 -4.5893067304305507e-02 -1.1989454112350195e-02 -2.8586375023899720e-02 3.3477142200690424e-02 3.2187957249916660e-02 -1.5884552011716088e-01 3.1922394497418394e-01 -6.2995009220383730e-02 -1.7422029486064805e-02 8.8679789994789513e-03 2.3928750534638462e-03 1.9434752226792723e-01 1.3739620640600414e-02 -6.6858381616730009e-02 -1.3906414827324076e-02 -7.8827022191082119e-02 -7.3051969264289141e-02 1.0316048741660144e-02 -6.7446041263743234e-02 -1.7706732054160462e-01 -3.1677303029813086e-02 1.3504738514868248e-02 -4.4978364604718782e-02 1.5358153294900229e-02 1.1660906017307016e-01 -2.0897169387692574e-01 -3.2182887460347247e-02 -1.0841530794622521e-01 -3.0175542734661123e-02 -4.3804152141303919e-02 -5.2614199972878362e-02 -2.0197994597736593e-02 -5.9745478203796520e-01 -1.0354654827162316e-01 1.9782075802488069e-01 -4.3981597975952056e-03 1.3286693854636131e-01 1.4282397301178307e-02 -2.8786049309587017e-02 -6.1269244305817150e-04 -2.4715074882734694e-02 -2.7863571449670978e-02 5.9480997346186837e-03 -2.1932883646297904e-02 -3.0370241773168445e-03 2.2197961070340042e-02 -2.1000175759395542e-02 2.0773061823684214e-02 1.0081657906649121e-03 1.3691041026422754e-02 1.9001144189748374e-02 2.1171287012622386e-02 -1.7695684274009249e-02 9.3291167213509496e-03 -1.4778956663051547e-02 -5.1924140588079926e-02 -3.0545291694957233e-03 5.1592428989303413e-03 1.7436838541128469e-01 -4.2350443514943409e-03 1.0978926338902448e-02 1.0176082417010446e-02 4.1358437999823305e-03 3.3148132793770824e-02 1.5002133255802744e-03 1.3548271197467549e-03 8.9114481096592667e-03 1.7134582299218243e-02 -1.2006125526442091e-02 1.1267447650460290e-03 -8.8688870792063279e-03 -1.3335282267732523e-01 4.2619212578581256e-03 -1.5750745571782021e-03 -9.1875860872292839e-03 -2.1245888319007200e-02 -9.8927374506000376e-01 -2.0009396795205892e-01 -3.3041202891357724e-01 8.3235695614943184e-01 -2.2443125457927149e-01 1.1927989263667076e-01 1.0890310825960809e+00 -2.3419434056330046e+00 6.5438102535385907e+00 1.6764626380431382e+00 1.6060914658052639e-01 -2.7674285943796062e-02 6.6274087988285846e-01 5.5498677728370138e-02 -1.5829212180471708e-01 -1.1542159440302080e-01 2.0801700046395100e-01 -1.2480490180765554e-02 2.2406572541317615e-02 -1.6030254678969369e-01 -4.3989648947575066e-02 -7.7717652158462783e-02 -1.2186780151589349e-01 1.0448172693679803e-01 -1.1147731722450593e-02 -4.0217462097604968e-02 7.3884681693231369e-02 3.1600834289072566e-02 1.4938434726983196e-03 1.7319806842684235e-02 1.8686005464089606e-02 1.2075661857939220e-01 1.1716425406915387e-01 3.5137088677389405e-02 -9.9753400855150637e-02 -5.6870448187387040e-03 1.1599437906587034e-02 -1.1697772120192351e-02 9.7291050917736932e-02 -9.0751412508153773e-03 2.2067642737404886e-03 8.5120068790074790e-02 1.1905795417167034e-02 2.7444548621802858e-02 -4.4535900558807684e-02 -9.6998177808990445e-03 -3.8227906247799481e-02 -1.3189992674892626e-02 -3.1972324892370896e-04 -5.8535087225173997e-02 1.5502467058159471e-02 -2.4159758573150419e-02 2.6472191376556976e-02 -9.2978345275049439e-03 8.8613962940257085e-02 -2.3361033803845410e-02 -2.1700461897440654e-02 -1.5566795374321962e-01 4.2383045749329051e-02 -2.6949397767224420e-01 3.0590721425411704e-01 -1.7205883283224543e-01 -7.1973189208014432e-03 -1.7396869115245789e-01 -4.2846782818402387e-03 -8.9436748211858041e-02 -1.0649853072303297e-01 5.0905778027338699e-02 3.3580411855146819e-02 9.0713708126196557e-02 -5.2640312178154194e-02 -5.5751451024202092e-02 -2.3922978517722182e-02 -3.1491306138207401e-02 -1.4111755211574961e-01 -6.0571186042316177e-02 1.1340361447516711e-01 2.0640376194962923e-03 9.9871762375888018e-02 6.9055549598865118e-03 -7.4115938766443679e-02 2.9067954207436936e-02 -2.5957309841171061e-02 -5.7516704871070481e-02 2.0048928955601897e-02 -3.6702408226480146e-02 4.5616693680026757e-02 -8.2441809135960997e-02 1.3873269359764295e-02 6.1971141425843923e-02 7.8052701255619805e-01 -1.1612842705655302e-01 5.8578316238128675e-02 2.1275000832752400e-01 9.1563614450473868e-02 -2.8682480213263228e-01 2.7502766442289772e-01 -5.5057720366158258e-01 -6.0266280152177831e-02 6.2514581596488705e-02 4.2455933526039180e-01 1.0501488951270149e-03 1.9026961192061626e-01 -9.7594347704399897e-02 3.9225718332759030e-01 -1.4148687769532803e-01 3.2294210405886814e-02 -2.2686764747010527e-01 -8.0260330630394172e-02 -5.1237683873985897e-02 -2.5199491673479191e-01 9.4811649401028708e-02 -6.9101306898055603e-03 -9.5990452707689577e-02 9.8045093907350722e-03 -1.2467162263029374e-01 1.6508089341427890e-02 3.7940229072974896e-02 1.8250411677089629e-02 1.7495097376095559e-02 -2.3939342977259415e-03 -3.8198719547846594e-02 5.9239387798994403e-03 -1.5365634087631530e-03 -2.7697368975402432e-02 1.6188301370992662e-02 5.3842871283817290e-02 -2.5733480954096086e-02 1.1219941624510343e-02 6.4792460194637747e-02 2.1681709971160881e-02 1.7906543297140032e-02 1.3266334920122969e-02 5.4679884727792567e-02 7.7396008067129429e-02 -7.4704127928051367e-03 9.3907254759997810e-02 -2.3583393741273273e-03 4.6295409296616824e-03 1.6153704716029438e-01 6.8062742114605640e-02 -1.2308558855704543e-01 3.8017745728039287e-02 3.8989408992131658e-02 -5.3816173238250276e-03 3.4855241463662812e-02 8.2818252407440229e-02 -6.3575614432506894e-02 -3.9779477573134409e-02 6.5602688943102422e-02 -3.7586753873666723e-02 -1.0448135097241606e-01 -5.3624659647559497e-02 1.2022191170054891e-01 -4.2330013121935406e-02 1.2793898913886742e-02 1.9242519075929110e-02 2.9288525782193420e-01 9.8888700634383042e-02 -2.7607809066291100e-01 7.6103769963436818e-02 -1.5432967914039608e-01 2.0949690483007499e-01 4.0144662847525936e-02 -4.9474925649277024e-02 2.5202180162990118e-01 -1.1751709675045485e-01 1.3357579430690603e-03 4.7079285790194336e-01 -2.0489896754435133e-02 1.1413091224732597e-01 1.0739068659854945e-01 9.4230585195066441e-03 -2.7299746971553795e-02 8.5604288746876644e-03 7.0736936653044105e-02 -3.7985452788396851e-02 3.4585554182456901e-03 1.2102130178440085e-02 
      </Row>
      <Row Index="9">
